-0.04738817,-0.046299867,0.06342492,-0.0023425303,0.1422312,0.010408538,-0.07477352,-0.058007102,-0.040442143,0.029513901,0.014660341,-0.035642136,0.008808084,-0.020106455,0.057020854,-0.21560565,0.0720114,0.006078099,-0.04907528,-0.05801274,0.12084216,-0.07603598,0.13949716,0.035228126,-0.102909245,0.04367766,0.02290811,0.0034981421,-0.03522776,-0.08528609,-0.047379624,-0.051003326,-0.0880474,-0.0034413908,0.12000249,-0.036895875,0.00030430456,0.042158812,0.045115698,0.063314386,-0.023442328,0.018098462,-0.05186954,0.03674069,-0.06708562,-0.063231155,-0.039176267,0.19652572,0.14627339,0.120139785,0.10958676,0.10756336,0.007536859,-0.056619972,-0.049018018,0.005756912,-0.030988118,-0.030653525,0.06546095,0.069863066,0.010559623,0.13585006,0.030024841,-0.12019767,0.0064564906,0.05020725,0.126731,-0.113566235,-0.018416418,-0.13763022,-0.04116468,-0.12564088,0.08204897,0.029943898,0.025672901,0.010406271,-0.037173122,-0.09859668,-0.08814944,-0.009289453,0.018653786,-0.040234625,0.13440756,-0.051121883,0.021396596,-0.21071582,0.17728151,0.0060613216,0.03687064,-0.17909801,0.031191844,0.0163636,0.03231377,0.0092195505,0.12672609,-0.011740363,-0.086853415,0.14819133,-0.09691189,0.06226709,0.07887739,-0.0747441,0.012452159,-0.1161911,-0.08727034,0.018120755,-0.08663657,-0.0010615971,-0.0721358,0.07394319,0.009920507,0.0781834,0.16717853,-0.00058054726,-0.012324889,0.059060283,0.009798187,0.030911578,0.07404432,-0.09799835,-0.0063810963,-0.04114043,0.14624056,0.053166155,0.1566383,0.13266236,-0.1396045,0.06806602,0.15667011,0.1636518,0.09751048,0.025849702,0.12834014,-0.04126697,0.097113624,0.12728134,0.07367863,-0.012015501,0.07336868,-0.00804001,0.16249321,0.24615954,0.12453576,0.16590662,0.052515842,0.2827757,0.12053004,0.06360405,-0.031713136,0.19864681,0.06375499,0.030098911,0.1929522,0.011252917,0.051479947,0.12750955,0.109601855,0.18697535,0.0656933,0.073858134,0.20113544,-0.030029634,-0.19051388,-0.02429237,0.06312082,0.08113742,-0.0145023605,0.1255755,0.0876641,-0.014128881,0.06575987,0.15383795,0.06514001,0.1662669,0.030503385,0.0574533,0.2179469,0.03722999,0.060734794,-0.033254568,-0.07391621,0.016559713,0.023639416,0.010507678,0.16247253,0.18760763,0.08756432,0.031994764,0.059680626,0.026323443,0.08785883,0.034999676,-0.04012498,0.068669155,-0.03064858,0.14552093,0.087022275,-0.007510377,0.17041968,-0.032458022,0.10144504,0.025598148,-0.0062891184,-0.0020904148,0.18834649,0.025681123,0.10916357,-0.05230268,0.10413859,0.06037307,0.051799335,0.090551585,0.13005267,0.047358878,0.062244434,0.19121343,0.05748784,-0.0021519696,0.09452942,0.019644225,0.022949748,0.08551125,0.02840835,0.17681107,0.0961008,0.061446972,0.077198826,0.113914564,0.10397457,-0.052025724,0.024677983,0.018129896,0.013329585,0.17535762,0.22829615,0.16335647,-0.28204212,-0.24293587,0.048891608,-0.36987332,0.16967767,-0.00038352472,0.5591202,0.40280065,-0.46323305,-0.27377987,-0.37990236,-0.005513939,0.04282566,-0.07957002,-0.13899764,0.3471253,0.5157923,0.27456066,0.23838435,0.22586796,-0.03403085,0.12252663,0.076945394,0.03098309,0.08929795,-0.06683453,0.38434952,0.44339803,-0.15834486,0.21646492,0.07121551,0.16810781,0.1026116,-0.14624326,0.14457378,0.12201093,0.342876,0.2612916,0.037271548,-0.13358097,-0.07481542,0.16991855,0.08708853,0.28108928,0.049574997,0.10887254,0.05859976,0.00010019526,-0.22156407,-0.12334067,-0.6768106,-0.28529832,0.11062411,-0.15726718,-0.19734184,0.119139396,0.20458375,-0.022082396,0.033033784,0.030967096,-0.59009343,0.038893584,-0.2206584,0.18403411,-0.024817653,-0.032013778,0.022042586,-0.08415601,-0.02469238,0.06837967,-0.057681095,-0.08531979,-0.0842606,-0.08626533,-0.024486497,0.094840094,0.15625672,0.096442096,0.12378571,-0.18601064,0.31501454,0.09212856,-0.29548886,0.0806022,-0.08023785,0.08322376,0.16965318,-0.0040077893,0.10138254,-0.10058987,-0.16655143,0.12254603,0.019057939,0.030667672,-0.3146332,0.34925824,0.04584831,0.1267637,0.27060935,-0.022467457,0.2069,-0.15644243,-0.059239298,0.11522263,0.31426582,0.35222474,0.25436968,0.15061623,0.08891109,0.090459295,0.15816271,-0.107220784,-0.084453516,0.21124281,0.3328957,0.41658515,0.530191,0.3183107,-0.30522734,-0.112703525,-0.2661088,-0.14783573,-0.3919187,-0.21512502,-0.3063581,0.2793317,0.48278248,-0.73606586,0.01870821,0.110098206,-0.18196663,-0.24905878,-0.027165642,0.021988904,-0.0025424168,-0.14342153,-0.079910934,-0.116659395,-0.036345992,-0.020188276,0.01202366,-0.18145648,0.11118992,0.064290136,0.0806903,0.0028195106,-0.030917149,0.01881345,-0.0529804,0.15968022,-0.042443562,0.06468705,0.12266141,0.10032781,-0.04040619,-0.17446017,0.10090681,0.077496976,0.031670928,0.0064741466,-0.0030038038,-0.07237833,0.026012272,0.002142134,-0.0140731195,-0.014218065,0.0005462731,-0.11734787,-0.019032404,0.098077774,0.037271313,0.036549978,0.035080224,0.077010445,-0.030080894,-0.043499257,-0.12706949,-0.10865801,-0.0770638,-0.15507229,0.02875359,0.1333077,0.099170566,-0.09320141,-0.010201781,0.026898948,-0.12409033,-0.039544865,0.047532097,-0.0467177,-0.07964522,0.008043904,-0.03821377,0.050866686,-0.001206452,0.07492965,0.0606653,0.11409739,-0.01788503,-0.040073577,-0.1606645,-0.03182058,0.014364841,0.095642716,0.11212164,0.12982172,0.12746862,-0.113546185,-0.16741318,0.0434922,-0.0069851456,-0.07341304,0.02777566,-0.060759243,-0.19327217,0.021343134,-0.06807879,0.028756535,0.019872285,-0.001962545,-0.002239627,-0.09526632,-0.091585904,-0.041299924,0.075762436,-0.07474241,0.012487218,-0.20181958,0.044425707,-0.057872094,-0.062199492,0.16863553,0.14233495,0.029493602,0.14708976,0.03341022,0.07016113,-0.19557256,-0.0043841572,-0.10216484,-0.12399949,-0.005188213,0.020301584,0.021788087,-0.014036117,-0.08975923,-0.023983456,0.08704748,0.04010148,-0.012066086,-0.42237878,0.054725017,-0.06219121,-0.093579866,0.12550622,0.10151869,-0.17167945,-0.078288056,0.022717409,-0.035243917,-0.22910744,-0.08922238,-0.1625073,-0.00392559,-0.157133,0.012422785,-0.03414408,-0.13160618,-0.10010627,-0.15071277,-0.071689494,-0.19743514,-0.044326723,-0.23811893,-0.0931402,-0.083194666,-0.14027765,-0.0982459,-0.07343179,0.13655293,-0.028867798,0.047293488,-0.20078693,-0.23460728,-0.046649646,-0.25919366,-0.107093684,-0.32807672,-0.149975,-0.074338965,0.20412529,-0.005323361,0.007106525,-0.106068686,0.12848413,-0.0012368985,-0.24270776,-0.0074597425,-0.09336813,-0.055937875,-0.23937176,-0.14912109,-0.01643206,0.0035762722,-0.1463742,0.05535453,-0.08356805,0.008868267,-0.12387337,0.00174624,-0.106030114,0.043760292,-0.19087622,-0.22568397,-0.049687173,-0.10943538,-0.119118005,-0.16827,-0.088235795,0.03501778,0.031611558,-0.2066759,-0.06319192,-0.14294516,-0.036830734,0.053826783,-0.0436949,-0.12160323,-0.16976799,-0.056079388,-0.051597007,0.117091596,-0.15804777,-0.03812447,-0.15881611,0.071278594,-0.1218359,-0.21056785,-0.042121895,-0.118796535,-0.22628771,-0.1419281,-0.053272627,-0.08340581,-0.2029847,0.05989079,-0.212085,-0.109790824,0.021665318,-0.19092493,0.04334167,-0.1290656,-0.24154362,-0.14956161,-0.10963464,-0.28097048,-0.2829059,-0.2112827,-0.021521501,-0.038952656,0.061167635,-0.21372333,-0.14719759,-0.19719765,-0.06860649,-0.10416169,-0.26343253,-0.31625023,-0.3266942,0.0077680675,0.45462054,-0.6827202,0.39427456,0.20230752,-0.15098561,0.08229658,0.0731568,0.15843281,0.39893803,-0.76987296,0.566425,-0.7580973,-0.55021596,-0.023803454,-0.030918553,-0.1692744,-0.07428917,-0.087572485,-0.026478149,0.22535363,-0.82759595,-0.53487533,0.1057707,-0.36483577,-0.36096868,-0.339704,-0.27392447,-0.14266771,-0.38893515,-0.33889955,-0.39572054,-0.17984304,-0.1754535,-0.13049513,-0.11992326,-0.25480345,-0.25247172,-0.4639125,-0.21421497,-0.3357529,-0.1644413,-0.1638723,-0.05533294,-0.04941249,0.3410597,0.1254546,-0.10015611,0.18174694,-0.050218277,-0.2940487,-0.06899153,-0.3602123,0.013902816,-0.2628375,0.11545532,-0.0718361,-0.13409787,-0.11114225,0.12509526,-0.17687014,-0.053065095,-0.1275796,-0.26919904,-0.22729531,-0.06919162,0.07363499,-0.19507614,0.007917907,-0.12015841,-0.099766284,-0.38299495,-0.30309123,-0.046911776,-0.48702347,-0.47364125,-0.18898912,0.053251646,-0.08150319,-0.19491057,-0.33423194,-0.3363296,-0.18508145,-0.17465629,-0.059286833,0.16806048,-0.20580764,-0.05664282,0.031493213,0.38569173,-0.15648417,-0.07668254,-0.28558007,-0.08473738,-0.018644156,-0.15776578,-0.0918711,0.011281781,-0.12554088,-0.4856294,-0.6765156,-0.5194242,-0.6102584,-0.18488543,-0.31223702,-0.07308281,-0.12412668,-0.021402994,-0.41437274,-0.5838827,-0.63251173,0.609379,-0.7563576,0.44603282,0.15062809,0.16897546,0.09656401,0.23508446,0.17308258,0.2966373,-0.71921104,0.57833993,1.0059798,0.0037690345,0.18080387,-0.011091141,-0.021970041,0.06750864,0.19556046,0.08933659,0.005606219,0.037713066,0.14494722,-0.0042948383,0.1292718,0.039888266,0.044233285,0.1568987,0.15652917,0.12034254,0.18470746,0.17403586,0.11541588,0.046503283,0.024838166,0.077694006,0.09582361,0.22744833,0.13990769,0.0642365,0.076801315,0.075136304,0.13250414,0.14421448,0.11121047,0.06745071,0.10367572,0.0441097,0.060221963,0.0064885267,-0.1042663,0.0031673445,-0.02152719,0.034532078,0.17145993,0.18211976,0.06796072,0.11336277,-0.0049953014,0.027355071,0.123194546,0.0920407,0.048652563,0.20106162,-0.033044074,0.20115286,0.14607462,0.04126952,0.05506299,0.017014718,0.09352751,0.08152595,0.08414375,0.0503286,0.041241072,0.07118864,0.21140945,0.048603844,0.058879275,0.13692549,0.22566979,0.1207539,0.06854632,0.1846499,-0.027115053,0.076418385,0.051226333,0.15461582,0.112353586,0.06780476,0.14327884,0.16352722,0.16197926,-0.01017836,0.077726364,0.10545331,0.12725544,0.14422534,0.042025704,-0.043268863,0.039519828,0.102419995,0.039774194,0.12995231,0.023105692,0.1990834,0.095938146,0.036267385,0.0762531,0.17292958,0.003066433,0.060026772,0.30118874,-0.0025251193,0.18793881,0.04037316,0.11081026,0.1397671,0.08329723,0.24940342,0.12646322,0.13864774,0.012104715,0.0319521,0.102037065,0.051165383,0.08986077,0.015020412,0.10748617,0.117362134,0.06291293,0.19248818,0.20494884,-0.006578104,-0.030489938,-0.018842032,0.050935805,0.016073214,0.051042438,-0.0033697465,0.054141734,-0.042887136,0.14490725,-0.0027857048,0.0037587811,0.008346488,-0.056073703,-0.10449738,-0.029187951,-0.026776742,-0.016032336,0.028504582,-0.059140533,-0.039871603,0.08114069,0.09389345,-0.060901094,0.055736445,-0.08974163,-0.007630091,-0.008174089,0.0077340114,0.02427262,0.00023968564,0.021038335,-0.1114533,0.06002439,0.11710836,0.074159086,0.004976769,0.011433524,-0.052830834,-0.0028472822,-0.010314996,-0.010947962,0.03671299,0.095224045,0.04920108,0.011525691,0.0065955822,-0.026089383,0.004015291,-0.033255156,0.03413787,0.0223929,-0.019842297,-0.08234293,0.06441068,-0.056185704,0.14214142,0.11609842,0.008513481,0.056207363,-0.034554288,-0.042278755,-0.063072555,0.04597706,-0.030960249,-0.0862803,0.015941627,0.054745886,0.120295726,0.01154803,0.0078451,-0.062359437,0.04143933,-0.057625107,0.025652787,0.033415396,0.008755523,0.040080875,0.04232698,0.058679663,-0.013671386,0.029967891,-0.026189797,0.13319226,-0.10453009,-0.09514184,-0.04307709,0.04259707,-0.032682363,0.079447925,0.00610525,0.00042635264,0.0005275387,-0.07534184,0.03194818,-0.07014611,-0.04844032,-0.046636604,-0.0688009,0.006589739,-0.04608439,0.0070483605,0.035945464,0.016609553,-0.05168995,-0.0011957538,0.022842553,0.01780054,-0.05843951,0.0954864,0.08241113,-0.037028104,0.17589569,0.038896125,0.062419042,-0.05752793,-0.16573548,0.038520005,0.025725273,0.00549869,-0.006206665,-0.038971595,-0.57439536,0.033263374,0.21033941,0.11992719,-0.090985246,0.061938386,0.013168549,0.06713981,0.18622814,-0.029885083,-0.4614339,0.038874287,-0.02817048,-0.056302097,0.09818472,0.09316978,0.072757766,0.0264358,-0.045934644,0.044432864,-0.17401323,-0.18296297,0.1183626,-0.04106171,-0.1474832,-0.0135297775,0.01518203,0.09273916,0.15164825,0.050594095,0.111203246,-0.032932602,0.07186355,-0.060847413,-0.024156658,0.025652038,-0.10379028,-0.07776438,-0.008293455,0.05208414,0.019821152,-0.03361612,-0.09983013,0.215794,-0.036480058,-0.013562038,0.07517879,0.067441255,0.104858436,-0.07724289,-0.14408824,0.20442131,-0.032942258,0.013438777,0.009798207,0.11194693,-0.0009831045,-0.05003644,0.084916,0.08635769,-0.011247256,-0.0269734,0.1930005,0.042094093,0.04689933,0.035966754,-0.08543051,0.115315095,-0.07669966,-0.014498323,-0.07326319,0.035440758,-0.10753629,-0.064689435,0.11421792,0.11572268,0.16033734,0.024796892,-0.021389667,0.0488326,0.049920607,-0.006667646,-0.11827762,0.04052289,0.16019185,0.06717498,0.12716196,0.0053555965,0.1718419,-0.029264843,0.054518722,-0.15637264,0.0855273,0.064798035,-0.0350431,0.033467628,0.06982874,0.11538538,0.028321192,0.074683115,-0.14620462,0.09163809,0.023863386,-0.022997128,-0.02081088,0.032649398,-0.03686558,-0.12562358,0.04335997,0.10210961,-0.5117755,-0.0485384,0.12300379,-0.07634334,0.24954784,-0.00460663,0.2013274,0.25519973,0.16263829,-0.0281851,-0.50479317,-0.91953176,-0.032051012,0.1150149,0.053680822,0.01574536,0.05437908,0.045497864,-0.07708575,-0.052168924,0.055875015,0.25703183,0.035479896,-0.009653772,-0.0645843,-0.03761433,0.051457915,-0.17616685,-0.035161752,-0.1396035,0.09461795,-0.030795628,0.04390073,-0.014891563,0.08607737,-0.058213584,-0.111569755,0.01936517,0.14162229,0.016685728,-0.008665625,-0.24151875,-0.012392624,-0.12372824,0.006842857,0.14840925,-0.20589377,-0.036442228,-0.10246018,0.0077844043,-0.015267389,0.12936793,0.12864994,-0.06140166,-0.009840789,0.09431003,0.012720579,-0.20299456,0.11282887,0.15254347,0.20114374,0.091232575,-0.086671285,-0.0035320455,0.05774561,-0.18582031,-0.0052276948,0.0104954755,0.06452846,-0.016525423,0.061598,0.03610017,-0.01974316,-0.11085717,0.06154092,-0.08993978,0.037719335,0.05745177,-0.0486656,-0.03301348,-0.05205467,-0.10895109,0.08382835,-0.058822777,-0.026742382,0.0440278,0.0059927125,0.03214587,0.014787702,0.010273067,0.035964813,0.005267553,0.18560028,0.05234445,0.16299778,-0.098475136,0.1550156,-0.2503622,0.18613057,-0.20290105,0.0752874,0.045719102,0.09192457,0.094579555,-0.026734022,0.08521008,0.14824942,-0.08611927,-0.08671292,0.07700389,-0.04227222,-0.011923037,-0.051381495,-0.15895547,0.03762942,-0.12044905,-0.11602498,-0.008673427,-0.06085083,-0.14445333,-0.016238436,0.098268196,0.0076287375,0.043409567,0.108129,-0.033238728,-0.14931479,0.08218932,0.09248811,0.103808165,0.12217661,0.041951794,-0.023861516,0.010465069,0.17696792,0.035214227,0.1277418,0.26319095,-0.06828136,-0.16598138,-0.078844644,0.10945736,0.12114245,-0.015516484,0.20075297,0.18973455,0.03146496,0.12299975,0.112566486,0.015535123,0.13338934,0.015776524,-0.07591399,0.28095424,0.16786425,0.16248295,0.15967822,0.11696768,0.1975252,0.11835411,0.010107341,0.18271758,-0.031195158,0.14187093,0.11295762,0.048329707,0.0836372,0.046797972,-0.063063055,0.12336753,0.21423146,0.06986162,0.24148494,-0.04777196,-0.14641376,-0.0829406,-0.08531802,0.096154936,0.034460388,-0.088174134,0.063616805,0.075949304,0.0010253342,0.19329162,0.03773169,0.12754653,0.07261637,0.014863599,0.19210166,0.14582454,0.08277948,0.049485315,-0.061597716,-0.047608778,0.12156627,0.16863795,0.11100029,0.2660145,0.09255178,0.14540757,-0.06583444,0.14012103,-0.021279475,-0.0064959168,-0.07182468,0.040746793,0.05940267,0.13961166,0.12898386,-0.03203661,0.19372134,-0.009557556,0.036951583,-0.1245343,0.022952495,0.2681838,0.14358826,-0.04206197,0.10732421,0.220014,0.108237274,0.06476773,0.1506177,0.05024321,0.07830091,0.06826054,0.003828861,0.15164654,0.1084501,0.19430399,0.07066742,-0.124118984,-0.03422267,0.17417224,0.13358074,0.12212789,0.11213092,0.06777304,0.061580937,0.22760001,0.1257014,-0.043225214,-0.041836407,0.01964107,-0.06560949,0.2114169,0.15661265,0.21365666,0.20427884,-0.0041575935,-0.0412872,0.009037795,0.089965686,-0.03058045,0.5817057,0.48198295,-0.3366399,-0.36606467,-0.50234014,-0.17331737,-0.08320192,-0.011742768,-0.21151182,0.4016488,0.5605451,0.2177574,0.2296262,0.0013757533,-0.09705956,0.087307245,0.02400775,0.03488008,0.20202771,-0.10634941,0.27739537,0.28761247,-0.06500284,0.30897424,0.016442785,0.33506575,0.14131083,0.17596044,0.16123307,0.10665945,0.33029857,0.1750161,-0.024807071,-0.25155666,0.051438503,0.22304605,0.023924015,0.29515463,0.21769463,0.31808218,0.2689357,0.12663099,-0.08261773,-0.2279412,-0.55246854,0.1511426,0.0049756537,-0.12454864,-0.19224124,0.147856,0.1264459,0.13431981,0.069371894,-0.18832907,-0.43696132,-0.18694076,-0.019232482,0.010368802,0.039324656,0.03498513,-0.02639341,0.1827004,0.21971853,-0.04498479,-0.10425554,-0.16246808,0.01995646,-0.10405806,-0.03817433,0.13729587,0.014592695,0.0974856,0.17844467,0.0455441,-0.09208072,-0.045826633,-0.052140616,-0.013441251,0.020000493,0.1533036,-0.0013180856,-0.04811933,-0.021289751,-0.075089365,0.13750081,-0.036297362,0.001914752,-0.04987673,-0.4324408,0.18569103,-0.05323964,0.10641123,-0.086616345,-0.11464639,0.06487413,0.22495918,0.10193469,0.21947548,0.25761342,0.37468904,0.2553191,0.13197051,0.013525293,-0.03393139,0.19245724,-0.032837622,-0.12536243,0.27358878,0.2960052,0.41487682,0.60205656,0.3732516,-0.21562672,-0.15857603,-0.42217615,-0.14560525,-0.38967022,-0.36396834,-0.25727054,0.29191446,0.58606666,-0.8047245,0.03833682,0.033009008,0.13114902,0.16206159,0.1475182,0.0011619492,-0.106626086,0.07455379,0.10699748,0.13113473,-0.04465829,-0.10058221,-0.08997021,0.06921791,-0.122799985,-0.3213318,-0.025764326,-0.12050142,-0.039714042,-0.05243221,0.07351636,-0.083827816,-0.039155938,-0.19034727,-0.34614632,-0.11878972,0.122429326,0.032627653,-0.03700426,-0.17736253,-0.20393445,-0.15755162,-0.14781155,0.09719929,0.055543125,-0.11046723,-0.060135804,0.12580238,0.044021565,0.15807271,0.024838224,-0.16131915,-0.16104524,-0.0744069,-0.14107402,-0.14823812,-0.07812525,0.13680828,0.17338197,0.035503555,-0.0027903472,-0.0015201692,-0.04037284,-0.2244649,0.067075014,0.06384704,0.044989012,-0.12856852,-0.04509068,-0.077221885,-0.042735804,-0.09093889,-0.03189782,-0.35406646,0.035618346,0.15961656,-0.07144182,-0.23371944,-0.06947588,-0.1864855,-0.04163617,0.118158355,0.061530363,-0.19008736,0.02062836,-0.062906265,-0.0709374,-0.10584982,-0.050157197,-0.020481614,0.12641983,-0.07394081,0.113409206,-0.007921065,-0.008735406,-0.18615969,0.14190741,-0.05555382,-0.08796166,-0.11683811,0.034324042,0.05249611,-0.063230425,0.074210644,0.1021093,-0.022887932,-0.17759009,0.15934059,-0.03493928,-0.13192774,-0.024749072,-0.26681507,-0.10444953,-0.294,-0.2669582,-0.06792183,-0.18588176,-0.071640775,-0.09059777,0.24272127,-0.0060437215,0.041966416,0.07162112,-0.013636386,-0.029013412,0.13266936,-0.017556004,0.025488831,-0.018247673,-0.15417302,0.008472153,0.011997387,0.5358044,-0.053859558,0.0071804877,0.18065971,-0.19289361,-0.041416194,-0.0063472195,0.15056846,0.069107026,-0.0041476106,0.096682735,0.059703432,0.049992554,0.012960331,0.04542385,-0.05301766,0.113067165,0.17189546,0.2143881,0.18295954,0.075804606,0.22920291,0.15084746,0.21291855,0.16264695,0.050481964,0.11137576,0.15137139,0.08992524,0.07288114,0.28433135,-0.155887,0.15879658,0.06001582,-0.015586475,0.1589658,0.2546117,0.23315479,0.2299282,-0.025914704,-0.23806919,-0.0046249605,0.1627446,0.30954298,0.0976571,-0.0033913811,0.10743132,0.13808708,0.10680727,0.31556883,0.08336202,0.14839092,0.07838463,0.10180792,0.026985371,-0.123692654,0.10854138,0.17033051,0.07387099,-0.016933428,0.18461843,0.13707712,0.09649628,0.2895451,-0.1635285,0.04490432,-0.0865262,0.057971593,0.109116025,0.034688223,0.028325321,0.1856176,-0.0018476577,0.03744795,0.073950484,-0.10360224,0.05734184,-0.07761322,0.088036805,0.034020696,0.13287158,0.11096145,0.13452998,0.026087794,0.25164104,0.10865709,0.23537605,0.118024364,0.09986857,0.23607998,0.011028898,0.13253058,0.09773354,0.15804118,0.10812747,0.20066397,0.20428236,-0.07842592,-0.0643129,0.23648869,0.030644935,0.15224224,0.2105861,0.09975946,0.09726444,0.050971314,0.17133033,-0.25850824,0.035006505,0.008275014,0.054261237,0.13063449,0.14857532,0.2717706,0.10799476,0.07933446,0.07009639,-0.2132466,0.08964075,-0.032977104,-0.31921533,0.48503107,-0.54936606,-0.35764778,0.06531171,-0.0003578604,-0.15762082,-0.3229623,-0.42697662,0.17901257,-0.24929653,0.27779883,0.3955631,-0.10249537,0.12305242,0.06285262,-0.051707253,-0.013610495,0.0978371,-0.25606185,0.2674936,0.54673135,-0.1765112,0.29067007,0.18521045,0.22426936,0.06923139,0.043462086,0.12644501,0.087060295,0.1727809,0.19383691,0.111060336,-0.19446489,0.055179622,0.28469488,0.12257652,0.24861996,0.21988478,0.41722858,0.30051088,0.08691015,-0.031474758,-0.4056235,-0.4348413,-0.08604115,0.0073889997,-0.012454937,-0.038739964,0.3493432,0.13645162,0.08753962,-0.018371183,0.14199664,-0.32501197,-0.039616518,-0.026387025,-0.11837957,0.0054792142,0.14910649,0.03536997,-0.015330024,0.19957218,0.25668448,-0.19644798,-0.18620303,0.04374588,-0.27498573,-0.053020723,0.11640203,0.19830653,0.12744623,0.13186263,0.11414519,0.109356366,0.049893323,-0.32036346,-0.13749006,0.004065632,0.17646344,0.20255335,0.062443066,0.1621973,-0.03593224,-0.23579572,-0.15016367,0.090830125,-0.29118964,-0.6348657,0.3483571,-0.13545918,0.07674127,0.14981394,-0.028140862,0.17243303,0.09373399,-0.17046931,0.28123873,0.4329969,0.48506552,0.23354076,0.20727156,0.17656204,0.11517663,0.21517804,-0.18095928,-0.13466972,0.081666544,0.25896445,0.38949275,-0.25738278,0.33647656,-0.49286082,-0.39048415,-0.3390468,-0.024130145,-0.49234438,-0.49393344,-0.58812237,0.28268495,-0.3262283,0.83987623,0.028059706,0.014624324,0.010883817,0.15347096,0.13633953,0.084398754,0.061515793,0.13230549,0.111057475,0.16841261,0.009203987,-0.175903,-0.07116314,0.08214077,0.061818503,-0.02815196,0.014048547,0.13865976,-0.05100356,-0.017406,-0.027852466,-0.23797601,-0.13143429,-0.17446288,-0.12370983,-0.09589885,0.0563553,0.017902436,-0.005666589,-0.02964009,-0.06346004,-0.18549342,-0.018669473,0.094583526,0.19206579,-0.14720573,0.127428,0.0061341734,0.03132927,0.17467642,0.079951674,-0.14872298,-0.03358376,-0.22068761,0.018116757,-0.09619546,-0.06197043,-0.009777384,-0.04061991,-0.01742391,0.020464564,-0.09992811,0.16745833,-0.10076435,-0.0075617116,0.13101989,0.054441236,0.03995039,0.024125485,-0.21061324,0.040625267,0.06258198,0.10498728,-0.033031896,0.03906119,0.09027939,0.030519208,0.08380254,0.11194101,0.026803656,0.12469145,0.20114158,0.06396397,-0.11879297,0.140613,-0.014284874,-0.043534666,-0.004157532,0.10483972,0.053253766,0.024754234,-0.080779836,-0.13253137,0.021288428,-0.12712781,0.098300524,0.072754204,0.05714025,-0.13751325,-0.07455586,-0.022286337,-0.0510811,0.17779188,0.0036964854,0.09037881,0.05208971,-0.012768482,-0.055489402,0.021342987,-0.017731702,-0.12944293,0.0011904247,-0.088047594,-0.18486921,-0.08310325,-0.056625087,-0.019524375,0.054537572,-0.049624532,0.11120977,0.02186309,0.07082375,-0.0045757066,0.009210418,0.14479665,0.052273244,-0.06539834,-0.06645693,0.1161036,0.05389733,-0.02135365,-0.03130334,0.3463818,-0.052257713,0.124983035,0.21386865,-0.13607883,0.06676769,0.0538423,0.06813402,0.03326996,0.0054054987,0.030391166,0.022167217,0.040046923,0.13501349,0.15848352,0.048572358,0.07094295,0.116230525,0.28205484,0.031291448,-0.009845971,0.21886684,0.13484095,0.05121792,0.15968253,0.13227187,0.12096674,0.17953953,0.20192501,-0.0058470895,0.17974724,0.0548207,0.14117178,0.10491709,-0.04725972,0.043558598,0.10601499,0.14931934,0.08811422,0.17410725,-0.015967477,0.2942668,-0.008868087,0.06435787,-0.08388234,0.0043725967,0.07414549,0.10207169,0.1338741,0.06862378,0.14471163,0.06438403,0.008176903,0.16962415,-0.096038125,-0.09610307,0.15492085,0.04990802,0.10671977,0.022929888,0.15341456,0.031775177,-0.060867347,0.2056827,-0.11839593,-0.09617284,0.06942309,0.04339878,0.14004,-0.011008614,0.061154075,0.12572798,0.06468327,-0.037521727,0.061850198,-0.08877005,0.0622532,0.09891547,0.016202645,0.11929463,0.018861651,0.03061259,0.0897588,0.027874848,-0.112051524,0.11039706,0.04409735,0.15594685,0.16468239,0.25405717,-0.028345734,0.18111403,0.05107091,-0.013926351,0.051884472,-0.16302377,0.14764607,-0.16935119,0.12368185,0.1801746,-0.14845024,0.13273159,0.094997495,0.053654294,0.047957353,0.05108068,0.09662155,0.059933845,-0.020611033,-0.0045701307,0.12754999,0.2114328,0.15892138,-0.07720471,0.09427506,0.12468007,0.25167683,0.115105815,0.23164679,0.028918061,0.579302,0.5268288,-0.30462596,-0.25984675,0.100029655,-0.06475361,0.048868038,-0.5014585,-0.41392455,0.28533077,0.5768172,0.274133,0.1717947,0.041745137,0.024186749,0.06585468,0.13179341,-0.047915913,0.14172412,-0.19667526,0.37684664,0.36116856,-0.020622116,0.18735257,0.096238025,0.22529355,0.10003625,-0.051100887,0.22354841,-0.11052639,-0.022042545,0.07533308,-0.38099688,0.05106015,0.18607393,0.1371041,-0.07764137,0.20221567,-0.1369637,0.19147745,0.1814766,0.06971416,0.03871525,-0.24947417,0.14647345,0.10649249,0.17783242,-0.17658813,-0.04074719,0.09790922,-0.16706038,-0.11918565,-0.15565675,-0.3673835,-0.3188542,0.04654911,0.31152213,-0.12594222,0.14546894,-0.12243216,-0.0059876456,0.027342912,0.21861424,0.046897486,0.14727856,-0.28824237,0.27328962,-0.031031918,0.0074379025,0.075341575,0.1612891,0.13796656,-0.05998838,-0.21216574,0.14350538,0.026478361,-0.43841618,0.1526071,-0.18137704,0.18360144,0.22647071,0.16643697,-0.010711929,0.07758097,0.13168195,0.09521468,0.089383766,-0.4577752,-0.34068978,0.1830238,0.19198516,0.1199371,0.11895872,-0.19881257,-0.07223702,0.067831405,-0.07447309,0.18315592,0.24217343,0.40923694,0.25359,0.17219988,0.16349256,0.11919561,0.099290594,0.06237222,-0.06100909,0.24076892,0.12219074,0.3775213,0.5942575,0.36200875,-0.051359516,-0.0063678715,-0.37297428,-0.13904229,-0.26795182,-0.34900358,-0.3206937,0.25261575,0.56788486,-0.82740396,0.031412605,0.15694104,0.10619143,0.13192932,0.11416031,0.05166488,0.11431459,0.14107026,0.049640417,0.03589641,-0.033005733,-0.07990361,-0.022603942,0.059008915,-0.14258395,-0.04847029,-0.03080926,-0.018255036,0.09631013,-0.051436283,0.04491011,-0.01373953,-0.02733324,-0.19853963,-0.05429511,-0.075848766,0.054404914,0.021079306,-0.047574162,0.022012051,-0.037273712,0.0681293,-0.010199586,0.09928953,-0.02494664,0.051614355,-0.05188617,0.16064468,0.06765955,0.024831409,0.014951663,-0.026543802,-0.05073371,-0.08090224,-0.0017181067,-0.10082812,-0.05937695,0.12499886,0.10048412,-0.1470954,0.07621422,0.068379655,-0.029732833,-0.040914148,0.08074151,0.07616383,0.0523936,-0.051929772,0.012068932,-0.06967777,0.025901062,-0.03032716,0.02682369,-0.0951404,-0.004813991,0.06527152,-0.0020666798,-0.08607367,-0.03437232,-0.030905746,-0.011605033,0.25303766,0.07045299,-0.057091877,-0.08421256,-0.07105542,-0.03969614,-0.00529727,-0.044724356,0.016305698,0.065827206,-0.033099826,0.037056938,0.119548835,0.025203487,0.05699173,0.048722003,0.05995509,0.05760543,-0.043906584,0.10615515,0.0068099145,-0.08079256,0.04193603,0.024302078,0.110503204,-0.03132863,0.119982556,0.102602854,0.024042835,0.042641614,-0.00574086,-0.1597031,-0.06659522,-0.17120425,-0.035963643,-0.0032463586,-0.01916418,0.0048483647,0.18753809,-0.04550355,0.048489675,0.09839184,0.07282236,0.06283335,0.097593285,0.04369479,0.0011020139,0.005569585,-0.13795252,0.024780937,0.00673298,0.53111714,-0.042957433,-0.1247145,0.059910595,-0.14579591,-0.01916372,0.082041524,0.0021509835,-0.071485855,-0.010983662,0.06011797,0.15799356,0.12116378,-0.104188755,-0.06063669,0.03215373,-0.004626207,0.029006463,0.22833417,0.16665648,0.15825868,-0.018372357,0.14901416,0.1408861,0.041768707,-0.032222934,0.15410076,0.06865622,0.10603981,-0.118541695,0.14616318,-0.07489693,0.16242069,0.12371906,0.11506319,0.1170951,0.04682309,0.17410181,0.07131986,0.13220368,0.0018547857,0.09740939,0.020877626,0.2541357,0.20436022,0.1583799,0.1343515,0.20596957,0.074353494,0.19247708,0.19364883,0.16189311,0.19197994,0.22365707,0.2479492,-0.088691585,0.064669415,0.2128605,0.17480476,-0.0021511589,0.22928287,0.110456005,0.1996378,0.033222534,-0.06919474,0.10545467,0.060486313,0.10279283,0.12384438,0.09138863,0.10715811,0.23733382,0.11981595,0.082285516,0.08732432,0.039620657,0.008896425,-0.022537204,0.15760083,0.1351204,0.21368554,-0.13061023,-0.0067886016,0.068992354,0.15639773,0.14301865,0.17987636,0.024273867,0.074858405,0.24791571,0.13134477,0.07184899,0.16630246,0.06909325,0.12910993,0.24753858,0.16892584,0.013600775,0.03759608,0.0648477,0.1427535,0.17537552,0.08650857,0.033983104,-0.101870455,-0.08589974,0.19537692,0.0150810825,-0.04684203,0.044787068,-0.076153114,0.14149354,0.21375678,0.2429016,-0.116101,0.10576026,0.05089713,-0.048927594,0.10438877,-0.0056086984,0.6091981,0.4036068,-0.5288477,-0.3586606,-0.029971853,-0.035150185,-0.337606,-0.5506462,-0.6133883,0.3140765,0.55372596,0.21260482,0.23472112,-0.0600991,-0.06399067,0.11747953,-0.012701033,-0.218422,-0.004130111,-0.12995753,0.30948097,0.34088513,-0.16413713,0.122686416,0.21093524,-0.02401286,0.16144575,0.20608981,-0.0059809037,0.1826319,0.15401857,0.10953911,-0.061217286,-0.20380268,0.050917014,0.20753525,0.06435829,0.11307873,0.16439337,0.20042135,0.0055627474,0.07834574,-0.06875523,-0.12705551,-0.36310914,-0.09498339,0.114555605,-0.19903912,-0.033229746,0.10867468,-0.0135657685,-0.05363752,-0.09941505,0.009260403,-0.22403577,-0.087414026,0.13062786,0.035925884,-0.07663492,0.01181805,-0.03410094,-0.19343652,0.2593042,0.2936219,-0.0362722,-0.22809362,0.1455592,-0.11152541,-0.11766455,0.116649225,0.26125348,0.09888042,-0.06293167,0.09682805,0.03380063,0.003589937,-0.26633102,0.10078754,-0.00468226,0.17338626,0.18190722,0.19568126,0.16189805,-0.09239904,-0.023109501,0.022549355,0.008778531,-0.2987201,-0.52337354,0.34923083,0.0139148785,0.20458695,0.16968693,-0.10788108,0.11145892,0.19924,0.08582146,0.21628076,0.28865674,0.3463656,0.22234476,0.22851294,0.17642945,0.19821027,0.18175678,0.08209808,0.15099388,0.2318451,0.22171634,0.26596063,0.66294754,0.3184297,-0.6814624,-0.26507738,-0.36662254,-0.07561898,-0.4044766,-0.532979,-0.5023199,0.25338644,0.6077338,-0.85149556,0.037662763,-0.17837463,0.019964265,0.05806347,-0.18071808,0.04772029,-0.09137582,-0.035096325,-0.0042352895,-0.19175306,-0.049812153,0.26643777,-0.016194819,0.056456514,-0.004976398,0.1620159,-0.08960284,0.025672058,0.008501386,0.04220386,-0.044578925,-0.07579743,-0.066019855,0.119043574,0.016998148,0.006221026,0.09798317,0.08883958,0.015395744,0.05318275,0.082100965,0.14128947,0.028272895,-0.005927238,0.07180896,-0.028349508,-0.07163402,-0.18880354,-0.07113359,0.01876542,-0.118711,0.102880046,0.03976828,0.047402803,-0.034156855,0.11716152,0.039058242,-0.09103287,-0.06601703,0.07128042,0.023080815,-0.041740518,-0.0027876683,0.0649187,-0.012708167,-0.074572615,-0.07563228,-0.016392522,0.06253806,0.109086014,0.046036765,0.04494732,-0.14350475,0.1383106,-0.058872335,-0.12595487,0.039488785,0.04343675,0.050419092,-0.0390841,0.22090012,-0.32268175,0.06438477,-0.037968576,0.12403504,0.028580425,0.015257531,-0.024032738,0.009162359,0.14909892,0.07337004,-0.03548875,-0.040599193,0.04254045,-0.016279886,0.049398784,-0.027706593,-0.0010377968,-0.086540535,-0.04768035,-0.11585628,-0.015013333,0.07926828,0.03757939,-0.1495029,0.02932948,0.10560746,-0.16007169,-0.043645848,0.033413604,-0.024921866,0.19013937,0.1733092,0.044787835,0.11542912,0.033859894,0.0373761,0.011605732,0.03233408,-0.14915104,0.009378651,-0.17125992,-0.1612298,-0.010178386,-0.06275331,-0.038851857,-0.0025734266,0.087784484,0.0028785928,0.047106057,-0.0003335261,-0.018535115,-0.31621948,-0.023624506,0.06727304,-0.12077059,-0.04772939,-0.15278879,0.07660108,0.06378901,-0.058217548,0.020162607,-0.1337549,-0.11946511,-0.10044588,-0.10475094,-0.012954308,-0.02566131,-0.2536193,-0.12855928,-0.43088034,-0.33461753,-0.42998827,-0.17544681,-0.05201475,-0.2129948,-0.28881606,-0.14607713,-0.0063777515,-0.16811678,-0.2271614,-0.057718843,-0.37113425,-0.1385344,-0.11127016,-0.16106082,-0.049657606,-0.070896715,-0.111958824,0.05114144,-0.11477595,-0.17189373,-0.0054024444,-0.09297489,-0.1233789,0.06196657,-0.31985477,-0.13882773,-0.16104616,-0.07894327,0.13214627,-0.07271807,-0.09364978,-0.35339293,0.0633384,-0.16818188,0.021380402,-0.034166425,0.00202079,0.00015460262,-0.13876158,-0.006986053,-0.3594511,0.06070171,-4.725647e-05,-0.33208564,-0.037881516,0.27220365,-0.056782,-0.2107418,-0.07808599,-0.20949736,0.019717425,-0.1733709,0.0944362,-0.09925357,-0.1798403,-0.113158226,-0.06777605,0.073618375,-0.18600336,0.060191594,-0.16191551,-0.14454183,-0.15446456,-0.07032245,-0.1190114,-0.21655327,-0.11453759,0.21732023,-0.29966885,-0.26567435,-0.038580384,-0.015022885,-0.20973195,-0.10396603,-0.0894507,-0.11718837,0.010304258,0.049299143,-0.14979312,-0.18125944,-0.045668848,-0.38945633,-0.21677512,-0.042080935,-0.08836907,0.016368356,-0.40123394,-0.11053855,-0.11141365,0.0050494852,-0.15465765,-0.31660336,-0.31150055,-0.2901954,-0.060689278,0.068549864,-0.009436916,0.032747876,-0.21584332,0.019880647,0.6111361,-0.82481486,0.20563553,0.09971558,0.023260899,-0.023245951,-0.05150507,0.16888848,0.26030514,-0.8122241,0.617894,-0.7301866,-0.71024626,-0.27843302,-0.033447728,-0.2678013,-0.32658452,0.031084368,-0.42815223,-0.17426683,-0.771569,-0.6740458,-0.1809604,-0.52939117,0.1253514,-0.21187049,-0.37985933,-0.5762652,-0.1460667,-0.1679548,-0.38729665,-0.2131829,-0.14157364,0.12473215,-0.19189176,-0.106196485,-0.0648208,-0.06355754,-0.25617623,-0.33560485,0.015762175,-0.24618022,0.20160502,-0.00085077423,0.2352034,-0.008378776,0.008376432,0.018378684,0.19070037,-0.15044655,-0.08722444,-0.27017987,-0.14099279,-0.11530256,0.15360484,-0.19037795,-0.3358654,-0.28217143,-0.21372373,-0.47747913,-0.12775879,0.040109456,-0.1818175,-0.33102152,-0.2164077,0.07321864,-0.17629264,0.012149937,-0.013670165,-0.24966985,-0.36062828,-0.30277982,-0.2521985,0.32364866,-0.2789506,-0.11018558,0.10756985,-0.029718565,-0.10679376,-0.159905,0.014932293,0.07860348,0.08182532,0.07065336,0.014381655,-0.19511268,-0.224993,0.037596226,0.33185023,-0.36714512,-0.27326035,-0.12354781,-0.30602705,0.13934924,0.2028679,-0.053815298,-0.216312,-0.12322624,-0.6290763,-0.6693306,-0.621006,-0.46917388,-0.053565584,0.19583862,-0.16554935,0.13648367,0.22884652,-0.058351073,-0.34784585,-0.717829,0.6866489,-0.896493,0.20101827,-0.0989938,0.10083343,-0.068024166,0.15065148,0.20138617,0.0021064316,0.019491915,0.7401844,1.0778631
