-0.04738817,-0.09947448,0.051944256,-0.0075479858,0.1422129,0.030222015,-0.11521184,-0.124713905,-0.031492516,0.03979274,0.014660341,-0.020748107,-0.020362925,-0.04435088,0.0869157,-0.17492405,0.12766941,0.063273884,-0.103532426,-0.07266396,0.15261564,-0.13464256,0.20043877,0.10618283,-0.123667225,0.017223425,-0.005136659,-0.03425459,0.0040382002,-0.10425547,-0.014846492,-0.07593408,-0.09535034,-0.02891267,0.15241596,-0.072398975,-0.04178516,0.021633204,-0.01657622,0.06202127,-0.052457295,0.07774907,-0.07713503,0.08942641,-0.02491004,-0.061325185,0.015729887,0.21468207,0.14253446,0.19230229,0.16359673,0.11611841,-0.033022888,0.04043892,-0.06831994,-0.033618692,-0.091459885,-0.030123571,0.105874605,0.047774512,0.010559623,0.1806351,0.017603422,-0.109081954,0.019966668,0.039648984,0.19398825,-0.13070937,-0.005253743,-0.14911652,-0.012445304,-0.20827079,0.12162237,0.051079676,0.018877465,-0.0010365413,-0.047362115,-0.18336964,-0.15294304,-0.011420505,-0.056233764,-0.098421745,0.15814307,-0.07326144,-0.0037973528,-0.20447208,0.17382185,-0.014477568,0.03538575,-0.22476631,-0.0013144534,-0.032495487,0.033572674,-0.01230997,0.14473534,-0.016334852,-0.08133375,0.1262046,-0.11773094,0.20371383,0.093129896,-0.040205825,0.0895304,-0.11551667,-0.12975858,0.064337984,-0.09950269,0.034755573,-0.11275788,0.030925326,0.009920507,0.14190248,0.1987168,-0.041165754,-0.037187103,0.091474436,0.044159144,0.037279133,0.11228259,-0.0939053,-0.0063810963,-0.04114043,0.15027468,0.032728717,0.25731528,0.13580762,-0.15053202,0.052564338,0.2312503,0.16659072,0.14812604,0.025849702,0.17389512,-0.13320549,0.105062656,0.16483985,0.08327031,-0.06692653,0.031461515,-0.019087235,0.17026466,0.30679223,0.1808494,0.21846788,0.005655815,0.3504048,0.11422264,0.1338015,-0.07855876,0.25774658,0.083370164,0.11214307,0.2417868,-0.05055819,0.076492,0.19215818,0.1482825,0.20675093,0.053501233,0.051940594,0.18563323,-0.12654942,-0.18898779,0.06326984,0.073623635,0.032350466,-0.05400093,0.13622853,0.035656072,-0.05478409,0.072026916,0.14383161,0.09214741,0.15097433,0.030871978,0.09287939,0.25690293,0.06094335,0.049201097,-0.058626477,-0.11133603,0.016559713,-0.039711542,0.023063792,0.17994736,0.12548083,0.05432809,-0.04495582,0.044033155,0.042097464,0.11199254,0.016250936,-0.07078036,0.024072448,-0.00967527,0.1651938,0.14154261,-0.046092577,0.22513522,-0.02294375,0.0911834,0.035882346,-0.0035660185,-0.014359958,0.2634768,-0.013615482,0.09090759,-0.11018501,0.12121045,0.106361754,0.05832124,0.05728014,0.13975911,0.040890835,-0.0037227964,0.25047523,0.07982045,-0.08182564,0.12605466,0.031699125,-0.0075478237,0.08912404,-0.045282014,0.18799491,0.03920625,0.073939525,0.044013005,0.17256846,0.08109761,-0.03959449,0.13475512,0.018129896,-0.017899966,0.19778724,0.20347293,0.116582066,-0.37607458,-0.41505334,0.031674895,-0.5583452,0.11244445,-0.00038352472,0.59284234,0.4567037,-0.5988114,-0.37864873,-0.50318754,0.045577925,0.13137428,-0.077564575,-0.18388155,0.4765852,0.55467266,0.35680935,0.29764667,0.2718582,0.0029988287,0.042213887,0.15146847,0.068454094,0.08763727,0.038470734,0.550504,0.60446167,-0.19122452,0.39455262,0.082055956,0.14451408,0.11714194,-0.17994952,0.17731953,0.16856673,0.44361046,0.41203973,0.07179485,-0.12601659,-0.0722357,0.19239932,0.09779925,0.34569344,0.06194271,0.15516077,-0.057723507,-0.036479097,-0.29229364,-0.121556565,-0.9798013,-0.4128882,0.1755443,-0.20636055,-0.2710633,0.18272558,0.30266747,0.048373997,0.107970886,0.08078656,-0.87809294,0.08860384,-0.40058774,0.24251072,0.03415825,-0.040188994,0.0949922,-0.0569691,-0.07577201,0.17494829,-0.051032763,-0.06946141,-0.23438922,-0.02227817,-0.024607617,0.10362478,0.12775816,0.06939806,0.121849574,-0.13434188,0.3343558,0.13443388,-0.30230063,0.08798073,-0.04765469,0.017054267,0.22668342,0.03215521,0.060854588,-0.09429568,-0.19693764,0.13590355,0.041171264,0.09544585,-0.35761523,0.41104573,0.04041152,0.15628952,0.31750143,0.025114166,0.2731192,-0.33640718,-0.06573813,0.023309441,0.4128469,0.45989093,0.31123263,0.24136601,0.16611375,0.14431669,0.12472992,-0.29858983,-0.1354636,0.18839939,0.53787506,0.56819594,0.57066816,0.46824116,-0.21643902,-0.075049445,-0.31889555,-0.191983,-0.41473648,-0.11530438,-0.4348327,0.44273877,0.5202355,-0.7877696,0.01870821,0.12556317,-0.19936499,-0.30125025,-0.02959745,0.046111207,-0.012596917,-0.18732399,-0.1311525,-0.14997734,-0.036345992,-0.099887535,0.047005773,-0.19742662,0.12810807,0.06290075,0.09654802,0.037022956,-0.043828163,0.002673805,-0.07039727,0.19068068,-0.04276313,0.10508495,0.10739428,0.10726525,-0.06560704,-0.2594289,0.13948905,0.103961356,0.040141683,-0.0015088983,-0.042578645,-0.08779298,0.030676886,0.0019631847,0.02212577,0.012349973,0.020302735,-0.12310427,-0.057480235,0.10803939,0.058379646,0.042194605,0.04014984,0.056306038,-0.0566668,-0.04095572,-0.13358213,-0.17073159,-0.09959751,-0.2531196,0.05055436,0.18821321,0.15673758,-0.11152983,-0.02012316,0.022224873,-0.15660845,-0.06022707,0.047532097,-0.058731403,-0.106613316,-0.018620513,-0.02583466,0.11717531,-0.017397849,0.08916998,0.06998631,0.10479538,-0.004797129,-0.02171077,-0.20331952,-0.09296798,0.017930353,0.115765914,0.09348224,0.0872041,0.21598843,-0.15136369,-0.1993315,0.038499262,0.052705687,-0.07260092,0.044036884,-0.08520532,-0.2514635,0.00071207527,-0.110757105,-0.01830202,0.040344503,0.028402105,0.048875067,-0.11187522,-0.09851153,-0.038839936,0.115471266,-0.0681871,-0.01937811,-0.32824582,0.042106442,-0.07805619,-0.10614561,0.18106762,0.16748413,0.03843583,0.20613594,0.047311135,0.09870434,-0.16275641,-0.0043841572,-0.0891567,-0.1510203,0.0034807227,0.003876872,0.054655805,0.0032202695,-0.1460894,-0.020386672,0.103367075,0.04010148,-0.012066086,-0.4958456,0.049233712,-0.036211796,-0.04729543,0.09186973,0.1484715,-0.24879129,-0.06941548,0.039300293,-0.035243917,-0.20890246,-0.13843232,-0.2287443,-0.053986587,-0.14825207,0.017990055,-0.02184883,-0.088163346,-0.061027806,-0.15152164,-0.03305818,-0.20900637,-0.015937973,-0.23545098,-0.08926838,-0.09955436,-0.14582902,-0.08588249,-0.07436553,0.14344801,0.012692074,0.0651743,-0.24616876,-0.29514435,-0.036714904,-0.27988893,-0.09391936,-0.3662165,-0.14254056,-0.07541474,0.18544383,0.06992484,-0.041718245,-0.05277123,0.16066802,0.03686039,-0.2359842,-0.01573461,-0.114831395,-0.029559929,-0.36689886,-0.1672401,0.0032955464,0.07630702,-0.16781439,0.0336284,-0.10812788,0.01400259,-0.14913915,0.00174624,-0.17593661,0.095638245,-0.27720407,-0.26164573,-0.094172046,-0.17674492,-0.1893518,-0.23206133,-0.114771225,0.096814714,0.05186869,-0.21911567,-0.09324101,-0.15963419,-0.020890165,0.12146046,-0.043542728,-0.19818304,-0.15905583,-0.016553925,-0.023126232,0.17022325,-0.16292721,-0.06366887,-0.1652539,0.09572554,-0.18041272,-0.22562285,-0.040437896,-0.11602818,-0.28551304,-0.12603132,0.009178735,-0.058204304,-0.1756091,0.11817878,-0.2331808,-0.1359804,0.009260874,-0.15016714,0.066533215,-0.078734614,-0.35168934,-0.1956004,-0.12688936,-0.3976701,-0.34134248,-0.31582513,0.016885849,-0.038952656,0.18272422,-0.2952526,-0.11029612,-0.21138236,-0.0648403,-0.11011513,-0.30835032,-0.5032541,-0.45729208,0.0077680675,0.4942508,-0.85249585,0.42745247,0.13718545,-0.17785896,0.087971285,0.09183283,0.18002155,0.42692143,-1.0203379,0.6186369,-0.9867282,-0.68152934,-0.03991328,-0.08779162,-0.17932029,-0.044790767,-0.1559511,-0.016658701,0.22178371,-1.1391667,-0.73517853,0.13071424,-0.40761015,-0.42496973,-0.45259756,-0.26340175,-0.1935771,-0.7266602,-0.4551881,-0.38266945,-0.18212865,-0.2588975,-0.32417408,-0.1393222,-0.25692573,-0.29120892,-0.7000853,-0.26203167,-0.40179375,-0.18469644,-0.15033972,-0.17950085,-0.10275016,0.42610803,0.01298228,-0.10010257,0.20300822,-0.111268304,-0.24951674,-0.12043561,-0.35749567,0.017492278,-0.5599445,0.10036417,-0.100884095,-0.078277744,-0.10103253,0.16056968,-0.16682029,-0.13771807,-0.31376544,-0.31376916,-0.19173943,-0.030751174,-0.00660513,-0.2665312,-0.06545229,-0.19673324,-0.115606144,-0.45947617,-0.24548338,-0.07929498,-0.44097915,-0.58183736,-0.29798874,0.014393703,-0.22592497,-0.3969169,-0.39303774,-0.4548728,-0.28781492,-0.18166924,-0.12727481,0.17455171,-0.14149857,-0.067921184,-0.039613746,0.56531566,-0.040185202,-0.112641715,-0.30821016,0.03735088,-0.07327763,-0.25744167,-0.17583314,0.0013631238,-0.10663417,-0.6141606,-0.8532745,-0.73054355,-0.75085646,-0.25838143,-0.31004858,-0.055284016,-0.23081459,-0.102518044,-0.43541694,-0.7748449,-0.8140323,0.6910728,-0.91398835,0.6507732,0.12592337,0.13736644,0.06096507,0.27844524,0.10878589,0.3649963,-0.95471305,0.61501527,1.1396062,0.0037690345,0.20095696,-0.021165341,-0.061781112,0.06292144,0.2294925,0.12462626,-0.069841,0.009864824,0.106738925,-0.0042948383,0.12735501,0.01835941,-0.024254866,0.17628635,0.19235834,0.13226207,0.19277719,0.15271176,0.092732295,-0.0011751843,0.024963718,0.096656434,0.1097933,0.21960324,0.14165689,0.06362802,0.043562442,0.089233145,0.15208498,0.18005797,0.11239787,0.08946739,0.10017818,0.0289729,0.06600086,-0.026393536,-0.13407962,-0.05345833,-0.055089284,0.057900853,0.22242758,0.18055922,0.10689803,0.14845015,0.017923668,0.037002604,0.13874139,0.09103702,0.07444705,0.22287205,-0.06153578,0.22920428,0.17483938,0.022419624,0.04601009,-0.01444388,0.12943147,0.083575286,0.094861664,0.0503286,0.09104242,0.08207568,0.24940155,0.040280282,0.06694902,0.17698623,0.26369825,0.14449614,0.089807406,0.24231245,0.006292191,0.10447879,0.06535835,0.18789095,0.10424281,0.091498524,0.1369968,0.21357688,0.20016074,-0.009633961,0.067358404,0.1342976,0.1412121,0.17241669,0.064188294,-0.04272394,0.07916809,0.083616376,0.026833761,0.15479764,0.024685914,0.27573082,0.08711472,0.011346955,0.07504566,0.22283742,-0.039344825,0.03620538,0.34374216,-0.011165828,0.25170386,0.07526136,0.1294301,0.15821709,0.11177068,0.32433695,0.11833268,0.18246968,-0.00072849,0.0319521,0.17233916,0.0091437455,0.08296406,0.0009947194,0.1834632,0.12587391,0.035637055,0.2322728,0.18293642,-0.006578104,-0.030489938,-0.1532487,0.10680696,0.09683324,0.00034320226,-0.050081175,0.048049606,-0.08761352,0.15108635,-0.041914374,0.0037587811,0.013624384,-0.07444174,-0.1274061,-0.024645437,-0.06071336,-0.027573617,-0.0062939655,-0.15327021,-0.12303439,0.049743302,0.12873079,-0.112909086,0.104080394,-0.11954824,-0.045966763,0.014741898,0.0040597357,0.057272844,0.029950928,0.0008420769,-0.2493689,0.092463106,0.07581341,0.056888275,0.042604752,-0.0043221624,-0.07634437,-0.034141865,-0.07507226,-0.03552765,0.0813319,0.119133174,-0.045034643,0.019835783,-0.010292915,-0.0038307707,-0.024565335,-0.031533007,0.008201677,0.011514762,-0.045742873,-0.15972023,0.090177864,-0.07117528,0.19976157,0.14503403,0.03125671,0.055506356,-0.058741894,-0.042278755,-0.15796593,0.09333136,-0.008589228,-0.20159632,-0.058018588,0.13269456,0.11467761,-0.034188725,-0.026885742,-0.039263528,0.052820012,-0.08943585,0.06484467,0.08819367,0.009181609,0.035649076,0.15486361,0.08703485,-0.031774115,0.068855606,0.005675017,0.1471473,-0.15853181,-0.082434565,-0.05216872,-0.0032160438,-0.08177657,0.17278348,0.00827551,-0.040659357,0.019098908,-0.07468962,0.010385733,-0.05393047,-0.102566026,-0.038960483,-0.09251803,0.0013178929,-0.03448882,-0.02807,0.050221782,0.009402264,-0.10662502,-0.01865046,-0.014143905,0.00288029,-0.08761599,0.14186502,0.05318937,-0.037028104,0.19374323,0.008563925,0.08381138,-0.13676304,-0.20298404,0.06370116,-0.039982837,-0.030943217,-0.08278813,-0.038971595,-0.6311716,-0.01618399,0.26076794,0.09906309,-0.19464496,0.021539653,0.04670872,0.089004256,0.23687573,-0.038162187,-0.51329917,0.036459778,-0.038286254,-0.028090207,0.08482635,0.11006618,0.074435726,0.0568043,-0.098597914,0.022885416,-0.25148463,-0.2756453,0.13049439,-0.07528599,-0.20655218,0.017834038,0.061852887,0.087978564,0.14962722,0.065205365,0.20363215,-0.07221287,0.050792813,-0.10538532,-0.03487448,0.08388922,-0.12825425,-0.065022066,-0.020115338,0.009751246,0.011629101,-0.022153711,-0.080333866,0.2345121,-0.09724166,0.050308377,0.1487026,-0.0032452538,0.14176181,-0.15527944,-0.14294823,0.23192659,-0.05012833,-0.11617178,-0.025984481,0.036720097,0.033136033,-0.02919629,0.1401907,0.07346095,-0.040075686,-0.0053806123,0.16978389,0.042077735,0.048777726,-0.0066743433,-0.15373938,0.201531,-0.022206046,0.017224409,-0.007853072,0.021518674,-0.14015362,-0.030373547,0.07547022,0.1118101,0.15080155,0.07422063,0.010929569,0.05665309,-0.03332872,0.039622422,-0.10561391,0.07652645,0.2747493,0.20431133,0.12302234,-0.07058763,0.15508817,-0.0013676828,0.13526572,-0.16043963,0.15871496,0.11709016,0.00178784,0.008221601,0.1652613,0.13644853,-0.03850443,0.062000345,-0.13685168,0.079467505,0.040907655,0.04293011,-0.0032077627,0.050454956,0.047544625,-0.086952925,0.095236756,0.13919596,-0.56716204,-0.032100547,0.21999612,-0.056505967,0.23532404,-0.09854708,0.23025794,0.23847774,0.16158277,0.070874155,-0.55629516,-1.2047051,-0.032051012,0.15480205,0.04159918,0.018264301,0.019966157,0.051551543,-0.08415622,-0.07193908,0.055233855,0.27635756,0.035479896,-0.0043190857,-0.0790025,-0.02408164,0.08010165,-0.22595084,-0.07036962,-0.18079337,0.12053566,-0.009084821,0.032783426,-0.04182922,0.093111664,-0.058452852,-0.12778893,0.037720907,0.22554182,0.024494456,-0.003678409,-0.2898621,-0.005921144,-0.12678921,0.0044887387,0.20913008,-0.26195303,-0.045832757,-0.11216752,0.0017185514,-0.05487825,0.13443866,0.17145896,-0.07441083,-0.0012931383,0.101881325,-0.003610411,-0.2509825,0.12443652,0.19143587,0.25776938,0.124109134,-0.14803007,-0.016737627,0.074703634,-0.2253433,-0.0024082707,-0.0027472028,0.069516286,-0.013635624,0.054317255,0.043640357,-0.01974316,-0.15561499,0.06381934,-0.083966956,0.041790187,0.07355783,-0.068958364,-0.05079361,-0.055920146,-0.12005059,0.07492439,-0.12859559,-0.03434355,0.055701807,0.025297813,0.053567845,0.04170916,0.040700175,0.078850634,0.003401637,0.2146167,0.06620402,0.22733726,-0.10399828,0.20678559,-0.2967421,0.1932251,-0.24119619,0.082930915,0.054317385,0.09391543,0.13190292,-0.00876167,0.12679747,0.18686913,-0.128132,-0.09953182,0.09749522,-0.051235877,-0.03599495,-0.08134116,-0.2044774,0.07393835,-0.1238535,-0.13100031,0.015396265,-0.06030828,-0.18742768,0.01923041,0.13073263,0.0076287375,0.053545184,0.07950736,-0.048564862,-0.18239106,0.12446943,0.12232488,0.11840639,0.15157726,0.075931236,-0.023861516,0.010465069,0.13533346,0.07612832,0.14431007,0.31472826,-0.06225291,-0.20278858,-0.1297479,0.10067683,0.16652685,-0.015516484,0.24866933,0.25958112,0.03515389,0.14071722,0.08315328,0.014914665,0.17945668,-0.014601368,-0.13738109,0.35856435,0.19186834,0.15067127,0.24984497,0.09345139,0.24241567,0.14274731,-0.001403161,0.20049943,-0.107529655,0.17328237,0.102078736,0.0883262,0.058043048,0.001528395,-0.1222536,0.14576669,0.30949992,0.09357535,0.32382885,-0.08702049,-0.17788678,-0.115292326,-0.1562394,0.146966,0.07965371,-0.12688828,0.06826872,0.059306502,-0.020209963,0.22089463,-0.0028911522,0.055736817,0.10795929,-0.03466391,0.20529078,0.19258961,0.131571,0.07940275,-0.08689548,-0.047608778,0.088022135,0.20617628,0.14734404,0.37511998,0.10076801,0.19563761,-0.08045517,0.08561887,-0.045730233,-0.008878157,-0.10195828,0.04018857,0.07699339,0.15801801,0.19450538,-0.018714655,0.3369822,-0.014119315,-0.00039020483,-0.18315785,0.004259352,0.38360578,0.13635604,-0.054685112,0.13378642,0.30586693,0.122270264,0.087113656,0.17160583,0.060154423,0.06420794,0.06270871,0.0059035406,0.18310523,0.12881126,0.23828912,0.013584062,-0.1415934,-0.06801974,0.15906903,0.16891144,0.13216002,0.13043484,0.075517535,0.037803065,0.28695256,0.12766956,-0.08817636,-0.049336337,0.01964107,-0.085628696,0.15558587,0.21103583,0.26957226,0.28455535,0.033916287,-0.011271378,0.029138349,0.006814103,-0.03058045,0.62467724,0.6468362,-0.3435219,-0.34027976,-0.61582875,-0.20220548,-0.15926062,0.12015949,-0.24196675,0.5278397,0.607499,0.31642726,0.29675055,-0.06824177,-0.096415125,0.12305235,0.027774049,0.086592376,0.34454784,-0.107529745,0.30662572,0.4343364,-0.033836946,0.3051047,-0.017939871,0.37608343,0.22383012,0.21727663,0.2182072,0.1152104,0.3974278,0.15492168,0.0019422524,-0.3752217,-0.03232666,0.18074116,-0.027710022,0.26702735,0.29754356,0.44830623,0.30621827,0.19010875,-0.012528607,-0.22155632,-0.6844728,0.26854426,-0.016160183,-0.11463556,-0.19878058,0.22338837,0.0998542,0.21206313,0.09930342,-0.18738878,-0.39552444,-0.13695604,0.019025223,-0.03716767,0.047347564,0.074687935,-0.042146232,0.32686093,0.31575227,-0.060392525,-0.12772034,-0.14973262,-0.08907599,-0.042463697,-0.082878575,0.2010805,0.0605209,0.08096836,0.2645646,0.026828736,-0.26401564,-0.09694397,0.03792614,0.016423725,0.120655425,0.17510282,-0.06439924,-0.07129922,0.014777906,-0.117346704,0.14027673,-0.09920019,-0.016825875,-0.033092316,-0.40828422,0.10410051,-0.061745435,0.051604316,-0.07154653,-0.13135022,0.09445393,0.28747046,0.09984966,0.24169615,0.3347357,0.47645974,0.26141614,0.080487005,0.026759459,-0.074669525,0.2237072,-0.029898204,-0.16375592,0.28637713,0.36494756,0.5014452,0.6488209,0.5019233,-0.27211097,-0.20699812,-0.49135083,-0.1286212,-0.45828944,-0.4153052,-0.21985611,0.36764863,0.62922144,-0.8797218,0.03833682,0.1081491,0.15875818,0.18987475,0.13622543,0.012913334,-0.12835018,0.06261217,0.14421189,0.17826675,-0.04465829,-0.10186711,-0.10706708,0.07970096,-0.09270381,-0.35135972,-0.058088172,-0.11636209,0.004363926,-0.083002426,0.056798056,-0.12308087,-0.019588385,-0.19837494,-0.3740235,-0.13018505,0.1488082,0.034030285,-0.016727284,-0.18719783,-0.21266785,-0.19747533,-0.19290526,0.1273197,0.10197554,-0.13504328,-0.04611544,0.14461364,0.053599305,0.20687406,0.021009691,-0.18631873,-0.17469203,-0.095293894,-0.17600128,-0.16915129,-0.06245121,0.1508089,0.21335515,0.023652622,0.008616477,-0.0394478,-0.029071135,-0.21109733,0.09865189,0.054543275,0.00926704,-0.14888947,-0.04572322,-0.072905764,-0.042735804,-0.093841806,-0.07959423,-0.3682534,0.053842586,0.18894725,-0.07253312,-0.28757378,-0.058115486,-0.24037993,-0.0378234,0.083678834,0.0784258,-0.25979185,0.019571822,-0.049315687,-0.08673766,-0.12398564,-0.019392686,-0.03229994,0.12647831,-0.054713406,0.12388633,0.022066055,0.010320768,-0.19573213,0.16708732,-0.102681234,-0.12213416,-0.15697522,0.069001734,0.05117852,-0.07520254,0.052400563,0.13840821,-0.02274546,-0.1909782,0.16449462,-0.05105274,-0.11920772,-0.048221175,-0.29697287,-0.13805029,-0.3345924,-0.31799796,-0.070199534,-0.16585606,-0.06655808,-0.10790423,0.2885689,-0.0060437215,0.03904289,0.061031133,-0.0126282815,-0.05909079,0.16736902,0.00299596,0.018185617,0.0068042222,-0.13241248,0.008472153,0.011997387,0.59619045,-0.06455701,0.037601303,0.2378614,-0.20914058,-0.026364073,0.020968242,0.17697756,0.107872255,-0.0041476106,0.08692415,0.07135544,0.006479948,-0.019091805,0.049346264,-0.06256152,0.14748806,0.22548045,0.3040063,0.18247826,0.07327562,0.2762657,0.2192109,0.19413942,0.20291509,0.0023026706,0.12489951,0.17305247,0.048266966,0.090543695,0.3309943,-0.17386033,0.18598285,0.046709426,-0.073573045,0.15295623,0.31997195,0.2689279,0.29464647,-0.046500012,-0.2900027,0.03641913,0.2003302,0.37654725,0.11323707,-0.01832949,0.11253253,0.18019664,0.13905664,0.36873057,0.04888765,0.16287495,0.120961614,0.15197244,0.09424761,-0.1479284,0.11697079,0.22527276,0.08868794,-0.016933428,0.24039623,0.19489253,0.13827235,0.3757577,-0.2107202,0.051661737,-0.14975204,0.013338079,0.13296063,0.04028029,0.03228996,0.19710237,-0.013616232,-0.0063471654,0.11657821,-0.07586979,0.05263532,-0.1128236,0.06073981,0.059425026,0.11842705,0.11734568,0.18818969,0.0034647062,0.27401325,0.20417616,0.25967833,0.09660935,0.111682944,0.24825895,0.01607022,0.15634494,0.086030796,0.18065865,0.15623571,0.21645282,0.26085392,-0.10490463,-0.09030929,0.29964557,0.02644867,0.20638748,0.2431392,0.1358864,0.09550063,0.0019160537,0.19266471,-0.30825433,0.102286085,0.008275014,0.008431851,0.11566404,0.21339826,0.29034725,0.19374287,0.10517015,0.08228761,-0.24019668,0.13647856,-0.032977104,-0.32256338,0.7136067,-0.63934493,-0.3551156,0.086016364,0.06384713,-0.102702424,-0.35687923,-0.5179852,0.3295013,-0.25330132,0.3846407,0.51253766,-0.14045632,0.15966389,0.08538191,-0.06243695,-0.05418057,0.1953614,-0.34328535,0.4457633,0.80370075,-0.24006054,0.35740167,0.28175804,0.21919824,0.055955634,0.0153656835,0.13032909,0.11035852,0.16169779,0.2555955,0.15968546,-0.2594084,0.10563456,0.35001257,0.18604869,0.21840739,0.28290975,0.5155608,0.3541805,0.12982123,0.0075526033,-0.45936504,-0.3348224,-0.07684341,0.077480026,-0.015220771,-0.040963348,0.47286752,0.17164528,0.046018768,-0.009528987,0.15776987,-0.33374947,0.0104275765,-0.012363633,-0.19187665,0.06479773,0.17329878,0.027626995,-0.015603258,0.2630776,0.2999884,-0.17272577,-0.20029421,0.061841033,-0.36332193,-0.07357383,0.08909682,0.21716693,0.1290067,0.19341093,0.18983002,0.15709287,-0.000848521,-0.4007281,-0.17079133,-0.052482165,0.1924964,0.26778868,0.13614027,0.22478627,-0.06651914,-0.25882244,-0.13923565,0.117346,-0.3381598,-0.758188,0.42398518,-0.18291788,0.12257651,0.30136028,-0.10000304,0.23204988,0.13705873,-0.24323489,0.38597265,0.5333857,0.7178292,0.33193544,0.22907495,0.22263648,0.12942302,0.31703213,-0.14045523,-0.1626405,0.10297341,0.39481053,0.5214823,-0.26077527,0.52688926,-0.54149604,-0.51113504,-0.45967567,0.005687206,-0.61330825,-0.6544963,-0.69945395,0.43743455,-0.33035034,1.0094194,0.028059706,0.0018039793,0.030270405,0.17586802,0.19381964,0.1122093,0.07861926,0.13466468,0.118225716,0.20922993,0.009203987,-0.21578297,-0.09017665,0.010368143,0.08167348,-0.033231635,0.0037936221,0.1938372,-0.07049514,-0.042360064,-0.10139854,-0.23631984,-0.16240925,-0.14775422,-0.09902922,-0.10879011,0.03883211,-0.015583891,-0.026417717,0.009827633,-0.04006972,-0.25007132,-0.021339148,0.08822754,0.26065272,-0.1984097,0.15426087,0.009218574,0.025706116,0.17512445,0.099367894,-0.16455297,-0.06289695,-0.27210674,0.030551052,-0.09058234,-0.050800107,-0.058885664,-0.04067795,-0.10475328,0.050457552,-0.1372703,0.25703108,-0.08161088,-0.0597982,0.15333231,-0.002623212,0.090809315,0.022834726,-0.20901152,0.040625267,0.1270391,0.06455155,0.0020267144,0.041809842,0.10945037,0.023008218,0.09382315,0.115613796,0.036221817,0.13884206,0.22511265,0.065287456,-0.16381547,0.1983648,0.009981729,-0.10775588,0.030052304,0.108865395,0.07566356,0.054821204,-0.062635705,-0.18370849,0.008710376,-0.17329895,0.11348192,0.16229801,0.0817274,-0.16671576,-0.103644,0.03837678,-0.07253922,0.27334112,-0.014621352,0.109327406,0.07428713,0.017478494,-0.12487852,0.03586394,-0.07081435,-0.14659494,0.01284751,-0.11820272,-0.26062843,-0.060040135,-0.1251286,-0.0077503044,0.104924746,-0.035806034,0.11650054,0.02186309,0.08767959,-0.027070513,0.05244098,0.14466041,0.06976606,-0.107913695,-0.12236935,0.108748466,0.07015108,-0.02135365,-0.03130334,0.3279058,-0.09207021,0.14305972,0.18366984,-0.18890814,0.095072515,0.0384568,0.08594649,0.006775069,0.0054054987,-0.0083730295,-0.035355613,-0.030590976,0.18878305,0.19279025,0.07216815,0.096641935,0.13253686,0.30325142,0.020752775,0.0040204576,0.28365216,0.18021768,0.03774128,0.18658276,0.14407511,0.12892094,0.19422606,0.22058485,-0.10244834,0.12009789,0.07986841,0.19799262,0.10047356,-0.03637315,0.023819575,0.08977985,0.14295112,0.0034043132,0.19815147,-0.015152206,0.3283547,0.006372106,-0.013893484,-0.22193141,0.010718979,0.08752107,0.13274653,0.1455245,0.06985797,0.13393374,0.096803784,-0.036267176,0.23757342,-0.22241254,-0.16680455,0.1616266,0.052018628,0.16369225,0.022929888,0.18598604,0.021825772,-0.03568377,0.20491482,-0.11052816,-0.10189799,0.049725227,0.00028742335,0.10310216,-0.017804181,0.052201476,0.13641259,0.034944832,-0.01713903,0.088572145,-0.10172415,0.094962835,0.1406108,0.023619225,0.19664204,0.036179546,0.029783089,0.1250401,0.043423764,-0.17358936,0.12607273,0.037688285,0.16762593,0.23603107,0.2390949,0.030863822,0.22370094,-0.03842598,-0.048821777,-0.03134639,-0.17803158,0.16758704,-0.1952245,0.20282334,0.2763034,-0.21831724,0.11958864,0.08239054,0.040737912,0.08108642,0.004532996,0.13527995,0.08689298,-0.120259784,-0.0045701307,0.19604391,0.29203647,0.26545817,-0.20135815,0.2830509,0.0907634,0.26144338,0.1112868,0.32286063,0.028918061,0.6268148,0.62910396,-0.21139474,-0.2011343,0.1740956,-0.07639181,0.030231046,-0.5219099,-0.3957936,0.31663448,0.62729913,0.41411567,0.23888181,0.06744872,0.038333714,0.10468408,0.20458819,0.04958611,0.15487722,-0.3244581,0.5386033,0.49374565,0.010820881,0.20984335,0.13721588,0.2674345,0.14617966,-0.08728821,0.22950459,-0.21984766,-0.15609337,-0.0013958616,-0.34532383,0.077335246,0.31704214,0.20210883,-0.10083292,0.28186095,-0.23570128,0.21328916,0.23984161,0.13473761,-0.006136808,-0.21004707,0.3509383,0.12685852,0.2127603,-0.17040528,0.0031252129,0.04407076,-0.21350689,-0.12889542,-0.15782695,-0.5210044,-0.38489765,0.032925308,0.40265006,-0.17877857,0.06695623,-0.11010761,-0.03148757,0.06144564,0.24861084,0.0148776015,0.20489699,-0.33537835,0.38246095,-0.03085766,0.04862355,0.059303723,0.15536648,0.20661712,-0.013258985,-0.38226274,0.2427208,0.13748506,-0.6982813,0.24418688,-0.29329464,0.24951191,0.04862394,0.21172982,0.011966235,0.18339774,0.19688731,0.19630377,0.10927097,-0.6818607,-0.33076265,0.1925954,0.29109758,0.18138072,0.22708276,-0.14852509,-0.08973756,-0.11316526,-0.10161689,0.3945557,0.24381699,0.526572,0.33073553,0.20602317,0.19377124,0.056605197,0.15950753,0.110219255,-0.015026244,0.26658955,0.13232267,0.44505566,0.6433587,0.4381687,0.011939491,0.0358685,-0.34562528,-0.12064932,-0.17872694,-0.4321489,-0.33647886,0.34532553,0.609151,-0.9374995,0.031412605,0.26969045,0.12590335,0.11824406,0.10441685,0.07104396,0.1585961,0.14534213,0.06228025,0.053178452,-0.033005733,-0.08177785,-0.011506925,0.054975267,-0.17916064,-0.03386413,-0.023409778,-0.05075745,0.14751309,-0.076559186,0.06132688,-0.031473976,-0.028680546,-0.2715456,-0.057643734,-0.07177942,0.023692578,0.03819329,-0.056808095,0.03360732,-0.08375499,0.09891042,-0.03601909,0.0791969,-0.0332481,0.09026765,-0.07967588,0.17650238,0.113811426,-0.003595409,-0.014043471,-0.021461455,-0.029883431,-0.092151195,-0.030999575,-0.09958393,-0.118484594,0.1351248,0.10695618,-0.14144754,0.107893646,0.05271171,-0.011525014,-0.07116045,0.12415903,0.08500958,0.056215014,-0.07812052,-0.010395482,-0.076481886,0.025901062,-0.02938737,0.040021703,-0.116061926,-0.008002992,0.085226975,0.0041277646,-0.097213,-0.03347993,-0.07622759,-0.0130154565,0.3261279,0.08212548,-0.10793324,-0.12943585,-0.097544685,-0.029323747,-0.0048100087,-0.011263873,0.036669146,0.084332444,-0.020905375,0.042391647,0.19054404,0.08509002,0.073146105,0.041610856,0.0928903,0.0514946,-0.059907187,0.16016291,0.03078786,-0.08926311,0.031787273,-0.009165933,0.14497073,-0.009060159,0.13121526,0.10742558,0.122290716,0.041153204,0.026716713,-0.2234641,-0.03948647,-0.21109673,-0.02630224,0.053968236,-0.038687617,0.0095095495,0.251767,-0.04550355,0.09475856,0.07518359,0.07152486,0.072226346,0.11369317,0.05248115,-0.015679663,0.02972724,-0.21083635,0.024780937,0.00673298,0.6053312,-0.0061408523,-0.124397576,0.08820478,-0.1871663,0.005390342,0.0831958,0.03703761,-0.08778181,-0.010983662,0.014046342,0.19451466,0.13986452,-0.21317804,-0.0945863,0.052553922,-0.029740615,0.03807922,0.27583554,0.115777105,0.13914831,-0.0915114,0.17469154,0.10168343,0.006816804,-0.11030597,0.17210203,0.0735307,0.11462532,-0.16724266,0.121214524,-0.12440418,0.18338606,0.10840257,0.10585588,0.12739365,0.044998117,0.20467454,0.108703524,0.1195015,-0.021174015,0.10050385,0.056452215,0.34447312,0.2595128,0.18601191,0.15140888,0.2730998,0.10280917,0.23348904,0.19311228,0.20527713,0.23014918,0.2260783,0.3221169,-0.07700628,0.04167988,0.25963533,0.20381156,-0.0021511589,0.29939377,0.16325074,0.22299773,-0.004078491,-0.115039535,0.13861664,0.074258275,0.139295,0.15328218,0.121200435,0.13459279,0.26684386,0.10852136,0.05931907,0.06782561,0.016091798,-0.07193163,-0.07438128,0.1906923,0.14419803,0.23958571,-0.21084543,-0.06412821,0.07737121,0.21284033,0.15650195,0.18437222,0.020469913,0.058646534,0.30311248,0.14837824,0.06780724,0.23175913,0.07280366,0.15644844,0.3072881,0.23471007,0.021771366,0.035570376,0.058065057,0.21728891,0.23143685,0.12994175,0.05079127,-0.12933806,-0.18584622,0.22800401,0.02522875,-0.080206364,0.044787068,-0.022773696,0.12191125,0.25699848,0.29708683,-0.30070928,0.16542296,-0.0059584985,-0.08066572,0.12454003,-0.0056086984,0.6606433,0.48627362,-0.59943646,-0.3486835,-0.10817735,-0.083711095,-0.24635608,-0.6952973,-0.6756083,0.36471835,0.6047673,0.25933242,0.2819426,-0.088649265,-0.02543793,0.15448183,-0.056415483,-0.31954694,-0.01604981,-0.16409446,0.36222416,0.43235195,-0.1714278,0.112008944,0.29733092,-0.05074819,0.09104392,0.196708,-0.033040628,0.24948092,0.19529356,0.10431685,-0.039711867,-0.23535326,0.07589802,0.2637425,0.073680475,0.038913846,0.22729863,0.14161366,0.041333444,0.054818083,-0.0042778268,-0.086613,-0.37325326,-0.13839206,0.14287443,-0.19502032,0.0036832478,0.11042236,-0.04335864,-0.0668188,-0.18949723,0.07814783,-0.08510394,-0.068740785,0.1831004,0.004050188,-0.0034092981,0.03352264,-0.00850207,-0.2978386,0.28969115,0.39331752,-0.065059334,-0.16509277,0.13371418,-0.13399655,-0.0169025,0.073371895,0.34757426,0.11818675,-0.18944842,0.11031826,0.032646865,-0.055235703,-0.25723767,0.050027944,0.020794446,0.20311819,0.19921277,0.21425904,0.19199322,-0.055451177,-0.07334583,0.11634831,0.017249143,-0.33575064,-0.7009775,0.48406047,-0.023717908,0.24505606,0.23081346,-0.13275881,0.14268115,0.37938756,0.17903757,0.20597047,0.32781988,0.44027635,0.2585218,0.24595174,0.18991181,0.24445358,0.22009443,0.1696056,0.16510078,0.23005906,0.26074848,0.32934415,0.7156185,0.36802664,-0.8147921,-0.4235702,-0.3922187,-0.07306518,-0.4410228,-0.5920362,-0.55612725,0.3138022,0.65679973,-0.89011645,0.037662763,-0.21591526,0.057216637,0.07904011,-0.21645929,0.04249398,-0.1422471,-0.08784865,0.03074709,-0.21117693,-0.049812153,0.31902125,-0.055037312,0.075520955,0.025695005,0.16351789,-0.12304097,0.023735773,0.035235997,0.026275542,-0.07627956,-0.08689088,-0.066533595,0.11621973,-0.0059784693,0.014765138,0.14197253,0.1326475,0.0064889616,0.04800645,0.09402698,0.12558787,0.01769109,0.020589361,0.10438363,-0.049465332,-0.10592843,-0.246926,-0.12079506,0.03887325,-0.11140358,0.10730156,-0.011532989,0.06632634,-0.024311552,0.16746064,0.06594794,-0.07396752,-0.056219168,0.08712116,0.0700363,-0.030029824,-0.017117599,0.084776014,-0.017925069,-0.07624461,-0.10983667,0.0033467198,0.076623455,0.15021828,0.046036765,0.055006392,-0.1786155,0.17005701,-0.07195037,-0.15391347,0.09861632,0.04808968,0.09056518,-0.04112727,0.29217264,-0.46792638,0.121592306,-0.054231558,0.18030083,0.03357576,0.03742285,-0.046963435,0.026009025,0.18959275,0.08551074,-0.016360365,-0.0761112,0.07286956,-0.048742723,0.054489173,-0.027613867,-0.012804306,-0.12143565,-0.061253328,-0.12559952,-0.05284909,0.09194435,0.007317363,-0.16256471,0.0062283324,0.11337379,-0.2155991,-0.06944341,-0.013004061,-0.034885287,0.24307828,0.20646326,0.02196212,0.10984561,0.03546438,0.060173336,0.024432031,0.037644234,-0.15341042,0.009378651,-0.21468557,-0.2139002,-0.022440068,-0.10636881,0.017138029,-0.0011584038,0.11046151,0.05034527,0.06494727,-0.0003335261,-0.018535115,-0.32075202,-0.008877261,0.09333344,-0.15922393,-0.081420556,-0.19762604,0.107421026,0.09361724,-0.050952204,0.020162607,-0.076428406,-0.17056404,-0.13253601,-0.13090445,-0.020860381,-0.06437832,-0.26130205,-0.20052327,-0.4567306,-0.39923677,-0.5713192,-0.20275821,-0.04665917,-0.28830743,-0.32513607,-0.17426242,0.016756972,-0.14999264,-0.2775165,-0.060889203,-0.48742634,-0.1561306,-0.1396151,-0.16957602,-0.05696581,-0.11553847,-0.06929954,0.10537081,-0.090012185,-0.21200457,-0.06556707,-0.065635465,-0.0970083,0.06351101,-0.39321628,-0.20292993,-0.1895093,-0.08582295,0.19153878,-0.034302834,-0.07241639,-0.393206,0.087444946,-0.21448809,0.08257227,-0.035079915,0.09153062,0.04015857,-0.16102798,-0.006986053,-0.3606514,0.087587535,0.08189317,-0.37141743,-0.105146416,0.400651,-0.097349234,-0.26502344,-0.04434113,-0.28645495,0.07671416,-0.19252703,0.12332807,-0.111261085,-0.23293296,-0.13684367,-0.060395025,0.1263487,-0.28141522,0.050959654,-0.1793825,-0.18968868,-0.14244033,-0.08423463,-0.08417039,-0.23345807,-0.09288135,0.27041066,-0.38282657,-0.3340287,-0.038902868,0.0031133373,-0.34263837,-0.104335964,-0.13436902,-0.17585269,0.036102075,0.049261093,-0.1633479,-0.19876099,-0.07230618,-0.4882748,-0.22999175,0.0044943094,-0.036579203,0.054979756,-0.39567882,-0.09740513,-0.08489841,0.0050494852,-0.2047086,-0.31071845,-0.41219836,-0.4046785,-0.08640805,0.079142936,0.042274978,0.019927235,-0.1175053,0.019880647,0.68299603,-1.0648134,0.2172989,0.064486556,-0.034440905,-0.098600954,-0.05058722,0.16370833,0.31588763,-1.0098432,0.69993407,-0.93761444,-0.9544944,-0.3865723,-0.048810083,-0.32196394,-0.4176121,-0.003198505,-0.58031607,-0.449278,-0.9685657,-0.93658763,-0.31474364,-0.54275095,0.113928564,-0.17163086,-0.44162232,-0.72815573,-0.07210507,-0.119739756,-0.4336092,-0.3163124,-0.18634267,0.1301466,-0.21335581,-0.03930218,-0.02550726,-0.062546276,-0.24578662,-0.3696546,0.036856927,-0.30961037,0.24899906,-0.0666278,0.26387924,-0.05587876,0.023241542,-0.06679949,0.25733218,-0.14568894,-0.07115821,-0.3241044,-0.21194755,-0.09828825,0.14198494,-0.3432226,-0.49141866,-0.40990287,-0.24563324,-0.49388167,-0.12945423,0.068583295,-0.1878597,-0.45761845,-0.31034893,0.041034177,-0.23241314,-0.035596825,-0.06266038,-0.32011396,-0.38572252,-0.38840973,-0.2872993,0.42243454,-0.3318113,-0.16345134,0.11325047,-0.057233077,-0.10885018,-0.1532967,0.003948177,0.14107014,0.107499674,0.07043114,0.059343692,-0.20271248,-0.22392699,-0.010737345,0.32471249,-0.45279443,-0.27567095,-0.18157592,-0.35073668,0.09714074,0.2446914,-0.10621012,-0.3287052,-0.1657188,-0.69517523,-0.9031753,-0.74156225,-0.49942598,-0.04454005,0.13708936,-0.15131219,0.13394015,0.22579187,-0.079599604,-0.5204162,-0.91408235,0.7759054,-1.158034,0.12101727,-0.23157261,0.063857146,-0.115116455,0.105856724,0.17489195,-0.14653726,-0.18875065,0.83895165,1.1748203
