-0.04567968,0.036537763,-0.16477095,-0.060827293,0.08106769,0.12884085,0.15038927,0.07857943,-0.17646323,0.005034184,-0.043667898,-0.023608647,0.04169565,-0.014596505,-0.20978844,-0.11760861,-0.044746816,-0.016262297,-0.092340946,-0.07805543,-0.074873395,-0.022826074,-0.11403085,-0.009488686,-0.30320185,-0.25219733,-0.34614992,-0.3347736,-0.2989797,-0.4731677,-0.6143967,-0.37118512,-0.15024763,0.08501384,0.15243645,-0.3000648,-0.19439416,-0.34870613,-0.00055197655,-0.11091926,-0.21185456,-0.34796292,-0.31093034,0.1930166,0.19891445,-0.04424995,-0.19724743,-0.2886502,-0.24247596,-0.1251329,-0.19625628,-0.23034142,-0.2333329,-0.16427995,0.08875458,0.23715745,-0.09095612,-0.18436177,-0.046071652,-0.2399386,0.029046651,-0.14733352,0.06966926,-0.28263018,-0.13351718,0.16588297,0.14725728,-0.13607106,-0.26944113,-0.21318378,-0.26888904,-0.19915304,-0.30583686,-0.12926205,-0.36333108,-0.16864096,0.18542083,0.109252155,-0.22882284,-0.24770555,-0.2705671,-0.17973396,-0.016517526,-0.040520877,-0.107741565,-0.2758323,0.0014290625,0.20352925,-0.2239618,-0.29608467,-0.28809637,-0.2015673,-0.23935245,-0.112059794,-0.13321972,-0.17276444,-0.4775268,-0.17750132,0.03504362,0.041461106,-0.06901354,-0.206842,-0.22901192,-0.25502616,-0.12799145,-0.13369074,-0.12000508,-0.36423048,0.0032371841,0.20525534,-0.011784302,-0.23139769,-0.026461722,-0.17935236,-0.0006973148,0.052941754,0.032277334,0.05232356,-0.3144813,0.09073195,-0.03993582,0.042757586,-0.05983764,0.30943424,0.19898838,0.07760526,0.11117056,-0.047792684,-0.032734796,0.13638636,0.01968125,-0.046395488,-0.3831888,0.11383484,-0.11766943,-0.10480103,-0.018184612,0.09342424,0.083062604,0.13186684,0.06658655,0.06108531,0.0033789729,0.11880733,0.0084762685,-0.12438756,0.0038355628,0.0664023,0.012362298,-0.21699797,-0.13337897,-0.122071914,-0.05156757,-0.033352032,0.073668346,-0.13450778,-2.9117102e-05,-0.10311932,-0.18782488,0.09818635,0.061030064,0.18842866,-0.0034689312,0.06607284,-0.039571535,0.031792175,-0.23295304,0.058498587,0.03154114,-0.12109535,0.24236226,0.07128577,-0.07552006,0.027494224,0.113483384,0.123919636,0.16439465,-0.2829004,0.066717274,0.17302413,0.40414816,0.031485956,0.32621354,0.0041366224,-0.038109478,0.121291146,0.18013352,-0.04880959,-0.2447073,-0.1396703,0.028371792,0.06085798,0.22419314,0.06699226,-0.0634202,0.0653234,0.14418276,0.10070261,-0.20589863,0.09366355,-0.061848905,0.13705014,0.07847735,0.23408763,-0.046158776,0.1434296,0.06724659,0.03819362,0.09728741,0.049430918,-0.048955448,-0.14054859,0.13769376,-0.010612567,0.022245506,0.21871972,0.23592247,-0.30428204,0.007160914,0.2538534,-0.24084093,0.050912734,-0.010150438,0.002447422,0.18352832,0.017550994,-0.02347572,-0.001764124,-0.24698722,-0.12316681,0.26255748,-0.04116532,-0.12010837,0.25150844,0.2315313,-0.24061365,0.0050624385,0.07729995,0.17439324,0.09106112,-0.20986575,0.031570405,-0.12882757,0.3317675,0.15082572,0.10817566,-0.44924915,-0.41692963,0.011866857,-0.32008418,-0.78907454,0.29375973,-0.13137013,0.33476758,-2.574714,0.02123753,0.18877512,0.09877254,0.15722752,0.19927199,-0.23454218,0.084935404,-0.6925353,0.38764367,-2.2267914,-2.0255573,0.2736301,0.21609567,0.19410603,0.18118386,0.27833298,0.19015162,0.43532872,0.37576512,0.5065626,-2.4975996,-0.15738562,0.1571265,-0.20796864,-0.35579807,-0.54394275,-0.8605607,-0.38092792,-0.1407289,0.16331159,0.112280965,-1.7736273,-0.32157117,0.2058199,-0.08971598,-0.17633173,-0.27858952,-0.15662345,-0.7124849,-0.25487804,0.23271555,-0.40018573,-1.4840165,0.124213345,0.24834998,-0.02112837,-0.26126325,-0.1144325,0.07193584,-0.45199597,0.048516456,-0.0034436139,0.23311777,-1.5781639,0.49854612,0.4430186,-0.047009524,-0.18518361,0.07204874,0.040631738,-0.009400534,0.25857028,0.1993643,0.3027919,0.26172593,0.37489817,0.20120881,-0.21907946,-0.03192789,-0.5473262,-0.30388537,-0.055614848,0.0193519,-0.15099777,-0.915941,-1.6656518,-0.28205246,-0.1452863,-0.0015486503,0.07045335,-0.054957572,-0.008044927,-0.02957592,0.36666837,0.039934944,-0.6820142,0.34226003,-1.3346412,0.42465255,0.00074544875,0.33861032,-0.09436197,0.027981678,0.00072721404,0.621119,-1.4323634,0.3287142,-0.17829016,0.36126196,-0.3531456,-0.5502114,0.17564884,-0.3625752,-0.67774785,-0.37361303,-0.97923833,0.3787288,-0.1525043,1.685273,-0.01676643,-0.041143425,-0.093244,-0.25295377,-0.07266279,-0.08951568,-0.07920451,-0.09610924,-0.23710665,-0.2755815,0.0129293585,-0.0850206,-0.14228666,-0.1445586,-0.44467792,-0.32642454,-0.30467916,-0.19761206,-0.29510605,-0.31233338,-0.2763673,-0.07820377,0.03527532,0.048466366,0.05297274,0.016232878,-0.021423014,0.0028029135,0.061855532,0.041910045,-0.06944839,0.026427235,0.21105534,-0.0023317537,-0.0900463,-0.1147943,-0.12343134,-0.22410975,-0.14762087,-0.121066846,-0.05917358,-0.08771632,-0.100127555,0.067201614,-0.016335372,-0.13123064,-0.105281204,-0.23525892,-0.10718963,-0.19460547,-0.027865123,-0.060901407,-0.0067455913,-0.16525595,0.12521851,-0.11453886,-0.175638,-0.09792355,-0.07167654,-0.12657124,0.025824208,-0.14370638,0.028914986,-0.12077793,-0.21767798,0.070045575,-0.10001992,-0.2116199,-0.041722376,-0.1575803,-0.102242716,-0.06437921,-0.08838088,-0.09202223,-0.061210707,-0.343711,0.14071107,-0.13337511,-0.11594936,-0.063979164,-0.19235268,-0.10366666,-0.158114,-0.039928645,-0.086398095,-0.092374794,-0.39912993,0.12876807,-0.09801936,-0.23547216,-0.18370746,-0.18929347,-0.23203576,-0.19985548,0.06342002,-0.14621177,-0.1926767,-0.68488574,-0.05029869,-0.10223805,-0.1669749,-0.121282645,0.021802684,-0.053935736,0.043322366,0.14756197,0.10784545,0.13199025,-0.39442426,-0.3758866,-0.012911845,-0.52211887,-0.059992027,-0.15444048,-0.026008539,-0.011385246,-0.0031037354,0.019218668,-0.03403355,-0.27944466,0.0043244488,-0.031071357,-0.042136956,0.19336936,0.038474776,0.026066871,0.028028911,0.12024268,-0.016448006,-0.11158079,0.21606389,-0.031047558,0.015607084,0.10597136,0.07406872,0.080357425,0.10880543,-0.07937574,-0.061592948,-0.016447159,-0.02349758,0.12213115,-0.13151152,0.18792227,0.1422451,0.113589175,-0.015229398,0.18193603,0.06382683,0.013874312,-0.017801698,0.15029126,-0.012794804,0.15843971,0.19878541,0.15822539,0.08737285,-0.047116082,0.04909362,0.036409862,-0.0007184971,0.00049639493,-0.07132368,0.048635665,0.032728948,0.29689142,0.119411245,0.07276063,0.036572177,0.0950894,-0.013136129,0.05447981,0.047200996,0.11291748,0.16177168,0.0052417223,0.28249165,0.13421038,0.08987584,-0.029455248,0.20178086,0.004807496,0.056523453,-0.07941169,-0.02705622,-0.21132672,0.004538981,0.23520851,0.10244758,0.2509608,0.122485206,0.17065564,0.06402017,0.076106526,0.07628837,0.08023804,0.0153095415,-0.017032675,0.12066807,0.1638399,0.027671563,-0.08776109,0.026222875,0.09182237,-0.09355173,-0.03787267,-0.10074554,-0.048112404,0.15220143,0.25505692,0.26820064,0.19193737,0.19041505,0.0190895,-0.09403839,0.052155156,0.051648375,-0.03359732,-0.12195,-0.14785558,0.00083110493,0.24066181,0.22767314,-0.10757285,-0.030715423,-0.042576633,-0.06261404,0.16453141,0.090381525,0.033561297,-0.040176265,0.050348368,0.100111015,0.22307913,0.26124015,-0.0743586,0.06877832,0.14569168,0.060095426,0.21063644,-0.22232255,-0.017914549,-0.07871352,0.8857716,-0.17188887,1.4667914,1.401936,0.58330506,0.70156085,0.58216083,0.8000778,0.8011156,-0.17039375,0.85952556,-0.4538053,0.2868939,0.5897063,0.38467595,0.5807877,-0.033819783,-0.024801971,0.4031647,0.00130819,0.7891514,-0.99186295,-0.4177374,-0.75493866,-1.0040952,-0.24398811,0.1253062,-0.16351481,-1.0153911,0.16342965,-0.28250995,-1.8146572,-0.27066132,-0.80979913,-0.935361,-0.173661,-0.14962777,-0.22386609,-0.50643265,-0.41647565,-0.23015398,0.034509383,-0.9917534,-0.13903205,-0.79741216,-0.4118289,0.009909166,-0.3166927,-0.30410814,-0.19257517,-0.52182156,-0.5130922,-0.00758636,-0.18800458,0.8492214,-0.37466553,-0.73210794,-0.3400073,-0.34539154,-0.30304876,-0.30472255,-0.40662727,-0.11787268,0.28380552,-0.33562276,0.535572,-0.2702978,-0.8011135,-0.18782946,-0.35534126,-0.24022175,-0.14478326,-0.4121043,-0.46139333,0.5062095,-0.5932941,0.6975078,-0.24174166,-0.18258959,-0.3829741,-0.509992,-0.33488682,-0.63302594,-0.55900055,-0.43483445,0.6835623,-0.6509495,0.78873533,0.87735444,-0.3502081,0.06833003,-0.12043548,0.16507262,0.036482085,-0.124064006,0.074950896,0.9237207,0.81747043,0.9467672,1.4942873,1.1618094,0.33014363,0.05496363,0.060596064,-0.9494886,-0.8923139,0.11550084,0.84465,0.78639776,-0.09155647,0.88743824,0.49905497,-0.0966961,-0.47260422,-0.49579385,-0.8088955,-0.9998401,-0.6631316,0.901215,-0.121899694,1.5745732,0.015944734,-0.41399515,0.1470428,0.1228639,0.17983691,0.13098891,0.08116512,-0.022159547,-0.13444588,0.15864758,0.024785347,-0.5605134,-0.35202947,-0.3544939,-0.35194224,-0.2747506,-0.32548028,-0.3921107,-0.48319107,-0.4746668,-0.091729455,0.117622025,-0.14823192,-0.13339509,-0.11452569,-0.03731789,0.03286598,0.06297197,0.027817478,0.028043915,-0.06253301,0.17799446,-0.028945096,-0.12928312,-0.1347399,-0.2731854,-0.18980826,-0.25046453,-0.17921084,-0.27646944,-0.17950319,-0.39597112,-0.053485736,-0.08023686,-0.10475825,-0.12748145,-0.19855177,-0.12741378,-0.1972508,0.010526244,-0.19138698,-0.07574385,-0.26778725,-0.02360484,-0.13750732,-0.11560693,-0.11069859,-0.08383864,-0.048400924,-0.110096715,0.009836262,-0.15193468,-0.09064973,-0.30523008,-0.039463658,-0.2105248,0.07850161,0.13646914,-0.058334824,-0.008814143,-0.052966114,0.07892741,-0.12162094,-0.032373067,-0.39741307,-0.048984636,-0.017959412,0.11195802,0.19806372,0.18326232,0.038732026,0.023701858,0.052014954,-0.032264885,0.022915574,-0.24919699,0.0036886628,0.017927425,0.029130815,0.16390218,0.06583016,0.13004082,0.14057232,0.09714373,0.099312894,0.15786652,-0.26583758,-0.022095228,-0.12344266,-0.07655787,-0.11885326,-0.010673101,-0.07903229,-0.12809865,-0.24497625,-0.091425605,-0.093018904,-0.63386506,-0.10170754,0.0067026406,0.0117318295,-0.01673621,0.015237189,0.07402418,0.124574214,0.046860706,0.06617904,-0.058400445,-0.22162606,-0.32777357,-0.03457904,-0.048051428,-0.031489715,0.034263317,-0.024828414,-0.007316875,-0.04264378,-0.008253783,-0.04968203,0.060163368,-0.062337194,0.00620154,0.15886459,0.22390117,-0.1509434,0.13237578,0.07465071,-0.031647053,-0.0298761,-0.081954844,-0.10357689,-0.039999988,0.07912891,0.15953693,0.13534252,0.07093849,0.11665397,0.08621514,0.019485394,-0.0105479555,0.13977067,-0.0061789495,-0.02355303,0.05473088,-0.09137087,-0.06524705,-0.0516668,0.079699375,-0.05837608,-0.03038092,0.003693386,0.1039202,0.06258334,-0.09241639,0.13308862,-0.13546897,-0.2352207,0.0016635766,-0.031389073,-0.07801239,-0.08269043,-0.02515714,0.06708221,0.08623372,-0.083943166,0.12933077,-0.27758774,-0.22681905,-0.026225535,-0.10446255,0.0098554725,-0.020936804,-0.046381015,0.16163777,0.0731725,0.07764631,0.040509358,-0.2559144,-0.087630816,-0.12273015,-0.084235676,0.052894637,0.03374499,0.00283147,0.03695287,0.09570137,-0.05796324,-0.15229234,-0.2349762,-0.16954815,-0.23632161,-0.15375844,-0.081562676,-0.18492842,-0.17574854,0.03603697,0.18853222,-0.03961266,-0.035872135,-0.15378779,-0.19567557,-0.33036345,-0.19861233,-0.09992892,-0.108875364,-0.13620465,-0.0077124536,0.101904176,-0.027362213,0.016459396,-0.39027163,-0.5073987,-0.23319335,-0.5031128,-0.04990029,-0.2513845,-0.08903052,-0.045301348,-0.049635727,-0.18368804,0.03340737,0.03364245,-0.2410212,-0.35692778,0.041828435,-0.038254026,-0.06504024,-0.1550509,0.20753063,-0.028666858,-0.27585974,0.013508986,-0.15972821,0.36960188,0.8517869,-0.35203317,-0.34457678,-0.4814433,0.10531243,0.27851143,0.1568015,0.35589862,-0.061581265,0.35147107,0.51226395,0.32617682,0.32724226,0.09346267,0.20388773,0.14510985,0.19348647,0.18748374,-0.60134095,0.45027277,1.0843507,-0.48058045,0.5310749,0.23014899,0.028326249,-0.124094844,-0.12715492,-0.14120796,-0.013009044,-1.941192,-0.9705637,0.5733214,0.40650976,0.36047107,-0.0927726,0.11786721,-0.14235806,-0.07316688,0.031918067,-0.061088867,-0.14251341,-0.0357802,0.13251804,-0.028317135,0.19051248,0.07581502,-0.138973,-0.3799526,0.0076206573,-0.5482423,-0.29209778,-0.34123716,-0.029413937,-0.23644352,-0.35650617,0.04762817,-0.25504935,-0.13119005,-0.21413672,-0.24483012,-0.33890384,0.053248424,-0.14488088,0.27104303,-0.94054526,-0.648947,-0.23500618,-0.13439365,-0.053005956,-0.046280686,0.04552447,0.007752931,0.10409857,0.36113924,0.692559,-2.0517933,-1.883662,-0.99086845,-0.68574685,-0.44614172,-0.3118412,-0.10486544,-0.25542313,0.09430367,0.45589423,0.20591924,-2.2791495,-2.0825365,-2.0248795,-2.3088136,-1.4901551,-0.6765562,-0.15117662,-0.2834383,0.5774939,-0.067158096,-0.50669694,0.38199875,-1.0603669,0.4091115,-0.64072144,-0.4202983,-0.7129015,-0.043201987,-0.78972423,1.0347553,1.060287,0.47857174,-0.06756989,0.53538793,-2.302423,-0.2772093,-0.6712532,-0.9133726,-1.0027845,-1.6615115,0.72043425,0.5209791,-0.090969406,1.6333702,-0.020816693,-0.10294104,0.26179603,0.26840016,0.4346707,0.28232935,0.35727635,0.5956299,0.38684726,0.17118202,0.02101705,-0.016887454,0.3667668,0.19246785,0.1154421,0.12152463,0.08863357,0.2157906,0.20140867,0.3853393,0.45829126,0.1725619,0.23047769,0.23809507,0.18694699,0.15354612,0.22438648,0.10892598,0.11271199,0.18380956,0.42822868,0.20466699,0.18956748,0.14399098,0.22856173,0.06363026,0.030982347,-0.07668748,0.13910006,0.045316555,0.1051518,0.20977756,0.26096812,0.21821305,0.38360798,0.06269361,0.093087204,-0.07710863,-0.051911827,0.14373593,-0.02459253,0.083544135,0.26684391,-0.032198075,0.093664914,0.21335642,-0.016373588,0.119177036,0.016375767,-0.009282725,-0.03467775,0.1550791,0.1406808,0.2012731,0.11646161,0.2574902,0.2950774,-0.13832124,0.06843319,-0.009251905,-0.04138714,0.13442332,0.0098139355,0.06485552,0.12048289,0.12304899,0.3168278,0.23139893,0.1408834,0.08854761,0.14343344,-0.11683883,0.1836114,0.12711522,0.11962319,0.13574293,0.09288798,0.11229012,0.31547207,0.25448337,0.1180445,0.08470487,0.13288243,0.09441466,0.19000144,0.095154464,0.08183879,0.2894327,0.29623863,0.25045094,0.5260773,0.27993274,0.29073212,0.23050946,0.020145604,0.17832172,0.07266552,0.20658557,0.3459087,0.053485777,-0.016392235,0.1059628,0.4348845,0.02604549,0.01978004,0.32501146,0.28079712,0.15679637,0.11716459,0.2732291,0.0039550327,-0.0027730986,0.03689746,-0.01180161,0.09356799,0.0729057,0.026345126,0.037564114,0.08285137,0.04653984,0.20905776,0.0095107835,-0.10743437,-0.15847434,-0.03457037,0.15071976,0.091516,0.1316815,0.17369415,0.21072038,0.21258706,0.12766458,-0.18374802,0.015717797,-0.32731026,0.1675417,0.015706435,0.19518122,0.011412161,0.045236968,0.05987802,0.33274952,0.076174155,0.0896231,0.036712326,-0.042195663,0.048788086,0.10460194,0.031518143,0.12030943,0.13082914,0.046063453,-0.11381144,0.08455125,0.08936334,-0.14365152,-0.022872167,0.1147096,0.23892501,0.12798682,0.20489898,0.28657103,0.041329477,0.18759626,0.23281257,0.07838647,-0.07898686,-0.036506493,0.052530304,0.19808342,0.15525083,-0.011980728,0.14682692,0.1977272,0.048446186,0.038146917,0.08155413,-0.020084731,-0.081329584,0.114344425,0.097530805,0.14315665,0.070403524,0.13545656,0.16963378,0.16018032,0.16150418,0.11215579,-0.14172523,-0.08310723,0.05142772,0.028964529,0.1501213,0.116528474,0.27665094,0.11854039,0.21163777,0.20181584,0.13296248,0.09354177,0.0991004,0.079637624,-0.06285927,0.07531339,0.056149404,0.18326673,0.20124182,-0.102941185,-0.046543457,0.2833699,-0.057336576,-0.16624895,-0.059071023,0.17251998,-0.002393583,0.1806768,0.0049020173,0.008105827,-0.121524,-0.037337363,0.059883367,0.0011405457,0.08385499,-0.06037403,-0.06107119,-0.16180289,0.1050405,0.22278439,-0.013987947,0.06242483,-0.19464841,0.021088155,0.29827368,-0.12214238,0.040485095,0.66248983,0.6304192,0.5525339,0.55047333,0.35890093,0.1585755,-0.13100034,0.34734663,-0.10307948,0.44538778,0.27601632,0.18523559,0.35490704,0.50204355,0.4567735,0.010408988,0.36768502,-0.18438827,-0.11113226,0.23096,0.42532343,0.33634323,0.23251021,0.3192898,0.25513428,0.24545424,0.24181888,0.16898434,0.28319055,0.35891852,0.30132884,0.31211498,0.40357855,0.034016404,0.13922039,0.20638648,0.3934454,0.32600355,0.5056234,0.24128759,-0.09863257,0.2930106,0.41237798,0.3539221,0.29289147,0.16569173,0.2960581,0.2820476,0.3477515,0.35886952,0.5106412,0.3933961,0.33204633,0.47550812,0.26520228,0.30532062,0.22086477,0.44846255,0.29821807,0.35186112,0.37738165,0.46369544,0.3640392,0.650855,0.57840365,0.37595338,0.19790073,0.18176542,0.22147839,0.27511436,0.4127749,0.45269728,0.35603526,0.28060412,0.42972508,0.6594711,0.35021883,0.25625026,0.27202582,0.24045758,0.4080283,0.19234504,0.46870118,0.30639094,0.0011796502,0.28235236,0.0009630646,0.63998777,0.36170506,0.3288274,0.43503988,0.40692985,0.68176204,0.26547015,0.2158438,0.11545013,-0.17432664,0.1512936,-0.18417816,0.3762985,0.14566615,0.30523184,0.3845402,0.2196218,0.29360524,0.13878325,-0.123580985,0.36051393,-0.14801261,0.07357283,0.30656943,0.2525305,0.28531906,0.2037955,0.1887505,0.0647051,-0.19762301,0.28572094,0.29321086,-0.0518263,0.22513568,-0.02219617,0.10229411,-0.04673098,-0.18565907,-0.13944733,-0.09695952,-0.12441535,-0.030609291,-0.0021751397,-0.2597399,-0.45586684,-0.07587632,-0.2611808,-0.31047928,-0.28614292,-0.17737041,-0.15710607,-0.13459733,-0.16359228,0.005050978,-0.087801754,-0.25090373,0.017319309,-0.18151861,-0.069916956,-0.27859673,-0.103654444,-0.16795579,-0.109628625,-0.16084893,-0.39616063,-0.018091386,-0.17033511,0.049965575,-0.22070763,-0.062086005,-0.23814113,-0.10025445,-0.21229509,-0.13056578,-0.16236438,-0.18925524,0.047255877,-0.03999371,0.14983371,-0.083429664,-0.075804725,-0.1265025,-0.096900225,-0.06076791,-0.07137319,0.004384427,-0.08819806,-0.12441915,-0.1721213,0.06266092,0.03561563,0.030745441,-0.03270032,-0.05853445,-0.111793675,-0.09469046,0.10459949,-0.017171018,-0.012016851,0.017462136,0.16203825,-0.13583957,-0.10558347,-0.21737652,-0.085522436,-0.089492984,-0.068012536,0.11000925,0.1457165,0.030950956,-0.13501799,-0.03979213,-0.19253786,-0.22667792,-0.267449,-0.1643524,-0.22692612,-0.053403165,0.29359236,-0.04283594,-0.08382742,0.07719177,-0.010549125,-0.103557564,-0.21721199,-0.2588527,-0.12168931,-0.22850472,0.062994726,0.13712858,-0.021846855,0.7009205,-0.31047627,-0.081230916,-0.19055368,-0.15456076,-0.06538916,-0.05486483,-0.06119758,0.13024837,0.0858872,0.0916862,-0.0022136664,0.095751874,0.022151377,0.07809684,0.11188801,0.09424119,0.075869925,0.051328577,0.22623713,0.22357315,-0.021092024,0.019524334,-0.108256795,-0.20365222,-0.035764538,-0.028504387,-0.001013002,-0.20619857,-0.12860735,-0.27489528,-0.06540916,-0.042360015,0.10700221,0.11737532,0.26091203,0.045271017,-0.098516956,0.19344388,0.12728848,0.015552515,0.03841344,-0.1372341,0.06213907,-0.030628271,0.17057788,-0.0706985,-0.068241924,0.012471974,-0.060304973,0.023194887,-0.07934014,-0.24570666,-0.11444999,0.013521422,0.037271377,0.110002555,-0.060826913,-0.19802494,-0.0476599,-0.0058757705,0.042020373,-0.03567134,-0.104016006,-0.06815538,-0.020217711,0.054621495,0.07087284,-0.18353501,-0.1792836,0.061582334,0.046997212,0.023997413,-0.066798046,-0.11583448,-0.056051474,-0.22890522,0.102802806,0.13661607,-0.053452775,-0.22282004,0.012782745,-0.008503369,-0.014726071,-0.027061353,-0.24903055,-0.25616932,-0.08036735,-0.09302368,-0.05485141,-0.04455107,-0.08069694,-0.043460805,-0.018166583,0.054971185,0.005248817,-0.14598115,-0.1325601,-0.12240834,0.039059512,0.01064422,-0.22433524,-0.1564458,-0.059124596,-0.07586725,0.059627738,-0.06572342,-0.03305823,-0.14410543,-0.10533474,0.26746523,0.09063953,-0.05543444,-0.1412205,0.06045555,0.16592205,0.12122646,0.15561894,0.31263864,0.270327,-0.095033556,0.29184133,0.044716075,0.0638619,-0.09018393,0.11140836,0.031800102,0.18027242,0.16442215,0.15680833,0.16332795,0.08794795,-0.022117857,0.08588294,-0.32822895,0.04512214,0.11667461,0.08991086,0.17333616,0.21727115,0.27246156,0.41102657,-0.0463542,-0.15908733,0.95949626,-2.00308,0.4342382,0.67122537,0.39625877,-0.059271067,0.2192117,-0.64157224,1.0119377,-0.15462802,0.97843647,1.328274,1.0593501,0.84457767,0.2244562,0.74780273,0.43591276,0.32735202,0.2814853,0.6403808,0.96887124,0.33088654,-0.14184533,-0.008787734,0.37315413,0.26229045,0.32607964,0.031159375,0.26553136,0.5226627,0.39464673,0.6490874,0.25641188,0.3393131,-0.018102175,0.13046278,-0.13528593,0.118613265,0.09606146,0.05375461,0.10077378,0.17285962,0.35617095,-0.053527854,-0.012428416,-0.3194638,0.15561086,-0.07981462,-0.0818264,-0.090772234,0.08214932,0.06909956,-0.34691826,-0.76144964,0.0573772,-0.2599291,-0.92640024,-0.2110934,-0.29195896,-0.2771911,-0.2319228,-0.137244,-0.039695486,-0.27938294,-1.5534204,0.15186697,-0.38502172,-0.15501805,0.08933112,-0.053825527,-0.19176154,-0.08018574,0.0607691,0.08936333,-0.21089137,-1.6605868,0.32878435,0.06887434,-0.06863624,0.09452288,-0.02327433,0.07306821,-0.08517506,0.015771888,0.042570908,0.19687915,-2.8052216,-2.5457401,0.10273266,-0.26489833,-0.12436204,0.031792134,0.26497084,0.15295005,0.25268155,-0.044977695,1.0969017,-0.9281364,0.9915493,1.1357449,0.7376483,0.52223384,0.44383335,0.6200032,0.19925272,-0.004633788,0.90690213,1.3564951,0.94033706,-0.13563806,0.95192415,-0.77802885,0.57124156,0.17829563,0.17361826,-0.673593,-0.5956002,-1.0887238,0.93390614,-0.14507158,1.6740513,-0.021932859,-0.41313863,0.23005192,0.26111516,0.21962653,0.17186512,0.15636706,0.056988943,0.111993246,0.18398358,0.004916578,-0.44305608,-0.60336936,-0.37831187,-0.14710537,-0.12808666,-0.17276344,-0.1623373,-0.28177014,-0.12046252,-0.055964667,0.13450822,-0.09681225,-0.21276921,-0.20816118,0.052256174,0.00806579,-0.029044298,-0.029302757,-0.024288513,-0.12650903,0.0307992,-0.005523188,0.02287621,-0.21759501,0.057493385,-0.027071407,-0.063002154,-0.11982127,-0.0008205848,-0.043769397,-0.04552816,0.0016135972,-0.07286363,0.1064855,-0.23019394,0.079812385,-0.10018384,0.02862169,-0.065919355,-0.058012526,0.024242861,-0.079671234,0.15973216,0.05386351,0.10288474,-0.21328288,0.07226092,-0.04909121,-0.005343068,0.018560113,-0.09444751,-0.0028168128,0.030074783,0.25599638,0.1283813,0.14911358,-0.17391318,0.04320445,-0.051782705,-0.042725544,-0.068340614,-0.031100105,-0.046518944,0.068944864,0.36360708,0.2861173,0.102002695,-0.26275596,0.07555394,0.11890836,0.009317605,0.04447443,0.08693729,0.088596776,0.102445476,0.41792774,0.2100468,-0.21700545,-0.33025157,-0.03326937,-0.10121537,-0.1395126,-0.023087371,-0.073208466,-0.104101494,0.13316096,0.24052258,0.14509255,0.07520298,-0.32037055,0.09071168,0.23202536,0.17277408,0.013720368,0.048724398,0.06104258,0.18725374,0.4912917,0.37341794,0.04360595,-0.11972118,0.2238233,-0.18872981,-0.21102011,-0.31496415,-0.2838151,-0.37013787,-0.14137165,0.056744114,0.044576608,0.02719564,-0.1904923,-0.16106848,-0.1876356,-0.23013622,-0.2293191,-0.15178959,-0.031892754,0.02096366,0.007879198,0.027751604,-0.068870306,-0.2047956,-0.16789103,-0.16785027,-0.11038685,-0.15914288,-0.23438047,-0.0794375,-0.00840747,-0.27769864,0.037377577,-0.20437801,-0.18711986,-0.17379229,-0.096706316,-0.052882366,-0.07613659,-0.13999882,0.0075085214,-0.0008102153,0.010416952,-0.01512976,-0.30502123,-0.32484576,-0.12183576,0.013374226,-0.20793901,-0.10190112,-0.14222771,-0.07159856,-0.006692508,-0.0013267729,-0.23473273,-0.12334205,-0.29600227,-0.18837494,-0.042962153,-0.07162498,-0.16804686,0.0152628515,0.05879728,-0.17638507,-0.056606673,-0.0756217,-0.29450813,-0.19422157,0.013729768,-0.02301121,-0.18482773,-0.03506964,-0.1636578,-0.027557718,-0.079547465,-0.061050907,-0.06736544,-0.27650967,-0.31895435,-0.14306317,-0.053568125,-0.19347481,-0.1403838,-0.14217374,-0.020278865,-0.08707234,-0.15744014,-0.14545538,-0.39836037,-0.3640074,-0.15806428,-0.07558491,-0.015750602,0.095527545,0.061362345,-0.0066348463,-0.075536475,-0.035402916,-0.01906796,-0.34792864,-0.38811564,-0.21004117,-0.15679684,-0.058789916,-0.10941757,0.1542188,-0.060304686,-0.19319822,-0.30523878,-0.016302805,-0.0698786,-0.05753193,-0.010335755,0.007768064,-0.021455321,-0.33587635,-0.21374413,-0.16560571,-0.27010697,-0.28040114,-0.35057545,0.028914275,-0.08309314,0.07851432,-0.2342084,-0.23166393,-0.021414502,0.105681196,0.013026008,-0.058499385,-0.17776255,-0.04797449,0.4199281,0.8363452,1.7112911,-0.69534326,-0.86172813,-1.2762345,0.10448513,0.40847677,0.9107615,0.846923,0.4270908,0.75702685,1.9219891,1.7425032,0.9077175,0.600886,0.70279825,0.78351927,0.72499275,0.7297031,0.020404117,0.7871686,1.8748965,1.5655437,0.2721637,0.63469523,0.46408305,0.38153863,0.60871506,0.5559376,0.5107814,0.8744055,0.45900974,0.7186731,0.39823818,0.5550784,0.3012413,0.39967045,0.20417917,0.50665843,0.5299292,0.5008894,0.31748077,0.5514335,-0.09972787,0.611071,0.41756496,0.37223536,0.34470662,0.47742873,0.41921228,0.3506535,0.5882798,0.42137188,-0.8177966,0.14475027,0.9023121,0.5988166,0.6234656,0.46351394,0.328056,0.4428446,0.46387452,0.44402975,0.33435172,-1.492963,0.40514582,0.6396688,0.5926731,0.40221667,0.51359993,0.6083438,0.344259,0.5722146,0.3105243,0.12994674,-2.6369047,1.0740129,0.8494034,0.6005149,0.7196538,0.25530592,0.31639653,0.16933398,0.65318155,0.31357327,-2.0138133,-3.1673853,0.9525675,1.4059553,0.8798523,0.8508204,0.54323345,0.42181006,0.5675841,0.575948,0.114391245,-1.2447248,-2.6465547,0.9046088,-1.0842332,-0.81793416,0.4023509,0.32608834,0.04678314,0.25380707,0.22734421,-0.6478914,-0.5059902,0.75423324,0.36974084,0.89481306,0.4226699,0.33401242,1.1503977,0.83775336,0.8621503,0.27399436,0.84725654,0.69602233,0.34946534,-3.4537334,-0.037488595,0.19779341,0.09729246,-0.08136447,-0.017135318,0.06449017,0.08587155,-0.0156057505,0.035159156,-0.10641838,-0.048665438,0.03842986,0.14146088,0.01109103,-0.24122883,-0.06987279,-0.06551966,-0.062359225,-0.02440411,-0.034845322,0.026973875,-0.4573306,0.16430105,0.123836875,-0.03703399,-0.11761504,-0.10242805,-0.08607654,-0.040653974,-0.17087574,-0.13550135,-0.13490576,0.0049214666,0.13107406,-0.028910697,-0.10637337,-0.1066317,-0.11442606,0.089418724,0.011803244,-0.10823122,-0.17259395,0.060846902,0.03267279,-0.004034433,-0.09387201,-0.087181285,0.027089247,-0.09187918,-0.19429338,-0.0535269,0.0017715605,0.0081480555,-0.010400963,-0.10575792,0.17045248,-0.116837956,-0.0455139,-0.019705504,-0.073785596,0.017356485,-0.12296637,-0.032289434,-0.005216804,0.008190607,-0.0078071505,0.0926006,-0.04198544,-0.04050434,-0.0932633,-0.052861318,-0.2094928,-0.017714538,-0.02812992,-0.14453863,0.0065844334,0.16881433,0.14257288,-0.0043289647,0.06256678,-0.12427302,-0.027786992,0.016953072,0.013285678,0.008644899,-0.013097671,0.15067172,0.26432115,0.13642575,-0.16956675,0.0024566692,-0.034124747,-0.1630996,-0.13617979,0.0059323558,-0.08458786,-0.119289726,0.018063158,0.1363147,-0.17923416,0.068646744,-0.011705366,-0.094262764,-0.16336608,-0.1505853,-0.085955866,-0.059449553,-0.046330564,0.1887805,0.10590187,0.03816678,-0.13836062,0.09034189,-0.13891587,0.092194416,0.052005086,0.0003385855,-0.016763534,-0.107438065,0.03678381,-0.046502445,-0.01131522,-0.5184981,-0.31564322,-0.43756804,-0.36002672,-0.19798462,-0.33662185,-0.25579718,-0.18724822,-0.29982314,-0.033245847,-0.4214712,-0.21232863,-0.4471273,-0.4485515,-0.461314,-0.20035788,-0.3072504,-0.2743028,-0.25656343,-0.2301841,-0.42183873,-0.24955323,-0.23968022,-0.61635816,-0.3489082,-0.29968575,-0.25639024,-0.45317253,-0.39915407,-0.11301239,-0.44180834,-0.77899307,-0.24586642,-0.3535436,-0.41139928,-0.41186148,-0.26727456,-0.18248163,-0.20561874,-0.0996366,-0.38519162,-0.24073571,-0.3887485,-0.23668051,-0.44556153,-0.33384132,-0.24009584,-0.35673323,0.04418154,-0.21609434,-0.34582677,-0.32555586,-0.20311868,-0.326615,-0.21258214,-0.49239403,-0.30344233,-0.19474454,0.04132594,-0.012933427,0.077346325,-0.2965345,-0.21078607,-0.19824477,-0.07538022,-0.39899865,-0.5295285,-0.34436992,-0.31881365,-0.3329141,-0.034744788,-0.3200852,-0.26065964,-0.28408137,-0.3104672,-0.34281683,-0.44531196,-0.30243123,-0.3674772,-0.24759263,-0.26648393,-0.15326567,-0.26989675,-0.1690568,-0.37094542,-0.21478464,-0.28213024,-0.37436673,-0.5259283,-0.28816757,-0.21006274,-0.28585812,-0.1517941,-0.07145417,-0.113283515,-0.2904287,-0.45248777,-0.1639452,-0.4330175,-0.3082325,-0.3668539,-0.21179925,-0.22167416,-0.27886257,-0.32861918,-0.36442995,-0.1790379,-0.3146755,-0.39381465,-0.018248951,-0.48062342,-0.2877861,-0.2748925,-0.22447886,-0.13677582,-0.08357688,0.027638145,-0.21904913,0.11651027,-0.01684259,1.2596043,-0.7409339,0.46163502,0.34475756,-0.28773955,0.28205073,0.3569871,0.1999954,0.103226915,-0.8815066,1.3377329,-0.853323,-0.16905664,0.2772598,0.10532471,0.3160217,0.27533615,0.37830877,0.2190859,0.27377093,-1.5027491,-0.92830473,0.15153043,-0.30719173,-0.2363644,0.14816515,0.12073715,0.21489793,0.22622947,-0.0027418388,0.19035955,0.07108278,-0.54463834,-0.81937146,-0.35247377,-0.088073485,0.061661065,-0.03587286,-0.10090065,-0.46932095,-0.23691562,-0.29960355,-0.29152307,-0.08217519,-0.7699284,-0.3857735,0.20001528,-0.05129199,-0.14619999,0.0039096405,-0.07485231,-0.3946653,-0.3497908,-0.1397155,-0.07661778,-0.68854487,-0.2625739,-0.20550577,-0.13978706,-0.11705514,-0.14999285,-0.03335779,-0.36349759,-0.23805918,-0.16194943,0.12593928,-0.4960999,-0.17208798,-0.07861338,-0.17050645,-0.17615066,-0.056909207,-0.041806217,-0.2060703,-0.07791789,0.008905308,0.09147956,-0.72855586,-0.74478585,-0.18811347,-0.35829183,-0.2730764,-0.3985028,-0.2662723,-0.081134856,-0.2372172,-0.018716002,-0.4763058,0.42797866,0.15627275,-0.54255277,-0.22856504,-0.0031443778,-0.10665719,-0.16028585,-0.2620122,-0.19833316,0.030480636,-0.33572137,-0.9360772,0.66983753,-0.10499537,-0.3933479,0.24758963,0.29060316,0.108367115,-0.15319929,0.3728707,0.31824183,-0.8925683,1.2750902,-0.8028482,0.99491394,0.85327697,0.6095106,0.24832737,0.31819987,0.5331849,0.1004892,-0.7915311,1.280436,1.7180523,-0.014664077,0.018257178,0.041305047,0.0840048,-0.16974667,-0.08518308,-0.23472954,-0.29230285,-0.258793,-0.30079547,0.014469769,-0.0635077,0.07380949,-0.02041311,0.03500787,0.01826576,-0.10626104,-0.13295823,-0.2013196,-0.2506698,-0.34844,-0.36594963,0.0346836,0.024349492,0.072309636,0.049211416,0.0046576126,-0.113946296,-0.07818724,-0.21837993,-0.2752169,-0.27920938,-0.34530535,-0.057884227,0.018062158,0.005328836,-0.06208266,0.0050469264,-0.117008656,-0.18006147,-0.24730454,-0.21635766,-0.28777534,-0.29435468,-0.027609602,-0.008370524,-0.051123295,-0.088652626,-0.0043703956,-0.039986894,-0.16245256,-0.14323486,-0.16345954,-0.28314382,-0.21755488,-0.035373043,0.050437223,0.0055588447,0.008121921,-0.07350103,-0.0053469148,-0.08944476,-0.17906973,-0.17145875,-0.15146491,-0.287048,0.030637825,0.029892629,0.07899915,0.050351825,-0.03804987,-0.02042305,-0.07736436,-0.14471255,-0.1578467,-0.15692571,-0.20166336,0.06896603,0.10575062,0.11326609,0.08276735,0.015434321,-0.00020447344,-0.02360376,-0.17682137,-0.122351766,-0.42843202,-0.16776311,0.0287754,0.08740559,0.045699455,0.118319295,0.07603407,0.02995085,0.010063469,-0.10057773,-0.21794575,-0.23651488,-0.2201438,0.06050999,0.066688575,0.03507309,0.06756118,0.022551794,0.032394238,-0.0033884794,-0.0049865963,-0.046762962,-0.19347176,-0.13962464,0.01683115,-0.024477152,-0.0125162285,0.11271582,-0.00013586515,-0.047313027,-0.011302492,0.008977718,0.09566434,0.03642108,-0.018772962,-0.039989285,-0.1421694,-0.08619635,-0.062368784,-0.01609283,0.035307776,0.039381728,0.20601508,0.14743425,0.1719772,0.041484714,-0.04076326,-0.06917639,-0.04670815,-0.060433988,-0.0073056053,-0.0075421226,0.10211183,-0.0054567624,0.047959957,0.12045084,0.059971333,-0.03095411,-0.05064797,-0.020129098,-0.10604842,-0.07694422,0.045531135,-0.014451375,0.15080717,-0.06705226,0.1697109,0.034303833,-0.031240474,-0.044942103,-0.15319274,-0.20282513,-0.14693175,-0.037644688,0.008581049,0.103230506,0.11047462,0.10463977,-0.003595991,-0.07647344,-0.0157575,-0.060127974,-0.068223186,0.011431416,0.016456885,0.056451287,0.04719063,0.079440154,0.06213148,0.042348653,-0.0714276,-0.02820636,-0.041258972,-0.11523036,0.029151563,-0.048674382,-0.045598567,-0.042172093,0.11381932,0.050788514,0.069605,-0.015397313,0.014746366,-0.09587085,-0.10287784,-0.07657622,0.06510234,0.03452149,0.08368841,0.16064103,0.022633055,0.005609449,0.014274456,-0.0045481496,-0.16173492,-0.18121926,-0.1581068,-0.027850587,-0.117252305,0.015390514,-0.14133435,-0.08709318,-0.19464178,0.0018913011,0.016121462,0.022561504,-0.14931878,-0.15607758,-0.08402639,-0.021099076,-0.026730342,0.10313617,-0.02721873,-0.08198121,-0.12172932,-0.20592758,-0.043136623,-0.07142342,0.0052272603,-0.1606682,-0.092907086,0.10236819,0.10866635,0.08096548,-0.09936888,0.047022503,0.071915485,-0.15424591,-0.047784306,-0.052995946,-0.054738,0.15511101,0.011414121,0.19841541,0.23783211,-2.3468481e-05,-0.009335608,-0.65522724,0.52351826,0.53208315,0.8128272,-1.8539711,-2.0732427,-0.69953287,-0.984243,-0.6143004,0.083892666,-0.64761466,0.6322164,0.46597773,0.041330695,-0.33161092,-1.1136096,-1.4750642,-0.9709686,-1.536543,-1.714865,-0.6574856,0.28467345,0.20176877,-0.39521566,-0.48209545,-0.5253429,-1.1331239,-1.5103939,-1.1435266,-0.89271104,-0.96505946,-1.8699998,0.44676208,-0.38959694,-0.61297375,-0.6519064,-1.0579963,-1.4995095,-1.0620887,-0.9370994,-0.79050016,-0.8699499,-1.6661716,0.042600248,-0.07145769,-0.5935033,-0.66083413,-1.5824541,-1.4287117,-1.2775912,-1.0456156,-0.90832937,-0.9397918,-1.9075723,0.18102267,-0.10563281,-0.7737427,-1.9267062,-1.2161592,-1.1320549,-1.1778868,-1.0850295,-1.2780112,-0.82826716,-1.6611347,-0.054346308,-0.40094903,-0.8337714,-0.9007948,-1.0966228,-1.130545,-0.9008519,-0.99030244,-0.8661543,-1.1545047,-1.8008515,0.17645185,-0.50199485,-0.6686654,-0.7058865,-0.9279697,-1.1301177,-1.0559881,-1.0189735,-0.94069564,-1.0253888,-2.0100505,0.47862604,0.016324343,-0.36842763,-0.4958246,-0.624693,-0.6403142,-0.6378893,-1.0410086,-1.4018091,-1.7678452,-1.5298032,-0.7060665,0.10283592,0.49608326,-0.31380102,-0.15852456,-0.14565873,0.0171678,0.084333755,0.5900768,0.50562674,-0.60305834,0.10752433,-0.6692219,0.56921774,0.8380762,0.4155064,0.5895547,0.7127113,0.78291386,0.5276364,-0.5699016,0.0035385175,1.7962577,-0.006330448,-0.16919044,0.13721745,0.21133965,0.09767927,0.09075761,0.29235178,0.18017146,0.042488202,-0.03654427,-0.009741801,-0.03939159,0.20647115,0.22851062,0.018743701,0.05315597,-0.051317316,-0.04830379,-0.06695781,-0.0061048246,0.1268621,0.046454802,0.035653286,0.1806199,0.14085965,0.15291406,-0.013945178,-0.09414572,-0.12172431,-0.06574806,0.042881705,-0.06018887,-0.027322162,0.01918082,0.17146972,0.06425294,-0.014221583,-0.08494257,0.04079225,-0.022796815,0.06906557,0.07829229,0.088755354,0.25861496,0.22159742,0.025408396,0.0479771,-0.12922023,-0.04005204,0.10133131,-0.107729584,-0.08198285,0.06228558,-0.020767316,0.2154462,0.06168068,0.03188189,0.06585076,0.05190658,-0.120956406,0.0034498794,-0.034239985,0.030297922,0.0048458935,-0.02900806,0.27814487,0.085479975,-0.027850172,-0.084710054,-0.09386761,-0.08028297,-0.14573722,-0.1826243,0.017979747,-0.09889071,-0.12244713,0.2033593,0.022018148,-0.0088316165,0.03208548,0.05998955,-0.1076364,0.017600998,0.10792563,-0.03254411,-0.002437499,-0.10345771,0.17112295,-0.045111425,-0.08119857,-0.05813531,-0.019657126,-0.0649739,-0.052292544,-0.020855222,-0.15230834,-0.22180918,-0.11056539,-0.0062422594,-0.24150497,0.17976727,-0.016138084,0.17509627,-0.0023388977,-0.04814417,0.08015565,0.12503515,-0.094814755,0.13498256,0.17831561,-0.035372417,-0.15879305,0.19533688,0.103168555,0.16224553,0.27670532,0.22631466,0.052430276,0.094346255,0.16010219,-0.025939863,0.037657592,-0.40254554,-0.15538105,-0.3495459,-0.41736957,-0.42499575,-0.2966127,-0.18366915,-0.31525046,-0.12182163,-0.015196404,-0.23708269,-0.060566407,-0.30679312,-0.16668123,-0.19176736,-0.18412271,-0.24737051,-0.089936465,-0.19975485,-0.34417847,-0.18165617,-0.22513406,-0.28245062,-0.23470321,-0.20282304,-0.2930224,-0.2626725,-0.3766881,-0.20360275,-0.27414837,-0.2853133,-0.39311635,-0.42341068,-0.42994052,-0.29715884,-0.10934304,-0.3503525,-0.048702165,-0.26345426,-0.06071855,-0.1452069,-0.2139891,-0.3237416,-0.38277766,-0.41176435,-0.13680151,-0.1932941,-0.13438122,0.07712067,-0.122492336,-0.23209801,-0.14556158,-0.14959311,-0.28961998,-0.4998474,-0.3097237,-0.19999544,-0.112722665,0.053260144,0.043371446,-0.05046499,-0.10767203,-0.1429446,-0.12071617,-0.2863569,-0.46522608,-0.3763251,-0.3134168,-0.18081285,-0.1513119,-0.047334895,-0.15846957,-0.17725962,-0.24539903,-0.2869836,-0.18808925,-0.57609713,-0.37980896,-0.37974137,-0.16962437,-0.23127593,-0.13000225,-0.049056035,-0.112574145,-0.263069,-0.26936257,-0.1602992,-0.7188389,-0.5764763,-0.2602972,-0.36067712,-0.2733283,-0.20034832,-0.2347851,-0.15832512,-0.25393796,-0.38684565,-0.2460836,-0.30700764,-0.37017652,-0.3944545,-0.37008625,-0.08924393,-0.3102577,-0.25182632,-0.16679837,-0.46115148,-0.35315928,-0.18953729,0.03654208,-0.41640994,-0.25104043,-0.2978723,-0.29245836,-0.32409528,-0.21014553,-0.36435956,-0.4085141,-0.16855353,0.02326302,0.38593403,0.68930185,0.8924044,-0.66010165,-0.9145145,-0.56966424,-0.00070500135,0.3306637,0.91718346,0.6212481,0.496763,0.6578217,0.871384,1.0140921,0.29260316,0.35274178,0.32767668,0.47909835,0.55618703,0.9683629,0.8415858,0.5693332,0.8422949,1.2464206,0.5863357,0.24692646,0.29925758,0.1622697,0.20272051,0.7268838,0.8229042,0.95244956,0.65077496,0.956348,0.60852814,0.36059794,0.24748531,0.42328176,0.349866,0.44703323,0.67663413,0.7725516,0.71451795,0.13721113,0.72511077,0.7852303,0.73995197,0.40692922,0.514344,0.4910013,0.6113307,0.42798603,0.92577523,1.1292648,0.3747649,0.67971104,0.72525334,0.7269452,0.4917383,0.39982104,0.6222618,0.60521454,0.5450479,0.85483414,0.7945088,0.29622647,0.4974626,0.47375864,0.527845,0.37733176,0.6677774,0.98022145,0.59142584,0.70425844,0.7261331,0.7390875,0.38622528,-1.67586,0.54351664,0.43130922,0.4446986,0.20298803,0.5514702,0.6381126,0.8507339,0.7040422,0.16335225,0.20213756,0.45395896,-1.5377867,0.47691143,0.23435383,0.17473894,0.21076329,0.64586574,1.0361366,0.4151908,-0.1301834,-0.121808335,0.4944395,-0.81609726,-1.3067086,0.6039535,0.34510383,0.50541914,0.50242704,0.8359617,-0.74258363,0.18518512,0.5826798,0.4968625,0.56340075,0.13131906,-1.6209296,0.2974045,-0.34733924,-0.47359,-1.1611332,-0.28349873,0.607709,0.54256237,-1.3312494,0.019021522,-0.2987026,0.42559063,0.23997052,0.26628008,0.49783963,0.57754254,0.4943675,0.5141108,0.3589328,0.050140385,-0.22875173,0.03860585,-0.033123776,0.04642006,0.23982108,-0.0626028,0.13188642,0.08948757,0.21900812,-0.09745786,-0.3171326,0.013220149,0.100624785,-0.11651655,-0.016168995,-0.04039474,-0.015460335,0.12593062,0.17096102,0.03135002,-0.22611298,-0.22192709,0.076968774,0.016942611,0.024496999,-0.044371773,0.17415644,0.030334136,0.07189697,0.28253138,0.08018274,-0.018615536,0.027209818,-0.0035342246,-0.18814722,-0.13686992,-0.17153136,-0.084516,0.17954789,0.07282697,0.08217777,0.017420972,-0.21568859,-0.18821068,0.17304909,-0.21020842,-0.13032612,-0.15095286,-0.17205559,0.041067082,0.26762125,0.030419504,0.08307644,-0.16816598,-0.11724758,-0.010238809,-0.25250286,-0.11950605,0.060362723,0.011907347,-0.008757374,-0.045664445,-0.024794992,0.08287869,-0.26446265,0.015698677,0.05494369,-0.12321137,-0.017537462,-0.021800784,-0.12691343,0.06792677,0.10310665,0.093144074,0.06072102,-0.28248522,-0.08522538,0.0051316414,-0.1704812,-0.1332647,-0.092154674,0.17090172,0.20547216,0.113740996,0.028703,0.024427088,-0.1852384,-0.089097396,-0.68599415,-0.047386363,-0.23913217,0.06539122,0.026471341,-0.17861617,0.084107764,-0.1320003,0.00031423077,0.06376368,0.035738215,0.00711861,-0.8154299,-0.094575435,-0.05703228,0.14210716,0.46302548,0.12621132,0.07667313,0.06698912,-0.15886606,-0.037694175,-0.04782098,-0.38416773,-0.12314425,-0.13375045,-0.24693282,-0.106941186,-0.17656413,0.2665557,0.06830359,0.1829773,0.005529508,-0.1713994,-0.12804483,-0.23948915,-0.012400081,0.10123888,0.032432053,0.053012736,0.32137966,0.10878082,-0.08140459,0.17652194,-0.19124322,-0.28791776,-0.07181841,0.11101069,0.11035163,0.09213683,-0.014574013,0.26285675,0.1403199,0.1744698,0.1696315,-0.34584284,-0.49411297,-0.073297426,0.17826411,-0.11361043,0.22067763,-0.09164144,0.06548024,0.41950998,0.075424045,0.062140945,-0.3728449,-0.28936374,0.039926708,0.077385075,0.19817147,0.045398302,0.2175546,0.29897845,0.32928556,0.2052876,0.51996493,-0.42603686,-0.2732028,0.09821892,0.11580778,-0.05063778,0.027199464,-0.05609886,0.17907287,0.25448498,0.17111999,0.26045755,-0.1365897,-0.20452736,-0.026531033,0.15822428,0.06917038,0.09222858,0.13739502,0.30123883,0.23016228,0.021793276,0.013315964,-0.06790406,-0.27793467,-0.035234693,0.079324186,0.0973844,0.2852916,0.24841191,0.26939693,0.17087133,-0.06703704,0.19119015,0.0050826618,-0.15996645,0.041893736,-0.043168526,0.05631472,-0.06712526,0.18329677,0.05987058,-0.03443184,-0.008266615,0.028700568,-0.19444889,-0.17527522,-0.19133641,-0.12293812,0.3515737,-0.13436955,0.0123299,0.2959458,0.08947703,-0.106061704,-0.1473154,0.031820055,-0.097432785,-0.13812357,-0.17176451,-0.06792705,0.100540265,0.36058328,-0.014386539,0.08447203,0.14063656,-0.004942927,-0.29412323,0.34963864,0.121377334,-0.1494492,-0.5154873,-1.03077,-0.4941906,0.07541851,-0.078449436,0.3694032,-0.35418084,0.35730016,-0.12009229,-0.032002993,-0.14191882,0.2161731,-0.4941565,-0.19314037,-0.23861673,-0.49899855,0.10243355,0.35823795,0.39600176,-0.11407048,-0.2747859,-0.44997454,-0.4167375,-0.8076667,-0.71820295,-0.022371346,0.07787783,0.00968621,-1.4288981,0.40532583,-0.3611407,-0.37091312,-0.5656802,-0.13851489,-0.79415274,-0.5506552,-0.344624,-0.12570545,0.1439558,-0.2158307,-0.038905025,-0.21618874,-0.18576373,-0.31730068,-0.43543372,-0.5845454,-0.1897689,-0.6506133,-0.24295028,0.051493693,-0.4886325,-0.7145761,-0.2960027,-0.27077097,-0.6163896,-0.43744946,-0.61492056,-0.58960843,-0.4542691,-0.3116821,-0.33402562,-0.33416575,-0.34222552,-0.3579103,-0.22575161,-0.4028444,-0.11341948,-0.3060892,-0.34408218,-0.43404117,-0.41862813,-0.2857009,-0.068478376,-0.30172208,-0.30805597,-0.1489929,-0.30852222,-0.27847415,-0.2963085,-0.3307381,-0.4181235,-0.3093688,-0.4227506,-0.69155383,0.4630399,0.1110648,-0.40557232,-0.23366344,-0.18043873,-0.4924277,-0.22089611,-0.14713499,-0.29045635,-1.7949958,-0.5063702,0.34811306,-0.47990736,-0.011829009,0.1721865,0.026709475,-0.25325602,-0.09016664,-0.13859095,-0.49571472,-0.2313755,0.40007958,-0.34870574,0.3163123,-0.94676095,0.24267285,0.3700749,0.16965315,0.23577864,0.24121132,0.1550895,0.37460163,-0.3102197,1.2436727,0.0070799585,-0.039386325,-0.6722547,-0.38781986,-0.38376454,-0.51521397,-0.49371672,-0.5755046,-0.7677029,-0.43007484,-0.011823441,0.11423371,0.092484504,-0.0051778946,-0.02599857,-0.23989321,-0.029079242,-0.09919843,-0.31944847,-0.29395977,0.08790831,0.26500922,-0.11045666,-0.076538585,-0.023332393,0.08054505,-0.007464634,-0.06028866,-0.24569286,-0.21923359,-0.233675,0.11603823,0.20714147,-0.26964882,-0.07819202,-0.08605743,-0.04108338,-0.30780536,-0.033665814,-0.11678402,-0.2893782,-0.061035544,0.13447171,-0.0023395354,0.038901478,0.09290782,0.023495344,-0.06299682,-0.14656802,-0.0899836,-0.06406405,-0.29553214,-0.029692285,0.16847426,0.4375158,-0.31800684,0.12685995,-0.01233158,0.08130767,0.06924992,0.01792744,-0.1847652,-0.1499362,-0.16506419,0.11658659,0.24529904,-0.13791586,0.036095314,-0.0769107,-0.14287773,-0.13680772,0.056071896,-0.07707621,-0.07310404,-0.25291103,0.14384349,-0.06836279,-0.23123826,0.049233377,-0.14165725,-0.102800585,-0.016944306,-0.036389902,-0.07944412,-0.203513,-0.18891089,0.032151,0.00030551018,-0.33086154,-0.014168292,-0.08932517,-0.1413699,-0.32479283,-0.16486745,-0.15595816,-0.2130162,-0.13497238,0.072456025,-0.03330815,-0.10521651,0.16732591,0.21927887,0.0463369,-0.024372261,0.19967811,-0.02521274,0.049749326,-0.39844006,-0.0024036593,-0.2155531,0.051817544,0.617839,0.26594102,0.29951915,-0.09236207,-0.22566232,0.19386669,-0.08016294,-0.028520342,0.16960114,-0.05093793,0.0459893,-0.17441471,-0.24462101,-0.29509228,-0.12821577,-0.110824354,-0.25039306,-0.5361365,-0.48954538,-0.605582,0.029195698,-0.29271632,-0.11901754,-0.1277477,-0.2576705,-0.28078678,-0.17973964,-0.19944015,-0.34179577,-0.61033505,-0.46714267,-0.390672,-0.046351455,-0.15029296,-0.27623633,-0.43772605,-0.31025085,-0.25622168,-0.20532395,-0.31227463,-0.44097692,-0.4625605,-0.5359538,0.07390801,-0.022855178,-0.3178899,-0.42874506,-0.23256339,-0.3848417,-0.3734534,-0.16149895,-0.57528484,-0.18569037,-0.33724046,-0.0065504787,-0.058081508,-0.2049294,-0.18448906,-0.40175313,-0.41769227,-0.4229442,-0.47395182,-0.41399923,-0.6729916,-0.7119191,-0.034428623,0.02712871,-0.19298826,-0.11670654,-0.040473584,0.007182761,-0.06605995,-0.40795717,-0.45449555,-0.29553387,-0.46751025,-0.11444824,-0.15726641,-0.3447909,-0.34120616,-0.18997623,-0.2570645,-0.1863906,-0.4289281,-0.24802704,-0.274717,-0.40862745,-0.06724822,-0.08349928,-0.42787156,-0.30963823,-0.30428195,-0.50763935,-0.5340935,-0.41648957,-0.5377815,-0.39765525,-0.6703412,-0.31275696,-0.28904298,-0.38149047,-0.34359476,-0.26976636,-0.40074426,-0.19453932,-0.40106604,-0.39329773,-0.40545484,-0.6121216,-0.24526528,-0.10407876,-0.30844167,-0.25423512,-0.566291,-0.3194712,-0.23101263,-0.47743496,-0.6026782,-0.4540178,-0.6690849,-0.037072122,-0.12973845,-0.18889952,-0.1989905,-0.21004237,-0.3818449,-0.49622437,-0.32865444,-0.29244438,-0.53607124,0.03451813,0.09428421,-0.2640645,-0.9215214,0.033872254,0.46920943,0.68637943,0.6904869,-0.09394905,-0.47687182,-0.18167435,0.10824987,-0.27178946,-0.85534614,-0.32022697,-0.43525594,-0.52129686,-0.12831332,-0.25061032,-0.36467683,-0.4244702,-1.2780863,-0.216004,-0.68630004,-0.4878192,-0.33051237,-0.3291696,-0.1674987,-0.020453967,-0.05949595,-0.3542142,-0.4418529,-1.0550863,-1.2590326,-0.24088927,-0.16535744,-0.34189776,-0.09623457,-0.26850837,0.1866265,0.23136038,-0.14126307,-0.37696588,-0.5369248,0.7003877,-0.3330803,-0.20977288,-0.43252036,-0.20373838,0.045152873,0.14657724,-0.12226353,0.21675329,-0.050005473,-0.6060218,0.1515854,-0.120129205,-0.06983823,-0.07701348,0.25638434,-0.118011035,0.19821319,0.080912605,0.11399245,0.1475422,-0.52059823,-0.39025065,-0.23834622,-0.079803325,0.0040987777,-0.0729627,-0.1782328,0.040311906,0.0136518795,0.0802935,0.26198786,-0.6655132,0.4696669,-0.57919896,-0.3195001,-0.21144389,-0.17657703,-0.12454529,0.0015544343,0.13060266,0.0869003,-0.19175118,-0.49963248,0.13496193,-1.3164829,-0.4331904,-0.19087847,-0.24308275,0.06417661,0.14312093,-0.19055252,0.0987444,-0.35816005,-0.7674013,-0.48383337,-0.31882235,0.80173147,-0.5612516,-0.70183575,-0.4781015,0.015341578,-0.48010042,-0.124322,-0.64203405,-1.4865314,-0.3103065,0.11978948,-0.2737839,-0.12044702,-0.1820902,-0.060272977,-0.2718982,-0.36920828,-0.045622725,-1.1831346,-0.24678877,0.03412009,1.4468317,0.0012799258,-0.094906494,0.23716268,0.047004532,0.21954004,0.26784605,0.34895357,0.3683675,0.34626856,0.060241196,-0.005440089,-0.18454614,-0.017814776,0.01399465,-0.2776531,-0.02018047,-0.11699963,-0.03926481,0.038302947,0.107395805,0.2363462,-0.18480062,-0.18606101,-0.15341692,-0.16298695,-0.11012024,-0.067866996,-0.0507026,-0.08214991,0.0048681977,0.12831278,0.026668524,-0.1064028,-0.28965512,-0.27214795,-0.20777272,-0.19380298,-0.15747316,-0.10449605,-0.09367987,0.034732174,-0.07472212,-0.041250587,-0.035404265,-0.17859241,-0.24616057,-0.114350975,-0.21406147,-0.18296988,-0.034255013,-0.09060903,0.0009939882,-0.07640438,-0.012021612,-0.16515443,-0.24570729,-0.23485231,-0.03550381,-0.15131368,-0.21987516,-0.028311256,-0.014670899,-0.0352847,-0.070042074,0.010980769,-0.017024444,-0.14652237,-0.13626616,-0.060314614,-0.15186606,-0.13444118,-0.15741353,-0.108772494,-0.05824835,0.010317678,-0.0014636534,0.19467105,-0.17392033,-0.23230375,-0.07061619,-0.16443221,-0.13324073,-0.15454248,-0.0043053706,-0.05162362,0.061282847,0.25323445,0.076711334,-0.21478462,-0.30716494,-0.051670108,-0.28842506,-0.28186056,-0.21517156,-0.19716837,-0.119425006,-0.06432223,0.12814654,0.19457261,-0.38038868,-0.13033423,-0.18702982,-0.179903,-0.25200233,-0.35097268,-0.15178439,-0.3216395,-0.2027796,0.1770787,0.16046137,-0.05201769,-0.45924747,-0.16039945,-0.31171107,-0.2273818,-0.12162745,-0.21194008,-0.25276363,-0.22738577,-0.04419147,0.0038263248,-0.020591656,-0.15386736,0.07255089,-0.20677094,-0.17760736,-0.15092915,-0.043428123,-0.07934249,-0.15050268,-0.027298199,-0.01250852,-0.1048837,-0.20048481,-0.0560248,-0.14178461,-0.020576918,-0.005471697,-0.11782706,-0.028104944,-0.08442062,-0.23144509,-0.23297794,0.077306464,-0.15573536,-0.1811824,-0.04732967,0.034545828,-0.10799163,-0.16175593,-0.061347064,0.022015244,-0.1962379,-0.1384989,-0.09911659,-0.23487848,-0.054264065,-0.04713473,-0.10930111,0.032533657,-0.083806135,0.036548607,-0.06017604,-0.19003908,-0.034345124,-0.026319701,-0.18257493,-0.027744362,0.046512913,-0.09345124,0.05876301,0.039070014,-0.02347373,0.028115822,-0.031095369,-0.027783664,-0.050376486,-0.17291348,0.006883094,0.078190155,-0.19339459,0.009664666,-0.037713915,0.07526075,0.033881247,-0.09160492,-0.093624055,-0.0800256,-0.20845313,0.017939694,0.0034898403,-0.03678829,-0.026015861,-0.052581582,0.004438636,-0.08665428,-0.104138084,-0.019277155,-0.09353236,-0.08739904,0.012853704,0.0024730174,0.05535226,0.060907155,0.0061457837,0.017250586,-0.11493788,-0.12596215,0.06085427,-0.061244573,-0.058365054,0.059933126,0.06583489,-0.07595051,0.0135768335,0.09366275,0.0041934852,-0.1437143,-0.08619378,0.045734804,-0.0053944713,0.2039725,0.078696005,0.17344421,0.16684845,-0.01972841,-0.10654129,-0.14626373,-0.17130478,-0.125341,0.040401395,-0.012466406,-0.0254547,0.25892475,0.06102108,-0.16844113,0.027063407,0.08686029,-0.080063425,-0.19649027,0.031760473,0.052206624,-0.14640506,0.41693303,-0.27751607,0.15829895,-1.0169953,-0.8002622,-1.6609414,-1.9782063,-2.4738312,0.44777328,-0.08116352,0.4721461,1.0294778,0.15203263,-0.02057841,-0.13672079,-0.45535755,-0.6871556,-2.436653,-2.932945,-0.7215686,0.47076163,0.7283982,0.32792792,0.03290349,-0.053385973,-0.1448033,-0.06114062,-0.34974995,-0.2394206,-0.06556512,-2.1091886,0.22931212,0.38419193,0.020120157,0.11205726,0.101387754,-0.037690517,-0.049813148,-0.5941429,-0.008932801,-0.2503042,0.13195573,0.076967865,0.5830518,0.24971251,0.24555604,-0.046468798,-0.18491645,-0.16675314,-0.43036872,-0.41133493,-0.06444702,-0.0068240454,0.40278408,0.38333425,0.16172366,0.093993396,-0.18383275,-0.1769271,-0.30679238,-0.3023588,-0.07241964,-0.2318304,-0.07844563,-0.020358626,0.45708779,0.13185395,-0.10407694,0.047035214,-0.23780115,0.13611263,-0.33910313,-0.025964232,-0.20446675,-0.07318965,0.16640823,0.577388,0.5224534,0.18612139,0.18790188,-0.08563601,-0.20294248,-0.21951252,-0.18005389,-0.040650237,-2.0600636,-3.701656,1.425449,0.9338652,0.7392278,0.40118513,0.3728942,0.11003923,-0.06423083,0.052671593,0.034670677,-2.4642644,-2.3417063,0.4407614,0.9115331,-1.421427,0.81810033,0.714258,0.5675052,0.7230239,0.19441374,-0.22828151,-0.11447335,0.41590965,-0.10317228,0.42505166,1.3217661,0.27767774,0.31911978,0.57810557,0.537125,1.0132921,0.7155708,0.42751542,-0.10148636,1.5141535,-0.01718479,-0.5270652,-0.10031626,-0.087474376,-0.0041869767,0.20120832,0.22178544,0.2743549,0.021179162,-0.08156446,0.046190746,-0.2688971,-0.13820376,-0.21534239,-0.1899316,0.07212477,-0.06392704,-0.09032781,-0.11059576,-0.057964604,-0.16493312,-0.29877535,-0.016703969,-0.05458099,-0.21629813,0.021490132,-0.15750043,-0.27295992,-0.15824096,-0.26919582,-0.1198164,-0.075057596,-0.22176114,-0.018978084,-0.095919006,-0.18723837,-0.19481073,-0.16074985,-0.0878926,-0.13386957,0.032991555,-0.14823242,-0.080923505,0.08002186,0.04967689,-0.09112314,-0.08214278,-0.28340203,-0.13873531,-0.11842598,-0.13342506,0.023441896,-0.013475072,-0.108519405,0.110914715,0.20505635,0.04178071,-0.06553053,-0.008609965,-0.09316282,-0.052264966,0.058693655,0.05994125,0.061388258,0.017013537,0.033345744,0.122444615,-0.10349515,-0.15587685,-0.01993609,-0.051566333,-0.10555652,-0.16228527,-0.013532147,-0.014163707,-0.06268784,0.042180426,0.073035724,-0.056125533,0.035332497,-0.0008675987,-0.09077151,-0.111949146,0.055881925,0.05778576,-0.06067025,-0.073462784,-0.011820799,-0.09216554,-0.25052118,-0.28082806,0.01907466,-0.006112001,0.0013696442,0.007917273,-0.053306308,-0.16385418,-0.062229723,-0.0721547,-0.5123282,-0.06535636,-0.03997776,0.0039286395,0.014940138,-0.14659731,-0.020104254,-0.036415577,-0.1321042,0.11392572,-0.13683514,0.04545025,-0.24030615,0.12712269,0.091776066,0.14385657,0.3191534,0.11659599,0.16935092,0.08942905,-0.009209172,0.040633246,0.03695468,-0.38444415,-0.05500286,-0.3533697,-0.46198574,-0.3080306,-0.4985823,-0.037886042,-0.1933453,-0.109588295,0.040821988,-0.42644864,0.056692705,-0.29536852,-0.3030433,-0.16615567,-0.254724,-0.2459408,-0.10823922,-0.3184092,-0.60447985,-0.50004494,-0.1398403,-0.2978666,-0.5629933,-0.31242737,-0.20502812,-0.27122137,-0.41864306,-0.27540183,-1.4336442,-0.49781668,-0.23488702,-0.29161105,-0.57904863,-0.35113433,-0.28776607,-0.5289947,-0.19856592,-0.3755633,-0.14152412,-0.24834351,-0.20582692,-0.21947397,-0.19699028,-0.4163416,-0.2262332,-0.27341366,-0.22660932,-0.13445659,-0.18347868,-0.31640926,-0.16982877,-0.11521331,-0.08768847,-0.21226305,-0.34330702,-0.23574765,-0.1339094,-0.070053756,-0.05041348,-0.03963172,-0.27818918,-0.3108076,-0.17228958,-0.081079364,-0.31298137,-0.3682009,-0.37195575,-0.22361358,-0.11354871,-0.24463513,-0.2764116,-0.22384764,-0.31694683,-0.27742174,-0.11558975,-0.32928425,-0.20566769,-0.36017007,-0.30701,-0.1932984,-0.21049984,-0.18511848,-0.15139718,-0.22715499,-0.40706512,-0.10368867,-0.2445809,-0.32666096,-0.5128304,-0.28304765,-0.3559828,-0.33050635,-0.18410923,-0.14541703,-0.3669603,-0.14771622,-0.20523557,-0.29925567,-0.318723,-0.37452552,-0.49079138,-0.05239292,-0.29758477,-0.43610922,-0.18487631,-0.396622,-0.20886253,-0.1382483,-0.03847912,-0.21167403,-0.14598452,-0.22253676,-0.31467766,-0.36554176,-0.12409226,-0.24038148,-0.24911273,-0.27092054,-0.049273964,0.3168981,-0.46991923,-2.2158468,-0.08811693,-0.021515798,0.33250037,0.3756145,0.34342194,0.46749264,-0.588548,0.28634772,-0.53464544,-1.544258,-0.51831526,0.0018765848,0.165933,-0.1381256,0.069874905,0.07975586,-0.34662706,-2.1103032,-0.57172674,-2.1149848,-1.6767602,-0.12230613,-0.35287496,-0.16442792,-0.29921034,-0.19729613,-0.09144,-0.6549232,-2.2020087,0.6062965,-0.33298615,-0.17560093,-0.20098016,-0.2233599,-0.27153036,-0.40417573,-0.20524266,-0.071848504,-0.14687406,0.08918099,0.47801474,-0.060698316,0.0041049253,0.057503372,-0.29773945,-0.14045528,-0.4114339,-0.3347473,-0.40503767,-0.21898805,0.45041984,-0.15134732,0.11293567,0.11615844,-0.06556489,-0.1858263,-0.24689506,-0.2312067,-0.26376665,-0.21028979,-0.052003503,0.18052472,0.17926951,0.09161706,0.36898956,-0.10901363,0.044263743,-0.30587476,-0.10053053,-0.26616856,-0.3813251,-0.32205522,0.3291221,0.0029750552,-0.28604317,0.26720577,-0.013333538,-0.085836954,-0.37371153,-0.4332973,-0.21977177,-0.26199517,-0.28052408,0.11546278,-0.49931824,-1.8354251,-2.1341662,-0.21128593,-0.115357384,-0.1561988,-0.25406653,-0.3598208,-0.22619717,-0.026559217,0.5781907,-0.99340653,-0.6716576,1.0018002,-1.447892,0.17273492,0.16988727,-0.3979539,-0.2336619,-0.3850218,0.17833798,1.0142717,-0.5303639,0.4696043,-0.5430425,0.24033822,-0.35001034,-0.17310065,0.054401033,-0.38166964,-0.1643604,0.17361195,-0.54322314,0.25711453,1.7515157,-0.023487665,0.47136602,0.046248052,-0.10480199,0.03344825,-0.0902776,-0.051618624,-0.12668988,-0.20612516,0.052592732,0.015919872,0.12966958,0.42224282,0.3422754,-0.14228806,-0.05008054,-0.101809226,-0.0038538605,-0.21572478,-0.091150805,0.277817,0.19026694,0.008052538,0.26153284,0.14399533,0.09774327,0.024455074,-0.038325306,-0.12446346,-0.25161794,-0.2337139,0.06661102,0.039157514,-0.093097076,-0.050257444,-0.117093794,-0.054836262,-0.2630325,0.09144042,-0.08378954,-0.20114346,-0.1940295,0.009139189,0.12748605,0.103904784,0.01852945,0.1085541,-0.10036372,-0.042980395,0.013268743,-0.05477605,-0.22473957,-0.043583695,0.035232104,0.14055322,-0.072857514,-0.02471158,0.08314404,0.19060203,-0.104344934,-0.0014627625,-0.13595513,0.028438779,-0.050427884,0.019160148,0.16961928,0.1280955,0.16629843,0.022620207,-0.06150837,-0.121459834,-0.059927728,-0.21369053,-0.05687332,-0.20452361,0.07083488,0.16847596,0.13825059,0.11437206,0.17773399,0.02099876,-0.046412893,0.03182161,0.1100741,-0.10865376,-0.08045024,0.107398294,0.23256177,0.11485862,0.19295265,0.09996161,0.0804976,-0.13968329,-0.03559762,0.050118458,-0.22098126,-0.10705353,0.088771746,0.03824904,0.31079572,0.449786,0.17697899,0.12403863,0.0052480046,-0.043581635,0.027490817,0.18377915,-0.03173252,0.28034434,0.24024408,0.035982408,0.2453967,0.13193105,-0.09266117,-0.16079448,-0.056090295,0.069399066,-0.021158215,-0.08375445,0.2550069,-0.030051153,-0.050316826,-0.16416752,0.092685655,-0.16828014,-0.044066664,-0.014696032,-0.013760938,-0.09921872,-0.027560888,-0.211661,-0.03922134,-0.29482418,0.07305976,-0.097154,-0.23863739,-0.23653124,-0.0807004,-0.26425833,-0.123362966,-0.15965764,-0.17698006,-0.2910364,0.01527038,-0.29432496,-0.28940955,-0.15323743,-0.12464008,-0.1100031,-0.29417434,-0.18562323,-0.14882034,-0.20320128,-0.2229329,-0.0703051,-0.3415335,-0.2009591,-0.1184565,-0.32113686,-0.01762769,-0.17897421,0.13666035,-0.14613922,-0.09794991,-0.23348409,-0.10675193,-0.29230958,-0.13420565,-0.1354472,-0.17334172,-0.07005344,-0.04706348,-0.2081425,-0.20222703,-0.15687056,-0.1758577,0.013937831,-0.18853635,-0.062907726,-0.03787004,0.051189158,-0.035198044,-0.108265,-0.20602928,-0.16088296,-0.12168588,-0.06342449,-0.25289837,-0.46051562,-0.27624828,-0.18599191,-0.14504585,-0.27305067,-0.14632228,-0.2198003,-0.20087388,-0.1431514,-0.15902261,-0.17972249,-0.15955597,-0.29413345,-0.10167091,-0.105719894,-0.054581508,-0.16571479,0.013112374,-0.17245157,-0.26752555,-0.07863712,-0.050887674,-0.23384921,-0.2990378,-0.09036054,-0.1877275,-0.10565058,0.03168882,-0.00226195,-0.35919976,-0.1957073,0.021253504,-0.14378719,-0.21588019,-0.09659626,-0.2044899,-0.06988555,-0.16123529,-0.23332828,-0.24991599,-0.4158774,-0.1566722,-0.2605027,0.0059910985,-0.48939565,0.06621739,0.0011676939,-0.22665715,-0.06524271,0.063062616,0.011819545,-0.13919799,-0.10697681,-0.036287326,0.4594367,0.55907416,-0.6546796,0.16082396,0.5083806,0.5612014,0.6028194,0.75932866,0.39970312,0.6248725,0.5101797,0.64542013,-0.9877108,-0.07627053,0.35241365,0.44576728,0.5830682,0.37275332,0.22507226,0.11107592,0.47542858,0.585687,-0.44077364,-0.42121518,0.14262578,0.54535687,0.9290316,0.93303585,0.78539747,0.58155984,0.5327132,-0.21546891,-0.056588512,0.025143668,0.3187392,0.57259625,0.56373835,0.4626611,0.6349689,0.517102,0.60452366,0.6601559,0.55936795,-0.122158915,0.24773058,-0.20860672,0.45477325,0.62381583,0.7656503,0.7642975,0.6291485,0.6610852,0.81337523,0.55814666,-0.2770254,0.7420154,0.10675833,0.57432216,0.7264019,0.5512477,0.8905371,0.7204073,0.6889056,0.88480467,0.36084655,-0.5275129,0.682713,0.7525512,0.6458632,0.47164786,0.46489957,0.9091815,0.78534806,1.0125203,0.9291128,0.47382003,-0.49229968,0.7445462,0.61778635,0.6422192,0.48388872,0.5271742,0.64727753,0.59569174,0.9048414,0.7358847,0.3812698,-0.030526934,0.99815756,-0.47619087,0.77568704,0.34920144,0.9046224,0.87899053,0.6021029,0.98392314,0.6549674,0.09795607,0.07399726,0.69685686,0.19717322,-0.65240914,0.34575373,0.6936984,0.7207032,0.7621496,0.57526904,-0.36538768,-0.37012076,0.5606817,0.4704509,0.59359133,-0.123934664,0.18652901,0.4223993,0.18934749,0.08568437,0.09015001,0.11038867,0.61260045,0.47511077,-1.3464475,0.014654099,-0.2736654,-0.16012238,0.0014382019,0.12890938,0.07781942,0.14454941,0.21020918,0.15696406,0.58441794,-0.051589876,-0.10059965,-0.096042246,-0.22767805,-0.06977034,-0.011284706,0.016033912,0.06576883,0.009892122,0.203227,0.07317231,0.04452927,-0.19826193,-0.022633394,-0.21238859,0.009843956,0.1579412,0.10372633,0.12121228,0.09637713,-0.011784874,0.11367902,0.37687972,-0.22959588,-0.053357642,-0.2706552,-0.03917077,-0.08320766,0.13032347,0.06193922,0.056645125,-0.12594515,0.040318873,0.17356953,-0.12017051,-0.028685138,-0.36440253,0.083203636,-0.06943569,0.17763239,0.044887103,0.07873595,-0.0753294,0.07268917,0.22472055,-0.18170214,0.12044856,-0.29714262,-0.021229241,-0.013375257,0.048756815,0.044565193,-0.044753574,-0.030848121,0.14723846,0.25444195,-0.01743759,0.20781545,-0.2880877,-0.05574913,-0.040688645,0.07665332,-0.054217473,0.01177118,-0.032590516,0.10703501,0.19767305,0.013722003,0.26097834,-0.27431184,0.09658418,0.08196335,0.038903147,0.03866472,0.045057923,-0.009433028,0.071856596,0.19640067,-0.060194124,0.12843914,-0.42861685,-0.15629573,-0.228138,-0.19740768,-0.086172745,-0.09962433,-0.359698,-0.008588341,0.06470283,-0.14690214,0.032053947,-0.41291094,-0.3145836,-0.26267725,-0.07915374,-0.27820334,-0.23392001,-0.17079769,-0.14111935,-0.45412752,-0.011742645,0.20805594,-0.47551107,-0.066675775,-0.054382373,0.014465611,0.049762797,0.051717423,0.020093806,0.1340131,0.042503543,0.028128212,0.0013901463,-0.013205304,-0.06981067,0.15116993,-0.16039188,-0.26959285,-0.15299407,-0.07986914,-0.13081901,-0.042805962,-0.23724161,-0.014529799,0.035752986,-0.07610459,-0.17922193,-0.079330556,-0.19554846,-0.13790946,-0.065184675,-0.15511917,0.12435309,-0.1644354,-0.10355239,-0.003122731,0.13453604,-0.15958406,-0.20421514,-0.055099647,-0.07985585,-0.18105383,-0.23569755,-0.14470775,-0.11469728,-0.00082499493,-0.051743284,0.07817023,0.053940874,-0.030701857,0.010241241,-0.12185238,-0.33351603,-0.38553187,-0.13411896,-0.10133446,0.15258746,-0.0057701757,0.14075208,-0.023690786,0.10306256,0.12943533,-0.013357401,-0.11189496,-0.1749656,-0.48691183,0.029244214,0.10409964,0.04189148,0.06143826,-0.12260118,0.016425876,-0.0005583163,0.07655198,-0.19180438,-0.15069397,-0.29268295,-0.069065124,-0.027742287,-0.0112471385,-0.02428466,-0.105680205,0.121574566,-0.021168405,-0.027077375,-0.26164693,-0.15208548,-0.27941343,-0.09845965,-0.055172928,-0.0598314,0.072514795,0.02738571,0.06361058,0.015469196,-0.04507511,-0.1984998,-0.074769355,-0.2359851,0.2504005,0.14541677,0.013072248,0.030057171,-0.0003262281,0.29015523,0.14185028,-0.010427716,-0.24919747,-0.13301049,-0.054131124,0.10603405,0.14807092,0.059605967,0.10070118,0.15638879,-0.13012782,0.049897783,-0.0116594955,0.13074692,-0.16280927,0.13039342,-0.032791648,0.02637404,0.13264905,0.027557468,0.16506514,-0.11416759,0.21793848,0.16270097,0.06739549,0.19692472,0.028581005,0.3205482,0.62015474,1.4410595,-0.19734146,-0.4519166,-0.5211752,-0.49926177,-1.1452461,-1.699102,0.71745926,0.39909983,0.65699095,0.8262418,0.8448861,0.22992769,0.18928297,-0.029883597,-0.1481323,-0.38885787,0.41858506,1.9557588,0.7244274,1.2681534,1.0850871,0.6883429,0.2810016,0.4243188,0.08287837,-0.14156795,0.13152395,0.17647003,1.3428391,-0.43812883,1.0473403,0.771311,0.6906795,0.60690385,0.16942708,-0.108680345,0.04419013,0.37831143,0.35208762,0.38289958,-0.7535556,1.2631383,0.9138137,1.1568792,0.31755668,0.35897806,-0.0400828,0.56038135,0.26527327,0.24155325,0.93114877,-0.26543856,0.5603101,0.48215094,0.68730646,0.33300337,0.42312992,0.11206284,0.26702833,0.26324356,0.5335255,0.5284421,-0.8072533,0.33461624,0.61009574,0.8487595,0.7059095,0.43537503,0.541601,0.40091017,0.6144545,0.6829771,0.6391784,-0.7840465,-0.52503574,0.4858755,0.6247972,0.2869186,0.50075406,0.5146965,0.5987692,0.44118935,0.7013504,0.46201983,0.08196363,0.7876789,0.6652003,1.329614,0.38409507,0.37022167,0.33383575,0.9059437,0.6015448,0.58628917,0.7459551,1.0824506,0.63787776,0.4975057,1.2719955,0.84774464,0.8693824,0.5058877,0.35506144,0.10615146,0.4424986,-0.15136088,0.7111191,0.394054,0.6805647,1.0790226,1.2579877,1.2658477,0.8316574,0.65950704,-0.27465197,-0.2650732,0.72730726,0.34606677,-2.1313164,0.04415556,0.14622073,0.13715678,-0.10627548,-0.028312523,-0.0101764435,-0.1184813,0.040021654,-0.07090123,-0.1238126,-0.024843125,-0.08380164,0.2548491,0.1030327,0.04203326,0.021849915,-0.06778311,-0.08754656,-0.05735019,-0.07414163,-0.23042768,-0.40125242,0.15559462,0.14406891,0.11700586,-0.13113722,0.038401406,-0.04418386,-0.09626171,-0.035691917,-0.114252135,-0.23863252,-0.30492887,-0.2519138,0.10311588,-0.12992094,-0.13786435,-0.040837876,-0.029269809,-0.09620323,-0.044368267,-0.10997141,-0.20138313,-0.47687608,-0.30526903,-0.040827487,-0.16202998,-0.2528287,-0.08003771,-0.017322479,-0.14329767,-0.11655382,-0.1575429,-0.13583623,-0.5232583,-0.29229817,-0.056831572,-0.2583889,-0.34824204,-0.11200094,-0.043449737,-0.04720169,-0.1985832,-0.17657334,-0.21283424,-0.47222602,-0.2554448,-0.0386065,-0.18468,-0.2228481,-0.08647944,-0.07110201,-0.06456895,-0.14123063,-0.011344595,-0.12031141,-0.5261126,-0.16232677,0.02498811,-0.28366923,-0.31560445,-0.1800204,-0.1409087,-0.2330882,-0.1407515,-0.067440115,-0.06196721,-0.35422215,0.009754703,0.22922176,-0.1629217,-0.25098884,-0.062042512,-0.045170788,-0.027144767,0.005000756,0.09849114,0.019655349,-0.28806868,-0.20910825,0.014625625,-0.29741287,-0.4054267,-0.19088957,-0.15211761,-0.0993142,-0.12499043,-0.025089927,-0.000653637,-0.07518178,0.035734862,-0.31858233,-0.25210214,-0.28972635,-0.18484956,-0.093833305,-0.1282295,-0.16582438,-0.020931927,-0.13409941,-0.028099464,-0.03551634,0.06060359,0.043855164,0.07006861,0.08653564,0.117455654,0.030251049,0.10277661,0.030116597,0.12847999,-0.009025275,0.17871194,0.07331693,0.12640871,0.16423026,0.11791328,0.11410372,0.10584425,0.15383963,0.14836776,0.21299106,0.39758173,0.13748571,-0.036929335,0.14851199,-0.016770292,0.08843234,0.010947352,0.15153693,0.10500515,0.06827483,0.2316535,0.38546845,0.13143252,0.16594274,0.2661268,0.12920654,0.12286471,0.12187951,0.15765688,0.13344525,0.119833514,0.059338603,0.16064934,0.12194572,0.26149225,0.1323003,0.28123438,0.15972765,0.12064535,0.15751335,0.11197432,0.26624462,0.27043074,0.21787094,0.19382931,0.15632392,0.21521069,0.13538481,-0.03254916,-0.0056112604,0.0054395595,0.25061747,0.124536484,0.13194984,0.3099087,0.120855175,0.2846661,0.25110662,0.16714229,0.21630211,0.04187651,0.089039974,0.21015885,0.1808957,0.16963366,0.124694,0.27265406,0.21664616,0.35607433,0.18380517,0.22242634,0.15409431,0.17579739,0.13071136,0.14598869,0.19436675,-0.025147269,0.2918351,0.28559116,0.033553842,0.23173514,0.24475858,0.16256854,0.013409033,0.01653961,0.17883469,-0.12921797,-0.027472736,0.28105086,0.2950087,0.16954084,0.1995596,0.2336378,0.17446959,0.18744573,0.032856923,0.12027168,-0.008652786,0.07078936,0.039083693,0.12601809,0.12836134,0.16801351,0.21238577,0.23668322,0.15700234,0.06500861,-0.11780228,-0.18757357,0.023844426,-0.17602777,1.1098117,-3.2076447,-0.80885065,-0.49812013,-0.23503989,-0.9094062,-0.5233936,-0.59372985,1.1194357,-0.17740704,1.1392275,-1.913547,-1.7712315,-0.67585737,-0.5341444,-0.7606382,-0.40637898,-0.16301116,0.74109066,0.2743366,1.0759015,-0.6758642,-1.669221,-0.47853887,-0.3250959,-0.2482205,-0.4330257,-0.063241996,-0.10884333,0.3477085,0.3682269,1.1254255,-0.6214771,-0.62740546,-0.22288594,-0.09430139,-0.053458378,-0.12860677,-0.00781828,0.13139643,0.29976258,0.010783369,1.0384786,0.18934955,0.05368006,0.2673631,-0.11107669,-0.10750585,-0.24133989,-0.24794725,-0.05555331,-0.036129538,0.35326794,0.8178526,0.478239,-0.11350515,0.08751533,-0.1324619,0.07650607,-0.14118187,0.031118797,-0.019220227,-0.023631282,-0.1491018,1.2040193,0.010333279,-0.12606007,-0.03359283,0.17648797,-0.1564679,-0.26692036,-0.09018382,-0.086975046,0.05364683,-0.00491932,0.5350082,0.1211505,0.17519993,0.36113006,0.21228254,0.3243507,-0.019890247,0.051124156,-0.09018143,0.082135,0.23860294,0.6742678,-0.5141876,-0.09105552,0.50078994,0.25989622,0.17210646,0.049130786,-0.0067724884,-0.0036537487,-0.06452064,-0.95192766,0.033849843,1.2270988,-0.3797507,1.1925979,0.5445936,0.26142108,0.09335196,-0.24407512,-0.23203743,-0.4135899,0.58723444,1.0638334,-0.14417084,1.1902409,1.402808,0.5375416,0.046028715,0.43728685,0.15251432,0.041793983,-0.36336893,1.0457553,-0.1657377,1.7104018,0.007798084,-0.41670698,0.1877039,-0.024223944,0.17961596,0.10631397,0.26815286,0.2151749,0.22044496,0.266321,0.0464802,-0.023296705,0.23297572,-0.04048519,0.12466644,0.16250134,0.1713302,0.15131491,0.06618987,0.32823092,0.17850225,0.5231442,0.123180166,0.2257752,0.03640374,0.23579435,0.19389288,0.1740219,0.07907893,0.16266301,0.016043665,0.07040217,0.026850624,0.20654681,0.13841626,0.18725415,0.14339206,0.06512142,0.13659523,0.1717299,-0.0057721105,-0.019885888,-0.13133577,0.091750234,0.097612895,0.20050511,0.15333259,0.022202408,-0.03372098,0.13173816,0.06524666,-0.1437615,-0.13957366,-0.028445521,0.08654491,0.04198995,-0.09074262,-0.051381778,0.0142727615,-0.13103534,0.004243059,-0.2370286,0.0021833377,-0.0757258,-0.17615433,0.09639917,0.040081415,-0.05416969,-0.19186199,-0.23655356,-0.10502667,-0.06611551,-0.092383176,-0.047821596,-0.1393026,-0.12138607,-0.104422405,0.14380708,0.0024488189,-0.11365991,-0.023529302,-0.011383308,0.08806973,0.061588317,0.004704415,-0.01544913,-0.15404937,-0.06936174,0.042314116,0.050883755,0.12006129,0.064098,0.005691432,0.19327012,0.025518589,-0.07973953,0.06236493,0.097536586,-0.13598874,0.19960085,0.12852684,0.21241552,0.39454612,0.24987252,0.08656082,0.090974405,0.19958362,0.18754898,0.20190684,-0.20510602,-0.046676878,0.06920827,0.15053089,0.15898818,0.13418318,0.26845455,0.22368118,0.17580688,0.10563494,0.18147923,0.0068726162,-0.014908828,-0.10645592,-0.14813358,0.11817292,0.18205273,0.06766447,-0.017337939,0.31959358,0.18516535,0.11991682,-0.006920103,-0.25835904,-0.37914407,-0.0038480412,-0.031873815,-0.077204786,-0.048236195,-0.06078534,-0.00207124,0.22500736,0.004996731,0.018186692,-0.17472333,0.007733224,0.25693977,0.1169074,-0.059463494,-0.0204338,0.03646301,0.007916635,-0.25422758,-0.0802904,-0.022801127,0.0531374,0.23782481,0.01204627,0.14668092,0.08103677,-0.02833206,-0.13089618,0.033910457,-0.15614736,-0.1293012,-0.08498506,0.09724522,0.04819898,-0.08798209,0.06352393,0.024950638,-0.014622385,-0.061791074,0.02359377,-0.1905997,-0.087491,0.086129166,-0.094625704,-0.07579721,-0.010684221,-0.16802955,-0.15057985,0.015192274,-0.12759253,0.035394486,-0.007980816,-0.06852193,0.1466407,-0.18682528,-0.2638451,0.09854079,-0.11253865,-0.16176122,0.053897724,-0.12041987,-0.11069064,0.051863994,0.01609747,0.06306858,-0.23417728,-0.24687788,-0.19491422,-0.17496316,0.044969805,-0.073422156,0.07459137,-0.08546178,-0.058684085,-0.060301863,-0.16980301,0.13370262,0.045103226,0.01740901,-0.07933966,-0.046198532,0.027857268,-0.015209919,-0.09454514,-0.36691362,0.03662503,-0.079476506,-0.10975681,-0.07499559,-0.025846992,-0.012244987,0.01543943,-0.14812091,-0.09496548,-0.2791993,-0.19155769,-0.26602656,0.014905999,-0.03627157,0.021932553,0.22623618,-0.13852562,-0.1741544,-0.12205757,0.05809714,0.08123278,0.09539303,-0.12673514,0.016700998,0.41165185,0.0127493115,-0.19872221,0.5834014,0.20268972,0.7317585,0.36840174,0.0323562,0.80675334,-0.03895534,0.46723258,-0.03457833,-0.31674504,-0.026391782,0.17501809,0.16589242,0.41651714,0.34951264,0.3849273,0.7749531,1.1201582,-0.03077205,0.97605586,0.7249298,0.18213236,0.51241875,0.25519982,0.39309743,0.52702034,0.40190437,0.5778877,-0.34969464,1.1296836,1.1963868,0.8243794,0.18607146,0.39381763,0.069983974,0.67919666,0.0046836473,0.15022124,0.17186259,-0.2982093,-0.4940619,1.2411686,0.15179871,0.41367623,0.5075582,0.27272317,0.32819048,0.15918405,-0.16721754,0.4847635,-0.06352146,-0.33097428,-0.46235955,0.030367676,0.45973197,0.31183794,0.49947557,0.41513038,0.514867,0.3297977,0.66171026,0.1119842,-0.22531867,-0.69724137,-0.27622047,-0.12398782,0.2746413,0.23659913,0.3648675,0.3013533,0.14806353,0.4305822,0.21220157,-0.14214481,-0.57662797,-0.5618969,-0.23012558,0.00047770544,0.608323,0.28267825,0.38155127,0.12299827,0.51492363,0.08433713,-0.118898235,1.0255332,-0.49732932,-0.17974459,0.04218642,0.10289673,0.11975174,0.05552378,0.28820273,0.1538567,-0.49190676,-0.10432315,0.0053366707,0.6428538,0.6160403,0.9240255,0.48601755,0.85867447,0.20185366,0.19683604,0.0818947,-0.6288233,-0.0023377321,0.4486783,-0.09914742,0.80998087,0.9276664,0.54423004,0.67194927,0.7604299,0.88751465,1.0100791,0.031133484,0.3541688,-1.7911365,-0.030550584,-0.39804056,0.074654564,-0.08857934,-0.20233276,-0.24656974,-0.21542221,-0.32813156,-0.1679493,-0.018202495,-0.049456652,0.02703924,0.14188996,0.108401895,0.14981268,0.06118948,-0.12998715,-0.1225839,-0.13794719,-0.050761517,0.23153701,0.23312713,-0.004497006,0.041347183,0.008410617,-0.020772658,-0.047209863,-0.0822884,-0.19481295,-0.17754187,-0.043888967,0.05401042,0.1698952,-0.017774574,-0.011049178,0.0990635,-0.01699649,-0.06929719,-0.044348784,-0.14533974,-0.14347646,-0.04329025,0.19358358,0.087187134,0.022756448,-0.15575908,-0.08462326,0.009945738,-0.07621439,-0.051121548,-0.15585476,-0.14745124,-0.012281337,0.043834303,0.17374645,-0.044563472,-0.036079846,-0.012844951,0.03922709,-0.13040799,0.051874712,-0.08238609,-0.13813742,-0.003942849,0.113561615,0.052496128,-0.08847456,-0.12568831,-0.100208364,-0.04987235,-0.12295949,-0.13843608,-0.09519424,-0.117577575,-0.13237219,-0.007559952,0.027830372,-0.09983746,-0.21005487,-0.115247644,-0.07860608,-0.16408284,-0.08912135,-0.07400866,-0.18085557,-0.097842395,-0.18114156,0.006581064,-0.21210966,-0.25888366,-0.2235758,-0.050190546,-0.054270152,0.0048738443,-0.11670471,-0.104077086,-0.080828875,-0.055906855,-0.00986181,-0.24906537,-0.50107104,-0.2979761,-0.25751382,-0.21583472,-0.24899445,-0.2982474,-0.24001168,-0.30061683,-0.2833675,-0.09526468,-0.0006845286,-0.33241346,-0.22913559,-0.17557397,-0.21597306,-0.26433066,-0.19971296,-0.1970821,-0.14272834,-0.25692835,0.048958484,-0.02515024,-0.115996525,-0.12897255,-0.11322383,-0.05677849,0.013886731,-0.0026874444,0.012642579,-0.01018098,-0.0037470397,0.008486499,-0.097533755,-0.1335566,-0.15085742,0.002483605,-0.022550508,0.03485675,0.10289835,-0.023139512,-0.12728462,-0.15206748,0.14860104,-0.066950426,-0.11765546,-0.0051805135,-0.13584606,-0.00642016,0.029926121,0.062948294,0.11635691,0.1928674,0.113127545,-0.07943244,-0.10130303,-0.08259414,-0.20710386,-0.040302355,-0.055470552,0.023304,0.12513293,0.025509667,0.07016331,-0.08551044,-0.0054927394,-0.109362274,-0.15141553,0.009433311,0.004263792,0.029516058,0.023633748,0.029538866,-0.016304074,0.03859457,-0.043661963,0.07421038,-0.05610679,-0.067964695,0.066875085,0.04514355,0.0125913285,0.029928738,-0.037236504,-0.053037357,-0.012903777,-0.016568227,-0.095736705,-0.008367631,-0.049425837,0.06090376,-0.046479262,-0.01075698,-0.089702204,0.0066305986,0.09039726,-0.022188101,-0.06733305,-0.053165704,0.033061754,-0.00031582278,-0.0031925042,0.0228163,0.024014397,-0.033847265,0.00679085,0.06746619,-0.03463641,-0.11135206,-0.10607825,0.008132703,0.1780286,-0.049925067,0.0032773325,-0.043816023,-0.01854963,-0.05435938,-0.029173909,0.09561955,0.08690541,0.0069004595,0.089959614,0.030580813,0.12489397,0.038198903,0.09705155,0.03706398,0.047851995,-0.10922738,-0.09395615,0.011640997,0.14677256,0.023339149,0.15536597,0.050015524,0.016378125,0.042771183,0.1228921,0.062293302,-0.10003099,-0.01460699,0.1457586,-0.0023753901,-0.14431477,1.2607025,-0.070741326,-0.7910938,0.073886946,0.5179726,0.8343477,0.5464386,0.6586341,1.028212,-0.12961453,1.1416101,-1.4731305,-1.5350872,-0.7034832,-0.094707936,-0.3510353,0.1868741,0.38268465,0.13846736,-1.2108669,1.0451432,-2.0095365,-1.6333015,-1.1731977,-0.55012536,-0.138855,-0.30089614,-0.11398185,0.056038197,0.14246391,-1.8561292,-2.5670855,-0.35892752,-0.4802219,-0.34088823,-0.47619647,-0.28071022,-0.5649959,-0.36811733,-0.17330219,-0.16693857,-1.0550302,-2.1673129,0.24221048,-0.12579045,-0.3460412,-0.28904724,-0.18669659,-0.4427948,-0.20150223,-0.00072690024,-0.11557924,-1.6798092,-0.8581191,0.21296369,0.059082195,-0.28907096,-0.38496977,-0.24376646,-0.3566845,-0.31132516,-0.18286793,-0.21841633,-0.62827,-1.5012378,0.17067699,0.13012423,0.20313266,-0.3414518,-0.15390642,-0.14380279,-0.11307869,-0.08106644,-0.22013797,-0.08124949,-0.7111926,0.70871466,0.6448028,0.41217658,-0.16686581,-0.27775204,-0.29329884,-0.32648483,-0.08428882,-0.21377668,-0.1394386,0.008528241,1.2093192,1.0947639,0.7158716,-0.0066511035,-0.20970161,-0.19544217,-0.14005218,-0.015913237,-0.107178226,0.03504752,-0.49281633,1.3084038,1.5072459,1.241925,0.97582626,0.34899545,0.11882334,0.41174975,0.53884596,0.8714319,0.41349453,1.1584172,-0.15200739,1.2176307,1.5681047,1.1409917,0.74134666,1.1986666,1.1028008,0.85568696,1.2418612,1.1291395,-0.117816806,1.5720302,0.026608353,-1.0540521,-0.20960239,-0.05624516,-0.10396206,-0.08513755,-0.17635952,-0.14993382,-0.15328707,-1.9764391,0.022034511,-1.2440933,-1.2780889,-0.33897096,-0.097513884,-0.08900623,-0.13747898,-0.089256406,-0.04172699,-0.09221877,-0.17331864,-0.05327365,-0.19903342,-0.37008643,-0.17138612,-0.066728435,-0.07497967,-0.08001974,-0.098661855,-0.081005625,0.004983627,-0.15206473,-0.0973793,-0.15871145,-0.045457292,0.026568532,0.014229457,-0.050595146,-0.02866969,-0.059886422,-0.12649499,-0.023111459,-6.262766e-05,-0.059636176,-0.062348038,-0.036468487,-0.023254327,-0.043175917,-0.07222888,-0.013488011,-0.15653564,-0.065157056,-0.08385109,-0.04957025,-0.07494132,-0.084584564,-0.03512159,-0.018184047,-0.057487734,-0.030943578,-0.03287707,-0.05366418,-0.030494666,-0.06946594,-0.06144101,-0.026333693,-0.073343836,-0.048895646,-0.07417959,-0.122114435,-0.0994818,-0.10699937,-0.07414866,-0.14665678,-0.09515911,-0.07201623,-0.11395568,-0.100356564,-0.006678041,-0.06641099,-0.053478587,-0.13548665,-0.04525006,-0.10130837,-0.11786098,-0.12955332,-0.054089103,-0.12258426,-0.056563135,-0.021824984,-0.04221201,-0.05728343,-0.043621354,-0.102271214,-0.13805416,-0.05774572,-0.071907416,-0.13023575,-0.092512414,-0.23064856,-0.0695288,-0.11593493,-0.0043470324,-0.054380696,-0.065056175,-0.109651424,-0.13533247,-0.063533574,-0.092680685,-0.11116582,0.002024419,-0.037792142,-0.17595406,-0.20296618,-0.14575556,-0.21899925,-0.15067919,-0.09755702,-0.08601611,-0.013919003,0.012806168,0.0005409185,0.05108116,-0.052887045,0.084137134,-0.060903396,0.059294336,0.009321002,0.01153048,0.1440763,-0.96823406,0.026572257,-0.056705467,-0.04594883,0.09320233,0.14704444,0.044006646,0.048402302,0.062279835,0.06324757,0.07281089,0.18440202,0.11371377,-0.057121716,0.107086435,0.16962789,0.039105717,-0.039692324,0.056224033,0.015286563,-0.013364122,0.1426512,0.22847988,0.01782499,0.14963189,0.18057369,-0.05309779,0.01978646,0.03751954,0.03273604,0.034025803,0.03481225,0.017566167,0.025785798,-0.027630188,0.114367805,0.10136605,0.05706768,0.00056625006,0.042642187,-0.020241862,0.020597024,0.030792898,0.0051398044,-0.055984177,0.110018514,0.0642296,0.166955,-0.016567074,0.029193548,0.038856216,0.041441873,0.06948053,0.00725212,0.03845477,0.06700228,0.04897481,0.06734666,0.18419966,-0.11348844,0.010953988,-0.0026887131,-0.027903518,0.07331048,-0.009926609,0.028517505,0.01848391,0.09245409,0.062253702,0.13590434,-0.018616546,0.04806765,0.0027129825,0.048710003,0.044595417,-0.00082213525,0.016276652,0.029919434,0.019832935,-0.058859866,0.13108025,0.15059727,0.04319271,0.036975823,-0.0037160537,0.029274672,0.03656752,-0.08681147,-0.055077136,-0.0025194047,0.049155917,0.06066148,0.021267038,-0.010298795,-0.0031042062,0.08401334,0.120548695,-0.04000442,-0.0029049513,0.06641538,-0.011984727,0.007937808,0.08418577,0.14960302,0.08199303,0.10199207,0.098413765,0.13793515,0.14316714,0.06285203,0.06139932,-0.015858408,0.037976224,-0.16347572,1.1382836,-0.109653905,-0.22921452,-0.3290938,-0.52084285,-0.1911335,1.5839859,-0.1579247,0.021385016,-0.1210823,1.6832863,1.0630949,0.1775257,-0.29473597,-0.33914632,-0.58642817,-0.77296317,-0.12230207,1.4320228,-0.18521023,1.322155,0.959696,0.3752663,-0.3133911,-0.55349547,-0.5203723,-0.76551384,-0.72943294,-0.7672483,-0.1715513,-0.2622179,0.15621284,0.17601804,-0.65995467,-0.17500362,-0.50286454,-1.0054857,-0.5040434,-0.8051638,-0.6942108,-0.37228113,-0.37596023,-0.14644377,-0.53393996,-0.37147623,-0.80812216,-0.5160928,-0.6099307,-0.56144637,-0.62251955,-0.7676716,-0.9287445,-0.73692065,-0.2660178,-0.55597574,-0.8442846,-0.7121562,-0.44560024,-0.52567357,-0.5152168,-0.4397033,-0.6302797,-0.6031033,-0.30911225,-0.50943875,-0.9434248,-0.722341,-0.81523705,-0.70300424,-0.7800439,-0.44678375,-0.95401967,-0.54360694,-0.8065067,-0.6855508,-0.48111656,-0.40704474,-0.60043645,-0.6402555,-0.7293164,-0.61750466,-0.7290077,-0.5465623,-0.4538668,-0.6841528,-0.94246286,-0.25126228,-0.7044994,-0.30034167,-0.6831921,-0.3931787,-0.48299503,-0.41819778,-0.8392311,-0.5768898,-0.9233084,-0.4156631,-0.24784438,0.23382527,-0.3758706,-0.37569082,-0.36260918,-0.5363885,-0.42148337,-0.5287879,-0.49328652,-0.42348504,-0.24761976,0.029698482,-0.20411666,-0.024716804,-0.13540791,0.011558871,-0.31261313,-0.076751344,-0.17915355,-0.19949572,-0.25623024,0.033077165,1.4043128,0.01678289,-0.2185429,-0.051855244,-0.016596008,-0.056040637,-0.098493725,-0.099757805,-0.17249663,-0.2835665,-0.091830626,0.027718777,-0.100627415,-0.16401656,-0.10614076,-0.16436051,-0.13781494,-0.15706496,-0.20797426,-0.2759713,-0.28073007,-0.2690597,-0.14057434,-0.22126533,-0.109964825,-0.10050012,-0.07877566,-0.09477297,-0.1738712,-0.24696112,-0.302524,-0.38998103,-0.2505632,-0.20832483,-0.16707762,-0.13132268,-0.041329686,-0.0940204,-0.115720935,-0.036922567,-0.118640594,-0.15163484,-0.24812223,-0.20831646,-0.089462034,-0.16721277,-0.18547502,-0.12231803,-0.13776164,-0.12940222,-0.049537443,-0.16146864,-0.15789682,-0.16556054,-0.18101133,-0.09808596,-0.24493934,-0.14205204,-0.073681705,-0.033734165,-0.11151673,0.028454548,-0.09423111,-0.1460212,-0.14188628,-0.17759334,-0.107089065,-0.16780621,-0.13703783,-0.10879763,-0.0942954,-0.16260128,-0.0920585,-0.07411882,-0.049584668,-0.18864045,-0.17861502,-0.08059108,-0.16638827,-0.13030636,-0.01431232,0.04766314,-0.0070942244,0.07056811,0.028561104,-0.05371389,-0.0093397945,-0.10356119,-0.0054172166,-0.1128613,-0.046316274,0.069687225,0.17552793,0.110419884,0.027583113,0.12161079,0.009116009,0.02773444,-0.077203766,-0.042232733,-0.021077435,0.007206178,0.12083486,0.25219953,0.15716046,0.09706477,0.15014462,0.22720473,0.15285794,0.06619438,0.12671034,-0.0015365357,0.029209819,0.12909113,0.096532926,0.07313093,0.08298875,0.11695967,0.060092334,0.14644869,0.098730266,0.028675254,0.049386278,-0.059718255,0.032002993,-0.003554565,0.14093961,0.17560293,0.15008238,0.20429355,0.24193057,0.18259332,-0.031107334,-0.027259782,-0.18642074,0.04372106,-0.057733186,-0.037217185,0.15765753,0.09880629,0.1154888,0.18846689,0.25165328,0.1470144,0.0037276752,-0.033499964,-0.13909028,0.008765824,-0.06190204,-0.022182792,0.028012298,0.13332872,0.14027712,0.11500047,0.0022995123,-0.05447037,-0.0096858395,-0.009930279,0.060410913,-0.009460911,0.09271712,0.105201185,0.08631097,0.10806565,0.12484552,0.1618029,-0.018142898,0.02455325,-0.0002679552,0.07132331,-0.030455193,0.072372906,0.07277849,0.03779151,0.041169826,0.14142731,0.077087544,-0.057677686,-0.025095912,0.120939486,0.042297047,-0.0076733516,0.012047698,0.02099348,0.12076848,0.05125187,0.034050714,0.13050994,-0.09777022,-0.02992795,0.054992486,0.0136667425,-0.032475587,0.07827546,-0.008790711,-0.00030696148,0.08782541,-0.003133052,0.032540526,-0.048145846,-0.060381345,-0.051308487,-0.0576572,0.005529226,-0.06705058,0.032907546,-0.013143817,-0.15315656,-0.020165179,-0.048021805,-0.17119819,-0.093551524,0.071739584,-0.050055627,-0.09002494,-0.07886648,-0.20801795,-0.1396846,-0.18600675,-0.20361903,-0.008226261,-0.062330123,0.0057080323,0.020470507,0.11317643,-0.022205768,-0.110522866,-0.086754456,-0.009982435,-0.14159268,-0.36225015,-0.04309057,0.037716005,0.011578388,-0.118093744,-0.16854337,-0.12310195,-0.0684635,-0.058787134,-0.109851845,-0.15557745,-0.10490171,0.026598418,-0.15832178,0.93930715,0.2914266,-0.50174093,0.22827034,-0.09759023,0.4052109,0.9877972,1.0754315,0.73202854,-0.109055,0.99544775,0.8093022,0.5935567,0.23645721,-0.08415341,0.07817498,0.37036377,0.8652956,1.1612324,1.0785495,0.7573556,0.001685606,0.66329676,0.02379149,-0.37730402,-0.43893602,-0.34322256,-0.2202685,0.022854878,1.0106766,0.95025647,0.9602144,0.2764311,-0.06869724,-0.29740146,-0.39854228,-0.42698264,-0.39184493,-0.08530899,0.10682195,0.45365858,0.84557545,0.6559384,0.47867426,0.14291109,-0.22965924,-0.34053582,-0.2599803,-0.28700176,-0.41480923,-0.017465714,0.29230738,0.56278795,0.22730388,0.36148196,0.092631474,-0.19259681,-0.41243744,-0.40484607,-0.3906548,-0.40517426,-0.30548117,-0.46041676,0.3720004,0.31073084,0.62665415,-0.13967782,-0.3384462,-0.51260555,-0.4931171,-0.27718973,-0.21256265,-0.36359194,-0.047732066,0.102157444,0.23284811,0.33045575,-0.2784413,-0.5246786,-0.45701298,-0.4117041,-0.6019863,-0.63238966,-0.31884706,-0.252971,-0.37598827,-0.41361386,0.18906304,-0.1857147,-1.3280811,-1.1548202,-0.8582975,-1.0542167,-0.7160067,-0.6930281,-1.0663171,-0.41315317,-0.806261,0.87814575,-1.0204637,-1.8392935,-2.0551906,-1.9435639,-2.007526,-2.2183378,-1.0775173,-1.732518,-1.4586891,0.8731392,-0.15797365,0.8264399,-1.4912893,-1.4462357,-1.6501797,-1.4814947,-1.3487518,-2.1956325,-1.5520251,0.58265543,-0.11923098,1.418819,-0.020420622,1.9363943e-06,-0.020987092,-0.175782,-0.151118,-0.17197601,-0.08860089,-0.013822448,0.057683587,0.04444089,-0.010860227,-0.2041361,-0.051274896,0.10553102,0.0034517124,0.0023323616,-0.0533542,0.1611321,0.058304586,0.20428199,0.06073573,-0.04913169,-0.11246855,-0.027996756,-0.016519902,-0.08997138,-0.061125513,-0.06032117,-0.025762495,-0.07121619,-0.040657103,-0.17044702,-0.09691572,-0.13569503,-0.071728915,0.02756107,-0.14729333,-0.12838224,-0.038716774,-0.10668676,-0.010444257,-0.008743777,0.006066371,-0.08889588,-0.1274144,-0.004222229,0.09760872,-0.05236128,-0.036496177,-0.05997386,-0.05254411,-0.08047149,0.006866999,0.014427465,-0.08227702,-0.1322377,0.02517765,0.010588272,-0.012626985,0.0038483918,-0.047840174,0.030232893,-0.06674431,0.06772003,-0.005956653,0.024973335,-0.17142726,0.0043315263,0.013122951,-0.06385522,-0.11559551,-0.107353196,-0.024868993,0.024140775,0.012755908,-0.02832883,0.005928517,-0.33349845,-0.15377189,-0.05326539,-0.043350685,-0.117130116,-0.08117206,-0.087870315,-0.024204804,0.0011129554,0.03475799,0.053669393,-0.6550748,-0.47757846,-0.39116895,-0.04521392,-0.08387836,-0.12507465,-0.0063131964,-0.06780681,0.030379651,0.05758877,-0.0128995925,-0.29991478,-0.72891957,-0.17188752,0.009527787,-0.05226135,-0.028135953,0.014578757,0.0591601,0.1178253,0.12427544,0.08039287,-0.0361322,-0.43548095,-0.1044421,-0.09409438,-0.08916632,0.06386377,0.03165566,0.08840763,0.13686489,0.13127679,0.04184018,0.032365862,-0.36070475,0.12755044,0.06483268,0.09316571,0.074719235,0.09055821,0.2268092,0.04906203,-0.16219898,0.04277935,-0.2792796,-0.0008758636,0.09101396,-0.0023737093,-0.008791949,-0.069328085,0.016837677,0.05301944,0.11179637,0.019575404,0.0929886,-0.020521363,-0.020336501,-0.16556315,-0.0014087034,0.05432931,0.10275294,-0.06967895,0.04791603,0.10679999,0.015897382,0.099344045,0.15268205,-0.024429277,-0.09468987,0.0424511,0.00021798462,-0.01585355,0.07248657,0.11718487,0.039272863,0.055419516,0.0065166214,0.15516555,0.10410136,0.028370796,-0.0710356,0.02813245,-0.00092385133,0.10609074,-0.0007936936,-0.025707958,0.064860225,0.07379204,0.2427986,0.07273603,0.02597703,0.049744822,0.011088357,0.033734217,-0.021024741,-0.011165666,-0.10373513,-0.08608256,0.23035857,0.15962785,0.041075625,0.049953844,0.063878596,-0.034143258,0.050068736,0.0047798213,0.023936503,-0.039916605,0.0011899446,0.15778376,0.11822846,0.082520284,0.03609606,0.084325075,0.13233386,0.10288445,0.06923108,0.18469557,-0.02038462,0.06687163,0.15082607,0.16459475,0.2718007,0.21409716,0.1008358,0.11773803,0.029812608,0.063636504,0.14668636,-0.08795735,-0.17781149,0.19597904,0.19146095,0.12180164,0.23964511,0.16569783,0.055399466,0.025409412,0.08568877,0.004030955,0.010915259,-0.026097406,0.13233374,-0.030420307,0.16012153,0.1733341,0.05786035,-0.00065986754,0.22004284,0.10444088,0.05559163,-0.090419546,-0.04273768,-0.04863759,0.16055371,0.52065766,-0.45536688,-0.740539,0.41406885,0.43435848,-0.18164177,0.12322875,-0.26671612,0.6849266,0.14950743,0.58833635,1.8136499,0.15274459,0.018514354,0.15640312,0.1698364,-0.089563124,-0.5547702,0.14704299,0.3594289,0.5842373,0.50522804,0.95080304,0.32368255,0.013110287,0.24473527,0.36460257,0.24434523,0.5136981,0.3732012,-0.5398823,1.2651411,0.45106202,0.3113765,0.30475974,0.44476447,0.1261425,0.12954107,0.1332388,0.16623653,0.095021605,0.17014979,0.11653018,0.23700784,0.3219365,-0.0064369272,0.05664051,0.115276545,0.15766865,0.07325588,0.3632637,0.29985029,-0.26997054,-0.18130417,0.7421386,0.26685426,0.21288161,0.29453135,0.22730626,0.3212253,0.3186064,0.35321212,0.21137924,-0.50308496,-0.13790305,1.3961153,0.6535795,0.5560226,0.19639279,0.11658216,0.32160053,0.31020406,0.3908882,0.014469256,-0.2089463,-0.39874783,1.6357322,1.2210402,0.6378213,0.20778552,0.13453096,0.29529837,0.011675828,0.379211,0.21135655,-1.1398973,-0.07978206,2.804902,2.0796163,1.054141,1.02219,0.66301125,0.38202375,0.27929148,0.42813796,-0.2761376,-0.534873,-0.1775651,0.64754355,2.1790562,1.7736541,1.241142,0.37759072,-0.17445089,0.1977786,0.31831717,-1.5896144,-1.0898212,0.6856207,0.29136404,0.71372837,1.6552583,0.8221393,-0.04503071,-0.32458413,0.20923631,-0.19009076,-1.0100539,0.6761519,0.21504922,-3.099454,0.005290493,-0.25261572,-0.2692626,0.07157189,-0.062885,-0.08495482,0.014485083,-0.075188406,-0.32528415,0.14123434,-0.038896445,-0.29473454,-0.04047068,0.021050693,-0.13390875,0.06687884,-0.17930374,-0.23899111,-0.35289147,-0.077549495,0.1420738,0.22464481,-0.3295102,-0.19330345,0.0033688815,0.07499634,0.07487306,-0.031306878,-0.08290215,-0.14080434,-0.058079045,0.04413495,0.17052695,-0.43860948,0.0317552,-0.039616406,-0.12966491,-0.2039983,-0.0209737,-0.03414084,0.0071737636,0.06275401,0.17043456,0.22752957,-0.066649765,0.11255379,-0.107525945,-0.26671785,-0.12873691,0.092767134,-0.060791593,-0.1842257,0.11483422,0.32049248,0.27863163,-0.31458238,-0.032443102,-0.1859159,-0.13815689,-0.034448154,-0.034617305,-0.022752346,-0.10878629,-0.12704355,0.059797928,0.27585083,-0.1982822,0.032672815,-0.07621874,0.06609906,-0.07777352,0.1859964,-0.12742195,-0.13076323,0.18130152,-0.07188075,0.40553537,-0.29990214,-0.21879329,-0.054713003,0.003579409,-0.02822605,-0.121728964,0.036862627,0.038499884,0.18054424,0.17522767,0.3020899,-0.49069896,-0.028710054,-0.14222178,0.010506322,-0.027941613,-0.100693695,0.12233459,-0.052139934,-0.16529277,0.044378497,0.05250012,-0.0001229865,0.51888007,0.13980389,0.1272765,-0.09460531,-0.11030436,-0.04536789,0.03428562,-0.115240745,0.0019982292,0.029989824,-0.03600674,0.24522503,0.22728543,0.0799974,-0.117339954,0.13794777,0.03367535,-0.20999911,-0.14810377,-0.0375148,0.040134173,0.02272968,0.20934296,0.33658543,0.035859887,-0.07737592,0.020726666,0.030426694,0.118581034,-0.22952579,0.4792296,-0.00896396,0.006891714,0.55058444,0.23675528,0.16198665,0.29158702,0.3102879,0.10107789,0.32967192,0.07045111,0.14200768,0.29565334,0.19397874,0.15678169,-0.0075265607,0.24395113,0.33336905,0.106802374,0.113974795,0.1704211,0.27153546,0.25688386,0.37199265,-0.059488818,-0.11934355,0.19262621,0.2713275,0.13136226,0.27115384,0.14012711,0.08779209,0.14652196,0.25564367,0.38917434,-0.17331381,-0.055605713,0.12857194,0.1601663,0.16997291,0.35749552,0.24193917,0.048112217,0.14387058,0.17935994,0.1577877,-0.037390374,0.005353517,0.13357957,0.09919236,0.09917679,-0.009008142,0.2220626,0.23784207,0.0722477,0.12338419,0.14278209,0.023901518,0.06098959,0.043419287,0.22269434,0.26195678,0.18672858,0.18257737,0.21088679,0.21011849,0.09408782,-0.021450471,-0.15428923,-0.09629659,0.08092276,0.13934645,0.19988894,0.08687575,0.14214325,0.04213318,0.120226875,0.37122726,0.2952247,-0.15565597,-0.28057382,0.02667119,-0.043677587,0.004388372,0.14505763,0.05420474,0.1579459,-0.20054676,0.05614545,0.3477482,-0.30513647,0.04175321,-0.039814077,0.2913785,0.14930968,0.25787285,-0.0019488801,0.00894295,-0.26278952,-0.12540463,0.47216028,0.018642565,-0.054170586,0.15837736,0.09014534,-0.036190145,-0.026642622,0.29625013,0.020294743,-0.11619001,-0.102302276,-0.051379643,-0.30892357,0.16176479,-0.41454795,-0.45596156,0.18894418,-0.04061618,-0.13149616,0.44426087,-0.012780162,0.15272886,-0.32398123,0.24788836,0.60150486,-0.53011763,-0.19197111,0.036599025,-0.08438445,0.010611128,0.049674906,-0.4391066,-1.1224222,0.15402459,-0.61907756,-0.09441091,-0.3478346,-0.29247633,-0.15221207,-0.14548321,-0.08413265,-0.22339575,-0.035377234,0.46915832,-0.7970076,-0.71386075,-0.14334361,-0.19897075,-0.45110598,-0.22400062,-0.2887652,-0.30611408,-0.22041827,-0.3076722,0.1625049,-0.3175031,-0.58751523,-0.24658974,-0.21124092,-0.40354666,-0.27320114,-0.3146143,-0.19180231,-0.523808,-0.2907916,-0.13359877,-0.61459845,-0.5945631,-0.5835007,-0.30479452,-0.38979805,-0.56086916,-0.4790048,-0.12567256,-0.36750942,-0.4194799,-0.26270136,-0.6858885,-0.7356031,-0.6051869,-0.41351485,-0.555784,-0.27597362,-0.33101472,-0.49426296,-0.36409312,-0.43698722,-0.21569678,-0.7246634,-0.8819924,-0.59492236,-0.4048927,-0.3618439,-0.36278012,-0.41474122,-0.3418523,-0.1974309,0.031241912,0.36984468,0.93432236,-0.637619,-1.0877776,-0.165804,-0.35428527,-0.046108205,-0.21644758,0.007993084,-0.057782385,-0.05652277,-0.8818159,0.33265793,0.12958445,-0.24638256,0.17356038,-0.683397,-0.57375586,-0.38784674,-0.2659764,-0.045936566,-1.2871228,-0.878558,0.18057792,-0.30218953,0.24249484,0.32612714,0.20115294,-0.08997574,-0.0480364,0.11794681,-0.12095441,0.695576,0.17385091,-0.2824084,1.488518,-0.048781488,-0.29241088,-0.18087016,-0.0038784167,0.06889647,0.02335243,-0.008398331,-0.03415134,-0.1263824,0.10833681,0.013221896,-0.3052573,-0.3880189,-0.22453606,-0.2864668,-0.10584936,-0.114068285,-0.20729128,-0.15709357,-0.2615113,0.018800339,0.07019805,-0.120089255,-0.14407834,-0.14583108,-0.18017343,0.00076238066,-0.04992287,-0.075073816,-0.13072686,-0.14718972,0.033712316,-0.0012207573,0.109722316,0.15130001,0.1014055,-0.044275217,-0.05326617,-0.0026994024,-0.049907755,-0.26917797,-0.18509258,-0.12634861,0.08537448,0.24360758,0.14117788,0.09371827,0.03724082,0.005514925,-0.015167249,-0.07703429,-0.23866642,-0.0164654,0.014360014,0.06570621,0.16975482,0.09983151,0.2939752,0.13823889,0.0054802843,-0.051705364,0.11915135,-0.018348727,0.06161983,0.21506615,0.12244495,0.20155998,0.2057908,0.14206004,-0.04365278,-0.050230145,-0.0075298366,-0.06800117,-0.14748806,0.124933206,0.05739754,0.29089576,0.11638935,0.24548838,0.2593793,0.06177532,-0.08143116,0.010275625,0.1579718,-0.046201047,0.21948007,0.4622354,0.22340226,0.20751762,0.21419305,0.017146261,0.0015578697,0.07228765,0.0071152537,0.011739558,0.037765462,0.25751582,0.24031164,0.29851505,0.07766349,0.075288005,-0.14222625,-0.3655163,-0.30581895,-0.3216278,-0.47615772,-0.403455,-0.07745914,0.097796954,-0.17008473,-0.013341857,-0.08628673,-0.34381452,-0.023518013,-0.07642201,-0.004116313,-0.0034807601,-0.05137547,0.114448644,0.13857837,-0.0025727416,0.017547876,-0.25584993,-0.191257,0.028347006,-0.13284834,-0.14214562,-0.0833398,-0.029369207,-0.06906546,-0.07544911,-0.02484007,-0.1455571,0.03441732,0.13119113,-0.09959335,0.06464225,0.045541897,0.010155001,0.050433047,0.118750565,0.23526993,-0.099592134,-0.19474031,-0.073974796,0.07213771,0.00019848798,-0.0889121,-0.038783625,-0.05045732,0.051870365,0.09590265,0.12921518,0.0009895961,-0.2721754,-0.2493368,-0.17279941,-0.16464166,-0.042465854,-0.08554891,-0.054056123,-0.021906512,0.1224972,-0.034225058,0.041206293,-0.26310268,-0.2721924,-0.29254556,-0.23899463,-0.015430434,-0.122220434,-0.01394482,0.023717627,-0.08755923,-0.12372303,-0.023700422,-0.3582553,-0.26241404,-0.28322822,-0.30262864,-0.17909107,0.04760553,-0.09076098,-0.011127695,-0.12809114,-0.06861072,-0.15587692,-0.281039,-0.27751318,-0.08073945,-0.08688738,-0.06264307,-0.12443538,-0.005826605,-0.16489959,-0.3279112,-0.21132155,-0.22694725,-0.1742365,-0.16512045,-0.18232031,-0.23437104,-0.1481471,-0.26519468,-0.0795531,-0.21203238,-0.13079074,-0.057747837,-0.1403686,-0.20903745,-0.12112911,-0.014815833,-0.15791348,-0.1439669,-0.202016,-0.13273808,0.01705347,-0.03946582,-0.010911426,-0.3759697,-0.2591266,-0.1385312,-0.12918288,-0.22152302,0.06572274,-0.08032886,-0.115143366,-0.066136904,-0.15129106,-0.34267178,-0.0008884927,0.010069834,-0.11073867,-0.46159357,-0.077855,-0.030040072,-0.12975924,0.07951434,-0.23119457,-0.18054448,-0.025216775,-0.010833529,0.48984742,0.73664486,1.3873304,1.2233384,-0.07886555,0.4413602,0.7945936,1.546777,1.269519,0.5867008,0.39106855,0.8610189,1.4725968,1.5115287,1.287929,0.6725585,1.044627,0.9846343,1.0968924,0.71048105,-0.071233965,0.67052466,0.8376526,0.7890254,0.6246938,0.5899667,0.37668774,0.5044181,0.39230475,0.9340052,0.77754873,0.48700386,0.677466,-0.03749604,0.56262094,0.5559596,0.3218489,0.25901103,0.4892078,0.39714685,0.5813224,0.76949304,0.4398268,0.50057054,-1.4153656,-0.099525586,-0.1481183,0.48414183,0.037727457,0.10332044,0.31960642,0.28913948,0.63794905,-0.36933747,-0.20041828,-2.7509165,-1.4509639,-0.23972377,0.044325527,0.024162423,-0.3603373,-0.05134791,-0.37724888,0.019727295,-0.6051082,-1.5264251,-2.7435935,-1.3121997,-0.056361288,0.15334156,0.47218996,-0.055052057,0.33071506,0.18494429,0.2872995,-1.7940445,-0.97370684,-2.7366486,-1.0015839,-0.17980638,0.17433591,0.024337351,0.13354868,-0.03954159,0.03819034,-0.45331177,-1.0096444,-2.2301078,-1.6653973,-0.8793935,-0.2018269,-0.012439895,0.28907627,0.08460419,0.19889913,0.21248515,-1.0320045,-1.804218,-1.7948034,0.9676686,0.4220121,0.73256135,0.597035,0.4719367,1.1580738,0.90749055,0.41314715,0.55540705,-0.9574027,0.8320376,0.41756368,0.64427173,1.1323378,1.5528162,1.360349,1.6259036,1.4866742,1.448896,0.29866305,0.58670896,0.34841588,-3.1077416,-0.04351797,0.3127024,0.4139139,0.20494923,0.18452579,0.17852849,0.18536031,0.263006,0.2058992,0.06637782,0.013330835,-0.28758398,0.08565508,0.22244993,0.31877723,0.15411517,0.03310729,0.026282178,-0.11137713,0.100546435,0.09164016,0.29623324,-0.22302383,-0.16297553,-0.026318803,0.11076261,-0.0680093,-0.097475395,0.044306517,-0.0011843091,0.16752635,0.1607057,0.21965615,-0.32619676,-0.34640285,-0.13597171,-0.02881388,-0.1418392,0.05183454,-0.03581118,0.03858983,-0.012062807,0.14859599,0.33765525,-0.18825755,-0.21936579,-0.2294577,-0.10318166,-0.06848308,0.033964086,-0.061559185,-0.11953619,0.06806608,0.047588296,0.13251875,-0.2511628,-0.29244027,-0.21205401,-0.11638331,-0.20131308,-0.049743026,-0.088266164,0.04835288,0.093988985,0.075381815,0.1865244,-0.2631395,-0.27935612,-0.20894712,-0.090680845,-0.19525243,-0.15249512,-0.07839101,-0.08823687,0.056259543,0.1112911,0.24979083,-0.34420156,-0.2828035,-0.18697888,-0.21209958,-0.24955975,-0.11434138,0.018774064,0.1703517,0.17311512,0.37697816,0.30594715,-0.47075883,-0.22312397,-0.4283857,-0.24516566,-0.2317458,-0.13386942,0.10188854,0.14336564,0.29168883,0.1425974,0.2621981,-0.33059844,-0.22598797,-0.28086543,-0.31953537,-0.24268824,0.007901434,-0.15091425,0.1031976,0.14775921,0.26053616,0.012648386,0.020451358,-0.27752876,-0.1915031,-0.30819282,-0.17933333,-0.072588295,-0.026463574,0.038732063,0.044360034,-0.03442416,0.035215896,0.029876476,-0.0135622015,0.29270914,0.06278942,-0.19674239,-0.43263146,-0.42691675,-0.4770417,-0.4767336,-0.18878503,-0.051184297,-0.35155413,0.112159036,0.27495718,0.093492314,-0.15153028,-0.14504816,-0.29715964,-0.37569156,-0.39299348,-0.44082624,-0.081175745,-0.07798811,-0.14446363,0.029963959,-0.12267549,-0.32531613,-0.1578529,-0.45013824,-0.39000633,-0.3235129,-0.19811475,-0.09529265,-0.12142814,-0.43990466,-0.10393634,-0.122990906,-0.19731557,-0.13784909,-0.3314301,-0.3893364,-0.22787969,-0.107187144,-0.08971876,-0.13970056,-0.18473677,0.07593232,-0.02287151,-0.11986347,-0.18599463,-0.21759501,-0.3402466,-0.34082523,-0.55260617,-0.19874038,-0.18287595,-0.16852427,-0.026526209,0.017387347,-0.07872604,0.026537305,-0.10410206,-0.26768646,-0.29580346,-0.26834542,-0.11993205,0.10325504,-0.148579,-0.08486391,-0.058486037,0.00036106788,-0.08702052,-0.12712236,-0.25242847,-0.5183147,-0.47560507,-0.36137688,-0.05606176,-0.22749177,0.04639044,0.015783807,-0.0007601561,-0.1659298,-0.21851425,-0.37100312,-0.25543138,0.033673152,-0.15675414,-0.089924335,-0.25340334,-0.31275827,-0.080018625,-0.21525207,-0.17093204,-0.26197955,-0.29931977,0.08522772,-0.084870405,-0.077936426,-0.19720991,-0.18297312,-0.26338556,-0.3848048,-0.23443036,-0.02120064,-0.2146206,-0.37886548,-0.62575024,-0.40905383,-0.056475334,-0.051758338,-0.39387032,0.07400835,0.0029293145,-0.00025503794,-0.07922112,-0.04885848,-0.34263074,-0.66436756,-0.5735987,-0.031832658,-0.26774156,-0.51183385,1.0729684,0.6383093,0.39327526,0.4850702,