-0.04567968,0.07016454,-0.17029437,-0.0621871,0.10356631,0.1446433,0.18138467,0.092597984,-0.19283281,-0.0036083346,-0.043667898,-0.027753644,0.05314495,-0.0027526566,-0.23899084,-0.121891946,-0.054441568,-0.020736314,-0.11275826,-0.09794792,-0.080936514,-0.05067939,-0.14017627,-0.0010485287,-0.33293474,-0.2820469,-0.39445552,-0.37736255,-0.33580872,-0.5362442,-0.6762428,-0.40943134,-0.16038068,0.088678636,0.17163323,-0.3347466,-0.22391614,-0.38813463,0.002612076,-0.11408358,-0.2276167,-0.38761166,-0.3386947,0.23948412,0.22477064,-0.039919876,-0.22186495,-0.34185112,-0.2776728,-0.14032482,-0.20316507,-0.2505932,-0.267934,-0.18664734,0.10326133,0.2758454,-0.08975263,-0.18817799,-0.057251118,-0.28142205,0.029046651,-0.15165669,0.07682181,-0.3134483,-0.1479374,0.20306806,0.15956874,-0.13034771,-0.2858841,-0.22980505,-0.30396506,-0.19045985,-0.3464953,-0.14778036,-0.40125403,-0.1965602,0.22037436,0.12800407,-0.26265293,-0.27862895,-0.28401366,-0.1993611,-0.013829918,-0.03189467,-0.11042519,-0.299549,-0.01483066,0.2331521,-0.23955335,-0.32349616,-0.31543148,-0.23283431,-0.2576754,-0.12366092,-0.13416381,-0.20254102,-0.5324615,-0.20199189,0.044870712,0.046589784,-0.05461916,-0.21621427,-0.24820179,-0.27379492,-0.14259933,-0.15833324,-0.14015196,-0.41773227,-0.0055848546,0.22738257,-0.011784302,-0.25898913,-0.023758557,-0.20561051,-0.0064346576,0.07474527,0.034863517,0.053960707,-0.3635454,0.09583711,-0.03993582,0.042757586,-0.09071152,0.33783942,0.20589061,0.10119161,0.12687767,-0.07427102,-0.05004563,0.13697541,0.008173413,-0.046395488,-0.4492169,0.10605341,-0.17372446,-0.12754224,-0.04050873,0.083399266,0.082320265,0.14211199,0.056434624,0.046220053,-0.0005941029,0.10738688,-0.012275246,-0.1874297,-0.0031705208,0.057419598,0.010288004,-0.2500525,-0.15083064,-0.13479026,-0.08161273,-0.04325481,0.047826726,-0.1872824,-0.007976155,-0.11617982,-0.23076516,0.102011256,0.06072212,0.19667079,-0.012535323,0.055657182,-0.044887967,0.03060729,-0.29110342,0.062995225,0.02822297,-0.1314985,0.25850648,0.07763567,-0.092813835,0.026723715,0.12201039,0.14650255,0.17125821,-0.32379457,0.06340307,0.18763249,0.44470564,0.031485956,0.34954676,-0.0024784273,-0.056391887,0.14188384,0.1923836,-0.059116974,-0.29715705,-0.16883415,0.018899534,0.064328514,0.24117322,0.06480968,-0.07276383,0.06686651,0.15314326,0.09691687,-0.23383492,0.08152082,-0.07771429,0.1623914,0.09594876,0.26464456,-0.0520473,0.16445039,0.07762226,0.02914898,0.11488579,0.06954196,-0.06000445,-0.19111742,0.15047786,8.974082e-05,0.035985716,0.253154,0.26098174,-0.3420714,0.033315443,0.29387385,-0.24749509,0.039632823,-0.023874259,-0.03581688,0.19839275,0.02340222,-0.040077876,-0.012553528,-0.28120095,-0.13089931,0.31707203,-0.04116532,-0.12023144,0.31514713,0.24210235,-0.29324198,0.025115497,0.105303876,0.20377468,0.13835281,-0.21625566,0.031570405,-0.13552308,0.33626002,0.1733591,-0.029029401,-0.58272344,-0.47090623,0.110222675,-0.3212863,-0.87710685,0.29907572,-0.13998392,0.33744624,-2.992467,-0.14903094,0.16361593,0.11322089,0.12800513,0.18616346,-0.27091506,-0.078683704,-0.7565422,0.398065,-2.5497324,-2.2455883,0.35302135,0.23504065,0.19411592,0.17705755,0.30295557,0.16432567,0.40736476,0.3824495,0.4823591,-2.9014916,-0.21470378,0.15876783,-0.2260867,-0.41885224,-0.63646436,-0.9510126,-0.4632343,-0.20740013,0.13003935,0.03678387,-1.9812616,-0.40110284,0.25756636,-0.13294005,-0.20094055,-0.33490705,-0.18163387,-0.8305905,-0.2948931,0.24178928,-0.5659535,-1.7777773,0.1506342,0.27134955,-0.020146068,-0.32346833,-0.14210597,0.07454476,-0.51543975,0.050540555,-0.04571311,0.20982954,-1.7687552,0.57924986,0.4703299,-0.08074305,-0.18986604,0.09680014,0.012288177,-0.036619276,0.25382057,0.19915693,0.2935882,0.31836465,0.38351673,0.23670773,-0.2525818,-0.060577355,-0.59237903,-0.34841892,-0.07923434,-0.024338307,-0.1871683,-0.9855684,-2.174971,-0.24805136,-0.13780129,-0.0069574537,0.086743444,-0.09129347,-0.059567392,-0.05381133,0.39031878,0.06346793,-0.83266985,0.34966126,-1.6834489,0.44865066,-0.024256015,0.34369186,-0.14373544,0.020064324,-0.009290574,0.68486476,-1.575682,0.33505437,-0.18577933,0.3656287,-0.4277317,-0.6365156,0.15768068,-0.39861932,-0.7007496,-0.31716058,-0.972721,0.38813767,-0.1603219,1.8709452,-0.01676643,-0.0027157017,-0.056374077,-0.2741932,-0.08959579,-0.08805941,-0.0955311,-0.10423392,-0.25180587,-0.30442014,0.0129293585,-0.108097225,-0.112429254,-0.12460618,-0.47679326,-0.35388035,-0.3346712,-0.21972053,-0.33286637,-0.37507066,-0.28847373,-0.096137695,0.05459434,0.065982446,0.09192401,-0.0006180173,-0.0123776365,-0.0047071064,0.058052976,0.05502112,-0.043710023,0.044770397,0.20535846,0.001183707,-0.057203688,-0.13195506,-0.1413623,-0.23502707,-0.17073624,-0.14701736,-0.053452875,-0.12123808,-0.067137524,0.049866155,-0.018521715,-0.10499602,-0.115263246,-0.24931538,-0.095877275,-0.23092163,-0.045080334,-0.062648304,-0.008342224,-0.15408662,0.10754156,-0.113197975,-0.20819627,-0.11589915,-0.077138476,-0.12351832,0.025824208,-0.17249516,0.024911465,-0.1356296,-0.21905416,0.04015669,-0.114539444,-0.25392565,-0.03478435,-0.16245066,-0.108485736,-0.08828943,-0.08380185,-0.12696984,-0.06722702,-0.37344223,0.12784038,-0.14838052,-0.12670793,-0.052413687,-0.20311417,-0.11625965,-0.15034279,-0.04022512,-0.0752591,-0.10201744,-0.41954502,0.09212141,-0.10304055,-0.26832166,-0.23090917,-0.20442414,-0.2326127,-0.21133024,0.046420712,-0.1634884,-0.21740538,-0.745936,-0.087648004,-0.117615886,-0.17131172,-0.13493119,0.028676443,-0.07882121,0.043969143,0.15842903,0.13191311,0.10660054,-0.4309539,-0.382293,-0.012911845,-0.6643874,-0.0694396,-0.19788072,-0.058479078,-0.03774599,-0.01606385,0.012827687,-0.05195743,-0.31663293,0.0043244488,-0.031071357,0.017108237,0.22157279,0.038432498,0.046993554,0.05497742,0.15201129,0.013134587,-0.103815585,0.22900346,-0.031047558,-6.517551e-05,0.132503,0.08898173,0.10144644,0.14313622,-0.06927005,-0.06345867,-0.026834264,-0.06290746,0.1794631,-0.16223526,0.22434351,0.14962544,0.14431427,-0.053221557,0.20436613,0.096072055,0.025108434,-0.01883688,0.20871623,0.028910067,0.16626243,0.24781932,0.209663,0.094518,-0.045440216,0.055071983,0.044641364,0.01563856,0.022122152,-0.07692933,0.08996309,0.03281365,0.30156818,0.14485726,0.046538614,0.02793944,0.0957868,-0.00026251585,0.055380855,0.06015393,0.13528812,0.1599641,-0.0011798398,0.30770302,0.1359425,0.07774392,-0.052635275,0.22760014,0.004807496,0.047709875,-0.061728053,-0.008262503,-0.20504956,0.016225187,0.251235,0.12942141,0.29134408,0.1297959,0.22786137,0.04361614,0.10200141,0.0815114,0.11668137,0.03582637,0.010731107,0.16328773,0.16641475,0.049572688,-0.120043375,0.03949813,0.10404967,-0.08467011,-0.028344011,-0.10784998,-0.05216161,0.15335041,0.28797078,0.30037802,0.20992817,0.21671253,0.011758158,-0.118505634,0.044794362,0.066661365,-0.016855152,-0.124168344,-0.18760723,-0.022532262,0.27115065,0.24326722,-0.11057153,-0.02829218,-0.035676517,-0.045801908,0.18128215,0.15025164,0.053396765,-0.05293593,0.050348368,0.05488079,0.23818351,0.27155364,-0.06760588,0.061650008,0.19250056,0.050499804,0.21812512,-0.27151862,-0.017914549,-0.07886853,0.9265369,-0.4147078,1.536554,1.5452491,0.69989103,0.7862756,0.6321048,0.8765708,0.8268012,-0.17044711,0.8940961,-0.6491503,0.13152696,0.5658048,0.37198666,0.62542665,-0.068435885,-0.15657146,0.39871424,0.08954069,0.8236609,-1.0932281,-0.824192,-0.8116069,-1.2503878,-0.28269836,0.083357915,-0.25736228,-1.1134719,0.21039799,-0.6496494,-1.8578465,-0.46256843,-0.8286608,-1.0484434,-0.16366567,-0.19994166,-0.22979602,-0.5978053,-0.48613435,-0.24874236,-0.014637738,-0.82344025,-0.38927305,-0.998509,-0.47255296,-0.016250262,-0.41355515,-0.39070433,-0.26818046,-0.7201888,-0.5696262,-0.10146954,-0.2529991,0.86000544,-0.51463306,-0.8794786,-0.46731183,-0.42370692,-0.34881556,-0.3817252,-0.4878508,-0.13967808,0.22084595,-0.39223823,0.5194491,-0.35994512,-0.96247154,-0.21532618,-0.432866,-0.31668416,-0.1786798,-0.43460557,-0.5532698,0.558079,-0.6199685,0.7833271,-0.37365988,-0.2727036,-0.42418423,-0.5717557,-0.38253,-0.68901724,-0.6164966,-0.5203283,0.7846721,-0.7523457,0.8451532,0.9042924,-0.3829956,0.07446844,-0.14540061,0.17161004,-4.0310755e-05,-0.19602433,0.12281629,0.9976849,0.9101164,0.98939216,1.7757276,1.1909543,0.3468856,0.08975383,0.03973524,-1.0530547,-1.1056478,0.121616915,0.9466765,0.81349,-0.091695406,0.9289898,0.8820429,0.044496894,-0.42598388,-0.56196815,-0.90399635,-1.0927265,-0.64842296,0.9523149,-0.12198083,1.7567331,0.015944734,-0.41385254,0.17540373,0.1433891,0.20034438,0.15103868,0.08590589,-0.04153486,-0.17162937,0.17613195,0.024785347,-0.64198816,-0.39767742,-0.37502062,-0.3688886,-0.29560524,-0.35032406,-0.4127517,-0.4955135,-0.5329899,-0.06514917,0.13335703,-0.19350806,-0.13637652,-0.13937911,-0.033248227,0.0088738445,0.044928275,0.008203462,0.026340466,-0.078621686,0.1844322,-0.074657165,-0.13000615,-0.16357341,-0.31980452,-0.19994846,-0.27191454,-0.20135109,-0.33140844,-0.21268106,-0.4631267,-0.056311473,-0.10470554,-0.115920275,-0.1352566,-0.215335,-0.14531246,-0.20989893,0.0011042492,-0.2423794,-0.08087941,-0.3056648,-0.020193918,-0.16391708,-0.12180082,-0.104815856,-0.075622655,-0.048882876,-0.09435468,0.009836262,-0.19758536,-0.11663692,-0.36366192,-0.049137514,-0.23374312,0.11208559,0.18516102,-0.015865795,0.0037361057,-0.06283003,0.05116123,-0.15265551,-0.032902982,-0.46306667,-0.018843133,-0.01222077,0.13959603,0.24025075,0.21474056,0.033539552,0.042245314,0.03516512,-0.040758688,0.026871273,-0.27747113,0.049481552,0.01442336,0.028338626,0.16989955,0.06738461,0.14806037,0.15306796,0.11254955,0.096836,0.18943177,-0.29297602,0.0072169094,-0.14408517,-0.12192144,-0.16402936,-0.020351924,-0.07744162,-0.119749,-0.2457976,-0.09944747,-0.13184294,-0.6935916,-0.07722218,0.033592742,0.0117318295,-0.015160575,0.022120586,0.08944247,0.14328262,0.056561317,0.06487936,-0.072361454,-0.26932025,-0.37973103,-0.03457904,-0.048051428,-0.004826647,0.06650021,-0.06297252,-0.034768473,-0.0014478406,-0.024146494,-0.045271076,0.06032454,-0.070969924,0.00620154,0.16651319,0.23856133,-0.17455709,0.1576935,0.056420993,-0.0014676047,-0.013111642,-0.06414712,-0.11130082,-0.021011284,0.1294958,0.18195722,0.13961913,0.088020466,0.13681807,0.10627881,0.004759734,0.006601711,0.16585594,0.011668237,-0.02516399,0.022630708,-0.0916262,-0.081596486,-0.032147273,0.089579016,-0.08771856,-0.04040987,0.020872286,0.12667494,0.10802099,-0.051239498,0.16207477,-0.16617836,-0.298188,-0.013841876,-0.056855377,-0.09323382,-0.09809901,-0.019092495,0.088726655,0.103279024,-0.08657077,0.10157413,-0.29711992,-0.24305421,-0.032788016,-0.11662243,0.020151716,-0.020936804,-0.049539357,0.17669077,0.07277902,0.12437579,0.037799004,-0.27791452,-0.11622493,-0.13653143,-0.10707567,0.06854347,0.0038787636,0.0053714947,0.036105707,0.09525105,-0.0826037,-0.15789185,-0.26922783,-0.20483147,-0.26908964,-0.18876119,-0.08266856,-0.1971412,-0.1808692,0.060142484,0.18703158,-0.03514123,-0.048326574,-0.21658577,-0.21336925,-0.36045495,-0.21747929,-0.1383054,-0.15565601,-0.17022093,-0.008497058,0.14948308,-0.04226838,0.029606229,-0.44374597,-0.5654908,-0.2561737,-0.50426376,-0.0442838,-0.25328058,-0.12438645,-0.059159882,-0.0816711,-0.2263956,0.04742568,0.03364245,-0.24918744,-0.40528682,0.03402654,-0.029626433,-0.096412,-0.16284727,0.23564588,-0.030210726,-0.30242306,0.013508986,-0.1599934,0.38997543,0.9080725,-0.4037895,-0.4011361,-0.6280661,0.11063638,0.26962048,0.15411712,0.36940694,-0.06181853,0.36983234,0.5081024,0.26736385,0.3288628,0.04222259,0.19717337,0.12856497,0.15822378,0.14658907,-0.6744105,0.47454336,1.1772344,-0.61295,0.59715384,0.31985068,0.010367424,-0.12742674,-0.113219835,-0.14447069,-0.009510653,-2.2003543,-1.0224786,0.50113744,0.47267008,0.38484022,-0.10584483,0.10523052,-0.20260721,-0.061870527,0.021444414,-0.030749997,-0.14967728,-0.0049135312,-0.023113579,-0.07729485,0.20949881,0.07657311,-0.14051127,-0.4286593,-0.033251956,-0.6289462,-0.27923164,-0.38374993,-0.00978583,-0.39552644,-0.48205343,0.052863434,-0.27806637,-0.20176241,-0.26631728,-0.2650152,-0.38112926,0.024664663,-0.19525124,0.3327933,-1.1809028,-0.8143129,-0.23385555,-0.16469656,-0.050218992,-0.06186974,0.052415464,-0.026371632,0.13552538,0.30510446,0.7370928,-2.3565156,-2.1744807,-1.1543715,-0.8159975,-0.52265793,-0.35844046,-0.13009942,-0.24987862,0.078120284,0.33532697,0.05666256,-2.571728,-2.3286812,-2.4242644,-2.6542146,-1.5771611,-0.6704094,-0.16929477,-0.38709617,0.593027,-0.3211475,-0.65248173,0.40884367,-1.1291102,0.4254979,-0.80296236,-0.45200044,-0.75049764,-0.0628295,-0.8467631,1.0831902,1.1195713,0.5013336,-0.06771955,0.56567585,-2.6423216,-0.568293,-0.93297505,-1.1528065,-1.0886567,-1.9464866,0.7836086,0.5454426,-0.091138214,1.8288698,-0.020816693,-0.10104702,0.2701529,0.30291522,0.47868,0.31723294,0.38650092,0.6652866,0.45393053,0.21481438,0.02101705,-0.04788055,0.3846929,0.21956228,0.10421268,0.09447661,0.07828416,0.25361001,0.2438841,0.41207573,0.5373776,0.24146675,0.24182138,0.2587829,0.20238933,0.13796158,0.21624056,0.120553285,0.118207276,0.20948106,0.46951342,0.24163626,0.21456835,0.15911114,0.2262637,0.059878774,0.010843012,-0.10456966,0.12854433,0.015527826,0.104639344,0.25132918,0.3090038,0.26245275,0.4298924,0.046728127,0.06470485,-0.083426215,-0.073421404,0.1405425,-0.050535433,0.089577295,0.29960686,-0.030448321,0.114585154,0.2243271,-0.040556934,0.12990282,0.016102714,-0.021546124,-0.03467775,0.18361041,0.14923379,0.22949372,0.13189298,0.28279275,0.29655433,-0.19808961,0.06320853,-0.019068833,-0.06153347,0.14972425,0.012934975,0.071053766,0.12130942,0.14132069,0.32621536,0.24949417,0.118253276,0.09561477,0.15702872,-0.14818005,0.1991071,0.11838812,0.12452944,0.12892324,0.07274655,0.11826903,0.3453823,0.266108,0.094455965,0.0723779,0.124489315,0.108859874,0.20582117,0.11221266,0.10540756,0.30625302,0.3330299,0.3234738,0.57271963,0.30324113,0.2979666,0.21567091,-0.012641475,0.16561957,0.03250802,0.19275756,0.37599087,0.026126875,-0.016392235,0.16145766,0.47981957,0.027288113,0.01685445,0.3249007,0.30437985,0.1586296,0.12695217,0.26509294,0.0039550327,-0.0027730986,0.044530265,-0.05570378,0.07889422,0.05860223,0.021294016,0.04001503,0.11272187,0.05699785,0.20786317,0.0095107835,-0.12997662,-0.19331287,-0.06118511,0.14638299,0.09235775,0.14699087,0.1901993,0.24848156,0.25654367,0.11655507,-0.19161724,0.0076223193,-0.40240073,0.172296,0.015157333,0.20079915,0.0059134057,0.020525802,0.056619678,0.3986069,0.086434744,0.104593955,0.039075304,-0.050061356,0.056026492,0.11920028,0.033300202,0.1388753,0.14451341,0.047151476,-0.15055378,0.0733854,0.07819904,-0.15446976,-0.021147449,0.11158265,0.27168596,0.14992934,0.21289903,0.32994342,0.06467154,0.2051898,0.2487979,0.07130831,-0.10327886,-0.04631775,0.068844415,0.23200983,0.18783163,-0.011980728,0.16378893,0.24094991,0.04582689,0.032357022,0.10616845,-0.021869296,-0.10545248,0.1232811,0.11149601,0.1705656,0.08752914,0.15326719,0.2243381,0.18183066,0.17253263,0.1305099,-0.1716979,-0.08828625,0.041935015,0.03833478,0.1615723,0.10620905,0.3209959,0.14802738,0.2659301,0.21601295,0.17556685,0.10136142,0.12985742,0.09261872,-0.07476315,0.08226731,0.07068251,0.23339064,0.2231296,-0.09399638,-0.07759132,0.34124303,-0.045887936,-0.20420507,-0.094931915,0.19833525,-0.004754983,0.22926801,0.02777816,0.024546714,-0.117156014,-0.025050763,0.07224048,0.0011405457,0.09247711,-0.10435617,-0.109357186,-0.19143759,0.13325343,0.2568451,-0.005011525,0.06573893,-0.2181047,0.021088155,0.3351358,-0.13619658,0.12414642,0.7357833,0.66637987,0.61054325,0.58690166,0.35011455,0.22186697,-0.15094496,0.3851793,-0.11969711,0.49771693,0.32752743,0.1781691,0.39245993,0.5799569,0.49351734,-0.01794156,0.4506952,-0.12521663,-0.12913561,0.27086383,0.45285714,0.32208657,0.24445689,0.34574863,0.2851161,0.26647866,0.28147277,0.1740175,0.4137136,0.34560686,0.34857675,0.37531906,0.4777849,0.014539309,0.15721628,0.2368977,0.43747187,0.36482045,0.5690978,0.27053934,-0.12925391,0.35161436,0.49655637,0.40538996,0.32627836,0.20723987,0.33561775,0.3313391,0.40225667,0.39902174,0.5909209,0.43633568,0.34765592,0.54741734,0.28286326,0.3511372,0.2328099,0.5132305,0.3569957,0.396248,0.44833162,0.54981124,0.41453156,0.70693666,0.6423739,0.43008754,0.21576616,0.16294155,0.23201104,0.28810734,0.453419,0.49571678,0.40480468,0.31910712,0.43445474,0.78656834,0.40202785,0.29183522,0.28948414,0.25860617,0.45782205,0.22636694,0.54722637,0.3412239,0.032075137,0.30952638,0.01197591,0.6826621,0.41892675,0.33453834,0.47788998,0.47905952,0.77317834,0.29961872,0.28576404,0.110730395,-0.1922999,0.16516875,-0.212979,0.40508226,0.13687472,0.328013,0.4325114,0.23767711,0.30979845,0.121174395,-0.14105552,0.39769298,-0.1607574,0.058439866,0.36644226,0.26790884,0.35982817,0.2532912,0.19212815,0.024474146,-0.21858124,0.32040104,0.41910055,-0.0518263,0.27128327,-0.028369162,0.0867297,-0.04359938,-0.2062937,-0.16050816,-0.11038324,-0.13492148,-0.078329615,-0.0021751397,-0.29589412,-0.49533504,-0.08674456,-0.29772076,-0.365525,-0.30787203,-0.20521235,-0.1767954,-0.15494132,-0.20431721,-0.009943189,-0.09475551,-0.2555806,0.041014936,-0.19620377,-0.086101964,-0.3007735,-0.11868243,-0.20931289,-0.11847085,-0.18885994,-0.42706105,-0.024292096,-0.15996744,0.052496314,-0.24558955,-0.072829895,-0.2545951,-0.114963725,-0.22037789,-0.116960615,-0.17600006,-0.1996259,0.041407995,-0.026574245,0.17322843,-0.08300067,-0.066643655,-0.12405485,-0.12133416,-0.06814156,-0.07649892,0.01214071,-0.09117875,-0.1507686,-0.19913703,0.05252412,0.030202448,0.008865086,-0.03270032,-0.06381186,-0.11667808,-0.118663974,0.101603225,-0.010715246,-0.011219671,0.011789345,0.16566487,-0.13873558,-0.119614534,-0.24706954,-0.096850984,-0.086443715,-0.06744326,0.13277768,0.16587758,0.026255328,-0.14922221,-0.052387133,-0.20170064,-0.25667602,-0.29535896,-0.18798801,-0.253342,-0.05762375,0.30244553,-0.048446823,-0.08146913,0.11260113,-0.0035064952,-0.12010753,-0.25537834,-0.2851242,-0.15455441,-0.2529273,0.050862703,0.12971848,-0.032634784,0.7838313,-0.32386532,-0.083999425,-0.19178154,-0.17081603,-0.07511552,-0.05168735,-0.08289625,0.16029347,0.0758394,0.10523854,-0.0022136664,0.11438403,0.031000156,0.073505834,0.12407066,0.10271711,0.1040902,0.079538524,0.23802799,0.25810507,-0.021092024,0.019524334,-0.13827056,-0.23431878,-0.050289936,-0.04564097,-0.030155344,-0.23932853,-0.15339255,-0.32158306,-0.09102855,-0.042360015,0.13505639,0.15772338,0.30028674,0.037396766,-0.10409426,0.20629044,0.1471119,0.0049232612,0.033375174,-0.15573776,0.0945708,-0.008261967,0.19398691,-0.07801035,-0.06817897,0.022583349,-0.085343756,0.011050489,-0.090184174,-0.30463585,-0.12801926,0.0052401163,0.05511126,0.14263467,-0.06926791,-0.21280348,-0.03794431,-0.0015566032,0.027297895,-0.053197093,-0.12648302,-0.06293856,-0.029628497,0.060097914,0.09489162,-0.20691843,-0.18227683,0.051327236,0.075712845,0.016247492,-0.064449385,-0.12793916,-0.06733141,-0.2814566,0.103705585,0.13215053,-0.070532106,-0.23797147,0.030875554,-0.008503369,-0.0063478597,-0.015950672,-0.27083158,-0.30401745,-0.07769707,-0.11204499,-0.08008098,-0.041431922,-0.08853174,-0.056952853,0.015084624,0.056650013,-0.0061961077,-0.19798502,-0.14267334,-0.11427883,0.044680316,0.0029102406,-0.25960946,-0.15647244,-0.050519288,-0.08902578,0.06405985,-0.080443814,-0.037165996,-0.14074528,-0.085454635,0.31485233,0.122291036,-0.03838263,-0.16537072,0.057858005,0.18539818,0.13817988,0.17116317,0.33916974,0.27949417,-0.08697343,0.32969302,0.06460183,0.06879359,-0.10631028,0.11929889,0.027611734,0.20079882,0.14495148,0.17758042,0.19345757,0.13413204,-0.022117857,0.09821569,-0.36767885,0.03870414,0.123638265,0.104905136,0.17486045,0.2718692,0.30075282,0.4470329,-0.0463542,-0.16075659,1.0067111,-2.4715264,0.49711514,0.79210526,0.41670936,-0.1321898,0.21840881,-0.6322883,1.0676993,-0.15573135,1.0286205,1.3538431,1.2095611,0.9182286,0.24313413,0.8357795,0.48157692,0.34104672,0.20471162,0.6798386,1.0184076,0.37784863,-0.2788472,0.015903328,0.3851108,0.24848157,0.3511996,0.00031070603,0.31754562,0.5272714,0.43378806,0.74187815,0.25327778,0.36922425,-0.03867904,0.1036783,-0.17977893,0.11047326,0.034994435,0.069624394,0.08321505,0.14011419,0.3598512,-0.005292673,-0.004173854,-0.41539055,0.12176348,-0.11462751,-0.10731188,-0.07839063,0.09396866,0.062190622,-0.39673573,-0.9396784,0.14481337,-0.31073758,-1.1054782,-0.28737253,-0.3608582,-0.3376117,-0.3069855,-0.19270621,-0.06335759,-0.356257,-1.7087566,0.18585487,-0.42416507,-0.25049773,0.0409484,-0.11396076,-0.24899696,-0.098030016,0.035880577,0.07781926,-0.29205188,-1.9977373,0.34282726,0.04988617,-0.12382034,0.040227868,-0.056903046,0.019900197,-0.11596002,-0.019467397,0.027599033,0.20163624,-3.141055,-2.824088,0.04941163,-0.36469096,-0.19447935,-0.025968958,0.27362132,0.15802987,0.28113344,-0.098279566,1.2382121,-0.97087985,1.0429709,1.3184724,0.7401226,0.52982235,0.4499269,0.72800356,0.21456139,0.018109353,0.8988013,1.4800075,0.9887371,-0.1365032,1.0023847,-0.8924792,0.5938804,0.23794992,0.17364685,-0.8124706,-0.746695,-1.2879698,0.98679125,-0.1471349,1.869506,-0.021932859,-0.42142656,0.26908132,0.27756357,0.24239887,0.17824222,0.18055071,0.08208093,0.14259347,0.21239877,0.004916578,-0.4858083,-0.66675556,-0.4159551,-0.16806127,-0.13027667,-0.19490367,-0.16688652,-0.28802392,-0.107801534,-0.047566127,0.13678202,-0.09724905,-0.23961963,-0.22203262,0.025406973,-0.0047018076,-0.032677513,-0.030667625,-0.024420464,-0.12364956,0.019573513,0.009425482,0.020296512,-0.21433294,0.066944435,-0.028516749,-0.066911206,-0.13071573,0.0028779174,-0.03432788,-0.0414569,-0.010116768,-0.06842675,0.111651406,-0.22692895,0.093139865,-0.11006827,0.04663187,-0.09020217,-0.052322194,0.015468095,-0.088130146,0.17537183,0.064570524,0.11324132,-0.20534606,0.084189706,-0.057778627,0.010348474,0.018560113,-0.06896326,-0.013867043,0.039580803,0.2724703,0.15131207,0.15836084,-0.17062211,0.02410881,-0.04863726,-0.045618333,-0.07985114,0.0005074238,-0.056769114,0.09016741,0.38753477,0.3200733,0.09441907,-0.30264467,0.075444356,0.13902664,-5.9672107e-05,0.043301117,0.095337555,0.074243344,0.13923864,0.46491817,0.23900889,-0.23808958,-0.3518951,-0.08429488,-0.09952773,-0.12443499,-0.021764139,-0.05581204,-0.12992959,0.17464672,0.25603956,0.17259401,0.06130333,-0.3372647,0.101553366,0.24147639,0.19113548,0.004863803,0.03820592,0.04865916,0.22603397,0.5224417,0.3793591,0.04360595,-0.13548386,0.22656482,-0.2164024,-0.23994353,-0.33935118,-0.30251524,-0.39944884,-0.14255561,0.04967251,0.044576608,0.02719564,-0.22169326,-0.1861421,-0.23976178,-0.24620305,-0.25388318,-0.16025318,-0.0066156154,0.051860105,0.028041374,0.027751604,-0.12179228,-0.21856737,-0.18420766,-0.19831194,-0.14954711,-0.1649291,-0.24925025,-0.09464703,0.018612303,-0.31884995,0.023519253,-0.2339872,-0.2022675,-0.19504996,-0.1323962,-0.04174691,-0.059443403,-0.15347077,0.053560935,0.04040309,0.016817762,-0.035721622,-0.35395622,-0.37486804,-0.15249851,-0.015288298,-0.22929096,-0.12879498,-0.16484705,-0.088726565,-0.006625507,-0.009226777,-0.26382667,-0.16960183,-0.35821393,-0.21668611,-0.04603466,-0.0551829,-0.18120684,0.018993225,0.040756963,-0.19311744,-0.049513403,-0.043250088,-0.34716338,-0.21714829,-0.003116251,-0.03556042,-0.19114278,-0.03506964,-0.16225581,-0.03723305,-0.067178644,-0.081761695,-0.03715264,-0.33278102,-0.3589499,-0.15893745,-0.06336438,-0.22092359,-0.1689505,-0.15136763,-0.047462095,-0.099491574,-0.17154583,-0.14890067,-0.4617119,-0.42505103,-0.18205701,-0.087510586,-0.02602547,0.07648501,0.07438303,3.5515975e-05,-0.08033919,-0.038098916,0.006037289,-0.38487065,-0.43944514,-0.22207941,-0.18402262,-0.085245624,-0.13316399,0.12641813,-0.06230979,-0.22486266,-0.2971264,0.018728245,-0.11026677,-0.121778786,0.00077564444,-0.018549524,-0.009810485,-0.40408304,-0.24377257,-0.2030677,-0.3109597,-0.31288394,-0.3340192,0.028914275,-0.10772865,0.035741914,-0.28202155,-0.28162012,-0.036923986,0.1496919,0.0010984843,-0.029599003,-0.20023766,-0.04797449,0.44290465,0.88813394,1.981722,-0.8365493,-1.0491257,-1.6609952,0.07104666,0.4673284,0.9456115,0.8897967,0.45397332,0.80274504,2.1772828,1.9208708,1.0099041,0.6688379,0.74347955,0.84853137,0.7899999,0.66768885,-0.02261193,0.8315515,2.1444418,1.9475647,0.30086052,0.7259533,0.5134525,0.4310419,0.68416846,0.6792191,0.5989606,1.0381224,0.5725009,0.7356137,0.3778454,0.5773134,0.33252913,0.44199878,0.201629,0.52161074,0.58231544,0.57939565,0.34797674,0.47656313,-0.21942383,0.60113835,0.4722416,0.42145818,0.367358,0.5089206,0.4694456,0.36759114,0.67127967,0.44121328,-0.96649724,0.073880196,0.9961008,0.65191895,0.6507217,0.5024647,0.3628985,0.4620712,0.53796625,0.49474484,0.39920434,-1.6778543,0.4305655,0.7005741,0.6770894,0.4384086,0.5740845,0.6489558,0.4044509,0.65673906,0.36928883,0.1464448,-3.03227,1.0548046,0.943882,0.6722028,0.7995062,0.20643519,0.33964598,0.17628,0.72116274,0.33405837,-2.567939,-3.469418,0.9685589,1.5578028,1.0040187,0.9292642,0.56651133,0.47383597,0.6289092,0.66234887,0.10853552,-1.4084928,-2.6693258,0.9418426,-1.1538123,-0.7802801,0.4016067,0.3283237,0.0028793635,0.26825285,0.29975337,-0.6733558,-0.539411,0.7822363,0.38897648,0.94097227,0.45017678,0.42328414,1.2074414,0.9378466,0.99384516,0.38131076,0.93312466,0.720766,0.364717,-3.7941732,-0.037488595,0.21868579,0.10552811,-0.09629406,-0.0152468905,0.060488544,0.07266932,-0.037158225,0.021367604,-0.120076485,-0.048665438,0.03472735,0.16619588,0.018273832,-0.2349329,-0.078381516,-0.06764,-0.054305363,-0.012177507,-0.047629263,0.022221912,-0.49585629,0.1865646,0.13250355,-0.047579616,-0.13309932,-0.11430946,-0.0936569,-0.041213054,-0.1853518,-0.17712964,-0.16674207,-0.0016677788,0.14618982,-0.03094211,-0.11658796,-0.11526857,-0.1423276,0.08513066,0.012428366,-0.12230698,-0.18186459,0.05236714,0.012475104,-0.003965887,-0.09319144,-0.092839584,0.031813018,-0.08605179,-0.21551654,-0.058510136,-0.01870268,0.007868011,-0.0067517273,-0.12488718,0.16602206,-0.13921134,-0.047227565,-0.02946045,-0.10568657,0.017356485,-0.13059655,-0.045154985,-0.009249848,0.0071120714,-0.008661753,0.08691903,-0.049988214,-0.051190708,-0.11182131,-0.06547774,-0.22363424,-0.0188389,-0.022520674,-0.14685228,0.0032433744,0.17577764,0.14205049,-0.009665869,0.0646292,-0.14648685,-0.034786064,0.009213919,0.015669022,0.013446267,0.002907909,0.17060058,0.3018647,0.13203505,-0.18584275,0.007794152,-0.053311322,-0.17598438,-0.144332,-0.015230492,-0.08971962,-0.12346236,0.018590447,0.15213594,-0.19193725,0.088775784,-0.012665777,-0.080187276,-0.19119069,-0.16641578,-0.08280111,-0.06755665,-0.03929885,0.22226748,0.110565394,0.03816678,-0.16364387,0.08415218,-0.15279752,0.09958318,0.052195083,-0.00467477,-0.03202671,-0.1271694,0.059261896,-0.046502445,-0.01131522,-0.5687171,-0.36082622,-0.49313238,-0.42087886,-0.22259884,-0.3650803,-0.26941288,-0.22731328,-0.24540864,-0.033245847,-0.43726805,-0.20573395,-0.4887607,-0.4662363,-0.50725454,-0.23083328,-0.32696223,-0.28675222,-0.24220593,-0.20369208,-0.45640257,-0.2786017,-0.28408062,-0.66237295,-0.37510327,-0.33348727,-0.25449216,-0.52448493,-0.41662246,-0.12856776,-0.44625878,-0.8949762,-0.28080603,-0.38075888,-0.44644582,-0.44709828,-0.3000188,-0.1868952,-0.21118768,-0.12054017,-0.41220808,-0.2430795,-0.42244056,-0.26220337,-0.48245952,-0.37270233,-0.2586379,-0.40040088,0.04534563,-0.22335681,-0.36304674,-0.34175,-0.21126036,-0.36474848,-0.24020404,-0.5483417,-0.3452497,-0.21334037,0.042999573,-0.012933427,0.088748716,-0.30681437,-0.22096995,-0.20371231,-0.058265902,-0.4533119,-0.58571833,-0.38592237,-0.3502328,-0.3662955,-0.03810285,-0.36182913,-0.27608973,-0.28823525,-0.32070085,-0.38331664,-0.4751676,-0.3546852,-0.38962922,-0.2648221,-0.28395656,-0.15884824,-0.29627612,-0.18355677,-0.40809584,-0.21283785,-0.3123952,-0.40874594,-0.60174334,-0.340788,-0.21984582,-0.30742544,-0.1561487,-0.08995417,-0.11826707,-0.34988308,-0.4526186,-0.13351731,-0.4851634,-0.34433052,-0.40748003,-0.22718304,-0.24972676,-0.30656862,-0.35067236,-0.39880538,-0.2026729,-0.33628145,-0.39363745,-0.018248951,-0.52950984,-0.3315004,-0.29200915,-0.25252602,-0.12500732,-0.10006694,0.038302917,-0.24530347,0.11669185,-0.01684259,1.2855501,-0.7689481,0.50763834,0.3394126,-0.3294797,0.2869841,0.42656514,0.16451588,-0.22541197,-0.9259435,1.3734003,-0.88957334,-0.21732154,0.32547045,0.21994044,0.40268368,0.4134802,0.46570796,0.2595329,0.42055133,-1.9654428,-0.96492594,-0.03285146,-0.25211948,-0.18665445,0.16956995,0.13901019,0.26821846,0.29769224,-0.0011395344,0.21577033,0.14660937,-0.8579508,-0.88591176,-0.37259072,-0.09249563,0.09318273,-0.01009964,-0.087113604,-0.520803,-0.23596726,-0.30194184,-0.3308378,-0.07192513,-0.84764636,-0.38876775,0.2068698,-0.012411828,-0.1435362,0.060932543,-0.015086035,-0.36409774,-0.3737365,-0.14826511,-0.077628426,-0.79494476,-0.3070138,-0.20600203,-0.095814,-0.07146859,-0.142884,0.010581874,-0.39325437,-0.26107752,-0.21353874,0.1706138,-0.60118973,-0.2251947,-0.10592274,-0.16926405,-0.16758835,-0.05007894,-6.982029e-05,-0.20251018,-0.06338756,0.0041713426,0.14436908,-0.7901711,-0.8420305,-0.18035138,-0.36397028,-0.26360965,-0.42570093,-0.2720337,-0.038759105,-0.21886761,-0.015997034,-0.5566516,0.443397,0.1829755,-0.6484326,-0.26815256,0.016967693,-0.07426393,-0.16034111,-0.24159737,-0.24924737,0.16772185,-0.47665334,-0.9787357,0.7963714,-0.046480827,-0.39582127,0.29644287,0.33856913,0.16073076,-0.18466157,0.5232287,0.5052041,-0.93571,1.3036631,-0.8351937,1.1250919,0.9616013,0.7088961,0.24150963,0.27472973,0.5975103,-0.019828387,-0.82203394,1.3072432,1.9150575,-0.014664077,0.01999779,0.029088242,0.07668078,-0.19762194,-0.09715771,-0.27150345,-0.33076426,-0.2894216,-0.31088844,0.014469769,-0.048925743,0.07545351,-0.015013627,0.035713457,0.012458172,-0.122960225,-0.14884439,-0.22379078,-0.27317205,-0.37851503,-0.39432633,0.037616737,0.026102642,0.08353238,0.052782197,0.0021096747,-0.12417652,-0.092337504,-0.23368008,-0.27907705,-0.30090526,-0.37190562,-0.062068276,0.027815476,0.006889986,-0.07384359,-0.006620988,-0.11494413,-0.1869066,-0.2539164,-0.23010147,-0.30480012,-0.33119857,-0.025836164,-0.0044209827,-0.04872134,-0.103094205,0.0016748507,-0.038580235,-0.18022202,-0.1632362,-0.17090522,-0.3087459,-0.2475249,-0.03841287,0.046785004,-0.00024091569,0.008604437,-0.074148804,-0.0053469148,-0.09880571,-0.1953099,-0.18730435,-0.18178739,-0.3201218,0.032145675,0.03314011,0.0850098,0.06820504,-0.032273866,-0.02016447,-0.07951345,-0.16243997,-0.1727911,-0.18086405,-0.22471032,0.07618406,0.11281028,0.12305487,0.08364567,0.028516304,-0.0016843692,-0.019092742,-0.19580951,-0.13528416,-0.47331098,-0.20060743,0.031963825,0.102040015,0.050521273,0.11859998,0.08263252,0.034252394,0.00075633527,-0.10160469,-0.23419768,-0.25036535,-0.24789843,0.058523316,0.06552574,0.035164814,0.061454535,0.0229119,0.032942872,-0.009467988,-0.010261036,-0.048326444,-0.21844286,-0.15244749,0.01683115,-0.02956569,-0.010111063,0.12132411,-0.0033899313,-0.051900614,-0.015544627,4.8367743e-05,0.10117786,0.024354609,-0.018772962,-0.039989285,-0.1523861,-0.10874302,-0.05666254,-0.024979759,0.03535142,0.04045191,0.24421373,0.16495696,0.17389077,0.041484714,-0.04765071,-0.062258657,-0.06439626,-0.05754532,-0.007925259,-0.006547595,0.13373049,-0.0036733442,0.059766527,0.13314198,0.07994086,-0.023754818,-0.05396254,-0.0031198473,-0.1052367,-0.07804277,0.04362077,-0.0022620677,0.16509067,-0.027817851,0.20430894,0.03811795,-0.030089596,-0.04609912,-0.16107126,-0.2172319,-0.16755895,-0.033726424,0.006231345,0.10593657,0.12755282,0.11016087,0.008200326,-0.07911766,-0.027690886,-0.062260654,-0.0857137,0.014999394,0.0044738497,0.07394854,0.055258382,0.0898552,0.061357383,0.034314398,-0.079092644,-0.034677517,-0.041809596,-0.112058714,0.016494468,-0.048674382,-0.055158153,-0.05076687,0.13172461,0.05623957,0.08599075,-0.02423458,0.013057018,-0.09830864,-0.12268523,-0.08129647,0.0735537,0.048127964,0.10375361,0.16605584,0.005938964,0.01108617,0.01519497,-0.001908602,-0.16735682,-0.17388383,-0.17719239,-0.022495585,-0.1304308,0.024113476,-0.13399364,-0.09238074,-0.20473912,-0.003038412,-0.0036532816,0.0072183665,-0.1544558,-0.18454072,-0.09907013,-0.015481111,-0.032626264,0.1132654,-0.020392364,-0.10875353,-0.1312938,-0.2047559,-0.04301956,-0.075360976,0.0030276245,-0.16975999,-0.09702336,0.10886259,0.13042317,0.082150266,-0.108679414,0.047022503,0.07016574,-0.15741037,-0.038585633,-0.042842314,-0.052604575,0.1555796,0.024903266,0.20435828,0.2663318,-2.3468481e-05,-0.008938958,-0.6796349,0.6302763,0.6594975,0.90270925,-2.049036,-2.2883713,-0.75322986,-1.0550658,-0.63299656,0.08433102,-0.6734187,0.6396744,0.5264153,0.065440215,-0.39730912,-1.3963686,-1.700282,-1.0702288,-1.7112805,-1.8423166,-0.6805231,0.307273,0.19973856,-0.44846466,-0.55822927,-0.5816709,-1.2824949,-1.6686401,-1.2217053,-0.9554637,-1.0110669,-2.0513918,0.49189308,-0.42780864,-0.66290194,-0.7636991,-1.1603103,-1.6379591,-1.1349598,-1.0320086,-0.87213594,-0.9512968,-1.8765658,0.013191059,-0.032694776,-0.6906669,-0.75186586,-1.737006,-1.5496768,-1.4227185,-1.1634611,-0.99177426,-0.9894784,-2.0834162,0.21513458,-0.08798755,-0.88191193,-2.1222737,-1.3393552,-1.2450061,-1.335857,-1.2045283,-1.3988446,-0.91309917,-2.011337,-0.0050529903,-0.45980677,-0.89776605,-1.0060842,-1.2190107,-1.2868011,-1.011929,-1.1956071,-0.9621301,-1.359232,-1.9911736,0.24707955,-0.53950834,-0.7360279,-0.77129024,-1.0215753,-1.2259471,-1.2042447,-1.1536974,-1.0276456,-1.1341481,-2.2082043,0.5303483,0.06855204,-0.40284926,-0.54501987,-0.6715381,-0.7073658,-0.69863343,-1.1660324,-1.6133953,-1.9081278,-1.6870928,-0.74036586,0.08067288,0.5780252,-0.29176956,-0.15999068,-0.15032314,0.022983605,0.10739944,0.6622983,0.5883739,-0.6233616,0.10954183,-0.69704413,0.64957696,0.95162725,0.46356452,0.6649359,0.8142484,0.87069046,0.62489,-0.58896744,0.0037113738,1.981185,-0.006330448,-0.16810207,0.15461735,0.23993352,0.11434174,0.10654676,0.32582632,0.19240063,0.06004,-0.046737604,-0.009741801,-0.027699973,0.21903479,0.25636855,0.045187127,0.083493195,-0.04829327,-0.053049468,-0.07886232,0.0037544607,0.14144811,0.067980364,0.029012967,0.18781154,0.1495735,0.17506576,-0.016020028,-0.10628935,-0.13552879,-0.071081884,0.06305949,-0.06323918,-0.037612915,0.016633391,0.18638328,0.074146144,-0.008457011,-0.082436465,0.045858633,-0.018392928,0.08155098,0.097635664,0.105386384,0.28347945,0.23970342,0.016834231,0.045230974,-0.16022508,-0.052073207,0.119804196,-0.114087656,-0.091807425,0.088013396,-0.037013028,0.2372993,0.054707058,0.032439277,0.057162654,0.057058517,-0.13577761,0.0034498794,-0.030003155,0.030639179,0.021070791,-0.040367633,0.3017277,0.09173185,-0.035813864,-0.1000512,-0.084485196,-0.0981644,-0.17249766,-0.20383161,0.018802641,-0.09113145,-0.13217047,0.22865306,0.029986486,-0.011824945,0.04430189,0.08366596,-0.10405205,0.028403042,0.12536106,-0.040959384,-0.005678931,-0.11532591,0.1949169,-0.053741824,-0.11343591,-0.04783305,-0.030142391,-0.07150377,-0.062280025,-0.027204392,-0.16101867,-0.26130655,-0.11392545,0.004990775,-0.27533698,0.1857467,-0.02284972,0.1871078,0.0045363847,-0.049274933,0.08782277,0.12914164,-0.11972644,0.14694628,0.19644096,-0.035372417,-0.20451352,0.21479547,0.117731154,0.18491222,0.31897074,0.24612728,0.0451088,0.10698285,0.17272426,-0.025939863,0.037657592,-0.46340305,-0.15893006,-0.38561907,-0.46230626,-0.50303626,-0.31680375,-0.18615182,-0.3327464,-0.08026437,-0.015196404,-0.26672232,-0.07407773,-0.34430966,-0.17048693,-0.22183198,-0.18654642,-0.26828584,-0.09062538,-0.21784812,-0.41637316,-0.20137137,-0.25822568,-0.34813824,-0.26940563,-0.21447904,-0.32375467,-0.29297316,-0.40590695,-0.24876629,-0.307339,-0.3140347,-0.43771088,-0.4879421,-0.5057459,-0.35372636,-0.120615795,-0.38794595,-0.039303053,-0.28863537,-0.06864826,-0.13575093,-0.2235788,-0.33121103,-0.44889536,-0.4628596,-0.14048086,-0.21059063,-0.14814547,0.10727356,-0.13500023,-0.23056811,-0.13012326,-0.18146293,-0.3334471,-0.5544435,-0.35564008,-0.21467082,-0.1267512,0.06344246,0.043371446,-0.055119246,-0.1068115,-0.13020426,-0.10798379,-0.29123414,-0.5374089,-0.429005,-0.35071164,-0.20372678,-0.16542417,-0.04814403,-0.17981552,-0.18780543,-0.25649825,-0.29936618,-0.21224427,-0.6241749,-0.42794922,-0.3989422,-0.18763335,-0.2686081,-0.14568229,-0.047367953,-0.13325876,-0.26715565,-0.29222888,-0.18797334,-0.78452873,-0.6168285,-0.25208625,-0.40842918,-0.30880642,-0.2053396,-0.25298947,-0.17934187,-0.26623976,-0.4017028,-0.26908147,-0.32729042,-0.40335944,-0.44769785,-0.38822168,-0.08839708,-0.35866588,-0.26561686,-0.16485077,-0.51261276,-0.3698048,-0.19043526,0.03654208,-0.4560755,-0.27506188,-0.32047006,-0.31191614,-0.34544453,-0.21308437,-0.4110451,-0.45781082,-0.1751179,0.02326302,0.43149817,0.7460407,0.9941539,-1.2121304,-1.1903511,-0.66052926,0.07209527,0.35572982,1.0680468,0.6781604,0.5542138,0.7125174,1.040319,1.0946895,0.30458167,0.36702603,0.28014544,0.47860175,0.5956754,1.0716503,0.91106045,0.6246479,0.9391064,1.3906462,0.6154899,0.27636823,0.35201475,0.17216334,0.22468087,0.7710547,0.94286966,1.0886672,0.77157116,1.1066629,0.681917,0.37443647,0.291516,0.48396677,0.35922918,0.4370405,0.7097907,0.80257237,0.75731635,0.10896109,0.7692549,0.86525506,0.82062143,0.46064568,0.5882879,0.5520496,0.6718084,0.4310476,1.0159751,1.2333956,0.43754476,0.6797959,0.8142086,0.789903,0.5456455,0.43927744,0.6761267,0.62076324,0.5950822,0.9141247,0.87473613,0.34758312,0.5715315,0.52905256,0.5963889,0.43899035,0.7538514,1.092521,0.6039191,0.7697717,0.72417134,0.7983181,0.44229952,-1.7984977,0.5804796,0.46168286,0.47422096,0.2151272,0.59285295,0.71294975,0.89636403,0.7882765,0.17441833,0.24748576,0.51376003,-1.7738447,0.51587594,0.2875382,0.12707697,0.20389357,0.71268874,1.1380672,0.43730557,-0.099905245,-0.07502914,0.5407466,-1.0266484,-1.4707128,0.71388936,0.3622385,0.5500338,0.5400658,0.90384763,-0.7081635,0.20182227,0.6378878,0.54372,0.6187036,0.22487703,-1.7368566,0.35436302,-0.35623607,-0.43382472,-1.3273005,-0.1858774,0.6621339,0.5942799,-1.4852811,0.019021522,-0.36517218,0.44328406,0.21866776,0.27617252,0.5398684,0.61553806,0.53520614,0.5540453,0.3690743,0.050140385,-0.26248464,0.06968834,-0.02948861,0.041565333,0.2476249,-0.091744654,0.14997351,0.08592998,0.25002173,-0.0781354,-0.3092013,-0.02188916,0.07617527,-0.15762562,-0.012849285,-0.03606519,-0.019137304,0.13309623,0.21158813,0.0315474,-0.24728253,-0.20988266,0.07196878,0.021802485,0.02095757,-0.046544228,0.16303103,0.038458027,0.08275652,0.2743302,0.09143732,0.016815642,0.044080686,0.016430886,-0.19476491,-0.13678595,-0.20791319,-0.09696788,0.21519662,0.111541465,0.08041601,0.050352987,-0.20214005,-0.1624867,0.15393804,-0.24795023,-0.1621968,-0.16300915,-0.1769349,0.041067082,0.29023293,0.03583592,0.10969616,-0.17123595,-0.11967192,-0.018723188,-0.28197542,-0.13787748,0.0539842,-0.008801932,0.058859475,-0.040129147,-0.023946103,0.10745328,-0.30355623,0.01382796,0.046682253,-0.1558587,-0.029595358,-0.024344433,-0.1407656,0.07063978,0.12141399,0.10406342,0.03881893,-0.34375834,-0.113668494,-0.019232526,-0.16157615,-0.16137336,-0.11237027,0.18235032,0.24283548,0.12807658,0.06084136,0.014537094,-0.21906935,-0.10092428,-0.7804987,-0.018188516,-0.24637191,0.09471681,0.009597531,-0.1958734,0.08965117,-0.1686129,0.012466302,0.079766795,-0.016027104,0.00711861,-0.8642896,-0.0847618,-0.010974336,0.145681,0.50940204,0.18686508,0.087096795,0.0983628,-0.13865732,-0.037694175,-0.04782098,-0.47600207,-0.19902033,-0.18383934,-0.32841057,-0.09614353,-0.19988655,0.2672978,0.04871639,0.18464915,0.005529508,-0.19185446,-0.14017268,-0.2972924,-0.02681293,0.08849508,0.0071243127,0.01932205,0.36003813,0.1625146,-0.11164661,0.19761291,-0.2599975,-0.36522102,-0.075120695,0.05817864,0.12101179,0.109516434,-0.03323123,0.33321017,0.18585663,0.17072897,0.09060562,-0.37786645,-0.60943985,-0.08529394,0.19377342,-0.13046458,0.24515182,-0.0805379,0.078514606,0.43810266,0.06860462,0.053805053,-0.4303514,-0.39903858,0.01884302,0.07063988,0.21413761,0.014867993,0.24333067,0.3529066,0.33335894,0.21576414,0.59360397,-0.50792843,-0.34088156,0.12101762,0.14527893,-0.052270122,0.027199464,-0.031659223,0.22110438,0.24509037,0.21293293,0.2894592,-0.1968148,-0.24902457,-0.040814713,0.1692904,0.0954805,0.044076107,0.14264771,0.31395528,0.26766852,-0.019009233,0.049189802,-0.079995506,-0.321441,-0.07286751,0.08652014,0.12853032,0.3005164,0.23881207,0.28399867,0.22871864,-0.0493249,0.18664184,-0.024835238,-0.20586766,0.0057653035,-0.096066326,0.052821293,-0.12712792,0.214342,0.07806517,-0.113305755,0.017951014,0.09556852,-0.24748728,-0.36019304,-0.25233972,-0.16119906,0.3762441,-0.1718924,-0.028262025,0.27984005,0.0058051827,-0.10306156,-0.10346062,0.031820055,-0.18811749,-0.18299103,-0.266335,-0.13627188,0.12196857,0.4142598,-0.08139557,-0.008615231,0.046774775,-0.004942927,-0.32176825,0.38232678,0.23932423,-0.1927965,-0.49930897,-1.2304298,-0.47637212,0.12911253,-0.16316289,0.40532246,-0.38807678,0.39316913,-0.4543456,0.10892427,-0.12870094,0.15149955,-0.5865597,-0.30825484,-0.324731,-0.5657764,0.13334784,0.3903337,0.3820432,-0.03092629,-0.22704071,-0.5986896,-0.49561268,-0.945491,-0.81407636,-0.09304783,0.11370715,0.15144458,-1.6475847,0.48974648,-0.40481776,-0.44179597,-0.6595774,-0.22657305,-0.88396597,-0.6163361,-0.38355076,-0.15759113,0.18752095,-0.041915357,0.09801973,-0.18839777,-0.22418809,-0.3640389,-0.51389325,-0.6666577,-0.23923028,-0.7489082,-0.27231953,0.023446452,-0.571903,-0.79241127,-0.2651824,-0.30757532,-0.6856857,-0.5169133,-0.6822339,-0.6512934,-0.5113295,-0.32507604,-0.32244915,-0.48473185,-0.2960786,-0.41154554,-0.24716629,-0.4335122,-0.15389659,-0.33778176,-0.39932925,-0.46481368,-0.44945267,-0.41622368,0.0075655077,-0.58812106,-0.39115083,-0.19218996,-0.34089598,-0.3779987,-0.35688168,-0.39810878,-0.44318533,-0.3091398,-0.61704636,-0.75196224,0.5310363,0.12616259,-0.53439564,-0.33586895,-0.17846628,-0.59627783,-0.26936346,-0.13503668,-0.4199933,-1.76073,-1.0532473,0.37966698,-0.5105638,0.14970243,0.12778676,0.0028159316,-0.3206919,-0.16295987,-0.13509528,-0.7142979,-0.8512211,0.43465415,-0.37829044,0.34163684,-1.2316018,0.3722466,0.48837948,0.23091434,0.28517985,0.2560307,0.28226432,0.41124314,-0.3418508,1.3552822,0.0070799585,-0.07027095,-0.72360647,-0.4331027,-0.41803038,-0.53184474,-0.5125857,-0.60160613,-0.82349735,-0.45170715,-0.011823441,0.12612714,0.10028895,-0.0071161697,-0.031625304,-0.26863545,-0.038469482,-0.1230876,-0.35731518,-0.31470177,0.10640666,0.27019992,-0.11113364,-0.06468648,-0.017403912,0.07256303,-0.033351574,-0.07274893,-0.28464875,-0.24062149,-0.25114128,0.12407722,0.21193552,-0.28470832,-0.08482385,-0.10144835,-0.052301012,-0.34322244,-0.04607167,-0.12349569,-0.31159195,-0.081482746,0.14736813,-0.0026292591,0.040994667,0.07682701,0.038443398,-0.09663911,-0.16690765,-0.08660451,-0.08906326,-0.32697293,-0.0392096,0.17082843,0.48725414,-0.3285162,0.13419254,-0.024378521,0.09489371,0.08970133,0.01792744,-0.18492693,-0.16136341,-0.18233097,0.13140514,0.27848744,-0.15962815,0.021490017,-0.10076223,-0.19293727,-0.13990076,0.06490999,-0.097668506,-0.07563842,-0.26749894,0.16743617,-0.094836175,-0.24750194,0.035818476,-0.15986034,-0.12079374,-0.024777915,-0.03402406,-0.07053312,-0.2398655,-0.21146502,0.011832963,-0.009484139,-0.34596726,-0.018454762,-0.1095204,-0.16342682,-0.38152745,-0.16593032,-0.19085549,-0.23693433,-0.14551432,0.084516235,-0.036928568,-0.12286168,0.18662037,0.22732861,0.027349979,-0.03329463,0.20162858,-0.024770763,0.051341068,-0.45976615,0.008441826,-0.2441595,0.051817544,0.6190691,0.29222506,0.32501158,-0.100785136,-0.24361977,0.2407565,-0.0804841,-0.025346957,0.17669325,-0.05093793,0.0459893,-0.21059678,-0.28228313,-0.33481577,-0.16991438,-0.15175946,-0.30106074,-0.564131,-0.5437546,-0.67953664,0.029195698,-0.3244902,-0.13872895,-0.14384712,-0.32398048,-0.32701942,-0.20459032,-0.25182247,-0.37063986,-0.70436543,-0.5367597,-0.4364313,-0.056331985,-0.15693949,-0.31040943,-0.5001067,-0.3677186,-0.34652087,-0.2535967,-0.33398584,-0.5190533,-0.4927466,-0.6001082,0.05044961,-0.05514988,-0.40287304,-0.48513195,-0.282983,-0.43127167,-0.42120203,-0.18109345,-0.6626445,-0.22849122,-0.39936057,-0.005702085,-0.07423033,-0.22819297,-0.18665247,-0.4250604,-0.47027788,-0.44961262,-0.52306104,-0.46614122,-0.73497754,-0.8487398,-0.06306379,0.004410052,-0.21706249,-0.12281161,-0.03876384,0.007182761,-0.06712524,-0.44528866,-0.48903242,-0.3305788,-0.554661,-0.1504714,-0.17378789,-0.40745252,-0.3679996,-0.21245916,-0.30260363,-0.19121014,-0.44358668,-0.33070314,-0.31073734,-0.47943458,-0.09785837,-0.10971565,-0.47475916,-0.3343696,-0.32112128,-0.5416197,-0.59597796,-0.43986464,-0.56249744,-0.46109354,-0.77643627,-0.4034513,-0.36043498,-0.40001738,-0.3953602,-0.31790912,-0.48188534,-0.22394443,-0.496768,-0.41527846,-0.4374172,-0.73796797,-0.29396537,-0.1673624,-0.31260484,-0.3047364,-0.6021533,-0.3732519,-0.2736796,-0.5415376,-0.68127406,-0.5298483,-0.75379086,-0.037072122,-0.16762596,-0.20463502,-0.22894868,-0.23967542,-0.42174572,-0.5105314,-0.4078008,-0.35401595,-0.6434235,0.03451813,0.09681979,-0.26640916,-1.043741,0.001455636,0.49286354,0.72484326,0.76208913,-0.12040848,-0.4848852,-0.18224993,0.10860594,-0.27120468,-0.8749528,-0.4462497,-0.56539387,-0.629343,-0.17582618,-0.37955183,-0.50786066,-0.5667268,-1.3466692,-0.2174851,-0.6167936,-0.5868968,-0.4217656,-0.41208985,-0.20805633,-0.072963715,-0.11781167,-0.4696386,-0.54958695,-1.1766546,-1.4999292,-0.16624384,-0.19253387,-0.3648048,-0.12712614,-0.29565832,0.16462862,0.24422763,-0.19506694,-0.43485734,-0.62619674,0.8351342,-0.37612656,-0.27347195,-0.49653757,-0.22657214,0.055203967,0.15130377,-0.13343434,0.22979067,-0.082758896,-0.6741919,0.17303148,-0.15454222,-0.095797636,-0.07736649,0.26585847,-0.14193374,0.2076261,0.0747559,0.12323901,0.15972675,-0.6137448,-0.49729374,-0.30753025,-0.13285035,-0.009148282,-0.08825271,-0.1972575,0.052922297,0.024120955,0.065414384,0.23754282,-0.6653396,0.59512997,-0.6632307,-0.3521899,-0.24358997,-0.18738574,-0.13291651,0.006976965,0.15798062,0.08356921,-0.20431276,-0.5281703,0.11934068,-1.4550017,-0.5744312,-0.26947683,-0.309778,0.05961577,0.12838179,-0.22963059,0.11873371,-0.4081576,-0.88049436,-0.5353746,-0.324427,0.87668973,-0.6915331,-0.78695387,-0.5763064,-0.009233844,-0.5349255,-0.18418457,-0.66185033,-1.5589108,-0.31480664,0.12050659,-0.27583858,-0.23657167,-0.21927504,-0.15882467,-0.35403147,-0.43297473,0.04374294,-1.1477225,-0.24930575,0.034648594,1.5776188,0.0012799258,-0.09759739,0.25352883,0.039133366,0.24254623,0.27387667,0.3682488,0.38137308,0.36045265,0.05833654,-0.005440089,-0.20344082,-0.0108934585,0.032055505,-0.30933368,-0.0067972806,-0.13238388,-0.022068223,0.043462966,0.12584071,0.2761269,-0.1843989,-0.21509716,-0.17909132,-0.18153891,-0.117314,-0.08047455,-0.057393163,-0.1021894,0.007873774,0.14539878,0.03958413,-0.11431225,-0.32954377,-0.32970706,-0.24518238,-0.23035634,-0.20729719,-0.1192947,-0.110549584,0.028310452,-0.09574981,-0.039986446,-0.03574826,-0.17301144,-0.27141103,-0.117320135,-0.24234037,-0.2095677,-0.041042916,-0.11051854,-0.020661604,-0.093982026,-0.011571674,-0.18299943,-0.2632675,-0.26546344,-0.0542286,-0.15609631,-0.24866821,-0.028311256,-0.021130605,-0.02147311,-0.078893,0.020794937,-0.01808605,-0.15226279,-0.15492721,-0.08103897,-0.17863978,-0.15602985,-0.16425416,-0.15667032,-0.08482223,0.004955688,0.00018696126,0.20625153,-0.1946303,-0.27587894,-0.079952054,-0.17987163,-0.1528302,-0.16559403,-0.0038713359,-0.05122095,0.07162471,0.288036,0.077570304,-0.24889436,-0.37787774,-0.06426115,-0.34592906,-0.32177547,-0.24721298,-0.24154595,-0.16705158,-0.07112383,0.15074736,0.21374504,-0.44330466,-0.14968097,-0.19640838,-0.20843855,-0.29475927,-0.38902792,-0.17432019,-0.351099,-0.2206718,0.20717123,0.18503551,-0.05201769,-0.50990325,-0.1866143,-0.3328587,-0.251489,-0.12267979,-0.2338605,-0.2778538,-0.2537237,-0.02842448,0.0038263248,-0.020591656,-0.12797987,0.09266753,-0.19990294,-0.18649286,-0.19508025,-0.03902743,-0.08429359,-0.15828444,-0.0018906336,-0.01250852,-0.11386918,-0.24420652,-0.057488345,-0.152602,-0.012909787,-0.004310929,-0.09853559,-0.0083203595,-0.07818191,-0.24317405,-0.28600672,0.07703458,-0.18928838,-0.22355302,-0.03464126,0.026550213,-0.13314942,-0.18418184,-0.057422534,0.046576753,-0.21035148,-0.16321093,-0.11852857,-0.27258453,-0.05290317,-0.04849638,-0.12375342,0.03817827,-0.07787711,0.047696292,-0.054206,-0.20739882,-0.037917167,-0.044677105,-0.17966275,-0.031488527,0.06648611,-0.08250872,0.0620309,0.04352395,-0.018351754,0.03460565,-0.038049467,-0.021153517,-0.06730301,-0.19259357,0.02269227,0.09047076,-0.2033168,0.009664666,-0.051406432,0.0924945,0.058956027,-0.0872596,-0.10630707,-0.088833965,-0.22563012,0.017310325,0.015900405,-0.027540741,-0.01842642,-0.046126757,-0.017346181,-0.10185822,-0.1106017,-0.01121214,-0.112609506,-0.09739815,0.017714705,0.03092504,0.062219776,0.07473908,0.006025819,0.006040141,-0.117107846,-0.09780366,0.051205724,-0.07330398,-0.06333071,0.0712667,0.06581145,-0.08465734,0.011705698,0.10092026,0.00436164,-0.14075738,-0.09018084,0.064731166,-0.023258688,0.25528717,0.08311491,0.19376455,0.19946294,-0.008973571,-0.11219521,-0.1676401,-0.1727791,-0.14327507,0.05834682,-0.012466406,-0.018932411,0.32530668,0.06347888,-0.15605226,0.019172344,0.12011277,-0.0856579,-0.19138819,0.07376041,0.052206624,-0.14674725,0.44064358,-0.40007085,0.1472493,-1.1044903,-0.9093883,-1.7392385,-2.231651,-2.788393,0.48116562,-0.081782,0.50815153,1.1475452,0.14467373,-0.056280952,-0.20625554,-0.57134795,-0.80904746,-2.8824685,-3.4266694,-0.64276963,0.51314366,0.71157074,0.42421743,0.016973779,-0.06422138,-0.2118035,-0.13111126,-0.45264837,-0.33951008,-0.07966272,-2.3113759,0.24373269,0.4226789,0.01037438,0.09448744,0.0965582,-0.054850962,-0.09188785,-0.6762515,-0.07289066,-0.39791235,0.08799892,0.037104324,0.56794125,0.31450704,0.29582018,-0.08205135,-0.17614806,-0.188648,-0.51365656,-0.49237448,-0.10606304,-0.037047908,0.4026377,0.45202944,0.22046673,0.07490468,-0.20440236,-0.2267901,-0.39659935,-0.38509402,-0.12478679,-0.29847664,-0.10682882,-0.045239717,0.44671595,0.24424712,-0.15273733,0.070438474,-0.2643573,0.09792294,-0.45082834,-0.06729928,-0.25387713,-0.10464034,0.17336446,0.6475538,0.57689345,0.18197377,0.20627046,-0.10867102,-0.25128773,-0.29973105,-0.22391702,-0.12321221,-2.3372514,-4.144142,1.5900289,1.0879807,0.79841304,0.44726112,0.41303295,0.113331616,-0.09913977,0.007311283,0.029528862,-2.698714,-2.6494586,0.47279245,1.00984,-1.767471,0.89417315,0.7877926,0.61101866,0.77672875,0.18118113,-0.24683417,-0.2560639,0.44314638,-0.10370906,0.45439258,1.4095473,0.27339464,0.2693411,0.63171107,0.59132886,1.1310396,0.7049726,0.4635616,-0.10178354,1.6938559,-0.01718479,-0.5312207,-0.09188326,-0.09638779,0.00506014,0.22997727,0.2590258,0.31706792,0.05275399,-0.10247128,0.046190746,-0.30298665,-0.14608341,-0.21855694,-0.24240363,0.07344358,-0.09226422,-0.12056736,-0.13318905,-0.047912937,-0.187713,-0.32381535,0.008721859,-0.022220364,-0.22776856,0.03352992,-0.1849149,-0.3204454,-0.18325356,-0.283321,-0.11400259,-0.10580749,-0.23034066,0.009900725,-0.0872638,-0.2160449,-0.1999686,-0.17161573,-0.09635312,-0.14515144,0.040095977,-0.16681516,-0.089222975,0.09879402,0.0717735,-0.11270305,-0.088087395,-0.33605906,-0.1649278,-0.10098423,-0.15378264,0.033193637,-0.035351884,-0.1421773,0.1109079,0.23804237,0.024911437,-0.093075424,0.00376446,-0.11750359,-0.052264966,0.034722235,0.062081285,0.07632371,0.015266921,0.01973047,0.15264145,-0.13287641,-0.18658432,-0.022324396,-0.052695572,-0.13375667,-0.18640468,-0.024309741,-0.014789463,-0.095719144,0.0613363,0.085683785,-0.06472368,0.0458506,0.0004727276,-0.110180125,-0.123711005,0.06475772,0.072157525,-0.06497322,-0.106547944,-0.018113688,-0.096173435,-0.269526,-0.3237405,0.009346231,-0.002497758,0.011082302,0.021285899,-0.069530055,-0.1766899,-0.09013069,-0.09002544,-0.63343036,-0.07413543,-0.039688557,0.012430893,0.009174072,-0.18387263,-0.013650085,-0.036455043,-0.14165524,0.12358542,-0.11787371,0.04545025,-0.3013999,0.14848928,0.08972889,0.16640891,0.37294897,0.13474083,0.1992928,0.10259048,-0.014933445,0.040633246,0.03695468,-0.44078186,-0.07002411,-0.37989986,-0.53680974,-0.37766954,-0.5602226,-0.056348167,-0.21312639,-0.17276977,0.040821988,-0.48912588,0.055100825,-0.335103,-0.34910747,-0.17970312,-0.2906945,-0.28336632,-0.12126056,-0.34546566,-0.6362642,-0.52869153,-0.15320896,-0.36122248,-0.656751,-0.372766,-0.2586878,-0.3291599,-0.48094758,-0.3146456,-0.6079866,-0.5353331,-0.28173894,-0.35877526,-0.6751758,-0.3917438,-0.31624824,-0.5846713,-0.2295589,-0.40615323,-0.15221037,-0.2902487,-0.23281112,-0.26071092,-0.23975205,-0.5218628,-0.27265745,-0.32168415,-0.2381333,-0.14558354,-0.20425102,-0.3569906,-0.20637462,-0.15197335,-0.0793941,-0.27241573,-0.4310773,-0.27152264,-0.15269795,-0.06735503,-0.05041348,-0.05769674,-0.31968045,-0.34807965,-0.18462236,-0.063455775,-0.34718883,-0.4188081,-0.40842953,-0.23645814,-0.14170852,-0.29258025,-0.31359255,-0.26173663,-0.34534657,-0.34677958,-0.12613574,-0.38561043,-0.24955009,-0.40836,-0.32736585,-0.19888514,-0.22796293,-0.20021947,-0.16289862,-0.25742668,-0.45117265,-0.109083176,-0.27897406,-0.3935078,-0.5916327,-0.3100048,-0.39159366,-0.38947764,-0.20809186,-0.16150236,-0.4164335,-0.1928217,-0.2516804,-0.3693931,-0.35146064,-0.45252457,-0.54271084,-0.04995889,-0.34308916,-0.5042886,-0.21457557,-0.43207854,-0.20891438,-0.16177052,-0.03847912,-0.29232395,-0.17932053,-0.28809378,-0.36686248,-0.39187312,-0.09477697,-0.25506216,-0.23067886,-0.29877713,-0.049273964,0.3177934,-0.4860781,-2.5145369,-0.084556386,-0.0383782,0.33440757,0.36218292,0.31222308,0.45684892,-0.6123489,0.28736997,-0.5546798,-1.7888203,-0.5743715,0.07302244,0.17173465,-0.16900514,0.038143612,0.09076779,-0.3111818,-2.3860025,-0.5967995,-2.4384222,-1.9042896,-0.045986574,-0.34588802,-0.22052294,-0.3563062,-0.23467521,-0.079116836,-0.66889036,-2.519201,0.46412405,-0.47129482,-0.22590241,-0.21181537,-0.24424113,-0.3109612,-0.4386489,-0.2092909,-0.062579274,-0.09772554,0.11502749,0.41064146,-0.09454824,-0.032090075,0.092109054,-0.3434195,-0.16211432,-0.4692804,-0.34726512,-0.4725451,-0.21227361,0.5427166,-0.1896058,0.14052153,0.14166439,-0.03799654,-0.1892965,-0.2658985,-0.28092837,-0.2864812,-0.21358863,-0.044959117,0.19681653,0.24775524,0.108988956,0.41884762,-0.098142385,0.04795103,-0.3035346,-0.09327371,-0.27743033,-0.3655214,-0.3347265,0.34582236,0.07380122,-0.27539653,0.3168399,0.010232938,-0.069597386,-0.36278626,-0.45528322,-0.2450162,-0.23939992,-0.2945784,0.1458746,-0.52081853,-2.0698142,-2.378833,-0.16256003,-0.15137133,-0.16470611,-0.32537284,-0.3799684,-0.24907982,-0.03126743,0.6424421,-1.2018603,-0.7070509,1.1421821,-1.6311616,0.18470365,0.16863793,-0.3981154,-0.2684588,-0.38801816,0.2402973,1.1527184,-0.55223465,0.47174332,-0.57130444,0.3173659,-0.39315227,-0.19372314,0.03331078,-0.46284333,-0.19224463,0.24519299,-0.5580994,0.2575247,1.9585252,-0.023487665,0.50433594,0.06408936,-0.108740635,0.038518474,-0.087977566,-0.045640606,-0.13359448,-0.23342492,0.06301369,0.015919872,0.13530324,0.44944248,0.37350968,-0.15456188,-0.047248572,-0.10693391,-0.008037233,-0.24781209,-0.09944131,0.29080555,0.20184752,0.019946354,0.2892249,0.1546694,0.11237434,0.021488043,-0.04459227,-0.14404498,-0.28522146,-0.26345786,0.059156537,0.04772833,-0.10185302,-0.042273566,-0.12648013,-0.06672423,-0.28496587,0.10253125,-0.09010026,-0.22591814,-0.2101087,0.007913566,0.15105544,0.11086378,0.022864424,0.11057723,-0.108208954,-0.052423943,0.024103623,-0.062312294,-0.25844216,-0.05275972,0.04394734,0.16658567,-0.09010956,-0.019769952,0.08755692,0.19376111,-0.12838753,-0.0014627625,-0.15490268,0.028805565,-0.058832698,0.017425898,0.19085346,0.12830509,0.18423156,0.01981629,-0.06376333,-0.13926582,-0.0805531,-0.24403454,-0.06788315,-0.23275775,0.06929156,0.1810507,0.14771764,0.13366057,0.1875295,0.022535656,-0.046403702,0.039034944,0.12817863,-0.13533959,-0.08319696,0.1114193,0.27155858,0.13192612,0.20847502,0.10162856,0.088908374,-0.14982153,-0.04203481,0.071906686,-0.2478349,-0.11199313,0.097086065,0.054405984,0.3572021,0.48968676,0.1938098,0.13429222,0.008775007,-0.03540937,0.037636716,0.2186044,-0.03132008,0.3029971,0.2688403,0.035982408,0.24961223,0.13659286,-0.11116076,-0.17066225,-0.045551445,0.06976643,-0.013484469,-0.10189849,0.27345005,-0.030051153,-0.050316826,-0.1851318,0.10489093,-0.16874136,-0.051683567,-0.033669576,-0.024510408,-0.10229993,-0.0262182,-0.26014692,-0.03922134,-0.32817867,0.08020825,-0.10605737,-0.26006114,-0.2607581,-0.081158504,-0.29871228,-0.1405434,-0.18167192,-0.19355427,-0.32987794,0.03073896,-0.3047707,-0.32090035,-0.17390648,-0.13025235,-0.1287867,-0.3242841,-0.21946664,-0.16394292,-0.24334866,-0.25131094,-0.08093575,-0.37183633,-0.22775434,-0.1230878,-0.34827462,-0.013725368,-0.19683915,0.13686132,-0.16114642,-0.13419893,-0.2539398,-0.12697127,-0.33161005,-0.15365013,-0.15451206,-0.20047316,-0.04595248,-0.045875512,-0.2504096,-0.23281504,-0.18390693,-0.18938676,0.008078191,-0.20951447,-0.07014822,-0.04549456,0.059164938,-0.035198044,-0.103242055,-0.23955569,-0.17543212,-0.15837489,-0.077216044,-0.2711812,-0.49319988,-0.30469072,-0.20912357,-0.15386005,-0.27733642,-0.16182268,-0.25447217,-0.22550994,-0.15667692,-0.1675493,-0.20605583,-0.1871924,-0.30855086,-0.10857719,-0.11403111,-0.07477708,-0.18301153,-0.02113248,-0.18695277,-0.30617985,-0.085081995,-0.04274156,-0.25094277,-0.33589914,-0.11326068,-0.2137293,-0.13270943,0.014768356,-0.022536289,-0.38726985,-0.24606217,0.0061568236,-0.16472532,-0.22204585,-0.12171525,-0.2233062,-0.09128152,-0.16135108,-0.26808977,-0.27786526,-0.46115443,-0.16687052,-0.28403237,0.0059910985,-0.50117165,0.074820764,0.01196735,-0.26120558,-0.0773724,0.07743691,0.0027122935,-0.15594234,-0.112312265,-0.036287326,0.5103097,0.61331165,-0.6797871,0.1427003,0.5506772,0.6162456,0.6900914,0.85569376,0.40814462,0.6827531,0.5636222,0.70614225,-1.0668586,-0.011766845,0.39920923,0.52964926,0.6433346,0.42704564,0.26186618,0.15182671,0.5198021,0.63634455,-0.5090213,-0.4816558,0.23324546,0.61324847,1.0417492,1.0789843,0.86937416,0.622757,0.54043245,-0.2238124,-0.082884006,0.100531906,0.3177993,0.62209326,0.6443555,0.5501818,0.71474993,0.58889693,0.6874402,0.73054045,0.5848366,-0.2176229,0.2733153,-0.17167398,0.5696698,0.68731594,0.84805286,0.85714084,0.7145542,0.74855244,0.8989093,0.6406174,-0.32335702,0.8054445,0.16230147,0.65843475,0.81576496,0.60455847,1.0070444,0.8079123,0.77079946,0.9763873,0.39631894,-0.5963429,0.80020005,0.80897766,0.7158607,0.5559783,0.52547616,1.0214194,0.86654514,1.1308774,1.0403982,0.54969615,-0.5948642,0.8630731,0.6363983,0.7167894,0.5440689,0.58925915,0.7344439,0.67866915,0.9957911,0.8113588,0.4013789,0.0018169753,1.0914342,-0.57536024,0.86424,0.35361302,0.9826466,0.9687371,0.6748138,1.0854933,0.70609075,0.11849829,0.09011838,0.7493172,0.05387959,-0.66099393,0.41557333,0.7895414,0.82034904,0.8611912,0.62566084,-0.3804093,-0.3445227,0.60955554,0.52135736,0.64757395,-0.018791713,0.22160795,0.49276507,0.13505197,0.06625387,0.103291936,0.14345838,0.6661773,0.52561444,-1.4769558,0.014654099,-0.31719857,-0.1777888,-0.013691708,0.15299626,0.089999035,0.14717467,0.2245834,0.1973059,0.60797554,-0.051589876,-0.11657768,-0.096121386,-0.28998122,-0.08504205,-0.017815731,0.012516208,0.080113865,0.022966918,0.21443382,0.07656017,0.04515543,-0.22693753,-0.02582266,-0.23208755,0.0011990926,0.16491036,0.13909265,0.14274882,0.09792919,0.0024565402,0.12944059,0.41969743,-0.27486655,-0.039027657,-0.3276938,-0.04563569,-0.11126687,0.13511173,0.047687154,0.04362275,-0.13857615,0.034986097,0.20386256,-0.15211412,-0.031393763,-0.44859388,0.07327874,-0.061820656,0.16717292,0.03489894,0.08337107,-0.07822426,0.08653662,0.24735448,-0.22345947,0.13211806,-0.34423685,-0.035172783,-0.04068638,0.048756815,0.03489313,-0.07052574,-0.03978709,0.15589641,0.29350525,-0.05095923,0.22847767,-0.3282268,-0.063849226,-0.049946263,0.07467327,-0.06276735,-0.005715956,-0.04624611,0.10897188,0.22883488,-0.021926425,0.2916466,-0.32990363,0.097225554,0.077528104,0.033489704,0.025318814,0.019020846,-0.031071186,0.08293537,0.21866304,-0.08627883,0.1423411,-0.5013621,-0.15457341,-0.24384916,-0.19889675,-0.09867246,-0.11466316,-0.3713426,0.0016983065,0.09178185,-0.1493755,0.03982812,-0.46577027,-0.33452004,-0.26064947,-0.06825742,-0.30246663,-0.26361075,-0.19988504,-0.14568174,-0.470713,-0.011742645,0.23185812,-0.50524825,-0.075790696,-0.047969114,0.01827775,0.047715317,0.04038515,0.020984417,0.14645992,0.042503543,0.028128212,0.0045580496,-0.024371028,-0.084101155,0.16982515,-0.15465304,-0.29491955,-0.13715893,-0.06348687,-0.13885322,-0.042805962,-0.2425629,0.023983333,0.0392181,-0.07813006,-0.17321177,-0.08976618,-0.20681715,-0.15301263,-0.059609804,-0.19135527,0.17567345,-0.15918805,-0.118179694,-0.0024786345,0.15520608,-0.16693239,-0.224481,-0.04740996,-0.06808375,-0.20045719,-0.22920294,-0.13088351,-0.11928029,0.02886103,-0.062224627,0.09114215,0.05523755,-0.039064135,0.00837102,-0.10817961,-0.34649915,-0.43097913,-0.15234953,-0.08896004,0.16007243,-0.010388478,0.15255329,-0.025837367,0.095792904,0.124248564,-0.007998886,-0.11933819,-0.19918807,-0.4977182,0.063294254,0.124623135,0.06376243,0.06006876,-0.13928604,0.016425876,-0.012007049,0.10339662,-0.20928217,-0.15517843,-0.31088683,-0.07924045,-0.0077456324,0.01735974,-0.02329337,-0.11920988,0.15138575,-0.025735218,-0.034204412,-0.26155174,-0.17884578,-0.28410584,-0.07848695,-0.05508069,-0.047862098,0.09014261,0.045524217,0.08299043,0.014541427,-0.02947227,-0.21509847,-0.089760855,-0.24392594,0.27556935,0.16569382,0.02120597,0.045705713,-0.017823096,0.30316836,0.16276014,-0.0013269956,-0.2926733,-0.088724196,-0.03519006,0.1348264,0.194883,0.035237677,0.113957435,0.17584072,-0.13198856,0.061197855,0.008691864,0.16044684,-0.16057801,0.1349381,-0.032791648,0.023423517,0.15003651,0.058034863,0.16708909,-0.13985428,0.199222,0.19173715,0.04448779,0.22440532,0.028581005,0.3526132,0.6748425,1.6262459,-0.23020951,-0.53675395,-0.6859879,-0.61355156,-1.3648974,-1.9121137,0.77033365,0.4338585,0.71056575,1.0047419,0.94926435,0.26778787,0.22706655,-0.06610899,-0.20595084,-0.39552373,0.45797357,2.2219334,0.78620267,1.3711355,1.1388745,0.7932126,0.31557775,0.4664516,0.09197092,-0.2092361,0.16971864,0.26043925,1.4995624,-0.3715837,1.0632639,0.8337149,0.78085434,0.702558,0.21785446,-0.12265161,0.04604877,0.43812817,0.4332978,0.478641,-0.893447,1.5160216,1.0027276,1.3273271,0.4100865,0.37546465,-0.016604582,0.6157751,0.3519322,0.30165482,1.0267357,-0.31330258,0.73306245,0.5285054,0.81086856,0.38720798,0.5028935,0.15685062,0.334335,0.3544565,0.6534823,0.5929955,-0.8738665,0.59051764,0.6908876,0.9719455,0.78183734,0.45375177,0.6349646,0.48358744,0.70130736,0.71368283,0.7281664,-0.8613009,-0.3042577,0.5580003,0.72663057,0.40293908,0.5982805,0.54442066,0.6681261,0.58765763,0.77006,0.4573186,0.12272258,0.9965137,0.7086521,1.5365564,0.45498627,0.3779264,0.3798314,0.95124525,0.6736607,0.64624596,0.7303718,1.1525502,0.6844773,0.67133534,1.4176002,0.80097693,0.89578414,0.46898982,0.3384101,0.111457966,0.4345423,-0.32466024,0.77663404,0.42613924,0.7206681,1.2082267,1.275753,1.3021524,0.8257209,0.8841027,-0.2503492,-0.28859928,0.78451973,0.38115197,-2.3953285,0.04415556,0.17317747,0.12782761,-0.10826743,-0.04622205,-0.0008666131,-0.1336541,0.04680864,-0.08545268,-0.14174752,-0.024843125,-0.0944279,0.28164905,0.10870002,0.052530855,0.017269488,-0.070597835,-0.0937287,-0.066492476,-0.09453949,-0.25926328,-0.45966136,0.14916341,0.15132251,0.12005661,-0.14894246,0.043248653,-0.04247919,-0.11376523,-0.03882691,-0.11680248,-0.26221028,-0.35915652,-0.29128695,0.11653607,-0.14489679,-0.16137876,-0.05127352,-0.041366097,-0.11091725,-0.052126173,-0.1411745,-0.21733412,-0.5283999,-0.33079472,-0.028985266,-0.18366316,-0.28374454,-0.08164036,-0.02366387,-0.17313848,-0.12204341,-0.16944976,-0.14614439,-0.59345347,-0.32653564,-0.049883366,-0.27556896,-0.38914755,-0.12611294,-0.043449737,-0.051124908,-0.24657787,-0.19496827,-0.23644672,-0.5197941,-0.28255633,-0.022012088,-0.19455191,-0.25438854,-0.09611654,-0.10160363,-0.06654395,-0.14662263,-0.030194994,-0.11503451,-0.61485964,-0.17586973,0.045799665,-0.29443878,-0.35899192,-0.18740276,-0.14410259,-0.26017532,-0.13457419,-0.080748305,-0.052075114,-0.4086867,0.00645568,0.24908091,-0.18042621,-0.27007413,-0.06992331,-0.039873008,-0.03301324,0.025056196,0.10537394,0.03697238,-0.32724282,-0.19936505,0.017521689,-0.30377796,-0.4246592,-0.20180656,-0.16066594,-0.09716165,-0.14816749,-0.041989103,0.009300731,-0.065621436,0.035734862,-0.31220785,-0.26711205,-0.32910517,-0.21003643,-0.12569298,-0.12787524,-0.18273018,-0.030722147,-0.14436932,-0.028099464,-0.03551634,0.037408132,0.028615873,0.055827208,0.08714152,0.12468545,0.005196558,0.1055996,0.024646202,0.107030585,-0.009025275,0.16265163,0.049880844,0.1156413,0.17976312,0.10464324,0.15486935,0.10075808,0.16838618,0.18552092,0.23630701,0.41406545,0.15406449,-0.08417644,0.15228121,-0.0386175,0.09292729,0.0029870323,0.16857758,0.09836203,0.04418703,0.2658872,0.4175102,0.12859999,0.16303988,0.27835524,0.13991086,0.13237235,0.15086275,0.17052017,0.15850309,0.10064668,0.0508263,0.1621016,0.10965281,0.2616687,0.14192204,0.31780866,0.17862152,0.13907921,0.16723791,0.104142874,0.27022174,0.28547096,0.23603915,0.20185909,0.16887939,0.22094218,0.14438583,-0.028137775,-0.0056112604,0.014777217,0.26883203,0.120156474,0.15942596,0.34443673,0.11809551,0.27802837,0.2426104,0.1744482,0.25303605,0.046996508,0.09391057,0.23820236,0.19328673,0.17458835,0.1488285,0.27781513,0.24440308,0.3696934,0.18723941,0.2632369,0.17188838,0.19448541,0.14373809,0.13814376,0.22091465,-0.012105608,0.32609904,0.3036996,0.02263343,0.2508096,0.2587128,0.15419649,0.03009254,0.01933788,0.17227499,-0.18454558,-0.021242494,0.2717796,0.30712983,0.18917152,0.23971145,0.21101153,0.15159534,0.19622405,0.014213946,0.08625815,-0.03277099,0.092277855,0.039083693,0.14643936,0.15899158,0.18745652,0.23485224,0.2825842,0.16872165,0.076599896,-0.13375211,-0.136475,0.023844426,-0.17606749,1.1839099,-3.538254,-0.87254244,-0.5846354,-0.29064772,-1.0498174,-0.62037504,-0.7738081,1.1928455,-0.1774676,1.2143493,-2.0364044,-1.912446,-0.76340616,-0.5827041,-0.81532615,-0.4194015,-0.2796028,0.8567061,0.34785867,1.1511528,-0.72366655,-1.8723779,-0.5193877,-0.315265,-0.28895217,-0.50349087,-0.07300153,-0.17363824,0.34584287,0.45359218,1.179592,-0.7524103,-0.71647006,-0.20100832,-0.12599762,-0.084605426,-0.16769071,-0.03121843,0.13018021,0.30907816,0.023827836,1.1407415,0.1912015,0.0142783215,0.30743727,-0.15951078,-0.12900516,-0.31387857,-0.28918537,-0.09191824,-0.07900519,0.34665203,0.85315233,0.46433663,-0.16056554,0.06773266,-0.14623517,0.068029515,-0.14611416,0.022748817,-0.03925855,-0.03257788,-0.19543582,1.3465867,-0.10663151,-0.1769224,-0.04974891,0.17441095,-0.21931282,-0.28958765,-0.118837625,-0.09370732,0.06409084,-0.0030572624,0.53506035,-0.015894545,0.18100333,0.38449377,0.20831485,0.34283093,-0.04821639,0.049560342,-0.13639009,0.08959102,0.24305916,0.75875795,-0.6712511,0.05967977,0.56249285,0.2704861,0.16487888,0.0690186,-0.024465522,-0.048124924,-0.073003806,-0.9559001,-0.017229578,1.3011146,-0.47696546,1.3110327,0.5910402,0.24598287,0.08759036,-0.30548507,-0.3252217,-0.41419694,0.6150425,1.1250368,-0.14425084,1.2662414,1.5968143,0.6494601,0.015684271,0.39982828,0.120922714,-0.100798994,-0.47795123,1.115353,-0.1657573,1.9165545,0.007798084,-0.44088995,0.2293031,0.0055311215,0.21197504,0.13672315,0.32261446,0.24026331,0.24039327,0.28125837,0.0464802,-0.056844827,0.25491577,-0.04111855,0.11564433,0.18365113,0.1783739,0.13682298,0.058200452,0.33544722,0.18111333,0.55034065,0.12421171,0.24615097,0.044438407,0.25761387,0.20721148,0.19753394,0.06293158,0.16910444,0.018068207,0.06159678,0.023760248,0.21746927,0.14449555,0.20884494,0.14481686,0.06449039,0.15974757,0.17852446,-0.02590259,-0.01025163,-0.12818617,0.11714213,0.12484919,0.21722253,0.16863501,0.01665818,-0.049996573,0.16945265,0.0632495,-0.16802981,-0.1374652,-0.03233333,0.1178821,0.046075635,-0.09346883,-0.059247896,0.019498214,-0.1533448,0.004243059,-0.24817024,0.010636521,-0.08745117,-0.18912895,0.13328062,0.04915099,-0.0612571,-0.22487128,-0.26045707,-0.13179481,-0.076004975,-0.11774528,-0.07339042,-0.16263874,-0.13122456,-0.07540591,0.16308028,-0.015775412,-0.12698089,-0.030086288,-0.011277252,0.0860482,0.06433568,0.020343129,-0.009799603,-0.15616499,-0.05596603,0.06349737,0.0694471,0.1295231,0.057804983,0.010462681,0.2081668,0.012469614,-0.08533074,0.06524613,0.1096196,-0.12810253,0.18644482,0.14694835,0.24397385,0.4443788,0.26964682,0.095858686,0.09604112,0.21243593,0.20445704,0.23211017,-0.20983548,-0.046676878,0.03305998,0.16790967,0.18067893,0.13230176,0.3021723,0.24304813,0.18959096,0.13528746,0.20375107,0.0068726162,-0.014908828,-0.17950502,-0.18402494,0.11702453,0.18175742,0.07637918,-0.012865415,0.35327375,0.19720778,0.11457981,-0.006920103,-0.26803488,-0.39280125,-0.00019413407,-0.022289615,-0.067263246,-0.045899734,-0.08352462,0.00029274635,0.28016895,0.034003656,-0.00800035,-0.22407214,0.012341304,0.26568723,0.14902763,-0.040751386,-0.02803758,0.043889105,0.018667677,-0.27507263,-0.119075336,-0.014383113,0.034373295,0.24412851,-0.0015850058,0.14760661,0.07032705,-0.033884026,-0.11877673,0.039351303,-0.14657933,-0.13961244,-0.07118727,0.08439439,0.048984837,-0.103940435,0.06161974,0.034575425,-0.019555163,-0.062481977,0.029563708,-0.19505826,-0.06515655,0.08175318,-0.12517497,-0.12552068,-0.027206585,-0.19675706,-0.16068996,0.015192274,-0.16605909,0.02767592,0.02476019,-0.060334474,0.17537577,-0.21275568,-0.3073799,0.07904625,-0.11643226,-0.15818037,0.026180964,-0.08646864,-0.1414669,0.026866795,0.024133975,0.085112505,-0.25552368,-0.27464724,-0.18840042,-0.2030017,0.04480967,-0.08072128,0.110172905,-0.07753196,-0.073854476,-0.061857406,-0.19419277,0.13579454,-0.0055664694,0.019801417,-0.067744516,-0.034044776,0.039105162,0.014787742,-0.10736494,-0.37225637,0.015521084,-0.14677025,-0.12993938,-0.10905188,-0.023096457,-0.03792338,0.042603984,-0.16969638,-0.11910519,-0.2530844,-0.24126734,-0.2899665,0.0036291794,-0.03627157,-0.060332227,0.22960891,-0.16351074,-0.21053846,-0.14808129,0.052427653,0.07326626,0.068995945,-0.12978348,0.016700998,0.4706004,0.039459962,-0.19941801,0.46425006,0.13547967,0.7735106,0.2516877,-0.10284031,0.9004525,-0.027965944,0.52740073,-0.01115842,-0.28828537,-0.20057091,0.19296125,0.19596028,0.36139697,0.25085118,0.3618647,0.9361992,1.2886208,-0.011329942,1.0874586,0.7715547,0.2420703,0.5735469,0.28064248,0.43190974,0.5882212,0.40790135,0.62004924,-0.32423607,1.2849097,1.3853856,0.92585254,0.26021823,0.3969326,0.10313681,0.73092526,0.009139436,0.20888437,0.0943105,-0.36808634,-0.5241447,1.4785131,0.12900862,0.49198616,0.58291376,0.29962462,0.40364382,0.161779,-0.19533059,0.54327285,-0.078614175,-0.32658106,-0.51142263,0.10209482,0.5670272,0.3859037,0.5728115,0.53604263,0.5649346,0.3758618,0.7287559,0.14710538,-0.24415644,-0.758334,-0.2919522,-0.123933196,0.33811328,0.25828537,0.43041405,0.3308524,0.10651572,0.4476143,0.25634396,-0.16599187,-0.7114698,-0.6379714,-0.2589129,0.005496686,0.6004599,0.29230464,0.3539826,0.12249237,0.53618115,0.0954293,-0.15895467,1.2010437,-0.68558806,-0.2947754,0.018058911,0.13207325,0.13486657,0.026931431,0.32717746,0.11288116,-0.5425705,-0.10428821,0.02271115,0.6388334,0.6919217,1.0747316,0.6203948,0.9893341,0.274107,0.23403406,0.16345927,-0.7250148,0.01868365,0.5079009,-0.07924626,0.96897304,1.1125921,0.66602325,0.76489395,0.84120136,0.99436873,1.1610974,0.054719422,0.40932703,-1.9986689,-0.030550584,-0.4100622,0.099351265,-0.076564535,-0.20710771,-0.25684386,-0.22148825,-0.35674435,-0.17178707,-0.019579202,-0.049456652,0.012623349,0.15391383,0.14114459,0.17013663,0.05401738,-0.14987041,-0.14079233,-0.15821491,-0.056122858,0.24204104,0.24331142,0.0027979752,0.051863767,0.013288473,-0.006328872,-0.037289888,-0.08659583,-0.21309547,-0.19157304,-0.044914696,0.057394914,0.1758847,-0.028907321,-0.009906811,0.10978045,-0.020551354,-0.07550748,-0.054327205,-0.16891661,-0.1514774,-0.027801078,0.21094468,0.09867152,0.02403702,-0.1755675,-0.09076773,0.0042827995,-0.08614075,-0.035793032,-0.16027628,-0.14634083,-0.0075073936,0.06676524,0.19057252,-0.056482263,-0.039232858,-0.012618183,0.048506554,-0.14621651,0.051874712,-0.08360294,-0.1291484,-0.0017638269,0.1267538,0.060754534,-0.08775954,-0.11768165,-0.10700186,-0.049934022,-0.12192006,-0.13850752,-0.10231225,-0.117875494,-0.14290811,-0.0013231873,0.037621446,-0.10152379,-0.2346286,-0.124623984,-0.079190195,-0.17513894,-0.1137177,-0.08468509,-0.19795802,-0.112272225,-0.1818277,0.00776919,-0.23103243,-0.27850723,-0.23669952,-0.06289712,-0.072262764,-0.0038505243,-0.13426816,-0.11728587,-0.10427453,-0.060951322,-0.016226403,-0.28948092,-0.555598,-0.32124707,-0.2890197,-0.23943341,-0.27242818,-0.31124526,-0.27011475,-0.3353866,-0.3203322,-0.093146965,-0.0006845286,-0.36235625,-0.25003633,-0.19005473,-0.23038085,-0.2810349,-0.2259077,-0.21609204,-0.17778385,-0.28173193,0.048958484,-0.02515024,-0.14322022,-0.1211247,-0.1370084,-0.08353623,-0.00011030366,0.0032701099,-0.0067457114,-0.051237613,-0.022485346,0.008486499,-0.11822224,-0.15060124,-0.13494346,0.010967453,-0.042265102,0.048041668,0.12938367,-0.043217648,-0.139815,-0.17042172,0.14810637,-0.07560835,-0.12396497,-0.020607049,-0.15463723,-0.006963788,0.033703163,0.07219086,0.12236122,0.21420595,0.09985203,-0.09328317,-0.11494375,-0.10047023,-0.24120249,-0.058948,-0.08687856,0.029555175,0.12183636,0.024014318,0.0951433,-0.09385543,-0.016236903,-0.12301468,-0.17860608,0.026286112,-0.012817647,0.027721856,0.033640355,0.028671358,-0.017129945,0.031402506,-0.035255183,0.0868446,-0.090048015,-0.075770125,0.07077787,0.03117495,0.02377057,0.029928738,-0.052818906,-0.08074779,-0.023661764,-0.028696548,-0.09872289,-0.029911764,-0.055846818,0.028341621,-0.05646538,-0.016250525,-0.08794879,0.030492065,0.08479502,-0.034178026,-0.081816964,-0.061740465,0.018341029,-0.009862781,-0.014943525,0.03954287,0.0029528085,-0.032201465,0.006742219,0.0502511,-0.05895515,-0.12752672,-0.11379475,0.021931563,0.16562359,-0.0689551,0.0114117935,-0.04699902,-0.016740499,-0.053613946,-0.037565827,0.13351795,0.116646014,-0.010421087,0.07248946,0.025795668,0.13345473,0.043505453,0.088627845,0.06640566,0.042093147,-0.12682125,-0.1037657,0.013291826,0.16855463,0.023339149,0.16914575,0.035422157,0.043837864,0.050257344,0.15078776,0.07024492,-0.090477586,-0.0012570578,0.16257845,-0.0023753901,-0.14432739,1.3613147,-0.2759008,-0.9212323,-0.002439607,0.50574225,0.8567162,0.56925315,0.7315112,1.1083776,-0.12964192,1.2257597,-1.8294396,-1.7872225,-0.79537475,-0.13568883,-0.3828414,0.1781385,0.35013786,0.10694538,-1.5227737,1.1355662,-2.2947211,-1.8639054,-1.4113029,-0.6300152,-0.1868258,-0.33988804,-0.13546714,0.03640475,0.1246283,-2.124881,-2.8650448,-0.43815756,-0.60068125,-0.4023785,-0.5706872,-0.34877405,-0.6638611,-0.42186517,-0.21140115,-0.23597676,-1.245903,-2.396917,0.23739865,-0.20544627,-0.4081721,-0.31848332,-0.27885264,-0.5585784,-0.24596386,-0.06889262,-0.17069016,-1.854131,-0.99452496,0.2709634,-0.026485415,-0.3695209,-0.48414406,-0.33464408,-0.48365098,-0.36898437,-0.21721344,-0.25135872,-0.8696134,-1.6362984,0.09596212,0.1147053,0.1803682,-0.43303952,-0.23216034,-0.19576186,-0.16388258,-0.12780726,-0.2665718,-0.10949347,-0.85534596,0.7843238,0.7239387,0.4260401,-0.22189085,-0.33292496,-0.36292353,-0.36256677,-0.13662949,-0.2693394,-0.1638416,0.017123954,1.2471409,1.2060047,0.7680512,-0.042842597,-0.28180036,-0.24474756,-0.18144159,-0.055935282,-0.1742567,-0.007456553,-0.59175503,1.4150456,1.6458036,1.3779695,1.1002164,0.32834578,0.122445226,0.40551215,0.58941084,0.95115906,0.39841795,1.2559847,-0.1520138,1.323175,1.7257664,1.203039,0.7861232,1.3114115,1.1445849,0.9893577,1.3905096,1.2329744,-0.117840156,1.7379504,0.026608353,-1.3197317,-0.23154788,-0.070219025,-0.13865748,-0.12049791,-0.16664228,-0.1711924,-0.13960639,-2.3681269,0.022034511,-1.2150196,-1.1874727,-0.29788524,-0.12067686,-0.112830915,-0.12618692,-0.09449978,-0.0736334,-0.11013807,-0.20837726,-0.0076951017,-0.23084635,-0.4343681,-0.19098096,-0.09792042,-0.07473084,-0.09177741,-0.10873464,-0.09118112,-0.020542772,-0.14972825,-0.04416344,-0.18535042,-0.07470784,-0.024865314,-0.037146337,-0.08655675,-0.041401815,-0.08473042,-0.14640287,-0.024455968,-0.040423416,-0.04761996,-0.10157714,-0.03202154,-0.032467287,-0.08542907,-0.11335629,-0.030398633,-0.12766798,-0.07177385,-0.07358576,-0.053336382,-0.09931981,-0.11721161,-0.06702272,-0.07017449,-0.077925995,-0.05935272,-0.03287707,-0.06270507,-0.070613734,-0.07714827,-0.073297486,-0.060327,-0.12000177,-0.05882554,-0.06192937,-0.13069466,-0.14516951,-0.12371556,-0.07324296,-0.14906542,-0.107810386,-0.09969526,-0.13410492,-0.15270245,-0.032335754,-0.066904314,-0.07056147,-0.15414001,-0.044268776,-0.11256541,-0.13843326,-0.14095855,-0.10140559,-0.15639658,-0.085258804,-0.035065066,-0.051676203,-0.067654185,-0.03396074,-0.08941304,-0.1721431,-0.087336764,-0.09450819,-0.1521796,-0.100256175,-0.2486679,-0.05028859,-0.07427371,-0.007977646,-0.029430509,-0.07085872,-0.1210688,-0.13284184,-0.04464264,-0.108775534,-0.098372266,0.002024419,0.05634803,-0.055375926,-0.09814207,-0.09607007,-0.1915385,-0.15730132,-0.0855808,-0.024036624,-0.0070646135,0.012806168,0.0005409185,0.053951018,0.016406111,0.10086758,-0.036369815,0.08336416,0.07993748,0.024344051,0.12901331,-1.3017215,0.026572257,0.011786392,-0.023465969,0.087721705,0.16285747,0.02605764,0.07128899,0.106148995,0.03521389,0.019332195,0.15551439,0.097425096,0.052261632,0.12436728,0.16370045,-0.025963346,0.008154876,0.054228093,0.051186163,0.056024443,0.12060143,0.14979987,0.0945122,0.13451359,0.18691711,-0.04273939,0.06326785,0.04033047,0.035533313,0.020578584,0.020875046,0.023354052,0.020455841,-0.06979449,0.1275553,0.13239175,0.08785232,0.031136569,0.06730221,-0.005591806,0.009335121,0.041210536,0.021760583,0.013621721,0.09491485,0.1180435,0.14511117,0.031992648,0.041658092,0.025908161,0.041441873,0.09345017,-0.028883938,0.086259775,0.119977504,0.060316384,0.10115695,0.2189054,-0.10688453,-0.0062461626,0.0075636283,-0.027071685,0.061185207,0.015146807,0.06550009,0.03386427,0.068284295,0.07216259,0.103613235,0.004425269,0.054623123,-0.03374977,0.10409688,0.053130828,-0.0024910045,0.03055633,0.043086313,0.0300207,0.0033649264,0.09372791,0.08178013,0.034320284,0.04570911,0.029559854,0.04382731,-0.07243823,-0.035443556,0.0098371655,0.006260903,0.028419297,0.050609414,0.03040166,0.01717825,0.031499654,0.1380727,0.14223231,-0.04502639,-0.007206908,0.03790847,-0.020822,0.007937808,0.08590902,0.14472662,0.07027798,0.13168155,0.0911382,0.13220441,0.2003702,0.06798539,0.019877408,-0.015858408,0.03797477,-0.2170607,1.3125368,-0.101484396,-0.3715844,-0.36381876,-0.60116833,-0.22870548,1.8185909,-0.22893299,0.02137633,-0.16935304,1.7392317,1.06759,0.13698187,-0.39629236,-0.37159285,-0.73838365,-0.74312425,-0.23035,1.6568849,-0.26047656,1.3362281,0.8993306,0.28507316,-0.1788347,-0.49877915,-0.59634876,-0.80227417,-0.6074011,-0.6481734,-0.19680473,-0.38389316,0.13595696,0.21100958,-0.51339376,-0.27072424,-0.51621324,-0.7110151,-0.57994133,-0.8065572,-1.0081822,-0.38680616,-0.42579472,-0.19450107,-0.5984648,-0.38117132,-0.6706408,-0.6597328,-0.6191587,-0.5600549,-0.7189923,-0.8193717,-0.83804613,-0.49871412,-0.21727024,-0.5796319,-0.93353856,-0.878314,-0.44720596,-0.6631018,-0.55453223,-0.45053643,-0.7080033,-0.525625,-0.30854928,-0.450629,-0.90124375,-0.6129668,-0.78451407,-0.9086312,-0.7892538,-0.4919737,-0.99574393,-0.6571318,-0.91631436,-0.4533485,-0.7452239,-0.5465047,-0.6870661,-0.64539284,-0.7250449,-0.5539457,-0.96936715,-0.54417753,-0.61290467,-0.6460227,-1.0256855,-0.2158425,-0.9108968,-0.47311565,-0.8688513,-0.38512105,-0.6656189,-0.43778956,-0.67443,-0.54133826,-1.1260519,-0.3700938,-0.34211674,-0.123640195,-0.74433225,-0.6346939,-0.62729084,-0.5573596,-0.41999444,-0.5891937,-0.46068102,-0.51251036,-0.32208273,0.029696858,-0.26168707,-0.47858423,-0.36425197,-0.31940135,-0.26659024,-0.07578187,-0.23742774,-0.23638168,-0.34615943,0.03307605,1.5834435,0.01678289,-0.19083235,-0.040356345,-0.016458299,-0.060573213,-0.11086826,-0.115730464,-0.20117387,-0.29490656,-0.10197508,0.027718777,-0.12289831,-0.1610823,-0.10638668,-0.17487855,-0.148675,-0.1944915,-0.2305829,-0.2842261,-0.28894758,-0.29723257,-0.14498754,-0.2303171,-0.11371068,-0.088052414,-0.08315513,-0.117572725,-0.17937948,-0.25498846,-0.33083147,-0.40318796,-0.28408602,-0.23075989,-0.1810126,-0.15472151,-0.026593009,-0.10106061,-0.15344675,-0.04184212,-0.13036248,-0.16491632,-0.26999328,-0.22726169,-0.10642706,-0.16939475,-0.20597184,-0.13492455,-0.15514424,-0.13910818,-0.06323631,-0.17281166,-0.16435592,-0.1651156,-0.20170148,-0.09469334,-0.24317822,-0.15340768,-0.08514988,-0.03858101,-0.14529142,0.028454548,-0.10458324,-0.15714373,-0.15289621,-0.20279437,-0.12161529,-0.17115569,-0.15266988,-0.110486664,-0.10126807,-0.17147548,-0.09890063,-0.08127848,-0.06282764,-0.20137337,-0.19235311,-0.07004768,-0.17393282,-0.12714525,0.0013843557,0.060062133,-0.0041873246,0.0659805,0.036515802,-0.051873334,-0.0037144995,-0.12292163,0.011302442,-0.11344298,-0.063906156,0.06781257,0.17131408,0.10683023,0.020209374,0.14128843,0.018196695,0.049351633,-0.09229892,-0.024612345,-0.0213363,0.010059949,0.14164539,0.2627506,0.16940917,0.11666634,0.1692407,0.23960015,0.16340612,0.04594585,0.13876018,-0.0015365357,0.007566675,0.12760888,0.10361238,0.08599438,0.11760862,0.13937597,0.081601575,0.17032361,0.11034805,0.028675254,0.049386278,-0.042910982,0.057550974,-0.0330927,0.16886316,0.17051603,0.16271901,0.20760183,0.28774643,0.2621656,-0.031107334,-0.05253822,-0.20450108,0.04363386,-0.052650556,-0.06756875,0.17453258,0.095923625,0.13284785,0.20873016,0.28175342,0.14070593,-0.010292483,-0.08376055,-0.12748878,-0.007970352,-0.08741425,-0.03572445,0.019552633,0.13870996,0.13094452,0.11734775,-0.0034929398,-0.08706512,-0.030155724,-0.020458043,0.060507502,-0.010295024,0.099784695,0.120894,0.096893504,0.10535258,0.12077306,0.16995813,-0.039158314,0.0060503553,-0.017766386,0.08809981,-0.043324955,0.08758732,0.06475896,0.033639267,0.038972326,0.14912453,0.07435574,-0.058356218,-0.022351943,0.13483727,0.057677303,0.00891659,0.012047698,0.0462166,0.12502736,0.041559536,0.01288081,0.121531464,-0.10262228,-0.049165584,0.063146606,0.036432587,-0.027618455,0.0818723,0.004654877,-0.022572761,0.083114,-0.0011762589,0.015031969,-0.07016529,-0.06778323,-0.06157509,-0.052918337,0.0023093196,-0.07175588,0.039688617,-0.0023163916,-0.16964616,-0.011364571,-0.05145906,-0.19542825,-0.12043359,0.07391279,-0.04567178,-0.09047746,-0.08923123,-0.22233863,-0.13869533,-0.22105893,-0.20183174,-0.019827904,-0.07110451,0.0078040026,0.03157234,0.11946455,-0.035226602,-0.11522112,-0.084753685,0.014702293,-0.15618166,-0.38287276,-0.006668706,0.037716005,0.016581623,-0.14046472,-0.15252385,-0.1130309,-0.097990096,-0.07479931,-0.14589792,-0.113833904,-0.109240904,0.026598418,-0.15845011,1.0430244,0.16723266,-0.5355573,0.2299942,0.014087149,0.8457507,1.1786815,1.1885504,0.8211313,-0.10932991,1.1009166,0.7675381,0.46855286,0.2019417,-0.07018885,0.053641602,0.47591242,0.9623851,1.2817072,1.1464548,0.8386365,-0.079511434,0.6812852,-0.05171258,-0.44770297,-0.4829421,-0.43537885,-0.30696738,-0.022789018,1.1473262,1.0460382,1.0257566,0.26758423,-0.123614945,-0.33250636,-0.45251042,-0.47907117,-0.49086824,-0.15755828,0.101290405,0.40925923,0.9331891,0.6932876,0.49814427,0.18907043,-0.23758517,-0.37534395,-0.3131992,-0.42162624,-0.46439335,-0.07499924,0.26947293,0.61946994,0.23793396,0.4042882,0.15200156,-0.2788263,-0.46498185,-0.4672877,-0.4873495,-0.4862566,-0.39448568,-0.52539355,0.39966837,0.32724446,0.637934,-0.12199459,-0.3630988,-0.6044744,-0.676132,-0.36103034,-0.37984073,-0.4303798,-0.087112345,0.10288748,0.24849546,0.315258,-0.29701197,-0.5584571,-0.54143757,-0.4964695,-0.71391475,-0.76555645,-0.3747643,-0.33989227,-0.39317933,-0.5179271,0.1354169,-0.16824676,-1.4944743,-1.2996942,-0.9923504,-1.2239306,-0.7843746,-0.8343104,-1.3005,-0.46460304,-1.0139054,0.97782683,-1.2560683,-1.9843045,-2.2266982,-2.1434207,-2.2299714,-2.5259402,-1.2447643,-1.8102705,-1.743631,0.9704449,-0.1581818,0.9346543,-1.65617,-1.5918597,-1.8079575,-1.7107593,-1.6013107,-2.5798755,-1.7496064,0.65053993,-0.119371496,1.5683159,-0.020420622,-0.0052502663,-0.05147848,-0.20204793,-0.12618724,-0.15132608,-0.09473205,-0.04536816,0.049630728,0.06772146,-0.010860227,-0.19748138,-0.034150425,0.11210186,0.007734644,0.010291694,-0.03735422,0.14242129,0.05229671,0.16462043,0.058406282,-0.03841659,-0.110085465,-0.030799853,0.005273163,-0.100925244,-0.045330256,-0.0676586,-0.06875308,-0.08556881,-0.09269239,-0.18045111,-0.09880677,-0.14557962,-0.07744403,0.036555856,-0.12732561,-0.12086575,-0.009277071,-0.10811129,-0.031071713,-0.010033991,0.030186256,-0.0913505,-0.120316185,0.0070734676,0.060710717,-0.04677105,-0.060934067,-0.046137936,-0.079504564,-0.09686503,0.0127455145,0.0047938195,-0.069767445,-0.15714635,0.033018306,0.0065866257,0.00082840485,-0.030553324,-0.047840174,0.028345697,-0.054669432,0.03557138,-0.040584784,-0.0065143793,-0.16553949,0.0075016893,0.023797322,-0.010069214,-0.12999296,-0.09677548,-0.035122752,0.020323034,-0.0030116024,-0.076636896,-0.045318242,-0.39498097,-0.21102327,-0.059090644,-0.011841211,-0.08639301,-0.058681253,-0.097918384,-0.030734189,0.022972872,0.06192565,0.034529403,-0.6734959,-0.6058776,-0.44552654,-0.035704833,-0.06974504,-0.0988091,0.02085651,-0.053155504,0.017436057,0.03322845,-0.023308564,-0.38684437,-0.79637516,-0.26638713,0.020342216,-0.04069314,0.008865589,0.035500962,0.0582371,0.10118509,0.11615024,0.09874137,-0.0361322,-0.5344661,-0.122924544,-0.074950166,-0.06609153,0.0805896,0.044068485,0.08771048,0.15458684,0.14260277,0.04184018,0.032365862,-0.30501485,0.07411496,0.06543902,0.04648192,0.0017868927,0.029281508,0.14758249,0.038867388,-0.12063033,0.04277935,-0.28480783,0.02267137,0.07780062,0.011749661,0.0048117763,-0.05730724,0.004653691,0.044093132,0.04955414,0.024648627,0.092925675,-0.008220162,0.013295622,-0.14236164,-0.0075049456,0.05690174,0.06648563,-0.05929904,0.06582292,0.09371982,0.026995588,0.15744658,0.15578024,0.04112411,-0.0839383,0.01330797,-0.0072341324,-0.055254124,0.06594004,0.09303712,0.0427988,0.07120488,0.06985901,0.1512429,0.10074681,-0.004133272,-0.10486178,-0.0014171482,0.04760625,0.091688186,0.028551724,-0.029598657,-0.0061737867,0.06556711,0.20925465,0.07346538,0.0073854793,-0.013671389,0.029503858,0.033734217,0.0069008605,-0.053175822,-0.08590487,-0.11068378,0.21817558,0.13038735,0.09380359,0.0050979913,0.05229985,-0.040253203,0.036655333,-0.042759314,0.039769627,-0.022404613,0.05373717,0.15191537,0.13951018,0.09746847,0.06694174,0.07511983,0.07870559,0.11701059,0.012294624,0.09124043,-0.02445448,0.08174825,0.11065765,0.17463769,0.25649646,0.26697403,0.09628271,0.09749991,-0.05337983,0.030854566,0.12158033,-0.024986181,-0.20062706,0.2127198,0.17595896,0.14210927,0.26726714,0.22396965,0.069283895,0.0058909263,0.10063333,-0.035339385,-0.07323717,-0.05020978,0.14509007,-0.030420307,0.18769452,0.21856724,0.11126957,-0.0049246144,0.22864996,0.040141445,-0.012652658,-0.17596433,-0.011849627,-0.04863759,0.1661228,0.58094287,-0.5134399,-0.7519558,0.44048074,0.1904708,-0.43457872,-0.057305988,-0.16669838,0.7614284,0.155321,0.6551096,1.8690561,0.19831145,0.017431933,0.06927883,0.14749263,-0.15588222,-0.50913525,0.21997508,0.2581706,0.64832556,0.46491545,0.7682952,0.33971396,-0.12581341,0.071636386,0.35040355,0.25420654,0.4585413,0.35026637,-0.5072305,1.090162,0.3540505,0.26518977,0.28474334,0.4257278,0.14447841,0.1339142,0.037633628,0.11726314,0.08335344,0.13212945,0.1206112,0.33517113,0.280551,-0.20500964,-0.32351217,-0.066214174,0.11946701,0.064059205,0.33945945,0.29701644,-0.2051804,-0.19341262,0.8017389,0.2892894,0.21701585,0.15354909,0.17690288,0.28016284,0.27523875,0.1513063,0.020529957,-0.5261979,0.014045287,1.4898252,0.78799134,0.5291738,0.05722945,-0.019598823,0.24336123,0.19670278,0.22796623,0.018873533,-0.27042305,-0.3549923,1.8779528,1.4304742,0.67130756,0.16654767,0.16644903,0.21525913,-0.017583199,0.24430595,0.20401649,-1.1433334,-0.072805494,3.291255,2.2961411,1.2183298,1.111531,0.6612516,0.29801622,0.19253327,0.24442072,-0.43046373,-0.6087792,-0.13298413,0.73028326,2.6062393,1.9013729,1.4143797,0.41730973,-0.11625572,0.098922335,0.2541749,-1.6570274,-1.0884633,0.76205796,0.30998975,0.78641844,1.9506158,0.92495847,0.13072641,-0.5285556,0.102217056,-0.25459942,-1.1631165,0.74706066,0.22194564,-3.4189768,0.005290493,-0.27836958,-0.25973248,0.0992635,-0.057164304,-0.110233866,0.0033591785,-0.10919104,-0.37553015,0.13412002,-0.038896445,-0.32251695,-0.036777966,0.0284397,-0.13567598,0.051182732,-0.20093775,-0.27745217,-0.39410314,-0.102114946,0.15255523,0.29433584,-0.35971835,-0.21029021,0.008535263,0.06871529,0.08849943,-0.048494507,-0.086992405,-0.16011888,-0.10045043,0.05926561,0.23014063,-0.47290534,0.045973055,-0.029572984,-0.14245866,-0.20857587,-0.031461768,-0.044777144,0.010468999,0.05588043,0.17437701,0.28532073,-0.07817161,0.10862308,-0.11217305,-0.26966852,-0.13552062,0.09323377,-0.066883095,-0.20738609,0.1087528,0.3417391,0.31735566,-0.35128808,-0.036217358,-0.20573607,-0.1558434,-0.03380878,-0.034617305,-0.03326246,-0.13229413,-0.14256667,0.08531915,0.33062363,-0.21738513,0.033928204,-0.088593975,0.049835138,-0.09696498,0.18972254,-0.14094283,-0.14430138,0.17112699,-0.071896665,0.44838783,-0.3292088,-0.24580012,-0.08864984,-0.010197097,-0.031198697,-0.12307908,0.02520211,0.030787814,0.17919269,0.18383318,0.3472237,-0.5337132,-0.0042820894,-0.15528136,-0.012497498,-0.0458331,-0.14189714,0.10762581,-0.07848831,-0.16898572,0.053662457,0.08810818,0.047706302,0.5941105,0.1506151,0.10544286,-0.11179078,-0.11981313,-0.06807794,0.008880614,-0.14185716,0.013541591,0.028808638,-0.03600674,0.25725988,0.22366083,0.06411607,-0.15648755,0.13465534,0.024481151,-0.2349745,-0.15151794,-0.050970055,0.040134173,0.02272968,0.1888867,0.36410624,0.056616288,-0.037011158,0.05166311,0.03859877,0.13650109,-0.2548674,0.5200489,-0.00896396,0.02376757,0.57172877,0.27825892,0.1884877,0.3112454,0.3434625,0.14071296,0.3553577,0.088876754,0.1472045,0.39897493,0.22085968,0.18179058,0.017647335,0.2859298,0.37332958,0.13029931,0.15468922,0.21518,0.32003108,0.31302115,0.46390826,-0.049110446,-0.10711575,0.22053911,0.28544745,0.15950754,0.29633462,0.18270585,0.108397245,0.16071713,0.28088492,0.44411865,-0.16969204,-0.058379862,0.14238584,0.18885565,0.20185398,0.40117225,0.28904086,0.09426251,0.16888078,0.2124763,0.19606808,-0.023900881,-0.0034736602,0.13659573,0.11910343,0.1095578,-0.009008142,0.26613688,0.25533947,0.08836096,0.13830055,0.18786427,0.015681027,0.06662355,0.08248074,0.25130233,0.29377666,0.2047643,0.22722302,0.21160893,0.21434769,0.11373627,-0.0055242763,-0.14972149,-0.08951661,0.100667834,0.16111535,0.22892496,0.10602329,0.18310879,0.09481221,0.11469947,0.41243252,0.3275771,-0.1358719,-0.2816693,0.06880758,-0.026774969,0.019205542,0.17359608,0.091199264,0.17786345,-0.19779404,0.101196155,0.39244086,-0.30508828,0.061475992,-0.036094658,0.35348627,0.17446731,0.27180347,0.037016794,0.014260159,-0.29468444,-0.13600461,0.5958279,0.018642565,-0.00033673103,0.15155183,0.10964209,-0.049165446,-0.015242115,0.33343056,0.025206406,-0.16080861,-0.12428195,-0.051379643,-0.33791107,0.17888921,-0.46527463,-0.49318856,0.1581354,-0.042193767,-0.094179586,0.5353738,-0.07754154,0.16934288,-0.35391796,0.2707969,0.62522846,-0.48740447,-0.15903004,0.045168072,-0.088429555,0.022338202,0.05814839,-0.45053875,-1.193946,0.1685143,-0.4680357,-0.066441774,-0.41459888,-0.33524427,-0.18268439,-0.13872546,-0.06972281,-0.2991897,-0.08608328,0.48562467,-0.92870396,-0.78484714,-0.15784611,-0.2075445,-0.47387034,-0.25709742,-0.3361838,-0.3500998,-0.2573653,-0.37354153,0.085836984,-0.37552074,-0.59671676,-0.30969855,-0.24334049,-0.40165815,-0.32842278,-0.36523452,-0.21337926,-0.60414237,-0.3690814,-0.17651497,-0.7261789,-0.6614389,-0.6607248,-0.30348718,-0.43056858,-0.6123985,-0.5126927,-0.17565943,-0.4362926,-0.46421105,-0.3457832,-0.7522522,-0.81963265,-0.6844241,-0.4828976,-0.60986716,-0.30663568,-0.35835096,-0.530338,-0.40940708,-0.5076514,-0.25829569,-0.7424503,-0.99761504,-0.66167337,-0.46390653,-0.41155022,-0.38815576,-0.5110357,-0.44670913,-0.27744588,-0.04301741,0.34063986,0.99307364,-0.76559097,-1.230297,-0.25895917,-0.41161096,-0.0877694,-0.25987527,-0.033257734,-0.09486746,-0.09703558,-0.9538355,0.4323202,0.14816488,-0.41694683,0.08058456,-0.7997459,-0.7372258,-0.4055808,-0.32307842,-0.121308856,-1.5099573,-0.9179181,0.2001983,-0.32661903,0.2637389,0.12795465,0.037191186,-0.14191175,-0.026688505,0.14788124,-0.12628558,0.8745597,0.19602549,-0.31328195,1.6497836,-0.048781488,-0.31839266,-0.20079075,0.01434671,0.07664984,0.026633438,-0.013961687,-0.027281027,-0.14103039,0.12421514,0.013221896,-0.30379707,-0.41190082,-0.23738645,-0.29728675,-0.12786941,-0.11579864,-0.2632894,-0.19719328,-0.3433083,-0.017195705,0.06129491,-0.13589868,-0.14328185,-0.12761648,-0.1858349,0.0063371975,-0.061533924,-0.080657445,-0.13435096,-0.16694146,0.04002697,-0.022965582,0.13463897,0.15641536,0.10048695,-0.044235315,-0.07692391,0.015659662,-0.066694535,-0.2910601,-0.19519937,-0.15445706,0.099363156,0.277057,0.14960136,0.09935436,0.03231417,0.008637254,-0.027430924,-0.06601399,-0.20993024,-0.023492081,0.02697073,0.0590019,0.20387493,0.11367614,0.3284891,0.16473666,0.0056931055,-0.051705364,0.14127947,-0.0052852933,0.058953892,0.23141994,0.12036572,0.22838351,0.2614153,0.18205567,-0.05090143,-0.0490481,0.0017838132,-0.06420577,-0.15210599,0.1396134,0.055215713,0.30782843,0.12814486,0.29292148,0.30981135,0.073990405,-0.08777185,0.010850319,0.17973095,-0.020989569,0.22487752,0.51984024,0.25003275,0.23375899,0.26910898,0.055671047,0.008154883,0.08756967,0.029986123,0.010983734,0.072757155,0.28294542,0.27676585,0.3186942,0.058885053,0.10804556,-0.16854066,-0.41825515,-0.35662332,-0.37811103,-0.5454131,-0.462825,-0.11748253,0.102013364,-0.16467701,-0.013341857,-0.10783657,-0.38910297,-0.018425241,-0.06567105,0.018984953,0.019113677,-0.02448621,0.14696194,0.15775011,-0.0025727416,0.017547876,-0.28789103,-0.2490432,0.041220725,-0.14902902,-0.12559284,-0.10007,-0.060642444,-0.106048554,-0.0749056,-0.02484007,-0.16792579,0.07228454,0.14849468,-0.08228809,0.046237413,0.046927143,0.0015521154,0.065468416,0.13282834,0.27569985,-0.12797238,-0.21522704,-0.07498791,0.0934571,-0.0001622425,-0.11220725,-0.054789767,-0.0563817,0.032593574,0.10350329,0.14323662,0.011445455,-0.28776693,-0.26998806,-0.21553898,-0.1795975,-0.040111985,-0.07799683,-0.05684878,-0.02084882,0.11568921,-0.067803934,0.035794266,-0.28175297,-0.29182082,-0.33894828,-0.26225823,-0.014587985,-0.117831014,-0.0016573368,0.01354523,-0.07860268,-0.15271707,-0.05036615,-0.39233705,-0.28572828,-0.3029324,-0.35528976,-0.18309294,0.04760553,-0.10162902,-0.014203308,-0.14628541,-0.078418404,-0.20311193,-0.30456263,-0.29790577,-0.11948733,-0.0995209,-0.05628141,-0.13732624,-0.007364661,-0.20124908,-0.39858916,-0.23964888,-0.27204263,-0.1674683,-0.1568447,-0.2114878,-0.24375266,-0.16917445,-0.28943628,-0.08314554,-0.24689834,-0.130431,-0.104485504,-0.16490754,-0.2334035,-0.15045775,-0.025806146,-0.1850695,-0.19105108,-0.22729656,-0.16426405,0.009738708,-0.052054707,-0.04272211,-0.44318986,-0.30439052,-0.17167003,-0.17584854,-0.23822334,0.08101533,-0.0806076,-0.13657194,-0.07177154,-0.21757783,-0.40158504,0.0006879032,0.010069834,-0.17918287,-0.4937181,-0.08518879,-0.008155678,-0.17096445,0.09939915,-0.28615838,-0.23906252,-0.07887862,-0.010833529,0.5276835,0.78822744,1.5650227,1.2844384,-0.043066405,0.44915083,0.8582534,1.768254,1.4349723,0.61981285,0.42345145,0.91686183,1.6257727,1.6471051,1.3460611,0.72194713,1.1438754,1.1367984,1.2410295,0.82312757,-0.13150568,0.7091475,0.8480481,0.7794431,0.72656924,0.6248749,0.37625864,0.510065,0.40675783,1.0285969,0.8992951,0.56835824,0.71968126,-0.060019433,0.5787687,0.6198634,0.3026324,0.27884495,0.5341493,0.44700608,0.63247997,0.83788806,0.50824726,0.6576213,-1.7069362,-0.11654193,-0.21067472,0.4521837,0.027186036,0.11167477,0.32774708,0.25266612,0.6390188,-0.37479526,-0.22725676,-3.1969218,-1.7007079,-0.3348794,-0.0005594867,-0.03306537,-0.4754402,-0.07215811,-0.53076094,-0.03438847,-0.76261747,-1.6128626,-3.1908414,-1.6889753,-0.16148508,0.17832713,0.51624787,-0.079675436,0.32903397,0.15816419,0.31608304,-1.8092428,-1.0134993,-3.20928,-1.4302347,-0.28536218,0.067444585,-0.0029585473,0.14626154,-0.103303306,-0.050683387,-0.47933188,-0.9726811,-2.4033122,-2.089439,-1.1185955,-0.3176275,-0.13448428,0.24387893,0.03132882,0.2195082,0.13952461,-1.1884977,-2.120336,-2.0845482,1.0153716,0.54483765,0.73990005,0.67817,0.6211267,1.3346236,1.0757066,0.37856707,0.67755044,-1.119977,0.8826584,0.44692788,0.679199,1.184954,1.6963794,1.5229974,1.7582625,1.6232345,1.5101442,0.3029787,0.616796,0.37707135,-3.5058775,-0.04351797,0.33404192,0.4598386,0.24086085,0.22321634,0.18774594,0.19413884,0.28765967,0.22224678,0.07558646,0.013330835,-0.30805528,0.099845275,0.23822743,0.338964,0.17251511,0.042831365,0.025166132,-0.11425187,0.09256107,0.089789376,0.3256439,-0.24871832,-0.17278308,-0.012606865,0.127107,-0.08082285,-0.09873403,0.043585483,-0.009434401,0.18444213,0.16589306,0.24673098,-0.3669725,-0.40579623,-0.14055663,-0.03914407,-0.15649709,0.05125386,-0.047812544,0.020245038,-0.012943847,0.1632094,0.36255345,-0.20636135,-0.24534252,-0.25482312,-0.09461774,-0.07662239,0.043492615,-0.06332765,-0.1405169,0.079811215,0.033177964,0.13670179,-0.27642477,-0.32751435,-0.24981678,-0.12559955,-0.2015785,-0.049743026,-0.10608917,0.054232232,0.09464951,0.08041532,0.21087648,-0.293641,-0.30646327,-0.2305634,-0.11912174,-0.19994873,-0.19516768,-0.08922359,-0.10236439,0.04303026,0.123904616,0.2615023,-0.3497035,-0.30668953,-0.20760062,-0.2417781,-0.28594214,-0.1257668,0.01465663,0.18628424,0.20260538,0.38944402,0.34259424,-0.5250444,-0.24634992,-0.4683168,-0.25930613,-0.2665702,-0.15741718,0.1033841,0.1662676,0.3174142,0.14123699,0.30681482,-0.321116,-0.24183474,-0.2980708,-0.32950506,-0.2583959,-0.00537183,-0.1838353,0.11121162,0.1775887,0.2820335,-0.0079213595,0.020451358,-0.25335726,-0.19471237,-0.3266736,-0.19307148,-0.0906646,-0.021489386,0.061875958,0.0504972,-0.0071235932,0.035215896,0.029876476,-0.026070338,0.316976,0.09807427,-0.17510813,-0.5040314,-0.5010467,-0.5185249,-0.4958611,-0.18278064,-0.051184297,-0.42231977,0.121254504,0.28781936,0.13240258,-0.18313676,-0.15430038,-0.3145439,-0.40529165,-0.4419395,-0.5036715,-0.0774355,-0.09369097,-0.16700342,0.03495918,-0.14771692,-0.3529969,-0.21173035,-0.51510245,-0.42129195,-0.34507328,-0.24391903,-0.11500996,-0.1384872,-0.49940106,-0.1207742,-0.14082374,-0.22202404,-0.17007612,-0.39059338,-0.43014815,-0.26571676,-0.12767705,-0.13848673,-0.12105865,-0.20922457,0.07283211,-0.039038178,-0.14119254,-0.21421973,-0.25472265,-0.38631085,-0.3636506,-0.62865436,-0.24478573,-0.1814384,-0.17348212,-0.00980492,0.0380603,-0.07238767,0.026537305,-0.117176205,-0.29928046,-0.32159895,-0.3084843,-0.15158945,0.10346055,-0.17379317,-0.08350435,-0.07521393,-0.024945624,-0.08889863,-0.14845303,-0.34085184,-0.5697565,-0.531386,-0.37655234,-0.08249015,-0.21974379,0.028342333,0.004629888,-0.008803007,-0.17866911,-0.23522183,-0.41533914,-0.2552986,0.011747728,-0.17198588,-0.1094153,-0.30513707,-0.38301277,-0.079172306,-0.25769687,-0.21851656,-0.33249235,-0.33312574,0.050147306,-0.05451577,-0.028291987,-0.23444279,-0.20650311,-0.28855065,-0.4226292,-0.28825662,-0.07149789,-0.25667834,-0.42530683,-0.71828586,-0.38992423,-0.022979375,-0.051758338,-0.4528879,0.10143537,-0.01650692,-0.030012578,-0.13765131,-0.06527664,-0.39650956,-0.7014636,-0.5939469,-0.031832658,-0.2733767,-0.5162474,1.220705,0.7607365,0.42484015,0.6225044,1.3663737,0.76491845,1.692439,-0.51098686,-0.2295231,-0.50894135,1.2079884,1.0659806,0.66792613,0.24306509,0.051424447,0.15773016,-0.024950111,-0.42991287,0.7555436,-0.6530171,-1.3416234,-0.41309914,-0.52247125,-0.050846525,-0.35069823,-0.4808284,-0.16044123,-0.1328906,0.062138326,0.8754737,1.4866697,-2.1727607,-0.77438563,-0.3492863,