0.22103941,0.21401119,0.192386,-0.097718894,0.15864258,-0.22842194,-0.25344226,-0.39088228,-0.20846212,0.14411445,-0.40863737,0.2601754,-0.32072476,-0.22624394,-0.17590483,0.20628937,-0.15589939,0.33432442,1.1893126,0.36944804,-0.6695336,0.161699,-0.16806857,0.26229575,-0.31448042,-0.1385404,-0.22128919,0.18867485,0.3043893,-0.254183,0.20771237,0.1700385,0.2596197,0.18490686,0.21727878,-0.17931283,-0.2499615,-0.32060316,0.1393766,0.20792149,-0.99364966,-0.17993298,0.10968666,0.44280678,-0.16165128,-0.4393928,0.45264837,0.36691192,-0.123148374,-0.44519252,-0.45709705,-0.17230657,-0.46684146,-0.18155095,0.17911881,-0.10844654,-0.011008001,-0.51220614,0.80730736,0.46494785,0.2636385,1.1111039,0.22019173,0.15563418,0.2597198,-0.45302814,0.13856532,0.35281423,-0.19624041,-0.30169526,-0.5117635,0.18162286,-0.14422755,0.1725399,-0.18327308,-0.16627827,-0.22830616,0.19381183,-0.21970905,-0.39802167,-0.18187377,-0.4517348,0.5930041,0.35570806,-0.133534,-0.2678327,0.38493624,-0.3050662,-0.20487985,-0.12266637,-0.12373663,-0.17204468,-0.18001513,0.17351629,-0.19341032,0.34175822,-0.19322118,0.10256395,0.2979155,-0.21477197,0.1708234,0.21710795,0.2942202,-0.45216793,-0.22937171,0.1976006,-0.6164104,-0.22242008,0.35446167,-0.31071392,-0.28437722,0.14570361,-0.2267978,-0.45397758,-0.17291626,0.121799074,-0.3417419,0.3421363,-0.38690287,0.17820856,0.33023316,0.22533466,0.49106976,0.17235342,-0.2924888,-0.19616441,0.2271621,0.37455168
