0.24566573,0.23238946,0.21927767,-0.1139817,0.17880106,-0.25587422,-0.28099853,-0.43620113,-0.2373624,0.1567999,-0.46222094,0.2928422,-0.34996584,-0.2496524,-0.19884384,0.22954942,-0.16825481,0.3772176,1.2668836,0.41110542,-0.7190972,0.17822215,-0.19594905,0.29378295,-0.35485,-0.1534866,-0.2462025,0.20765498,0.3367467,-0.2770141,0.22784364,0.18771777,0.28548637,0.20601046,0.24313411,-0.20579693,-0.2899693,-0.36930382,0.14270794,0.22723575,-1.1286218,-0.20978257,0.11697579,0.47013864,-0.17862642,-0.4987658,0.49003547,0.40990907,-0.12052565,-0.43717092,-0.5065848,-0.18580419,-0.52718186,-0.19587606,0.19959928,-0.123918094,-0.010924114,-0.5776837,0.9274486,0.5231384,0.28457528,1.2250534,0.23400994,0.17963257,0.29290882,-0.5062438,0.14834778,0.39097765,-0.21742809,-0.33644322,-0.5574853,0.1947772,-0.15344462,0.19301966,-0.20086771,-0.18452182,-0.25505024,0.21231736,-0.2529849,-0.44579443,-0.2009466,-0.4946955,0.693567,0.39582413,-0.14710921,-0.29607764,0.42510122,-0.32954782,-0.23190285,-0.12792012,-0.13233227,-0.16114157,-0.19567986,0.19374515,-0.22144468,0.35390857,-0.21589823,0.10849257,0.33245498,-0.23780014,0.17565387,0.24100925,0.32508618,-0.4932763,-0.26301995,0.2249547,-0.67354333,-0.25250167,0.3781964,-0.35505447,-0.3081015,0.15861325,-0.25129884,-0.5037269,-0.19917318,0.12168668,-0.37215585,0.37914094,-0.41950932,0.19883482,0.36734903,0.2484508,0.57266164,0.19024222,-0.32975268,-0.22945623,0.25923124,0.40228233
