-0.32997772,0.17651553,-0.85009,0.4557183,-0.15064663,0.1603967,-0.15246862,0.15714687,0.29217663,-0.13471146,0.42735228,0.47552308,0.59207857,-0.5371578,0.7270787,-0.15825394,-0.6530274,0.13124032,0.16765715,-0.38652596,0.5125719,-0.3399074,0.1597454,-0.8697443,-0.11306309,0.293896,-0.11161275,-0.20814142,-0.21402685,0.21266913,-0.1673104,-0.3186446,-0.13800184,0.7995135,0.19792393,-0.2676057,-0.16782206,0.13147968,0.20872629,0.14291237,-1.2784275,-1.636803,-0.13500585,-0.1254326,0.57875496,0.163381,-0.1751767,-0.15535137,-0.16319576,-0.161783,-0.2957812,-0.1491166,0.19470622,-0.29410312,-0.14618425,0.26617837,0.88356835,-0.25842717,-0.16526361,-0.1564026,0.82674074,-0.15333797,1.2039207,0.24538936,-0.26199156,0.42274794,-0.177996,-0.15959914,1.0580319,0.36228928,-0.14677721,0.16879582,-2.5649312,-0.7042606,0.15147763,0.4833805,-0.2907397,0.1815895,-0.15648305,0.17805511,-0.10395485,-0.12702833,-0.18086238,0.29676554,-0.11664515,0.41031814,-0.22665562,-0.16686648,-0.1456203,0.21067122,-0.23341364,-0.5131046,-0.20142063,-0.61161447,-0.17109211,0.15216738,0.17099175,0.13979046,-1.0353572,0.15212412,-0.6042785,0.28030133,1.8749092,0.41842228,0.4858314,-0.1338979,0.15526953,0.17166412,-0.28779683,-0.33273825,0.73954713,0.13871415,-0.22391419,-0.2258883,-0.12608086,0.34055665,-0.2080399,-0.16463102,-0.25551197,0.2371866,-0.16696678,-1.234174,0.14502873,0.16821411,-1.0339466,-0.3546482,0.16032204,0.20237607
