0.19974978,0.19092488,0.17329212,-0.059225135,0.14217184,-0.20349194,-0.22565898,-0.35207668,-0.18499988,0.13373439,-0.36691165,0.23144084,-0.28861,-0.204901,-0.15440924,0.18502407,-0.14935419,0.29709697,1.1254774,0.32554337,-0.6009714,0.14366186,-0.14733851,0.23227762,-0.28318414,-0.12547217,-0.19355409,0.17158216,0.27878088,-0.23038247,0.18829021,0.15372324,0.23265241,0.16481082,0.19380386,-0.15712267,-0.21450447,-0.27785173,0.13494548,0.18906203,-0.86859566,-0.1524485,0.10567518,0.4180752,-0.14471146,-0.39047548,0.41872826,0.3303047,-0.12684685,-0.44898027,-0.41716632,-0.16038595,-0.4102168,-0.16553092,0.16261429,-0.09612921,-0.011097059,-0.45497876,0.705417,0.40986285,0.24428928,0.9901218,0.20650867,0.14060402,0.22519279,-0.41280934,0.13040715,0.32253513,-0.1787738,-0.26759577,-0.46352434,0.16474749,-0.1330757,0.15641919,-0.16579905,-0.14736189,-0.20478252,0.17753243,-0.19282024,-0.35109887,-0.16336395,-0.4213275,0.5152544,0.3226259,-0.12258197,-0.24209774,0.3428837,-0.2830027,-0.18123765,-0.118530095,-0.111653395,-0.19834591,-0.16593361,0.15574695,-0.16858645,0.3203926,-0.17528799,0.097816154,0.2636694,-0.19533677,0.16232814,0.19390547,0.26327032,-0.40832907,-0.20023675,0.17118947,-0.54495555,-0.19706452,0.32753035,-0.27013603,-0.2610317,0.1324101,-0.2036349,-0.4023476,-0.15273365,0.12143659,-0.30955142,0.30790153,-0.35766834,0.15611552,0.29282394,0.20535,0.42040145,0.15606268,-0.2583009,-0.16665772,0.19778436,0.36267483
