-0.24302794,0.13759117,-0.57379436,0.37762424,-0.11713041,0.15677421,-0.11051811,0.123247676,0.20964465,-0.113671474,0.37090862,0.38796422,0.46480203,-0.43395254,0.5485739,-0.12848833,-0.6036958,0.12179159,0.16419533,-0.285081,0.43879536,-0.27120182,0.14617343,-0.6590564,-0.11278594,0.20441966,-0.08150196,-0.16718815,-0.14617541,0.15377237,-0.11884293,-0.24206808,-0.09873042,0.6923487,0.14576745,-0.20761894,-0.15041392,0.11168703,0.15183672,0.11163069,-1.1676065,-1.5297937,-0.09745983,-0.11180979,0.5065594,0.14126441,-0.12239823,-0.1393015,-0.12237134,-0.123388566,-0.19398107,-0.13136867,0.15759054,-0.22802643,-0.12624486,0.21023034,0.8502451,-0.1860162,-0.13031578,-0.17005071,0.5970186,-0.14050001,0.9774335,0.18380998,-0.15159361,0.34875613,-0.12126078,-0.11299056,0.7316523,0.29285342,-0.13314985,0.13418132,-2.044316,-0.5949677,0.12056145,0.3348063,-0.22866778,0.13627256,-0.13644028,0.150304,-0.102877624,-0.11497907,-0.16411632,0.23678413,-0.10506258,0.33184114,-0.20122132,-0.110062525,-0.13062172,0.17274481,-0.1567157,-0.37937587,-0.17809957,-0.4674088,-0.12698795,0.12580723,0.14863293,0.13990752,-0.7914211,0.123855606,-0.44639847,0.2186794,2.0047565,0.37273422,0.36136365,-0.11844161,0.14913723,0.13140868,-0.20684099,-0.27067608,0.6571652,0.118277706,-0.17015882,-0.20136936,-0.119567044,0.27012682,-0.17041191,-0.14372271,-0.18944012,0.18832575,-0.13358456,-0.9876333,0.12951672,0.14447854,-0.83342904,-0.25853956,0.12685768,0.16112253
