-0.012884484,-0.025497545,-0.002162559,-0.04675447,-0.09128934,-0.034615163,0.0016262627,-0.06938745,-0.05203471,-0.10910017,-0.024274,0.2120627,0.032562308,-0.0016127421,-0.028053835,-0.050607733,0.006065746,-0.07333994,-0.044382107,-0.09865852,0.014788777,-0.04800417,0.11316807,0.058592524,0.03965687,-0.001519398,-0.007462236,0.01547083,0.009611843,0.0019094016,-0.052003287,0.038197972,0.059582096,0.056235082,-0.040073197,-0.04081734,-0.022587016,-0.016475042,0.035682157,-0.0113732,0.03782659,0.0068904483,0.031597055,0.03460975,0.032603547,-0.0039372975,0.0013012551,0.03425751,-0.005671359,-0.029594589,0.020958694,0.046061967,0.022787308,-0.0073891855,0.06412237,0.044872947,-0.04616193,-0.03497665,0.0010412919,0.012925266,-0.013714554,0.0846982,0.025462402,0.041132968,-0.017297188,0.02038344,-0.041190144,-0.06640973,-0.05364453,-0.004275429,-0.050054718,-0.011547432,0.027063757,0.029445764,-0.010852942,-0.004664044,0.0014465738,-0.0017394009,-0.029568348,-0.0572222,-0.048009455,-0.012779853,0.042427827,0.0133729195,0.00063274486,-0.012193858,-0.10576331,-0.011560312,-0.015071945,-0.029553711,-0.047909483,-0.081349894,-0.023923134,-0.061304945,-0.034479164,-0.04033132,-0.06072117,-0.03687034,-0.03336152,0.13864875,-0.016195701,-0.036243707,-0.066679105,-0.07004638,-0.0022278153,-0.03964866,-0.037558783,-0.06801622,-0.0065728365,0.044483617,0.018843422,0.048335902,0.05053335,-0.017473504,0.03160484,0.014504793,-0.003956644,-0.03429931,0.00038716267,-0.0404496,-0.021497574,-0.0374342,-0.04772762,0.06398507,-0.022986203,0.03994646,0.07903703,0.039853163,0.016430985,0.030950092,0.09235055,0.03455827,-0.20135775,-0.025901994,-0.0100308815,0.061937153,0.052593533,0.0474069,0.01693967,-0.017287917,-0.036181606,0.004777679,-0.026961941,7.3737436e-05,-0.07037031,-0.097075,0.00934578,0.012271654,0.0137590775,0.016677484,-0.015991881,-0.07885157,-0.0063783573,-0.025184337,-0.030452553,-0.030434549,-0.016487937,0.024095837,0.014820484,-0.00064436084,0.0027377035,0.02308028,-0.0269753,0.0149888415,0.0508038,-0.030735984,-0.013153254,0.04088329,0.05086339,0.04303581,0.095035344,0.044740047,0.031653482,0.0294239,-0.044298925,-0.008695782,-0.007636391,-0.013718831,0.015851052,0.020507313,0.01576193,-0.008035218,0.03694652,0.048254505,-0.028773846,0.0035116617,-0.018521117,0.057555042,0.071739726,0.04139648,0.053500213,0.075911626,0.022635287,0.068093576,0.015255937,0.020085188,0.003676014,-0.016707009,0.045216005,0.025687397,0.057652276,0.055451933,0.01624297,0.03894946,0.031175636,0.041508347,-0.015545532,0.010968468,0.015702384,-0.041374277,0.017101998,0.049306106,-0.004245125,0.054823175,0.013663658,0.018081695,-0.008736316,-0.100454345,-0.013652481,0.027124757,-0.17522435,-0.050347745,-0.013946976,0.00043678272,0.024094794,0.008164426,0.024692737,0.015807554,-0.02343842,-0.033227686,-0.041510183,-0.029316738,0.04489737,0.05447682,0.031774238,-0.0030108322,-0.0048561404,0.03339282,-0.002467919,0.076298356,0.058631603,-0.041704185,0.313356,0.38226792,0.0758998,0.15870449,0.27726513,0.2551535,0.27142447,0.15126884,0.37785998,0.3643407,0.27386034,0.39528567,0.1115867,0.07196319,0.16737823,0.3812955,0.36521828,0.31202877,0.37400743,0.3771402,0.34061325,0.36465803,-0.7018008,0.05504163,0.2187669,0.3633347,0.41942245,0.442486,0.38322708,0.44109508,0.37881872,0.3718074,-0.3632745,0.17809428,0.09433165,0.37511578,0.37355903,0.39406312,0.3673494,0.35865694,0.39703196,0.40181726,0.4827379,-0.41422433,-0.01319244,0.19842614,0.32895958,0.37461314,0.3781445,0.397286,0.35532644,0.36236992,0.41274709,0.39908212,-0.06743436,0.20443238,0.17369911,0.25826973,0.3509542,0.3665927,0.30464593,0.34056973,0.4130293,0.4054036,0.3303549,-0.13961484,0.30843428,0.28309187,0.32742426,0.36632645,0.36434403,0.41646862,0.39360854,0.39887708,0.4620353,0.29915953,0.08148731,0.198719,0.2622151,0.3263209,0.36107418,0.4192016,0.34606495,0.37036487,0.42710376,0.42187613,0.2647987,0.1406401,0.14808197,0.23630062,0.2624215,0.30996794,0.32751796,0.375196,0.35062414,0.40543282,0.2692983,0.2792245,0.084717385,0.39321315,0.4163126,0.13025017,0.20020762,0.24557398,0.27538502,0.3050027,0.3007564,0.35803127,0.39702874,0.40485406,0.33708262,0.4124666,0.32926986,0.29272208,0.1803449,0.20674796,0.2888823,0.21455348,0.18066442,0.40219182,0.31801003,-0.38491902,-0.003417807,-0.044214346,-0.03290721,-0.09637537,-0.01991681,0.010452331,0.038272727,0.061856747,0.101443976,0.12715967,0.044780888,-0.028456477,-0.049840875,-0.08433811,-0.09032254,-0.037593935,-0.012074876,0.03475388,0.04952123,0.11607397,0.098702714,0.088783205,-0.017167108,-0.08019722,-0.059422657,-0.043191034,-0.059496216,0.017926717,0.0072449604,0.08261748,0.094753735,0.061145056,0.03157104,-0.061486796,-0.09172243,-0.08213061,-0.034654208,-0.0030748222,-0.000621561,0.051564164,0.07306959,0.052698225,0.047925405,0.025648547,-0.057818376,-0.07079431,-0.031113183,-0.033872526,0.025259698,0.005650216,0.012678969,0.034965046,0.0567772,0.04234994,0.014002281,-0.042191673,-0.0690348,-0.0324851,-0.051688563,0.0008501049,-0.027048294,0.046605673,0.02407456,0.030164365,0.06134969,-0.028257063,-0.062133383,-0.08122199,-0.05388016,0.02702583,0.05642701,0.038783576,0.015355574,0.040070646,0.012711094,0.018751461,0.009812209,-0.09749804,-0.06506178,-0.010642868,0.019778773,0.06490395,0.042545613,0.03133867,0.01095409,0.026534867,-0.041274242,-0.04299544,-0.015131494,-0.041452553,-0.0038448577,0.07349809,0.106462516,0.10724,0.072059676,0.053121354,-0.007908895,-0.002489088,-0.03737097,-0.095355704,0.013861616,0.10608832,0.118023604,0.13355933,0.09993539,0.078382924,0.054889277,0.028707763,0.045085747,-0.023750782,-0.045567688,0.10108794,0.092769004,0.12920918,0.11492661,0.09302019,0.083816215,0.0782417,0.028870355,0.012333241,-0.0121627655,0.0249729,0.01970318,0.05209769,0.037482206,0.0041986243,-0.0034730881,-0.004805734,0.05915804,-0.010759673,-0.026855936,-0.010968585,0.07298913,0.06773652,-0.0541772,-0.035244584,-0.01033329,0.002880478,0.007176409,0.0070289033,-0.0044182055,-0.010103469,-0.009220206,0.094156414,0.030096645,-0.00096568244,0.036082134,0.059741724,-0.0118104825,0.01777086,-0.0015137447,0.03001874,-0.007377435,0.0069500804,0.037112344,-0.046157975,0.038819555,0.053243417,0.014463634,0.021343784,0.014415698,-0.0018909421,-0.033574015,0.032936946,0.0073069837,0.02639112,0.014316335,0.0450338,0.032095138,0.054504927,0.031359833,0.026585173,-0.034747705,-0.04799564,-0.006306381,-0.0011653844,0.031118266,0.015512851,-0.006819564,0.015714834,0.043402612,0.040041722,0.02987907,-0.007910855,-0.04737744,0.009770342,0.018111901,0.06773959,0.05338599,0.028782904,0.0024581691,0.030016392,0.003945738,0.014751704,0.024744296,-0.0013964608,0.0072441604,0.044550747,-0.02549192,0.009501599,0.020317392,0.030225107,-0.027789084,-0.028055985,0.03777471,0.013011407,0.014118278,0.0023926012,0.042484667,-0.058189344,-0.0065022255,-0.004312016,0.011320122,-0.014394441,-0.020975044,-0.0020902455,-0.009651859,0.064340465,-0.13359506,0.006492598,0.33242416,-0.04521563,-0.0018629489,0.01745558,-0.008167449,-0.021378484,0.013718622,0.0038180337,-0.037547164,0.04578629,-0.015985267,-0.020400671,0.06367698,0.07140228,0.009945192,0.019798215,0.02421892,-0.004104833,0.029722795,0.047631297,-0.014103959,-0.040176384,-0.14302653,-0.013112235,-0.37046328,-0.28877607,-0.40956914,-0.16157943,0.020399867,0.063075714,0.0919042,-0.0027105904,-0.16924493,-0.003090888,-0.16402875,-0.116423994,-0.22788551,-0.12395313,-0.06200235,-0.00434396,0.010476614,0.015204477,0.006660806,-0.039541166,-0.26978067,-0.1723139,-0.2000299,-0.17227909,-0.058865663,-0.018470418,-0.025884591,-0.012329061,-0.009939631,0.05371005,-0.019737741,-0.32629305,-0.26645738,-0.13670896,-0.005094328,-0.03442751,-0.015714683,-0.04379452,-0.032550152,-0.059325945,-0.010115152,-0.038945276,-0.27091086,-0.2571644,-0.06668148,-0.01846889,-0.06495889,-0.039138418,-0.052392755,-0.038206868,-0.06296635,-0.027114639,-0.047758605,-0.18416324,-0.251315,-0.039981473,-0.028002676,-0.02813495,-0.058682352,-0.035835207,-0.04319683,-0.060033105,-0.07535451,-0.057623293,-0.3034203,-0.2923188,-0.015014015,-0.029788515,0.006952873,-0.038346045,-0.03968687,-0.051534075,-0.05150186,-0.03765602,-0.11109937,-0.35457394,-0.2819285,-0.021856517,-0.014639464,-0.04091294,-0.048760515,-0.026462533,-0.027699629,-0.05667316,-0.06988751,-0.14780289,-0.36590317,-0.47271112,0.004629246,0.048008483,-0.005420443,-0.048792437,-0.05913151,-0.013028478,0.0016421805,-0.087645195,-0.2622569,-0.035987042,0.03947561,0.011643425,0.041574795,-1.4557074e-05,0.021824561,0.023395507,0.038546495,0.050210316,-0.38240898,-0.037892044,-0.17888397,-0.005018721,0.09359308,0.018630896,-0.010848129,0.0822235,0.07247695,0.009260602,0.05992059,-0.011135213,-0.13953848,0.5062297,0.038098916,0.074252486,0.086481564,0.04272543,0.06527398,0.03989965,0.08871552,0.1274247,0.082074106,0.012136386,-0.015409451,0.15881452,0.12130662,0.08867899,0.082663395,0.06711977,0.1189467,0.1019847,0.14525375,0.05191787,0.07638865,0.050212916,0.10497212,0.08831078,0.13960546,0.091722056,0.06854183,0.08250433,0.110556446,0.13692,0.12487229,0.12871364,0.1358067,0.07555461,0.08700496,0.05371546,0.10012775,0.054833505,0.06175022,0.040350568,0.12721097,0.086688414,0.11374103,0.046748985,0.096676864,0.08778494,0.11847536,0.050998043,0.09215775,0.07677139,0.08357298,0.09636365,0.11177202,0.08036184,0.11092493,0.11802441,0.11265523,0.11893871,0.08680025,0.10827156,0.042690676,0.055875637,0.08587359,0.07835516,0.025713844,0.07508704,0.1130006,0.12165375,0.092946894,0.09822442,0.059305705,0.074234,0.095094725,0.12880674,0.11787711,0.099900104,0.09877504,0.15343377,0.15023579,0.080928,0.08518289,0.03605407,0.051286243,0.07216286,0.11710071,0.098093964,0.09677136,0.087395534,0.2066921,0.15968432,0.06094751,0.034810215,0.031269435,0.06094452,0.04767459,0.082792774,0.07039744,0.07771522,0.04820057,0.063866705,0.107539706,-0.070763394,-0.015907288,0.020014862,0.036812045,0.01806111,0.048931427,0.057202183,0.078573294,0.108625494,0.00792285,0.26166105,0.033619493,-0.1290074,-0.017413592,-0.0029465246,0.0018660103,0.03984217,0.063773155,0.09443012,0.012850787,0.047634102,-0.039407663,-0.072648674,-0.06797065,-0.039504807,-0.08264963,-0.065884605,-0.112488694,-0.107683085,0.16610649,0.03749251,-0.07829298,-0.040915933,-0.059039824,-0.05851353,-0.04415154,-0.042198684,-0.025513146,-0.035006884,-0.04103991,-0.040074132,-0.09406904,-0.045163907,-0.0752651,-0.03913947,-0.024844985,-0.03095174,-0.032939713,-0.050171662,-0.057606798,-0.018364768,-0.085736856,-0.086986125,-0.041815378,-0.014777554,-0.04325455,-0.06765785,-0.049390323,-0.045964945,-0.06100689,-0.03775885,-0.033689443,-0.036758672,-0.09599324,-0.05145234,-0.059109323,-0.039327078,-0.036592502,-0.026788732,-0.026393807,-0.043698672,-0.06116515,-0.06273439,-0.024132732,-0.07916331,-0.058668554,-0.05425232,-0.018151762,-0.041670613,-0.0006138544,-0.022444004,-0.011216654,-0.031356156,-0.040526427,-0.027303219,-0.048743214,-0.05071782,-0.031090276,-0.05158413,-0.0067069726,-0.026960904,-0.02048719,-0.029066559,-0.0617137,-0.04599699,-0.025175916,-0.08344474,-0.034946494,0.006376348,-0.017205184,-0.02780486,-0.0032722754,0.0073862574,-0.04456896,-0.036317486,-0.04551654,-0.048971288,-0.05545404,-0.09937994,-0.011864216,0.03157472,0.0038780523,0.020859906,-0.034597274,-0.010660609,-0.0022470762,-0.059954226,-0.046832044,-0.05677459,-0.03191512,0.006247414,-0.07512411,0.026123403,-0.015528901,-0.032335944,-0.04276987,-0.046766378,-0.056110725,-0.08990755,-0.038000286,-0.039188854,0.0070556663,-0.016678648,-0.021543914,0.030902373,0.027195502,-0.006533419,-0.01668464,-0.024689365,0.039180044,-0.016441414,-0.66074824,-1.1771652,-0.26680225,-0.3479303,-0.2755447,-0.44303343,-0.4082398,-0.37743306,0.104971215,-1.1456928,-0.80926645,-1.1696432,-0.43348947,-0.36183238,-0.41034952,-0.37279767,-0.44627672,-0.48619893,-0.45378098,-0.43133065,-0.59533125,-1.3022287,-0.3837587,-0.3630358,-0.3806284,-0.34544498,-0.3380884,-0.3651026,-0.38292134,-0.38619083,-0.43788344,-0.4466747,-0.48431703,-0.34361312,-0.42355016,-0.3468983,-0.3712353,-0.31929174,-0.34811184,-0.4086527,-0.36723766,-0.36466685,-0.37184775,-0.41327208,-0.4748489,-0.3872481,-0.3741792,-0.34971103,-0.36075616,-0.3401896,-0.42771536,-0.42334658,-0.34069964,-0.41002458,-0.4734097,-0.626375,-0.46266034,-0.33048004,-0.38480318,-0.3903166,-0.4075929,-0.3781608,-0.35787848,-0.36708757,-0.41160956,-0.37045678,-0.5032093,-0.49700573,-0.37723067,-0.38201994,-0.3748434,-0.3264219,-0.3874129,-0.3506368,-0.2908807,-0.39152908,-0.63491833,-0.5801109,-0.552384,-0.392096,-0.43548408,-0.37479016,-0.3731823,-0.38377988,-0.34417197,-0.38336965,-0.34784183,-0.37781116,-0.41013741,-0.4892433,-0.36531737,-0.39727262,-0.39147022,-0.3715816,-0.3420701,-0.38202205,-0.3742058,-0.32612672,-0.33237743,-1.1301117,-0.3971465,-0.47749564,-0.3817779,-0.32447097,-0.34126356,-0.36335045,-0.38255465,-0.28153235,-0.28057784,-1.260522,-0.6191461,-1.1408005,0.58128333,0.35924864,-0.5762174,-0.16828616,-0.093025476,-0.16956638,-0.3117462,-1.1948379,-0.7562144,-1.6645963,0.015924253,-0.002550635,-0.023426896,-0.06221069,-0.02547966,-0.04135556,-0.0216899,0.047977272,-0.022312794,0.040703822,-0.008890831,0.10109673,0.10620355,0.006961871,-0.02429505,-0.034310557,0.035753224,-0.056207478,-0.13025676,0.025070814,0.08272567,0.083455324,0.09748391,0.084406815,0.066498175,0.08159327,0.033822425,-0.0041393754,-0.026337355,-0.073346436,0.040556483,0.07029141,0.042309765,0.059382085,0.14931546,0.12611218,0.12375232,0.0800166,0.050383046,0.02701484,-0.0153345065,-0.010972575,0.017784921,0.043353535,0.11249144,0.15833656,0.12440279,0.08988638,0.04424959,0.10605623,0.018788151,0.027431488,0.029342687,0.016148362,0.042204913,0.16169494,0.15019993,0.12280234,0.08786489,0.05910179,-0.0045118346,0.012249101,0.011777176,0.006610525,-0.05016701,0.01006945,0.14544377,0.11953143,0.12900938,0.1102073,0.06598996,0.09786197,0.018514331,-0.0015054669,-0.045850128,-0.032540955,-0.029171064,0.11183158,0.10972005,0.09314382,0.027571395,-0.011677139,0.0022994755,-0.008560432,-0.018933408,-0.04557896,-0.06070061,-0.038003236,0.10970452,0.13124225,0.04306611,-0.021064369,-0.046025038,-0.043950196,-0.04309806,-0.07671802,-0.075206466,-0.05587355,-0.060167234,0.1540203,0.10607887,-0.032937497,-0.08556287,-0.10120528,-0.056838263,-0.115393296,-0.032271814,-0.017777914,-0.008625549,-0.01132527,0.031348947,0.07880508,0.030270867,-0.068681374,-0.013243597,-0.06145008,-0.07011661,-0.059068218,0.00070752634,0.036951844,0.03389563,-0.036059096,0.13987185,0.027721869,0.009279352,0.0679277,0.08043597,0.060413107,0.06811138,0.12225628,0.22323817,-0.009890884,-0.1023205,0.063792795,8.0751226e-05,0.10786665,0.080632135,0.07887832,0.04522082,0.04308824,-0.007350051,0.0060829,0.04148272,0.03688899,0.032086268,0.07647459,0.03080402,0.016811883,0.1078007,0.07129033,0.018907506,-0.08555171,0.006154737,-0.077132635,0.051867593,0.085961044,0.023471657,0.0171124,-0.0022765463,0.030129159,0.0694752,0.051738277,0.027634826,0.02455012,0.007225068,0.025949735,0.06628099,0.03685569,-0.021147616,0.06404578,0.09881484,0.026505226,0.021010457,0.03124727,0.05963868,0.043370172,-0.022610502,0.055259224,0.012930639,0.049567144,0.100797795,-0.041919038,0.052205913,0.10959821,0.07920379,0.06189415,0.036523186,-0.018040169,-0.00097287697,0.03470133,0.052685864,0.082133524,0.115983285,0.043987155,0.04560473,0.0069088717,0.047940474,0.00785671,-0.0066361404,0.06238777,0.012444501,0.059026983,0.033579793,0.08621578,0.07963245,0.08033982,0.09395516,-0.0025834264,0.022566611,-0.059255317,0.018373873,0.06381063,0.042472348,0.05870756,0.07382934,0.09793464,0.04773136,-0.0049225776,-0.006519018,0.022890963,-0.11064384,-0.03628907,0.04357288,0.08900358,0.086564295,0.07581773,0.03683067,0.06419081,0.012608596,-0.07485536,-0.02189635,0.008956512,0.094269045,-0.015527835,0.021596132,-0.01718437,0.059332266,0.014181885,0.098600306,0.065509066,0.1639072,0.037419144,0.1821863,0.21970582,-0.114839636,5.4309465e-05,0.041076895,0.06708405,0.06119689,-0.12063497,0.253269,0.23456714,0.22090551,0.25298473,-0.50407284,0.4223773,0.36299047,0.3398467,0.25110304,0.2251678,0.10093133,0.19801272,0.051201895,0.23940924,0.18323725,0.37099704,0.31380358,0.34971717,0.3485916,0.30139893,0.3370617,0.3295463,0.2551225,0.07041646,0.33636078,0.26120442,0.27294907,0.31950104,0.34925553,0.3164365,0.29949284,0.3333508,0.32068443,0.33083194,0.16616285,0.21217757,0.28932586,0.31461343,0.30535161,0.34396338,0.31265077,0.2976916,0.3085498,0.32941,0.36008346,0.2565638,0.12516046,0.22634132,0.25734442,0.29643613,0.30823135,0.31493092,0.20956258,0.30201504,0.35546955,0.3361165,0.23233922,-0.1683346,0.23877065,0.25350314,0.3341752,0.25776228,0.3012702,0.3059358,0.35200247,0.34968814,0.35975406,0.23379065,-0.00701734,0.22404118,0.31137428,0.3339934,0.31596696,0.3137955,0.31737164,0.3096246,0.3681953,0.31843966,0.13406351,0.11427199,0.1858297,0.3547884,0.34065178,0.29317993,0.31479096,0.29253107,0.32935676,0.32736993,0.19694453,0.104352586,-0.1965055,0.279174,0.30740437,0.33352044,-0.023002457,-0.05491371,0.020523336,0.19092688,0.1899217,0.22305828,0.19160825,0.27703023,0.21129094,0.2750432,0.02165471,0.073909305,-0.06653312,0.12868264,0.11157965,0.11283669,-0.083382145,0.2895037,0.24216737,-0.57394904,0.013849141,-0.06066495,-0.054842293,-0.10039973,-0.07723179,-0.039776377,-0.025960773,-0.0689055,-0.0054444345,0.011619314,0.0045894627,-0.13926125,-0.008248101,-0.04994468,-0.10215924,-0.058780804,-0.027759021,-0.06556506,-0.12794329,-0.054661855,0.090732634,0.13096935,-0.026145743,-0.11196146,-0.08211613,-0.07932973,-0.027249254,-0.02023314,-0.019832788,-0.042117238,-0.010475268,0.06973557,0.17268053,-0.05976972,-0.0008896887,-0.044863146,-0.032839302,-0.020333827,0.02721396,0.0032335077,0.07845758,0.055216547,0.13088581,0.07650249,0.002650122,0.02901446,0.046486285,0.03971025,0.030324461,-0.0034646145,0.014597752,0.03224228,0.049633425,0.08802527,0.02811247,0.062256966,0.03747598,0.05434238,0.047815714,0.109158896,-0.008230239,0.03706603,0.0070697996,0.02731621,0.002447696,0.046562728,0.004667658,0.095229834,0.071083345,0.05267941,0.015386309,0.03827981,-0.0066927816,-0.017659135,-0.011237387,-0.062160283,-0.026295217,0.07145149,0.15038161,0.07499816,0.0684335,0.0143015385,0.08439489,0.0076720174,-0.048687138,-0.08207183,-0.10491843,-0.020783233,0.16220707,0.14104736,0.08261163,0.048889466,0.07264387,0.015287458,-0.022304026,-0.02714399,-0.09724566,-0.08186591,-0.09180095,0.12377512,0.10433772,0.02816342,0.010950238,-0.04350664,-0.008618321,-0.032956634,-0.06515725,-0.07321672,-0.09321493,-0.006911552,0.036488116,0.12353444,0.10175367,0.048635587,-0.08912233,-0.040962238,-0.039738264,-0.08183884,-0.075371735,-0.035638675,0.0073820245,-0.018717982,0.07823717,0.05079567,0.03508474,0.055731434,0.044941396,0.10921069,0.14541101,0.021228982,0.31055495,0.005106769,0.3298776,0.08025105,-0.06775907,-0.027855916,0.08120369,0.0695079,0.09156764,0.112826526,0.05105398,0.031660825,-0.08266334,0.085761175,0.04727444,-0.009254412,0.02357174,0.08693261,0.091906525,0.06458625,0.081642695,0.073830426,0.023537464,-0.041085858,0.0854571,-0.005172929,0.079957664,0.034712683,0.003907316,0.033459574,0.061780356,0.048077114,0.056966703,0.08938567,0.034550928,0.04822309,0.06493027,0.04532092,-0.008757312,0.049967404,0.10959819,0.05591659,0.049174882,-0.0031310986,0.018419856,0.036642373,0.029652955,0.08231715,0.031475835,0.035271484,0.06842783,-0.034891833,0.10947869,0.045479223,0.048519842,0.043000817,0.027443044,0.0627141,0.045135252,0.022339635,0.031392206,0.06266495,0.14266802,0.0611269,0.05432676,0.05643871,0.060810488,0.02242214,0.04276363,0.11777411,0.00021282482,0.04097886,0.006307075,0.06705168,0.13138627,0.06802234,0.056952838,0.028162235,0.03326699,-0.042419065,0.03131552,0.09625592,0.026857227,0.06609585,0.09957178,0.084530264,0.059364654,-0.106681064,-0.032310564,0.0532618,0.017267736,-0.015577924,0.04751107,0.03231759,0.09092619,0.06546657,0.043214362,0.031332776,-0.09020373,-0.012984776,0.004557467,0.020830909,0.04892292,-0.03203275,0.031194136,0.094950914,0.09843873,0.051608562,0.017576506,0.12619263,0.09317318,-0.03123327,-0.19029312,0.043001816,-0.32047358,-0.32211462,-0.25719118,-0.1721301,-0.35882282,-0.33796337,-0.28040448,0.06396277,-0.16076876,0.06307554,-0.2669923,-0.24566567,-0.22025172,-0.06407679,-0.111098774,-0.11355182,-0.036088742,0.06088992,-0.24617705,0.04874876,-0.30626073,-0.23835427,-0.112741254,0.019629486,0.007556563,0.0043382817,0.021032462,0.06368811,0.08091006,0.12210718,0.036184814,-0.27797583,-0.022818606,0.030079998,0.06012024,0.032240685,0.04297824,0.03309301,0.037581004,0.05208766,0.07918603,-0.055594087,-0.005731411,0.058875594,0.040680476,0.039231077,0.05810116,0.018126577,0.0069500287,0.022602897,0.0069852676,0.06413749,0.048517562,-0.061678,0.039295193,-0.018614743,0.025474502,0.035032712,-0.06912696,0.0034956858,0.03088252,0.05178395,-0.013467165,-0.14002533,-0.035167906,0.050434936,0.035018124,-0.011269622,0.008406075,0.023531817,0.042410787,0.03402768,0.021482758,-0.054731026,-0.31099594,0.03873207,0.032349024,0.04588236,0.05740244,0.02894155,0.026546178,0.034980703,0.08657718,0.0013201168,-0.17415936,-0.35223454,0.052228898,0.04714657,0.042842764,0.07972156,0.10130799,0.062541775,0.053331,0.028524345,-0.10968703,-0.24897549,-0.40932986,0.045782883,0.07141204,0.008923729,0.0517122,0.07636458,0.042267296,0.02908293,-0.024751179,-0.17700915,-0.20538756,0.053838897,-0.16818172,0.061941233,-0.12815732,-0.43200114,0.1640794,-0.13477527,-0.10952282,-0.18686172,-0.2817391,0.06810189,-0.16051742,0.57084304,0.03526283,-0.055808716,-0.1287953,-0.055316355,-0.041754365,-0.048214797,-0.04240232,-0.08113599,-0.174041,-0.076635905,-0.04283414,-0.046307888,-0.14957398,-0.1395082,-0.1221592,-0.10241956,-0.07586968,-0.083896436,-0.116435975,-0.199201,-0.15217198,-0.03648358,-0.112017825,-0.10050909,-0.14880285,-0.09068071,-0.039819773,-0.040200993,-0.10148998,-0.027007222,-0.147763,-0.121084474,-0.052018177,-0.05052481,-0.08405445,-0.11484484,-0.07219695,-0.031895824,-0.031057674,-0.059504714,-0.05097025,-0.10994177,-0.105628714,-0.038438935,-0.031830654,-0.051173504,-0.0447413,-0.033169273,-0.018716073,-0.058440153,-0.00027766213,-0.026835425,-0.032108445,-0.036609367,0.011765393,0.0009157194,-0.033480756,-0.019994512,0.0026007977,-0.016883317,0.02927285,0.014596215,-0.042027526,-0.052998714,-0.026661506,-0.020236207,-0.03714633,-0.015798768,-0.025162388,-0.035940155,-0.05885508,0.038004667,-0.037668128,-0.027757479,-0.02221026,-0.06588556,-0.047177993,0.012557615,0.017998345,-0.0058559566,-0.0163019,-0.021053467,-0.002275875,-0.03823165,-0.062267773,-0.052885465,-0.051638935,-0.050757024,0.08719397,0.09316291,0.088896446,0.015027872,0.007724028,-0.08881863,-0.037748925,-0.054960277,-0.075841874,-0.09877137,-0.11236594,-0.013173711,0.11004528,0.09237628,0.070532545,0.026571522,-0.013916338,-0.07298595,-0.07718853,-0.10762392,-0.13496426,-0.098262444,-0.047865294,0.048249222,0.0044824467,0.021465857,0.0067866943,-0.0033877052,-0.03741544,-0.053762972,-0.12978557,-0.07420004,-0.039174628,-0.035370715,0.057468764,0.13106044,0.08259628,0.10458315,0.056884374,0.11264934,0.03942271,0.06980095,0.10509958,-0.012743648,-0.0034594499,0.097693086,0.053004615,0.059968878,0.026228586,0.04526918,0.014406387,0.06839966,0.09314019,0.095902115,0.099808596,0.09769134,-0.02900435,0.043296583,0.042078372,0.07820457,0.05260109,0.029507542,0.06427785,0.031205285,0.0646965,0.11579084,0.06823281,0.007149994,0.010270457,0.046296198,0.05751957,0.03851418,0.028201025,0.045352153,0.075520456,0.09453761,0.0404813,0.011847481,0.026399849,0.028760033,0.039465446,0.022785313,-0.033214767,0.038902484,0.023337288,0.018619915,0.007958057,0.093613334,0.00056262244,0.0038799352,0.043421675,0.04624571,0.011354277,-0.0053976635,-0.022782512,0.03503897,0.052555416,0.039069247,0.059775814,-0.024776839,-0.0081010405,0.016870376,0.022209574,0.0201632,0.021188714,0.036851335,0.015507877,0.03962497,0.04201431,0.048007455,-0.074099846,-0.051435556,-0.00022367189,0.02502208,0.038593877,-0.0024207681,-0.0040900167,0.025762657,0.061594825,0.06133811,0.08938899,-0.0850632,-0.03223648,-0.04853372,-0.013511906,0.035747357,0.05757266,0.060132757,0.045969,0.04838771,0.052106153,0.12968074,-0.36740735,-0.46833062,-0.021739693,0.06351775,-0.012464824,-0.011267889,0.055411313,0.019784633,0.046858117,0.04598269,0.15892678,0.009051124,-0.09605785,0.067478284,0.046026975,-0.09727203,-0.04204561,0.027492508,-0.0028368374,0.10735053,0.13468088,0.037180085,-0.17113747,0.28701273,0.32834923,0.26241338,0.40182906,0.10499282,0.41853157,0.41360462,0.39590076,0.2971842,-0.09915088,0.2899043,0.58210444,0.47917816,0.37971383,0.15951283,0.09455354,0.30350965,0.41455477,0.42139226,0.5176693,0.30744436,0.2516267,0.3690339,0.32496578,0.23015407,0.06282308,0.098755695,0.11795098,0.14314881,0.18882138,0.35289326,0.058804702,0.3347413,0.29624516,0.1567194,0.06343111,0.12642531,0.034623235,0.067659736,0.044916503,0.11213202,0.21575877,0.197728,0.12152018,0.16232873,0.00013526296,0.059527654,0.026367567,-0.057807144,0.061325964,0.056921277,0.10345808,0.074966066,-0.16928963,0.299377,-0.017026722,0.0064140246,-0.0046902825,0.007617058,0.002342184,0.033770934,0.107358836,0.062051445,-0.06678464,0.27810612,-0.33374965,0.031798273,-0.061422497,-0.04057385,-0.09755799,0.026977977,-0.0038339796,-0.044249512,0.07208323,-0.10872615,-0.198302,-0.4600278,-0.21529685,-0.07858354,0.052765507,-0.05712606,-0.047099695,-0.087016255,0.05749741,-0.06492081,0.09009071,0.012293529,-0.73944664,-0.01831341,-0.2114164,0.034277517,0.068489246,-0.039558906,0.02458161,-0.050062668,0.12627755,0.18616165,0.39977393,0.3048768,-0.05330045,-1.1292658,-0.46417183,-0.16598652,0.13780189,0.07089611,0.16564922,0.24551971,0.4584171,0.30034477,-0.08659414,0.29835296,-0.7574591,-0.6965303,0.08621072,0.05444923,0.16669092,0.14375675,0.07391938,0.30906764,-0.16026539,0.6505654,0.0032220238,-0.16058853,-0.10941992,-0.1383342,-0.019401085,-0.05425605,0.032506876,-0.105001464,0.017147379,0.05481034,0.020647297,0.01807866,-0.010211789,-0.0051858346,-0.049719155,-0.044145934,-0.048415165,-0.08098303,-0.02394268,-0.08699506,0.076707214,0.07321912,-0.0074591488,0.01990875,-0.016566884,-0.04764635,-0.05657127,-0.035183933,0.0028336481,-0.008799812,-0.004005584,0.08590515,0.14429057,-0.008268969,0.07734007,0.0669002,0.03476344,0.022831637,0.059193626,-0.004363536,0.1737823,0.07367631,0.1416295,0.12203783,0.06179627,0.08406551,0.08074943,0.08159453,-0.0064122584,-0.017366324,0.030027144,0.054389045,0.044657037,0.14324014,0.12109438,0.01705059,0.03748781,0.1127781,0.07197478,0.09248344,0.004222852,0.03864832,0.049433514,0.05532789,0.082244806,0.12859239,0.0034469308,0.07195865,0.059222016,-0.0006048948,0.018304039,0.07070543,0.027445877,0.018577922,0.08945953,0.09766092,0.0631376,0.040294044,0.081270225,0.022486491,0.0077083884,0.023370992,0.08481267,0.034392018,0.030419735,0.097350776,0.05373341,0.08876723,0.08722714,0.051790223,-0.032770593,-0.04410569,0.022059916,0.008272328,0.0010930117,0.062209927,0.07777836,0.10299652,0.015650582,0.060712308,0.05981065,-0.015451258,-0.05785743,-0.023592647,0.0057402714,0.017018879,-0.04076397,0.02117768,0.0662361,0.12564422,0.042010546,0.042760313,0.034356523,-0.09621887,-0.11962739,-0.029959332,-0.03008221,-0.02226383,-0.08081215,0.06527785,0.047857646,0.0019786193,0.07788168,0.16677399,0.07467605,0.14045665,0.16297984,0.13303795,0.1630515,0.11176553,0.3622559,-0.03555289,0.081957564,0.026608406,0.1428272,0.10824668,0.10720363,0.11866071,0.10154018,0.099666856,0.13678072,0.038896162,-0.060242508,0.15309028,0.11413717,0.00871563,0.10791717,0.06949182,0.083812386,0.07892566,0.06347309,0.07543612,-0.02863124,-0.08492328,0.068597235,0.063975364,0.07762538,0.09674385,0.05606788,0.026146648,0.080492035,0.05878511,0.033952817,0.011844378,-0.021468516,0.06686216,0.045340706,0.05662391,-0.015765786,0.07075861,0.07467383,0.021507706,0.062160373,0.013034628,-0.072000064,-0.0049310992,0.045834824,0.039707348,0.070944406,0.022596752,0.07048194,0.04158138,0.04538964,0.090266734,0.03508153,0.0491856,0.041014392,0.07121673,0.03881495,0.085640386,0.046930935,0.042897243,0.03137179,0.062330835,0.062394157,-0.0027830102,0.0328969,0.035400935,0.1077478,0.09287507,0.047370896,0.042414963,0.05498128,0.099786006,0.09408865,0.065720394,0.032363776,0.044461966,0.026280638,0.05960551,0.06712882,0.10193904,0.057031523,0.06517212,0.055102162,0.06064756,0.056202985,0.0991308,-0.06482562,0.05130441,0.2277883,0.08645338,0.09680836,0.10715425,0.07835128,0.0674999,0.030132266,0.05582155,0.07162948,0.019141922,-0.12530786,0.015207189,0.06788313,-0.038372304,0.09143326,0.08805525,0.041127827,0.051140346,0.078992836,0.0458404,-0.009627914,0.035603024,0.2066468,0.18477629,-0.009410819,0.08680049,0.10712769,-0.06117954,-0.14479545,0.009065417,-0.12415621,0.23125617,0.21029319,0.20184201,-0.003661027,-0.20550753,0.044580076,0.23237345,0.19470084,0.1248919,0.21929325,0.3169713,0.29514006,0.18264285,0.20300773,-0.011158077,0.22348395,0.25446156,0.30089638,0.27894238,0.26095748,0.32841635,0.23010811,0.27640864,0.1790664,0.19849145,0.29863906,0.329241,0.3115809,0.31989923,0.24812397,0.27851576,0.3045848,0.24995863,0.2889221,0.13838267,0.3355145,0.280598,0.28129402,0.2811199,0.26385805,0.2941503,0.28005993,0.277344,0.2650409,0.25897223,0.21847168,0.1539636,0.25522202,0.2895312,0.26246673,0.27371588,0.23641513,0.28964728,0.26921886,0.29257393,0.311796,0.24412926,0.16174582,0.24598856,0.2881506,0.24139039,0.29955876,0.28383663,0.3227713,0.3055191,0.2630857,0.277558,0.20456989,0.20247234,0.21960397,0.23929937,0.2751995,0.3217377,0.27117902,0.27379128,0.30048245,0.27707285,0.31488395,0.09657781,0.10677412,0.22540514,0.23344448,0.24026152,0.29796454,0.26535505,0.28732508,0.30893373,0.2916852,0.38645822,0.16219948,0.20852523,0.16135709,0.110266015,0.052177884,0.1245508,0.20745449,0.14823961,0.24964811,0.26686728,-0.36650938,0.22389713,0.20901288,0.21050872,-0.001005892,0.006095765,0.5320239,0.097188294,-0.025061449,-0.109924726,0.17562263,0.22445822,0.15991874,-0.5291708,-0.03201782,-0.056926176,-0.090914786,-0.054106105,-0.023320504,-0.06825668,-0.034512587,-0.06416886,-0.08457376,-0.0066253324,-0.03166852,-0.12271998,-0.14070426,-0.12660609,-0.046764456,-0.026228134,-0.10543967,-0.047073893,-0.041337308,-0.09176683,-0.16335241,-0.12080686,-0.08719126,-0.12632242,-0.10495991,-0.03784611,-0.094065994,-0.075150006,-0.0036046016,-0.06343917,-0.066772744,-0.12020446,-0.082558446,-0.06739175,-0.1154203,-0.03703234,-0.0302991,-0.09077849,-0.015300147,-0.028840913,-0.010573256,-0.018144993,-0.08519211,-0.11259415,-0.039757665,-0.06818772,-0.03748986,-0.030218905,-0.035483364,-0.027629811,0.010075979,-0.041978955,-0.011670617,-0.058851585,-0.03811104,-0.048928283,-0.07656655,-0.05121115,-0.04033985,-0.07068935,-0.04674216,-0.02407307,0.018669585,-0.0034990632,-0.08209274,-0.014521596,-0.047258228,-0.07622924,-0.04961983,-0.04642627,-0.08966991,0.059169993,0.033508588,0.061670583,0.026139246,0.061296333,0.030052584,-0.041267607,-0.108615585,-0.065817796,-0.043404855,0.006771868,0.047851924,0.016280066,0.10114662,0.1112589,0.0964723,0.08131868,-0.08168584,-0.11338757,-0.13426013,-0.021296192,0.011428477,0.06768534,0.1327767,0.14009234,0.1395984,0.13886616,0.164716,0.02607175,-0.06830488,-0.16370593,-0.011146841,0.006293452,0.09022009,0.12601888,0.19968534,0.17283133,0.14485787,0.19495882,0.03131239,-0.092472784,-0.08841119,-0.027395684,-0.018864537,-0.0032383993,0.028413976,0.17844135,0.18643337,0.058628365,0.006160895,0.03162916,0.12489916,0.15521346,0.037179764,0.04405399,0.04572083,0.011351979,0.0049944757,0.06582916,0.13772921,-0.00070371706,0.164171,0.07498503,0.09154737,0.04007424,0.008476766,0.016574448,0.051185194,0.014250516,0.05332714,0.11569976,0.055695225,0.03648239,0.11777202,0.07907247,-0.020169394,-0.0105300695,0.019258624,-0.0067495424,-0.005149738,0.022208186,0.008054282,-0.0019049617,0.07149623,0.03483085,0.10515314,-0.019092293,-0.023801684,0.018741716,-0.003583901,0.027500942,0.0055396957,0.0149470335,-0.008899678,0.061745696,-0.013661101,0.049405783,-0.010027359,-0.026604977,-0.0053155012,-0.022504,0.0030037332,0.0023744819,-0.009923353,-0.035490397,0.06556668,0.026852943,0.011791689,-0.053002857,-0.017397495,-0.042245273,0.0022810425,-0.014256057,-0.003559953,-0.073055394,-0.00933603,0.07100416,0.02512101,-0.030393807,0.0033459235,-0.011470264,0.007827779,0.0033009471,-0.046771437,-0.013711179,-0.013868413,-0.014744174,0.0122056315,0.019430935,-0.015835294,-0.023284663,-0.07214064,-0.014625048,-0.03947345,-0.031305596,0.024745174,0.023290845,-0.05971742,0.09140426,0.025173774,0.05996039,0.013143502,-0.018848987,-0.02306181,0.013076539,-0.034073275,0.11527849,0.084036954,-0.06538012,0.01497522,0.121628605,0.013305136,-0.036317367,0.00065949856,0.008433764,0.019371519,0.022180164,0.03731482,-0.014112053,-0.09880171,0.016872846,0.06522141,0.062376145,-0.02981169,-0.012055508,-0.0083295,-0.021570072,0.0059408173,-0.07680238,-0.1432943,0.028001467,-0.17027608,0.08354658,-0.002799235,-0.20961916,-0.089169726,-0.3248052,-0.22217144,0.02023995,0.075669274,0.10945601,-0.17438634,0.0926268,0.041575488,-0.032203432,0.023088561,-0.091769025,-0.1304645,-0.11590712,-0.029085215,0.10163522,0.0007088757,0.10441679,0.11369746,0.025405379,-0.06484984,-0.15526065,-0.056923073,-0.047507774,-0.061627805,-0.026245812,-0.022250155,-0.052796636,-0.05408845,0.09892667,-0.12722674,-0.088573396,-0.06773045,-0.07561276,-0.10041478,-0.11380775,-0.11385528,-0.026493771,-0.0639358,-0.26403493,-0.1388386,-0.05193781,-0.12752636,-0.16233672,-0.081129625,-0.10270054,-0.07208593,-0.14720131,-0.09184211,-0.06300756,-0.079845,-0.13458498,-0.0624543,-0.08409253,-0.098816104,-0.1324705,-0.15813655,-0.18543227,-0.15877914,-0.16415435,-0.007187712,-0.17775059,-0.18098289,-0.049118295,-0.12113551,-0.103465244,-0.15597211,-0.1658445,-0.15026124,-0.19159074,-0.22444487,0.064550005,0.11516717,-0.08210341,-0.03478346,-0.10250767,-0.15433106,-0.10886663,-0.16928463,-0.19377294,-0.2413293,-0.017603327,0.0761704,0.11660375,0.04588168,-0.009145148,-0.054744978,-0.13466986,-0.12948133,-0.20395724,-0.20082587,-0.099429496,0.15591128,0.25344113,0.29474387,0.06531579,-0.16722095,-0.18157682,-0.17849287,0.071034975,0.10408152,0.12703018,0.1781688,0.3521874,0.25049466,0.08486635,-0.15460698,0.061169177,0.054312125,-0.39484602,0.06895714,0.27908877,0.32834443,0.25844914,0.26949283,0.086999215,-0.18454541,0.7345749,-0.04642121,0.12312461,-0.025440244,0.058106992,0.055338774,0.0076682856,-0.032455035,-0.03301166,0.001046636,0.06726459,-0.04427243,0.05012302,-0.0024196615,0.04029019,0.034005076,-0.059577588,-0.0005971766,-0.06051202,-0.013922326,-0.0936332,-0.05377427,0.0060592387,-0.027415344,0.002606629,0.0058433707,-0.051745523,-0.046812687,-0.057281613,-0.05399435,-0.08875372,-0.1090381,-0.08180541,-0.07268651,-0.06133887,-0.08697128,-0.09019667,-0.052654777,-0.037938345,-0.022491584,-0.034014236,-0.06849,-0.04492372,-0.11735118,-0.028589858,-0.06793093,-0.07606761,-0.06297932,-0.034542732,-0.0001387897,0.0021685325,-0.031179706,-0.0027716,0.008143588,-0.04145575,-0.025873004,-0.04978174,-0.055942222,0.0038186563,-0.011289244,0.05050585,-0.039619796,0.031332944,0.023713065,0.03211648,-0.023093952,0.01752652,0.0019446887,-0.044315975,-0.017870516,-0.011352497,0.036642846,0.10152996,0.026445035,0.056732822,0.07094975,0.09706368,0.05727578,-0.025926474,-0.06342756,-0.03567751,-0.0042791776,0.051652323,0.051652722,0.06495416,0.10720304,0.108958945,0.1344002,0.078218505,-0.034458365,-0.044144407,-0.058552373,-0.027677113,-0.032285497,0.049450044,0.088984124,0.09270508,0.14270426,0.13866635,0.15144706,-0.010812852,0.0129964175,-0.04298125,-0.065106034,-0.023726039,0.039046712,0.110899255,0.15245096,0.16693689,0.16701715,0.13348475,-0.023524703,-0.0063784216,-0.017273288,-0.06813887,-0.011783197,0.033920255,-0.009987054,0.097238876,0.11795054,0.10782344,-0.051043946,-0.038235355,0.00130799,0.090107374,-0.021461427,0.023781689,0.02009673,-0.011257459,-0.0028964193,0.03220913,-0.077483885,0.050117522,-0.056917835,-0.024149273,0.06757001,0.031767327,-0.0172351,-0.009176019,-0.010054301,-0.09371584,-0.0076473644,-0.01267056,0.046410613,0.057373684,0.04005266,-0.039808095,0.07889035,0.021958359,0.00553225,-0.0006885938,0.007432658,-0.05313226,-0.046206914,0.0035526603,0.03276976,0.023681946,0.039934102,0.04046476,0.02130404,0.058250148,0.032902014,0.042195015,0.05335961,-0.010006448,0.027895655,0.025576336,0.03743719,0.054840297,0.083266824,0.060316067,0.059509534,0.061671402,0.026677173,0.0632853,0.026501471,0.045458958,0.078173794,0.04024464,0.05463972,0.054624643,0.051967137,-0.05230365,0.05728037,0.019090323,0.003139918,0.021257136,-0.00064953207,0.10297231,0.07172469,0.04270944,0.0682997,0.019782582,0.07411947,0.07084051,0.014628732,0.024812821,0.041270953,0.038756426,0.024265233,0.0165639,0.04558957,0.05987185,0.05568048,0.053825334,0.007754999,0.0238908,0.0045464844,-0.018984178,-0.017640945,0.1199534,0.062630914,-0.004119849,0.0729168,0.023426775,0.018724756,0.0075101443,-0.0032711914,0.07929496,0.06903446,-0.059458334,0.1882966,0.04586555,-0.018045727,0.005269582,-0.024872953,0.027143631,0.023830127,0.015286192,-0.0091731865,-0.0522586,-0.045657836,0.011876414,0.058527276,0.039905947,0.020244014,0.073355645,0.029558001,0.02608293,-0.052645378,-0.040391702,-0.09542878,-0.009963039,-0.14519934,0.059995707,0.080047555,-0.41099584,-0.2920507,-0.24421239,-0.06714089,-0.16357495,-0.27823964,0.080494024,-0.13130867,0.055824384,-0.17949457,-0.28852063,-0.17446461,-0.12908337,-0.13314997,-0.08134716,-0.05201963,0.016589347,-0.23941626,0.040646642,-0.28080505,-0.20711663,-0.18418986,-0.111479305,-0.0057799104,0.02273073,0.0037861029,0.01925773,-0.024495032,-0.16425319,-0.22998925,-0.26278523,-0.21725276,-0.07571425,0.07566162,0.02832555,0.010495676,0.035123587,0.061996717,0.015145979,-0.16421047,-0.28856453,-0.26263985,-0.21673937,0.05887051,0.12510212,0.08091576,0.06676362,0.07380886,0.08717232,0.07948391,0.08007821,-0.15257809,-0.16500261,-0.21787433,0.006088702,0.03725403,0.08228231,0.0153268725,0.025106793,0.09382704,0.117576025,0.06904783,-0.069220595,-0.25061464,-0.15540174,-0.00020098986,0.03222143,0.04417049,0.042389013,0.06289856,0.09325702,0.039079186,0.07581395,0.031796,-0.2518267,-0.15878335,0.07501282,0.092007525,0.045573764,0.048832316,0.027826784,0.063370645,0.073826276,0.049873907,0.026124818,-0.26270372,-0.13087678,-0.047032356,-0.08722681,0.08341269,0.032181118,-0.0007549243,0.08454897,0.06574941,0.0925175,0.05792572,0.04218447,-0.39247528,-0.11818675,-0.15140253,-0.13805902,0.12105873,0.09625907,0.12509121,0.16905461,0.057488233,0.045910686,-0.13913424,0.04465577,-0.3771777,-0.4410912,-0.26593128,-0.005007027,0.0171058,0.049071237,0.1264285,0.059036624,-0.17306669,0.4898603,0.045551036,-0.03014065,-0.00892088,-0.08830197,-0.034525376,-0.041961696,-0.018141007,0.012214484,-0.09164151,-0.02442335,0.025663879,0.026371265,-0.00089664396,-0.070177056,-0.074470386,-0.105635546,0.010256067,-0.042350337,-0.057841104,-0.038331047,-0.0040216935,-0.09779528,0.01060644,0.0136534665,-0.06983326,-0.051694747,-0.0063138017,0.016950406,-0.05036496,-0.032105245,-0.098065056,-0.054413766,-0.024176547,-0.05413482,-0.13634983,-0.087550685,-0.0021321177,0.0069633964,0.037865788,0.021875786,-0.01886112,0.00446777,-0.042862915,-0.003019618,-0.058159962,-0.13953476,-0.012764061,0.007657103,0.0010589988,0.049837682,0.016639352,0.055196244,0.07372788,0.005847629,-0.003310788,-0.019658158,-0.021022353,-0.02199221,0.05069788,0.060474657,0.04341797,0.084716566,0.06268345,0.047277417,0.05123432,0.062762186,-0.0036494113,-0.051254395,0.0031504033,-0.019134788,0.04152361,0.036314435,0.019280965,0.09190508,0.046478856,0.10497895,0.085111804,-0.07494602,-0.08511026,-0.018871127,0.025095904,0.072087936,0.09714074,0.06537616,0.052394602,0.078159995,0.12608631,0.11495773,-0.0049819406,-0.08950178,-0.010461475,0.007863071,0.006264991,0.049363364,0.072459504,0.05435442,0.13150094,0.15856844,0.15490115,-0.09981984,0.07080479,-0.06066804,-0.11376466,-0.06969266,-0.060777422,0.04566736,0.10129143,0.108160175,0.19090496,0.16097412,0.008287898,-0.0015447638,0.05682282,-0.1498367,-0.028339772,0.030527368,-0.0038636285,0.030961284,0.125655,0.12868701,-0.011270095,0.04036864,-0.0031239218,0.08377996,0.043044217,0.012118092,-0.023593063,-0.03417692,-0.05867799,0.063085444,0.1719122,0.016028292,-0.04198088,0.04870871,0.03980886,0.032876022,0.03501534,0.051979154,-0.030638408,-0.065804265,-0.0017408188,0.09651984,0.04648749,0.08731032,0.045354597,0.01759599,0.12808578,0.069098376,0.014346934,0.010103902,-0.035701297,-0.12964131,-0.029336939,-0.035155017,0.11901766,0.07951225,0.07277149,0.08139244,0.039652456,0.036773074,0.040816054,0.033394698,0.049648095,-0.038918115,0.033758473,0.06538495,0.08919783,0.06609317,0.057954554,0.088801615,0.073858574,0.07925195,-0.0074335155,0.0114657665,0.024500605,0.04614671,0.0789449,0.047212187,0.037020538,0.086085826,0.07787739,-0.028640602,0.08724508,0.02018614,-0.014578298,0.022007357,-0.010957099,0.073154666,0.07031652,0.03772138,0.0650558,0.06710274,0.11826042,0.08042075,0.03104744,0.028124027,0.045302447,0.0015719172,0.08528679,0.06768602,0.063284986,0.069100566,-0.006445921,0.06165705,0.012668318,0.0035743888,0.0073321457,-0.017408863,0.011800883,0.10268513,0.09569844,0.008485626,0.06775564,0.028476564,0.040587023,0.01602844,-0.02933697,0.05374672,0.04648111,-0.020924829,0.30571145,-0.005290533,-0.021475246,-0.018553432,-0.008884982,0.005262303,0.0019302674,0.0040691537,-0.0128077995,-0.00713168,-0.028060118,-0.029747607,0.06986941,-0.0007784056,0.04837006,0.09775914,0.037907105,0.028294094,-0.008224122,-0.039580956,-0.06641444,-0.0009890503,-0.14481196,0.05727685,-0.42127186,-0.35737652,-0.31001368,-0.3681118,-0.29733625,-0.3830881,-0.028807042,0.07251364,-0.18780477,0.04946209,-0.09904962,-0.066457994,-0.18127193,-0.034021057,-0.12095836,-0.10138821,-0.17791578,-0.13688052,-0.17978504,0.032583408,-0.415117,-0.19585901,-0.08118331,0.033280477,0.06534932,0.040717445,0.02530373,0.054378692,0.0014168809,-0.3334103,-0.3480164,-0.3376202,-0.26262283,0.03536707,0.08186413,0.012131511,-0.036233023,0.0027728495,0.060075432,0.041708395,-0.05032382,-0.8567097,-0.41691652,-0.2367173,0.029297486,0.070735976,0.026719721,0.011351579,0.03404893,0.013944909,0.024983283,0.053508945,-0.063937016,-0.26600528,-0.24346466,-0.010798634,-0.016062357,0.050866112,-0.02158401,-0.016086185,0.041979518,0.024838416,0.024737107,-0.021690639,-0.36977285,-0.20006336,-0.020550912,0.017511712,0.007993826,-0.0015489615,0.019919679,0.04791642,-0.016565505,0.047872446,0.00096598157,-0.55217,-0.021293344,0.082952455,0.028664477,0.014295023,0.012367644,-0.01872235,0.0143077355,-0.0012641114,0.021278283,0.019577576,-0.28722647,-0.055115823,-0.015769558,-0.017706301,0.053265147,-0.012305763,-0.026136046,0.012121921,0.032551996,0.037587624,0.043713618,0.033611313,-0.453386,-0.13051285,-0.07387436,-0.0431242,0.06414504,0.0543398,0.09086366,0.13699076,0.019705288,0.017875629,-0.18982296,0.03888727,-0.36673668,-0.4000966,-0.46976438,-0.31834325,-0.21943162,-0.023307955,0.09857501,0.034894876,-0.1838391,0.49805728,0.042381536,-0.09092238,0.013975151,0.015654134,-0.016719436,-0.018306036,-0.06709717,-0.049478892,-0.19570719,-0.013244044,0.032986265,-0.007542962,0.049914066,0.025455955,-0.005331852,-0.022037815,-0.029695712,-0.043915525,-0.063844174,-0.121869534,-0.060189478,-0.017436577,0.04521324,0.022531651,0.0672488,0.020535922,0.016748456,-0.009645011,-0.046827286,-0.104223885,-0.13277593,-0.051613633,-0.02148583,0.04713082,-0.026923478,0.002019733,0.023415653,0.0074393884,-0.04814964,-0.044757385,-0.042459637,-0.11692263,-0.05614542,-0.013121302,-0.0019315818,0.009479273,-0.020160595,-0.0573825,-0.045623526,-0.017961392,-0.0538494,-0.030337226,-0.08893334,-0.009158714,-0.03733511,-0.026359173,-0.05591231,-0.02769018,-0.00033495584,-0.07619455,0.049442325,0.03535077,-0.018023992,-0.13076945,-0.006117947,0.012796274,-0.04494319,-0.06762344,-0.07540553,-0.053674582,-0.0722844,-0.027438069,-0.032732576,-0.027453862,-0.046342656,0.0042548412,0.019401874,-0.07357467,-0.082772784,-0.09513853,-0.068096064,-0.03847125,-0.029472673,-0.03630805,-0.075798795,-0.17555398,0.0051066023,-0.0035714395,-0.06839962,-0.14210385,-0.15088637,-0.12452104,-0.03998979,-0.032598943,-0.029751005,-0.047753524,-0.07874891,0.0056896466,-0.08700975,0.012025593,-0.10319779,-0.13401891,-0.0709143,-0.04877835,-0.018780472,-0.015293117,-0.014235518,-0.1222341,-0.042587817,0.026530983,-0.009424233,0.0045635235,-0.087525696,-0.07792815,-0.075879,-0.037935734,-0.03674744,-0.046620585,-0.20198111,-0.021373268,0.0442602,-0.037893664,0.00026621064,-0.024511818,0.0071123247,-0.013791263,-0.02583955,-0.0072038663,0.003388494,0.0569944,-0.032013852,-0.031588547,-0.38889128,-0.062018875,0.0130481515,-0.021314654,-0.03450147,-0.026925076,0.0080761025,0.012453194,-0.008588797,-0.016479725,0.04487414,-0.06347119,-0.010760451,0.04528328,0.013000648,-0.04231729,-0.0015230045,0.026777683,-0.013549558,-0.067732364,-0.0078014378,-0.03592737,-0.046796646,0.025188908,-0.020651268,0.0030457005,0.015943812,-0.014357747,0.009620347,0.07503654,-0.012782782,-0.005964306,-0.004490428,-0.0876389,-0.0006875176,0.004881322,0.033077914,-0.00075777486,-0.00025630574,-0.020528022,-0.0045191133,0.0051569534,-0.007574076,0.00026080682,0.031599004,0.016133303,-0.001593038,-0.01825728,-0.01999176,-0.01859996,0.013654663,0.015196573,-0.008748281,0.0451801,-0.01728481,0.018124059,0.022576507,0.019587893,-0.040969767,-0.011156071,-0.008087801,-0.01796153,0.0033579825,-0.030105509,0.020438772,-0.015350195,0.021597605,0.023667837,0.046825185,0.05432762,0.007580786,0.026180321,0.022903413,0.01655487,-0.027909096,-0.017646179,0.06536013,0.057467245,-0.011330057,-0.018703727,0.034401663,-0.0008194889,0.02732489,0.039713215,0.0014740346,-0.05791959,-0.041657455,0.03729597,0.009404842,0.093026996,0.061170377,0.049510837,0.01922397,0.0028652498,0.063168116,0.030221064,-0.011210708,-0.06701322,0.067144625,-0.024007976,0.08157083,0.108143054,0.06664768,0.015671644,0.047213648,0.0575585,0.027862035,0.07739306,0.036875598,-0.0019366809,-0.092136316,0.20645034,-0.34062135,-0.38451195,-0.087561905,-0.23166081,0.20615354,0.27380633,0.2910681,0.21253175,-0.15826936,0.21209279,-0.19720252,-0.61669266,-0.44200832,-0.21807149,0.07981,0.17938425,0.1730377,0.17258108,0.47839743,0.21304916,-0.46057448,-0.64140475,-0.41443396,-0.28275073,-0.16582575,0.012978367,0.08967748,0.13261925,0.20228666,0.3726586,0.12488358,-0.20091242,-0.40959623,-0.31676537,-0.018953769,-0.03516966,-0.018000286,0.014314483,0.030662267,0.1775264,0.14521798,0.17302206,-0.01939916,-0.02071873,-0.14435162,-0.010547401,0.0013765623,-0.04982033,0.08720042,-0.039396238,0.19103006,0.21430345,-0.2629913,-0.21243706,0.05394067,-0.050753854,-0.031442728,0.03152555,0.03730992,0.05114302,0.125461,0.119632155,0.08646055,0.015632596,0.245548,0.13907458,0.121997006,0.10418356,0.02528191,0.04882575,-0.0028477665,0.17452349,0.18790914,0.060274385,-0.42068693,0.25147063,0.3844416,0.16911517,0.093450986,0.044912487,0.044650044,0.037840523,0.08488945,0.1874785,0.13230199,-0.071161315,0.40582722,0.4491199,0.27482486,0.1208667,0.022784358,0.045726158,0.039821487,0.072156236,0.33059704,0.32423344,-0.18842001,0.20124245,0.47625038,0.365212,0.23532183,0.121032216,0.086354986,0.1767141,0.18547569,0.34356672,0.30461293,0.1993671,-0.12276145,0.20417807,0.53816915,0.44830698,-0.007591396,0.33545682,0.32320502,0.018870475,0.1490634,0.22399747,-0.15061167,0.5497743,-0.02320603,0.020209763,0.13250485,-0.050097544,-0.108173676,-0.037757777,-0.054127626,0.05265779,0.04418856,-0.13545999,0.009369116,0.075923815,0.18754092,0.06186634,-0.05203634,-0.041335475,-0.026276778,0.033781726,0.054864954,-0.013514854,-0.021834435,0.012467615,0.1860103,0.14430867,0.07283737,-0.02165796,0.02238835,0.0025189146,0.038250573,0.06096368,0.027933639,0.028630694,0.025916299,0.0462668,0.014749369,-0.004076797,-0.05351217,-0.020563796,-0.006199797,0.028122848,-0.0077137887,-0.016406113,0.03980883,0.01606582,-0.02002373,-0.036520787,-0.06965313,-0.055464715,-0.016912712,-0.03499413,-0.049565688,-0.003643861,0.0015791915,-0.017628962,0.037727267,-0.0034986567,0.016623424,0.009181122,-0.055481013,0.025540378,0.00063507364,-0.033498503,-0.0065581044,-0.0031417795,-0.006160339,0.017782327,0.026744714,0.01653386,-0.036572795,-0.045095548,0.008926822,-0.054334994,0.02543221,0.0008177429,0.00046231918,-0.04485558,0.018801283,0.07642297,0.058133837,-0.0049696416,-0.045535,-0.033463098,0.005154015,-0.01762758,-0.031788588,0.038981523,-0.008554073,0.06095177,0.1777106,0.16977914,0.043710176,-0.02792423,-0.066393934,0.023898844,0.0026768488,0.02900904,0.051963527,-0.0062742042,0.1840728,-0.0031486056,0.03573053,-0.038220435,-0.07066514,-0.032760635,-0.019346781,-0.036445584,0.0016429746,0.013292998,0.08485345,-0.0006461795,0.045296025,0.08381191,0.027999857,-0.11168981,-0.060140003,-0.07192754,-0.076141186,-0.0064496724,0.014418187,0.13541913,-0.020216592,0.014319323,-0.10365565,-0.0820435,-0.08958878,-0.045187864,-0.07777637,-0.08129143,-0.057166982,-0.043859165,0.027667437,0.031178229,-0.14598902,0.013104525,-0.08845618,-0.100833535,-0.049204495,-0.04737129,0.004154929,0.0154133625,-0.04146159,-0.025861334,-0.11227775,-0.12284669,-0.092235066,-0.016633045,0.0029873843,0.017662732,0.016821569,-0.011055305,-0.0062050824,0.022816584,-0.04505726,-0.11964381,-0.07075993,-0.09916095,-0.01613547,0.0037759983,-0.023325814,-0.013189517,-0.033135667,-0.036344923,-0.0015606802,-0.014592472,-0.088576615,-0.052868124,-0.06540872,-0.024683628,-0.017704915,0.022193577,-0.016203975,-0.035749473,-0.026192816,-0.018340025,-0.017683797,-0.0990428,-0.08944746,-0.09848917,-0.013959203,-0.010921103,-0.060075644,-0.016379433,0.04000181,-0.013413648,0.0017193127,-0.06860214,-0.016859218,-0.078665555,-0.1037571,-0.022018036,-0.024220506,0.009827265,0.0080916975,-0.03470396,-0.030382292,-0.009337522,-0.018170798,-0.005137327,-0.097441055,-0.106874965,-0.11614041,0.00090397475,-0.009241937,-0.02892457,0.012833937,-0.027641509,-0.008757275,-0.10573587,-0.13823918,-0.14827448,-0.029676823,-0.018168053,-0.044697315,-0.0796362,-0.028856667,0.0205294,0.0149123855,-0.05449105,-0.042798806,-0.10007544,-0.21115327,-0.0097509725,-0.108756766,-0.06264578,-0.048580386,-0.02985774,-0.041959293,-0.106871955,-0.023135407,-0.12438613,-0.13276882,-0.051247366,-0.07990478,-0.09596398,-0.071763694,0.01064821,-0.004485889,-0.047580156,-0.03928777,-0.07742139,-0.04869925,0.02948583,0.6772139,-0.6692572,0.10830616,0.07301139,0.122903444,0.2929863,-0.0423116,-0.04942812,0.1777109,-0.718465,0.55123353,-0.7025665,-0.45053017,-0.34234455,-0.10642865,-0.15500249,-0.13631263,-0.14093554,-0.20133978,-0.24427253,0.015072561,-0.8292369,-0.31685156,-0.37992376,-0.12589052,-0.09067409,-0.14059994,-0.12697938,-0.17763938,-0.25005615,-0.19215031,-0.04821225,0.14038311,-0.14623858,-0.31829822,-0.07552465,-0.124846525,-0.2570314,-0.06509081,-0.22938552,-0.25185925,-0.22111641,-0.06064164,0.15598574,0.01970303,-0.20622337,-0.19898917,-0.21161926,-0.2010888,-0.05451285,-0.25487137,-0.21912019,-0.1446596,-0.065876074,-0.044062674,-0.2597111,-0.17145436,-0.07963903,-0.058463454,-0.043726373,0.009798287,-0.09776291,-0.14005704,-0.09848636,-0.13500427,-0.22917143,-0.00633782,-0.16400632,-0.17180893,-0.1080225,-0.1527546,-0.029334398,-0.23585671,-0.1791501,-0.16059767,-0.13302694,-0.074475236,-0.33802587,-0.27170107,-0.102528386,-0.21510172,-0.17710888,-0.039994206,-0.062404193,-0.11361801,-0.16403785,-0.17382456,-0.21144961,-0.2681624,-0.33559445,-0.027090289,-0.078102015,-0.14144905,-0.13953935,-0.22564192,-0.19984339,-0.09238088,-0.21018662,-0.38394767,-0.7234929,-0.21583326,-0.068247154,0.15536834,-0.037306316,-0.07201883,-0.12916125,-0.2058088,-0.17040652,-0.50159854,-0.8321044,0.6314945,-0.69671696,0.5942854,0.55515695,-0.0356843,0.08857637,0.36089993,0.13926129,-0.0568823,-0.7283722,0.6129226,0.74965745,0.033537325,-0.02894033,0.014676476,-0.04263142,0.025086943,0.024419352,0.10671127,0.11577503,0.11220439,0.17390099,-0.022183463,0.08010722,0.009728628,-0.021739839,-0.019679453,0.059050966,0.09020716,0.13345248,0.10918579,0.14079846,0.1505028,0.10761544,-0.0048123295,-0.06740607,-0.060856,0.0311669,0.05657906,0.069753334,0.1055077,0.10767017,0.12261856,0.1316284,0.12123329,-0.043038856,-0.033653565,-0.051721368,0.057099137,0.025078112,0.0781418,0.090402216,0.07214376,0.08289788,0.09145561,0.10815387,-0.04277546,-0.02545582,-0.017207153,0.0005933295,0.072832674,0.0012361079,0.007485468,0.077943765,0.07189772,0.07339756,0.022225676,-0.039703563,-0.057840068,-0.06715912,-0.0046897377,0.0024424945,0.046733852,0.031541225,0.056826822,0.048447926,0.04103766,-0.012440916,0.011848905,-0.024279756,-0.05226098,-0.04072752,0.0538155,-0.028521279,0.009747586,0.02549835,-0.033794362,-0.029346246,-0.014470933,-0.021441448,-0.052098442,-0.10235953,-0.06195738,-0.031453162,0.004390334,-0.022669628,-0.02272637,-0.035499092,-0.085317075,-0.022566399,-0.0023051177,-0.032571938,-0.070077345,-0.070174776,-0.095144294,-0.03696818,-0.06666829,-0.0426753,-0.081442475,-0.047207795,-0.056286205,-0.0047764354,-0.021611478,-0.03867349,-0.07302417,-0.08117168,-0.03947725,-0.072749235,-0.055562314,-0.06686575,-0.049654458,-0.013858489,-0.043483105,0.021640513,0.02048712,-0.03068744,-0.0036169793,-0.026951328,-0.052723028,-0.040522683,-0.039696693,-0.051622726,-0.02757837,0.019792534,-0.048208643,0.03884484,0.004803734,0.016662732,0.016081208,-0.0020905398,0.013347967,-0.06311523,-0.050753865,0.0032596134,-0.15795729,-0.003705092,0.03758157,0.005195244,0.054068055,0.032060914,0.020846063,0.031382576,-0.04812908,-0.08486692,-0.045100853,0.05601495,-0.09987965,-0.040215526,0.026553957,0.0034205348,0.06373698,0.01329729,0.0082445415,-0.035312902,-0.011324077,-0.0026161133,-0.03662838,0.0065710493,0.022267045,0.041823875,0.023846677,0.040714145,0.0017133072,0.012957592,-0.027729925,0.049040366,0.032712128,-0.040472347,0.0007611477,0.041208755,0.01911863,0.064853914,0.049677804,0.043424174,0.03553013,-0.014885363,0.029994057,0.06417518,-0.021896435,0.06408764,0.026615309,0.05548388,0.049831115,0.015004526,0.06746243,0.02221714,-0.0029399134,0.056671645,0.043716818,0.04959474,0.024972122,0.0651387,0.061120566,0.06823779,0.078725226,0.035829414,0.03337233,0.02747723,0.012619468,0.012404714,0.0067388336,0.08498105,0.06675582,0.06951346,0.064173035,0.04480561,0.09438411,0.084356174,0.0034156519,-0.013598948,0.05594878,0.025723023,0.06534744,-0.025550425,0.0358474,0.06825207,0.064340346,0.042312898,0.045886435,-0.07992845,0.060680985,0.047429927,-0.027764361,-0.030845018,0.010003614,0.0044101686,0.052564718,0.045018855,0.014438842,0.015478856,0.024587715,0.05782823,0.022513263,-0.029739821,0.066115186,0.0028100256,0.007574483,0.06561051,0.103265435,0.038849544,0.06497233,0.17600526,0.1278474,0.013958279,-0.15368818,0.037315905,-0.28556013,-0.11024659,-0.04303755,0.029984726,0.03109764,0.034872882,0.12275257,0.040164545,-0.091304325,0.013710154,-0.14041269,-0.41292,0.0347098,0.06029512,0.073469736,0.0408657,0.04516547,0.026099682,0.02251893,-0.0214993,-0.5449349,-0.17949808,-0.09037584,0.023252234,0.005000999,0.019944454,0.0007100508,0.022403577,0.021030316,0.0970259,0.026383458,-0.40873966,-0.23835352,0.033352986,0.02362564,0.025649415,0.02690261,0.023994714,0.014901707,0.040723573,0.075953715,0.010423392,-0.36747056,-0.25164622,0.023530394,0.051081613,0.035972074,0.07989029,0.02525289,0.02401469,0.02025708,0.06300556,0.07111633,-0.3297557,-0.2544465,0.043753177,0.020172197,0.04958933,0.0047568562,0.029069062,0.02723208,0.029186502,0.034421403,0.03988539,-0.26424944,-0.23718284,-0.039612085,0.048524916,0.035476934,0.04072354,0.03835169,0.030716928,0.03406492,0.014675414,-0.15557443,-0.40910378,-0.25787267,-0.05140372,0.02676028,0.093251556,0.06633345,0.048130255,0.11636377,0.03581197,-0.17975725,-0.34088495,-0.6109531,-0.2280817,-0.099739626,-0.08343942,-0.022479678,0.07431954,0.07515684,0.034684647,-0.2074062,-0.26659495,-0.24226928,0.021655794,-0.19041404,-0.23826641,-0.22389655,-0.1630437,-0.08979748,-0.07930714,-0.09783721,-0.04785114,-0.19940081,0.008872326,-0.14035803,0.02048383,-0.36876473,-0.19633086,-0.29827088,-0.21600081,-0.08555539,-0.06260128,-0.3683701,0.023631323,-0.13883837,0.4845169,-0.0017079506,0.06969805,-0.044353556,0.017999826,0.0026708588,-0.039047148,-0.05552305,-0.037874836,0.007666074,0.09230924,0.03607561,-0.09752989,-0.04117129,0.0022450401,-0.006654192,0.00085856125,-0.06156779,-0.074153915,-0.07104656,-0.06152888,0.034095395,0.15246052,-0.061560318,-0.023644831,0.016472535,-0.0011664882,0.025208883,-0.014102034,-0.050168265,-0.039883,0.044161744,0.15618405,0.16762874,-0.05584908,-0.09088597,-0.037004028,-0.038734134,-0.05573025,-0.007574479,-0.010585423,-0.0016855326,0.10386408,0.1514181,0.1502695,0.0034821946,-0.054564506,-0.0075851018,-0.009788204,-0.022384036,0.02319781,0.0045381123,0.034665715,0.044524778,0.08873563,0.12707336,0.011977781,0.03188857,0.0067604287,-0.006601485,0.004460972,0.02266065,0.07921921,0.053637452,0.123448074,0.1580251,0.13198565,-0.008393014,0.013420193,-0.019173821,0.059688844,0.08108254,0.083532155,0.021050619,0.07047447,0.100939035,0.1584672,0.12823424,-0.052046917,-0.029995002,-0.06491224,0.0037546146,-0.004868036,0.013161553,0.038219795,0.09211417,0.11757532,0.1080575,0.08451994,-0.030653011,-0.017655278,-0.030275503,-0.006456992,-0.06393377,-0.017951211,0.006098502,0.055522,0.1309948,0.1393029,0.1517295,-0.008998614,-0.026287336,0.027648173,-0.069672115,-0.050165594,-0.04903624,-0.010647952,-0.02818873,0.048024476,0.093741566,0.16220175,-0.02557013,0.039612677,-0.048711415,0.015358014,0.043116722,-0.01604387,-0.024661914,0.07151282,0.061918285,0.10059747,-0.03533599,0.051990427,0.014718411,-0.04022855,0.045013286,0.05254132,0.011856401,0.013790264,-0.010859771,-0.0649828,0.16295105,0.0009357401,0.21078636,-0.00059821695,-0.06559889,0.00063065183,-0.011959616,0.016473873,0.05663779,0.024189174,0.0039181258,-0.032759897,-0.017903183,0.033789486,0.091093235,0.031067299,0.065916315,0.020204024,0.06314028,0.099303685,0.020642186,0.0775568,0.008557422,-0.10117372,-0.014052926,-0.015138653,0.064264484,0.041255623,0.059780337,0.05420993,0.009442843,0.044720497,0.022719359,0.013730518,-0.032894574,-0.03966068,0.050788533,0.028706728,0.069146425,0.07006305,0.036250148,0.08509576,-0.010397914,0.024309665,0.007905792,-0.024638927,0.05357894,-0.014338225,0.024701966,0.07837924,0.051657706,-0.04387367,0.027349606,0.02005616,-0.03539163,-0.0033641837,-0.03806397,0.026921576,0.012866952,0.0021659697,0.009763567,0.06133332,0.0764736,0.03441107,0.008305219,-0.01304454,-0.015645262,-0.03410876,0.032874756,-0.028013032,0.02832461,0.043917533,0.047122486,0.059396848,0.047679923,0.021842266,-0.0312735,-0.0030004655,-0.00985104,0.12471841,0.0407042,-0.034035433,-0.04409622,0.089777134,0.06509773,-0.03294967,0.025707439,0.03749037,0.045061424,-0.04645903,-0.035063192,0.010423565,0.005263619,0.038126744,-0.00046073648,0.00014086775,-0.004152579,0.023330038,0.050082035,-0.04099698,-0.0486977,0.041872963,0.107551776,0.06494031,0.07193814,-0.0040556123,0.010776136,0.054420706,-0.060651556,-0.046447538,-0.052867886,-0.023002617,0.25672024,0.2374511,0.15422401,-0.0010084314,0.0949146,-0.13185625,0.025591997,-0.14622998,-0.00775216,0.19844618,0.2383186,0.20634429,-0.110979125,0.15417412,-0.010994354,-0.09160348,0.10979715,-0.014671192,-0.0050529838,0.43633392,0.36919916,0.23570327,0.2387954,0.14630468,0.17568386,0.13872285,0.15216437,0.251183,0.29954773,0.28910765,0.29957536,0.3830534,0.2507719,0.13249071,0.124454275,0.19448537,0.24942274,0.25229847,0.29217502,0.30681217,0.32521892,0.2820095,0.33855945,0.3109981,0.1148598,0.13837847,0.25212324,0.3059588,0.31317616,0.32447168,0.3712032,0.32352623,0.27484548,0.28171825,0.2319815,0.019113282,0.07060946,0.23063917,0.31144965,0.32989618,0.27777556,0.31468153,0.28220958,0.24092463,0.31150997,0.25094143,0.11136077,0.15322605,0.30559543,0.2966812,0.33714533,0.32939237,0.30152532,0.35452732,0.3187392,0.32767454,0.25324783,0.11758365,0.11191711,0.3323766,0.31130362,0.36770692,0.3016053,0.32278433,0.310291,0.32870752,0.3284662,0.22330157,-0.012143729,0.048182216,0.11748922,0.14683133,0.28549287,0.31996354,0.33559936,0.35550442,0.36792085,0.41571096,0.25478968,0.21602844,-0.01923112,0.13933133,0.043276634,0.10675743,0.1925594,0.12693776,0.29727384,0.34434187,0.32499388,0.19972536,0.27082065,0.23463356,0.20898354,0.03994789,-0.10358735,-0.008543694,-0.15141076,-0.050510064,0.29630873,0.21390486,0.2218256,-0.53118134,-0.008566377,-0.11347683,-0.057061452,-0.08004315,-0.030287214,-0.04839714,-0.05720693,0.07287694,0.09342984,0.03585568,0.040229164,-0.07238529,-0.14173327,-0.117894575,-0.07741981,-0.04989744,-0.107252195,-0.06254991,-0.014051095,0.07470627,0.044794254,0.00019506818,-0.13527614,-0.21784435,-0.13969834,-0.12892744,-0.09623422,-0.10450339,-0.054770578,-0.07465722,-0.024310596,-0.052155826,-0.1304289,-0.159325,-0.1141156,-0.07098102,-0.14626493,-0.08602425,-0.12725239,-0.13819504,-0.09462629,-0.06711185,-0.046259522,-0.10642875,-0.06277076,-0.07955687,-0.05834526,-0.09963265,-0.09884948,-0.02374117,-0.09887888,-0.047450133,-0.050887655,-0.09262156,-0.12454565,-0.031957753,-0.018847002,-0.074846074,-0.08151145,-0.079994455,-0.033239786,-0.057752423,-0.101529874,-0.0988446,-0.044188865,-0.08114645,0.012830178,0.06273569,-0.05909765,-0.06452964,-0.06820956,-0.09574879,-0.03495946,-0.096378386,-0.013466523,-0.0268622,-0.066605024,0.022287535,0.068338156,-0.037515476,-0.08834742,-0.10851157,-0.114691444,-0.109098405,-0.08786082,-0.06208089,-0.026960665,-0.09982791,0.15602982,0.1442236,0.061807632,-0.08311338,-0.08867166,-0.08976295,-0.07620832,-0.020672426,-0.009755071,-0.051494956,-0.07320021,-0.16360664,0.09124548,0.0010295832,-0.075399555,-0.131793,-0.15616593,-0.0971404,-0.08260306,-0.035243247,-0.09060713,-0.0666653,0.0029760797,-0.06120701,-0.014077974,-0.044612374,-0.096881814,-0.15720084,-0.10235933,-0.081180744,-0.019975035,0.002124038,-0.04782483,0.052279748,0.027731042,0.06834138,0.069316395,0.054286122,0.027691854,0.014608301,0.03816103,-0.057569627,-0.10625647,0.02668507,0.17689836,0.08671987,0.06758428,0.021185406,0.084632464,0.04680708,0.0058669494,0.044305537,0.02494436,-0.0037444322,0.015785346,0.060471337,0.061368767,0.04479407,0.03096913,0.055586558,0.024872176,0.081864774,0.08232298,-0.012379836,0.041182455,-0.0048164115,0.07025674,0.03927949,0.030202609,0.021677243,0.014636311,0.04830825,0.043839958,0.049248956,0.053245343,0.030614827,0.07373968,0.038841963,0.038958404,0.020734478,0.036335047,0.0064287893,0.014710789,0.045378212,0.0701681,-0.019443724,0.048285823,0.008890421,0.011072568,-0.010400829,0.039381057,-0.032009844,0.031829722,-0.046821002,0.01937409,0.04563273,0.07450267,-0.014106234,0.006533221,0.0013653131,-0.02368056,-0.06199334,-0.02649349,0.041822404,0.089550585,0.027578762,0.047468103,-0.011827644,0.034175962,-0.033626467,0.0044776835,-0.019300692,-0.030629056,-0.024023293,0.002976531,0.021004433,0.034676097,0.013265191,-0.007747742,0.023335522,0.0719255,-0.18599392,-0.081917144,0.024506662,-0.045644123,0.0037270808,0.06041758,0.06821211,0.050463084,-0.0037178618,0.016745655,-0.07340257,0.05924989,-0.028377203,-0.032611813,-0.036578767,0.007900643,-0.012467524,0.023958258,0.029913587,-0.026403293,0.009402894,0.017507695,0.025653193,-0.09401596,-0.11898759,0.019690875,0.050806284,-0.01351831,0.07983476,-0.019874318,-0.10693688,-0.06525803,0.014865746,-0.13928173,0.48478717,0.32708457,0.25834507,0.24850862,0.02939072,0.07428485,0.20760798,-0.60983694,0.55230147,-0.20358567,0.48983368,0.57017434,0.47466695,0.3787948,0.22090043,0.08024914,0.15586436,0.0568412,-0.13888612,-0.32693332,0.5717964,0.6406783,0.38178393,0.2503626,0.13898584,0.1798921,0.06780751,0.07286755,0.17630684,0.20313115,-0.111942634,0.23361623,0.4917756,0.27996665,0.17946601,0.15544796,0.11109028,0.2371391,0.07946837,0.068359934,0.1525709,0.11137324,0.3490063,0.09776843,0.05606275,0.06361532,0.0041937064,0.13281547,0.058959913,0.10166867,0.0759031,0.12075598,0.1877149,0.42709887,0.18871257,-0.007067732,0.11193183,0.15702581,0.15398586,0.11561006,0.08430684,0.07236567,-0.04084115,0.13470675,0.40735558,-0.4190091,0.0037270398,-0.016760323,0.13210517,0.07618155,-0.04169517,0.11665612,-0.020167163,0.06342544,0.048964884,0.08948986,-0.4348582,-0.20248072,0.15116352,0.08720365,0.12817451,0.031763908,0.07194892,-0.038905505,0.10817356,0.10814604,0.3772577,-0.35393113,-0.84483963,0.09728084,0.19373664,0.14221281,0.059100803,0.08183412,0.052685387,0.13198426,-0.1285301,0.17360489,0.5429735,-0.115336224,-0.48318958,0.23368792,0.26936156,0.22318421,0.28866947,0.14869472,0.08123143,0.053594485,0.5265611,-0.14648558,0.54436374,-0.2373911,0.32611668,0.34784728,0.53026134,0.47482792,0.4280148,0.2746165,0.52849495,-0.15959784,0.8910303,-0.037187327,-0.05376887,-0.051708557,-0.073294684,-0.0030724674,0.010320417,0.12149197,0.1398863,0.12898673,0.19255823,-0.02865849,-0.006456705,-0.045108996,0.010144103,0.007029294,0.013516736,0.04537295,0.13831742,0.1496699,0.19324295,0.18076263,0.09838314,-0.04798166,-0.054893255,-0.08742268,0.03112254,0.012611838,0.07226138,0.13907583,0.15158756,0.17728262,0.12622021,0.09895902,-0.035699766,-0.08808018,-0.07922772,-0.019697087,0.0040863957,0.026478121,0.124499485,0.09012657,0.11470542,0.10064971,0.08706941,-0.045643367,-0.05344395,-0.07699853,-0.008849836,-0.0014342831,0.057844594,0.06478039,0.048852645,0.0734193,0.082174554,0.06420422,-0.04945901,-0.0018028927,-0.046487197,-0.00081279286,0.006117884,-0.016562674,0.022014663,0.034034714,0.04583811,0.08157523,0.018283486,-0.06521373,-0.03203764,-0.05111469,-0.010074161,-0.01197862,-0.008676234,0.02364734,0.023601923,0.06635833,0.056040388,0.03236632,-0.068700716,-0.06564255,-0.08294655,-0.07277551,-0.009289255,-0.007171322,0.008285965,0.025838993,0.029417252,0.04298886,0.030795556,-0.05074308,-0.079903066,-0.13216689,-0.107662044,-0.07149756,-0.05779526,-0.022934249,-0.018664088,0.030450562,0.0277327,-0.020556835,0.008001682,-0.059419595,-0.09262831,-0.09458231,-0.1085906,-0.062546186,-0.10915961,-0.08244447,-0.0054155034,0.013520898,-0.001760475,-0.031096464,0.009167222,-0.034810733,-0.08488778,-0.035470802,-0.06722927,-0.06219274,-0.026209738,-0.08362631,0.05174121,-0.022093713,-0.012260913,0.08409318,0.030520355,-0.019399134,-0.011253662,0.009766322,0.019971728,0.008199448,-0.033877883,-0.03423344,-0.030468425,0.010172317,0.056531075,0.038317986,0.0060836016,-0.0058974535,0.051577013,0.0687626,0.00056048407,-0.03877017,-0.07502932,-0.039004505,0.07265666,0.015171805,-0.020993397,0.03589108,0.0067181974,0.058202125,0.037553534,-0.00946986,0.0053522005,-0.03962972,-0.029003588,-0.0023498365,-0.0021217596,-0.009880946,0.0051440494,0.01658178,0.011229314,0.0058442364,-0.043661527,-0.075860396,-0.008915434,-0.060309235,0.013621164,0.0144723635,-0.02372329,-0.037572972,0.044461083,-0.012629112,-0.033422533,-0.01863986,0.0067971232,0.03864528,0.0080095045,-0.03393642,-0.0151297115,0.0073503535,0.04183808,0.063011006,0.018379813,-0.006184452,0.006079697,-6.0382314e-05,0.024382262,-0.008135318,0.050022133,0.04365157,0.029502574,0.0396801,0.043069087,0.047976334,0.025460524,-0.030299027,-0.007922538,0.013636303,-0.021952031,-0.04795421,0.028768236,0.0033181342,0.021297703,0.00050582504,0.02987034,0.043631364,0.020060297,0.0052763238,0.027432559,0.031276945,0.061164424,0.06577905,0.02493711,0.0034718076,0.011117448,-0.012718213,0.012322908,0.005546276,0.045072794,-0.06789729,0.122988574,-0.043278243,0.08506525,0.053580914,0.029542668,0.041030046,0.05432902,0.00067630626,0.0030180877,-0.0127798375,-0.04578634,0.018611465,-0.017634558,0.15219654,0.059330262,0.055736165,0.05699173,0.07459971,0.025488395,0.009803685,-0.052934453,0.074298665,0.028667113,-0.19708537,-0.0026811885,-0.31765434,-0.0970952,-0.13172288,0.09792064,0.12195535,0.12350666,0.18962935,0.057370238,-0.20266472,0.0014851999,-0.21724954,-0.48380327,-0.23757826,0.0279992,0.08966146,0.073565744,0.08857987,0.06817184,0.049057975,-0.017723521,-0.28559572,-0.28819513,-0.3881956,-0.05049098,-0.0036373653,0.009976646,0.023975803,0.05443038,0.052353993,0.13182592,0.020512298,-0.39096466,-0.31888574,-0.256626,-0.026534593,-0.04182397,0.008868945,0.055570487,0.0052661006,0.04200912,0.094767064,0.032632895,-0.35658994,-0.29746348,-0.07117608,0.055104297,-0.00081161305,0.056860797,0.03171602,0.014706861,0.042455655,0.06338378,0.0693348,-0.26220495,-0.24257974,-0.047323965,-0.043129716,-0.000784755,0.038447384,0.047197405,0.037427764,0.034492042,0.06477532,0.007961039,-0.29634237,-0.24548395,-0.14178774,-0.05321316,0.029502332,0.06289861,0.052047145,0.026677284,-0.004762147,0.08076367,0.05212302,-0.36693147,-0.28280056,-0.27703887,0.016373316,0.115046576,0.032892767,0.019368818,0.085439615,0.048102606,0.07839529,-0.07085208,-0.39786813,-0.22342242,-0.24172844,-0.1336274,-0.054769024,0.0044330535,0.008482414,0.07335803,0.075413354,0.04705962,-0.039074454,0.014713639,-0.13418674,-0.20340067,-0.2028066,-0.26219174,-0.17285766,-0.15102997,-0.19038185,-0.37648135,-0.3724084,0.0039870106,-0.16780397,0.02564427,-0.37424004,-0.16288802,-0.28698316,-0.109790646,-0.14345667,-0.27540022,0.0981261,0.044049326,-0.15308271,0.6625147,0.037224956,0.0043626614,0.0370332,0.021824198,0.037531734,-0.0056167613,0.09431733,0.13511479,0.0668596,-0.036682785,0.037116233,0.07952089,0.11820463,0.08937054,0.021656873,0.07396441,0.037578654,0.13909666,0.13977139,0.20053948,0.15526512,0.103261404,0.07784498,0.08804375,0.12397645,0.04688033,0.08341442,0.059345033,0.103307724,0.13183479,0.1891961,0.13140348,0.11807516,0.036578465,0.026365584,0.048536934,0.06583505,0.051924884,0.0732672,0.103628956,0.08118971,0.13962854,0.09150822,0.124082826,0.057534747,0.040154148,0.053554095,0.05326204,0.06867628,0.07538995,0.072373025,0.07245084,0.06962455,0.073695116,0.05438625,0.058234747,0.037162933,0.05538645,0.0970364,0.050371148,0.005259839,0.07498697,0.10537218,0.10964787,0.037117533,0.072776206,0.021435147,0.023760285,0.061512172,0.053394314,0.07438914,0.032996856,0.04437882,0.05542324,0.0704403,0.02527431,0.04923841,0.033941265,0.044752732,0.0801213,0.069883555,0.089198336,0.08549776,0.060523693,0.07855123,0.05184929,0.0472009,0.060296275,0.091460176,0.08367882,0.13992849,0.05603006,0.09648868,0.043995354,0.0733946,0.069591306,0.06454759,0.0763743,0.06895431,0.046985347,0.10478204,0.15781018,0.055148784,0.03966481,0.039733056,0.029627847,0.082341455,0.056811437,0.07706289,0.050005835,-0.008826954,0.07191366,0.0649236,0.07959567,0.080559984,0.043083936,-0.00481604,0.022153066,0.031971727,0.07681991,0.021302495,0.031461537,0.02758744,0.0147905,0.0062926766,-0.04201586,-0.0450305,-0.027260086,-0.07495338,0.03123128,0.18222192,0.0074988673,-0.09368526,-0.038806476,-0.039442223,-0.034483474,-0.035788585,-0.034861438,-0.025496423,-0.017779324,-0.018625608,-0.031182403,-0.071199,-0.036226265,-0.07299117,-0.00028744954,-0.009443872,-0.021755699,-0.0037867355,-0.041775975,-0.05531715,0.012316076,-0.032444797,-0.07217063,-0.026268454,-0.06799148,-0.022642527,-0.014459333,-0.0052964045,-0.021521084,-0.031518683,-0.044839226,-0.040705755,-0.0525744,-0.06366909,-0.03824162,-0.02816323,-0.031921793,-0.032980524,-0.029147623,-0.045431927,-0.023904221,-0.031055972,-0.025773479,-0.04775142,-0.05287016,-0.04012142,-0.036093365,-0.048697658,-0.0342232,-0.038021237,-0.02008927,-0.06045206,-0.021476386,-0.033311076,-0.020770157,-0.0531911,-0.017404111,-0.07199774,-0.059053615,-0.06592873,-0.043783974,-0.047540344,-0.027036516,-0.042562783,-0.058418382,-0.041644108,-0.06948664,-0.015378451,-0.10220778,-0.042301286,-0.029787617,-0.036946524,-0.027396547,-0.013851905,-0.024288338,-0.050412387,-0.004410603,-0.020936327,-0.07441076,-0.09188847,-0.03162449,-0.041101355,-0.05211601,-0.04293821,-0.03794005,-0.011698238,-0.0038250652,-0.07137785,-0.027397892,-0.054255657,-0.08898436,-0.04818219,-0.05218373,-0.0029179752,-0.035869896,-0.053435862,-0.03939783,-0.038639076,-0.046988975,-0.048331182,0.045347262,-0.062653,-0.013635022,-0.06466926,-0.061826605,-0.03541834,-0.021993076,-0.040071655,-0.01805823,0.024471281,0.0053991317,-0.480847,-0.92439425,-0.21202664,-0.26386908,-0.16442505,-0.3271649,-0.38634598,-0.38906056,-0.18435608,-0.93395084,-0.62656176,-0.9264625,-0.32322904,-0.26095337,-0.31688568,-0.3589678,-0.3848841,-0.423657,-0.46661308,-0.45561042,-0.329931,-1.0237182,-0.27309787,-0.32027453,-0.37702894,-0.3640508,-0.43711042,-0.43571633,-0.41587362,-0.43757,-0.4762044,-0.42367038,-0.40069538,-0.22810438,-0.32858413,-0.36701792,-0.4437493,-0.42276117,-0.47980785,-0.38511518,-0.3983707,-0.45453766,-0.40426144,-0.28749087,-0.3356933,-0.35179716,-0.40735936,-0.42157984,-0.4236937,-0.5087787,-0.4374472,-0.41441563,-0.38900656,-0.37085202,-0.19977333,-0.41249293,-0.4229295,-0.4052851,-0.5118088,-0.47268423,-0.4446293,-0.4569749,-0.4200049,-0.480213,-0.36869776,-0.27417243,-0.27908716,-0.39301077,-0.4283708,-0.39287078,-0.41045588,-0.48185232,-0.4111268,-0.423635,-0.39845195,-0.38743317,-0.34229067,-0.35702056,-0.39076033,-0.406435,-0.4432198,-0.43967226,-0.479027,-0.4309878,-0.44697097,-0.39025927,-0.38550434,-0.27881834,-0.28815436,-0.40213713,-0.36398536,-0.40763697,-0.42303908,-0.42890576,-0.38923252,-0.39162034,-0.35328847,-0.21997152,-0.15389544,-0.87686414,-0.280295,-0.4267113,-0.37193313,-0.39269745,-0.37918743,-0.3527681,-0.37683538,-0.19621912,-0.17438409,-0.99065995,-0.5077518,-0.949363,-0.37859496,-0.41722187,-0.27625844,-0.2312324,-0.15992688,-0.20572126,-0.27882928,-0.9320713,-0.4758083,-1.5108874,-0.028515149,-0.050663777,-0.011930009,-0.05468741,-0.011248814,-0.034731105,-0.004037415,0.056373242,0.047691245,0.08715833,0.037666958,0.06683706,0.011633111,0.022430584,0.009139182,-0.022479108,0.0040792627,0.041979928,0.07399275,0.06071698,0.058532216,-0.09929388,0.065025784,0.0051590083,0.04940091,-0.002141511,-0.018846756,0.013182462,0.016054962,0.019027285,-0.016636552,0.010017797,-0.026737697,-0.005735886,-0.0055320677,0.03307278,0.007964274,-0.059561137,-0.0005234399,-0.038881853,-0.038780816,-0.055144675,0.016560191,-0.036209676,0.040434867,0.032427672,0.036321655,0.008474747,0.021256648,-0.007216702,-0.004172352,-0.010307503,0.0062445626,-0.041887004,-0.05817894,0.023502566,0.03943802,0.016865589,0.004709005,-0.01817677,-0.0074328044,-0.06759193,-0.022530954,-0.05103907,-0.059590675,-0.008270359,-0.007965804,-0.025546648,-0.03521603,-0.041927855,-0.016802907,-0.09228428,-0.0046034167,-0.022563828,0.0063372334,0.057638705,0.035090793,-0.046788145,-0.05810674,-0.047690354,-0.022228856,-0.07208484,-0.065834716,0.0148102585,-0.040567245,-0.03712288,0.062078994,0.03145226,-0.062030345,-0.15878835,-0.1266126,-0.11935997,-0.068100475,-0.058905218,-0.08413143,-0.04367018,-0.074395165,0.0098453285,-0.003431774,-0.021550266,-0.16420709,-0.17778848,-0.15398517,-0.09223963,-0.10534623,-0.12160958,-0.13455059,-0.14043042,-0.008246152,-0.024692308,0.032370273,-0.10218328,-0.013750449,-0.097358726,-0.03907618,-0.042494185,-0.08742645,-0.12895018,-0.12767234,0.058402527,0.016040388,-0.035897072,-0.016110124,-0.045613896,0.02377316,-0.01715132,-0.017257597,0.007803585,0.002701444,-0.10176237,-0.073633455,0.03733098,-0.19111153,-0.100336835,-0.050578672,-0.08358678,-0.027238827,0.013493061,0.0032207102,-0.016777128,-0.018989954,-0.02241968,0.015854267,0.013483459,-0.06167257,-0.03923453,0.025062295,-0.035870697,0.019245775,-0.016192365,-0.01215381,0.019717531,-0.03481715,-0.048370413,0.008365857,0.02448785,0.017656956,0.012640979,-0.014061468,0.006177815,0.01388375,0.008735353,-0.02954957,-0.00060899777,-0.020017587,0.051284026,-0.0035991713,0.018826537,0.008887562,0.011774113,-0.0038549756,0.02039664,-0.0024083448,-0.0038349815,0.028111674,-0.055581916,0.09127001,0.03747124,0.035105146,-0.003241449,0.027689544,-0.026617195,0.020573419,0.03434903,0.03643467,0.0041421624,-0.007218144,0.03543977,0.014124906,-0.012267999,0.029920304,-0.0034872678,0.033447105,-0.01444863,-0.015216107,0.0339191,0.0067608617,-0.0064970525,0.058641877,0.019063955,0.051198527,0.051361647,0.03632475,0.017609749,0.021612525,0.025225056,-0.011885475,0.026814952,0.0042109857,0.050502174,0.014444837,-0.007998694,0.065761134,0.017346863,0.019391645,-0.0077807717,0.014857375,0.0059549063,0.0058431784,0.09652915,0.06098819,0.054276496,0.083460085,0.08444897,0.02370759,0.042173173,0.029824685,0.003857544,0.05399633,0.019325692,0.072589286,-0.033845574,0.12874036,0.119558565,0.068973966,0.08112271,0.06948653,0.062405676,0.025828289,-0.006924466,0.03785288,0.020324899,0.2262152,0.4295374,-0.010481323,0.1637795,0.4429749,-0.080647364,-0.029894758,-0.11206883,-0.6333965,0.46400195,0.25270605,0.49269345,0.091369234,-0.13656053,-0.04197282,0.20214401,0.06479852,0.09084545,-0.09985969,-0.12505026,-0.020246778,0.43992472,-0.35375473,-0.28982347,0.026969062,0.245891,0.22494139,0.29660848,0.23772535,0.2594474,0.15749876,-0.29687786,0.42824075,-0.07401178,-0.1746127,0.13336127,0.2374596,0.30791762,0.40012375,0.34806576,0.26055342,0.375831,0.20745575,0.3438423,-0.34083378,-0.09354585,0.32954943,0.31400478,0.30857664,0.36903444,0.3701698,0.27898768,0.29799455,0.27640465,-0.037403367,-0.3355224,0.23795167,0.43031245,0.3814063,0.37575665,0.3458439,0.33463854,0.40811282,0.36807996,0.21313779,0.36758992,0.34873745,0.40059054,0.45248058,0.41001314,0.37922296,0.31323045,0.36573496,0.3473296,0.3773673,0.2413986,0.081638604,0.43193024,0.55148643,0.4530528,0.434155,0.39704555,0.3613794,0.4126981,0.37908226,0.30163696,0.08468229,-0.20349917,0.6375833,0.6620049,0.66035134,0.57480854,0.50019234,0.41621068,0.3994284,0.34825248,0.35440803,0.034649998,0.13105653,0.43054533,0.9969641,0.8446271,0.7869983,0.78384584,0.6438009,0.5728254,0.49403977,0.60018593,0.4973223,0.4744429,0.26545304,0.4486599,1.0298928,0.8492689,0.6696074,0.76261705,0.7890425,0.7556114,0.47967765,0.45711145,0.2920306,-0.7554752,0.039737783,-0.06177997,0.08652618,-0.04959182,0.07414931,0.02549926,-0.008945343,-0.043173384,-0.037913494,0.022081796,-0.002351678,-0.028725313,0.08729897,0.009191682,0.03410158,0.08333036,-0.008927023,-0.07522635,-0.028090358,-0.06165475,0.0015898031,-0.016733669,-0.03504104,-0.057584148,0.008756234,0.0433471,0.05192788,0.0013485653,-0.0036381448,-0.020965423,-0.08435058,-0.13934058,-0.06603063,-0.11388596,-0.13859852,-0.07112458,0.049474794,0.0901784,0.07759626,0.0015335863,0.0043230923,-0.02898071,-0.1217146,-0.07704946,-0.043764822,-0.0594514,-0.06071745,0.02421339,0.021316105,0.049613472,-0.00071842514,-0.04546362,-0.03659559,-0.07995448,-0.041663017,-0.055811852,-0.056339387,-0.0361409,0.013434613,0.034838963,-0.013123523,0.031958736,0.022324901,-0.05424507,-0.089286104,-0.025028292,-0.061994474,-0.048111264,-0.03704813,0.027355252,-0.016135605,0.052210428,-0.008736188,-0.037686143,-0.040783294,-0.10005813,-0.017174736,0.00020816908,0.021780113,0.06676022,0.073145576,0.050630152,0.088178344,-0.016060304,-0.05067734,-0.049422782,-0.11656084,-0.056687217,0.18331069,0.11383886,0.14280792,0.119106494,0.12972899,0.046871897,0.0192052,-0.023624277,-0.057969008,-0.08030137,0.0043049683,0.131299,0.17383227,0.11663081,0.048314787,0.06627027,0.054589212,0.005364644,-0.01766186,-0.044304043,0.004774612,-0.0670431,0.03552599,0.21579345,0.19264087,0.12342271,0.04127905,0.0046159723,0.03187324,-0.058399733,-0.089673296,-0.112173356,-0.025904581,-0.019109873,0.19195673,0.1697403,0.075262696,0.0117595615,0.024240507,0.05361709,0.054701045,0.049789667,-0.046202905,-0.014862297,0.12289367,-0.013554735,-0.018455902,0.081870206,0.010546721,0.0053024613,0.06075215,0.060443692,0.010992422,0.056102682,0.012705571,-0.03195388,0.05616464,0.03129955,0.04464602,0.037540182,0.014773248,0.056165256,0.06536321,-0.089926794,0.07545739,0.03940891,0.094134375,-0.0065904264,0.042484023,0.039187968,0.0065945676,0.047996946,0.10396761,0.10217833,0.061811455,0.05140587,0.035879523,0.05436277,0.02787458,0.04388764,0.04124262,0.08988941,0.09072602,0.11790427,0.051104702,0.040148485,0.047024008,0.09124806,0.032187857,0.07775534,0.017634824,0.041844197,0.06102668,-0.0396835,0.080771185,0.05985458,0.018929921,0.066114165,0.019808212,0.068482056,0.054493874,0.0548643,0.057719003,0.09890052,0.11525683,0.103781536,0.11607028,0.06487098,0.03547522,0.0031815348,0.013875307,0.08671329,-0.018884167,0.045801766,0.062186517,0.09256953,0.10982651,0.06027244,-0.00028312733,0.017807439,0.0662385,-0.061340924,0.0049267323,0.089743,0.081841685,0.074931614,0.0799445,0.12962443,0.07908752,-0.08548241,-0.02135614,0.031170152,0.08292966,-0.10536014,0.056113407,0.012555412,0.045470513,0.03148352,0.025017446,0.036171656,-0.06826375,-0.029464817,0.036363766,0.014024717,0.045899153,-0.06339852,0.041118238,0.041570492,-0.0063478583,0.08225474,-0.0013056927,0.025926,0.0787739,0.051657066,-0.12990277,0.061190363,-0.120641164,0.024433063,-0.052806146,-0.24637143,-0.12891692,-0.064112455,-0.29542944,0.08045332,-0.19786607,0.06995772,-0.32601568,0.05044273,0.083636045,0.06864891,0.011980529,0.034648027,-0.11306538,-0.10203657,-0.11427728,0.04325825,-0.17017058,-0.3381249,0.016265271,0.06368346,0.046905972,0.04396596,0.057732414,0.09345922,0.012226114,-0.113322854,-0.29001692,-0.3418546,-0.0570445,0.029110458,0.06101345,0.031158132,0.019076798,0.035705745,0.08975329,0.040925164,-0.12076762,-0.3558134,-0.45613366,-0.051556278,0.06722266,0.06461804,0.06453873,0.022107607,0.02670879,0.09363109,0.023561127,-0.091142796,-0.30607778,-0.3283437,-0.06829797,0.014280553,0.040216774,0.08995198,-0.023052821,-0.008447193,0.07572961,0.082640536,-0.1328104,-0.45676386,-0.37598756,-0.009807333,0.03475474,-0.013947362,0.02157889,0.045509435,0.039143037,0.08153627,0.03684361,-0.10994748,-0.28046542,-0.06601781,0.057530817,0.046976678,0.029044049,0.022322396,0.053323828,0.045883544,0.10182943,-0.0146383215,-0.12040715,-0.4311982,-0.0067182193,0.11600677,0.07555831,0.06978887,0.08189611,0.016278777,0.04492572,0.015882468,-0.06557102,-0.0813988,-0.3722018,0.06815507,0.14523292,0.031232541,0.07137387,0.09771664,0.07201019,0.07233375,0.031775124,-0.0881168,-0.24553816,0.057402387,-0.13872112,0.075388476,0.05327319,-0.41541725,0.107948594,-0.027270677,-0.24221148,-0.26518944,-0.31649336,0.057119507,-0.20901354,0.56287956,-0.0026447342,-0.04270388,0.0044943714,-0.004294941,0.00328378,-0.027530462,0.043702256,0.07134686,0.023277385,-0.0046787476,0.007977266,-0.031032778,-0.099764526,-0.037967674,-0.016718779,-0.00586172,0.017760776,0.08239277,0.07044657,0.08350969,0.029673127,-0.010063501,-0.06485907,-0.11107412,-0.046087384,-0.030450646,-0.046003543,-0.009146855,0.05494755,0.04827653,0.083247736,0.038694963,0.00804026,-0.10615826,-0.16823196,-0.13872626,-0.1282912,-0.054351553,-0.046717975,0.0006807213,0.028047746,0.014017612,0.021786705,-0.03573864,-0.11559466,-0.1558098,-0.13244799,-0.09786898,-0.04377192,-0.028820707,-0.008677351,-0.0076858527,0.013300201,0.015308039,0.012698808,-0.13193461,-0.17455384,-0.106741905,-0.097724155,-0.11273173,-0.051558156,-0.010925027,0.012792096,0.004145021,-0.049902868,-0.01951759,-0.16862693,-0.16442382,-0.14557861,-0.13876943,-0.08703431,-0.0023811066,-0.03587913,-0.016596898,0.010759202,0.031149575,0.0162085,-0.17561893,-0.16985433,-0.207468,-0.16150464,-0.08191336,-0.0056576286,-0.03489087,-0.018363338,0.012590609,0.069563076,0.023819495,-0.187649,-0.21922944,-0.21319832,-0.16569643,-0.1345624,-0.046736956,-0.010371612,0.03435279,0.06992289,0.043295454,0.04254936,-0.13983354,-0.29279846,-0.21345565,-0.15866743,-0.14576118,-0.053268276,0.037934225,0.05214522,0.093223244,0.07581486,0.113832034,0.030343622,-0.067976646,-0.16261706,-0.15398008,-0.105657734,-0.079651855,-0.030488946,0.06069073,0.05458575,0.0033141403,-0.023231866,-0.025473988,-0.103261374,-0.022232542,0.01157493,-0.021704713,-0.033640154,-0.06951173,-0.054618485,-0.037184168,-0.036570076,0.013610582,0.0979452,0.0140080005,0.055845067,0.014953811,0.0022990992,0.022538645,-0.021010838,0.0020772268,0.0060899137,-0.035399124,-0.035886303,0.04833166,0.05174428,0.015611266,0.055976678,0.0138352085,0.02841225,0.037684146,-0.041627213,0.014654705,-0.039744705,-0.054446004,-0.008016691,0.051934242,0.019554995,0.015365219,0.03241349,0.024930034,-0.02057706,-0.007556404,-0.048617743,-0.058674566,-0.04395611,0.080132544,0.009339669,0.050565407,0.0100833345,0.016284661,-0.041050747,-0.045354404,-0.015321031,0.013393705,-0.05723589,-0.040176135,0.018853042,0.049237926,0.05221751,0.05457024,0.008025423,0.017263755,0.004224899,0.0057144486,-0.035924334,0.022921046,-0.014815041,0.05632789,0.048271466,0.02244404,0.020072617,0.057208676,-0.002938945,0.009713515,-0.054024663,0.0023169336,0.0058760825,-0.019711472,0.05340708,0.04949074,0.079721205,0.046139844,0.03636163,-0.0054078223,-0.012446312,-0.008261918,0.017958531,0.045764484,-0.04530955,0.09135096,0.039803267,0.01723804,0.03104772,0.04700015,0.024542695,0.030683527,0.015066543,0.042014416,0.015036395,-0.04622803,0.1775549,0.14818577,0.05915707,0.012251306,0.02362931,0.029283073,-0.039042104,0.042669762,0.013786134,-0.040013403,-0.11626201,0.029292746,0.15780728,0.06551472,0.057728246,0.06302399,0.00732102,0.033785526,0.010847511,-0.010843503,-0.11949389,-0.019382898,0.095760435,-0.6442934,-0.019176472,-0.06787486,0.11463216,-0.15719354,-0.04852836,-0.015169588,-0.0012375542,-0.5789557,0.11547171,-0.59203,0.48997095,-0.62753403,-0.16547468,-0.14966944,-0.17514312,0.035910383,-0.09609922,-0.1366905,-0.22221087,-0.5906163,-1.075937,-0.973537,-0.8882851,-0.6124315,-0.7098231,-0.654327,-0.4795173,-0.19946954,-0.014085155,-0.19516215,-0.106550604,-1.1059397,-0.9762287,-0.6885087,-0.7534572,-0.8225435,-0.61340964,-0.5302858,-0.58050275,-0.15138729,-0.10439399,0.058825087,-0.988319,-0.8049108,-0.6802879,-0.84663165,-0.58076155,-0.53294075,-0.47233516,-0.49844623,-0.36532438,-0.0006986573,0.041809708,-0.9597093,-0.95491683,-0.85754925,-0.813929,-0.8095866,-0.85899615,-0.6446984,-0.5745737,-0.4750253,-0.010371526,0.086595185,-1.0374649,-0.902981,-0.95311135,-0.6480285,-0.59248257,-0.71830857,-0.4881965,-0.6069245,-0.6069415,0.0982943,-0.25060478,-0.9851146,-0.87558794,-0.86587787,-0.83197314,-0.57365066,-0.6459146,-0.65676475,-0.52252865,-0.12110803,-0.03550198,-0.05757814,-1.1093075,-1.0023901,-0.8575491,-0.8762006,-0.8158254,-0.7678555,-0.54873365,-0.29386565,-0.035023622,-0.11937106,0.095397756,-0.73539615,-1.0484976,-1.2022762,-1.0965248,-1.0521386,-0.8606154,-0.09574456,0.0046932823,-0.051932853,-0.0036193451,-0.55607116,0.08485593,-0.71169144,-1.2251205,-1.2093728,-1.0380996,0.56086254,0.22764638,0.0024965685,0.027832255,-0.5936758,0.06336051,1.1544155,-0.018577209,0.071353436,-0.08649075,0.06914022,0.047119267,-0.013436509,-0.038096692,-0.04887559,-0.017435709,-0.08962853,-0.039833255,-0.068663105,-0.008112717,0.0077500213,-0.0032433039,-0.037715353,-0.034250025,-0.093102224,-0.0625228,-0.08023131,0.013544199,0.15077905,-0.072270215,-0.13141672,0.023932578,-0.039890025,-0.013528505,-0.04475737,-0.012105048,-0.06430589,0.03171941,0.11919861,0.1584306,-0.08798783,-0.12038382,-0.043174323,-0.03663367,-0.00058241235,-0.03488717,-0.06691992,0.005979451,0.10007823,0.15749654,0.109850444,-0.021295885,-0.04261519,-0.036755554,-0.027269667,-0.045442328,-0.06742355,-0.018606123,-0.01500335,0.012660379,0.08095097,0.09310569,-0.0445251,-0.039691713,0.023151081,-0.025561064,-0.0045197415,-0.048309177,0.08114524,0.01884775,0.03225996,0.11920663,0.10180453,-0.02064447,-0.007237182,-0.05274784,-0.0019510696,0.00019777051,-0.00254366,-0.030102901,0.027141571,0.004832726,0.112118974,0.080248415,-0.030849684,0.007758913,-0.0011174855,0.00038134333,-0.046535842,-0.010655558,-0.025829688,0.043396704,0.028940732,0.057725858,0.026687015,-0.05757539,0.010513988,-0.03531886,-0.047680624,-0.051839978,-0.07083264,-0.08497613,-0.016378256,-0.018727878,-0.002952314,0.031457834,-0.024769017,-0.045402814,-0.011691524,-0.11924841,-0.028560802,-0.07110329,-0.05641317,-0.094221085,-0.05812587,-0.039421957,-0.055287614,-0.044866484,-0.100839436,-0.074844755,-0.049926154,0.011098631,-0.10696407,-0.04831043,-0.049143076,-0.058481224,0.0053032073,0.0014730784,0.04586448,0.08641717,0.009106843,0.03078399,0.056689274,0.032181557,0.036840085,0.091976084,-0.06464888,0.121570386,-0.021128219,0.15511489,0.019527731,0.033566955,0.008279776,0.018448666,0.07376176,0.047230724,0.05393722,0.031829745,-0.019253407,-0.073332295,0.027636236,0.15561517,0.012620834,0.057907447,0.08432035,0.14254187,0.18689491,0.073095255,0.15059476,0.0031441078,-0.12758896,0.02573583,0.07394545,0.09431755,0.032451965,0.112627864,0.081674196,0.07812576,0.056465916,0.013265326,0.014804417,-0.01871176,0.029556202,0.047074787,0.026378969,0.059100367,0.056204703,0.116819225,0.08284312,0.05456611,0.033418495,0.03621709,-0.024384905,0.034886338,0.059501823,0.09911694,0.04896062,0.10177148,0.018490039,0.07125806,0.061868194,0.06519646,0.06566095,0.0036003338,0.047363438,0.10338628,0.088950306,0.07127978,0.06453682,0.06990336,0.060346786,0.067995735,0.02658799,0.023559557,0.02348302,0.13327304,0.109083444,0.030448942,0.055347096,0.08206577,0.07352486,0.13077809,0.021506762,0.013147042,0.08342391,0.005460142,0.1415071,0.039728176,-0.0008848966,-0.031485036,0.0976914,0.11577237,0.090426326,0.095066376,0.018055838,-0.08860666,0.0007889765,0.17386514,0.054734956,0.009508669,0.045741882,0.12184563,0.054723483,0.11561712,0.07178666,0.0776471,0.010308215,0.018809875,-0.014640203,0.11159492,-0.010194646,0.11527955,0.06253916,0.061851166,0.07653702,0.025263272,0.035129517,0.09354504,0.02416662,-0.13002694,0.12965342,0.17438518,-0.18876685,-0.20027584,-0.35605583,-0.074443266,-0.21745738,-0.16333054,0.13788947,-0.13287418,0.14759986,-0.17032874,-0.25499508,-0.21364547,-0.13893144,-0.046471175,-0.1256904,-0.0209681,0.27583542,0.11591639,0.16973227,-0.06520662,-0.11692181,-0.12856217,-0.08998414,-0.032504346,0.0011596298,-0.015646633,0.031587116,0.04653447,0.2344217,0.15459171,-0.13241595,-0.10875823,-0.07069389,0.003885025,0.05800269,0.048052307,0.062252063,0.09361676,0.08869344,0.21742114,0.08156995,-0.19407707,-0.12063428,0.0050087515,0.061872736,0.10782746,0.1425878,-0.020964844,0.061366595,0.05919624,0.19796881,0.14546633,-0.14958143,-0.10431705,0.020578332,0.042986494,0.083824486,0.040538132,0.018266724,0.0670987,0.052012198,0.07101029,0.06435604,-0.10737863,-0.10833674,0.0614253,0.019016474,0.0095903585,0.060066495,0.066426665,0.11964836,0.07468012,0.1249556,0.1236968,0.15438968,-0.17310864,-0.0056041516,0.05012442,0.034563363,0.052288856,0.08852747,0.0874594,0.08634284,0.14996736,0.072550096,0.08426181,-0.074978024,-0.10973324,-0.015198463,0.0019330407,0.026174318,0.05024467,0.06409898,0.0020900264,0.08155642,-0.023248607,0.14624724,-0.2757777,-0.24781542,-0.23846442,-0.06338409,-0.06882724,-0.019822888,-0.047090337,-0.20786603,-0.22685838,0.17128354,-0.12113173,0.14254133,-0.08864781,-0.15840632,-0.1289326,0.003178134,-0.0068211327,-0.13062596,0.021969981,0.18328936,-0.16705568,0.65247804,-0.03107605,-0.07998096,-0.105859876,-0.10711326,-0.08431445,-0.046479564,-0.026619053,0.04737212,0.017327473,0.033386588,-0.028745016,0.116937704,-0.05741758,-0.066660345,-0.054050107,-0.046095055,-0.09526876,0.00224809,0.008562201,0.081278816,0.036969654,0.07127148,0.0026791624,-0.025684552,-0.04202083,-0.041960333,-0.061608378,-0.054483958,-0.014367205,-0.03718969,0.06678416,-0.028327128,-0.077297784,0.044589896,-0.02490335,-0.07918239,-0.035314955,-0.03185765,-0.023661492,0.016515244,-0.042623162,-0.023684701,-0.08830163,-0.027493464,0.06665408,-0.020225625,-0.026151039,-0.0059228702,-0.0059797675,-0.03661121,-0.0031904287,-0.024885466,-0.034823176,-0.06744357,-0.065851524,0.09858363,0.039296973,0.025194902,0.018400177,0.03360201,0.051890876,0.013029204,-0.011015169,-0.007476288,-0.06790334,-0.06494927,0.05988806,0.055152874,0.008365009,-0.017289838,0.020178525,-0.037884485,-0.016214017,-0.009445181,-0.035885796,-0.07825346,-0.06742169,0.11771634,0.09425743,0.09409835,0.006262455,0.022114111,0.008630275,-0.010354573,-0.011716659,-0.049601134,-0.07902839,-0.08265906,0.14144474,0.104849696,0.12197096,-0.04679044,-0.020347683,-0.047877636,-0.034838438,-0.015858235,-0.06030152,-0.124432325,-0.11869741,0.05434278,0.07654928,0.079076886,-0.043613687,-0.098586895,-0.09130088,-0.087444946,-0.070011266,-0.11712269,-0.13019416,-0.050089356,0.008493379,0.14780241,-0.034649942,0.0055444436,-0.0473775,-0.0794896,-0.067728765,-0.07411269,-0.12684114,-0.00017814935,0.0078709265,0.007651875,0.04143875,0.083230466,0.030598141,0.032960244,-0.005337488,0.0049140253,0.059613265,0.08604802,-0.014260927,0.0009875257,-0.11350044,-0.005575557,0.025254728,0.02385007,0.050151765,0.0391963,0.03644764,0.040932756,0.054174922,0.02982822,-0.023077343,0.053652152,-0.04674277,-0.018043354,0.010773829,0.0828038,0.059918627,0.02727456,0.044408258,-0.0021437465,0.042816248,0.094229266,0.04817839,0.0015999302,0.012942888,0.04090212,0.027435808,0.052017916,0.071849875,0.03501667,0.04076852,0.012028943,0.048216287,-0.043432668,0.020757165,-0.0049877996,-0.0065985555,0.041367736,0.020997906,0.054616544,0.026976403,0.016751701,0.077941574,0.10267793,-0.010346579,-0.0037085041,0.025165457,0.01955306,-0.011774018,-0.00014213553,0.004821599,0.070868395,0.07084556,0.012471627,0.054479394,-0.01122529,-0.012343049,0.006484272,0.018212805,0.021414366,0.025165008,0.015124171,0.047072582,0.06275767,0.047028717,0.029965168,0.041055042,5.507292e-05,0.033589505,-0.025971312,0.027509244,0.06151037,0.07246134,0.029143015,0.06035255,0.06729293,0.07682842,-0.08424423,-0.021925442,0.035502326,-0.004496662,0.042853355,0.06944489,0.05634825,0.09572346,0.067750365,0.040750746,0.06418497,-0.07204287,-0.09703098,-0.039266232,-0.050522313,0.021383865,0.028122436,0.024881218,0.05603691,0.045843113,0.06251346,0.13652372,0.020405432,-0.046305407,-0.11956747,0.005916445,-0.049640816,0.06319774,0.056029968,0.067975506,0.10518366,0.13728358,0.052321725,0.8042708,0.9969564,0.7822802,0.6767399,0.7625386,0.62818563,0.30213347,0.5236646,-0.9450633,0.9306533,0.8561764,1.0134054,0.6676938,0.63085705,0.6740985,0.6087583,0.4997517,0.44378665,0.32797968,0.36142454,0.3924265,1.0509214,-0.34912303,0.57573634,0.5580407,0.5307661,0.4659679,0.44021392,0.42434958,0.44350767,0.45223427,0.46624637,-0.07483497,0.3710594,0.5448663,0.5631885,0.45986992,0.43476048,0.5067441,0.5032048,0.4824502,0.42587727,0.5073735,0.7864148,0.2644743,0.39201522,0.497046,0.39678204,0.45098838,0.47431755,0.3786039,0.51621264,0.42759353,0.5969818,0.7258029,-0.6205077,0.33610854,0.43469918,0.42538524,0.44306296,0.4689695,0.43067616,0.521805,0.48315302,0.68796,0.7048672,-0.6606789,0.22047476,0.38948482,0.48531142,0.45280293,0.46688852,0.43653905,0.49874339,0.5685419,0.6676887,0.6608409,-0.6598891,-0.2789195,0.3407396,0.3477847,0.42995456,0.42148626,0.387138,0.43158746,0.56420106,0.76837605,0.829156,-1.1897106,-0.57559633,0.26436743,0.4785366,0.47178474,0.49809715,0.46160272,0.54720074,0.7053119,0.7609868,0.92613345,1.0040506,0.8122256,0.009533767,0.4768733,0.48633793,0.5311878,0.62762886,0.7384773,0.824231,0.9078797,1.0056571,0.75488055,1.0412368,-0.95323306,0.5482324,0.5218754,0.89241445,0.8791131,0.6972205,0.69129354,1.0129955,0.7702102,-1.1183323,0.012603899,0.07080693,0.11518456,0.11268633,0.18684047,0.15269588,0.114649914,0.16095132,0.059028473,0.032444715,0.025781453,0.06758117,0.13551705,0.010420828,0.08491866,0.17055127,0.12163143,0.10838933,0.17914303,0.05932693,0.081390284,0.18829404,0.037120704,-0.07335603,0.08596131,0.06062753,0.07881207,0.10653706,0.095863834,0.060249634,0.07152725,0.1021456,-0.027163297,-0.06256734,-0.009034403,0.040521465,0.02356283,0.10881578,0.04721635,0.035220698,0.036351115,0.008519796,-0.12221999,0.067044616,0.006445995,0.0017334135,0.0005110841,0.031543314,0.012868832,0.050331734,-0.005683453,0.044704605,-0.01961017,-0.0062243557,0.022964789,-0.10293568,0.016017066,0.026032431,0.0056710374,0.025295071,-0.034320004,0.033525374,0.009842468,-0.011531978,-0.11296068,-0.01515614,-0.03647987,-0.06070815,-0.013641782,-0.009664925,-0.0030511613,-0.020892352,0.026120711,0.02113825,-0.02546829,-0.04198855,-0.007268425,-0.0506578,-0.017821454,-0.06717198,0.039232124,0.008970368,0.01587377,-0.008369445,0.0034196866,-0.010466896,-0.009417702,-0.044750143,-0.045761373,0.0036453942,-0.030458838,-0.053091127,-0.06399023,0.03129681,-0.037504945,0.016708475,-0.07195308,-0.07731662,-0.007743148,-0.02648783,-0.033504937,0.0059252996,-0.02965877,-0.06956021,-0.03646081,0.024657207,0.0027217234,0.03211438,-0.03382145,-0.020947075,0.051274773,0.07852708,-0.023185069,-0.03861936,-0.015882874,-0.019132474,-0.048842043,-0.044255905,-0.08442495,-0.039386176,-0.042643588,0.017301988,0.054391585,-0.030195747,-0.023669358,-0.052852403,-0.090255894,-0.081144996,-0.015625449,-0.035840217,-0.14747028,-0.012702697,0.047594834,0.07487501,-0.020641107,0.044285584,-0.042131424,-0.0071026655,-0.0064343405,0.038990077,-0.026041979,-0.08033618,-0.015022059,0.058031823,0.083213635,0.08589554,0.04429644,0.033692807,0.024361055,0.04991941,-0.01241379,-0.1333019,0.045163177,-0.0031520156,0.04054939,0.068809934,0.037005562,0.02504303,0.03722575,0.01949535,-0.00601364,0.021697117,0.014097508,-0.038093667,0.05893607,0.03939669,0.11225878,0.013222831,0.06745414,0.07636582,0.005463204,0.105969034,0.057484623,0.07061725,0.057479806,0.056946687,0.04043532,0.06967502,0.07559815,0.03907026,0.09579279,0.020358471,0.07081306,0.007963577,0.070154294,0.08911515,0.0352675,0.115466245,0.057157915,0.037337177,0.1092709,0.055955075,0.08620499,0.10681342,0.072464325,0.03816469,0.022011293,0.045743763,0.057737425,0.042498723,0.021925826,0.0649182,0.12460832,0.017447546,0.06433128,0.06182377,-0.0064077447,0.08298479,0.0632302,0.08947199,0.06590494,-0.03844159,0.06467014,0.054176725,0.088989556,0.0917409,0.07562802,-0.013808601,0.04826044,-0.02711168,0.25109386,0.069771364,-0.0046328465,-0.03422904,0.008422091,0.046543878,0.0652553,0.039689284,0.042622816,0.0027653058,0.01274618,0.03493937,0.07501788,0.09737232,0.034005467,0.030944768,0.09334329,0.07344893,0.092165284,0.085061155,0.108558886,-0.017869981,0.27673656,0.28407928,0.31662697,0.29857594,0.26370296,0.32950833,0.27367538,0.34323055,0.2647095,0.25989336,0.23087575,0.2930701,-0.29223293,0.4428738,0.39875817,0.36651897,0.35945603,0.33255765,0.338674,0.3291905,0.3057771,0.27133834,-0.09851697,0.43740937,0.4014661,0.3733316,0.33532503,0.33035553,0.35067204,0.3461948,0.29495013,-0.051378854,0.3396241,0.083465666,0.28244781,0.3736816,0.32294258,0.3702549,0.30510688,0.3355518,0.34182075,0.3566337,0.40004876,-0.042027894,0.009238149,0.26970375,0.36027852,0.35908592,0.35766292,0.3268165,0.3213504,0.29836783,0.38975868,0.16640145,0.005056359,0.1675582,0.14375454,0.35111776,0.29956132,0.32272324,0.27710882,0.28923476,0.32452318,0.35077053,0.14313105,0.10224602,0.105482765,0.18955576,0.36456704,0.3473297,0.30826095,0.3078291,0.35348788,0.35988763,0.34840652,0.11817547,0.08211654,0.041810457,0.09326287,0.33925015,0.298168,0.31408593,0.3214409,0.32889596,0.33020025,0.30012614,0.1653898,0.011134775,0.2275178,0.1651773,0.21011198,0.25208774,0.32042328,0.30525973,0.3319623,0.28960362,0.15718892,0.11488157,0.027661758,0.26360986,0.039062195,0.13629003,0.117696166,0.09944222,0.24278113,0.22565307,0.22980857,0.1669502,0.13533635,0.25354794,0.24349414,0.257548,0.27767456,0.14903778,0.05062066,0.051390618,-0.013587021,0.12474206,0.013392483,0.28358874,0.2359208,-0.5135087,0.00916606,0.11335452,0.14454567,0.16202708,0.15097523,0.12023359,0.14558102,0.123592034,0.0766762,0.05914279,-0.048021514,0.18066753,0.13644044,0.1377716,0.06646862,0.10318234,0.10751321,0.1137432,0.10984621,0.053663984,0.026808744,0.08182878,0.03754608,0.04456208,0.1371134,0.068082124,0.059271526,0.055582184,0.08631289,0.05689509,0.028123407,-0.0022534803,-0.010808999,0.06270601,-0.035166804,-0.04548558,0.05522592,0.058881212,0.07083617,0.01886779,-0.016632155,0.001274251,-0.029433582,0.03358202,-0.022740422,-0.06069152,-0.0788086,0.021184342,0.074534535,0.05458046,0.018493295,0.06217269,0.028028913,-0.03256731,-0.032975968,-0.010755002,-0.0613558,-0.04353859,