-0.048850857,0.1919956,0.1369171,-0.040794283,-0.023713823,-0.15613738,-0.19844237,-0.32799903,-0.21518652,-0.28832754,-0.022433357,-0.15252699,0.1537875,0.114662915,0.0047022756,-0.06527326,-0.16291665,-0.20620331,-0.23038547,-0.29627955,-0.22148825,-0.16984127,-0.21822017,-0.0054637217,0.033569448,-0.047522042,-0.07008278,-0.22155944,-0.12160493,-0.2650819,-0.19319344,-0.2076275,-0.069079734,-0.27745348,-0.07492611,-0.053794954,-0.124030635,-0.1618893,-0.14119394,-0.20646064,-0.17221518,-0.20927425,-0.06449615,-0.091158554,-0.20568366,-0.1489121,-0.13072813,-0.15530774,-0.21948613,-0.124843195,-0.21295749,-0.22056104,-0.13050419,-0.07481638,-0.08703413,-0.22204602,-0.10356954,-0.09077315,-0.055026546,-0.09665781,0.05012118,-0.04297246,-0.06338533,-0.04977056,0.0052327043,0.04161994,-0.16933551,-0.012433293,-0.0623021,-0.104390465,-0.121956825,-0.1051969,-0.13623266,-0.122706436,-0.06955944,0.027971748,0.028123375,-0.107727766,0.07154834,0.025253374,-0.047669925,-0.09355156,-0.026491035,-0.08633485,-0.06451506,-0.032049682,0.08793765,-0.066576734,-0.142577,0.119381525,0.044803407,-0.018478932,-0.095076956,-0.10447689,-0.06055702,-0.080695555,-0.081799366,-0.029265316,-0.012198459,0.09178739,0.32301465,0.08656942,0.05610287,-0.07454565,-0.09565806,-0.072825186,-0.070668384,-0.0944264,0.0074488563,-0.16303185,-0.043556914,0.048469655,-0.10532681,-0.23071195,-0.24525972,-0.25427377,-0.24335054,-0.23498933,-0.18382543,-0.06474376,0.012497404,0.01553706,-0.20526762,-0.14588083,-0.12240331,-0.050127834,-0.0030694695,0.0434988,0.13950565,0.12084173,0.04123052,-0.020577248,-0.060405508,0.0020718588,-0.080381304,0.04427455,-0.06234982,0.1262783,0.07562912,0.105701916,0.11303632,0.20981316,0.16752478,-0.02710166,-0.07717188,0.008732955,0.051828735,-0.0059359185,0.10875931,0.08608889,0.09086857,0.07355042,0.20111728,0.1599263,0.040727638,-0.013210566,-0.013244785,0.023649188,0.049699765,0.090679936,0.047247455,0.02242796,0.09208872,0.17248033,0.15518227,0.014771099,-0.010290997,-0.04697019,-0.0012278686,0.011913076,0.026318338,-0.006709999,0.008229921,0.12918952,0.13872127,0.05068384,0.04150739,0.010628023,-0.019990245,0.02549516,0.050593402,0.006023677,0.104673915,-0.08198718,0.089620456,0.09851035,0.05188275,-0.02656492,0.023091767,0.015105684,-0.011103653,0.038122546,0.09323866,0.015416692,0.028551068,0.0648082,0.09208579,0.103776544,-0.031637587,-0.055997007,-0.065355346,-0.039725777,0.047753893,0.054577917,-0.0656033,-0.0016027926,0.05965454,0.0791569,-0.020866811,-0.11994072,-0.10082811,-0.11630803,-0.05456561,0.054298785,-0.00045768294,0.013330879,0.034432337,0.07320285,0.029741906,0.069999166,-0.24692531,-0.208653,-0.15003249,-0.11755695,-0.18967775,0.005919003,-0.08666063,-0.025236236,-0.004505227,-0.04701758,0.032645103,0.011529892,-0.20359363,-0.1769078,-0.036802117,-0.0614228,-0.028260596,0.07386238,-0.037300102,-0.019741962,-0.04361656,-0.003670668,-0.17187539,1.0801678,-1.3951086,-2.3573518,0.8362572,0.3711257,0.8576219,1.4781301,2.2748733,0.9561081,-0.13170618,1.1413101,-0.6901767,-1.5030729,-0.6859947,0.092278086,0.32567066,0.69929504,0.9083056,1.0560267,-0.21849456,0.99025226,-0.1890999,-1.1250033,-0.6369219,-0.31607628,-0.11842329,-0.19560479,0.022179402,0.19002932,0.057381496,-0.6889729,0.5463911,-0.038319953,-0.55859363,-0.4798016,-0.18719926,-0.13760546,-0.16389284,-0.06617462,-0.08081754,0.028283838,-0.41925657,-0.22602965,0.2445123,-0.20025459,-0.30857727,-0.3878508,-0.27460137,-0.21442296,-0.10531878,-0.020308333,-0.08978827,-0.44546142,-0.645414,-0.288391,-0.59420294,-0.6045202,-0.5354617,-0.24838683,-0.22170852,-0.2370787,-0.28143466,-0.13114408,-0.46020898,-1.0424538,-0.23553595,-0.8831694,-0.50002587,-0.61046046,-0.43402186,-0.4036794,-0.22423701,-0.25606358,-0.1849539,-0.630721,-0.6903402,-1.2911654,-1.1969421,-0.48410702,-0.7611317,-0.5214546,-0.39240304,-0.1984518,-0.21867551,-0.4620855,-1.0604553,-1.2258065,-2.576492,-1.2781644,-0.5446734,-0.49199268,-0.62806505,-0.49567175,-0.612477,-0.48481718,-0.82632494,-1.316103,-1.9423938,1.1346768,-0.19595936,-0.934238,-0.73235375,-0.44621572,-0.5293406,-0.33181632,-0.5646626,-1.1661984,-1.0157568,0.85652655,-0.19883192,1.0674491,-1.5698991,-1.3119785,0.1947992,0.3809711,0.6440477,0.23282078,1.2736655,0.8289748,-0.19898517,1.9905145,-0.049351275,0.07648705,0.07721969,-0.03852077,0.1459915,-0.22425382,0.08807175,-0.22600107,-0.2434694,0.05505521,0.0107900845,-0.020464508,0.08671209,0.116749294,0.1461477,-0.019121004,-0.056992747,-0.04129275,-0.2315441,-0.14200087,0.08765307,0.362251,-0.14729549,0.23962383,-0.02180937,0.10368296,0.042664055,-0.17442675,0.16187257,-0.36239475,-0.30511412,-0.10337762,0.14489886,-0.11441658,-0.008724856,-0.008313729,-0.20435034,-0.2611011,-0.13845107,-0.15141563,-0.14115247,-0.37266287,0.042870183,0.21081358,0.0801941,0.009657159,-0.076167904,-0.30009535,-0.39646482,0.08656666,-0.29107153,-0.42314395,-0.3482429,-0.011737655,0.15532252,-0.057984434,-0.13095607,-0.14201078,0.114517756,-0.2756734,0.04438987,0.08776163,0.06896506,-0.10864215,-0.05706125,0.32327232,-0.021457845,0.19319688,-0.15089135,-0.046302777,0.00826073,-0.035192862,-0.18647379,-0.05007721,-0.23417029,0.3289317,0.26032963,-0.039236512,0.24436514,-0.29383212,-0.006287086,-0.06324349,0.16854246,-0.04706616,-0.13233314,-0.30480972,0.12733775,0.20688695,-0.1935144,-0.07966179,-0.07454716,0.020710686,-0.22714281,-0.11688967,0.011182842,-0.12924172,-0.3894355,0.061152328,0.14727251,0.093616724,0.17034283,-0.13374516,0.3191462,-0.045354694,0.0047036456,0.08608308,0.038078327,-0.23403563,0.07135939,0.24408293,0.0034577397,0.48344618,-0.31404948,-0.45745066,-0.38842192,-0.30925843,-0.22385602,-0.22143054,-0.43759945,-0.03715573,-0.051277407,0.00955922,0.11212332,0.19754875,-0.010748504,-0.18792194,-0.08004231,0.18632512,0.21205427,0.16742665,0.45682898,0.042388577,0.034776695,0.060095426,0.093767986,-0.06567341,-0.071658365,0.27201968,-0.13169722,-0.00449268,-0.12761116,0.1128711,0.13013805,-0.040615834,0.036917657,-0.1376746,-0.10545169,-0.25023615,-0.047233835,0.11944415,-0.15340978,-0.35170808,-0.001860145,-0.20118327,0.06403524,0.08130416,-0.2549788,-0.058114562,-0.023618922,0.006362282,-0.320589,-0.2834316,-0.38722634,0.020215504,0.10354903,0.07297265,-0.03560472,-0.084566,-0.330356,0.014286873,0.04982675,0.017963316,-0.2665627,0.10352437,-0.012651387,-0.06859781,0.03148092,-0.0076261233,-0.08195028,-0.06606478,0.31969303,0.04231693,0.3865825,-0.22244844,-0.069167435,0.07970671,-0.0427292,0.0147368815,-0.15863857,-0.02377587,0.049401082,0.006705996,0.20416695,-0.036801025,-0.09050088,0.02978831,-0.070026815,-0.17560904,0.020347156,0.073138416,-0.19006464,-0.07556595,0.10183113,0.074725285,-0.07247546,-0.080707245,-0.16307244,0.13468699,0.0008394653,-0.15737252,0.001545198,-0.19952334,-0.047274705,0.20296474,0.00772563,-0.31776947,0.14627296,0.2169875,0.17317533,0.027666828,0.028161297,0.051040024,-0.09656727,0.05659854,-0.11213732,0.06954945,-0.086882696,-0.124562114,0.022157973,0.018091237,-0.34590906,0.036079768,0.28705737,0.18536553,0.2577822,-0.14490154,0.084051944,0.3017456,0.12914181,-0.03738116,0.23607214,0.047851495,-0.22415599,0.4623779,-1.0848522,-1.3753786,-0.6316776,-0.28036112,0.09621755,0.41552168,0.19035882,0.32443964,-0.23087966,0.44435695,-0.54510975,-0.979913,-0.8732176,-0.51742154,-0.27412757,-0.23222084,-0.10855036,-0.29530343,-1.7888565,0.3729275,-1.3516891,-1.0388161,-0.5885769,-0.3965781,-0.32331192,-0.121906236,-0.28592893,-0.39773223,-0.1137241,-0.8560922,-0.95685,-0.6894007,-0.4878032,-0.1816573,-0.2972023,-0.38568237,-0.19944306,-0.38984144,-0.38143736,-0.14071801,-0.3123557,-0.45529565,-2.0535474,-0.56033194,-0.1461771,-0.07831663,-0.37781203,-0.073153816,-0.25381237,-0.029308388,-0.20656636,-0.31829566,-0.83582646,-0.88406813,-0.4715031,-0.32216427,-0.49376538,-0.20313111,-0.42739245,-0.11806644,-0.41426268,-0.092795625,-0.40982765,-0.45427772,-2.1619654,-0.27951348,-0.39332697,-0.61518335,-0.33541277,-0.20714657,-0.5303555,-0.51682913,-0.1692614,-0.22306772,-1.4013331,-0.6298139,-0.7635463,-0.6033689,-0.9205686,-0.30102155,-0.6861423,-0.445376,-0.44881585,-0.5402044,-0.3948655,-0.8196835,-2.153512,-2.3251793,-0.7065272,-0.46575668,-0.454913,-0.23682605,-0.45500702,-0.2450617,-0.36548942,-1.3015676,-2.4448903,0.35540852,-0.36383244,-1.1627821,-0.4139901,-0.8843092,-0.5912212,-0.37244698,-0.22712767,-0.5213534,-0.80444163,0.32250786,-0.27554384,0.44281688,-0.89637595,0.05322437,-0.5093498,-0.31569946,-0.6560318,-1.6741899,-1.0847545,0.37407917,-0.26588276,1.4454633,0.021414403,-0.2968864,-0.07745966,-0.15455268,-0.13963716,-0.11909375,-0.15591592,-0.0752349,-0.043481406,-0.076420836,0.031634763,-0.12497899,-0.12085445,-0.14103045,-0.14070798,-0.09547956,-0.13084681,-0.08461347,-0.036389243,0.038486857,0.048716877,-0.11782842,-0.2645283,-0.23557466,-0.17018577,-0.1779147,-0.14290637,-0.12138048,-0.12989497,-0.07190604,-0.040144987,-0.054982174,0.028098956,-0.28813815,-0.23810834,-0.2236066,-0.16226868,-0.19657207,-0.11393867,-0.15067515,-0.12590401,-0.109970696,-0.087121546,-0.071662344,-0.27371284,-0.2288705,-0.24368761,-0.1899839,-0.187208,-0.1593974,-0.16412579,-0.1531193,-0.09202392,-0.10909782,-0.12801126,-0.21143255,-0.14927426,-0.16044444,-0.1956446,-0.107355624,0.006752562,-0.089340426,-0.1738643,-0.15777776,-0.120906174,-0.1518706,-0.23467807,-0.19180526,-0.16945024,-0.1633944,-0.1801831,-0.15464544,-0.146898,-0.18475668,-0.12699994,-0.19261704,-0.06895174,-0.20781656,-0.13031033,-0.17586951,-0.17141637,-0.1735734,-0.18403088,-0.17762625,-0.18467127,-0.14569105,-0.051272523,-0.06356588,-0.24407344,-0.16519994,-0.23566239,-0.21688944,-0.21633586,-0.20564266,-0.18821456,-0.20273638,-0.18917345,-0.15368085,-0.014093677,-0.17926274,-0.06800757,-0.19977373,-0.21501663,-0.18797164,-0.22151458,-0.2633733,-0.23071225,-0.23524134,-0.20879033,-0.1683532,0.03088702,-0.24650307,-0.1688691,-0.22762734,-0.24350987,-0.24901865,-0.26427338,-0.2527035,-0.22393163,-0.15279682,0.025390191,0.051909227,0.28047976,0.24698019,0.2605343,0.28425217,0.24631704,0.17226611,0.19257686,0.11986847,0.058001596,-0.019710781,0.093071476,0.22949529,0.25478762,0.20924103,0.21256946,0.121603474,0.18475066,0.1640341,0.11806999,0.14681607,-0.017748427,0.22193837,0.24978681,0.26052007,0.20810737,0.22316858,0.18699652,0.13377059,0.12654714,0.15512651,0.017314697,0.003980706,0.26124182,0.18846644,0.19821377,0.22153647,0.19261052,0.10445509,0.16903979,0.16996141,0.12230444,0.033604674,0.12476231,0.30022827,0.24679583,0.20593666,0.19206952,0.1838917,0.12560642,0.1924005,0.18952303,0.16935311,0.14302017,0.19655594,0.28658846,0.18466634,0.2540165,0.1840205,0.13660008,0.014568073,0.13712083,0.19854759,0.122685246,0.11040558,0.21548358,0.2941682,0.29227725,0.231377,0.19478314,0.17639847,0.16320908,0.20332918,0.2334464,0.16893081,0.24477945,0.2267654,0.30488434,0.22362998,0.25020856,0.23030093,0.16371864,0.19833039,0.16992806,0.23283972,0.1564478,0.19299737,0.22280899,0.34267777,0.34626597,0.27859208,0.22698015,0.20414817,0.15655437,0.20523341,0.25248563,0.14476907,0.22169112,0.17684706,0.21527517,0.29024684,0.2551627,0.23967917,0.27361834,0.18832052,0.16532713,0.19495325,0.18081608,0.23155688,-0.08349394,-0.010643613,0.39214358,0.3970309,0.35293037,0.20794305,0.29832673,0.27793217,0.3201819,0.26979193,0.28210375,-0.029988358,-0.14176525,0.4875826,0.026116896,0.15524997,0.2202125,-0.06431519,-0.322228,-0.40633002,-1.3469725,0.37074453,-0.11053759,0.45162728,1.2115638,0.4556622,0.07059031,-0.3323504,-0.41936183,-0.68298686,-0.64269817,-1.0739455,-0.23621939,0.3872626,-0.3205958,0.37735114,0.1783107,-0.26991406,-0.50469214,-0.4574266,-0.48479396,-0.7984028,-0.5853077,-0.71118456,-0.9992361,1.1990058,0.1730169,-0.36406088,-0.38039583,-0.34441665,-0.51368934,-0.7193495,-0.7312567,-0.61497194,-0.8083841,-0.5877649,1.2184689,-0.050167866,-0.22923027,-0.30416185,-0.46886146,-0.520619,-0.53486705,-0.59112465,-0.5397424,-0.58091,-0.19858314,0.016591685,-0.34114474,-0.3887531,-0.4488022,-0.50810415,-0.5313511,-0.5590215,-0.49520338,-0.48508835,-0.4538237,-0.20044014,0.15410037,-0.47251606,-0.3262121,-0.29557762,-0.47926617,-0.4725768,-0.58983386,-0.5926085,-0.55217415,-0.60369617,-0.090726174,-0.27010167,-0.15469767,-0.2591569,-0.20485823,-0.45115253,-0.5344573,-0.5031324,-0.48996806,-0.45515895,-0.3323127,-0.51943606,0.058060892,-0.4271065,-0.2109477,0.024181772,-0.16228895,-0.3717053,-0.35065997,-0.47140625,-0.07175796,0.20157784,-0.24140368,0.4276825,0.31027183,0.1044853,0.09510652,0.19852869,0.39532492,0.3336848,0.0705823,0.2932802,0.90642,0.3936002,-0.16794787,0.39764762,0.53784436,0.4947645,0.59876996,1.1277968,1.3332758,1.1090465,0.94668853,0.44304654,-0.12154547,2.1259878,0.0162468,0.045229446,0.11665119,0.018481988,0.040051073,0.016725142,-0.023921685,-0.011942384,-0.0075393575,0.033005435,0.039656967,0.036194194,0.19651784,0.13003565,0.059662163,0.051741805,-0.0010136808,-0.011589887,-0.0010462031,0.03992516,0.02419132,-0.020918595,0.0795053,0.07782385,0.096891835,0.038918544,0.0020131443,-0.018625844,-0.010165538,-0.022171257,0.046496622,0.0132569615,0.011177103,0.012830109,0.048049748,0.024780389,-0.015358578,-0.033939283,-0.034469858,-0.019623166,-0.032955915,-0.005694731,0.014585586,0.0020779003,0.0014779681,0.061126545,-0.05892623,-0.037215326,-0.058503173,0.0010273627,-0.016273592,-0.015232171,0.036628008,0.01803588,-0.02564596,-0.04089754,-0.027560893,-0.070858516,-0.061464556,-0.044573188,-0.00678261,-0.03600074,-0.046338983,-0.0037015835,-0.007843214,-0.0675392,-0.09497076,-0.08226704,-0.09061265,-0.08704807,-0.052556794,-0.027576452,-0.040176917,-0.031484425,-0.025098909,-0.03869803,-0.04486234,-0.13852759,-0.16163824,-0.11566095,-0.13191777,-0.11253343,-0.08494603,-0.051247098,-0.08166651,-0.016101839,-0.050110947,-0.032323603,-0.21636343,-0.2546751,-0.16339074,-0.13963714,-0.08557041,-0.062470093,-0.059562374,-0.056287996,-0.062159594,0.0016533922,-0.058047183,-0.27573544,-0.29005468,-0.20346284,-0.10968633,-0.092600346,-0.09611241,-0.076764494,-0.10298352,-0.11034661,-0.028940042,-0.05221331,0.025492333,-0.24192476,-0.15851514,-0.10714634,-0.08927918,-0.09270443,-0.06908563,-0.12011396,-0.065626204,-0.09779687,0.014806119,0.018837437,-0.053008515,-0.01129851,-0.038830083,-0.0037309926,-0.05163088,-0.003789213,-0.042321876,-0.062008396,-0.02838785,0.009932529,-0.122000076,-0.056653034,-0.02755357,-0.028153142,-0.04255988,-0.03736076,0.004284761,-0.062220618,-0.11674393,-0.0629956,0.05471545,-0.07154668,-0.02704747,-0.02106846,-0.035445657,-0.00674559,-0.003201275,-0.012299076,-0.08367052,-0.115360916,0.024988925,0.06949943,-0.042409003,-0.015602816,-0.01918646,-0.019907972,-0.01563279,-0.00710918,0.005677191,0.011518788,-0.0148403095,0.018765444,0.014409996,0.019846674,0.021356031,-0.021626135,-0.012679091,0.0038766938,0.026392752,0.035117414,0.028226886,0.032512512,0.05543898,0.011751874,0.054905146,0.039164584,0.017248843,0.022989016,-0.014661595,-0.042917088,0.026836572,0.029199176,-0.020629538,0.008307723,-0.0056477375,0.07868056,0.03969777,0.0681892,0.046065994,0.0009045134,0.029227965,0.029807394,0.02966734,0.045579597,0.024215428,-0.010273321,0.03520648,0.020075623,0.06432387,0.076480806,0.04586934,0.0635423,0.0065899785,0.011771845,0.0038873064,0.063019104,0.06753122,0.15640335,0.14190261,0.099483974,0.05578681,0.08475269,0.05795625,0.09091673,0.06256181,0.03780921,0.062009815,0.06310315,0.14158265,0.15322345,0.13812825,0.11036554,0.046800863,0.05125582,0.09455478,0.03792412,0.014835794,0.045979872,0.053437836,0.04533106,0.100607485,0.16846752,0.12618254,0.037735,0.081124835,0.09200242,0.03605846,-0.007150868,-0.009094993,-0.02030171,1.3851548,-0.6507434,-0.3841429,-0.33175403,0.15350579,-0.38153192,-0.7978411,-0.3181829,-0.730048,-0.7054481,1.3609833,-0.690655,-0.41369775,-0.34320414,-0.5783525,-0.55265886,-0.59519213,-0.31550926,0.39364105,0.85929275,-0.30192676,-0.7119601,-0.3977173,-0.008834887,-0.7768018,-1.2800944,-1.6519837,-1.3986003,-2.3345459,-1.1549226,-0.73024374,-0.45025083,-0.22243819,-0.23147738,-0.32876343,-1.588439,-1.9113945,-1.6785072,-1.668986,-1.5049049,-1.160412,-0.342922,-0.592053,-0.20258594,-0.05524383,-0.5859164,-1.4219629,-1.4550129,-1.4433535,-1.560375,-1.4855355,-1.3703067,-1.121536,0.16751206,0.15081218,-0.020215755,-2.3559723,-2.3114824,-2.4090292,-1.6724223,-1.7391152,-1.9688871,-1.7525542,-1.1755536,-0.45243308,0.251912,0.55423915,-2.5075488,-1.5779155,-1.9058883,-1.7525228,-2.3243883,-1.3734182,-1.0769087,-1.2613087,0.25265473,-0.036833216,-1.8257147,-2.5959847,-1.6018018,-1.4474133,-1.4883804,-1.6884699,-1.5357494,-1.2373244,-1.1022587,0.018396376,0.16071545,2.051681,-2.896603,-1.1784164,-0.8375416,-2.430114,-1.9466807,-1.4945512,-1.538903,0.13150184,-0.06143648,0.21038589,-0.78091395,-2.3770216,-2.9793634,-2.688776,-1.1756785,-0.050070267,-0.36562094,-0.53783643,-0.20187356,0.6151707,-0.7169523,1.3726636,-0.7766433,1.8994291,0.8672668,1.1639047,1.7017083,1.5590453,0.77369386,1.1777853,-0.70867246,1.3585917,1.6047298,-0.03365575,-0.10625765,0.026757006,0.04713916,0.12957247,0.1443392,0.18856555,0.16937362,0.12032703,0.11473585,-0.02860936,0.04304686,0.0073224427,0.042392973,0.08623492,0.11936068,0.16201514,0.18026903,0.13344783,0.12832384,0.08950848,0.0021607056,0.0352289,0.008538864,0.06753371,0.12022213,0.14381783,0.15978354,0.14714582,0.13229449,0.08938258,0.024390034,0.030383088,0.081968606,0.057905175,0.08939323,0.11057782,0.08577275,0.095166355,0.1043311,0.124275126,0.05691439,0.044472516,0.0667582,0.102892905,0.038739964,0.12548704,0.067443,0.062946945,0.03264214,0.10089435,0.06734355,0.066004366,0.0666246,0.09164974,0.1031527,0.08770663,0.113263905,0.0910184,0.06353954,-0.042280257,0.05790554,0.08325569,0.06280069,0.07467422,0.13653986,0.120162435,0.09577221,0.15328991,0.100241296,0.114078574,0.047245428,0.044909544,0.09346759,0.06504412,0.09471861,0.10140451,0.11353011,0.07990906,0.13566606,0.117197685,0.1087773,0.10341037,0.08880578,0.08342277,0.050373722,0.021971941,0.08693469,0.09679771,0.036857143,0.108377896,0.09789835,0.07337516,0.07102295,0.047559436,0.036901157,0.008603423,0.032965556,0.049371123,-0.024827411,0.08637004,0.09699482,0.11641748,0.064343885,0.020019835,-0.0074875164,-0.01707145,-0.11296258,-0.048975125,0.010874368,-0.0077517093,0.063539796,0.052041728,0.05426822,0.056430377,0.038483266,0.023879679,-0.013222973,-0.055413723,-0.051329713,-0.0057194927,0.0029429577,-0.10135265,-0.21254233,-0.21463919,-0.22455677,-0.17348187,-0.16315165,-0.16337386,-0.18861012,-0.07494018,-0.00027470494,-0.11152384,-0.17409043,-0.28048396,-0.21374685,-0.16134225,-0.14912702,-0.1365292,-0.15526979,-0.13338247,-0.20697774,-0.15182558,-0.242327,-0.26001325,-0.21219791,-0.16373922,-0.16191965,-0.16123138,-0.12069041,-0.18717192,-0.16036478,-0.20218956,-0.24115124,-0.25081867,-0.22161673,-0.20038083,-0.19279775,-0.18221341,-0.15058836,-0.15586412,-0.13894501,-0.14621606,-0.13008814,-0.22205696,-0.293889,-0.22611883,-0.20101033,-0.1636722,-0.17967366,-0.12946677,-0.15931624,-0.16516481,-0.1799476,-0.1686094,-0.23221456,-0.3123353,-0.20020488,-0.20196506,-0.17357996,-0.13292113,-0.015668249,-0.13527152,-0.19452739,-0.1692732,-0.14215404,-0.21743724,-0.24262923,-0.20100057,-0.22872667,-0.15394932,-0.13607647,-0.17437516,-0.13761614,-0.19110505,-0.1332502,-0.18721083,-0.21826604,-0.24480037,-0.203399,-0.18855639,-0.18719636,-0.17084773,-0.19164972,-0.16755268,-0.17592163,-0.1309841,-0.12737374,-0.16669427,-0.35866672,-0.29650033,-0.2024312,-0.23149206,-0.20714599,-0.15042207,-0.15700088,-0.17448825,-0.15900072,-0.13558647,-0.15470527,-0.2525507,-0.28786895,-0.25530198,-0.20427552,-0.21616054,-0.16699754,-0.12045549,-0.12835422,-0.1583473,-0.12051918,-0.19054303,0.02253166,-0.32471886,-0.33916742,-0.2615391,-0.21029265,-0.23576532,-0.22536822,-0.21286176,-0.18255134,-0.121432155,-0.036222726,1.1180342,-1.6638205,0.20070823,-0.44754386,-0.9436863,-1.9729569,-1.6230137,-1.5128303,-1.0700115,-1.7530773,1.1158618,-1.6003486,-0.3221615,-0.54356617,-0.4363359,-0.51245725,-0.74634963,-1.2052106,-1.1304517,-0.85882646,-0.9674086,-1.6789111,-0.53098625,-0.5543703,-0.3111004,-0.5044972,-0.34656438,-0.38328752,-0.3582281,-0.22570002,-0.42993933,-0.76740074,-0.5811817,-0.86992455,-0.67249745,-0.47867173,-0.5042056,-0.39020744,-0.24054769,-0.16064116,-0.09039177,-0.2773774,-0.4316615,-0.63171923,-1.0411288,-0.53901345,-0.37134853,-0.45115507,-0.24494086,-0.21386118,-0.22206262,-0.27459782,-0.23293103,-0.25851816,-0.7574035,-1.0210941,-0.5403903,-0.372438,-0.31452838,-0.22639348,-0.22783,-0.17814322,-0.23825741,-0.18054599,-0.3070731,-0.75237584,-1.1070386,-1.1543393,-0.53060234,-0.39538744,-0.1910075,-0.16471453,-0.38123402,0.013123189,-0.35386392,-0.19231689,-0.7603203,-1.4570726,-1.2656633,-1.0807078,-0.5097157,-0.3993274,-0.17489602,-0.16714668,-0.13221504,0.036942385,-0.15798196,-0.24867453,-0.5090985,-0.8979998,-0.8054712,-0.6890614,-0.434823,-0.4217116,-0.32618332,-0.1037531,-0.05052493,0.2516568,-0.41651338,-1.506394,-0.8171923,-0.9396611,-0.7271533,-0.6696951,-0.56042665,-0.4080035,-0.07531141,-0.16233905,-0.10240687,-1.7148107,1.0949625,-1.4524212,-0.81037235,-1.1384479,-0.5504403,-0.50486815,-0.4486935,-0.052895207,0.636491,-1.7637366,1.1435368,1.9834154,-0.020860007,0.081030026,0.2832345,0.2866903,0.20489568,0.23948514,0.16235335,0.22560541,0.22722413,0.16934468,-0.005410197,0.15240365,0.34074515,0.29172182,0.21134903,0.17969137,0.19703396,0.18444864,0.21992287,0.2648469,0.19996591,0.030887559,0.24752772,0.24996556,0.25253028,0.16888577,0.19930662,0.148782,0.14437166,0.21355711,0.20517355,0.10373516,0.29503852,0.12763228,0.19315906,0.20918603,0.119408816,0.15333718,0.17645867,0.14108908,0.14905319,0.17456353,0.14949776,0.14744638,0.17149734,0.2446083,0.16356485,0.11593072,0.17546089,0.15503648,0.1194398,0.12932765,0.18952091,0.16548067,0.10342137,0.14769931,0.19527689,0.2120193,0.14052694,0.19356638,0.039054215,0.12965403,0.14899641,0.1371415,0.11886048,0.11543142,0.16303594,0.25180426,0.22126912,0.16471104,0.15985425,0.18843636,0.16330262,0.13373595,0.13039161,0.14702696,0.20477082,0.16305396,0.19887693,0.13683802,0.15990959,0.15858263,0.1583725,0.12555689,0.144516,0.16227682,0.19186684,0.30688936,0.16540194,0.20531546,0.10002699,0.1077047,0.13756467,0.1609769,0.15777256,0.19770937,0.21798263,0.2328213,0.3070021,0.11869336,0.23761778,-0.103458874,0.13520835,0.10161704,0.16425678,0.10744057,0.24057865,0.3367461,0.34341046,0.2967655,-0.04711602,-0.30485886,-0.0052925823,-0.11183381,0.01622037,0.07519145,0.06696161,0.1439734,0.1978533,0.25867838,0.04588703,0.017402785,-0.03556876,0.075999305,-0.052941553,-0.11086202,-0.03552119,-0.05487526,0.021641463,0.09868102,0.06544733,-0.019921329,-0.0823884,0.056999188,0.13822137,0.010657675,-0.062132765,0.062464796,0.01982927,0.050130755,0.016505174,0.11114116,0.0013689275,-0.030438216,0.015505135,0.017421754,-0.10095911,-0.043315306,-0.03142066,-0.07602939,-0.058185197,0.08918675,-0.020005371,-0.0033706587,0.01872288,0.012748911,-0.062753186,-0.0695214,0.0076534026,-0.057121314,-0.042363025,-0.02978661,-0.073131666,-0.074753396,0.06704866,0.029930525,0.037583895,-0.053497043,-0.0068174535,-0.015812714,-0.037365388,-0.033393662,-0.019042972,0.0061196275,-0.008222051,0.059100464,0.06220945,0.0367166,-0.0008069085,0.024664456,-0.01834545,0.020198753,-0.009366878,0.052447997,-0.0778883,-0.0763327,0.051199604,0.031900167,0.01107299,0.0099307755,0.0028133842,0.03258551,-0.015627231,-0.041107256,0.054903213,-0.074404575,-0.046726592,0.037125047,0.049916953,0.00050965743,0.04879209,0.023274489,0.020267438,0.014449469,-0.019965846,-0.00858689,-0.034428008,-0.07185624,-0.049369138,0.13623723,0.17695932,0.13362303,0.05856018,0.031192904,0.013348686,-0.041936804,-0.0057311235,-0.02591764,-0.14072086,0.013286341,-0.051883273,0.1366468,0.057531707,0.03684775,0.035292674,-0.06258178,-0.03638314,-0.024443926,-0.02460046,-0.23305118,0.10477932,-0.030132607,0.059009135,0.20344651,0.17110813,0.18616171,0.11961743,0.0359896,0.01973537,-0.1329269,-0.07179697,-0.0043393574,-1.5419242,-1.788302,-1.4758972,-0.902304,-0.6950251,-0.54315054,-0.25442594,-0.60027194,-0.08654821,-1.6476427,-1.4290954,-1.8426507,-1.4089979,-0.55577695,-1.1912074,-0.8996261,-1.0673349,-1.0289581,0.013356511,0.22854975,0.57466084,-1.7124652,0.23105831,-0.92256826,-0.9235387,-0.49030247,-0.5437627,-0.5857071,-0.5441511,-0.66851205,-0.14499223,0.35299838,1.1368265,-0.3969955,-0.8771571,-0.5028029,-0.46180505,-0.5021362,-0.7104901,-0.58809084,-0.57276595,-0.7627162,0.4460745,-0.3157322,-0.36135328,-0.7533876,-0.52790385,-0.5376748,-0.5787562,-0.67989093,-0.71545357,-0.8342226,-0.50566995,-0.29612002,-0.24605303,-0.610537,-0.55456984,-0.50109124,-0.6294206,-0.5048652,-0.5543372,-0.7282147,-0.5761532,-0.7252112,-0.2326521,-0.42757776,-0.55937785,-0.18038556,-0.5340167,-0.53281206,-0.66894805,-0.64697176,-0.6704388,-0.7795159,-0.84476274,-0.81342006,-0.90230936,0.059945967,-0.24886341,-0.570675,-0.44901904,-0.5284732,-0.7122595,-0.65223414,-0.6719621,-0.49846348,-0.48198795,-0.17121203,-0.09209267,0.09761309,-0.2825926,-0.5171424,-0.2998029,-0.58423626,-0.57032216,-0.56010497,-0.8216902,-0.37624463,-0.31626666,-1.7130823,2.1973565,0.13766345,0.06651784,-0.32879245,-0.6516065,-0.9237574,-0.60097116,-0.01946449,-0.22147577,-1.5941385,-1.5563451,-1.6412579,3.377394,-0.2696405,0.31350285,0.36856827,0.6386696,0.049302828,-0.30746663,-1.6316409,-1.5390055,-4.947641,-0.03748422,-0.002797918,0.07830157,0.12561035,0.035373323,0.07216132,-0.065984786,-0.093367144,-0.11219978,-0.24388255,0.0051930263,-0.04907346,0.103875704,0.0065335827,0.1504404,0.06369639,0.04886465,0.021235602,-0.05018616,-0.07747935,-0.2674368,-0.17995656,0.060587782,0.096412234,-0.011723517,0.05745353,0.04394354,0.0011285952,-0.04738082,-0.02615262,-0.18479626,-0.24330582,-0.19763456,0.04185508,0.097459234,0.049373068,0.0055942833,-0.010065184,-0.010505957,-0.11634745,-0.05767692,-0.14379358,-0.2112715,-0.20154062,0.10756706,0.085244045,0.050108016,-0.036342043,-0.07672976,0.020519912,-0.11420491,-0.11744971,-0.15804552,-0.17340831,-0.11274104,0.06295823,0.107388474,0.102192216,0.010579012,-0.06766346,0.0028526827,-0.057915516,-0.08667936,-0.11755948,-0.16315748,-0.049212243,0.07254026,0.13194875,0.08318015,-0.026364468,-0.047706254,-0.06405009,-0.056416694,-0.09802576,-0.1644971,-0.06434056,-0.14001925,0.07516973,0.059725583,-0.03457043,-0.03566275,-0.04971064,-0.05053454,-0.08224444,-0.093804576,-0.090393245,-0.22921304,-0.14394507,-0.10797249,-0.006924602,-0.13230038,-0.1031764,-0.11126822,-0.09500809,-0.06469179,-0.071943305,-0.10854824,-0.17576614,-0.23940352,-0.15238261,-0.29758954,-0.26456717,-0.16383019,-0.15926677,-0.12205813,-0.107700765,-0.08615765,-0.17437653,-0.16569528,-0.047780614,0.035629198,-0.38852823,-0.29456115,-0.112993985,-0.13315478,-0.101677835,-0.10249887,-0.14506474,-0.11584815,-0.094810456,0.008250008,0.04784093,-0.22982155,-0.15781781,-0.21302137,-0.23932834,-0.15336725,-0.04374087,-0.050332762,-0.11817877,-0.20351207,0.040248003,-0.086277135,-0.072651155,-0.024098208,0.0006937855,-0.11756159,-0.09921867,-0.08016402,-0.08750749,-0.11753562,-0.11252437,0.18078585,-0.1080712,-0.14980733,-0.15434438,-0.19491431,-0.23071545,-0.22177394,-0.120269,-0.12724452,-0.1846065,-0.17879725,-0.002756246,-0.14095394,-0.09945724,-0.18790324,-0.23449704,-0.12373384,-0.15778816,-0.18538094,-0.09363397,-0.06325555,-0.17714791,-0.14900681,-0.08707459,-0.060467824,-0.1971171,-0.19822556,-0.20190233,-0.07417466,-0.1664556,-0.13731672,-0.068489455,-0.20758326,-0.08869963,-0.11812129,-0.07059468,-0.06936659,-0.14552933,-0.041239876,0.018561427,-0.008618899,-0.07850301,-0.123947985,-0.121381395,-0.10610011,-0.10451871,-0.112428874,-0.089321636,-0.15272637,-0.045233488,-0.096840784,-0.12361273,-0.075338066,-0.053767163,-0.17244199,-0.12695092,-0.043042522,0.01326438,-0.07605677,-0.16886258,-0.11105369,-0.100971825,-0.076476105,-0.15517278,-0.12487801,-0.08127311,-0.2078594,-0.21358997,-0.21726939,-0.17378832,-0.13416046,-0.09994889,-0.10075046,-0.23356976,-0.08742738,-0.08055275,-0.006120062,-0.1333883,-0.22023803,-0.17689955,-0.148078,-0.20775028,-0.119982086,-0.11624438,-0.15084288,-0.12372233,-0.0025949809,-0.048483882,-0.059663285,0.019100526,0.0065430836,0.04766704,0.0060015684,-0.10404036,-0.16023663,-0.12108602,-0.06843235,-0.19624555,-0.037912507,-0.023878317,-0.027446995,-0.3970739,-2.096168,-0.9041152,-0.8055678,-0.06803822,-0.39733854,0.0059426883,-0.90779775,-0.38015586,-0.002930847,-0.3355988,0.13938062,-1.0731553,-0.97780126,-0.25296816,0.11667416,0.383236,-0.23394945,-2.39606,-2.3412297,-0.35189512,-0.24648428,-1.0579103,-1.1295264,-0.98063016,-1.1275083,-0.8864149,-1.4800117,-2.347229,-2.3494642,-2.5372865,-2.283575,-0.45830154,-0.5637867,-0.7019605,-0.9603615,-1.2146653,-1.8651723,-2.144112,-2.3563735,-2.3724153,-2.4150703,-2.259701,-0.6616329,-0.14799626,-0.6088535,-1.1274465,-1.6870081,-2.3289676,-1.7488127,-1.6873053,-2.1744456,-2.2880015,-2.2638168,-0.08778122,-0.18740635,-0.83386195,-1.2921841,-2.500129,-2.2911992,-2.2118845,-2.0173059,-2.1211917,-2.3092475,-2.426779,0.050064128,0.12452651,-0.40844625,-1.41743,-2.0685625,-2.208044,-2.306566,-1.7689468,-1.8290931,-1.899653,-2.2775931,0.25744143,-0.30441839,-0.2391604,-1.771603,-1.7365782,-1.4820113,-2.265763,-1.5876486,-2.1704535,-2.2166905,-2.3217387,0.24169748,-2.188271,-2.4053686,-2.3826237,-2.20288,-2.035529,-2.0278158,-1.9280667,-2.3342075,-2.1946058,-2.3938951,-0.49828196,-2.2769454,-2.3244455,-2.2230108,-2.1758983,-2.3800852,-2.3646007,-2.2941437,-2.25354,-2.3000357,-0.37699938,0.009618785,-0.5096563,-2.4478366,-2.0726483,-2.011126,-2.31457,-2.2525308,-2.0971208,-2.19317,-0.39804205,-0.024685586,2.037132,0.0066763205,-0.11514661,-0.12914121,-0.24463311,-0.18556543,-0.08392348,-0.05708446,-0.0441158,-0.0073892563,0.04041285,-0.019234214,0.11560177,0.021947475,-0.13827907,-0.024703283,-0.0958432,0.054360326,-0.024184411,0.05827166,-0.030137593,0.05040598,-0.10745587,0.22624671,0.06724502,-0.07270155,0.0053896913,0.045963585,0.06185498,-0.015298272,0.06968836,-0.10097538,-0.06094132,0.09082932,0.15846588,0.1537395,0.06931823,0.085377656,0.07189239,0.058142066,0.07421697,0.11013612,0.07593744,0.0053726295,-0.038054023,0.09992983,0.12832224,0.17459737,0.1183918,0.10414623,0.019248389,0.12353415,0.12506771,0.062105745,0.026402598,0.17716782,0.068011224,0.13263726,0.22341885,0.10411557,0.1972076,0.04959062,0.07709372,0.16323504,0.12153696,0.13948967,0.05372119,0.04824695,-0.090776324,0.1843879,0.08396618,0.14564483,0.06058123,0.045399796,0.030000415,0.14827909,0.079280205,0.15374742,-0.14078003,-0.10683848,0.06536167,0.070091166,0.09002933,0.02237903,0.022161175,0.095578805,0.22805849,0.21970473,0.12781231,-0.12266022,-0.07646421,0.046937183,-0.06053316,-0.08916085,-0.056504477,-0.16554473,0.075478435,0.16482204,0.303444,0.28137347,-0.26980433,0.081206694,-0.06151128,-0.16070108,-0.13311882,-0.07725413,-0.009624686,-0.14464718,0.0407373,0.37058222,0.26515752,-0.027804164,0.03214294,-0.059927825,-0.028196428,-0.036789842,-0.06468038,-0.032368112,0.0020190098,0.118975274,0.12157557,-0.04932285,-0.033673428,0.16130956,-0.048237454,0.019131985,0.20734878,0.2150788,0.15444398,0.08262656,0.035546284,-0.11140935,-0.024924446,0.10456011,0.066427015,0.05562833,-0.053187437,0.10141113,0.045212504,0.13393955,0.08762284,-0.0122559415,-0.34552002,-0.13656309,0.1453821,0.08082417,0.08871641,0.19997714,0.24008831,0.11875312,0.08855904,0.12921005,0.11109876,0.0030363237,-0.120324664,0.1269364,0.05667745,0.035249155,0.07324994,0.1370749,0.15350315,0.06579403,0.12467629,0.32770702,0.153719,0.100318395,0.065554045,0.07409909,0.06817337,0.06542494,0.08519219,0.05873021,0.09063201,0.17106876,0.10920353,0.15800352,0.021823775,0.070212804,0.053286035,0.012966528,0.1289134,0.07401638,-0.03375851,0.057788808,0.1607793,0.11851261,0.1581737,-0.03642215,0.09030383,0.10902673,0.08917392,0.086925454,0.14779937,0.07186269,0.0533269,0.17616044,0.051973864,0.24257061,0.11449769,0.095991194,0.0016125771,0.07183102,0.1301224,0.12855442,0.09615616,0.12290894,0.19211754,0.11141152,0.16071051,-0.01493269,0.22800417,0.103263564,0.12331291,0.16729005,0.15848872,0.24154186,0.13043974,0.18848215,0.13310751,-0.060783952,-0.013581941,0.24750878,0.16337927,0.1250892,-0.05088441,0.10717956,0.054096967,0.05393246,0.07676956,-0.15398325,0.11963107,0.07942396,-0.013262047,-0.098002985,-0.1943371,-0.17213802,-0.036696527,-0.0024037447,-0.11708561,-0.08558,-0.09580127,-0.08935155,-0.046589803,-0.46315804,0.40654626,-1.2728003,-0.842583,-0.8225662,-0.7494706,-0.85807836,-0.037046257,-2.1381028,0.40275097,-0.52262896,0.46625257,0.83942497,-0.97708,-0.28853163,0.013455506,0.15471871,0.09140151,0.21003737,-0.8163005,-1.289609,0.4043928,0.37540525,0.41499668,0.31887,0.2038113,0.036580037,0.20980218,0.05381348,0.0018556786,-0.56235224,-1.0535988,-1.4783776,0.37555444,0.2923317,0.36607838,0.15173152,0.15862304,0.039486494,0.09959278,0.0100238435,-0.059477057,-0.37117067,0.061219536,0.23460224,0.21194156,0.23062225,0.19977725,0.008179264,-0.11872155,-0.18191697,0.090046726,-0.1481264,0.17524412,-0.8812441,0.048851136,0.16361116,0.11161497,0.07916924,0.03686232,-0.017257784,-0.12583557,0.050636612,0.011459038,-0.119630195,-0.5185129,-1.58242,0.02778293,-0.025397943,-0.054862432,0.21762794,0.10552744,0.103834376,0.11505697,0.24980494,-0.1274861,-1.501461,-1.4354373,-0.28142056,0.048344467,-0.046118647,0.19086318,0.061426725,0.065222375,0.05950396,-0.046377182,-0.1560725,-0.36666578,-1.0376407,-0.5733331,-0.87766564,-0.54335773,0.05824331,-0.35167143,0.076292194,0.07331269,0.05040971,-0.11297442,0.29100993,0.48691946,-1.5028788,-1.3137602,-0.8075885,-0.90886956,-1.1107252,-1.6055387,-0.5649129,-0.09806576,0.35134754,0.45597908,-0.46601015,0.4638888,-1.479871,-0.9590012,-1.6948218,-1.7984523,-1.7588254,-2.2221596,-2.0618012,0.4234053,-0.4903362,1.769606,-0.020772768,0.13962336,0.1820621,-0.19481046,-0.0014258985,-0.023743533,0.1940867,0.33809078,0.27799153,1.4015952,-0.04213589,0.09422456,0.1996203,0.10129127,0.11861489,-0.0019750162,0.044240918,0.1996703,0.22499576,0.6546607,0.6593021,0.2804875,0.01034369,0.19498535,0.11818541,0.01932978,-0.057499986,-0.13307187,0.080039985,0.11186676,0.34204134,0.4907413,0.636674,-0.09362553,0.03439631,-0.046938438,0.033228923,-0.07119902,-0.016176896,0.023103895,0.11685293,0.104846455,0.48060334,0.4604932,-0.1570868,0.06806308,-0.09529336,0.014335783,-0.06277376,-0.04653476,0.047479514,0.14411682,0.06627259,0.32437757,0.26050898,-0.15605061,-0.09282768,-0.050872143,0.019096194,0.0075484226,0.04081667,0.21779989,0.13756667,0.17440139,0.18931873,0.20768702,-0.09617906,0.009781964,-0.095738575,-0.014415088,0.10879599,0.09926751,0.13398291,0.072703056,0.2138628,0.1418704,0.13632487,0.009295756,0.07063621,0.04643316,0.030001458,0.04566172,0.09346485,0.077813685,0.1341834,0.06823992,0.3341662,0.13414808,0.042528067,0.28891575,0.16987114,0.10983663,0.02281459,0.07078473,0.1124525,0.12010774,0.12847042,0.313595,0.16527006,0.87901247,0.6201361,0.12851131,0.120937474,0.24283239,0.20013496,0.099516794,0.29450157,0.436777,0.45782125,0.14852706,0.0029958305,0.278699,0.2012495,-0.11965679,-0.16716337,-0.060389932,-0.11954174,-0.021960096,-0.022775177,0.19088712,0.026497204,-0.03727499,0.0042439755,0.109204434,0.019887751,0.006306982,-0.013958985,0.033467956,-0.037677463,-0.2054208,-0.7406693,-0.020758685,-0.055184137,0.20766994,0.077450134,-0.04869555,-0.10177322,0.11975557,-0.0864321,-0.045470428,-0.28813088,-0.0065743593,-0.44470283,0.17494363,0.08222193,0.049369056,-0.036651846,0.03643684,0.04188011,-0.045165822,-0.19687097,-0.30102453,0.018501516,-0.20305306,0.25116128,0.087730885,0.08827575,0.050905704,0.14048135,0.062338296,0.00622639,-0.10171843,-0.13658047,-0.08994069,0.0017159241,0.24698775,0.21255448,0.21042776,0.14669721,0.16683553,-0.022817085,0.053928927,-0.078786455,0.049231626,0.09906661,0.017335203,0.26643857,0.17048441,0.11576729,0.08921541,0.085724756,0.024037305,0.12595336,0.11294632,0.026870638,0.008190503,-0.08974625,0.24903378,0.18250494,0.24158762,0.082512796,0.089896016,0.085025504,0.12172573,0.12843649,-0.028005801,0.15664886,0.06402545,0.30309892,0.20059097,0.056397967,0.054186102,0.11687035,0.063421436,-0.037503816,0.11890526,0.018342631,-0.014835096,-0.045693174,0.5101671,0.49442342,0.11354212,0.24894412,0.14780246,0.065076284,0.038189743,0.123762555,0.050952163,0.120492026,0.1619357,0.022811234,0.29293478,0.24083485,0.19340837,0.20104918,0.16673495,0.09098193,-0.0007369039,-0.0044916132,-0.15957044,0.25577894,-0.037704192,0.08196756,0.06979517,0.24747983,0.15420194,0.24654505,0.19877261,0.122874655,-0.02983186,-0.11550412,-0.042445194,0.46745822,-0.10529598,-0.30874673,-0.61679053,-0.74785054,0.79563934,0.43348208,-0.26917112,-1.7808585,-0.052580852,0.48973817,-0.0917303,-1.3941206,-0.51431865,-0.26146364,-0.11321146,-0.16179653,0.48968092,0.5811829,-0.0018968999,-0.6492639,-0.06103721,0.34159538,0.35849914,-0.13456516,0.03451407,0.17410353,0.042518605,0.16922557,0.12338524,0.26974866,0.5654172,-0.070767134,0.4258312,0.31961143,-0.17998458,-0.0043518986,0.15739658,0.28517738,0.17569722,0.14221878,0.27465072,0.59031206,-0.29495695,0.6593742,0.28834388,-0.06543151,0.13693246,0.20968072,0.17856814,0.24396296,-0.0064166626,0.29924083,0.37752536,0.26246768,0.65586656,0.10905306,0.061886046,0.31898853,0.11675354,0.22333309,0.14240992,0.23560634,0.16947103,0.53303653,0.54108334,-0.04823647,0.4532129,0.31903368,0.30895177,0.12681925,0.17277491,0.2737932,0.17558506,0.01924834,0.43826678,0.95312357,0.79064196,0.7611207,0.46143278,0.31780294,0.22610317,0.2610713,0.14659587,0.10343175,0.30009863,0.5452157,0.9696041,-1.6471019,1.1687385,1.3178242,0.46763054,0.3014106,0.0829839,0.21168616,0.3355531,0.31821835,0.43324414,0.12787758,-0.103673354,0.6102425,1.4597232,1.0240407,0.99446917,0.8161346,0.44290537,0.03444702,0.44785178,-0.09216277,-0.061071202,0.54089874,-0.124669895,1.018509,0.8239866,1.3556234,0.42509776,1.0153018,0.98092276,0.5248624,-0.078204386,0.53871477,0.5116225,0.028662227,0.26203302,0.31277293,0.22397795,0.1661799,0.16834977,0.14990014,0.16635354,0.14713646,0.11988497,0.010893562,0.17226042,0.3863731,0.2984107,0.16277237,0.15805876,0.11182564,0.1634967,0.14632556,0.21002993,0.14711457,0.13058633,0.2010453,0.2556691,0.19150276,0.11898398,0.084653966,0.102761395,0.10992261,0.10803245,0.12370557,0.050390698,0.021488998,0.09639796,0.16083041,0.1026811,0.050712906,0.054718044,0.048014846,0.075481206,0.043628283,0.04379076,0.026453733,0.026673455,0.033315897,0.05973579,-0.005623116,-0.006583215,0.024072386,0.04016312,0.022961948,0.006265437,-0.004862458,-0.00045608444,-0.02648196,-0.055780575,-0.041553557,-0.023086153,-0.030941114,-0.029939292,0.008312898,-0.021029307,-0.0048580673,-0.0052291853,-0.046510447,-0.07413808,-0.091653675,-0.08378164,-0.07632887,-0.04146858,-0.023143496,0.03084574,-0.003648456,-0.025018334,-0.049256098,-0.07494242,-0.057245433,-0.14597653,-0.12438294,-0.11808991,-0.06420259,-0.063239716,-0.046817333,-0.07041363,-0.07121621,-0.06482775,-0.0932846,-0.16575012,-0.2049075,-0.18021145,-0.10837569,-0.0869918,-0.050617546,-0.007912195,-0.0077386256,-0.020217195,-0.09957413,-0.1417124,-0.090935804,-0.1785869,-0.26771176,-0.17623833,-0.12946108,-0.10459683,-0.01533021,-0.05280162,-0.107445605,-0.05189323,-0.17463547,-0.09318922,-0.023232253,-0.17489262,-0.21282926,-0.09927937,-0.07396517,-0.048556387,-0.047889415,-0.060394112,-0.07724657,-0.0919289,-0.018229656,-0.029142668,-0.15769714,-0.1276008,-0.16720295,-0.1678676,-0.11495915,-0.09040862,-0.018438367,-0.013312513,-0.025473827,0.0070446995,-0.1200765,-0.04378322,-0.048275627,-0.10899188,-0.09378061,-0.067204386,-0.06789266,-0.061079904,-0.08360544,-0.06680902,-0.05116865,-0.08831312,-0.09345219,-0.08280907,-0.106964625,-0.1298703,-0.11199394,-0.1078992,-0.10699713,-0.047613475,-0.093694665,-0.1381379,-0.11740143,-0.07410447,-0.07412832,-0.08618183,-0.08826612,-0.09613058,-0.0844801,-0.04828364,-0.068570495,-0.114625946,-0.09698906,-0.0881616,-0.05112048,-0.01983136,-0.07736625,-0.043673944,-0.0052945423,-0.006651564,-0.002140088,-0.043121815,-0.052442886,-0.023453848,-0.028334431,-0.028176334,0.009363568,-0.0038530102,-0.05492665,0.04913109,-0.020258887,0.024668012,-0.028087718,-0.053641282,0.0042787716,0.0245642,-0.022245996,0.0033433228,0.019062838,0.020439621,-0.0117911,-0.0148743205,-0.003085597,-0.000734794,-0.028272916,-0.035814386,0.026164819,0.04034892,0.04528723,0.018735271,0.035214666,0.03765815,0.04901616,-0.0019713768,0.03146821,0.0623868,0.048003692,0.1495567,0.12048918,0.08795225,0.07199218,0.06839973,0.030011449,0.032303497,0.03883559,0.0543714,0.12387254,0.06726741,0.12702818,0.16471085,0.13359572,0.04764577,0.06065552,-0.007572076,0.028791944,0.05203834,0.09206724,0.11617782,0.045288365,-0.0032466108,0.01017102,0.043969296,0.035045724,0.02071404,0.01677602,0.023792768,0.055739906,0.11656494,0.14122489,-0.024068959,0.7730574,1.8442374,-3.4358506,-1.4785081,-2.8165371,-1.8254642,-2.8229082,-2.7941961,-1.82086,1.7995752,0.8049117,1.8226808,-3.199441,-1.9693311,-1.4700056,-0.34565252,-2.2602532,-0.89826226,-1.6054529,-1.4004794,2.8406081,1.8280361,-2.8213713,-2.5482552,-1.8450265,0.09913374,0.2787732,0.37931573,0.32925925,0.26772794,0.18538728,-0.020065123,-0.4792117,-1.1948559,-0.6419948,0.18220235,0.5542814,0.56116,0.6422153,0.54898643,0.44043186,0.32027805,0.12876779,0.10722823,-0.30075347,0.022368688,0.39191988,0.4642447,0.66314036,0.59088534,0.5384478,0.44424832,0.6310613,0.6465505,0.9329692,0.39551058,0.3572507,0.68577695,0.71182114,0.7695368,0.7297346,0.7356736,0.86000234,0.8550455,0.9099483,1.2296227,0.70535266,1.0357698,1.1110375,0.7871008,0.8388768,0.7367823,0.7296598,0.823341,0.7718456,0.978213,1.0932473,0.8568952,1.181371,0.8881118,1.0007569,0.9611805,0.8157561,0.9138209,0.9164953,1.0670856,1.0360441,1.0973264,1.3060212,1.3384376,1.2772465,1.3705626,1.0186005,0.92727935,1.0952725,0.9354727,0.9601686,0.6108853,1.3467907,1.8090787,0.893836,1.5145118,1.1155456,0.9948104,1.191359,1.2039301,1.2577822,1.0024915,1.2655953,1.8269775,0.8497761,1.808712,0.7224243,1.150153,1.0283645,-0.09264063,-0.09311811,1.4355226,0.01994003,1.8864458,0.80387753,-2.829329,0.0003656672,-0.34892482,-0.17327812,-0.21283917,-0.054301295,-0.09529263,0.02714818,0.085214645,0.040915612,0.19242002,0.00015834977,0.18694746,0.015850794,-0.081779405,-0.06726804,-0.05120084,-0.009103498,0.034690585,0.050119087,0.099357106,0.053968944,-0.18166813,0.16204642,0.1709344,-0.00010589708,0.05028539,0.023674123,0.03790084,0.028783817,0.03427504,0.028966002,0.0115087,-0.028846644,0.20361605,0.13807529,0.088250704,-0.0059379954,0.013014691,-0.012072039,0.06475807,-0.013090583,0.02814287,-0.0654195,-0.08093924,0.22285494,0.15371358,0.14252602,0.08413518,0.024038061,-0.009961637,0.09901619,0.061762698,-0.011140756,-0.084288225,-0.17396703,0.14379941,0.21783884,0.1304349,0.05678974,0.1574345,0.011175696,0.037590865,0.05435609,-0.01466457,-0.06764143,-0.13511302,0.17587186,0.19624731,0.1539749,0.14044946,0.111161366,0.10273213,0.10867063,0.10996628,0.004874366,-0.05673098,-0.052900594,0.23181288,0.28087646,0.16256376,0.14294775,0.15905803,0.073752,0.13642761,0.06279497,0.053372607,-0.05417659,-0.01467631,0.40008545,0.2267236,0.15362978,0.13031524,0.074208885,0.120136365,0.107421294,0.068433486,0.07814548,0.09949704,0.2163203,0.30610475,0.3790881,0.16892624,0.098203145,0.05143131,0.10039984,0.072784,0.060403075,0.058417894,0.13841107,0.43299454,-0.0063658883,0.08841537,0.064996816,-0.01045751,0.02223355,0.04327044,0.058104854,0.059081856,0.112427816,0.040447976,0.033092953,0.005967374,0.36899537,0.35258427,0.33767465,0.21597575,0.20000114,0.14722967,0.08718981,0.19121864,0.22068797,-0.041014157,-0.020619791,-0.0002090935,0.2847455,0.17663832,0.17863867,0.1589352,0.14312722,0.25732237,0.1813518,0.16646805,0.35250777,0.048795696,0.12795171,0.17745942,0.21367021,0.3070004,0.19858764,0.16060007,0.26831922,0.06118739,0.2298743,0.25154644,0.14400184,0.19064765,0.18177007,0.15294802,0.22300042,0.16304177,0.19845845,0.23442662,0.39109078,0.15394023,0.27069953,0.15166718,0.1208978,0.09783284,0.1410552,0.18165448,0.081409365,0.2396608,0.30099472,0.3934993,0.17163418,0.27005258,0.14864956,0.104878664,0.119463295,0.14934991,0.14233734,-0.04711981,0.087772846,0.22966689,0.34473413,0.24739018,0.39017838,0.10655686,0.124895684,0.11290445,0.10256503,0.15638857,0.19198304,0.14619364,0.23721044,0.15713146,0.19873902,0.3579587,0.08489704,0.086703435,0.18728131,0.1463407,0.17836455,0.16370349,0.062712654,0.2470021,0.093915574,0.18348278,0.04098709,0.05672387,0.11587418,0.19373332,0.021551521,0.10308583,0.08319223,0.12816824,0.15835024,0.220188,0.18166734,0.3302718,-0.03607049,0.09219777,0.08112635,0.08835862,0.17744924,0.13205744,0.13223657,0.2927641,0.18201682,0.2820747,0.178117,0.043896157,0.017132161,-0.07443382,0.18256086,0.21337706,0.15264241,0.1695787,0.085162744,0.093599595,0.02124453,0.012956152,0.8015748,0.15854272,-0.05574515,0.2880943,0.076820396,0.52423364,-0.38147148,0.03709909,0.39959794,0.09762794,0.82979584,0.16930024,-1.0852828,0.014146566,0.305973,0.13811672,0.20340396,-0.25018874,0.029337144,-0.3776588,-0.39538628,0.07659417,1.9169371,-1.3326688,0.866301,0.58797187,0.13755767,0.2734044,-0.10235872,-0.15299743,-0.025838677,0.07578779,-0.17617498,1.3489138,1.6085796,0.96310455,0.25167382,0.57436997,0.5185456,0.66739345,0.827238,0.048113346,-0.27649507,-0.48484927,0.89804655,1.0801946,0.7350767,0.75797486,0.67898864,0.7001107,0.7183671,0.715787,0.6561568,-0.6376704,-0.26830763,1.3049687,0.9701989,0.755431,0.85483897,0.7183482,0.5407079,0.6696481,0.46838307,0.3287875,-0.6357293,-0.79919916,1.3327129,0.8472799,0.8042178,0.80735165,0.6560019,0.62564623,0.8205835,0.4710742,0.5978114,-0.57702583,-0.51961946,1.3159506,1.2748057,0.9363277,0.7280567,0.582153,0.5777484,0.4941368,0.56784415,0.6708199,-0.041604225,-0.926408,-0.07192265,0.8806252,1.0278926,0.43549415,0.51684254,0.3078237,0.46997353,0.26842493,0.37825006,0.21053164,-1.1950524,0.204275,1.8082706,0.13141668,0.69862956,0.53706163,0.720356,0.9729622,0.50684196,0.6232976,0.040999737,0.098977275,0.76811093,0.15023872,0.30279377,0.6137266,0.37350175,0.3993075,0.05114333,0.7647836,0.45661157,0.10598682,0.79055065,-1.4759804,0.028695362,-0.22808316,-0.21046491,-0.11228635,-0.030544339,0.07821707,0.13098143,0.24558885,0.2053752,0.1869034,-0.027996311,-0.2687096,-0.463754,-0.24541557,-0.047332834,-0.0116919335,0.06675022,0.21281803,0.20902014,0.2893268,0.23011325,0.15022077,-0.19136919,-0.2294584,-0.12918238,-0.075043306,0.005594363,0.06373784,0.08686346,0.2070385,0.243246,0.24168581,0.19539182,-0.06031977,-0.058272187,-0.022057638,-0.04575846,-0.0043091346,0.04197158,0.041015435,0.10892654,0.13262299,0.2208919,0.22122456,-0.02848292,0.0006440822,0.05508859,0.0009049093,0.045254204,0.074538596,0.023474814,0.039659683,0.11228536,0.19032797,0.1821292,-0.027278077,0.0077414885,0.045427456,-0.0076484364,-0.061752275,0.005170295,0.027829144,0.108747415,0.093974374,0.13195223,0.12850672,0.08789385,0.13254976,0.12673822,0.031149149,0.046047233,0.052075755,0.08296972,0.061805863,0.09629214,0.10202818,0.121251345,0.13059798,0.049713265,0.080788925,0.020876585,0.039449915,0.03680662,0.023898574,0.08153423,0.0015661422,0.10283698,-0.027905133,0.031663653,0.12033417,0.052795872,0.004280546,-0.03540793,0.010957381,-0.006593053,0.091889545,0.024259137,-0.11328585,0.016779829,0.22543555,-0.12612793,-0.10605009,-0.049355518,-0.036724225,-0.0138563905,-0.017142102,0.11150236,0.11409912,-0.066205844,-0.06527148,0.0029619774,-0.081227995,-0.19754113,-0.18435141,-0.15569519,-0.13169405,-0.044516243,-0.0455881,-0.030196227,0.0849487,0.034636986,0.04232682,0.026950948,-0.030609284,-0.11679874,-0.19666119,-0.16488546,-0.15451686,-0.12659532,-0.14373234,-0.15246207,0.043316983,0.00834462,0.033855036,0.038935684,-0.06883137,-0.10202813,-0.07707544,-0.16900355,-0.14969212,-0.18551286,-0.283141,-0.35854828,0.042537242,0.0429974,-0.047017664,-0.08880884,-0.12516114,-0.16708572,-0.21203925,-0.18951443,-0.17382218,-0.4228182,-0.29513633,-0.03084876,-0.047461692,-0.08140535,-0.09205438,-0.12074031,-0.15953872,-0.15719196,-0.14090118,-0.24127108,-0.20450464,-0.16279723,-0.052173965,-0.059287224,-0.07334035,-0.105846,-0.11541555,-0.11665559,-0.108860254,-0.16308622,-0.16457497,-0.14164661,-0.14864755,-0.10942719,-0.06284783,-0.036776196,-0.03832178,-0.09098231,0.031131016,-0.15416366,-0.062428,-0.174766,-0.19706638,-0.27129278,-0.10413468,-0.11316283,-0.13358182,-0.12467741,-0.04190581,-0.14770721,-0.052839696,-0.10393598,-0.11778322,-0.18839061,-0.16330463,-0.06483039,-0.074732564,-0.07307454,-0.045025934,-0.040548977,-0.047983937,-0.044624,-0.17718689,-0.13225555,-0.10843327,-0.13608423,-0.0563466,-0.010888422,-0.069440685,-0.05176339,-0.063478686,-0.068437554,-0.1350009,-0.08249434,-0.1546825,-0.1864121,-0.09807075,-0.08094134,-0.09876708,-0.1380089,-0.17987841,-0.12723042,-0.167065,-0.17153183,-0.07270032,-0.059987005,-0.28349057,-0.0030604925,-0.017077582,-0.056941338,-0.1979196,-0.14180437,0.003183938,-0.17094924,-0.20890447,-0.13133849,0.051633216,0.0138013065,-0.033579506,0.64479196,1.2742617,0.9149445,0.8392167,-0.07976891,-2.0132535,-2.0022345,-2.0958583,-3.0923471,1.3011839,0.6946307,1.2767146,1.2744385,0.9341774,0.4088447,-0.19453299,-0.6443732,-1.1071925,2.1108406,2.5275135,2.0352087,1.3235893,1.5063787,1.1240946,-0.10544549,0.10841058,-0.24494337,-0.30599353,-0.75110066,-0.88076454,0.020093461,1.707644,-1.7638572,0.72791415,0.22995915,0.14220731,-0.12753648,-0.44436392,-0.5396701,-0.37566826,-0.34707206,-0.12809418,1.4832627,-1.6801028,0.12758744,-0.42789128,-0.4329074,-0.25447887,-0.49451593,-0.60688305,-0.4459177,-0.63201195,-0.4538796,-0.82517505,-1.642598,-0.23727126,-0.60353416,-0.75246423,-0.5618224,-0.6271734,-0.5289748,-0.58005106,-0.6543003,-0.614191,-0.1607702,-2.4657555,-0.53872716,-0.6202503,-0.6268621,-0.5212514,-0.7673965,-0.66080725,-0.48819247,-0.41963562,-0.60675925,-0.056235295,-0.8242444,-0.7541288,-0.8160308,-0.6651659,-0.71130264,-0.84221643,-0.67230856,-0.6343977,-0.37723038,-0.13150984,0.36452624,-2.9801388,-1.6325102,0.27724227,-0.2008622,-1.2271655,-0.77561283,-0.68568206,-0.6483039,-0.51249707,0.103503644,0.9683832,-0.16801786,1.2751927,-0.8219145,0.69627774,0.5070046,-0.048510447,-0.81037635,-0.93983364,-0.72155696,0.04332506,2.574944,1.2955251,0.73947585,1.3053739,0.74322075,0.7481307,0.90586597,0.72488505,0.93358177,-2.1641252,-1.4193085,1.2597458,0.6316878,-1.9459817,0.0009880818,-0.27490145,0.15054506,-0.057940427,0.090852395,0.02319773,0.10867863,0.13263202,0.16834013,1.8115795,-0.032082815,0.056906905,0.23316997,0.014017736,0.13806382,0.0601689,-0.027010443,-0.0017544876,0.0063757785,0.1992835,0.161751,0.08386228,0.18374997,0.15091857,0.073980644,0.14202698,0.08300697,0.09017822,0.057067372,0.029916357,0.057687942,0.020901803,0.020453246,0.14611667,0.15398613,0.09085598,0.080316804,0.0783471,0.057262678,0.11720293,0.038113363,0.001044453,0.012459797,-0.052190393,0.1455113,0.061758388,0.08501593,0.04524494,0.021806978,0.02277588,-0.008811522,-0.035021618,-0.07295617,-0.0126992185,-0.048287664,0.19366439,0.13017361,0.07769444,0.039478518,0.2193584,-0.009372059,-0.027206054,0.01782782,-0.047986414,-0.055265345,0.019618684,0.16877978,0.17143562,0.06340453,-0.004903718,0.03594755,-0.058192786,-0.027818253,0.0028203945,-0.122187994,-0.018831577,0.0022856495,0.16364633,0.18034977,0.04966102,-0.010920096,-0.005130676,-0.05348026,-0.047971893,-0.024189996,-0.10483032,-0.058886528,0.025271993,0.26860347,0.050876837,0.03751416,-0.05704406,-0.091066055,-0.08559744,-0.07092105,-0.083696425,-0.09779264,0.031426203,-0.033362612,0.0927659,0.13934098,-0.11638378,-0.018328374,-0.08501275,-0.09305149,-0.101989664,-0.061357055,-0.16760233,-0.06075186,0.2681524,-0.04809916,-0.04257415,-0.06670435,-0.0707159,0.0013957205,0.0033807415,-0.06022258,-0.11366445,-0.081024975,-0.017594898,-0.010884246,0.04911957,0.089605846,0.04240787,0.03748537,0.011502824,-0.09835541,-0.08218496,0.032463092,0.053491462,0.17245375,-0.043820374,-0.085523985,0.07669663,0.04751477,0.08016231,-0.008213312,-0.0071117403,-0.0021023115,0.08245948,0.033448625,0.10339164,0.2525425,-0.12875287,-0.09378786,0.06641818,0.06643831,0.06416416,0.025162853,-0.05110061,-0.033941664,0.08543164,0.1545733,0.041927945,-0.051625147,-0.053831313,-0.008931864,-0.1259854,-0.0046998505,0.076007545,-0.009919004,-0.008711103,0.14083645,0.021931035,-0.05595647,-0.03995787,0.0054523605,-0.09672295,0.044533256,-0.0016122607,0.043034397,0.025628041,0.016218139,0.17263106,-0.044153295,-0.040067505,-0.04908804,0.038904164,-0.0071870317,0.016007567,0.042409774,-0.008071771,0.080650106,0.03480257,0.117238335,-0.0050429273,0.030197771,-0.007423294,0.00069941574,-0.031476695,0.032407567,0.10751942,0.06977475,0.057987716,0.038840026,0.1329348,-0.02377618,0.0047525647,0.034955516,0.0008013125,-0.004946522,0.018763425,0.1400611,0.022645429,0.038256433,0.057113916,0.08760648,-0.038024344,-0.019544289,-0.06657003,-0.2383582,-0.04791594,-0.08331312,0.016689133,0.13163185,-0.0852309,0.14796074,0.09119841,0.20916367,0.23934276,0.027978273,-0.089186236,-0.05218628,-0.018434245,-0.0037343733,0.009051628,0.05482617,0.15999459,0.2160083,0.3097093,0.27589655,-0.03881961,-0.28046808,-0.26995632,-0.06876214,-0.045072712,-0.015849385,0.053923886,0.120759726,-0.048057433,0.19957072,-0.0375151,-0.4733482,0.17220743,-1.510245,0.87791425,-2.0776863,-1.7645485,-1.3505968,-1.831085,-4.6433864,0.21840546,-0.5182982,0.22567698,0.95104104,1.0698588,0.47137147,0.22749835,0.12894993,-1.1039661,-1.8112227,-1.971414,0.12739137,0.24109824,-0.71265775,-0.4026329,0.3330773,0.22183268,0.1722586,-0.091852345,0.17940255,-0.19316511,0.11238086,-0.55739,-1.5845186,-0.43031073,-0.033028804,0.11138156,-0.014810358,0.06798558,0.10225336,-0.19527708,0.19741079,0.1530433,-0.34079632,-1.3876429,0.09402553,0.14859323,-0.047052767,0.010059224,0.028441686,0.019310705,0.1055849,0.08592263,0.13776113,-0.8500245,-1.1548107,-0.17030486,-0.27935505,-0.2125815,0.08607839,0.03285422,-0.047636654,0.088874385,0.23040962,-0.10527246,-0.7460455,-1.2977818,0.2514518,-0.56751275,0.1370483,-0.06404027,0.08224128,0.013053653,0.04770385,0.17631806,-0.26547357,-0.81918514,-1.2069826,-0.16318452,-0.2733469,-0.5027218,-0.27500892,0.09059834,-0.14837939,-0.24597076,-0.061650362,-0.037832297,-0.7030315,-1.0016004,2.1002,0.01765371,-0.90779287,-0.69263136,-0.48621622,-0.46899924,-0.56794167,-0.417191,-0.4636561,-0.18559873,-2.4748788,0.19106004,-0.08455157,-0.8222208,-0.8712799,-0.90764415,-0.92858946,-0.79971623,-0.9018145,-1.1567854,-1.9037958,0.2817744,-0.4356581,0.1801099,-1.5016599,-1.9280063,-1.0706927,-1.037898,-1.2874094,-0.6772977,-0.8253466,0.22037193,-0.4574455,1.4171268,-0.010605099,0.38781914,-0.0058143204,-0.10226272,-0.019115902,0.0354899,0.052509047,0.11047576,0.12532292,0.22770517,0.034258798,0.086272344,0.07454657,0.09875392,-0.117174245,-0.041475337,-0.04802951,0.011325058,0.02313469,0.083594784,0.25203755,0.10008948,0.109251216,0.0880417,0.066891156,-0.04366036,-0.03705483,0.023292422,0.06469818,0.021075957,0.18301111,0.2019579,0.10647399,0.11895758,0.014514119,-0.021290844,0.036536224,0.046038922,0.040745202,0.12835518,0.055938397,0.10674105,0.0202674,0.08535176,-0.030302962,-0.09396167,-0.09304011,-0.00016654888,0.089093834,0.028592657,0.09241757,0.062642194,0.032982852,0.043605138,-0.082799986,-0.055853255,-0.17427845,-0.07386898,-0.048477657,0.039254323,0.012130475,0.034164567,0.039948262,0.051626395,0.04506497,-0.08523971,-0.11964929,-0.17729568,-0.14430237,-0.04404129,-0.034276564,0.024760839,-0.0074790465,0.046208765,0.0128056025,-0.039353725,-0.06659881,-0.115698285,-0.1804893,-0.08673335,-0.053112872,-0.050254963,0.0038818335,0.015415743,0.0133679155,0.03221064,-0.052290097,-0.11686145,-0.032015994,-0.13459183,0.015760047,-0.043006007,0.0022222535,0.03224224,0.011630354,0.03248808,0.07324719,0.073200725,0.007359051,-0.0038153832,-0.06708358,0.023335744,-0.041277118,-0.03196927,-0.02605527,0.014465403,-0.036232233,0.08814514,0.048928626,0.07850039,-0.020206874,0.24972709,0.014644424,0.094365686,0.020261701,0.0012858815,0.004020181,0.06102603,0.09578565,0.08792804,0.017457245,-0.041623045,0.017807266,0.011594362,0.10690754,0.16966875,0.21825841,0.18164328,0.1046181,0.13872184,0.041684087,0.0073507335,0.107869714,0.053851236,0.08585488,0.06583758,0.20336527,0.11125467,0.19957632,0.15507205,0.14296243,0.110266715,-0.07044341,0.17196737,0.10773019,0.12164752,0.16681151,0.20761856,0.16896434,0.13813141,0.16594762,0.25660905,0.122113094,0.1452174,0.03319161,0.04136264,0.19979006,0.215008,0.1984404,0.1902248,0.21942106,0.16100848,0.16126981,0.14212619,0.15388125,0.034824885,0.07120222,0.21406786,0.23382238,0.22647338,0.11995718,0.16021876,0.18367235,0.12426357,0.16142762,0.16693017,0.10499628,0.12681314,0.1829654,0.19821747,0.1035448,-0.026462631,0.094731934,0.17595251,0.17536327,0.18741778,0.20563674,0.14911087,0.1416891,0.19596961,0.20006776,0.17550151,0.079981804,0.17425178,0.1170524,0.16203448,0.13581532,0.19442526,0.10369418,0.056939796,0.13266307,0.19082722,0.20764443,0.16126978,0.15886252,0.16836779,0.21046117,0.12902193,0.2531765,0.27776778,0.111704394,0.18431593,0.12014902,0.1256641,0.18544492,0.18741958,0.1638125,0.20674627,0.21427956,0.18069655,0.16174142,0.1184879,0.17327954,0.2102434,0.11885452,0.13395464,0.1586193,0.11001625,0.15343554,0.2291506,-0.0025463114,-0.0076531367,0.12517105,0.23463522,0.108391695,0.08366358,0.15890236,0.11594075,0.21572009,0.20324273,0.11647277,-0.025234042,-0.35860157,0.37694868,0.94396836,-1.4543788,-1.1820158,-1.0971302,-0.15298451,-2.3021982,-5.081875,0.3834295,-0.4003719,0.4305238,-4.0039144,-1.0774285,-1.144949,-0.73823434,-1.1341324,-0.44252735,-0.76928484,0.29597542,0.9387489,0.36179224,-2.6711693,0.4422871,-1.1330525,-0.5964073,0.104357325,0.068077594,0.13603218,0.23843808,0.03027273,-0.004185377,0.30392158,-2.464781,-1.1082027,-0.7660289,-0.21931325,-0.009424359,-0.059757717,0.0977651,0.03533409,-0.16994092,-0.26013312,-1.3807949,-1.306438,-1.1523643,-0.9125331,-0.022546707,0.22742006,0.14110893,0.17900586,0.28109756,-0.041114468,-0.024725106,-0.74776435,-0.99328405,-1.0918618,-0.6086849,0.121959075,-0.05761042,-0.08457403,0.067421354,0.07843171,0.06701748,-0.2171451,-0.38910797,-0.78412896,-0.93337554,-0.6030773,-0.33446318,0.08559605,0.057689883,0.020624714,0.257241,0.092030615,0.019352544,-1.0119622,-0.5168103,-0.67654467,-0.42142037,-0.4015159,-0.0067034345,-0.058155503,-0.0033522141,0.28300378,-0.040218115,-0.004705909,-1.1587955,-0.6787441,-1.5330453,-0.9318445,-0.37111118,0.068323,0.18729375,0.009644602,0.13106507,0.17534228,0.02999053,-1.0946912,0.45521724,-1.5113149,-2.0929708,-2.1871355,-0.47045895,-0.21851134,0.05639127,0.29360026,0.12992643,-1.3695893,0.4157262,-0.37944746,0.4360893,0.28386495,-1.1273572,-0.6232579,-1.124423,-1.098587,-0.50979215,0.13424651,0.41299412,-0.38843164,1.4743631,0.049586628,0.16244522,0.16926233,-0.036066532,0.0088738175,0.023974517,0.0132120475,-0.01297923,0.124949746,0.41076413,-0.012881166,0.24766484,0.32313877,0.13638508,0.080650166,-0.015359476,-0.01179031,-0.028415853,-0.035016812,-0.009696601,0.23523858,0.14028047,0.33807328,0.24519102,0.17567328,0.119276494,0.023787562,0.10113524,0.06893357,0.0593873,0.17149223,0.18519655,0.2969223,0.29051283,0.21103081,0.15558527,0.12972583,0.13120924,0.09322356,0.21425302,0.12545788,0.22520687,0.17052059,0.18251476,0.22215241,0.2309036,0.15630327,0.14711758,0.14174321,0.15083551,0.097868085,0.07199574,0.14319834,0.17587884,0.14224201,0.22607242,0.17615913,0.17732836,0.09955565,0.23340867,0.05219246,0.11866586,0.11645298,0.113008395,0.13095982,0.026123397,0.10658345,0.12767754,0.099377446,0.06129103,0.07402365,0.038637873,0.02682356,0.074725226,0.039600432,0.05108839,0.023794718,0.04507007,0.062314946,0.05112137,0.014854487,-0.0014489145,-0.026525972,-0.027787624,-0.02257004,-0.003390502,-0.049303576,-0.09143801,0.25467977,-0.0608298,0.011446554,-0.06814301,-0.08577021,-0.034918837,-0.06585838,-0.0289139,0.04297935,0.027689653,-0.0102644,-0.12183542,0.04901368,-0.1841012,-0.10891467,-0.15475479,-0.16457847,-0.09137503,-0.08863809,-0.067106344,0.034868184,0.0969339,0.03958898,0.041595876,-0.07548364,-0.059433375,0.0067690094,-0.03522725,-0.011116249,-0.0122093,0.07629036,0.03569979,-0.021396395,0.01846309,0.03607482,-0.01508026,-0.08198194,0.006340814,-0.045685206,-3.8765684e-06,-0.0056968043,-0.021399975,0.15351024,-0.019566584,-0.010799403,0.005687545,0.06173172,-0.018644987,0.005879759,-0.004655579,0.03483558,0.07918841,0.008918279,0.012659809,-0.0717314,0.0012017665,-0.035236828,0.07150719,0.021422429,0.11588896,0.08948103,0.002929038,0.07423827,0.13894042,0.07967922,0.14340666,-0.024358675,-0.0072660977,0.030644482,-0.027732078,0.06294199,0.05124774,0.014262792,0.055438686,0.11736676,0.09709268,0.061996806,-0.0028494461,-0.007853542,-0.011717122,0.05239591,0.026888413,0.12354298,0.052226778,0.077885315,0.06785997,0.07279286,0.05653562,0.036721915,0.056824733,0.0638216,0.043611452,0.016048156,0.042182326,0.08465636,0.080714926,0.039560094,0.061293688,0.088732354,0.05229683,0.03513762,0.028447354,0.058442794,0.0731383,0.009284853,0.053819,0.13223521,0.12529984,-0.040709876,0.0340096,0.05688194,0.044401623,0.12453527,0.14990288,0.16915943,0.13635793,0.14627613,0.20415564,0.19737639,0.06618447,0.019547172,0.1619041,-0.100173555,0.1470874,0.10635883,0.25243196,0.26655182,0.13234602,0.32337403,0.29503435,0.16956958,0.18361868,0.30149704,0.13289262,0.09441254,0.0901824,0.066441305,0.01618352,0.1480094,0.20075807,0.17725095,0.3437572,0.15430953,-0.048045624,-0.30613142,-0.3208075,-0.10102333,0.022699535,0.07497441,0.03576031,0.12983657,0.055328187,0.25954232,0.004259842,0.7783208,0.180074,0.6724849,0.09623508,-0.7982648,-0.37712923,0.2900173,-0.68890834,-1.2756181,0.111638054,0.78302914,0.2026271,0.5127598,0.72012675,0.43391716,0.063728176,0.70390165,0.50425524,0.64214766,0.6976701,0.25366104,0.100566804,0.71864843,0.85970795,0.41186026,0.48809645,0.71260613,0.56681335,0.8315406,0.7743386,0.9526439,0.96628916,0.86073446,0.82936263,0.6150025,0.4571516,0.44342005,0.6934299,0.699731,0.64622355,0.7472188,0.88340247,1.0298772,0.7668028,0.9571919,0.6791714,0.44883853,0.5973833,0.676257,0.7900542,0.72376376,0.81238425,0.74770737,0.7735915,0.36688703,1.0454736,0.5259866,0.47636724,0.6436664,0.60602957,0.56731445,0.48887137,0.75796926,0.6143086,0.5026995,0.31019568,0.08133985,0.5847167,0.54051846,0.7236473,0.7746501,0.68783665,0.95158356,0.8345246,0.86174166,-0.36988163,-0.55905926,1.1398455,1.2155977,0.85026175,0.71965957,0.7159182,0.7777812,0.6451406,1.0048097,0.5957222,-0.4053052,-0.66145915,-0.73087364,1.7125174,-0.25850537,-0.062281653,0.69994026,0.5391707,0.3426319,0.41285473,0.32827368,0.60390306,-0.7083208,0.20095193,0.7727652,-0.17202932,-0.2749309,-0.2442928,-0.41012034,-0.4202976,-0.13561527,0.77453774,-0.62246776,0.117058896,0.74710214,0.22994897,-0.5462128,-0.59380174,-0.33122247,-0.7586185,-0.7858584,-0.3037785,-0.8135926,0.1385586,0.75861645,-1.5149537,0.051993646,-0.27452525,0.08167562,0.14696042,0.15651265,0.18428609,0.20042221,0.17649049,0.21290003,0.21460702,-0.048785914,-0.14290735,-0.2137716,0.032262363,0.1486714,0.2155912,0.20225942,0.25748628,0.22038597,0.26727274,0.19601163,0.11181262,-0.18606043,-0.2782728,-0.09136264,0.061953075,0.14174557,0.15161926,0.14360213,0.16990511,0.083827026,0.045385648,0.000102959486,-0.14889789,-0.21343005,-0.076766476,0.014487399,0.09557533,0.07440703,0.06633192,0.08980509,0.014866851,0.04556812,-0.058906198,-0.1428023,-0.21715058,-0.06976416,-0.054132946,0.013538289,0.07970904,0.0075119263,0.018948825,0.084682584,-0.016104005,-0.036826357,-0.13604273,-0.11642865,-0.086007185,0.018443706,0.038205884,0.03933328,0.0043612346,0.022275714,0.06448816,0.004443717,0.044148743,-0.16272022,-0.20480365,-0.04536746,0.0047413986,0.004472318,0.075917274,0.065174945,0.059691466,0.012477292,0.043508034,0.026951373,-0.2562957,-0.29381686,-0.09169162,0.011857258,0.057226986,0.07891914,0.031443555,0.047178455,0.053181976,0.03418523,0.014462598,-0.35115883,-0.40644872,-0.15020183,0.005534072,0.12663034,0.11332113,0.10445329,0.1371879,0.062054142,0.04229146,0.039077908,-0.22569546,-0.5215363,-0.12153303,0.045660265,0.15301818,0.15671304,0.14514814,0.1611202,0.041773047,0.09781199,0.07454768,0.0023200181,-0.47283554,-0.017161315,0.018497812,0.09985217,0.1701284,0.1648451,0.11432578,0.06510804,0.039031673,0.038220353,0.0041348455,-0.04971649,0.06463259,-0.02002886,-0.10347079,-0.13809282,-0.15792239,-0.16849822,-0.1694236,-0.1782509,-0.04711202,-0.10198764,-0.037260402,-0.034124784,-0.09072185,-0.042060014,-0.04581312,-0.12997027,-0.12468568,-0.18516953,-0.10397417,-0.0024844012,-0.08010684,-0.057298116,-0.0794336,-0.035386376,-0.06604248,-0.14441851,-0.087086305,-0.16474138,-0.075133145,-0.23841849,-0.23659326,-0.04044174,-0.079563394,-0.08442272,-0.10008931,-0.13093372,-0.12955163,-0.13554144,-0.13997567,-0.08775724,-0.109079964,-0.2096833,-0.01738519,-0.004229035,-0.09525958,-0.083891734,-0.15799433,-0.04261159,-0.124099866,-0.08846674,-0.14143385,-0.13034464,-0.12601994,-0.05026845,-0.04593011,-0.087249026,-0.09814637,-0.095042296,-0.004319094,-0.09491137,-0.055050626,-0.08220855,-0.1906525,-0.11864818,-0.030214386,-0.03915167,-0.013028546,-0.024017405,-0.11433006,-0.079235554,-0.08654827,-0.159341,-0.10762872,-0.12689406,-0.17629738,-0.04996323,-0.04952252,0.0021522078,-0.079827644,-0.14376618,-0.10769839,-0.096854806,-0.12859282,-0.08365264,-0.17957698,-0.15461832,0.00382338,-0.0056237406,0.0059779924,0.010972304,-0.08092826,-0.0864262,-0.1277482,-0.15976126,-0.2522807,-0.1934069,-0.15237474,0.037831496,0.023304308,0.08420339,-0.016896982,-0.031909607,-0.07216985,-0.043861777,-0.12377092,-0.14639425,-0.15638858,-0.36476207,-0.040595,-0.11351334,0.12420793,-0.066751406,-0.04186701,-0.1537644,-0.14699565,-0.18732338,-0.17101258,-0.1515658,0.048814412,0.5970696,1.7776734,-0.2662881,-2.1714056,-3.18869,-1.4169302,-1.8142612,-2.09089,-2.770696,1.7790649,0.6049764,1.8429025,1.4522527,0.028592627,-0.7448096,-2.3875868,-2.6097548,-2.576752,-1.7173117,-2.8124237,-2.385953,1.8406515,2.0101407,1.8458729,0.28202662,-0.5164712,-0.85337716,-2.1683657,-2.8016503,-2.2046797,-1.8373576,-1.4832472,0.6178068,1.3988733,0.6017526,-0.4748187,-0.39065933,-0.5717735,-0.72490996,-0.81539875,-1.1221986,-0.9603929,-0.98512906,0.07656547,1.148906,0.45722568,-0.30271238,-0.6770158,-0.6663346,-0.63123155,-0.8430804,-0.8108427,-0.82788616,-0.644587,-0.042152688,1.2926059,0.45842567,-0.13272794,-0.6244239,-1.0303158,-0.84801286,-0.64833575,-0.7705433,-0.7355874,-0.73404413,0.07831574,1.7127832,0.5592407,-0.20857409,-0.2639743,-0.510454,-0.6338088,-0.7302854,-0.69478357,-0.8674232,-0.6398736,-0.91997725,1.4153767,0.798173,0.21156298,-0.14497168,-0.50555325,-0.7168791,-0.6559465,-0.90671694,-1.0071675,-0.7000033,-0.5673288,2.4400904,1.649768,0.61007,0.12208077,-0.2543053,-0.6717342,-0.89492863,-0.74716806,-0.9696357,-0.6881711,-0.18045299,1.8392614,2.1720064,0.92781264,0.2707853,-0.5208002,-1.2702855,-2.3637578,-2.313334,-1.6272639,-0.33757946,1.8557644,0.7258381,1.85644,0.87153023,-0.67165947,-0.77952623,-2.3025405,-1.7012185,-3.2613034,-2.9653358,1.9242079,0.61762935,-4.647735,0.0037097384,0.193901,0.21354383,0.09951805,0.049904153,0.028552027,-0.02171331,-0.04163856,-0.06254767,-0.09639352,0.021104144,0.13683473,0.36773428,0.22262503,0.10859675,0.058614083,0.021189123,0.0051144683,-0.040511508,-0.014609641,-0.16407745,-0.11344407,0.15984401,0.17174377,0.15040028,0.06936379,-0.0029703453,-0.058201283,-0.05471948,-0.025325043,-0.080563225,-0.16980924,-0.17019632,0.04060933,0.078467965,0.036011703,-0.016938856,-0.03350876,-0.041924972,-0.09076142,-0.09123677,-0.09268749,-0.15354551,-0.11432164,0.047080543,0.069264874,-0.03167869,-0.026678313,-0.042352945,-0.013634575,-0.08547475,-0.05303957,-0.096235566,-0.106537394,-0.14101149,-0.014003422,-0.010905417,-0.05177371,-0.053225163,-0.07935623,-0.051464394,-0.07739119,-0.10294393,-0.12502873,-0.12120842,-0.15043987,-0.065394014,-0.104567,-0.100933045,-0.122248985,-0.07584011,-0.06076274,-0.12646812,-0.10609805,-0.12353646,-0.18124682,-0.17768227,-0.11298365,-0.13176234,-0.123548344,-0.119804725,-0.101222716,-0.14849088,-0.118141755,-0.13367157,-0.14694591,-0.14928104,-0.12618878,-0.20105639,-0.24985012,-0.17674904,-0.1564676,-0.12930308,-0.10964944,-0.12815106,-0.14126207,-0.17459638,-0.15270971,-0.18839648,-0.25702122,-0.39514408,-0.27494,-0.21024264,-0.14561407,-0.1506842,-0.18566453,-0.18790476,-0.19443032,-0.22481784,-0.15231775,0.024122076,-0.2905472,-0.18855907,-0.16652197,-0.14889996,-0.13352828,-0.15564173,-0.15093215,-0.15315555,-0.18339467,-0.028433759,-0.03215675,-0.16216235,-0.12169248,-0.074991286,-0.10914726,-0.067867845,-0.008016932,0.02252351,0.017565954,0.011894268,0.023959095,-0.11368635,-0.09515684,-0.117857836,-0.023344701,-0.101295464,-0.026953287,-0.030483214,-0.04322175,0.01543116,0.08370994,0.14584573,-0.13358702,-0.11915664,-0.053327754,-0.07761776,-0.065587044,-0.005336166,-0.0063397656,0.013869781,-0.06070894,0.10931567,0.094328664,-0.068986714,-0.025647849,-0.023154343,-0.044454616,0.00500548,-0.011791662,0.018506927,0.04904717,0.027640468,0.0048657362,-0.00051151175,-0.031226164,-0.0044084815,-0.029979443,-0.018957773,0.03921745,0.032320205,0.036551934,0.0052590673,0.06404281,0.0042585637,0.07083349,-0.007217181,0.0168535,0.0020066444,0.019709688,-0.0062163086,-0.044361137,0.023276735,0.037732303,0.061931215,0.059922513,0.08229101,0.029295193,0.010102158,0.04416978,0.03802655,0.040492654,0.04863152,0.05583743,0.04920428,0.036904454,0.052898996,-0.029153762,0.07290427,0.050159987,0.07673696,0.037738062,0.033042762,0.05777131,0.044318955,0.03744228,0.06561942,0.109276965,0.04914168,0.14098223,0.12631111,0.095019065,0.123548836,0.06855976,0.0687173,0.10678577,0.05022996,0.07255416,0.09187087,0.086989544,0.11232216,0.15901764,0.14450155,0.104286306,0.08935313,0.07809429,0.0710862,0.0699771,0.13421845,0.05807139,0.18465695,-0.014480197,0.11754626,0.11203874,0.0799463,0.041408174,0.06222266,0.05432125,0.09984361,0.057592306,0.04270592,0.02700868,-0.16903359,1.2477094,-2.2155004,-1.5495571,-1.2555618,-0.43366495,-0.7552406,-0.6000949,-0.6217969,1.1901208,-0.12358078,1.3459121,-2.6134865,-2.3477273,-1.946313,-0.4614332,-0.19396852,0.23122126,0.07723533,0.6430606,0.63830453,1.2524493,-2.6411393,-2.5539443,-1.7176952,-1.2918304,-1.4816203,-1.0921252,-1.6216179,-0.5188842,-0.08053176,0.0016091246,0.47114086,-1.7982717,-0.88063735,-1.2711061,-1.4884161,-1.1790746,-1.0429811,-0.89133906,-0.46926618,0.04269358,-0.06696951,0.94708717,-1.387195,-0.33359182,-0.9446323,-1.1832169,-0.89279944,-0.905278,-0.8788586,-0.7322954,-0.37555337,0.56838304,1.1430295,-0.18908799,-0.6744287,-0.871697,-0.8193446,-0.80091125,-0.7669662,-0.7926431,-0.7640163,-0.42343166,0.4405254,0.8438251,0.26787075,-0.22061446,-0.40185228,-0.78515244,-0.8542116,-0.82450783,-0.6401295,-0.44218302,-0.51143837,0.44847968,0.6165008,0.08086572,-0.15243047,-0.17346233,-0.59448594,-0.6873808,-0.56930333,-0.5772072,-0.6014038,-0.3245798,0.32960576,0.60005087,0.8627471,0.12206944,0.13690943,0.01032851,-0.3513159,-0.52760595,-0.4783006,-0.35289857,0.53127766,0.6113681,0.07341568,1.3251407,0.53074586,0.38763186,0.35278285,0.09042394,0.5656527,0.5584606,0.39300984,0.862286,0.61506003,1.1118747,-0.11848621,1.2431891,1.4090548,1.1028451,1.3441781,1.0849493,1.0574353,1.4847176,1.1662114,1.1362032,-0.1549949,1.7573527,-0.016256135,0.11280159,0.13974522,0.03647406,0.0670471,-0.19745702,-0.057738476,-0.29635176,-0.1657941,0.007249805,-0.044042043,0.015050835,0.1691339,0.19373412,0.15018569,0.023853919,-0.045128435,-0.06424843,-0.19680992,-0.09536839,0.03996778,0.23948538,-0.05331315,0.21384855,0.11566944,0.15331459,0.06261918,-0.12837835,0.086203024,-0.2349565,-0.20079441,-0.003269734,0.17542283,-0.1498322,0.036493227,0.094651274,-0.07500339,-0.14294623,-0.12802579,-0.1278467,-0.09259642,-0.28298685,0.045399033,0.19773306,0.01271461,0.037873067,-0.024558907,-0.23506147,-0.34738553,-0.014012483,-0.20029983,-0.4162744,-0.1805528,-0.0017410815,0.10210003,-0.11744157,-0.049625948,-0.08586782,0.11339244,-0.19054334,0.00700736,0.050206445,0.06592356,-0.010758857,0.008818376,0.25247848,-0.059745785,0.15965462,-0.02400814,-0.062022842,0.004108064,0.055824738,-0.122251995,-0.0648347,-0.11841693,0.22300038,0.22253682,-0.08956667,0.17253628,-0.12788124,0.04149767,-0.05972869,0.09780101,0.011722675,-0.019077774,-0.13257807,0.1034479,0.1416907,-0.09421673,-0.0030240256,0.012890151,0.02034114,-0.1786985,-0.11688004,-0.013986255,-0.053531703,-0.17108642,0.12451611,0.16053015,0.15612139,0.25735146,-0.056624386,0.17723788,-0.05251151,-0.04269683,0.029392207,0.051005654,-0.06900527,0.1886961,0.10871079,0.049784474,0.19700757,-0.27973196,-0.49059975,-0.4662515,-0.4052939,-0.29207167,-0.29210445,-0.37935984,-0.04736676,0.016218139,0.009221039,-0.033857007,0.008992605,-0.01573721,-0.09673969,-0.09345087,0.060770523,0.1673279,0.069094546,0.18252622,0.037364554,0.017135926,0.05170258,0.031870108,-0.056248195,-0.08327453,0.20378476,-0.11910512,0.020968195,-0.007321369,0.105237365,-0.06496656,-0.017543057,0.008875324,-0.11316339,-0.07067052,-0.20470431,0.0011593439,0.0772608,-0.04934426,-0.11136997,-0.026724013,-0.13012514,0.049365714,-0.027716408,-0.14646345,-0.060232982,-0.03284938,-0.00369707,-0.23703389,-0.18042372,-0.19671173,-0.005762666,0.0008726434,0.07549764,0.016912773,-0.08464453,-0.19963314,-0.0066120313,-0.09973605,-0.06344391,-0.15052205,0.09684581,-0.019941118,-0.07863303,0.04415068,-0.04738014,-0.02887988,-0.008697714,0.11011638,-0.015471615,0.105854526,-0.20482928,-0.05272723,0.004037732,-0.08458733,0.006152602,-0.13555214,-0.018801473,0.04976224,-0.0048461393,0.041028492,-0.04778037,-0.039549164,0.0017665141,0.0003593964,-0.080216326,0.008382199,0.036024924,-0.16134007,-0.0035740742,0.0201586,0.04081692,-0.07248963,0.0056887018,-0.13146056,0.04526816,0.012770929,-0.027031679,0.021938974,-0.09543934,-0.0433346,0.10782834,-0.013486477,-0.23246951,0.055269558,0.0589021,0.05992054,0.041074328,-0.08916181,-0.023222988,-0.103118286,0.06790358,-0.10711414,0.009034627,-0.09272894,-0.03469406,-0.11534889,0.004718549,-0.28515553,-0.050401412,0.12795478,0.09136321,0.12950876,-0.057343163,0.087199554,0.13894212,0.06843544,-0.05897265,0.212097,-0.046005752,0.30097044,0.7241129,0.1303144,0.4781545,0.65915173,0.38704994,0.11634251,1.194433,1.6641076,0.6555937,0.33200502,0.61024755,0.63264,-1.9663622,-2.117118,0.23567902,0.39502117,0.7395486,0.23239022,-0.40483403,-1.2530836,0.67866194,-2.6850882,-1.4419947,0.8554157,0.57926875,0.65573555,0.81795734,0.8419497,0.8020649,0.71675575,-0.7399558,-1.0469848,-1.0598783,0.65146357,0.80575174,0.85607594,0.8767548,0.8629275,0.80781096,0.7925768,0.92019546,0.3480565,-0.4507425,-1.0570989,0.720485,0.8447788,0.79270095,0.9077956,0.81277514,0.8393329,1.1677263,0.9626377,0.43067917,-1.2168659,-0.9899033,0.61319214,0.5933811,0.57630175,0.7725264,0.6659007,0.91236675,0.7846674,0.91324866,0.4070689,-1.0859891,-1.8201926,1.1891172,0.43585512,0.521346,0.8516426,0.67419493,0.84155697,0.78077084,0.9089564,0.54912895,-2.6090221,-0.78402513,0.86414844,0.923742,0.5624692,0.72516656,0.54035825,0.75588787,0.63316566,0.56839603,0.19597931,-0.21350117,-1.7898179,-2.2103522,0.8584423,0.5605936,0.47403112,0.74587864,0.63425785,0.8435175,0.37459713,-2.5280466,-1.9807062,0.6630406,0.6339224,-1.7307545,-0.09204837,-0.49749148,-0.07151193,0.42680088,0.33190268,-0.8206927,0.44898167,0.69814473,0.33056888,0.6433576,-0.055204246,0.13767718,0.4461728,0.13036594,0.4369214,1.2057214,-0.43867907,0.69310796,0.28477392,-1.600101,0.022164412,-0.17441724,0.07278532,0.1376452,0.06508751,0.018415362,0.025148612,0.010931032,-0.010440705,0.07842708,0.018283447,-0.00045845014,0.047029246,-0.014079753,0.013892243,-0.0074082175,-0.021102577,-0.058113977,-0.041774474,0.032960534,0.014049911,0.09609972,-0.06580821,-0.03275343,0.023187269,0.025714453,0.03270979,0.038489494,-0.007542064,-0.044850636,0.005195231,-0.07645785,0.2227389,-0.12137287,-0.032522645,0.0070296736,-0.04443523,-0.067411795,-0.06347887,-0.033830285,-0.056285013,-0.031610064,0.011814146,0.08890337,-0.09085961,-0.03935661,-0.07442985,-0.07942495,-0.06736291,-0.055056557,-0.0063550407,-0.06622824,0.0020393082,0.06272036,0.10026778,-0.08428099,-0.03425453,-0.0017135174,0.015369261,-0.010355232,-0.0061619948,-0.018947603,-0.050290477,-0.032998346,0.015056547,0.1559838,-0.034136582,0.031176839,0.037578497,0.031360213,0.02995391,-0.03147745,0.008389567,-0.0111753335,0.02719557,0.07112892,0.24693471,-0.07357929,0.07301302,-0.059737317,-0.010457567,-0.014373701,-0.0125809675,-0.057676535,-0.030174129,-0.023525639,0.15445003,0.32577607,-0.05842086,-0.009161027,-0.1103087,-0.02398739,-0.10024651,-0.10744479,-0.08381271,-0.06519376,-0.07759576,0.069727205,0.23625341,-0.13541327,0.15383267,-0.13232853,-0.020616058,-0.1157303,-0.10029259,-0.16561548,-0.12480333,-0.16814111,-0.08037615,0.13395596,0.015249302,-0.36008227,-0.15112598,-0.18364634,-0.15477535,-0.15185605,-0.18577299,-0.21577305,-0.15579692,-0.07970082,-0.05120647,-0.0018841579,0.31717423,0.2838129,0.16929954,0.12460714,0.15158491,0.09838668,0.15507253,0.22706436,0.30911428,0.049850266,0.017891785,0.32320493,0.26537642,0.12308759,0.10670013,0.13619302,0.11012151,0.15579554,0.06499887,0.06130298,-0.07053875,0.023202507,0.12577654,0.13721563,0.07528059,0.10782524,0.09841296,0.1012748,0.023498643,0.2006619,-0.05553417,-0.05518931,0.11963672,0.11001664,0.07776225,0.079443015,0.11693645,0.06877523,0.028929673,0.095228285,0.068140455,-0.008749756,0.12601145,0.1397603,0.16644728,0.095195286,0.114109606,0.094456695,0.09775059,0.07945349,0.033405617,0.10611673,0.052462637,0.025871845,0.19288999,0.16698453,0.13229081,0.1477582,0.15748644,0.014632174,0.13476168,0.0917755,0.06766543,0.031616766,0.108158015,0.1576533,0.16373488,0.108162835,0.18372878,0.12192522,0.09398088,0.11337056,0.13144481,0.13563086,0.08812119,0.12327583,0.11915817,0.112737775,0.096941054,0.13296044,0.102765866,0.044926643,0.12146739,0.13109832,0.09581247,0.076714,0.16423176,0.045282997,0.15071249,0.14922008,0.1305165,0.13295057,0.15994708,0.13366978,0.23010719,0.07061607,0.03521684,0.09039253,-0.0052251085,0.18632823,0.2005781,0.24012731,0.14218211,0.08569122,0.15726,0.15761712,0.12929845,-0.004617013,-0.102199994,0.0009541038,0.39403713,0.7594787,0.50901484,0.30563098,0.3063566,0.27664584,0.28564787,0.19081342,0.14394829,0.021389896,0.9625924,1.1486797,0.3331263,0.32473552,0.2512809,0.14577803,0.5621386,0.52122545,-0.31577358,1.1107432,0.81981075,1.1248316,1.9438672,2.1745987,0.46262813,0.40451205,0.15499768,0.21802685,0.21677794,-0.4268105,-0.44427624,1.159127,0.39141116,1.1894917,1.5891988,0.42115068,0.53656167,0.6429165,0.43216893,0.2905843,0.3186325,-0.04075333,0.22956464,1.2940166,0.6978583,0.69640756,0.6212734,0.5894918,0.5697345,0.47942108,0.3463007,0.29024032,0.07286293,0.02805339,1.9567938,1.0030214,0.8561185,0.7531071,0.4965788,0.56499976,0.4556636,0.33977288,0.23881942,0.10365028,-0.055984393,0.8646646,0.39623907,0.60568863,0.73854357,0.5965656,0.4770717,0.59059685,0.4133474,0.36276206,0.059536565,-0.011511754,0.50627947,0.30086723,0.5677601,0.69744307,0.5252532,0.616441,0.3366511,0.3929385,0.30164254,-0.033692222,-0.6096426,0.22734447,0.5457486,0.4399132,0.5882317,0.4762678,0.56280285,0.5351734,0.45961615,0.2780315,-0.16753194,-1.2911347,0.34223032,0.7854246,1.1484369,0.8464416,1.2910861,0.62361085,0.66003853,0.38120547,0.29030198,0.07320326,-1.2092953,1.2051095,1.2895589,2.26299,1.9720978,1.4881588,1.2739804,0.28239992,0.46773893,0.3760827,0.041399054,1.1597496,0.81893617,1.1873161,1.5550615,0.7589168,1.1032748,1.3060563,1.6006434,1.4347827,1.3493717,1.1262369,0.9741114,-2.441481,-0.03697264,0.10081844,0.11465656,0.24482256,0.072512746,0.010448436,-0.22179492,-0.26027998,-0.14007227,-2.3659382,-0.04456649,-0.16463794,0.091923825,0.0715501,0.074254446,0.034103554,-0.0396085,-0.05482269,-0.09186239,-0.16834046,-0.11655911,-0.10958199,-0.17738083,-0.093362205,0.07717575,0.035756048,0.008237672,0.06875447,-0.019347806,0.053029746,0.06670619,0.01552617,0.144297,-0.21162546,-0.025094185,0.026660683,0.029798612,-0.027734438,-0.010380791,0.014374644,0.047378417,0.09231558,0.13448747,0.06595122,-0.25065446,-0.05515976,-0.032344528,-0.028065708,-0.034981318,-0.033157974,0.018872218,-0.0051749307,0.13895327,0.111400284,0.12117288,-0.19790249,-0.044692915,0.013242997,-0.012885798,-0.09098846,-0.05050531,0.05954406,0.0084476,0.08031052,0.07637663,0.13268758,-0.18963306,-0.0060487953,0.013084088,0.059569784,-0.026247364,-0.026130581,0.06397349,-0.062134523,0.09282444,0.053690013,0.057019006,-0.2973185,0.008752534,0.042605948,0.05915384,0.0003063382,0.006165083,-0.003217857,0.021116426,0.08907141,0.04262047,-0.17370947,-0.37989885,0.01274074,0.092215754,0.09251077,0.07081155,0.086965956,0.044586338,0.008876133,0.022461116,-0.17583139,-0.035309557,-1.5004108,0.1446202,0.14713454,0.09814258,0.0786968,0.10191391,0.06320856,-0.0015199715,0.060835153,-0.10276705,-1.5127332,0.049047284,-0.045340635,0.12493195,0.061313916,0.066862494,0.062628336,0.010602996,0.061550207,0.048379663,-0.0651893,0.045185495,0.0063190013,-0.19147658,-0.211001,-0.21096608,-0.15053473,-0.14617446,-0.12300332,-0.2084597,-0.12134231,-0.20860334,0.013480575,-0.070121124,-0.04786099,-0.06540374,-0.061562885,-0.121661365,-0.10637512,-0.04457404,-0.08184628,0.057326414,-0.0024868506,0.16797945,-0.07738274,-0.096372254,-0.0040403395,-0.063048504,-0.120938204,-0.06871545,0.03421718,0.10752928,0.019648755,0.057044752,0.119560316,-0.1516536,-0.10602417,-0.08238063,-0.11434537,-0.1457351,-0.12493339,-0.1270769,-0.06498945,-0.06932976,-0.048083853,0.017772213,-0.15959476,-0.12587982,-0.043973327,-0.121226914,-0.12357762,-0.034269467,-0.18157321,-0.085721456,-0.11239033,-0.020718442,-0.07551525,-0.14516993,-0.13783722,-0.12105757,-0.10128868,-0.1741498,0.048222538,-0.16212574,-0.13580647,-0.1299974,-0.13243063,-0.092492275,-0.1509145,-0.08252663,-0.12030766,-0.102098376,-0.17501453,-0.17534657,-0.09679722,-0.06044208,-0.024004199,-0.04113022,-0.103148974,-0.15129896,-0.15620324,-0.15269305,-0.128092,-0.27394727,-0.15000255,-0.05753632,-0.13749456,-0.040347427,-0.05975316,0.033671115,-0.24132027,-0.13144355,-0.0626809,-0.05800606,-0.16045336,-0.12970304,-0.04663948,-0.13499148,-0.10742483,-0.07553495,-0.034493737,-0.36097524,-0.037828233,-0.13557103,-0.09417988,-0.1599047,-0.16686903,-0.22288136,-0.1598811,-0.039677225,-0.069054484,-1.5379478,-0.030095309,-0.10012853,-0.18486118,-0.16537243,-0.068180524,-0.12036849,-0.100456946,-0.25639892,-0.0038990376,-0.07988927,-0.04420659,1.3661203,2.4188118,-1.5472193,-1.4073552,0.18115377,0.23595798,0.48518896,0.9219225,3.5769265,2.5231338,0.24534453,2.482083,-0.0049092723,-0.82940066,-0.047745064,0.09516736,0.12558532,0.12517637,0.44811094,0.630842,1.2179185,2.3226285,0.99340934,-0.018177882,0.012710897,0.2713274,0.1358925,-0.10869524,0.046847936,-0.6100937,-0.5104182,-1.3987024,0.029844236,0.18572116,-0.24228264,0.021415764,0.19578815,-0.005272858,-0.2703408,-0.062720634,-0.09002305,-0.45687938,-1.5571196,-1.4543461,0.78410345,0.17014611,0.047957305,0.047109887,-0.13333826,-0.24297819,-0.20912234,0.085540146,-0.21697317,-1.168711,-1.6325947,0.48268202,-0.02259399,-0.039816983,-0.36846042,-0.12792096,-0.26607156,-0.23455998,-0.33202544,-0.24735925,-1.2791897,-1.2755749,0.4236558,0.117034,-0.11866152,-0.15021332,-0.4104157,-0.32665563,-0.23040149,-0.39031583,-0.08219371,-0.47209707,-0.37581685,0.2776058,-0.054634072,-0.08600625,-0.20123117,-0.42694375,-0.5256562,-0.3206029,-0.24600402,-0.21926682,-0.10631782,-0.65149736,2.0920045,-0.1872775,-0.24469621,-0.28127015,-0.7368706,-0.43803394,-0.5241266,-0.42553926,-0.5087611,-0.0005759606,2.43563,2.4228115,1.2217637,-1.5988833,-1.4247555,-1.1252332,-0.97902507,-0.63658077,-0.22727916,0.5042796,2.1467927,2.3643107,0.49717364,2.3731844,-1.0260901,-2.1194813,-0.99757224,-1.041404,-0.25081232,-0.49658158,-0.49339092,2.437993,0.45509702,-4.7608633,-0.019812634,0.32239056,0.16644071,0.18071553,0.032980632,-0.015625898,-0.12223925,-0.112801746,-0.25031498,-0.28188106,0.036863517,0.21097018,0.34729317,0.2645832,0.15365402,0.06529542,0.049286388,-0.08739114,-0.12312118,-0.34236398,-0.5401451,-0.1616785,0.24674635,0.22063416,0.19912851,0.1196194,0.054117486,-0.023897897,-0.10004399,-0.06473168,-0.23840968,-0.33416843,-0.27896306,0.075243525,0.17018749,0.16812527,0.094753705,0.030702788,-0.0051246216,-0.061641086,-0.08954153,-0.11265426,-0.18232626,-0.14730069,0.15845455,0.20439062,0.12557562,0.075557776,0.044221684,-0.03442636,-0.030801712,-0.04055671,0.02491028,-0.066896394,-0.12614012,0.14816761,0.20196933,0.13165851,0.089603275,0.029436687,0.016119149,0.03272817,-0.01311018,-0.030633295,-0.016144669,-0.031769775,0.08295736,0.15924425,0.13038751,0.06558575,0.05527349,0.02898449,0.017152453,0.04449509,0.018666856,0.029308803,0.022330502,0.07487258,0.08319881,0.053412486,0.03797268,0.022513933,0.0024228597,0.062677234,0.023355193,0.099131234,0.05825336,0.123434305,-0.03783326,0.0014252779,-0.11967602,-0.036168065,-0.01915211,-0.01932899,0.05988503,0.059206568,0.05999153,0.0616519,0.010259691,-0.06071392,-0.27402088,-0.18759866,-0.11968066,-0.0485032,-0.0073887603,-0.0056827683,0.02524487,0.013104434,0.04567287,0.0298893,-0.0042826105,-0.29795393,-0.24938257,-0.1700101,-0.07252323,-0.060261607,-0.035921533,-0.01357367,-0.004257842,0.038544316,0.036760796,0.02323141,-0.18490094,-0.16104092,-0.116785794,-0.12287464,-0.013893314,-0.062072344,0.051867567,0.09769007,0.121888414,-0.03324909,-0.11375078,-0.17427449,-0.17378041,-0.09060231,-0.037242815,-0.02427869,0.01620833,0.019678518,0.17818551,0.20039514,0.18626949,-0.21608894,-0.19526114,-0.11705757,-0.15064546,-0.10301286,0.005613994,-0.03357708,0.14851192,0.14986,0.24671745,0.1935679,-0.14258535,-0.07049197,-0.106354475,-0.051693093,-0.07041496,-0.009202569,0.029511739,0.014759627,0.11579158,0.08354922,0.081441484,-0.12593804,-0.09733685,-0.13546702,-0.051128414,-0.047893364,-0.031770974,-0.069172055,-0.015134868,0.00026963901,-0.007514162,0.05382558,-0.068091325,-0.082723275,-0.09218339,-0.07439784,-0.078350745,0.032841172,-0.028839769,-0.04999403,-0.002443152,0.067516886,0.07906983,-0.12903158,-0.06916487,-0.054101925,-0.073892005,-0.08408759,-0.055289414,-0.06442157,-0.05465785,-0.058543593,-0.040457994,0.06556886,-0.0374545,0.018029211,-0.054583266,-0.10319236,-0.034824025,-0.08694562,-0.09692493,-0.12985572,-0.027723124,-0.06712674,-0.019600915,-0.0777032,-0.0068253125,-0.038484402,-0.005392946,-0.07242237,-0.076882906,-0.02521126,-0.18370573,-0.09219171,-0.23131311,-0.118206486,-0.07783055,-0.05562198,0.0034721955,-0.09540666,-0.045533273,-0.05637543,-0.06724825,-0.058816873,-0.02533206,-0.12350551,0.0066277036,-0.007163104,-0.020710133,0.03203237,-0.118212216,-0.036848508,-0.059024453,-0.15909834,-0.13975835,-0.14873362,-0.22673473,-0.044689246,0.52434635,1.5446944,-2.1048987,-1.2401267,-1.3876636,-0.44659594,0.36889628,1.0569775,2.5917084,1.6436749,0.8480627,1.6528882,-2.0773895,-2.2496424,-1.3755566,-1.2324992,0.051353,0.33105177,1.0384904,1.8983557,1.5990179,1.662815,-2.1985047,-2.80616,-2.6053543,-1.0265067,-1.1045315,-0.7015357,-0.3860005,0.12872462,0.60335666,1.4803189,2.049247,-1.8740406,-2.4337692,-2.3534558,-1.7153045,-0.9677968,-0.61963856,-0.15322673,-0.12614112,0.3901485,0.797109,1.8060291,-2.5045798,-1.9646354,-1.4993354,-1.444165,-0.77358913,-0.6611151,-0.7029977,-0.6422232,-0.07970205,0.05742955,0.51964694,-1.9020035,-1.9619696,-1.4587502,-0.8814385,-0.64033353,-0.43956402,-0.6039496,-0.35912454,-0.22854678,-0.10847449,0.085746534,-1.4115188,-1.313385,-1.0054495,-0.74932677,-0.5050848,-0.56443787,-0.38781303,-0.44325984,-1.2632917,-0.23115684,-1.8926177,-0.68704027,-0.6414847,-0.850937,-0.55954754,-0.49653375,-0.47768876,-0.5693369,-0.65463525,-0.6005425,-0.75124246,-2.0676692,-0.38433954,0.80006486,0.2376845,-0.08017219,-0.41199943,-0.45918357,-0.53232604,-1.7304932,-0.8537845,-0.68794906,-2.7665925,1.6461886,0.78182405,1.5864317,1.2286156,0.12853323,-0.57737285,-1.1474338,-1.1698645,-2.597577,-1.0526681,1.6456977,0.8159975,1.7055538,2.1202538,1.1741478,0.8851275,0.37968445,0.28983572,-1.101551,-0.96854925,1.665132,0.4997124,-3.4631574,0.035777226,0.21324654,0.037982136,0.10692112,-0.03580019,0.13387486,0.042361166,0.16921023,0.14755625,-0.115785524,-0.02326732,0.11897949,0.08726432,0.13623111,-0.06681976,0.053334866,0.08463578,0.1412181,0.20036352,0.01407223,0.16105846,0.0346269,0.067796215,-0.0500562,0.06997617,0.008387135,0.15733878,0.16409497,0.09723281,0.17922448,0.090642564,0.084963776,-0.022990713,0.072904505,0.0061667063,0.06350073,0.13550863,0.17227654,0.1875189,0.16335131,0.11473413,0.1306119,-0.10928586,-0.07208219,-0.046586815,-0.10474686,0.08568717,0.10612129,0.23418133,0.11528149,0.17475303,0.1397895,0.12377123,-0.029038634,-0.09436936,0.027356155,-0.0064883055,0.14123502,0.09936086,0.31770945,-0.021591716,0.1535264,0.17628962,0.15161082,0.098238766,-0.05154062,0.015109018,-0.06382513,0.18617673,0.109315515,0.10797599,0.07062023,0.090074964,0.13542682,0.16115473,0.025184559,0.16612348,0.026062708,-0.03945196,0.12524901,0.13755871,0.09856789,0.108262606,0.11615601,0.14432013,0.22080098,0.22959,0.18697436,0.01103774,0.10148049,0.13264577,0.017026937,0.12008101,0.07015093,0.00800767,0.15247768,0.17405806,0.15092254,0.3789847,0.07146629,-0.08487912,0.06818042,-0.06103729,-0.09491894,-0.011971446,-0.0026985155,-0.048881885,0.09468477,0.17572042,0.29343516,-0.018548049,0.10631785,-0.05291654,0.089245915,-0.008497569,-0.08201388,-0.020959562,0.10020701,0.13315484,0.31940103,0.03322031,0.018392561,-0.035792492,-0.08891122,0.1098221,0.21848792,0.4099279,0.24518897,0.37413016,0.38804153,0.3688644,-0.0052050045,0.18222669,0.1589395,0.14871812,0.17444275,0.25937083,0.07330466,0.3143429,0.28421223,0.44517764,0.030998446,-0.08107322,0.25895667,0.18590565,0.17854467,0.2312437,0.26258045,0.17989862,0.09778171,0.3513787,0.54193,0.062053114,-0.0698272,0.14652152,0.094389066,0.23649493,0.25315878,0.1701324,0.22295506,0.2481244,0.28158867,0.30381343,0.15458785,0.16959547,0.036745727,0.09229823,0.22668295,0.29981223,0.2270338,0.084833734,0.16586736,0.27705207,0.15430425,0.16548076,0.20122418,0.083351105,0.12619714,0.20659697,0.25383294,0.0574512,0.045873757,0.02137516,0.2542409,0.22180566,0.22294231,0.3172912,0.13857162,0.1905507,0.22164942,0.21126449,0.2723268,0.01972181,0.15077904,0.17608549,0.19944713,0.20875141,0.2405036,0.12799473,0.04713918,0.16748337,0.23498969,0.1518307,0.1923092,0.20380381,0.18301074,0.15329766,0.12427074,0.29296008,0.22134553,0.06599809,0.22586538,0.17700027,0.07528411,0.18139856,0.20546356,0.13394381,0.081121504,0.0397092,0.110260785,0.13066714,-0.0071096187,0.12656267,0.12185447,0.044106103,0.048210658,0.049120035,0.074752085,0.06738355,0.036422506,0.09102591,0.037608013,0.15842679,0.30816972,0.03548381,0.1497997,0.11868531,-0.0054050656,0.14108343,0.1993734,0.0082159685,-0.010961861,0.76794624,0.32360116,0.6860559,-0.19946837,0.41991332,-0.179061,1.08423,0.5295748,-1.259791,0.2592679,0.7748529,0.35130423,-0.8426239,-0.30617586,0.38951778,0.63752675,0.6477069,0.88784844,1.0020236,0.6587913,-0.64349335,0.2825368,-0.95248127,0.8108798,0.18126315,0.5620841,0.7483856,0.6990504,0.7478315,0.59257877,0.8284657,-0.3919593,-0.67949665,-0.2408556,0.03743681,0.49160877,0.5909115,0.75410366,0.6069359,0.75802475,0.68972474,0.76697063,0.7626509,-0.69522184,0.012594283,-0.23598121,0.58585453,0.7247622,0.7185768,0.6366771,0.6490173,0.5795409,0.7313314,0.67153245,-0.39738593,-0.042798586,0.44340608,0.604479,0.7988439,0.6497349,0.6005509,0.5464058,0.71489334,0.70660365,0.8667179,-0.030749178,0.10916855,0.7187192,0.793349,0.6297211,0.64680445,0.67500937,0.73357683,0.6937182,0.6586786,0.87963974,-0.6076724,0.09464368,0.37494993,0.9200373,0.5527679,0.73765725,0.7328931,0.62921655,0.6857996,0.7542769,0.9129108,1.0500443,0.4775018,-1.135253,-0.8256849,0.8802268,0.88216794,0.6540433,0.79006946,0.795356,0.78020376,0.92856246,0.5380099,0.27729392,-1.1418309,-1.6249691,-0.6984905,0.97356266,0.594969,0.7076749,0.8616123,0.87638444,0.61326677,0.23505314,0.7126903,0.27748427,1.2241284,0.09686884,-0.4209588,-0.2745444,-0.14795242,0.06806804,1.021938,0.22826113,0.79811406,-1.7006632,-0.02690304,-0.077757135,0.09930981,-0.111729056,0.068917885,0.16590181,0.21321817,0.28163186,0.2287765,0.23528002,0.0062091816,0.10433263,0.103995696,-0.03373223,0.12193958,0.18532524,0.171147,0.2610375,0.22272809,0.2507859,0.29936743,0.14481433,0.10527988,0.036626976,0.09552055,0.10766006,0.12245621,0.20033179,0.15865675,0.23584354,0.2109865,0.24643339,0.12930661,0.110396594,0.104552224,0.090263925,0.16304028,0.114957914,0.08596982,0.12937848,0.1904299,0.13574062,0.16565745,0.14962071,0.07185298,0.13353261,0.11493482,0.10848119,0.11609151,0.07910419,0.12650248,0.12552948,0.16014044,0.115826346,0.081892796,0.12482218,0.11304474,0.06104867,0.08391144,0.09741012,-0.016194101,0.14645842,0.104824096,0.11035194,0.08479803,0.029505864,0.12088549,0.12553473,0.118531965,0.13626052,0.11402095,0.08954135,0.14465141,0.097504556,0.08287992,0.05029645,-0.014585746,0.15791598,0.17005481,0.16330704,0.09200121,0.12270742,0.1049662,0.10438745,0.07566532,0.022428228,-0.035563238,-0.16601278,0.16531062,0.2922681,0.18751787,0.123291865,0.11713804,0.084050685,0.041795705,0.005173097,-0.12800284,-0.2142488,-0.12976196,0.22778942,0.25274616,0.25589985,0.11233325,0.104407914,0.056077432,0.025508104,-0.09251837,-0.20362559,-0.28089866,-0.2158227,0.03572476,0.22027591,0.12445696,0.13840649,0.074471876,0.028960565,0.017672222,-0.03598388,-0.10829879,-0.073268205,0.03144861,-0.05034496,0.09113565,-0.05105585,-0.054593783,-0.018145336,-0.029502206,-0.040302623,-0.0691,-0.0851251,-0.04568944,-0.006873247,-0.14707994,0.060836032,-0.1156273,-0.10830942,-0.05892527,-0.1314085,-0.097339414,-0.12359427,-0.16593038,-0.21770261,-0.13063379,-0.06165094,-0.040132064,-0.08028107,-0.02955041,-0.056722455,-0.081790365,-0.0794527,-0.15155669,-0.16396114,-0.08550853,-0.10473275,-0.06945555,-0.096374534,-0.08821082,-0.06634241,-0.10379261,-0.07205916,-0.03843724,-0.09309794,-0.10793324,-0.01168482,-0.051097885,-0.054653317,-0.07596297,-0.073384695,-0.059347272,-0.085629486,-0.048871238,-0.055056043,-0.04996434,-0.056442343,0.032006707,-0.026919838,-0.0889478,-0.07500881,-0.097019374,-0.080460265,-0.05494625,-0.022745738,-0.040838763,-0.07456938,0.04013613,-0.019407777,-0.04417244,-0.06763319,-0.06392385,-0.07378924,-0.051520243,-0.07921614,-0.045337778,-0.016074667,-0.029819205,0.080313705,-0.01105851,-0.017555,-0.11068368,-0.08512321,-0.14412712,-0.06497377,-0.060161866,-0.036605973,0.012999108,0.0144700045,0.025635263,0.064781696,0.09663418,-0.062122077,-0.055848915,-0.1506149,-0.09468752,-0.055045612,-0.011390447,0.054299626,0.05896158,0.05934453,0.17891218,0.23320086,-0.120277986,-0.16894418,-0.10531385,-0.039373465,-0.103206806,0.023488894,0.016240021,0.085037835,0.12753995,0.22300556,0.2250265,0.027817,-0.06715355,-0.07294718,-0.09570364,-0.10173067,-0.02452673,0.036497116,0.029487394,0.25563827,0.13255152,0.019233938,-1.2366613,-1.4650844,1.6971948,-0.66475785,-0.3756738,-1.0783606,-1.016289,-1.0073253,-1.2344242,-1.4371684,-1.2796911,-1.4923991,-1.8148227,-0.80712956,-0.44235918,-1.0484926,-1.0589131,-0.96862984,-0.8458657,-0.7285501,-0.8151024,-1.4598627,-0.22815906,-0.60674137,-0.46987578,-0.6062962,-0.6167588,-0.5488324,-0.74816096,-0.6791247,-0.76549864,-0.8096496,-0.71409804,-0.37561378,-0.6494759,-0.44020152,-0.54804116,-0.5908642,-0.33166683,-0.4707993,-0.3107631,-0.42730576,-0.34488606,0.08860638,-0.45015168,-0.46236935,-0.6292682,-0.50598896,-0.5573076,-0.55233467,-0.4628653,-0.38226032,-0.5163802,-0.37493578,0.33960307,0.045143496,-0.59195346,-0.6344993,-0.5517415,-0.60288346,-0.51404476,-0.39422116,-0.48532027,-0.21898451,-0.15890428,0.63650507,-1.1493986,-0.65567225,-0.5588775,-0.46853063,-0.41619465,-0.49653316,-0.35087377,-0.20113166,0.013176744,0.2623932,1.285705,-0.6743275,-0.69914997,-0.5497869,-0.52954096,-0.49741498,-0.36818928,-0.18131442,-0.07831891,0.4036674,0.82092786,1.554186,-0.8887997,-0.7342111,-0.41799998,-0.32664576,-0.26335657,-0.30259,-0.2012665,0.34344706,0.7237054,1.6017976,2.1428998,-1.465059,-0.8455326,-0.565848,-0.37413487,-0.26209715,-0.030139547,0.670596,0.93017066,1.9728142,2.0445325,-1.4224353,-1.2707449,-1.3953477,-0.7265902,-0.5051635,0.28951207,0.5964687,1.0343689,1.6250472,1.7378627,-1.408101,-1.2883779,-2.2620869,-0.019892761,-0.13391076,-0.17378457,-0.1434859,-0.057745773,-0.016727403,0.0069772773,0.012288803,0.031675942,0.23062153,0.05111029,-0.05986098,-0.22024035,-0.20045203,-0.037579775,-0.04268849,-0.012743415,-0.020819679,-0.002746139,0.039323192,0.07188471,0.026740411,0.040466648,-0.054167725,-0.058457177,-0.011098961,0.0048231785,0.0171378,-0.002537607,0.065995425,0.06536179,0.111575045,0.12517527,0.10046062,0.08773092,0.06184492,0.039653093,0.03244325,0.0062411786,0.0552306,0.096352495,0.12525588,0.14361,0.12340632,0.13196681,0.15348934,0.09472951,0.08080136,0.04560853,0.03105441,0.10941989,0.112147145,0.1377634,0.14238143,0.14320982,0.11666704,0.10339445,0.111043885,0.056959048,0.037448686,-0.030719267,0.069483645,0.091686584,0.08559766,0.11866782,0.119699754,0.102767944,0.12573278,0.094208844,0.050625827,0.07754543,0.02778899,0.10810049,0.081647374,0.106522046,0.13472778,0.0698988,0.08469622,-0.019281736,-0.00064702984,-0.0077383015,0.022023363,0.015225183,0.062092584,0.11206376,0.1142604,0.066588424,0.12037379,0.004758609,-0.019171104,-0.033445355,-0.037595384,-0.007169777,0.01627316,-0.0050898157,0.10017049,0.10728817,0.16416931,0.058636304,-0.0039165253,-0.17990758,-0.11967654,-0.041085336,-0.01235436,0.0030919716,0.061226573,0.020439552,0.076300845,0.16292706,0.1347871,-0.0023501473,-0.097521365,-0.059372913,-0.061233252,0.028082136,0.0440364,0.08313601,0.04922421,0.11180665,0.14000556,-0.018391497,-0.014317824,0.08583152,0.034920838,-0.016001176,0.028122824,-0.049127404,-0.08935847,-0.14868475,-0.13301232,-0.15024117,0.007450087,-0.030469941,-0.028967725,-0.018552212,-0.06422928,-0.031395905,-0.021344054,-0.060684074,-0.102974266,-0.1611944,-0.16622645,0.017205099,-0.0046277037,-0.010747377,-0.029674593,-0.019264521,-0.018784905,-0.034940723,-0.019115143,-0.11548434,-0.12102327,-0.028110968,0.05503332,-0.06378101,-0.02351775,-0.06614976,-0.018467896,-0.025017122,0.00020894589,-0.014686998,-0.042825364,-0.030592494,-0.0022978915,-0.020659182,-0.016656682,-0.049450103,-0.07205618,-0.042185906,-0.044756763,-0.05527658,-0.04613725,-0.052375186,-0.041420598,-0.030892203,-0.06376786,-0.030745184,-0.01865811,-0.06352013,-0.020925622,-0.009532093,0.033900023,-0.047614384,-0.051252756,-0.06200894,-0.0635521,-0.12985565,-0.032528426,-0.06219061,-0.034451105,-0.0020188757,-0.031953733,-0.043235272,-0.041381955,-0.05554922,-0.0795378,-0.041543815,-0.052219063,-0.074903496,-0.029187884,-0.05100252,-0.007861335,-0.0036745344,-0.026374796,-0.03486425,-0.09425296,-0.07573915,-0.08192609,-0.08473732,-0.034725014,-0.00038872744,-0.038265325,-0.032475583,-0.016739063,-0.039418217,-0.07589103,-0.069863655,-0.10270168,-0.08659742,-0.046929765,-0.02320112,0.03789501,-0.013870236,-0.007672976,-0.039266255,-0.034949634,-0.009241446,-0.08508786,-0.11847527,-0.12265071,0.053161602,-0.015087522,0.045494832,0.16832042,0.008645306,-0.037448876,-0.052914478,-0.08336181,-0.10249704,-0.185779,-0.17950736,-0.04242153,0.7991918,0.5350785,0.26145327,0.17953973,0.22536774,-0.37195864,-0.33536977,-0.44318476,-1.9707344,0.5982441,0.8206691,0.53507864,-0.006445048,0.106866546,0.11590233,0.21768752,0.08950803,0.050303373,-0.13322747,-0.28009838,1.6782866,0.5650577,-0.1258148,-0.15393046,0.12975542,0.8501976,1.1020489,1.1404654,1.0549095,1.1812096,0.87290806,1.4593501,-1.5762945,-1.7081363,0.028952511,1.3442941,1.3546689,1.1366193,1.0303086,0.9859202,0.9000289,0.6026255,1.295107,-2.3447344,-1.442164,0.43293238,0.95725787,1.140038,0.99784935,0.9837565,0.91310847,1.042056,0.9148419,1.2204367,-2.0213866,-1.5010273,0.8096086,1.0698135,1.038577,1.0087974,1.079983,1.005944,1.0476657,0.99140304,1.2124401,-1.1086587,-1.7003887,0.78390235,0.5664153,