-0.02868507,0.12180192,0.005473291,0.0017633748,0.014207631,-0.086948946,-0.12063444,-0.13888398,-0.15765826,-0.09530768,-0.044635776,-0.09370945,-0.14518546,0.04006163,-0.03149053,-0.08351882,-0.11927633,-0.15149772,-0.1647033,-0.22953595,-0.19527705,-0.15007535,-0.09088807,-0.18498372,-0.07911187,-0.08214134,-0.099242225,-0.11637209,-0.11363216,-0.18640962,-0.21426047,-0.20895521,-0.18970205,-0.078968,-0.0935177,-0.09543188,-0.06142381,-0.08523438,-0.084818475,-0.12517005,-0.14169087,-0.15983483,-0.17173925,-0.17628865,-0.0870783,-0.08577263,-0.0725256,-0.103210464,-0.047200043,-0.12178544,-0.12908585,-0.12672251,-0.16764662,-0.14864495,-0.11597523,-0.077471204,-0.05958743,-0.08998413,-0.073593356,-0.013310427,-0.0046859733,-0.09032355,-0.14551845,-0.12469364,-0.12714368,-0.13180691,-0.04464462,-0.04016743,-0.05861754,-0.0901364,-0.042326685,-0.033480667,-0.101002015,-0.102331676,-0.11714031,-0.15593928,-0.121418305,-0.019904578,-0.07309673,-0.04628242,-0.056624047,-0.08050149,-0.14981416,-0.077061825,-0.091981225,-0.09954928,-0.143484,-0.12141976,-0.052850913,0.010630082,-0.081974216,-0.06724013,-0.056375902,-0.055134337,-0.02015677,-0.081605114,-0.091557875,-0.111926004,-0.16960196,-0.05995144,-0.08030493,-0.06750311,-0.08307345,-0.051668223,-0.030462751,0.03168147,0.00071828207,-0.04538852,-0.06294992,-0.017081015,0.030514324,0.02721838,-0.04422447,-0.04125782,-0.032896373,0.008656545,0.026293173,-0.0023336543,-0.06843162,-0.07750784,0.025327403,-0.051703595,-0.04253135,-0.01704245,0.011811829,-0.03568181,0.05764916,0.07336108,0.12050378,0.12253804,0.13636588,-0.025899032,-0.019226989,0.09108306,-0.0051969616,0.05506408,0.07736555,0.039694622,0.08708101,0.11461684,0.10719849,0.14347993,0.16876283,0.0066245664,0.041540254,0.046662435,0.053660806,0.03452286,0.050481025,0.03001477,0.09097103,0.057299063,0.09276071,0.13852838,0.055959247,0.029245412,0.038948722,0.058370262,0.057215594,0.03970464,0.054034855,0.07705317,0.021330265,0.0774673,0.06835921,0.013708093,-0.010793273,0.07564527,0.031221775,0.084842525,0.08428155,0.061700385,0.04626378,0.06623696,0.057061482,0.052631184,0.05167923,0.020093761,0.058995295,0.03860222,0.07257992,0.04004243,0.016340243,0.04637136,0.03226817,0.03639596,0.051155806,-0.014816402,-0.000274752,0.026085084,0.035949044,0.07300966,0.03533541,0.044598978,0.06647314,0.058511283,0.026592707,0.00016972946,-0.00061064714,-0.03958864,0.019396367,0.03183394,0.032559395,0.054603696,0.022365287,0.062144883,0.043189157,0.036344323,0.05900801,0.04656352,-0.024335295,0.04985799,0.045634806,0.023085212,0.047535576,0.021782547,0.07732535,-0.018203024,0.084647804,0.07782128,-0.03139591,0.011963269,0.0704401,0.022619165,0.012971133,0.019612184,0.044789903,0.124396026,0.047152873,0.044798672,0.031338193,-0.0072556348,-0.008010863,0.060671076,0.041380238,0.015724324,0.058952753,0.04435755,0.008032781,0.026384281,0.06484667,0.018865667,-0.35847354,1.3071014,-0.79169726,-0.3600889,0.031576913,-0.04751722,0.18593249,0.5999375,0.5443291,1.2945839,-0.4053093,1.3184853,0.08762732,-0.50666827,0.039897487,0.039103,0.20560883,0.29113397,0.35988954,0.62883806,0.691185,1.2455394,0.44177565,-0.2749959,-0.08576234,0.019093685,0.2406446,0.23630941,0.37405708,0.36713383,0.5032264,0.6661974,0.44006485,-0.019110972,-0.06381176,0.12691143,0.22956677,0.32488382,0.27926025,0.42770493,0.44755217,0.49531266,0.561958,0.5318432,0.054519266,0.13847317,0.20825367,0.31293127,0.22836834,0.24781314,0.36449134,0.43245316,0.4821914,0.4179025,0.46689516,0.080849335,0.11237608,0.17388554,0.31946412,0.392689,0.38558948,0.41156968,0.42052078,0.459808,0.46771362,0.41607857,0.088438466,0.17821099,0.1741361,0.39448613,0.43545234,0.44839883,0.28096005,0.4060143,0.41079652,0.37355658,0.42246774,-0.051205996,0.10966495,0.23616236,0.24240573,0.34734607,0.31361237,0.35551617,0.40893883,0.29463303,0.30378383,0.33955732,-0.7343014,0.13804883,0.25222853,0.23347637,0.3187671,0.31963632,0.3035451,0.3956847,0.26477972,0.3849052,-0.3316245,1.3866653,-0.19264613,0.3634423,0.20341109,0.39982808,0.21874392,0.18828604,0.11119571,0.28572053,0.04247834,1.3310922,-0.3893294,1.385108,0.4018756,0.36367965,-0.12605472,-0.12635888,-1.0759388,-0.83126765,-0.57808644,1.2509123,-0.344729,1.7891868,0.049521133,-0.33656502,-0.07010277,-0.08701689,-0.059582327,-0.05835788,-0.05100431,-0.02718718,-0.05116372,0.05093268,-0.0043434687,-0.04685355,-0.07815924,-0.14490145,-0.07669997,-0.075984955,-0.07819806,-0.052574486,-0.07452073,-0.046598643,-0.049674146,-0.016773688,-0.068031624,-0.08712632,-0.08976655,-0.096080415,-0.10203466,-0.07261129,-0.06479723,-0.059962586,-0.046965167,-0.068840876,-0.04481711,-0.038433347,-0.04927537,-0.060091056,-0.041196253,-0.05122397,-0.060131345,-0.055004295,-0.039442424,-0.031387992,-0.04801868,-0.036995873,-0.008438599,-0.030930992,-0.039073694,-0.04731827,-0.032931823,-0.029931048,-0.028840274,-0.035726335,-0.044616785,-0.05319077,-0.030407177,0.00024872934,-0.0111086,-0.03712991,-0.022855416,-0.0052474095,0.012550108,-0.02712388,-0.035448223,-0.041236307,-0.021447144,-0.025953975,0.016124163,0.019909345,0.006538546,-0.011812627,-0.0067000655,0.0035770033,-0.005830497,-0.019873265,-0.014564766,-0.022745041,-0.0062046256,0.007100744,-0.016846668,0.0022147968,-0.02602218,-0.021729605,-0.04012515,-0.013011334,-0.010294012,0.002446359,-6.193924e-05,-0.026258921,0.0019951581,0.004632626,0.00805538,-0.0068452703,-0.015663695,-0.024899911,-0.003709513,-0.012160881,-0.009113245,-0.0069805826,-0.007575726,0.042885303,-0.016127452,0.0047126953,0.0036209319,0.000852101,-0.013050162,-0.012858923,-0.01811077,-0.01503486,-0.024735138,-0.023629712,-0.024279518,-0.7167455,-0.015905362,-0.021467883,-0.023337316,-0.012278464,-0.002565531,-0.014570467,-0.02045911,0.0022208816,0.04761315,0.004353172,0.044048905,0.08435822,0.0323546,0.034326345,0.031388275,0.030846605,0.04332286,0.05253523,0.0836951,0.0067879274,0.04845322,0.095979095,0.045355476,0.045671746,0.038211655,0.028938306,0.03658163,0.03723418,0.028208252,0.019270377,0.046949722,0.07993285,0.08269076,0.03879051,0.0545503,0.032476574,0.038616315,0.038099248,0.01778732,0.033935662,0.040165477,0.012811841,0.05698326,0.062315274,0.03597831,0.018405896,0.05349836,0.054534927,0.03195398,0.037375268,0.032043356,0.045801077,0.0018964752,0.079240434,0.056906935,0.006445183,0.019362312,0.045753904,0.046582952,0.064661585,0.00040027947,0.022592952,0.02610074,0.04060271,0.035877347,0.03499282,0.021821404,0.027267931,0.04841365,0.0039540953,0.022640327,0.01798975,0.05961932,0.024559747,-0.018340476,0.021714758,0.034144357,0.020609945,0.037094075,0.05373017,0.026508845,0.049773887,0.047075134,0.045056503,0.03332766,0.007623154,0.027425382,0.020602932,0.048274383,0.028672893,0.012961618,0.01892108,0.021136532,0.009028411,0.03583688,0.028690623,0.018023977,0.053731386,0.003814271,0.039689112,0.03147486,0.027207067,0.009229446,0.04137268,0.0060558016,0.031070992,0.037558753,-0.0041236775,-0.0046276,0.019415103,0.040594462,0.013631067,0.0012763522,0.011515154,0.005123449,-0.006300531,0.034035772,0.017470775,-0.0038646255,-0.05033478,-0.03630111,0.020935584,0.01778862,0.0067239217,0.056509927,0.019684045,0.04033695,0.011674629,-0.015850075,-0.029705394,1.0069767,1.0488311,1.0093538,0.71224105,0.75296736,0.71687984,0.7274145,0.6860668,0.3636004,1.1198944,0.84022015,1.1642841,1.0188853,0.7274699,0.77751106,0.7916481,0.8239809,0.8086801,0.70240086,0.6602011,0.5758145,1.0865718,0.5389516,0.6787365,0.79554546,0.80330485,0.8892688,0.8594254,0.8911644,0.8961671,0.72960836,0.5884602,0.43281576,0.5155667,0.55012834,0.75155467,0.8539146,0.9225981,0.86408335,0.9061537,0.8449994,0.67175204,0.52564055,0.4177126,0.3969466,0.53120786,0.6991429,0.8778077,0.85891306,0.9239683,0.838442,0.82631326,0.7991705,0.54040897,0.40102467,0.31030706,0.3837256,0.83727604,0.9139028,0.9569003,0.8841249,0.9430002,0.93298113,0.7841568,0.45043057,0.24357158,0.22553411,0.29715532,0.80850655,0.8427868,0.9348821,0.95281595,0.8604038,0.8858944,0.7835191,0.34181193,0.2545296,0.16348135,-0.045781527,0.8094065,0.799271,0.8786666,0.9237452,0.85182923,0.8787942,0.74956226,0.30267888,0.19655384,-0.23087378,-0.065487504,0.7813493,0.81302315,0.80538815,0.8451328,0.8025961,0.7841077,0.71404576,0.13633907,0.27085558,1.118505,-0.19145754,0.049236335,0.13659254,0.28329614,0.30304253,0.1064106,0.13039763,0.24298255,0.6227819,1.0644226,1.1345997,1.0806335,0.8917453,0.15720144,-0.10906585,0.25004858,0.18700442,0.15539707,-0.08389131,1.064561,0.85955864,-0.74501383,0.0111189615,-0.27453133,-0.043134134,-0.0852076,-0.08383215,-0.059344206,-0.031382155,-0.02038327,-0.03930569,0.056740973,0.032722257,0.025797574,-0.015495145,-0.12270207,-0.08031624,-0.09609566,-0.06515471,-0.03985786,-0.054205265,-0.022737285,-0.0010075512,0.10507864,0.01692969,-0.03642717,-0.082575426,-0.08613433,-0.061679818,-0.057581764,-0.0410711,-0.049568653,-0.020748867,-0.020311857,0.017277872,-0.022367321,-0.051414404,-0.024278732,-0.03366612,-0.055180017,-0.056730274,-0.04000918,-0.036649905,-0.06776736,-0.015661111,-0.011042526,-0.030792274,-0.042995967,-0.054252323,-0.0116335945,-0.05176248,-0.015212047,-0.045113508,-0.033689503,-0.05701056,-0.091502756,-0.053335767,-0.017396426,-0.047799863,-0.07198602,-0.03215585,-0.09713485,0.009550497,-0.04357286,-0.03280799,-0.06459707,-0.0286498,-0.0010938836,-0.040446285,-0.066685654,-0.05984689,-0.04149227,-0.07171527,-0.024677077,-0.06845862,-0.05882925,-0.08147663,-0.07092735,-0.03871639,-0.05033582,-0.08692362,-0.066250965,-0.07655992,-0.07073718,-0.090492204,-0.079180285,-0.079130836,-0.12925118,-0.09115312,-0.051279716,-0.073498,-0.13868938,-0.14579067,-0.13072252,-0.14358518,-0.13586214,-0.11563085,-0.13403463,-0.15251748,-0.08356131,-0.076945275,-0.09674649,-0.114271544,-0.14238106,-0.17688626,-0.14271697,-0.1608548,-0.14778107,-0.16767693,-0.16737081,-0.0977127,-0.014424394,0.003898361,-0.05949351,-0.14343187,-0.12963194,-0.13156375,-0.13639136,-0.12895222,-0.08999478,-0.08612934,-0.05433417,-0.042607874,-0.034226533,0.044617504,0.02974847,0.11588495,0.10279898,0.12828793,0.083736986,0.045223862,-0.010659995,0.027841337,0.013763721,-0.027734425,0.026792698,0.07511475,0.03670081,0.0729994,0.07885856,0.03892534,0.06726689,0.033206154,0.050529055,-0.0060282755,0.0649025,0.08464811,0.08359472,0.033054985,0.06157783,0.0563487,0.08742586,0.056542546,0.08669363,0.058746472,0.07800953,0.053482193,0.11046707,0.05962819,0.085893236,0.08221975,0.07409398,0.05413261,0.03469087,0.0729727,0.08005644,-0.008835253,0.054764304,0.07766084,0.037567023,0.07016327,0.064738534,0.08192322,0.08817593,0.08549613,0.06214384,0.08548746,0.047724124,0.08386274,0.07481237,0.0816601,0.08384074,0.096837126,0.017946677,0.089512005,0.0740407,0.13148114,0.074583404,0.065929174,0.055634174,0.06366863,0.11079007,0.11249416,0.098202705,0.11936537,0.12072828,0.07296214,0.10355695,0.11360648,0.07242637,0.085304126,0.09923402,0.103228144,0.09336258,0.10408767,0.096973784,0.094242804,0.081355296,0.117195286,0.06572636,0.12387449,0.13736089,0.111370236,0.09148088,0.09856783,0.10050418,0.110407196,0.09850067,0.0681389,0.06332253,0.09598956,0.11885384,0.09155383,0.10534848,0.10837823,0.10305978,0.10064183,0.11556296,0.0866773,0.07897507,0.14345537,0.14734936,0.14802994,-0.049053796,0.0882821,0.11869484,0.08607532,0.11201984,0.1261347,0.07908032,0.09236194,0.10150232,0.14848682,-0.03946592,1.3959212,1.6031051,0.9662933,0.67306644,0.760101,0.8364508,0.79439735,0.63802415,0.13096054,1.6035982,1.211077,1.5925874,0.92849845,0.3085001,0.69578487,0.49184766,0.8741185,0.59584606,0.7295491,-0.12160012,0.2822526,1.6780756,0.23456001,0.35828376,0.58228725,0.30270252,0.12016323,0.47001338,0.5055,0.55783546,0.690586,0.30145103,0.021383235,0.39691412,0.6398425,0.5228092,0.6494787,0.20170361,0.028317388,0.7467188,0.6835637,0.70712227,0.5950475,0.73466873,0.63217956,0.5474706,0.42339408,0.106152214,0.5914519,0.57764316,0.40865284,0.42414728,0.7559368,0.79554725,0.7604206,0.7568973,0.5988497,0.41721278,0.28609443,-0.068549335,0.4263499,0.55533993,0.5230099,0.61711735,0.6679858,0.7855354,0.8212473,0.80761206,0.6347581,0.3538336,0.14722893,0.08106816,0.7398104,0.2713511,0.6460286,1.0308813,0.992374,0.8657273,0.8610332,0.9017987,0.770906,0.8866197,0.15738218,0.54058164,0.839519,0.9947575,1.0107101,1.017258,0.87810695,1.1443892,0.8368921,0.9074531,0.8032965,0.6020509,0.8368729,0.8138146,1.0518955,1.3472,1.2330792,1.7701119,1.4372134,1.2756791,1.4506861,1.5259976,1.4569424,1.4192026,1.4016287,1.2835795,1.1593599,1.7763153,1.6773529,1.7054952,1.2968005,1.4210974,1.4736732,1.3377815,1.3051063,1.2727386,1.3994753,1.6665012,1.2580692,-1.2984613,-0.04530752,-0.07866114,-0.14804664,-0.12125105,-0.10071726,-0.11450495,-0.10781613,-0.099353865,-0.12829205,-0.1423777,-0.015664306,-0.074542545,-0.118461594,-0.11886002,-0.06799236,-0.13785562,-0.035634544,-0.03940072,-0.111862704,-0.120850764,-0.18187658,-0.05268425,-0.07676688,-0.14398158,-0.10685753,-0.14893569,-0.14204612,-0.105495825,-0.11667023,-0.1282944,-0.15009324,-0.13510332,-0.14884384,-0.05820558,-0.04122654,-0.06673896,-0.040723678,-0.0691996,-0.07734806,-0.12697875,-0.13116936,-0.0818936,-0.13745236,-0.08680456,0.019591998,-0.011558345,-0.051858496,-0.047566086,-0.0769175,-0.056374446,-0.060322277,-0.12696396,-0.12600678,-0.117350504,-0.057245143,0.010570675,0.022894504,-0.007966164,-0.0020718125,-0.027863353,-0.035602875,-0.014851159,-0.11061921,-0.11987173,-0.09515061,-0.077761516,0.084663376,0.055236164,0.049117163,-0.027426574,-0.047944468,-0.04051147,-0.06958157,-0.060767397,-0.08533507,-0.13822553,-0.028623847,0.07104656,0.062326074,0.036612775,-0.010284971,0.008629104,-0.009922671,-0.0205665,-0.10488721,-0.1500408,-0.17889147,-0.14661829,0.027918924,0.07577518,0.05538641,0.0602814,0.054664545,-0.001343423,0.0026408434,-0.042884503,-0.03636952,-0.103698835,-0.07581356,0.036728393,0.028230049,0.053307496,0.13522097,0.103260525,0.07246787,0.020864746,-0.012300108,-0.06341076,-0.1389614,-0.13987313,0.008791508,-0.16320446,0.033554837,0.07825616,0.005976612,0.013339232,-0.009287837,-0.057127777,-0.09499782,-0.06293194,0.03423936,-0.021497216,0.028706959,0.044488367,-0.009024334,-0.045080684,-0.060868386,-0.01977371,-0.038755454,0.067120686,0.13540521,-0.050590806,-0.036944713,0.0011935412,0.0031494484,0.017997278,-0.033120167,-0.06972786,0.015977584,0.04404932,0.040392876,0.08571336,0.09189761,0.0059314985,-0.018325374,0.017559387,0.046573233,-0.02075956,-0.021754347,-0.0022696347,0.015905835,0.0067901257,0.021157566,0.026268631,-0.013225424,-0.0021847575,0.008099351,0.007222565,-0.015235874,-0.034066655,-0.005519784,0.03657178,0.020512437,-0.014623861,-0.016132373,-0.09454492,0.0032804378,0.0037089349,-0.031682573,0.0014625462,-0.02555547,-0.008451275,-0.012507009,-0.017190296,0.016333606,-0.063381374,0.021997042,0.008144388,-0.00018815513,-0.019812057,-0.04522628,0.0017298508,-0.061643425,-0.026098156,-0.041484702,-0.0022800001,-0.073296085,-0.004582096,-0.016093565,-0.0532915,-0.02882868,-0.021829091,-0.021646269,-0.048416443,-0.013907888,-0.012451076,-0.013270438,-0.035340738,-0.028593948,-0.06935657,-0.05209903,-0.076073416,-0.07191881,0.0030483345,-0.05623578,0.0016502987,-0.034277793,-0.043805595,-0.040766593,-0.059996545,-0.18108404,-0.043224253,-0.10018826,0.0021699676,-0.10549291,0.00621021,-0.005241014,-0.033597715,0.04874781,0.017311702,-0.12612881,-0.10530228,-0.10944863,-0.0142644625,-0.0843275,0.051326305,-0.03342559,0.07955857,-0.011340237,0.03900495,-0.0047472976,0.0234742,-0.19588949,-0.09382988,-0.1307173,-0.10871344,-0.07460939,-0.011292334,-0.038304593,0.065952316,0.047463592,-0.026864283,0.09859021,-0.7651535,-1.2457821,-1.2456278,-1.1282285,-1.2449338,-1.0583991,-1.177802,-1.2390968,-0.71351784,0.009014376,-0.6840862,-1.0874455,-1.1302787,-1.1340803,-1.0181935,-0.9713478,-1.0108553,-1.2024494,-1.0765547,-0.68903947,-0.77177495,-1.4484507,-1.291856,-0.7675498,-1.0526493,-0.8715754,-1.132113,-1.0137154,-1.0923437,-0.8591683,-1.1128508,-1.3150334,-1.1515977,-1.175117,-0.7814258,-0.9033328,-0.6793171,-1.1171074,-1.1031315,-0.79599875,-0.78193235,-0.86435634,-1.2138995,-0.15655363,-0.28429738,-0.37955308,-0.9766842,-0.8342614,-0.87319356,-0.9614985,-0.65430796,-0.6198318,-1.0638711,-1.253481,-0.028612968,-0.3008509,-0.5229612,-1.1582447,-1.1670755,-0.9238953,-0.78010595,-0.70773286,-0.77246636,-0.6802454,-1.1642836,-0.10852568,-0.31251478,-0.5629604,-0.88527656,-0.9605535,-1.1497765,-1.1653581,-1.0621667,-0.89281785,-0.80651206,-1.1241909,-0.27696967,-0.34063,-0.55736715,-0.8986954,-0.9450433,-1.0632423,-0.9622738,-0.9757374,-1.0645169,-0.7877939,-1.304553,-0.24154212,-0.24608766,-0.40615588,-0.55725175,-0.5623639,-0.43146876,-0.502236,-0.38724113,-1.007767,-1.1443211,-1.2164178,-0.7819442,-0.03996187,-0.14135616,-0.35022902,-0.22892858,-0.35267094,-0.25970247,-0.29491195,-0.54490364,-1.2070166,-0.7758856,0.057770833,-0.77433926,0.020905912,-0.106913604,-0.0925785,-0.19141226,-1.4473151,-1.2362466,-1.4814366,-0.71001285,0.006084463,1.3947918,0.037996296,0.22190405,0.014576321,0.02828998,-0.0069243824,-0.04700384,-0.09289711,-0.1261261,-0.09999032,-0.21223266,0.013167374,0.049073916,-0.024087718,0.043320574,-0.0031535726,-0.04229571,-0.05742963,-0.09952377,-0.103227556,-0.1891437,-0.15499178,-0.15969074,0.009608126,0.023558585,0.033511814,0.0008558888,-0.035936702,-0.03929644,-0.07940343,-0.11737264,-0.16426688,-0.15938936,-0.123592824,-0.0071445964,0.011114258,-0.034853447,-0.022099504,-0.033017028,-0.030880177,-0.06906025,-0.10114549,-0.13079382,-0.16416404,-0.14357561,-0.027827946,-0.003770047,0.001330573,-0.020649575,-0.0050169444,-0.076221935,-0.06564488,-0.078167,-0.1116905,-0.1312889,-0.11489557,-0.026154017,-0.010379332,-0.019373845,-0.019733012,-0.023171851,0.013211574,-0.040727425,-0.09047962,-0.09403448,-0.10919608,-0.11428721,-0.005351406,-0.004621427,-0.021740304,-0.019554054,-0.016397929,-0.05081379,-0.058961418,-0.08350036,-0.114346966,-0.14477392,-0.1118994,-0.019720834,-0.0035608232,-0.02010932,-0.013432408,-0.024321996,-0.054043986,-0.08281603,-0.09112125,-0.09605313,-0.1449113,-0.121140346,-0.00013381109,0.008236827,-0.018183831,-0.021247663,-0.02286712,-0.049961437,-0.02699608,-0.08366434,-0.07994101,-0.13531804,-0.14105864,0.026092552,-0.0063136923,-0.018955389,-0.04096658,-0.07010217,-0.05518178,-0.025837218,-0.06126602,-0.0683157,-0.09907301,-0.045615856,0.043032054,0.3196599,0.0005252912,0.0048932396,-0.019523898,-0.0092924945,-0.0045859814,-0.01751916,-0.05110793,-0.043474216,0.010838433,-0.035194755,0.03687076,0.010458041,0.025090361,0.008174125,0.047052704,0.06350545,0.091879226,0.11382636,0.14546542,-0.020517707,0.040696714,0.05042948,0.011521504,0.074886344,0.05100548,0.045867674,0.06435253,0.10926612,0.12314386,0.1371647,0.12678964,0.030526435,0.053588126,0.048347987,0.040551305,0.038448602,0.053056464,0.040809765,0.0879966,0.050652467,0.111029126,0.14087945,0.028583914,0.030718058,0.012916935,0.07427166,0.045152243,0.036945038,0.07057482,0.06129687,0.070166856,0.06196163,0.111033,-0.0029202283,0.027189989,0.07993978,0.04467481,0.05116859,0.037833802,0.03467675,0.065604575,0.10841491,0.08353427,0.0720034,0.0369748,-0.002200663,0.038911797,0.035025593,0.020170417,-0.01599965,0.014470591,0.06967488,0.037534703,0.06376851,0.12494491,0.03439767,-0.0019472986,0.035663374,0.021555958,0.033649724,0.036233254,0.039634783,0.051284976,0.05344196,0.048814293,0.060330696,0.059649218,0.0138715785,0.006002048,0.050096363,0.045930494,0.066510804,0.06676603,0.085704364,0.060566735,0.074537076,0.09263591,-0.001859937,0.0036607995,0.03050487,0.059264082,0.050488457,0.052661445,0.03983446,0.08702658,0.0722925,0.12971425,0.08907095,0.028784066,0.005019525,0.013767846,0.032715853,0.052482888,0.039938357,0.070252694,0.124364875,0.04444468,0.12591836,0.07696754,-0.04490949,-0.019279255,0.03645213,0.043281633,0.05359959,0.09471873,0.025338814,0.04162938,0.096599415,0.108368605,-0.016146485,1.5320954,1.7859342,-0.35965386,0.31552643,0.4872562,0.64354867,0.82429916,0.9324787,1.2388556,1.7643646,1.3359512,1.7238129,-0.43252128,-0.3227794,0.40461183,0.666681,0.7202558,0.8983681,1.0136584,1.2328988,1.4689318,1.7253548,-0.06641857,0.16041507,0.42299366,0.5746392,0.7599247,0.7764896,0.9269092,1.0048846,1.1443318,1.3239897,1.2273471,0.08990519,0.2754685,0.5774592,0.72816145,0.84250224,0.8398755,0.88197035,1.0074877,1.2463721,1.3110925,1.2540343,-0.046013013,-0.037595194,0.51662564,0.7619571,0.83982056,0.7300474,0.93149114,1.0569954,1.0767673,1.2286977,1.2470365,0.22485426,0.42218143,0.59735626,0.79050153,0.7309162,0.79245955,0.7735522,0.92433196,1.0849253,1.3359394,1.2404443,0.28774834,0.06666427,0.63351464,0.84225416,0.8664883,0.8501965,0.8216696,0.93236446,1.0566654,1.2412838,1.2173208,-0.1989831,0.31471345,0.6514243,0.73222905,0.669344,0.77840096,0.88490045,0.9478676,0.98969835,1.2521896,1.2159005,-0.6268927,0.026884781,0.6251481,0.5268077,0.83591914,0.76474845,0.9187975,1.038095,0.9545484,1.0940306,1.1971474,1.7672863,-0.16643418,-0.088272385,0.477554,0.49975783,0.6779269,0.7572318,0.8254719,1.1817025,1.1173941,1.7441714,1.7950164,1.8549061,0.08249497,0.44242966,0.41466606,0.53386664,0.36431572,0.6173435,0.68182373,1.745271,1.379665,-1.3644607,-0.013514884,-0.12650117,-0.02618604,-0.0045571313,-0.0028398866,-0.025200851,0.012422031,-0.017262548,-0.04696785,-0.059585206,-0.02196893,-0.14855076,-0.0014762718,0.081402,0.07293891,0.044434007,0.04800641,0.056467883,0.04941772,0.09074349,-0.011598179,-0.044815376,-0.08696554,0.16553482,0.15356982,0.06823203,0.0047008134,0.0076954328,0.024899492,0.009935166,0.079338685,0.024100317,-0.058425628,-0.056350134,0.043095842,0.001931574,-0.03233343,-0.0020665585,-0.025932692,-0.01614857,-0.019347955,0.0052535255,0.06337691,0.031013224,-0.079085395,0.006056048,-0.0024110507,-0.028962864,-0.07737995,-0.042233247,-0.06084319,-0.08424866,0.026860386,0.039455663,0.050191294,-0.059291925,-0.037194695,-0.015485123,-0.064255394,-0.11277097,0.005463414,-0.04152839,-0.037730034,0.008950759,0.048118796,0.06699705,-0.0481248,-0.046519633,-0.021488545,-0.11821023,-0.0637455,-0.062263835,-0.03440208,-0.00034167542,0.024112472,0.044597577,0.02944952,-0.15987216,-0.074842244,-0.068288945,-0.12838027,-0.085264616,-0.064460084,-0.008564893,-0.046820544,0.023877986,0.04101511,-0.055176638,-0.13302524,-0.15167168,-0.12627688,-0.1252453,-0.046190392,-0.05244205,-0.035286177,-0.023156269,-0.0022764546,-0.12810041,-0.1442079,-0.18285996,-0.19423413,-0.1294749,-0.12891701,-0.04403885,0.005154084,-0.00825253,0.022570584,-0.031264026,-0.10691822,-0.33994257,0.038945638,-0.1963025,-0.11153763,-0.081194356,-0.025662616,-0.014337781,-0.01725686,-0.039107684,-0.0372768,-0.08919436,0.020527286,-0.030747078,-0.16671309,-0.05629368,-0.06880635,-0.13187629,-0.0421736,-0.020512847,-0.013581628,-0.07709668,-0.1586481,0.03255124,-0.18292345,-0.13033244,-0.099195965,-0.09840426,-0.075051785,-0.13298048,-0.068737864,-0.03908176,-0.09310505,-0.05097347,-0.13456665,-0.08220899,-0.06602833,-0.0025930782,-0.08927164,-0.08520019,-0.07782507,-0.10702375,-0.11696426,-0.020806953,-0.059680913,-0.1387652,-0.076698504,-0.07022705,-0.06362231,-0.10841472,-0.10456778,-0.1422313,-0.09754208,-0.103021555,-0.135568,-0.06894274,-0.10059936,-0.13384567,-0.04087403,-0.0535601,-0.11142044,-0.10493255,-0.12450134,-0.10301784,-0.12750325,-0.121731386,-0.06334176,-0.13323529,-0.0684612,-0.028517198,-0.029484287,-0.11480164,-0.07698064,0.00672835,-0.12517713,-0.086882494,-0.11854871,-0.06939482,-0.1552696,-0.081500195,-0.058167703,-0.06711196,-0.07010441,-0.11930174,-0.085204296,-0.09280585,-0.10558838,-0.11535634,-0.05783572,-0.13645837,-0.025189191,-0.052350976,-0.03771614,-0.09521345,-0.074086905,-0.08778872,-0.09617932,-0.092038155,-0.11911984,-0.07457188,-0.11235095,0.017535252,-0.010348221,-0.0040835002,-0.07080903,-0.05878264,-0.09685107,-0.07432132,-0.042765662,-0.08000342,-0.045332823,-0.07343413,0.08386226,0.04691536,0.015970003,-0.031644583,-0.045554556,-0.07837077,-0.061430443,-0.05106903,-0.06290237,-0.11338919,-0.052086204,-0.019637145,-0.004716393,0.004497695,-0.025134217,-0.07103907,-0.14847614,-0.08242996,-0.049882337,-0.11919271,-0.09355758,0.0070356396,2.3217356,-0.99090743,-0.3236699,-0.4049106,-0.36395454,-0.5326074,-0.457072,-0.28929472,-0.2923948,-0.9179629,2.754443,-1.0238346,-0.15347372,-0.45725104,-0.43155888,-0.64100295,-0.61507404,-0.6054865,-0.606922,-0.5887766,-1.1686889,-0.96952206,-0.06542988,-0.38676196,-0.7565666,-0.843891,-0.89267164,-0.8478323,-0.9746316,-1.2168816,-1.1767515,-0.5726408,-0.47856507,-0.25861707,-0.58071923,-1.183763,-0.9819856,-1.3820573,-1.4640275,-1.3387947,-1.3815506,-0.83141255,-0.6465856,-0.5437479,-0.3416471,-0.6124627,-1.111902,-1.3542128,-1.420765,-1.0779046,-1.296866,-1.39802,-1.0095536,-0.61782604,-0.5381488,-0.49233872,-1.0792274,-1.1828538,-1.1915138,-1.3259633,-1.390809,-1.390105,-1.3580316,-0.8403756,-0.56930315,-0.52850413,-0.3942658,-0.8664455,-1.3941087,-1.416408,-1.2555697,-1.3936349,-1.3662101,-1.2085981,-0.9446134,-0.5866324,-0.33169264,-1.3599389,-1.4746493,-1.1901299,-1.2885857,-1.5008982,-1.4216266,-1.3063601,-1.2569001,-0.977982,-0.6141536,-0.3525814,-1.1945049,-1.2415864,-1.1089156,-1.1834966,-1.3754252,-1.3705027,-0.94488907,-0.87510294,-0.8720657,-0.37664875,-1.0326393,-0.9507751,-1.241749,-1.3561488,-1.452759,-1.2146311,-0.7233239,-0.5634697,-0.36789533,-0.74504304,-1.0388856,-0.9466653,1.7617803,-1.0487736,-1.1743531,-1.123518,-0.4178582,-0.23921351,-0.09435343,-0.008535642,-0.10664061,-0.953474,2.6963358,1.4643394,0.03685738,-0.20998996,-0.24652328,-0.18163402,-0.1717254,-0.101709835,-0.039885834,-0.0057354304,-0.036297947,-0.002654431,-0.046942554,-0.061170503,-0.1375288,-0.2727676,-0.1934163,-0.1439974,-0.07816459,-0.024609732,-0.0547045,0.05132703,-0.002292747,0.035563923,-0.12157799,-0.073014565,-0.17880948,-0.15695265,-0.15867761,-0.10966163,-0.079440854,-0.039326042,0.022568125,0.013410791,-0.006538747,-0.10608322,-0.13571277,-0.15818126,-0.14802971,-0.12795328,-0.1063572,-0.07906594,-0.04884978,-0.03496817,-0.007724531,0.009229368,-0.09579722,-0.13682336,-0.15050569,-0.120764665,-0.15595342,-0.0424666,-0.061405983,-0.08022808,-0.04054601,-0.041501354,-0.036885493,-0.0671757,-0.1467992,-0.111085154,-0.10480168,-0.20648602,-0.04189282,-0.06925927,-0.06650047,-0.08955655,-0.023908976,-0.018228125,-0.078973085,-0.1704575,-0.110202655,-0.11433109,-0.13190249,-0.082875416,-0.09692549,-0.08394152,-0.089778066,-0.05147665,-0.02343401,-0.16720213,-0.14810576,-0.16058944,-0.16682862,-0.12060882,-0.07812743,-0.10073087,-0.13929434,-0.12547572,-0.07294191,-0.08519597,-0.1492653,-0.27277502,-0.1660758,-0.13680719,-0.15103474,-0.15462923,-0.15932967,-0.15374362,-0.11327971,-0.14115791,-0.08715823,-0.034783714,-0.16235338,-0.17244917,-0.10654908,-0.15410177,-0.12560111,-0.19946475,-0.20749742,-0.16190118,-0.18611051,-0.13562258,0.01964828,-0.20634967,-0.1579983,-0.13231428,-0.15114379,-0.15300967,-0.13907334,-0.13995916,-0.11750585,-0.025669087,0.02146317,0.043787133,0.23110418,0.16834654,0.16840935,0.14324528,0.08425573,0.06042386,0.0033777375,0.026306678,0.009703261,-0.0065498683,0.11966809,0.100193664,0.11387997,0.06949721,0.041349474,0.020898176,0.039645743,0.03729622,0.024517303,0.047580115,-0.04847296,0.15170811,0.13602392,0.087754786,0.05432563,0.062752895,0.054308604,0.0715341,0.013866592,0.08848329,0.06326735,-0.041977987,0.051738292,0.11001196,0.07396331,0.071106665,0.09386961,0.06281637,0.05438131,0.022774722,0.07686994,0.043952428,-0.03715341,0.08528717,0.1506052,0.0586117,0.07602046,0.05428624,0.061218,0.07127352,0.059419442,0.019929424,0.04720788,-0.023308378,0.07362665,0.142325,0.065511264,0.064893365,0.072109394,0.036196485,0.08129296,0.05817118,0.094363384,0.062925234,-0.05160781,0.08978977,0.12722817,0.103360936,0.06778165,0.07012247,0.057071302,0.07342307,0.059214395,0.0591603,0.08248641,0.031328782,0.1654597,0.14208172,0.08329395,0.07222673,0.072916225,0.058896504,0.06641777,0.023679081,0.04946834,0.045326293,0.041736104,0.1427729,0.14476457,0.09369822,0.07930859,0.10496039,0.03912044,0.1003855,0.053537704,0.10235672,0.12442824,0.034469012,0.1931317,0.11788153,0.0793573,0.07338546,0.1266874,0.09626691,0.060595814,0.084514774,0.11753572,0.12754874,0.09100292,-0.00029712997,0.06567185,0.08517584,0.082505375,0.07749029,0.020572327,0.06251765,0.10226109,0.10066681,0.0861332,0.0187268,-0.3349848,1.5395132,0.7989658,0.656466,0.5119006,0.39534384,0.25103718,-0.33698076,-1.0157453,1.6137806,-0.26850328,1.5454082,0.85109335,0.86731565,0.61841667,0.4767397,0.32438654,0.29620868,0.0084682135,-1.3606453,-0.41759962,1.6234385,0.01300932,0.848972,0.61688167,0.51547736,0.32431564,0.30133238,0.1557974,0.2238167,-0.22177151,-0.44127804,-0.5800403,0.5378973,0.58133733,0.4463536,0.27593878,0.31907463,0.2636846,0.11098502,0.10709936,-0.14308882,-0.39258385,-0.59347826,0.6564389,0.53429186,0.44926053,0.32154685,0.37912542,0.30633935,0.12654755,0.050140467,-0.01875449,-0.018104453,-0.40530527,0.7692457,0.43957412,0.40498677,0.28522962,0.18585075,0.09938515,0.1467572,0.14855935,0.027073493,-0.015305299,-0.4032584,0.809588,0.45684794,0.45944062,0.14027123,0.20242122,0.18862908,0.38815346,0.14396831,0.06630804,0.07388436,-0.010522331,0.5478956,0.53204185,0.44485304,0.27402362,0.22217226,0.33555937,0.23323774,0.16687842,0.22203523,0.14677894,0.10597334,0.7050505,0.59195095,0.44219595,0.38691226,0.22256537,0.2908277,0.3208857,0.2389741,0.28508657,0.3001058,0.72891206,1.6213105,1.0147077,0.5640847,0.42631847,0.18298541,0.3783985,0.373567,0.53840506,0.40387306,0.5651909,1.5448397,-0.3277954,1.5709051,0.37613153,0.3672823,0.86730295,0.75306267,0.6644193,0.619292,0.75579345,1.524613,-0.27343357,1.6464798,-0.019365847,0.14041115,-0.11899721,-0.08234075,-0.04583713,-0.044670984,-0.010059384,-0.021244487,0.00076501083,-0.03410868,0.0059020044,-0.11522107,-0.14037167,-0.11623896,-0.110331625,-0.09237384,-0.068129525,-0.030127954,-0.04278988,-0.023210166,-0.0014048418,-0.02548629,-0.08909859,-0.19046618,-0.17271356,-0.0852409,-0.0603503,-0.050657675,-0.020414295,-0.013327266,-0.0022667884,0.014999759,-0.02042269,-0.1065127,-0.1509647,-0.13282822,-0.09483003,-0.06524639,-0.034394585,-0.031027663,-0.0034279502,0.0017088156,0.00036438002,-0.018916285,-0.10227398,-0.14175443,-0.111026905,-0.08986764,-0.04667322,-0.020537538,-0.035342164,-0.011634889,0.0069176583,0.018088205,-0.004729728,-0.075600386,-0.12773481,-0.09575664,-0.06313191,-0.032207884,0.007427606,-0.038487107,-0.0032225838,-0.0011820595,-0.0012509096,-0.028055426,-0.098421894,-0.170843,-0.099923156,-0.07923384,-0.033231493,-0.015162701,-0.035706975,-0.027078807,-0.010318271,0.011152046,0.0026169908,-0.11433192,-0.15739985,-0.12146033,-0.10785357,-0.060308516,-0.03939749,-0.020822959,-0.03500042,-0.008300758,0.01686838,-0.0011010184,-0.11126745,-0.17649096,-0.15036331,-0.07169493,-0.052190263,-0.04380304,-0.032995537,-0.03562664,-0.017392967,-0.0065259356,-0.029822722,-0.11987943,-0.12114435,-0.12111152,-0.075038135,-0.07871265,-0.03098033,-0.027276536,-0.028731117,-0.0018821545,-0.009214563,-0.010329634,-0.0423712,0.12014435,-0.05707484,-0.048658025,-0.032336522,-0.019781746,-0.0070374026,-0.014737568,-0.019860785,-0.0053680427,0.038677312,-0.039087743,0.16762519,0.10779871,0.10128489,0.09207515,0.05051777,0.045808055,0.02165832,0.045183036,-0.05584277,0.021158418,0.120563984,0.08158928,0.08048078,0.04037765,0.05235213,0.024530135,0.056045685,0.009598377,0.024411868,0.0286078,0.010974005,0.10489668,0.08723197,0.05771037,0.053724263,0.062910914,0.052077994,0.04481035,0.024052143,0.035480466,0.014927165,0.024112549,0.050754044,0.07457118,0.079411454,0.06660826,0.068620116,0.050842393,0.04495267,0.028051015,0.050596382,0.034850664,0.0035976353,0.08673153,0.08448809,0.10414218,0.063087754,0.049017258,0.04290996,0.042451087,0.065559514,0.050040275,0.039367538,0.02313292,0.06733649,0.120553516,0.07490161,0.05707887,0.049248178,-0.011746931,0.049584705,0.049620576,0.044932045,0.052102752,0.015103555,0.07612393,0.07415737,0.078468226,0.06267163,0.040583253,0.015645755,0.038889617,0.030054161,0.042137615,0.044051513,0.030256404,0.09129045,0.089555606,0.06801004,0.06640126,0.05551653,0.03854108,0.034553085,0.041494295,0.037697535,0.020284886,0.030688114,0.095533304,0.07038073,0.039968453,0.06676469,0.040773805,0.034017637,0.040135447,0.0654747,0.025458934,0.015314522,0.040569637,0.09762242,0.038885094,0.059092753,0.050385404,0.06787692,0.03818278,0.049459744,0.07551525,0.042951047,0.010070369,-0.04788357,0.02710749,0.10843172,0.10100691,0.075575784,0.07162013,0.008319053,0.030660048,0.05390367,0.023914658,0.004424434,-0.04001758,0.96172667,1.5937037,0.57227933,0.8725892,0.74769306,0.71284795,0.41840088,0.1826441,0.09140232,1.5887661,0.82339203,1.5461503,1.0438478,1.151265,0.9642936,0.94268894,0.6581121,0.734207,0.534898,-0.5169678,0.7359983,1.6130245,1.1568255,1.2349253,1.0947068,1.0293399,0.8907523,0.8180333,0.6995928,0.61976516,-0.15325397,-0.43856263,0.23134197,1.1788548,1.2441387,1.1270537,0.8441604,0.8521154,0.82770485,0.71034175,0.64173967,0.17197998,-0.38778862,-0.6227401,1.203882,1.3026086,1.210603,0.8959301,0.8390511,0.7130875,0.6817532,0.70629114,0.57983124,0.14186795,0.106562085,1.2205498,1.285094,0.9940521,0.7845047,0.73828167,0.73165256,0.7092353,0.49517912,0.5263363,0.2511557,-0.5959249,1.219349,1.3096728,1.0300784,0.8909165,0.765091,0.7678994,0.85984385,0.71954066,0.55648327,0.3696344,-0.40971762,1.2689664,1.3160319,1.0017389,0.89671826,0.77963734,0.82702786,0.75921726,0.15009795,0.39164963,-0.11357563,-0.57544774,1.1550983,1.2123448,0.99237895,0.91057354,0.7516357,0.85787106,0.7155875,0.6472191,0.5202756,-0.076177195,0.5381456,1.6120465,1.0793419,1.1435002,0.8642294,0.6197322,0.5562151,0.37978074,0.18086179,0.15445423,0.3660179,1.5756772,1.0090226,1.5966294,0.6639292,0.7547353,0.49059337,0.35263222,0.094638385,-0.36702058,-0.36551252,1.5667881,0.8014727,-1.127795
