-0.050440684,-0.09618949,-0.13985676,-0.11476054,-0.102860786,-0.077829726,0.021549713,0.09297891,-0.0109949075,0.025405396,0.029928606,0.10110608,0.02241256,-0.10371649,-0.1612423,-0.12710367,-0.029641729,0.033174977,0.03439766,0.026053471,0.0530518,-0.08235535,0.08134829,0.18046816,0.0146093145,-0.017096488,0.01639465,0.006262127,-8.026138e-06,0.0193444,0.035805833,0.017140588,0.12053757,0.17558102,0.109037116,0.08615082,0.0315536,0.0053256797,0.04037124,0.06495955,0.011324782,0.04163078,-0.08749342,-0.045346484,0.15510042,0.16311766,0.15875207,0.070614696,0.07342949,0.057776842,0.12583974,0.12461539,0.015399673,-0.05612282,-0.19453248,0.13446023,0.18522528,0.093039826,0.011602383,0.119512506,-0.037590478,-0.0014822016,0.09422069,-0.015971204,-0.1258783,-0.19587909,0.10007753,0.12049594,0.12013376,0.17654297,0.10780291,0.05239272,0.116329506,0.115930066,-0.024553152,-0.1589745,-0.1869804,0.18927267,0.23525174,0.09123743,0.1437732,0.13256763,0.05800373,0.16031729,0.008302316,0.020613564,-0.249734,-0.06950434,0.25459802,0.115534,0.14684549,0.107177936,0.11530001,0.17079718,0.10104175,0.076060325,0.0459041,0.0023110833,0.18274792,0.22233702,0.19816701,0.22704291,0.16533412,0.10529909,0.19015402,0.0370609,0.059832454,0.12616374,0.12507641,0.21519074,0.04595745,0.49027565,0.106150545,0.050524637,0.0590497,0.03131137,0.062603004,0.086057656,0.058754038,0.039849304,-0.019915156,-0.05161709,0.13387647,0.24357872,0.17591372,0.17458297,0.15089846,0.11711742,0.22426605,0.18870068,0.15095615,0.002081728,-0.067960486,0.07622306,0.22573557,0.17132074,0.2192556,0.14212853,0.22414047,0.29628995,0.19381224,0.17206235,0.26913747,0.14570165,0.16247104,0.19046488,0.17581809,0.3139672,0.21605928,0.10316408,0.20167641,0.16924007,0.31550756,0.38135347,0.21351592,0.23341082,0.2400134,0.27973697,0.2465827,0.22376122,0.22959383,0.29061893,0.2903764,0.24959835,0.23854098,0.1558314,0.15561451,0.1695074,0.1463368,0.2203394,0.10377505,0.22822475,0.33726597,0.29676807,0.24405494,0.25734225,0.1760544,0.09544036,0.14942919,0.21150075,0.18323968,-0.047786735,0.16813421,0.26738068,0.31871703,0.21195266,0.4346811,0.15030427,0.17416447,0.1675066,0.13911785,0.21292587,0.2231079,0.22864558,0.2514447,0.2443788,0.27600747,0.3500682,0.10905458,0.09697807,0.23833606,0.1815738,0.20152828,0.2446918,0.14137185,0.34100002,0.19762208,0.23057209,0.276674,0.1056533,0.09941078,0.17502704,0.077623725,0.166631,0.07041279,0.25132185,0.22583446,0.2606492,0.12145676,0.3798527,-0.017462503,-0.0094794305,0.10267099,0.20453125,0.22381493,0.19739625,0.17601463,0.2801962,0.20309956,0.21810828,0.16452228,-0.0036993788,0.08951452,0.026937768,0.25228688,0.23200545,0.2752295,0.3491147,0.2807936,0.19573417,-0.016693305,0.04082117,0.69114053,0.19186556,0.014892719,0.11085836,0.024468452,-0.01015736,-0.20866734,-0.3322607,-0.07810714,0.1396879,0.7196166,0.20071606,-0.91234934,0.24059772,-0.1879643,-0.13769017,-0.08561356,-0.13792297,0.33437186,-0.11301592,-0.70810163,0.12060905,0.6124525,0.5368438,0.35302624,0.31242725,0.2846846,0.25652134,0.020763433,0.048824992,0.14658931,-0.12184506,-0.49946404,0.759894,0.6227754,0.44631663,0.24787158,0.3195307,0.4098285,0.29686224,0.30916446,0.2845109,0.16348584,-0.55412966,0.7926859,0.45134875,0.41601378,0.39962322,0.38304824,0.4223137,0.4602868,0.47689536,0.48871243,-0.10549669,-0.4084941,0.68562406,0.5173192,0.31116968,0.4226595,0.38756937,0.33550236,0.3848817,0.36632872,0.33402735,-0.07462692,-0.36664322,0.39266598,0.34709007,0.38391364,0.37425953,0.39333075,0.37254965,0.48296574,0.46218055,0.5354303,-0.20241365,-0.3333412,0.2654688,0.32549158,0.2983298,0.38796613,0.33812073,0.41455775,0.47434244,0.39087537,0.5068224,0.20166326,-0.41037998,0.60966796,0.49862108,0.38864407,0.42161515,0.45802835,0.40355515,0.54856384,0.47356376,0.4655619,0.6144593,-0.6169832,0.23521058,1.2438544,0.45339662,0.47361052,0.4505612,0.4519241,0.36994252,0.43900317,0.515936,0.65924627,0.13403885,0.7078612,0.24011406,0.79786694,0.48360628,0.5615363,0.3216938,-0.9098717,0.21107703,0.14843959,0.090200976,0.70528233,-1.1894327,0.02072563,0.12138778,-0.12180022,-0.96551096,0.013041362,-0.0077875936,0.0026264302,0.034993626,0.051105563,-0.0114412,0.028712744,-0.06138242,-0.12783836,-0.11362764,-0.14298488,-0.037915435,-0.0016078411,0.06844696,0.0026670813,-0.0059044138,-0.10996864,-1.5408801,-0.00047995296,-0.03326189,0.031642087,-0.07141362,-0.03098218,-0.059986934,0.0048924396,-0.019218875,-0.014472379,-0.07138742,-0.3306627,-0.058334023,-0.03279543,-0.062910885,-0.056436583,-0.029081397,-0.047753457,-0.03972018,-0.030230986,-0.072198614,-0.062145904,-0.17286623,-0.10010203,-0.112142794,-0.07821357,-0.060100663,-0.057905782,-0.07854025,-0.023933625,-0.024858491,-0.06877242,-0.077836685,-0.2594132,-0.113050975,-0.098287985,-0.09430109,-0.06842349,-0.051200498,0.022413932,-0.029550737,-0.022752825,-0.05023742,-0.06813728,-0.2894816,-0.13802601,-0.24423297,-0.07146317,-0.10724153,-0.0924488,0.022303984,-0.07512039,-0.04026709,-0.031629544,-0.08454851,-0.68109185,-0.12830913,-0.14843075,-0.05700507,-0.045207217,-0.04004797,-0.033099603,-0.026509527,-0.06302023,-0.04039124,-0.13540599,-1.2028593,-0.122941144,-0.12731992,0.04146695,0.007853236,0.032636754,0.00811313,0.06818634,-0.00037337877,-0.010681797,-0.06472849,-0.27555758,-0.054936476,-0.11045021,0.040963016,0.0764371,0.059821345,0.025663689,0.0928935,0.060148533,0.042938076,0.011797673,-0.22672227,0.019226829,0.027760983,0.0923727,0.059168585,0.017985726,0.055607773,0.0322736,0.042510998,0.004129958,-0.05571756,-0.042061057,0.0026649786,-0.003275114,-0.07386776,-0.14036621,-0.07201952,-0.093381286,0.00859856,-0.059608392,-0.06831789,-0.04526226,-0.00356959,0.026975114,-0.060683347,-0.14914478,-0.18590276,-0.08995989,-0.07478826,-0.0672446,-0.110391505,-0.05747283,-0.085601,-0.5315213,0.0051860167,-0.02343426,-0.086097695,-0.076421015,-0.072744936,-0.08015661,-0.08710526,0.0138854105,0.00590909,0.048164498,-0.03130619,-0.10277997,-0.03634715,-0.058307417,-0.103625104,-0.072849244,-0.0019064789,-0.048509516,-0.02862127,-0.017376889,-0.017095895,-0.057028245,-0.059276152,-0.05035061,0.0063013085,-0.018830637,-0.061780665,-0.06478224,-0.029534569,-0.04418991,-0.110878244,0.016958646,0.015289096,-0.09135948,-0.1008713,-0.06673315,-0.031499058,-0.027824352,0.025231874,-0.0702605,-0.018541448,0.00433664,-0.0008047155,-0.13331448,-0.089091435,-0.08764484,-0.09954083,-0.06274231,-0.052515473,-0.03702571,-0.070644855,-0.012980658,-0.041149776,-0.08532024,-0.07528834,-0.0912871,-0.07977565,-0.12724076,-0.07739388,-0.0244691,-0.015094268,-0.06531491,-0.07281274,-0.048988953,-0.1933827,-0.153945,-0.02381949,0.009428216,-0.04141295,-0.043924585,-0.07993124,-0.041233413,-0.05959784,-0.12692918,-0.15661041,-0.10403045,-0.10243546,0.04736722,0.005890363,-0.048841294,-0.07787569,-0.050707623,-0.008173244,-0.04464986,-0.0049589537,-0.031302143,-0.03548171,-0.15980567,-0.05188689,-0.05711608,-0.13507625,-0.09846772,-0.0479911,-0.06061563,-0.08839591,-0.089390144,-0.08542479,-0.08721637,-0.03277489,-0.1418884,0.6749496,0.3806488,0.18584368,0.4424191,-1.0408524,-1.0864227,-0.8814479,-0.9856016,0.4229918,-0.12429581,0.55535644,2.274286,0.14079763,-0.06327113,-0.19337225,-0.22508249,-0.22598305,-0.850944,0.10404549,1.0973502,0.50156206,-0.19000545,-0.098784946,-0.10966063,-0.032348577,-0.18880618,-0.18800493,-0.23568252,-0.1837023,0.013847599,0.10932644,1.0476007,-0.36421597,-0.039627567,-0.1432927,-0.21428677,-0.26294166,-0.1271959,-0.2022371,-0.026129048,0.10566885,0.16758308,0.18549171,-0.069251545,-0.17987835,-0.114796035,-0.16794074,-0.15342644,-0.20437251,-0.13721934,-0.11785289,0.12200722,0.16122134,0.30610362,0.25051236,0.004603581,-0.053554125,-0.16806415,-0.09852642,-0.07507945,-0.14704056,-0.058412075,0.07622302,0.15963875,0.414359,0.43931127,0.124435864,0.057273813,-0.16193862,-0.22682455,-0.14434125,-0.05903046,-0.09989531,-0.04313622,0.05665976,0.715851,0.17204903,0.04566663,-0.27111226,-0.09762755,-0.018429203,-0.17369673,-0.11995375,-0.017797638,0.039278,0.1436782,0.7526546,0.10304903,-0.42801976,-0.90263075,-0.31629008,-0.4532475,-0.5219777,-0.3752713,-0.19667333,-0.03440359,0.16025135,0.6681441,0.6696582,-0.72486687,-1.4758278,-1.1157166,-0.9710654,-1.3062149,-1.0073298,-0.9621153,-0.20308715,0.35356012,0.43494403,-0.16288598,0.6473688,-1.4128195,-0.9216829,-1.395158,-1.5490521,-1.361378,-1.4120754,-0.7185448,0.39491856,-0.18718398,1.1046265,-0.030052342,-0.09821159,-0.05620133,0.062460206,-0.0486439,-0.009271191,-0.0097742155,0.03183976,0.04971024,-0.025090108,0.044009183,-0.008942828,-0.023134856,-0.06630967,-0.06890587,-0.06494263,-0.02205599,-0.022408636,0.014583618,-0.06940023,-0.045461424,0.1116276,0.03684403,-0.0059039453,-0.035893332,-0.092184514,-0.04386691,-0.04922754,0.0041895737,-0.015158546,-0.05685461,-0.009814632,0.014438759,0.021754507,-0.02128838,-0.026351389,0.037676852,0.027435381,0.016984008,-0.039709453,0.014213113,-0.028097924,-0.13182005,0.03893807,0.021427972,-0.030229345,0.08526857,0.07447976,0.055127658,-0.025814898,0.011243464,0.0043949983,-0.0641127,-0.041994028,0.068577535,0.030709652,0.038789425,0.0875772,0.06350226,0.09153523,-0.016583994,-0.0086093275,0.05268188,0.036154557,-0.022376666,0.07254302,0.05989539,0.067448504,0.11098918,0.07581641,0.07754691,-0.0042558713,0.052346677,0.03869928,0.0853856,-0.040026378,0.004719374,0.09467973,0.1159988,0.088251725,0.084593326,0.15031534,0.0789184,0.07762573,0.122526035,0.10067948,-0.0066893003,0.14443022,0.18119378,0.24522562,0.15308131,0.038958546,0.08858814,0.05244661,0.02296835,0.053786438,0.07731585,0.15087537,0.15171656,0.17944305,0.3606043,0.1642814,0.019113434,-0.0041439943,0.01114158,0.030337656,0.071400434,-0.0373768,0.20401809,0.27010357,0.020892473,0.3355864,0.11979323,0.039532118,0.019284418,-0.011386927,-0.014558221,0.02182225,0.14240164,0.032530706,0.0055399486,-0.051591847,0.054166116,0.033422947,0.038026888,0.04352723,0.08959456,-0.054409396,0.068687625,0.055434726,0.24150841,0.011134395,-0.0056571686,-0.046138138,-0.034760017,0.022447975,-0.07808766,0.030199079,-0.058330487,0.024569271,0.06212954,0.09904532,0.10374544,0.006618134,0.0039991634,0.0020650441,0.014597981,0.05784353,0.031358007,0.04340562,0.09085439,0.047382925,0.06517893,0.050767135,0.09358115,-0.036144644,-0.009386517,-0.014177604,0.05756293,0.0031972197,-0.02486612,0.025918052,0.07556702,0.08404153,-0.015246227,0.071781605,0.019568885,0.0450785,0.08791854,0.09546117,0.023668043,0.023343837,0.023140278,0.079189904,0.008704224,0.04037782,-0.024751008,-0.034801815,0.059658878,0.061888084,0.02763215,0.045002125,-0.051209986,-0.0070998343,0.030094689,0.05536561,0.007397387,-0.0527715,-0.0041043144,0.02506096,0.014899744,0.03456195,0.03576236,0.0281406,-0.01803096,0.029761402,0.06363549,0.0741328,-0.019126384,-0.025781069,-0.016399778,0.0044035967,0.0015436881,-0.026473876,-0.006181411,0.016860344,0.027920682,0.049056068,-0.06100984,-0.14927398,-0.2128412,-0.07937222,-0.033864327,-0.039450973,-0.027094284,-0.043303967,0.051651243,0.08612197,0.112491,-0.00831251,-0.15381487,-0.1182157,-0.06708661,-0.057327498,0.10859378,-0.057062015,-0.024768602,-0.026864469,-0.073975965,0.1365783,0.06300858,-0.032083035,-0.11670607,-0.20867759,-0.10950407,0.025228392,-0.10119666,-0.22592144,-0.13109887,-0.15170488,-0.13458708,-0.039243408,0.5101276,0.19522743,0.06459437,-0.01674866,-0.20599958,-0.16983888,-0.69167453,-0.041840512,-0.015164526,0.14552218,0.5275675,0.20541456,-0.08819943,0.419063,0.35150447,0.5119175,0.3402134,0.18183213,0.098533206,-0.29525787,0.6836129,0.118799396,0.013344028,0.4413317,0.26291615,0.31576097,0.37823308,0.15727508,0.2720068,0.3842783,0.3460006,0.21014275,-0.8478577,0.30276737,0.074108034,0.54260045,0.4862865,0.5912172,0.13742496,0.4687645,0.4000478,0.2064519,0.11928691,-0.28434005,-0.11839449,0.4025877,0.38228837,0.47491398,0.5099553,0.20775642,0.50557387,0.5213983,0.31029764,0.07924902,-0.4272371,-0.2822033,0.60133153,0.5713196,0.5175626,0.5433364,0.373113,0.47989208,0.44410932,0.45956218,0.02996698,-0.38188097,-1.0738956,0.29504487,0.56101644,0.5342957,0.58510315,0.30111998,0.22942618,0.58136594,0.39376226,0.61508936,-0.28086844,0.4987318,0.3518562,0.45252708,0.46728247,0.41867906,0.2646272,0.3254108,0.55413336,0.52681875,0.6423585,-0.2676755,0.28571653,0.64953995,-0.38346753,0.54948586,0.67877376,0.42285296,0.48706445,0.59062624,0.5261583,0.7737259,0.5953127,0.27144882,1.196112,0.6394536,0.5961683,0.19352408,0.05658542,-0.34022608,0.318462,0.7566088,0.8235453,0.15502834,0.5391664,0.23702396,-1.1314355,-0.88422626,-0.69205874,-0.8022859,-1.1502539,-1.0752198,-0.4449331,0.16638061,0.48629713,-0.91332746,-0.00694464,0.10971019,0.10924699,0.058847092,0.047717854,0.020146344,0.0015794083,0.010048033,-0.010352862,0.034126952,-0.047495548,0.046571523,0.11187083,0.06236136,0.05249516,0.033029623,0.016617252,0.00871002,0.0006837366,0.012025587,-0.011670065,0.0086002825,0.01428151,0.013593071,0.04697009,0.031498216,-0.001989692,0.00868731,-0.02271367,-0.011685766,0.0017509023,-0.021313325,-0.05028128,-0.033230018,-0.0008756497,0.012059918,0.023981143,0.009775268,-0.0053222063,-0.005981392,-0.018477762,-0.009925801,-0.0492555,-0.042451102,-0.013140006,0.023207383,-0.0070869285,-0.0074869166,-0.008749286,-0.02587165,-0.03529263,-0.049249228,-0.040429436,-0.049501266,-0.058819443,-0.014901873,-0.014742572,-6.53217e-05,0.009486833,-0.0035558399,0.043351095,-0.0015053038,-0.044073895,-0.038183063,-0.023911655,-0.09679818,-0.0125107635,0.01349236,-0.0034571888,-0.02503133,-0.034530915,-0.007986136,-0.058043793,-0.048413575,-0.07278035,-0.11496585,-0.14213566,-0.0023040383,0.022947052,-0.008613001,-0.036518883,-0.02532183,-0.037668638,-0.06211672,-0.08464495,-0.11588166,-0.16244987,-0.1658055,0.042718444,0.058522984,0.0038669962,-0.0059898472,-0.037771344,-0.047310922,-0.07069011,-0.12064652,-0.1677333,-0.27925617,-0.22545364,-0.031356458,0.059795093,-0.052255955,-0.05144172,-0.07189237,-0.114464335,-0.15328899,-0.12281786,-0.2308495,-0.36260137,-0.2708346,0.02036648,-0.02784187,-0.03374964,-0.04682898,-0.053812973,-0.072160564,-0.08422748,-0.09367056,-0.12415207,-0.13385712,-0.02728847,0.01378677,-0.007946491,-0.008750923,0.020774225,-0.00862921,0.05207089,0.055850312,0.089313775,0.035975955,0.015417894,-0.029452246,-0.030896133,0.027223183,0.011366633,0.02097512,0.004689419,0.030218694,0.03129164,0.004214014,0.013581227,0.057931233,-0.018708218,-0.019967565,-0.0018809617,0.004924698,0.023201367,0.011297858,-0.00017308962,-0.006003254,0.057982028,0.027553916,0.00823097,-0.011735247,0.020283135,0.002857051,-0.0030002508,-0.01950725,-0.001799181,-0.0034064297,0.033093944,0.047450896,0.0041582873,0.012098918,0.037839454,0.031247828,0.04791045,0.03889164,0.021721287,0.043030895,0.077577725,0.035573516,0.03447226,0.039098885,0.057651993,0.039922886,0.039273705,0.031628452,0.022381531,-0.007431618,0.052403644,0.015201234,0.036078513,0.02017047,0.07618319,0.059013736,0.06629969,0.057990745,0.04991612,0.025379099,0.021150922,0.016991727,0.06716676,0.0465176,0.052355323,0.07811812,0.03983469,0.016753314,0.035901688,0.052109282,0.0016358218,0.019861933,0.018413054,0.08758749,0.039037757,0.094890036,0.093075216,0.1147878,0.09415353,0.060184024,0.03109714,-0.00211591,0.027006466,0.028042557,0.046628006,0.081859656,0.09009671,0.12629437,0.1526203,0.17893809,-0.00093692075,-0.02529214,0.005416857,0.051158324,0.042114396,0.06338145,0.079374135,0.12258347,0.16261406,0.1416682,0.16975877,0.03568301,-0.002524105,-0.017549245,0.03306349,0.014056592,0.08327768,0.10801908,0.22140364,0.19291827,0.21892536,-0.019269241,0.5396655,1.5489148,-0.92440534,-0.22207674,-0.17149034,-0.045145962,0.041890826,0.104897685,-0.7724619,1.6029118,0.48866573,1.6454973,-0.78641886,-0.88938385,-0.26838008,0.056682806,-0.07798981,-0.6024997,-0.062391456,-0.1461362,-0.35629994,1.5849723,-0.2896978,-0.62762576,-0.28675157,-0.30358645,-0.08493712,0.011538042,-0.15565336,-0.14273895,-0.095771246,0.0047456394,-0.04308074,-0.07543853,-0.45874283,-0.1656351,-0.25357202,-0.002527612,-0.125802,-0.19631444,0.042966563,0.15978746,0.1776851,0.36068845,0.11356718,0.06368087,0.06717283,0.077468336,0.027320845,0.06170041,0.06538356,0.19365643,0.00024384318,0.258065,0.39897427,0.19923021,-0.0129828155,-0.048288316,-0.0032982395,0.021335738,0.08583452,0.027049776,0.058782358,0.19625187,0.44744408,0.5553734,0.05436688,0.06829999,-0.100874856,0.09849144,0.1392802,-0.051808633,0.14189403,0.34085658,0.4441709,0.64671427,1.3271992,-0.0021418165,-0.020213136,-0.014456057,0.12881026,0.036030203,0.12671854,0.25504225,0.33841658,0.57507765,1.1576456,1.4320098,0.14744847,-0.06542179,0.20897049,0.26109633,0.17050257,0.29603824,0.37474322,0.5350329,0.8695136,1.4451325,1.6388749,1.6451421,0.46068415,0.019697549,0.2958635,0.44638243,0.49706408,0.89454,1.1959593,1.7067032,1.5823525,1.6221309,0.59850127,1.5081216,0.31688097,0.38460737,0.8822489,1.3203591,1.5813149,1.5433702,1.3765134,1.6384014,0.6592811,-2.5044925,0.032583218,-0.14964636,-0.019819805,0.09211123,0.07049618,0.10812142,0.08313266,0.11927706,0.07800571,-0.10442037,-0.040965915,-0.084903985,-0.11804957,0.05631118,0.08294601,0.1547291,0.11434921,0.1344319,0.14055967,0.08093975,-0.027687268,-0.068916745,-0.112980254,-0.17678802,-0.057458654,-0.0073893755,0.035582077,0.026666595,0.09729577,0.03469395,0.006471339,-0.060513105,-0.11293333,-0.0826767,-0.13268083,-0.06612008,-0.0050031175,-0.0007837848,0.019804906,0.0033994778,-0.026852433,-0.063004866,-0.084508166,-0.09003852,-0.1277445,-0.11941984,-0.0628536,-0.062759824,0.01162646,0.020717947,-0.027774857,-0.042759113,-0.057284042,-0.10455863,-0.095708154,-0.10391841,-0.11095219,-0.06474585,-0.06045484,-0.021149348,-0.017955013,-0.061239406,-0.041899,-0.04228043,-0.116706215,-0.15218079,-0.06866032,-0.062628135,-0.0434884,-0.048828755,-0.04032297,0.002711062,0.0018971682,-0.041248165,-0.030077294,-0.10830941,-0.041259456,-0.047999185,0.011963662,0.004168489,0.011376429,0.03689842,0.03707557,0.010414887,0.026982797,0.016552031,0.04347134,-0.02211922,0.008631016,0.07023465,0.05720533,0.06047308,0.036719073,0.03303284,0.02383955,0.04625547,-0.004065434,-0.046292767,0.01451639,-0.019636996,0.020560015,0.07399529,0.042182464,0.061282676,0.023576368,0.021606296,0.06998864,0.020599967,0.0036005543,0.057769436,0.05035338,0.061658572,0.019472577,0.016189039,0.0074448055,-0.00084085035,-0.008343411,0.0077052317,-0.015211723,-0.018764077,-0.010224842,-0.048602287,-0.0049829907,0.113429956,0.046591863,0.019867914,0.09325709,0.10829398,0.082458764,0.13214342,0.04127704,0.03474967,0.08272309,0.06599884,0.08042427,0.082546376,0.0652283,0.121715896,0.062956974,0.12138831,0.082839854,0.09303838,-0.090549335,0.079071246,0.080058664,0.013447451,0.058712047,0.019528981,-0.0049601155,0.030028278,0.053469323,0.007159867,-0.0067836163,-0.06787729,0.11241892,0.037652418,-0.004279194,0.035240788,0.014907168,-0.03841541,-0.026883297,0.021827767,0.013305815,0.019096147,0.0074076196,0.028795274,0.057037458,0.051094707,-0.011162637,0.010049803,0.027512012,0.0061056116,0.019890822,-0.005848997,0.009941506,-0.0043195854,0.017493756,-0.0042149825,0.021432428,0.012939882,-0.012906058,0.011634,0.0055535003,0.046778228,-0.008610851,0.0036201854,0.024289453,0.033443388,0.046272967,0.021001514,0.011441442,-0.00040597064,0.037849694,0.024468452,0.008782886,0.002023689,-0.0019725477,0.015365071,0.024009844,-0.0011506865,0.008229294,0.010492099,-0.02070167,0.013112066,0.031269323,0.0062422864,0.0019211,0.006152025,-0.07184853,0.031919066,0.021500235,0.028535688,0.0038541043,-0.03216649,-0.011756652,-0.0014744194,-0.022224572,-0.0026362778,-0.08020631,-0.025177654,-0.0023969128,-0.049795523,-0.010003874,-0.019828163,-0.03758054,-0.0010201337,-0.014004526,-0.010899119,0.014571149,-0.049659435,-0.028305192,0.011361126,0.03644131,-0.06466578,-0.036817007,-0.020370018,-0.0441408,-0.05539738,-0.04126862,-0.00030423608,0.10162486,-0.026945041,0.84612393,1.330713,-0.17731975,-0.20280161,-1.6474228,-0.91088367,-1.5074358,-0.9587836,-0.7269635,1.4064791,0.9041554,1.372734,0.8866969,0.33923453,0.086344294,-0.783958,-1.0848112,-1.2145485,-0.61303174,-0.88528043,1.435264,1.4362191,0.88141346,0.6868673,0.63760394,0.60492414,0.6291338,0.5965453,0.6005739,0.6317008,0.6486225,0.9598837,0.70760226,0.8987715,0.6689808,0.7491222,0.7503569,0.60755527,0.5842885,0.8313582,0.69401836,0.7644327,0.96186984,0.87816304,0.75290376,0.853605,0.7190465,0.40792075,0.6886787,0.6928983,0.6979575,0.6903978,0.7391284,0.917779,1.2279646,0.7551812,0.69424796,0.6523827,0.6383912,0.6544919,0.6250338,0.56675446,0.618,0.5914964,0.73378825,0.9827779,0.68308014,0.56579,0.428985,0.5528291,0.6210133,0.7563848,0.70409536,0.58263266,0.7335382,0.6945734,0.93452793,-0.66042125,-0.012143672,0.4387212,0.4835477,0.5918868,0.45479247,0.68135047,0.5687772,0.74334174,0.68047905,0.032410108,-0.3262674,-0.15441851,0.035066437,0.057181638,0.55475944,0.4381068,0.5664835,0.53325284,0.36145467,0.5586769,0.03393606,1.4302747,-0.19326577,-0.34756514,-0.5543159,-0.71076167,-0.7095149,-0.76469296,-0.13887075,-0.24216436,-0.32504988,1.4084309,0.93287265,1.3860352,-1.4669855,-0.626423,-1.1796346,-0.87314856,-0.6289193,-0.97233635,-0.6777601,1.4191072,0.8253268,-1.7266353,-0.04922947,0.33041483,0.28684902,0.15040374,0.10825921,0.06646047,-0.0071410886,-0.01869231,0.09338271,0.029181615,-0.04024385,0.094386466,0.31009978,0.28905782,0.14348508,0.09825276,0.0037146634,0.0706425,0.03127812,-0.1007373,0.15555313,0.2888772,0.041183967,0.18285166,0.16775984,0.07664995,0.04653067,0.017177999,0.047093764,0.043250836,0.067616336,0.1801463,0.24777701,-0.012926178,0.040617377,0.056904476,0.04329732,-0.005317981,0.048012782,0.058846015,0.036941905,0.110759296,0.117989436,0.13135347,-0.027964396,0.069380276,0.01989007,0.034011323,0.006802352,0.034875236,0.044980813,-0.015435914,0.02941987,0.08474906,0.10498657,-0.024636265,0.06058581,0.0061187157,0.06387756,-0.04735848,-0.021845082,0.11101335,0.04193725,0.08642476,0.04435106,0.084573574,-0.018032715,0.0038419217,-0.0072342106,0.03831612,-0.02298996,0.011005752,0.023585794,-0.028421575,0.06385215,0.04382644,0.07624603,0.054680273,0.11737582,0.010789769,0.06949795,0.034283023,0.04415601,0.05574803,0.030957015,0.09455116,0.10185069,-0.057275284,0.1267576,0.31623718,0.1840953,0.13270633,0.08832364,0.13666475,0.16161627,0.061264176,0.09428044,-0.10348456,0.06812238,0.09416882,0.36686024,0.19631393,0.103488214,0.12215713,0.12272474,0.18654387,0.09121549,0.15555623,0.102207504,-0.09580968,-0.048882473,0.38981277,0.16930604,0.14904691,0.07292932,0.13189398,0.089260064,0.16632351,0.13207184,0.03772382,-0.050262634,0.019746566,0.036690116,0.009380593,-0.053901527,-0.026963074,0.05477375,0.054474115,0.06130517,0.1710472,0.27167547,0.020613812,0.059265763,0.026212806,0.06481077,0.04159491,0.030026011,0.04586969,0.059644286,0.04424902,-0.011576893,0.065873735,-0.029677954,0.04543299,0.09503296,0.026574206,-0.03275608,0.05149824,0.020481406,0.030037967,0.12538868,0.077455886,0.09710146,0.09605131,0.071410626,0.031699076,0.053813796,0.044384386,0.046139255,0.0019980364,0.017316917,0.038458873,0.042967554,0.052925903,0.06710545,0.07889622,0.08424007,0.025047295,0.008173838,0.06889929,0.07284298,0.054615285,0.04766564,0.05760456,0.054897383,0.056783926,0.04306161,0.03357089,0.028693615,-0.0201778,-0.013315564,-0.024663506,-0.008433975,0.017303826,0.010788712,0.038718496,0.17129898,0.047573995,0.045155127,0.050791554,-0.000103450555,-0.026864173,-0.006972047,0.022771958,-0.014418312,0.028835725,0.031322815,0.002662869,0.03500118,0.026297346,0.061280455,0.002199219,-0.052641105,0.05490272,0.014234343,0.061508212,0.06362091,0.095245026,0.006824577,0.046680238,0.028427804,0.07138137,0.024297807,0.028001504,0.021676423,-0.01090509,0.043293934,0.030803448,0.012955756,0.11123617,0.00949273,-0.004235786,-0.033759646,-0.0031255302,-0.044024035,-0.024338786,0.08011906,0.046452034,0.05720198,0.124607764,-0.27580243,0.046677556,0.08318667,-0.16078143,0.005826165,0.033088416,0.01851404,0.070446,-0.025695274,-0.03941841,0.06434992,-0.02122948,-1.1069047,-1.2432386,-0.5525326,-0.41183776,0.096148565,-0.2575996,0.19790009,0.3149278,1.8408208,-1.251379,-1.0721152,-1.2519786,-0.1855516,-0.49615934,-0.7848786,-0.6923632,-0.7106275,-0.44014686,-0.3241446,-0.09846822,0.13597345,-1.1658334,0.46697518,-0.20191884,-0.631847,-0.6574611,-0.45939898,-0.42733222,-0.30418172,-0.4287465,-0.34347296,-0.7058622,-0.16107589,0.036400013,-0.557776,-0.54687643,-0.2845186,-0.47134072,-0.51168746,-0.58825225,-0.5685733,-0.8046737,-0.78822494,-0.38734072,-0.09604306,-0.18895198,-0.263445,-0.43760788,-0.2995529,-0.49661416,-0.4045821,-0.46635076,-0.6796803,-0.7225798,-0.7444944,0.100014575,-0.32096604,-0.3029142,-0.4715148,-0.4393527,-0.44773903,-0.52744555,-0.4205764,-0.7055038,-0.55533576,-0.39164573,0.16905797,-0.22504914,-0.32868272,-0.29439205,-0.33791375,-0.4449119,-0.4490602,-0.39945906,-0.42732927,-0.5121862,0.3868521,0.1596744,-0.17508642,-0.60780174,-0.5585414,-0.41985375,-0.47365558,-0.38616604,-0.52826643,-0.48755747,-0.22179884,0.26856658,-0.06441538,-0.44201916,-0.8144948,-0.5142472,-0.36289605,-0.47317132,-0.486622,-0.3148501,-0.4088654,-0.3252482,2.011119,-1.2423741,-0.16710396,-0.54467636,-0.65801287,-0.94468457,-0.8809542,-0.5303615,-0.44776285,-0.31996047,-1.4435582,-1.2709923,-0.9950975,-1.2234074,-0.6958534,-0.5948019,-0.61678624,-0.1811382,-0.32637542,-0.3370896,-0.87145287,-1.1934309,-1.0685443,-2.7743802,-0.033763036,0.016842186,-0.09680654,-0.037442442,-0.029765183,0.064869545,0.11595232,0.18428136,0.14141054,0.15124497,-0.04330048,-0.072474256,-0.1930854,-0.04460523,-0.08397911,-0.0015227268,0.029483464,0.15441926,0.14310844,0.16131954,0.1641676,-0.023213172,-0.09280787,-0.12831815,-0.034757037,-0.044541147,-0.0065431944,-0.01854912,0.07937377,0.07640258,0.09655842,0.09365894,0.04037034,-0.055106387,-0.0708364,-0.05390849,-0.043571167,0.014564817,-0.010010706,0.012762809,0.0418946,0.0035959103,0.04910492,0.04391199,-0.07912611,-0.103166334,-0.03332241,-0.034406453,-0.021041218,0.0119770765,-0.022395669,0.0016652751,0.019234275,-0.04172323,-0.019413779,-0.07385621,-0.07547807,-0.029399712,-0.01171594,0.000116923475,0.003142221,0.008960341,0.005427454,0.013482882,-0.019461697,-0.03514244,-0.0061588082,-0.08508121,0.019969894,-0.03984835,-0.011104879,-0.03988651,-0.031938475,0.0013560401,0.01484825,-0.05120273,0.047251813,-0.030434454,0.033956032,0.03436265,0.037207033,0.03354197,0.014676943,0.00357917,0.031430304,0.01744542,0.06952691,-0.036771994,0.06081228,0.09423639,0.09641542,0.027133599,0.00049280806,-0.034908447,-0.03416633,-0.02228311,0.014528516,0.047685456,0.046489984,0.1828133,0.012289624,0.13550659,0.05177407,0.053841587,-0.006213314,-0.008874908,-0.01606601,0.008532238,0.025126578,-0.012462878,-0.023155319,0.10714504,0.09287553,0.036798835,0.0012210673,0.011875573,-0.030091675,-0.02532088,-0.042256128,-0.02688172,-0.042540554,0.04517618,0.056864575,0.08574267,-0.044735946,-0.024289947,-0.0069697606,-0.036799338,-0.100683026,-0.11891653,-0.11834645,0.012193632,0.110578604,0.035893716,0.017569672,0.004352778,0.00040559412,-0.01499594,-0.014472792,-0.02947491,-0.059686705,-0.08569204,-0.113102384,0.08055018,0.018883443,-0.022092467,-0.014020894,-0.042881392,-0.01891315,-0.023495035,-0.0406588,-0.068177775,-0.109165415,-0.08462374,0.007836283,-0.03150348,-0.040083725,-0.020582633,-0.028786782,-0.041935213,-0.052118428,-0.03974704,-0.05824181,-0.10151856,-0.059643075,-0.016570048,-0.006184426,-0.0090108905,-0.009314544,-0.027978303,0.011539441,-0.026387814,-0.01414129,-0.040418617,-0.04033308,-0.07551899,-0.0062510744,-0.022880945,-0.020161696,0.01786458,-0.008345385,0.029995557,0.0014604701,0.010019741,-0.029263783,-0.057529148,-0.10554741,-0.06598083,-0.029593032,-0.038051195,-0.035227004,-0.015948616,-0.036934804,-0.019929357,-0.00687572,-0.031142002,-0.0059092143,-0.015130499,-0.03873347,-0.08163785,-0.049359325,-0.049157757,-0.054451637,-0.050659623,-0.035900634,-0.047072697,-0.020849515,-0.023382815,-0.07463667,-0.06083907,0.007817311,-0.0332951,-0.044599455,-0.037532493,-0.020317087,-0.03827028,-0.004489419,-0.0056962133,0.012636439,0.01934513,-0.050892737,-0.08006966,-0.06853033,-0.05323655,-0.04681472,-0.015143466,-0.056207623,-0.037617896,-0.027520759,-0.07808856,-0.059342295,-0.02895544,-0.02950184,-0.11718058,-0.106777646,-0.048519343,-0.15034404,-0.11673808,-0.021339633,-0.001419764,-0.0044144047,0.046022717,0.9418994,-1.2645057,0.35811484,0.8913688,0.42067093,0.46829054,-0.65499353,-0.7989654,-1.1441705,-1.1241692,0.98189515,-1.2974073,0.97455823,0.8146548,0.24249749,0.1706923,0.086257614,-0.31992123,-0.6167877,-0.9242012,-0.6799702,-1.1800683,1.0355817,0.95862997,-0.025575807,-0.09390086,-0.2775932,-0.43967074,-0.5432596,-0.65840274,-0.7792165,-0.65088606,-0.2827659,0.8361551,0.66023743,-0.21894453,-0.2057221,-0.21853717,-0.4047857,-0.3644272,-0.4900295,-0.36882964,-0.36770964,-0.534324,0.5877494,-0.28176624,-0.26254258,-0.36512953,-0.35134628,-0.32032743,-0.42429873,-0.39453462,-0.49764064,-0.471535,-0.016546438,0.45617133,-0.28681943,-0.46065766,-0.36969912,-0.44631,-0.3640691,-0.43249503,-0.37877393,-0.3927405,-0.40911818,-0.15426545,0.49492285,-0.401218,-0.5344671,-0.47458765,-0.52537054,-0.4558063,-0.37542218,-0.37504056,-0.41757393,-0.39033118,0.17544541,-0.036610465,-0.060148608,-0.5565549,-0.43600094,-0.4909658,-0.37239733,-0.39170393,-0.41405985,-0.365091,-0.33531588,-0.4671766,-0.5335273,-0.25913936,-0.46286193,-0.46603468,-0.412046,-0.47434807,-0.404757,-0.33698,-0.19227184,-0.1964724,-0.20151769,-1.185275,-0.7494086,-0.561382,-0.3229158,0.10032306,0.20343421,0.3506764,0.056936927,0.2049191,0.20148425,-1.2244165,0.9980234,-1.1432426,-0.8486563,-0.43555224,-0.35000923,0.5433078,0.3414249,0.38009784,0.5811769,-1.2543842,1.00538,1.2890592,0.002426576,-0.124009915,-0.11253685,-0.040494096,-0.049379174,0.022247754,0.0293745,0.051450696,0.03838106,-0.109954424,-0.015147068,-0.106730014,-0.14571558,-0.11272499,-0.09419471,-0.020198783,-0.027171453,0.03226108,0.031090735,0.014241826,-0.0261724,-0.0048166,-0.123198606,-0.12645116,-0.1426371,-0.102501035,-0.094382085,-0.0506991,-0.0071122367,-0.029579122,-0.015036836,-0.034471348,-0.07583769,-0.12647039,-0.1251466,-0.101585075,-0.08709899,-0.090586975,-0.06352753,-0.044234615,-0.07021176,-0.08982076,-0.12298013,-0.054064352,-0.10660384,-0.11851627,-0.08034176,-0.10744205,-0.07914497,-0.077501826,-0.06676529,-0.05678327,-0.055166397,-0.12600373,-0.12463763,-0.08819653,-0.09173544,-0.06811621,-0.0564836,-0.0625115,0.037425775,-0.057855424,-0.08363582,-0.066962436,-0.1075031,-0.11325166,-0.0349448,-0.059087947,-0.028758317,-0.0605001,-0.065133296,-0.05542204,-0.072841965,-0.07229452,-0.08206463,-0.11345745,-0.063576974,-0.016703889,0.06234724,0.010813426,-0.009615659,-0.023230325,-0.052583598,-0.0762769,-0.0667577,-0.09516708,-0.09207747,-0.090575375,0.054587416,0.17869675,0.08768598,0.025204755,-0.0346444,-0.07528653,-0.098814964,-0.08775926,-0.12026796,-0.12200613,-0.081088856,0.13043094,0.31858867,0.119764805,0.0062231235,-0.03858577,-0.07885092,-0.14139353,-0.14914472,-0.17950413,-0.16938232,-0.16773558,0.04505793,0.06805014,-0.008097713,-0.054021355,-0.09058805,-0.11483748,-0.11714801,-0.121167235,-0.15516353,-0.095500946,0.04257945,0.0022639025,0.08666554,0.11139584,0.031908445,0.023596682,0.08922311,0.03861406,0.09700365,0.074671976,0.035570428,0.0066273906,0.06271484,0.07076164,0.011452615,0.03990474,0.047056638,0.07757192,0.046942767,0.056532923,0.038874898,0.08992301,0.01226967,0.055906445,0.042876776,0.037932955,0.016278228,0.018196227,0.03997475,0.038375244,-0.0026702092,0.0055987393,-0.046917442,-0.04144976,0.07348079,0.0075141233,0.00049826404,0.019207507,0.043173224,0.026949754,0.0064989785,0.009851771,0.017073559,0.007511156,-0.002194041,0.033387505,0.034171708,0.025506375,0.045166347,0.026262082,0.0419668,0.028375879,0.042496417,0.043208625,0.047854166,0.006022034,0.031204809,0.028104827,0.027781537,0.060721662,0.05067661,0.04334348,0.06487837,0.022040773,0.06624654,0.025151633,0.023327833,0.0029609755,0.02456623,0.030844502,0.020468736,0.044827763,0.05980131,0.03820205,0.046449788,0.07017112,0.0625544,0.051707745,-0.024626266,-0.010100637,0.020070791,0.029035047,-0.0018182378,0.034235828,0.03464555,0.018199105,0.07005507,0.05440262,0.017183576,-0.064626314,-0.017494231,0.0043070586,-0.0044222414,0.015449541,0.009609929,0.015046146,0.085130885,0.096099906,0.087919585,0.15842222,-0.06333987,-0.07362791,-0.07724934,-0.04173181,-0.05013939,-0.00030440296,-0.009645278,-0.00021742319,0.05379656,0.08773842,-0.033023097,-0.041564524,-0.026258191,-0.15862492,-0.066367306,-0.050586898,-0.038876366,-0.025838735,0.09829341,0.0864092,0.09258675,0.023411598,-0.16181038,0.92329305,0.42601687,0.28872892,-0.33277848,-0.17724627,-0.70463437,-0.69751155,-0.95798445,0.95354265,-0.15819976,0.93957627,0.5820637,0.5098047,0.3794739,0.3724671,0.15641603,0.0806769,-0.26058775,-1.3532218,-0.03493465,0.9475725,0.3959523,0.42324015,0.5119321,0.46121114,0.35790366,0.19806096,0.13729559,0.07734745,-0.01019787,0.38863358,-0.38682196,0.39976963,0.38645488,0.37414387,0.3800101,0.13001296,0.14037466,0.17130363,0.16870502,0.033282384,0.43938425,0.44995546,0.2337274,0.3368305,0.37332708,0.31920344,0.12880416,0.0777377,0.17111322,0.114470266,0.016114458,0.26877326,0.35403883,0.0736957,0.016188987,-0.051349353,0.030616364,0.13934967,0.06487169,0.12347812,0.14548714,0.15203829,0.20906952,0.53952163,-0.31202582,-0.27305347,-0.26737645,-0.15493575,-0.021115622,-0.00894172,0.02252748,0.22059768,0.41291675,0.28347054,0.7731254,-0.55804455,-0.4317402,-0.3297333,-0.16314359,-0.14009689,-0.03134891,0.25030023,0.12660229,0.2858557,0.19640903,0.040977214,-1.4107393,-1.2583882,-0.39856339,-0.33995005,-0.07514345,-0.05639351,0.0031670956,0.26356626,0.5432382,0.49604028,0.1912683,1.0908742,1.3316644,-1.4550818,-0.6557201,-0.35926142,-0.077325426,0.29898018,0.30956203,0.56756777,0.39612517,0.892334,-0.16158184,1.0865985,-1.4089769,-0.7529458,-0.23644283,0.13972479,0.376571,0.47090563,0.5226442,0.96561086,-0.11145707,1.2946665,0.045036785,-0.016647356,-0.021584753,-0.6418934,-0.03910474,-0.01763347,0.014568553,0.013659551,0.014604619,0.07959162,0.0127104325,-0.008731751,-0.043402802,-0.119110905,-0.00859001,-0.02856887,-0.0356085,0.048770808,0.03174017,0.0012079522,-0.11340699,-0.57155764,0.061360914,0.036947843,0.07268645,0.028489657,0.028955739,-0.03155152,0.019788567,0.006127316,-0.023441186,-0.10624001,-0.5369383,0.023527578,0.059156746,0.03596446,0.024040567,0.015150908,-0.03668729,-0.027274318,-0.020359535,-0.048258968,-0.11325841,-0.44040257,0.015236592,0.109066285,0.047304276,0.021052925,0.022833453,-0.03874893,0.050393246,-0.001129596,-0.018575948,-0.016874088,-0.9168901,0.013973902,0.04795992,-0.010382422,-0.029771836,0.017841406,-0.023271086,0.04553685,0.010747479,-0.024963077,-0.032549065,-0.23459409,0.0010188408,0.03769561,0.037826125,-0.019169128,0.017076178,0.0010328359,0.0039837398,0.01214377,0.017880416,-0.029066628,-0.2570577,0.030266935,-0.019322785,0.042306237,0.03360097,0.00013994698,-0.009182385,0.043737717,0.024029274,0.011674963,-0.007622959,-0.53511614,0.014861517,0.049196113,0.059497952,0.04947623,0.068982996,0.05980851,0.052423403,0.036036335,0.017840102,-0.053300746,-0.43804666,-0.23581243,-0.0030133817,0.061090514,0.07584177,0.040610418,0.08856968,0.079975754,0.015664576,0.0398479,-0.012154077,-0.23128639,0.01730017,-1.8854265,0.036596324,0.06300039,0.05532231,0.05459528,0.04682708,0.050053783,0.04645829,0.0058197128,-0.046113487,-0.027000282,-0.02138073,-0.08417749,-0.08071223,-0.08888419,-0.01448741,-0.030548556,-0.07668381,-0.05700041,-0.18695654,-0.041105784,-0.021608954,0.012534606,-0.0132351825,-0.093179405,-0.06171581,-0.05630217,-0.08581118,0.067555405,0.024935693,0.081910744,0.026379421,-0.048657104,0.005957448,-0.008688752,-0.04076916,-0.02403037,-0.022766663,-0.06532991,0.054014485,0.06691762,0.12889932,-0.026346592,-0.11220986,-0.04700472,-0.004362447,-0.055267133,-0.04659184,-0.061154976,-0.025975723,0.009613505,0.031727314,0.00045061612,-0.054469932,-0.03451759,-0.031624053,-0.038812634,-0.047427095,-0.05365166,-0.05974032,-0.058667395,0.01171101,-0.010993886,-0.0061026006,-0.023908071,-0.020020843,-0.057009906,-0.02256967,-0.06881062,-0.06353422,-0.018119136,-0.039981842,-0.018288938,-0.09639929,-0.014840921,-0.08076704,-0.07739077,-0.034908928,-0.057027116,-0.07203004,-0.061593145,0.017930059,-0.080509335,-0.046033353,-0.026725788,-0.06183996,0.046723068,-0.03937743,-0.047830652,-0.08266096,-0.08197063,-0.034560487,-0.052789178,-0.044947088,-0.016606707,-0.050840694,-0.06359882,-0.21221986,-0.04130786,-0.038179763,-0.056846246,-0.03893778,-0.03851746,-0.051082004,-0.03233664,-0.0492677,-0.093803294,-0.13216516,-0.08949553,-0.023601819,-0.013697356,-0.075079784,-0.060274284,-0.041516423,-0.07229515,-0.03262297,0.005288207,-0.013528553,-0.046547703,-0.116930865,0.012224761,-0.2976197,-0.069926076,0.031348627,-0.042127386,-0.045739666,-0.04796748,-0.080597304,-0.027697481,-0.14110003,-0.021304045,0.5115988,1.1870282,0.8177431,-0.13068981,0.5696161,-0.0067411507,-0.31236327,-0.22874705,-0.2765828,1.20488,0.6020621,1.1523392,3.0092528,-0.16988468,-0.7917793,-0.004760853,0.08138231,0.076697305,0.035499178,0.68316364,1.3573718,1.243638,-0.39619422,-0.37538344,-0.3410322,-0.087318726,-0.10853147,-0.010145084,-0.014577992,0.13839947,0.35816762,0.5100478,1.2498026,-0.93122727,-0.5331492,-0.3656116,-0.15669042,-0.11626191,-0.037134584,0.122691244,0.2634879,0.41108668,0.567801,1.7069019,-0.85344636,-0.7586085,-0.19801885,-0.06432396,-0.010848848,-0.04633051,0.013915555,0.17653176,0.35564014,0.44643524,0.70685196,-0.52277315,-0.6349247,-0.30117702,-0.1987302,-0.08135907,-0.010130626,0.023232907,0.12600419,0.2466438,0.44689927,0.61732143,-0.48549154,-0.62517583,-0.16768561,-0.12995847,-0.12789112,-0.016576428,0.024412584,0.15372959,0.12972587,0.21269797,0.65097034,-0.26305395,-0.4067098,-0.49340126,-0.27700633,-0.17041618,-0.08794115,-0.071584865,0.12497117,0.17797011,0.22729334,0.5743244,-0.20400886,-0.45957178,-1.060643,-0.8011848,-0.60777444,-0.4133233,-0.62927526,-0.16937436,0.0146363,0.25413442,0.5960813,0.97685426,0.66920453,-0.53817236,-0.58650035,-0.9918706,-0.48696646,-0.5359227,-0.49926344,-0.053197883,0.26775056,1.203454,0.58426344,1.2918274,1.5276512,-0.5919196,-1.00753,-1.0758226,-1.186664,-0.99986565,-0.89682263,1.1412196,0.49055806,-1.8623044,-0.04843907,0.013751887,0.003131127,-0.062565945,0.017326605,0.014082515,0.01564826,0.024958562,0.010662814,0.00571014,-0.00642644,-0.08765429,0.04280285,0.03981847,-0.019227041,0.04082033,0.027017731,0.035254877,0.01339026,0.049720943,0.0031167772,-0.03311356,0.003671181,-0.009003118,0.009722419,0.0148829045,-0.019545965,-0.033044215,-0.0019559797,-0.002437484,-0.01269291,-0.026171919,-0.029729,-0.047552284,-0.024687953,0.0008084463,-0.023436187,-0.04430362,-0.028004078,-0.0623646,-0.04580815,-0.07903768,-0.04189214,-0.032850273,-0.017190944,-0.043984514,-0.03180421,-0.066649646,-0.061294366,-0.05850137,-0.070123434,-0.043656636,-0.020097988,-0.0658432,-0.0678472,-0.039579667,-0.016104534,-0.018759005,-0.03144441,-0.066348664,0.047265492,-0.036035854,-0.081569955,-0.076607816,-0.004045154,-0.09512304,-0.082323946,-0.07775342,-0.021706412,-0.09139831,-0.09680151,-0.047266085,-0.075918615,-0.054010134,-0.08407628,-0.078603424,-0.018859595,-0.13407691,-0.113192394,-0.06593456,-0.08121476,-0.07356962,-0.07077669,-0.09091708,-0.07464533,-0.08399476,0.04106295,-0.06549985,-0.19186378,-0.30366114,-0.120704055,-0.087200336,-0.09855638,-0.09171713,-0.12775356,-0.09686367,-0.11605626,-0.057388492,0.009109355,-0.27123156,-0.3947695,-0.264514,-0.19155873,-0.15607426,-0.12432326,-0.18303287,-0.17424788,-0.19662651,-0.10246994,-0.10895364,-0.03422293,-0.23174852,-0.18908824,-0.14028089,-0.13715716,-0.15059772,-0.15344715,-0.1538391,-0.1451434,-0.03633415,-0.04636914,0.004664242,0.013634088,-0.07754173,-0.08474996,-0.009051906,-0.034018856,-0.00679044,-0.01818152,-0.086242236,-0.0029046969,-0.0064856736,-0.028910337,-0.040136196,-0.034672312,-0.02181343,0.014780847,0.0132478895,-0.03843665,-0.003868198,-0.052428953,-0.08126633,-0.07081576,-0.06727844,-0.07757163,-0.052845843,-0.052423153,-0.029211413,-0.028250562,-0.01100143,-0.056427605,-0.0638289,-0.06186745,-0.053043608,-0.060753535,-0.04380539,-0.049920533,-0.029594427,-0.035981286,-0.078098014,-0.04545351,0.0020271856,-0.042131744,-0.09299167,-0.04964195,-0.056082338,0.0049930145,-0.012441755,-0.013969311,-0.012727025,0.01281597,-0.0038594136,-0.02182897,-0.010779961,-0.045044594,-0.009252777,-0.0063287,-0.0055358587,0.002064317,0.015007475,0.025344834,-0.023446564,0.017741019,0.00901617,-0.024894774,-0.010784218,-0.051945776,-0.0012725568,-0.0008872085,-0.019047868,0.010996265,-0.006399113,0.03836822,-0.02549599,0.022973139,-0.006078629,0.018263284,-0.049917124,0.005627121,-0.004819934,0.039390642,0.03911706,0.027354531,-0.0002480166,-0.017527377,-0.016952889,0.027912252,0.039703343,-0.050634712,0.086473115,0.064202875,0.07556925,0.078371175,0.022885066,-0.0060206265,0.024629086,0.00954662,0.020556374,-0.01600826,-0.02973842,0.08974281,0.09231293,0.069739476,0.040291283,0.038119968,0.0371952,0.021571264,-0.0031235346,-0.017829515,-0.0041099447,-0.019980697,-0.011742608,0.057131805,0.103441246,0.07282056,0.014355107,0.019952504,-0.02306671,0.015526343,-0.030264786,0.036807608,0.0017053388,-0.1029314,0.9608846,-0.62809557,-0.6869376,-0.6777307,-0.83901936,-0.8094112,-0.82396305,-1.1061621,0.88531387,-0.16107145,0.9623578,-1.3605894,-0.76502186,-0.68922406,-0.63981134,-0.9710432,-1.2047493,-1.0719452,-1.0567597,-1.1706475,0.90320784,-1.140925,-0.7769398,-0.82872576,-0.6243431,-0.4919187,-1.0580453,-0.45553163,-0.41884723,-0.27873647,-0.3499216,-0.6079559,-0.90904206,-0.34856513,-0.40489376,-0.506805,-0.48744926,-0.16322738,-0.32106918,-0.3968864,-0.30123496,-0.28575674,-0.17946576,-0.96270674,-0.46715036,-0.29821527,-0.4851089,-0.24516964,-0.14102148,-0.26690665,-0.27430978,-0.26161337,-0.12770207,0.11454342,-0.37564433,-0.31169713,-0.2881424,-0.13194424,-0.082910255,-0.09151025,-0.18454681,-0.14237596,-0.22860172,-0.3180987,-0.16864462,0.19949852,0.20552011,-0.09287587,-0.14144662,-0.14436994,-0.041077495,-0.03777332,-0.16552913,-0.15868197,-0.095257744,0.12485358,0.29291454,0.35807422,0.14778484,0.017493524,-0.099537775,-0.06095213,-0.044741716,-0.18952577,-0.15320612,-0.100075245,-1.0589763,1.0765343,0.7079954,0.68564534,0.35546434,0.20060244,-0.039949235,0.022297168,-0.16610928,-0.177115,-0.1562937,0.19551177,1.0352707,1.0836015,0.8983587,0.6543951,0.52154905,0.50725925,0.69656307,0.32475644,0.15366471,0.05099842,0.951865,-0.0982253,0.98909014,1.1739302,0.9595888,1.0035161,1.2052178,1.0880095,1.1805562,1.0040324,0.90649223,-0.10913926,1.1503457,-0.018275406,0.7565028,0.06814835,-0.031105153,-0.018943768,-0.009755228,-0.021296132,0.02035998,0.021376409,0.006924483,-0.04195471,0.008633042,-0.077379845,0.04541155,-0.046206396,-0.060477458,-0.045996558,-0.031423766,-0.076109014,-0.06511934,-0.077949,-0.107571416,0.08151133,0.06733326,0.068462186,-0.013668252,0.0030800481,-0.03052858,-0.03891828,-0.009708116,0.027197365,-0.014538564,-0.017393872,0.056080148,0.10388676,0.06435218,-0.013883983,0.018119065,-0.044909954,-0.027605997,0.012141237,0.059094742,0.06871395,0.0038240913,0.03688247,0.09483835,0.0123364,0.052600168,0.014418891,-0.046117365,0.008445622,-0.015126042,0.01786499,0.10658914,0.047047157,0.021340342,0.006001759,0.0581502,0.035718102,-0.015430625,0.048814066,-0.009676155,0.026418444,0.013040987,-0.0039440477,-0.047411606,0.021802336,-0.022918036,0.010531392,0.009496083,-0.005992992,0.03765449,-0.01166666,0.024836414,0.030377708,-0.009927537,-0.09620746,0.07494844,0.013559957,0.0027067203,0.001239129,0.01945544,-0.035585083,0.03403086,0.006053051,0.05987948,0.022408165,-0.1616625,0.050183274,0.06706038,0.016217805,-0.019872682,-0.018907439,0.019179381,-0.007028367,0.012276404,0.053168304,-0.026903573,-0.07495373,0.6497537,-0.05043213,0.024878407,-0.035372306,-0.018728187,-0.017896373,0.041024927,-0.05203913,0.10570622,0.062451307,-0.026888553,0.002409156,0.65906566,-0.015023203,0.02179828,-0.009554627,-0.023085713,0.01760779,0.032279868,0.009539248,-0.0061241607,0.029924564,0.0051344363,0.085000575,0.05352776,0.0062104845,0.024327246,0.017723909,0.023966035,-0.054879744,0.007155231,0.120831065,0.011043583,0.20765083,0.132468,0.06513855,-0.058116153,0.026169013,-0.004755154,0.027473971,-0.073134586,-0.034943607,-0.020537864,0.07660145,0.10991759,0.056876775,0.017292263,-0.010794504,0.010876916,-0.012221681,0.061667822,0.056742046,0.008742323,0.018347507,0.18127462,-0.0066859117,0.048105873,-0.02611605,-0.004548874,-0.005727333,0.028618732,0.031970512,0.057183202,0.0021557326,0.045509737,0.15418887,-0.0011388699,0.040923078,-0.010034323,0.027375033,0.039911393,0.034761917,0.013754173,0.011482317,0.012105256,0.043342855,0.04925087,-0.016203761,0.015872898,-0.011535403,0.023747697,-0.01842653,-0.026764967,0.0016852834,0.024194494,0.029051986,0.08426537,-0.007315796,-0.04534597,-0.01505194,-0.0178626,0.022748454,0.020096144,-0.022189846,0.03443491,0.002180231,-0.031247271,0.051676307,0.023239676,0.02794845,0.06960926,-0.0020606522,-0.0046301433,0.03968271,0.031024149,0.016976558,0.042862657,0.09301982,0.055819053,0.007032107,0.09571889,0.11200412,0.05349023,0.004502342,-0.023770962,-0.032065433,-0.001367721,-0.004085375,0.010906252,0.040092904,0.051132075,0.13745652,0.11380835,0.023088045,0.04862418,0.07589557,0.08777826,0.0057480354,-0.035348196,0.057248607,0.08537301,0.027973179,-0.02801778,0.2900497,0.04728689,0.066494435,0.045275427,0.05601557,0.04265505,-0.07388296,-0.061591573,-0.05091198,0.014161367,0.46541423,0.41639385,-1.4623246,0.11861916,0.6043083,0.22758418,-0.02917526,0.08939988,0.12134652,0.41764835,0.5282893,0.3807564,0.9813169,0.19735318,0.25587842,0.3108695,0.24869303,0.36026683,0.11427283,0.11729956,0.11293377,0.3851128,-0.61292535,0.45221174,0.47935152,0.37538633,0.49496248,0.46371204,0.40311727,0.55200547,0.5159179,0.20167558,-0.09677934,-0.48939878,0.1580662,0.5988342,0.47257575,0.54625815,0.5430647,0.43284604,0.5995172,0.45401236,0.26526037,-0.549208,-0.5041719,0.020310767,0.48984334,0.44612473,0.6103051,0.59192675,0.4968992,0.61445177,0.6002352,0.421308,-0.37439674,-0.43009102,0.02500026,0.71681637,0.5307661,0.6337643,0.59769607,0.5336807,0.62139267,0.46979338,0.65209997,0.04122297,-0.12110698,0.17712556,0.6958803,0.7518451,0.6646632,0.64493734,0.5199841,0.69577295,0.6178087,0.822293,0.35923797,0.015971757,0.2597596,0.609619,0.70084566,0.66128737,0.6143831,0.6220041,0.6335799,0.61071944,0.5874413,0.10525317,-1.2238476,-0.080055155,0.5763915,0.6080174,0.549557,0.48497835,0.6520519,0.50027204,0.60477734,0.92206794,0.30095568,0.41308993,1.2092164,0.17766261,0.27681398,0.66163486,0.37502876,0.17832527,-0.2095578,-0.2512892,-0.070668705,0.41130108,0.5468636,0.3980924,-0.81444424,0.034449678,0.05813011,-0.4735781,-1.0424745,0.18985695,-1.3072641,0.41804573,0.5114613,-0.85972714,-0.017696878,-0.24447241,-0.10760705,-0.10177026,-0.11425749,-0.08062181,-0.009318299,0.046690386,-0.07421594,0.17565455,0.04908751,0.14596269,0.07123125,-0.124233924,-0.10760516,-0.069809265,-0.012830664,-0.048566017,-0.0033636773,0.0401693,-0.05784009,-0.24626982,0.088438846,0.12092494,0.016224511,0.044066288,0.058238,0.033880476,-0.021262662,0.022551548,-0.051929772,-0.12919427,-0.045741286,0.16208027,0.05254195,0.1309755,0.047680743,0.07246844,0.10113023,0.043978628,0.027417246,-0.0156353,-0.1601703,-0.12956655,0.11066084,0.10149016,0.14040598,0.049194664,0.061173618,0.035219572,0.059090655,0.06086668,-0.08655209,-0.11283514,-0.12766716,0.15999754,0.12048698,0.091467224,-0.0024402118,0.12359317,0.0380955,-0.05416463,0.12590289,-0.0439165,-0.18217398,-0.1470663,0.151636,0.06521649,0.065144315,0.09097108,0.108436175,-0.00028440144,-0.030006977,0.07159638,-0.107301585,-0.19793576,-0.23454721,0.14653437,0.19323954,0.05371579,0.040230285,0.09300123,-0.027425822,0.070053555,-0.019449737,-0.06447454,-0.29268178,0.07118331,0.2592582,0.121083885,0.08100241,-0.00045261043,0.006802983,-0.036364324,-0.083484605,-0.07306747,-0.026540145,0.0203473,0.106852226,0.51758975,0.19457291,0.08895296,0.10714953,-0.025475493,-0.06023099,-0.13447139,0.016015854,-0.091757774,-0.027834158,0.36797044,0.013168317,0.10538863,0.07938361,-0.013674114,0.027911175,-0.03937236,0.011234744,-0.037581343,-0.03449539,-0.010134791,0.049893804,-0.0070237806,0.039899614,0.12185325,0.22243309,0.27473864,0.09508653,0.01898373,0.0021858735,0.037469894,0.23729096,-0.024841294,-0.07632252,-0.034761455,0.10537051,0.118590534,0.12756374,0.11252572,0.15737277,0.22789001,0.122568645,0.13442661,0.16332074,0.030459147,0.05594587,0.1373798,0.17955352,0.26470354,0.16053028,0.05252282,0.060243033,0.14003512,0.16867976,0.20352884,0.14233834,0.12632072,0.10839644,0.09130654,0.20664027,0.17694867,0.11907022,0.18449,0.22442491,0.18142919,0.11378,0.080810934,0.061511148,0.09186164,0.077511735,0.1268544,0.09210273,0.13078779,0.21088937,0.20538403,0.17846936,0.09346617,0.031128667,0.08166445,0.08090576,0.15904056,0.17269528,-0.034367975,0.098753065,0.20581076,0.32026795,0.17714012,0.16938016,0.088005655,0.0860952,0.06851378,0.0900942,0.20050398,0.15947399,0.15880796,0.16424136,0.19315837,0.18211244,0.22483632,0.059963457,0.049827963,0.09150701,0.1414393,0.23905942,0.16186832,0.14555153,0.2665958,0.20652975,0.15894401,0.21907522,-0.022752194,-0.023602063,0.021449557,0.026368411,0.060515527,0.11690987,0.17732161,0.23160978,0.2653479,0.3232662,0.39384952,-0.04408527,-0.036324047,0.036002442,0.2126312,0.14871311,0.14722925,0.15799586,0.28643686,0.18341361,0.26215136,0.36288628,-0.014621133,0.14151132,-0.049607415,-0.0051226486,0.050893206,0.13893533,0.25151062,0.38380408,0.21806437,0.120620884,-0.022162525,-0.4480212,0.27490595,-0.49141598,-0.4303692,-0.45079088,-0.609422,-0.90330404,-0.80327284,-0.2241868,0.30829594,-0.4347085,0.32232723,-1.1909585,-0.3742443,-0.14071576,0.057737343,-0.16836722,-0.34525463,0.019777203,-0.46347958,-1.2107283,0.31790957,0.21040963,0.10985078,0.06294239,0.1991415,0.1786705,0.08823886,-0.14079112,-0.14288011,-0.3036557,-0.46799076,-0.98636746,-0.11267138,-0.16019906,0.07592342,0.039704513,0.19148499,0.09479062,0.08415547,-0.13618685,0.13319473,-0.7692758,-0.7590439,-0.11433696,-0.010340411,0.13175017,0.10212975,0.11019174,0.19547138,0.17168656,0.23268878,0.26541975,-0.703694,-0.54575884,0.0052083535,-0.12477119,-0.031353123,-0.033715956,0.065858,-0.013964466,0.04547694,0.13099192,0.05711999,-0.69706166,-0.779396,0.062497564,-0.0052009784,-0.024029301,0.1420274,0.09810848,0.11696994,0.08172071,0.20052494,0.09552346,-0.79599506,-0.83331007,0.13955754,0.01367684,0.039376587,0.074008316,0.12204093,0.07320103,0.10586877,0.13433485,0.16286369,-0.40488237,-0.82598025,-0.040498912,-0.09809554,-0.07133985,-0.05869469,-0.07336249,-0.1665824,-0.07498721,-0.12319104,-0.18126264,-0.04713081,0.066446304,0.2745508,-0.26923513,0.098474875,-0.051681213,-0.26667944,-0.5076837,-0.67862797,-0.5035837,0.0545902,0.25830874,0.32138398,-0.46449158,0.27750403,-0.5496454,-0.053475905,-1.1317309,-0.773867,-0.9270899,-0.67342526,-0.9083638,0.34568322,-0.4605623,1.2762924,0.039260928,0.2737426,-0.047740024,0.073224686,-0.015253548,-0.014271224,0.015103453,-0.009044301,0.017489241,-0.06210102,-0.003659296,0.0714638,-0.08130162,-0.010233416,-0.01756486,-0.006156558,0.040273264,-0.010935656,-0.014977293,0.0022236963,0.120743066,-0.06309376,0.10143352,0.017739708,-0.0027561542,-0.060600508,-0.0026115472,-0.032859292,-0.010398983,0.02008363,-0.0023272198,0.06370176,-0.024571978,0.1389376,0.043220267,0.029273095,0.02965426,-0.007520751,0.07790654,0.057985887,0.02281397,-0.0021940344,0.004192078,0.033371557,0.14518039,0.0014852758,0.06342528,0.10568552,0.056219645,-0.006323453,0.011975985,0.060181852,-0.04777252,-0.02618223,0.005837647,0.14516425,0.039483264,0.041237142,0.029223107,-0.0016167394,0.020908006,-0.0436572,0.0390574,0.022146912,0.04462247,-0.016354343,0.07670538,0.07967186,0.07528086,0.06988421,0.038339674,0.04241683,0.008459715,0.05270538,-0.009940046,0.039678812,-0.100764476,0.14043897,0.002169672,0.069302626,0.07574755,0.088788584,0.037155084,0.03770173,0.022642944,0.0046865125,-0.028905524,0.023350408,0.08537236,-0.04861435,0.066566765,0.01504775,0.010947528,0.027067421,-0.070530176,0.036673278,0.030936489,0.059820704,0.06586634,-0.006439887,-0.19474405,-0.02260898,-0.11108253,-0.0734444,-0.072839804,-0.050909087,-0.008709194,-0.031476386,0.02679317,0.018300889,0.024187364,0.14337078,0.017147738,0.029737735,0.041660614,0.016563457,0.046119623,0.0836584,0.08399215,0.14336644,-0.020205194,0.037649713,-0.2676635,-0.23649062,-0.21689937,-0.18157257,-0.2332662,-0.13512136,-0.14714375,-0.22768646,-0.42831713,0.02658819,-0.16704282,-0.23031342,-0.16409177,-0.1587821,-0.20153473,-0.17303096,-0.18002373,-0.11262838,-0.21161984,-0.2305238,-0.18793526,-0.21838328,-0.20171508,-0.12080666,-0.13617554,-0.09381471,-0.13677809,-0.13589483,-0.15450937,-0.18973272,-0.2003077,-0.25046638,-0.21245863,-0.23060092,-0.21222512,-0.17419668,-0.13493545,-0.12235088,-0.13146548,-0.108740985,-0.17612106,-0.22128835,-0.26775044,-0.22919607,-0.2599173,-0.19321555,-0.1330572,-0.124200895,-0.1076684,-0.1346625,-0.17324491,-0.19404317,-0.18148237,-0.14264145,-0.27381057,-0.25201917,-0.15726459,-0.13225769,-0.19807048,-0.008819419,-0.18526684,-0.16205725,-0.19122882,-0.14783728,-0.27190396,-0.21424711,-0.21457547,-0.16647956,-0.17799835,-0.17226663,-0.053355433,-0.16914348,-0.14379665,-0.14614229,-0.18295886,-0.1881684,-0.273745,-0.22065023,-0.20962408,-0.17163831,-0.20555755,-0.105406195,-0.20683531,-0.20919833,-0.17335065,-0.1588822,-0.24993569,-0.29083934,-0.35998514,-0.26904646,-0.19007306,-0.24153943,-0.25874063,-0.17744735,-0.21158934,-0.2671429,-0.097931266,-0.13654757,-0.2213756,-0.22390425,-0.25445783,-0.26214898,-0.15477414,-0.28981245,-0.23545551,-0.22713766,-0.26353124,-0.1607585,-0.15925209,-0.048132736,-0.19354689,-0.21451874,-0.2438656,-0.23965062,-0.19622742,-0.17475522,-0.1886586,-0.20973815,-0.20755678,0.018094424,0.732398,-0.82587504,0.1354436,-0.040767923,-0.3515704,-0.095854044,0.095685564,0.05041208,0.42409548,-0.9142857,0.7054491,-0.9449177,-0.41104785,-0.11474276,-0.14512776,-0.23960616,-0.23838542,-0.19027266,-0.19469249,0.121504925,0.94451267,-0.91038644,0.078588866,-0.37892547,-0.13817663,-0.31447223,-0.19625849,-0.25828514,-0.32042846,-0.12965749,-0.2151273,0.22688723,-0.16279215,-0.61449075,-1.0628074,-0.43054605,-0.43424907,-0.4975577,-0.46686342,-0.4320428,-0.43428427,-0.26426795,-0.20465651,-0.09752385,-0.8623787,-0.88407713,-0.763159,-0.6306383,-0.41822523,-0.33160293,-0.22985384,-0.50971854,-0.33329988,-0.21997006,-0.02451787,-0.55071884,-0.43034682,-0.38657653,-0.54322284,-0.42388675,-0.39678493,-0.50670916,-0.35616904,-0.40814206,-0.13588487,-0.2719181,-0.71136606,-0.84435713,-0.5473812,-0.51677275,-0.36091483,-0.40726966,-0.24417055,-0.3453432,-0.2333368,-0.15434086,0.055707276,-1.2764028,-0.79965526,-0.4698066,-0.3222332,-0.34226125,-0.45443946,-0.39362916,-0.33660325,-0.20905738,-0.020578085,0.21721813,0.06979089,-0.53976613,-0.032862272,-0.29309416,-0.5064889,-0.24278788,-0.29416853,-0.23005886,-0.20718291,-0.21221165,-0.29553285,-0.9955983,0.00889212,-0.49731174,-0.17727762,-0.3502336,-0.17964318,0.2853044,0.15705463,-0.15654393,-0.44735453,-0.96958935,0.7457086,-0.86094064,-0.003744133,0.50432414,0.19348547,-0.07331393,-0.13589934,-0.10238429,-0.12592013,-0.8696995,0.71499354,1.0260183,0.030767405,-0.40043452,-0.18815589,-0.095684245,0.0062279184,-0.027310655,-0.016654849,-0.01297587,0.042227425,0.07287729,-0.045265004,-0.20685963,-0.35207078,-0.19096102,-0.016348168,0.047019225,0.021638846,0.021064678,0.043773066,0.06255938,0.097655624,0.083008595,-0.15680301,-0.2521406,-0.16990747,-0.06877505,-0.0057121636,0.004167014,-0.01200211,0.045905855,0.01612488,0.070965365,0.056228925,-0.06987372,-0.11978295,-0.059077572,-0.04084681,-0.042607002,0.007649007,-0.0004306745,0.009626614,0.024295371,0.05563486,0.015894338,-0.082645915,-0.033900823,-0.028384408,-0.027510686,-0.021806082,-0.03072222,-0.01239527,0.0033749118,0.009892506,0.062126353,0.04475693,-0.024365788,-0.04465051,-0.027550144,-0.038400322,-0.001114582,-0.034263898,-0.013428823,0.03025301,0.0016510431,0.04867692,0.040467728,-0.040616296,-0.002931913,-0.02021954,0.009160507,-0.027243571,-0.044241123,0.0092343185,-0.027682135,0.013306702,0.06362202,0.018866165,-0.03802492,-0.08865679,-0.055157278,-0.10799492,-0.05396166,0.0011322605,-0.023388095,0.020769736,0.0024914627,0.09768527,0.019144975,-0.09122009,-0.11206099,-0.094227254,-0.10152691,-0.053666305,-0.04430688,-0.059738606,0.014161872,-0.010715878,-0.014113519,0.050114375,-0.110333905,-0.1130837,-0.17929922,-0.092628166,-0.062941276,-0.034260537,0.00025332428,0.037520453,-0.011832707,0.036079537,0.039137,-0.0015382103,-0.028929258,-0.116580695,-0.060288362,-0.04195583,-0.042669,-0.02401742,-0.013518742,-0.017905086,0.109429196,-0.012176168,-0.009635342,0.10879237,0.18656614,0.12956852,0.097667225,0.06881995,0.082083054,-0.0073894165,0.0030453065,-0.09032261,-0.012399394,0.07137956,0.14891253,0.17872624,0.06467403,0.11437942,0.03890115,0.01582224,0.025488885,-0.017011764,-0.05623183,-0.14681385,0.113518216,0.16817898,0.13554668,0.10371344,0.09478411,0.01211973,0.008177395,-0.024680706,-0.018491749,-0.07305569,-0.09985941,0.1345879,0.07005672,0.059531335,0.08945373,0.0701491,0.012049836,-0.0027595034,0.025813585,0.015627053,0.011167904,-0.0086567765,0.09169892,0.10952513,0.06945922,0.03948761,0.004349761,0.05115445,0.011970611,-0.024243463,0.003949811,-0.030100519,0.06295003,0.05732991,0.055273972,0.069205046,-0.018976752,-0.00460167,-0.050415073,-0.007473901,0.021589369,-0.05926811,-0.05129782,-0.0023843602,0.053560603,0.04331547,0.031114642,0.038964894,0.016240587,0.010651383,0.027292896,0.0016477521,-0.02791937,-0.025795724,-0.010876167,0.06955372,0.07618049,0.055645894,0.026745576,0.051358066,0.04732332,0.07589724,0.026986709,0.015401565,-0.007872138,-0.050794087,0.10711052,0.052133437,0.06264882,0.033442173,0.025124654,0.027987571,0.038323075,0.03245105,-0.06159344,-0.053513743,-0.012286313,0.015540456,0.07363798,0.06391637,0.06037581,0.042317495,0.012823158,0.041575056,-0.039304517,-0.0506448,-0.058877878,-0.02202011,0.024079967,0.063806236,0.13195217,0.13399678,0.03635876,0.022240685,0.049971886,0.004268426,-0.09446417,0.006837461,-0.023658823,0.48543492,1.2244921,1.3472241,0.55388755,0.5881031,-0.12580341,-0.15787008,-1.2455099,-1.2605251,1.328598,0.42073357,1.2374759,1.4706788,1.092571,0.66559416,0.2975717,0.008032782,-0.13832773,-0.74302,-0.8304809,1.9482934,1.2448635,1.3606895,1.2699854,0.69150484,0.3793747,0.09005763,-0.08376358,-0.20100708,-0.6709183,-0.3914713,-0.27573538,-0.71837914,1.0859083,0.47219908,0.36763987,0.26570037,0.086932644,-0.075167075,-0.078289464,-0.24002488,-0.6088756,-0.64683306,-0.45603168,0.70406693,0.4475213,0.15116496,0.18160887,-0.22414729,-0.11089504,-0.115653545,-0.50043094,-0.42631564,-0.5167137,-0.09545869,0.5367092,0.22280572,0.033317845,0.00507986,-0.1501037,-0.22241679,-0.46956235,-0.5926806,-0.5999683,-0.7259366,0.10793602,0.16460319,0.3296621,0.16341645,0.004268545,0.017236412,-0.036539767,-0.1155793,-0.1703869,-0.26623914,-0.48979375,-0.19759758,1.0548837,0.8537012,0.20307684,-0.007562842,-0.42021942,-0.17357135,-0.17700653,-0.15441346,-0.28560314,-0.32919306,-0.6780224,0.7642385,1.2247839,1.095756,0.6751533,-0.057720087,-0.1972615,-0.294876,-0.2765913,-0.23432374,-0.6785574,0.035355974,1.2887752,1.3307898,1.1464959,1.1189125,0.7832012,0.6533897,0.72289467,0.18776937,-0.01639665,-0.33239806,1.3334934,0.48096818,1.2300205,0.7329023,0.93827295,0.55112106,0.6667904,0.6342798,0.15096056,0.27034193,1.3292063,0.544903,-1.4869664,-0.044112805,0.05292122,0.12320925,0.087962724,0.08325825,0.05624088,0.026289066,0.031721365,0.02336362,0.014919296,-0.02257874,0.10227082,0.15712984,0.17009178,0.070365645,0.0636118,0.06746805,0.042921938,0.050321475,0.044349,0.038244877,0.08121863,0.06862106,0.051904798,0.1348482,0.081259854,0.060797468,-0.011986372,0.031051558,0.060938958,0.03685037,0.071779914,0.023670206,0.029398166,0.038405504,0.023141654,0.052757025,0.052677024,0.014739655,-0.012349641,-0.0033233415,0.0041994685,-0.015667364,0.03283045,0.015335795,0.0646151,0.09849036,0.042427022,0.041269895,0.027986865,0.00752162,0.0072186445,0.014769098,0.006283794,0.004524417,0.01585269,0.041720625,0.028235339,0.010406813,-0.015307772,0.023822514,0.016097952,0.0073649725,0.009773853,0.024033383,-0.0103017185,0.049426656,0.010955737,0.007433722,0.0035045112,-0.024303537,-0.092529245,-0.04643482,-0.02155162,0.024054067,-0.0071425266,0.0219582,-0.0420509,-0.060215,-0.024488665,-0.055122532,-0.023299338,-0.018409094,-0.040274933,-0.03518022,0.014806322,0.07998383,-0.0076275873,-0.037324853,-0.14112307,-0.051800888,-0.07130704,-0.06882699,-0.0830921,-0.06337363,-0.08615461,-0.06847792,-0.0291601,0.028846363,-0.3778851,-2.8747315,-0.2128923,-0.18748386,-0.13761789,-0.12970252,-0.102283835,-0.09068671,-0.07944104,-0.053716257,-0.12486703,-0.03717367,-0.26296327,-0.024849406,-0.011679913,-0.036631595,-0.048260614,-0.052866958,-0.06960449,-0.037467897,0.005944839,-0.04779291,-0.009607725,-0.12104093,-0.12351424,-0.096652,-0.12156146,-0.020123852,-0.048114244,-0.056171753,-0.16540292,0.003412442,0.025980277,-0.057649486,-0.079047345,-0.09190539,-0.008452336,-0.04366946,0.026719416,-0.060552705,0.009935574,-0.045358833,-0.072001204,0.019796012,-0.08541402,-0.1159816,-0.022125298,-0.019507311,-0.09393948,-0.037494574,-0.08384242,-0.019982228,-0.00794198,-0.048179734,-0.06450102,-0.05940269,-0.042302463,-0.018994307,-0.027019914,-0.010852425,-0.05363935,-0.046052154,-0.022501443,-0.0672308,-0.03566597,-0.06832059,-0.047441486,-0.047590084,-0.04433032,-0.018579073,-0.0050268336,0.00999618,-0.011312779,-0.031305883,-0.035744075,-0.06469257,0.0032280104,-0.01642278,-0.03667711,-0.029115733,-0.02428591,-0.057737745,0.04442429,-0.039982323,-0.022026366,-0.06251125,-0.043524835,-0.09393863,-0.03810683,-0.036847133,-0.039251246,-0.057351865,-0.050184492,-0.037874926,-0.026233034,0.013738327,-0.030599194,-0.08117086,-0.07496301,0.02965484,0.008879927,0.035357885,-0.0134350965,-0.020015752,-0.03284918,-0.027925387,-0.017044563,-0.015587074,-0.013924262,-0.024181942,-0.049179316,-0.022582877,-0.01432833,-0.026544096,0.04223025,0.03921734,-0.008881286,0.055758536,0.002857917,-0.0524318,-0.0099878535,-0.07235591,0.03243185,0.08627482,0.039892543,0.042174574,-0.038852073,-0.019521946,0.018366724,0.039685536,-0.018502552,0.00049055164,0.0046525514,0.090670146,0.01050458,0.018245654,0.056489944,-0.010672893,-0.04224288,-0.08947777,-0.06443718,0.017565582,0.022782203,0.49283624,0.88370705,-1.3283123,-1.5084822,-1.3559277,-1.2801192,-1.1213856,-1.0709157,-0.7188873,0.9098794,0.5294602,0.8875238,-1.2492496,-0.9671798,-1.2474573,-1.1652669,-0.6239184,-0.61440855,-0.89506537,-0.3077492,-1.0892471,0.94636124,-1.097592,-1.3603755,-0.7191552,-0.54677534,-0.18997557,0.17429759,0.09242459,0.23660134,0.22561413,-0.01969209,-0.7481971,-0.7400868,0.2825565,-0.17615241,0.090635136,0.28466648,0.23046185,0.32494307,0.3091796,0.26789677,0.12608808,0.40227875,-0.8704826,-0.9997048,0.17177108,0.37502566,0.29950377,0.29771978,0.29881585,0.32928994,0.31070304,0.18945794,0.43222648,-0.7489918,0.29209724,0.40902352,0.4199641,0.38767788,0.37867692,0.34508762,0.36314905,0.35284948,0.31533498,0.21868922,0.06423579,0.41337714,0.50194865,0.47759312,0.5148873,0.4537201,0.4418255,0.47510633,0.31820995,0.38468114,0.31056136,0.3714799,0.684947,0.6843396,0.53643584,0.49991667,0.4572947,0.37073803,0.3543048,0.24134906,0.24426416,-0.52352834,0.77534866,2.3205423,1.0659146,0.72829795,0.6819376,0.62803966,0.5637119,0.439723,0.4398659,-0.11394273,0.2875242,1.0847734,0.91996133,2.2832267,1.340108,1.0120068,0.80319047,0.7960651,0.6815346,0.6417507,0.086181656,0.93432504,0.67463523,1.0160142,1.7896285,1.0606377,0.8438349,1.014227,0.867312,0.7226369,0.5768435,0.9791103,0.49375322,-2.9333215,-0.033537928,0.23948452,0.11852301,0.17609236,0.13351837,0.12434792,0.13152912,0.11810651,0.13648419,-0.0063172146,-0.019420138,0.12321748,0.057272,0.1263548,0.102671966,0.13844977,0.15722494,0.10510012,0.13882083,0.112491176,0.15516447,0.13182978,0.14080286,0.13293141,0.10430094,0.11475839,0.10040046,0.11611538,0.10673041,0.119107895,0.10800065,0.13097803,0.020836841,0.19854465,0.120843746,0.13960035,0.1486647,0.1410604,0.16828476,0.12697332,0.13919212,0.10682606,0.08387858,0.09957582,0.17510138,0.07486888,0.16813205,0.13965042,0.13672425,0.1428145,0.13725753,0.14314108,0.09320311,0.065699846,0.06998167,0.16580726,0.09939463,0.15439285,0.124685965,0.05621061,-0.035468712,0.01993273,0.14854644,0.13661511,0.117184244,0.011553535,0.14445473,0.10450938,0.13601185,0.14625491,0.11695911,0.0900227,0.100300394,0.15125374,0.10326301,0.15606833,0.0655618,0.17751177,0.1114283,0.13623515,0.17362209,0.14576977,0.120509386,0.13589232,0.1733764,0.1477968,0.14053015,0.092594355,0.16601518,0.10313336,0.16140859,0.15289736,0.12950402,0.15282007,0.105437115,0.15164718,0.170193,0.22962764,0.1503955,0.15497477,-0.0188422,0.08952123,0.071638145,0.06413532,0.064990416,0.0889613,0.102126494,0.11169884,0.19935097,0.13704771,-0.019726602,0.24805503,0.071980104,0.1100515,0.13017644,0.111205705,0.13298695,0.15275471,0.15743886,0.118931845,0.043412693,-0.041262135,-0.1865624,-0.18149425,-0.20420587,-0.18810138,-0.19591874,-0.18580359,-0.16565822,-0.21170239,-0.25214112,0.014818453,-0.05517685,-0.212338,-0.17760175,-0.16351786,-0.2008188,-0.07349942,-0.1737905,-0.124543235,-0.19264841,-0.19296476,-0.21085274,-0.20459022,-0.21259509,-0.15415093,-0.18671133,-0.17871515,-0.14857101,-0.13501321,-0.16096385,-0.18684332,-0.20024842,-0.1650737,-0.18599103,-0.22028932,-0.19528894,-0.17849539,-0.15422778,-0.13407251,-0.15933892,-0.12203359,-0.17594197,-0.14489584,-0.22445516,-0.24213906,-0.22219558,-0.17539757,-0.15545273,-0.14843003,-0.11458451,-0.15795153,-0.17623828,-0.18602856,-0.18782549,-0.20385572,-0.24986896,-0.22695926,-0.16090721,-0.1232986,-0.18988587,-0.039984543,-0.18233015,-0.1704819,-0.19598407,-0.14143215,-0.24329045,-0.21143618,-0.21584564,-0.20194025,-0.15865357,-0.15879461,-0.14376056,-0.17297532,-0.17480688,-0.18598314,-0.1771019,-0.19803111,-0.22796413,-0.19336577,-0.17916968,-0.15561108,-0.14778087,-0.17274396,-0.16663422,-0.2047767,-0.17587331,-0.21424726,-0.24778362,-0.27069175,-0.32721967,-0.21488275,-0.18554847,-0.2163993,-0.18829976,-0.16645274,-0.21332741,-0.23315373,-0.24242327,-0.21897538,-0.17672285,-0.26113665,-0.25579384,-0.18636945,-0.15779093,-0.23023477,-0.19770952,-0.24006185,-0.28350663,-0.2516177,-0.2519063,0.007048867,-0.1298059,-0.24614298,-0.23573688,-0.1752267,-0.18856497,-0.19811632,-0.28671485,-0.2829238,-0.1934648,-0.0037636547,-0.9876494,-0.867189,-0.7320356,-0.742739,-0.8436529,-0.64892286,-0.68796873,-0.7053301,-0.24461628,-0.8155498,-0.90877664,-0.91659063,-1.1286696,-0.09476253,-0.011264627,-0.009279168,-0.20619483,-0.14389859,-0.34964895,-0.47481528,-0.40442908,-0.91506517,-0.05008289,-0.15715216,-0.0003734813,-0.10770894,0.031488806,-0.043079656,-0.036292832,0.09812237,-0.05216784,0.046677426,-0.3937498,-0.1812646,-0.22024506,-0.10735254,-0.04538724,-0.103915185,-0.083602145,0.0008695687,0.057935406,0.0004868878,-0.038862273,-0.09898632,-0.7033594,-0.3881124,-0.28981647,-0.21052487,-0.05022452,-0.04906946,0.06313091,-0.10183772,-0.03418535,-0.08587388,-0.016404781,-0.5093962,-0.14085816,-0.069535606,-0.11959758,-0.015731717,-0.019744046,-0.1025766,-0.07750274,-0.20636117,-0.24902219,-0.49511462,-0.58866715,-0.42295322,-0.14974198,-0.127855,-0.024156773,-0.04759304,-0.07100398,-0.093718246,-0.050682243,-0.10301995,-0.102864735,-1.0229062,-0.36179608,-0.12082435,-0.00223382,-0.042012822,-0.09021115,-0.10969516,-0.14241076,-0.158727,-0.3852744,-0.67220587,-0.17236808,-0.18774596,0.036662836,-0.13334078,-0.14488544,-0.13895617,-0.10619076,-0.16522077,-0.298004,-0.62792593,-0.5527684,-0.92023313,-0.6950903,-0.37562537,-0.14951639,-0.15880091,-0.19229332,-0.18918055,-0.31084028,-0.74812305,-0.96128833,-0.84721017,-0.89176166,-0.77755874,-0.16401996,-0.014156796,-0.2804174,-0.4007037,-0.63367635,-0.8403618,-0.5679433,-0.7882186,-0.91774774,-1.3562067,-0.007786481,0.6850266,0.3087891,0.20942187,0.14127266,0.13942106,0.076233566,0.071495734,0.10346752,0.18518053,0.051354267,0.19462247,0.2686811,0.19251975,0.07852147,0.058998093,0.016354881,0.049504388,0.040414196,0.06527801,0.15181686,0.31980523,0.16563804,0.2128526,0.18620932,0.12151137,0.09325278,0.054866515,0.052787885,0.09433916,0.04744498,0.073226005,0.06858455,0.12594476,0.14098904,0.16736065,0.07462503,0.14179498,0.08505548,0.10477348,0.03456701,0.057722833,0.016984941,0.017578492,0.074368745,0.005531855,0.028153332,0.073734365,0.071003325,0.11597457,0.07062265,0.0071003274,-0.05582919,-0.02475541,0.005756332,0.061374158,-0.00018406211,0.026733885,0.04667417,0.035701033,0.026561303,0.0049716434,0.06893581,0.013533677,-0.020685215,0.016906312,0.033008393,-0.022899581,-0.05644743,0.029275302,0.014680273,0.009185732,-0.008730005,0.032668427,-0.056577638,-0.030826474,-0.06676528,-0.012546981,-0.015140794,-0.040141724,-0.015889816,-0.005738511,-0.0029851156,-0.019162167,-0.012379033,-0.017032761,-0.0542835,0.050106775,0.06740583,0.04921331,0.012126913,-0.05108506,-0.013214016,-0.018785605,-0.0045024143,-0.015526573,0.009763386,0.057440296,0.05856465,0.031159634,0.14244372,-0.06374811,-0.042898327,-0.02936508,-0.079575226,0.03560049,0.0057280897,-0.0075804093,0.0117702335,0.13547091,0.033777613,0.031000096,-0.0075565185,0.008859177,0.047579184,0.04135388,0.01884252,0.05775818,0.029142322,0.049367554,0.033940453,-0.020042308,-0.080135144,-0.07195073,0.076670945,0.04977342,-0.039897755,0.01771554,0.03470301,0.061535448,0.015693108,-0.042840775,-0.059112392,-0.020145958,0.076030515,0.092333585,0.024667399,0.027915392,0.08420062,0.06766295,0.1351508,0.051640913,-0.26593184,-0.0027650027,0.00059849996,0.09668471,0.028517654,0.07808229,0.0051642936,0.014587233,-0.0151949795,0.026471565,0.047986206,-0.020015113,0.046376985,0.023155857,0.07235877,0.0053327787,0.08660587,0.023066187,0.018294707,-0.005402135,0.032694828,-0.038076445,-0.089689404,0.031077402,0.049319163,0.015165853,0.0062160986,0.008513296,0.05639668,0.03954217,0.07075693,0.011259459,-0.033997294,-0.046571925,-0.004691496,0.04416157,0.028565146,0.02944406,-0.0183051,0.01256148,0.06473061,0.041992705,0.047812108,-0.0047162077,0.06695968,0.06750385,0.0006753496,0.022801913,0.06105028,0.05190079,0.017350398,-0.005125971,0.003429186,0.07860581,-0.022906259,0.0010925237,0.019846248,0.016771099,0.050517667,0.071064025,0.099678405,0.06558983,0.09899038,0.05650165,0.135388,0.063539416,0.07517473,0.076119944,-0.050381176,0.057409793,0.049803,0.09324231,0.14374769,0.083312996,0.12482291,0.07678348,0.22282292,0.18842274,0.06903033,0.1910482,0.114368014,0.040593315,0.017544188,-0.047900986,0.07181178,0.0017494046,0.09394856,0.08952776,0.10221568,0.0077859564,0.024394741,0.025723204,-0.009927888,0.09140996,0.057625763,0.16204494,0.08167282,-0.06348726,0.09902401,0.035398886,0.4705583,0.2137031,0.336666,0.32446525,0.531019,-0.27213186,0.49117148,0.47230273,0.5704002,0.15428519,0.49891126,0.21195517,0.76707715,0.28118727,0.5195697,0.6879815,0.46543574,0.4500302,0.6114619,0.5342287,0.123642124,0.12671992,0.54342705,0.55700976,0.5786788,0.38808906,0.5033144,0.40561035,0.37927678,0.42643967,0.4573824,-0.22341892,-0.2704579,0.7751223,0.60425824,0.46949106,0.4689829,0.45703554,0.49340364,0.3803314,0.3672813,0.30177727,0.085406356,-0.3810848,-0.6551346,0.41577783,0.52608013,0.5232162,0.5410665,0.5418615,0.3120127,0.55202323,0.37382457,-0.11633249,-0.40679854,-0.45148572,-0.08673067,0.20513333,0.17819665,0.3789128,0.38835382,0.30330935,0.4315356,0.16929807,-0.11070828,-0.4303226,-0.48347756,-0.2076685,0.17273942,0.45550045,0.54394454,0.5121389,0.54802185,0.63650626,0.6790402,0.009875611,-0.0720513,-0.1328605,-0.06824751,0.22207826,0.2712866,0.59599805,0.4373758,0.5039048,0.5312144,0.29808503,0.10784904,-0.064305566,-0.6257296,0.34670815,0.06576238,0.14692077,0.37556058,0.36252934,0.22836384,0.26314113,0.22582135,0.232268,0.52326417,0.25188768,-0.6271098,0.32912636,-0.07618085,-0.106279634,-0.2757784,-0.27630252,-0.37147287,-0.46213442,-0.6480696,0.16220635,0.52051365,0.22222967,-0.30730543,0.31985596,-0.21874891,-0.6480559,-0.792377,-0.12395236,-0.92580336,0.13136226,0.44298092,-1.1311101,0.0048603313,-0.25580835,-0.07635305,0.032772426,-0.016553205,-0.007865919,-0.04100828,-0.05187339,-0.058686987,-0.1090325,-0.049566876,-0.11776927,-0.18188265,-0.0029943695,0.028901307,0.022526372,-0.015299255,0.011771427,-0.040770948,-0.11963194,-0.115239404,-0.07306135,-0.22015837,-0.2876071,-0.12410647,-0.07769952,-0.047150895,-0.06875631,-0.0328392,-0.083674915,-0.14018723,-0.16373827,-0.18569545,-0.14439283,-0.25290528,-0.1336548,-0.055092376,-0.061364636,-0.05232254,-0.057776112,-0.07262786,-0.13374633,-0.13932481,-0.24952388,-0.16750099,-0.25456873,-0.12906417,-0.108855836,-0.09263872,0.00725537,-0.10941934,-0.11934951,-0.08055605,-0.16114216,-0.2645139,-0.145333,-0.16345173,-0.12578994,-0.07793497,-0.016437745,0.044635464,-0.039343484,-0.09953122,-0.07103682,-0.09404988,-0.0479239,-0.1848407,-0.19182624,-0.09153453,-0.06134184,-0.07423134,-0.047228094,-0.06920585,-0.030599622,-0.059244778,0.0030283122,-0.017025592,-0.14984429,-0.20713367,-0.07379571,-0.040926397,-0.04180088,-0.01133317,-0.031708483,-0.027163323,-0.03568945,0.03853785,0.030039772,-0.13696058,-0.2597698,-0.108735524,-0.012046075,0.0072708405,0.0032955534,0.023024376,-0.0077737486,0.01285778,0.013849372,0.0046906704,-0.5509027,-0.25198904,-0.039334144,0.021912789,0.057227314,0.06591942,0.08972831,0.06943781,0.053357467,0.054109674,0.05117602,-0.041799303,-0.6151908,-0.018342111,0.003809912,0.011233485,0.046739098,0.049768385,0.022975197,0.022297854,0.05716534,-0.013694834,0.015898334,-0.09207131,0.07675246,0.043046303,0.001778615,0.031428695,0.08362897,0.023421746,0.029080242,-0.09958825,-0.036033317,0.080786735,0.016347107,0.077196926,0.06484192,0.07800825,0.05299408,0.07659571,0.095739916,0.03402194,0.038789447,0.12773634,0.03955184,0.032673392,0.0025900253,0.052457154,0.0027019994,0.007004954,0.0011327945,0.0049401815,0.048107978,0.029863447,-0.008586926,0.013565697,-0.002192928,0.017180845,0.014249545,-0.023308259,-0.014122252,-0.008689944,-0.029574836,0.05035823,-0.0024135003,-0.01678262,-0.000997606,0.010746016,0.030307874,-0.0019781226,0.0007897397,0.020058664,-0.018392578,-0.006092175,-0.0013141949,-0.017074749,-0.018561462,-0.0045637107,-0.006855895,-0.0012377928,-0.0015316457,0.00870461,0.014660272,0.051248733,0.027241357,0.035649896,0.03028334,0.052324,0.014723302,0.008897162,0.052572314,-0.012020827,-0.025802016,0.07117424,-0.025313789,-0.06726907,0.0005444118,0.015322677,-0.028744945,-0.0040500322,-0.025889615,-0.014310422,-0.042214844,-0.08013997,-0.023430333,-0.02751947,-0.028956292,-0.06018036,-0.04346919,-0.09678232,-0.055857472,-0.016923608,-0.006948083,0.019522617,-0.03837485,-0.010792603,-0.0345331,-0.10881952,-0.09966601,-0.13763173,-0.1243547,-0.038827494,-0.024347996,0.040473547,-0.026385993,-0.025752995,-0.010195055,-0.0009493168,-0.06728843,-0.069961496,-0.19032341,-0.16910782,0.03956168,-0.12837254,0.054955877,-0.0020635931,-0.038277127,-0.057655178,-0.1192048,-0.07161728,-0.06554645,-0.06040238,-0.0046248715,-0.14456972,1.0751843,-1.1862562,-0.6917438,-0.7345727,-0.8065522,-0.3552901,-0.4608142,0.08630304,1.049846,-0.13113247,1.0351232,1.0721384,0.39271274,0.06092763,-1.5703979,-1.3424785,-0.4268165,0.095355935,0.12889224,0.77549183,0.9117048,1.0371665,0.8454219,0.28536054,-0.13051142,-0.29742458,-0.47917235,-0.3049017,-0.20676443,-0.08974807,0.27318773,0.9107949,1.0841036,0.6382616,-0.089338474,-0.21486723,-0.20673297,-0.47175834,-0.09668528,-0.15650108,-0.11505684,0.30288574,0.90743613,1.0320681,0.32651117,0.13453977,-0.23003042,-0.4987131,-0.32794464,-0.37773398,-0.08550481,-0.23817068,0.060525097,0.4125255,0.71526885,0.34667328,-0.06438412,-0.2925894,-0.46044603,-0.3809563,-0.58970034,-0.32745165,-0.26770106,-0.02327207,0.38057724,0.5896643,0.22998281,-0.14227825,-0.38932568,-0.283359,-0.51289433,-0.24083439,-0.26888415,-0.52027506,-0.24699245,-0.40336877,-0.10933106,0.10741931,-0.11338256,-0.202193,-0.4903038,-0.46779642,-0.66580045,-0.3284611,-0.22091116,-0.4226117,-0.43939427,1.1978033,0.5300641,0.0792106,-0.36661568,-0.29017082,-0.5964952,-0.98351234,-0.7247205,-1.4009644,-0.39526418,-0.54226345,1.1545314,1.2132553,0.27531764,-0.48908022,-0.7703318,-0.81146723,-0.87046057,-0.7622603,-0.9512386,-0.55408597,0.80922186,-0.14246622,1.1359444,0.7224509,-0.45621943,-0.8984634,-0.616266,-0.57223254,-0.9539158,-0.7360901,0.82817495,-0.11878755,1.1775705,0.009611705,0.7642869,0.046241477,-0.02763579,-0.076240234,-0.06635935,-0.14233811,-0.084645264,-0.07956565,-0.07337855,0.041110177,-0.04599026,-0.055069678,0.046299692,-0.10341191,-0.12195929,-0.12637721,-0.103527606,-0.14275584,-0.17022127,-0.20752653,-0.09580166,0.018473094,0.05814531,0.040476985,-0.07107968,-0.078941286,-0.13447303,-0.117684424,-0.13887054,-0.115614064,-0.14614625,-0.1764824,-0.01445408,0.020627005,-0.0010926444,-0.07628912,-0.017778583,-0.08027171,-0.0944413,-0.09299054,-0.07299777,-0.0916042,-0.15254273,-0.022774834,0.06712826,-0.03445493,-0.048137676,-0.093874715,-0.017149128,-0.06956323,-0.112983875,-0.12332147,-0.107307956,-0.14931808,-0.039849065,0.0042011403,-0.002587161,-0.060298838,-0.05770494,0.033894442,-0.07225069,-0.060619935,-0.090498015,-0.06957766,-0.1698877,-0.014826634,0.07899955,0.008408242,-0.036243387,-0.091165066,-0.071877345,-0.0791486,-0.052314237,-0.07793727,-0.06348246,-0.13385649,0.021681562,0.120365076,-0.063298054,-0.050735064,-0.07531455,-0.0721516,-0.07488317,-0.057644133,-0.031166922,-0.027136164,-0.17758946,0.05317065,0.14323102,-0.08747692,-0.10457004,-0.11351435,-0.06362013,-0.06326385,-0.0371864,0.012329057,-0.009317661,-0.18055145,0.2198484,0.02276459,-0.14502284,-0.11983863,-0.09447743,-0.096494086,-0.044514824,-0.055023607,0.102271594,0.03375081,0.0014604231,0.042677946,0.025727922,-0.16310094,-0.099323206,-0.10037098,-0.0980476,-0.08700257,-0.046896,-0.031611253,-0.02694397,-0.029129148,-0.021740293,0.106806874,0.1011428,0.0009979667,0.055131722,0.10352578,0.09801292,0.035579354,0.09308289,0.095337436,0.042635202,0.17885236,0.17796394,0.12222541,0.081134334,0.031359144,0.09975383,0.07387394,0.057737734,0.087606356,0.16580808,0.061436698,0.10737718,0.054705996,0.10522072,-0.013336136,0.0057751345,0.04419998,0.061136626,0.12832043,0.057348453,0.104422316,0.15648274,0.039631207,0.08026236,0.038323138,0.047831822,0.060854007,0.049147524,0.05625026,0.07793054,0.063419715,0.11623048,0.122090586,0.073858425,0.085791215,0.049997777,0.047362674,0.08370862,0.05366457,0.08146954,0.08250738,0.113967896,0.09289268,0.08214389,0.06619418,0.073174395,0.055330683,0.06075236,0.035356935,0.009719563,0.086431265,0.04752737,0.014859089,0.03859877,0.09317045,0.047254458,0.061285898,0.07047393,0.053874332,0.09992126,0.048540905,0.09638072,0.05482063,0.054784413,0.059614524,0.083125494,0.0597401,0.10059645,0.053032815,0.055112198,0.0778019,0.061606195,0.077359065,0.064197965,0.055565216,0.039053854,-0.022303406,0.10129638,0.08202778,0.050846793,0.06299429,0.04209427,0.09583143,0.038840022,0.05174141,0.05487102,-0.020125058,0.016235305,0.14304592,0.07190372,-0.0028258285,0.04688702,0.008256844,0.03276734,0.036202695,-0.01903345,0.09606981,-0.060374953,0.051291008,0.04463133,0.16253003,0.05479643,0.053031005,0.07761171,0.046745624,0.06496126,-0.034035407,0.059077673,0.13120621,-0.030786468,-0.14472057,0.6357199,-2.3837454,0.4606205,0.43795136,0.6001055,0.40968612,0.48016647,0.6149085,0.6362375,-0.11323388,0.5938891,1.1236571,0.2771888,-0.08744427,0.46484432,0.32044765,0.42535937,0.6501497,0.573366,0.16024902,0.5991952,-0.51688087,0.70823705,-0.07322934,-0.110883415,-0.002608891,0.1443789,0.12744406,0.32740173,0.5606809,0.482455,0.11678431,-0.08379011,-0.033890504,-0.016847799,-0.1274099,-0.019992065,-0.09070484,-0.07513145,0.34777173,0.21967691,0.31646875,0.078750305,-0.7185062,-0.36231363,-0.01612283,-0.026070958,-0.11415299,-0.087642446,-0.10579551,0.28897145,-0.009653575,0.16571751,-0.0048499824,-0.88446873,-0.56180197,-0.11934398,-0.12325365,-0.02722311,-0.0019468036,-0.112172686,-0.07824403,-0.19640087,0.007101766,-0.24234027,-0.96798337,-0.4699874,0.013088865,-0.03855906,0.02958442,-0.17242682,-0.10210984,-0.035737984,-0.0024273288,-0.0007709769,0.41120616,-0.87088,-0.43435252,-0.14463209,-0.07637668,-0.050056115,-0.09711645,-0.0944105,-0.12522444,-0.2276135,-0.19914483,-0.27355674,-1.2303962,-0.032230288,-0.065362796,-0.09006038,-0.14456671,0.011834974,-0.15248986,-0.22846997,-0.32925677,-0.22254118,-0.46453464,0.6745631,-1.1545899,0.049379453,0.03442328,0.11934578,-0.12537721,-0.24649051,-0.71090776,-0.6886694,-0.5772661,0.63805103,-0.14039981,0.6743963,0.2375216,0.2729344,0.29293796,0.09514434,-0.06193375,-0.16327928,-0.8254326,0.63424057,-0.18262082,1.247434,-0.04699408,0.46112844,-0.012242401,0.0055668456,0.070578314,0.047409058,0.012190191,0.07341355,0.034002632,0.016962485,-0.03486301,0.0068174982,0.027888682,0.1439517,0.0136605725,0.04745035,0.056576315,0.0994546,0.07691584,0.10191115,0.12437159,0.17498899,0.06627841,0.040028743,0.06393587,0.04338298,0.0031929903,0.06987251,0.052504506,0.016623925,0.080231644,0.07789448,-0.066227324,0.0057265637,0.07255681,0.028277421,0.014019964,0.024032675,-0.00071696925,-0.017261676,0.020372039,0.0071202093,0.020247443,-0.03563684,0.039139796,0.10424864,0.06385546,-0.019277189,-0.010012346,0.07437697,0.017152382,-0.020243349,0.039555185,0.003297484,-0.06518342,0.026041342,0.08518679,0.097077444,0.014271366,0.018742913,-0.04992211,0.035996344,0.009829719,0.019286644,0.016500948,-0.12336675,0.06648777,0.14942993,0.09679765,-0.01256496,-0.008251683,0.00020314024,0.017953187,0.025133636,0.018623468,0.013631184,-0.086866364,0.018247817,0.09454467,0.005564727,-0.04777845,-0.020009777,-0.008884681,-0.02218424,0.01144044,0.04715141,-0.039743174,-0.06945556,0.030280532,0.031908564,-0.091004565,-0.031391256,-0.015295176,0.028515706,0.012010161,0.009662437,0.0759877,0.057452053,-0.08477677,-0.05030187,0.1077354,-0.1538313,-0.03313441,-0.051396277,-0.02594336,-0.011037306,0.04077831,0.12652475,0.10794123,0.080860086,-0.038979772,-0.1762171,-0.15146136,-0.041646253,-0.07600632,-0.068089455,-0.039351895,-0.034843814,-0.008693998,0.06995639,0.012332556,0.045693666,0.08892879,0.0046715713,-0.106324285,-0.085996404,-0.023506276,-0.05533101,-0.10352085,-0.09372376,-0.071795925,0.04509989,0.012043968,-0.08702554,-0.04316056,-0.094467215,-0.07664957,0.008473731,-0.06517987,-0.05520452,-0.14969552,-0.04945231,-0.12778564,-0.05433433,-0.08914506,-0.05286028,-0.13606031,-0.1349866,-0.13271116,-0.09347537,-0.04583241,-0.033992022,-0.123383105,-0.059211634,-0.115638405,-0.052039266,-0.07316749,-0.10146737,-0.079531126,-0.12448045,-0.07374255,-0.057623673,-0.06252084,-0.05785056,-0.07444186,-0.06403224,-0.03701194,-0.040401526,-0.037577014,-0.033979237,-0.076371565,-0.047124527,-0.057824917,-0.016207628,-0.028587569,-0.068542354,-0.053544585,-0.005241733,-0.014083513,-0.070275076,-0.029823074,-0.01364516,-0.056870602,-0.09689394,-0.07554531,-0.05933698,-0.08912929,-0.038354285,-0.019430267,-0.037837446,-0.04195586,-0.021555046,-0.0319148,-0.004367849,-0.029249566,-0.058042087,-0.08239018,-0.11223861,-0.04855408,-0.0034678893,-0.0013603419,-0.027559534,-0.03954402,-0.020815091,-0.020332417,-0.034540962,-0.078058325,-0.05100495,-0.093429595,-0.014772731,0.02026951,-0.0032142652,-0.013850178,-0.06298088,-0.002304867,-0.037743546,-0.07466081,0.014256793,-0.051143393,-0.16119854,0.034196243,-0.09289806,-0.034445796,0.019306777,-0.027209928,-0.03190609,-0.022290813,-0.05194486,-0.041225035,-0.08779696,0.0048541063,-0.046407048,-0.035963982,0.06069486,0.037571568,0.08598387,-0.021014055,-0.1257119,-0.08832845,-0.035690982,0.077688895,0.013774949,0.6690425,-1.0505835,-1.1539518,0.25329235,-0.6141753,-0.82071084,-0.75331634,-0.6765796,-0.4181553,-1.0951158,0.7259823,-1.1427896,-1.0622795,0.20127212,-0.43031383,-0.30179703,-0.68012875,-0.603936,-0.5884867,-0.6319983,-0.73704106,-1.0577246,-0.15733728,0.43346772,-0.33306915,-0.28163517,-0.25249878,-0.097402744,-0.16343105,-0.38967776,-0.38470408,-0.2727913,-0.67822564,-0.5447194,-0.82521933,-0.13647035,-0.09715882,-0.22881816,-0.14132592,-0.143724,-0.090280086,-0.3380842,-0.15984604,-0.18039337,-0.72382945,-0.62192565,-0.304925,-0.13871561,-0.2134897,-0.20687588,-0.24140008,-0.11962016,-0.2638462,-0.13470326,-0.05765653,-0.78392863,-0.62837356,-0.1953943,-0.025643773,-0.12847514,-0.05100915,-0.13925467,-0.13383596,-0.29493105,-0.29219803,-0.13686311,-0.7661766,-0.4838105,-0.04016138,-0.11393969,-0.10643038,-0.2068436,-0.23598424,-0.14297818,-0.30069205,-0.14847974,0.25349918,-0.78683394,-0.50460374,-0.11758825,0.005741137,-0.1803476,-0.07001975,-0.15562804,-0.30862382,-0.3414107,-0.24297696,0.37233052,0.58743,0.4473506,0.22583093,0.03888548,-0.022720542,0.0045628515,-0.03528616,-0.28728744,-0.26249543,-0.28547627,-0.36432928,-1.0893581,0.16005014,0.6083448,0.63631696,0.24973625,-0.14579475,-0.16523834,-0.30735207,-0.47511744,-0.6445545,-1.1189388,0.69160587,-1.0299855,0.9277073,0.4574124,0.71563685,0.66882545,0.15682618,0.031187184,-0.5877726,-1.0760782,0.750222,1.1673323,0.040258948,-0.15925166,-0.08995788,-0.043549176,-0.07722366,-0.046423707,0.05019869,0.025186818,0.08871432,0.07289197,-0.013037904,-0.08668986,-0.079674296,-0.19476275,-0.05908397,-0.15101084,-0.029510971,0.037235435,-0.02570809,-0.13442343,0.012427314,0.19263358,0.004847087,-0.029375305,-0.13716659,-0.16639867,-0.041064214,-0.034605056,0.0017387855,-0.03312242,-0.029512122,0.05375951,0.16689426,-0.019261805,0.013383019,-0.06794181,0.0013563165,-0.005720493,-0.0441934,-0.05602925,-0.0327316,-0.010697936,-0.08730364,0.060654584,0.02938351,-0.08698606,0.020629022,0.050775398,0.0036167556,-0.029723715,0.0076225814,0.026494982,-0.060279,-0.08652007,-0.029173741,-0.01764049,0.0769124,0.059314888,0.070095904,0.13176982,0.04146541,0.013766589,0.0035367226,-0.025836812,-0.08510035,-0.114245735,0.005379196,0.010471894,0.05874949,0.098184176,0.038613964,-0.010018388,0.06610437,0.06243186,0.010278422,-0.06641659,-0.11230413,0.046545006,0.15624532,0.05434851,0.096702985,0.1087332,0.06781922,0.07841645,0.028483143,0.021034287,-0.09683803,-0.064293526,0.18065028,0.028250828,0.068000674,0.044372976,0.06415196,0.076996304,0.07761927,0.048085533,0.012895209,0.02204042,0.035980344,0.06130085,0.1451535,0.18145351,-0.073734656,0.09335282,0.10858481,0.10360198,-0.027302494,0.079640366,0.18508661,0.055825043,-0.011363875,0.64531416,0.090068,0.049120575,0.042411387,0.07064265,0.02540662,0.120584585,0.018214503,0.023621907,-0.000870377,0.023740938,0.1572515,0.11415802,0.029863305,0.009401933,0.019578312,0.029099273,0.22772233,0.21194574,0.29099798,-0.05169518,0.032888528,0.074357875,0.03577136,0.00074539514,0.024946664,0.0563527,0.0050124633,0.07538936,0.17878908,0.13672909,-0.017883245,0.11920353,0.109816246,0.04087942,0.073387764,0.11164411,0.08704212,0.13907516,0.10372046,0.11050364,0.21297157,0.13219465,0.13291009,0.10264916,0.16059776,0.14836407,0.12903953,0.08256934,0.10043965,0.10544602,0.17038363,0.12915304,0.15444109,0.09787737,0.09876138,0.08880503,0.10707973,0.1202374,0.026175385,0.09788017,0.109995686,0.17910624,0.07183763,0.13155259,0.10691572,0.055738047,0.1204173,0.12435792,0.14683957,-0.01867287,0.013513837,0.048835576,0.08946107,0.0754488,0.20346196,0.038712304,0.079375826,0.12645867,0.07769142,0.08703356,0.075899795,0.07513699,0.028853172,0.07684996,0.13098028,0.023838002,0.053710558,0.09007703,0.21140128,0.09591626,0.04889586,0.039112072,0.06709323,0.054949574,-0.012816225,0.01717397,0.13830817,0.042479508,0.11106173,0.18486282,0.070001476,0.097505465,0.029129954,0.030784909,0.063856244,0.07858638,0.048047602,0.04592349,0.0014468804,0.13896088,0.13470303,0.032038514,0.19927202,0.064950764,0.054799136,0.04858764,0.036264148,0.2176368,-0.04230064,-0.04496729,0.097531594,-0.046932288,0.028913015,0.22135518,0.10122394,-0.11946763,-0.13812333,-0.1531363,-0.02333147,0.017461,-0.30135044,0.26610368,-0.61479026,-0.34549895,-0.60180134,-0.6387128,-0.4379519,-0.56747025,-0.94379115,0.29023647,-0.38465676,0.32237068,-1.0516183,-0.34099168,-0.43268764,-0.370763,-0.40719908,-0.45634675,-0.4354246,0.031729683,0.7479695,0.3024299,-0.8213919,-0.27730757,-0.416993,-0.20051876,-0.25850064,-0.47739565,-0.47868976,-0.43632787,-0.059669025,-0.38343015,-0.57899064,-0.049533468,-0.32684836,-0.037153136,0.036297996,0.04212275,0.03672572,0.15746498,-0.033205897,-0.120616674,0.12503313,-1.1045394,-0.7532202,-0.15287116,0.069324106,0.12221781,0.13556638,0.112996,0.10117972,0.15744437,0.062432792,-0.2679721,-0.98177534,-0.08979834,0.019892754,0.08700882,0.06202873,0.041822605,0.0074416,0.10079832,0.13646787,0.058570214,-0.44813827,-1.0563419,-0.6343561,-0.04364417,0.06381632,0.12878416,0.1182182,0.1406652,0.0735465,0.090191334,0.05479799,-0.3405179,-0.947223,0.111741364,-0.04297765,0.123710684,0.1327375,0.1228518,0.061238788,0.071755655,0.117839724,0.06604836,0.12798737,-1.1259197,-1.4245447,0.021581607,0.020593654,-0.04526438,-0.09715086,0.028205246,-0.061287835,0.023767084,0.13569857,0.23466998,-1.3553679,0.28241858,-0.36969933,0.042452678,-0.09181668,-0.16208999,-0.09010972,-0.020885395,-0.05228928,-0.1158676,0.17013597,0.3032152,-0.34050468,0.26393005,-0.33093333,-1.2234068,-0.12601455,-0.38036692,-2.3916626,-0.72568697,-2.674724,0.33565414,-0.30804667,1.0048808,-0.03767638,-0.02150806,0.078000665,0.070074126,0.078948274,0.077879764,0.10793902,0.117352225,0.0882707,0.11977612,-0.04122443,-0.00798947,0.033017043,0.08925172,0.030979877,0.09682906,0.07410114,0.12934865,0.07107215,0.08958472,0.09496253,0.041243333,-0.030502152,-0.034955885,0.064442545,0.05785545,0.081051275,0.066725455,0.098521985,0.08461098,0.035654835,0.03841861,-0.03119783,-0.0075353063,-0.05760431,-0.0034489676,0.0071133585,0.05989514,0.03223747,0.048751235,0.036619,0.0041158414,0.04527269,-0.007589169,-0.028840492,-0.13339171,-0.06845562,-0.04443182,-0.0061735767,0.057207815,-0.018057428,-0.018968852,0.031013127,0.0097846575,-0.0006180801,-0.09869328,-0.10964022,-0.07215147,0.0047897743,-0.0071649044,-0.04596116,-0.033368703,-0.00016450393,0.012788399,-0.0066087693,-0.07042126,-0.123081446,-0.19624543,-0.11905209,-0.034308743,-0.052157477,0.06395208,0.00020006883,-0.009322825,-0.033904474,-0.09761772,-0.1324204,-0.1629829,-0.29402003,-0.10793838,-0.041262876,-0.024656594,-0.029257588,-0.0027667016,-0.033127397,-0.023173548,-0.13613114,-0.17232552,-0.20922479,-0.3771357,-0.106202856,0.0016995204,0.076142326,0.051099338,0.09696711,0.03314616,0.029960247,-0.10865056,-0.147337,-0.24382764,-0.3354001,-0.05850815,0.076904766,0.08455263,0.09814111,0.116735585,0.10467852,0.082813,-0.021259977,-0.02257178,0.0024372044,-0.39808124,0.026333949,0.0973782,0.07404817,0.15350662,0.12050842,0.10473799,0.08483784,-0.07684808,0.028947603,-0.014727284,-0.041759633,-0.12270332,-0.07092987,-0.087332815,-0.05767378,-0.10532287,-0.12813307,-0.09134918,-0.03379598,0.015639244,-0.04296232,-0.06377082,-0.037147082,-0.063359775,-0.055721685,-0.070592314,-0.06616305,-0.115283966,-0.10860504,-0.14513835,-0.0076991813,-0.061492287,-0.06364569,-0.10281319,-0.071194835,-0.06949415,-0.112095326,-0.08147698,-0.074234985,-0.09862021,-0.12661897,-0.071953386,-0.08602378,-0.08188313,-0.052327067,-0.100988574,-0.09710654,-0.094598055,-0.067747295,-0.063838065,-0.102169596,-0.1378706,-0.13249478,-0.05692428,-0.060202226,-0.048177283,-0.11309425,-0.07508372,-0.0071787443,-0.07941919,-0.042742837,-0.08353278,-0.056187652,-0.07202371,-0.0828075,-0.05780232,-0.037568517,-0.06360892,-0.06267581,-0.04449877,-0.05156367,-0.0495044,0.0018147151,-0.07263813,-0.04477269,-0.050197765,-0.05995156,0.005156372,-0.045423947,-0.06304952,-0.0017625891,-0.05400454,-0.051377118,-0.018326487,-0.08766919,-0.14702466,-0.06988451,-0.03820222,-0.008496302,-0.051116098,-0.10513559,-0.027577266,-0.07655822,-0.08742328,-0.034578506,-0.13932092,-0.12985884,0.071843855,0.035274837,-0.0062622777,0.027354324,-0.01893481,-0.029811058,-0.049880758,-0.073193125,-0.07488905,0.018739136,-0.044685036,-0.020768207,-0.0043874397,0.052196532,0.00047662083,-0.030021055,-0.031666405,-0.025897779,-0.034395073,0.003743326,-0.019049784,-0.19000317,-0.0124647375,-0.09286348,0.19140463,0.038514078,-0.043996304,-0.07418743,-0.0063848905,-0.06036015,0.040155515,0.053311523,-0.029105641,0.43065545,1.279513,-0.64269966,-1.0062329,-1.3611908,-0.9461547,-1.3556305,-1.5955864,-1.6051302,1.3414457,0.5191538,1.301329,-1.1884502,-0.5489865,-0.66125834,-1.3240466,-1.2328483,-1.0765004,-1.2183466,-1.1024956,-1.3285245,1.3048992,0.14757583,-0.23891473,-0.34553713,-0.35771853,-0.7215555,-1.2553385,-1.3599232,-1.0313189,-0.63985175,-0.6976846,-0.4345949,0.21216886,0.08470333,-0.12844115,-0.21005881,-0.3396859,-0.2546289,-0.44409096,-0.4794649,-0.4020806,-0.023987485,-0.115815744,0.56464386,0.32460776,-0.07237084,-0.30786029,-0.41241568,-0.33248353,-0.24419491,-0.34991914,-0.10339312,0.062132325,0.009730326,1.1155401,0.45404097,0.08756073,-0.17301118,-0.24966663,-0.18357287,-0.14735006,-0.4466216,-0.2152208,0.11688306,0.39355072,1.3926641,0.79498506,0.28344476,-0.023661483,-0.15868253,-0.20899571,-0.18398485,-0.296036,-0.22899768,0.2548659,0.65416354,1.0341779,0.8025644,0.32207683,0.25067914,0.01785602,-0.047001816,-0.25490156,-0.38984743,-0.08821183,0.28336334,0.8582445,1.9221286,1.3214121,0.5329888,0.38327664,0.17278092,-0.14545248,-0.27035606,-0.066148035,-0.14746684,0.2777091,0.5462415,1.3236814,1.6322064,0.7944635,0.31631345,-0.12148934,-0.47299406,-0.96393985,-0.93949723,-0.62703925,0.8962716,1.3019474,0.6113259,1.3223268,0.4919974,-0.21728721,-0.6046773,-0.8272831,-0.95213056,-1.7717832,-1.5072907,1.3611835,0.46123338,-2.8261018,0.01507287,0.13779019,0.22642887,0.15685067,0.14363351,0.16101602,0.17525607,0.22642852,0.13459584,0.23073885,0.00083144405,0.15752956,0.18299143,0.20129204,0.14095645,0.13752799,0.1608298,0.20681976,0.1630847,0.23878214,0.15404028,0.10294128,0.097562626,0.118826084,0.16417184,0.13127813,0.14738335,0.15514277,0.14289968,0.14319395,0.14660606,0.10066978,-0.05640304,0.1101112,0.06565302,0.07915833,0.122575745,0.15666942,0.085613795,0.10181987,0.110137925,0.09842387,0.03683405,0.004259983,0.08276079,0.10586801,0.093020104,0.077885106,0.12178253,0.12772541,0.07396159,0.06378912,0.071537875,0.046906114,-0.047922287,0.07434925,0.055029146,0.09016992,0.06532202,0.119504236,-0.014148908,0.09229254,0.10853765,0.06771694,0.0104318485,-0.03733936,0.0910938,0.15484545,0.07298921,0.09115913,0.10453025,0.065528564,0.07842537,0.08098236,0.05284484,-0.025917333,-0.105061695,0.09248754,0.062291723,0.0585752,0.028284604,0.07594791,0.057646893,0.04574587,0.049893267,0.0049664243,-0.12972249,-0.057819743,0.0790674,0.122988775,0.023839867,0.0624979,0.063935064,0.06543508,0.072368,0.06202557,0.0144205075,-0.08587251,-0.16854174,0.103492066,-0.056431547,-0.027181532,0.08296667,0.05171137,0.086457625,0.04922867,0.07707586,0.069830805,-0.11626854,0.0026568272,0.041675992,-0.21260701,-0.018895742,0.031079443,0.057194207,0.043991297,0.07366221,0.033826936,-0.007033742,-0.030977406,-0.012139291,0.0229506,-0.112693556,-0.057507608,-0.056313355,-0.077909395,-0.05843855,-0.08185894,-0.106474645,-0.13274212,-0.08898132,-0.04768388,-0.10112498,-0.028686667,-0.034880403,-0.036997564,-0.055621702,-0.014943718,-0.07413197,-0.068112835,-0.12705924,-0.06446188,0.05999214,-0.092654295,-0.081889324,-0.06681983,-0.070138015,-0.10315365,-0.09950725,-0.06893002,-0.056867156,-0.07128936,-0.11114765,-0.097686954,-0.061091606,-0.04489604,-0.040022414,-0.07544839,-0.04918177,-0.06585084,-0.03720019,-0.039890233,-0.078637645,-0.084637865,-0.062177666,-0.048501328,-0.04431673,-0.04601172,-0.05810558,-0.055166163,-0.02034612,-0.044700425,-0.054324105,-0.058703065,-0.026076755,-0.025710061,-0.02769018,0.006787484,-0.025920277,-0.06672859,-0.064009316,-0.038890004,-0.029908389,-0.06481591,-0.020613985,-0.06246099,-0.027373232,-0.029304951,-0.017013445,-0.008577301,-0.041049715,-0.022681007,-0.00925648,-0.008481384,-0.027112115,-0.024788165,-0.046970632,-0.044237413,0.008229371,0.0040415497,-0.036173314,-0.040372126,-0.035275787,-0.033811066,-0.0027809264,0.0041153673,0.015128515,0.012888793,0.039361767,0.041242745,0.044207457,-0.029485755,-0.033467647,-0.037148193,0.0077716806,0.008723447,-0.009021531,0.06287719,0.07195411,0.08608837,-0.06426365,-0.03149737,-0.015251201,0.022443613,-0.028825492,0.020264871,0.00062817475,0.03722209,0.13571385,0.0703217,0.20036034,0.0014731971,-0.019813856,0.08738986,0.04785532,0.036295954,0.046300385,0.023810867,0.09066805,0.1715647,0.13365184,0.031532925,-1.0318843,-1.1438143,-0.86580443,-0.8529969,-1.163238,-0.9303877,-1.1867089,-0.96664894,-1.0790333,-1.0975693,-1.010795,-1.0438911,0.025077818,-0.93942845,-1.05046,-1.0260725,-1.0154588,-1.0143328,-0.9917656,-0.7519519,-0.42782518,-1.1139631,-0.71679175,-0.7538649,-0.83629274,-0.82851404,-0.74678177,-0.50379485,-0.75424874,-0.65182453,-0.59190583,-0.41119882,-0.1918325,-0.3113567,-0.42265216,-0.543467,-0.5410084,-0.4386245,-0.36715752,-0.3523657,-0.24779215,-0.25344327,0.14552908,0.5053653,-0.5470293,-0.4851812,-0.38551566,-0.32159302,-0.44589493,-0.45076856,-0.4800551,-0.21601295,-0.24942997,0.060040195,0.36251077,-0.35558775,-0.43487388,-0.38090578,-0.42314312,-0.4322379,-0.41392475,-0.32429108,-0.33303818,-0.19529606,0.14751184,0.57528824,-0.5081481,-0.46857443,-0.3115645,-0.33358914,-0.30643812,-0.4050562,-0.37531048,-0.05532896,-0.045237113,0.28501868,0.6443283,-0.4629155,-0.51345915,-0.3256258,-0.31863773,-0.3666735,-0.32394877,-0.21283922,-0.17584978,0.014596799,0.45261747,1.3140895,-0.4027396,0.32060644,0.026594982,-0.27259552,-0.29663196,-0.18278448,-0.16636875,-0.07183383,0.27812254,0.75836647,0.27788556,-1.1260753,0.7488308,0.26315928,-0.12075806,-0.10460541,-0.32331192,-0.1426995,-0.07122191,0.530535,0.75649637,-1.0606844,-0.9591314,-1.1036648,0.9484726,-0.31892443,0.56129384,-0.0011253876,0.20126244,0.40149498,-0.2737738,-1.0959653,-0.9590405,-1.39509,0.012090929,-0.11653718,-0.036786813,0.009597624,-0.040242173,-0.03338254,0.012069883,0.03301546,0.04466523,0.2012291,-0.047388494,0.026296727,-0.008336138,-0.037892528,0.042734295,-0.029556083,0.061549924,0.012361846,0.055697873,0.06269182,0.17031074,0.26457697,-0.020831246,-0.08014468,-0.066122934,-0.06310817,0.018042302,0.086567156,0.008911441,0.0739112,0.09180845,0.1597396,0.16745853,-0.004923257,-0.04070208,-0.034984227,0.06399762,0.036469124,0.06098845,0.08913795,0.122517645,0.119914696,0.08831624,0.16209953,0.021858927,0.0033170346,0.057757843,0.061748605,0.03836184,0.03803219,0.02371663,0.105164,0.027681818,0.060603708,0.2253139,0.065478526,0.11799587,0.08255982,0.03782149,0.07079853,0.013587351,0.048174668,0.05587128,0.060480665,0.078002416,-0.030225497,0.14334558,0.17809759,0.10139522,0.061870035,0.048163723,0.01998111,0.042682294,0.047437314,0.03082896,0.017092668,-0.04353135,0.19234218,0.24098624,0.09536219,0.08931164,0.052095827,-0.005926184,-0.016168827,0.05647669,-0.043375827,-0.082859084,-0.04355544,0.28916723,0.26175213,0.11076329,0.05572981,-0.021050971,-0.031143611,-0.0599439,-0.02118215,-0.046536423,-0.067685515,-0.12022908,0.4312625,0.318432,0.09587301,-0.09212294,-0.022750923,-0.08365878,-0.11071774,-0.036899842,-0.023257496,-0.09814173,-0.08943932,-0.033896923,0.29825753,0.08972198,-0.008049462,0.022139674,0.028973103,0.054137424,0.06004914,-0.02486845,0.05949375,0.026580874,0.039322246,0.10861657,0.12311027,0.018697644,0.054702368,0.11791503,0.030320877,0.013738481,0.06898901,-0.06250026,-0.0034154325,0.018448949,0.062438603,0.01482842,-0.0077632708,-0.03567242,0.0037497613,-0.013670082,0.03837086,-0.021635482,0.008354975,-0.02718356,0.09392527,0.109872036,0.059861276,0.07316911,0.029443387,0.073485516,-0.0048829042,0.10596612,