-0.03632368,-0.05627908,-0.034799516,0.01671551,0.0023147848,0.016523933,0.06431995,-0.039273836,0.095450446,-0.081432484,-0.047122303,0.049734287,0.042422835,0.059211373,0.04119505,0.02362306,-0.045739233,-0.009532831,0.0603415,-0.018299626,0.021752793,-0.05910874,0.029742843,-0.008522447,0.028510138,-0.00025323845,-0.0040354715,0.14800608,0.08253001,-0.12146253,-0.02811185,0.040764164,0.045929234,0.015237384,0.03411273,0.08272984,-0.17627633,0.0949459,0.10720089,-0.044898305,0.050657198,0.19841236,0.104879506,0.050029393,-0.02565194,0.023026949,-0.32606253,0.051504776,-0.11689146,0.1734243,0.104337834,0.019103909,0.105515875,-0.018625297,0.07432003,-0.008657527,0.012685418,0.017045066,-0.15242611,0.07468576,0.045946557,0.06530327,0.023118071,-0.12858672,-0.05145577,-0.07429377,0.07213813,-0.07368354,0.06718007,0.074526764,-0.053816386,0.106924206,0.019510971,0.017776238,0.047431123,-0.14435408,0.04397844,-0.06369875,-0.052803066,0.09485905,0.15786216,0.13179623,0.06533035,0.06192643,0.009193455,0.008702644,0.05476913,-0.023793198,0.057365466,0.019406565,0.09908347,0.041527003,0.09970358,0.050108146,0.04751696,-0.056014657,0.12372949,0.027606122,0.069569245,0.18185356,0.04544055,-0.024566159,-0.052370746,0.026825428,-0.022118712,0.11731438,0.013781112,0.0010203293,-0.16615261,-0.046101317,0.043049335,0.028045904,0.049573585,0.016856296,0.018471062,0.029842159,-0.035149936,-0.01608122,0.08249991,0.19623227,-0.025415637,0.010436382,0.008606151,0.0704294,0.03909425,-0.041917842,0.02305825,-0.1150109,-0.1824026,-0.12270185,0.025314024,0.008980991,0.06291088,-0.090041965,0.054441072,0.009394082,-0.09082134,0.013852048,-0.026739908,0.017728735,0.03798228,0.06141249,-0.10662942,0.03878363,0.009161358,0.02077405,-0.0800312,-0.03339651,0.012261039,0.13132957,-0.0107615255,0.01266221,-0.01117456,-0.00938185,0.043781262,0.05268203,-0.04101195,-0.09981823,0.07470856,0.017065791,0.013525904,-0.026616026,0.028589083,0.030632157,0.11396383,0.037974086,-0.0034421794,0.033680405,-0.089307316,-0.0058986284,0.049988512,0.008928258,-0.101152435,0.10022798,0.22609277,0.049778115,-0.13240083,0.05991322,0.041147027,-0.03145888,0.022131288,-0.038979713,-0.033158537,-0.029102521,-0.005285222,-0.15689506,0.056192394,0.007838706,0.10676544,0.0068667047,0.070711315,-0.080468155,0.053516608,-0.036694936,0.08280789,-0.058379967,-0.04471067,0.09146462,-0.10047353,-0.011363329,0.023552837,-0.0887392,-0.059077002,-0.062090088,-0.028125914,-0.050403696,-0.13382977,0.085068256,-0.042180497,-0.014479644,-0.05257651,-0.024438743,-0.08098669,0.038588025,0.004930148,0.046300165,-0.013905967,0.04058074,0.03480567,0.010149915,-0.0024528906,0.0413825,0.053575758,-0.080533564,0.09878273,-0.098538175,0.05607349,0.056056097,0.018041002,0.03314342,0.04352829,-0.052318707,-0.021728873,0.09475433,-0.12637839,0.009987661,-0.16077626,-0.008385899,0.026164725,-0.003802494,-0.12331679,0.032707468,0.67264885,-0.010672336,-0.04081655,0.19031565,-0.05070397,0.046587907,0.028015522,-0.012341744,0.18967526,-0.17948145,0.7089153,0.25218624,0.03356501,0.019315366,0.13254745,0.02595142,-0.10848711,0.08193032,-0.23532067,0.18918595,-0.6148237,0.07444976,-0.16313265,0.12683201,-0.08309061,-0.093580894,0.0994133,-0.00015704558,-0.17002916,-0.2381328,0.10804445,0.061941803,-0.29192924,-0.08609191,0.06513111,-0.2848726,0.028605836,-0.12327066,-0.032249764,-0.21004896,-0.38010055,0.21422805,0.11017731,-0.08141957,-0.080661796,-0.4408119,-0.024683746,-0.33995247,-0.008227428,0.20551099,0.21222097,0.13882317,-0.016051088,0.1069864,-0.033933304,0.010426078,-0.060241412,-0.19874911,-0.012046012,-0.2086373,0.10245231,-0.09512845,0.16730498,-0.2678126,-0.2569407,-0.3099378,-0.28542015,-0.081845164,-0.051328793,0.093947314,0.044887148,-0.0048250444,0.08505272,0.045127597,-0.18902391,-0.13748471,0.056050383,-0.7604645,-0.20850894,0.19045141,0.022629684,0.014080448,-0.075089365,-0.07145925,-0.17876966,-0.007080161,0.12043293,-0.10899539,-0.29938745,-0.039645564,0.07108036,0.1750992,-0.065719314,-0.09276164,0.112645864,-0.048542738,0.28642142,-0.04206081,-0.31713808,-0.13394168,0.12523593,0.0065767337,-0.003446412,0.2441088,0.19146207,-0.020949388,-0.011181031,0.35271886,0.010941449,-0.12501742,0.66350156,0.042510867,-0.28552008,0.008364621,-0.096189775,-0.0036230497,0.12966165,-0.20683455,-0.6564548,0.014281795,0.67564076,-0.0052293814,0.121002115,0.07985517,0.04385236,0.051419053,0.0634668,0.09217334,0.055282116,0.054555856,0.11216563,-0.029892193,0.14963926,0.12084565,0.11453718,0.115623236,0.08754419,0.026899895,-0.04284839,0.059363127,0.1683556,0.030923411,0.09073371,0.14511055,0.12024902,0.16205026,0.09364506,0.047662,-0.14336234,0.019451357,0.060047187,0.13251133,0.0849588,0.08153972,0.10682348,0.091142006,0.109333806,0.08699759,0.00037028507,-0.015195181,0.06276279,0.13863489,0.085745566,0.026717277,0.030613014,0.0797633,0.060563542,-0.0025104973,-0.10863946,-0.00565953,-0.28279766,0.10176139,0.063870504,0.08201311,0.055096984,0.06375281,0.056376573,0.10105793,0.069613524,0.08561204,0.056388795,0.0089667635,0.052799746,0.046850197,0.015229971,0.04063093,-0.022566596,0.092083775,0.073875695,0.054783106,0.00010265525,0.10173994,-0.11663284,0.07136613,0.0979053,0.11342734,0.04024239,0.034356054,0.07181728,0.054637954,0.12431095,-0.009846377,0.016210373,0.055131488,0.073529996,0.08541111,0.11408593,0.11702686,0.0044878465,0.09895148,0.07492331,0.10876149,0.061566435,0.108901516,0.151368,0.16271256,0.012255462,0.12016492,0.15624228,0.057866048,0.15917847,0.0917413,0.08972266,0.018775675,0.08582643,-0.0064879092,0.14982554,0.031965453,0.12199998,0.089230485,0.090743914,0.041670468,0.089318834,0.116147466,0.082489796,0.03582894,0.05241127,-0.009217889,0.06817191,0.0994481,0.1248503,0.05181502,-0.012907294,0.08006713,0.05759307,0.026509209,0.04922788,0.057614036,0.018386636,0.030422146,-0.030246286,0.002057375,-0.039166432,0.024651406,-0.030193722,0.04378479,0.09772745,0.022371791,0.038635887,0.037514847,0.06479643,0.018235926,0.038378455,0.04856691,-0.007392014,-0.0054076943,0.058222514,0.07017831,0.03306287,0.048013296,0.13431183,0.080331676,0.008087131,0.008758321,0.014579243,0.010030755,0.015302316,0.024742022,0.029573571,0.07586706,0.055529945,0.054194268,0.0826958,0.015710589,0.0101134265,0.038050756,0.042241562,0.004723365,-0.011899796,0.078110844,0.07252286,0.082388654,0.10475463,0.1346084,0.044839818,0.17188834,0.09841255,0.029853066,0.051545646,0.029986612,0.08880293,0.068875834,-0.023361797,0.07531473,0.019629074,0.03580959,0.084283374,0.040807597,0.031713635,0.077324264,0.06297181,0.021404421,0.092446215,0.09665806,0.07270128,0.016679589,0.05225237,0.06871096,0.08621405,0.018548833,-0.016163243,0.05647959,0.03488726,0.017709102,-0.019204387,0.06217024,0.07364946,0.061838403,0.011028421,0.03640121,0.06853542,0.019472135,0.05880537,0.0524305,0.027308946,0.109069854,0.073146924,0.045552574,-0.049093988,0.075380124,-0.006037792,0.011532651,-0.0010491261,0.03522153,0.013571964,0.057072412,0.047031336,0.08988566,0.05122454,0.020760532,-0.019071335,-0.03970359,0.01584919,-0.01488664,0.05332857,-0.032754168,0.06784569,0.034818877,0.0023341498,-0.02487798,0.032735314,-0.040556416,0.0020473027,-0.7145071,0.33098558,0.10964234,0.0155569315,0.024686914,0.20495732,0.013970852,0.1087943,0.08382148,0.11360206,-0.6360414,0.13039622,0.09223289,-0.009450734,0.15433517,0.18867986,0.013309226,0.15553011,0.040941108,-0.06520584,0.0488587,0.24262416,0.03768253,0.19112566,-0.032435894,0.109983295,0.0067658555,0.1312313,0.049741816,0.059161007,0.07114083,0.030949779,0.008024081,0.034403764,0.044943463,0.041173376,0.052709274,0.020987436,0.08889373,-0.02835285,0.11066593,0.08015402,0.01304394,0.028329287,0.0018882876,0.024015423,0.012096134,0.051449403,0.063932635,0.035428602,-0.028380211,-0.03481943,-0.027688673,0.13688338,0.039015625,0.18033487,0.15183166,0.019974468,0.09924679,0.054020982,0.059121743,0.09927789,0.14079164,-0.06645857,0.1537213,0.06320262,0.16341048,0.14575835,0.12946428,0.018752947,0.051067457,0.25674334,0.06900621,-0.06922591,0.0138309775,0.115228266,0.09239779,0.063101545,0.019177452,-0.03310804,-0.05220473,0.12160259,0.011871485,0.13743204,0.027023466,-0.022178153,-0.06819167,0.101524375,0.058553137,-0.0103385765,-0.0932593,-0.06629257,-0.06423403,0.14468071,0.06978993,0.112051964,0.07836252,0.13663474,0.13336186,0.1865169,-0.01089665,0.07920508,0.04159374,0.072912544,0.13115111,0.10616448,0.1319428,-0.11197306,0.0558377,0.14932378,-0.680728,0.16047305,0.04023008,-0.0071875714,0.0626459,0.16601707,0.06413439,0.11734302,0.038015746,0.1334489,-0.7461183,-0.03904558,-0.112008065,-0.23072165,-0.11629082,-0.16626641,-0.08556233,-0.09853626,-0.18764012,-0.15888833,-0.13873968,0.040266734,-0.1561192,-0.072925985,-0.067210235,-0.1726991,-0.09025288,-0.091982365,-0.14318617,-0.09875665,-0.09945478,-0.15064429,-0.24975914,-0.19842905,-0.16181578,-0.22388251,-0.22249188,-0.10105716,-0.117949285,-0.17453702,-0.1325444,-0.18154505,-0.20699586,-0.10284359,-0.1250332,-0.124668136,-0.14883754,-0.11821439,-0.14204982,-0.24363835,-0.17481361,-0.17024948,-0.12716746,-0.16143684,-0.15633968,-0.11656424,-0.08048629,-0.115657575,-0.18742393,-0.21060126,-0.4523906,0.85224515,-0.15167801,-0.13468747,-0.18861988,-0.18303679,-0.087876946,-0.15735723,-0.14796425,-0.19796413,-0.16433223,0.026704496,-0.26618055,0.95175517,-0.21424384,-0.16444223,-0.1375914,-0.09438816,-0.07782139,-0.07846039,-0.1655817,-0.2289847,-0.26056927,0.85253614,-0.15816325,-0.119271584,0.0011466477,-0.14930397,-0.07797296,-0.12487129,-0.15915284,-0.26358113,-0.053764444,-0.1449773,-0.16148503,-0.116747014,-0.10885739,-0.19793256,-0.11411663,-0.07135994,-0.1624026,-0.17253454,-0.15851438,-0.17149621,-0.12768845,-0.19001,-0.12622274,-0.19578505,-0.16127676,-0.16780423,-0.047760453,-0.102428615,-0.14907256,-0.08739613,-0.04938062,-0.09350516,-0.17655845,-0.09268542,-0.07545588,-0.17284475,-0.16112047,0.030209698,-0.19840243,-0.14243639,-0.1567127,-0.10982212,-0.15276769,-0.1780901,-0.1362509,-0.18032604,-0.1075752,0.007824717,-0.0038052753,-0.0733817,-0.07158445,-0.10748108,-0.04873804,-0.06440019,-0.11319218,0.1728096,-0.046851214,0.015272638,-0.034352474,-0.02947872,-0.051700573,-0.026826965,-0.008853113,0.050162937,-0.03626795,-0.07264836,0.034547932,-0.034949377,-0.0421039,0.34041873,-0.06702145,-0.07925635,-0.02996702,0.01214829,-0.08217979,-0.11797995,-0.041460164,-0.058003116,-0.03429265,-0.043417137,-0.06656519,-0.1982777,-0.0541886,-0.05796651,-0.054656073,-0.14652859,-0.036857907,0.020176606,-0.11457932,-0.055835307,-0.15783358,0.13557026,-0.0723243,-0.11095676,-0.048551444,-0.061086025,-0.063177936,-0.14465676,0.026890958,0.08466245,-0.0026281865,0.041657265,-0.13304232,-0.11067981,-0.054530147,-0.038317148,-0.06285827,-0.08421167,0.0087653175,-0.017234934,0.11748342,0.07615408,0.02142781,-0.15837131,-0.05766299,-0.06640232,-0.0460128,-0.075621426,-0.089033,-0.12947896,-0.24420245,0.027560515,-0.023805829,-0.0017822763,-0.029702473,-0.10580784,-0.08762355,0.061631087,-0.12179059,0.0036042274,-0.06768483,-0.030770874,-0.041748367,-0.10316063,-0.25419164,-0.09963168,-0.07277762,0.01576897,-0.058345806,-0.07434697,-0.009955894,0.015474839,-0.048466172,0.028651815,0.004667631,0.03044311,-0.04540106,-0.06961451,-0.07355243,-0.052765843,-0.13385534,-0.17465307,-0.0149577465,-0.07084639,-0.007925069,0.010916291,0.028509086,0.15616958,0.03273353,-0.067423284,-0.039903548,-0.11855737,-0.017005583,-0.09721473,-0.13919635,-0.06586203,-0.17461371,0.046820864,-0.029946396,0.6093579,-0.042226803,-0.640076,-0.35808006,-0.390015,-0.5879381,-0.5229795,-0.3666449,-0.44948474,-0.20337926,0.5588288,-0.20170702,0.09602085,-0.2779253,-0.09778054,-0.2511713,-0.50744057,-0.23332135,-0.31919634,0.016010927,-0.09886786,-0.4997044,-0.108746424,-0.19866729,-0.17118908,-0.10243371,-0.41615552,-0.4713162,-0.7106315,-0.40782812,-0.24959478,-0.52892345,-0.66365135,-0.601799,-0.47694647,-0.15190288,-0.8012071,-0.4389081,-0.6348086,-0.22044498,-0.17207558,-0.40890053,-0.49206468,-0.27554297,-0.51585984,-0.104238704,-0.44864208,-0.5802611,-0.38335592,-0.31681108,-0.13384187,-0.37926573,-0.38430247,-0.5018274,-0.23860627,-0.5190722,-0.6828356,-0.14043014,-0.7124628,-0.35074922,-0.5603855,1.0565494,-0.14318058,-0.42364872,-0.4864164,-0.32066566,-0.6662184,-0.19840147,-0.5303813,-0.47986624,-0.5351825,-0.37198874,-0.15363032,0.29480833,-0.40287074,-0.35855773,-0.43541184,-0.35217005,-0.14327797,-0.43912756,-0.49389067,-0.16324888,-0.3459744,0.071694255,-0.32347047,-0.5687095,-0.20927289,-0.47321084,-0.5418278,-0.26635474,-0.64785624,-0.41199258,-0.35832593,-0.11801119,-0.013711185,-0.7353672,-0.4731002,-0.57246286,-0.3548875,0.046052117,0.19333582,-0.40783405,-0.35023934,-0.24474041,-0.20887956,-0.18628049,-0.5005076,-0.22375563,-0.109689005,-0.21052638,0.5528836,-0.21962576,-0.430228,-0.37365296,-0.2230348,-0.606122,-0.41565704,-0.66269714,-0.47691718,-0.36991954,0.56798065,-0.038970947,0.043006737,0.058518786,-0.003000708,0.07002354,-0.036757283,0.089702055,0.0130752865,0.040503,0.0836642,0.008391582,-0.032200824,-0.0038885707,0.10217707,0.011451909,-0.15076245,0.02985821,-0.22564149,0.0613861,0.056251764,-0.14092186,0.08470287,0.060933545,0.058167476,0.0032268863,0.03160587,0.015038707,-0.38409957,0.09062401,-0.042107955,-0.10630515,0.05650009,-0.03169838,0.083240494,0.045129314,0.05871624,0.039643,0.0073120864,0.076979935,-0.046227574,0.05496846,0.004702948,-0.27909458,0.103591874,0.022367846,0.045532636,0.104566015,0.12602462,0.083220586,-0.08876474,0.011338501,0.047003374,-0.23243824,0.03796477,-0.2025635,0.05627983,-0.012745631,-0.008116278,0.10179757,0.0164383,0.019352052,0.03194231,-0.013969695,0.1013488,-0.08677066,0.07245838,-0.050560553,0.025143595,-0.11322476,0.063391365,0.06523035,0.14990787,0.021114709,-0.0026772902,0.03576599,0.16010393,0.020565065,0.037518304,-0.09056631,0.046710722,-0.101759754,0.0047406037,0.090154335,0.052172486,0.058382317,0.09587962,0.077982,0.031282533,0.027521597,0.083060525,-0.027158042,0.05614154,-0.0027412367,0.04498535,0.0050419904,0.083669014,0.023116918,0.112392336,0.044577826,0.02728244,0.07400805,0.03640005,0.007999267,-0.03356529,0.06269994,0.07304696,-0.026874434,0.024411824,0.014532126,0.008469825,0.028371636,0.052778415,0.05573146,0.03656644,0.053003795,0.037386738,0.04730664,0.03413202,-0.0187798,0.052730776,-0.038333073,0.031209381,0.099726215,0.04069508,0.031881224,0.080147386,0.08077951,0.06818642,0.06496789,-0.043112032,-0.007199793,0.013131928,0.06691455,-0.03611899,-0.055808883,-0.013404537,-0.058704235,0.040979195,0.0165621,0.08316569,0.10621364,0.06446049,0.090369515,0.06953868,-0.021427657,0.020950247,0.0011320013,-0.01566067,0.13831562,0.08491448,0.060482953,0.07703401,-0.0062230476,0.014049167,0.054794326,0.019158093,-0.0013519555,0.05372327,0.01440704,0.013847946,0.048924968,0.0136714075,0.056335658,-0.021965476,0.09763877,0.06754834,0.010867393,0.0038593789,0.038363237,-0.06144185,0.037884157,0.1031705,0.09898029,0.082593806,0.054980427,-0.05367382,0.01477927,0.0116192615,-0.0018156166,0.044160802,-0.044991065,0.03687257,-0.15348962,-0.013483704,0.06591549,-0.10911804,0.02536577,0.08380114,0.09307819,0.077809304,0.07442106,0.050012764,0.0026591748,-0.022106057,-0.08364095,-0.028094538,0.07550306,0.057226237,0.13325118,-0.0021110817,-0.03353063,0.039003134,-0.015034625,-0.017256355,0.03561006,0.034886062,0.04351115,0.038960792,0.07387229,-0.017987149,0.06939355,0.082644224,0.07567509,-0.015742337,0.032659806,0.03585301,0.012458696,-0.011316996,0.04424553,0.07086932,0.016469562,-0.010397169,0.012349567,0.061296273,0.02633032,0.08306704,0.0319304,0.06530325,-0.070769034,0.088333346,0.02482577,-0.02079627,0.03920711,0.08105449,0.10761053,-0.03932382,0.061792187,0.06294575,0.15134215,0.019126844,0.12961705,-0.045277197,0.51637167,-0.071467735,0.1997832,0.025786383,-0.3390932,0.20535177,0.09554189,0.22674204,-0.01734236,-0.016674882,0.52177954,0.039552458,0.043663416,-0.10766552,0.13133295,-0.073565125,-0.244406,0.15363562,0.22737028,-0.02020614,0.026458576,-0.059588045,-0.1052464,0.19800302,-0.14548089,-0.11306589,-0.27833736,0.08275172,-0.039886165,0.18513314,0.06081415,-0.39613292,0.05394094,0.025592739,0.1594049,-0.19081755,-0.0693601,-0.01562871,-0.07523514,0.15533954,0.19815499,-0.34173563,-0.09896129,-0.3568221,-0.06169408,0.13977519,0.049735744,0.11480629,0.24867614,0.26086432,0.017063016,0.093153045,0.11824266,-0.42293647,0.14402209,-0.07483258,0.030128816,-0.109000325,0.028298708,-0.00170457,0.05337629,0.030225672,0.07034893,-0.09304987,0.07619211,-0.34705657,0.05265768,-0.37197372,-0.0043314747,0.089799784,0.10223611,-0.056379814,0.06466111,0.074609675,0.18014114,0.037511554,0.1303591,-0.42085257,-0.1253635,-0.42233306,-0.1123858,0.045110922,0.05276009,-0.004241147,0.059358288,0.02862058,-0.11977471,-0.11129359,0.20576681,-0.4832687,0.10425487,-0.40314227,0.0005094092,0.027452914,0.098377965,-0.04796042,-0.027941724,0.17093942,0.045352787,0.11199905,0.111407265,-0.06490813,-0.10198173,-0.061206512,0.12706865,-0.20590588,0.166048,-0.055448286,0.12400073,0.028259462,0.5184421,0.008945067,0.12949426,-0.12304596,-0.029853106,0.014618948,0.054588314,-0.26259387,0.13094167,-0.19407105,0.54553735,-0.04703021,0.17087288,0.15373974,0.084725305,0.015745552,0.082160376,0.05102356,0.04077051,0.119381815,0.071734995,-0.00040676506,0.08927038,0.08775863,0.09585878,0.08342989,0.050796103,0.056192495,-0.0096970415,0.048118327,0.14595893,0.028761582,0.06224778,0.072576985,0.13694188,0.20134775,0.07936801,0.07256666,-0.17273667,0.08334112,0.053438798,0.14337508,0.10627138,0.11757854,0.09377603,0.14175278,0.10535879,0.042644706,0.047693472,-0.06735966,0.034756236,0.13467656,0.09028032,0.019107383,0.004601797,0.02519016,0.04484821,0.055259176,-0.056224383,-0.0033114771,-0.2726606,0.06907409,0.14696184,0.07237099,0.1008163,0.0044047493,0.11247184,0.058118798,0.05941028,0.109663926,0.013453322,0.04918944,-0.0106545305,0.049243845,0.059356254,0.030740846,0.03446725,0.10747698,0.07437291,0.05762995,-0.0032267107,0.029972374,-0.09326784,0.11184901,0.12695293,0.07326736,-0.001714607,0.027493926,0.08046286,0.021379517,0.11038578,0.06813402,0.043521497,0.053553723,0.08830343,0.110209554,0.09836893,0.105818495,0.059278294,0.11649071,0.10860159,0.10313062,0.012534123,0.08126441,0.0936082,0.08174024,0.054567337,0.14738612,0.13488925,0.074932136,0.12195329,0.15685123,0.13282488,0.10643691,0.08912264,0.014491259,0.117418334,0.07979855,0.092870735,0.12247402,0.109603666,-0.041367423,0.10854099,0.13491991,0.046730537,0.07699132,0.06873023,0.031504594,0.10972742,0.09861767,0.10133737,0.045483105,-0.028965738,0.0010516397,0.07022198,0.111113206,0.060424633,0.06374654,0.03124635,0.029939694,0.00014362628,0.042542826,-0.051632214,0.06595022,0.014406177,0.035090342,0.02632589,0.08450588,-0.0007064353,0.018170059,0.11641646,0.07911429,0.029750755,0.04222764,0.01738013,0.01123914,0.078577496,0.040233184,0.039298095,0.105373845,0.06765259,0.08634119,0.06772356,0.057865962,0.067557186,0.07620941,-0.014102636,0.03252934,0.030420784,0.03588747,-0.037645485,0.027457505,0.11631592,0.041776523,-0.027395107,0.09860792,-0.025848541,0.07790666,0.0242642,0.027528018,0.0097726695,0.046090625,0.057100665,0.05721288,0.09064333,0.059555165,0.03642015,0.088005394,0.049799636,0.03120755,0.121785805,0.08754728,-0.010394073,0.036081858,0.030892,0.053139523,0.064291604,0.09748096,0.098874345,0.04212762,0.057842806,0.046807244,0.10958582,0.020846825,0.050429735,0.059567153,0.023617163,0.005802418,0.004817096,0.041500933,0.059303194,0.04495,0.08933325,0.002097215,0.017331176,-0.014768217,-0.012930715,0.019587055,0.051780906,0.035413913,0.04658236,0.046084736,0.03735653,0.10340757,0.025200058,0.05657593,0.07352602,-0.027895665,-0.02421745,0.057850644,-0.00497309,0.010796622,0.06389159,0.065363824,0.015097935,0.038267802,0.055709206,0.055766243,0.04443891,0.019006846,0.055234093,0.008152259,-0.012349519,0.0064668776,0.05832089,-0.0037828218,0.014386871,0.0151192285,0.041019153,-0.019687697,0.046467368,0.032413352,-0.031296976,-0.63984215,0.19956245,0.08201857,0.0690893,-0.0056505804,0.22592922,0.012355405,0.06396319,0.006963283,0.07665935,-0.719833,0.2197886,0.13079777,-0.057662066,0.10583387,0.17651106,-0.010920943,0.027084779,-0.012264517,-0.07190064,0.081233695,0.17229187,0.013641492,0.09769273,-0.030660544,0.0562235,0.004113353,0.08878731,0.01517916,0.06302639,0.040449914,0.024745436,0.070009455,0.10441511,0.062121764,0.020015616,-0.04672566,-0.009835789,0.10864348,-0.0036445188,0.077186555,0.052470002,0.036651745,0.010159783,-0.05446742,-0.023736563,-0.063149,-0.0039210087,-0.04866539,0.0882117,0.040915404,-0.0742289,-0.006383241,0.12149007,0.058879726,0.21417348,0.10157722,0.017358337,0.041041374,0.07103711,0.07202647,0.09739559,0.12154785,-0.071350224,0.11301959,0.078761,0.07482917,0.02946751,0.06942735,0.036598995,-0.037638772,0.23462148,0.0059818537,0.020261064,-0.074277885,0.1089462,-0.031006042,0.03811799,0.0571296,-0.046313066,-0.0017140714,0.07043623,0.015712406,0.013923196,0.009785575,-0.01179208,-0.02640591,0.0715464,0.04778042,-0.0546826,-0.12791675,-0.10424493,-0.087470956,0.13094799,0.03428442,0.047201835,-0.029931976,0.078983806,0.053057007,0.10263651,0.036194935,0.047639444,0.026508268,-0.00083954947,0.18086569,0.019870676,0.1419064,-0.073658355,-0.046974193,0.11353238,-0.72371954,0.15759203,0.088236764,0.0097376555,0.08754446,0.08171941,-0.07266325,0.023613693,0.06257599,0.09031562,-0.6683155,-0.017184649,-0.0729273,-0.07748483,-0.09652068,-0.023829522,-0.11668459,-0.01131755,-0.1030434,-0.113543116,-0.15766153,0.008790483,-0.07469844,-0.041258756,-0.06611832,-0.07976407,-0.016884353,-0.05756846,-0.015074612,-0.116373226,-0.15301552,-0.022240667,-0.067164876,-0.09126086,-0.04326712,-0.021970354,-0.039414626,-0.0832558,-0.0517252,-0.037630647,-0.14075257,-0.15562028,-0.083045356,-0.08755961,-0.085787155,-0.03272891,-0.113304846,-0.060278177,-0.013456659,-0.08041197,-0.016787212,-0.05186992,-0.09342601,-0.068625286,-0.045496687,-0.10237273,-0.084696844,-0.036253914,-0.059902288,-0.07729622,0.0679848,-0.0443449,-0.08860306,-0.06711335,-0.11657128,-0.087738745,-0.0037636503,-0.07624308,-0.11544304,-0.033703774,-0.008143653,-0.0038152048,-0.032709654,0.030944627,-0.029059513,-0.06260607,-0.057617567,-0.14119092,-0.15722717,-0.30274832,-0.4495355,-0.8111158,-0.04544456,0.47469574,-0.029181926,-0.068971604,-0.04700858,-0.0609825,-0.1787477,-0.081884176,-0.06370321,-0.029801952,-0.03848279,0.6114297,-0.05557315,-0.081838116,-0.065829016,-0.053606525,-0.034979984,-0.079663455,-0.04548809,-0.012693182,-0.105654836,-0.004576698,-0.04447173,-0.0977824,0.0010400793,-0.0805475,-0.11942089,-0.036629584,-0.13232395,-0.07543906,-0.07775999,-0.13387927,-0.07499538,-0.020738322,-0.0478583,-0.07679579,-0.09118753,-0.20210725,-0.13515472,0.02705623,-0.10265053,-0.096035235,-0.0701114,-0.05846938,-0.108698905,0.019673143,-0.10023276,-0.08539529,-0.053654574,0.0013258485,-0.041359782,0.03181235,-0.06294818,-0.0383164,-0.061603155,-0.057343435,-0.071107425,0.120296955,0.022823885,-0.24194337,-0.022748873,-0.013499498,-0.0032239656,-0.030403558,-0.07122261,-0.27106133,-0.0048342515,-0.005558674,-0.13139047,0.0066414718,-0.057549465,-0.082744665,-0.050251164,-0.009297213,-0.0032516655,-0.07573384,-0.049792282,-0.018898664,-0.012230771,-0.03849191,-0.059835758,-0.018683322,-0.009181829,0.09259009,-0.027726224,0.015888037,0.0074831983,-0.13869707,-0.04935595,-0.11195147,-0.11433852,0.0085595185,-0.18097654,0.103832476,-0.068573244,-0.080205776,-0.011968973,-0.07476215,-0.13050671,-0.26873502,-0.18885383,-0.11410442,-0.042841878,0.020883031,-0.12681305,-0.20129119,-0.10525913,0.024034863,-0.025554191,-0.30310506,0.04717252,-0.10018691,-0.10382074,-0.098739855,-0.12287789,-0.16913658,-0.08845452,-0.0016711988,-0.003381613,-0.050575454,-1.0689477,-0.060551066,-0.32431263,-0.6163244,-0.12576587,-0.1896611,-0.21516894,0.020165293,-0.07185432,-0.023453774,-0.042259276,0.018142717,0.011633927,-0.40866897,-0.12444951,-0.28565383,-0.49061787,-0.111411676,-0.021987127,-0.050505348,0.027209813,-0.066410266,-0.19047734,-0.2732472,0.0037804423,-0.068519324,-0.03746124,0.032186717,-0.044470396,0.0479532,-0.032023296,-0.027908577,-0.103865035,0.02360569,-0.18034914,-0.05857971,-0.09568708,-0.038250227,-0.014440214,0.18466523,-0.044444617,-0.053600624,-0.019178052,-0.06341793,0.040518448,-0.064791605,-0.11440816,-0.14462122,-0.16401762,-0.093114525,0.015436844,-0.16147898,-0.10796308,-0.3836495,-0.4253698,-0.20627975,-0.2737868,-0.1966104,0.02059492,-0.37047666,-0.30249584,-0.17448692,-0.19870727,-0.19297993,-0.06758588,-0.08068201,-0.22774388,-0.18325269,-0.226855,-0.13276963,-0.07671606,-0.220961,-0.18547572,-0.3126621,-0.08587344,-0.20775025,-0.191932,-0.12666988,-0.2049798,-0.26722166,-0.047216117,-0.29380086,-0.23319207,-0.42855376,-0.2275807,-0.22398143,-0.33060652,-0.19994885,-0.21628915,-0.2177674,0.014049627,-0.0334375,-0.30899164,-0.13479507,-0.33013293,-0.260926,-0.24438795,-0.10085007,-0.13123284,-0.28208092,0.15301557,0.06257847,0.03503949,-0.13479882,-0.07731957,-0.27962905,-0.32892632,-0.22130719,-0.019243428,-0.4050264,0.12352606,-0.13497095,0.457831,-0.2243314,-0.31860775,-0.16850214,-0.28285995,-0.41171864,-0.3200613,-0.22826003,-0.17697237,-0.072478585,1.0484821,0.027796537,0.15596376,-0.27612334,-0.020639606,-0.21751218,-0.20599699,-0.25139013,-0.21947901,-0.26478192,0.006978933,-0.18342249,-0.24734955,-0.13408855,-0.10035986,0.02968857,-0.18779945,-0.38851935,-0.18103522,-0.15315042,0.028598664,-0.18945989,-0.11782791,-0.14037742,-0.3145145,-0.12353935,-0.26462966,-0.39091942,-0.43667543,-0.057755813,-0.25382107,-0.39212924,-0.17544626,-0.22035632,-0.18180357,-0.21201307,-0.09574312,-0.14184639,-0.2681195,-0.18645062,-0.11421248,-0.44458237,-0.07400533,-0.16874486,-0.15251587,-0.05053788,-0.36474615,-0.32071567,-0.17690228,-0.20739377,0.043198906,-0.1730502,0.006997004,0.12315096,0.10742564,0.06650372,0.108972296,-0.0034423987,-0.15171058,-0.068310045,-0.031418804,-0.1368919,-0.10694018,0.019433785,0.026370361,-0.093845,0.07144792,-0.00029221803,-0.10071992,-0.07213034,-0.013031565,-0.038187247,-0.14215732,-0.023950066,-0.011836294,0.007323505,-0.07088243,-0.038005862,-0.025067948,-0.035073463,-0.18892817,0.014640278,-0.038957126,-0.017677125,-0.1587914,-0.0068946965,0.023846388,0.0009343304,0.07590855,-0.044000197,0.007480933,0.010879558,-0.13159181,0.15063727,0.063724056,-0.1132999,0.021621602,0.042424295,-0.13296176,-0.14731741,-0.16932212,-0.1027173,-0.10581981,-0.07442653,0.13345796,0.018653944,0.017832913,-0.08632016,-0.051822267,-0.26080418,-0.03392652,-0.17269629,-0.021993684,-0.12284621,0.0058455635,0.13066821,0.055204097,-0.10018703,0.06096628,0.05630829,-0.12124248,-0.08906137,-0.24597527,0.019697946,-0.18824989,-0.062622674,-0.0016077204,0.004680063,-0.10856383,-0.027098753,-0.051149774,-0.053404626,-0.07553028,-0.13713554,0.028999778,-0.05263944,-0.037859607,0.1173583,-0.11288019,-0.03720092,-0.08964467,-0.053996388,-0.07333815,-0.07127393,-0.027973887,0.036478754,-0.19606437,-0.008798104,-0.099878274,-0.1496538,-0.06203106,-0.017644573,-0.17843525,-0.061443765,0.1190043,-0.13372315,0.043300554,-0.08241042,0.027884318,-0.08166349,-0.00452987,-0.12088631,-0.095632955,-0.0117882695,0.0045152926,-0.0041877176,0.07047903,0.080961965,-0.048388693,-0.17752385,0.013866096,0.0384682,0.10677656,0.1446513,-0.03223684,0.11269076,0.053552493,0.2130442,0.073777184,0.13752198,-0.017437927,0.03012926,0.37016672,0.09148226,0.23301598,0.042909242,-0.10257869,0.12023628,0.12740023,0.03678445,0.13999276,0.2128883,-0.15072718,-0.03315808,0.17191626,0.17160313,0.0054910113,-0.021834742,-0.03274354,0.047786754,0.10515737,0.1529878,0.15685973,0.16164497,0.04462857,0.11645845,0.15332562,0.0009495355,-0.021161893,-0.06835568,0.038970944,-0.1973249,0.18339193,-0.019914659,-0.008221883,0.17505091,0.08566398,0.20439658,-0.036471296,-0.13732821,-0.17764242,-0.12953568,-0.022153273,-0.018138198,-0.04065393,-0.0001820323,0.039315537,0.103783086,-0.003207753,-0.111805774,-0.1288757,0.017535672,-0.119165994,-0.14121222,0.044146292,-0.08730775,0.1293606,0.048719995,-0.027916364,0.08871131,0.044510618,-0.12353688,-0.054781377,-0.26459882,-0.11839102,-0.06802894,-0.010940674,0.057781566,-0.061688825,0.13408971,-0.074546725,-0.049276877,-0.12521777,-0.20728298,-0.081289046,-0.018962529,-0.108038716,-0.1531092,0.20042068,0.16887963,0.19641997,0.059490252,-0.061131127,-0.126064,-0.06598557,-0.006966006,0.055642437,0.17474626,0.13769917,0.04189916,0.2800764,0.14083567,0.2119414,-0.004624299,-0.098522715,-0.16428076,0.046037517,0.11974691,0.24593298,0.23486637,-0.19472376,0.013568951,0.31845284,0.21448681,0.16538255,-0.016944159,-0.06839228,0.011327095,0.24322604,-0.09392199,0.29079494,-0.034382712,-0.13399607,-0.0971921,-0.9348562,-0.41004598,-0.2016005,-0.045949418,-0.39001465,0.046931166,-0.5992089,-0.37661862,-0.12695079,-0.11077091,-0.23557906,-0.18164527,-0.09791727,0.028284522,0.12802441,-0.010070105,-0.14172365,-0.043232653,0.30048898,-0.16411002,-0.72944313,0.29861322,0.2505157,-0.050073408,0.036934037,-0.33174756,-0.19220969,-0.13246785,-0.16818693,-0.050463147,-0.87706155,-0.00067958323,-0.107906215,-0.17471793,0.0851794,0.19382162,0.019008039,-0.13966414,-0.015718488,-0.20866309,0.084784426,-0.109205104,-0.3244769,-0.23611908,-0.15528767,0.06686038,0.20377313,0.19052784,0.20552066,-0.028671319,0.21913216,0.14810312,0.39535,-0.01447408,0.07165676,0.015787024,-0.3815214,0.108521774,-0.03848622,0.25952104,0.1013777,-0.6139634,0.11126857,-0.04782014,-0.19776486,-0.28821102,-0.41805494,-0.11080446,-0.04005281,0.23022312,0.2086846,-0.27815244,-0.83948326,0.039136246,-0.3613822,-0.52389175,-0.040049165,0.018152434,-0.30396625,0.25834122,-0.3618218,-0.15750094,-0.5356314,-0.44302616,-0.22443585,-0.3300243,-0.70988834,-0.50051075,-0.26304793,0.0039119194,-0.25715372,-0.45979175,-0.41575235,-0.40283847,-0.33845526,-0.10239093,-0.68777424,-0.29470614,-0.17913485,-0.16796997,-0.023987906,-0.074549966,0.108303286,-0.0056399843,-0.364815,0.11152474,-0.05535899,-0.4762278,-0.14471444,0.08578912,-0.3562843,-0.109650835,0.034221344,-0.33901653,-0.036740556,-0.16463776,-0.81597084,-0.09021672,-0.08809218,-0.037523616,0.1347224,0.027951345,0.0026389016,0.042999465,0.06693143,0.11929234,0.012501372,0.057816766,0.07585607,-0.031312075,0.027321728,0.030661399,0.02116526,-0.027169364,0.1021106,0.10303896,0.25250596,0.016982822,-0.0032699285,-0.24973732,0.07330461,0.012746771,-0.06832714,0.014137177,0.1240026,0.017110366,-0.16750889,0.10895948,0.052985337,-0.09201994,0.021218989,-0.08566169,-0.06698768,0.08753925,-0.02803287,0.046605945,-0.08757258,0.029792445,0.028526334,0.10552456,0.12328043,-0.20081456,0.10056959,0.09933722,-0.25161237,0.051831845,-0.23994255,0.04569462,-0.70628494,0.05396457,0.022919443,0.117846034,0.11231231,-0.05274,0.06315375,0.029577088,0.04039306,0.10121883,-0.16616403,0.052211538,-0.16720626,0.059113435,0.13257523,0.07566486,0.10789797,0.080172524,0.12671426,0.045998253,0.17298277,-0.0053990814,-0.24318093,0.05361359,0.12175505,0.038817674,0.17163153,0.024017394,0.04219202,0.021899665,0.0744933,0.07063174,0.21931359,-0.0012437465,0.15975739,0.04747578,0.012352254,0.008251538,0.022087567,0.09341753,-0.0065774317,0.071170054,-0.0035870858,0.06662088,0.082680196,0.11638931,0.027675439,-0.022344254,0.059351314,-0.02949086,0.13459173,0.041559182,0.048215058,0.0053540086,0.02662788,-0.054822367,0.026957639,0.12936997,0.01215525,0.05962258,0.03279082,-0.03470443,0.03322223,0.05654081,0.04096429,0.04412709,0.007687008,0.0074765356,-0.0094865635,0.05169203,0.03204021,-0.00039269964,0.01563202,0.11517855,0.048459813,0.09407015,0.0705033,0.15960984,0.008005057,0.05648034,0.09938011,-0.03461076,-0.03461207,-0.0056069684,0.008491362,0.065491594,-0.030182386,0.09177286,0.040956862,0.03754785,-0.0012840956,0.0019709582,0.073453814,0.18926741,-0.0051350268,0.043703046,0.061181016,0.05321255,0.06753394,0.02206079,0.09465029,0.097565964,0.019773442,-0.021468196,0.06768797,0.007863096,0.050083727,-0.006878756,0.06181513,0.08841033,-0.07936229,0.05437851,0.06935919,0.062572666,0.012991026,0.116511635,-0.02117893,0.09360812,0.04580104,0.11335797,0.040728536,-0.01714233,-0.0060570943,0.011144903,0.055494845,0.1556017,-0.04631213,0.05864252,0.064540915,0.096185945,0.0085174665,0.032171108,0.050279275,0.04901403,0.059945352,0.04522489,0.02471598,0.1125055,0.10471503,0.08499741,0.07280148,0.090592586,0.07712921,0.0012619973,0.07152782,0.079880774,0.09090758,-0.00046651115,-0.015869252,0.096875526,0.08168967,-0.029832114,0.06255447,0.06541619,-0.0122834155,0.06510242,0.10598455,-0.03155558,-0.14387247,0.07837867,0.08841623,0.012857851,0.09417521,-0.010219751,-0.011794649,0.0400851,0.13518175,-0.0006057555,0.06355883,0.097364545,0.09524922,0.050023943,0.083781205,0.048045218,-0.048375424,-0.07142231,0.019355455,0.021776808,0.07855213,0.11415407,0.05111709,-0.13309267,0.0061480273,0.09742454,0.05845596,0.014685544,0.028940877,0.019310158,0.048525345,0.042501405,0.08946611,0.071398705,-0.033858318,0.72334343,0.17258531,0.014498558,-0.32505974,0.005925526,-0.01923606,0.18173577,-0.30594015,0.1614481,0.2304678,0.74031043,0.2846392,-0.03769457,-0.23886426,0.08909706,0.086518854,0.2013365,0.09306208,-0.09520419,0.044383768,-0.27607942,0.38749543,0.20250927,0.11722705,-0.21094276,0.14721276,0.28862202,0.15555319,0.08165707,-0.00736747,-0.037849803,-0.5311737,0.027073216,0.11155624,-0.5951288,0.03409516,-0.13287197,0.10575869,-0.22226563,-0.01678994,0.10391281,0.25679648,0.1365305,-0.4202993,-1.0264262,-0.012911478,-0.16947441,0.15272208,-0.40216184,0.041600917,-0.25119588,0.24707116,-0.024838783,-0.07129598,0.23744129,0.26265445,-0.045259386,-0.100857496,0.06905431,-0.024207912,-0.28814983,0.3174761,-0.022254951,0.28323674,0.17503193,-0.23435809,0.057329874,0.18544671,0.24376461,0.01844017,0.30774948,0.40070271,0.15056832,0.09301419,-0.0024380712,0.04433608,0.065308966,0.13629523,0.1655158,0.13653105,0.044596367,-0.027330479,0.11713292,0.02545377,0.041862983,-0.055736117,-0.081601545,-0.04519899,0.03248368,0.19293988,0.07647396,0.019507727,0.18953355,0.13375957,-0.21008633,-0.034533545,-0.06517606,0.07431872,0.058804635,0.35406274,-0.03435491,0.15806223,0.22253865,0.03510274,0.1096308,-0.04596585,0.057955835,0.1640372,-0.25430185,0.3533735,0.72680265,-0.06127179,0.2143343,0.13661288,0.10360032,-0.3223363,-0.27602306,0.10476923,-0.013110681,0.3480822,0.7554366,0.027213529,0.252438,0.092921756,-0.01907124,-0.073163375,-0.035069168,-0.02826678,-0.090144016,0.11264208,-0.07661701,0.015363883,0.12262769,0.087968774,-0.017169643,-0.062051117,0.09587432,-0.05260533,-0.024905391,0.066294596,0.033658702,-0.008554185,0.0015943965,0.13058323,0.06663698,-0.02431369,0.035487995,0.023056645,0.0158097,0.007458392,0.013223931,-0.014908393,-0.059853435,0.07138188,0.011720912,0.120858684,0.048404664,-0.0035639564,0.04037278,0.0045656716,-0.018848805,-0.01412643,-0.14796099,0.07915417,-0.1717569,-0.012762628,0.06369643,0.014646089,-0.015719138,0.004091029,0.070157155,0.103148185,0.040636763,0.107283816,-0.05703021,-0.059874993,0.020115662,0.024900898,0.074955225,-0.04012033,0.08158949,-0.0046039266,0.055378728,0.023667755,0.03085058,-0.027970886,-0.094608344,0.044250455,0.06567873,0.113713846,0.015148653,-0.006407387,0.057365328,0.07792786,0.047922123,0.06370493,0.05334152,-0.023316754,0.014116601,0.06345574,0.06982115,0.0050422815,0.06502962,0.1085362,0.039287634,-0.024128024,0.062251464,0.07479049,-0.043391783,0.12553783,0.04426882,0.04519671,0.05917301,0.050307985,0.055447392,0.026299067,-0.022650218,0.10143779,0.03195238,0.052050434,0.1674695,0.05540192,0.039957564,0.05276903,0.07438967,-0.031005727,0.051892094,-0.020139383,0.014413342,-0.11495017,0.0009491953,0.019689085,0.12919104,0.077818915,0.0020560133,-0.006366214,-0.042773865,-0.04260864,-0.04533163,0.07606576,0.09534658,-0.042541422,-0.05018106,0.021755517,-0.009212728,0.007772311,-0.0564211,-0.0800725,-0.011385528,-0.059501234,-0.0058666575,0.07021851,-0.008343249,-0.030965308,0.012946921,0.017658692,-0.005044199,-0.03635823,-0.03760524,-0.06901315,-0.024637898,0.06699618,-0.023994362,0.0910948,0.04734189,0.0014228498,-0.030626101,-0.05261769,0.06971724,0.0045856317,0.015845004,-0.052971005,-0.009551729,-0.012739183,0.0051678326,-0.07056056,0.03704212,-0.051152535,0.04595682,0.019283036,0.024373407,-0.015183744,0.1113801,0.005383182,0.12637672,-0.098129764,-0.03666366,-0.051670052,-0.010185314,-0.017480284,0.025776433,0.063761234,-0.0010742137,-0.02354101,-0.0004588688,0.04955261,-0.04667757,0.009692182,-0.016130414,-0.023547763,0.06397175,0.07880246,0.03728888,0.04116723,0.04058763,0.004440989,0.07513833,-0.10566617,-0.021736326,-0.04509833,0.009501529,0.01073402,0.0023423566,0.026879098,0.114412434,0.052172516,0.0937872,-0.03014865,-0.016156178,0.0032834667,0.0009639029,0.15248977,0.025406323,0.05078712,0.13644,-0.009417044,0.0583371,0.036970306,0.23352692,-0.053033493,-0.0078075607,-0.023150824,3.4297165e-05,-0.05108653,0.06549256,0.019736094,0.067707226,0.036465947,-0.01016616,0.025558664,-0.09910574,-0.031187091,-0.053534344,-0.012030242,0.05989028,0.07868816,-0.006430574,0.012009761,-0.0055214805,0.016066061,-0.053766787,0.05286794,-0.03800059,-0.024527438,0.04390269,-0.07818914,0.011019522,0.08089543,-0.07235539,-0.035589736,0.024666745,-0.071727395,-0.008528965,0.6574481,-0.05390007,-0.9212482,-0.9608241,-0.31021658,-0.048670072,-0.07470575,-0.026813895,-0.36915773,-0.5096495,0.6036902,-0.33415383,-0.40926534,-0.012106408,-0.17468056,-0.2405975,0.067139134,-0.15979362,-0.08945431,-0.4225994,-0.111964,-0.22581403,-0.80656844,-0.3631763,-0.08676191,-0.1950437,-0.15443006,-0.03804806,-0.098579355,-0.12424513,-0.34500277,-0.14867754,-1.0752873,-0.16377436,-0.20553273,-0.108287156,-0.063721314,-0.012717694,0.3692652,-0.13050832,-0.074736096,-0.14414142,-0.38876718,-0.19512095,-0.3608035,-0.1640372,-0.27374515,0.12269873,0.16499886,0.1907971,-0.13149868,-0.13715263,-0.19217962,0.060628153,-0.56316376,-0.0910083,-0.05915008,-0.083125904,0.08731299,0.099668205,0.28499076,0.16740039,0.06866482,-0.0008618794,0.08426429,-0.17208311,-0.35111487,-0.051264487,-0.14208649,-0.066771425,0.049246766,0.038258404,-0.0607515,-0.15398996,-0.122509025,0.06528611,-0.09088867,-0.5516139,-0.23711058,-0.066234075,-0.06141845,0.001384598,0.06548096,-0.123581,-0.021654308,-0.2332573,-0.16928829,-0.14843045,-0.5240425,-0.3049661,-0.20303114,-0.15629917,-0.10223161,0.048294988,-0.22056504,-0.16954273,-0.26368877,-0.12816337,-0.7813786,-0.2230222,-0.528108,-0.34337375,-0.16732621,-0.16414352,0.06609137,0.079498634,-0.18980192,0.024243575,-0.25847763,-0.10492505,0.6388546,-0.13135645,-0.8437658,-0.20836724,-0.18039924,0.07466477,-0.32590514,-0.38315332,-0.5280586,-0.294853,0.63771003,0.0024465343,0.05144908,-0.0069856076,0.051529195,0.055041086,0.0768288,0.008330175,0.09947096,0.004544243,0.025764229,-0.031808093,0.13270418,0.048868254,0.0988368,0.14732593,-0.11780289,-0.015729053,-0.453395,0.030637514,0.064737506,0.089390345,0.077026695,0.013551275,0.052951694,0.12334374,-0.018237041,-0.13192001,-0.44641668,-0.09127448,-0.12651771,0.12335759,0.0021773535,0.062784776,0.09887529,0.0798339,0.05937831,0.08987234,-0.08468745,-0.4539209,-0.08943977,0.07834222,0.012719969,0.10747664,0.020472664,0.040667873,-0.033095557,0.04909648,0.061461404,-0.26550335,-0.17612119,-0.060627673,0.05651831,0.11735804,0.15289874,0.05706576,-0.030728988,0.046517793,-0.007885287,0.026047414,0.0605355,0.028789338,0.11490136,0.09699767,0.20183419,-0.031415414,-0.0037173051,0.05126763,0.003749141,0.12923048,0.010203565,0.07256488,0.19589052,0.015047503,0.007462644,0.005274394,0.14797768,0.0007701635,0.00647679,0.08193431,-0.12895764,0.094108045,0.024675252,0.07153397,0.065130785,0.050067324,0.0610307,-0.023861567,0.04879007,0.07425528,-0.08462177,0.081042655,-0.061772585,0.08689761,0.08750303,0.106525026,-0.018543253,0.14618291,0.07514422,0.038100127,0.04182491,-0.0024181393,-0.055355687,0.008013933,0.121020496,0.0995648,0.080495305,0.051348936,0.030004228,0.0921694,0.14354128,0.04426378,0.017262498,0.043616142,0.025618939,-0.029414669,0.026224308,0.017968647,0.072576314,0.082502395,0.0583838,0.0380983,-0.04816927,-0.03935722,0.094237596,0.078950465,-0.01079078,0.054387614,-0.108181596,-0.07986597,0.039213985,-0.15265732,-0.019005867,0.042133298,0.0935247,0.06710624,0.12987745,0.13419159,-0.027170684,0.0031211178,-0.014243996,0.004641562,-0.02940231,-0.14074343,-0.059500366,0.09093947,0.044182766,0.097189486,0.093073815,0.062036254,0.026217163,0.04814654,0.020630915,0.008288978,0.023345923,0.10245635,0.03935201,-0.0073336805,0.049361225,-0.032214988,-0.06061051,0.023424957,0.036106184,0.005631703,-0.0010064202,-0.08960447,-0.021952037,0.04422073,0.03984427,0.012519198,0.031995654,-0.01848278,0.037556015,-0.037063498,0.08067564,-0.002755973,-0.009893144,0.10836746,0.07189216,-0.0020290078,0.096865796,0.07570565,-0.03753289,0.07474873,0.010193371,0.1003829,0.062468573,0.091579616,0.083578475,0.055558354,0.010961007,0.029724536,-0.012264205,0.004185985,0.04570233,-0.04373712,0.017256306,-0.011148847,0.06448295,-0.032973114,-0.04175214,0.07233129,0.008386761,0.034727994,0.04461237,-0.015178854,-0.0077583655,0.0408885,-0.013557018,0.031286877,0.012623756,0.03663205,-0.09035597,-0.000635342,-0.04087648,0.078430496,0.0015625432,0.10804566,-0.015707845,-0.004004235,0.07935148,0.09084837,0.038168415,0.055947334,-0.0872908,0.017714841,-0.010854395,0.05896952,0.095276825,0.011828723,-0.0055688336,-0.10995153,0.048511602,0.0025209875,0.031341784,0.030549603,0.012053196,-0.03261084,-0.04125072,-0.012356989,0.09960429,-0.07114464,0.039341755,0.70393485,0.20933916,0.17026842,0.14015219,0.12669559,0.1345266,-0.47292215,0.11750651,0.039642833,0.11829141,0.67165613,0.34795898,0.08433739,-0.047953892,0.21425669,0.14712802,-0.26905203,0.026691794,-0.5423471,0.09480155,0.17883763,0.02704381,-0.1472425,0.17029308,-0.082357064,0.0031338134,-0.22148691,-0.3498224,-0.06881009,0.2054755,0.013417903,0.18456015,0.29885396,0.0126250945,0.10921852,0.051575307,0.016372373,-0.21738863,-0.26464802,-0.30911747,0.18386772,0.08968335,0.06635054,0.16404352,0.015301626,-0.015950134,0.19072233,0.14963439,0.13160542,-0.6058135,0.26635963,0.06773771,-0.11528368,0.049650073,0.05096817,0.11913086,0.06252322,0.014710296,0.00074603106,0.07573851,0.13984436,-0.031205878,0.18070817,-0.056705687,0.15857692,0.0052968077,0.062451854,0.113725856,0.02488704,0.04187856,0.016270207,0.06534325,0.088769026,-0.08178313,-0.01090189,-0.5286516,0.13754989,0.06741527,-0.1230181,0.13796996,-0.05912096,-0.14271444,0.09134449,0.07170139,-0.09826277,0.021633144,-0.031875715,-0.04589223,0.08023141,0.10835439,-0.5145648,0.1872709,-0.104389206,0.15322019,-0.22875267,-0.04161257,-0.2321067,0.05345082,0.09230492,0.1506913,0.012158408,0.10828843,-0.07237843,0.017743282,0.11512354,0.16382602,0.11035762,-0.050668564,-0.102482885,0.14746965,0.6726094,-0.050285444,0.17918256,-0.0112519665,0.08525388,0.086243145,0.043138787,0.19007537,0.21015476,-0.015960578,0.6897722,0.036776077,0.008487395,0.08101862,0.066881076,-0.014066184,0.100837104,0.07654005,0.07236172,0.00827054,-0.016450768,0.007904974,0.03933854,-0.0074884305,0.035578564,0.04382818,0.08655186,0.08539509,0.15108606,0.06804804,0.006968334,0.116027385,0.008862004,0.0048536286,0.045549076,0.10258795,0.049299017,0.06524077,0.10080117,0.02638874,-0.035214867,0.032895822,0.0634831,0.062770806,0.08830723,0.027872492,0.06112662,-0.06261524,0.061341107,-0.28452373,0.10451995,0.075008415,-0.00043627675,0.06243419,0.00011632663,0.0624528,0.04094745,-0.19362023,-0.041679174,-0.3405269,0.12069881,0.0012051859,0.06794124,0.10095444,0.016422154,0.022700917,0.012505754,0.09906392,0.089588754,-0.19896805,0.11317061,0.03410377,0.04250465,0.08149595,0.07609214,-0.0014536962,0.003683039,0.0139457295,0.029288424,-0.15753317,0.14305341,-0.19938867,0.0032542227,0.08528194,0.013594805,0.038986012,0.034873262,-0.017685352,-0.016831191,-0.041847628,0.013995129,-0.2610251,0.11463112,-0.07458089,0.02715057,-0.009022669,0.043577936,0.009705573,0.0688336,0.02812253,0.08972524,0.0038105568,0.0731468,-0.21235146,0.14271681,-0.047764927,0.062219515,0.13176762,0.0150265535,0.049402107,0.05230517,0.043185353,0.052102305,-0.04528447,0.1413011,-0.15674612,0.07223782,-0.047838602,0.066713296,0.030820802,0.036465418,0.027351936,0.06983939,0.00961316,0.07906776,-0.037440013,0.025161775,0.036928408,0.04345911,0.069780685,0.03097935,-0.021466378,-0.0009463759,0.05660151,0.04510078,0.073147915,0.05409284,0.010457729,0.03766434,0.06940702,-0.027920466,0.11372482,0.0008376503,0.048478615,0.010464798,0.07955098,0.08045076,0.026580917,-0.017971165,0.06524933,0.036888458,0.05558944,0.05018644,0.0934117,-0.047109112,0.007287058,0.031222116,0.0027598506,0.065790035,0.07073054,0.014558783,0.047671244,0.029463299,0.085444055,0.046955474,0.028106121,-0.038191732,-0.039065342,-0.005023386,0.06045824,0.04191237,-0.05944572,0.06907485,0.007521973,1.2950428e-05,-0.11096695,0.029253308,0.061811317,-0.025922492,0.023984201,0.014740654,0.03642339,0.021101939,0.03775516,0.06931045,0.07542057,0.07107898,0.0764688,-0.0025191759,0.114855416,0.017586615,0.012545742,0.04862299,0.033492792,0.066632345,-0.011895532,0.13264331,0.013836991,0.0542637,-0.03912027,0.03851203,0.03487068,0.043990657,0.049226306,-0.09096083,0.059067983,0.007969961,0.0902095,0.13108873,0.04999064,0.02982589,0.01750737,-0.000614231,0.03553084,0.0060828147,0.061167896,-0.07326212,0.114279084,-0.0948839,0.112173244,0.026040858,0.0016097856,0.02300455,0.08924077,0.018143972,0.035601955,-0.020262662,0.035861116,-0.01791417,0.08814975,0.0594078,0.037572723,-0.01872947,0.058772705,-0.0018507539,-0.0074137757,0.099970974,0.063735574,0.035355203,-0.03882277,0.002700443,-0.16050275,-0.050425496,-0.04236747,0.06922135,0.046177957,0.014631659,0.009109766,-0.048321843,-0.017026689,0.004075879,0.008619554,-0.041970883,0.67195076,0.116426416,0.23784602,-0.08475187,-0.058244955,0.20674223,0.17389432,-0.0027956923,-0.01001534,0.12183966,0.6718659,-0.18087865,0.27172533,-0.0779643,0.019899786,0.07770919,0.15152404,0.17466834,-0.15160246,-0.1450068,0.08009168,0.051886212,-0.21753281,0.1443423,-0.016624888,0.114869066,0.09761802,-0.045126386,0.076963946,0.17528215,-0.2944081,0.15513436,0.09999684,0.21975817,0.12358965,-0.032917555,0.1003765,-0.11661631,0.025350472,-0.28318158,0.062707916,0.05963438,0.17483246,0.20470603,0.19160128,0.11743244,-0.1380078,-0.32598263,0.22526109,-0.5330644,-0.062141757,0.16317846,0.08080721,0.09730337,0.1158642,-0.018146362,0.1345646,-0.26962966,-0.3183584,-0.4248474,0.09247204,0.0748374,-0.09623891,0.1523546,0.18287852,-0.011907718,0.09796834,0.20669146,0.14110461,-0.20131598,0.07714837,0.11174393,-0.04562207,0.01252718,0.020809729,0.009674536,0.10542332,0.054370865,-0.1020244,-0.29747626,0.15321365,-0.26032102,-0.106321126,-0.14438505,-0.0007982183,-0.11075904,0.042206563,-0.06897164,-0.10007316,-0.14959504,-0.040081136,-0.42029947,0.27586284,-0.59575063,0.09591015,-0.09680026,0.0071684406,0.0061502536,-0.01428815,-0.16669233,-0.0128715485,-0.11953427,0.22393814,-0.5277127,0.16384424,-0.38918012,0.07987114,-0.043302305,0.11281998,-0.18732086,0.6739383,0.037631795,0.14144187,-0.105403125,0.23389798,-0.3525153,0.16188975,0.07779504,-0.08856875,-0.1535129,0.644972,0.015314228,0.0040268935,0.09285105,0.019944992,0.06490627,-0.019516723,0.08136137,-0.07116695,0.026655037,-0.050311837,-0.046616085,0.019773366,0.033426184,0.026166238,0.069252804,0.04802898,0.0049386676,0.022387017,-0.014574513,0.00444232,0.017991735,0.018861476,-0.05246617,0.054192424,0.049867056,0.047209974,0.08824538,0.1616669,0.06647357,-0.046180755,-0.048906736,0.020712506,-0.0195798,-0.038243577,-0.0011272767,0.012329685,0.018957408,0.09339775,0.04568361,0.01817633,0.015931461,-0.24421221,-0.18123038,8.1138176e-05,0.082485564,-0.13025936,0.0678516,0.08684189,0.04700087,0.23094678,0.06954727,-0.03248292,-0.19657089,-0.06892851,0.0017967387,0.10991922,0.058966663,0.119560845,0.067258485,0.14657754,0.016348138,0.049482584,-0.039303742,-0.023884239,-0.05003785,0.1234827,0.04408008,0.028574806,0.056919873,0.13320976,0.06543871,0.107463464,-0.059391137,0.030816307,-0.04170883,0.042541247,0.023466289,-0.0008725421,0.036032576,0.07583735,-0.054002993,0.031174624,0.028492242,-0.004402948,-0.01080671,0.029648537,0.047790192,-0.0031820042,-0.0006269657,0.011608902,0.018638253,-0.01821583,-0.0070258845,0.08955228,0.05834035,0.06268272,0.060498554,0.01412894,0.021425596,-0.041558594,0.053461533,0.03348375,-0.029325964,0.023706842,0.08121623,0.017247904,0.08201067,0.02302129,0.06308682,0.06838694,0.0076883486,-0.0061639757,-0.000777105,-0.017448714,-0.008419548,-0.03555911,0.049353704,-0.002758217,0.09174091,-0.058178697,0.025740331,-0.012820993,-0.0633929,-0.018300593,0.025023874,-0.016640646,0.031433865,-0.06185493,-0.068192534,-0.01089841,-0.0002521439,0.04596219,0.022407994,-0.049346622,-0.01395503,0.0040017483,-0.005201722,0.04476748,0.008239565,-0.049113613,-0.032955207,-0.07575787,-0.042485546,0.05277917,0.0005039126,-0.034390476,-0.008583004,0.026870308,-0.05369987,-0.04027638,-0.0067633656,-0.011453101,0.01065799,0.061993722,-0.018264158,0.034207586,-0.02005451,0.011891088,0.02842407,-0.03818483,-0.074183516,-0.02743461,0.020667858,-0.008033285,-0.05389276,-0.053619523,-0.080072984,0.04926407,0.020956209,-0.033791028,0.011679771,-0.050519004,0.0047236844,-0.03271057,-0.080325395,0.016855398,0.004440187,-0.0041218763,-0.010594024,-0.05525847,-0.027560513,0.019279473,-0.010489005,-0.10808046,-0.006902375,-0.054363254,-0.08373554,-0.019136425,-0.039750185,-0.0058557345,-0.0016441375,0.021788796,0.03440915,-0.11612307,0.021626446,-0.0066829133,0.0010360931,-0.038057916,0.05686899,-0.012826545,-0.025999743,0.010704364,-0.018834557,-0.059598297,-0.09354568,-0.016141923,-0.07467656,-0.041318424,-0.008576517,0.051719856,-0.050087642,0.025986722,-0.03327673,-0.06534592,0.01616541,0.0008363891,0.010300712,0.0039561475,0.03533919,-0.07421681,-0.086940676,-0.038415093,0.021823196,-0.039303046,-0.011744977,-0.101860255,-0.033903148,-0.049440354,-0.021601615,0.036624435,-0.13626659,0.03473761,-0.026623417,0.04552124,-0.07625687,0.060961083,0.0053241467,0.005268364,0.047337275,-0.022480275,-0.01733257,-0.04179843,0.94539773,-0.028966317,0.15998508,0.16439252,0.089542046,0.016724033,-0.23189919,-0.10061908,0.1766241,0.08567262,0.86353993,0.07938851,-0.02317972,-0.054439347,-0.08496834,-0.11771867,0.032056894,-0.043340765,0.004954085,0.09596674,0.06704769,0.18755975,0.15807822,-0.056082405,-0.2722933,-0.09378702,-0.1557674,0.0747917,-0.06734739,0.11387427,-0.15090379,-0.54116255,0.20549831,0.079772756,-0.7264905,-0.25858352,-0.056318656,0.04174261,-0.024884593,-0.072327815,-0.047592763,-0.26770878,-0.8028067,-0.10762263,-0.8943512,0.08462441,-0.18339364,0.06672628,-0.03329698,-0.047187794,0.03697051,-0.59393096,-0.28138718,-0.38296437,0.17367628,-0.1058371,0.12756208,-0.13041928,-0.22062233,0.09603743,0.13900118,-0.73361176,-0.13553323,-0.49352926,-0.02169257,-0.00052457774,-0.0013270277,0.03775342,-0.12737148,-0.062582135,-0.07131679,-0.103326656,0.047006093,-0.2542606,0.030939303,-0.09289901,-0.0111308275,0.20807897,-0.28322592,0.008996102,-0.23833275,-0.34584582,-0.14264895,-0.060940694,0.030768616,-0.028921295,-0.053074352,0.18124709,0.18440497,-0.046063114,-0.11752793,-0.2513236,-0.19957349,-0.094297074,-0.08321467,-0.14875849,-0.08069097,0.038406476,0.1563311,0.15058897,-0.14740878,-0.0014023419,0.0842735,0.11561835,-0.08272483,0.17289759,0.018498866,-0.13485298,0.13676545,-0.0028751213,0.9073858,0.1812167,0.12095652,-0.10057797,0.097630456,0.040185742,-0.078132235,0.045912214,0.2771322,0.09390238,0.86066043,0.039910067,0.084808715,0.0043831724,0.044895858,0.006837279,-0.01893356,-0.0094041815,-0.046603426,-0.029508078,0.10217469,-0.024259511,-0.00067085016,0.012413448,0.011837573,0.0032756587,0.04492087,-0.05710659,-0.020101368,0.015679965,0.028564457,0.043026935,0.038569532,0.01899849,0.061596952,-0.033521935,0.02295964,0.04059252,-0.051072203,0.042264614,-0.01354262,-0.02775872,0.013325127,0.038505066,0.0028538858,-0.0430542,0.023466978,0.03489162,0.036438394,0.15374132,-0.012156871,0.012950674,0.12628876,0.053286064,0.014838638,-0.02381212,0.07034105,0.009627604,0.117180735,0.053883526,0.04612668,0.013781464,0.004883613,0.018504398,0.0064308383,0.002789777,0.042479865,0.008599827,0.20061667,-0.03383272,0.15627083,0.013623335,-0.040381163,-0.02295274,-0.038594972,0.018821029,-0.026071548,0.020320933,0.13275047,-0.07852407,0.041938845,-0.05343058,0.011323948,-0.0052595534,-0.044270962,-0.027553001,-0.10095611,-0.014910418,0.023329163,0.017801682,0.039543875,-0.019788295,-0.02083463,0.036396902,0.04022204,-0.016254988,-0.010291443,-0.041387655,0.024858974,0.0037519208,-0.0034556866,-0.05501221,-0.018510258,0.03726457,0.08059903,0.03046942,-0.02992001,-0.15523843,-0.0059864614,-0.00492456,0.04028715,0.025267003,-0.00031456476,0.02114855,0.016292876,0.012073,0.007625844,-0.04495875,0.023284495,-0.02749414,0.02624937,-0.036968876,0.034580242,0.00863694,-0.06846064,0.031381615,0.030190308,-0.0634825,0.003343316,0.010763866,-0.0075190538,-0.011215068,0.03286735,-0.101196386,-0.041930553,0.010549032,-0.08048209,0.06243424,-0.0041490165,0.06764545,-0.012143383,-0.041705657,-0.0066620223,-0.17117035,-0.0011055085,-0.063172676,-0.043066967,-0.0074590263,-0.02830921,-0.039561596,0.014943253,-0.10967004,0.016837416,-0.08295133,0.03538695,-0.018718135,-0.038752925,0.0006872644,-0.008932471,0.04726625,0.025390709,-0.02634795,-0.05556251,0.0085632,0.0073367967,-0.040678695,-0.009392358,-0.01178896,-0.023175457,-0.014387414,0.0584429,0.003496383,-0.05547038,0.026753249,0.021286935,-0.017631488,-0.09038289,-0.015500701,0.021292279,0.039606128,0.010452452,-0.05234049,0.15546374,-0.023412652,0.044409227,-0.024065629,-0.21774982,-0.036902543,0.021419056,0.00571623,-0.028809568,0.17046528,0.017165542,0.031860612,0.051225327,0.028964799,0.022390042,-0.086991236,-0.14539738,0.049647525,-0.013772802,-0.020122543,0.07847176,-0.052648067,0.050328936,0.05357316,-0.038018133,-0.08203054,-0.08920892,-0.050760683,-0.014893044,0.022587638,-0.04408956,0.018556055,0.14947322,-0.03478272,0.04561567,-0.012453853,0.027506748,-0.06676118,-0.01764919,-0.07251327,-0.04828817,-0.035287213,0.066474125,0.05242319,0.028427655,-0.005453596,0.0011524798,-0.011912932,-0.04267858,-0.058362655,-0.014637152,-0.002567286,-0.048025403,-0.014917065,0.039096806,-0.0806017,-0.075568944,-0.0033371625,0.0011355518,0.14624727,0.04402348,-0.038900614,-0.021710617,-0.08786127,-0.09346828,0.00717989,-0.0060318713,0.061064936,-0.017246116,-0.16207011,-0.03426737,0.91816944,-0.6935229,-0.6130195,-0.64506245,-0.056052115,-0.46880767,-0.68393147,0.042297848,-0.57131696,-0.4917211,0.8332783,-0.4623646,0.12313188,-0.22119789,-0.3695281,-0.21791162,-0.27090842,-0.13184963,-0.2238846,-0.06859676,-0.03411231,-0.46905702,-0.5849459,-0.6041955,-0.22173314,-0.15556662,-0.24663332,-0.09339932,-0.21481042,-0.15669785,0.122341454,0.013822418,-0.56132954,-0.43105274,-0.1825101,-0.18520962,-0.07133804,-0.101488136,0.013468877,-0.11898207,-0.13764685,-0.07830427,0.19764659,-0.19900756,-0.09046354,-0.2173514,-0.15967824,-0.07144265,-0.0121100815,0.1861885,-0.12235535,-0.12396405,-0.07930982,0.049625468,-0.59692276,-0.22452812,-0.044655073,-0.3680083,-0.17339422,-0.02139511,0.18380395,0.19879222,-0.12277977,-0.17929399,-0.121901125,-0.23175354,-0.061108924,-0.28005636,-0.1690782,-0.17859773,-0.117388815,0.047215834,0.03084381,-0.17704213,-0.34221575,-0.6093297,-0.6821769,-0.2619965,0.044138066,-0.26070312,-0.25634542,-0.29885775,-0.15069501,0.020021705,-0.2509372,-0.38699055,-0.4315794,-0.40704057,-0.52985847,-0.4049266,-0.37057257,-0.2230635,-0.18212543,0.010730423,0.020720048,-0.1519052,-0.22251599,-0.3774117,-0.663403,-0.5183997,-0.11805723,-0.36604884,-0.5027874,-0.047289234,0.26620635,-0.10721157,-0.49224332,-0.27516845,-0.2088272,-0.48977557,0.87673444,-0.41634893,-0.5598259,-0.10148602,-0.27704078,-0.032101333,-0.13136557,-0.5047581,-0.5128699,-0.5683857,0.8707122,-0.051922623,-0.036263146,0.05899637,0.023862626,0.09061356,0.0870279,-0.057235125,0.04724302,-0.06548065,0.03161526,0.023472793,0.02748381,-0.051529646,0.037786208,0.06333373,0.07024788,-0.02122018,0.01759327,-0.08114609,0.055499073,-0.0036601655,0.052672837,0.04809133,0.03951879,0.060694385,0.021255614,0.05025347,0.050604608,-0.11011373,0.04028823,0.113698386,0.017786805,-0.0020716053,0.055290986,0.013205904,0.024082832,0.009055496,0.047043752,0.14003284,0.033813626,0.012780016,0.057820614,0.056253176,0.09268862,0.0080925105,0.021656888,0.14032444,0.03823038,0.13298415,-0.049865015,-0.13535999,0.04585726,0.02957475,0.027343828,0.02687231,-0.014279476,0.025717989,-0.19751993,0.06673266,0.101123735,-0.041561715,-0.009274253,-0.024235582,0.13448444,0.09733509,0.06069171,-0.06298898,-0.09954471,-0.10796343,-0.2735354,0.06732816,0.17340232,-0.096942075,0.0679882,-0.0023806463,0.07583146,0.054952286,0.030154012,0.030364813,0.0059840535,0.0008932894,-0.04278195,-0.040601924,-0.0029062412,0.001967184,0.043078218,0.0696414,0.024342228,-0.0119677065,0.032888938,0.07700511,-0.10449907,0.05637865,0.0062093176,-0.048566636,0.103405766,0.027403373,0.040667724,0.027719328,0.028444817,0.014609405,0.0011451751,0.008873034,-0.0373743,-0.003390398,-0.010269822,0.09133216,-0.018064225,-0.0023797269,0.012179634,-0.007644738,-0.025762301,0.010166967,0.019289026,0.010001283,0.05564178,0.09018243,0.06909132,0.0031285828,0.00804957,0.011406003,0.0008807351,-0.07652521,0.044315107,-0.13837384,-0.01519618,-0.016005179,0.080424964,0.16608869,0.07379721,0.02806335,-0.040053453,0.046043415,-0.067143895,-0.044374865,0.04046344,0.08621127,-0.01629797,0.040142693,-0.04026632,0.040103808,0.04450419,-0.17704898,0.004384478,-0.020716036,0.050593704,0.10491792,-0.0613368,0.07490764,-0.021069156,-0.016942278,0.073868684,0.018177498,-0.06285174,-0.008261651,-0.04655742,0.0581497,-0.027819913,0.11360293,0.06469069,-0.017977322,0.068855114,0.049046952,-0.07375299,-0.016055413,-0.06302544,0.026290858,0.05629993,0.023463158,-0.02394738,-0.0075512263,-0.039925087,-0.006979926,-0.020834776,0.05775126,0.12139262,-0.0011695378,0.0024260362,0.003974352,-0.045637142,0.002198187,0.019614685,0.007121442,-0.01841493,-0.06874671,0.15141386,0.029797299,0.04012331,0.0018470674,0.071111135,0.019263113,-0.09172957,0.049740735,-0.13839704,0.025254548,-0.046681635,0.047861993,0.057717387,0.010370091,-0.034916647,0.1029834,-0.012091078,-0.030160641,-0.07648836,0.094592385,0.0034678993,0.040643368,-0.083237395,0.06686108,-0.056370046,0.07538404,-0.027575133,0.003547941,0.094486654,0.0031645515,0.009930073,0.01680417,0.03182771,-0.033635642,0.02603135,-0.015963716,0.006697994,0.015624418,0.04339221,0.09116524,0.06441012,-0.019895012,0.005699242,-0.033060234,0.008944963,-0.016914401,0.014763142,0.08005303,0.026552089,0.0272813,-0.06828882,0.03189019,0.10355332,-0.0078462055,0.019921737,0.04092269,0.029068934,0.6729285,-0.018824937,0.223313,0.12871513,0.0020859137,-0.017590037,0.046074674,-0.17827088,0.14542511,-0.017685607,0.63441896,0.14861465,-0.09918954,0.111069255,-0.19429812,0.14555426,-0.07355278,-0.48227993,-0.02473431,0.13004278,0.07610133,0.1311468,0.19055368,0.11191217,0.1274207,0.07391476,-0.13234091,0.10595818,-0.05271842,-0.008824714,0.042237133,-0.09684749,0.053580172,-0.036003552,0.17923398,0.17091021,0.1640961,-0.06447407,0.0690043,-0.16450737,-0.0037546998,-0.21210445,-0.08006886,-0.024531398,0.07505199,0.21234524,0.20879059,-0.0490237,0.128925,0.119436584,-0.061812602,-0.45607218,-0.110956885,0.14957406,0.05448568,-0.13018785,-0.37536877,-0.07427901,-0.22191267,0.21126497,0.11556913,-0.30505148,0.07326032,0.20087932,0.10310631,0.10948986,-0.091955476,0.057422202,-0.24480392,-0.17832318,-0.010735269,-0.42363125,-0.110765584,-0.32732728,-0.07054789,0.06007439,0.16249399,-0.038719423,0.09114174,-0.030081026,-0.21173137,0.21285681,0.11820525,-0.31612304,-0.098248206,0.025560223,0.12245729,0.103127934,0.119475566,0.116579175,-0.04222091,0.16051655,-0.11908496,-0.35311702,0.118278354,0.06748151,0.18692587,0.010405545,0.07434959,-0.01645516,0.21235463,0.10637831,-0.35495883,-0.103291765,0.07326749,0.077351585,-0.09846067,0.11368177,0.15382196,-0.0750873,0.67702454,0.106910706,0.14174217,0.12171796,-0.10297058,-0.17407493,0.12596914,0.088850155,0.079106584,0.082739376,0.6695145,-0.047263045,0.13580489,0.15108037,0.054765746,0.09447515,0.053736,0.08095705,0.05873765,0.12092003,0.12337061,0.027485121,0.0885956,0.064490415,0.11664686,0.09406866,0.037895296,0.017494434,-0.05311844,0.114886925,0.11457786,0.06188122,0.088011146,0.09330625,0.15250012,0.19027087,0.07499469,0.093153946,-0.122943364,0.09208226,0.04231327,0.15963346,0.12521581,0.13059501,0.072807394,0.07577828,0.14686558,0.056793008,-0.0007611102,-0.0453173,0.047819957,0.11161135,0.06073516,0.031733297,0.02079792,0.09389491,0.07989973,-0.036288656,-0.050401725,-0.007815861,-0.22597241,0.06465285,0.103252776,0.10410182,0.053582445,0.045507353,0.05034636,0.05115507,0.099404074,0.07872654,0.021090826,0.00038504123,0.03817815,0.010040994,0.096780516,0.017813541,0.047762915,0.07739815,0.05378743,0.03874464,0.04049517,-0.01658853,-0.12543058,0.137112,0.050328743,0.09287312,0.07463933,0.084791794,0.091289185,0.09752302,0.039488412,0.074811004,-0.017205745,0.11970534,0.15384673,0.08872368,0.06757211,0.09627535,0.07660391,0.1116301,0.068714045,0.06952152,0.05833987,0.061632313,0.11455613,0.11849158,0.11715672,0.18102923,0.17060536,0.062347174,0.16607878,0.14476827,0.051123556,0.068926185,0.088691406,0.0109661715,0.14426826,0.09383995,0.11194842,0.08656248,0.16096985,0.00953729,0.11888557,0.1513672,0.020231105,0.028896296,0.0038198885,0.02764389,0.06647316,0.13616984,0.05798804,0.0020165187,0.00081673363,-0.0048707444,0.014972635,0.06300006,0.04084204,0.029369272,0.03067838,0.11892651,0.007870131,0.039478358,-0.011656252,0.03512898,-0.008375121,0.03339276,0.06129777,0.06758978,-0.028316773,-0.01910359,0.10412696,0.05723296,0.07619429,0.09317615,0.04769139,0.029310849,0.026299983,0.09857355,0.016445927,0.019873245,0.0773223,0.020436248,-0.020091448,0.052173387,0.05152153,0.040717635,-0.009269901,0.025902547,0.057447523,0.08998334,-0.017437747,0.04673469,0.049397264,0.030558474,0.019679677,0.07285583,0.04110208,0.031005006,-0.0050233556,0.0656869,0.05997717,0.04903867,0.076774284,0.04445884,0.060852405,0.09440662,0.07401993,0.009755699,-0.009318134,0.057370715,0.09546626,0.06962588,0.02950478,0.0269159,0.015876632,0.08843779,0.027365528,0.07091707,0.112728015,0.027156485,0.054547064,0.08575198,0.04489826,0.034847543,0.042428833,0.009822056,0.07927904,0.017443221,0.02848842,0.026051592,0.06483795,0.04465387,0.055052985,0.0762123,0.07267886,0.08450955,0.077163815,0.07233912,-0.008982975,0.030259458,0.039245572,-0.031151611,0.011768605,0.11998147,-0.023661574,0.07838844,0.075622424,0.0686113,-0.04949925,0.0065319487,0.07160313,-0.037828874,0.023118502,0.05799775,0.06749426,0.09328352,0.021774588,0.023516702,0.09011392,0.036468048,-0.0046577547,0.04256266,-0.021502819,0.04497954,0.08943172,0.051401187,0.021854723,0.02262035,0.0033819831,0.057242587,0.015444908,-0.03238382,-0.0044888817,-0.72928125,0.27564445,0.06868406,0.051074542,-0.022599725,0.10619853,-0.045415502,0.04408673,-0.01464264,0.11829731,-0.84696066,0.13949978,0.05144216,-0.042441588,0.07734299,0.08592724,-0.028763523,0.019103974,-0.05052223,-0.11205926,-0.0013502167,0.16124468,-0.04450083,0.018632064,-0.12864298,0.027390862,-0.02601838,0.079138,0.060489897,-0.0072579444,-0.042949643,-0.028478082,-0.0726318,0.0031065047,-0.0011120774,-0.023349036,-0.004101991,-0.016208814,0.019518916,-0.091208175,0.08368636,-0.018979037,-0.020540457,-0.051447798,-0.11451741,-0.074910566,-0.04530842,-0.017816167,-0.06322667,0.07242729,-0.064852186,-0.06963952,-0.04690959,0.048045203,0.023109647,0.06344563,0.10957263,-0.0397251,-0.0018992623,0.04699823,-0.0054336493,0.13774438,0.06796337,-0.15630008,0.019202106,0.031212445,0.024886806,0.017289001,0.03166391,0.063802265,0.020426208,0.19525306,0.04505174,-0.10316863,-0.06535742,0.071297534,0.025485424,0.012494104,-0.042262767,-0.04971915,-0.03634738,-0.02429771,-0.12360583,0.044093736,-0.015046832,-0.015264188,-0.0375268,0.0044577173,0.013926468,-0.017051589,-0.06338835,-0.06648667,-0.0392022,0.01628039,-0.0369526,-0.04783094,-0.07792467,-0.009067675,0.04444536,0.0650063,0.049322125,0.035737447,0.02310237,-0.06438382,0.1459252,0.0051515973,0.04928369,-0.05338112,-0.0029745144,0.117033675,-0.82157636,0.016111832,0.084482074,-0.07801357,0.0072365617,-0.0042816424,-0.007390139,-0.02885904,-0.029794784,0.12518397,-0.7732615,-0.033169933,-0.1157837,-0.17522661,-0.09842361,-0.15249468,-0.12165015,-0.12611206,-0.11316215,-0.16882901,-0.08304229,-0.035538707,-0.13273655,-0.162476,-0.070668034,-0.14690445,-0.12194709,-0.08999451,-0.103217706,-0.14587015,-0.14061444,-0.14782141,-0.15571459,-0.13245705,-0.04711504,-0.15839203,-0.098419726,-0.12965287,-0.1871057,-0.14479685,-0.16474354,-0.16768852,-0.20674224,-0.13992111,-0.111406334,-0.13666864,-0.12006808,-0.15569562,-0.17937973,-0.105039805,-0.19008255,-0.21476622,-0.12177736,-0.16598761,-0.07611938,-0.08952303,-0.119299635,-0.118593454,-0.12878193,-0.20646197,-0.21502464,-0.13375987,-0.059494253,-0.1450686,-0.11333031,-0.11677468,-0.118373334,-0.14527194,-0.26995134,-0.18712372,-0.27687803,0.0005708514,-0.26571888,-0.09529143,-0.10205468,-0.12852235,-0.07573794,-0.1082097,-0.12228676,-0.16312067,-0.08956934,0.9794956,-0.17117982,0.87675846,-0.25541937,-0.057886418,-0.131404,-0.10732353,-0.093059845,-0.17255406,-0.16894609,-0.055087008,-0.12992908,0.77990484,-0.20813413,-0.19721323,-0.07454908,-0.15180379,-0.15031473,-0.13993365,-0.12018797,-0.22418189,-0.23774882,-0.12962045,-0.19715983,-0.18551497,-0.024836278,-0.18381837,-0.19349225,-0.11614109,-0.0870896,-0.08673811,-0.16695519,-0.14686082,-0.13044448,-0.15161444,-0.11251146,-0.13994165,-0.116789386,-0.14186154,-0.11857218,0.039550558,-0.12861437,-0.13379209,-0.11551589,-0.12726645,-0.10992216,-0.15544981,-0.12664546,-0.14917436,-0.117001906,-0.013312131,-0.041213553,-0.20860544,-0.04007348,-0.080371514,-0.16520281,-0.03443836,0.11436832,-0.05360263,-0.059025507,-0.004582929,-0.042770755,-0.066729344,-0.16832958,-0.009162343,-0.087755315,0.04369354,-0.075903684,-0.07747266,-0.041276436,-0.14783357,-0.048463635,-0.33055067,-0.07174308,0.03396706,-0.08655903,0.011455941,-0.07130949,-0.113102764,-0.016218754,-0.057905648,-0.010563659,-0.07066561,-0.11463088,-0.2043738,-0.053299554,-0.033152174,-0.026587533,-0.020467406,-0.031904515,-0.10431554,-0.09591019,-0.053587098,-0.050526973,0.08301476,-0.08486643,-0.07251066,-0.06430869,-0.10744485,-0.001981489,0.046465024,-0.012047508,-0.11317521,-0.0718414,0.07614224,-0.2909519,-0.18276687,-0.097047925,-0.05517822,-0.039033957,0.025715003,0.0216114,0.057654053,-0.01900457,0.0064995345,0.07916792,-0.08910851,-0.102752246,-0.088060394,0.051891707,0.09789248,-0.22334766,-0.08484696,-0.42258555,-0.14881727,-0.020726826,-0.03503847,-0.029670516,-0.19748604,-0.045857873,-0.025445256,-0.007258563,0.03865239,-0.33010158,-0.0617791,-0.10008823,-0.066430464,0.051118974,-0.1783334,-0.089141205,-0.009041905,-0.11067826,-0.07228354,0.04881619,-0.14857315,0.033638313,-0.00932373,-0.036361687,-0.016130775,-0.04779807,-0.11501255,-0.051248718,-0.06296895,-0.09633133,0.081224754,-0.15568125,-0.04406057,-0.08334347,-0.05789838,0.022400213,0.2703019,0.0034407754,-0.21810062,-0.05948937,-0.13199915,0.015825937,-0.21079975,-0.110885486,-0.004881371,0.043130744,-0.11864354,-0.013218166,1.3441167,-0.38492194,-0.040592283,-0.21364276,-0.4989432,-0.74982256,-0.25211155,-0.5957823,-0.56243527,-0.40251878,1.2382143,-0.20166801,-0.10567634,-0.22134914,-0.40962207,-0.65297097,-0.36361256,-0.3380115,-0.28292465,-0.06925275,0.16647595,-0.38656095,-0.30523515,-0.3154014,-0.3198018,-0.34377033,-0.43829042,-0.5311775,-0.46927226,-0.30777717,-0.52016246,-0.42545116,-0.5063299,-0.6318705,-0.2624953,-0.18629043,-0.3136932,-0.66377324,-0.35204524,-0.3525697,-0.16560856,-0.14094704,-0.25788668,-0.51981866,-0.49264115,-0.1973673,-0.28861064,-0.3306096,-0.4702186,-0.37551928,-0.49080732,-0.25086477,-0.2609066,-0.33357665,-0.11482969,-0.47858486,-0.1467828,-0.17707734,-0.6558946,-0.4327484,-0.54224813,-0.70822304,-0.35981283,-0.37118566,-0.47796142,-0.6463842,-0.6893127,-0.51635295,-0.5503774,-0.52772534,-0.0765408,0.9911227,-0.045053855,-0.11323754,-0.19443586,-0.3900473,-0.28012425,-0.4436957,-0.49377534,-0.6389827,-0.54444957,0.27937365,-0.14384893,-0.2550712,-0.29725167,-0.34231988,-0.115071125,-0.42303145,-0.36530647,-0.2476626,-0.5562155,-0.23296829,-0.27544782,-0.329418,-0.13980812,-0.5268111,-0.4138148,-0.33220387,-0.5079865,-0.03771537,-0.12814867,-0.2787402,-0.30328104,-0.24435839,-0.16943225,-0.37672135,-0.14839981,-0.18324682,-0.10802525,-0.15328452,1.0146397,-0.3541024,-0.5368064,-0.2307149,-0.34943795,-0.36794823,-0.2904232,-0.2654155,-0.35775572,-0.31412667,1.1088898,0.047050107,-0.032433193,0.11651265,-0.021645213,0.05322763,0.04844238,0.042356934,-0.02052209,0.008831759,0.0023179878,0.04327688,-0.07188933,0.03216339,-0.10722424,0.052640457,0.06772393,0.10409171,0.09717966,0.055197243,0.07522292,-0.1297835,0.039235834,0.022311125,-0.011788055,0.032458376,-0.00019080065,0.030769262,0.22684379,-0.044388156,0.039434254,-0.032444835,0.069355994,-0.014636412,-0.032398548,-0.092514984,0.06919511,0.02697832,0.08533454,0.069030695,0.08214747,-0.042405758,-0.014001224,-0.1317255,0.052072078,0.058004253,0.07250087,-0.014404912,0.063219145,0.028073398,0.16500011,0.021015223,0.008864264,0.09671694,0.06822155,0.009302292,0.090910725,0.033336274,0.045985665,0.033819493,0.030584844,0.03449305,-0.035377298,0.08182837,0.04221051,0.06750978,0.038638078,0.009038988,-0.053491097,0.14866044,-0.007236802,0.062657624,0.093956634,0.008841452,0.002046361,-0.076301545,-0.0147729255,0.03073862,0.054537084,0.041146923,0.04170775,0.11144719,0.081531115,0.038379718,0.024365827,0.0014779627,0.06817404,-0.005998192,-0.004352695,-0.027554033,0.050866805,0.013911113,0.036354363,-0.025430243,-0.13277493,0.03230981,0.06280429,-0.051825672,0.0021564048,0.020035308,-0.04238486,-0.036234733,0.06437167,0.008976616,-0.112958506,-0.039786004,-0.10428642,0.09650812,0.09352262,0.08477536,0.0486518,-0.03606022,-0.017518608,0.104945466,-0.079524286,0.0054367944,-0.12712064,0.077736884,-0.0074089756,-0.011048045,-0.068845704,-0.023627236,0.029511293,-0.01292412,-0.038440563,-0.08054322,-0.023512423,0.039834317,0.10684657,0.022564638,-0.017026577,-0.06527058,-0.014821738,-0.08587284,0.020252978,-0.07876001,0.05136243,-0.11155232,0.017664226,-0.009565911,0.039079595,0.053211823,-0.08998945,-0.033892706,-0.053255253,0.022954151,0.017092131,0.035053637,-0.103551544,-0.069589175,0.077082604,-0.0101599265,0.010174569,0.007768142,0.035949178,-0.085782364,-0.049858514,0.02127099,0.105554245,-0.054030765,0.08151855,-0.054338608,0.050052714,0.03271299,-0.00043234945,0.07234724,0.07713939,-0.08312513,0.06161937,0.019976165,0.015127736,-0.103894606,0.06495427,0.027088173,-0.069961,0.034511033,0.06346829,0.06598099,-0.01551249,-0.056884572,0.06451071,0.030462276,-0.012292907,-0.05879076,-0.011937616,0.029354757,-0.011154618,0.012980243,-0.008740771,0.038790423,-0.0076599554,0.031529658,0.0962962,0.07759163,0.007875237,-0.072433576,0.07513301,-0.073032804,-0.03373591,-0.032209422,-0.028045975,0.02097754,-0.02006197,-0.06293314,-0.020844903,-0.03285579,-0.02109539,-0.13589448,0.049093578,-0.07352697,0.02325748,-0.030230619,-0.057952095,-0.0035379212,-0.059422266,-0.008507084,0.060054388,0.0040815556,-0.02297514,-0.041658647,-0.029682895,-0.1483877,0.045042995,0.012288374,0.0903597,0.090054385,-0.17042227,-0.1002249,-0.028717056,0.07635944,0.014079073,-0.11008745,-0.013954243,-0.11049269,-0.06774736,-0.0145077575,-0.004763659,0.044987068,0.060340986,0.031699274,-0.16208349,-0.08071239,0.051496565,0.70010275,-0.1979862,0.12302573,-0.061857272,-0.049278606,-0.10522735,-0.08810945,-0.07334748,-0.045635466,0.20524488,0.68338263,-0.10342934,-0.2702664,0.08453473,-0.06963332,-0.0016548309,-0.005808315,0.056589477,-0.0019741808,-0.077464774,-0.04296863,-0.036451004,0.14787574,0.04558109,-0.076625936,0.14551869,-0.18186596,-0.18306506,-0.08483293,-0.029400956,-0.14790988,-0.28008905,-0.0261436,0.023871696,0.19719322,0.11133041,-0.13005622,0.05004104,0.03581292,0.075334825,-0.1114914,-0.08612546,0.030448455,-0.13159205,0.10912089,-0.20476553,0.16418089,-0.17163642,0.08882907,-0.023681901,0.073685884,0.24999754,-0.01025091,0.1425239,0.084339894,0.022031968,0.09746453,0.21937037,-0.073757984,0.043125853,0.087323494,0.10793529,-0.0101903435,0.18437289,0.026862947,-0.03507218,0.02299605,-0.030253204,0.0689638,0.021563238,0.021981781,0.07368949,0.12265439,0.035149686,-0.03424041,-0.28858474,0.08422702,0.085720986,0.07359837,-0.14720383,-0.03890943,0.016524166,-0.10050865,0.033927914,-0.11009667,-0.30426854,0.05517634,0.06687024,0.0758931,0.08144551,-0.105174705,-0.14763968,0.061977673,-0.06405321,-0.28809395,-0.08910089,-0.14348406,-0.029662222,-0.12370877,-0.087718524,0.104549676,0.013091957,0.21356714,-0.3748816,-0.46403995,0.06413107,-0.108977154,-0.08395698,-0.08739561,-0.09318393,0.6917001,-0.018273994,-0.029897224,-0.0068046697,-0.44991255,-0.14334536,-0.3394521,0.19870082,0.09397979,-0.10379314,0.7105,0.035384644,0.12529743,0.15294375,0.04209544,0.007117996,0.048625275,0.088443354,0.0395893,0.10920481,0.09638696,0.048950035,0.116522014,0.057680815,0.12465873,0.1370855,0.03941865,0.08524526,-0.06014879,0.08657147,0.09685314,0.07543651,0.12569954,0.12352514,0.12314914,0.18881808,0.09123174,0.092374966,-0.17130312,0.084411874,0.01774552,0.11198891,0.1362497,0.11115812,0.09815069,0.075367056,0.13725793,0.030395823,0.04161539,-0.046962634,0.011818587,0.121460825,0.01532587,0.012853158,0.003755965,0.070705146,0.116803266,0.041888334,-0.08095804,0.010829728,-0.2492968,0.039537154,0.10805267,0.09671921,0.071263626,0.019940296,0.10027447,0.06947641,0.06351036,0.10501634,0.047035325,-0.014402759,0.040760715,-0.0043085385,0.071048774,0.006384525,-0.014277744,0.087103255,0.09876084,-0.008503266,-0.0018797758,0.09732158,-0.081008635,0.109480865,0.09985997,0.058646005,0.047365777,0.10385892,0.08980612,0.07997514,0.05238196,-0.011303112,0.00092445925,0.0565513,0.13246337,0.109451905,0.054663606,0.15127002,0.08690421,0.07653015,0.05872316,0.14155522,0.01690555,0.044226136,0.10749664,0.14000346,0.09830079,0.15739058,0.15055649,0.06680352,0.09215343,0.1391264,0.10897757,0.09091614,0.07981125,0.022045415,0.13787019,0.060169432,0.14856708,0.13022995,0.12160378,0.049258173,0.07880796,0.15838356,0.022720838,0.060284752,0.03973071,0.04704757,0.07519544,0.08028862,0.048862908,0.038213167,0.0023456737,0.0015042457,0.021051599,0.10073398,0.038432714,0.06770623,-0.046306036,0.09042798,0.030401744,0.056028493,0.00968054,0.017447917,-0.006817944,0.049439985,0.050696954,0.019519327,0.010192462,0.047915284,0.087294705,0.011470364,0.027396608,0.09264695,0.043408826,0.0660272,0.07825401,0.08742833,0.06374632,0.11310637,0.11343095,0.07866189,0.027484767,0.07685416,0.08685692,0.040860977,0.0033952715,0.024871338,0.09754449,0.03602888,0.03781924,0.11700038,0.13601543,0.06375724,0.0076035266,0.038611203,0.00527118,0.05177969,-0.057810877,0.031743925,0.024591886,0.08794406,0.11267537,0.043156195,0.0722452,0.099234626,0.049265373,0.076268174,-0.0061647114,0.069026515,0.0673853,0.090605214,0.045915592,0.027914494,0.010084356,0.06470365,0.04105521,0.031818178,0.09870642,0.020866327,0.02141311,0.04460717,0.097918026,0.008875599,0.051207308,0.08057751,0.12289957,0.025428325,0.049433295,0.09310856,-0.035624214,0.080303766,0.053096462,0.050506122,0.05519004,0.049218982,0.00699625,0.056994736,-0.047734965,-0.0072036954,0.078371584,0.053236037,0.014644335,0.066676244,-0.004444819,0.11212539,0.004528649,0.043862257,0.0013354303,0.002726935,-0.0055802604,-0.03446872,0.01185229,0.043712977,0.03216411,0.05608928,-0.011758689,0.08252402,0.084248275,0.11007932,0.017155219,0.025600024,0.028814066,-0.018660143,0.07167279,0.043443676,0.056552783,0.0039093294,0.05786559,0.0057282266,-0.009999512,0.02916739,-0.015319102,-0.72358084,0.38531753,0.13405319,0.029636137,0.02682138,0.18598346,-0.01146951,0.08658896,-0.03251195,0.097369544,-0.6853808,0.29256064,0.08975203,0.056117214,0.19196565,0.22790228,0.10941129,0.12289252,0.0003359745,-0.012107942,0.116652496,0.17624168,0.10052002,0.118962474,0.02312521,0.088679135,0.07601221,0.15714459,0.11273656,0.087916054,0.0605547,0.10578015,0.032008942,0.18302137,0.14377987,-0.009861245,0.06347391,0.031739175,0.05892895,-0.034084376,0.16000293,0.079099946,0.041265663,0.12682256,0.029655024,-0.015947208,-0.023920447,0.08782952,0.071053654,0.14014764,0.10629188,0.008695474,0.06399697,0.13661277,0.07291723,0.21066695,0.1794858,0.030815005,0.073780864,0.08589537,0.13541612,0.1368331,0.093713954,-0.04518089,0.08265103,0.0022321898,0.14773194,0.1290519,0.14991783,0.14257085,0.090109654,0.31686553,0.09378895,0.060947977,-0.034315437,0.1088363,0.06126142,0.10661546,0.053558502,0.0067390804,-0.01100234,0.1109363,0.058877505,0.10838137,0.043119423,0.047591828,-0.061919127,0.07295317,0.11480739,0.024907513,-0.04560095,-0.060933944,-0.039459568,0.19117701,0.104089715,0.021104367,0.017081445,0.044281453,0.0727753,0.13366717,0.028866336,0.1008896,0.031129275,0.008198521,0.22674812,0.017505834,0.11802894,0.01100891,-0.009710737,0.14814177,-0.7337053,0.0715927,0.052966237,0.098501496,0.05979804,0.07389692,0.059806857,0.06049508,0.04751998,0.18906458,-0.7240385,0.012483335,0.123137616,0.12193475,0.037068576,0.070391156,0.07524522,0.09403879,0.026920637,0.13474996,0.12403221,0.035429668,0.082856975,0.1124574,0.09836648,0.10735893,0.0710087,0.048328947,-0.096030004,0.092429504,0.1428704,0.059941452,0.10036352,0.13438825,0.1651619,0.12083277,0.12110064,0.10056937,-0.13497889,0.0983742,0.079678744,0.1798592,0.072150424,0.0926301,0.05503676,0.099496625,0.13156532,0.010451592,-0.010602894,-0.05435425,0.07975691,0.11451695,0.040264707,0.024062995,0.08593035,0.018680716,0.10905919,-0.020627556,-0.05409868,-0.0024658826,-0.30717632,0.07353511,0.1225362,0.10871876,0.043946303,0.027606394,0.09216384,0.08555804,0.117717125,0.07035845,-0.015452903,0.00751783,-0.006480924,0.04039399,0.061950002,0.008445846,-0.020971365,0.0890098,0.014814403,-0.0029117812,0.021191586,0.108397156,-0.10787284,0.11900551,0.04140179,0.079244405,0.0013371798,0.08588211,0.111070566,0.06661204,0.0531796,0.070563436,-0.020511609,0.08838297,0.10487393,0.08767714,0.15714458,0.12805377,0.06258103,0.11660724,0.089358315,0.06334154,0.059539724,0.12238492,0.12729011,0.16570823,0.07255295,0.10663249,0.12925361,0.12430982,0.12699924,0.07231665,0.11791289,0.105822206,0.09935747,0.046261758,0.101396516,0.084002264,0.12633756,0.09318171,0.11804795,0.01057648,0.13668637,0.1216478,0.023815453,0.05773316,0.01872113,0.03454124,0.018534575,0.1644227,0.05996968,-0.041139502,0.017551834,0.030868508,0.019728782,0.105510965,0.0878964,0.051059257,0.031697642,0.063627265,0.008043452,0.044324465,0.021102617,0.0404414,-0.03204779,0.030127432,0.062932424,-0.004903551,0.0029312258,0.012856069,0.07063143,0.08244218,0.05324263,0.051045626,0.06329509,0.07815109,0.03756337,0.025109533,0.02771364,0.040095728,0.12947099,0.028108926,0.051817644,0.05139824,0.069125675,0.010646033,0.015054658,0.030709544,0.052668627,0.084400915,0.036428098,0.05980431,0.077680774,0.038251888,0.04616454,0.051704753,-0.0014513636,0.05527803,0.0028445802,0.025796223,0.06729982,0.026868213,0.11198699,0.05066121,0.022101486,0.06898215,0.102220595,0.045595314,0.031209286,0.06337133,0.048944905,0.020484252,-0.051852256,0.10749613,0.041863833,0.012708828,0.020218812,0.02906265,0.07909364,0.024718106,0.020686297,0.02767558,0.057872195,0.10350455,0.061610043,0.0754061,0.07822375,0.075834535,0.09015088,0.028798036,0.0366141,0.06706847,0.022785483,0.0907558,0.030927993,0.083776824,-0.0009634615,0.036851812,-0.028329156,0.05944622,-0.0011296378,0.034235872,0.060287055,0.05217309,-0.0051428615,0.13272545,0.05791322,-0.00026358227,-0.05057629,0.05243147,0.020595718,0.0023481857,0.03622514,0.057853904,0.007191912,0.08173856,-0.015266292,0.07806697,0.053435627,0.049216386,0.04964166,0.06529222,-0.014482171,-0.0072632707,0.004876323,0.04095569,-0.010790144,0.029317813,0.004584308,-0.010046288,0.06667691,-0.041376192,0.0023514614,-0.75342077,0.34760067,0.11269683,0.08830891,0.1435288,0.18161719,0.09607487,0.09612917,0.034894027,0.22527148,-0.7969308,0.22458614,0.071687184,-0.031857677,0.14611647,0.16810755,0.012821629,0.10386289,0.07268816,-0.025325907,0.06409069,0.21377173,0.028671855,0.14027707,0.049539335,0.14549533,0.0025165286,0.13478751,0.08133868,0.012264243,0.1271524,0.06884966,0.06444736,0.04522547,0.047634095,0.026559155,0.08676145,0.0560212,0.09522265,-0.036481757,0.077103846,0.08787363,0.08355893,0.12287569,-0.06452345,0.043020766,-0.0062580206,0.06711911,0.04068373,0.03725992,-0.0042741066,-0.07717717,-0.012451174,0.22418453,0.015018784,0.21428178,0.14185862,0.03385697,0.15601082,0.096131526,0.13966814,0.08805488,0.084093995,-0.020016495,0.16112632,0.09459589,0.10307436,0.12303976,0.028846296,0.034872375,0.109861694,0.23683763,0.16720471,-0.0041515063,0.035582762,0.07841152,0.04611593,0.08466364,0.09118979,0.019918984,0.04524054,0.12272422,0.007140331,0.02494912,-0.012662592,0.001952672,-0.025446737,0.0045770574,0.027889032,-0.0042223064,-0.0894819,-0.031167647,-0.02084345,0.12878974,0.019493114,0.042462572,-0.037651576,0.039710637,0.12934035,0.16445312,0.05501857,0.011888757,-0.0034716618,0.034424994,0.2329496,0.041991428,0.12397688,-0.051166844,-0.019868903,0.0846339,-0.7588052,0.06574099,0.07389569,0.103995994,0.08815776,0.09199781,0.06188131,0.04698313,0.029186487,0.18656068,-0.83463407,-0.014391584,-0.0008981677,0.019674145,0.033660106,0.041138288,-0.013713098,0.07809772,0.019031718,0.05421653,0.087500654,0.019711547,0.03916299,0.07325378,0.078746095,0.030616412,0.08748715,0.09573775,0.16779505,0.006421295,0.053649876,0.1277479,0.027147455,0.025233787,0.070972085,0.20787129,0.0936441,0.00205079,-0.20226383,0.105876684,0.09381003,0.123550795,0.05097752,0.13358393,0.0044157677,0.049133383,0.01822355,0.05413572,-0.08621716,0.0059807356,-0.04743843,0.060047396,0.10810724,0.055121403,0.09856217,0.05530116,0.1178143,0.07967479,-0.21130349,0.1485331,-0.503893,-0.005043154,0.04224697,-0.099978805,0.12894739,0.123987496,0.068192646,0.05402156,0.093320936,0.16650708,-0.17489426,-0.04938712,-0.12997404,-0.28107935,0.1808269,0.04508967,0.11581892,0.01611461,0.0747569,-0.033699952,0.013380841,0.18314815,-0.5552638,-0.015959665,0.03728571,-0.049497746,0.17587732,0.06629712,0.09684787,0.004039358,0.04850752,0.06174263,-0.28945777,0.017570168,-0.09133326,0.026767267,0.07463228,0.02811708,-0.018742695,-0.014206623,0.012463053,0.015721941,0.04838627,0.040427167,0.038755994,0.08505935,0.033563267,0.028527495,0.08196773,0.013924675,0.006524111,0.051157173,0.09861993,0.030923964,0.08689024,0.042884864,0.045317356,0.036496203,0.13227612,0.15109585,0.10477843,0.0058038183,0.04106963,0.053236768,0.03607815,0.018826084,0.05533002,0.032489084,0.030949371,0.055793375,-0.017125716,-0.017597685,-0.04008136,-0.08659587,0.05162281,0.13055126,0.059381925,0.01891663,0.0073280875,0.03271644,0.01246323,-0.0032727772,-0.03936516,0.038580175,-0.13899657,0.05356636,0.023196688,0.04316994,0.018922577,0.052512933,0.09432964,0.02722377,0.011656627,0.024678137,0.011838823,0.06090448,0.06745883,0.02799169,0.06886633,-0.038243007,0.07416165,0.06608944,0.023725765,0.055238705,0.066090025,-0.06232466,0.061950482,0.042830992,0.008430069,0.030894099,-0.037394714,0.06092694,0.07538847,0.006414156,0.118924335,0.096352585,0.06660176,0.07086897,-0.011415994,0.0020528617,0.0012102106,-0.014235765,0.0043883095,0.0731933,-0.0789688,0.0984109,0.085909136,0.02609954,0.008706458,0.012573789,0.0211675,0.041508067,-0.016758526,-0.016051885,-0.027080076,0.016246147,-0.17897126,0.02676338,0.07371081,-0.052882385,0.019942384,0.043461014,0.020559682,0.012715566,0.03134766,0.046872947,-0.0027223926,0.0032519817,-0.052800875,0.05274814,0.03984559,-0.007085772,0.05319003,0.034582812,0.012060147,0.058262657,0.004164775,0.15054062,-0.14453968,0.015363828,0.032185428,-0.02834485,0.044942647,0.09703513,0.015212543,0.0089240195,-0.020019645,-0.013783997,-0.02312218,-0.017564546,0.0018091167,0.070347086,0.034059845,0.01727098,0.019371718,0.08966362,-0.0048581427,0.035538778,0.006632958,0.04983509,0.05029026,0.054217134,-0.030600857,0.08297856,0.014082006,0.07484114,0.07717965,-0.046132043,0.019962694,0.13642934,0.043667626,0.047058042,-0.017014945,0.78659517,0.30309582,0.20008221,0.09529367,0.16290936,0.10007543,0.22009015,0.1578764,0.13317657,0.14427401,0.763098,0.21791045,0.022172574,0.048571188,0.17292543,0.23217452,0.16258602,0.29529473,0.19018435,0.1051354,-0.11264554,0.09243594,0.18844618,0.036920436,0.3574388,0.11838195,0.15861383,0.14183903,0.13995743,0.13222697,0.23493308,0.24659678,0.08942085,0.23782952,0.0984035,0.090524845,0.17764606,0.20885813,-0.12743434,0.121538684,0.1441536,-0.10518032,0.2323524,0.16038342,0.23167066,0.13151065,0.02882541,0.11199984,-0.3451694,0.18484464,-0.06453769,-0.5774907,0.23199356,0.016302573,0.2185793,0.066942774,0.08938323,0.15519919,0.10803568,0.18771206,-0.2901373,-0.11088024,-0.012562308,-0.8315707,0.12981097,0.2181993,0.1804607,0.18962385,0.15900473,0.108995914,-0.38419673,0.15941264,-0.20669128,0.020295026,0.20233528,-0.0435755,0.17499997,0.050479416,0.08837595,-0.049480382,0.14179438,-0.0007575936,-0.23598897,0.06715137,0.14998448,0.0669975,-0.19715105,0.049583748,0.063958764,0.23313382,0.15068316,0.06524333,0.0979735,0.068146296,0.21387507,-0.003209001,0.18335018,0.123621136,0.13382702,0.04678921,0.06771021,0.06706192,0.007932698,-0.00012916,0.06165802,0.12503307,0.14302562,0.18298364,0.16081135,0.31928316,0.7684733,0.12522426,0.09129154,-0.054185726,0.10214761,0.14351043,0.23817226,0.14701322,0.10558919,0.2863411,0.80453426,0.016573166,0.17691357,0.11450971,0.07786773,0.06502689,0.07988815,0.10437411,0.011939508,0.14500417,0.0577877,0.034890365,0.13820796,0.0772199,0.12255159,0.11595261,0.033792008,0.034974124,-0.038575593,0.06009014,0.18451035,0.04089561,0.063810594,0.084033094,0.17167266,0.13057853,0.12174951,0.07112814,-0.17605887,0.07009414,0.042034797,0.16333601,0.11679506,0.118617974,0.0540455,0.13219093,0.10406963,0.027757972,0.023488794,0.009225722,0.08015814,0.10512789,0.07969106,-0.005502422,0.05830393,0.07132991,0.08338386,-0.012305666,-0.061039522,0.024314998,-0.25909615,0.07984086,0.05034097,0.08388784,0.06192855,0.012212672,0.01540438,0.115465075,0.10726472,0.081297554,-0.0007147591,-0.028512266,-0.015788455,-0.005493,0.03257528,0.07087662,0.0004454154,0.033987112,0.069122486,-0.00666119,0.049276903,0.043135937,-0.108029015,0.10551867,0.046465453,0.07712748,0.05683768,0.10230564,0.04852179,0.044504337,0.06328531,0.047967162,-0.039062448,0.09010384,0.11593058,0.06661071,0.14292249,0.09930329,0.06256035,0.14985834,0.05387748,0.11077815,0.029598732,0.10467726,0.12128148,0.08719448,0.10335054,0.16862933,0.113583684,0.122880735,0.16824897,0.07761664,0.064334325,0.064780645,0.068918034,0.075841844,0.15827394,0.07526512,0.1549995,0.12210655,0.15410997,-0.045064665,0.12147642,0.15421635,0.028192384,0.06941308,0.06894215,0.061749395,0.06465376,0.14904241,0.122822054,0.027636092,0.018003616,0.019182926,0.0105691925,0.07472374,0.0825598,0.03505426,-0.021622118,0.12482744,0.010780796,0.050298873,0.006261464,0.05013518,0.033819914,0.10260394,0.014939267,0.01276601,-0.01011515,0.02794046,0.09237861,-0.0066301953,-0.014761031,0.045131817,0.014341063,0.059025887,0.05782843,0.009081016,0.028047727,0.06717813,0.11149615,0.019546842,-0.015048888,0.016303675,0.03306921,0.11094845,-0.026643636,-0.004942173,0.03714173,0.048452225,0.059538506,0.024608973,0.11782418,0.07288483,0.007889971,0.040854104,0.052724738,0.075967856,0.01353309,0.03368736,0.022217149,0.020942153,0.034048337,0.051369946,0.08231627,0.06476544,-0.0005955582,0.06772976,0.06077796,0.02758598,0.05507629,0.07049254,-0.007360551,0.040395413,0.10038304,-0.024368886,0.0077793514,0.07666651,0.09919159,0.03651545,0.0027492566,0.042726893,0.03604825,0.047424193,0.043260783,0.04316923,0.13323843,0.012771118,0.07596961,0.088489346,0.014003077,0.07192552,0.08779066,0.00029848094,0.06261532,0.025061337,0.030003019,0.02321031,0.0413364,0.0042648115,0.016422598,-0.032266043,0.058538184,0.042459883,-0.015088354,0.059596043,0.046773665,0.04216301,-0.040398315,0.030640913,-0.0035723075,0.008343202,0.039218426,0.056201525,0.034854714,0.10634736,0.064232506,0.0129992375,0.04201369,0.045982335,-0.023440981,0.023118075,0.043309364,0.01724284,0.10027239,0.015641466,0.029603494,0.00028517397,0.042337094,0.048394118,0.012137098,-0.019290898,0.016480839,-0.6358737,0.22730985,0.07420837,0.055541728,0.09046755,0.14476678,-0.013099937,0.090669096,0.023740789,0.13529253,-0.59162694,0.12913993,0.16808836,-0.016077138,0.13923763,0.16569449,0.10050188,0.036226865,-0.048775803,-0.0723589,0.089484684,0.20743944,-0.015632428,0.074604966,-0.087029144,0.028115066,0.001970872,0.08206891,-0.008308637,-0.034534622,0.019835994,0.00311835,0.018632079,0.09569858,0.113088794,-0.013390217,-0.051181477,0.059617896,0.057874307,0.013118818,0.07760427,0.02377917,0.040027797,0.021618113,-0.07420628,0.031506468,-0.048340425,0.11505014,-0.046443377,-0.020124009,0.02734113,-0.06599654,-0.010824728,0.102661975,0.037853688,0.14971906,0.18128666,-0.05659197,0.027115135,0.09980298,0.07890088,0.16139178,0.1420377,-0.02406945,0.10064358,0.045411706,0.06374554,0.06310719,0.059559103,0.08483867,0.009703148,0.27799615,0.051868424,-0.056526907,0.043573257,0.09238128,0.07985256,0.1015053,0.014434095,-0.035770185,-0.059040602,0.036399323,-0.027888887,0.094286196,-0.0504563,0.07335385,-0.09418827,0.05639348,0.03153078,0.03345132,-0.0670951,0.0064011007,-0.05785482,0.078238025,0.038790442,0.007382372,0.020345667,0.022375297,0.12565291,0.17007355,0.067596816,0.021746485,-0.005164676,0.0025334642,0.14061508,-0.02300331,0.1464477,-0.003468848,0.05049117,0.09935271,-0.59096324,0.12948717,0.04244239,0.046447143,0.042782396,0.08721942,0.020538615,0.01522493,0.055281058,0.070869826,-0.6183468,-0.03024767,0.056476098,0.08396299,0.056684878,0.07259069,0.074067116,-0.047885343,0.011250921,0.038921237,0.06277831,-0.008867473,0.00093619403,0.013892306,0.09498667,0.05124058,0.07875912,-0.08532342,0.18104196,-0.031123878,-0.012753894,0.07547248,0.10742645,0.043094147,0.12633085,0.15170419,0.03362063,0.039277244,0.16661155,-0.14602543,0.0528692,0.11857658,0.055247366,0.06303658,0.022864593,0.05303697,0.059869424,-0.08181463,0.020334532,0.12831186,0.08181293,0.10182074,0.12561935,-0.13013895,0.076495595,0.039236605,0.08077027,-0.098548226,0.0811059,-0.016048009,0.17869185,0.03914994,0.049548194,-0.17632943,0.052043132,-0.17140532,0.05947475,0.019051306,-0.10215557,-0.18066095,-0.024679372,-0.009449643,-0.0033428818,0.026096093,0.064922355,-0.093598604,0.108311415,-0.0025482897,-0.0093592135,-0.22940221,-0.2687446,-0.18146698,-0.10872304,0.16822413,-0.009551363,0.0417671,0.11309379,0.050410654,0.054104727,0.006070052,-0.031779252,-0.20786525,-0.36534396,0.014718358,0.047529694,0.10483811,0.0862622,0.08769276,0.016754365,0.07019443,0.067225024,0.02699654,-0.023411248,-0.08917791,-0.0018087447,0.061773233,0.012042858,0.022163425,0.026500773,0.09588539,0.02287608,0.03488605,0.014470146,0.119616054,0.028551068,0.08255739,-0.091595866,0.10917168,0.063816994,0.1144017,0.07641195,-0.027456515,0.022797387,0.07065562,0.039842416,0.06364007,0.006499142,0.019178782,0.08591918,-0.007289351,-0.02731723,-0.013076266,0.00033194548,0.014458818,-0.009217147,-0.018908914,0.039162952,0.097934246,0.07691635,-0.011160167,0.0415829,0.06947203,0.03893826,-0.016404437,0.14593948,-0.031742238,0.108602986,0.02124874,0.057332598,0.03960647,0.035298403,0.06399622,0.03953335,0.053232946,0.020873822,-0.020578451,0.053748235,0.014752849,-0.06805397,0.0396633,0.037694667,0.048743002,0.009305609,-0.051557206,0.01620111,0.12102891,-0.043250933,0.064979404,0.0028979753,-0.011617751,0.039037637,0.05278668,0.0917303,0.027760385,0.0025484602,0.008560187,0.027494986,0.084916465,-0.042367384,0.019705392,0.06556493,0.12810338,0.05096979,0.069674805,0.03197611,-0.11515648,0.07150306,0.035894085,0.017189542,-0.05487409,0.0071768425,-0.011803593,-0.0008290722,0.018608823,0.04636357,0.06636399,0.085081585,0.04984346,-0.043198504,0.015011053,-0.08050245,-0.065593265,0.018692411,0.06976572,-0.0092717,0.024027655,0.105970666,0.083661206,0.11124745,0.04053448,-0.05655511,-0.08696457,0.0494487,0.024889478,-0.0036065904,0.04290665,0.011756063,0.023382997,-0.079532094,-0.030116087,0.04457988,0.010649405,0.09539948,-0.0032296875,-0.021486202,0.086735286,-0.07793169,0.00071795954,0.055791117,-0.03890835,0.018317325,0.019454924,0.085264735,0.034596663,0.039387524,0.07511837,-0.06881376,0.025857136,0.03539178,0.047011033,0.060630284,0.015210167,-0.04902674,-0.018272964,0.02271042,0.07367666,0.10274652,0.16146028,0.04506499,0.008947982,0.102020524,-0.04583336,-0.025723863,0.84050846,0.34547234,-0.27662614,-0.056475192,0.11854058,-0.23775001,0.26478678,-0.48920456,-0.14202945,-0.20614201,0.83095235,-0.220547,0.094720654,-0.011801417,-0.13524339,-0.032517966,0.13787882,-0.57174397,0.28976974,-0.14710917,-0.021007854,-0.042611837,0.010433364,0.24665889,0.05859841,0.13738775,0.19743729,-0.20687665,0.09544204,-0.1778597,0.076761514,-0.05836314,-0.48216844,0.10020377,-0.0007277216,-0.1261782,0.064244084,0.04211149,0.16208835,-0.16422142,-0.24310116,-0.019729415,0.14684659,-0.2789584,0.18223317,-0.1284236,0.07509633,-0.31603214,0.050651543,0.11732893,0.018961618,-0.2182724,0.13810289,-0.5017892,0.34822422,0.13278303,0.09360893,-0.32202244,0.081389435,-0.38178858,0.10596488,0.096799985,0.0010784557,-0.06112124,0.001259682,-0.50535357,0.15478015,-0.39972365,-0.33012563,-0.2336679,-0.23048143,0.14297079,-0.01914331,0.07269365,0.04442521,0.24674979,-0.18572292,0.146171,0.40829852,-0.30964848,-0.21677352,-0.4150855,-0.17938049,0.09493395,-0.08722252,0.07226597,0.13759805,3.9387174e-05,-0.24199331,-0.0015151381,0.16420154,-0.11597917,-0.36938348,0.2242458,0.099480666,0.15330346,-0.025973,0.035688497,0.137497,-0.1075735,0.122394435,0.15102583,0.1655308,0.1426297,-0.36527154,0.10569042,0.12740538,-0.061099175,-0.08871384,-0.33241138,0.8591399,0.22533697,-0.094665244,0.1179078,-0.068956584,0.21682282,-0.26499745,0.100150384,0.09978015,0.123272896,0.88352454,0.020734625,0.12627436,0.11536067,0.07958982,0.07951526,0.032172758,0.04398442,0.015505679,0.07401297,0.1309008,-0.018743353,0.13188405,0.12242556,0.11832156,0.08880528,0.071613945,0.052250616,-0.07250066,0.106479704,0.13866054,0.09267109,0.06662272,0.08722207,0.10872891,0.18553011,0.083492436,0.07855013,-0.12273441,0.050725702,0.078147255,0.11116078,0.114484034,0.079211995,0.07490052,0.09816849,0.16301417,0.04853879,0.05134932,0.017688157,0.0266526,0.14158182,0.021299282,0.018877832,0.08683221,0.050194122,0.07929137,-0.007033786,-0.066978894,0.015411547,-0.2968905,0.07817968,0.0847622,0.097816594,0.10747072,0.041218784,0.06721659,0.055348113,0.088364355,0.049522087,0.053270523,0.0019871367,-0.015381121,0.016585013,0.018181743,0.06274036,0.046162464,0.053567655,0.016570859,0.004132645,0.014379613,0.031633336,-0.10172209,0.113400675,0.07710022,0.062335957,-0.0037204716,0.09680759,0.07694769,0.01272174,0.06805659,0.031352784,-0.05169906,0.04055354,0.10778173,0.108939864,0.13803479,0.10096583,0.009587214,0.109525725,0.119946145,0.11492362,0.070193455,0.07836039,0.14013474,0.14561202,0.060870487,0.15662147,0.14290166,0.082853206,0.13407049,0.08690155,0.09840698,0.038614314,0.12990125,0.07968644,0.11265874,0.027968116,0.09859446,0.14768495,0.12449544,-0.008273578,0.07791885,0.16108362,0.101262294,0.025495388,0.009011091,0.0115588335,0.027328627,0.14052285,0.09563741,-0.02914454,-0.042568244,0.042565987,-0.01659184,0.105607145,0.051714104,0.074977145,-0.024321187,0.018862387,-0.006716775,0.026980264,-0.03228769,0.021993283,-0.014792028,0.037655924,0.049385272,0.05934876,0.03294467,-0.015649457,0.07389303,0.0077743204,-0.021404264,0.067822166,0.05685729,0.045409184,0.028124215,0.095536955,0.08509024,0.031942263,0.12644187,0.053114172,0.006928872,0.102511235,0.014374006,-0.020473009,0.04482094,-0.007814358,0.043528423,0.10272779,0.0049247458,0.066955,0.1385175,-0.008327576,-0.0073414515,0.061192516,0.02878577,0.023741055,0.010882369,0.07599415,0.07839612,0.08202583,0.05715558,0.054896742,0.03779826,0.13424234,0.040857855,0.038334686,0.07509501,0.034784384,0.098878175,0.067906365,-0.008191106,0.07053569,0.069787875,0.08432885,0.022845766,0.041841477,0.09155077,0.08133572,0.045544833,0.11255403,0.059326716,0.09032576,0.037611384,0.08912131,0.05339429,0.03673798,0.011818993,0.087250225,-0.0029878635,0.07528451,0.07056257,0.054245215,0.005446528,0.019831704,0.062389728,0.07262165,0.020792924,0.043768756,0.027043808,0.009896125,-0.028634941,0.040124834,-0.005905768,0.10229776,0.07892592,0.06496773,0.0265486,0.08161786,0.012326377,-0.057513334,0.013452709,-0.0053494526,0.016022583,0.012523866,0.0589582,0.081342906,0.10636148,0.041783635,0.009367512,0.0083803525,-0.016577307,0.011216354,0.10799065,-0.0024615454,0.07661005,0.033078097,0.03180274,0.046420895,0.08159262,0.026852112,-0.0074557997,-0.6324052,0.33236253,0.1418289,0.05910295,0.01293534,0.19939607,0.025003092,0.08362365,0.031445853,0.17892292,-0.6001235,0.1671287,0.083787195,-0.009243018,0.15147114,0.17372502,0.0002607572,0.082829006,0.009023454,-0.048508503,0.045359127,0.22570132,-0.011155017,0.07247873,0.041038033,0.02148917,0.04376378,0.07516153,-0.0061007305,0.034722555,0.072587855,0.04488876,0.07641566,0.06946807,0.03795363,0.08564843,0.053489055,0.023892941,0.0416371,0.045718726,0.09376759,0.014171082,0.010111829,0.0045510805,-0.009214359,0.028471028,0.03413377,0.07702583,0.014385637,0.05397801,-0.0053392146,-0.10968664,0.019361086,0.12888117,-0.010482397,0.1753534,0.16359772,-0.022661561,0.119222336,0.04479896,0.0951405,0.17839059,0.122920305,-0.034736432,0.08139709,0.008566914,0.14924072,0.056730453,0.10859567,0.10954274,0.01120378,0.29191998,0.12852341,-0.050282713,0.020417627,0.1002845,0.033415567,0.017137233,0.010391109,0.02059176,0.022417363,0.07492533,0.020425588,0.029186783,-0.016287215,0.037590716,-0.045309614,0.09264501,0.03512536,-0.0065361713,-0.08351489,-0.053731576,-0.05172473,0.080514744,0.02539133,0.07484425,-0.03612759,0.04893384,0.02848607,0.111602224,0.033162348,0.07421687,-0.0054629343,-0.002248555,0.12717451,0.029839778,0.1483012,-0.048255593,0.032521836,0.1362963,-0.5535721,0.046750534,0.012042693,0.07090167,0.06732565,0.052223023,0.04948906,0.008306682,0.039297506,0.1500771,-0.5015608,-0.029286284,-0.027821675,0.019052686,0.0061971415,0.033849586,0.034629684,-0.04604898,0.03177861,0.01531016,0.13108161,0.0020893612,0.040374715,0.040539473,0.092243746,0.04471889,-0.01591066,-0.0014309428,-0.1935871,-0.011607053,0.082709946,0.13194086,0.015291966,0.027385933,0.062224243,0.08542586,0.07773917,0.020904535,-0.1806888,-0.154376,-0.02329201,0.08075916,-0.0101904115,-0.022244552,0.059200797,0.02188405,0.0736203,-0.04126793,-0.005146626,0.08370947,0.073663004,0.018208485,-0.3195644,0.0926805,-0.115848266,-0.018623715,0.12880668,-0.15076457,-0.14063816,-0.0008003045,-0.2886769,0.05914188,0.0005682744,0.08239113,-0.058931593,0.060836628,0.066766866,0.019239226,0.08276737,-0.06580315,-0.055850804,-0.041739017,-0.05160382,0.054688342,0.072008796,0.11872471,0.0024273284,0.025380556,0.09829377,0.03825053,0.017605782,0.06357497,-0.19769281,0.07579662,0.04286411,0.09575765,0.13423935,0.044878602,0.060045302,0.04649728,0.11370132,0.04459118,-0.15168461,0.029265402,-0.06805527,0.0622745,0.0033467845,-0.023759672,0.10756771,0.02060255,4.2170534e-05,-0.0002620611,-0.0074563464,0.060788427,-0.121551946,0.01765967,0.08050099,-0.17896207,0.04273787,-0.007725399,0.023920538,-0.00941192,0.049888927,0.0679593,-0.081643306,0.009694583,-0.039777912,-0.17467248,0.089790404,-0.07289697,0.06042986,0.020082885,0.03230021,0.032504696,0.02708817,0.04045818,0.010430206,-0.0014737088,0.06071369,0.013069002,0.041436024,-0.05196749,