-0.019199623,-0.9533043,0.3359491,0.22610517,0.2446856,0.33990782,0.30221453,0.5262738,0.9382685,0.5809002,0.03785761,0.26618898,0.4080627,-0.11804831,0.23168725,0.4152223,0.36328307,-0.15953165,0.53607386,0.64382565,0.47882676,0.54933685,0.6622025,0.4096247,0.17253168,0.4231438,0.33370602,0.3181571,0.18254386,0.27893716,0.49035797,0.5237762,0.6134895,0.40788975,0.335985,0.44452003,0.1762738,0.21074304,0.2870316,0.14132954,0.28422815,0.3594492,0.6388017,0.46044055,0.30330268,0.24885169,-0.05854783,-0.019027295,-0.041853435,-0.105923735,-0.025198076,0.041538697,-0.13039446,0.16048944,0.35318893,0.21707734,0.12923273,0.17151311,0.11191755,0.12117133,0.00090636074,-0.14678891,0.08257791,-0.041945323,0.08496747,0.39842886,0.012456373,-0.22999978,-0.112953365,-0.1256216,-0.02543615,0.12139975,-0.23914996,-0.1432785,-0.012610985,0.12834868,0.103334635,0.0516919,0.05748461,-0.026439419,-0.027455702,0.098465055,-0.01660273,-0.3710964,-0.026068032,0.21623416,0.026597433,-0.0781164,0.35419598,-0.055543244,-0.16491562,0.12951127,0.15499772,0.0030899001,-0.28743362,-0.2428584,0.01603484,-0.087185875,0.24557951,0.16173877,0.038619526,-0.21750619,-0.084535524,0.0561737,0.022024017,-0.105021775,-0.2520855,0.046010304,0.5875414,-0.07606772,-0.028917225,0.3825439,0.50055385,0.16054547,-0.00029658576,0.1677425,-0.0027379554,0.057422634,-0.013884517,0.4625289,0.023197876,0.012116441,0.3621584,0.3815983,0.22189412,0.0034769531,0.17065309,-0.034824375,0.09774007,0.38134477,-0.07594091,-0.0025506415,0.012746764,0.2973955,0.72163266,-0.057313178,-0.043397352,0.30878222,-0.28179732,0.23195238,0.53929085,0.14518596,-0.5011011,0.43450937,0.83313835,0.41365346,-0.0038401976,0.3100167,0.4062398,-0.24923581,0.39124537,0.22183582,0.19020548,0.19554552,0.3202522,0.27380168,0.28042305,-0.13478054,0.1637095,0.2935062,-0.11881391,0.18364021,0.3077992,0.4135906,0.50629544,-0.44162643,-0.03855498,-0.081663474,-0.4425106,-0.05936857,-0.16812092,-0.40414545,-0.1434597,-0.2969269,0.24906503,-0.13677941,-0.1625671,0.05541934,0.012989711,-0.32333758,0.17457296,0.039948918,-0.36178756,-0.0012051397,-0.10419659,0.1782442,0.55218476,-0.44286615,-0.19787905,-0.25899157,-0.3760132,-0.022688922,-0.20355113,-0.30880475,-0.20581636,-0.3426288,0.11041705,0.23690592,-0.039091658,-0.111556485,-0.07422185,-0.13624416,0.1268304,0.06614244,-0.2921686,-0.011474167,-0.0947778,0.3745213,0.9343725,-0.651066,-0.22764726,-0.58349,-0.48164392,0.009545568,-0.055067755,-0.49198735,-0.101855375,-0.6537545,0.8307494,0.51655895,-0.36202773,0.111905836,-0.1735015,-0.3823054,-0.20987928,-0.01796142,-0.36977252,0.06623105,-0.04812678,0.35304567,0.70097166,-0.015048346,-0.19880651,-0.3406728,-0.39912862,-0.30726674,-0.20981416,-0.44654673,-0.3589047,-0.5504762,0.087842986,0.044649117,1.9335684,-0.09454807,-1.0126086,3.0228975,2.4106286,2.3314433,0.056837525,2.1595442,1.8859439,-0.12046818,1.9395083,-0.22805731,1.1541071,-2.9615421,0.054192875,0.75398386,0.4142656,-0.07090639,1.4736731,0.24134947,2.4571989,-0.052718364,3.7684176,2.659999,2.2572732,1.0660332,1.7778049,1.2692438,0.920279,1.4625918,1.0890782,1.3817966,1.2314625,1.045233,2.1067195,1.008052,0.76585287,2.0279267,1.6003405,1.6501796,1.4860926,0.9354665,1.0082041,2.9073431,-0.09261908,0.5319117,-0.033233088,0.13724105,1.2898839,1.1003469,0.26819757,1.2655963,0.65983504,0.34594434,0.72431815,1.1051526,0.62208295,0.50994945,0.037351064,1.096117,0.7014774,-0.02503325,0.78380734,0.18706995,0.14009635,1.1816921,-0.12251076,-1.0509895,0.72790176,-0.044027552,1.160319,0.5623843,-0.104808204,0.48353648,-0.3105015,-0.34186998,1.2279061,1.587231,0.6776549,0.3271153,0.4929824,1.1297423,1.1583141,0.40409344,0.40187964,0.7730711,0.7211316,1.6069158,1.873516,-0.2404613,0.59864783,-0.07664784,0.79898006,0.15443549,-0.18577324,0.43803534,0.07650989,1.1889226,1.410076,0.4039974,3.7777216,1.0491195,0.7905729,0.40066832,-0.16497798,-0.38768008,0.32517803,-0.36849216,-2.5718303,0.090951204,1.9158542,0.14701225,0.5917877,1.1534464,1.7303637,1.209961,-0.5103044,-0.5425879,-2.1137002,0.31402826,1.8805434,-4.066472,0.03678615,-0.2598986,-0.014904175,-0.31823194,-0.3165774,-0.29563245,-0.23044772,0.042702895,0.38827142,0.19377907,0.0501091,-0.16803874,-0.26461565,-0.22549526,-0.0141949095,-0.06485649,-0.31074527,-0.12558846,-0.20475072,0.09516835,0.48320615,0.22090752,-0.91380054,-0.1886441,-0.43449914,-0.31539333,-0.0168337,-0.593057,-0.104722865,-0.09081097,0.07623951,0.14704238,-0.27154917,-0.6648897,-0.46471247,-0.74287313,-0.6540786,-0.07047777,-0.9405571,0.022672558,-0.123330966,0.2863787,0.48670694,-0.061974145,-0.21961589,-0.03689001,-0.40221855,-0.39986014,-0.07726242,-0.2955406,-0.4282581,-0.44258994,-0.2536207,0.2144979,-0.38232714,-0.31639218,-0.08771432,-0.024717895,-0.28543946,0.03417522,-0.0505047,0.14129877,0.015053474,0.1909048,0.5941988,-0.032513693,-0.19754224,-0.09207952,-0.30630904,-0.41292822,-0.097024135,-0.53156346,-0.20151764,-0.2742711,-0.263271,0.51092464,-0.37588975,-0.23547535,0.016164443,-0.19701914,-0.24900807,0.04201275,-0.16662656,-0.07434524,0.005192696,-0.008299801,0.68178535,-0.35684422,-0.4110219,-0.024830062,-0.39709115,-0.46390563,-0.027864281,-0.6259462,-0.17375425,-0.10579128,0.28114012,1.2704365,-0.2972505,-0.24271825,-0.19247611,-0.37081665,-0.32030007,-0.2447189,-0.5031273,-0.24015823,-0.0382091,0.44622463,1.5957947,0.018874777,0.051677834,-0.18898834,-0.51043963,-0.3266751,-0.37245977,-0.64750904,-0.2019725,-0.1634403,0.34975955,0.80868,0.049434606,0.018203788,0.49349868,0.34613994,0.5904134,0.41106915,0.36897212,0.19714692,0.15638052,-0.1984783,0.10980157,-0.042114817,-0.92295444,0.45792007,0.4130759,0.43001592,0.13183823,0.33835545,0.09738832,-0.09964657,-0.4252674,-0.41591138,-0.4116938,0.119455904,0.16797008,0.13505723,0.17636237,0.142323,0.03808737,0.022002133,0.13546355,0.016517319,-0.12639225,0.27196658,0.45885795,0.33784327,0.13676794,0.32715806,0.10176389,-0.065102704,0.261056,0.12962359,0.11533196,-0.20274957,0.033513043,0.37446436,0.17913736,-0.16852151,0.28524637,0.27289677,-0.42063603,0.06610038,0.2503619,-0.11635446,-0.19216675,0.09384959,0.26238593,0.04096398,-0.066327125,0.064783685,0.24203508,0.0066277967,0.21133967,0.22861588,0.12127917,-0.25722045,-0.13267656,0.34799254,0.2820964,0.023515526,0.1737907,0.15029986,0.3986192,0.1134841,0.14545265,-0.06832296,-0.4567232,-0.2137901,0.7368942,0.2089564,-0.0055070226,0.37828162,0.2969716,0.09399054,0.23738475,0.10016607,0.014019436,-0.8210292,-0.12277045,0.40097213,0.87242526,0.26862425,0.41426107,0.44690296,0.38267413,0.1787983,0.19325101,-0.22030887,-0.86015296,-0.05154027,0.3888931,0.5723148,0.14056714,0.20449126,0.1469887,0.34823456,-0.08425213,0.09230021,-0.44476974,-0.867878,-5.1829762,0.014358037,0.114345856,-0.187679,0.2502825,0.23303264,0.08025367,0.07855011,-0.18826392,-0.15831919,-1.8022122,0.020887304,0.8158015,0.81572115,0.8076405,0.9465157,-0.38451856,1.230675,0.58923864,1.2695136,0.9260579,0.8481031,0.7309336,0.79582727,6.69258,1.077732,0.92218274,0.0087181805,1.5986047,0.54266834,1.2177867,1.1186756,-0.43836308,0.84803677,4.3109293,1.2335788,1.8327379,2.5085182,0.09921043,1.9591137,1.2292565,1.740341,1.177059,0.19169776,0.7740421,4.4001975,2.4510431,2.3256614,2.47951,1.1216869,2.1589441,1.7725708,1.6708555,1.0607663,0.9158165,-1.987286,3.5012236,2.692578,2.0198336,1.8487073,1.1209464,1.7981237,1.2412083,2.0037377,1.6425773,1.3515983,1.6682028,2.3797066,0.9617477,2.3780625,1.6767896,0.9539114,2.0937047,1.4572837,1.2289762,1.3358126,0.7485346,0.5587655,2.8416543,1.9179013,2.0768652,1.3400664,0.6804293,2.3037279,1.058082,0.7616528,1.708492,0.71756226,2.0053127,3.7172632,1.1723715,1.6799442,1.3281075,0.03170556,1.2067566,0.7785467,0.5667148,1.9290755,0.41952807,2.9412365,0.29716924,2.1264262,1.2371736,1.4460993,0.88076293,2.1795132,1.2018402,1.4794449,1.3512886,-0.7225809,5.1936164,1.4920543,2.8808231,2.2726998,2.54862,1.2139236,1.8955007,1.8900663,1.1947852,0.9547523,8.201494,0.6240046,0.8606502,0.84748125,3.3001952,3.3319895,1.306751,3.4904153,2.552383,1.8421386,2.0590885,0.7761196,0.63412637,-7.7236814,0.023486434,-0.5951769,-0.055047646,-0.054594617,-0.11428293,-0.17638256,0.172859,0.13915853,-0.2177485,0.15353148,0.016558314,-0.10553327,0.053034667,0.14261106,-0.13798872,-0.31971216,-0.09618525,-0.2276199,-0.48933333,-0.19709562,-0.052175723,-0.21809484,0.67332447,0.051786482,0.01065661,0.08329082,-0.023097029,0.17708948,0.03183639,0.009126889,-0.03832553,0.008804282,0.053217027,0.2947744,0.08351162,0.2477191,-0.13024342,-0.12042029,1.0752393,0.44165733,0.48859784,0.039170824,0.07881645,-0.1486373,-0.12349157,-0.4140009,-0.22310503,-0.07095092,-0.0014180688,0.14531355,-0.018410742,-0.024398714,-0.11334134,-0.13571739,-0.11510103,0.47444746,0.24950512,0.0734499,0.79958916,0.035560176,-0.0073888605,0.51708525,0.92149985,0.528995,0.3196246,-0.08128538,0.48353973,0.26576042,0.08850572,0.29337698,-0.11854081,0.58673674,0.056292355,0.08351564,0.13927238,0.41437283,0.24878973,0.42358944,-0.22734383,-0.31244472,0.113946095,0.26770398,0.12788855,0.17929614,0.076662466,0.006600644,0.30643985,0.17374846,-0.05915503,0.1299954,-0.39467984,-0.14876151,-0.019607753,0.26201552,-0.08459367,-0.16446927,0.2545159,0.16151817,-0.038422342,-0.33636883,-0.06248611,-0.14560746,-0.16283377,-0.061219636,0.21433856,-0.044819687,0.35450053,0.57419443,0.29700893,-0.71719486,0.0047730054,-0.7770625,0.34553227,0.4119623,0.15296341,0.29931116,0.5544718,0.6469442,0.89231706,0.29340425,-0.033762522,0.022024339,-0.7462596,0.0070314775,0.008562056,0.0059750266,0.55592185,0.08381218,0.20727828,0.58516055,0.52473414,-0.0020353035,-0.8397341,-0.94694763,-0.3567863,-0.5969031,-0.29739875,-0.23708948,-0.2514264,-0.10635465,-0.11222058,-0.9023139,-0.14509869,0.60053045,0.3080933,0.6010839,0.3426065,-0.16144983,0.21299936,-0.32707348,-0.35236344,-0.030316576,-0.53750414,-0.26057962,0.79723,0.33842704,0.3303163,0.53430223,0.19281232,1.2190859,0.2851408,0.68488497,0.4561317,-0.36833638,0.023115257,-0.14277108,-0.08136891,-1.1528382,-0.7105597,-1.3394189,-1.8773792,-1.600248,-0.9491279,-0.829444,-0.6232946,-0.7600844,0.17808604,0.41054732,-0.111561924,0.20358814,-0.5478165,0.04474984,-0.94014615,0.42415446,0.25188833,-0.26603615,0.27560496,0.004888632,0.5945247,-0.20424087,0.24421412,-0.40600663,0.17951654,-0.29924285,0.13025677,0.12312819,0.2491026,-0.0147314295,-0.31772658,0.027482172,-0.48642635,-0.2713277,-0.3860356,-0.23315105,-0.7501224,-0.11317224,0.05924377,-0.10672737,-0.15327206,-0.86462116,-0.23799466,-0.74082327,-0.5112927,-1.0242507,-0.50839704,-0.8027505,-0.42792735,-0.17273484,-0.32527047,-0.3468436,-0.3779701,-1.1648941,-0.40189895,-0.25956103,-0.38955238,-0.29815894,0.02879108,0.22331826,0.5093382,0.11168573,-0.39452365,0.032972075,0.11675058,-0.016567126,0.7837156,0.40371853,0.20527205,0.29890555,0.34310433,0.72900337,1.495743,-0.030760668,-1.5657762,-1.4964834,1.635511,-1.5246284,-2.6755955,-1.5172229,-0.9294055,-2.2156465,0.6703699,-1.6715412,-1.5130345,-1.7000223,-6.206991,1.3718034,-1.8104675,-2.293222,-1.2384937,-0.841573,-1.6891105,-0.62031174,-5.68024,-1.6108682,0.5373722,-0.5427152,-0.1410083,-1.0422225,-0.5874852,-0.9483021,-1.333327,-0.9031649,-1.055635,-0.6333687,-0.9316478,1.563731,0.12541902,0.023881448,0.26958892,-0.5266301,0.91881526,0.026542578,-0.34882098,0.06639246,-1.1248577,-1.6494586,-0.8260921,-1.2763436,-2.0641227,-2.1243143,-2.3157961,-3.138062,-3.8005533,-2.0641537,-1.9463038,-2.1917434,-1.3234862,-0.23537256,0.069440946,-0.39160752,-0.9657262,-1.5193188,0.3456491,-1.5170856,0.010794112,-0.3695095,-0.09776463,-1.7321417,0.14792815,0.5263152,0.27217415,-0.13136564,-0.8122309,-0.5421296,-1.1220345,0.2600978,-0.6245768,-0.34510604,-0.1808879,-1.4024246,0.24166562,-0.5693193,-0.2723515,-1.4348124,-1.1429174,-1.1550798,-0.1269803,0.03141799,-0.5161573,-0.801096,0.8966027,-0.6440359,0.019146543,-0.8640646,-1.6085753,-1.4814438,-1.790616,-0.37650648,-0.78597325,-0.5780873,-5.6266117,-2.4016469,-2.5277414,-0.4213582,-1.2878726,-0.04097422,-0.14946027,0.3760036,1.0591964,0.51152587,-1.9431598,-1.6770049,-1.5250146,-1.6530991,-0.86274844,0.13658331,-0.027499564,-0.3382099,-1.081884,-0.10718213,1.4457467,-1.53126,-1.5552511,-6.577376,0.038532935,0.24623674,-0.25605473,0.0092686135,0.14241418,0.07510775,-0.010919562,-0.19190498,-0.53975785,0.020788433,-0.0322346,0.0097914925,0.17454801,0.37570846,-0.25508213,0.13442372,0.26370174,0.19261988,-0.0888125,-0.31353244,0.20957892,0.12963085,0.39155096,0.4564572,0.19970292,0.06534999,0.105924815,0.24275027,0.16718954,0.5072651,0.23436418,0.13437141,0.08398937,0.29463294,0.0034589854,0.26474324,0.12723425,-0.33605164,0.10465708,-0.13966931,0.38638732,0.446871,0.21436016,0.20137155,0.17843126,0.15545473,0.31745622,0.16084793,0.1378258,0.058180127,0.17364562,0.04112934,0.07761036,0.29857156,0.41161048,0.25003102,0.18758789,0.34580636,0.10955996,-0.059658382,0.043287,-0.27165464,0.14959534,0.15198512,0.33405623,0.28455913,-0.1026202,0.16671622,0.21792799,0.20442109,-0.20577,-0.021305708,-0.10535248,0.21442814,0.15967453,0.28238353,0.21196827,0.043412875,0.16643424,-0.052259117,-0.098132774,-0.15635172,-0.1911333,0.014938159,0.22818355,0.15768911,0.25020373,0.19498806,0.42180973,0.22644421,-0.0721088,0.111647725,-0.2807195,0.10747121,-0.014901563,-0.09927154,0.102329835,-0.015116266,0.20316356,-0.09901754,0.9309774,0.25308973,0.4302062,0.33197808,0.16968663,0.113977306,0.11016271,0.16772051,0.21940106,0.15669984,0.026560355,-0.2066767,0.3462176,0.5007704,0.18287197,-0.050598178,-0.03393413,0.1532113,-0.11788243,0.6133582,0.00035986255,-0.04114891,0.07121593,-0.23358497,-0.23829517,-0.29484642,0.08344676,0.14642249,0.3231543,0.76130533,1.1909373,-0.029914942,-0.31883237,-0.81793153,-0.56382006,-0.34735873,-0.25352105,-0.067992724,-0.28684202,-0.052363966,0.049316216,0.33585128,1.0226237,0.74369365,-0.10706934,0.17121953,0.049413208,0.17613229,0.19354385,-0.057290025,0.16841538,-0.17017293,-0.29938227,-0.2139277,0.57861316,0.17013544,-0.09690909,0.2990575,0.08369275,0.2855558,0.029347291,0.3489338,0.06956131,0.060216505,0.28067118,0.37654892,0.15260822,-0.0649968,0.15719777,0.14351363,0.023424927,0.20878117,0.3905263,0.08306043,0.0005158995,-0.16375586,0.08428141,0.035434157,-0.03555104,0.17546584,-0.08609755,0.00050946476,-0.02854321,0.21155119,0.22051148,-0.034977287,0.27942768,-0.2432067,-0.2173208,-0.07915211,-0.045947224,0.030315295,0.10692873,-0.088214286,0.1929327,-0.17668833,-0.24331033,0.015418907,-0.37528986,-0.4802886,-0.4667195,-0.3115089,-0.42404377,-0.18339485,-0.36966112,-0.04253835,-0.32575372,-0.5917977,0.361954,-0.65293956,0.04616964,-0.44613218,-0.059137214,-0.14873883,-0.13008925,-0.16060975,0.046069637,-0.6111184,-0.708459,-0.082819894,0.17529368,-0.6402495,0.44158068,0.53467596,0.31777582,0.11672067,0.010481618,0.0375013,-0.6452934,-0.8443301,0.47742417,-0.029570581,0.30392006,0.08233838,0.29515073,0.18837616,0.3304098,-0.10387328,-0.022169348,-0.76425546,-0.7038134,-0.0019079763,1.6237131,0.45904374,2.881064,-0.4304777,-0.7236697,0.6186416,-0.96308184,-0.8400733,-0.21975115,0.1330502,1.569597,0.10715978,-0.6779404,-0.43874663,0.21630637,-0.18129407,0.60305274,-0.535545,0.38009214,0.14126715,-2.093947,0.25428048,2.5088422,2.1009579,0.97177446,-0.4163994,0.3168219,0.80892885,-0.059958216,0.12937263,-0.9323512,-1.1972528,0.562073,1.9871022,0.89375436,0.8920152,-0.39740834,0.20593007,0.7003495,0.12035353,0.7194499,0.38434806,0.9268261,1.8692878,2.3101203,0.72506005,0.5368263,0.0017489541,0.4949251,0.707058,0.43211666,0.72128093,0.37899262,0.6067345,1.3880047,2.2814798,0.66764164,0.21699041,0.2906793,0.17781034,0.79309696,-0.06189289,1.3140948,1.1163003,0.76396644,2.1919632,2.1479678,0.0130747305,-0.6109103,-0.18118173,0.27331707,0.32932833,-0.16059844,-0.09650942,0.7762435,0.4764803,2.3269365,3.2698662,0.7753795,-0.05230774,-0.08588301,0.16693935,-0.32075444,-0.006937756,0.7552032,0.2381946,-0.043097693,2.965608,2.5465076,-0.03626063,0.43524146,0.6225419,0.07992025,0.40319854,0.28994927,0.80349374,0.40650967,-0.1739408,0.9699827,0.22277145,3.5253997,2.2381263,2.0439045,1.1238132,2.1367338,0.7091785,0.9329992,-0.01654098,0.7306266,0.08427923,1.58307,0.30780402,2.6988854,3.3848639,3.3849201,1.9788469,1.3315825,0.7286547,0.9436092,0.2132731,1.5804427,-4.0468745,0.051237136,0.60416985,0.47177568,0.21216509,-0.024342394,-0.055075135,0.010586331,0.10416705,-0.15139468,-0.39252722,0.030869864,0.06396641,0.22883713,0.57216054,0.51679426,0.30654943,-0.044187568,0.19842038,0.23011872,0.15625185,0.28456518,-0.20955855,-0.102298684,0.5844217,0.3581241,0.26961672,-0.060454734,0.38182157,-0.09579949,0.009703116,0.13830522,0.21451761,-0.16965957,-0.07139719,0.037281297,-0.17511891,0.1102101,0.023798965,-0.42554724,-0.09402409,-0.22798614,0.18217427,0.3398992,0.14778407,0.011448271,0.03827148,0.21008587,0.046186358,0.01865847,0.06927145,-0.018122206,-0.20471242,0.20321219,0.42780188,0.31699684,0.016994035,0.008400435,0.17633918,-0.21251616,-0.0065589272,0.0026454215,0.1969212,-0.19211026,0.060509447,0.12825507,0.35561895,-0.0756001,0.07787208,0.14032419,0.19102037,-0.06947908,-0.49183753,0.06782011,0.21899158,0.31722024,0.15246987,0.11509797,-0.18569846,0.0017904065,0.029080432,0.1566368,-0.10242214,0.010806589,-0.030153222,-0.043197352,0.21489058,0.5035959,0.01103624,-0.18243137,-0.2295587,0.10242851,0.47983772,0.18220042,0.11944054,0.16132747,0.47217664,0.13365988,0.101059854,0.23480602,0.44105965,0.0077038244,-0.035930514,0.07214308,0.04661438,0.15950939,0.23622228,-0.07984281,0.1833322,0.22556497,0.025868353,0.041897107,0.8060985,0.27847227,-0.016601568,-0.01669988,0.054063432,0.18561375,0.029190723,-0.28320223,-0.13531293,0.0030821627,0.0284433,0.53110325,-0.32781002,-0.08954543,0.1251405,0.215659,-0.019660592,0.063042656,-0.57422066,-0.06386908,-0.035785686,0.84216315,0.4327132,0.13146424,0.40696785,0.023660969,-0.07380691,0.16570723,-0.23575917,-0.38456732,-0.43097606,-0.24956602,0.856923,0.30607998,0.16695538,0.31355098,0.17904024,-0.40754813,0.28561443,0.32802096,-0.050660327,0.5418354,0.5532273,-0.46016136,-0.10949317,-0.5709245,-0.24737266,-0.313663,-0.7169867,-0.25322047,-0.22754122,-0.12535353,0.2592073,0.1030456,0.26832154,0.10550506,0.16662516,0.47861403,0.49279973,0.6663122,0.62623686,0.4663764,0.4447632,0.8740408,0.2986735,0.011756268,-0.056843273,-0.006130663,0.41203594,0.26955473,-0.023881841,0.42521802,0.3837708,0.18793616,0.59572726,0.31948236,-0.104001224,-0.30221295,-0.0620638,0.29710484,0.14823194,-0.019264178,0.20534797,0.3038304,0.096432954,0.5508503,0.51350224,-0.4418702,-0.664807,-0.3975847,-0.05927972,-0.14993009,-0.21051772,0.1176852,0.08766344,-0.31183508,0.20099705,-0.27230078,-0.5181924,-0.89383984,-0.31009725,0.12993349,0.022133037,-0.04330622,0.27517533,0.32716203,0.5351803,0.14557098,-0.26292154,-0.7809346,0.32359916,0.061922338,-0.010890721,-0.0709884,0.08154513,0.20832658,0.2012737,0.14203213,-0.16686027,0.115948744,-0.026659533,-0.00079623575,-0.16745527,-0.39741582,-0.3224164,-0.28317723,-0.12012546,0.2380785,0.09293781,0.28557885,-0.007781339,1.6854314,0.7709696,3.3277895,1.7910028,1.4020807,1.4116592,1.7414609,1.7144172,-0.5812431,0.790432,1.6117579,0.42886257,2.9042673,1.1569065,1.2724013,0.84962285,0.72333914,0.3496695,0.3961769,-1.1457568,-0.8583557,0.6923356,2.7312925,3.4619372,2.2163625,1.4557325,0.9777866,0.5799544,0.27935386,0.804726,0.5260576,1.9021128,0.412119,0.76894,0.21866587,-0.4567371,0.30368245,-0.1992986,-0.80404335,-0.24896882,0.62762046,-0.2783968,1.9779927,2.920811,0.41864422,0.74149925,0.9418736,1.2112777,0.9654249,1.0751187,1.4385817,1.4222645,0.67888176,1.4643515,1.9131087,0.82669806,0.24619572,0.38058582,1.705542,0.8841638,0.07859773,0.7661042,0.67925036,0.4902988,1.1928208,2.716096,0.39391926,0.2370653,0.6431281,0.80288893,0.86166775,0.58849543,1.087513,0.94398546,0.9889986,1.4827317,2.398852,1.4100331,0.16660884,0.3965397,0.45032725,0.2748341,0.06811196,0.2677052,0.9852426,-0.33446348,0.90403986,2.64002,0.10585433,0.13284442,0.13153228,0.13651887,1.1042862,1.045846,1.660251,0.5363673,0.4862562,1.4812235,1.6600405,1.2053051,3.98813,1.8368483,1.4550225,0.76636624,-0.12253082,0.675964,0.72933,1.7229393,-2.338909,0.6693004,1.6409253,0.7706714,1.5800742,1.171542,1.3625054,0.65322983,2.4390564,0.3724846,2.2923372,0.6702911,1.6098822,-3.9176729,-0.03741002,-0.14223108,-0.29144973,-0.15573092,-0.07752443,-0.15401717,-0.14551538,-0.16269073,-0.1282022,-0.2287234,0.001842732,-0.1609994,-0.37624776,-0.20145126,-0.19748919,-0.108205885,-0.12835875,-0.19574535,-0.054168917,-0.05667709,-0.1757713,0.32936522,-0.2453548,-0.41192976,-0.3456802,-0.4545782,-0.4946051,-0.58558476,-0.62352556,-0.84824795,-1.113957,-2.7339618,-7.6106815,-0.08001676,-0.23975194,-0.04970639,-0.18085988,-0.016329255,-0.20086426,-0.015522574,-0.09613198,-0.136568,-0.16680728,-0.32256272,-0.10930747,-0.21583241,-0.15776865,-0.1166829,-0.14647758,-0.22106908,-0.15060225,-0.2342668,-0.24886474,-0.23683335,-0.25237936,-0.042794734,-0.17673317,-0.057831783,-0.14734952,-0.13600896,0.050364286,0.012630116,-0.018754503,-0.084210485,-0.13210773,-0.12154867,-0.032780733,-0.14049685,0.016363544,-0.116696425,0.015756253,-0.07191572,0.008572321,0.008334762,-0.019476471,-0.13528623,-0.10447812,-0.014367667,-0.13449714,-0.02471065,-0.13685626,-0.10081833,-0.12316986,-0.042950798,-0.023635361,-0.046338122,-0.10617674,-0.08365193,-0.024812182,-0.056133308,0.01430484,-0.11230063,-0.059476912,-0.02144155,-0.06695789,0.036072254,0.015863474,-0.11921425,-0.022800712,0.033489507,-0.13775273,-0.018738488,-0.1165977,-0.0420396,-0.050232474,-0.028619476,0.036319405,-0.00173298,-0.08248851,-0.07222477,0.04731269,-0.059689354,-0.03307053,-0.14508277,-0.0315674,-0.09357364,-0.013866738,0.02405714,0.06848172,-5.6963658e-05,-0.013067946,0.014513862,-0.12224645,0.060518675,0.23819529,0.28500238,0.2727261,0.09090329,0.2342377,0.34033507,0.11212789,0.00028306514,0.06789709,0.045716617,0.23812568,0.16407047,0.14604798,0.31074786,0.1816137,0.2319265,0.2834242,0.4322213,-4.130187,0.07083743,0.10212516,0.213631,0.11611867,0.1953887,0.16323297,0.2704444,0.37506187,0.47289756,0.58851373,0.25150654,0.12709907,0.06715093,0.11547179,0.16901375,0.1428617,0.016789127,0.09285929,0.17759061,0.16316026,0.3689026,0.41346824,0.082533576,0.0250465,0.18534593,0.14549807,0.123149276,0.05865672,0.11962333,0.14781925,0.19746694,0.16594476,0.41241166,-0.068803504,0.05158575,0.12549812,0.07975435,0.055351447,0.048421077,0.1685134,0.14815855,0.046356756,0.1378082,0.17384733,0.018849242,0.027932541,0.14244018,0.019374961,0.12498378,0.07938087,0.088368505,0.11377163,0.09894409,0.029639008,0.11666046,-0.022537973,0.0446768,0.06745389,0.053973887,0.019764774,0.06560224,0.110500984,0.13699609,0.11774265,0.07066121,-0.042024884,-0.06497599,-0.10883415,0.123821065,0.05368879,0.03016332,0.021991273,0.027765295,0.057751507,0.07950426,0.06998371,0.019157255,-0.10157773,-0.046943914,0.05166177,0.012713208,0.04552969,-0.002433475,-0.026914215,-0.033579204,0.03837057,-0.051729597,0.08631159,0.031811953,0.077163585,0.0061962716,-0.057852793,0.067634806,0.1295414,0.036137972,0.061487995,0.14119011,0.08657837,0.0066740713,1.0351049,1.8995894,1.7124021,1.5855443,1.5790809,1.5896665,1.7163097,1.9602292,2.1990054,2.2906191,1.2834843,1.7752773,1.9043366,1.8968409,1.2682776,1.4360187,1.3497525,1.1384724,2.0713027,3.2319016,3.6488602,1.5406758,2.2492793,2.4105513,1.9400303,2.2805412,2.292059,2.5782032,2.9027739,3.3567913,4.1277514,6.8109455,6.140268,1.6072139,1.6361151,1.1363809,1.3360981,1.3081888,1.3367193,1.3776975,1.837346,1.9475936,3.8352015,8.499313,1.4152684,1.6927779,1.1990311,1.7005801,1.2208371,1.5636033,1.4739814,2.0038433,2.1022077,2.774026,3.4352555,0.9301642,1.390216,1.1029423,1.4127994,1.1710997,1.3671893,1.1929874,1.259397,1.5217974,1.5715451,2.00853,1.4803594,1.1110557,0.69503033,1.0230042,1.2568635,1.2465948,0.7175702,1.5834701,1.3110003,1.3050377,1.75296,1.8421365,0.8499304,1.0865781,1.2012453,0.7615582,1.3400756,0.98068094,0.88050765,1.2726445,1.3439368,1.258676,-0.23636833,0.8245615,0.6802039,0.3216535,0.39460805,1.0434736,-0.091668114,0.6358125,0.74403876,0.8867779,-0.007858191,2.5154738,-0.04747295,0.504967,0.58824456,0.52092403,1.1788887,0.74889916,0.6733059,1.1102535,0.85968107,1.0814321,0.5494135,2.3143013,0.4620865,1.3088992,1.1400311,1.37222,1.1410722,1.1754036,-0.55526346,1.9254563,0.5421313,-6.1099234,0.04990857,-0.025592137,-0.02599325,0.02612815,0.038281772,0.0140251955,0.043445252,0.047452684,-0.0009524908,-0.03647705,0.012163185,0.03239882,-0.021865439,-0.021379985,-0.01552013,0.019523848,0.006548224,0.030492438,0.006529215,-0.02560856,-0.020952152,-0.05091755,0.06677285,0.035226833,-0.003450741,0.008873922,-0.01744544,0.010143662,0.06702655,0.028826047,0.0023290352,0.037757054,0.010927364,0.10070964,0.03538417,0.0018932911,0.0010364732,0.0075075817,0.020002525,0.016081952,0.03678124,-0.0039362554,0.040726528,0.015368241,0.099178836,0.01526507,0.013795073,0.035681263,-0.007844604,0.012737362,0.036028158,-0.010020291,0.022807568,0.04565505,0.0341884,0.09980876,0.048758905,0.0045530405,0.014570238,0.0029241603,-0.043506797,0.037750725,0.00084703614,0.05136223,0.064151675,0.052767284,0.07033474,0.030985063,-0.0007425249,-0.0034249406,-0.013061261,-0.0021656945,0.019340802,0.0012676346,0.0038920054,0.038881257,0.017462105,0.087544724,0.010333764,-0.025661208,-0.004624017,0.002236181,-0.0054953755,0.017300831,0.0018040263,0.012586002,0.05692547,0.010520086,0.18800119,0.045331832,0.024345312,0.03482094,0.0151343485,0.021664836,0.039783116,-0.023185378,0.020649329,0.05340974,0.045562506,0.046926454,0.10332717,-0.008718909,0.04377797,0.024442691,0.05000318,0.06458569,0.02173101,0.0045985733,0.08672063,0.052601885,-0.050920445,-1.7564213,-2.997349,-2.5745068,-2.9861107,-3.0209286,-3.0367653,-3.0503485,-2.919724,-3.1496072,0.013232794,0.00086069846,-0.041902576,-0.059295777,-0.06412621,-0.06934907,-0.095357165,-0.10773725,-0.089583315,-0.117831364,-0.0310305,-0.020709747,-0.020135324,-0.039090145,-0.06347622,-0.06485129,-0.0515194,-0.074540995,-0.0716511,-0.033376098,-0.0632993,-0.03933733,-0.1081709,-0.049632575,-0.042255312,-0.046463877,-0.046552118,-0.09610405,-0.1043526,-0.07003593,-0.06552554,-0.06453439,-0.07355991,-0.055598214,-0.07948497,-0.08715332,-0.10986721,-0.04265268,-0.09169604,-0.113780454,-0.08480074,-0.10961383,-0.11406444,-0.06670732,-0.06687628,-0.0660359,-0.112915136,-0.06398739,-0.06702703,-0.08009775,-0.06077341,-0.09532635,-0.096528865,-0.1125398,-0.0810606,-0.098512456,-0.08874313,-0.08909267,-0.10774862,-0.08901314,-0.041900143,0.030285383,-0.028295012,-0.08588968,-0.10077682,-0.084277555,-0.07770824,-0.082059756,-0.13295466,-0.14021473,-0.116662174,-0.12531526,-0.119956024,-0.081107624,-0.10192177,-0.11378189,-0.1379009,-0.0850744,-0.08603638,-0.087821186,-0.113423415,-0.05309022,-0.06930626,-0.10293,-0.0848065,-0.120584026,-0.10100763,-0.10118331,-0.114559054,-0.0850559,-0.07528257,-0.08718485,-0.085720316,-0.07793788,-0.107062235,-0.09441232,-0.10604181,-0.0941193,-0.17893337,-0.048243314,-0.16868024,-0.15079223,-0.116479024,-0.06680876,-0.099284895,-0.10235718,-0.10155208,-0.107706696,-0.102426805,-0.20145966,-0.14397636,0.0011485935,-2.8124828,-2.974371,-2.9003358,-2.7845745,-2.7409542,-3.0988936,-3.1465728,-3.263619,-2.872404,-0.034567513,-0.14931276,0.8383472,-1.2243075,-1.2114731,-1.1308544,-1.158585,-1.2022755,-1.1939487,-1.1620989,0.66705364,-0.08534874,1.1046884,-2.0730639,-1.2661847,-1.1515884,-1.1703246,-1.1495131,-1.2112257,-1.2368234,-1.193183,-1.362212,0.3720126,-1.3508292,-1.1794283,-1.2003615,-1.1915535,-1.0804687,-1.0846587,-1.185877,-1.1291491,-1.1445825,-1.2001688,-1.4170291,-1.2881484,-1.3092042,-1.2505305,-1.3121163,-1.025697,-0.9742337,-1.0167216,-1.0446868,-1.0877818,-1.2897073,-1.8921691,-1.2790222,-1.2855661,-1.1119825,-1.0271666,-0.9031224,-0.92295885,-0.9103305,-0.9813831,-1.0442735,-1.1530671,-2.39392,-1.2583028,-1.236143,-0.98772633,-0.9671418,-0.872283,-0.9366457,-0.91688704,-0.951807,-0.9693844,-1.1961646,-1.3698866,-1.259848,-1.163458,-0.9918523,-0.87657505,-0.7873196,-0.77880704,-0.83189136,-0.86431414,-0.89856887,-1.0523485,-1.575542,-1.3252562,-1.1148747,-0.86734414,-0.77318037,-0.7021934,-0.6574256,-0.68864644,-0.73915684,-0.7818828,-0.9765806,-2.1968834,-2.4170606,-1.0278687,-0.63811713,-0.5187697,-0.51646656,-0.36270788,-0.28853893,-0.49352017,-0.584709,-0.95413125,-1.2201507,-0.1855776,0.8067693,1.3775895,0.61400414,0.12501302,0.24121132,0.43435532,0.5351951,0.49521422,2.0235748,0.28569192,-0.17277896,0.25774378,3.1623118,3.4078517,3.6546152,3.9806201,4.0385637,3.9770494,3.4032078,0.32013333,-0.21924965,1.0466182,-0.01835845,0.10772356,0.14349811,0.013675784,0.008705267,0.023042245,0.043512367,-0.030965725,-1.9052117,-0.22183469,0.018520663,0.13124208,-0.05545611,0.16413034,0.12590697,0.0011746059,-0.029725144,-0.039317302,-0.029183103,-3.1351826,-0.63369054,-0.2671392,0.23544921,-0.03298011,0.028608777,0.050690632,-0.054181427,0.07466311,-0.120087504,-0.092194356,-3.343491,-0.15675007,0.039654437,0.08394127,0.05618921,0.29304537,0.045772236,0.022369495,0.31048855,0.059633564,0.067576036,-3.6053364,0.048259012,-0.009163376,0.15257327,-0.05188297,0.109808736,0.06816757,0.027799584,-0.00688504,-0.24692814,0.16378357,-2.896724,-0.03790351,-0.046687327,0.33812195,0.06620947,0.06058621,0.07214949,0.10342487,-0.030534388,-0.22674808,-0.45893863,-3.196629,0.15790144,0.13123028,0.31901568,0.10120789,0.23551947,0.3709247,0.21355513,0.212014,0.19394767,0.14726628,-2.9516716,0.0041916687,-0.13517939,0.08929405,0.17802557,0.104454614,0.25995728,0.06211402,0.12626916,0.080296196,-0.09940109,-3.2078497,0.049414925,-0.030577155,0.2770488,0.090556845,0.10212764,0.23608917,-0.057275657,0.11912108,0.026611023,-0.055903032,-2.9006114,-0.06908524,-0.23141862,-0.074679404,-0.14114128,0.12316464,0.07699426,-0.05511688,-0.08098555,-0.10629476,-0.24930456,-2.1306224,-0.6214878,-0.2233864,0.046883155,-0.12814976,0.0065036346,-0.091750674,-0.11313587,-0.15585192,-0.05757757,-0.39241126,-1.4143027,-0.08927419,0.0048872614,0.035491537,0.4448257,-0.17071544,-0.4634995,-0.15677819,-0.27345344,-0.079079084,0.5349266,0.35535112,-0.75423646,-0.03355861,0.043457754,-0.49384606,-0.021981299,0.08192065,0.0282126,-0.025723137,0.21361937,0.4331426,-0.14457953,0.86681,0.5322725,0.025169717,-0.23397022,0.057749793,-0.18227261,0.07061881,0.035976768,0.10457588,0.33190662,-0.7314382,0.22243164,0.6772922,0.06319545,0.10056441,0.21202794,-0.05172783,0.09400449,0.2161019,0.20157841,0.2212169,-0.61477023,0.4206973,0.5970445,-0.33135444,-0.14123733,0.028308855,-0.057471693,0.04488951,0.29505062,0.080536604,0.11155233,-0.7348547,0.33880624,0.29560366,-0.12808068,-0.23125604,-0.16932522,-0.11748749,-0.046538025,0.026682364,-0.66174585,-0.6286084,-0.61579657,0.19549695,0.10013842,-0.16062765,-0.038229633,-0.049189758,-0.069723904,0.049005534,0.24931264,0.1647938,0.08022792,-0.7735921,0.38267392,0.5790132,-0.020058017,0.13488442,0.06311449,-0.10721717,-0.0099423835,0.19902153,0.275427,0.1596971,-1.2244225,0.6562232,0.604422,-0.22210668,-0.3674102,-0.119649544,-0.045205545,-0.16244315,0.014568886,0.16288425,0.2933592,-0.8456933,0.833032,0.74823767,-0.32721424,-0.5325839,0.04155887,-0.28819963,-0.033440426,0.17904618,0.2569369,0.47284132,-0.49134701,0.65645796,0.91928434,-0.020483186,-0.053671885,-0.3320399,-0.3743718,-0.104611315,0.16308935,0.22470962,0.50646514,0.2559336,0.68720067,0.04855087,1.0186261,1.1505071,-1.005613,-1.5269505,0.79828805,0.6853977,2.6664171,3.9479094,3.7511005,0.9471885,1.0006906,1.2330192,-3.2892103,-0.83994114,-0.15755163,0.90160096,0.5192553,3.2541814,3.2525113,3.0939147,3.0845606,1.2187537,-0.17462918,-1.0269359,-0.9032117,-0.4199504,0.65017855,0.3038556,2.2378566,2.3173153,3.0534759,2.8256397,-0.18629844,-4.2401733,-1.1054176,-0.8955093,-1.5967072,-0.4071468,-0.59453547,1.7234758,1.2819923,3.7636003,0.73084205,0.5485737,-1.8905218,-0.96858335,-1.3192464,-1.0955732,-0.61757946,-0.5533423,0.59440464,1.4026252,3.9520857,0.94367284,0.6664098,-0.17660536,-0.4190825,-0.63801175,0.16340342,0.4897788,0.4326902,1.4658082,1.4473659,4.097315,0.14489605,0.46942526,-0.5618168,-1.4079862,-1.128388,-1.1804119,0.7230269,0.5228388,1.7957313,1.2593182,3.445581,-0.40737727,1.3801081,-1.1042457,-1.5648694,-1.4730301,-0.6491894,-0.9323545,-0.061163466,1.0407209,1.1278323,2.9871037,0.8462981,-0.11078333,-0.8191218,-1.1198906,-1.6032044,-1.3472708,-1.3317529,-0.3871545,1.9114945,2.4921303,2.796923,3.0354016,2.6164837,-0.105407946,-0.11801314,-1.0130259,-0.5050703,0.05180233,0.58616924,1.9727728,3.1814332,3.2482297,2.7930155,1.493392,0.7474997,1.339618,-2.0122995,0.35649136,0.7883497,0.81343216,2.4877381,3.299316,2.6713297,1.3314493,1.1057467,-9.149012,0.003750346,-0.37147042,0.056107417,0.33295906,0.51000744,0.38214448,0.3592411,0.39752805,0.2118507,0.5276315,-0.049216863,-0.12548684,-0.21389878,-1.1268246,0.27672067,0.46022606,0.23601577,0.4955671,0.11911952,0.15147473,0.5092149,0.14821666,-0.37362924,-0.099520616,-0.7763426,0.31715053,0.24035664,0.26710978,0.36053643,0.4468324,0.3794212,0.46760094,0.63825727,0.10748709,0.04193317,-0.9169776,0.19293444,0.12262156,0.73128265,0.3836165,0.2707522,0.52768147,0.30582222,0.33762622,0.22435006,-0.11144642,-0.7381032,0.1589668,0.23064485,0.19062048,0.44317776,0.28135112,0.28481215,0.36061445,0.13098042,0.15276724,0.16859469,-0.9781274,-0.32797134,-0.26696768,-0.009239584,0.02494088,0.105422586,0.16020758,0.15606067,0.23229149,0.03519767,-0.12810452,-1.1646422,0.09243488,0.27020538,0.24244279,0.097870775,0.097767144,0.38275126,0.2719182,0.27181658,0.1322741,0.011663227,-1.0281456,0.28789812,0.29619032,0.4775375,0.020866357,0.39548296,0.30086166,0.27140045,0.19540498,0.08965533,0.18961523,-0.96141887,0.24611337,0.113604315,0.22067086,0.24784948,0.1728813,0.23623616,0.32718658,0.32096857,0.032059364,-0.08023403,-0.896648,0.2232352,0.13912809,-0.1089565,-0.08059156,0.14152725,-0.0182651,0.1494896,0.22518511,0.052005637,-0.045279425,-0.1259812,0.39719704,0.16775048,0.12432752,0.13500558,0.07658658,0.106761806,0.56703895,0.04083523,-0.003453116,-0.3855785,-0.16951722,0.30828625,0.15976946,0.0043394505,0.23501404,-0.49082133,-0.3658812,-0.03168508,-0.035668418,-0.01727988,0.39094636,-0.46832365,0.47684208,0.3122483,0.15590599,0.18529373,-0.3257183,-0.057480738,-0.115583844,0.14206052,0.34141746,0.5177612,-0.45703635,0.50986826,0.37412453,0.4469597,0.25792068,-0.037147086,-0.111001536,0.23568833,0.06849743,0.38846758,0.298763,-0.931642,0.18032949,0.29213342,0.33989102,0.19874507,0.10748885,0.05556243,0.37457108,0.26883814,0.3920425,0.47706872,-1.1046797,0.2697807,0.085322134,0.42253256,0.12126955,0.026383976,0.20252527,0.15332492,0.42252052,0.37610117,0.4608276,-0.98108137,-0.544194,-0.6878862,-0.01887162,0.1514962,-0.0904568,-0.027874045,0.17849705,0.02493925,0.046463765,0.27162242,-1.0202291,0.15282814,-0.009326255,0.20721851,-0.0553418,-0.03241357,0.024950068,0.17985836,-0.077258214,0.13950725,0.27043107,-0.9188889,0.26316178,0.18838823,0.1392807,0.12053812,0.22856967,0.094678134,0.09881433,0.33231932,0.52508885,0.27362266,-0.49013144,0.33818814,0.26175007,0.21980624,0.24939474,0.20442075,-0.09714118,0.22604805,0.32812196,-0.10498518,0.39788672,-0.2974485,0.31433403,0.069896646,-0.05937694,-0.104686506,-0.066038,-0.24533285,-0.06606413,-0.3876247,0.050071843,0.08333334,-0.48486966,0.3271649,0.142011,0.03763119,-0.08300845,0.17936932,-0.25738978,-0.17616329,-0.027690265,-2.0202787,-1.6831208,1.6917964,-0.21039695,-0.81718427,-1.4402647,-0.85922223,-2.6504583,-2.3212829,-1.7276999,-1.993873,-1.6894962,-7.7824707,1.3201978,1.0757704,-1.1281422,-1.788576,-1.5018429,-3.0529602,-3.637691,-1.8897048,-1.6525857,-2.4303055,-1.5093824,1.4656246,-0.36794224,-1.6606878,-1.6492648,-1.6722473,-2.3005245,-2.1660135,-2.967338,-2.002768,-2.8504105,-1.2258644,1.0710765,-1.0834937,-0.8988702,-1.1091379,-1.0987661,-1.4687067,-1.5604993,-1.8744289,-1.080005,-1.062689,-1.3666863,1.288529,-0.4076045,-0.83536786,-1.7044146,-0.93643165,-1.9048904,-1.8503599,-2.5872455,-1.3006508,-1.8713728,-1.884059,0.76572263,-0.6193785,-0.8294563,-1.042498,-1.3000107,-1.3250704,-1.4048338,-1.1755106,-2.0089123,-3.5018578,-2.1171238,0.89556175,-1.5882491,-0.97681063,-2.180137,-1.5242002,-2.048918,-2.0242178,-2.155511,-1.5867134,-1.5811359,-2.2564356,0.996413,-1.4050921,-1.2883162,-1.9031757,-1.378253,-2.042479,-2.0603905,-2.1273916,-2.0353208,-2.376472,-2.3795428,0.6556227,-1.6903855,-1.6376767,-1.7252046,-1.4971484,-1.792434,-1.9398212,-2.2786798,-1.3158524,-2.8503103,-0.06552275,2.0060778,-0.25223327,-1.3557785,-1.6832845,-1.050422,-2.2246914,-5.0410447,-2.6347709,-1.7148246,-1.9247923,-1.6857531,1.3923864,-1.8446347,-1.6169094,-1.6679742,-0.77079856,-0.44847125,-1.3662086,-1.5754725,-1.9542363,-4.338343,-0.0020599654,-0.0822327,-0.09315891,-0.14817026,-0.39507806,-0.121487714,-0.46362403,-0.523399,-0.9357118,-0.7115629,-0.00903391,0.095448166,0.30857486,-0.10632795,0.11695559,0.12438547,-0.3319422,-0.2955376,-0.8715727,-1.2408009,-0.67472994,-1.0181162,0.44589224,0.29584432,0.33630535,0.27021328,-0.017018,0.0105212005,-0.31744307,-0.58421963,-0.48125607,-0.42944336,-0.7387185,0.53888535,0.13642839,0.05704101,0.038033795,0.12701358,0.07366532,0.12989762,-0.25004095,-0.2647298,-0.036743503,-0.50673515,0.18673006,0.23813863,-0.0879383,0.07297008,0.25288603,-0.022910222,0.058955416,-0.18961047,-0.017469924,0.060252745,-0.22682697,0.32351503,-0.23996763,0.16326426,-0.108961284,-0.40922907,0.038646422,-0.11112351,-0.16898528,-0.34614748,-0.19552226,0.07529225,0.03381856,-0.060528502,0.031938758,-0.2237388,0.41473973,-0.0029214933,0.19600376,-0.0297075,0.061614696,-0.12063027,0.1926033,-0.31940216,0.108521774,-0.0029207116,0.008573049,0.14914924,-0.35166496,-0.1262263,-0.12935714,0.18555008,0.6362304,0.20717517,0.010399074,0.30506557,0.14049666,0.048859876,-0.13308126,-0.23562129,0.061045814,0.075104885,0.38395745,0.48896214,0.1187243,1.0269805,0.093504846,0.23946027,0.3132922,-0.014909653,0.0918995,0.2244225,0.25584885,0.30606687,-0.042301897,0.7564629,0.051893126,0.16311632,0.8558314,-0.0036012516,-0.21506648,0.2503629,0.43889663,-0.22988634,-0.65638244,-0.25908828,0.03376288,-0.009216059,0.6742548,-0.18792042,-0.87383497,-0.106341675,-0.49401036,-0.7906899,-0.6684896,-0.8702102,-0.6237196,0.012283463,1.3003283,1.3129292,0.38575003,0.16499959,-0.57133245,-0.39875114,-0.73730195,-0.90395176,-1.0330881,-0.23349129,-0.6135727,1.2195938,1.4755948,0.91086483,0.6961801,0.2730387,-0.6199062,-0.25797883,-0.7810447,-0.58494705,-0.21078922,-0.4034923,0.3463508,0.80911696,0.3540768,0.48490447,0.203184,-0.22077276,0.061440893,-0.26895002,0.37374076,0.3165158,-0.17426713,0.4572332,0.68965673,0.4533773,0.39290184,0.042317513,0.14849205,-0.08057028,-0.08055634,0.54887396,0.711624,0.12649672,-0.28551105,0.47046417,0.06314154,0.36514595,-0.11353206,-0.009852994,0.20552921,-0.1769297,0.15914872,0.8112063,0.47060418,-0.13246508,0.094513975,0.2631183,0.33727098,-0.073450334,0.44344294,-0.10776724,0.116044514,0.4275962,1.193157,0.49769336,-1.1643043,-0.39586952,0.09705941,0.1525841,-0.2333542,-0.65782315,-0.0062133246,-0.45782363,0.57991016,1.4613247,0.4958311,-0.8164618,0.24129885,0.14423244,0.50335586,-0.028116042,-0.45238417,0.086242095,0.004915637,1.2102926,1.6434743,0.9704375,-0.8517161,0.32983816,0.50467646,0.34099472,0.007660435,0.28817552,0.42496592,0.13514972,0.62438405,0.7328972,0.2794236,0.03148309,1.0224752,0.6714713,0.24428654,-0.08208743,-0.06271878,-0.4444937,-0.26316455,0.41209143,-0.24678804,-0.029027345,-0.96898794,-0.86139315,-2.3148937,-2.6950476,-2.4317968,-0.0784838,-0.48620734,-2.4690716,-0.3963574,-0.7924111,-0.8067085,-0.8587267,0.952509,-0.89520925,-1.9482749,-1.3987999,-3.4869602,-6.117392,-6.5132694,-0.34580147,6.341653,-0.84305394,0.23900092,0.5185642,-0.9311012,-1.7830521,-1.4861131,-2.6765845,-3.5363271,-2.6470406,-1.2008486,0.3333291,-1.3018469,-3.3468153,-0.09773657,-0.7844944,-0.7248472,-2.3085244,-2.1975408,-2.5619853,-2.4323516,-2.3051567,-1.0708041,-0.21141756,-2.6963356,-0.57556534,-0.42897367,-0.984716,-0.5262453,-2.0805204,-1.8239897,-2.9346445,-1.7556628,0.21033365,-0.026564326,-2.1210554,-0.97148514,-0.25054184,-0.6350602,-1.2917444,-2.602451,-1.8110832,-3.0868692,-0.7670625,0.17351615,-0.51553106,-5.4000335,-1.3800132,-0.35627317,-0.19236477,-1.4543102,-1.7620773,-0.5934702,-1.9434581,-0.0889687,1.511557,0.589699,-6.2999177,-1.9742172,0.08566536,-0.22618544,-1.5573993,-1.9749514,-2.2680995,-2.1080732,-0.84424216,0.73494935,1.6537223,-4.420135,-0.15494359,1.1824237,0.26100162,-1.0210145,-0.957453,-1.7165335,-1.6376625,0.188198,-0.06748542,-0.45816422,-0.89315635,0.8759479,1.9170663,1.0546557,-1.3412372,-1.1441988,-2.497616,-4.9498734,-4.3080144,-3.8796635,-0.9339354,-0.9185941,-0.8941294,-0.42362434,2.8055947,-0.5148039,-1.3963645,-3.1551666,-3.9869213,-3.1893182,-0.9818214,-0.98333925,-8.27026,-0.004506486,-0.7045037,-0.5048033,-0.050981794,-0.35554478,-0.41035905,-0.42584333,-0.15876289,-0.2858656,-0.33986527,0.051438227,-0.1701034,-0.2793551,-0.3884867,-0.08888989,-0.119033866,-0.15280348,-0.103848666,-0.39805943,-0.3921019,-0.5978753,-0.7405503,-0.99783885,-0.5304993,-0.688829,-0.2092245,-0.26760748,-0.15175095,-0.107704684,-0.238086,-0.49331543,-0.3654856,-0.47854957,-0.6187319,-0.662707,-0.52801293,-0.37865114,-0.38613978,-0.34573638,-0.30690107,-0.106692076,-0.54084116,-0.3590019,-0.40507764,-0.17221592,-0.2003616,-0.19179107,-0.0016582662,-0.17633274,-0.26769128,0.20200442,0.21598631,0.16459003,-0.14898837,-0.48114365,-0.6438782,-0.27722096,-0.45860222,-0.34159636,0.036184993,0.04329565,-0.07137463,0.17723724,0.17423141,-0.1572987,-0.23419581,-0.89888036,-0.33887926,0.037713956,-0.0161294,-0.26696146,0.29567638,0.12346009,0.2732251,0.26304162,-0.21191868,-0.30063462,0.0992441,-0.5617506,-0.06917248,0.25788707,-0.6059403,-0.019431628,-0.10967814,0.08242782,-0.072285116,-0.32247132,-0.07432683,0.98274475,0.021192782,0.07750099,0.28235576,0.036958657,-0.02602742,0.28787458,0.27519894,0.15504806,-0.082980804,-0.19606267,0.11629722,0.068470426,0.4085268,0.37611386,0.1996581,0.19594583,-0.019381527,0.04572365,0.4890513,0.21686809,0.43986934,0.004231831,0.30358198,0.20694315,0.21718769,0.04237471,0.34305102,0.3123354,0.11306221,0.8992782,0.1613724,-0.011281392,-0.03202302,-0.16152842,-0.22604343,-0.2917189,-0.0634185,-0.054000158,0.0031417103,0.19561116,-0.19981244,-0.49106252,-0.027659936,-0.38126191,-0.061463784,-0.573735,-0.26092604,-0.4518624,-0.61736286,-0.6333511,0.14025228,-0.47861713,0.09061091,-0.29391307,-0.36345464,-0.058447536,-0.45479912,0.11546552,-0.2121646,-0.41607,-0.40944988,-0.42794728,-0.11799356,-0.054027766,-0.8224494,-0.5588551,-0.7843648,-0.45048594,-0.34383467,-0.26934585,-0.56067985,-0.14835738,-0.3333106,-0.29261687,-0.36202493,-0.6355668,-0.30903044,-0.65965885,-0.18313773,-0.23748988,-0.3911192,-0.3441495,-0.04410316,-0.05560612,-0.061337933,-0.28737202,-0.42685446,-0.5936758,-0.73709553,-0.20355953,-0.4340618,-0.68115634,0.010194231,-0.23743868,0.0043204078,-0.16944858,-0.30026734,-0.43632054,-0.46307305,-0.7597243,-0.46980903,-0.54890144,-0.5085983,-0.2844644,-0.37166053,-0.2078043,-0.044164993,-0.39517933,-0.5015846,-0.47398734,-0.46165168,-0.37493795,-0.5883253,-0.6245978,-0.50172806,-0.58883,-0.3053885,-0.18608557,0.08558043,0.12654063,-0.53415936,-0.4075454,-0.24294224,-0.6456771,-0.56306225,-0.3669754,-0.25938618,-0.22416352,0.37092966,-0.06933201,0.9537813,-0.241016,-0.34171024,-0.0793138,0.06986893,-0.4422445,-0.22580397,-0.12615295,0.10756241,-0.39059383,-0.6340409,0.7480883,-0.018278042,-0.3722142,-0.26171798,-0.7025223,-0.58540213,-0.87717944,-0.48328513,-0.53574723,-1.8075907,-1.8644445,0.04549339,0.18432043,-0.69787794,0.084125206,1.2212813,-0.4126154,-1.657885,0.47260398,-2.4078944,0.68977875,-0.6216104,0.16187307,-0.6718536,0.15189567,-0.3347242,0.17457072,-0.7258208,-1.5127254,-0.61438304,-0.027543126,-0.33706966,-3.6143782,-0.4759924,-0.10983454,-0.89923984,-0.72467643,0.34454167,0.004643736,-0.904686,-0.9462572,-0.15484035,-0.27701288,-1.0764406,-2.6078594,-1.8775792,-0.16427393,-0.6243239,-0.67722976,-0.39444897,-0.29278323,0.09864062,0.14633186,0.4753508,-0.41171968,-2.9341817,-3.6291118,-1.0466402,-0.7511957,-0.30362287,-0.25953627,-0.379489,-0.43545088,0.49027374,1.062505,0.71968365,-3.1430938,-3.5370183,-3.5342083,-1.2434846,-0.4377924,-0.63221234,-0.849568,-0.7386076,-0.7920641,0.3762247,0.48144972,-1.3176512,0.91742086,-1.6320685,-3.2323103,-0.5870335,-1.120756,-1.103101,-1.0126051,0.044155397,0.27560297,0.54452246,-4.0707474,0.8865755,-1.2132716,-2.4985065,-0.76582396,-0.5597145,0.18647006,-0.41090235,-0.14304294,0.27408934,0.2013713,-3.8119423,3.359167,-1.0946233,-0.5281267,-0.7657594,-1.5841918,-0.6117743,-0.544293,0.10331318,1.3192823,1.649911,2.1427176,-1.0122774,2.9386637,1.1640706,-0.29664686,-1.0647565,-1.8850117,-0.643221,-1.9426281,0.36495316,3.0329366,-0.9009739,0.1563312,-0.6735215,2.2036917,-1.1398244,0.15717933,1.1059326,0.044791397,-0.561442,1.0429946,-0.61969775,0.15092112,3.502018,0.050370686,0.42843336,0.2573807,0.32788935,0.08206187,-0.031932563,0.076438256,0.052857216,-0.6019948,0.6834977,0.016480498,-0.092693135,0.3175062,0.49940965,0.11928147,0.22441241,0.076907136,0.28445363,0.31025052,-0.5315919,-0.29190347,0.041437604,0.7387425,0.27933636,0.2713958,0.18522595,0.15510896,0.11191066,0.10219647,0.18629438,-1.0000205,-0.33665407,-0.3407921,0.19680634,0.41680264,0.41364065,0.356647,0.16761406,0.24680181,0.26116994,0.18822877,-1.1565804,-0.32882935,0.25148997,-0.05417988,0.32569897,0.35006234,0.2450537,0.18631516,0.16658057,0.20051418,0.63655156,-0.4436536,-0.39908674,0.11827637,0.18156466,0.2944782,0.25887638,0.34638697,0.437425,-0.04118002,0.5080956,0.2678434,-0.22325504,-0.19179767,0.116847366,0.2834943,0.02672004,0.23064148,0.35120183,0.16293639,-0.063731775,0.054094747,0.74515676,-0.4900055,-0.28759435,0.1624979,0.28990552,0.16844279,0.334181,0.37214583,0.06614993,-0.032022182,-0.02615128,0.24650581,-0.3945187,-0.038532272,0.32920173,0.24442682,0.0072595794,0.1373602,0.5060389,0.19340882,0.1550245,0.15967454,0.14273229,-0.65107316,-0.22673748,0.038627617,0.08814478,-0.3830339,-0.066255406,0.29523024,0.12180438,0.105160765,0.11024606,0.25872463,-0.2770269,0.09950102,-0.3040822,0.046935312,-0.042241655,-0.07484741,-0.10421584,-0.14363544,0.11463448,-0.18992963,-0.0107141845,-0.2632843,1.1891752,-0.031720597,0.03988514,0.62705815,-0.26583782,-0.33528376,0.17222999,-0.52759016,0.176244,-0.3864767,-2.0391119,0.18329312,0.030587729,-0.7978635,-0.2572009,0.089218244,0.10431647,-0.02062271,-0.24255273,-0.1558446,-0.40863895,-3.0729768,-0.2874469,-0.08989285,0.3721896,0.24855988,0.4896159,0.45774147,0.3572144,0.097555384,0.34172323,-0.008637396,-2.922564,-0.40944403,1.3274035,0.17204943,0.26280656,0.5234817,0.30965966,0.21271619,0.17563471,0.4731426,0.051354475,-2.6485398,0.08716288,0.2439577,-0.025022587,0.2125222,0.17528498,0.19023111,0.13098186,-0.0901407,0.287324,-0.025981544,-2.7284853,0.17794916,-0.15251563,0.14978606,-0.049678344,0.046825826,0.2160017,-0.10475934,0.009409062,0.096975334,-0.0019232015,-2.3328793,0.063739255,-0.20083591,0.33034545,0.37208953,-0.14180255,0.07101891,0.052401155,0.08806597,0.22031622,0.07932184,-2.7651446,0.42800727,0.41533503,0.37598392,0.35414737,-0.09782833,0.30171263,0.16234466,-0.085709475,0.37051445,0.05959996,-2.818414,0.15611264,0.19892728,1.245201,0.2008361,-0.05691294,0.3168129,0.3628761,0.46318787,0.6530205,0.36122948,-1.9312395,0.6159566,1.135282,0.0053471243,-0.4333547,-0.79866487,-0.32238325,-0.16325383,-0.04951442,0.05384682,-0.30282077,-2.128348,0.2800604,-0.08514992,-0.0045907563,-0.931418,-0.7150625,-0.41246283,-0.17057087,0.05038961,0.31999302,0.32560647,-0.677295,0.9303023,0.02859309,-1.237789,-1.0683818,-1.1064652,-1.9735591,-1.9249552,-1.7232183,-0.26065066,-0.1643887,-0.16377372,-1.0549592,-1.1768218,-1.1446068,0.011080151,-2.1419256,-1.4178818,-0.84660494,-0.9726366,-0.94715995,-1.3174508,-7.8565865,1.9150559,-1.2663409,-2.2590475,-0.9521455,-0.8663442,-0.45965558,-0.390287,-0.75777507,-0.695309,-1.33096,-2.8136196,0.08276582,-0.59204423,-0.38062972,-0.54532075,-0.592275,-0.8575628,-0.78214186,-1.1428795,-0.49234027,-1.5616293,-7.0159483,-1.4120098,-0.8180267,-1.2256422,-1.120723,-1.0780386,-0.82417625,-0.8126271,-1.3731221,-1.2895203,-0.8002473,-6.9591193,-1.7721851,-0.9731393,-0.54925317,-1.0340096,-1.3219367,-0.948717,-1.2250878,-1.5700645,-0.9117394,-1.2019634,-7.829708,-2.4291542,0.83359146,-2.0323129,-0.6937781,-1.280834,-0.106630154,-0.4555018,-1.2927135,-0.40035787,-2.1627622,-7.76331,-2.8497503,-0.08144285,0.87311304,-1.0386475,-1.1177766,-0.37841135,-1.1819757,-1.4321504,-0.33414966,-0.84013236,-3.7761118,-0.15140049,-1.3230511,-0.81403327,-2.5584483,-1.6180179,-1.2224236,-1.6690135,-1.0584038,-0.0699725,0.093217425,-2.2970452,0.34814253,-0.22413763,-1.3322341,-8.088896,-6.8347363,-2.3255918,-2.0567768,-1.6856008,-0.8975446,0.25492615,-6.5911756,-3.586082,-1.1978601,-1.2902684,-1.2727878,-5.707493,-3.4725034,-1.9000411,-1.0872253,-0.11596758,1.0171257,-1.3798115,-1.0020454,-1.0955343,-6.8582315,-0.009103759,-0.075378366,0.008182256,-0.10150357,-0.21941327,-0.33979124,-0.26097274,-0.37664896,-0.3226532,-0.07983159,0.01862487,-0.08187191,0.11674475,-0.081585385,-0.22056188,-0.39027372,-0.2936706,-0.3441495,-0.17401432,0.037936166,-0.18166484,-0.31357142,-0.29426897,-0.008914768,-0.40250736,-0.32060748,-0.57515955,-0.37512782,-0.50999236,-0.22426784,-0.3912452,-0.37501094,-0.11695759,-0.107744746,-0.21008518,-0.21433403,-0.35624808,-0.51199746,-0.4187984,-0.26958466,-0.2246633,-0.24024227,-0.30363196,-0.23558651,-0.035885546,0.20123182,0.13269813,0.01058575,-0.3813734,-0.40087098,-0.22472654,-0.27692828,-0.20385237,-0.24591038,-0.106386915,-0.012611417,0.31683752,0.29311895,0.119369574,-0.10861198,0.035319336,-0.26221624,-0.036761187,-0.10829208,-0.15958361,-0.06395284,-0.045607213,0.12017648,0.25531325,0.1794534,-0.001544762,-0.050766498,-0.07172672,-0.026342375,0.17806849,-0.1253735,0.006226073,0.042965386,0.16040118,-0.02349071,-0.08212308,-0.28087467,-0.46600646,-0.36890078,-0.12614462,-0.052847005,-0.2971671,-0.10084459,0.06934265,-0.067419305,-0.28410855,-0.34038922,-0.3207265,-0.57724136,-0.2124076,-0.02976166,0.16626649,-0.22660874,-0.19565287,-0.14527498,-0.16863103,-0.34240165,-0.5857282,-0.33095723,-0.58365035,-0.32506508,-0.6911428,-0.5408238,-0.78533834,-0.051521316,-0.037477553,-0.39762574,-0.51592845,-0.49364328,-0.005300463,-0.18468885,-0.19032261,-0.23599094,-0.6793757,0.09846105,-0.025751848,-0.015144281,-0.7428647,-0.23611417,-0.40012592,-0.22297576,-0.25443527,-0.4560481,-0.4663284,-0.3186553,-0.21450551,0.011522419,-0.55874175,-0.46243346,-0.41613677,-0.24649736,-0.2547886,-0.25355887,-0.41082746,-0.004864299,-0.30599457,-0.7343761,-0.37582207,-0.043068912,-0.13219433,-0.24202122,-0.19368473,-0.20315196,-0.08917958,-0.34393463,-0.13202763,-0.060836073,-0.2979447,0.017862413,-0.10029753,-0.20044218,-0.2670153,-0.058846984,-0.20009793,-0.21327394,-0.1969645,-0.26398858,-0.21962938,-0.19244662,-0.17765117,-0.18227062,-0.14115228,-0.21930201,-0.05399612,-0.20626938,-0.10684842,-0.21858336,-0.2885948,-0.29715756,-0.13537022,-0.37489054,-0.47893038,-0.21015662,-0.14560558,-0.1314882,-0.040592562,-0.048305444,0.10420486,-0.2618108,-0.4273357,-0.14612642,-0.32732925,-0.46471936,-0.23995368,-0.13746479,-0.16803238,-0.14304946,-0.21873695,-0.21046628,-0.25130466,-0.28351402,-0.21619673,-0.3039402,-0.12519367,-0.12607619,-0.25181645,-0.16477248,-0.20698321,-0.23800232,-0.12105146,-0.2013611,-0.121182084,-0.25830486,-0.014596425,0.018251648,-0.4167226,-0.29419044,-0.24721934,-0.16796216,-0.20874299,-0.11280704,-0.3534221,0.122356616,0.22549829,-1.5152462,-0.60684156,-0.20563897,-0.4153885,-0.34640762,-0.35810256,-0.2709448,-0.11978684,-0.4111719,-0.5285616,0.26126158,0.7506861,0.029235512,-0.5485087,-0.38577944,-0.30448076,-0.32148013,-0.0034768342,-0.29076785,-0.31958973,-1.086799,-1.6553903,-0.017147126,-0.09941693,2.8832223,0.7782981,-0.3122596,1.1861235,0.6499255,2.0901265,0.7116317,0.7356953,2.860386,-0.057201143,3.0978107,1.3856302,0.4697016,-0.5288219,-0.13969766,-0.37060595,-0.2167416,-0.8031334,0.3902297,-0.1845483,2.7773666,-0.03399274,-0.0036578425,-0.31556314,0.3608578,0.4285123,0.12436159,0.1024169,-0.40696716,-0.40605134,-0.9388306,-0.14806697,0.6864595,-1.8193104,-0.124443695,-0.10299186,-0.11833811,0.076327145,-0.0011332298,-0.1333837,-0.08429804,-0.025693985,0.27990335,-1.4230149,-3.2620957,-3.6134384,-1.1656296,-0.7413446,-0.3034362,-0.8039048,-0.9594284,-0.32184273,-0.16836233,-0.25286078,-4.6605916,-4.9663854,-5.0201654,-1.6120757,-0.77462447,-0.28704202,-0.72551835,-1.4467193,-0.6206238,-0.9464307,-1.1939769,-2.8131893,-5.0385156,-5.0322676,-0.49987942,-1.437395,-1.0117847,-0.8316221,-1.2163483,-0.7707326,-1.95398,-0.9808671,-1.0740535,-2.419257,-2.007722,-0.9797365,-0.9617756,-0.3876102,-0.36077452,-0.62525463,-0.68285596,-0.4595126,1.9080094,-0.2984886,-0.21855198,-0.28034166,-0.30429164,-0.12708566,0.09942964,0.27732334,0.05353946,0.30460054,4.824556,0.2433099,3.725981,-1.1354622,0.29256964,1.3421724,0.97494364,1.9671068,1.8383712,2.449291,1.775238,-2.2194018,2.8545492,-0.12563162,2.9019043,2.4625497,2.957929,1.1983681,1.7961699,-2.9114332,4.087124,2.280895,2.8327353,-0.07815137,4.068509,0.005927635,-0.19588955,-0.29384154,-0.23240973,-0.123126805,0.08803759,0.10334942,1.4002105,2.6844556,1.3877754,0.011011141,-0.4724888,-0.44345438,-0.23025306,-0.41306716,-0.3083044,-0.07749936,0.05570687,0.5484094,2.4479895,0.18272033,-0.058427483,-0.46811718,-0.48690856,-0.20544173,-0.44020304,-0.50009114,-0.19037904,-0.089901686,-0.011522596,0.6113413,-0.08878083,-0.38366047,-0.09094276,-0.44463706,-0.4054467,-0.3568833,0.037393823,-0.008591801,-0.108823374,-0.05738148,-0.15166663,-0.081518166,-0.0010414397,-0.32635137,-0.38323727,-0.3859719,-0.3337074,-0.47526336,-0.030589413,-0.36495015,-0.28888926,-0.0043788957,-0.2769158,-0.3109672,-0.3002273,-0.33832276,-0.17935562,-0.3721408,-0.34530926,-0.006082342,0.0413341,-0.16854435,-0.20949408,-0.28243124,-0.23004867,-0.1100869,-0.25337422,-0.47766846,-0.4365272,-0.14579004,-0.07279456,-0.3504322,-0.07871716,-0.1135436,-0.08368035,-0.23681848,-0.37013394,-0.3132722,-0.3071662,-0.33068684,-0.3695009,-0.29949534,-0.14872165,-0.22987902,-0.16636853,-0.24446517,-0.38329494,-0.353719,-0.24002254,-0.45165744,-0.31135428,-0.3390885,-0.35816556,-0.49946928,-0.3926126,-0.3332444,-0.34817854,-0.33159718,-0.56283224,-0.36200786,-0.21712062,-0.18104002,-0.2566901,-0.2565445,-0.24396984,-0.19676661,-0.22294387,-0.3444807,-0.48451498,0.024148718,-0.545574,-0.1115365,-0.268452,-0.21780226,-0.25567195,-0.2324999,-0.29689172,-0.40668362,-0.049389444,0.012567628,-0.017435858,-0.0083336085,-0.20909278,-0.31549534,-0.5771138,-1.4820628,-1.1042238,0.18234372,3.4784808,-0.5449073,0.051671274,-0.044611756,-0.040473007,-0.5501272,-0.35884127,-0.31615898,-0.60872877,-0.65783966,0.6629073,1.3048408,2.11876,-0.055820078,0.1179211,0.033516623,0.03866572,-0.04720995,-0.04154285,-0.22627972,-0.3916442,-0.3778264,0.6741495,-0.0715914,0.36598077,0.02908089,0.053244337,-0.11080941,-0.012832285,0.0038826151,0.08732681,-0.33888522,-0.22282332,-0.37901062,0.12778081,-0.099854216,0.12243215,-0.11974332,0.012064244,-0.047719166,0.20883669,0.0303846,-0.10075901,-0.13968347,-0.13918157,0.28164607,0.09868923,0.10421944,0.124947116,0.046515245,-0.031339914,0.13748276,0.03578135,-0.26212984,-0.030327886,-0.22783312,0.076008625,0.060742807,0.06779828,0.080927454,-0.037927043,-0.039411083,0.07604571,-0.07805446,-0.0131764775,-0.05301504,0.096201666,0.11743919,0.043553736,0.114597134,0.1603755,-0.17554544,-0.026158135,-0.091574766,0.111575864,0.0057675466,-0.0016283684,-0.004773237,0.0900803,0.2549332,0.14894943,0.13634469,0.04724735,0.14692286,0.13788296,0.1327441,0.079380736,-0.015019359,-0.16919401,0.0049021114,0.032731187,0.22296937,0.4553199,0.2750262,0.14748955,0.28362596,0.2664828,0.12250342,0.07608475,0.04766212,0.20268375,-0.010243113,0.004971263,-0.38303554,-0.090203665,0.10099862,0.030747892,0.082712054,-0.20880947,0.10947882,-0.121823505,-0.3157596,-0.02880283,-0.5334723,-0.5866183,-5.003282,-4.6726527,-5.0590663,-4.161648,-5.4677334,-4.9733324,1.4477066,-0.7818932,-1.164028,-0.99302405,-4.5068007,-4.5804896,-5.1109715,-3.9007735,-6.731077,-5.111823,-3.748571,0.38316113,-6.8150244,-1.6102593,-2.9470277,-3.5909956,-4.7369847,-4.6853237,-3.9160216,-3.9621422,-3.0232923,-5.5201387,-4.150544,-4.2145863,-6.105676,-2.5542204,-4.5614896,-4.3820963,-4.36437,-5.1133857,-3.9764798,-4.373284,-5.94646,-4.390065,-3.9417093,-5.909195,-3.9517095,-2.5438025,-4.7618103,-4.7923512,-3.672852,-5.0113416,-4.329694,-5.5114856,-3.7556636,-3.9358404,-5.8161874,-3.321167,-4.7739935,-3.5577114,-3.67551,-5.251324,-5.5189776,-3.3144107,-4.7455897,-5.129871,-5.4287014,-4.640047,-4.8363147,-2.6066837,-4.1078877,-3.0444605,-4.0230875,-3.2114847,-4.8685417,-2.5324056,-4.9233894,-3.51153,-4.4983263,-1.9348052,-1.2562102,-4.4113116,-4.8845687,-4.694351,-4.975419,-4.8084545,-3.6987972,-2.8559616,-4.415524,-1.7581433,-4.8539,-2.7731586,-3.1451561,-4.3610744,-4.364867,-4.3298283,-3.8503838,-4.348976,-5.0244117,-5.039091,-5.494968,-0.4758703,-3.3817937,-2.4642837,-4.539154,-3.8410292,-4.4808607,-5.167538,-4.362447,-5.192289,-4.8705378,-0.61939883,-0.4987603,-0.9328908,-3.7986834,-4.333399,-5.000182,-3.2313747,-3.3202996,-3.21653,-4.2248883,-0.9624885,-0.4759339,-9.6374655,0.033790097,0.5937491,0.7520174,0.25182918,0.3384374,-0.0018201941,0.51882374,0.42598268,0.612679,0.36588073,0.026238881,-0.7332579,-0.41905734,0.087100424,0.50110906,0.25789848,-0.17054099,0.38852614,0.1980238,1.1014507,0.5472218,-0.061320044,-0.45957336,-0.4248269,0.3489388,0.25494438,0.47724125,0.010716616,0.2922902,0.29576707,0.12027505,0.23491693,-0.13992658,-0.5760485,-0.15647833,0.006264045,0.2667188,0.30130035,0.10048162,0.2963549,0.19870122,0.23035634,0.30414578,-0.36696842,-0.35625452,-0.18724504,0.039818116,-0.056152422,-0.2890389,-0.51817423,-0.049614865,-0.1857069,-0.31402308,0.039031148,-0.02693517,-0.39447245,-0.53847474,-0.12188525,-0.20718783,-0.05606946,0.009191659,0.22413988,-0.029084919,-0.03790815,-0.0020033896,-0.12363799,-0.16254322,-0.4339993,-0.16819777,-0.16993816,-0.05715274,-0.10051043,-0.0846495,0.051598687,0.019996509,-0.1874401,-0.21638435,-0.19108558,-0.44303477,-0.01927678,0.027966436,-0.19335684,0.012083459,0.016933275,0.20195712,0.23974046,0.29297432,-0.0667645,-0.83396727,-0.7183592,-0.5377851,0.038523756,-0.20167954,-0.2661497,0.05773072,0.26214835,0.5416651,0.2719474,0.03324752,-0.67716646,-1.0038533,-0.5648779,0.26047057,0.14675882,0.08316664,-0.13133818,0.40903315,0.2293975,-0.5647814,0.5868724,0.0242563,-0.423776,0.3198752,0.1000018,-0.047765635,0.17199078,-0.044576537,-0.42657313,-0.88177764,0.10596459,0.046098772,0.03425082,0.10768548,0.97591275,1.2405528,0.81465626,0.6521023,0.7962911,0.54920125,0.6804616,0.7278564,0.016452212,-0.051541757,0.51670235,0.87529325,1.1322259,0.8710671,1.0483985,1.4736602,1.3576895,1.1622347,1.5183202,-0.25370565,-0.2191882,0.3351607,0.51903814,1.0800949,0.6735131,0.33053553,0.8314515,0.50023466,1.2098349,1.4114194,0.49122635,-0.5238296,-0.028165618,0.20527726,0.2056994,-0.0047864164,-0.25198445,0.22478063,0.035941422,0.47706297,0.6738968,-0.5147235,-0.4795748,-0.14072959,-0.2770924,-0.123470455,-0.6510232,-0.58361244,-0.5275786,-0.56822973,-0.3556909,0.6356523,-0.9192461,-0.24611278,0.24011396,-0.15376474,0.19171578,0.22074953,0.019660315,0.17237668,-0.05761208,-0.1769257,0.12961295,-0.5798056,0.015647167,-0.011143287,0.010300394,0.14833139,-0.107931696,-0.0006798587,-0.2783299,-0.14505515,-0.33192983,0.3347505,-0.13885255,-0.03995442,-0.047538955,0.18613063,0.23909529,0.10413718,-0.29585913,0.15583526,0.0076112384,0.31792787,0.33316672,0.42805994,0.057851233,-0.38568327,0.1096078,0.27539906,-0.4922153,-0.25034475,-0.4646472,-0.24909231,0.20128195,-0.20118481,0.37102893,0.29518095,0.025032893,-0.18580563,0.12744956,-0.58324283,-0.54841584,-1.171693,-1.6527784,-1.9958705,0.25022107,0.5828964,-0.03488931,-0.34476632,0.2642906,0.15675719,-0.6979332,-1.1712688,-1.9403784,-2.0668042,-0.8092454,-1.204137,0.028884703,-0.7814582,-0.8337103,1.0071888,2.3550572,1.3244085,-0.58166116,0.7432866,-0.7201686,-1.3254038,-0.6917754,-0.8715004,-0.8458969,2.1168358,1.5246247,1.5946026,1.4764159,1.2364993,2.023973,1.2900789,-0.6444356,-6.828599,-0.81151515,-2.8968947,-0.7578072,0.31624916,2.0163064,0.49898282,0.48496267,1.3128575,0.28438205,0.6149118,-0.38478202,-0.6825457,-3.6356225,-3.7248538,-3.29845,-1.5413084,-1.926555,-1.4947743,-1.4361533,-1.2850236,-1.7123069,-1.7946799,-4.91375,-5.5035877,-3.81269,-3.737496,-1.7027669,-2.7014759,-2.5028224,-3.1425982,-1.9985504,-2.1311393,-1.7919214,-4.47705,-0.4432056,-5.044211,-3.0639744,-1.9466658,-2.1682928,-1.7369093,-2.9381423,-2.0593674,-1.8493277,-1.1866428,-3.7690403,-1.0203693,-2.0268016,-2.6443357,-2.6350753,-1.737042,-1.7216928,-1.643846,-0.81778204,-1.6135902,-0.9970413,-2.2513313,-1.9368029,-2.589357,-1.519191,-1.6312069,-2.342715,-0.48779234,-1.953179,-0.5698502,-0.34326336,1.6728646,1.082817,-2.5878398,-2.7858195,-1.9649053,-2.044794,-3.185763,-2.002881,-2.9037902,-1.7421693,-0.037384547,3.6472628,3.7224088,-0.75315636,-4.419536,-3.6222062,-2.7456715,-4.29954,-2.3577714,-2.0750778,-2.8323796,-1.1876259,2.6139417,-0.7263206,-0.77756006,-0.79879487,-1.0375804,0.9811047,0.33385402,-1.9893919,-2.025308,-0.57956856,0.7215573,-0.7198482,-0.7112973,-8.674987,0.051683165,0.0854829,0.23378085,0.21807787,0.35071197,0.25952595,0.28809148,0.33236742,0.2819866,0.09296869,-0.026806654,-1.1362267,0.27536643,0.1940143,0.21652251,0.24795592,0.22736204,0.23422499,0.1954694,0.18586847,0.098367445,0.2177814,-3.9093757,0.2521259,0.18118396,0.20458136,0.23478161,0.14349419,0.112778395,0.05726681,0.22448212,0.13905117,0.15523507,-3.7050345,0.32781267,0.24528134,0.21847202,0.29396942,0.12631004,0.18564561,0.20949699,0.28024557,0.15467642,0.08320213,-3.3161564,0.40598997,0.38661987,0.36228898,0.31213316,0.20730954,0.19001949,0.24520428,0.2358057,0.23416331,0.27202573,-3.4305243,0.37149,0.22943208,0.25412998,0.37364346,-0.02898207,0.23185964,0.35215634,0.28219292,0.25205353,0.27818277,-3.3854198,0.3533942,0.34906346,0.28499854,0.23212582,0.21486633,0.20582469,0.1317665,0.18470721,0.16694617,0.14180565,-2.9199407,0.46257406,0.4194118,0.2299967,0.18735504,0.20560011,0.07776864,0.05709877,0.28776166,0.1038552,0.063322805,-3.26952,0.23268397,0.22857246,0.121443644,0.21440735,0.10876841,0.056406163,0.07528394,0.23510957,0.14016944,0.067482986,-1.1252794,0.29536092,0.26829752,0.17138691,0.19266479,0.16797781,0.09020495,0.12619567,0.12754671,0.100572444,0.13189328,-0.04919916,0.07076016,0.36863324,0.3439558,0.29386005,0.32541102,0.3497261,0.24833167,0.28691602,0.21635357,-0.013813513,0.045533534,-0.63777256,-0.5596972,-0.61261004,-0.46854898,-0.4963191,-0.42584425,-0.5055307,-0.41521505,-0.07746001,0.018126003,-1.6939586,-0.58381367,-0.7041593,-0.6099812,-0.3085676,-0.45654213,-0.5244971,-0.38982344,-0.3235867,-0.48622537,-0.1341412,-1.6949427,-0.37143812,-0.5912442,-0.6128124,-0.56041294,-0.55306613,-0.5758517,-0.3193802,-0.46254325,-0.17477645,-0.32955638,-1.3968533,-0.6427849,-0.6510948,-0.546749,-0.46994823,-0.4915476,-0.55792874,-0.54732376,-0.53443843,-0.3419607,-0.5179928,-1.8029934,-0.9815257,-0.6446512,-0.61087054,-0.5888181,-0.36785606,-0.5462224,-0.4834575,-0.52608526,-0.46586162,-0.5585847,-1.3319292,-0.7306691,-0.5785183,-0.6775057,-0.44772995,-0.00041460985,-0.463728,-0.538911,-0.6137153,-0.33864528,-0.3422368,-1.726109,-0.89950395,-0.56253004,-0.54688865,-0.50351787,-0.09740119,-0.41125318,-0.4360655,-0.47630948,-0.37154233,-0.28191432,-1.4369854,-0.6391468,-0.59240633,-0.58946276,-0.53604865,-0.49313775,-0.41837597,-0.5164949,-0.40664858,-0.334099,-0.6280157,-1.3821957,-0.70739377,-0.6325211,-0.847185,-0.5075119,-0.58809924,-0.4147101,-0.55214816,-0.3563776,-0.26516244,-0.377806,-1.1700293,-0.87871516,-0.59341764,-0.4986344,-0.44535235,-0.60690594,-0.51140165,-0.48831812,-0.51160574,-0.33652347,-0.07438354,-0.0065762484,-0.30596662,-0.5517123,-0.4470863,-0.53180665,-0.47266153,-0.4096278,-0.39549297,-0.3823075,-0.3119045,-0.046446994,2.441966,2.5010388,-1.8138517,-1.6995391,-1.7270484,-1.675713,-5.596373,-2.1711059,-2.0840726,3.259104,1.6017619,4.2690763,3.2609043,-0.8490664,-1.1538557,-1.6549414,-1.3098571,-1.4147639,-1.5524075,-1.691109,-1.2810988,3.3367455,1.8347365,1.7419502,0.5211455,-0.52220434,-0.85203993,-1.0138868,-1.4386574,-1.3991575,-1.4856728,-1.5019262,-1.7877455,3.2555082,1.2917246,0.57491344,-0.22710434,-0.7445071,-0.81179035,-0.9561166,-1.1277276,-1.1602137,-1.5267099,-1.858387,3.753295,1.229111,0.10851937,-0.1315415,-0.6783922,-0.6962747,-0.8403685,-1.1549759,-0.9903213,-1.2373904,-1.6922342,4.057452,1.2300146,0.47118783,0.091911756,-0.37018684,-0.49581894,-0.7518686,-0.6668422,-0.7208096,-1.0650806,-2.9604077,3.7808537,0.7320476,0.5732737,0.09847405,-0.7075661,-0.76888025,-0.8338172,-1.0142854,-1.0445349,-1.3541296,-1.7397635,-0.6206707,0.3248433,0.24534966,-0.30343205,-0.57003707,-0.6018518,-1.1568929,-1.1654708,-1.1491978,-1.5085318,-2.1515691,1.4141767,1.3349298,0.17707318,-0.11814228,-0.9731256,-1.3299786,-1.3403199,-1.312099,-1.4060943,-1.458657,-1.9375813,6.1223664,1.2253025,-1.2637005,-1.0720602,-1.6021225,-1.7038134,-1.5518328,-1.606853,-1.7976788,-1.8920275,3.0128827,2.2285306,2.6082506,-2.3374188,-2.168955,-2.0396223,-1.5853605,-1.8698212,-2.176474,-3.6906462,2.5418427,1.4079945,-8.239801,0.012219712,0.21778448,0.32567328,0.27601817,0.2193252,0.20069054,0.106769055,0.15069292,0.69387543,-0.2466636,0.029295877,0.104712084,0.24650167,0.3187778,0.23833619,0.3985853,0.30881283,0.19179295,0.2847255,0.25396767,0.25206202,0.3178483,0.28367227,0.3082408,0.22600651,0.29240265,0.2686637,0.21341635,0.18764015,0.18538429,0.11366704,0.11638701,0.26523167,0.3382791,0.27067286,0.30265144,0.094714925,0.30803213,0.34279272,0.16379414,0.24152173,0.37939456,0.08358222,0.26036814,0.29192582,0.26830983,0.06468813,0.17051835,0.41488364,0.29407966,0.013684615,-0.07499073,0.31483907,0.018375715,0.20431754,0.20415016,0.31955296,0.27335197,0.2708002,0.2786729,-0.0515524,0.045949027,0.34568757,0.43421617,0.09476577,0.38028818,0.2511668,0.26327625,0.29636827,0.34614363,0.4175311,0.13674797,0.084920295,0.17603466,0.056434225,-0.03524677,0.23174721,0.34622154,0.35110003,0.124983564,0.24332814,0.41895646,0.3048715,0.25346965,0.0017872454,-0.028177917,-0.15081349,0.3749959,0.5059967,0.39891818,0.050512947,0.10305374,0.11872477,0.18189473,0.055433206,0.03136783,-0.2554299,-0.31425822,0.44524932,0.2588311,0.37666062,0.44539577,0.43592325,0.6079483,0.45371526,0.36766925,0.15042643,-0.71127284,-0.48547527,-0.5095416,-0.05136051,0.15887494,0.5933926,0.4210621,0.41932908,0.3213945,0.14735478,-0.21692675,-2.241358,1.6597669,-0.042406864,0.048848197,-0.02148362,-0.009161754,0.089956254,0.07236591,-0.12179677,0.08335557,-0.042174034,-0.18364751,-0.34542972,-0.048831835,-0.030349346,-0.56115943,-0.18891755,-0.12821123,-0.07676096,0.030680524,0.01448379,-0.22022878,-0.40402478,-0.168238,-0.3434532,-0.050137915,-0.09487763,-0.09049126,-0.10699932,-0.060501557,-0.13162893,0.023387898,-0.17814615,-0.08389726,-0.4088335,-0.50325733,0.21853934,-0.20300557,-0.09418664,-0.11493514,-0.17647555,-0.0663527,-0.118091956,-0.1801666,-0.0047331885,-0.0905602,-0.36137906,0.0426641,-0.09898214,-0.13253759,-0.21756245,-0.09925201,0.000782651,-0.058619402,-0.024221024,0.06124226,-0.20821868,-0.31928,0.038989,-0.044959225,-0.04590305,-0.13318768,0.0011787518,0.018743476,0.11386733,0.008464016,0.24165772,0.022266312,-0.060957115,-0.11529042,-0.25299138,-0.11141597,-0.10338849,-0.10359976,-0.07712569,-0.20617181,-0.04853812,0.29213396,0.21089618,-0.08347558,-0.18648322,-0.1037316,-0.20249985,-0.13790503,-0.15803711,0.048650704,-0.0901029,0.093147226,0.46897522,0.14848869,0.060357314,-0.32668656,-0.38301694,-0.1313032,-0.3070491,-0.29983515,-0.048794784,-0.048307467,0.060632844,0.56893504,0.28330764,0.51399505,-0.1705332,-0.22521481,-0.12421613,-0.044033587,0.31244716,0.13253096,0.2201113,0.4285348,0.67762136,0.5560274,0.14376651,0.021179305,0.12457811,-0.048695277,-0.16687603,0.10258163,0.16104268,0.33245096,0.9548639,0.15867625,-1.2985744,0.048723243,-2.8580189,-2.495193,-1.8032964,-2.2945356,-1.565747,-1.8484648,-2.2557473,-2.582657,-6.5643578,-2.6365583,-2.8080904,-2.2821689,-5.4962,-2.6200287,-2.3132217,-1.5801215,-1.977849,-2.2897983,-2.8465588,-2.8112118,-4.7517557,-2.1526444,-1.1798252,-2.6366806,-2.2571516,-2.301537,-2.3229446,-2.0000072,-1.9861342,-3.1242602,-2.7264144,-3.2467265,-3.3452199,-1.5353999,-2.3273885,-2.390704,-2.4841213,-1.4888518,-2.175105,-2.381707,-2.8280277,-2.7187006,-3.073682,-1.8210046,-1.1093979,-1.7536018,-1.7134078,-2.0679073,-1.2958325,-2.0520236,-1.1718631,-2.3393176,-2.411647,-1.1354235,-0.3310819,-1.5056413,-1.3971988,-1.8280834,-1.7414339,-1.8415897,-1.8319093,-0.9974492,-1.1595768,-0.92704856,-0.34732422,-1.208679,-1.3933805,-1.389738,-1.996594,-1.9204822,-1.3562055,-1.3589431,-1.2430279,-1.1131207,-0.015394597,0.6123391,-0.40416202,-1.3597462,-1.6903269,-2.28959,-1.3564415,-1.7324818,-1.9455609,-1.2523762,-0.6050337,0.45840994,0.6861905,-1.3021058,-1.1142279,-1.7720424,-2.053518,-1.3585458,-0.8081836,-0.1059178,0.57592475,-0.023132801,0.8245225,1.5544051,1.4803945,-3.0520046,-2.3632996,-2.4139004,-1.7605369,-0.859986,-0.3094917,0.54656696,1.2347639,1.6483034,-10.221513,-2.4281616,-2.734156,-2.3827598,-1.7048212,0.063580595,-0.24438277,0.46958682,1.7720753,2.5463722,-2.4273188,-2.261442,-2.9147758,-4.973334,-0.037400857,-0.17729412,-0.72676265,-0.36184648,-0.4400822,-0.31298667,-0.3045535,-0.1125121,-0.5033365,0.007097784,0.020663086,-0.42375043,-0.44118115,-0.4511554,-0.18143536,-0.52218634,-0.2931135,-0.32530758,-0.25880188,-0.47825056,-0.44634,-0.28459823,-0.65610933,-0.37756297,-0.21130835,-0.34176034,-0.36612985,-0.17968732,-0.10736188,-0.36926246,-0.22158661,-0.07735536,-0.22746572,-0.5095784,-0.22408976,-0.2793446,-0.13215023,-0.5639058,-0.43311435,-0.30376828,-0.28383324,-0.09517949,0.11223795,0.03484385,-0.46550345,-0.26329193,-0.029881297,-0.14474207,-0.4763164,-0.14829135,0.03836735,-0.293225,0.23305236,0.21859796,0.25310177,-0.43068114,-0.47366238,-0.30403376,-0.0869734,-0.6706899,-0.018324116,0.18998298,0.14657493,0.16688816,0.2854914,0.25807935,-0.36066535,-0.080729604,0.020756675,-0.0865317,-0.23208295,-0.03825516,0.22801863,0.30789918,0.5653863,0.66807747,0.36587548,-0.4179341,0.14984632,0.08868603,0.0622909,0.3592719,0.28094706,0.2790751,0.3898447,0.596868,0.5517148,0.19948903,-0.8432831,-0.54554003,-0.1253387,0.29352328,0.5258958,0.2631572,0.37831,0.5399567,0.4332261,0.40685531,0.30757678,-0.75023466,0.0048512537,0.16303472,0.13732813,0.038039297,0.28881246,0.19628093,0.13245583,0.44786516,0.16148889,-0.32325986,0.036067344,0.008035961,0.34503445,0.02813716,-0.007277983,-0.020903753,-0.15871051,0.022063218,0.3330715,0.057100162,0.037305895,0.018968407,-0.72774374,-1.1452007,-0.71455514,-0.6923882,-0.75887483,-0.5541605,-0.64210707,-0.906773,-0.51195145,-0.0106361145,-0.92801446,-0.5932398,-0.64141643,-0.82999295,-0.8828128,-0.6302722,-0.6365533,-0.77574015,-0.92370594,-0.3122281,-0.9118029,-0.7110461,-0.4858116,-0.50752336,-0.52181584,-0.7738797,-0.6292929,-0.7071948,-1.1202633,-0.72937495,-1.1366134,-1.5881975,-0.7167851,-0.63867444,-0.62525064,-0.6701618,-0.76596713,-0.81084186,-0.67128783,-0.85436267,-0.8996541,-0.654227,-0.82354325,-0.7774327,-0.6889078,-0.80964375,-0.7818277,-0.8145191,-0.8303348,-0.7961336,-1.1294986,-0.9600019,-0.45832714,-0.7964082,-1.1139923,-1.0082334,-0.99396294,-1.1570532,-0.9380565,0.006477345,-0.740332,-1.3748176,-0.94903576,-0.6965903,-0.51281995,-0.8209029,-0.8001794,-0.8874188,-0.82027817,-0.82560855,-0.45500293,-0.8384064,-0.78496027,-0.38138813,-0.10705055,-0.26636836,-0.7167882,-0.58445483,-0.6992787,-0.5422742,-0.4256591,-0.59048855,-0.36816704,-0.4282738,0.263922,0.0824802,-0.033499334,-0.7312249,-0.2903622,-0.40615883,-0.4129678,-0.24740888,-0.11674504,0.050614074,-0.031933285,0.5474729,-0.5106075,-0.056582086,-1.0034249,-0.5598199,-0.19821496,-0.10505778,-0.34377882,-0.21650052,-0.0023920732,-0.20781097,-0.20606609,-0.6284035,-0.99178916,-0.009374834,-0.290545,-0.43461865,-0.41671872,-0.35091677,-0.33137402,-0.3179309,-0.33357677,-0.24856174,-0.20505753,0.05172831,-0.4195067,-0.38690856,-3.1416974,-3.4907885,-1.8113393,-1.5045345,-2.1176677,-2.063233,-2.1878245,-0.3439802,-0.27367908,-0.6638165,-1.875779,-2.8463264,-2.784557,-2.976146,-2.5892265,-2.3265796,-2.4823215,-2.746956,3.9515867,-0.32226142,-0.6544879,-0.62088734,-3.2344534,-2.9696107,-2.4883091,-1.640448,-2.7877886,-3.7059946,-1.6190809,-0.19246979,0.30834866,0.15759976,-0.88372594,-3.6347902,-1.4145133,-2.952021,-2.974327,-2.687062,-1.9234071,-0.12731467,1.2589645,0.7194375,-1.0903339,-1.0437266,-3.199865,-2.676803,-2.555629,-2.489898,-3.0664873,-3.2244518,0.081351936,1.534666,1.7418894,-2.4694045,-1.8217461,-3.3099952,-2.9965544,-3.53909,-2.8910007,-2.7904947,-3.9958518,0.59378415,1.6736004,2.44084,-1.5433543,-0.95647347,-2.4182463,-1.4659914,-1.598267,-2.2159653,-1.9556758,-0.12516713,0.06842779,1.7971091,2.2666166,0.245993,-0.9331182,0.2632476,0.32605976,0.35045534,0.18369399,0.8776319,1.2369745,1.260621,1.9708998,3.2409363,-1.7219191,-1.1800907,-2.7007406,0.52643615,1.0342485,1.5237008,1.4473537,1.4737298,1.3985443,1.3573419,-3.009343,-1.2773678,-2.1481874,-2.473948,-1.8841591,1.3317741,0.7001248,0.5750667,1.244623,-1.1977288,-3.3913434,-0.7400818,-0.67913103,-0.50520027,-3.8011358,-2.692571,-1.3919976,-0.5766132,-2.646469,-1.2319697,-2.163562,-0.41353756,-0.48082954,-7.389701,0.044104725,-0.016692542,0.13694,0.08708015,-0.0823635,0.10428241,0.058593642,0.23736791,0.28949618,0.30740234,0.006880758,0.24373092,0.4150864,-0.108618125,0.21993586,0.0030067847,-0.0057315473,0.020380246,0.28317428,0.15164909,0.07614394,0.26196644,0.39956433,0.13545032,0.36986625,0.31385657,0.07563907,0.20469463,0.33013135,0.308228,0.33807328,0.18890359,0.20521921,0.3362717,0.3381053,0.15152134,0.28303757,0.37023756,0.2462912,0.27850196,0.1495013,0.21969257,0.17360331,0.27298185,0.33907112,0.31169647,0.11955629,0.17027451,0.11369588,0.09237416,0.14021528,0.05536763,0.1269891,0.01180536,0.23443764,0.2112513,0.2736703,0.15418303,0.15634753,0.3605063,-0.010158603,0.2178286,0.061770067,0.11530146,0.10211537,0.048532147,0.15013368,0.1910092,0.15264443,0.12285591,0.2254591,0.061634388,0.06404234,0.004355621,0.13483542,-0.059521142,-0.08174859,-0.0212562,-0.20560884,0.040571325,0.2452383,0.05902551,0.07884541,0.09167151,0.13099594,0.0941585,-0.08537735,0.041049723,-0.48865753,-0.8884017,-0.027565628,0.07893617,0.16977063,0.0025004174,0.094682895,-0.03141619,-0.040226024,0.30274707,0.12399548,-1.4116764,-1.206919,-0.72173566,0.122980885,0.3255658,0.14128904,0.16576399,0.4609621,0.43058962,0.8115649,0.42448455,-0.030378707,-0.87162024,0.11507865,0.110349104,0.2994021,0.1417448,-0.113989264,0.17540568,0.49956998,0.136172,0.03480914,-0.03699611,-0.095611885,-0.11099065,-0.17707095,-0.13624793,-0.3815231,-0.4009434,-0.4153618,-0.49195525,-0.26136652,-0.0033109179,0.1269079,-0.18942755,0.05233258,-0.31663308,-0.29427627,0.11219552,-0.018829342,0.06934458,-0.04458017,-0.011598101,0.87459856,-0.24132471,-0.07283383,0.10360462,0.15821025,0.10107209,0.1545007,0.00085779745,0.121185966,0.18912587,-0.22944885,0.043861657,0.019031182,0.10428939,0.11583879,0.14332135,-0.0826356,0.029290838,0.03329608,-0.019865781,-0.12848906,-0.13891263,-0.2971262,0.23393042,0.06295919,0.10994537,0.02063697,0.09531137,0.0069859317,0.11457203,-0.1045158,-0.019342495,-0.12760176,-0.24659652,-0.07278907,0.13117652,0.21770975,0.028465357,0.034464274,-0.024282375,0.13122457,-0.098075464,-0.04058434,-0.42130378,-0.59871674,0.15132265,0.48246208,0.29021314,0.19153666,0.019811574,0.09523341,0.031096697,0.10452155,-0.11145098,-0.2966894,-0.29369655,0.6901807,0.6578963,0.36762488,0.3190404,0.24938357,0.21543686,0.30271065,0.14036886,0.17332993,-0.5030743,-0.20509714,0.4342754,0.71612865,0.51553565,0.5334928,0.38693056,0.30202556,0.55737346,0.24656953,0.31594768,-0.22230074,-0.62749577,0.112086795,1.3968893,0.862401,0.8494503,0.46206325,0.6481988,0.34885126,0.5072323,0.08904511,-0.8953369,-0.26051384,0.038326222,0.9072497,0.9339541,0.92133754,0.34593773,0.45500422,0.35161495,0.042396065,-0.35956335,-0.8460112,0.042503774,-1.907647,-1.6657333,-1.1698017,-1.7521738,-2.0954792,-2.0367532,-1.8134986,-2.6213632,-2.2877462,-1.7250459,-1.9041015,-1.6385546,-0.3488825,-1.7411976,-2.0166576,-2.64085,-2.2698426,-2.499317,-2.8687987,-3.1986837,-1.1905469,-1.6794509,-0.67921084,-2.779014,-2.4838545,-2.606355,-1.6789268,-2.0420904,-2.4467828,-2.1206086,-1.8013909,-2.324682,-2.174594,-1.6507478,-1.7967505,-1.6774378,-1.931947,-2.3319101,-2.004477,-1.8748043,-1.8832296,-2.054342,-2.5568206,-2.4119682,-0.3618547,-2.6803799,-1.6484777,-1.516569,-1.628711,-2.2644517,-2.320223,-1.8475109,-2.4056273,-2.1403077,-2.3443747,0.2785663,-0.43849295,-0.41867584,-1.3723022,-1.450602,-2.227169,-1.8302599,-1.9614503,-2.0032787,-2.56356,-1.1270676,1.2562925,1.9380069,0.63676023,-0.8226422,-0.7085069,-1.5290619,-1.9726676,-1.6429785,-1.7272382,-2.265897,-1.8934835,2.7440948,3.0944118,1.047664,-0.08274426,-0.71546566,-1.5868272,-1.717318,-1.310736,-1.1488813,-1.8587891,-3.766879,2.842043,0.7157507,2.0250363,1.0481272,-0.5277423,-1.1568216,-1.0209924,-0.67634976,-1.0373889,-2.54301,-1.436982,-1.3584478,-7.267989,1.9281685,2.0339923,0.6831947,-0.58035004,-0.7751821,-0.4151002,-0.8742132,-1.8804728,-1.5819012,-2.2168026,-2.0480967,4.1267724,1.5589585,-0.306612,-0.94005597,-2.1318233,-0.2915948,-0.8235422,-1.570206,-1.7525321,-4.08866,0.0046202606,-0.36045536,-0.7971645,-0.5488226,-0.32308197,-0.55892795,-0.3968035,-0.4800891,-0.6437787,-0.80397576,-0.044710126,-0.37260762,-0.24524148,-0.30583587,-0.11771062,-0.23466712,-0.10415589,-0.4201477,-0.2984637,-0.30154717,-0.6389296,-1.2496222,-0.31518605,-0.240225,-0.22016335,-0.43222046,-0.25495932,-0.19863056,-0.3027696,-0.26355994,0.07310944,1.498169,-2.1661856,-0.1720349,-0.24578692,-0.2589735,-0.3645973,-0.15231012,-0.19098094,-0.093860544,-0.11946282,-0.29757106,0.18036513,1.6029358,-0.22262017,-0.3174433,-0.12800746,-0.36005083,-0.22861703,0.06272575,-0.25194693,-0.2926169,-0.16944851,-0.16859286,-0.00073639123,-0.24519542,-0.13260627,-0.30515763,-0.15340678,-0.34905028,-0.0003530582,0.12128769,-0.105004,-0.14026178,-0.123857,-0.13023372,-0.25116473,-0.2816671,-0.23091859,-0.24439354,-0.2738279,0.016825136,-0.27361834,-0.20694871,-0.17323504,-0.06712362,-0.22447012,-0.28420568,-0.19608013,-0.60244834,-0.12928481,-0.15330593,-0.3090906,-0.26236296,-0.36725637,-0.24562684,-0.25401428,-0.33197272,-0.33972147,-0.2602131,-0.18634215,-0.22995278,-0.24632879,-0.17387432,-0.11700115,-0.29957253,-0.10945482,-0.32530507,-0.29769477,-0.37674513,-0.20729777,-0.45617583,-0.42873597,-0.3421427,-0.261018,-0.24482872,-0.39070103,-0.317293,-0.32994765,-0.5061954,0.012252978,-0.11368088,-0.24298932,-0.44692057,-0.1464877,-0.1399896,-0.30150864,-0.22671756,-0.16356498,-0.312484,-0.03372322,0.020889042,-0.34902477,-0.12988442,-0.15151173,-0.06900358,0.12477569,0.17158754,0.0082,-0.019725725,-0.06488729,0.020965377,-0.008214038,-0.028261086,0.013740379,-0.03792661,0.060954355,0.009266441,0.05278912,0.015747914,-0.75605047,0.7304153,-1.1846056,-0.06591917,0.08413065,-0.027069222,-0.0855899,-0.0016551578,-0.0016080287,-0.08532255,-0.42043543,-0.6695344,0.59035295,1.2496896,-0.012786947,0.10032053,0.09069633,-0.03466474,0.1174596,-0.008839733,-0.08887437,-0.023597334,-0.5948264,0.52074665,0.76742643,0.05591187,-0.035283282,0.0913048,0.10703432,-0.005774001,0.2375911,-0.13931349,-0.00022485034,-0.1512242,-0.15114239,-0.07243924,0.083452486,-0.045785826,0.11431513,0.20147085,-0.07445398,0.0019342441,0.012611389,-0.049838103,-0.12611751,0.17587952,-1.1340755,0.10245622,0.090423025,-0.04926603,0.049413558,0.07499087,0.12977391,0.15947054,0.0046943766,-0.08161831,0.15236805,-0.3524492,0.29798976,0.13129596,0.18219146,0.17741527,0.21666586,0.08360073,0.15131435,0.0074373325,0.12168454,0.26987353,0.12451574,-0.13220692,0.15871531,0.05854134,0.16504708,0.06739189,0.11092704,0.09480044,-0.039270934,-0.0013622417,0.09760644,-0.20219617,0.068653375,-0.027939903,0.28772387,0.006401147,0.059871547,0.1565891,0.2506933,0.13500668,0.008690972,0.30847248,0.059439406,0.02859872,0.116086766,0.080993384,0.040860184,0.069721445,-0.068051524,0.13023344,0.0785309,0.032969967,0.13736309,0.0062984508,0.13859037,-0.09428892,-2.7578552,-2.3813615,-2.669178,-4.281974,-2.391977,-3.4216304,-4.9150434,-0.113751136,0.15445915,-0.11262514,-2.9683805,-2.6609852,-3.4496915,-4.228202,-3.2812839,-4.27172,-3.4641056,-3.0348828,-3.11654,-0.24108183,-2.7742174,-2.7265255,-3.762761,-2.4545183,-4.5784645,-3.2813294,-3.8950682,-2.949055,-4.4816914,-0.43153852,0.36990544,-4.4532065,-3.5703952,-3.4640298,-3.0166526,-4.102579,-4.2728686,-3.7958903,-3.1997423,-4.913768,-1.7114117,-0.027517034,-2.9386148,-4.177231,-4.7700214,-2.5591474,-3.0297143,-2.7206783,-3.2946901,-3.0137708,-3.0977395,-2.6976485,-2.74759,-3.405216,-2.4283543,-4.304516,-2.617384,-3.3361506,-3.635802,-5.187098,-3.5541053,-4.905058,-4.9264927,-3.6522644,-3.1022406,-3.9728336,-4.0890365,-2.277406,-4.4608846,-3.2977383,-2.2387655,-2.234499,-4.8203535,-3.5362766,-3.3552425,-3.8262458,-2.982409,-4.015043,-2.988671,-3.5364327,-1.9544685,-4.13107,-2.4689412,-2.8682177,-4.1417947,-2.903876,-3.6286998,-4.1822233,-4.018121,-4.53952,-2.9080882,-4.7424297,-2.8281054,-2.7207773,-3.7329996,-3.9307323,-3.7310138,-0.27949402,-3.5846317,-4.222793,-2.6481078,-4.538552,-3.5047617,-3.4775324,-4.098827,-2.8923125,-3.7031481,-0.12648705,0.17510991,-0.106731124,-4.878096,-3.228057,-3.4571397,-3.1669123,-2.8500378,-4.6254406,-4.3533216,0.005066929,0.18073866,2.9235342,-0.050581563,-0.13771059,0.0806149,-0.08208711,-0.054354206,0.04315809,0.0019459267,0.16004266,0.1544778,0.15775971,-0.005134674,-0.49394295,-0.008793109,-0.12837675,-0.37274656,-0.30830085,-0.04826164,0.15546091,0.14594916,-0.07697462,-0.13481691,0.14948575,-0.39424363,-0.2681937,-0.165878,-0.29524207,-0.3753955,0.10661129,0.5714247,0.83329713,-0.09279607,-0.49194896,-0.0968169,-0.28747782,0.13105696,-0.14200965,-0.168766,-0.11149655,0.26934275,1.4998815,1.6253684,0.94828904,0.24451125,0.09866115,-0.34219614,0.1010461,-0.011644946,-0.12044277,0.23789246,0.66420716,1.0119141,1.6461544,0.9603026,0.42514217,0.065917164,-0.054919314,-0.074948944,-0.0055205515,-0.037074555,0.09401601,0.00088653504,0.6361191,0.89403856,0.50641185,0.15412368,-0.04203563,-0.07495439,-0.047280908,-0.24911919,-0.08332349,0.0737004,0.16909607,0.6230782,0.5286024,0.24307366,-0.048064314,0.09265659,0.044702288,-0.234093,-0.2483033,-0.1790907,-0.103423394,0.04048135,0.4259556,0.32183614,0.11606905,0.22421053,-0.023807727,-0.12214511,0.087876886,0.06986671,-0.06684784,-0.3222309,0.12967892,0.25407982,0.32178003,0.30993316,0.28164926,-0.11651612,-0.004903942,0.010711628,0.023298468,-0.24322368,-0.31121156,0.020821055,0.29733798,0.17312184,-0.016473396,0.077389605,-0.18600689,0.0045737424,-0.23105472,-0.17499632,-0.22241676,-0.34441978,-0.25075236,0.052165497,0.009694947,-0.039809313,0.15385802,-0.0078090373,-0.01484692,0.041691482,-0.41292098,-0.17716603,0.017473787,-0.013114977,-0.4250085,-1.0827272,-0.60352206,-0.24956107,-0.0071023647,0.078065634,0.1328162,-0.058332793,-0.037854765,0.1055904,-0.21511477,-0.53073496,-0.75448996,-0.3110658,0.6818157,-0.06459491,0.088271976,0.3792154,-0.052473985,-0.1338051,-0.19543242,-0.39730164,-0.6092681,-1.1628888,-0.9713042,-0.55390096,-0.9263377,-0.32421806,-0.22139989,-0.2826402,-0.5311388,-0.46799007,-0.8041993,-0.7700576,-1.359568,-1.0488449,-0.9536577,-0.96053755,-0.46242446,-0.23289831,-0.2775729,-0.30583864,-0.26828188,-0.1742872,-0.83482313,-0.939018,-0.6572619,-0.31533924,-0.6884652,-0.4568412,-0.12864989,-0.28352064,-0.031247873,-0.17492743,-0.038104992,-0.39751643,-0.74975526,-0.63979053,0.050771635,-0.24520412,-0.08878224,0.114122525,-0.12509932,0.042117044,-0.080225214,-0.20398103,-0.4058026,-0.7351853,-0.46834823,0.046762772,-0.08149702,-0.3875571,-0.28168684,-0.3510104,-0.14431342,-0.0520512,-0.20780212,-0.44530272,-0.7317492,-0.24698633,0.018224316,-0.055462576,-0.1057518,-0.1256492,-0.009530796,0.16977055,0.07898698,0.24882737,-0.13980111,-0.2758084,-0.24261022,0.3527607,0.060540617,-0.17393681,-0.057177924,0.2006623,-0.12232495,-0.11772762,-0.17491375,-0.43127373,-0.32682383,-0.4035116,0.13523886,0.10012792,0.030249886,-0.4730698,-0.48657614,0.088519186,-0.31601632,-0.2002599,-0.16520528,-0.62295794,0.11920687,-0.037805192,-0.016604964,1.2662754,-1.350358,0.18792935,0.55787563,0.68013054,0.542079,-0.530541,-1.2848953,-0.92918324,-1.5876125,1.3217776,-1.7157173,0.08738127,0.8581637,0.50103337,0.49390057,-0.019758303,-1.1808136,-1.9224259,-0.8088642,-1.2034636,-1.2453303,-0.91912645,0.7894476,0.5017861,0.21514718,-0.13030171,-0.24247839,-3.4106252,-3.583602,-2.0759058,-1.5485011,-0.5790865,0.8713572,0.6263568,0.29249796,0.02255016,-0.008400928,-0.4944761,-0.73311496,-4.1819816,-3.559511,-1.7951834,-2.0700822,0.80443585,-0.21571904,0.12196924,0.21241471,0.03655826,-0.7346841,-0.937893,-1.7706158,-2.6414616,-2.5781784,-2.6356113,-0.2397883,0.16599828,0.14883453,-0.41359597,-0.06368708,-0.22143398,-0.61801326,-1.0155823,-0.7021907,-0.5582937,-0.83031094,0.624968,-0.36044866,0.26472163,0.07940798,0.31353122,-0.060666334,-0.6606485,-1.3817855,-0.74557245,-0.40274078,-0.17905699,-0.7699688,-1.0459707,0.5173237,0.16148783,-0.15009093,-0.16024804,-0.8891054,-0.8791839,-0.5264944,-0.16526501,-0.09528525,-0.36940894,-0.69740874,0.39435846,-0.063693896,0.19134799,-0.0411665,-0.86506736,-0.64420897,-0.1641006,-0.98263776,-1.0245298,-2.000282,-5.7981725,-0.6533808,-0.54673266,0.009664626,0.089755856,-0.15546058,-0.7902489,-0.51044136,-0.22045553,-1.4052813,1.2424787,-1.5147892,-0.27993214,-1.3908622,0.5002745,0.52937263,-1.7775183,-0.7602091,0.10505639,-1.4204369,1.2460331,3.6726594,-0.0150158545,-0.24778615,-0.4196177,-0.64189667,-0.4429809,-0.3621009,-0.4281562,-0.43349275,-0.24291973,-0.4922701,0.02606148,-0.7094245,-0.68489766,-0.58890396,-0.76098955,-0.50182694,-0.4650901,-0.49405426,-0.3432021,-0.50010395,-0.6680861,-0.23325522,-1.033667,-0.33297265,-0.2334524,-0.27924615,-0.6273027,-0.70380163,-0.24580748,-0.45520017,-0.23742236,-0.5244749,-0.44007096,-0.81215465,-0.38022894,-0.33172184,-0.3889914,-0.47017077,-0.25802007,-0.23938775,-0.2108986,-0.4993687,-0.30940643,-0.35544235,-0.5256148,-0.35966748,-0.50777924,-0.38297418,-0.2534084,-0.24840342,-0.40766257,-0.31577122,-0.3304318,-0.64544666,-0.29766986,-0.7514286,-0.3510163,-0.5242232,-0.44143352,-0.54355955,0.028255815,-0.11953085,-0.6269397,-0.36538827,-0.5752979,-0.41028482,-0.5913425,-0.33031893,-0.5536416,-0.36674595,-0.27666554,-0.21668617,-0.22027175,-0.16204396,-0.4989207,-0.43684286,-0.35154364,-0.8652147,-0.025696058,0.3650202,0.12685877,0.38335004,0.026429374,0.037980326,-0.14068577,-0.53697866,-0.43749288,-0.21837305,-1.2393522,0.09995547,0.44415954,0.27395415,0.2877069,0.15618443,0.20434432,0.118291974,-0.16621006,-0.4872997,-0.12587836,-0.6025418,-0.16460726,0.46285868,-0.13324928,0.14551017,0.10113507,0.20706959,0.26669353,-0.33602026,-0.27366793,0.014494487,0.043013167,-0.18183982,0.3597918,-0.07998897,0.22413237,0.33794576,0.69030476,0.1977311,0.2351864,-0.49850142,0.04184887,-0.026963979,-0.3781163,-0.54189426,-0.6031691,-0.7554459,-0.7400576,-0.15970607,-0.40083036,-0.535437,0.3754961,-0.042853743,-0.36162618,-0.05941153,-0.47242776,-0.57083434,-0.7113742,-0.2467915,-0.4083959,-0.59313285,-0.09741177,-0.1732315,-0.58904034,-0.14451702,-0.0133914035,-0.07607118,-0.5555881,-0.45893124,-0.11865856,-0.17152819,-0.16871253,-0.18825628,-0.24411325,-0.08723706,-0.4041413,-0.4073206,-0.5037828,-0.30961388,-0.46550572,-0.54361945,-0.23061714,-0.28906995,-0.013986066,-0.2746626,-0.080189675,-0.39794365,-0.41848361,-0.27140644,-0.37424266,-0.35389268,-0.25592166,-0.21901505,-0.17968227,-0.33404812,-0.10969548,-0.115172625,-0.5390674,-0.36931732,-0.49051234,-0.3346723,-0.30215558,-0.01212287,-0.25086075,-0.32703155,-0.4298621,-0.3514262,-0.253892,-0.53835154,-0.80265963,-0.7584703,-0.57844,-0.56809723,-0.39656484,-0.4092621,-0.42058325,-0.5261471,-0.36344117,-0.42623615,-0.5455976,-0.38606045,-0.33505073,-0.20018275,-0.51480854,-0.4173732,-0.068837546,-0.1669041,-0.41466835,-0.32881722,0.16644008,-0.36930162,-0.28704706,0.09871642,0.022902103,-0.06313915,-0.13336866,0.28120106,0.4184484,-0.58062685,-0.06924331,0.1543628,-0.73761505,0.70174915,0.7969117,0.6212163,0.43567413,0.3993012,0.8372158,0.79769015,-0.46502587,0.036136683,0.063747786,0.014013689,0.13246286,0.7824886,0.60937566,0.47494167,0.69355345,0.8367193,0.6956973,0.21718259,0.26834795,0.012861871,0.11536236,-0.106576964,-3.7519977,-3.8309758,-3.4235587,-0.8516161,-1.3542589,0.0196559,0.4281824,-0.11934971,0.04827959,-0.40371528,-0.31425667,1.0265803,-2.1538408,-0.27248517,-2.3940961,0.496181,0.050459284,-0.08537727,2.7624416,-0.17948228,-3.4566872,-0.21524978,-3.4518006,-0.9022284,-0.22755535,-3.8154824,-0.5895403,-0.923121,-1.3974212,-1.1657448,-2.2186975,-0.18722296,0.06776722,-3.231829,-2.4029615,-3.4061844,-2.2307737,-3.031835,-1.8162543,-2.5571604,-3.4013107,-1.6646913,-3.275369,-1.4614669,-3.6857603,-1.1647677,-3.7204297,-2.687533,-3.6342323,-2.74623,-0.30685169,-1.3297452,-4.0899835,-1.0790806,-1.1255864,-3.9365268,-3.70002,-2.1009097,-2.1914494,-1.1204954,-1.5204247,-2.6477456,-3.24522,-2.7564464,-3.0976858,-3.402185,-3.3521924,-1.8120869,-4.0302644,-4.1467943,-3.1288042,-2.2833347,-3.6888285,-3.6011384,-3.638382,-1.4487885,-2.5262284,-1.2613666,-0.22441694,-0.2947277,-0.6075323,-0.08612722,0.525757,-2.5230694,-0.5698278,-2.2984874,-4.158654,-4.5928392,-0.41954628,0.121340334,0.7598355,0.9804601,1.4732876,0.67364424,-2.6584723,-0.37153366,-0.9733801,-0.21033086,-1.0146639,0.10012906,0.9795128,1.1109331,1.3573312,1.707146,1.3750511,-1.6402192,0.8230986,-0.1836928,0.16382213,-0.27604863,0.8827619,0.549105,1.403781,1.7311354,2.172764,2.1300426,-0.7921485,-0.1704012,0.105203144,3.9222665,-0.010409815,-0.16578153,-0.039196696,0.2332033,-0.22003803,-0.1877192,-0.15939447,-0.48926008,-0.49253148,-0.6339909,0.021785136,-0.5401892,-0.27839002,-0.14486341,-0.35756108,-0.1918621,-0.16098052,-0.3944199,-0.391276,-0.5018954,-0.8720124,-0.52992547,0.50366145,-0.049626943,-0.02281661,-0.11639594,0.085310414,-0.19888702,-0.39914206,-0.3796848,-0.5062513,-0.71965635,-0.6565922,0.30110282,-0.03966632,-0.015459332,0.110701054,-0.11508541,-0.26359457,-0.2859765,-0.29452714,-0.44799477,-0.6351511,-0.55565816,0.012380665,-0.2115108,-0.00876277,-0.0652556,-0.32814747,-0.36143684,-0.5042496,-0.36650315,-0.54091996,-0.89790684,-0.41271293,0.21234965,0.13137348,0.19269012,0.35530356,-0.08356398,-0.014167796,0.037851695,-0.2484116,-0.3766799,-0.6296911,-0.41442186,0.4614983,0.3352022,0.10947196,0.3350644,0.12093974,0.0371333,-0.08275707,-0.27217755,-0.32363093,-0.3388401,-0.36879605,0.5075651,0.43944827,0.471013,0.20515616,0.33455744,-0.021007808,-0.16923682,-0.26658335,-0.35122302,-0.64856184,-0.31761113,0.9078243,0.123676196,0.2744761,0.67533165,0.42320386,0.20729081,-0.21087371,-0.23361199,-0.39071807,-0.72675526,-0.36027095,-0.12851645,-0.022816269,0.4601769,0.5094584,0.34739506,0.015771488,-0.13734546,-0.6096274,-0.51004946,-0.71383613,-0.33497697,-0.04868166,-0.16502517,0.55347973,0.43702847,0.27395067,0.16854386,-0.15088645,-0.3105113,-0.3381398,-0.58801514,0.05202111,-0.03317642,-1.0480695,-1.0477378,-1.0369745,-0.63853216,-0.53373456,-0.42302635,-0.31152678,-0.3435765,-0.49985218,0.029700145,-0.6715853,-1.3872049,-0.6572782,-0.5927241,-0.550697,-0.5342197,-0.51750344,0.0044708066,-0.20980605,0.15445772,-0.030701606,-0.8060435,-0.41058147,-0.5923985,-0.38767704,-0.4015656,-0.3655763,-0.40514424,-0.35804844,-0.07517448,-0.15738276,0.13039307,-0.36882627,-0.4708626,-0.4311423,-0.4384532,-0.5346906,-0.30466068,-0.3340638,-0.09192895,-0.52028686,-0.377131,-0.45008942,-0.61007154,-0.64821047,-0.72715265,-0.7249718,-0.67138344,-0.48797345,-0.5375794,-0.4553785,-0.6561654,-0.43069258,-0.37739873,-0.3901202,-0.4067235,-0.33821627,-0.28101784,-0.34639356,-0.006647916,-0.37424994,-0.38817692,-0.45565182,-0.4637995,-0.57125884,-0.09235044,-0.18677318,-0.20074797,-0.40807012,-0.34077916,-0.13795534,-0.29281163,-0.28242737,-0.3241532,-0.53715676,-0.41641918,-0.064904526,-0.17730352,-0.13183635,-0.030109473,-0.15661371,-0.14716618,-0.4984813,-0.26758736,-0.51103693,-0.5445895,-0.45573163,-0.4460789,-0.9268942,0.006844818,-0.13478659,-0.2705768,-0.3706302,-0.37352002,-0.50966394,-0.41047308,-0.4104453,-0.4746767,0.07105076,-0.8325916,-0.06615303,0.39515993,-0.04220913,0.08561815,-0.3814605,-0.3867879,-0.533755,-0.10538186,-0.34166574,0.014723667,-0.1332435,-0.19544959,-0.19124587,-0.07995588,-0.38550416,-0.27191544,-0.2226124,-0.24760348,-0.7989805,0.03444758,0.34807274,-0.63356876,2.2671494,-4.2625313,-3.6086247,-2.6149907,-3.0019293,-2.95645,-1.6678615,-0.732343,0.30392802,-1.161222,3.141383,-4.662355,-2.5538528,-3.5787559,-4.914887,-3.911826,-2.4219167,-0.77181077,-3.6231256,-0.54446864,1.8746356,0.8217111,0.38380593,-0.39981192,-0.9308206,-1.8699797,-1.7785078,-2.3208237,-1.2690516,-0.48671347,-0.6340011,-0.29190546,0.02364408,-0.9353033,-1.6263368,-1.6768384,-1.9173366,-2.8484623,-1.3760816,-1.102405,-0.9468907,-1.017447,-0.71738094,-0.59493536,-1.7727927,-1.5186543,-1.9022847,-1.7505378,-1.8320932,-2.3473356,-0.754959,-1.1218371,-2.8821225,-0.19756968,0.0071393447,-0.9180943,-1.6552985,-1.7603042,-1.3943906,-1.7376578,-2.3274584,-1.31214,-1.1603216,-2.228417,0.27369887,-0.28111112,-0.43282405,-0.8428037,-1.655136,-1.5948517,-1.7308995,-1.5478288,-0.92495877,-0.7968923,-1.4513999,0.75967216,-0.4909297,-0.8016011,-0.7026949,-0.88916177,-1.1059008,-0.92559636,-1.7866158,-0.32660204,-0.82356894,-1.1446874,-0.19121334,-1.4998032,-0.94820064,-1.0340627,-0.6620823,-1.0089384,-1.6769831,-1.8444062,-1.14155,-1.5826223,-2.5243397,-0.9844973,0.89484817,0.077005595,-0.3107898,-0.25381467,-0.509858,-2.3957045,-4.20201,-1.0253934,-1.250816,-0.7511469,0.39711702,-1.1864139,1.3260993,1.2189646,0.039691944,0.2952435,-4.4528503,-4.1767926,-1.3886744,-0.68010664,0.25135067,3.719562,-0.0028570127,0.043550204,-0.15733813,-0.14700796,-0.03331376,-0.09623494,-0.13390847,0.22417033,0.29073018,0.40939912,0.03773379,0.42978585,0.21419933,0.22282262,0.01668485,-0.06469037,-0.2114976,0.04848473,0.24387597,0.23398967,0.33390543,0.16238768,0.62228775,0.3270317,-0.059814848,-0.060260147,-0.23294027,-0.36837235,-0.07527016,0.16329344,-0.0017982123,0.35038245,0.66369504,0.46086758,0.18455833,-0.005449766,0.21358444,-0.06871513,0.04493292,0.24811201,0.051402405,0.09196519,0.42291024,0.27005506,0.06436195,0.26202673,0.033734884,0.118460044,0.020011188,0.16753314,0.1630529,0.3962814,0.3419457,0.17180665,0.07463264,-0.02891674,0.054572016,0.10923419,0.14855757,-0.032669023,0.014716388,-0.0823986,0.055751853,0.020142933,0.37084997,0.058478538,-0.3839677,-0.23428696,-0.027358873,-0.095808975,0.10420909,0.011228647,-0.008159854,-0.022201236,0.022116307,0.18098927,0.0065099183,-0.23671542,-0.17099379,-0.45459002,-0.19136421,-0.24674118,-0.12342499,0.037147965,-0.062154725,-0.08533307,-0.08214796,-0.08372138,-0.111619234,-0.0054385834,-0.28758854,-0.059004176,0.029606236,-0.0149313165,0.032945205,0.23893292,-0.07291632,0.0034581842,0.14867446,-0.80019224,-0.39590457,-0.095048666,-0.15342249,0.087350115,-0.07341782,0.3131063,-0.008573933,0.37553674,0.22231631,0.062019814,0.04276943,-0.27936634,-0.18511082,0.14830661,0.2758858,0.19091143,0.16121206,0.18338443,-0.25237232,0.13998827,0.021587655,-0.0019890475,-1.003594,-9.269037,-0.6275236,-0.6381093,-0.56370425,0.043794915,0.14782533,-0.34296483,-0.40444693,-0.026584435,0.20102607,-0.42087555,-0.57363105,-0.3269327,-0.53975105,-0.4982361,-0.26155394,-0.032250013,-0.21159224,-0.87146044,-0.026795918,0.47812462,0.40267277,-0.09585195,-0.016708286,-0.40099704,-0.439307,-0.19550319,-0.20855914,0.18527293,0.6833434,0.5653843,0.48308954,0.40169263,0.0762284,0.18712638,0.06029613,-0.16232885,0.07284724,0.24524388,0.27631062,0.41171142,0.7476352,0.029493276,0.23695284,-0.06675054,0.2294416,-0.08922243,0.067769125,0.08050468,0.12122486,0.0026464625,0.26312596,0.18549761,-0.06442689,0.16785802,-0.11652367,0.0612723,-0.23639506,0.03694798,0.07753271,-0.20193815,-0.121023364,-0.026581934,-0.15663186,-0.38631392,-0.12107765,-0.33537862,-0.07988194,-0.3049357,-0.04842845,-0.24318936,-0.2552613,-0.24206619,0.018094273,-0.5154043,-0.3620295,-0.44647723,-0.4660834,-0.48936886,-0.6105842,-0.58985084,-0.4544639,-0.706185,-0.54653084,-0.15510978,-1.6480646,-0.013613103,-0.4101668,-0.34206474,-0.02918415,-0.2232653,-0.32966787,-0.013396059,-0.27628967,-0.13621671,0.24521399,-1.0088304,-0.2660558,-0.6832457,-0.24048065,-0.21381205,0.08943294,0.105036326,-0.16662413,0.22030914,0.782052,3.5197043,0.028321851,-0.015052857,-0.26919037,-0.37295967,-0.307226,-0.37974352,-0.54552895,-0.4132554,-0.44140977,-0.2065148,-0.24485996,0.013529467,-1.0685536,-0.91334873,0.10522189,-2.982794,-2.320949,-1.8149971,0.51308155,0.23926024,0.19541422,-1.1753713,-1.1088952,-1.1076946,6.6786757,-1.0349422,-2.0316093,-2.1165354,-1.9405398,-1.8902373,-0.009646989,-1.3112637,-4.3424854,-1.2069733,1.0490731,6.952271,0.5604259,-0.7948099,-1.4848089,-1.3603882,-0.6826077,-0.23230577,-0.3257267,0.3401757,0.43894556,0.5727755,2.6743772,-0.113603055,-0.18305038,-1.1580906,-1.046741,-0.59714454,-0.2783545,-0.11985092,1.0535913,1.5575035,0.11904687,0.78829443,-0.6272444,-1.0253595,-1.3231621,-1.2637229,-0.9552077,-0.54197127,-0.35547274,0.7104253,0.011200282,-0.44631803,-0.4087108,-1.1779901,-1.9155682,-2.564576,-2.1307597,-1.1887542,-1.0986876,-1.6666695,-2.9905894,-0.47801408,-0.05767855,-0.79284513,-1.9848833,-2.8431838,-1.8663322,-2.0469189,-1.7013055,-1.9903002,-2.117039,-3.6972091,-2.133399,0.66890836,-0.962689,-1.574751,-2.4495296,-2.1668591,-2.768141,-2.8409588,-1.9193276,-3.5269086,-2.214229,-6.1583185,0.5248144,-1.6806635,-1.3165835,-2.194225,-1.9360933,-1.673261,-1.8595234,-2.6974404,-3.4909294,-1.5991055,-7.6175184,-1.3330144,-3.032713,-2.70338,-2.8782322,-1.4913721,-2.3117485,-2.4594607,0.17801015,1.4298042,3.017787,-1.0348911,-1.0450661,-1.2161098,-1.8730583,-1.3794312,-0.8709061,-1.2826701,-0.89483476,-7.9749894,-7.30041,-1.0813816,-1.0859382,-10.287603,0.042909794,-0.77391857,0.22064902,0.296917,-0.022661267,-0.30223972,-0.6360309,-0.2328739,-0.17964906,0.23376486,-0.049602628,-0.42639783,-0.43681923,-0.28439763,0.15534705,-0.14622551,-0.46527094,-0.6854766,-0.09477505,-0.32745975,-0.33292547,-0.4030669,-0.653764,-0.1717865,0.020835685,0.49003425,-0.06399529,-0.23768905,-0.35454443,-0.24955572,-0.39422807,-0.18601309,0.13584991,-0.0436146,-0.34000802,-0.23640229,0.021923333,-0.07779409,-0.48724318,-0.44451568,-0.24131241,-0.5861294,-0.5405763,-0.15986931,0.046449598,-0.16343123,0.22298115,0.20487806,0.0843155,-0.087208755,-0.34748706,-0.28549293,-0.47158805,-0.19933543,-0.25651965,0.12180571,-0.2687697,0.06142014,-0.10333672,-0.18959667,0.018068219,-0.47796008,-0.07933431,-0.6805725,-0.30681014,-0.19186972,0.17524856,-0.32946005,0.2143889,0.29216316,0.12534404,-0.24789408,-0.7095461,-0.37194112,-0.7057585,-0.73675436,-0.5200917,-0.04985224,-0.7375738,-0.48502916,-0.3952668,-0.83041126,-0.9260125,-1.2567631,-0.935064,-1.1039447,-0.96620303,-0.5810873,0.32158527,-0.16848205,-0.083078675,-0.06183349,-0.3872694,-0.4671039,-1.2063249,-0.55123234,-0.96452826,-0.90362906,-0.6864416,-0.013178416,-0.22435834,-0.20353079,0.077337876,-0.26150453,-0.41410387,-0.99845004,0.077185236,-0.54230285,-0.44969422,-0.40378934,-0.03956815,-0.44797426,0.31039125,-0.122766,-0.4167787,-0.26501706,-0.78869736,-0.3554872,0.53242946,0.23735401,-0.019761087,-0.037463363,0.19036584,-0.02035974,0.027617179,0.17757602,0.16951832,0.1396935,0.8656319,0.80243725,0.40412658,0.048912052,-1.5428319,0.6208207,0.09279921,-0.12227332,-0.007954143,0.0546407,0.30894005,0.65973103,0.56401694,-0.076924026,0.97973883,-0.051959142,0.09350855,0.046038687,-0.24903056,-0.14210425,0.2598274,0.22371054,0.049640015,-0.07302154,0.022445094,0.2771946,0.276516,-0.15269047,-0.13267134,-0.016920816,