-0.05756256,-0.07927466,0.04204314,-0.058593236,-0.055353075,-0.2067145,1.3898153,-0.07344297,0.070481874,0.04553366,-0.07620416,0.045518436,0.11873452,0.3911612,0.0527937,-0.23730746,0.10519021,0.27296388,0.08076367,-0.43928432,-0.04999954,-0.1802747,-0.14901668,0.06788466,0.071470186,-0.07574903,-2.3522983,-0.07054378,0.105693966,0.06938248,-0.05119287,-0.4305848,0.083578356,0.07468328,0.21828571,0.0757023,-0.05879067,0.062478498,-0.44958606,-0.20469974,0.08291019,-0.1612549,0.13951644,-0.048852127,0.08629846,-0.08249411,1.0461686,-0.03952212,0.10827095,-0.16011663,0.05865952,-0.21296024,-0.06079375,0.24454452,-0.045287915,0.16512308,0.2577322,-0.03746959,-0.27302864,-0.21448971,0.09377785,0.06656569,0.043014128,0.26913023,-0.09335418,0.15805742,0.7044597,0.08903809,-0.3313763,-0.044179242,0.084084,-0.31628847,0.8673653,-0.05361758,0.06695561,-0.23547517,-0.05364943,-0.07239654,0.094393276,0.1275898,-0.58922374,-2.1939433,0.08067661,-0.06257437,0.071996994,-0.06091787,0.5875864,0.067268044,-0.22097433,0.5977218,0.061552044,-0.15536666,-0.046771437,0.19157438,-0.06573162,0.049209986,0.08706815,0.049595356,0.036623187,0.10240607,0.04968469,-0.07031804,-0.25541532,-0.11391764,-0.070900634,-0.17660068,0.17011264,0.23796915,0.85244375,-0.052921485,-0.0761439,0.062420942,-0.06996982,-0.06293755,0.07237512,0.08200975,0.06703314,0.054149665,-0.4038445,0.063034415,0.09595323,0.06914741,0.07949988,-0.301214,-0.03737705,0.5459428,-0.11803968,0.085060604,-0.052421935,0.10963945,-0.10443386,0.06629218,0.88126683,0.12651259,-0.043820206,0.07647161,-0.07394464,-0.12238449,-0.06807641,-0.04333015,0.17477886,-0.47038862,-0.22867379,-0.14986917,-0.07166613,-0.05757547,0.15427098,-0.12178359,0.06699974,-0.055915277,0.074774876,0.06853599,-0.25103328,0.06252353,-0.12644029,-0.18766618,0.110073276,-0.07109743,-0.078109324,-0.049923137,-0.101952955,-0.16000877,-0.41621846,0.04829942,0.039537568,0.14764933,0.07771984,-0.49260396,0.059525587,0.059165835,0.047160193,-0.14279513,-0.03471385,0.13572916,0.19279183,-0.043410916,-0.09351444,1.2514867,-0.036679354,0.10001699,-0.12670766,0.07948915,-0.04818474,0.15777946,0.06799748,-0.054647014,0.09094428,-0.05411631,-0.075993985,0.11205057,-0.07424191,0.0701652,-0.045214504,0.11876034,-0.04360296,-0.13356665,-0.40464684,0.279697,0.22503713,-0.20326664,-0.039971408,-0.06766651,-0.04896928,0.15130116,0.04889508,1.7386936,0.14874391,0.3782764,0.06996494,0.056589466,0.1398712,-0.06381584,-0.074177034,-0.07187271,-0.23453233,2.7059698,-0.037183873,0.045444753,-0.06114454,-0.057314105,0.08704342,0.40659767,-2.655461,-0.10249821,-0.09034643,-0.05782364,-0.28347874,0.24686168,-0.042600777,-0.10163775,-0.086782314,-0.057778463,-0.1517658,-0.095332436,-0.05123918,0.06472963,0.12971434,0.071664065,-0.23563477,0.116756365,-0.0516179,0.0690019,-0.055227105,-0.052121922,0.0820572,0.048512932,-0.045622483,0.8208498,-0.058158338,-0.041033316,-0.054057587,-0.0567548,0.056032944,-0.04329051,-0.1948812,0.08220992
