-0.0025414878,0.08729878,-0.0903261,-0.10352767,-0.10235408,-0.15201764,-0.019174332,0.12982164,0.10169666,0.32649907,0.01303328,0.28021696,-0.069559164,-0.106272705,-0.12702662,-0.12596135,-0.04185519,-0.11525666,0.0010857129,0.09025376,0.34247363,0.5143462,-0.036784776,0.062576175,-0.09538012,-0.09830624,-0.1052864,-0.059859656,-0.110976085,0.086924784,0.16409522,0.36309972,0.37348562,0.016593369,-0.06857739,-0.07411073,-0.027076583,-0.039790004,-0.02200838,0.04100413,0.15480316,0.1478405,0.052888528,0.28289908,-0.025389364,-0.108944744,-0.06767588,-0.009383365,0.05074434,0.052893475,-0.0011447303,0.084465735,0.0750091,0.17642768,0.07247829,-0.058518857,-0.13631059,-0.11448368,-0.16128197,-0.01627867,0.041066308,0.0031702905,0.15581189,0.08536293,0.117943436,0.06811204,-0.045406878,-0.1251675,-0.13329382,-0.098826,-0.047858402,0.05128745,0.034085825,0.062122203,-0.008042226,0.06543912,0.032227688,-0.01735778,0.012614546,-0.030646382,-0.15503567,-0.07278746,-0.017807728,-0.10940675,0.07022446,0.051332954,-0.12914403,0.16907446,0.008446174,-0.022969875,-0.03260733,-0.112792216,-0.11669456,-0.03652402,-0.056734905,0.018695904,0.099342465,0.19565754,0.21217196,0.2691663,0.08847004,-0.061599214,0.00558465,-0.051220354,0.023285197,-0.075944304,-0.14944693,0.124334075,0.1363094,0.34716022,0.034479167,0.09272012,-0.04436457,-0.06426249,-0.006926831,-0.014604619,-0.06141379,-0.00057843665,0.015103329,0.12691212,0.018262647,0.009424351,0.23586966,0.014526524,-0.014450501,0.06991998,0.024127781,0.042819016,0.043976255,0.0590966,0.22053836,0.04719537,0.2427899,0.27121794,0.06348703,0.053781133,0.10972149,0.27174294,0.029200744,0.14215648,0.15580533,0.14050329,-0.10150148,0.1698964,0.17987093,0.06737521,0.26060158,0.22621429,0.30396286,0.20069027,0.20794132,0.22014523,0.2918187,0.09142231,0.16855313,0.05562214,0.1399444,0.30459931,0.2775217,0.34419966,0.1975872,0.23494872,0.22283477,0.27560195,0.1349783,0.080248244,0.07073428,0.25387442,0.29297876,0.26469123,0.1372195,0.21584602,0.16502213,0.17256291,0.2599417,0.21895184,0.08201406,0.09738784,0.19711211,0.28886873,0.19077769,0.017947147,0.13820595,0.29131868,0.32318252,0.22148547,0.21600221,0.15203159,0.15577771,0.20605338,0.17839366,0.25067085,0.18923655,0.24193953,0.20094489,0.079360746,0.06733211,0.16004731,0.06207114,0.07796114,0.1539109,0.20580208,0.25356272,0.28487545,0.16951534,0.16909502,0.2229804,0.12452662,0.1967107,0.21262842,0.15157814,0.18056633,0.10769057,0.2636722,0.37071627,0.31120735,0.17696787,0.13500513,0.2335634,0.24986458,0.30638808,0.22980505,0.036278635,0.15801056,0.13958499,0.24348594,0.13380845,0.057876043,0.14892201,0.23166934,0.27725247,0.03989024,0.099985965,-0.11737592,0.024169046,0.097286075,0.23565108,0.13393737,0.017243955,0.14107634,0.22303122,-0.04965739,-0.59286785,0.26531667,-0.7362705,-0.584933,-0.76875556,-1.0639477,-1.1296853,-1.0680139,0.07608481,0.29015926,-0.6214495,0.3438185,-2.7581441,-0.29238486,-0.5833721,-0.66890997,-0.861138,-0.6349846,-0.2091668,-0.17469354,0.19807616,0.31780818,-3.570298,-0.46071202,-0.82100976,-0.52542645,-0.64290476,-0.449631,0.06246584,0.08258307,-0.2595684,-0.2825403,0.680832,-0.90225464,-1.0156938,-0.28162923,-0.5224598,0.010105008,0.32639512,0.29029748,0.07334102,0.09483486,0.2697582,-2.1150548,-0.7221853,-0.71624607,-0.8628642,-0.26783714,0.19844447,0.16641845,0.100768626,0.11351226,0.107134484,0.29654154,-0.26837304,-0.73991275,-0.8763088,-0.7552895,-0.072009295,0.14533854,0.06362511,0.1297992,0.09499995,0.19725573,0.41369966,-0.90572923,-0.7852716,-0.91686714,-0.9892668,-0.4420407,0.12677023,0.21600124,0.264482,0.08219568,0.06338898,0.4472802,-1.0873849,-0.68479985,-0.7700451,-0.7651897,-0.4420133,-0.18173994,0.14998543,0.060812544,0.0291141,-0.15195689,0.3583293,-1.4753491,-1.7544173,-0.3643596,-0.84844583,-0.99879134,-0.59032327,-0.16512544,-0.59097576,-0.017416282,0.06013466,0.2672276,0.031180963,0.31617796,-2.8589108,-1.4930909,-1.3709477,-0.9513472,-0.7247957,-0.85557044,0.018091567,0.32307088,0.6606031,0.30368507,-0.59486353,0.25918216,-1.9376526,-1.8652816,-1.8095316,-1.4448748,-1.1615032,-1.3365784,0.30777317,0.35441566,-0.6617059,1.4307046,-0.019127244,-0.09245176,0.06799513,0.008956506,0.020029353,0.050005153,0.10466785,0.10355463,0.08119483,0.0956315,-0.011487478,-0.124523886,-0.0100059705,-0.048284203,0.037070572,0.06915424,0.06991832,0.14831094,0.094754964,0.0893528,-0.03043355,-0.0618802,-0.15714884,-0.0976325,-0.06878945,-0.00695195,0.030587522,0.014371778,0.060945,0.010678227,0.023005428,-0.004012579,0.01174991,-0.17765118,-0.12237012,-0.104082584,-0.038708955,0.0010195626,-0.016806215,0.03066161,-0.029322723,0.020734752,0.02123444,-0.021884548,-0.17481893,-0.1441795,-0.08077321,-0.07716959,-0.08248195,-0.03006731,-0.035282057,-0.04570214,-0.003269582,-0.022819832,0.04248205,-0.13769026,-0.101112776,-0.09765399,-0.09698287,0.0155320745,-0.022929206,-0.010866789,-0.0072155707,0.014595665,-0.003273388,0.008674544,-0.094462365,0.0034696374,-0.023563843,-0.10964001,-0.07589486,-0.040384036,-0.10612059,-0.088635504,-0.058934156,0.014461108,0.006688192,-0.08592231,-0.00826677,-0.087018214,-0.078074925,-0.07266241,-0.017323159,-0.079968326,-0.105761446,-0.100022465,-0.12559769,-0.119099,-0.08054469,-0.06280903,-0.07945222,0.036307886,-0.020900996,-0.10028232,-0.087729745,-0.07117829,-0.20964578,-0.5824355,-0.27903253,0.0119443955,-0.0324785,-0.049672365,-0.050272953,-0.04121506,-0.029430544,-0.12767908,-0.123792335,-0.4437201,-2.0097709,-0.85131514,-0.035634335,0.07474124,-0.0058533116,-0.09157069,-0.034540527,-0.013828799,-0.081028916,-0.170337,-0.3535466,-0.87591875,-0.019701941,-0.020290995,0.059445366,0.15838625,-0.04081347,-0.07991144,-0.0829636,-0.03205175,0.028967865,-0.06891852,0.046570804,-0.014629181,0.03562193,0.007230252,-0.016699908,0.031261615,-0.06386908,-0.07257401,0.029397862,-0.05062064,-0.07335196,-0.17971718,-0.12560962,-0.024765993,0.0091301175,-0.07461616,0.017891848,-0.0070430143,-0.088892706,-0.083407246,-0.09622467,-0.061418504,-0.09461845,-0.10430056,-0.04940807,0.010514323,-0.01723669,-0.057646617,0.037041027,-0.076345906,-0.04270251,-0.030520786,-0.124162674,0.0052294163,0.025261115,-0.0334441,0.046743423,0.013150156,0.012862759,-0.026405983,-0.0107312,-0.037801836,-0.06190741,-0.085314795,-0.05008328,0.033327837,-0.03732624,-0.020358475,-0.032306936,-0.07284976,0.042077817,-0.025527928,-0.05759797,0.030078156,-0.0070338324,0.024840143,0.016660769,0.009642763,0.045693036,0.075712465,-0.016450971,-0.062034052,0.04338563,-0.031389046,-0.048947584,0.028269712,-0.023826303,0.09073923,0.013156102,-0.037590276,-0.020888671,0.038275585,-0.06526639,0.025567578,0.03466617,0.057816606,0.039786637,0.090321146,0.16793591,0.006120977,0.033827547,0.05694263,0.005704906,-0.073247455,0.0017106425,0.07735614,0.09879917,0.14197196,0.13658002,0.17726016,0.02624602,-0.046529908,0.035337046,0.15457241,0.0037295243,0.11616981,0.1351976,0.17392017,0.18368815,0.08273227,0.19033791,-0.036146503,0.010884086,0.062452797,0.071681365,0.026734034,0.030890558,0.04776824,0.15379065,0.21998817,0.19776273,-0.030010678,-0.10290103,1.4732534,-0.25606006,-0.79149526,-0.79760087,-0.804039,-1.4306561,-1.7016274,-2.3284647,1.2441819,-0.14247744,1.4752878,-0.12330851,-1.049522,-0.8809487,-0.91961884,-1.2358912,-1.3775527,-1.6250345,-1.7851243,-1.9004679,1.3960706,0.03206511,0.08108104,-0.5701008,-0.8153395,-0.9222388,-2.2554607,-2.259523,-2.046327,-1.1648481,-1.5135634,-0.91655624,0.37410262,-0.4434652,-0.62095237,-0.806036,-0.66362447,-0.7556963,-0.85048646,-0.93325883,-0.81628484,-1.0404173,-0.974819,0.4232436,-0.55717057,-0.5190919,-0.777128,-0.83568144,-0.8240622,-0.6670593,-0.46512893,-0.8361912,-0.79542685,-0.81744313,0.06575191,-0.64481676,-0.62491614,-0.91726094,-0.94695544,-0.6921058,-0.5711066,-0.60833526,-0.39054424,-0.4920556,-0.5132474,-0.24557984,-0.76557165,-0.73688924,-0.9288526,-0.73254067,-0.69012725,-0.7083998,-0.44016314,-0.3699418,0.39119458,-0.35371214,-0.65850973,-0.91760534,-0.79997194,-0.62150854,-1.0887908,-0.7148204,-0.49784672,-0.22809982,0.26014972,0.88574713,0.6788991,-0.810086,-0.57154524,-0.9270749,-1.0106304,-0.8475892,-0.7679402,-0.33650494,0.2260256,0.72278965,1.8365253,1.421984,1.3509178,-0.12110252,-1.0794088,-0.8962647,-0.6304946,-0.24728338,-0.116681255,0.82516366,1.9304177,2.2775285,1.6066346,-0.07904602,1.4413706,-2.2532291,-0.8608377,0.015235762,-0.15900724,0.47741932,0.77443314,1.5845102,1.6315165,-0.13509789,1.1821551,-0.0010922028,0.3608052,-0.23999177,0.06045663,-0.010285082,0.09098986,0.04650284,0.04660234,0.018617928,-0.33950102,0.015963342,-0.242291,-0.10157384,0.09287055,-0.030842274,0.15963659,0.08755537,0.12708937,0.11226269,-0.27781636,0.19428952,0.26281172,0.17549981,-0.06344578,0.20238076,0.14686066,0.19310646,0.16971406,0.15253678,0.20288621,0.20222384,0.22660474,0.28165704,0.106828876,0.19221818,0.11796208,0.12105916,0.13923816,0.1055922,0.08733383,0.108842395,0.18829125,0.13875932,0.2621139,0.17343512,0.23679318,0.10813404,0.15229414,0.12820701,0.10607884,0.21313806,0.12208018,0.15623228,0.15817475,0.19834995,0.08053835,0.094268925,0.105164066,0.18470061,0.1036654,-0.022250257,0.088626295,0.20124638,0.13076521,0.18010654,0.23473978,0.12751886,0.18927622,0.15166192,0.15065558,0.0066640917,0.2584779,0.12832893,0.15281671,0.11469483,0.026205152,0.03649904,0.16129535,0.31016308,0.08635881,0.11876732,0.13161331,0.14582342,0.10490735,0.20952936,0.19837925,0.22914594,-0.26438275,0.13700013,0.25639433,0.102304704,0.13369149,0.092872016,0.14826927,0.15833926,0.2706615,0.18592802,-0.123116136,0.050390743,0.03723291,0.10496395,0.15728107,0.2057789,0.15901895,0.23573375,0.28686002,0.17418368,0.3289631,0.23072182,-0.32009125,-0.041456897,0.3904687,0.052649975,0.1429548,0.07386651,0.18781288,0.12857477,0.17986257,0.21181394,-0.067226596,0.022754492,-0.048031267,0.092196286,-0.19060169,0.1001784,-0.18657894,-0.046318196,-0.0965165,-0.15199389,-0.031833854,0.2022224,0.024048733,0.30325958,0.18532996,0.26808268,0.035893947,-0.05074896,-0.032888338,-0.12308994,-0.02809702,-0.2563613,0.051494114,-0.051740706,-0.0049257036,-0.11826936,0.060613297,0.038110238,-0.019499421,-0.12256251,-0.03254517,-0.009860883,0.108492546,0.035558823,-0.03689811,-0.040016506,0.0130399205,-0.06302756,0.027960364,-0.046502978,-0.084253445,-0.055704042,0.010868973,-0.03886541,-0.087533005,-0.017790273,-0.054879427,-0.0021831356,-0.04105053,-0.07408386,-0.023445116,-0.017022219,-0.03295092,-0.08807748,-0.09926772,-0.05173683,0.09721304,-0.099520035,-0.05476827,-0.15667433,-0.057103958,-0.018432945,0.027959809,-0.023736926,-0.14576842,-0.029824482,-0.012813561,-0.00039805812,-0.116684794,-0.10646044,-0.090776436,-0.09870491,-0.038876068,-0.02432888,-0.017661592,-0.06716998,0.014065721,0.060921803,-0.054216933,-0.05378741,-0.0630572,-0.038683314,-0.0757521,0.009598263,0.006061341,0.015922885,-0.12408412,-0.03704499,0.026642649,-0.12843357,0.1404411,-0.079148434,-0.21230082,-0.105343156,-0.010842223,-0.037948947,-0.09875765,-0.061932527,0.15528114,0.12756935,0.18724822,-0.07543857,-0.35594642,0.02964148,-0.1754946,-0.11207071,0.07257553,-0.02188494,-0.037211895,0.085254595,0.4002723,-0.08607443,-0.007924543,-0.028880347,-0.32954097,-0.09268777,-0.120676704,-0.081896625,-0.16353717,0.10993104,0.16632275,-0.15894699,0.03355622,-1.1041508,-1.1555381,-0.45405486,1.778956,0.54161614,0.12038905,0.17148027,0.33058497,2.1360073,-1.1304536,-1.1703417,-1.1630951,-0.49748942,0.78446406,-0.49272096,-0.377805,-0.2636372,-0.0033837631,-0.3351385,-0.5011959,-0.004133648,-1.136126,2.3102877,0.12179563,0.3213618,-0.5095856,-0.5640606,-0.67253447,-0.6456002,-0.75875765,-0.5672753,-0.6783514,-0.13841845,0.40321445,0.36444685,-0.33311886,-0.33634344,-0.6637563,-0.8597704,-0.636357,-0.41514197,-0.87691534,-0.9022785,-0.85836446,-0.12682769,-0.2482776,-0.25707722,-0.5761707,-0.5908503,-0.6299314,-0.53151697,-0.57508093,-0.8646603,-0.6569372,-0.78662115,-0.13526934,-0.589131,-0.35339323,-0.66550153,-0.66077393,-0.65647477,-0.34750956,-0.64097035,-0.5663834,-0.78002167,-0.04012414,-0.16427104,0.068648405,-0.5761719,-0.63694453,-0.4179374,-0.66623455,-0.59071326,-0.74358004,-0.58403885,-0.70764387,0.9556346,-0.50247526,-0.287856,-0.42994583,-0.6327534,-0.6825288,-0.68702245,-0.5819421,-0.7300174,-0.6037216,-0.6811589,0.49715102,-0.1952135,-0.28713453,-0.48394153,-0.53023297,-0.5284251,-0.5773976,-0.64630866,-0.8685317,-0.8185857,-0.66050357,2.1353977,-1.0066903,-0.30260015,1.337483,-0.5410839,-0.504738,-0.12724425,-0.29886007,-0.90750414,-0.47269353,-4.1605167,-1.1414609,-1.0889258,-1.1028587,-0.6895553,-0.5011205,-0.25791535,-0.4554357,-0.6418941,-0.6389894,-0.32347447,-1.0956291,-1.0996803,-3.162965,-0.000101040685,0.3460248,0.015249915,0.12718654,0.2146703,0.0745578,-0.041815102,-0.11776779,0.14484355,0.26447123,-0.016547373,0.17110012,0.04827029,0.2126081,0.21784832,0.08489979,0.10390962,0.20285714,0.055466082,0.16476902,-0.021251911,-0.063043855,0.024559753,0.14219877,0.07106406,0.05137595,0.047177184,0.11577006,0.20491883,0.17510629,0.002342606,-0.1054435,-0.10046888,0.23127472,0.056268808,0.056180023,0.10934457,0.21000439,0.13560991,0.13236089,0.19664769,0.042908095,0.1223507,-0.063768126,0.1007824,0.109172374,0.0702601,0.18743367,0.26736715,0.20158845,0.1565586,0.15824886,0.028397622,-0.044055883,-0.16969125,0.2108205,-0.104202904,0.067660354,0.13710122,0.0639111,0.0084899105,0.23713958,0.17376447,0.19388664,-0.08686386,0.03406624,0.08954759,0.0328409,-0.02545534,0.028875226,0.07161129,-0.09893753,0.13411403,0.13129067,0.0042930106,0.18284419,-0.06263895,0.09717279,-0.06468879,0.044375613,0.07623432,0.05352402,0.18567944,0.11022699,0.0439741,0.09493348,-0.10016678,0.14248268,-0.028651383,0.21172535,0.027107965,0.014428594,0.09510069,0.21425036,0.1646489,0.181167,0.17139629,0.1172367,0.05955565,0.5162955,-0.28230062,-0.039278947,0.09950381,0.113385916,0.056201663,0.1536097,0.15307166,0.3138042,0.12582155,0.46870628,0.020949876,-0.14084356,-0.17915888,-0.01912037,0.074614845,0.25054497,0.121451974,0.17159665,0.2520664,0.21424688,-0.0218264,-0.040812552,0.35850042,0.5241822,0.42372066,0.3422541,0.41874608,0.25765014,0.23105864,0.45720807,0.03163594,0.027753385,0.21296367,0.18617584,0.2951349,0.2529007,0.22136939,0.28467858,0.24807587,0.17765416,0.2756162,-0.14144452,0.02268767,-0.0063430285,0.06655012,0.24507904,0.17142418,0.2589627,0.22157316,0.27173203,0.27475756,0.08575136,0.35623622,0.19133833,0.029030392,0.03507679,0.14727768,0.31950122,0.29583412,0.19682683,0.25505346,0.16804127,0.21485966,-0.07294234,-0.012232647,-0.021545675,0.07023903,0.19656909,0.31126538,0.14182653,0.19096634,0.10753606,0.18348649,0.18087192,0.06058141,0.029041935,0.052985575,0.11715819,0.06497875,0.23237102,0.19791777,-0.050495613,0.13989836,0.17079458,0.2639169,0.1668594,0.14113589,0.07109317,0.106557265,0.11095982,0.16457428,0.23451144,0.07975191,0.2807101,0.2479179,0.24386571,-0.025542365,0.13476475,0.14767963,-0.029063521,0.11194901,0.23483612,0.32341325,0.16798575,0.15268518,0.21958455,0.21249357,0.16689883,0.018282736,0.024891876,-0.16900827,-0.15168826,0.022828178,0.10243588,0.13519809,0.24843256,-0.049006432,0.03663205,0.16398266,0.34018412,0.019250952,-0.30065796,-0.15527533,-0.06259371,0.11227877,0.15387394,0.23241065,0.053356525,0.15710285,0.13157001,0.3705661,0.03196334,-0.19936061,-0.16545525,-0.05670198,0.027449306,0.105408825,-0.0496831,-0.18891674,-0.16810288,-0.29750386,0.0017210158,0.6408686,0.1435574,0.48772442,-0.36858487,0.29118586,0.16447702,0.3670734,0.39087233,1.3929236,0.18574373,0.6805786,0.13676919,-3.0987618,0.2300698,0.072458595,0.52656585,0.37367767,0.44226792,0.31190884,0.25220641,-1.514088,0.14019778,0.20809089,-0.6493379,0.005658849,-0.0010558416,0.13448514,0.5271224,0.52798384,0.28458297,0.5199256,-0.7032434,-0.6794917,-0.13552219,-0.28896964,0.32403678,0.34554926,0.47854283,0.5302382,0.318614,0.28646097,0.3888364,-0.1507551,-0.11332577,0.50252116,-0.059729364,0.6466988,0.24112079,0.59544057,0.30425683,0.36184937,0.52215517,0.39167875,-0.09292034,-0.07523121,-0.19189745,0.27139428,0.7117853,0.21588974,0.5618892,0.51384926,0.41713583,0.44947296,0.35081476,0.54013777,0.12223908,-0.04251058,0.21358266,0.41547054,0.30558515,0.40516844,0.5781242,0.5750129,0.38291478,0.37570384,-0.11011611,0.8047597,0.09831673,0.21279848,0.029818714,0.22406384,0.6480872,0.33433846,0.5818685,0.43544716,0.021817738,0.10241716,-0.29894066,1.1636342,-0.08407568,-0.5064051,-0.17345288,-0.37732,0.70448655,0.5417353,-0.0026961714,0.34779993,0.03998421,1.2880464,0.17392826,-0.99193436,-0.8570398,-0.38815165,0.24578846,0.20669945,0.008355722,0.42206535,-0.6807271,0.7518828,0.115646265,0.64490426,0.1323523,-0.071143515,0.40691164,0.70051515,-0.16784768,0.17437632,0.6699468,0.45816177,0.06501842,0.69736266,-1.7927407,0.029649977,0.22004525,0.3943185,0.49884275,0.16340165,0.20132753,0.027781874,0.04398802,0.055244323,0.28863338,-0.04608287,0.11041419,0.15571623,0.2881238,0.049607377,0.07309342,-0.059314746,-0.058545824,-0.05669785,-0.017073339,-0.12542535,-0.09948061,-0.066742554,-0.072306715,0.09787671,-0.109239325,-0.021043492,-0.14324825,0.03890432,-0.14559796,-0.0017080948,-0.16430339,-0.22777198,-0.08560439,-0.061531283,-0.10073146,-0.13448735,-0.036115106,-0.11933786,-0.08137306,-0.13970917,-0.1668648,-0.2257863,-0.2116838,-0.16446733,-0.23620972,-0.1522268,-0.09647534,-0.10782727,0.016392656,-0.041666377,-0.10226103,-0.12408096,-0.17534702,-0.23493256,-0.15772651,-0.2017811,-0.13279346,-0.13465491,0.00023505447,-0.01313369,0.011948052,-0.08733582,-0.08737131,-0.210539,-0.3839703,-0.20079543,-0.30057287,-0.1572131,-0.18173723,-0.11460735,0.0055060554,-0.078788385,-0.11285414,-0.083048664,-0.2196358,-0.23301935,-0.25320873,-0.07908103,-0.20960861,-0.06060983,-0.12785295,-0.071130194,-0.11352532,-0.019760644,-0.10840631,0.02116929,-0.1961301,-0.13547362,-0.19424595,-0.20002547,-0.08020462,-0.017333612,-0.007431275,-0.10145899,-0.0061324784,-0.07383751,-0.055115815,-0.122397296,-0.26398903,-0.28856355,-0.17336367,0.123857096,0.1274681,0.012645951,0.01716114,-0.102393314,0.019299783,0.0154104065,-0.17157869,0.03656732,-0.50194824,-0.11147663,-0.009012332,0.077973984,0.10777514,0.037264813,0.05021656,0.09235408,0.057310093,0.038168542,-0.010716105,-0.106172994,0.13591625,0.00049131317,-0.020396234,-0.04907413,0.043000944,0.026706334,-0.063617185,0.08084573,-0.048100073,0.04859422,0.05629218,-0.044828437,0.09148261,-0.11344066,0.04610395,-0.05762904,0.0015835621,0.068823494,0.2935257,0.64035887,-0.040329438,-0.091287285,-0.016739208,-0.028671717,-0.028777499,-0.03999107,0.12069072,0.18181962,0.16211763,0.18040073,0.32012343,-0.13156301,-0.04699402,0.050018415,0.027020985,0.09393975,-0.026409121,0.08031087,0.111086495,0.048767637,0.23884206,0.12672532,-0.024272712,0.005182566,-0.0034003009,0.029668888,0.06606004,-0.006783921,0.016187767,0.039579075,0.04748459,0.03872709,0.09173296,0.03279965,0.076181464,0.109447405,0.07728742,-0.010705569,0.02294269,0.05029422,0.10631069,0.094834805,0.093028046,0.12307164,0.09846114,0.054450925,0.18753432,0.23995274,0.10527951,0.019790722,0.15823238,0.095283315,0.06864501,0.016052388,0.13131852,0.038395487,0.050639454,0.107844435,0.054855257,0.06588917,0.12090277,0.059610497,-0.024796357,0.135123,0.11546481,0.11018427,-0.017385397,0.016668981,-0.00914949,0.029789474,0.039482616,0.10441342,0.05005201,0.018759165,-0.04515718,0.16793399,0.33031633,0.0005097668,0.010169186,0.03311996,0.12994823,0.08502129,0.12270797,-0.003681557,-0.08635911,-0.078656495,-0.066474065,0.10544405,0.034192316,-0.05878922,0.118131354,0.060260117,0.18513903,0.079761714,0.015281779,-0.20457803,-0.19671279,-0.0823426,-0.021411747,-0.15133671,0.80908877,0.91231316,-2.043313,-3.8225875,-1.5039469,-1.6476235,-0.033081416,-2.441345,0.7750431,-0.14271234,0.8643363,2.031143,-1.9564041,-0.8853462,-0.65931386,-0.41068757,-0.8675151,-0.3436382,-0.19010653,-1.199088,0.78923476,-0.8968392,-0.8826336,-0.54958,-0.32905072,-0.4614584,-0.30877465,-0.23259096,-0.35265306,-0.009000606,2.1070764,0.27833632,-0.89871234,0.12623927,0.055876795,-0.20865816,-0.18327998,-0.26665214,-0.08381372,-0.04556934,0.26155525,0.90203184,1.1273458,0.3213741,0.4300566,-0.057827912,-0.21136479,-0.20246571,-0.33830518,-0.41229618,-0.28846842,0.21419144,0.72074854,1.2847576,0.88446987,0.29414868,0.07036376,-0.10766346,-0.25191557,-0.19486387,-0.15694991,0.14822672,-0.12004151,0.43268886,1.319566,0.8263723,0.49030384,0.25918385,0.06927079,-0.53405845,0.13060635,-0.23579167,7.8380166e-05,-0.34116274,0.44878143,0.8048798,-1.6557194,0.7780511,0.16692944,0.04569631,-0.30701002,-0.018950991,-0.26164952,-0.20862149,-0.5099885,0.5470059,-0.7720909,0.2538807,0.44693205,0.24105527,0.19299433,-0.09259033,-0.14111371,-0.14894223,-0.060246535,-0.23134382,-0.45663553,-0.5666534,0.7836345,0.69609725,-0.15996414,-0.27387875,1.1468103,0.8702882,0.28944018,0.85917044,0.4650088,-0.9124402,0.8544879,-0.092377014,0.76776147,0.50479376,-2.0362768,-1.2565278,-0.8798426,-1.2234521,-1.1138133,-3.364142,0.8794573,-0.16004933,1.7566243,-0.03554627,-0.19918904,-0.26515725,-0.24011813,-0.19711997,-0.05128471,-0.07197297,0.02261943,-0.03826661,0.33594963,-0.04795047,-0.15538557,-0.047239486,-0.23725876,-0.18775201,-0.122600324,-0.15958133,-0.11758798,-0.08757505,0.09443372,-0.031318557,-0.1191419,0.12394445,-0.118374005,-0.15501869,-0.17990969,-0.1449564,-0.042321347,-0.031710956,-0.029808572,-0.09542057,-0.16081272,-0.080491565,0.03274447,0.082475655,-0.032411832,0.13282624,0.12111066,-0.044541307,-0.08948192,-0.0077000195,-0.051201507,-0.0859553,-0.08423406,0.2050246,0.09435002,0.11482454,0.092218004,0.103842124,0.1078788,0.18056254,0.04446185,-0.061411247,-0.067949414,-0.11962894,0.18594885,0.062349554,0.12989503,0.10025394,0.12217691,0.040161844,-0.0011698625,0.0008175481,-0.08834909,-0.040602483,-0.23417436,0.19167021,0.06017046,0.09962328,0.112242125,0.15198302,-0.019515684,0.025661588,-0.0016715135,-0.08066687,-0.19288176,-0.08244321,0.22149651,0.08101463,0.07108002,0.08083504,0.22122751,0.24056642,0.12245742,0.058017828,-0.008097077,-0.1487042,0.00041915406,0.3043963,0.1044178,0.16215687,0.052759178,0.2647484,0.17678297,0.122289106,0.041819517,-0.0039491015,0.13487074,0.040408388,0.41045827,0.33107638,0.35546595,0.29819655,0.3126531,0.14093402,0.13628297,0.10185263,-0.053092994,0.20990112,0.37555867,0.007876218,0.061148234,0.4434542,0.30039516,0.19870315,0.22331482,0.09027412,0.082326174,0.072221786,-0.08437387,-0.03466531,-0.037063517,0.25863728,0.077641666,0.1065885,0.011155078,0.016186792,-0.030561913,-0.03244612,-0.014199453,-0.050732575,-0.005711301,-0.081581004,-0.19103467,-0.10944886,0.054423355,0.22263235,0.23643795,0.0006840296,0.0023990257,-0.022831906,-0.025961133,0.01593227,-0.10459435,-0.080396146,-0.0071938294,0.20107964,0.3609077,0.35415038,0.12400796,0.2880331,-0.16075872,0.26218578,0.07459865,0.077801496,0.021141903,0.1139143,0.09773345,0.16550633,0.1995022,0.22756603,0.29741845,0.22227664,-0.09114497,0.07340775,0.16533738,0.14372641,0.11422227,0.07133316,0.25533897,0.09251603,0.26404274,0.3840803,0.31770584,0.094074525,0.012660712,0.15388793,0.16440207,0.077236906,0.14129381,0.16226326,0.03652971,0.12610969,0.078056805,0.19661072,0.15581568,0.032662865,0.20037813,0.022119608,0.16013327,0.1626322,0.13601868,0.22424674,0.26953107,0.18775183,0.2351982,0.19967738,0.05889099,0.038501807,0.014498014,-0.017474273,0.09211905,0.22853565,0.021481253,0.15133579,0.19816926,0.07117388,0.040080376,-0.050087165,-0.06805546,-0.12093139,-0.051939327,-0.06230776,-0.012380286,-0.13426147,0.10195538,0.1776635,0.10175426,-0.064991124,-0.19116502,-0.172755,-0.15561636,-0.108869,-0.11320976,-0.030664766,-0.010818415,-0.03945871,0.08620863,0.124216974,0.103534415,-0.43624446,0.03707457,-0.14044695,-0.29745322,-0.22429141,-0.05670208,0.017114842,-0.048494752,0.17106736,0.40372038,-0.11979828,0.007944544,-0.65183467,0.24400519,-1.0214546,-1.2943109,-1.3340813,-1.2079504,-1.343866,-0.6791751,0.40644535,0.2751906,-0.693551,0.2991041,-1.5979577,-0.46289858,-0.3597125,-0.7623393,-0.62476486,-0.7898721,-0.9587459,-0.77890027,-1.2257109,0.29169565,-1.7321513,-1.4523349,-0.679462,0.25000855,-0.11836295,0.20485856,-0.69024026,-0.8293537,-0.31188285,-1.0587796,-1.3686773,0.09154376,0.15249819,0.10585531,0.18418509,-0.18928476,-0.032519672,-0.006975071,-0.23180538,-0.24256054,-0.9379162,-0.66894746,-0.06878027,-0.21377395,0.09327253,-0.03817897,0.01453698,0.23478049,0.12979732,0.07936302,-0.45940977,-0.929747,-0.8714433,-0.021278506,-0.10036955,-0.01816999,-0.0594614,-0.025940347,-0.13638814,0.1589906,-0.092667505,-0.35681045,-0.8111643,-0.7869473,-0.1056638,-0.41530824,-0.07979827,-0.25361353,-0.040584523,0.029615179,0.27123803,0.004914311,0.11673192,-0.9716029,-1.5720632,-0.20448941,-0.44637966,0.05915931,0.00063825684,-0.07646322,0.09668619,-0.078229584,-0.0012395522,-0.078057766,-0.8705863,-1.85563,-0.035974745,-0.3200081,-0.35810515,-0.23165806,-0.06816837,-0.014979785,-0.024879009,-0.3252542,-0.46572733,-1.6728837,-3.405468,0.2520618,-0.24036746,-0.44326136,0.027007751,0.07421082,0.06650189,0.05166066,0.052438784,0.3601156,-1.5692,0.3001207,-0.7055777,0.22725928,-0.38580507,-0.56299037,-0.05038034,0.098891206,-0.39753374,-0.06404164,-1.7446307,0.33917198,-0.74604857,1.5738316,-0.048062075,0.23399077,0.24828692,0.124335736,0.053883575,0.17914476,0.035517726,0.06923534,0.2172471,0.22328196,-0.03966284,0.2909233,0.30509722,0.26939103,0.22538315,0.25167164,0.23502578,0.14255938,0.21392731,0.36274636,0.35655883,0.16445214,0.25766972,0.22589178,0.07798614,0.13493964,0.09174836,0.12167088,0.027801191,0.17918661,0.16088614,0.2554488,0.22501807,0.11368815,0.100369945,0.14275011,0.21448405,0.23506628,0.23777345,0.14977954,0.18739757,0.17114393,0.22619507,0.19632992,0.09146904,0.024688292,0.123059094,0.20947838,0.17761646,0.15628767,0.1435596,0.07891973,0.15031643,0.12662107,0.06361945,0.16089986,0.024932904,0.13360637,0.21066894,0.06772807,-0.024326656,0.11954966,0.26299322,0.20723704,0.21981862,0.14444211,-0.020204024,-0.08739555,0.087783426,0.095671095,0.16921173,0.13990785,0.17419307,0.23223543,0.17311439,0.19808798,0.16156863,-0.1040767,-0.4677174,-0.06677885,0.0067844167,0.074461855,0.06525662,0.18118706,0.1308912,0.17898196,0.28068244,0.23576753,-0.19279177,-0.1911189,-0.081503235,-0.17800412,-0.032407288,0.11255286,0.048853513,0.21789144,0.17395934,0.20908442,0.31902757,-0.23322666,0.019064095,-0.17947854,-0.5347968,-0.25126517,-0.060626827,0.004117326,0.03482224,0.08084322,0.15324077,0.18495838,-0.04059735,-0.22374563,-0.38525838,-0.18224135,-0.06957404,-0.0033279161,0.026010573,0.21124926,0.24176648,0.08013343,-0.036060784,0.017412458,-0.06016318,0.059091557,0.08887008,0.07977299,0.09063337,0.042166244,0.13206768,0.096853234,-0.1498494,-0.016734164,-0.028210327,0.04581287,0.055863317,0.17139605,-0.012086946,-0.047309034,0.10097676,0.16612135,0.03883482,0.004339543,-0.007753671,0.0033060524,0.026610292,0.07244502,-0.02893872,0.1292489,0.17119211,0.04716776,0.15385656,0.07111298,-0.03974984,0.1497869,0.051223747,-0.047178306,0.03660663,0.01913418,0.10852273,0.016449021,0.025931563,0.009499517,-0.029002007,-0.051156983,-0.002911937,0.15515986,0.034601737,0.028650729,0.10178435,0.052693605,0.09341813,0.062138785,0.040322397,0.07190486,0.060913384,0.20467979,0.24874674,0.13454197,0.17303836,0.07981815,0.08745669,0.045651976,0.10256699,0.02297217,-0.0907479,0.07153139,0.14919098,0.24303031,0.1231443,0.1902765,0.16599396,0.07753166,0.02561578,0.14597811,0.11243459,0.06031631,0.1249764,0.2167186,0.22862422,0.08938274,0.27258584,0.20012966,0.17669553,0.040390506,0.15591918,0.08766952,0.14560579,0.09851474,0.1279447,0.1001731,-0.19029352,0.17574534,0.20794858,0.23659153,0.09022867,0.091832004,0.18477136,0.03499689,0.06146782,0.08075042,-0.1647606,-0.18374577,0.1310536,0.11324246,0.2655945,-0.09066443,0.12743278,0.08301178,0.037228,0.27423096,0.03404112,0.03864528,-0.29257038,0.19008712,0.20911649,0.15829024,0.05413538,0.20246546,-0.20155245,-0.29021728,-0.02330531,0.023960795,-1.2515688,-1.1725061,-0.3390819,-0.3440801,-0.093083814,-0.19652985,-0.10979463,-0.5218439,-0.34298632,-1.0808185,-1.1219246,-1.1130927,-0.44905537,-0.4603198,-0.33695292,-0.22592266,-0.6006111,-0.40733823,-0.59520406,-0.5541731,0.27199596,-1.0816334,-0.41089445,-0.08758784,0.012356214,-0.16628025,-0.09884377,-0.31063607,-0.2696238,-0.45621523,-0.55315393,-0.845486,-0.8647729,-0.34323144,-0.24279547,-0.28712764,-0.15875399,-0.2561403,-0.5468219,-0.72294986,-0.86598456,-1.0242335,-0.9252079,-0.82246923,-0.13366713,-0.37034762,-0.35014248,-0.49730042,-0.4327125,-0.62819207,-0.64949375,-0.80015546,-0.54690456,-0.69673043,-0.69595706,0.034656696,-0.238186,-0.28568184,-0.32717502,-0.3684385,-0.41810608,-0.6163604,-0.43033147,-0.33823916,-0.63200897,-0.7384261,0.2590723,-0.21143924,-0.13963734,-0.20214249,-0.17186727,-0.31704256,-0.5937104,-0.46235996,-0.43914175,-0.30906275,-0.7523865,-1.0458169,0.41501132,-0.4608014,-0.32230726,-0.22710514,-0.4805194,-0.29820737,-0.33214062,-0.42641366,-0.336,-0.5951519,2.2226284,-1.256052,-1.3899186,-0.4720374,-0.0609619,-0.15363598,-0.2740636,-0.34501183,-0.3913369,-0.49779272,-0.8506282,-1.0760098,-4.472739,-1.6050278,-0.67691207,-0.17262873,-0.32000047,-0.37629256,-0.5534007,-0.58608544,-0.91377753,-1.1216193,-1.1263233,-1.0664911,2.98977,-1.3095199,2.5018847,-0.29931632,0.71051514,-0.19644096,-0.09024437,-1.0556889,-1.1507002,-3.6297526,-0.01549669,-0.03972148,0.09697058,0.3242777,0.27590117,0.2609011,0.27482566,0.265195,0.24246983,0.09499962,-0.021273972,-0.021523772,-0.12824206,0.0035173013,0.21783644,0.22691369,0.18375607,0.36046392,0.2022005,0.2552201,-0.06668957,-0.15464815,-0.25850973,-0.31290942,-0.10902303,-0.0032634859,0.16679363,0.13386355,0.23589177,0.15071169,0.09976568,-0.17973694,-0.5024284,-0.12428882,-0.22036864,-0.1626144,-0.024731569,0.13966334,0.038100354,0.12418781,0.03823419,-0.005703508,-0.17775705,-0.43077564,-0.0911811,-0.16339037,-0.03845518,-0.05125063,-0.0009066092,0.07902797,0.10636779,0.056711752,-0.0064035687,-0.15487322,-0.35446662,-0.0604937,-0.09521655,-0.031313714,-0.0125914095,0.009645547,0.0056387275,-0.015617768,-0.0102142375,0.022847777,-0.13209046,-0.2778892,0.011302662,0.033244506,0.023960365,0.017858513,0.017205251,0.054700457,0.07826551,0.06361517,0.105133496,-0.029452812,-0.23076189,0.025758844,0.09114358,0.036283463,0.031639196,0.06322634,0.044439323,0.02649764,0.10499156,0.07888894,0.022081634,-0.18266515,-0.008396149,0.0076020905,0.008885724,0.05177966,0.1848627,0.18940465,0.19182645,0.16559711,0.07348451,-0.00026696932,-0.27008164,0.04801911,-0.11912105,0.05970439,0.09517356,0.18834679,0.14730151,0.19308062,0.22110955,0.15944894,0.07202028,-0.14560172,-0.03599089,0.046433866,0.105291046,0.16743556,0.1435348,0.21716101,0.23779342,0.15639122,0.1685421,0.032141156,-0.018346604,-0.023576777,-0.16478541,0.11997186,-0.03932035,-0.044255007,-0.01089461,-0.049679175,-0.12696843,-0.0909201,-0.15095179,-0.0061436873,-0.08303061,-0.12112616,0.027914776,-0.029070718,-0.035961356,-0.09454386,-0.06197669,-0.09894969,-0.08355476,-0.15489475,-0.11422137,-0.17409636,-0.13839959,-0.14941749,-0.11489705,-0.09509345,-0.21506323,-0.14825074,-0.13041323,-0.17838311,-0.17628057,-0.33064628,-0.20926753,-0.2149455,-0.15587465,-0.16874832,-0.089166924,-0.19596899,-0.18456984,-0.11884663,-0.24069767,-0.21351323,-0.21072061,-0.20135029,-0.09707201,-0.10701421,-0.11609213,-0.17297328,-0.14423783,-0.12115815,-0.0832947,-0.121167846,-0.19377714,-0.08866943,-0.12637475,-0.10319771,-0.043827478,-0.13731985,-0.116002865,-0.02180405,-0.2107162,-0.08100682,-0.19674912,-0.2258698,-0.11861205,-0.12323611,-0.17076507,-0.13160037,-0.14784437,-0.124846846,-0.23124108,-0.13325201,-0.23925322,-0.16332111,-0.22913715,-0.12504773,-0.12534292,-0.080932885,-0.15229048,-0.19694582,-0.22437586,-0.13760322,-0.21487038,-0.2346535,-0.16415171,-0.17583734,-0.19395596,-0.07178331,-0.16962613,-0.23680204,-0.18020865,-0.16091944,-0.20684114,-0.27715302,-0.15503792,-0.19413334,-0.22210182,-0.24535024,-0.16425166,-0.26742935,-0.14032076,-0.2685266,-0.17645541,-0.15672615,-0.118738025,-0.22443326,-0.28600845,-0.23707862,-0.3747203,0.039506845,-0.26997778,-0.26736012,-0.21859436,-0.16792984,-0.15713784,-0.31514797,-0.16255233,-0.14765553,-0.25632122,-0.027273376,0.9029323,1.7025623,-1.1320809,-3.4024065,-3.8896747,-3.8021195,-3.343612,-3.3567903,-2.583834,1.6402293,0.90688777,1.7365464,1.0945483,-0.63178223,-1.1476136,-3.2629497,-3.2576025,-1.6973792,-1.439628,-0.9384014,0.007973083,1.6986722,1.2679152,1.0221959,0.3427044,-0.73196036,-1.2265927,-2.3367405,-1.378175,-1.0656536,-0.7476827,0.34910506,0.92399526,0.9480508,0.56875384,-0.44892496,-0.59604704,-0.8432501,-0.85949486,-0.6734321,-0.5813778,-0.46852106,0.388417,1.363078,0.7125122,-0.13230664,-0.32591662,-0.6539867,-0.9993679,-0.97496223,-0.86102307,-0.7263608,-0.7167316,0.18917538,1.149437,0.3573897,-0.15766166,-0.16886938,-0.5565618,-0.8598732,-0.80403906,-0.74574304,-0.5302531,-0.4891046,0.100560464,1.0039594,-0.15217921,-0.46294242,-0.35916013,-0.40218854,-0.86011904,-1.0836772,-0.95091486,-0.74516517,-0.617879,-0.1592833,0.27116016,-0.94013983,-0.49248266,-0.4553318,-0.52163637,-0.7877954,-0.74201846,-0.7578395,-0.83392,-0.48901826,-0.069824316,0.15905908,-0.3029808,-0.23244141,-0.39005232,-0.38492018,-0.84026617,-1.1228089,-1.2377124,-1.0580512,-0.7303964,-0.20048958,-0.38226917,1.6067644,3.854173,-0.0300949,-0.7750754,-1.4414221,-1.9579793,-3.1812482,-2.855873,-1.1280744,0.31207862,1.7513739,0.94984144,1.6244807,-3.402535,-0.9660219,-2.6339889,-1.7969563,-1.9992216,-4.187157,-2.0356746,1.6887456,0.6763257,-2.8851376,0.021512413,0.049910687,0.16259749,-0.28750286,-0.28301722,-0.10022879,0.05198472,-0.013148038,-0.113965645,0.27062976,0.05067942,0.12937322,0.21250989,0.047937334,0.13301319,-0.0013546904,0.040591933,-0.06336075,-0.062087383,0.06918837,0.26116067,-0.08121554,0.2594214,0.12640467,0.19150351,0.10867519,0.1372623,0.082882434,-0.00754151,-0.04563345,0.034896035,-0.005290386,0.011385923,0.20977755,0.14828679,0.19618645,0.20304906,-0.047311723,0.08998912,0.010994644,0.02444878,0.0209828,-0.11254538,-0.10694225,0.22434327,0.3014893,0.20769377,0.04617514,0.10382979,0.08310983,0.12047457,0.04001533,-0.019023761,0.08826198,0.065555915,0.22292663,0.22503628,0.27300903,0.04791015,0.1730015,0.024859458,-0.026447935,0.09035412,-0.0066621043,-0.14876415,0.009325108,0.22709756,0.09046005,0.14030235,0.09360255,0.03858414,0.0423667,0.011607594,0.15065417,0.07633251,-0.028640267,-0.07577441,0.38035697,0.43058038,0.14171377,0.10839513,0.08337733,-0.081471734,0.0636939,0.008819517,0.10136506,-0.16029285,-0.056417026,0.5252399,0.31119162,0.23277472,0.131189,0.027430449,-0.059761625,0.0065959347,-0.023754446,0.030190563,0.07463194,-0.057721708,0.32778758,0.29738784,0.07010543,-0.043296956,-0.08491745,-0.05173629,-0.12990431,-0.03905013,0.1449947,0.19920456,-0.07040537,-0.032004938,0.24246456,0.02835975,0.024780208,-0.046086814,-0.007568193,0.04763054,0.01052401,-0.096180476,0.04223154,0.031823754,0.020002926,0.28550133,0.11861227,0.32172918,0.49336687,0.21333088,0.17389168,0.28733206,0.05001258,0.47616658,0.048360817,-0.03849133,0.20515352,0.3408992,0.23395558,0.22228737,0.20525315,0.26252627,0.31174436,-0.0006915415,0.11962331,0.4254359,0.11875524,0.2612298,0.30093184,0.2536879,0.11468133,0.33930025,0.1946226,0.45427874,0.09162945,0.21295634,0.46903327,0.16949417,0.20846905,0.17771623,0.14573301,0.09745026,0.028434468,0.10042403,0.19108039,0.26997045,0.18727969,0.21513762,0.15359992,0.1113528,0.030397084,0.0067591127,0.07021759,0.18352337,0.12481431,0.016422197,0.2443017,0.15946923,0.22326666,0.0765412,0.119411334,0.10015453,0.11040063,0.2639711,0.0029244877,0.21184228,0.25359932,0.26332977,0.30646566,0.4092724,0.016933173,0.05763685,0.08336161,-0.004775401,0.18278138,0.20134003,0.18125947,0.1069322,0.07865505,0.17260076,0.24232171,0.016717743,0.10771549,0.12628162,-0.0032189419,0.29628792,0.24669361,0.077069245,0.036103606,0.2571398,0.3140518,0.46003494,0.2091121,0.20738721,0.1999689,0.09754783,0.32864416,0.16904284,0.32060948,0.24452436,0.28976056,0.8563603,0.6998379,0.060644243,0.26167136,0.06958906,0.3642413,0.3046553,-0.06904812,-0.03474953,0.09154191,0.20791835,-0.04865798,0.088360496,-0.013318069,0.5102533,0.21002576,0.23642075,0.3354314,0.29393834,0.4764504,0.33425632,0.39490944,-0.013329082,-0.04144933,0.79932934,0.11252371,-0.19686154,0.27182347,0.06283474,-0.14479981,-0.3066703,-0.5204153,-0.24353462,0.11095311,0.7893515,0.124977216,-1.8063325,0.35808772,0.46005705,0.76884437,0.3019829,0.35255542,0.32832468,0.2591488,-0.6998261,0.05840575,0.40317363,0.24270427,0.65689147,0.6526135,0.5677741,0.4591239,0.49830785,0.20708397,0.31276727,0.6662951,-0.55822384,0.7130132,0.27967513,0.3920669,0.48541927,0.509772,0.48258975,0.3320901,0.43281135,0.54162484,0.43004537,-0.46670318,0.8704529,0.40935716,0.40632474,0.54883444,0.5848033,0.6311212,0.72375673,0.53792053,0.5304381,-0.34885657,0.26185524,0.7344901,0.32110485,0.31236532,0.5256411,0.57233596,0.49381462,0.5826727,0.64113086,0.505517,0.15238793,-0.72399753,0.79657817,0.5174468,0.4287125,0.5782116,0.68414754,0.44830167,0.61279494,0.64429235,0.664847,0.16775881,-0.25918487,1.0045846,0.7398367,0.47260985,0.49565163,0.4494763,0.6291087,0.6687881,0.7213315,0.5579736,0.45325908,-0.31321,0.64273816,0.34791023,0.58245194,0.6104673,0.73359936,0.061519124,0.133108,0.3729906,0.7484726,0.322261,-0.22635166,0.1734647,0.64131916,0.7294888,0.24464041,0.34924206,-0.5250853,-0.007934245,-0.18934366,0.088513054,-1.2188747,0.06752886,0.8044031,0.15823646,-1.5243773,-0.9546808,-0.81238526,-1.0082372,-0.5678646,-0.13817511,0.29243323,0.029126095,0.7807474,-1.6499329,-0.0029458443,0.052757353,0.10855417,-0.1883219,0.123192675,0.112930715,0.12664147,0.13160485,0.14595537,0.19733894,-0.022083735,-0.0028662742,0.1066851,0.10023898,0.10500648,0.14092687,0.07899041,0.21677579,0.07659218,0.1777721,0.12437576,-0.112278454,0.011182875,0.106479816,0.103597686,0.11446454,0.05394778,0.11806102,0.07008555,0.06532095,0.05511252,0.10218981,0.030965615,0.006042934,0.05615648,0.11018124,0.0555722,0.008067027,0.015099524,0.049264416,0.019657735,0.07064281,0.15883246,0.097634055,-0.010430071,0.0950509,0.009331357,-0.020479212,-0.0070025297,0.07447177,-0.031792276,0.0055102697,0.07317767,0.106611244,0.12081147,0.031968888,0.107451975,0.071482696,0.11694063,0.07672829,0.024407765,0.058428522,0.04100987,0.0041777375,0.087314844,0.021357818,-0.042677924,0.06961733,0.041849248,0.030690702,-0.0074036075,-0.0018432599,0.0066456613,0.03898747,0.05464681,0.07849895,-0.17456359,-0.14896472,-0.102988094,0.010138731,0.03806259,-0.019213708,-0.0049699047,-0.013490003,-0.034629583,-0.047921315,-0.16316052,-0.2916294,-0.3615201,-0.552276,-0.14147605,0.018741751,-0.0052088154,0.02768494,0.04255877,-0.010020138,-0.01946706,-0.1577472,-0.26356474,-1.6528559,-0.6638905,-0.32911307,0.045516644,-0.08698215,0.014093952,0.06879835,0.05171268,-0.075282454,-0.074800186,-0.08568679,0.009871639,-0.5847997,-0.13897349,-0.11533896,-0.013409124,-0.03770114,0.036092643,-0.011723348,0.0139029175,-0.0358593,-0.050594267,0.00797486,-0.096599296,-0.11845962,-0.1177573,-0.16468033,-0.15110673,-0.21324547,-0.21714848,-0.12823662,-0.23493074,0.021115167,-0.20750184,-0.16922137,-0.17674348,-0.16466244,-0.14146699,-0.17277712,-0.21244268,-0.1571741,-0.19237198,-0.18826827,-0.19270466,-0.08995952,-0.13543838,-0.17183667,-0.08492959,-0.11716363,-0.1228983,-0.11440748,-0.22797792,-0.1301882,-0.22192624,-0.21147834,-0.11967205,-0.08278845,-0.049077,-0.093701184,-0.14907664,-0.16339764,-0.1243802,-0.10709273,-0.15813719,-0.100488275,-0.039752137,-0.08945362,-0.10683718,-0.03687894,-0.1643946,-0.1330382,-0.093104586,-0.08473733,-0.11527369,-0.17648757,-0.06591307,-0.012652509,-0.12158415,-0.1119119,-0.13178656,-0.15698248,-0.011388376,-0.02019338,-0.04348794,-0.10613162,-0.096181005,-0.15537865,-0.14432342,-0.07467719,-0.08214285,-0.07463282,-0.072412334,-0.10982096,-0.074632496,-0.08752007,-0.08674872,-0.031576727,-0.1032948,-0.21331717,-0.006981424,0.042227678,0.028725581,-0.052251484,-0.0314789,-0.055965856,-0.078542136,-0.06378259,-0.067942604,-0.19868283,-0.101500034,0.0736447,0.04755854,0.09945024,0.007922066,-0.028662601,-0.039902415,0.01149361,-0.030089714,0.024003455,0.124998815,-0.0691166,-0.11721615,0.08156925,0.044641107,0.13189451,0.047013517,0.04533897,0.09598013,0.09590344,0.06392398,0.19566062,0.121647194,0.031216918,-0.056598604,0.14470421,0.095956706,0.14557157,0.010931246,-0.022947272,-0.15648767,-0.05454281,0.03333129,0.00817398,0.46734288,1.2057995,-1.1725253,-1.8185835,-0.77199334,-1.6702644,-2.158512,-2.14841,-1.9790955,1.3688383,0.4920517,1.4014639,-1.8615663,-1.3736602,-1.7273968,-0.9309021,-1.7565308,-1.4134363,-1.2471162,-1.9129306,-0.36360127,1.4288371,-1.9000905,-1.0509566,-1.1989342,-1.294985,-1.0290583,-1.757388,-1.8474056,-1.5537561,-1.2288299,-0.9674934,-0.938496,-0.77640456,-1.3506767,-0.8276038,-0.9170029,-1.0667543,-0.6264318,-0.9939696,-1.3144137,-1.1751477,-1.2160062,-0.88987505,-0.7217431,-1.3032371,-0.9668769,-0.72698134,-0.820071,-0.6743762,-0.47596014,-0.760806,-0.46556392,-0.9632656,-0.75853336,-0.43702954,-0.6595547,-0.9948099,-0.55797386,-0.6933823,-0.650854,-0.76021415,-0.60808045,-0.8828457,-0.9700575,-0.43038562,0.23827124,0.16090985,-0.2860474,-0.22615227,-0.5975116,-0.51185054,-0.7046726,-0.8814433,-0.5724406,-0.46153796,0.111026034,0.6397553,0.55877066,0.0029545033,-0.62235653,-0.7801214,-0.61552703,-0.4316907,-0.56117153,-0.5076128,-0.43599182,1.3147929,3.2116964,0.68395543,0.561571,-0.24670413,-0.5918402,-0.6591594,-0.31188345,-0.4012012,-0.2311556,-0.0022083756,1.3675618,1.9893203,3.012085,0.9921722,0.48653826,-0.19440316,-0.2852525,-0.29179427,-0.47770205,-0.36400014,0.20692754,1.5046566,0.7078432,1.8192277,1.6164454,0.15498717,0.67248887,-0.22129942,-0.2477755,-1.6307787,-1.0313233,1.5531912,0.44324178,-4.4233065,-0.0036473994,0.5384766,0.60048014,0.4283012,0.12248415,0.1582942,0.13016501,0.08777572,0.13690174,0.29236692,0.016211353,0.11100406,0.40012234,0.42444673,0.21119167,0.12875451,0.016206978,0.058493696,0.015423312,0.069179,0.14203785,0.063126594,0.09351448,0.11983348,0.34812236,0.090137355,0.13189733,0.033622537,0.08425916,0.09519974,0.17200047,0.15746467,0.13627072,0.06062854,0.072924785,0.17477335,0.106726624,0.21403727,0.07155069,0.15483539,0.037044164,0.034649886,-0.012230777,0.09109856,-0.00691386,-0.046457835,0.10448137,0.128817,0.13488652,0.18872227,0.04762797,0.14262852,0.019254701,0.0015787547,-0.10257615,0.05231804,-0.019579269,0.039986134,0.012785933,0.141326,-0.04682552,0.09034249,0.03951854,0.054825623,-0.054730844,-0.24498388,-0.0034868687,-0.1362022,-0.09598239,-0.023244932,0.04213445,0.11225546,0.028933153,0.03348149,-0.05045184,-0.09257813,-0.080859184,-0.034287807,0.09766675,-0.041791424,-0.0181476,-0.018598221,0.016930925,-0.012176566,0.030386373,-0.008703862,0.022876045,-0.1387981,0.13094482,0.094504714,-0.019644238,0.025122724,0.039731964,0.06265767,0.0045877676,0.04972253,0.028777136,-0.056005254,-0.08882201,-0.08195695,0.23076722,-0.034977034,0.108127095,0.08476762,0.055963352,0.06811465,-0.0071687973,0.2041304,0.01305912,-0.1549088,0.045933984,-0.32610634,-0.028337775,-0.00016555356,0.16283071,0.16453674,0.08449575,0.16872287,0.103052184,0.2026153,0.031748824,0.028868195,-0.19276178,-0.287332,-0.10678179,-0.033359766,-0.07886557,-0.010340888,-0.10159814,-0.2653233,0.074189335,0.035273246,0.07159176,0.07462239,-0.02741322,0.022540702,-0.13106161,-0.01547461,-0.0947625,-0.042621568,-0.008836565,0.023032637,0.25722024,0.19697961,0.114553854,0.105338536,0.024424141,0.10258515,-0.08989433,0.031330116,0.039001316,0.21110287,0.21672963,0.2035434,0.059002455,0.05377596,0.11859481,-0.0076362225,0.15848997,-0.019819815,0.044765554,0.06453989,0.009951101,0.13400285,0.02106503,-0.042668063,0.030144418,0.043610863,-0.06476764,-0.024889164,-0.0299257,-0.02324563,0.0050704908,-0.014344552,-0.009946197,0.09226425,-0.07575771,0.0020877863,0.06909613,-0.033429507,-0.055032272,-0.041785456,0.033236925,0.027858872,0.0876282,0.018558113,0.022284789,0.039246228,-0.011122639,0.016853454,0.0757616,-0.00145117,-0.059524626,0.10649724,-0.026487457,-0.0021276379,-0.035334118,0.02765491,0.049629636,-0.06101986,0.11788369,-0.024067892,-0.026366677,0.15103312,0.07565706,-0.04094618,0.07643305,0.07164711,0.28308266,-0.053705864,-0.2220264,0.033510756,-0.043059103,-0.019993328,0.10889239,0.08220344,-0.013529382,0.026025934,0.24982275,0.63174826,-0.16578902,-0.36382446,-0.13186929,-0.026318654,-0.07417904,-0.033008635,0.045593146,-0.11481753,-0.097132646,0.15699615,0.2806885,0.04980323,-0.3626867,-0.20195097,-0.06746922,0.14917757,0.11511575,0.031365037,-0.15851864,-0.52022296,-0.11945964,0.023562493,0.6575671,0.29284927,0.25212935,1.2349705,0.41875684,-0.9558909,-1.7452282,0.07221048,-1.4574347,0.30130932,0.64927876,0.28958806,1.2408272,-0.3743201,-0.17046736,0.69479,0.17184463,0.26260513,0.3208799,1.0085117,1.2741485,0.21557982,-0.7993895,1.1571966,0.18885478,0.4890162,0.46838164,0.25476408,0.56123066,0.47958425,1.1764323,1.5909392,0.97311795,-0.34016693,1.1042794,0.6107699,0.300696,0.55951995,0.38715452,0.34590498,0.93428046,0.40543878,-0.39962336,-0.4834533,-0.43641472,0.91334844,0.35657984,0.41883186,0.5587027,0.39492637,0.6726262,0.45646742,0.96333075,0.31084934,-0.0032693641,-0.30955943,0.43761927,0.44565314,0.21079332,0.33115393,0.37476325,0.38309532,0.7386586,0.24604033,-0.1564706,0.69099706,-0.3167141,-0.17671776,0.35579658,0.44721648,0.46113375,0.5265682,0.58368474,0.6027548,0.50432163,0.1738471,0.29398635,-2.3795757,0.5348016,0.32619187,0.20196985,0.34554937,0.53893316,0.44393453,0.45127785,0.11478791,0.51753557,0.21284163,-3.2277465,0.9553503,-0.21285982,0.09779166,-0.0017776298,0.74395853,0.38967466,0.5932652,0.51072645,1.683725,-0.06313017,0.33627304,0.027922023,0.8047843,0.54561275,0.33550826,0.27339798,0.043440897,0.2980347,-0.15164234,-1.0357386,0.19547239,0.6941676,0.3084536,0.07119727,-2.295523,-0.50537324,-2.1132963,-2.2427394,-1.2745085,-3.283787,0.23842618,0.7136641,-1.8832544,0.0034318157,0.37202922,0.1183685,-0.11311845,-0.07067755,0.11228623,-0.039408796,0.23660135,0.09340582,0.1010385,0.049074437,0.29281762,0.37731007,0.15466926,-0.14836602,0.026493095,-0.019213235,-0.020794353,0.010583242,0.019567702,0.10529302,0.17537247,0.1968808,0.1935603,0.1331821,0.106897496,-0.086259246,-0.015897382,-0.021064619,0.066273674,0.13437757,0.16896175,0.07807611,-0.008214839,0.1364673,0.1704196,0.095259726,0.11836528,0.05695248,0.194345,0.1106163,0.1074669,-0.09733161,0.15727848,0.05456022,-0.003424717,0.035720155,0.031443223,0.18531732,0.121442534,0.102874145,0.09846755,0.12277824,0.076108724,-0.1330097,0.04545886,0.053289484,-0.035127103,0.06744858,0.16763704,-0.0011905818,0.3527778,0.209798,0.08565068,0.09694567,-0.22587612,0.003984266,-0.11934923,-0.013659258,0.07309421,0.12138273,0.10638364,0.09115316,0.13711575,-0.03976045,-0.034143966,-0.16829847,0.030157242,0.08407572,0.08103361,0.10147924,0.122307174,0.16703635,0.09851712,0.107386485,0.1214903,-0.13952294,0.014257697,0.27191275,0.19618191,0.05104576,-0.0069268635,0.059989467,0.08742042,0.08349001,0.13809843,0.08043585,0.21517155,0.19676627,0.5163569,0.09382764,0.21728063,-0.20948794,-0.048336804,0.1307315,0.01739603,0.016083078,0.17457235,0.22463031,0.59947425,0.03937119,0.3623029,-0.027082745,0.044121724,0.041071817,-0.043269604,0.02266226,0.12437249,0.16312881,0.45062718,-0.013247508,-0.04291147,0.10810365,-0.113958366,0.032715123,-0.07686959,0.0028498566,0.18664333,0.2809915,0.24013732,0.025249008,0.039663352,0.011323419,0.21244578,0.12902579,0.12522563,-0.01594337,0.15576637,0.28843975,0.37937978,0.46823287,0.579754,0.5596409,0.20011082,0.28756136,-0.0024325408,0.17851569,0.24413554,0.3298091,0.24432135,0.14999613,0.258808,0.4148121,0.5413975,0.3149979,0.29339045,0.20768037,0.2473186,0.2676069,0.30175638,0.42049983,0.29359946,0.42127404,0.32962084,0.40952718,0.19375592,0.21595803,0.24728036,0.16097748,0.26347762,0.13103661,0.30185288,0.26404136,0.36470556,0.30338264,0.3750058,0.25959855,0.25484315,0.29950747,0.19655353,0.14560331,-0.024939017,0.1447069,0.32148045,0.4059668,0.30855304,0.36946753,0.320439,0.34387806,0.3446863,0.3566539,0.27448267,0.21342863,0.28863293,0.2923248,0.1472811,0.25441712,0.3724378,0.06488887,-0.010077836,0.082209505,0.3149762,0.1952319,0.3377129,0.22706676,0.2608617,0.19849493,0.3293796,0.44717732,0.033944342,0.22123133,0.059523698,0.2481477,0.16345909,0.23828691,0.28030753,0.25213894,0.5724015,0.5083914,0.7713801,0.17826828,0.07278595,0.48833555,0.16464858,0.22271198,0.2671145,0.12605295,0.4242914,0.4134561,0.9781864,0.86073375,-0.03468892,0.39756513,0.5021488,0.23686162,0.114067145,0.12581287,0.1341604,-0.14346945,0.110289164,-0.08338883,-0.043063834,0.7610524,0.13878593,0.3775714,-0.43808264,-0.22297162,-0.33211485,0.5513875,0.2805066,0.7327023,0.09572865,0.735961,0.09873436,-1.33855,0.20922087,0.328243,-0.73008734,-0.4513448,-0.27125844,0.6597588,0.79027873,-1.6873196,0.03138361,0.4516805,0.5310945,0.7089732,-0.026898235,0.2986783,0.5131431,0.5871936,0.59946984,0.602341,0.4635059,0.49473816,0.54958326,0.4298899,0.5730043,0.42956057,0.2509772,0.53436315,0.47771752,0.53553116,0.3638367,0.4267089,-0.75569314,-0.46958655,0.16679943,0.42863366,0.5745055,0.47963774,0.41700798,0.5120306,0.5151736,0.5525217,0.55864525,-0.46563482,-0.4193538,-0.13661914,0.5194345,0.4841119,0.6022205,0.4033603,0.50512207,0.45931187,0.6332186,0.3493109,-0.072346285,-0.73955643,0.105313614,0.35413185,0.5126545,0.5184276,0.49890542,0.6188139,0.51063037,0.47180116,0.19977657,-0.44872484,0.4524108,0.44072473,0.37787113,0.39498758,0.5929312,0.3771865,0.55534387,0.46492544,0.7227909,0.26740852,-0.82250893,0.7673824,-1.5993767,0.7317929,0.6043238,0.5901308,0.60037285,0.66681445,0.76376224,0.7593224,0.3886139,0.9714754,0.14348191,0.8080745,0.25396046,0.09543182,0.20316467,0.19202392,-0.057230756,0.4654442,-0.18654047,0.13671307,0.074998505,0.67299175,0.12090222,0.701228,-0.5632673,-0.73591846,-0.08338153,-0.7419965,-1.002934,0.42924976,0.028809559,0.712996,-1.5823766,-0.025440022,-2.792683,0.016967865,0.013618051,0.007835774,-0.015817044,-0.09144956,-0.19193915,-0.14477329,-1.7643162,0.018914653,-0.056609526,-0.1082315,-0.07136806,-0.009505505,-0.03569846,-0.055230875,-0.05112499,-0.12659423,-0.6874609,-1.3810618,-0.672291,-0.056537766,-0.025904983,0.034573328,0.0050593307,-0.0061436575,-0.05195769,-0.051572945,-0.031553034,-0.08554232,-0.30167082,-0.079431996,-0.04448216,-0.04389798,-0.026060713,-0.024576582,-0.04684864,-0.038637355,0.021286389,0.0015193166,0.014979245,-0.10824495,-0.07426324,-0.057297356,-0.004221959,-0.0044241976,-0.014214312,-0.012028477,-0.03922035,-0.124288656,-0.02946096,-0.015538506,-0.075373694,0.004340273,-0.059992842,-0.023636581,-0.05907519,-0.022738848,-0.05726768,-0.048352282,-0.0687304,0.0022841203,-0.016646072,-0.037417907,0.0031187157,-0.04581088,-0.0725954,-0.057069432,-0.03296736,-0.03683123,-0.06985808,-0.091523066,-0.021239312,-0.04775943,-0.02999094,-0.06499941,-0.02495739,-0.048766512,-0.015863612,0.01187355,-0.08314705,-0.04616287,-0.053458694,-0.047438286,-0.05419735,-0.07221438,-0.0828165,0.030402863,0.035469957,0.04506115,-0.04997881,-0.0221536,-0.038430206,-0.014086595,-0.03917168,-0.029318279,-0.06396883,-0.07888939,-0.010753883,0.07569995,0.058667444,0.029859614,0.011333496,0.0026237522,0.01741289,-0.02117661,-0.020279579,0.02470283,-0.03341016,-0.034407705,0.1408843,0.091556646,0.039705113,0.00922959,0.03384398,0.0010123291,0.07361175,0.05127763,-0.015071392,-0.044182923,0.04885578,-0.89825606,-0.026554972,-0.022293154,-0.0066336817,0.02875395,0.07694013,0.100790545,0.089822724,0.081975274,-0.020401703,0.036463983,0.17545299,0.053027887,0.023797316,0.037616786,0.067204535,0.009008748,0.14475894,0.14441988,0.05175348,0.15401763,0.057057094,0.051104393,0.031593185,0.040734906,0.023339242,-0.047300886,-0.0033653255,0.13286953,0.16417453,0.1565872,0.0068242243,0.020150404,0.021166403,0.030878708,-0.005056898,-0.03731807,0.0020157597,0.016700733,-0.014546503,0.13811661,0.1442706,0.19667955,0.013479972,-0.04496901,-0.01587195,-0.04162888,-0.044338692,0.026185943,-0.007903797,0.027570982,0.05503263,0.08966698,0.09844301,-0.0030764365,-0.007204487,0.042151004,-0.055172175,-0.00894303,0.01781895,0.011318233,0.0048169214,0.014427836,0.06394963,0.118347116,-0.033514623,-0.021140786,5.0675466e-05,0.003966924,-0.015917756,0.02186562,-0.033684514,0.042289898,-0.04048936,0.0952188,0.006558217,-0.023750914,-0.027128147,0.04591129,-0.023860132,-0.032026358,0.007823204,0.0038379491,0.10565196,0.015058747,0.038352214,-0.07754134,0.033589818,0.030183386,0.04620185,0.028644625,-0.037213523,0.023791619,0.0039548813,0.0476394,0.10074808,-0.0026625786,-0.02311852,0.019732103,0.025203252,0.0257706,0.03669953,0.0049194954,-0.0035302052,0.04598706,0.034939855,0.049845923,0.038855255,-0.020867834,-0.043365255,0.06650071,-0.009534324,-0.008569698,0.044340782,0.059995245,-3.0924013e-05,0.04608142,-0.01231957,-0.050956536,-0.03482777,0.40830004,1.2886846,3.049424,0.2629985,0.25625053,0.33074132,0.20666365,0.63155216,3.1914356,1.9554042,0.42809755,1.1889775,1.4884036,0.2640513,0.07934283,0.28374472,0.37621516,0.67423,1.0652982,1.4211305,2.7046905,1.6247485,0.4506378,-0.5289601,-0.07534833,-0.2502971,-0.11361165,0.010199165,0.28426602,0.5435868,0.89181525,1.6143103,1.2845658,0.42020994,0.15333292,0.06850772,-0.38140455,0.034018174,0.043356728,0.21350329,0.2572139,0.33129185,0.71889096,0.5297295,0.13508302,-0.23175244,-0.2006133,-0.48609427,0.07108722,-0.60816276,-0.03423293,0.33192405,0.029665625,0.44722682,0.19270387,-0.046865463,-0.10811208,-0.09640274,-0.16990252,-0.1737424,-0.29787055,-0.33929574,-0.07734763,-0.17561944,0.13862233,0.22938906,0.31794855,-0.07348634,0.012329135,-0.18947087,-0.28179178,-0.09797017,0.09102497,-0.18866074,-0.1297761,0.28726143,0.27821127,0.28059977,-0.41697085,-0.012265276,-0.29137942,-0.14633098,-0.6325373,-0.24402164,-0.43302545,-0.34332377,-0.16795123,0.32772642,0.20452173,-0.068024725,-0.055088617,-0.48443267,0.055815376,-0.2078506,-0.45021325,0.08166869,-0.1716405,0.12162679,0.48610142,1.0679407,-0.9526375,-0.53229713,-0.2775821,-0.088687025,-0.09643031,-0.062227264,-0.11015982,-0.44227844,-0.47116193,1.2224108,0.25467464,0.95123523,-0.19682282,-0.17763925,-0.0071913865,-0.13300602,-0.2316439,-0.24216118,-0.74267095,1.3202686,0.28925276,-3.6002965,0.034500137,0.2369314,0.13616517,0.18843752,0.035008598,-0.09882371,-0.19812532,-0.19858104,-0.29079106,0.11502277,-0.029105004,0.04092102,0.15124315,0.10940791,0.12428758,0.03243025,-0.020475037,-0.21420068,-0.17783545,-0.33092788,-0.3018149,0.13166788,0.13053837,0.08471251,0.06964822,0.08343216,0.062159535,0.059088558,-0.020820023,-0.11802135,-0.16374737,-0.1969533,-0.05579937,0.06750804,0.13867708,0.09614071,0.07105547,0.022165375,0.08022763,-0.025293801,-0.0094861025,-0.07103516,-0.039219424,-0.059516575,0.048420325,0.10776597,-0.034035046,0.01373457,0.017008148,0.004511687,0.045759182,-0.030506069,0.0067702685,0.10686933,0.068377435,-0.068331264,-0.08710655,-0.05989887,-0.023280257,-0.014452459,-0.04442238,0.016990623,0.0032218075,0.018342305,0.13389716,0.16952261,-0.071532756,-0.17898855,-0.16067901,-0.05210705,-0.03253876,0.075242944,0.05300579,0.036096655,0.080343395,0.23142596,0.17380692,-0.11490612,-0.15413454,-0.18045758,-0.052541513,-0.034366257,-0.0077994093,-0.005761021,0.07051515,0.10318261,0.22401865,0.24496725,-0.32848632,-0.3057091,-0.29177752,-0.105082855,-0.039451655,0.024402276,0.13009556,0.09269502,0.17930943,0.18975024,0.18474418,-0.22177315,-0.2882546,-0.21593821,-0.16214266,-0.006569796,0.027948413,0.0676295,0.14840807,0.22937037,0.20564488,0.20327818,-0.03988791,-0.06734653,-0.22106083,-0.015388451,0.00533577,0.03734089,0.09273327,0.08320994,0.14188029,0.1367965,-0.010890732,-0.009116193,-0.0075333137,-0.11760181,-0.0073210606,0.058491003,0.12964635,0.027210308,0.101178065,0.10054851,0.23208816,-0.018877126,-0.047466874,-0.16032392,-0.049263958,-0.06285937,0.07304795,0.11426007,0.05884941,0.035930727,0.07228996,0.10013251,0.17327958,-0.17159374,-0.10417045,-0.07040039,-0.054883003,-0.06101744,-0.03572052,0.003591295,0.08580439,0.055740867,0.19201139,0.14358105,-0.061363343,-0.01551648,0.001356045,-0.040347926,-0.07791339,0.020371148,0.03258259,0.076630056,0.07473369,-0.033212624,0.03769168,-0.03691251,-0.016399104,-0.04362157,-0.030540295,-0.021307373,-0.019786,-0.056148544,-0.08801707,0.054251213,-0.0041110553,0.0967091,0.01539173,-0.05145734,-0.0920146,-0.011707937,-0.05438918,0.052059915,-0.005756207,-0.08283682,-0.09725402,-0.014936225,0.0928117,-0.027878439,-0.061688345,-0.0043356237,0.018579438,-0.030166918,0.04459145,-0.022259213,-0.06310298,-0.014637391,-0.013840383,0.014239198,0.03659892,-0.033051934,-0.040399473,-0.032704093,0.030990383,-0.022960221,0.010902743,-0.07749428,-0.07467312,-0.0862918,-0.058929693,0.11991108,0.09593917,0.0042065657,-0.013376632,0.012409478,-0.04304307,-0.07037427,-0.14246741,-0.14133579,-0.23753975,-0.2672172,-0.008331991,0.05305561,0.12067802,-0.027889112,-0.051986136,0.053673,-0.09229409,-0.04318273,-0.11341734,-0.27286282,-0.33068487,-0.051847443,0.082950756,0.24145682,0.059770804,-0.02194619,0.090100154,0.10279454,0.019557193,-0.14415713,-0.12152744,-0.009402926,0.5635905,1.6595622,-1.4461237,-2.2365823,-1.037274,-0.59287906,0.52023065,1.4766362,1.8212707,1.719204,0.9209888,1.7404634,-2.0101063,-0.84020656,-0.62989336,-1.2539073,-0.5929919,-0.1960165,0.9561366,1.7245603,-0.18886864,1.7507834,-2.6720932,-1.3588499,-2.6389306,-1.1043279,-0.8241077,-0.71004915,-0.41757363,-0.27141798,0.30884528,0.8761742,1.6304486,-1.3772244,-1.0592906,-1.2294396,-1.01423,-0.55108684,-0.9289205,-0.5029753,-0.16102758,0.09220282,0.30344793,1.0116831,-0.8768369,0.5533714,-2.328744,-0.8662205,-0.54633766,-0.80724955,-0.7925749,-0.651732,-0.4393857,-0.25162575,-0.81447834,0.52944255,-0.0005035781,-0.34710914,-0.7288217,-0.8382911,-0.8931722,-0.86629975,-0.7937937,-0.5197508,-1.3738853,-1.646269,1.3423368,1.4643407,-0.013754871,-0.802399,-0.6152532,-0.72320586,-0.60895294,-0.64217746,-0.6567522,-1.023548,-2.6993282,1.1937454,1.6005998,0.056039624,0.0839839,-0.37357786,-0.64869356,-0.71733195,-0.874533,-0.84385455,-1.8057172,-2.7274902,2.160978,1.9868838,0.3509348,0.2621092,-0.42525986,-0.69229615,-0.72624815,-0.9646138,-1.5063673,-2.3138118,-1.5045302,1.6965902,1.707277,1.9073949,0.84185857,0.21867524,-0.15856606,-0.81745535,-1.0707403,-1.4671024,-1.2653463,1.7201784,0.763889,1.6849931,1.7199394,1.3359133,0.24997294,-0.1530747,-0.7594718,-1.6083832,-1.6503162,1.6704844,0.7083102,-3.8963094,0.01313797,0.103249274,-0.31570053,-0.25905725,-0.08064658,-0.11930142,-0.08206535,-0.10513661,-0.12130342,0.10877152,0.02235414,-0.008958308,-0.219002,-0.2082634,-0.16818249,-0.11868844,-0.058706004,-0.15572523,-0.12513994,-0.13228709,-0.08346536,-0.12529008,-0.18619677,-0.18625128,-0.17156234,-0.0596444,-0.055024456,-0.05156808,-0.101446144,-0.067475915,-0.055687193,0.02902892,0.08870116,-0.03693253,-0.03778502,-0.011581203,0.010835182,-0.0014732353,-0.025101807,0.013575903,0.030790005,-0.01918207,0.15413392,0.10024107,0.037617575,0.089507766,0.029950093,0.0766124,0.03552748,0.055771843,0.024505634,0.017936224,0.08928619,0.18297474,0.18990725,0.12744029,0.11217252,0.12695514,0.07924401,0.06739655,0.0006312934,0.08660337,0.054831985,0.09855799,0.21767248,0.24614106,0.14795996,0.23104887,0.11839378,0.088096,0.10126128,0.033052213,0.04940395,0.113354154,0.13838913,0.24241434,0.25848728,0.1583694,0.1872038,0.14230576,0.0958889,0.12502609,0.09434127,0.0809163,0.10601832,0.18293048,0.22193913,0.23308884,0.14950547,0.1857662,0.11197164,0.082131945,0.055498917,0.022680147,0.033058498,0.088347524,0.13090914,0.18757278,0.16144268,0.09937012,0.037191436,0.08211294,0.098656036,0.0077073993,0.01111761,0.06369236,0.12645607,0.11874885,0.15790206,0.16186194,0.047593113,0.116938196,0.04097083,0.010365426,-0.014879413,-0.01200928,0.033936877,0.06723904,0.053274427,0.1273197,-0.04055349,0.045413394,0.049410786,0.13277131,0.022372313,-0.02822759,0.037166607,-0.06955302,-0.07870285,-0.06623058,-0.11844748,-0.014141566,-0.010617679,-0.04693485,-0.028115887,-0.019344663,-0.07345682,-0.06964096,-0.06885001,-0.10202834,-0.061936732,-0.07684475,-0.07625975,0.07646813,0.0036617585,-0.0013315532,0.013582837,0.023881119,0.042073723,-0.03812066,-0.036948197,-0.06040443,-0.09057011,0.01099711,-0.028424334,-0.07173999,-0.015684584,-0.04919755,0.009830544,-0.008743581,-0.03072605,-0.019616937,-0.04760047,-0.04724932,-0.0014931565,-0.05034405,-0.07203818,-0.034866344,-0.005515293,-0.020597659,-0.111564025,-0.07571698,-0.08796656,-0.09118821,-0.0162873,-0.06281077,-0.08800493,-0.056517236,-0.113425724,-0.09477079,-0.024947938,-0.039489996,-0.02856127,-0.119687,-0.1290832,-0.098705925,-0.069816336,-0.15124762,-0.07413148,-0.12716566,-0.15094207,-0.064776786,-0.040544014,-0.08343774,-0.10987149,-0.09435005,-0.12337968,-0.070487626,-0.16497661,-0.13285036,-0.0857132,-0.06866901,-0.0763499,-0.09599025,-0.09740411,-0.1431973,-0.13640107,-0.09329355,-0.15934204,-0.20788267,-0.15535513,-0.10821282,-0.123355076,-0.15360507,-0.1028634,-0.098385125,-0.079978295,-0.123691574,-0.119241424,-0.20238213,-0.13506028,-0.14388008,-0.124462515,-0.07867889,-0.087927446,-0.15935779,-0.14578195,-0.09925272,-0.21543919,-0.22451217,-0.08496296,0.0064160866,-0.10104841,-0.10427673,-0.11574079,-0.031792156,-0.08645461,-0.07633492,-0.037434354,-0.19372588,-0.2052828,-0.031068496,1.63763,2.3429265,0.86926705,0.967284,2.2527533,0.9540068,1.1429863,1.2366003,0.8744852,2.3051052,1.7255251,2.315462,1.623113,1.1593238,1.1007242,0.43872592,1.4268291,1.3358203,1.0811346,0.98556435,1.4342115,2.3402464,1.1812443,0.87774336,1.030715,-0.40127912,-0.38591865,-0.8349633,-0.949557,-0.8312064,-0.529293,-0.73749596,-0.03924736,0.2991104,0.4081717,-0.70009464,-0.7923182,-0.94582313,-1.2385212,-1.3410057,-1.0935376,-1.2194481,-0.88291746,-1.67969,-0.3069583,-0.9543835,-1.0095419,-1.8438196,-1.3961802,-1.2623153,-1.2136871,-1.2402161,-1.6262196,-2.4143195,-2.4755251,-1.3515556,-1.3648303,-2.0929358,-1.9988776,-2.1177056,-1.5240661,-1.5261041,-1.6448141,-1.93541,-2.544746,-2.9730687,-2.0543723,-2.009499,-1.7847414,-1.3730865,-2.0902061,-1.3294744,-1.8500084,-1.8684987,-1.4884909,-1.8032664,-2.7942445,-2.185336,-1.7955464,-1.7022433,-1.3850079,-1.5277349,-1.3786695,-1.5970328,-1.3115622,-2.0189254,-2.7573998,-2.2068021,-2.11991,-1.4246231,-1.7572416,-2.109332,-1.3988719,-2.2279894,-1.4605594,-2.2575321,-2.230621,-1.6496127,-2.2536712,2.203456,-1.3673726,-1.8333195,-1.2198954,-1.4001808,-1.0925831,-1.2572212,-1.0154532,-1.3396794,-3.0105634,2.3053224,1.6174074,2.276854,-0.39738727,-0.82247853,0.38547364,-0.42393392,-1.0225638,-2.2675347,-1.0704103,2.3166032,1.6786317,-3.8839993,0.0006036886,-0.10679908,-0.09484097,-0.19132394,0.052369893,-0.009235434,-0.0993596,-0.016718447,-0.039551746,0.27989924,0.044392675,-0.0067427685,0.16099684,0.13020602,-0.065281674,-0.033672728,0.031006942,-0.046946216,-0.015229613,0.12280398,0.08716064,-0.344138,0.14339109,0.037904385,0.005935795,-0.079262696,0.031279285,0.08406563,0.042682394,0.0043001315,-0.04953193,-0.07452596,0.07564864,0.032932572,0.005482096,-0.08770626,0.17227204,0.11884411,0.08624903,0.0066601364,0.106472224,0.12505224,0.23724158,-0.05295107,0.1519451,0.055737432,0.16989228,0.11510375,0.12890463,0.05695272,0.15310937,0.086176574,0.030157918,0.04872095,0.113871016,0.18926242,0.08549606,0.06361483,0.058069024,0.17405665,-0.03428953,0.05587169,0.0067316024,0.06437845,0.14989538,-0.13264169,0.14171009,0.04670276,0.12270242,0.16305903,0.08857807,0.039903563,0.08010156,0.034344126,0.04793284,0.022812428,0.0617064,0.11138806,0.12770289,0.14070441,0.11992071,0.16812329,0.20329766,0.18453091,0.054305036,0.048838556,0.1836619,0.02718094,0.33333498,0.16034687,0.23445049,0.1613965,0.21908407,0.23459665,0.07604253,-0.058245044,-0.074689895,0.08590012,0.045226425,0.3412949,0.41212353,0.3171784,0.43375266,0.3335929,0.09576482,0.12599957,0.03860453,-0.013480908,0.021540109,-0.09624903,0.015218348,0.015359978,0.4625609,0.24971792,0.22759368,0.2981326,0.05154814,0.03104276,-0.12249039,0.031978954,-0.039879348,0.024687443,0.16514193,-0.04341846,0.20291021,0.23636103,0.105588526,-0.007168237,0.0030281353,-0.019477941,-0.029657047,0.03798452,9.412161e-05,-0.17204972,-0.066197574,0.11756071,0.23536417,0.2861541,0.08063947,0.017211765,0.010831471,-0.098845474,-0.120602556,0.052290853,0.035625115,0.19677475,0.24198127,0.3272816,0.31892517,0.12183615,0.28350508,0.18435733,0.17427209,0.18765646,0.22849324,0.19032383,0.2666185,0.23019135,0.23789641,0.19885744,0.290131,0.3133153,0.29713154,0.14697598,0.19375606,0.27814984,0.31290016,0.21923546,0.19029056,0.2661132,0.18916205,0.22119752,0.41210902,0.30102563,0.34380776,0.23131333,0.22530122,0.22125429,0.07452496,0.26845682,0.08914391,0.038675163,0.041168634,0.14992715,0.0933098,0.30981594,0.20147662,0.2768343,0.27053624,0.33381563,0.3200581,0.23558736,0.28390193,0.26113,0.26463723,0.23199458,0.395385,0.345205,0.2735716,0.2852511,0.22022347,0.1834131,0.25251403,0.22784665,0.1304469,0.3780293,0.16277622,0.15629575,0.13189673,0.17765312,0.23466587,0.22452432,0.122201644,0.106991686,0.052584574,0.0706442,0.24625681,-0.06482186,-0.15379415,-0.16891517,0.06235284,0.07800001,0.18123414,0.18452182,0.17673324,0.23364465,0.23362081,0.055924617,0.14656195,-0.487701,-0.26332688,0.0053215846,0.070875555,0.20868163,0.23943491,0.34783122,0.45867604,0.27896634,0.439631,0.36158183,0.22134046,0.046502627,0.71355784,0.10600936,0.5859425,0.17280906,0.1362907,0.12791573,-0.26405367,-0.13432981,0.6731662,0.098026745,0.7725923,0.10411754,-0.5231348,-0.054850638,0.38947022,-0.03522145,-0.46235335,-0.012463785,-0.20625986,0.046128597,-0.3687316,0.04209182,-0.39342397,-0.44133785,-0.33513033,0.7377317,0.5095815,0.3023703,0.24335319,0.5745139,0.32834807,-0.15195769,-0.80438924,0.72043425,-0.11905557,0.4294573,0.5237419,0.6424877,0.51483595,0.5799561,0.62470543,0.357343,0.290187,0.7535762,0.0015178316,0.46715966,0.42513216,0.50708765,0.5908544,0.57112485,0.65126246,0.8155038,0.39986557,0.35914963,-0.30219334,0.49151054,-0.2802332,0.11903809,0.443815,0.68067783,0.44019106,0.65043956,0.6615658,0.55228955,0.23722848,-0.05692583,0.72663,0.50306654,0.43707672,0.45167,0.5562518,0.5174437,0.6768356,0.7221796,0.7196022,-0.12345924,-0.16313334,0.97688365,0.6537766,0.20471007,0.36959952,0.5624874,0.52908516,0.6975673,0.6099515,0.63273084,-0.011595149,0.77797645,0.60546887,0.3875571,0.46727163,0.5652402,0.6552931,0.5256904,0.6794096,-0.27243373,-0.6950076,-1.0752835,-0.6785493,0.10357174,0.45052397,0.54050195,0.2848489,0.3665234,0.3472928,0.20789468,-0.26485667,-0.79465306,-1.1949375,0.02628705,0.70260376,0.10353068,0.55976564,0.96247864,0.58636284,0.15187795,0.4001364,-0.53918034,-0.8938421,-0.016578618,0.7349592,-1.6534998,-0.02581333,-0.36063063,-0.14876053,-0.07183161,-0.08725129,-0.082713805,-0.07960984,-0.02645423,-0.003382973,0.14153968,0.0025988282,-0.41779834,-0.68747234,-0.10790144,-0.056581978,-0.05600337,-0.100543365,0.03290477,0.009698488,0.08065059,0.06399276,-0.010805114,-0.49223876,-0.42422086,-0.20908111,-0.14985594,-0.12220996,-0.12988842,-0.111806385,-0.09836933,-0.08326559,0.0037353393,-0.061533418,-0.2776417,-0.33963302,-0.13135958,-0.14970694,-0.08846789,-0.056913905,-0.1274757,-0.10220685,-0.085391626,-0.031242719,-0.06347283,-0.22267306,-0.18743388,-0.15627725,-0.14936313,-0.10344681,-0.037266996,-0.104413055,-0.10869849,-0.09668586,-0.022785505,-0.10940655,-0.18313119,-0.11623504,-0.1313855,-0.11283009,-0.00163034,-0.0038475627,-0.045139767,-0.18025665,-0.14088619,-0.106171265,-0.09840045,-0.15856577,-0.1691728,-0.10100692,-0.12727182,-0.1505985,-0.045436334,-0.08551934,-0.06916776,-0.094364874,-0.07285451,-0.039281175,-0.15108919,-0.10687809,-0.12958899,-0.15132785,-0.08612943,-0.13471404,-0.11088499,-0.13291833,-0.10541566,0.060337823,-0.08913812,-0.17541869,-0.16711533,-0.16254072,-0.10733,-0.057315618,-0.060349356,0.028902123,0.010956012,-0.025544094,-0.03317098,-0.019701647,-0.16274881,-0.24011655,-0.16917609,-0.119781375,-0.0013590117,-0.0061730845,0.0154100945,0.07687973,0.096716724,0.05629317,0.010570264,0.01645951,-0.5116128,-0.19442412,-0.14699697,-0.09208895,-0.08717472,-0.032702897,0.0149706565,0.029909097,0.055008136,0.03615126,-0.011247357,0.15337642,0.23466398,0.18298304,0.13517013,0.16475868,0.15748915,0.116846316,0.026909381,0.014478813,0.0015761685,0.16303398,0.15211041,0.23455042,0.2122759,0.12552178,0.11306239,0.15247415,0.11682009,0.052186467,0.06638856,-0.034700926,0.27189434,0.25050595,0.11800597,0.04007696,0.14948337,0.067492016,0.06505537,0.08867128,0.09064338,-0.039338384,0.077446505,0.14663333,0.14594896,0.13681863,0.13660508,0.10200241,0.03491988,0.05986244,0.09814075,0.06450406,0.05235789,0.03803816,0.12069727,0.19527651,0.1499773,0.048917722,0.034178168,0.037264347,0.060448878,0.046909563,0.03554835,0.061917644,0.09543016,0.11625331,0.1866943,0.115494445,0.079377264,0.058864065,-0.04777541,0.09119915,0.109411925,0.061841577,0.069173634,0.16526227,0.15257683,0.13630152,0.10567673,0.11818832,0.109903954,0.11685685,0.12507278,0.05461564,0.027101394,0.009825611,0.03853269,0.11776802,0.13786043,0.13367884,0.03255574,0.07406025,0.083289064,0.07391607,0.04510305,0.055095825,0.039957963,-0.0064493213,0.13480084,0.15010764,0.11052917,0.07445186,0.082676314,0.15524063,0.020562768,0.13974012,0.014002014,-0.09882391,-0.08929203,0.011005257,0.106226176,0.15952511,0.020810438,0.04235661,-0.0057471553,-0.009198207,0.034221187,-0.0030596564,-0.1087681,-0.09827122,-0.0012032783,0.09505802,0.18882746,0.0649716,0.08968908,0.10638371,0.088113055,0.109135926,0.04814871,0.13254975,-0.041920077,-0.0997441,0.46442878,-2.0337248,-0.19252636,-0.22181804,-0.44845787,-0.5496995,-0.789583,-1.051575,0.035385665,-0.12074368,0.71537954,1.2216827,1.1006116,0.21744047,-0.8114283,-0.8743146,-1.0607313,-0.94772923,-1.218863,-1.6805832,-0.029753836,1.6590627,1.8186525,-0.045210842,-0.48534206,-0.9574282,-1.0585228,-0.90411204,-0.9118227,-0.65411043,-2.2667875,-0.24913809,1.6416044,0.20544094,-0.23387954,-0.17630073,-0.5258039,-1.2469255,-0.6315192,-0.63692105,-0.96047544,-0.5701355,-0.47228003,1.0574503,-0.018788107,-0.44869852,-0.68147224,-1.001214,-1.1257607,-1.3745673,-0.9758315,-0.88015217,-0.61772215,-0.21720372,-0.46317896,-0.5203761,-0.73520076,-0.6177954,-0.9051082,-1.0243628,-0.9202085,-1.1458765,-0.9376783,-0.69294924,-0.6453399,-0.08263419,-0.7286035,-0.55404496,-0.70433706,-0.7133434,-1.027429,-0.7786397,-1.5680101,-0.8727307,-0.5493617,-0.5453521,-0.2237613,-0.5615851,-0.5996755,-0.77747333,-1.5112361,-1.0843126,-0.88288873,-1.1732656,-0.80687296,-0.98949534,-1.1135024,0.037485864,1.1434059,-0.5274734,-0.7960852,-0.7929568,-1.242429,-0.933379,-0.82797164,-0.5863774,-0.81495166,-0.7283461,0.28128412,1.6797959,0.41221264,0.06523826,-0.1141109,-0.7355778,-1.020086,-1.1999753,-0.9256479,-0.6707771,0.14864554,-0.11392432,0.26055974,0.6782592,0.19163106,-0.29897732,-0.47176474,-0.47164243,-1.0462942,-1.454228,-0.013949468,-0.17003348,1.6602523,0.051130354,0.15032077,0.38023305,0.26325563,0.21938445,-0.026567906,-0.10187247,0.06749074,0.24553955,0.47406003,0.03555697,0.42850727,0.48434544,0.34860656,0.25243974,0.10173222,-0.015505599,-0.022647243,0.048130516,0.50719094,0.3349123,0.43845984,0.048599135,0.11967839,0.1716379,0.13959657,0.09829526,0.08955721,0.1676654,0.048036315,0.07471026,0.2822414,0.42849872,0.07700719,0.056027103,0.06927183,0.05023167,-0.04762066,0.048832797,0.08895654,0.083039954,0.07063258,0.16728385,0.11079611,0.085630186,0.106838115,0.07417505,0.021246413,0.10069146,0.030413117,-0.10786285,0.22769818,0.061242454,0.1867793,0.2553233,0.03547343,0.062453605,-0.0038260513,-0.16882843,0.081011966,0.028697854,-0.00384684,-0.10284266,0.052955694,0.02664564,-0.0018603329,0.17190704,0.32034317,0.0346946,-0.057584208,0.044297483,-0.17864782,0.015851855,-0.05069476,0.08722125,0.29782814,0.40853277,0.29103777,0.68447536,0.20509696,0.18057188,0.04065828,0.085103594,0.00046014134,0.07011331,0.17660974,0.15516454,0.6040911,0.65688807,0.842868,0.33351636,0.084091514,0.11685849,-0.045036204,0.115329854,-0.07779192,0.29505634,0.42742392,0.27797833,0.70081156,0.25143602,0.23185046,0.24747223,0.09142938,-0.057140667,0.013740834,0.2737213,0.41581792,0.2093216,0.33328888,-0.012782969,0.3434207,0.39955738,0.24842581,0.18991122,0.12704472,0.12702349,0.19529563,0.2591466,0.3009648,0.0084829,-0.046578027,0.19149658,0.15761338,0.017612893,0.25947344,0.15549135,0.18897812,0.03145894,-0.15711884,-0.123895764,-0.039040625,0.016791528,0.14077175,0.008383458,0.10022274,0.12303532,0.10740136,-0.05366257,-0.03159972,-0.044502426,-0.27700743,0.08832257,0.1203093,0.065790914,-0.03195122,-0.1468967,0.025612254,0.02130649,-0.12827156,-0.17209695,-0.2473773,-0.03357604,-0.3619356,0.036922075,0.071663834,0.08370892,-0.088880174,0.075775005,0.02059294,-0.05311149,-0.13665448,-0.053867538,0.11957296,0.04502807,0.040519565,0.17094824,0.14163351,-0.006176834,0.10327904,-0.009102348,-0.058110386,-0.048931655,0.004482755,-0.16094206,-0.054966643,0.0137378285,0.14911239,0.020913292,-0.06185319,0.05189113,-0.007605244,-0.11239355,-0.013794397,-0.02007988,-0.010976535,0.027715992,-0.001231546,0.034332745,0.009068506,-0.073277384,0.026787087,0.16982462,-0.12530552,-0.116307914,-0.21921773,-0.15798697,-0.07042228,-0.030863192,0.026574373,-0.14665511,-0.013277922,0.07945428,-0.014089117,-0.19768655,-0.086333945,-0.078811556,0.16671133,0.12444384,0.044060707,0.33046025,0.0151715735,-0.10356867,0.0022565029,-0.06295398,0.0035564501,-0.03589092,-0.030140094,0.11954095,0.09254597,0.5233808,0.29186976,-0.004225311,0.05162843,-0.051808834,-0.06122394,-0.182501,0.15225051,-0.24694954,0.6162713,0.43752366,-0.038400773,0.9816001,0.2108322,0.044834945,0.024943147,0.24436383,-0.08188562,0.021745551,-0.2277604,0.18407676,0.03783236,-1.3810322,-1.3613899,0.27236474,0.12665536,1.351223,0.20720994,0.78282726,0.370379,0.7923875,-1.3340819,-1.2723926,-1.3112895,-0.023039268,0.020436443,-0.49209768,-0.6886355,-0.45143133,-0.2974002,-0.045529656,-0.52834046,-0.40368724,-1.3176692,0.14443243,0.75086004,0.114683196,-0.5689249,-0.6653768,-0.58853054,-0.7174661,-0.97149473,-0.5866391,-0.58584434,-0.71355873,0.6380099,-0.0743007,-0.23391137,-0.5447236,-0.6337516,-0.6657499,-0.79348224,-0.61163044,-0.9693157,-0.5820554,-0.23885489,0.22668819,-0.16198602,-0.47109243,-0.5031547,-0.7069994,-0.55222875,-0.6274108,-0.6869011,-0.8636876,-0.6061875,-0.30827525,0.10265254,-0.06745724,-0.700612,-0.51688194,-0.48812217,-0.739601,-0.5977223,-0.59363943,-0.78046477,-0.747843,-0.61365753,-0.07802961,-0.14447893,-0.4133719,-0.5221152,-0.5562781,-0.68292195,-0.61509997,-0.54885644,-0.9083593,-0.9096105,-0.9352368,0.11320306,-0.047421087,-0.2952836,-0.54979867,-0.72285384,-0.65117276,-0.48688394,-0.53151375,-0.7030177,-0.5852063,-0.053285297,-0.16844472,0.1715129,-0.042744894,-0.3122755,-0.5127721,-0.5532878,-0.55270946,-0.26456386,-0.74257773,-0.25967333,-0.88086325,-1.1895398,3.298756,0.117690936,-0.2321066,-0.3298414,-0.044186566,-0.32815865,-0.7532447,-0.7840528,-1.2883762,-1.2737226,-1.2042629,-1.2705051,0.60045165,0.3807098,-0.041877475,0.75914687,-0.06087536,0.011535276,-0.10819087,-1.2929151,-1.3348602,-11.485357,-0.027471501,-0.14981109,0.045137126,0.22132422,0.17736813,0.09494612,0.09434201,0.11560381,0.014394392,-0.29380086,-0.03261839,-0.039851908,-0.20087779,0.024757972,0.08732658,0.13541748,0.016850272,0.06548609,0.0066586393,0.059278928,-0.2535856,-0.28647193,-0.32951933,-0.37483987,-0.08217036,-0.016354972,0.01069063,-0.06886214,0.029167537,-0.01410776,-0.08917169,-0.29394814,-0.47754937,-0.14134714,-0.3387337,-0.1375629,-0.10744996,0.008923527,-0.035916172,0.00337023,-0.062411577,-0.058110505,-0.22146271,-0.40126383,-0.122460656,-0.2529878,-0.1594741,-0.09102992,-0.04202055,-0.01020616,-0.053165168,-0.05098594,-0.095386684,-0.19579163,-0.35346106,-0.122214384,-0.18354177,-0.13634801,-0.06705858,-0.13555093,-0.04077537,-0.02993753,-0.10977337,-0.07620115,-0.12536007,-0.34282228,-0.09263963,-0.087105975,-0.102650955,-0.003457542,-0.09525761,-0.06313957,-0.024337571,-0.023939949,-0.035821885,-0.15703939,-0.3571739,-0.0015190222,-0.01751226,-0.02550986,-0.019132165,0.03284344,-0.050544854,-0.050416183,-0.06600388,-0.05707932,-0.25978544,-0.27732512,0.03772672,0.010842055,0.016902614,0.028916944,0.12458523,0.020372735,-0.005194842,-0.055719364,-0.11808222,-0.20582376,-0.3473783,0.049028702,-0.014077863,0.099775776,0.024650663,0.050663278,0.07736958,0.055212054,0.10714657,0.024995947,-0.08571086,-0.0181815,0.014568935,0.16513549,0.09917981,0.09150884,0.10996463,0.09680505,0.13845198,0.06939969,0.10341135,-0.09413331,-0.02659527,-0.0130054755,-0.15536918,-0.013803313,0.044889823,-0.10463083,-0.10855906,-0.047359534,-0.062015846,0.009393543,-0.13231051,0.008385608,-0.20520146,-0.034588628,-0.007240268,0.06324067,0.02451179,-0.114464656,-0.033511393,-0.091044925,-0.028070249,-0.017584909,-0.08442334,-0.10846529,-0.046089318,0.009285329,-0.07038773,-0.121089354,-0.22116356,-0.15175363,-0.03430361,-0.14868097,-0.053497754,-0.2136537,-0.13663276,-0.10002911,-0.044030134,-0.06503046,-0.22034259,-0.1251606,-0.1571615,-0.14578931,-0.09960265,-0.23329908,-0.20761123,-0.22608343,-0.24153353,-0.11000206,-0.15516242,-0.16909404,-0.121895924,-0.123253874,-0.048399247,-0.13387026,-0.13182484,-0.111856945,-0.15264583,-0.19696422,-0.13993002,-0.12614307,-0.12061076,0.049805474,-0.13116558,-0.058138505,-0.1675993,-0.24408197,-0.10141683,-0.18027447,-0.15328676,-0.20890929,-0.17501567,-0.18767259,-0.16137141,-0.14644764,-0.10798836,-0.1980908,-0.19098757,-0.16148652,-0.17617233,-0.19051996,-0.1990019,-0.103344336,-0.16196081,-0.17220289,-0.1457203,-0.21700768,-0.081505276,-0.14097573,-0.3245055,-0.22925551,-0.22148754,-0.22886083,-0.13631955,-0.11941652,-0.121253885,-0.16197155,-0.16646032,-0.032297157,-0.11792967,-0.32724342,-0.16412252,-0.19821674,-0.15302892,-0.16374443,-0.086079046,-0.17899491,-0.12868845,-0.09099827,-0.042637378,-0.025969567,-0.01535494,-0.01221622,-0.14956506,-0.31178597,-0.27398783,-0.1972314,-0.22198385,-0.13558395,-0.13082726,-0.028455643,0.06671439,0.012246786,-0.17437355,1.2181896,-2.257018,-2.2866142,-2.363146,-2.150795,-1.810508,-1.1153126,-1.2773699,1.307092,-0.15122122,1.1818976,0.84070235,-1.3817223,-1.6529981,-1.452683,-1.3030198,-0.84746104,-0.8732183,-0.79796135,0.86272055,1.3142036,0.00555212,0.09210749,-0.5015525,-0.8607231,-0.99565154,-0.7125533,-0.8250066,-0.89470553,-0.7526149,0.16794711,0.93733615,0.5883864,0.34934548,-0.5340335,-0.6159579,-0.8285766,-0.7765495,-0.53387684,-0.72398055,-0.3659827,-0.031547125,0.96479326,0.0977686,0.2751008,-0.29626074,-0.94300103,-0.9642583,-0.8556849,-0.8897707,-0.8314382,-0.51085573,0.15668656,0.5707452,0.19830391,0.17547432,-0.4316454,-0.9489335,-0.67185974,-0.88825446,-0.57842743,-0.5958179,-0.46633857,0.33244005,0.79260504,-0.4717418,-0.61442584,-0.70400965,-0.8614961,-0.8664051,-1.1762854,-0.9020836,-0.8974342,-0.48818234,0.021213355,1.3024122,-0.88592136,-0.85509914,-0.60334045,-1.4664328,-0.6605401,-0.6062249,-0.62756866,-0.81480265,-0.22918999,0.16452831,0.9681019,-1.3261771,-1.233876,-1.2392963,-1.2209114,-1.1877372,-0.84291536,-0.86314887,-0.43483657,-0.4747602,0.48489714,1.0176278,1.1299523,-1.7337496,-1.52884,-0.89754176,-1.5873858,-1.2737336,-0.7298402,-0.5300048,-1.0593458,-0.5745019,1.2171845,-0.17001024,1.1658962,-2.658932,-1.7160304,-2.8859634,-1.9835528,-2.1132624,-2.4504013,-0.64199,1.3698711,-0.15988083,1.6068623,0.0015493322,0.18063104,0.090049155,0.0037551483,-0.043101832,-0.1042528,-0.19544886,-0.17256339,-0.22086759,-0.1864768,0.0010060393,-0.044303194,0.057732962,0.057421748,-0.09672675,-0.13124698,-0.20539482,-0.39804718,-0.29604626,-0.3933889,-0.38438657,-0.0059955223,-0.20191477,-0.20230813,-0.110654876,-0.088434,-0.15499,-0.17392729,-0.20707,-0.1863391,-0.15461764,-0.0488736,-0.075076066,-0.1833282,-0.14982885,-0.08117038,-0.069686815,-0.1629224,-0.1232503,-0.15021211,-0.12351751,-0.117386095,-0.045486175,-0.031580478,-0.09033698,-0.1499085,-0.07844343,-0.07358163,-0.10529186,-0.060893614,-0.15973614,-0.08473099,-0.037161432,0.07626857,-0.082619675,-0.0822329,-0.0022757046,-0.06697185,-0.08423575,-0.11174408,0.009399152,-0.11581382,-0.08590268,0.0018935099,0.119245976,0.03991453,-0.08250434,0.007891541,-0.025221042,-0.062300712,-0.091327734,-0.10345257,-0.13016129,-0.014186463,0.023526492,0.14643604,0.13172135,-0.03371348,0.041342434,-0.07204121,-0.0697397,-0.12254875,-0.069042705,-0.07453004,-0.0653595,0.049888313,0.1740388,0.07483153,-0.024660235,-0.07595308,-0.15485503,-0.15216023,-0.10012871,-0.12960158,-0.10777299,-0.05601831,-0.024064692,0.09312153,0.037824366,-0.18486807,-0.23218858,-0.28336033,-0.1813391,-0.22830892,-0.18950297,-0.15956962,-0.06120124,-0.050536036,0.058891125,-0.029677836,-0.016605232,-0.02659941,-0.18399598,-0.1749905,-0.17397554,-0.19592279,-0.20376518,-0.11243437,-0.0761028,0.07470689,0.046438348,-0.047611307,0.075107805,0.004133054,0.096759394,0.101299584,0.023429746,0.010059576,0.05415393,0.14640006,0.1512019,-0.029146899,0.045038562,0.15503561,0.07913043,0.08636541,0.036770366,0.05133289,-0.0025194644,0.012366678,0.13659674,-0.008900867,0.16192475,0.01860731,-0.03297035,0.066158034,0.08565215,0.021918137,0.08245756,0.05288976,0.020456363,0.07589141,0.14467113,0.09422594,-0.006084932,0.041139327,0.07074805,0.05860855,0.053973693,0.03420011,0.061347153,0.058459323,0.03459758,0.086348824,0.09888232,-0.022588361,-0.038464326,0.062508106,0.05747101,0.08640796,0.035736125,-0.01967002,-0.042653944,0.06122684,-0.02111733,-0.016547872,0.025398158,0.018965678,0.015303851,-0.014477725,0.08807318,0.020069981,0.012622165,0.003203538,0.035008144,-0.056386385,-0.019618109,0.036314428,-0.0031190026,0.012342947,-0.005707408,-0.011176986,0.029738978,0.00046314258,-0.034398433,-0.026597472,-0.0189191,-0.06907655,-0.012563924,0.062192995,0.075957984,0.014983594,0.05890919,-0.024569498,-0.0011699672,-0.034059584,-0.042494703,0.009275265,-0.005706123,0.11791933,0.087592,0.06191449,-0.018768484,-0.01807623,0.044202626,0.02119906,0.029029222,-0.0975621,-0.014648504,-0.03990646,0.13973774,-0.013114319,-0.02392266,0.05518307,0.0041910335,0.030449899,0.026312375,-0.06402275,-0.06607994,-0.14120005,0.0687175,-0.027732247,0.20294294,0.02985709,0.005844524,0.12732771,0.1080692,0.019729549,0.036999732,-0.19165769,-0.12202403,0.02206799,-0.107248306,1.3029681,-0.7571899,-0.5987409,-0.50278443,0.29986954,1.389372,1.3905494,1.5095127,1.3003291,-0.072039105,1.3779187,-0.84636503,-0.47272894,-0.7270475,0.045091968,0.15120247,0.7701235,1.2608424,1.1420733,0.13459443,1.3306798,0.70076126,-0.34167212,-0.71475285,-0.34033388,-0.3509198,-0.55881745,-0.3008438,-0.23225959,-0.35648322,0.6963271,-0.63935065,0.74218225,0.0057892143,-0.606033,-0.9954419,-0.7694515,-1.8666545,-0.47082618,-0.48058584,-0.55776584,-0.49045038,0.33982956,0.5850468,-0.9678477,-1.05486,-0.8110878,-0.85343903,-0.51603913,-0.7587603,-0.8711251,-1.0621107,-2.0301902,-1.1105845,-0.88372535,-1.0812458,-0.6962144,-1.4462733,-0.8700193,-0.6341938,-0.7601602,-0.6284216,-1.0035863,-2.0130043,-1.540327,-0.9161726,-1.1115962,-0.7403003,-0.8604453,-0.7528346,-0.6667658,-0.6349979,-0.6829565,-1.8407729,-1.9134867,-1.1320379,-1.2729992,-0.95467395,-0.4468116,-0.6719546,-0.69926864,-0.6409602,-0.5078296,-0.8131043,-0.9592835,-1.8920004,-1.7459486,0.56924766,0.18722998,-0.14954616,-1.4244188,-0.70770955,-0.58323807,-0.38284323,-0.6103822,-1.0598516,-1.6003332,-1.1541799,1.2989905,-1.2115525,0.98871106,1.0291541,0.42077133,0.16889156,0.31158066,-0.05511477,-0.082585804,-1.7461774,1.4578136,-0.05923368,1.230177,1.0904244,1.1897005,1.1800114,1.0288397,0.876162,0.07995305,1.1020808,1.4084055,-0.1180458,1.7805649,-0.017717484,0.74296993,-0.055721655,0.17329831,-0.049124394,0.00074987113,0.045453385,0.0250672,0.11300877,0.11792353,-0.051934138,0.27478606,-0.22741632,0.035177093,0.07623179,-0.018262673,0.031512428,0.13131881,0.19665188,0.12445941,0.18633683,0.17489117,-0.1759285,0.07957126,0.04597054,-0.005728603,0.08511956,0.117758684,0.15688047,0.15131143,0.15150794,0.2284111,0.20853771,0.12337389,-0.0698252,0.0010890842,-0.00199297,0.030285358,0.10009629,0.12812088,0.07952308,0.12738614,-0.005406058,0.1470495,-0.009273707,-0.049233023,-0.027695341,0.06539413,0.046058714,0.13592038,0.1205764,0.16517049,0.10875968,0.23105982,0.004267934,-0.016402252,-0.03510659,0.0026804348,-0.03715995,0.02004386,-0.020677095,0.086349666,0.1183776,0.11301582,0.055246748,0.01824139,-0.010872702,0.119553134,0.078589186,0.071862824,0.052370377,0.07042504,0.0859182,-0.054035556,0.018628763,-0.053104397,0.017455071,0.07355061,0.10637392,0.06726217,0.07380728,0.097767636,0.1266624,-0.023536427,0.09565463,-0.065972194,0.09417889,-0.09384212,-0.06442231,0.02078182,0.13659832,0.23074366,0.11344342,0.124513716,0.11030964,0.018947436,0.003319261,-0.13308331,0.05034,-0.013599945,-0.05709692,0.1825092,0.08265622,0.030818915,0.0856247,0.062380716,-0.08613619,0.19767654,0.113576345,-0.16666071,-0.05104028,-0.26855966,0.07365459,-0.015765829,0.06102395,-0.012902506,0.017179137,0.106437445,-0.007579004,-0.02464938,-0.03762735,0.044496637,0.049862046,-0.007698848,-0.11453022,-0.060129203,0.26031312,0.26126376,0.026711473,0.15172957,0.23370224,-0.028304782,1.0497241,0.56598765,0.05904828,-0.0656415,0.044621393,0.06075731,0.13092676,-0.06404346,0.3307408,0.70345646,0.5690713,0.68821317,0.28779393,0.033739,-0.1080481,0.13530165,0.19857363,0.20031822,0.19651216,0.46163613,0.5449252,0.71454865,0.16799836,0.105133556,0.1553693,0.3044728,0.14365931,0.22957733,0.18292978,0.22010435,0.30432636,0.40485936,0.37314194,0.091447614,0.057485845,0.14935829,0.23144339,0.22431414,0.022479685,0.19354688,0.11344483,0.28542927,0.4124326,0.33681196,0.16047704,0.12997103,0.21538557,0.23286997,0.0594671,-0.02157868,0.11284743,0.0663981,0.21666794,0.081691176,0.3127235,0.1925458,0.21312448,0.17007184,0.19024742,0.11003066,0.05481116,0.17880556,0.20520641,0.12472609,0.11000122,0.3054706,0.1533559,0.11098041,0.33897528,0.12624766,0.07678767,0.16329952,0.13567902,0.12266404,0.124264576,0.1200665,0.15454939,0.21323217,0.32254085,0.34543285,0.3638283,0.22689286,0.13920686,0.15951209,0.16945277,-0.036696088,-0.16007303,-0.061548933,0.42588195,0.4076594,0.33664367,0.13810499,0.04086595,0.23871197,0.05308371,-0.08089856,0.18709336,-0.28352544,-0.080001734,0.033247203,0.31930435,-0.021767141,0.18165988,0.21882656,0.34228987,0.16506216,0.3784475,0.53091156,0.34266734,-0.022377016,0.7939656,0.25064886,-0.42306975,-0.24815018,0.42894593,-0.55027884,0.627241,-1.5596555,-0.70328414,0.30053794,0.78943205,0.24169639,0.9514995,-0.66984195,-0.47760957,0.2609981,0.672676,0.57455707,0.38795042,-0.27762732,0.33046955,0.2651518,0.024513822,0.25580543,0.22761054,-0.014714018,0.38605332,0.56451005,0.49218684,0.59309095,0.8089182,0.48898324,0.87622005,0.0039653876,0.1834831,0.1517805,0.17812656,0.30773976,0.44790992,0.71378314,0.75488776,0.74636906,0.7969348,-1.2433964,0.016096674,0.046225484,0.34841427,0.21172883,0.5394934,0.56025666,0.56607383,0.7912677,0.684403,0.91438156,0.6133853,0.2594624,0.17070977,0.53542286,0.65050304,0.67293787,0.54790694,0.6770808,0.64218646,0.7642983,0.7009201,-0.1524101,0.14974916,0.47305283,0.4252252,0.42469165,0.5307194,0.5969953,0.6231867,0.67905533,0.7576418,0.55373955,-0.04395634,0.12501678,0.34124768,0.41125375,0.8808688,0.2381468,0.55536014,0.66348904,0.5836477,0.47543734,0.003331404,0.96478385,-1.134774,0.23016165,0.92285407,1.0777392,0.6355695,0.79611075,0.083200164,0.8079489,0.48790607,-1.032165,-0.22903784,0.282066,1.1105105,-0.57287335,0.7603023,0.7542289,0.5443373,0.76663244,0.524507,-0.062232386,-0.37767932,0.23940273,0.7410725,0.24737257,-2.8139644,-1.3917036,-0.38421226,0.20246522,-0.21197814,-0.51791817,0.9821552,0.19379511,0.83126044,-1.4859962,0.04939928,0.02000123,0.047058776,0.07212599,-0.0625219,0.035439085,-0.004196288,-0.011016352,-0.0149467215,-0.29004976,-0.049470864,-0.07828615,0.043213293,-0.008746726,-0.034772836,-0.014741798,-0.054236326,-0.0089398585,-0.030876063,-0.071909994,-0.2918617,-0.46133363,0.07950291,0.026200471,0.052575797,-0.019000297,0.043177407,-0.084727034,-0.03369485,-0.062110916,-0.10972491,-0.25363612,-0.2610408,0.0027821215,0.06925223,0.058104493,-0.047930047,-0.043325763,-0.044411648,-0.08666307,-0.10759119,-0.11240504,-0.22619331,-0.2391218,0.05893044,0.12663929,0.074778534,0.023804298,-0.02105908,0.023795273,-0.04482998,-0.05328695,-0.058895517,-0.10864406,-0.21090439,0.038929217,0.09483818,0.08871767,0.067129485,0.047621273,0.010296653,-0.0244383,-0.035587505,-0.067952946,0.009843903,-0.03608854,0.08481265,0.15515031,0.16261323,0.10105733,0.035491712,-0.061723873,-0.036068607,-0.052040547,-0.071920425,-0.03127731,0.04808487,0.018201245,0.1385842,0.07332414,0.102677286,0.05654944,0.02594944,0.02929615,-0.091224365,-0.034747228,0.059678957,0.041754123,0.026898045,0.0979169,-0.028493006,0.0473311,0.037173364,-0.012327748,-0.043788496,-0.035362635,-0.023760496,-0.067683734,-0.026647748,-0.10956976,0.036720295,-0.01185299,0.07829006,-0.02285302,0.011466479,-0.0005544794,-0.013481233,-0.104540534,-0.009862749,0.12240921,-0.017778255,-0.23274165,-0.017524173,-0.036081288,-0.055505,-0.10888529,-0.0982261,-0.096820034,-0.041436717,-0.074084334,0.032671425,-0.0007087032,-0.061589073,-0.10921589,-0.041476473,-0.14815404,-0.1326128,-0.16291682,-0.07425189,-0.028434936,-0.12444936,-0.03761066,-0.11605953,-0.09703088,-0.033849508,-0.03074127,-0.11771022,-0.12155284,-0.086612634,-0.03427187,0.012317157,0.066174395,0.08691036,-0.14884159,-0.10086148,-0.0697488,-0.14477731,-0.028067853,-0.031185277,-0.09630673,-0.016290547,-0.029138157,-0.07232651,-0.0514489,-0.025994383,-0.016211433,-0.093079664,-0.112733364,-0.06917393,-0.09285029,-0.052450106,-0.008746067,0.015321671,-0.080342494,-0.044164553,-0.08570254,-0.044654578,-0.09465764,-0.12609112,-0.09257522,-0.1109638,-0.038637504,-0.035523668,-0.045865014,-0.10777206,-0.082275756,-0.04111646,-0.05528876,-0.088471785,-0.07211438,-0.04181254,-0.021942617,-0.0412878,-0.061041575,-0.016078623,-0.10789889,-0.06891966,-0.11051275,-0.09295344,-0.08173825,-0.10614083,-0.10244171,-0.088603795,-0.057387546,-0.0032307098,-0.03795853,-0.11470732,-0.08725595,-0.024562987,-0.057023123,-0.07535697,-0.09416415,-0.0682046,-0.078105375,-0.092037,-0.00013460557,-0.12701888,-0.030234126,-0.18214042,-0.10310873,-0.052425034,-0.045066193,-0.030993225,-0.06222763,-0.10388231,0.027777823,0.017903443,0.032210037,-0.13265903,-0.27243,-0.10441124,-0.10320903,-0.06650282,-0.14268942,-0.04018662,-0.047672924,-0.034128148,0.04107101,0.013425611,0.09034345,-0.04144926,0.0364822,-0.02558216,-0.1793117,-0.18089052,-0.03781771,-0.092204556,-0.1037674,0.038033243,0.08611744,0.121746704,0.02134241,1.0675123,-0.62378496,-0.02149224,-0.63578403,-0.60870916,-1.2273095,-0.1046777,0.29445407,0.73921824,-0.7279314,1.0723579,-0.64703935,-0.007635738,-0.2589185,-0.61383855,-0.81804323,-1.7086114,-1.8990953,-1.2582653,-2.1808972,-1.5270026,-0.7161374,-0.05836945,-0.5589045,-0.6334453,-1.242152,-1.5203185,-1.4111259,-1.8387082,-1.7849933,-2.2334223,-1.7529086,1.7378277,-0.82612365,-0.7200538,-1.1003327,-1.3156129,-1.8220696,-1.980789,-1.7927521,-2.0158975,-1.8708017,-2.255326,1.7761638,-0.8088721,-0.54292953,-0.9629232,-1.7651016,-1.6238039,-2.177785,-2.1969266,-2.2746801,-1.781942,-1.9745687,0.7614869,-0.8041026,-0.5884212,-1.0429056,-2.047837,-1.9585398,-1.8817542,-1.9178649,-1.7437599,-1.8040338,-1.7555349,0.4039931,-0.6276179,-0.8163918,-0.95066684,-1.3869524,-2.4141397,-2.4122293,-2.1264243,-1.8465981,-1.8517641,-1.818427,0.6540701,-0.66098136,-0.6870726,-0.9442586,-1.0759271,-1.476305,-1.7512285,-1.9175342,-1.5799524,-1.9633209,-1.4687543,-0.0030012443,0.2685806,-0.27468362,-0.80051374,-1.1780198,-1.0304247,-1.3229083,-1.0403155,-2.2464557,-1.4318533,-2.3092914,0.0069538755,-0.59510005,0.15477823,0.19152781,0.08319665,-0.13073516,0.060284033,0.22390187,0.17725354,0.054807164,-0.056784134,-0.561346,1.0222491,-0.5858119,0.99285746,0.48237926,0.68459374,0.19306278,0.75500625,1.4250873,1.6081733,-0.62191856,1.0557785,1.3578761,-0.017663138,-0.0396796,0.06412097,0.10186183,0.13251285,0.10818473,0.15893307,0.18301238,0.11746651,0.19614863,0.003840952,0.15983586,0.08069475,-0.008891954,0.18543905,0.16629775,0.18288891,0.15120488,0.12972994,0.31693953,0.29178587,0.22882666,0.028423812,-0.01873819,0.12281381,0.16528134,0.14713661,0.1758314,0.14478807,0.17519304,0.19141866,0.17710999,0.17362507,0.1558247,0.12942219,0.1941955,0.14730383,0.11656591,0.120046526,0.16109604,0.18427825,0.22150546,0.20463036,0.14924927,0.2378012,0.18996733,0.18997735,0.08655265,0.14447513,0.11190794,0.18433867,0.080574945,0.18109678,0.12138615,0.16734149,0.23607267,0.26763305,0.21212117,0.22322887,0.1861585,0.017264761,0.120682634,0.17956573,0.17470796,0.24703789,0.165974,0.19696954,0.27808264,0.14868145,0.18900235,0.1887048,0.1406372,0.17347322,0.13015246,0.109791726,0.15109201,0.11820765,0.14780912,0.010330196,0.11439351,0.17490408,0.1796795,0.1464445,0.12389099,0.07655314,0.075077154,0.13933514,0.1305871,-0.03386595,-0.3458063,-0.005000918,0.12757824,0.17836873,0.11934004,0.14448638,0.09946378,0.050756,0.17400704,0.1324248,-0.17125137,-0.54940826,-0.1452654,0.25503582,0.18248034,0.15753263,0.118001394,0.12724017,0.103799485,0.20125352,0.2741671,0.034313414,-0.39491513,0.005514116,0.0338987,0.13493924,0.105572276,0.15000972,0.014011077,0.04360586,0.29757297,-0.040928345,-0.027368316,-0.34802333,-0.038821444,-0.049781084,-0.110403106,-0.08939921,-0.07322161,-0.2348077,-0.20795138,-0.17155878,0.02864345,-0.20455836,0.122872,-0.008861216,-0.065892935,-0.03099151,0.010210069,-0.10929453,-0.08126974,-0.082292795,-0.21616499,-0.21617621,-0.053960823,0.016676465,0.05022961,-0.031921603,-0.084950164,-0.0884036,-0.10338838,-0.09463453,-0.14101352,-0.034902412,-0.16149478,0.061133496,0.033918194,-0.027799511,-0.0111506535,-0.11479389,-0.058318824,-0.11085965,-0.12801574,-0.06368361,-0.07380254,-0.14369705,0.023655128,-0.08233029,-0.076205656,-0.16163357,-0.14465111,-0.08654221,-0.008783086,-0.1093269,-0.228645,-0.11360462,-0.12788771,0.01645025,-0.12717716,-0.08651509,-0.1386554,-0.10101455,0.007540243,-0.045310736,-0.087275,-0.16447298,-0.22879738,-0.12967554,-0.024649855,-0.039692666,-0.043141775,-0.05639741,-0.12667482,-0.066084,-0.111925945,-0.07231615,-0.10375875,-0.12157161,-0.047335833,-0.06442302,0.04129568,0.016313823,-0.086496785,-0.09954314,-0.04390958,-0.09910606,-0.07511197,-0.12074381,-0.15614885,-0.15073967,-0.018868063,-0.044570707,-0.009664427,0.030732684,-0.04525872,-0.095777415,-0.050111465,-0.029332422,-0.1615293,-0.1947545,-0.2247157,0.016830057,0.11709842,0.09714875,0.16127217,-0.006463195,0.023887493,0.035654478,-0.24053076,-0.11184279,-0.7591672,-0.27130878,0.04495153,0.08051494,0.28402233,0.1576389,0.049351823,0.026871556,-0.07925908,-0.09362049,-0.06576729,-0.16614762,-0.02479908,-1.1902353,-1.2374159,1.5292146,-0.31066084,-0.29442206,-0.6076109,-0.37184706,-0.48680824,-0.4796638,-1.2163882,-1.1794533,-1.2105318,1.6205919,-0.5066041,-0.42184764,-0.6829119,-0.5538409,-0.53885424,-0.49017522,-0.45772225,-0.6619717,-1.2027737,0.03207658,-0.2523088,-0.360443,-0.5308819,-0.7420265,-0.67223656,-0.48174095,-0.82765204,-0.75059235,-0.6276417,-0.038661644,0.79508895,-0.30201286,-0.35313416,-0.6472726,-0.7207188,-0.42373884,-0.61164635,-0.729535,-0.8984184,-0.6163732,-0.75356764,0.33474383,-0.2027691,-0.50610983,-0.38812265,-0.7184394,-0.7222596,-0.72019285,-0.50069004,-0.6995199,-0.5387941,-0.56053084,-0.41702503,-0.38638908,-0.46365383,-0.4380463,-0.59926224,-0.56136936,-0.47519723,-0.53143114,-0.7208077,-0.6801065,-0.33905995,0.3040399,0.8414038,0.019893993,-0.21497259,-0.439753,-0.4984925,-0.53009224,-0.39218187,-0.57527316,-0.5192587,-0.9720877,1.0904666,0.9710128,0.38252223,-0.21206202,-0.5114808,-0.65020823,-0.61764187,-0.49025762,-0.66025037,-0.62690645,-0.54046947,1.7881593,1.4013815,0.8226749,0.34260035,0.044516098,-0.47154975,-0.4379825,-0.4265095,-0.5338679,-1.8018826,-0.8942599,-1.2116754,2.6439939,1.2272007,0.7726066,0.33264232,-0.10292977,-0.30262166,-0.32912126,-2.2966292,-0.9077547,-1.2185478,-1.1887053,-1.2786803,2.8041935,0.36060342,0.5855102,0.45539773,-0.1271591,-0.44881496,-0.36676514,-1.1498979,-1.2337942,-2.9477587,-0.015534023,-0.28499877,-0.35228977,-0.12016657,-0.10960504,-0.15888354,-0.062423475,-0.11498016,-0.112752326,-0.4377517,-0.023890978,-0.2557179,-0.45556152,-0.3860852,-0.21138376,-0.12712485,-0.110504575,-0.140966,-0.11084424,-0.10044826,-0.13645783,-0.21585932,-0.08809191,-0.060687684,-0.26077607,-0.16875511,-0.069723226,-0.15654038,-0.09608593,-0.12123242,-0.14553668,-0.27261496,-0.24660662,-0.03218702,0.087600015,-0.0079907905,-0.1059554,-0.14888501,-0.12164013,-0.15254432,-0.17223643,-0.14891681,-0.28868324,-0.28224286,0.037040528,0.08015613,-0.008080854,-0.041833214,-0.070213094,-0.13883983,-0.10632598,-0.08134266,-0.05005381,-0.1446724,-0.2058103,0.057090484,0.05230058,0.006577417,-0.017361142,0.04833918,-0.00938235,-0.07445762,-0.08057499,-0.03571065,0.07671765,0.0021590227,0.08162473,0.14701039,0.10787378,0.052969135,-0.013527662,-0.10101761,-0.041504033,-0.09909359,-0.021814141,0.04171686,0.07280306,0.038035836,0.11993732,0.08549563,0.07893716,0.014711649,-0.0461352,0.015822541,-0.0655318,-0.018211897,0.07568611,-0.0011867374,0.08984831,0.08890484,0.050183613,0.015558044,-0.07398662,-0.15263836,-0.18342711,-0.18633918,-0.14034797,0.03790771,-0.015659187,0.0171558,0.1007861,0.0548601,0.09809623,0.0054690633,-0.094719455,-0.1700832,-0.24635066,-0.24528518,-0.109703556,-0.04654319,0.024851372,-0.106984004,0.00873734,-0.08535443,-0.083663605,-0.188157,-0.15447408,-0.19564514,-0.1851025,0.007472442,0.036233675,0.03990455,-0.061552346,0.01448661,0.02616213,-0.07219352,0.0255388,-0.036699153,-0.044173036,-0.05432704,-0.03966031,0.014124914,-0.12732713,-0.20008636,-0.14790525,-0.023027193,-0.087702915,-0.08523868,-0.029362118,0.09216194,0.042515587,0.17050798,0.0053270617,0.0040144217,-0.0057460903,-0.11542921,-0.087162696,-0.017487995,-0.016985111,0.005904347,-0.03738458,-0.029760515,-0.118692845,-0.11952625,0.034090813,0.02630284,-0.07428737,-0.10575821,-0.08701048,-0.034996055,-0.045862127,-0.043122824,-0.04578962,-0.08667652,-0.044965804,0.0046814587,-0.03537725,-0.08408592,-0.02569095,-0.060985982,-0.01430226,-0.028319938,0.030434435,-0.056785624,-0.04407262,-0.119444616,-0.004373609,0.007826706,-0.09367846,-0.08547807,0.024586894,0.041749235,-0.08018843,-0.023285106,-0.10945179,-0.07302311,-0.09670891,-0.122195356,-0.06796288,-0.15459795,-0.12320625,-0.068628415,-0.08854027,-0.036473915,0.013731929,-0.019279638,-0.06803529,0.027684502,-0.11398988,-0.124427736,-0.10755918,0.0005411372,-0.05508793,-0.038725358,-0.050528634,-0.036604233,-0.046042923,0.007216357,-0.07196977,-0.18691313,-0.07575642,-0.08629751,0.05763438,-0.056552798,-0.015439607,0.03663888,0.025604224,0.0043529933,-0.0036487612,-0.11501913,-0.11560009,-0.09655961,-0.03198982,-0.031765774,-0.013918074,-0.085102156,-0.018017288,-0.09999434,-0.13442795,-0.12041354,0.075983174,0.041180287,0.09101525,-0.11411507,-0.016554872,-0.06365219,-0.1296853,-0.096242175,0.014413931,-0.20651947,-0.07431519,-0.016611492,-0.15652613,1.1678846,1.5803254,0.50882155,0.24242234,-0.0465328,0.3486947,0.9816228,1.2169164,1.0519798,-0.13869761,1.1237432,1.1621106,1.0444394,0.77289575,0.2191115,-0.25818738,0.0061176764,-0.3562212,-0.5651235,0.9533921,1.0865682,-0.20653524,0.73138016,0.48581558,-0.18704788,-0.17207293,-0.4501316,-0.43783587,-0.5425536,-0.54908925,-1.2097547,1.3968582,-1.3155483,-0.94875497,-0.25992325,-0.3606492,-0.9511733,-0.42410082,-0.50932693,-0.76481164,-0.54431576,-0.15630125,0.92192125,-1.8735555,-1.259052,-0.69168377,-0.70441836,-0.5855411,-0.54760385,-0.7322128,-0.706389,-0.8915512,-0.5517302,0.32457674,-1.6703942,-1.4075989,-1.777409,-1.1570529,-0.9754349,-0.816212,-0.8640743,-0.81066746,-0.47984177,-1.4414755,-1.360397,-2.5755107,-2.3552148,-1.4878664,-0.8144676,-0.7397743,-0.57984805,-0.67614883,-0.75634795,-0.8293672,-0.7984459,-1.9245315,-2.5439587,-2.3771493,