0.05123847,0.5236661,0.06545991,0.19935684,0.20032838,-0.081447534,-0.04189336,-0.10074661,-0.19931564,0.42051637,-0.0373777,-0.02476822,-0.257711,0.048471626,0.2133782,0.13284199,0.061820257,0.11824155,0.092610605,-0.13529114,-0.11951389,-0.070448816,0.1321269,0.22762239,0.13083534,0.20483315,0.23456185,0.110232264,0.0971205,0.13760982,0.061674047,-0.00526223,-0.080950975,0.11394484,0.14793643,0.27221635,0.19093212,0.1663511,0.076530986,0.16979761,0.093586236,0.10959125,0.22934897,0.090181224,0.08362165,0.056054775,0.19226146,0.032356363,0.12521832,0.0103635965,0.07798808,0.10006321,0.13705471,0.15289038,0.051527124,0.1811676,-0.0038774454,0.14414135,0.12724444,-0.573672,0.032581005,0.22303714,0.12704757,0.08557599,0.056091752,-0.15867484,0.09620278,-0.126349,0.20743702,-0.26321456,0.078102276,-0.034122612,0.18875794,0.1393419,0.1901879,0.176415,0.06696926,0.041513678,0.05226179,0.17089012,-0.41689286,0.10615124,0.012568001,0.18138328,0.09393881,0.20639439,0.4192484,0.114441924,-0.04963552,-0.07541826,0.18131943,0.0774877,0.12955688,0.20303683,0.27271137,0.11170125,0.12573878,0.09962109,-0.13567343,-0.2285529,-0.06961515,-0.0218245,0.13010202,0.14008042,0.075711474,-0.008029468,0.08110074,0.03259242,-0.10613484,0.016130222,-0.031465087,-1.0997308,0.068304844,0.1039224,0.06873476,-0.14793631,-0.00475494,-0.24285032,0.029487446,-0.06104069,0.033036225,-0.035140853,-0.11593862,-0.5200034,-0.42383578,-0.5578035,-0.28538302,-0.23739204,-0.31704137,-0.44415006,-0.05092123,0.013895978,-0.14018145,-0.36123717,-0.4221732,-0.06757156,-0.46582425,-0.42985183,-0.55698675,-0.38459173,-0.5666844,-0.3969528,-0.15860018,-0.3418577,-0.33697915,-0.5514126,-0.41701102,-0.46056095,-0.40138352,-0.4461327,-0.502529,-0.6121476,-0.6352831,-0.39677703,-0.16577616,-0.27332607,-0.5356205,-0.35815734,-0.46038294,-0.48660293,-0.5192449,-0.4354859,-0.44835222,-0.2886395,-0.51430017,-0.48182523,-0.3826437,-0.52595776,-0.5447222,-0.4595559,-0.72315866,-0.47386265,-0.502227,-0.6761061,-0.44590512,-0.40301234,-0.4782761,-0.34537616,-0.64293134,-0.46919212,-0.39277944,-0.014264732,-0.4492229,-0.46126753,-0.5058131,-0.30301195,-0.34581748,-0.41906986,-0.4454981,-0.53496444,-0.58029085,-0.5317092,-0.54591894,-0.440934,-0.44672668,-0.555607,-0.46858066,-0.35947344,-0.59994936,-0.31345794,-0.54740554,-0.53785443,-0.523766,-0.5869906,-0.49292558,-0.5236972,-0.39959836,-0.57166207,-0.38472158,-0.4100203,-0.36738336,-0.47513676,-0.5337622,-0.48432207,-0.6727204,-0.48176232,-0.51220095,-0.40873244,-0.47276717,-0.4078059,0.26594087,-0.38416603,-0.44864506,-0.57928693,-0.5993314,-0.55248606,-0.50922644,-0.4890044,-0.4126671,-0.35428262,-0.4989691,-0.031092402,-0.32260898,-0.5123534,-0.568741,-0.6126182,-0.60477275,-0.034614258,-0.39874312,-0.5144744,-0.21690214,-0.047924045,0.7688578,-1.725275,-0.2208641,-0.20506711,-0.0032191072,0.44929507,0.09673383,0.5222076,0.7271187,-1.8709038,0.7825126,-2.1436825,-0.773152,-0.7793605,-0.41200358,-0.5866162,0.5676915,0.25783694,0.588584,0.637899,-1.5158584,-1.9225295,0.5430807,-0.15116988,-1.028831,-0.7859551,-0.66744363,-0.30553982,-0.5589618,1.153841,-0.52641237,-1.5064517,0.37812614,-0.42315826,-0.49039674,-0.95406795,-1.132928,-1.4649656,-1.7978307,-1.4395379,-0.74767905,-1.3383642,-1.7927536,0.35322064,-0.036600903,-0.32674554,-0.74577683,-1.1827397,-1.4273815,-1.8182477,-1.633869,-1.3801374,-0.72019786,-0.7988752,-0.20369402,0.69312423,-0.58992785,-0.72479486,-1.394851,-1.683531,-1.6386783,-1.6842523,-1.9014305,-1.4637672,-0.8731017,-0.37769723,0.316528,-1.0106386,-0.86286724,-1.010018,-2.0754225,-1.9883482,-1.6664304,-1.8302958,-1.902499,-0.732792,-0.6306019,-0.52422935,-0.7774333,-1.4454001,-1.371536,-1.2726649,-1.2941241,-1.8851963,-1.71899,-1.5252999,-1.2185292,-0.38174874,-0.25145218,-1.891062,0.0059931404,-0.739905,-1.0015264,-1.0371242,-0.8673204,-0.8359003,0.14800109,-1.5274208,0.31728745,-1.758294,-0.99638844,-1.627251,-0.28431302,-0.17154701,-0.599959,0.9973221,-0.0060383254,-0.35976174,-1.6171668,-1.9940954,0.807534,-1.8197031,-0.99058795,0.89698493,1.1213464,1.2765609,0.054451607,0.91579854,1.5035766,-1.8606403,0.7748491,0.71064055,0.019314373,-0.00045193316,0.07091908,0.11427854,0.04907432,0.07275312,0.049008157,0.04594616,0.077588595,-0.0796909,-0.003805268,0.082957014,0.14217171,0.1337884,0.047815606,0.048066217,0.02028446,0.11263893,0.033580948,0.054295693,0.11609777,0.0117743295,0.06247567,0.12274242,0.09225183,0.08733825,0.08635963,0.034825243,-0.024692688,-0.0010905106,0.048776124,0.102083825,0.079062365,0.027189484,0.0315513,0.07479088,0.044344485,0.033190746,0.09351178,0.09153387,0.0756492,0.019796066,-0.008479735,-0.0027064842,0.08605016,0.1220465,0.12012559,0.082508475,0.023285527,0.06471128,0.120410345,0.03246475,-0.015766954,0.069673754,0.070578836,0.08030619,0.07915925,0.099596925,0.08701581,0.06706266,0.0059590447,0.023860486,0.045919355,0.04245727,0.049654987,-0.00096984813,-0.004792165,0.10305313,0.087190315,0.050699543,0.039151065,-0.064996354,0.009168304,0.03145461,0.03823445,0.084354036,0.07482152,0.027131598,0.058970213,0.02991412,0.09806705,0.036720503,0.10230239,-0.00075207796,0.031614233,0.066766,-0.024135249,0.066662185,-0.0001797319,0.047753517,0.021284604,0.08084477,0.041843683,0.08872583,0.08939312,0.07812384,0.11880648,0.09114358,0.15598366,-0.11789728,0.14918664,0.044848617,0.11219413,0.048984736,0.07808332,0.11142094,0.054683104,0.13503207,0.13894936,0.038979925,-0.03221334,-0.14053218,-0.008998371,-0.021822117,0.021929445,0.046647903,0.06830046,0.057224605,0.032492317,0.15068768,-0.024120187,-0.004813263,-0.24298288,-0.16742444,-0.12683289,-0.1964022,-0.056416973,-0.06775557,-0.045832846,-0.13897894,-0.48324028,0.039550133,0.060290106,-0.11603663,-0.2282516,-0.068332076,-0.10857718,-0.09574543,-0.08708519,-0.08287969,-0.12127148,-0.1031501,-0.09714675,-0.097168036,-0.12388779,-0.10994907,-0.08377044,-0.028018966,-0.030523665,-0.046496607,0.026797002,-0.010730674,-0.021325413,-0.074123435,-0.05889223,-0.03139582,-0.08123307,-0.03184784,-0.06669777,-0.032170855,-0.0038212675,-0.006261889,-0.07530811,-0.07727932,0.039182197,-0.005633344,-0.018577194,-0.11822044,-0.05350129,-0.048871703,-0.02665296,-0.012218358,-0.014305929,-0.04663218,-0.059303526,-0.105071835,-0.0020638492,-0.028229805,-0.092309006,-0.023688493,-0.09261275,0.0399635,-0.06552635,0.016749153,-0.09771186,-0.01844045,-0.09540318,-0.13148244,-0.050694987,-0.09616281,-0.023707874,-0.028183604,-0.12379748,-0.024727577,-0.026902063,-0.048015717,-0.05719802,-0.12982765,-0.16043113,-0.088700004,-0.050155625,-0.0004660344,-0.028633941,-0.035064116,-0.040030845,-0.069916196,-0.07897552,-0.076017685,-0.15156537,-0.10271157,-0.184641,-0.11398754,0.012833578,-0.046373524,-0.00628581,-0.009642213,-0.047028266,-0.022827558,-0.17324251,-0.17085095,0.03931824,-0.1315234,-0.12116491,-0.030754011,-0.00828969,-0.056804225,-0.10288053,-0.052733675,-0.05951843,-0.101401016,-0.14678368,-0.028671375,-0.27648607,-0.04365233,-0.017553309,0.03068645,-0.030565903,-0.08294063,-0.05281282,-0.069267586,0.032820728,0.042201106,-0.53629434,-1.0622592,-0.5979642,-0.57451075,-0.2644617,-0.7595949,0.7084964,0.19811064,-0.95307016,-1.1282194,-0.49924487,-1.0659541,-0.18683481,-0.683612,-0.1992472,-0.70078915,-0.84338504,-0.7117302,-0.75258815,-0.7705173,-0.4977424,-1.0790925,-0.12231016,-0.51889807,-0.5222645,-0.4625531,-0.5197008,-0.6495157,-0.4354586,-0.7913868,-0.6994491,-0.8654606,-0.53273153,-0.4000541,-0.33964252,-0.3844178,-0.64704734,-0.4364179,-0.3289301,-0.2893689,-0.4293995,-0.61311024,-0.28148314,-0.015804434,-0.14127581,-0.45756087,-0.3846432,-0.44711083,-0.3542779,-0.35249826,-0.35741356,-0.55540127,-0.49481463,-0.5610739,-0.35741606,-0.45001066,-0.17536455,-0.34788525,-0.32947278,-0.44200966,-0.4355628,-0.38119942,-0.40888697,-0.4831269,-0.23905845,-0.24274313,-0.034598496,-0.17480731,-0.31896403,-0.38173652,-0.26096287,-0.25041473,-0.27811894,-0.5189796,-0.4967751,-0.68251395,-0.35731184,-0.45982006,-0.09974176,-0.2646251,-0.27713844,-0.28148556,-0.39531007,-0.38975504,-0.5741839,-0.2941155,-0.6055879,-0.79451007,-0.08326783,-0.841573,-0.3415623,-0.45611677,-0.3060565,-0.41256484,-0.44785613,-0.47706452,-0.69306743,-0.45184812,-0.55893713,-1.0683566,-1.1540073,-0.7000791,-0.12945071,-0.69441736,-0.4179022,-0.6687368,-0.6405632,-0.6701696,-0.3240787,-0.94426227,-0.5487723,-1.1193001,-0.14384642,-0.09112509,0.31301415,-0.36536276,-0.05841654,-0.22458816,0.8041741,-1.0378484,-0.5119314,-1.203825,0.02024056,0.5277965,0.11674729,0.10640683,-0.10191633,-0.031036392,-0.0095463935,-0.11874261,0.084043905,-0.123764895,-0.048789617,-0.20096545,0.053045947,-0.017778954,0.16605465,0.0848432,-0.013520588,0.16212372,0.06669913,0.020298593,0.08490041,0.3596226,0.040511124,0.0007861701,0.09254859,0.024873111,0.0010316082,0.020450091,0.022563137,-0.046663452,0.06062719,0.037788533,0.09337423,0.07393797,-0.066457406,-0.028813224,-0.005655846,-0.058343776,-0.05220576,-0.039067227,0.005966846,0.058175772,0.13895035,0.06931984,0.071517594,0.010430903,0.090590045,0.0661594,0.14064263,-0.0020917896,0.093929365,0.08682893,0.042597435,0.17875285,0.10136278,0.06784057,0.06595549,0.016064188,-0.04604526,-0.0859872,-0.018271912,0.0693395,0.07709442,0.028277462,0.044308465,0.0030879998,0.0368726,0.17356236,0.16638167,0.16188382,0.20258306,-0.0026255462,0.18300262,0.06110047,0.1348811,0.17434408,0.03470382,0.068346575,0.18410103,0.12966701,0.080507845,0.19179037,0.07492412,0.11174496,0.096805535,0.21817146,0.10603251,0.054818124,0.1003763,0.09007935,0.06570194,0.13999353,0.10322934,0.096601635,0.16677573,0.11232381,-0.00033384276,0.06934763,0.16396442,0.23323826,0.01040612,0.14370535,0.19094306,0.13998024,0.09355949,0.0955398,0.028016148,0.098314226,0.101146564,-0.105956525,-0.028980045,-0.0012393203,-0.019149953,0.025830314,-0.007944612,0.01128251,-0.2436133,0.011285571,0.17553745,-0.069826126,0.023598759,-0.006765321,0.11959286,-0.21478726,-0.10099497,-0.097579844,-0.08685325,-0.24033839,-0.2097858,-0.31908002,-0.3019244,-0.0040708566,-0.5605614,-0.20544666,-0.28055152,-0.15227905,-0.28671557,-0.47891724,-0.30342588,-0.35943785,-0.4186516,-0.25163913,-0.34769407,-0.32674068,-0.41959417,-0.3560211,-0.3528744,-0.34836945,-0.3150409,-0.3210943,-0.30248764,-0.14992808,-0.2775677,-0.21970828,-0.31232727,-0.23135689,-0.2241547,-0.27465355,-0.31754595,-0.34181142,-0.30500996,-0.3245449,-0.26312047,-0.3092902,-0.4127333,-0.30088124,-0.30998155,-0.20277561,-0.31846848,-0.31937283,-0.39946342,-0.3013246,-0.34990236,-0.3158534,-0.33914065,-0.29989377,-0.3399827,-0.15441124,-0.321617,-0.27179667,-0.33874843,0.035926234,-0.2860257,-0.3393456,-0.3882976,-0.44709533,-0.18644024,-0.15493321,-0.22498007,-0.18004955,-0.2712742,-0.338007,-0.38014892,-0.34028095,-0.32667086,-0.30252025,-0.27905825,-0.2836519,-0.30443978,-0.20521343,-0.31652823,-0.24761343,-0.3987549,-0.38729188,-0.34769097,-0.33744767,-0.34319815,-0.27196112,-0.33011398,-0.2950472,-0.34488285,-0.37307605,-0.25601104,-0.37622172,-0.43054008,-0.30873778,-0.36330515,-0.3488402,-0.27337426,-0.2942069,-0.15571968,-0.39589113,-0.33274782,-0.37016767,-0.33650476,-0.16530943,-0.30795568,-0.33716303,-0.26390678,-0.2263419,-0.21095578,0.009869565,-0.13960926,-0.24952173,-0.2939161,-0.24349456,-0.453843,0.072993584,-0.21428078,-0.28242192,-0.24720976,-0.039884973,-0.34475455,-0.81213933,0.5398882,0.298653,0.36584368,0.15444696,0.6962018,0.8002774,0.5882112,-1.0160686,-0.3732477,-1.0549963,-0.44624713,0.23159993,-0.69649225,-0.2857727,-0.029077262,-0.3491994,0.18486418,0.7683887,0.11815289,-0.91490793,-0.28287405,-0.4088513,-0.34947416,-0.7313857,-0.5256989,-0.59929246,-0.16653046,-0.16754289,-0.14430869,-0.45042336,0.578712,0.40065655,-0.45238703,-0.25388134,-0.33816123,-0.48339584,-0.50136983,-0.4608916,-0.41440114,-0.6228768,-0.7978947,0.18182033,0.3905982,-0.023899257,-0.39156768,-0.52129614,-0.4727874,-0.82641804,-0.52117825,-0.76979965,-0.71415895,-0.3060704,-0.005169321,0.70579225,-0.40286317,-0.30928954,-0.48512343,-0.5630658,-0.7014171,-0.6165596,-0.97460926,-0.6115942,-0.20837454,-0.19897673,0.65120655,-0.08510425,-0.13998257,-0.5626627,-0.8751647,-1.0052502,-0.5431301,-0.92805314,-0.7188646,-0.4647916,-0.058007486,0.063367516,-0.011967372,-0.4114843,-0.43092507,-0.7339233,-0.83552295,-0.97205263,-0.9152753,-0.33647257,-0.2195307,-0.05630564,0.85546863,-0.89117384,0.46194497,-0.27193093,-0.2405626,-0.0821901,-0.18320611,-0.3429275,0.17561689,-0.19408776,-0.20047298,-1.038257,0.45617875,0.2315804,0.54972297,0.54957163,0.34945685,0.70507246,-0.013935157,0.8725129,-1.3889735,-0.90247864,-0.38522178,-1.0011455,0.3794778,1.2180481,1.1340566,0.9791195,0.346355,1.0677657,0.7105954,-0.9780125,-0.35491017,-1.1076432,0.014406473,-0.01888869,-0.03921612,-0.0034917623,-0.012809182,-0.008801948,-0.0033913509,0.036016002,0.055700038,-0.067906626,-0.010138672,0.00093649677,-0.029439202,-0.0047997967,-0.025689084,-0.030764623,-0.028938616,0.015132962,0.00494921,0.030462965,-0.018450102,0.01034084,-0.06347257,-0.08350998,-0.069782026,-0.042022325,-0.031223232,-0.010527662,-0.027543303,-0.020312073,-0.0014246033,-0.005364272,-0.041575346,-0.065544665,-0.091360666,-0.062223826,-0.05508988,-0.036077544,-0.015666483,-0.0056971526,-0.0013625524,-0.014451126,-0.06784945,-0.05583002,-0.047567945,-0.04854382,-0.034113742,-0.045170043,-0.03505491,0.0140684275,0.013371622,-0.022207906,-0.034129374,-0.03323084,-0.029327746,-0.05973,-0.07548769,-0.061991535,-0.06462739,-0.017418474,-0.027250474,-0.01331529,-0.034658838,-0.04084718,-0.045457356,-0.0594005,-0.06393179,-0.07304905,-0.06748691,-0.05297747,-0.05390587,-0.062324166,-0.041973468,-0.021997804,-0.029035762,-0.06394879,-0.04230955,-0.06895249,-0.06253588,-0.098707184,-0.06258508,-0.052935507,-0.013727606,-0.033826295,-0.048658155,-0.027359694,-0.07576349,-0.035649806,-0.07632672,-0.102137625,-0.07825503,-0.06692611,-0.03307161,-0.004979207,0.0021844518,0.0048368787,-0.0026113503,-0.038436648,-0.008980644,-0.110664606,-0.07531659,-0.074800044,-0.016436467,-0.048485123,-0.0147291655,-0.0025020214,-0.023706056,0.016181719,-0.025194049,-0.053987946,-0.005961644,-0.1347451,-0.06633784,-0.06195069,-0.028598735,-0.017787417,-0.0077722324,-0.006299498,-0.013748642,0.05625515,-0.03357492,0.044420213,0.13781567,0.062285274,0.06224125,0.033058044,0.04111034,0.05566173,0.06682795,0.038019903,-0.046680823,0.045109984,0.092028245,0.07603833,0.032987826,0.012164082,-0.0022082846,0.0036135528,0.018825188,0.05030323,0.041479547,0.047084138,0.0858246,0.058473364,0.053552162,0.040627427,-0.0077316537,0.031895954,0.022951607,0.022291325,0.06210931,0.036913443,0.045713816,0.035454366,0.070047505,0.048921585,0.045476537,0.030064164,0.02115227,0.019514572,0.05082216,0.07134242,0.026827779,0.011113626,0.07825405,0.059034996,0.03681722,-0.019964874,0.011927013,0.01841271,0.01487189,0.042737324,0.04016834,0.029535932,0.016291527,-0.018602414,0.072978176,0.05297088,0.01907683,0.018145125,-0.0061585074,0.027183356,0.015040465,0.04609877,0.01783171,0.043049045,0.0012553403,0.02602023,0.0446032,0.018757911,0.029888857,0.017756436,-0.017187031,0.03791792,0.03162321,0.039361574,0.023557965,0.030673774,-0.00088722166,0.025222512,0.03486511,0.015606298,0.017915623,0.033457253,0.06093433,0.04456071,0.021543343,0.04344633,0.0033351216,0.06588685,0.020783367,0.01611524,0.058560204,0.028072268,0.036840085,0.048411958,0.028005047,0.044114705,0.025733927,0.026144605,0.06439621,0.03935412,0.03870902,0.0765377,0.07509823,0.041631654,0.050863154,0.076280825,0.080359526,0.02984869,0.062748894,-0.02163987,0.06158416,0.07823858,0.09047513,0.10409577,0.098902635,0.06561594,0.07333513,0.06960135,0.042997267,-0.018995462,1.5393208,1.4020848,0.70022637,0.17971736,0.016197136,-0.008211617,-0.79506814,-0.76202637,-0.94120246,1.394967,1.5954021,1.3338609,0.9543508,0.6458305,0.6397857,0.23071682,0.005538576,0.021236036,-0.06368242,0.84460044,1.110312,1.3265375,0.81256914,0.80481905,0.5806331,0.6088753,0.5009839,0.5014387,0.5543552,0.00969163,0.11355006,0.003612781,0.25295234,0.7254441,0.67545724,0.6981312,0.57143915,0.55066824,0.6559659,0.57573026,0.6404675,0.48957202,0.7391045,0.6522328,0.68645805,0.6270704,0.6840412,0.63661313,0.6235603,0.6767983,0.6308153,0.5398636,0.55117005,0.5476613,0.53992456,0.5396595,0.71525556,0.6854674,0.6837681,0.5868716,0.57356334,0.6080988,0.6237074,0.5707992,0.72057587,0.4706748,0.7833758,0.85026336,0.70737135,0.7108052,0.7318995,0.71477354,0.71939975,0.5911265,0.59000224,0.6013806,0.90943825,0.76888126,0.8195886,0.7499558,0.6470291,0.6347543,0.57013494,0.5640915,0.5139765,0.67485005,0.5274415,0.5922688,0.9590686,0.8747622,0.7153725,0.5414925,0.656376,0.60671455,0.5567099,0.63471717,0.046925377,1.0272595,0.7845187,1.4038384,0.86811125,0.765393,0.71407217,0.49653366,0.57388335,-0.60810256,-0.3893667,0.9242222,1.0780426,1.2940581,1.5225921,1.270604,1.0353576,-0.54247266,-0.645622,0.5330493,0.4164045,0.280704,-0.8473246,1.3196151,1.5431516,-1.8722246,0.034783944,0.008241693,0.07227265,0.02320401,0.02902173,0.024183998,-0.01644783,-0.056161385,0.029620226,-0.29307744,0.021367291,0.077229805,0.20606096,0.13385603,0.07902372,0.051733814,0.044532083,0.012998005,0.034508362,-0.012107146,0.1535798,0.041137855,0.07058736,0.21006869,0.09717297,0.112978086,0.108129255,0.072026975,0.0461781,0.060692012,0.04866731,0.16428658,0.17938185,0.06886359,0.14549968,0.11803427,0.06696816,0.0733654,0.08956631,0.037212964,0.04750121,0.040474635,0.09891312,0.10278977,0.078506984,0.15645993,0.12253887,0.124379195,0.023247167,-0.0075706113,0.043047365,0.04825682,0.10500487,0.11218344,0.1126066,0.093246415,0.15825243,0.13147649,0.108081646,0.082001925,0.039009415,0.090635106,0.061119415,0.079925746,0.124156184,0.097033046,0.06753105,0.20353569,0.17613691,0.092381775,0.059577357,-0.0120522,0.04824973,0.055107087,0.08078569,0.10394644,0.086531356,0.07097929,0.15301493,0.11603283,0.121070825,0.09772224,0.11030555,0.07641389,0.08962895,0.13577826,0.10844933,0.13762984,0.06289541,0.15273902,0.11591096,0.13198404,0.07656036,0.094336525,0.12964125,0.09118659,0.15326574,0.2044082,0.19361508,0.0057523423,0.254263,0.118427254,0.10078269,0.06896294,0.07194164,0.06823079,0.01941391,0.08767735,0.20558129,0.13712895,-0.040017243,0.09126292,0.0644338,0.023612104,-0.015277588,0.01528539,0.015703175,0.045203883,-0.033126473,0.029480519,-0.052097898,-0.047813047,-0.27336717,-0.257483,-0.2086134,-0.21381986,-0.1489295,-0.16163547,-0.14026448,-0.21609902,-0.32228228,-0.040997487,-0.046570983,-0.17617089,-0.29800054,-0.14346708,-0.09585847,-0.10342608,-0.12513503,-0.11730105,-0.096107244,-0.22376773,-0.2491182,-0.1406749,-0.15296678,-0.12495727,-0.07311213,-0.09247639,-0.093153544,-0.061372593,-0.09395225,-0.109505735,-0.18905112,-0.17655624,-0.11334003,-0.046380002,-0.07332995,-0.09234808,-0.06720254,-0.08050344,-0.0571093,-0.05949183,-0.13530964,-0.15220596,-0.13054097,-0.10489977,-0.12942778,-0.12389204,-0.11245144,-0.10735811,-0.08642368,-0.10773856,-0.10003405,-0.08094616,-0.14782538,-0.08049641,-0.07669246,-0.09614431,-0.11876559,-0.09081389,-0.108064234,0.031183377,-0.089260206,-0.06972724,-0.11677819,-0.14021955,-0.13130072,-0.09415895,-0.13553616,-0.11540475,-0.11075212,-0.09110684,-0.13346854,-0.12653156,-0.094296575,-0.11524577,-0.110375226,-0.15712804,-0.13253343,-0.13164927,-0.09012994,-0.11934469,-0.09729962,-0.12431978,-0.12920457,-0.11000335,-0.12906699,-0.14397573,-0.18194416,-0.09755809,-0.067662746,-0.087476194,-0.063861184,-0.05945203,-0.041188978,-0.08083533,-0.06696117,-0.12945855,-0.09430293,-0.12398582,-0.30954877,-0.19021128,-0.17185953,-0.18559903,-0.13143454,-0.14942314,-0.1624965,-0.1445477,-0.13028617,-0.08386634,-0.2527049,0.020389669,-0.4743825,-0.12998843,-0.15941887,-0.1398001,-0.18930556,-0.08434972,-0.12544204,-0.15702026,-0.040737543,0.0032204057,1.129796,-1.6269801,-0.78099674,-0.71193284,0.17332837,-0.09653081,1.4434708,0.7417512,-0.301565,-1.6425571,1.081255,-1.6417179,-0.70344096,-0.81289554,-0.44615036,-0.50482386,-0.6543439,-0.56510496,-0.4386263,-0.91491216,-1.6260475,-1.5260944,-0.5177237,-0.7726102,-0.6711517,-0.63966256,-0.57083327,-0.6939774,-0.6073001,-0.6826274,-0.6575219,-0.6954647,-0.1162723,-0.52818507,-0.46349636,-0.7258788,-0.7330919,-0.6724042,-0.6447663,-0.5575591,-0.55152684,-0.62889117,-0.6943897,-0.16896823,-0.25982013,-0.630343,-0.6936002,-0.7998081,-0.69232726,-0.75802433,-0.6954534,-0.7144298,-0.61682177,-0.5832149,-0.4506009,-0.1288358,-0.5419139,-0.65838915,-0.7330077,-0.6551996,-0.5526642,-0.65532666,-0.6824598,-0.69340765,-0.5853465,-0.3445108,-0.17448597,-0.61055607,-0.6916645,-0.72556144,-0.7201781,-0.73860943,-0.722804,-0.80715746,-0.690444,-0.6569543,-0.81462973,-0.6849873,-0.49928197,-0.6645764,-0.58701843,-0.60179174,-0.5840866,-0.62605846,-0.7481069,-0.68982834,-0.49843243,-0.8086123,-0.37829444,-0.8114358,-0.4904908,-0.7030921,-0.6275072,-0.58431,-0.64833933,-0.71374685,-0.6389413,-1.1627533,-0.8014329,-1.710661,-0.9819931,-0.99983144,-0.33048418,-0.5158958,-0.42356724,-0.51180625,-0.42843938,-0.810573,-1.2414732,-1.4478004,1.1597615,-1.6046331,-0.6073695,0.4568407,0.761559,-0.21438926,0.5526119,0.11572195,1.37535,-1.548484,1.0985122,-0.07818433,-0.029234467,0.409481,0.06983243,0.27830136,0.21495353,0.0061705955,-0.050207164,-0.03655344,-0.052741285,0.43903393,-0.0061847195,0.03271823,-0.08914697,0.052280467,0.17231579,0.10143391,0.02678243,0.13980839,0.10963966,-0.032423094,-0.038366992,0.30042738,0.123433,0.2050365,0.14758204,0.17974935,0.14470896,0.08173437,0.046041742,0.11688958,0.08982129,0.05962487,-0.053686187,0.0763474,0.1429104,0.21729526,0.173087,0.11800596,0.041222792,0.16160996,0.089738764,0.08937281,0.12460473,0.062896855,0.015226296,0.07779494,0.16015205,0.017992757,0.09300343,-0.06719715,0.087924965,0.07075323,0.12423794,0.12659842,0.091249414,0.21502037,-0.054692883,0.11603853,0.10945867,-0.8932709,-0.04361341,0.096191555,0.064532995,0.082618795,0.096095696,-0.29133207,0.10487224,0.019093145,0.15286373,-0.32730296,0.026125195,-0.09270887,0.13466842,0.15627709,0.14243315,0.03582881,0.10683003,0.09537173,0.053712714,0.13382635,-0.47140345,-0.04414412,-0.0021082703,0.10691114,-0.01853531,0.0011115337,0.3823173,0.10636614,-0.046317473,-0.05146094,0.16473249,0.043742836,0.036413938,0.14251812,0.15798989,0.04915889,0.06288416,-0.03401,-0.18969393,-0.3089029,-0.054076836,-0.15692003,0.13639171,0.09171753,0.009987948,-0.018061288,0.057126123,-0.014612177,-0.1934331,0.08032895,-0.016375402,-0.2845646,0.06719622,0.09003353,0.027950402,-0.15041645,0.095091574,-0.12706207,0.028329121,0.26668617,0.004858588,-0.043019053,-0.25689548,-0.47808695,-0.24102911,-0.41570288,-0.15457508,-0.10323146,-0.15113552,-0.2501989,-0.030180886,-0.0039032283,-0.11817066,-0.25588906,-0.11128458,0.008024053,-0.41033986,-0.27684006,-0.42721546,-0.31737256,-0.16021086,-0.21801959,-0.06195422,-0.2811072,-0.27877626,-0.5433623,-0.37133965,-0.35439026,-0.3129853,-0.42282924,-0.49202892,-0.48973873,-0.4630489,-0.30642292,-0.0923058,-0.31185204,-0.44834375,-0.29112685,-0.38331166,-0.40812638,-0.44117025,-0.318005,-0.32579583,-0.22982652,-0.31617624,-0.24747509,-0.25607082,-0.41363207,-0.38521692,-0.33745486,-0.32968295,-0.40679482,-0.4048539,-0.6693473,-0.3566696,-0.27337638,-0.2527437,-0.358774,-0.46598884,-0.36641416,-0.275845,0.009077948,-0.48429674,-0.39304346,-0.4765361,-0.25159582,-0.31777102,-0.48256108,-0.34285894,-0.44265038,-0.50687695,-0.4050935,-0.40442178,-0.37327173,-0.37098867,-0.4163422,-0.40408486,-0.31356326,-0.5219025,-0.20559713,-0.41009188,-0.3841564,-0.39895305,-0.39046967,-0.3181827,-0.4376212,-0.26977286,-0.47159538,-0.2677601,-0.36848962,-0.34787178,-0.3934769,-0.3889048,-0.40837276,-0.501927,-0.35681134,-0.40560877,-0.29626682,-0.4435259,-0.34825426,0.27910858,-0.29698163,-0.3747685,-0.43232846,-0.49279097,-0.45933136,-0.39661142,-0.36168072,-0.33551645,-0.36172664,-0.4882918,-0.036597017,-0.22351348,-0.42979518,-0.43411404,-0.5138375,-0.4467432,-0.28486693,-0.38861707,-0.39455867,-0.061326135,-0.0186998,-0.3486872,-0.6474336,0.7037123,-0.0035080286,0.23001301,0.6868226,0.9829196,0.9707004,1.0138509,-0.79763716,-0.35448378,-0.7986566,0.109274864,-0.21010332,0.11298222,-0.2127414,0.6227353,0.371861,0.6355455,0.8248894,-0.06503848,-0.8931511,1.0495477,0.33059824,-0.561772,-0.2795001,-0.08180324,0.2813347,0.1115677,0.88723266,-0.3517449,-0.42798585,0.4129686,0.16568965,0.3679719,-0.297181,-0.56755525,-0.97921693,-1.091061,-0.8908977,-0.28324932,-0.7683616,-1.1325841,0.9089661,0.3477995,0.17799276,-0.13255599,-0.6002703,-0.6649451,-0.8445855,-0.99074674,-0.83123106,-0.50192463,-0.5677347,0.31815034,1.1346328,0.30491158,0.103395484,-0.7012913,-0.94651943,-0.987604,-0.97044855,-1.0574849,-0.768092,0.14169142,0.17698044,0.5954313,-0.5700802,-0.19006476,-0.4782979,-1.1046898,-1.02012,-0.6047694,-0.99003196,-1.1289676,-0.05281182,0.29991427,-0.17185755,-0.52628547,-0.96511686,-0.9116419,-0.765137,-0.86918247,-0.98778564,-0.9945206,-1.0152537,-0.7828614,0.19174448,0.367566,-1.289386,0.58007413,-0.03236222,-0.3611496,-0.5730272,-0.3070448,-0.4020696,-0.16396213,-1.0979773,0.9519123,-0.78359026,0.6162208,-0.6817919,0.034505628,0.0003117706,-0.12292552,0.32321042,-0.17490569,0.7535159,-0.5997922,-0.8687132,-0.31797597,-0.8842416,-0.40999183,1.509099,1.2456696,1.0534639,0.6821982,0.34423694,1.8023903,-0.8704417,-0.3260567,-0.83391,0.04872236,0.045839906,0.027242463,-0.03024353,-0.007982695,-0.0035419546,-0.04370749,-0.054562088,0.0763521,-0.38816166,-0.050764307,0.09591201,0.18553196,0.10936694,0.09143561,0.032827068,0.047412578,-0.042847097,0.051304933,0.027322957,0.14121069,0.1806113,-0.0053953193,0.09398723,0.017116103,0.08865344,0.10714914,0.10403326,0.10593561,0.0961276,0.07105476,0.17748603,0.17392331,0.051519804,0.10375177,0.06792297,0.038236525,0.08569258,0.05494808,0.027581878,0.057329055,0.067317605,0.08673215,0.09764549,0.023541778,0.12352914,0.059539057,0.090495765,0.026467443,0.014953025,0.0515946,0.0590211,0.14645512,0.090289004,0.09529878,0.019934757,0.08079404,0.04499574,0.032643065,0.10687188,-0.025351321,0.11189323,0.06668142,0.07879303,0.10109191,0.09628221,0.057828575,0.11926896,0.10082955,0.056411654,0.019749738,0.008694242,0.03803535,0.050983503,0.08218427,-0.0051991586,0.023864225,0.020325053,0.09460288,0.02933383,0.030712346,0.074539274,0.09814957,0.09274906,0.09123443,0.10985026,0.08950037,0.10389957,0.029120866,0.06928204,0.07066719,0.046083294,0.07579012,0.08385925,0.13806178,0.11347125,0.15366846,0.18776676,0.1638152,0.090201534,0.13811135,0.047909103,0.026715348,0.038754884,0.05081949,0.013751667,-0.014417833,0.05128774,0.15697476,0.16288103,-0.0189023,0.14374253,0.042380955,-0.000998752,-0.020130008,0.009819624,-0.005515754,0.026229944,-0.06394688,0.047637098,-0.01668113,0.027110608,-0.026258128,-0.13513072,-0.07865323,-0.10101258,-0.13171779,-0.11746539,-0.08924097,-0.15350026,-0.121450916,-0.022502787,0.035374522,-0.081369005,-0.17815655,-0.15347534,-0.05930618,-0.06443175,-0.10203986,0.00042716833,-0.017410876,-0.18743458,-0.07011642,-0.026661562,-0.020710073,-0.020580858,-0.041347884,-0.081960134,-0.08207583,-0.009316799,-0.07577197,-0.10265782,-0.20029637,-0.13975084,-0.026298242,0.013355477,0.035445213,-0.071719505,-0.029277457,-0.06620797,-0.017200429,0.012734789,-0.093546405,-0.16805871,-0.11542396,-0.085915715,-0.13393265,-0.10508555,-0.111264594,-0.10582207,-0.1368337,-0.08643709,-0.08001566,-0.053220883,-0.1439077,-0.029112117,-0.003229156,-0.009812202,-0.07691039,-0.11288535,-0.1476518,-0.037995633,-0.06523296,-0.05400923,-0.058778267,-0.13229012,-0.12180396,-0.017884498,-0.07802225,-0.09082576,-0.1036617,-0.092448644,-0.15486272,-0.107166804,-0.080208845,-0.0710181,-0.079677224,-0.080364436,-0.0655506,-0.07718658,-0.04235545,-0.15812953,-0.09796088,-0.12003561,-0.06257574,-0.045094214,-0.10322799,-0.08714099,-0.110131815,0.034982532,0.09400774,-0.016098661,-0.05614293,-0.031533446,-0.0359875,-0.05491944,-0.031050187,-0.06569232,0.042242542,-0.012302106,-0.51586086,-0.13380736,-0.049794503,-0.11669741,-0.07344056,-0.1337878,-0.10599914,-0.058600716,-0.00577211,-0.010874578,-0.1326127,0.008603198,-0.3800424,-0.060316227,-0.10707799,-0.112444036,-0.106453404,0.073182344,-0.06055203,-0.050391134,0.00904171,-0.039100923,-0.45993185,-1.0666133,-0.58071786,-0.8023749,-0.05041173,-0.2496152,-0.07760025,-0.105062336,-0.3802865,-1.2353635,-0.45126677,-1.149469,-0.18510751,-0.5490763,-0.36294872,-0.3789613,-0.45535007,-0.40281856,-0.23861617,-0.052952386,0.09212589,-1.1136583,-0.18550123,-0.25863495,-0.41071758,-0.37396434,-0.46042353,-0.46792015,-0.46545798,-0.33967012,-0.5160493,-0.5032573,-0.014114203,-0.064171694,-0.17284821,-0.45758784,-0.4707294,-0.61101115,-0.5083704,-0.54389435,-0.27501032,-0.45161963,-0.36420634,-0.20809516,0.019514572,-0.3437271,-0.48798305,-0.5974247,-0.6061251,-0.5624261,-0.5778526,-0.52063096,-0.46597835,-0.30575567,-0.27200556,-0.032611903,-0.31404844,-0.46286723,-0.5734384,-0.49806592,-0.41599122,-0.530633,-0.5069111,-0.539153,-0.33232763,-0.21580558,0.172359,-0.19185631,-0.484343,-0.41759914,-0.48208413,-0.572687,-0.45229393,-0.5539856,-0.5217358,-0.32943815,-0.19180243,-0.3316468,-0.19903356,-0.41321027,-0.47045162,-0.49765942,-0.5080311,-0.5319549,-0.5677566,-0.5516938,-0.31780562,-0.4151043,0.047889568,0.08121059,-0.11266301,-0.60880744,-0.4924075,-0.3880247,-0.52943695,-0.43868706,-0.49400383,-0.512601,-0.20550849,-1.2149088,-0.47804126,-0.55158406,-0.12618408,-0.2282205,-0.19869398,-0.3425067,-0.3580524,0.15648824,-0.5639187,-0.97371113,-0.4723737,-1.227669,-0.1086975,0.36362576,0.22642323,0.032736745,0.8717316,-0.012602395,-0.3111368,-1.0146359,-0.4548354,-1.2481661,0.0033045635,0.302272,0.10174024,0.045982562,-0.0249075,-0.060889337,-0.0029583815,-0.14950174,0.08746935,-0.14348303,-0.029859507,-0.08781825,0.12057444,0.01631033,0.13881628,0.029612778,-0.06343079,0.13858663,0.048334442,-0.02831861,0.059933547,0.4315614,0.016796757,0.05758455,0.14374165,0.10835223,-0.027215464,-0.02909559,-0.00877481,-0.049596854,0.038223088,-0.009242869,0.15250616,0.09523866,-0.0048485855,-0.00770942,-0.06255883,-0.057550367,-0.05956969,0.043552976,-0.011960496,-0.04236386,0.11198447,0.014137649,0.047554784,0.102397434,0.09165442,0.06080894,0.07858122,-0.014149749,0.090512276,0.096442156,0.025484642,0.118477985,0.04457039,0.09696867,0.09697261,0.038718127,0.012924405,-0.035679024,0.0026443342,0.080668345,0.08208637,0.044374023,0.041416492,-0.048291236,0.04259984,0.29405832,0.12665439,0.14631641,0.15528768,-0.2491214,0.10262769,0.08897346,0.06965444,0.04112235,0.029610615,0.09676293,0.23722523,0.10174232,0.10385833,0.16021477,0.03782732,0.0931049,0.034282885,0.07752083,0.014005313,0.0965959,0.06895964,0.0925214,0.040857766,0.10669548,0.014256415,0.017329982,0.04348455,0.007854717,-0.022023303,-0.0060135704,0.14550288,-0.07549561,0.03224658,0.092813626,0.16732104,0.13657361,0.09746267,0.0480577,0.019527731,0.075371556,0.049209695,-0.009882989,-0.002149478,-0.28690314,-0.02387174,0.0071589006,0.0062564914,0.0009805544,-0.33122507,0.07952514,0.15203302,0.098467,-0.019582486,-0.0017605486,-0.35595936,-0.3503217,-0.14788426,-0.111723244,-0.1375053,-0.29677847,-0.2220941,-0.28299224,-0.3191138,-0.007847333,-0.55891126,-0.33909616,-0.07195507,-0.120834164,-0.3053186,-0.4500191,-0.29673618,-0.34505808,-0.12057442,-0.26621652,-0.24271347,-0.46465173,-0.4356626,-0.3240402,-0.3560453,-0.35339615,-0.2789552,-0.3539993,-0.28929976,-0.21001628,-0.17612381,-0.27983785,-0.36940113,-0.32722238,-0.26558146,-0.2783352,-0.34352332,-0.36058864,-0.30743837,-0.26022205,-0.25616324,-0.40634745,-0.38852152,-0.2638125,-0.28468457,-0.21848159,-0.32091832,-0.37904817,-0.24719764,-0.42412627,-0.4219159,-0.33051115,-0.3478098,-0.31007716,-0.20789076,-0.14687443,-0.32435724,-0.33467534,-0.6223622,0.028173981,-0.44467208,-0.44303516,-0.4411415,-0.46476603,-0.23719464,-0.39447662,-0.26326182,-0.2168576,-0.34318665,-0.45433444,-0.57342696,-0.4503508,-0.4280383,-0.3810118,-0.3314882,-0.31419623,-0.31746832,-0.338297,-0.3488675,-0.32298982,-0.39865497,-0.39100286,-0.34693876,-0.4054778,-0.39443696,-0.2134861,-0.32118312,-0.3643762,-0.49359584,-0.4531906,-0.26142153,-0.43992984,-0.3766112,-0.31738234,-0.36716902,-0.36483914,-0.3379629,-0.40847594,-0.32090172,-0.4090985,-0.4459218,-0.5937829,-0.39411804,-0.21427031,-0.36917636,-0.418384,-0.29168874,-0.40931833,-0.48669854,0.028825581,-0.2504121,-0.32578954,-0.3958745,-0.30005074,-0.43051258,-0.2589176,-0.3989536,-0.29642886,-0.238996,-0.0151015865,0.6445318,-1.377374,0.14192854,0.13830663,0.3473609,-0.024257556,1.325621,0.9945207,0.8743616,-1.544384,0.5192626,-1.5898569,-0.8033119,-0.5419397,-0.94845724,-0.98784035,-0.81243974,-0.9798558,0.4302735,0.4378145,-0.6151668,-1.4597689,-0.13684277,-0.4770465,-0.61277795,-0.94907284,-0.9052016,-0.8572297,-0.44177812,0.11001502,-0.2746539,-0.320953,0.6947727,-0.14396353,-0.76897,-0.5436552,-0.85747296,-0.91050637,-0.88370705,-0.864856,-0.7143183,-1.0209986,-0.9971508,-0.15242651,-0.23918726,-0.5349442,-0.8156625,-0.87351394,-0.97507703,-1.0762264,-1.0054717,-1.1599715,-1.0519984,-1.1248056,-0.46650583,-0.28680846,-0.4338619,-0.6153922,-0.9609039,-0.99627155,-1.1269946,-1.0802974,-1.3000613,-1.0497732,-0.75687397,-0.636506,0.059006557,-0.5316554,-0.49700063,-0.974397,-1.2516413,-1.2269064,-0.9752997,-1.205032,-1.0953854,-1.2015063,-0.31322774,-0.63568425,-0.57651365,-0.7665888,-0.87934875,-1.2743001,-1.136012,-1.2452998,-1.340769,-0.635835,-1.0389055,-0.3226439,0.36090177,-0.99621373,0.30122793,-0.61911535,-0.6891437,-0.45746043,-0.5060145,-0.77463907,-0.8706083,-0.59082806,-0.73643374,-1.6688565,0.124416046,-0.08020871,0.3736031,0.24657291,0.2554042,-0.97145134,-1.172642,0.96237195,-1.2090533,-1.4463649,0.55476725,-1.4694121,0.04401279,0.84484553,0.61273116,0.14126505,0.15541698,-0.0861205,1.3870183,-1.5616115,0.51891476,0.6389962
