-0.009961584,0.025659792,0.044810556,0.061372966,0.08213597,0.10495399,0.15793563,0.16158435,0.1235494,0.07584659,0.0386027,0.074978076,0.08887526,0.065686144,0.064179465,0.07826034,0.11571748,0.1864048,0.14392094,0.15025371,0.14699343,-0.0041525885,0.0817795,0.12715223,0.08981547,0.069654286,0.08370565,0.078800485,0.08396157,0.09111206,0.07706578,0.089828916,-0.07711978,0.10052288,0.10688569,0.066232726,0.07679252,0.06022346,0.056935973,0.049885765,0.082787566,0.044475146,0.054372974,-0.0038487136,0.10490528,0.066448726,0.090885274,0.05566768,0.053985957,0.012562176,0.05771303,0.071031146,0.04044554,0.0040319213,-0.019416679,0.0648402,0.07124321,0.07488159,0.038581252,0.016819404,0.04861541,0.021069694,0.0681427,0.04520424,0.019272817,-0.07258319,0.108987376,0.054735463,0.07458321,0.033181936,0.03037042,0.006777532,-0.00026174873,0.020573743,0.013970205,-0.000700391,-0.07026078,0.07706652,0.0401702,0.070957586,0.046874892,0.03934706,0.017666101,0.031455103,0.024020689,0.02599686,-0.03890629,-0.08923054,0.0837706,0.034453847,0.081285104,0.059998583,0.02813814,0.053500585,0.021684203,-0.00799941,0.013587405,0.00677234,-0.067533836,-0.00090800633,-0.049731325,0.03342315,0.068290204,0.02238692,-0.00035113495,-0.029102335,-0.05188243,-0.021934334,-0.03121161,-0.061518546,-0.04389634,0.032354612,0.011664045,0.045232985,0.018000528,0.02076564,0.008337294,-0.003104417,-0.012114705,-0.029071335,-0.020001275,0.043440267,-0.13253254,-0.1999773,-0.1829973,-0.1588811,-0.16857967,-0.14089558,-0.1894426,-0.20370942,-0.120718144,-0.04038509,-0.059045844,-0.17203088,-0.21554108,-0.15962428,-0.11289919,-0.0945467,-0.12437767,-0.10045467,-0.17113212,-0.16170475,-0.16097704,-0.19563435,-0.16536918,-0.15333654,-0.144178,-0.1514491,-0.1358581,-0.12009213,-0.15921922,-0.1070644,-0.17464426,-0.1647207,-0.18930194,-0.16579014,-0.13206573,-0.15272206,-0.12683232,-0.12105916,-0.09309718,-0.11302189,-0.12383814,-0.13376021,-0.13876258,-0.20490646,-0.17737335,-0.15037386,-0.116808794,-0.10278596,-0.09870464,-0.11027254,-0.10406374,-0.1126868,-0.116355695,-0.15278146,-0.18286294,-0.14830786,-0.13312542,-0.09987706,-0.09618003,-0.043425865,-0.09577467,-0.09156489,-0.105583094,-0.07169172,-0.17894186,-0.15704985,-0.13523929,-0.14992225,-0.117473006,-0.109106556,-0.103061646,-0.09633667,-0.10315168,-0.12776676,-0.10799978,-0.12834555,-0.14534695,-0.12320341,-0.1118128,-0.11257898,-0.10772437,-0.11036654,-0.093942955,-0.08271554,-0.09907016,-0.09486588,-0.13167468,-0.15488312,-0.124118626,-0.11169407,-0.11870022,-0.12886879,-0.09406962,-0.08106286,-0.10460915,-0.04906663,-0.039337333,-0.062483795,-0.11178098,-0.20588098,-0.17569485,-0.10900655,-0.08734161,-0.091324754,-0.07177135,-0.062322177,-0.06672557,-0.010096763,-0.056159124,0.040080544,-0.12446479,-0.18548761,-0.16289663,-0.09781358,-0.13302054,-0.1456019,-0.09463205,-0.08894092,-0.0017470276,-0.032148577,0.85928595,-2.1651018,0.20209157,-0.48343837,-0.64604574,-0.55598235,-1.4470373,-1.2473252,-1.281888,-2.2177489,0.85522294,-2.3749094,-1.1733321,-0.6362342,-0.5730235,-0.5307701,-0.7837439,-0.80445796,-1.0453337,-1.1730024,-0.7483378,-2.268736,-0.92909557,-0.9139053,-0.63352585,-0.5228785,-0.4314534,-0.42143947,-0.44041133,-0.36089587,-0.5977654,-0.72617584,-0.7390212,-1.1776069,-0.60949916,-0.5356064,-0.46673566,-0.32774168,-0.24070552,-0.1904266,-0.20896623,-0.38810048,-0.411173,-0.42216918,-1.1901121,-1.0849514,-0.6516241,-0.4097946,-0.23384894,-0.19189279,-0.2036726,-0.24581498,-0.21143024,-0.1932566,-0.083166465,-0.9649689,-0.4654706,-0.2849153,-0.18501891,-0.17514673,-0.110812455,-0.16521913,-0.1526149,-0.20238727,-0.15623777,-0.14156054,-0.8123071,-0.8168257,-0.34404942,-0.26531318,-0.16583152,-0.15265985,-0.16243951,-0.037941813,-0.19308166,0.01222215,0.07367324,-1.2334868,-0.92500407,-0.46077526,-0.25991014,-0.21173929,-0.108770944,-0.12896824,-0.11731625,-0.054269638,-0.04019755,0.49157932,-0.5742449,-0.98550504,-0.5740937,-0.35694396,-0.16179487,-0.18300265,-0.123584904,-0.040201902,0.011384737,0.041924637,-0.0035298814,-2.2728908,-0.60575193,-1.0187395,-0.41704735,-0.12625974,-0.11130327,-0.02628921,0.030613162,0.0758266,0.17192368,-2.2667356,0.8720824,-2.205442,-0.5694839,-0.44128674,-0.31172132,-0.33532202,-0.25387067,0.024371121,0.09385625,-2.2319033,0.8975916,1.8967303,-0.021399794,0.05818969,0.28166795,0.002443587,0.08827836,0.11821647,0.12313013,0.20167466,0.20856616,0.35826817,0.011636331,0.27396935,0.46290702,0.29853624,0.14397645,0.09573088,0.11982522,0.16300227,0.18814138,0.29907763,0.4401429,0.35660696,0.14987697,0.25370258,0.25506327,0.11994643,0.11757559,0.11053833,0.17818855,0.1853266,0.28674954,0.34295693,0.4825628,0.041313283,0.121831864,0.09319467,0.082132846,0.050316248,0.09633344,0.1074313,0.13142674,0.16855215,0.20273803,0.29115263,0.032130655,0.122728616,0.021677876,0.09332858,0.029691728,0.017082298,0.08836858,0.09245061,0.1318333,0.081957154,0.21915603,0.03707476,0.081662714,0.047490343,0.067762025,0.040825725,-0.04999442,0.119264685,0.06492341,0.111561485,0.043813292,0.058027156,0.029788608,0.060872573,0.038275193,0.054175373,0.099012956,0.04148272,0.08155894,0.036397934,0.079784036,-0.02358723,0.06838116,0.06605633,0.15303458,0.04450501,0.09092214,0.10592209,0.03722829,0.05135056,0.09117561,0.045995895,-0.0007899891,0.1564926,0.1428204,0.30218393,0.14688097,0.09654765,0.023781128,0.043515094,0.013831472,0.00969145,-0.0057775946,0.11109708,0.1853497,0.27339283,0.66759014,0.24997357,0.12889312,0.081484534,0.06926248,-0.06602367,0.005208243,0.043451797,0.026242925,-0.03227695,-0.03931667,0.42996052,0.12652187,0.02912274,-0.026178641,-0.00012944032,-0.0582586,0.0098021645,-0.015189184,0.029178739,0.036375277,-0.0053407103,0.18280764,0.09126054,-0.07899509,0.000794373,-0.057808075,-0.021073977,-0.011969397,0.011387026,0.0047075264,0.047089115,-0.06281538,-0.040953387,-0.08374803,-0.034184646,-0.10167808,-0.049056154,0.012282049,-0.085770056,-0.1586115,-0.14067811,-0.15720537,0.016168451,0.02210548,0.005007328,-0.00550815,0.010978141,0.03964863,-0.04685074,-0.04353411,-0.041682575,-0.13133739,-0.086434275,0.067657344,0.022866761,0.046240475,0.012912871,0.013366783,-0.020509759,0.03856892,0.032020386,-0.019019054,-0.06551282,-0.08108721,0.06669209,0.050967928,0.015395915,0.015134543,0.037438925,0.003407403,0.031082476,0.015950654,0.027468229,0.049568307,-0.026515303,0.115893096,0.05252623,0.057500724,0.05131958,-0.03885021,-0.032372665,0.05722104,0.031080581,0.026942212,-0.06380197,0.05998467,0.1077509,0.07138008,0.04416535,0.011188512,0.046248585,0.04774054,0.031025382,0.055179838,0.03730548,0.023470666,0.023277974,0.016342351,0.01828699,-0.0393464,0.05965017,0.019140251,0.048573483,0.003719831,0.099919595,0.049483705,0.026769333,0.057197034,0.081358224,0.091589205,0.06946354,0.0129871145,0.067021586,0.02146794,0.040236685,0.07165237,-0.019328129,0.10468911,0.1116429,0.07246678,0.040953342,0.030007865,0.03569385,0.046744894,0.08154249,0.035121463,0.10675121,-0.0040654168,-0.058467556,0.06879639,-0.013060148,0.12989818,-0.030333826,0.02159283,0.10580817,0.096826695,0.097805485,0.11717126,0.116212144,0.083502725,-0.04467637,-1.8360832,-1.956866,-0.98299646,-0.6747565,-0.43649596,-0.68371034,-0.8213605,-1.289124,-1.5045662,-1.8548522,-1.9353462,-1.9795215,1.3948804,-0.76077384,-0.62083215,-0.6016101,-0.859711,-1.1471517,-1.2046466,-1.3706832,0.8116129,-1.9557555,-0.33184767,0.10862019,-0.49764225,-0.6522633,-0.5991995,-0.65534824,-0.4401825,-0.8907801,-1.2513658,-1.6834345,-0.7939763,0.139391,-0.59193075,-0.56830484,-0.5865021,-0.51817364,-0.55910826,-0.75997186,-0.88856673,-1.2257497,-1.2706661,-0.7861267,0.2911623,-0.01564217,-0.32366532,-0.47728282,-0.6654436,-0.83853334,-0.7319753,-0.8753793,-1.1261238,-0.83314085,-0.23567972,0.18984133,-0.43469968,-0.6376922,-0.5915076,-0.43345824,-0.6340281,-0.46343932,-0.53752965,-0.8211433,-0.6502581,-0.22397894,0.2867779,-0.56335664,-0.5578217,-0.6615769,-0.8083885,-0.73263615,-0.66642874,-0.69358647,-0.68588805,-0.7205792,0.08842247,-0.2564821,-0.6218185,-0.9902028,-0.78408295,-0.7230891,-0.7376115,-0.5009573,-0.46686232,-0.3916633,-0.40000364,0.500151,0.27832168,-0.40681565,-0.56950086,-0.3078019,-0.33630243,-0.33259794,-0.27583545,-0.40432262,-0.34525362,-0.81203514,0.35109407,-1.7443253,0.6556909,-0.22940429,-1.0004189,-0.8661128,-0.48014712,-0.6871726,-1.0809046,-1.5370172,-1.2858033,-1.9324707,-1.9101146,-1.768455,-1.2521913,-0.2986832,-0.037475113,0.46438077,0.25230658,-0.04309733,-0.6211946,-1.8642442,-1.7320738,-5.0663695,0.049158167,0.07504551,-0.15989295,-0.21140097,-0.072665,-0.060066514,0.023895714,0.041338604,0.083249055,0.33163062,0.015245803,-0.03717564,-0.16963635,-0.12026765,-0.10715614,-0.11299756,-0.022757737,0.012261622,-0.0012661805,0.07414159,0.24556431,0.2571807,-0.08401384,-0.10388911,-0.12179525,-0.1424457,-0.113127425,-0.026213901,-0.030078242,0.0146169625,0.09436417,0.22183493,0.24047376,-0.014806805,-0.1087659,-0.096755356,-0.03780782,-0.039943844,-0.043708786,0.039183978,0.054139752,0.089509875,0.14303845,0.16504705,-0.07928464,-0.08072077,-0.03982562,0.00274461,-0.001457262,-0.004364185,0.009153815,0.028011408,0.028237002,0.10217129,0.17741565,-0.02503602,-0.061247773,-0.029036352,-0.0042829756,0.043418296,-0.0292996,0.0242432,0.06263796,0.04809232,0.10315119,0.016635431,-0.0518493,-0.07550648,-0.042107433,-0.006945919,-9.844737e-05,0.001135961,0.0038359766,0.03355568,0.0055758464,0.03736554,-0.08956107,-0.013945956,-0.017659064,-0.045502357,-0.019009763,-0.011068413,0.009727067,-0.053101085,0.037392225,-0.0344606,-0.06437424,-0.13331011,0.106977224,0.06251971,0.05386109,-0.034997076,-0.061169628,-0.034062114,-0.047043588,-0.030288454,-0.0148312915,0.020373572,-0.011925899,0.11321309,0.23390505,0.054801513,-0.106030546,-0.05034457,-0.08196076,-0.029829403,0.017879138,0.037229173,0.032576714,-0.06711382,-0.004716315,0.45629397,0.043094292,-0.041010424,-0.012829524,-0.004361595,0.038784448,0.070105836,0.03597411,0.03639795,-0.040669303,-0.024752788,0.35601634,0.3071778,0.07505518,0.10063865,0.09396623,0.037532464,0.030657431,0.019404598,-0.034349132,-0.039419528,0.18964954,0.19761454,0.102733366,0.055264316,0.043572154,0.04446427,0.061493088,0.04238201,-0.08777416,-0.007829424,-0.10902483,0.22994703,0.20975773,0.124519326,0.11357137,0.11451507,0.12462692,0.070620805,0.08516166,0.048046976,-0.038911473,-0.0024531442,0.13412778,0.092979714,0.14356716,0.10084503,0.10274569,0.10515567,0.066578306,0.10575367,0.09782889,0.06297195,0.09582308,0.12016109,0.086167544,0.12509318,0.12932289,0.12946336,0.14661649,0.11323264,0.06576618,0.105471365,0.14314562,0.10492004,0.10193726,0.11424285,0.122191034,0.091142215,0.06976952,-0.050568916,0.09440805,0.10270173,0.114113465,0.072481215,0.100400865,0.08774142,0.111935794,0.12479579,0.09422437,0.1298614,0.099020414,0.11320858,0.09624207,0.09517018,0.09789987,0.07684301,0.06897596,0.086752616,0.08077673,0.099089876,0.122943245,0.14369981,0.087693855,0.11868682,0.08608725,-0.0073954184,0.11425582,0.1119524,0.06915768,0.115798324,0.08231173,0.0817079,0.12573533,0.06784675,0.11224907,0.00025322678,0.0916204,0.18517233,0.08636586,0.119373925,0.0586952,0.11329184,0.06374783,0.0849858,0.078110516,0.1028817,0.06761894,0.020550111,0.059698503,0.022660507,0.041162446,0.016331201,0.03240213,0.06956436,0.1166637,0.07110095,0.16130407,0.107019424,0.03115058,0.039487876,-0.4290665,0.3880024,-0.9761041,-0.7059128,-0.47776368,-0.8387413,-0.8662211,-1.6366897,0.06436443,0.4576054,-0.3832215,0.448536,-1.5352467,-0.70846844,-0.34885874,-0.14489444,-0.19923688,-0.32656214,-0.87528604,0.24879406,0.18965149,0.46963474,-1.0177773,-0.8131155,-0.10839659,-0.02595886,0.031496227,0.0033056159,0.20528728,0.3098859,0.25014472,0.20484821,0.20646207,-1.0353059,-0.52522343,0.17501147,0.11400482,0.36767402,0.23938222,0.19760364,0.25974968,0.090707876,0.284983,0.061417926,-0.89920765,-0.08044504,0.33842903,0.26440158,0.26344672,0.18796112,0.22123984,0.2955057,0.18684098,0.03053328,0.023565458,-1.0883354,-0.2210153,0.16527005,0.2574293,0.22572616,0.1969976,0.24304317,0.25683916,0.15837602,0.15976003,0.11696544,-1.1131308,-0.38270065,0.08385806,0.12846692,0.313477,0.3060202,0.183388,0.22482157,0.19463784,0.23189932,-0.9741176,-1.0855576,-0.5690343,0.16768768,0.223752,0.2690902,0.27113473,0.27636707,0.15146047,0.24987452,0.17624678,-1.2028251,-1.7273006,0.21158905,-0.66750443,0.15693548,-0.072793335,0.051944293,-0.11543437,-0.16969162,-0.4731905,-0.6849037,-1.141809,0.4058952,0.5508568,0.31224895,-1.2363471,-0.89807284,-0.8677351,-2.012153,-2.065143,-2.0006318,-1.2744993,0.3979378,-0.31663662,0.37033954,-2.7065942,-1.134572,-1.3848823,-1.4845681,-0.6167968,-2.4510477,-2.9850163,0.41115963,-0.39719167,1.5513577,0.03905567,-0.14749734,-0.17727451,-0.16684036,-0.027941091,-0.04716808,-0.010834674,0.019332185,0.036689915,0.037826907,-0.019866763,-0.051886354,-0.1736882,-0.12289674,-0.069040336,-0.026007054,0.0034552198,0.019753294,0.051618036,0.079972275,0.2552004,0.19543797,-0.03472362,-0.09255673,-0.103534386,-0.057368614,-0.04148291,0.021010192,0.013629734,0.056199692,0.12163023,0.22398533,0.25166184,-0.0037678515,-0.024460765,-0.027798021,-0.052185208,-0.060057066,-0.0010912052,0.0048052007,0.0667628,0.09567358,0.1638235,0.15737635,0.035403267,0.030789435,0.013034434,0.019645736,-0.009985173,-0.041313935,0.03586206,0.06607394,0.100146845,0.10200855,0.13570972,0.031914286,0.028249584,0.037685756,-0.0076344074,0.002300829,0.004823273,0.0066045923,0.046581417,0.064729996,0.09317071,0.07837358,0.037654135,0.082407944,0.06755108,0.00080999476,0.04088343,-0.04552919,0.05673668,0.04155293,0.08572508,0.13585135,0.13517751,0.021028237,0.010146221,-0.00679656,-0.039247125,-0.0024298856,0.010194952,0.024215274,0.075775824,0.11308544,0.18131386,0.19411744,0.01272128,-0.0880566,-0.07199098,-0.09766291,-0.0646953,-0.018705646,-0.037303604,0.044489324,0.09272209,0.24309464,0.2525692,-0.06487302,-0.09883468,-0.09985377,-0.10653731,-0.08808846,-0.065516636,-0.06779885,-0.016123444,0.05870704,0.21857265,0.16356857,-0.00545914,0.028054683,-0.10846713,-0.10042219,-0.08143442,-0.096005864,-0.05950866,-0.046971403,0.009587481,0.13165663,-0.020675939,0.040229026,0.15884234,0.1830676,-0.008033697,0.04635395,0.019700417,-0.0050788657,-0.09654651,-0.11110922,-0.08421571,0.03465317,0.00072186877,0.08104713,0.022412552,0.011320228,0.011748427,-0.03368687,-0.008455474,-0.009348398,-0.1279466,-0.1323371,-0.24236004,0.08960792,0.08518777,0.0633476,0.039002992,0.03312454,0.005233089,0.00018089221,-0.028759206,-0.037075244,-0.10930918,-0.076864526,0.085429125,0.04305665,0.02824591,0.05057725,0.01281575,-0.0110839,0.006175407,0.0035369492,0.014963799,-0.04638755,-0.04068262,0.0600933,0.03973285,0.023148948,0.013992116,0.0010268983,-0.022123557,0.0006672598,-0.017476248,-0.018551223,-0.035728462,-0.01977026,0.0677985,0.057170536,0.045816593,0.026720084,-0.020961342,-0.04479683,-0.040583268,0.0014796017,-0.0770803,-0.08373492,-0.094063565,0.04400551,0.041412197,0.029607985,0.0070559112,0.020920696,-0.031678308,0.006401811,-0.02394775,-0.0589151,-0.025241569,0.0020624571,0.042749077,0.027015023,0.034602992,0.0022336387,0.02267155,-0.008952813,0.0036552618,-0.018861769,-0.07323468,-0.04783384,-0.051690143,0.07430094,0.08188852,0.042709414,0.005240712,0.01159597,0.0016631457,0.023691371,0.0027974476,-0.05162803,-0.10985715,-0.10026966,0.03183494,0.03864626,0.03757134,0.06303212,0.026291538,-0.022890836,-0.03320377,-0.07235898,-0.14411056,-0.1560659,-0.107822135,0.045155466,0.050853025,0.10334086,0.09808667,0.090716355,0.009195121,-0.06594689,-0.11686049,-0.1308329,-0.13000345,0.020072825,0.8692924,-1.7371558,0.68345284,0.9419861,0.6665134,-0.33281985,-0.2566864,-0.5949664,0.896754,-1.7480389,0.87181187,-1.8413646,-2.6541345,0.9314004,0.6494654,0.47734195,-0.06901833,-0.26897296,-1.0160576,-1.1880468,-1.085734,-1.7244389,0.5773858,0.99229753,0.69318837,0.35166097,0.3399559,0.16774605,0.064234234,-0.4122762,-0.6173037,-1.1820668,-1.2176486,-0.0349147,0.33362684,0.31813103,0.46215695,0.19993678,0.19412395,-0.110392354,-0.2595458,-0.5996336,-1.2402319,-1.5109991,-0.16587016,0.14522697,0.22483857,0.37569335,0.14139292,0.100313775,-0.029676799,-0.3021667,-0.37689263,-0.9216262,-0.7854468,-0.3780736,0.22218506,0.34798628,0.34555784,0.076541245,0.16480508,0.11545508,-0.1591984,-0.31561023,-0.74475974,-0.74318606,-0.6115909,0.033411365,0.29414633,0.24226803,0.21101621,0.20802726,-0.0035063499,-0.22235933,-0.3970372,-0.7719516,-1.1238136,-0.48303968,0.022729166,0.3903193,0.4393479,0.041691326,0.12941845,-0.16265771,-0.27661544,-0.54074365,-1.100078,-1.4775742,0.32628462,0.705494,0.5031553,0.5770847,0.09513659,0.0118586905,-0.08807308,-0.41189957,-0.76944965,-1.2752755,-1.445403,-1.7036369,0.5565817,0.798866,0.61307997,0.68119186,0.4775459,-0.42443436,-0.74351645,-1.0037205,-1.4793409,-1.8318515,0.8571469,-1.6903744,1.1496,0.61289746,0.5697055,0.9085104,1.7573879,-0.3183064,-0.5918382,-1.8645494,0.88826233,1.6758974,-0.030574696,-0.10675964,-0.12789272,-0.12849905,-0.087450705,-0.043668292,0.028500374,0.047839664,0.012615684,0.012240413,0.013947195,0.0695812,-0.06193685,-0.14280069,-0.07093768,-0.050968397,-0.0045711333,0.028537076,0.013183767,-0.072035536,-0.12557553,-0.0721776,0.020470202,0.049839757,-0.037352793,-0.049221512,-0.010305367,-0.020107629,-0.0080337655,-0.017468793,-0.065643996,-0.0899877,-0.06872318,0.053252894,0.00781093,-0.0065035024,0.03549686,0.026076104,0.016356358,-0.031736154,0.013164154,-0.021999951,-0.11208114,-0.081993215,0.084387206,0.0027202126,0.06914747,0.058339216,0.08515564,-0.0070643607,0.067709,0.050439473,-0.075951554,-0.06343554,-0.07755833,0.07282569,0.068120465,0.084821254,0.053138886,0.15008521,-0.03505394,-0.006767663,0.047505718,0.014413864,-0.044638608,-0.03998029,0.121625364,0.12279921,0.15166317,0.10677676,0.09988194,0.06570658,0.08766904,0.10973977,0.024925983,-0.048208542,-0.08829381,0.19044581,0.18225408,0.174585,0.14128537,0.18936822,0.14132969,0.13763212,0.12260305,0.08420407,-0.07153941,0.06851724,0.2978286,0.3513548,0.24098544,0.14601676,0.16791134,0.1374195,0.15332553,0.08494645,0.1168328,0.13549098,0.092732996,0.38372314,0.4459999,0.36840728,0.266391,0.21522376,0.19905841,0.12360256,0.15316118,0.14879614,0.22022852,0.31156427,-0.015182152,0.4510814,0.21873088,0.14323966,0.09013655,0.08386707,0.07906442,0.088812545,0.12941298,0.10080586,-0.008412632,0.038203675,0.18399109,0.15033568,0.08569219,0.033960614,0.0941256,0.033121012,0.097510874,0.15384601,0.306952,0.010919092,-0.041833293,0.018259032,0.04840353,0.035526305,-0.0059046,-0.0070292256,0.07058199,0.117435046,0.18889529,0.15801425,0.1771161,0.06471518,0.038715642,0.027334059,0.07749209,0.09447789,0.08009757,0.06984521,0.11247987,0.14626251,0.271039,0.118073076,0.09003324,0.028021337,0.04861258,0.028078428,0.07756708,0.092584245,0.05606022,0.07494063,0.118326284,0.14585268,0.12128392,0.06329508,0.037625857,0.029427806,0.07811099,0.106512174,0.047472857,0.04605934,0.0962443,0.12218385,0.054248355,0.07241165,0.0120489765,-0.004682731,0.048556905,0.0739192,0.06651797,-0.03528118,0.07060635,0.050127838,0.09624152,0.106460795,0.10391352,0.0063325064,0.03880799,0.0146480035,0.029828385,0.051043402,0.053683024,0.063126996,0.019414093,0.043170508,0.07154297,0.13462085,-0.023247782,-0.03652831,-0.024190092,0.007005727,0.014335732,0.03587672,0.03945393,0.010281351,0.01828271,0.0010569782,0.0023218014,-0.089397,-0.058971692,-0.048507366,-0.012619858,-0.02970751,-0.00030905122,-0.0009899714,-0.0034396918,0.03589097,-0.00030269407,0.049665764,-0.14202197,-0.12943642,-0.07377496,-0.03743062,0.04390197,0.038402475,-0.010057048,0.038231872,0.0251706,0.11895646,0.08185249,-0.04019605,-0.062463295,-0.2065004,-0.09642611,0.033015914,0.009264759,-0.14053704,-0.077838145,-0.06074423,-0.0750018,-0.0064885914,0.74003446,0.028552825,0.10582326,-0.1130824,-0.42376906,-0.4595694,-0.47064418,-0.30611485,-0.34588236,-0.06511414,0.7524675,0.21871522,-0.09245606,0.57669115,0.42642796,0.3669078,0.08178763,-0.20619448,-0.2044753,-0.52819425,-1.0529102,-0.18732499,1.1803344,0.25206742,0.37998876,0.53267103,0.5426403,0.48883477,0.50666165,0.44121504,0.38179445,-0.24675027,-0.21653028,0.6699456,0.2610305,0.4437584,0.48397726,0.699414,0.8439388,0.5872124,0.3649077,0.33117253,-0.22846651,-0.2865384,-0.19054452,-0.043234497,0.7093156,0.6561571,0.5145853,0.65279025,0.7122269,0.84340024,0.5496982,-0.15815634,-0.57210755,0.2688356,0.18676835,0.5359177,0.67560905,0.7162067,0.8108861,0.50369644,0.78420407,0.54028654,0.017036337,-0.6668462,0.8478461,0.20408607,0.43932974,0.69768643,0.7036225,0.713193,0.6915592,0.689207,0.7127168,0.58911407,-0.68075144,0.6808429,0.6105982,0.34062386,0.48002994,0.51341265,0.66171694,0.6749387,0.58969706,0.66797817,0.92657125,-0.6704574,0.89561707,1.1528206,0.46619007,0.46681216,0.2987518,0.721912,0.6392198,0.62730503,0.812014,1.220494,0.7019082,0.42233273,0.63085645,0.946974,0.46767634,0.5562664,0.66835535,0.97830236,0.8443855,0.82410496,1.2086773,0.06088054,0.79012746,0.41884905,1.1166246,0.39198756,0.71997714,0.7573655,-2.7081547,0.2652254,0.50085294,0.09479865,0.7454871,-1.5035676,-0.022440393,0.03714179,-0.07143481,-0.11114684,-0.062504955,-0.10269942,-0.071977176,-0.09307109,-0.079730816,-0.059865467,0.019482283,0.026887277,-0.045845218,-0.101225816,-0.04399589,-0.08134971,-0.053317867,-0.09418962,-0.065311536,-0.09130249,-0.07896241,-0.14803378,0.13219331,0.12145649,-0.022220079,-0.019653417,-0.027291894,-0.07739181,-0.070380144,-0.06933439,-0.07501231,-0.055590123,-0.030501919,0.07982918,0.11716542,0.035042528,-0.04205659,-0.08543347,-0.05658915,-0.06335812,-0.042376664,-0.028253192,-0.0030445752,-0.059762616,0.110155135,0.14961083,0.032521185,0.022280736,-0.07545193,-0.08465584,-0.02381741,-0.024875632,-0.010688812,-0.004384821,-0.03825316,0.0726645,0.0590195,0.013352941,-0.07838686,-0.06036335,0.026321996,-0.080041245,-0.030845342,-0.04221752,-0.012990876,-0.021678852,0.02881639,0.092453375,0.0076529603,-0.06799145,-0.04223908,-0.10694841,-0.04592536,-0.05391785,0.0030268226,0.03885263,0.10495057,-0.011562394,-0.03027895,-0.07711675,-0.07862106,-0.085000046,-0.09837442,-0.04688009,-0.009074003,0.062558725,0.22505526,0.13562728,-0.0844728,-0.16711615,-0.18272422,-0.20512436,-0.1671541,-0.12820576,-0.14368688,-0.073625624,-0.012735708,0.15639964,0.13096908,-0.09928994,-0.28720644,-0.25232878,-0.22813447,-0.22770095,-0.20323223,-0.20958272,-0.18705596,-0.10899201,0.07265299,0.07613588,0.02639282,-0.14939702,-0.26605713,-0.21535681,-0.18391529,-0.20279571,-0.17944929,-0.17749234,-0.10830634,0.02002426,0.015091714,0.031162083,0.08721426,7.349154e-05,-0.08021655,0.01148403,-0.02163419,0.020865355,-0.072894976,-0.052724637,0.014089604,-0.003608785,0.02775666,-0.06977413,-0.09921859,-0.027293578,-0.008022339,0.034684986,-0.051897664,-0.010541309,-0.0032467009,-0.0024268269,0.053053845,-0.04027126,-0.054884993,0.0052278736,-0.037235457,-0.0130259,4.1264262e-05,-0.0017856915,-0.04398752,0.0030149473,-0.023540631,-0.008737888,-0.010521237,0.0048775915,-0.013252337,0.008828534,-0.0059987893,-0.008074273,0.033854168,-0.016059648,-0.0049525853,0.019572766,-0.016945258,-0.03820757,-0.039574295,-0.033498008,0.022237808,-0.00048169785,-0.05501508,0.0051793377,0.00451739,0.012321062,-0.0123894885,-0.017581431,-0.012198623,-0.004473614,0.0014806604,0.012927509,-0.008632658,0.046762254,0.00095497735,-0.013698748,-0.053580634,-0.042205382,-0.054892544,0.0031001088,-0.022980807,-0.039447986,0.0078021036,0.018747741,-0.027297318,0.007528333,-0.0186556,-0.025169812,-0.012643476,-0.0067088553,-0.002188053,0.040474273,-0.004551545,0.020756723,0.06617599,-0.022371104,0.0102569675,0.003232785,-0.0121389665,-0.012405074,-0.04532223,0.013620001,0.014599043,0.018886229,-0.0016212651,0.04317228,-0.007878172,0.014781589,-0.018602515,-0.004849132,-0.08569056,-0.10387279,0.12290253,0.08045637,0.015040259,0.056939613,0.035962503,-0.030900838,-0.05015912,-0.087233946,-0.14743063,-0.12871964,-0.13282576,-0.029616324,0.15406162,0.14235725,0.07080416,0.04372303,0.0064865416,-0.005965434,-0.12208547,-0.13785096,-0.06714771,0.05219104,-0.14927776,0.9589012,0.15424775,0.068814546,0.17929782,-0.08533785,-0.22351897,-0.17103407,-0.121778816,0.8643807,-0.113642246,0.89386415,1.2060586,0.1045413,0.10631155,0.07231379,0.03645481,0.10848198,-0.009564969,0.31287807,0.2526576,0.7346586,-1.7258947,0.40984383,0.23075847,0.09533988,0.091076285,0.10626846,0.17566773,0.08870345,-0.16546553,0.31060365,-0.07977761,-1.8366603,0.028794853,0.106216684,0.2018161,0.02605562,0.23789306,0.089416936,-0.012695025,-0.14664972,-0.24483533,-0.61981314,-1.9527167,-0.2142718,-0.06083833,0.13764913,0.020569704,0.004057159,0.03206201,-0.30636704,-0.12651007,-0.24676487,-0.36488324,-1.8397593,0.046629407,-0.005792825,0.18746799,0.3365224,0.22301348,0.18981564,0.02917312,-0.111949764,-0.5726211,-0.47865933,-2.0300758,-0.23711383,0.17991833,0.07065492,0.30254155,0.2480157,0.04115721,-0.063189104,-0.30805513,-0.7731229,-0.69616514,-0.54962116,-0.08256579,0.0381062,0.22198454,0.12978119,0.2274833,-0.22708473,-0.34113002,-0.60453683,-1.2289778,-2.2049656,-0.4390809,0.07155838,0.5745528,0.55728835,0.20669244,0.21534424,-0.00029967132,-0.38620844,-0.6571794,-1.1661608,-1.9953129,0.7864452,-0.615345,0.6788383,0.7574704,0.6564978,0.6800028,0.46251705,-0.006526608,-0.8712393,-1.7495767,0.9380276,-0.11181161,0.7465365,0.52229476,0.73920566,0.8090948,0.94116396,0.90128946,0.72962695,0.63911015,0.85724574,-0.11219775,1.7708935,-0.042931426,0.2067453,0.2068976,0.08420595,0.073965654,0.070726626,0.033665117,0.07971485,0.052182775,0.12464368,0.04511315,0.1679617,0.2946492,0.22426805,0.08944661,0.06943711,0.04621464,0.06949599,0.049912754,0.114009865,0.1644806,0.19847573,0.07134423,0.14190356,0.17008893,0.06660791,0.048606794,0.029507766,0.052708194,0.08494967,0.10247006,0.09881397,0.0742526,-0.011306211,0.020626824,0.029535953,0.033336546,0.009836753,-0.007975092,0.011776167,0.0039694835,0.029641615,-0.019232916,0.015991863,-0.02109859,0.018503265,-0.046594534,-0.008351365,-0.01699173,-0.011265522,-0.019671254,-0.015846005,0.00065212563,-0.033639118,-0.0355254,-0.04831917,-0.032319777,-0.029688902,-0.034487583,-0.02966062,-0.007235578,-0.014150413,-0.035711277,-0.04191239,-0.06577346,-0.10652991,-0.05976999,-0.068555005,-0.08361091,-0.0494086,-0.039633803,-0.012214824,-0.043657657,-0.07231214,-0.07243612,-0.12868278,-0.13017349,-0.09839368,-0.08868997,-0.105465,-0.09364284,-0.06018123,-0.079398856,-0.088156834,-0.10703867,-0.11265854,-0.1460062,-0.112761535,-0.092032194,-0.07889533,-0.11359322,-0.10604266,-0.10283799,-0.10616401,-0.09834647,-0.09398676,-0.14280093,-0.1278854,-0.10117723,-0.09362224,-0.10263532,-0.14351006,-0.14069475,-0.12854642,-0.11105534,-0.14240639,-0.13891749,-0.13426664,-0.19737697,-0.15608825,-0.031681783,-0.046353925,-0.119078495,-0.09822833,-0.10556867,-0.09569206,-0.10533753,-0.107109785,-0.091890484,-0.13102609,0.024401722,0.021133037,-0.0351663,-0.05284544,-0.03729211,0.022053586,-0.013887212,0.011130623,0.018880513,0.016079359,0.034891356,-0.042186994,-0.06638959,-0.06950714,-0.048063193,-0.012045587,-0.017889043,0.014817703,0.027312616,0.0075723575,-0.046653684,-0.028348124,-0.029227013,-0.051647764,-0.03932893,-0.005481231,0.0007158535,0.008986567,0.045607243,-0.031275008,0.010492193,0.015951669,-0.03963828,-0.0024438808,-0.008362233,0.018227875,0.03664691,0.017279,0.030983966,-0.0069213565,0.02371613,0.055350203,0.0062889997,-0.015127449,-0.01572748,0.031469755,0.04109011,0.04066749,0.0414698,0.08676543,0.04867587,0.058899954,0.06697136,0.044005245,0.060026392,0.04843002,0.08749719,0.0548628,0.069088355,0.06038519,0.033941083,-0.031456783,0.04135678,0.07310244,0.07080185,0.038983066,0.11660723,0.106179535,0.084632516,0.082124315,0.06716155,0.0758294,0.061767038,0.06056395,0.09988275,0.07189219,0.043755002,0.06787383,0.103873916,0.095335834,0.10051391,0.087987594,0.07257462,0.09672086,0.07165292,0.13800026,0.099804014,0.10223599,0.11476186,0.19908594,0.12695782,0.11866723,0.085100316,0.1226635,0.09650826,0.101807594,0.11148187,0.13417149,0.20930128,0.14905101,0.13980179,0.1454537,0.15441199,0.13255058,0.1173291,0.11175375,0.106402606,0.16535641,0.17648564,0.15556991,0.17222983,0.040550463,0.08346744,0.18685444,0.15076752,0.060111377,0.14400828,0.11982999,0.18229292,0.21147147,0.22759573,-0.0130546745,0.94605124,1.9282622,-2.629313,-0.52650833,-0.34175825,-0.5232899,-0.68623745,-0.82486755,-1.9533981,2.0252426,0.91306376,2.1552882,2.7476046,-0.9859225,-0.68122256,-0.2200861,-0.24320978,-0.7747263,-1.2829927,-1.0364794,3.0387964,2.1389868,-1.5478952,-0.6117357,-0.37954375,-0.13517983,-0.027278787,0.11577388,0.09489158,0.105442986,0.015546078,-0.5194495,-0.64136493,-0.19538583,-0.049945842,0.073508665,0.12908104,0.21187796,0.3621778,0.3089101,0.2723523,0.059916668,-0.035485826,0.351588,0.2784407,0.3849916,0.3362662,0.29782093,0.3825916,0.37390175,0.3411507,0.33267745,0.38469905,0.5665297,1.0593762,0.556272,0.63380086,0.5198705,0.60437256,0.5470037,0.545519,0.5875501,0.5564573,0.5683714,0.90438724,1.2226279,0.79332334,0.98072577,0.913424,0.695293,0.48985422,0.515232,0.5838586,0.60375327,0.6252033,1.0844549,1.3884803,0.6665677,0.95727456,0.8883367,0.8208145,0.6531777,0.5846521,0.7022156,0.70296717,0.92690575,1.1537138,1.4117728,1.238482,1.1253384,1.3678633,1.2842412,1.0140692,0.96038884,1.1771555,0.9728104,1.1923648,1.3574333,1.3380814,1.8569748,1.2977566,1.2641112,1.4589301,1.4267645,1.4312358,1.3259542,1.1376947,1.3443968,1.5299876,2.004324,0.985237,1.8486071,0.9964153,1.1487116,1.4265653,1.598036,1.5439119,1.710984,1.2752146,2.039752,0.8856327,-2.1095948,0.0026870226,-0.04777576,0.073645905,0.019961582,0.062888786,0.051645804,0.07865238,0.101449005,0.062085032,0.0916532,-0.010565853,-0.041288342,0.063347004,0.13851094,0.020961305,0.09168881,0.06736169,0.11749414,0.07738132,0.11546147,0.09754671,0.10537336,-0.07665022,-0.033310648,0.052302852,0.020519722,0.021944134,0.005307662,0.027079338,0.058057833,0.021411305,0.024829697,-0.08371456,-0.0873779,-0.09089442,-0.0672081,-0.044702213,-0.030168604,-0.022110691,-0.04490387,-0.023491502,-0.075419486,-0.045218743,-0.060697157,-0.09480355,-0.15647581,-0.11525722,-0.1085865,-0.06309415,-0.05399367,-0.09185847,-0.068350926,-0.034773666,-0.075171985,-0.081409395,-0.14059532,-0.1202142,-0.083878644,-0.06982222,-0.10568599,-0.030675411,-0.04995344,-0.083954155,-0.073011816,-0.06566782,-0.15154663,-0.15682007,-0.17619689,-0.12929294,-0.12611751,-0.116690665,-0.058092814,-0.10307735,-0.08618477,-0.08710402,-0.102320954,-0.14953496,-0.18666744,-0.23040888,-0.16196609,-0.15114222,-0.114580095,-0.09080926,-0.11282426,-0.10070429,-0.12525532,-0.11709035,-0.15070769,-0.25482672,-0.39637712,-0.20307907,-0.11325581,-0.10120266,-0.10138081,-0.087439924,-0.0917098,-0.10798682,-0.123394445,-0.13146205,-0.3095034,-0.52296877,-0.28824615,-0.15720712,-0.11892893,-0.101673104,-0.123459786,-0.09860269,-0.09785487,-0.15863213,-0.10355848,-0.040050052,-0.3709735,-0.1756288,-0.103854865,-0.115635976,-0.0751479,-0.070924796,-0.09710702,-0.12464776,-0.062303714,-0.015344907,-0.006063841,-0.08132267,-0.07326127,-0.06726234,-0.042501513,-0.05181857,-0.03585451,-0.08315072,-0.13071121,-0.0033616433,0.04964651,-0.06768074,-0.07684688,-0.059929367,-0.048992444,-0.029089045,-0.018404283,-0.038205512,-0.039440427,-0.14546016,-0.09528123,-0.11757714,-0.0807351,-0.06290508,-0.07389616,-0.06246352,-0.053727377,-0.08122745,-0.060144193,-0.055607166,-0.08123527,-0.122117735,-0.12985417,-0.09996328,-0.06503464,-0.037329994,-0.0557493,-0.044664834,-0.0854361,-0.04619228,-0.042634316,-0.086386554,-0.12986279,-0.109359935,-0.03955313,-0.002156808,-0.0011115485,-0.020109234,-0.023181194,0.014082706,-0.0024218243,-0.03335583,-0.036500745,-0.050028954,-0.04543207,-0.01591308,-0.011197289,0.0001711989,-0.0014094219,0.0045891763,-0.03147461,0.018230017,0.0061808997,-0.051088266,-0.034691032,-0.08283007,0.022566872,-0.0063802334,-0.0065453956,-0.0041896394,-0.014928461,0.017100533,-0.012195766,-0.0069623743,-0.030422563,-0.02092907,-0.124149784,0.016553614,0.01933625,0.035046276,-0.011435621,-0.02220801,0.0005680754,-0.009300617,-0.008660297,0.010549416,-0.01569681,-0.0242494,0.12255517,0.11961023,0.0776283,0.06690159,0.03032417,0.036173012,0.021284457,-0.013835464,-0.0059287506,0.047492262,0.008814401,0.121326,0.11222349,0.08237856,0.06785837,0.039958376,0.026367081,0.046325725,0.017562129,0.030308386,-0.004039979,-0.00054602674,0.047311533,0.05436817,0.16775823,0.10229277,0.062080245,0.035592217,-0.019416483,0.008390949,0.030638544,0.07438067,0.0089590615,-0.17521033,0.6492507,-1.354711,-1.1929444,-1.4652137,-1.6095904,-1.9106745,-1.9426949,-2.630339,0.448372,-0.14047362,0.69811475,-0.2878244,-1.3669269,-1.4124383,-1.4936565,-2.0222278,-1.9987454,-2.2115529,-2.2801974,2.2976427,0.5159898,-1.960753,-0.63331735,-1.0452859,-0.98546976,-1.0057343,-1.3111656,-1.3995525,-1.1957952,-0.8770279,-0.98020864,-1.251716,-0.6523257,-0.3410859,-0.5636034,-0.7190888,-0.77369523,-0.7355408,-0.70565706,-0.57864714,-0.5971811,-0.36141512,-0.09348302,0.22564662,-0.07765842,-0.59216535,-0.65494424,-0.58387023,-0.73948157,-0.6995217,-0.60675955,-0.51250416,-0.19953631,0.27531242,0.17465785,-0.009592651,-0.35307774,-0.48229986,-0.5551851,-0.5510332,-0.5464559,-0.5646955,-0.59030074,-0.14366959,0.26649874,0.5943744,0.27137774,-0.12965262,-0.41985625,-0.54630566,-0.5395403,-0.57154936,-0.55212164,-0.6074854,-0.08455964,0.3677316,0.4449445,0.3733346,0.0613914,-0.14199696,-0.37633967,-0.44804546,-0.44657922,-0.5039157,-0.46011695,-0.08673324,0.69580007,1.3315592,1.0832406,0.5138959,0.21552074,0.011049086,-0.366834,-0.32394817,-0.31702718,-0.26604417,0.16773854,-0.18713365,1.1513807,1.1892493,0.9242948,0.5034912,0.33543766,0.017775817,0.108449824,-0.01923873,0.40119973,0.59041786,0.35100824,-0.17922129,1.0811701,1.2645092,0.078607395,0.25523955,0.5432753,0.7930099,0.08658799,-0.29176947,0.4396751,-0.18077193,1.6850816,-0.044097345,-0.15662192,-0.11079046,-0.31846848,-0.16298127,-0.11728586,-0.04630267,-0.012841605,-0.08605114,-0.0041705444,-0.027799392,0.13858972,0.05134181,-0.16549228,-0.13732728,-0.16265295,-0.07101168,-0.07600304,-0.04004669,-0.12727825,-0.15726665,-0.2789025,0.09383828,0.0794342,-0.020264793,-0.032431558,-0.027536241,-0.029438686,-0.03482781,-0.04851508,-0.07676137,-0.13939957,-0.044783212,0.14087279,0.060241207,0.06841851,0.01151687,0.012294637,0.017824756,-0.023395892,-0.022732897,-0.043854207,-0.22378942,-0.16854882,0.14157966,0.12002682,0.13765481,0.04556995,0.045835868,0.004031724,0.046268474,0.038845915,-0.08738292,-0.1453861,-0.29787832,0.14634113,0.15452585,0.074985825,-0.011428274,0.2113779,0.049636707,-0.045620482,0.07421152,-0.04096761,-0.15867771,-0.22648135,0.13730952,0.1654701,0.12431959,0.11580256,0.086065285,0.030950665,0.027864156,0.06480586,-0.07489449,-0.17666718,-0.30576614,0.21639164,0.27071598,0.1293777,0.09530957,0.13141961,0.05975687,0.11039119,0.00090991287,0.008507578,-0.19595651,-0.05801933,0.38741857,0.28229976,0.14041409,0.024517449,0.06673927,0.015732735,0.008379654,-0.018579328,-0.01584535,0.04086662,0.096955955,0.4488468,0.28827953,0.15572919,0.08000707,0.032767657,0.006738527,-0.06405841,-0.044393454,-0.07022112,0.070724554,0.26277813,0.039031077,0.24089871,0.10987415,0.009523304,0.035777446,-0.035922952,-0.046918444,-0.00457223,0.030647317,0.057896536,-0.0008524445,0.041006472,0.18870361,0.21526593,0.17740314,0.20939846,0.21564174,0.17781523,0.25121346,0.28443757,0.33989,0.00054122467,-0.06411554,0.09570914,0.17586584,0.17357764,0.1714188,0.18294387,0.26579428,0.38050652,0.31347233,0.32652566,0.26778904,0.11630923,0.11584513,0.18607023,0.2295767,0.27253228,0.2638656,0.1731773,0.26151827,0.30155683,0.4385595,0.33633515,0.2021359,0.18628842,0.17215008,0.19786668,0.2325695,0.23733243,0.22717595,0.24581224,0.35264125,0.30290613,0.27710035,0.1638792,0.15822767,0.11457924,0.15252383,0.23414072,0.18271555,0.19572921,0.2853227,0.31873962,0.22889948,0.27919173,0.1290314,0.14489661,0.13402537,0.18391915,0.2418963,-0.0033066752,0.17195772,0.27459607,0.3603091,0.2678046,0.33692497,0.13095105,0.16408016,0.13324225,0.13239054,0.2545138,0.21342622,0.23638944,0.20391616,0.28861922,0.22913057,0.37978247,0.0996517,0.06812694,0.12798974,0.160224,0.2214155,0.19101225,0.18897699,0.2784349,0.23544031,0.21246704,0.23361054,0.063130714,0.10513231,0.083982356,0.11585459,0.13833773,0.13944381,0.24626596,0.24566191,0.3622903,0.22219786,0.29867828,-0.059197593,-0.039371006,0.08591898,0.20420085,0.217963,0.25127548,0.19347847,0.31852296,0.31421152,0.36544085,0.31386787,-0.04296043,0.11125028,-0.052376237,0.09731408,0.19291273,0.23151876,0.18461882,0.26131853,0.21263215,0.1242759,0.014196288,-0.566299,0.3206323,-0.8772451,-0.32799575,-0.48844796,-0.7220656,-0.9650599,-1.1313586,-1.5558596,0.40524793,-0.64597887,0.3797014,-1.7889099,-0.104223095,-0.19466949,-0.1972752,-0.50645655,-0.6419528,-0.19541495,-0.7865029,-1.8142762,0.42643228,0.2488845,-0.46864069,0.032440294,0.08730347,0.033951648,0.055390626,-0.37743032,-0.36136958,-0.19591203,-0.6744605,-1.2659663,0.093739666,-0.17150238,-0.0285899,-0.004981321,0.080701105,0.104577534,0.020814817,-0.19073069,0.10541989,-0.5095402,-1.2951143,-0.048375025,-0.39229146,-0.0155595075,0.0070562703,0.067689106,0.18414558,0.17618941,0.36977684,0.25911507,-0.6138166,-0.92464936,0.047872897,-0.13136351,0.11565501,0.11137704,0.024288462,0.04750163,0.016844867,0.16228497,0.07646592,-0.49960998,-0.9771514,0.23635302,-0.13828988,0.042464167,0.23773715,0.2096319,0.14675747,0.18877721,0.2226615,0.20176552,-0.48631388,-1.0167605,0.077097535,-0.0029111558,0.07172211,0.12520784,0.12774113,0.15361813,0.12181801,0.19444913,0.19797747,-0.3368754,-1.0641221,0.32869464,-0.027270516,0.103819534,-0.11403096,-0.048066687,0.08821012,0.11036649,0.14393595,0.13052763,0.24890822,-0.43488282,0.33316472,0.38690668,0.01989795,0.38873044,-0.009216936,0.018699547,-0.23171705,-0.12371412,-0.0479199,0.36065358,0.34122556,-0.69201595,0.25972563,-0.016225822,0.237093,-0.5692586,-1.0594444,-2.1233852,-1.325612,-1.3397946,0.37086886,-0.59006476,1.8231915,-0.028921843,-0.626636,-0.034080237,0.04487586,0.09191347,0.095720485,0.16705965,0.19664729,0.1488271,0.1414452,-0.031023933,-0.08277484,-0.11461178,-0.003640777,0.049020477,0.1433006,0.14142062,0.20059796,0.18786043,0.1994784,0.13685979,0.0071161203,-0.08888925,-0.18142731,-0.06405892,0.0030535995,0.096413426,0.06147523,0.1290711,0.13581981,0.02500742,0.040926713,-0.022182118,-0.060740404,-0.10744296,-0.04207662,-0.028244827,0.045442328,0.017822428,0.019010285,0.04146622,-0.053163793,-0.0009830395,-0.013025604,-0.081659764,-0.18547428,-0.05971246,-0.08013002,0.0019284543,0.022421475,-0.012373124,-0.00030538134,0.031731896,-0.010977417,-0.008044038,-0.13459761,-0.1439218,-0.054308966,-0.0034027067,-0.00036093194,-0.027014498,-0.0372458,0.012331978,0.015174862,0.045154866,0.008194329,-0.13525718,-0.22511761,-0.10116571,-0.053531837,-0.039613117,0.035218447,0.004750734,0.0071336403,-0.008649506,0.019963656,-0.004637095,-0.22796792,-0.36771512,-0.120194815,-0.05919871,-0.021244843,0.0066411057,0.014099959,0.022957508,0.033695813,0.03616262,0.021304054,-0.26215133,-0.519074,-0.14419217,-0.038717758,0.051548284,0.039033707,0.0861734,0.071368255,0.07586667,0.06545391,0.055251047,-0.35908115,-0.5969551,-0.16967821,0.04020978,0.09611066,0.10698821,0.11396406,0.14114785,0.10797559,0.1328165,0.15166639,-0.050018758,-0.5567156,-0.049073845,0.014930239,0.023161247,0.10633731,0.0926391,0.08501179,0.055932708,0.06356988,0.0473671,-0.029797073,-0.10334235,-0.0076596634,-0.00513896,-0.09527028,-0.07928447,-0.04529517,-0.14028625,-0.18518916,-0.12080331,0.028553719,-0.0783642,0.028056148,0.022298783,-0.09642862,-0.06928895,-0.047085628,-0.08559265,-0.112299085,-0.09557031,-0.18226881,-0.21152842,-0.04736313,-0.029707555,-0.10881132,-0.07418823,-0.061987936,-0.130907,-0.09980176,-0.13511191,-0.10107762,-0.12204376,-0.174858,-0.06285852,-0.08383495,-0.06343785,-0.086236276,-0.069972664,-0.103823036,-0.06696887,-0.072249904,-0.11958777,-0.16825087,-0.16126147,-0.06473579,-0.06832535,-0.04739706,-0.099505596,-0.112985075,-0.07030426,-0.11462839,-0.06651593,-0.10184265,-0.12982267,-0.08226639,-0.049069233,-0.06817973,-0.032244645,-0.0598103,-0.096444584,-0.0057363505,-0.04268445,-0.06468353,-0.12071796,-0.10044903,-0.072763965,-0.039110087,-0.04898107,-0.0034662918,-0.018601593,-0.07723352,0.03185091,-0.07534062,-0.07703152,-0.09514505,-0.10767323,-0.13062377,-0.04569335,-0.017772235,0.015018138,-0.050258283,-0.101046674,-0.047074445,-0.04942278,-0.08139013,-0.075483054,-0.16443478,-0.1491513,0.08017721,0.052782767,0.05657107,0.027042719,-0.0070978594,-0.056605313,-0.051807623,-0.09620672,-0.15272814,-0.124931075,-0.108911306,0.0012613273,0.052422673,0.06958581,0.036813907,0.011067374,-0.014278315,-0.021757059,-0.115456626,-0.09527338,-0.123988464,-0.19841753,-0.014710345,-0.10123812,0.23022637,0.091305815,-0.02764023,-0.065980226,-0.079095654,-0.15960334,-0.11291658,-0.044204872,0.018607732,1.0553658,2.7928538,0.6312166,-0.70590156,-1.7385491,-1.2781932,-1.5782634,-2.1544902,-2.1878471,2.8367012,1.0273408,2.9520013,1.5746509,0.14747554,-0.38632625,-1.2968378,-1.6180098,-1.0767186,-1.1084001,-2.03659,3.265162,2.7936351,0.7634826,0.7338127,-0.17469476,-0.28646967,-0.6800718,-1.5562449,-1.9711534,-1.2126278,-1.6995103,-0.34954852,0.36920977,0.6822216,0.37412268,-0.16542424,-0.24886128,-0.35345355,-0.44285315,-0.5503183,-0.5776233,-0.4850194,-0.15451515,0.17846808,0.8634944,0.46026817,-0.045438193,-0.3298461,-0.39787555,-0.43356344,-0.4364537,-0.37870198,-0.52836895,-0.21094535,-0.060176175,1.1101662,0.53019005,0.035949577,-0.34606406,-0.3740296,-0.5110013,-0.37294224,-0.40488675,-0.5288088,-0.27626333,0.01151616,1.7028883,0.9025925,0.2500064,-0.04703389,-0.3116973,-0.30525833,-0.31298608,-0.50231487,-0.47727022,-0.22338624,-0.23407298,1.4740103,1.0124187,0.37205112,0.09629188,-0.11998475,-0.398075,-0.49467376,-0.60005146,-0.6307472,-0.39643112,-0.026958896,2.4843216,1.693507,0.7939688,0.33973977,0.021677006,-0.36072296,-0.57688475,-0.7006465,-0.7098043,-0.6252808,-0.61622053,2.9682753,2.2504013,1.0472591,0.6241509,0.08212065,-0.781443,-0.8362891,-0.8915905,-1.1242874,-0.87982005,2.8908002,0.9503131,2.7693968,1.3787452,-0.10155638,-0.4515001,-0.7764549,-0.9306683,-1.1042767,-1.1417632,2.8178604,1.0541579,-2.7317853,0.004027113,-0.1836056,-0.24628738,-0.05054938,0.020974776,0.054318223,0.13980176,0.14617334,0.117231436,0.12912586,0.015981799,-0.103795715,-0.4351709,-0.22445655,-0.0059203827,0.093646154,0.09055494,0.13686047,0.14262718,0.1446161,0.14490333,0.047183696,-0.07819795,-0.19162397,-0.13319218,0.008642758,0.05838801,0.1106484,0.1314261,0.14796397,0.11374949,0.13388444,0.09405967,0.045018367,-0.04427071,0.019714853,0.034580808,0.07365351,0.06498078,0.096618466,0.11351232,0.09585862,0.13707641,0.11575398,0.03569656,0.0317193,0.06829029,0.041125618,0.08676648,0.1059755,0.09512763,0.10017587,0.07989244,0.1267124,0.120456554,0.04959718,0.040680822,0.07104916,0.050378278,0.107781775,-0.02817258,0.055014353,0.103820354,0.11445661,0.14098419,0.14317077,0.08426453,0.090569876,0.11765931,0.09153111,0.080243014,0.09366483,0.15150733,0.1311695,0.13194515,0.185607,0.15778609,0.077430114,0.017886126,0.08181561,0.06331491,0.10102878,0.14482708,0.11488985,0.1578186,0.15415439,0.18438862,0.10668933,0.09184207,-0.0066312216,0.048853744,0.08022566,0.13701816,0.13403478,0.15576266,0.19404268,0.18481104,0.17454699,0.15785372,0.068947375,-0.07124929,0.06470696,0.15299264,0.15304051,0.17017965,0.23418069,0.23583658,0.21885136,0.26237696,0.24576509,0.0036893503,-0.099659696,0.08622667,0.07258298,0.11710309,0.14329545,0.17191866,0.13526878,0.14370397,0.19459717,-0.014411591,0.012297735,0.17549057,0.10945316,0.055507466,0.004271004,0.02527329,-0.029764183,-0.087513745,-0.09998802,-0.21807691,-0.044012096,0.08322193,0.1048627,0.08603671,-0.0074812365,0.035731416,-0.039848164,-0.05702969,-0.050575677,-0.09355823,-0.1633563,-0.052356824,0.092745304,0.07749886,0.018823206,0.023203803,-0.0012903465,-0.06831432,-0.012136847,-0.061458047,-0.10881666,-0.11996003,-0.116627686,0.0452753,0.008731196,-0.04048749,0.02719099,-0.029117988,-0.03845862,-0.078825496,-0.05043792,-0.08242108,-0.06819374,-0.07740263,0.0012952074,-0.0022918303,-0.005817163,-0.03713764,-0.076621585,-0.058490988,-0.05886248,-0.08925501,-0.08959149,-0.08423791,-0.02571819,-0.026646478,-0.020066908,-0.024761425,-0.065048315,-0.053166095,0.02691973,-0.05309705,-0.06881896,-0.1234379,-0.09691629,-0.09769829,-0.078257225,-0.0399579,-0.034999862,-0.05068926,-0.066421345,-0.036255,-0.053117882,-0.114706025,-0.08249822,-0.09301341,-0.0804871,-0.030429004,-0.055192567,-0.020341268,-0.06676501,-0.054252982,-0.07456745,-0.04852236,-0.09681342,-0.10084981,-0.13152492,-0.14612319,0.0054231635,-0.022120234,-0.06072186,-0.06585591,-0.09043901,-0.05090827,-0.083990544,-0.07408687,-0.09872803,-0.16442274,-0.13995963,-0.1598625,-0.09317809,-0.038977724,-0.06762659,-0.08961107,-0.13164468,-0.098115295,-0.15516466,-0.113304205,-0.15976924,-0.19087991,0.023514925,-0.119176075,0.07492622,0.023935579,-0.011926798,-0.07474623,-0.07302083,-0.17307661,-0.121868014,-0.117823936,-0.035558924,-1.0308355,-1.3633024,1.7388512,0.9094838,0.12716152,-0.4043788,-0.40919706,-0.67237,-0.81284875,-1.1305333,-0.8562727,-1.2888677,1.4474279,1.6746761,0.8157227,0.133638,-0.13476394,-0.4106626,-0.52764463,-0.8197777,-0.2518172,-1.1141306,1.8525906,1.6779984,0.6212256,0.39094412,0.16240045,-0.18239482,-0.3523879,-0.70380044,-1.0036443,-0.730651,-0.35304058,0.92360115,0.573684,0.36449122,0.17602116,-0.094841704,-0.339626,-0.32380885,-0.59696865,-0.898516,-0.87664574,-1.0031276,0.27714807,0.28292963,0.11934548,0.049519382,-0.5707986,-0.26265442,-0.55810565,-0.7855166,-0.6151614,-0.8287469,-0.73140824,0.1093181,0.058990214,-0.1816057,-0.18068558,-0.43482444,-0.35840738,-0.55655617,-0.6392509,-0.5554717,-0.8405958,-0.53255045,0.11374131,0.009937183,-0.0750901,-0.288467,-0.33539966,-0.28095308,-0.39184874,-0.57441896,-0.60162526,-0.59371156,-0.58394396,-0.13499044,-0.012844616,0.023482144,-0.24391338,-0.52824235,-0.44179213,-0.6459172,-0.7636852,-0.72091955,-0.6771434,-0.72514564,0.19342951,0.47634038,-0.22681206,-0.32391688,-0.7020654,-0.6324388,-0.8417567,-0.91399693,-1.0499027,-0.5649972,-0.49066216,-1.1471252,1.174918,0.2531621,-0.35242072,-0.42970237,-0.7112087,-1.1252025,-1.231391,-0.98201996,-0.8523225,-1.2381403,-0.95361656,-1.1320643,0.55289733,-0.8306298,-0.7738168,-0.8889019,-0.99048895,-1.1450435,-1.0533274,-1.1904494,-0.9281316,-1.6829264,0.018317418,0.25040933,0.10177657,-0.17444366,-0.0803764,-0.04246805,0.026805993,0.044472843,-0.015755301,0.1960846,0.01498262,0.1977521,0.17491199,0.019405719,-0.023673471,-0.09794906,0.0006184215,-0.05721422,-0.015169781,-0.0061481404,0.0048906994,-0.11913959,0.20488378,0.18781614,0.11795902,0.07139377,0.04851688,0.055839956,0.011692859,0.028440319,0.05600159,0.041205212,0.1359455,0.21476284,0.18352109,0.16145974,0.09004148,0.076773174,0.08821009,0.10567745,0.024387605,0.07469414,-0.04499395,0.008195198,0.15605186,0.25557762,0.17616369,0.13779706,0.05980139,0.105968535,0.06728865,0.06887861,0.031825047,-0.015323362,-0.13122767,0.19415125,0.21808958,0.10762456,0.04691354,0.19375767,-0.03646174,0.03716161,0.114396065,0.020592114,-0.044728786,-0.14550807,0.14598507,0.19641672,0.122334644,0.13993116,0.0723541,0.058205735,0.03753524,0.055531453,-0.0075920434,-0.11430316,-0.18781474,0.19657831,0.27446666,0.10035902,0.12841693,0.06950125,0.014408549,0.061074242,0.01983683,0.011436425,-0.07338016,-0.12215388,0.33456194,0.31776196,0.11839811,0.048757616,0.023103788,-0.0008476825,-0.04966639,-0.016301414,-0.04697655,-0.026260002,0.032571882,0.36960158,0.40421492,0.07087528,-0.012317277,-0.03533556,-0.058049787,-0.051372282,-0.026793614,-0.0677389,-0.06834322,0.041913137,0.013479918,0.027387807,0.07462321,-0.031844497,0.053502295,0.017390972,0.007455114,0.05356326,0.013952531,0.05497008,0.00483357,0.044175223,0.23350613,0.114830025,0.1114956,0.19458416,0.16893253,0.09407028,0.16729525,0.16807097,0.060024355,0.026984561,0.05628705,0.08874652,0.124775134,0.12123697,0.13479498,0.14581242,0.15232645,0.24405268,0.13207108,0.20826757,0.2769608,0.12128676,0.11090946,0.18689051,0.16060768,0.20835203,0.21903168,0.07520875,0.21101497,0.17914835,0.19245909,0.21785754,0.13633256,0.14901151,0.1515817,0.17368752,0.16617462,0.1559479,0.1836414,0.19934036,0.23748885,0.16490899,0.1435764,0.11789365,0.107140444,0.11679813,0.11827271,0.14148259,0.15761748,0.1655676,0.20612481,0.21071349,0.18384543,0.22001988,0.10850424,0.12697732,0.10930309,0.0915642,0.14321615,0.017828198,0.16662963,0.19725741,0.28713784,0.12684263,0.31694838,0.07858818,0.11259052,0.09982367,0.08767109,0.18751377,0.18162282,0.18731846,0.18759507,0.2848188,0.15727657,0.2517764,0.07440505,0.09711156,0.12340553,0.1265153,0.19759817,0.1656481,0.13134563,0.2591196,0.22626433,0.11107762,0.23442145,0.0729487,0.09413837,0.09272215,0.080611244,0.13326803,0.13917705,0.20741963,0.2484019,0.25597256,0.2511134,0.3632707,0.0016376106,0.03741184,0.077292256,0.1781466,0.1431872,0.14232041,0.1354482,0.26436153,0.2601721,0.17054541,0.20759453,0.045269452,0.1157565,-0.0048314943,0.08788134,0.19279802,0.24716642,0.32134396,0.3684493,0.33030048,0.23299393,0.024667848,0.7395948,0.5218926,0.14986266,0.074093014,0.14016768,0.22939494,-0.30546293,0.0011442166,-0.06903288,0.6225672,0.80793947,0.6015995,1.4033798,0.82618964,0.60620266,0.56922054,0.48653212,0.46018538,0.8613965,0.61707324,0.26869726,0.67258245,0.8137683,0.95676833,0.9446103,0.8399564,0.81614745,0.649676,0.65962267,0.6366319,0.66671944,0.9545119,0.4237805,0.8039824,0.8919175,0.93289423,0.7330064,0.7258726,0.6411717,0.72169226,0.63374823,0.8843142,0.99934924,-0.24437481,1.3685306,1.2982645,0.8000024,0.7182035,0.68835074,0.73160964,0.666256,0.76055396,0.78131366,0.4796971,-0.23926832,0.93190974,0.81975967,0.5072918,0.5864034,0.6906909,0.51394415,0.70571464,0.7641416,0.6912281,0.26827517,-0.11641771,0.712157,0.7334328,0.56629777,0.5694006,0.6850955,0.6475698,0.76717836,0.7879127,0.8672293,-0.10302257,-0.2104722,0.75222427,0.6593715,0.6621459,0.6530237,0.66071576,0.67887014,0.6910658,0.83744115,0.83295065,0.00404725,-0.21554923,0.55473506,1.0729418,0.5441954,0.5768992,0.66589874,0.5377917,0.478145,0.48035154,0.25773466,-0.3877821,-0.164445,0.49043477,0.65305656,0.8859186,0.31369343,-0.2081666,-0.11250907,-0.43880117,-0.29717726,-0.7689554,-1.0430728,0.5824179,0.7717707,0.62263596,-0.876056,0.66368604,-0.66960394,-1.1845641,-0.92062306,-0.9617718,-1.3467171,0.59207624,0.7146334,-1.5653759,-0.0038639018,-0.22165474,-0.2088511,-0.16290963,-0.08885842,-0.038481187,0.027493976,0.06568471,0.038258538,0.07348205,0.04076478,-0.11003052,-0.24966455,-0.17401256,-0.14730681,-0.07733637,-0.054543454,0.054142367,0.036818482,0.09873492,0.2020589,0.14245185,-0.20738839,-0.22038274,-0.16227125,-0.16142133,-0.1221949,-0.053056188,-0.026406324,0.008811214,0.077733636,0.12876841,0.023481485,-0.14811206,-0.18591239,-0.16219504,-0.10678482,-0.11262364,-0.08433248,-0.06818635,-0.024443306,-0.02160775,0.070267156,0.035220865,-0.14758195,-0.15618654,-0.12692413,-0.123331256,-0.11053534,-0.12372587,-0.070440054,-0.06259428,-0.055872947,-0.04695937,0.046383426,-0.11191511,-0.12816049,-0.10415981,-0.10616724,-0.1052874,0.001106224,-0.0810393,-0.072218224,-0.056532126,-0.049164165,-0.09409626,-0.047593374,-0.11421145,-0.056211527,-0.12531413,-0.09111904,-0.08858717,-0.09809631,-0.09446855,-0.08317731,-0.0890137,-0.109070785,-0.045773212,-0.017469585,-0.0047731786,-0.087073795,-0.065752804,-0.08104821,-0.10895635,-0.07592628,-0.1117213,-0.12587872,-0.110165395,0.010464097,0.049595825,0.06050804,0.008494362,-0.06136678,-0.0872784,-0.13464558,-0.1374264,-0.13811912,-0.098008804,-0.09990298,0.04766042,0.13855095,0.084903434,0.069036044,-0.02668125,-0.09505667,-0.15846713,-0.1687037,-0.1681008,-0.18147017,-0.20028736,0.052161537,0.15931737,0.035181962,-0.022695024,-0.08500491,-0.06748675,-0.109757625,-0.111963436,-0.15099527,-0.08819851,0.050753128,0.045756184,0.13127902,0.13582332,0.016130667,0.0071390453,-0.027943144,0.011112798,-0.054114703,-0.09834223,-0.08075643,0.04120576,0.110793136,0.10039505,-0.019175991,-0.014040013,-0.006309059,-0.048846558,-0.0027488729,-0.01789526,-0.13203563,-0.12530479,-0.23882358,0.07436488,0.08715778,0.013688059,0.026255125,0.022805601,0.01227576,-0.0055806763,-0.05775212,-0.051778227,-0.121724695,-0.15215594,0.050404046,-0.034206714,0.005462192,0.022605838,0.033924166,0.018809441,-0.008125449,-0.017064944,-0.06265085,-0.039687525,-0.049179703,0.02452639,0.008109005,0.017383639,0.011331801,0.021949746,0.008343722,0.008929645,0.0022328082,-0.008282199,-0.028227849,-0.0778943,0.017720804,-0.00096330047,0.009471399,0.04708545,0.004878327,0.037414197,0.028096613,-0.0031818324,-0.020189503,-0.023998193,-0.06694781,-0.009240448,-0.0042338185,-0.018008696,-0.0063902056,-0.012559874,0.009939515,0.014105684,0.006152179,-0.0012598266,0.022265036,-0.015079647,-0.030115848,-0.029117893,-0.039051376,0.008132031,-0.029924802,0.01457868,0.02376843,0.026863897,0.0032257424,0.040916882,0.0063217795,-0.055977352,0.013975489,-0.00034664205,-0.0027991831,-0.0021691243,-0.0065861354,0.006042302,0.05934683,0.040673096,0.11591325,0.09480085,-0.10175611,-0.115578786,-0.08040171,-0.04910621,-0.04008518,-0.008854598,0.0032299778,0.004830964,0.03388635,0.07045678,0.0643909,-0.008552012,-0.08830675,-0.12719586,-0.016591689,0.025858333,-0.03799803,0.017489081,0.097773194,0.07937516,0.12347132,-0.009875539,-0.16862594,1.0509889,0.5709182,0.42989323,-0.06907639,-0.26221007,-0.6381281,-1.2753838,-2.7146761,1.1104249,-0.13767675,1.0532439,0.5569561,0.6702338,0.41911113,0.30582607,0.03734161,-0.1396209,-0.8376526,-2.2591317,-1.4805703,1.1292641,0.5576896,0.607649,0.47339332,0.32000113,0.36567742,0.26008686,0.2218388,-0.22326516,-0.5348717,-1.0521933,-1.4830723,0.43284982,0.3769659,0.24285682,0.25804168,0.22865626,0.35045078,0.065588206,-0.052642368,-0.3978663,-0.72304887,-1.5282753,-0.04731212,0.054391775,0.13654728,0.35815108,0.13000686,0.38641512,0.2201557,0.01350718,-0.22316293,-0.35812458,-0.3554697,-0.13947563,-0.015323761,-0.011013153,0.27599207,0.21786307,0.23538995,0.2130623,0.22646867,0.10922863,-0.18187457,-0.31318492,-0.61244375,-0.54455435,-0.24929976,0.06573797,0.13430332,0.17137063,0.32214847,0.19495189,0.30552042,-0.10233027,-0.14332315,-0.8798716,-0.7492039,-0.35409725,-0.20656104,-0.033154596,0.043648638,0.33384833,0.30691132,0.27013636,-0.11976164,0.001037928,-1.7004557,-1.5968856,-0.8232131,-0.4150955,0.05406091,0.12987877,0.021279806,0.30994573,0.24529417,0.27130297,0.53652567,1.0840293,-1.0129044,-2.0156558,-1.5790079,-0.5352074,-0.34574848,0.21989928,0.38100335,0.35689718,0.37186417,1.0157632,-0.13978463,1.0221099,-2.081106,-1.383956,-1.0381949,0.011643169,-0.051948417,0.33011937,0.4955157,0.98304987,-0.15044218,1.8561728,0.0021302334,-0.07834337,-0.112625554,-0.14670697,-0.022553787,-0.008748903,0.0347446,0.04852576,0.08638225,0.2925747,0.046673693,0.040660683,-0.08319559,-0.072011806,-0.04387776,-0.049735487,0.004662983,0.046391986,0.061972335,0.10249069,0.26831046,0.2490659,-0.018595846,-0.0939188,-0.072346225,-0.07350022,-0.04184829,0.02231489,0.024881344,0.081919886,0.13577358,0.22614871,0.24018596,0.0028459767,-0.06717035,-0.051142547,0.020040598,-0.00097165117,-0.008223417,0.052113112,0.105078824,0.11544005,0.19796292,0.19444478,-0.037207022,-0.060158756,-0.00031072894,0.018669905,0.038407203,-0.03032177,0.07145735,0.07003001,0.092749685,0.17067604,0.22333919,0.013155487,-0.06702875,-0.009757387,-0.017060848,0.04307406,0.0048631993,0.038088728,0.08084427,0.08345365,0.17222658,0.13946941,-0.006360232,-0.0738655,-0.017420992,-0.031851035,0.052148715,0.022658372,0.032949258,0.068799496,0.07336859,0.13325621,0.08246872,-0.008645885,-0.023919418,0.029404003,-0.020907803,0.03870693,0.0039375816,-0.021579333,0.078868456,0.055742387,0.10969571,0.08450371,0.061994374,-0.0073295822,0.10436329,-0.02619565,-0.024030231,-0.039012536,-0.062344022,-0.052941103,0.0026970326,0.12161439,0.13101861,0.2031905,0.111172944,0.083464056,-0.022145847,-0.02253859,-0.09151265,-0.101294644,-0.108518355,-0.06520455,0.0575539,-0.055020094,-0.051946703,0.52281487,0.08690966,-0.0030960238,-0.009922635,-0.02415273,-0.06316061,-0.015026355,-0.014452948,0.06796781,-0.044225734,-0.020600779,0.1853225,0.1616303,0.0420994,0.07352344,0.0019785427,0.026960148,-0.040481083,-0.06497655,-0.07516576,0.04600503,0.09443117,0.091389924,-0.0005167451,-0.00071654154,0.009857199,-0.01024886,0.035223596,-0.0165279,-0.042002637,-0.11244462,-0.24665794,0.12063939,0.093731806,0.023523677,0.033871915,0.063761145,0.04675417,0.039140075,-0.04589519,0.021918366,-0.058427516,-0.0710626,0.06780643,0.004032003,0.044912226,0.043853186,0.052865528,0.07325834,0.015793258,0.009235522,0.018005831,0.04714265,0.048566613,0.03324186,0.028826598,0.03801326,0.08974248,0.06092498,0.026622765,0.018843688,0.028205382,0.038803503,0.06703294,0.0121330125,0.029727546,0.030690877,0.019770918,0.07719738,0.020681974,0.010146876,-0.008280443,0.03999097,0.051226918,0.041713476,-0.029889151,0.04401963,0.02268289,0.021587636,0.030645408,0.031562846,0.0002539415,0.016663356,0.032462385,0.011691487,0.074847795,0.04873775,-0.024038136,-0.020590039,-0.041677494,0.080305554,0.052817274,0.049264614,0.064685374,0.07620626,0.06755773,0.04876858,0.06972079,0.01651569,-0.02312472,0.05043123,0.04240113,0.019398065,0.027801206,0.025701169,0.028126027,-0.013071135,0.020614421,0.0249884,0.019795507,0.02701554,0.016821982,0.0521157,0.011155815,0.066519275,0.028948504,0.012565917,-0.004506162,0.041291118,0.061926894,0.00962059,0.016021887,0.037661575,0.0094471285,0.013930491,0.019621912,0.04831574,0.07359736,-0.0066233855,0.009972491,0.008345969,0.7595156,0.7326154,0.24332833,0.46105522,0.25977477,0.3398035,1.2816119,-0.23498231,-2.6381478,0.7067945,0.80963814,0.7831137,0.17680205,0.4378892,0.47343493,0.5424338,0.9951255,0.95710427,0.9146684,1.8898363,1.6101546,0.807534,0.45766455,0.37287572,0.60568225,0.6690214,0.6446908,0.89405644,0.76389754,0.8159444,0.84405386,0.98619086,1.4128268,0.76271546,0.22916558,0.640744,0.6296013,0.783777,0.89723027,0.7790155,0.87388253,0.8454844,0.94850343,1.6345387,0.24788795,0.30243298,0.65394837,0.7575342,0.73841023,0.9012352,0.91743755,0.7922688,0.83071095,0.93106323,1.7061731,0.09219231,0.18644816,0.5008004,0.78911626,0.8706185,0.78804076,0.8230602,0.8624833,0.86344194,0.9190549,1.5484352,0.0073512616,-0.012012938,0.4672467,0.73145723,0.9037428,0.87168765,0.9386529,0.8873678,0.8965724,1.0534467,0.94471085,0.00048461973,-0.076082595,0.35695815,0.49083257,0.83398426,0.77674556,0.8614903,0.75480884,0.86708415,0.9808833,1.1506678,-0.71934175,-0.31774303,-0.16127391,0.3049356,0.6339201,0.76392823,0.55384743,0.7725663,0.65867096,1.079978,1.1104598,0.7841696,-0.89302915,0.7909464,-0.7072535,-0.21230294,-0.05960559,0.00011714556,-0.09499162,0.05579097,0.7617145,0.6050789,0.7889498,0.73126113,-1.5117408,-0.47935513,-0.16383767,0.1875592,-0.03263821,-0.15714777,-0.15415193,0.69570655,0.7827891,-1.0183501,0.050482724,-0.22950421,-0.19034354,-0.12717058,-0.093598165,-0.0042468673,0.042462688,0.082238816,0.0752746,0.13704452,0.012357886,-0.09893123,-0.24536888,-0.18378375,-0.1088216,-0.05980479,-0.016612655,0.04798116,0.051206823,0.09210015,0.08341649,-0.055935975,-0.17704019,-0.19405963,-0.12977703,-0.12752202,-0.096970245,-0.01637758,0.014455323,0.02053926,0.044068385,0.05528463,0.021652825,-0.092546776,-0.13945064,-0.13107744,-0.082764946,-0.037597496,-0.031457007,0.0023997016,-0.003993345,-0.01468594,-0.0024517372,0.002523736,-0.13612755,-0.119974375,-0.091743976,-0.08040565,-0.03581785,-0.0004912674,-0.01949494,-0.020967022,-0.035327185,-0.07102128,-0.0004908293,-0.120913744,-0.09164719,-0.086843126,-0.055767138,-0.018519169,-0.007587211,-0.021063568,-0.03193599,-0.004914774,-0.07508249,-0.11178015,-0.07821332,-0.10337029,-0.06960967,-0.021013357,-0.02639545,-0.0025314994,0.007760445,-0.03206202,-0.03864416,-0.08859523,-0.12791255,-0.017922658,-0.04141776,-0.038416445,0.0044598086,0.012523659,0.0061458945,-0.003352305,0.023544457,-0.042780057,-0.17309098,-0.14150947,0.06733886,0.12965089,0.053572867,0.065539785,0.043358736,0.0639527,0.071332924,0.03788376,0.017126102,-0.064683825,-0.09212804,0.19008839,0.29002836,0.19274613,0.14111993,0.1353701,0.13101512,0.10701908,0.1401161,0.13817738,0.018935943,-0.042140327,0.043813337,0.19391496,0.111117594,0.08583046,0.05905917,0.10077203,0.103471264,0.098686755,0.06677634,0.005226175,0.04789191,0.027128078,0.22851366,0.22185361,0.08478503,0.04713667,0.06530906,0.03846384,0.05257738,0.07413931,-0.0432596,-0.050516058,0.1392562,0.16244698,0.115684114,0.041428335,0.031991843,0.010055295,0.049993813,0.022299193,-0.037157446,0.013869254,0.042352337,0.16035187,0.1697174,0.09209432,0.094245195,0.058982305,0.05408673,0.06008109,0.03963094,0.0037126876,-0.039292168,-0.017027007,0.1286426,0.10674538,0.09237817,0.059254516,0.05624419,0.057010345,0.050456714,0.07065186,0.041551206,0.04396917,0.057596542,0.10327577,0.08591783,0.06273076,0.021464005,0.038982857,0.043541778,0.04716283,0.034826934,0.021244954,0.047052726,0.04160321,0.0814609,0.056628603,0.05417158,0.038278926,0.02101428,0.045977507,0.071321115,0.047857035,0.04434504,0.0060562026,0.084071346,0.063572034,0.08048736,0.084796615,0.025902163,0.05686132,0.06419501,0.048034362,0.042082474,0.039271474,0.033293713,0.017194528,0.009407301,0.026478166,0.031856842,0.0408357,0.016484711,0.03643254,0.009426624,0.049919892,0.013206961,-0.07175723,-0.0055242386,0.011711925,0.020295352,0.025688395,0.0024786363,0.017560609,0.025582006,0.0056662895,0.019951558,-0.037485164,-0.011582125,0.082491666,-0.035221662,-0.07408886,-0.0147396475,-0.011906136,-0.012796163,0.041812025,0.024478937,0.07771196,0.059557915,-0.039766222,-0.03395827,0.04559313,-0.027560264,-0.06035023,0.0011382572,0.026963875,0.013694407,0.050049227,0.03874026,0.08543113,0.013564279,-0.018627932,0.90356785,2.109595,1.2371703,1.3063127,1.1419369,0.69591445,-0.06566657,-0.6892807,-0.8882994,2.3748686,0.9037263,2.1693993,1.4522594,1.4544156,1.362193,1.0649112,0.582742,0.2306638,-0.22286414,-0.415905,0.034199063,2.2903397,1.478554,1.8165435,1.2770741,1.1598625,1.0971192,0.8638281,0.9024739,0.59370184,0.178364,-0.082776204,0.11412457,1.3497206,1.091403,1.1819845,1.0033709,1.0480483,0.56958777,0.76144606,0.64299965,0.316053,0.27216896,0.047105044,1.0701754,0.91594326,1.1294236,0.9328923,0.6013068,0.5405497,0.5555801,0.6336636,0.4933355,0.48593158,0.67408085,1.0130502,0.8375463,0.9306279,0.67122924,0.62511206,0.5288516,0.5972595,0.54885924,0.50829,0.5880096,0.7550668,0.69655186,0.31273434,0.64310724,0.51856506,0.4647906,0.5713339,0.51263964,0.5267619,0.5577566,0.5840305,0.89736956,-0.14139482,-0.005852961,0.30535576,0.37427604,0.4375089,0.48426992,0.5921933,0.65213543,0.67145544,0.7200562,0.677995,-0.49363744,-0.26937404,-0.3613543,0.110527664,0.27092934,0.35922775,0.29270047,0.36828205,0.24970156,0.34507564,0.5433159,2.4000933,3.2169034,-0.80642945,-0.9997599,-0.40251946,-0.31101042,-1.1018932,-0.7027776,-0.20048575,0.7677793,2.3553562,0.84363323,2.3189194,-1.2565053,-1.0305494,-2.393896,-2.5069058,-0.49491128,-2.204028,-2.2152648,2.273799,0.96028936,-2.746263,0.038579848,0.3194083,0.11309207,0.18390775,0.15254119,0.15104757,0.19134086,0.16377956,0.13061847,0.111427434,0.027669515,0.16515283,0.14396507,0.10831556,0.13772993,0.117392674,0.18553206,0.18402676,0.16534412,0.1423285,0.1728084,0.11020955,0.21656679,0.22947057,0.15485695,0.1520442,0.1266036,0.16467336,0.112355694,0.14664795,0.12202461,0.1599147,-0.09635278,0.24996044,0.22531058,0.15639648,0.20355733,0.18746972,0.14732167,0.15355593,0.17540978,0.14744905,0.13094574,0.029487863,0.23557508,0.16451044,0.23847818,0.18076567,0.180644,0.13441508,0.1657792,0.15218717,0.1280466,0.13548703,0.043132287,0.21435139,0.15999928,0.20251516,0.1581143,0.121200114,0.042519722,0.08922396,0.19169176,0.16015369,0.14397691,0.018462816,0.23352835,0.17280316,0.1837085,0.14102596,0.16278593,0.12815537,0.104459606,0.14046836,0.12516493,0.17223583,0.018782163,0.191741,0.11973126,0.18970096,0.15486588,0.1409444,0.11949471,0.11206478,0.14823224,0.1342186,0.09716756,-0.035087228,0.2119011,0.16347113,0.21591213,0.17418242,0.14598075,0.16207568,0.12943785,0.105664626,0.13038306,0.10873861,-0.03339297,0.15536791,-0.00862362,0.14452626,0.15278111,0.107784614,0.07668598,0.12764974,0.052193534,0.10019219,0.09566544,0.035758015,0.012473742,0.22570224,0.1175779,0.16802287,0.17986724,0.15871626,0.1672086,0.14348914,0.13658231,0.07528669,0.04209509,-0.0061653,-0.20162593,-0.26123664,-0.2421984,-0.18817809,-0.21052256,-0.2069056,-0.23704211,-0.2552397,-0.1574438,-0.051154055,-0.08284623,-0.22337738,-0.2704346,-0.20870069,-0.17147247,-0.12844625,-0.19828846,-0.09319932,-0.17460795,-0.16761406,-0.12272458,-0.23776066,-0.25705448,-0.2036507,-0.2087683,-0.1958771,-0.13623387,-0.1464227,-0.13075674,-0.09462127,-0.1354383,-0.16792022,-0.23099172,-0.24099988,-0.1664289,-0.20405038,-0.15411796,-0.12753235,-0.13835216,-0.16329801,-0.16542047,-0.13943669,-0.12128837,-0.27070272,-0.24165644,-0.19277376,-0.14071332,-0.14003713,-0.13600254,-0.14941876,-0.13995813,-0.16353911,-0.15481158,-0.19570561,-0.25878432,-0.20516784,-0.19430682,-0.16093168,-0.1431088,-0.04566809,-0.14454035,-0.16452084,-0.13764054,-0.104088224,-0.21448646,-0.21985155,-0.19001792,-0.2088052,-0.17004429,-0.1598804,-0.18867747,-0.14280102,-0.15740219,-0.16061892,-0.15342689,-0.16980118,-0.19855404,-0.1977576,-0.16149043,-0.17418763,-0.11725575,-0.14257014,-0.12932757,-0.14160985,-0.14944422,-0.15705277,-0.14954235,-0.30236304,-0.31552318,-0.17409445,-0.1870445,-0.179261,-0.12990315,-0.14173922,-0.1654232,-0.09416481,-0.108598426,-0.09903661,-0.21040651,-0.31859615,-0.25740653,-0.13896908,-0.17609647,-0.16534767,-0.15095398,-0.10500429,-0.12705462,-0.06755305,-0.13391273,-0.049437363,-0.24943087,-0.24587354,-0.22367725,-0.1769644,-0.1810123,-0.15285845,-0.14355245,-0.1123748,-0.01895576,0.012769466,-1.1877793,-0.86867374,-0.263696,-0.969177,-1.0049703,-0.94835806,-1.0255172,-0.95251596,-0.51821774,-0.93565625,-1.3058038,-0.6347236,-1.3988991,-0.7184573,-0.5021394,-0.3523196,-0.41432136,-0.36739457,-0.5643191,-0.38371655,-0.14940675,-0.6924976,-0.69662625,-1.20514,-0.53210413,-0.45237118,-0.2729847,-0.24404956,-0.17406438,-0.052208725,-0.24584338,-0.24602538,-0.59827995,-1.328712,-0.6508298,-0.47294742,-0.3598883,-0.21654348,-0.10171407,-0.013175828,0.007218456,0.017892193,0.054845806,-0.043910515,-1.3529801,-1.2059933,-0.6534713,-0.3430604,-0.089494355,-0.03351545,-0.011619935,0.057579845,0.06815626,0.0067718676,0.086866,-0.97942704,-0.47230574,-0.2317956,-0.13864467,-0.08084372,-0.013202819,-0.035470016,-0.047503944,-0.04770449,-0.054920316,-0.11502048,-0.82484066,-0.76452,-0.365462,-0.17494826,-0.08701602,-0.04005856,0.0005082433,0.13409494,0.058866877,0.24558523,0.18591459,-1.1768439,-0.7055946,-0.39301524,-0.14688419,-0.0932169,0.030320173,-0.02284563,0.07549449,0.12056821,0.21145938,0.3383812,-0.4746294,-0.39652568,-0.47553205,-0.36756617,-0.16337039,-0.14012527,-0.08143796,-0.019221319,0.089122936,0.24521114,-0.045309663,-1.0729401,-0.7019392,-0.7158099,-0.33332986,-0.08010714,-0.055004083,0.022009773,0.012726523,0.14583556,0.18172272,-0.8299452,-1.2270737,-0.6919857,-0.25638878,-0.33239898,-0.065719135,-0.2756819,-0.59632874,-0.33890852,-0.36056337,-0.69710803,-1.2029605,-1.9104877
