-0.017112996,0.377844,0.29187426,0.42664748,0.23480588,0.20511293,0.1563756,0.10829174,0.18433097,-0.12299255,-0.04430485,-0.06329588,0.06303456,0.30585822,0.20102258,0.17246464,0.16633669,0.19530283,0.14362073,0.29492375,0.33568138,0.22368525,-0.19771379,-0.041191865,0.06478923,0.09504609,0.105314,0.08009806,0.17530358,0.18629006,0.22155721,0.19187395,0.19260183,-0.12647077,-0.09257054,-0.02304865,-0.031236636,0.01665106,0.057624478,0.090547346,0.111203074,0.18491793,0.25154343,0.16267733,-0.16830526,-0.13039216,-0.096556194,-0.030198822,-0.03149048,0.020510515,-0.06107496,0.03957866,0.06493139,0.11299966,0.2290231,-0.21424457,-0.13747972,-0.09860379,-0.07144452,-0.18774568,-0.028472917,0.019709544,-0.008042425,0.06501244,0.08807073,0.18051751,-0.17510204,-0.15355007,-0.15592474,-0.092505254,-0.116149634,0.053873137,0.011219853,-0.0042839996,0.046403006,0.08016303,0.09481645,-0.2316058,-0.20776561,-0.13963413,-0.08483915,-0.11973115,-0.02805111,-0.067308754,-0.0070032673,0.006940323,0.028276002,-0.016298456,-0.44966504,-0.25330088,-0.18830477,-0.08063493,-0.07916118,-0.0370144,0.0001733592,0.015371627,-0.03749437,-0.14277035,-0.1541372,-0.35147342,-0.49001193,-0.23549873,-0.03205637,-0.06189911,-0.03138846,0.023353366,0.065064505,0.03731629,-0.15026377,-0.1988462,0.038652096,-0.46412924,-0.19958699,-0.15312608,-0.09516863,-0.028846232,0.032502174,-0.013889432,-0.004790715,-0.08306333,-0.05214184,-0.03546933,-0.28281066,-0.12975875,-0.17581591,-0.18604158,-0.2833445,-0.24742745,-0.27877626,-0.31044453,-0.19513458,0.011503892,-0.16151136,-0.2799818,-0.07743399,-0.17981488,-0.35991648,-0.3552436,-0.3055581,-0.15720528,-0.08534193,-0.35051605,-0.42587534,-0.20045997,-0.14653172,-0.30719787,-0.25475895,-0.4022659,-0.37936604,-0.30334455,-0.32932937,-0.13380682,-0.22818902,-0.4389669,-0.26631752,-0.23766385,-0.1256812,-0.23699015,-0.3342742,-0.2645645,-0.3468797,-0.34225342,-0.43766004,-0.18144959,-0.21271998,-0.19442606,-0.19218065,-0.13434213,-0.2636195,-0.30507058,-0.2319991,-0.24745822,-0.3854071,-0.43916193,-0.23326102,-0.12137505,-0.232101,-0.18591508,-0.19486217,-0.20792222,-0.211525,-0.021708151,-0.16922608,-0.2635022,-0.43226916,-0.2732426,-0.17388996,-0.07755042,-0.11527505,-0.1582572,-0.15871745,-0.19592564,-0.18593259,-0.21529238,-0.2169586,-0.22344585,-0.14986017,-0.3184091,-0.06316475,-0.006297206,-0.07141427,-0.1176917,-0.183616,-0.07908258,-0.14900227,-0.23554622,-0.20287912,-0.2555946,-0.26714805,0.03479781,0.028615963,-0.07860095,-0.0026692946,-0.05318455,-0.12707092,-0.18256503,-0.1280419,-0.23262362,-0.19729194,-0.3937547,0.017949047,-0.079112515,-0.05063201,-0.05120064,-0.13968006,-0.1651278,-0.0013647849,-0.17533454,-0.18341532,-0.26621252,-0.23574694,-0.043316696,-0.031035295,-0.051029652,-0.069973215,-0.08959437,-0.05453435,-0.16999815,-0.13002245,-0.12510857,0.0045789788,-0.030309075,-0.367552,-0.9932393,0.612434,0.52333444,0.71585786,0.6840282,0.55201083,0.22325726,2.497977,-0.82012105,-0.37924194,-1.0954952,1.9157722,-0.002542529,0.012220294,0.69296086,0.07388603,0.73680264,1.3097392,2.0017242,2.4041102,-1.1017845,-2.1151745,-2.698669,0.66907185,-1.7042737,-1.8027195,-0.53468215,0.13904874,-0.1888727,0.78785175,1.0339549,0.79111356,-1.123766,-3.5665462,-2.054833,-3.191649,-3.2740157,-1.3308647,-3.1395605,-1.1113287,0.25630337,0.6541898,0.72223306,-1.0118176,-3.354438,-3.264913,-3.1735585,-1.8990302,-1.5430037,-1.1733946,-1.2518779,-0.91516817,0.9037635,0.7045948,-3.0381649,-3.513178,-3.2317817,-3.4965448,-1.3553065,-1.30831,-1.1881356,-1.2140679,-0.93951285,0.732859,0.8189377,-3.2108648,-3.4117084,-3.3988667,-1.5188644,-1.1732677,-3.2675998,-3.1469781,-2.94895,-1.2791376,-1.5037299,1.3053429,-3.1239083,-3.2152152,-2.5584333,-2.350666,-0.9121857,-1.1877036,-1.1855654,-1.1122373,-1.2494245,-1.4717721,-0.551803,-2.9880419,-3.3348444,-1.6154028,-0.7521391,-0.5533272,-0.66665715,-0.831217,-0.21733674,-2.0527205,-2.9893544,-1.6663327,-1.1476606,-2.4127884,-0.5640051,-1.2895927,-0.4825344,-0.6266246,-0.8446119,-1.5825899,-1.1751066,-2.814881,-0.90652925,-0.3503532,-1.0833263,-3.0704165,0.42315117,-0.8044679,-0.82289773,-0.5803948,0.039341167,0.80316395,-0.86237794,-0.337885,-5.74816,0.05144045,0.10226035,0.13709538,0.25614604,0.19776009,0.12958045,0.18493745,0.1372531,0.13101959,0.14574859,0.03585624,0.08268458,0.012428984,0.14562042,0.104167044,0.1318988,0.13410956,0.16462436,0.0764393,0.16194455,0.057987083,0.03757086,-0.13798977,-0.027255813,0.006112943,0.0029883857,0.08287672,0.066906266,0.1275231,0.042250656,0.027385678,-0.07361515,-0.2378234,-0.071902424,-0.19215636,-0.14659218,0.03229237,0.06326451,0.020847479,0.030101337,0.0202817,-0.04877765,-0.06971301,-0.22744241,-0.108860165,-0.20585547,-0.045825023,-0.035653915,-0.022234406,-0.025050884,-0.056236487,-0.022101503,-0.0599074,-0.10486881,-0.117629215,-0.11811543,-0.14689235,-0.13687144,-0.04180089,-0.01088747,0.04821366,-0.06331542,-0.041563828,-0.053642094,-0.110827416,-0.15014966,-0.09639096,-0.11276107,-0.15334284,-0.022402084,-0.073062405,0.042345166,-0.013221746,-0.022187503,-0.08510079,-0.10095239,-0.15084155,-0.14977258,-0.1397553,-0.056341756,-0.04614803,0.013601898,0.030131834,-0.020192036,-0.022274224,-0.111504644,-0.11168143,-0.20559834,-0.20050122,-0.19906624,-0.08093711,0.046002075,0.080023624,0.09422602,0.12273809,0.048717983,-0.04182048,-0.16155374,-0.2695773,-0.04468002,-0.28907484,0.008638318,-0.005975757,0.10849619,0.10188115,0.12362516,0.0901367,0.04943992,-0.09415362,-0.022253294,-0.031393968,-0.06385149,0.01657644,0.03423263,0.1136122,0.14344752,0.13199656,0.10750337,0.08809378,-0.06860227,-0.05178275,0.021408122,-0.24810214,-0.13915978,-0.17228767,-0.17705366,-0.23607816,-0.18948993,-0.25300643,-0.2691135,-0.2543368,0.014904604,-0.15359664,-0.30361164,-0.24609047,-0.23289847,-0.15115668,-0.1406783,-0.13938844,-0.14745955,-0.24631801,-0.1613332,-0.08927114,-0.30213866,-0.30188623,-0.2593993,-0.22206739,-0.20401496,-0.22789115,-0.24131618,-0.17455882,-0.33524236,-0.25115243,-0.32307884,-0.2516529,-0.23565619,-0.13755164,-0.14222936,-0.18292345,-0.24733858,-0.18208177,-0.1309613,-0.15547793,-0.28617886,-0.31738707,-0.2621081,-0.24373479,-0.10118075,-0.14540479,-0.14883485,-0.1340206,-0.124322504,-0.1750942,-0.15966342,-0.12438191,-0.16397686,-0.221368,-0.19281624,-0.12254671,-0.1217467,-0.09708963,0.000408574,-0.068332925,-0.12148227,-0.09463572,-0.11714524,-0.14705983,-0.1371039,-0.13380624,-0.11946593,-0.15693785,-0.120040014,-0.09380042,-0.12637065,-0.21655533,-0.10250211,-0.079941355,-0.12474726,-0.18428408,-0.20955032,-0.113428846,-0.18966079,-0.19141756,-0.16703296,-0.21632032,-0.20404494,-0.15163459,-0.13073462,-0.24092375,-0.24289672,-0.3095212,-0.21216457,-0.18272272,-0.17669955,-0.2013101,-0.13997301,-0.13197348,-0.16644286,-0.11988095,-0.13116995,-0.14007163,-0.27803984,-0.16672777,-0.283028,-0.22419964,-0.17984435,-0.22492255,-0.09393769,-0.08592036,-0.115116455,-0.04027268,-0.014599064,-0.3743987,-0.33603448,-0.24506822,-0.19992554,-0.25934294,-0.19193666,-0.1974701,-0.0593992,-0.218787,0.015070739,-0.15034655,0.92418265,-3.6793144,-3.7233694,-3.7358103,-3.6466851,-3.6025732,-3.5882044,-3.2746418,0.9766881,-0.16789351,0.93797183,-0.8359965,-1.6750615,-1.4707035,-2.0260894,-2.9567487,-2.5470543,-1.9593529,-1.8659962,-2.4378526,0.8876793,-0.39779347,-0.20475225,-0.33356136,-1.1780626,-1.9146421,-2.2020833,-1.9507643,-1.6562846,-1.3740654,-1.0227256,-0.17347531,-0.379765,-0.61941934,-0.91782826,-1.2227131,-1.3208495,-1.1972767,-1.0383548,-0.9784972,-1.0932018,-0.4817976,-0.15211411,-0.045597322,-0.40000585,-1.0199598,-1.314993,-1.1366392,-1.0731826,-1.0834651,-1.1153287,-1.0326109,-0.44746384,0.02319106,-0.005503233,-0.2954321,-0.7375524,-1.0114301,-1.053645,-1.0584545,-1.1527582,-0.90847754,-0.9506806,-0.46628356,0.072406866,-0.17529966,-0.14410949,-0.5207106,-0.8961475,-1.0046048,-1.0326672,-0.90995675,-0.93216735,-0.8364867,-0.13839869,0.46388787,-0.52832633,-0.18042932,-0.56425935,-0.7250363,-0.833858,-0.97781175,-0.9913392,-0.8847247,-0.5804051,0.34270334,0.41725412,0.12145501,0.036312502,-0.50538695,-0.8098382,-1.0637062,-1.2911931,-1.1063254,-0.7886553,-0.6769531,0.057414927,-0.07095878,0.86005795,-0.37980226,-0.12459114,-1.0004051,-1.5949526,-2.0617616,-1.9506787,-1.5701923,-1.2664074,-0.3730032,1.0132384,-0.1482679,0.81383175,-1.3522227,-1.8465389,-2.3136897,-1.7441295,-2.2662766,-3.6672814,-2.2002826,1.054928,-0.14479756,1.6875596,0.021602038,-0.19182679,-0.3933042,-0.4206764,-0.2705182,-0.20375073,-0.09648414,-0.072282806,-0.092046164,-0.12625998,-0.025151571,-0.21943963,-0.23302561,-0.3196959,-0.24960059,-0.2255195,-0.14148822,-0.057619948,-0.0824795,-0.03841403,-0.10359405,-0.20769943,0.085723616,-0.05027021,-0.12423148,-0.1297755,-0.17228548,-0.16145973,-0.071870156,-0.061428316,-0.09674847,-0.111078136,-0.12872908,0.056474652,0.08050054,0.023829263,-0.0804282,-0.09980322,-0.089790165,-0.060446326,-0.071840055,-0.06214054,-0.14510828,-0.044916455,0.0638854,0.12834372,0.024069523,-0.031870164,-0.06353037,-0.05606796,-0.015419185,-0.018218309,-0.0843538,-0.07155274,-0.12220732,0.11538872,0.070964225,0.060345713,-0.023085922,0.024221469,-0.00061870314,-0.024939358,0.02340138,-0.067121156,-0.08164448,-0.111956306,0.090511784,0.10532083,0.10013074,-0.03744492,0.024884796,-0.060418192,-0.057410866,-0.062373713,-0.062148266,-0.067523696,-0.103941746,0.13303773,0.21204883,0.06804909,-0.0033460949,0.0027471557,-0.019289568,-0.033512898,-0.04299256,-0.026811797,-0.06708502,-0.0969592,0.34724912,0.2962604,0.18512976,-0.0034271348,-0.053587522,-0.0947188,-0.17467965,-0.11729274,-0.06261203,-0.0041254614,0.05024196,0.25959864,0.44458598,0.20313041,-0.02529184,-0.101483695,-0.13500415,-0.17045249,-0.18264592,-0.14354083,-0.003661593,-0.08332438,-0.039355088,0.6758413,0.049681064,-0.018778838,-0.11049322,-0.15612578,-0.14968397,-0.13440044,-0.17609851,-0.061359722,-0.020691615,0.029222446,0.22778507,0.11488244,0.08407719,0.16712065,0.23656292,0.30433562,0.30890346,0.3625971,0.119669504,-0.029920839,0.17664033,0.22248438,0.17019178,0.116403125,0.14071919,0.17498581,0.19470064,0.24361265,0.30081168,0.16692486,-0.030129848,0.21970007,0.16976818,0.14934346,0.1808329,0.17966756,0.21758698,0.18217024,0.13372736,0.17367822,0.13782595,0.07560766,0.19205877,0.19338064,0.10613672,0.14734451,0.16584049,0.18046284,0.14069055,0.11045994,0.10341019,0.21132648,0.11145362,0.18238859,0.14625302,0.054477997,0.14181551,0.10918987,0.09814232,0.09758816,0.18807667,0.15855843,0.11539632,0.10325446,0.17107028,0.14245112,0.11923393,0.1370184,0.16400072,0.014835486,0.10972869,0.1464857,0.131366,0.189362,0.07141101,0.072643146,0.07979316,0.080205075,0.07399074,0.15419397,0.111647405,0.13257428,0.18737543,0.111574754,0.11733694,0.14711738,0.06361083,0.07530535,0.033062,0.11572261,0.13429473,0.1440091,0.13154794,0.19423147,0.14173453,0.16761607,0.22729449,0.05841521,0.037399326,0.06750186,0.056970775,0.118193574,0.11724499,0.15133278,0.23625462,0.21781509,0.16626665,0.22726588,0.0290553,-0.06571984,-0.028143784,-0.003482115,0.017773028,0.065351315,0.11732446,0.1347929,0.112331405,0.14432614,0.114416346,0.035270996,-0.024633566,-0.07066614,0.101948485,0.0643515,0.19139998,0.21793507,0.25166762,0.1842973,0.18595679,0.021070391,1.3049232,1.9307574,2.6375182,2.5334759,2.5942059,1.8933808,1.5030842,0.66893893,-1.5270058,1.7765614,1.1929832,1.9985964,1.4978895,2.0427709,1.9196876,1.8407633,1.7698698,0.50335366,-0.04712804,-1.2334036,1.5490904,1.9282176,0.48937944,0.5723745,0.66774404,1.624777,1.7966311,1.3086971,0.8328546,1.0052639,0.1895419,0.15730809,-0.68379605,-0.2550284,0.51666695,1.1178333,1.1135113,0.98698777,0.8703028,0.81604874,0.9231963,0.6294687,0.6222675,0.5355806,-0.5793663,0.26454008,0.7252678,1.0268,0.9943548,0.78644913,0.7854325,0.82639605,0.8365827,0.47261697,0.46288705,-0.96409076,0.058555204,0.30924562,0.6169064,0.70161134,0.72190636,0.67017126,0.750933,0.8981873,0.5912819,0.23637025,-1.0568042,-0.5142564,0.07317229,0.29741722,0.6824806,0.6756984,0.7180335,0.8609075,0.9876769,1.0412878,-0.0809015,-0.70858353,-0.6825034,-0.085811734,0.12022062,0.46448252,0.5867106,0.743961,0.79937965,0.9447671,1.0669373,-0.06994035,-1.5643599,-1.5174414,-0.4693378,-0.005779291,0.21683356,0.6734053,0.8320023,0.82806283,1.4317005,0.9986587,0.3681386,2.13588,-2.2156804,-0.8420216,-0.2489128,0.17788045,1.1629335,1.4063993,1.7689563,0.63251007,0.5722494,2.0196438,1.2161465,2.0548923,-1.5665625,0.4629536,1.3964558,1.4110078,1.7637774,1.5212923,1.8672708,2.0478656,1.2544061,-6.5241323,-0.03786451,0.503354,0.26569575,0.041039977,0.26289374,-0.2125648,0.16958481,-0.25634423,-0.13573086,0.13401772,-0.040563535,-0.014422493,0.27661288,0.33625028,0.22565481,0.06942745,-0.016742155,0.12127175,-0.07926364,0.0282626,0.24826059,0.38839632,-0.13917041,0.3407314,0.12208653,0.17664826,0.06641129,-0.21562333,0.25009733,-0.32892975,-0.21008295,-0.040664356,0.11200238,-0.10534092,0.088658124,0.045486912,-0.21037647,-0.2541006,-0.11486214,-0.14083591,-0.14501894,-0.29800838,0.09283824,0.20693709,0.0031384712,-0.029636148,-0.09117381,-0.32993263,-0.50119656,0.05328284,-0.23533306,-0.41370323,-0.33483246,0.023769556,0.100233756,-0.13855933,-0.1490021,-0.12714672,0.16913882,-0.25902325,0.047839068,0.14286323,0.10832652,0.0006191512,0.031800788,0.3223889,-0.06935998,0.11056859,-0.08352226,-0.1089843,0.0075110486,-0.066642135,-0.14982438,-0.026336111,-0.11331686,0.37421873,0.2258514,-0.14215931,0.19674443,-0.2741651,-0.04969573,-0.09414754,0.18559667,-0.03179108,-0.054279003,-0.18583553,0.2251517,0.011416571,-0.23231229,-0.065033525,0.051652707,0.087992884,-0.18608457,-0.06293688,0.07770789,-0.013943921,-0.29801193,0.131884,0.110309854,0.018764714,0.19040789,-0.041020077,0.3220758,-0.06767565,-0.010843117,0.12764718,0.021674838,-0.19596717,0.12314509,-0.022882184,0.03157055,0.4810886,-0.32423702,-0.46018645,-0.4644796,-0.40545678,-0.26498547,-0.29459178,-0.39330697,-0.104240276,-0.031452816,0.006982817,-0.14463182,0.09292822,-0.10985953,-0.1780929,-0.1478453,0.102810405,0.16882037,0.10350579,0.229413,0.048907917,-0.05849134,-0.0023287686,-0.1272783,-0.059661534,-0.18557765,0.07318415,-0.14834955,0.0053994455,-0.061076444,0.16500957,-0.094322026,-0.08767334,-0.11158062,-0.17273104,-0.11611504,-0.2766285,0.016500514,0.09681588,-0.12044833,-0.30016175,-0.019599434,-0.20539115,0.04145991,-0.05775532,-0.20299841,-0.043108616,-0.059890065,-0.040919326,-0.30061617,-0.3253536,-0.2530974,-0.014375444,0.03133361,0.020466082,-0.13467522,-0.16641483,-0.29232737,0.015779613,-0.10374941,0.0073216734,-0.23901878,0.04988837,-0.040321417,-0.10211048,-0.04150341,-0.027162187,-0.023163358,-0.008490856,0.093095414,0.005059451,0.15391634,-0.18569335,-0.079892054,0.018530294,0.0039769,-0.015107299,-0.13236023,-0.011155045,0.031792555,0.09364479,-0.09803197,-0.0057970216,-0.08675929,0.05986945,-0.053717315,-0.049901336,-0.0259729,0.07982571,-0.20304805,-0.05937696,-0.018794382,0.16755538,-0.12497956,-0.14085464,-0.08645334,0.07797895,0.010018977,-0.17209236,-0.055628933,-0.16822578,-0.07864395,0.15123296,-0.0384163,-0.31268176,0.058011215,0.1867605,0.21236575,0.015147222,-0.0612654,-0.024047662,-0.018213533,0.002864738,-0.24852064,0.0342557,-0.00597182,-0.0579292,0.004994945,0.06390808,-0.6923064,0.03642909,0.11621219,0.088042535,0.10302683,-0.29480988,-0.05455316,0.15846696,0.104831696,0.021094946,0.11203665,-0.04459734,0.6030688,1.6448777,-2.5433457,-3.614189,-0.035103302,0.17537108,-0.090036266,0.908341,1.3467298,1.4011451,0.4749815,1.7227471,-1.0579729,-3.2758603,-1.2597152,0.3452659,0.33883148,0.56776816,0.55700713,0.9682608,4.2390075,1.677304,-1.8026384,-1.5182295,-0.31598493,0.3419784,0.49773094,0.6211429,0.6884822,0.6456853,0.8851754,0.8063341,0.28783247,-0.35291556,-0.08899133,0.6527288,0.7568937,0.56439966,0.7575176,0.60326606,0.54324013,0.9108485,0.86368966,0.38189372,-0.48944914,0.25291565,0.75255674,0.7225751,0.6078469,0.7088745,0.7616249,0.9604202,0.7513144,0.58190644,0.20132917,-0.5997747,0.1744835,0.40434593,0.55460745,0.81063306,0.59886,0.9038631,0.5819146,0.9097772,0.58783007,0.46841276,-0.9522746,0.1774845,0.5546505,0.26679397,0.579045,0.71675646,0.44533938,0.5471375,0.84031695,0.3266479,0.007999967,-0.49712083,0.066470265,0.26972446,0.09206545,0.6254247,0.32920918,0.6421997,0.62009305,0.49118435,0.402252,0.3678794,-1.3849989,-0.59774923,0.1460201,0.517407,0.4643109,0.74376935,0.6094931,0.6009527,0.5302472,0.6906596,-0.8653045,1.668248,0.4653814,0.3704241,0.38190997,0.51404935,0.53098285,0.6626223,0.24376038,1.1601837,2.3284345,1.6405656,0.5706199,1.6574031,-3.1932185,1.2109975,0.97868043,0.17411608,0.9940003,-0.98783493,2.3479419,1.70508,0.43522644,-2.1882963,0.03926535,-0.08929278,0.043248527,0.011047408,-0.057616625,-0.08389415,-0.1265618,-0.14890751,-0.089635976,-2.8428695,0.017166045,0.048089243,0.18318684,0.053589165,0.010605796,-0.011652929,-0.033111073,-0.033010535,-0.07098027,-0.12099703,-0.06275193,-0.01730058,0.08881454,0.082322866,0.051839564,0.02183365,0.0009841013,-0.045768097,-0.013994054,-0.034140024,-0.016220562,-0.024783121,0.020189073,-0.019437002,0.065008774,0.012096903,-0.017358713,-0.038968243,-0.03298022,-0.07036576,-0.078059405,0.0017973728,3.7127116e-05,-0.0029273746,-0.09605552,0.014254355,-0.06421202,-0.031609323,-0.045424893,-0.070043154,-0.08952193,-0.05054905,-0.007688138,-0.059644297,-0.020732857,-0.1229712,-0.09250662,-0.08734683,-0.049538035,-0.030338911,0.036705498,-0.034460977,-0.0709903,-0.05571337,-0.0042002816,-0.023482796,-0.13839363,-0.14443484,-0.11215487,-0.09785767,-0.0692328,-0.09323136,-0.10243344,-0.11054156,-0.061708394,-0.10654726,-0.07164257,-0.18882889,-0.17854778,-0.08780122,-0.054368872,-0.087706186,-0.115431406,-0.08430946,-0.11340209,-0.09884778,-0.09659805,-0.10362557,-0.2001666,-0.12023285,-0.09583785,-0.0534042,-0.07962406,-0.09970539,-0.115216814,-0.13868836,-0.14074068,-0.2792543,-0.13535534,-0.13946736,-0.021639215,-0.054215524,-0.0977354,-0.049495492,-0.035192527,-0.1342849,-0.19840719,-0.26836228,-0.549342,-0.23142976,0.03625581,-0.05530421,0.035129577,-0.034578044,-0.032705892,-0.05206357,-0.117459066,-0.14406712,-0.33962905,-0.50173116,0.03226662,-0.03674778,0.040037837,-0.048958372,-0.0027688253,0.08251787,0.046951972,0.06418213,0.03971555,0.07680048,0.042807773,0.02217478,0.035753008,0.0036915173,0.08430191,-0.037339,0.018775241,0.0280871,0.048062433,0.052751645,0.060898785,0.12061464,0.019190183,-0.061432134,0.0044830265,-0.020099916,0.03519706,0.019478261,-0.013672205,0.00050610694,0.07907364,0.04086145,0.07024989,-0.06252719,-0.012652667,-0.00042202408,0.037406832,-0.044116076,0.025427906,0.02528578,-0.016257806,-0.06868433,0.053434234,0.027860431,0.017245507,0.0110687325,0.07114748,0.044979993,0.05938543,-0.0013180808,0.07321067,0.015415516,0.06903371,0.026849264,0.06488263,0.0743424,0.07229077,0.03658691,0.049481966,0.060552083,0.07839483,0.041785218,0.050480917,0.045124575,0.013406671,0.069628425,0.1056801,0.035777994,0.055145457,0.05354482,0.05577443,0.014624657,0.12652923,0.04361973,0.10254436,0.070635624,0.10514005,0.07303966,0.024860958,0.024107203,0.07744854,0.038123854,0.05166736,0.07447816,0.07466107,0.09327279,0.11590954,0.13753533,0.12527382,0.08465128,0.11708233,0.10640341,0.09715303,0.084089704,0.061480287,0.07657658,0.09254584,0.18022148,0.1820739,0.10047936,0.08860007,0.15777,0.12045882,0.0905875,0.11320189,0.106978126,0.13944522,0.11693997,0.17107317,0.15389098,0.17201132,0.03272293,0.08358404,0.13632454,0.19022608,0.13654545,0.1859929,0.14243664,0.14111553,0.22295834,0.2437315,-0.0155253755,0.5570499,2.0530958,0.52847826,0.61271346,0.7391725,0.92577815,1.1127827,1.0710734,4.0839195,2.6723273,0.5247349,1.9982926,0.09681753,0.0042193495,0.16279627,0.5284445,0.55467,-0.016159806,0.39972398,0.49422997,2.6994498,1.7490827,-0.61319846,-0.26956606,-0.21104673,0.18143713,0.35406867,0.19232872,0.22089343,-0.1294594,0.36258227,0.65395737,0.2808954,0.18532422,-0.030016096,0.12079918,0.10034126,0.39381808,0.07134572,0.40247867,0.0986118,0.2544278,0.22120515,0.36932862,0.5457222,0.4747648,-0.0100326,0.31269467,0.39430416,0.31701022,0.4918985,0.43405184,-0.073639825,0.50088185,0.48337552,1.1862708,0.66069204,0.38230667,0.49431378,0.4671751,0.46885985,0.35890818,0.5900897,0.55648553,0.44497395,0.50026786,1.4609619,1.1124685,0.64493924,0.67073816,0.45815614,0.5088097,0.5816988,0.7198925,0.7833895,0.8476529,0.85646063,1.6242759,1.1532143,0.7181896,0.77383786,0.67312974,0.5281717,0.67438155,0.8362374,1.1255959,1.332565,1.2253003,1.1085213,0.75418824,0.7177034,0.8460575,0.7457342,0.80883294,0.8568241,1.0741771,1.1956233,1.7920703,1.669426,2.1083043,1.761783,0.74635476,0.5023718,0.6526255,0.9584589,1.0142281,1.131733,1.7522663,2.1649067,2.1194499,0.45921338,2.0117044,0.39297357,0.41594422,0.7918175,0.8728486,1.6577471,2.722343,2.1803806,2.0691576,0.6782774,-3.7432454,0.045846034,0.096766576,0.17302252,0.00814824,0.021031816,0.0020512044,0.022474263,0.018046437,0.017431438,-0.034295734,0.01171389,0.040138133,0.3061306,0.16782537,0.038268328,-0.016560636,-0.014966453,0.0761329,0.011145542,0.11176578,0.07141444,-0.053978696,0.1312551,0.10206614,0.07526525,0.021195585,-0.007448326,-0.06964019,0.0032592579,-0.048714153,-0.027381785,-0.103917286,-0.108277366,-0.07267337,-0.00962954,-0.030152699,-0.10803778,-0.08009321,-0.060302284,-0.077720724,-0.11884728,-0.15660271,-0.17656845,-0.11524411,-0.14947358,-0.110530645,-0.13213345,-0.12795551,-0.13949089,-0.105578475,-0.108957835,-0.12688696,-0.13279188,-0.1781312,-0.16873498,-0.17098223,-0.162328,-0.12224718,-0.09085736,-0.087106936,0.020062422,-0.07853491,-0.11748677,-0.16642496,-0.1694528,-0.13972762,-0.19478804,-0.18470307,-0.1340277,-0.11653818,-0.114320844,-0.04113051,-0.09562356,-0.11744145,-0.11392785,-0.15554093,-0.13770346,-0.2651154,-0.21022072,-0.16030253,-0.09467168,-0.11341154,-0.05670108,-0.13373859,-0.14701307,-0.13688712,-0.08753032,-0.10085332,-0.27243495,-0.24712737,-0.17944275,-0.1036637,-0.10290927,-0.117067486,-0.1068683,-0.106834926,-0.116577975,-0.08967437,-0.027626773,-0.26035157,-0.22140366,-0.2023182,-0.1334643,-0.1546342,-0.14476041,-0.14042288,-0.108176745,-0.14847702,-0.056616776,-0.0694218,0.035724472,-0.33377993,-0.24029042,-0.2094345,-0.18792655,-0.16710699,-0.17825052,-0.14139286,-0.12717374,-0.11115491,0.020218972,0.01879463,0.036384977,-0.013370521,0.0064106314,0.011168332,0.03872144,0.060112104,0.10525805,0.054101557,0.08349149,-0.026349332,-0.045906454,0.043141592,0.06401579,0.02518426,0.010634166,0.045402393,0.053619392,0.12634064,0.046188775,0.098291114,-0.0028467304,-0.03551408,-0.01126213,0.057782885,0.067815475,-0.026015434,0.034519423,-0.009080396,0.06421637,0.13802454,0.004395489,0.04529336,0.07411506,0.07534399,0.029456262,0.055233642,0.093724765,0.07119796,0.016358797,0.084175184,0.07222819,0.08986088,0.013819216,0.06262346,0.09855037,0.08245204,0.075395375,0.09091566,0.10902594,0.09231395,0.060386527,0.082545884,0.033485573,-0.0030438642,0.091978215,0.07854701,0.10944934,0.0837926,0.1257125,-0.022476027,0.09016853,0.09650764,0.1340424,0.1165673,0.11005909,0.092293285,0.105808355,0.11586853,0.1336372,0.087892555,0.121052355,0.08780453,0.081032746,0.11903798,0.111675754,0.09837463,0.1275922,0.13330968,0.1587398,0.09314507,0.12645406,0.10801571,0.1244717,0.1250434,0.084191725,0.13140325,0.12663563,0.19262569,0.19620544,0.19445509,0.16705719,0.15639775,0.14152078,0.11434095,0.12967624,0.19534178,0.18041357,0.11109704,0.14024165,0.22700319,0.19901219,0.19987537,0.14039047,0.14644898,0.1324078,0.16940875,0.1124005,0.14602435,0.055952962,0.040026397,0.19821702,0.16310973,0.19952722,0.16592406,0.14306508,0.09409833,0.10284495,0.037014984,0.13215391,0.024753563,-0.13113993,0.62830764,-1.9982997,-1.4186901,-1.2299693,-1.047628,-1.61398,-1.4897565,-1.5692621,0.8001643,-0.18123429,0.7028744,-2.259793,-1.8355561,-1.7256621,-1.1963784,-1.4381047,-1.3578154,-1.6700511,-1.0883183,-0.49478215,0.66439235,-2.4473686,-1.595415,-1.579683,-1.3331431,-1.680958,-1.5014212,-1.3590869,-1.5512712,-1.3441812,-0.9160576,-0.49093494,-1.372642,-1.4191185,-0.9281601,-1.3932835,-1.3793426,-1.4387453,-1.3997343,-1.4803618,-1.3100805,0.15517686,0.73308676,-0.38940224,-1.1606721,-1.4307392,-1.4152063,-1.5948857,-1.2662231,-1.7032732,-1.4208446,-1.5725,0.4258832,0.81208116,0.18482856,-1.366936,-1.3959979,-1.4896774,-1.4678023,-1.4086051,-1.6670916,-1.5461618,-1.5082326,0.6234552,0.90312964,0.577918,-1.0784119,-1.2951937,-1.3027743,-1.3592944,-1.3165722,-1.2239972,-1.2704962,-1.7879361,-0.7836628,0.8608845,0.38126585,-1.1346766,-1.0643592,-1.0965654,-1.3717875,-1.3145357,-1.136118,-1.1603371,-1.4190152,-1.1119142,-0.3614793,1.2288898,-0.6966905,-1.1401925,-1.0475852,-1.0399659,-1.2489737,-1.045343,-1.0003418,-1.3650373,-1.1000067,-1.1285803,0.9972335,0.75048983,-0.65707594,-1.0077561,-0.8894483,-1.0333253,-0.852704,-0.96904296,-0.9497591,-0.49332023,0.36534634,-0.12932087,0.9011543,0.9218195,0.8685327,0.83279246,0.7019351,0.6096138,0.48149988,0.076521866,0.19774309,-0.105421245,1.8864812,-0.00036073106,-0.23377758,-0.2636796,-0.19794124,-0.15585254,-0.21431506,-0.105603196,-0.122869894,-0.10471343,-0.19346279,-0.033080425,-0.280431,-0.45230743,-0.2704511,-0.19709334,-0.18121348,-0.15479295,-0.15944245,-0.123123355,-0.1426038,-0.18208009,-0.21441354,-0.3709259,-0.298587,-0.23060368,-0.18162784,-0.12429862,-0.17632069,-0.10187015,-0.19977738,-0.15310757,-0.1467307,-0.09865975,-0.28516483,-0.28485695,-0.22394043,-0.17774893,-0.17998059,-0.13214232,-0.1856902,-0.1301375,-0.18627793,-0.01992663,-0.10177172,-0.24845472,-0.2115793,-0.19802982,-0.19335811,-0.23495159,-0.10910246,-0.14305174,-0.14654993,-0.11835358,-0.033463556,-0.028927246,-0.20845184,-0.1993083,-0.15876962,-0.11404997,-0.1473544,0.05228148,-0.07629951,-0.08959082,-0.04900918,-0.010856907,0.063473135,-0.1638748,-0.113511644,-0.15283234,-0.10000275,-0.09505624,-0.09198062,-0.08332638,-0.08440356,-0.04788292,0.095810205,0.050193146,-0.14415629,-0.05480956,-0.076404676,-0.054436274,-0.021097464,0.02077302,-0.029401984,-0.033520147,-0.0054856315,0.11668011,0.036856435,-0.1179988,-0.05037182,0.021431582,0.079041496,0.056706175,0.030338826,0.0697235,0.038296275,0.03928946,0.16628909,0.07212541,-0.06761896,0.09559365,0.09324071,0.18223505,0.09589916,0.048811708,0.11250125,0.12736936,0.16175863,0.3517782,0.09009438,-0.039924823,0.025285061,0.10961266,-0.007998318,-0.038291782,-0.009706451,0.0004179044,0.087999,0.14806862,0.06592503,0.012206909,0.0015531061,0.16770607,0.17847234,0.15900496,0.063995756,0.11702546,0.12772986,0.070322946,0.024572896,0.0543985,-0.0071290825,0.19897626,0.18944521,0.1412611,0.058538146,0.11434088,0.10545548,0.05676926,0.021395447,0.021452578,0.12612803,0.280007,0.18920703,0.18854989,0.12895213,0.1565946,0.053928655,0.10750724,0.035104122,0.04485123,0.049131867,0.018490762,0.09028431,0.1578787,0.12819557,0.068046875,0.13991864,0.0732106,0.061282374,0.004671645,0.054081704,0.0037313178,0.11389974,0.07585969,0.08579405,0.10457593,0.1142199,0.059145324,0.06876594,0.036274623,0.034701083,-0.052275747,0.052102424,0.029191678,0.087287895,0.019006005,0.02322975,0.035023294,0.044300444,0.044332065,0.039158154,-0.008658063,-0.06673539,-0.035782695,0.0077141942,0.036727548,0.03302625,0.057542294,0.046765033,-0.0034217194,0.023162674,0.03749302,-0.016082654,-0.046814542,-0.032204945,0.005290188,-0.0038164356,0.018880973,0.028117837,0.025015855,0.008474682,-0.058780666,-0.019470425,-0.11798695,-0.09446857,-0.10674057,-0.022697698,-0.08375208,-0.028575223,0.0367072,0.010922004,-0.0071923668,-0.008753633,-0.055976793,-0.078233466,-0.052083958,-0.062483296,-0.07538957,-0.07853633,-0.09109894,0.0033952722,0.027532041,0.002109673,-0.0090244,-0.028973995,-0.069090396,-0.06723936,-0.20596832,-0.2307863,-0.23530242,0.046732064,0.051552467,0.039328992,0.045616977,-0.011185512,0.034929056,0.051909376,-0.06718484,-0.14594501,-0.29658222,-0.024014106,0.6486284,-0.59016013,-2.1834588,-2.1700404,-1.9532316,-2.7521243,-0.45863098,-1.2584282,1.038376,-0.53764766,0.6009168,-0.6233767,-2.9534936,-3.1327343,-1.1780322,-1.8468074,-2.0458744,-1.9649035,-2.402497,-1.2399244,2.5182972,-0.5584308,-1.5866416,-3.2037098,-0.8831339,-1.508056,-2.2707314,-1.9523351,-3.2005572,-2.6326954,-2.0939121,0.60205615,-1.7458445,-1.2684327,-1.6049631,-1.6072859,-2.77768,-3.092254,-2.4321682,-2.8203335,-2.4011462,-3.1347346,-2.2478888,1.1284959,-3.0914242,-2.5658262,-2.2043962,-2.1899655,-2.2096732,-3.2773633,-2.588757,-3.2256641,-2.2410874,-1.0255694,0.21060164,-2.376045,-3.2838976,-2.2634177,-2.490056,-2.993765,-2.5071318,-3.2094932,-2.4329019,-3.0906017,-1.0770941,-0.09691681,-1.2802258,-2.7857864,-2.377736,-2.4539168,-2.8103502,-3.2067845,-2.579337,-2.9930692,-3.400664,-0.17748754,0.40230903,0.9999535,-3.2144125,-3.4650178,-3.1645062,-3.1121461,-3.2567902,-2.3568778,-3.4809735,-1.3851829,-0.0771666,0.0815823,1.2489849,0.9660378,0.43504998,-1.0413318,-1.1828045,-1.5109836,-1.7731336,-1.441278,0.11182168,0.275101,0.18211071,-0.63354903,1.6015805,0.09749615,0.012240016,-0.04599769,0.0058841608,-0.2530635,0.24219847,0.18766809,-0.041702118,-0.5445495,0.65327466,-0.5967488,0.13883163,0.05444267,-0.066866316,-0.16797903,0.09188424,-0.6261241,0.22950725,-0.5273831,0.49516013,2.3319516,-0.027640717,0.6968321,0.1594737,0.18122734,0.12865382,0.16314179,0.06436387,0.08761583,0.2234208,0.044120517,0.012448998,-0.039487682,-0.08185454,0.24953957,0.017897787,0.103260286,0.14545691,0.23099673,0.28355038,0.06519507,0.06440595,0.101505816,-0.20280263,-0.07938142,0.119182594,-0.006028109,0.10236835,0.06481842,0.19649959,0.104328796,0.23045261,0.15025987,0.22453295,-0.023211624,-0.07280023,0.0510374,0.05057553,0.10381893,0.07856574,0.16087617,0.039709732,0.13100675,0.08534795,0.20414445,-0.052344363,-0.012804826,0.016929122,0.10330952,0.048090987,0.07509524,0.26820305,0.16138841,0.11440093,0.031908147,-0.010477514,0.042333063,0.0836536,0.09990529,0.14132717,0.17481112,0.035140373,0.19026421,0.083243266,0.09873768,-0.000570818,-0.026442973,0.030565506,-0.04393381,0.14418593,0.073187836,0.1702626,0.11556322,0.12353525,0.107166156,0.12941593,-0.07417426,-0.09951834,0.008159529,0.017721236,0.061858706,0.07382643,0.14472927,0.12914416,0.071430184,0.0800226,-0.013913023,0.026228307,-0.1895982,0.11973105,0.063923724,0.096703455,0.11435106,0.21190879,0.24296641,0.11994888,0.11562492,-0.014432763,-0.10170901,0.1661388,-0.276471,0.34586188,0.22492304,0.15801547,0.200899,0.15287791,0.09101186,-0.07116853,-0.010623486,-0.0024592043,-0.2787268,-0.045804285,0.29681045,0.2795614,0.10627127,0.15652454,0.0966192,0.04760379,0.06502589,-0.07240346,-0.08707008,-0.04441562,-0.030185329,-0.39300138,-0.123027,-0.037713725,-0.03252675,0.034935758,-0.04989423,-0.157436,-0.25672352,-0.17802627,-0.049214292,0.12335918,0.0241564,-0.10039357,0.071210146,-0.026044868,-0.17889579,0.038905367,-0.114239894,-0.07938008,-0.07221151,0.0849944,0.28141266,0.15757595,0.14318986,0.056863718,0.19762889,-0.003653979,0.11730475,0.09297506,0.14274348,0.029149277,0.32266417,0.13654384,-0.02218344,0.22710127,0.1258473,0.010842018,-0.042279076,0.17395492,0.19129238,0.15272081,-0.029972622,0.03384066,0.01450043,0.016426008,0.09411844,0.21772513,-0.021220356,-0.15045284,0.028315483,0.1870367,0.05692202,0.11765136,0.1595524,0.11165764,0.10760627,0.10941409,0.08161496,-0.23557314,-0.02952347,-0.2917618,0.16542694,0.101421736,-0.11398644,0.15985069,0.15287939,0.1702867,0.19704276,0.07392979,0.064924255,-0.21215728,-0.018962547,0.16607486,0.016255539,0.102646336,0.103728704,0.081517264,0.08487957,0.09423395,0.118487164,-0.09074181,0.09764795,0.025102913,0.09371052,0.18347205,-0.020059707,0.07502163,0.1419337,-0.027684715,0.05681173,0.11631772,-0.0044228346,0.022236235,0.17860457,0.031414673,-0.034373302,0.008196128,-0.014162731,-0.122473486,-0.2880247,-0.20494732,-0.08141624,-0.018645251,0.0022464285,0.12177328,-0.09438465,-0.037362028,-0.13849048,-0.13382508,0.00426066,-0.5673451,-0.49769574,-0.19051638,0.08430954,0.12120535,0.0037204598,0.013894696,0.12627035,0.010054285,0.009086682,0.84815186,0.5299039,2.3099873,-0.7689393,-3.3704906,-0.3263838,1.5670706,-3.403128,-0.9463398,0.46130034,0.7817271,0.49482545,0.9440034,-0.086436875,-0.125501,-0.06525909,0.25200462,1.1412618,0.67266357,-0.3290379,1.46021,0.44917592,-0.10199561,1.3022714,0.036265858,0.43679,0.50575465,0.27090463,0.5560476,0.29062158,0.02685292,1.4224976,-4.152934,0.47801137,1.1930407,0.29997095,0.49318516,0.7186953,0.4985367,0.8038873,0.598825,0.38727123,0.16271172,-0.07316799,0.31983513,0.95576555,0.54264975,0.421299,0.7143724,0.4820579,0.7662697,0.7511481,0.45700616,0.47850537,-0.077533275,0.8416415,0.5972166,0.77441835,0.84964794,0.6159054,0.6360526,0.6508545,0.81811315,0.75395834,0.26497725,-0.09230521,0.10956935,0.79859895,0.79207337,1.1609343,0.7189038,0.7695644,0.70702475,0.7159861,1.0266943,0.7172069,-0.27551714,-0.7074145,1.5906821,0.91044265,0.89546347,0.8961452,0.98406625,0.879821,0.8519388,1.1973159,0.24206205,-2.2572339,0.020840244,1.7632861,-0.3911004,0.56937975,0.8162683,0.866553,1.0389551,0.75955373,0.44281733,-0.15798035,0.06518344,0.49248436,2.5017538,-0.4191655,0.73325986,0.77357835,0.8906432,0.7973016,-0.084686935,0.177614,0.4735297,0.46271536,0.7988379,0.5297466,-4.0951657,-2.9175477,-4.156932,-3.5996976,0.14082205,-0.1038593,-0.6473103,0.4645622,0.80454594,-2.2245355,0.04531812,-0.14188369,-0.17444836,-0.17592189,-0.09778245,-0.100642644,0.0026515264,0.017817514,0.079796895,-0.21960185,-0.036096323,-0.22619133,-0.3513941,-0.16538852,-0.1706964,-0.11737831,-0.093627185,0.07778553,0.022507226,0.15799633,0.29579288,0.028754054,-0.28780624,-0.21630569,-0.13466477,-0.1185377,-0.098961286,-0.12162808,-0.04979988,-0.028409244,0.079503745,0.1201431,0.021481162,-0.19814235,-0.20697148,-0.14036334,-0.111385405,-0.13484164,-0.11363333,-0.0999013,-0.046990063,-0.006165735,0.0031626085,-0.0015133391,-0.1626829,-0.1339599,-0.08915045,-0.119296536,-0.10871854,-0.12549104,-0.09839644,-0.08959814,-0.1088905,-0.06491271,-0.03706203,-0.11619898,-0.109624885,-0.04714257,-0.05600676,-0.10590661,-0.03653778,-0.09828076,-0.037769493,-0.058899984,-0.09988679,-0.090310946,-0.050353877,-0.0312819,-0.04405885,-0.020495348,-0.06754891,-0.05823876,-0.058411475,-0.091971494,-0.13139035,-0.10375866,-0.14891775,-0.006408224,0.020255335,0.047525804,-0.0098173,-0.020091612,-0.05395499,-0.051818453,-0.077739686,-0.07161982,-0.09186832,-0.14780061,0.09874443,0.18715899,0.1438234,0.0019141157,-0.057747748,-0.100270025,-0.12914833,-0.121323615,-0.14203772,-0.14794788,-0.13061646,0.10676342,0.41135883,0.13363622,0.10414477,-0.05188185,-0.085193835,-0.09395537,-0.15662241,-0.1970505,-0.1606032,-0.23214008,-0.012804569,0.11600902,0.1632643,0.00093971356,-0.06682924,-0.080395386,-0.13485266,-0.16515711,-0.23519343,-0.15208007,0.0061519477,-0.010943173,0.060921695,0.030755356,-0.0055754012,-0.018032778,0.02492368,0.070011966,0.05277628,0.025406966,0.05961753,0.037564877,0.19455017,0.12598646,0.05263246,-0.0067605632,0.021203311,0.010307285,0.0046950327,0.08799542,-0.09070469,-0.124866225,-0.30606252,0.14077719,0.10806926,0.062708385,0.027297873,0.0077127754,0.01545637,0.026620775,-0.09835397,-0.009309104,-0.14464182,-0.20675328,0.020824967,0.018490013,0.05061191,0.03446741,0.061315153,0.0075201686,-0.051992934,-0.048066795,-0.120977126,-0.0063061514,-0.077886075,0.008294627,0.04797733,0.088691756,0.00082643767,-0.0029944964,0.031106306,-0.017832996,0.0047529913,-0.013019576,0.031986885,-0.083634324,-0.07902947,-0.0070340144,0.015090888,0.025720097,0.08381948,-0.042341128,0.052886486,-0.011560675,0.030201385,0.017341932,-0.01693802,-0.05855676,-0.07637479,-0.026939284,-0.010968817,0.02856488,0.015460526,0.028753733,0.007898241,0.06398324,0.029037882,-0.012933419,-0.09190188,-0.09766093,-0.027395016,-0.06448178,-0.029980075,0.0057446267,0.03347322,0.04538201,0.07097077,0.0995875,0.23189521,-0.09564469,-0.08680393,-0.073438965,-0.053166434,-0.008026734,0.01072954,-0.010414051,0.05785949,0.08490263,0.31804028,0.39527205,-0.12134981,-0.1439161,-0.16863959,-0.12536226,-0.03800354,-0.0021957029,-0.030483996,-0.09421143,-0.025923006,0.25612792,0.3095426,-0.017333142,-0.09839862,-0.13270295,-0.030358534,-0.00811564,-0.0019182342,-0.037897997,-0.062414195,-0.20656022,-0.06579849,-0.014435903,-0.15937869,0.75426555,0.051194355,0.16215596,-0.18286878,-0.25137183,-0.9707078,-1.5630075,-1.788033,0.825898,-0.13289747,0.78397435,0.4690427,0.4199969,0.33318678,0.23647106,-0.31155196,-0.801528,-2.0126321,-3.6534994,1.5277336,0.85693806,0.42053905,0.6818716,1.1811788,0.4952497,0.2489263,-0.23061977,-0.075635634,-0.62734085,-0.79781204,-1.646204,-2.767369,0.293703,0.85512125,0.4181827,0.1869211,0.035052005,-0.067565724,-0.24122328,-0.27265325,-0.61798924,-1.2985518,-2.1926692,0.18537603,0.062738314,0.18678626,-0.013256162,-0.08467326,-0.088445164,0.0220572,-0.16580357,-0.5479189,-0.6132416,-0.5354897,0.20046137,-0.5251459,-0.45566112,-0.35235515,-0.019849803,-0.15103753,-0.24024317,-0.13841666,-0.44520223,-0.63007724,-0.0492895,-1.001675,-1.3478848,-0.8516399,-0.49201113,-0.2489925,-0.31406608,-0.13424462,-0.2558118,-0.09762111,0.26578802,0.5318247,-1.5033364,-1.8795892,-1.0500723,-0.7542414,-0.47609523,-0.3469069,-0.16037071,0.035458274,0.36401227,1.7597177,0.18949245,-2.2055142,-2.7286992,-1.1636554,-1.1127927,-0.50527525,-0.39995843,0.120317414,0.2468007,0.7434389,2.288286,0.5954308,0.95360357,1.5349761,-3.5011287,-1.3607798,-0.72070366,-0.11481905,-0.035657078,0.09093993,0.5642597,-0.06388744,0.82009715,-0.12860648,0.90610677,-3.454567,-2.9873888,-1.2648752,-0.55925775,0.046097837,0.22160412,0.23232841,0.83702356,-0.19490685,2.213768,0.004620354,0.45893097,-0.16817918,-0.05000326,-0.07209054,-0.044896558,0.035870742,0.15212114,0.08609306,2.6659942,0.050580483,0.004441789,-0.20484726,0.04080438,-0.09871995,-0.060909696,-0.07364077,0.0053538983,-0.010194681,0.19851589,0.23321825,0.18123592,-0.17875706,-0.18710977,-0.10117381,-0.096472666,-0.11266805,-0.06322356,-0.10962975,0.083458,0.19890663,0.23589103,0.2027988,-0.08678549,-0.20530248,-0.10058404,-0.023990812,-0.021687353,-0.069526024,0.037507035,0.07794934,0.12533213,0.13879599,0.1256336,-0.07218801,-0.09683041,-0.07338003,-0.007764051,0.0060616117,0.022051714,0.106315546,0.09193112,0.14506595,0.14836265,0.09389809,-0.049040195,-0.08778441,-0.1134631,-0.1352298,-0.00077945937,0.02967792,0.07854936,0.07893396,0.08892933,0.15603995,0.0997779,0.008400805,-0.038637094,-0.098973185,-0.027502697,0.010151923,0.014151481,0.01795413,0.05564269,0.12021088,0.0949133,0.12537336,0.02592834,0.0043725157,-0.02590063,-0.067762785,-0.06789618,-0.034777083,-0.0038680106,0.10399792,0.13930757,0.20050731,0.05265589,0.03271642,0.106936544,0.009104482,-0.06585281,-0.094854556,-0.031158863,-0.024514282,0.06479077,0.120152205,0.11594613,0.1605606,0.39966995,-0.1482436,-0.07928032,-0.1603172,-0.11358259,0.00671176,0.0044958885,0.021523578,0.18365113,0.26468617,0.04269278,0.04670814,-0.059710156,-0.13765305,-0.08707481,-0.015264354,-0.020702789,-0.0047170515,0.076239966,0.19956605,0.23658615,0.00249347,-0.028118365,0.12201384,0.16117032,0.04134768,0.061641514,0.08284701,0.052858293,0.036018178,0.03409143,0.16725314,-0.049274728,0.32926533,0.21585296,0.020409686,0.082686886,0.076078445,0.1044657,0.06545189,0.08674904,0.18723553,-0.0027029763,-0.11794214,0.17004248,0.180392,0.06829674,0.14164144,0.18374851,0.14480823,0.1458816,0.046647537,0.148441,0.060578886,0.03927238,0.03420177,0.071743116,0.16452639,0.24056965,0.17992102,0.22173686,0.15811601,0.13014494,0.046412658,0.1429606,0.15663609,0.061173525,0.07786191,0.19411403,0.2763769,0.18582843,0.06995328,0.09637037,0.07817987,0.080825895,0.14263594,0.12216322,0.05870977,0.14018679,0.15119755,0.16492274,0.07708381,0.044976383,0.034915503,0.09602193,0.029338049,0.09719567,0.048304547,0.09755761,0.13021773,0.1831244,0.17110844,0.106597595,0.11981624,0.14297403,0.11564663,0.055625718,0.088453926,0.101081975,0.065251514,0.056537043,0.13758333,0.20166627,0.18230048,0.1897589,0.10594832,0.122951165,0.09325305,0.075591154,0.059078675,0.11882479,0.0337216,0.09194171,0.16052812,0.14684832,0.16405153,0.16416706,0.056319505,0.07547454,-0.05648306,-0.009824591,0.1356486,-0.060693715,0.11319919,0.0952683,0.14136961,0.107293054,0.045850445,0.11099865,0.017780846,0.005577992,-0.0333958,0.0477927,0.10621274,0.22886972,0.030683216,0.039808933,-0.018280001,0.097854,0.07898974,0.024734644,-0.034860294,0.007216958,-0.44565743,0.23737694,0.8375729,-0.9234255,-1.2484981,-1.6515963,-1.8381488,-2.3031158,-7.128092,0.2912854,-0.5203236,0.27588648,-2.6570108,-1.1626687,-0.698053,-0.90093917,-1.336668,-0.8721051,0.14691286,0.3567999,0.8098296,0.21868275,-1.3511355,-0.91107976,-0.39815083,-0.42003718,-0.50824,-0.1758438,-0.24053214,-0.013839431,0.23086695,0.8873691,0.02639186,-0.90568835,-0.7522292,0.004987059,-0.29480863,-0.06108409,-0.020927148,0.060647346,0.24504209,0.05174376,0.70792186,0.57023484,-0.43616056,-0.8068176,-0.3428845,-0.039283793,0.14303866,0.14590435,0.044478025,0.0710264,0.24639067,0.8128851,0.5490585,-1.0113491,-0.9060847,-0.24064039,0.21193206,0.1187004,0.060569093,0.01362504,0.040789876,-0.11746997,0.7249194,0.5175069,-1.4000584,-1.3139565,-0.4948576,-0.16088618,0.09122248,0.04732335,-0.02526179,-0.023903552,-0.13594808,0.35715434,0.700765,-1.5797485,-1.4159744,-0.75573844,-0.36499983,0.028252957,0.154661,-0.06289471,0.00286299,-0.38307387,-0.07142812,0.11062294,0.81976175,-1.3345534,-0.795362,-0.60348254,-0.104993545,-0.072834976,-0.29697514,-0.25165397,0.16741143,0.08595546,-1.3621852,0.2760129,-2.5285301,-1.4884576,-0.5495732,-0.67341727,-0.65870374,-0.14329435,0.1308219,-0.12807828,0.54445386,0.2821682,-0.37175995,0.227563,-1.5720652,-0.7298916,-1.0906163,-0.30353102,-0.96533394,-3.435814,0.20252813,0.27023584,-0.57915616,1.9762503,-0.042049214,0.0013115756,0.16438377,0.09947493,0.12005253,0.20997687,0.1357579,0.24156238,0.3508598,-0.24147184,-0.0053170356,0.17685013,0.3167757,0.19081314,0.12733045,0.128101,0.20398502,0.23157707,0.33330026,0.22231208,0.4273688,0.379401,0.34389198,0.2595318,0.1478671,0.117198095,0.08060524,0.16166225,0.19417231,0.3035884,0.41468182,0.33885193,0.37354758,0.15754797,0.113388985,0.16684735,0.11997555,0.14498451,0.17081754,0.113432184,0.2092079,0.35675478,0.18906294,0.2929689,0.12790135,0.14613953,0.15530185,0.1152455,0.19964725,0.026186666,0.13245922,0.25361866,0.31113094,0.26719236,0.10564207,0.1546579,0.13083807,0.19336313,0.24520923,0.19821237,-0.050456513,0.16557124,0.181708,0.2885718,0.2849027,0.20484336,0.012077127,-0.070043705,0.21806847,0.115542695,0.15672536,0.15049426,0.1801826,0.16059068,0.24784796,0.23970132,0.20557822,-0.23091315,-0.12575679,0.11894656,0.14742647,0.12217361,0.12724262,0.10496892,0.16235721,0.27234942,0.2745924,0.40066284,-0.122499764,-0.5578667,0.0018500445,0.09769005,0.14827025,0.122107215,0.09295198,0.16424869,0.22324744,0.32693252,0.43286806,-0.48498994,0.13182232,0.09892965,0.07338545,0.08088604,0.08509448,-0.0046347785,0.11140031,0.14391313,0.28803807,0.25582013,0.032005772,0.094991766,0.15767033,0.20430073,0.10001904,0.08852223,0.120308034,0.17127492,0.38148198,0.08516347,-0.039323427,-0.04004841,-0.10011664,-0.07501975,0.024793914,-0.04874263,-0.097371235,0.0032111197,0.066641174,0.18838646,0.006390505,0.049449734,-0.18881652,-0.04630819,-0.17731899,-0.06569189,-0.023522118,-0.09061803,-0.092092134,0.1958622,0.06480911,0.1943774,-0.1074331,-0.04489191,-0.071514264,-0.03360459,-0.05331638,0.027809469,-0.009012165,-0.041051425,-0.1552801,0.37895864,-0.043527722,0.14976674,-0.01284055,-0.018434277,-0.12921624,-0.010177409,-0.024848433,-0.07336939,-0.15039505,-0.19504605,-0.29768798,0.12961935,-0.045361232,0.029840775,-0.0500581,-0.08695851,-0.07018958,-0.07133116,-0.04448668,-0.079675905,-0.06460084,-0.14273006,-0.07610747,-0.10830864,0.005818405,-0.03204887,0.011809721,-0.07671185,-0.051778685,0.032154895,-0.03852704,-0.06868411,-0.1368109,-0.047077112,-0.047226,0.09145441,0.02297752,0.021433247,-0.00014935252,-0.050155874,-0.04030904,-0.044750895,0.0047794115,-0.053466663,-0.08509239,-0.032654684,-0.005046226,-0.10896895,0.05231853,-0.034718163,-0.032001983,0.003543997,0.0012863535,-0.030438,-0.04384324,-0.10739974,0.018874865,-0.059635617,-0.10831145,0.010471944,0.06645301,0.025178082,0.04973588,0.029177288,0.008871116,0.042989273,-0.04436485,0.023449462,-0.09183078,0.021087576,0.094864264,0.10711348,0.07272248,0.02793789,0.07311988,0.12731743,-0.07719558,0.1954668,0.21205923,-0.042167295,0.026006361,0.38940266,0.2518801,0.095728956,0.07454874,0.058975708,-0.06216502,-0.09607413,0.10343706,-0.01981304,-1.7739437,-1.9303122,-0.387536,-0.11305621,0.15368326,0.14234783,0.091073945,-0.24294518,0.91780084,-1.7502711,-1.728918,-1.9855251,-0.97866356,-1.2079479,-1.1457669,-1.0367732,-1.029404,-0.36502603,-0.654419,-0.79237735,0.5306121,-1.9547727,-0.42466125,-0.63352656,-1.4872512,-0.8098376,-0.47263023,-0.30288932,-0.4590218,-0.52963257,-0.85587245,-0.6660634,-0.68449557,-0.75872046,-0.620609,-0.79902595,-0.7791318,-0.50453335,-0.519522,-0.67886025,-0.4050785,-0.5913548,-1.0176303,-0.6563618,-0.86074257,-0.42014313,-0.39115757,-0.36239251,-0.37433422,-0.45776388,-0.42875332,-0.47707012,-0.51422936,-0.8028133,-0.72887635,-0.6927948,-0.326433,-0.22283201,-0.4278251,-0.35008848,-0.34337637,-0.41903302,-0.22733313,-0.45311615,-0.7319603,-0.980216,-0.45694098,-0.021732345,-0.26895183,-0.3890494,-0.3051269,-0.39192146,-0.44064155,-0.39737388,-0.39084032,-0.38219738,-0.6845941,-1.6180663,0.20258339,-0.2687534,-0.5043597,-0.16877392,-0.29880777,-0.35031477,-0.413662,-0.19526061,-0.67669946,-0.4488993,4.5883317,-1.980697,-0.5806312,-0.26618424,-0.37708196,-0.27456245,-0.09840797,-0.22113861,-0.43244502,-1.1546412,-0.7491636,-2.0312905,-5.2132545,-0.25112444,-0.50968474,-0.68241763,-0.1308901,-0.11700423,-0.121544756,-1.071752,-0.38852695,-1.9583479,-1.7017223,-2.0031064,-0.89951736,-0.9955281,-0.06724017,0.18644293,0.3167904,0.31510803,-0.33762047,-1.9463716,-1.747702,-5.0751543,-0.044037793,0.13203524,-0.01659604,-0.034161955,-0.08389518,-0.07300092,-0.13805112,-0.18619399,-0.2431054,-0.3426197,0.03666064,-0.21807425,-0.11583859,-0.029782657,-0.1237971,-0.1088504,-0.15119153,-0.1331948,-0.2032831,-0.54625666,-0.9492427,-0.50454634,-0.2101829,-0.15180552,-0.09825722,-0.13231225,-0.1173048,-0.12503332,-0.116554745,-0.12146374,-0.21513706,-0.33451083,-0.23936285,-0.20924836,-0.14098835,-0.089880496,-0.11672207,-0.11181651,-0.088172555,-0.08250891,-0.083609715,-0.08096259,-0.14766107,-0.24267837,-0.16487567,-0.15899472,-0.08379383,-0.105303444,-0.063735016,-0.008342515,-0.12011828,-0.032285377,-0.049256213,-0.07544274,-0.11089091,-0.12689131,-0.09665107,-0.071130864,-0.12841372,-0.0382918,0.0003049778,-0.040541414,-0.072021395,-0.04764667,-0.078612365,-0.10425716,-0.09607058,-0.106805004,-0.06704532,-0.097727716,-0.13057797,-0.044155452,-0.12016042,-0.06365331,-0.09948796,-0.04548037,-0.123236194,-0.07012959,0.0040242784,-0.054425243,-0.022088617,-0.09417516,-0.052588772,-0.06917596,-0.060187954,-0.013914398,-0.024062918,-0.06015237,0.04555105,0.060118876,0.08488903,-0.01158923,0.006947649,-0.022790045,-0.024382582,-0.011401192,0.037089795,0.0041616554,-0.0037593807,0.04443593,0.114277855,0.07526754,-0.0068563907,0.018539265,-0.008655703,0.026274955,0.05582468,0.08985035,0.16192831,-0.08334409,0.007531152,0.21072963,0.13593811,0.05862461,0.027542494,0.019839596,0.008537603,0.061782498,0.09195196,0.04899252,-0.019988699,-0.030958664,0.10144371,0.1907964,0.15411212,0.17032766,0.16516832,0.25082976,0.25544056,0.29486844,0.19377245,-0.020836601,0.17540085,0.17020448,0.18405426,0.20761377,0.18207487,0.14359356,0.21143354,0.25003076,0.29987308,0.24946626,0.33592388,0.1939014,0.17181796,0.18631914,0.116333865,0.1431711,0.120833755,0.13828562,0.22200081,0.23828734,0.2293482,0.3204029,0.11542895,0.122986816,0.12444853,0.09320959,0.07512711,0.08846492,0.095197074,0.15113683,0.21928568,0.24099702,0.2747017,0.10683669,0.0986874,0.09610633,0.10336429,0.0752963,0.030539846,0.05279293,0.09445742,0.12548909,0.21430853,0.22256762,0.09205619,0.11715721,0.050184563,0.03992743,0.03833638,0.035213463,0.09430427,0.07467852,0.061844368,0.19730176,0.18117565,0.05493837,0.090620264,0.049891017,0.031861123,0.04292742,0.08182928,0.02788386,0.0471715,0.106493615,0.06591539,0.13168795,0.0698065,0.105582856,0.08273522,0.048315156,0.038687445,0.059231117,-0.036447823,0.058192402,0.02627179,0.107231505,0.065393575,0.08620623,0.02434035,0.04001028,0.023422724,0.06431444,0.09046943,0.012460765,0.06119832,0.059949737,-0.0388706,0.008000881,0.095411085,-0.05855197,0.014723216,-0.021174869,-0.029132923,0.07105507,0.022436034,0.033998173,0.01694713,-0.024184892,0.017029647,-0.0046581686,0.008277756,-0.002212305,0.017735135,0.026979784,0.08913887,0.0924073,0.06333069,0.064909264,0.07171557,-0.04772903,0.46644112,2.1081185,-0.78118,0.41781235,0.54490054,0.8498941,0.9737944,1.4488558,3.4465418,2.3332622,0.57597625,2.2093797,0.3653948,0.9843945,0.52973825,0.5112912,0.66939867,1.1560941,1.549565,2.1021748,3.422779,2.4797964,2.5039947,0.9056956,0.5210548,0.2797598,0.2846587,0.38173407,0.6483087,0.88543296,1.2229532,2.0646963,2.935575,1.642717,0.45073795,0.42222002,0.14192256,0.25752065,0.06635269,0.30915746,0.5921601,0.8474809,1.1419541,1.5760666,1.5648378,0.44492602,0.28804857,0.20640665,0.040676057,0.1406619,0.2837916,0.36826795,0.28878874,0.45676205,0.6985224,1.2340987,-0.031843696,0.039220523,0.048746232,0.10323197,0.08885432,0.077201284,0.19386196,0.04106941,0.09357721,0.9204821,0.83080894,0.33180878,0.11689378,0.17316191,0.005839493,0.06911103,0.2924702,0.18169999,0.32744902,0.08693574,0.7034337,0.30696338,0.09333063,0.049993046,-0.035694715,-0.1208992,-0.14838548,-0.0034019272,0.05495145,0.077201135,-0.22842945,0.30229092,0.20655374,0.19175993,0.23735276,0.10395249,0.0938504,0.02911856,0.069430925,0.2340435,-0.24880615,-0.35122928,0.6363655,2.0026758,-0.4877231,0.14127243,0.28198993,-0.015214734,0.03130164,0.14742078,-0.03493896,-1.074935,-0.44429955,2.2512367,0.47605574,1.8962766,-0.43388063,0.070657454,0.12621753,0.43590084,0.14202666,-0.012941034,-0.4145125,2.4663837,0.58870214,-4.8069377,0.05038565,0.26704085,-0.06116284,0.09512313,-0.06704542,0.042139206,-0.014667116,0.12454869,0.1850961,0.32227692,-0.041974906,0.20234561,-0.12836662,0.09702178,-0.032092445,0.04027245,0.051576354,0.08711646,0.13455923,0.12565072,0.43885708,0.2699489,-0.07756065,-0.08072397,-0.061772086,-0.04458479,-0.020313896,0.08033782,0.042725775,0.20587052,0.35615113,0.40360832,0.33851385,0.014213788,-0.1182379,-0.039243735,0.030067151,0.07926499,0.040097903,0.17869446,0.20656507,0.3095877,0.3172838,0.24551587,-0.050622202,-0.05047593,-0.018874856,0.09621697,0.20990169,0.0773079,0.14904793,0.21632224,0.30443603,0.25928792,0.23364428,-0.004124692,-0.06023663,-0.02928911,-0.057752717,0.118608914,-0.0061940234,0.15906654,0.1127261,0.20102783,0.30183575,0.16630702,-0.015783858,-0.049538933,-0.03529781,0.02240722,0.037918653,0.06332135,0.09807437,0.12082986,0.25481144,0.18690017,0.24905643,-0.019767677,-0.0477727,0.028764676,-0.031162968,0.006631903,-0.005747455,0.029988464,0.15421742,0.29064262,0.2684229,0.25582767,0.034054924,0.010492072,0.008902269,-0.05198591,-0.07074236,-0.039716303,-0.03944565,0.07052391,0.26156843,0.29378724,0.24194156,0.09640998,-0.06486666,-0.08749566,-0.18035965,-0.11709056,-0.06738463,-0.0643984,-0.037095115,0.17065898,0.23788926,0.13637054,0.043946464,-0.09102236,-0.05476197,-0.033726238,-0.0023631807,0.008615941,-0.00084723777,0.063833974,0.1645183,0.22919895,-0.050128177,-0.016280565,0.2052973,0.24577822,0.15117802,0.15572147,0.297346,0.12267001,-0.01364063,0.038713302,0.11153047,0.008946046,0.24086149,0.18159008,0.09501437,0.02439502,0.16165021,0.1541796,0.12148864,0.11877343,0.14160325,-0.036398772,-0.18625143,0.17977767,0.22159636,0.041472357,0.25085363,0.18288754,0.1974281,0.104019284,0.05598134,0.25963694,0.067462765,-0.11942873,0.022297433,-0.020430103,0.17034285,0.26644823,0.14341393,0.20732898,0.114200525,0.04682727,0.08624886,0.18910593,0.11248183,0.06447259,0.02983868,0.20137648,0.27161616,0.16916466,0.10044906,0.072570644,0.09493107,0.093414426,0.1908828,0.1424962,0.07142337,0.10496097,0.11071062,0.16864248,0.10268281,-0.007891484,0.021073213,0.10859362,0.04840582,0.18971296,0.10807738,0.10937566,0.11316241,0.18208194,0.19329888,0.12131578,0.13724281,0.1890798,0.10056802,-0.021503227,0.09787733,0.16193147,0.06639884,-0.02204993,0.109262906,0.21401325,0.15987642,0.14134514,0.15684122,0.18479873,0.15542638,0.06828333,0.19885777,0.1633541,0.086230755,0.13878682,0.25135905,0.20407376,0.26866737,0.23159453,0.13136928,0.083788864,0.062000517,0.024433294,0.14380482,0.041126203,0.16704611,0.13616382,0.12274279,0.14923401,0.1485902,0.13997322,0.03900219,0.08115168,0.0437223,-0.006682325,0.19942166,0.26232025,0.12540506,0.11367975,0.16041353,0.044627544,-0.028185517,0.10510215,0.0874297,0.0197376,1.1151394,0.53914446,2.182571,0.017639982,0.10486639,-0.59820783,0.9143665,-1.9659164,-2.661835,0.39562377,1.0938686,0.5452089,-1.8773816,0.6341408,0.48174396,0.09943146,0.5149135,0.6786341,0.5813805,0.6688102,0.2643079,0.46544474,0.25423843,-0.45696142,0.008437378,-0.16294563,0.6811915,0.6966957,0.8700953,0.83383983,0.6286972,0.360011,1.1467748,0.022385145,-0.41020647,-0.03602771,0.3785954,1.0446515,0.83310276,0.85573554,0.8182739,0.79351926,0.54319435,0.94087887,-0.34449124,-0.26285034,-0.027291121,0.7644813,1.0602866,0.8338611,0.8922504,0.8032572,0.72725654,0.5500086,0.8841876,-0.44675696,-0.5180037,0.120995,0.9605434,0.90508735,0.67533994,0.6011255,0.7998228,0.76914984,0.47876775,0.924594,-0.25642872,-0.40202755,-0.05620759,0.40952957,0.93144196,0.8053231,0.66730493,0.789463,0.75268674,0.66321564,0.8693073,0.53502774,-0.21288654,-0.104450345,0.23185076,0.888548,0.8740758,0.7346405,0.83035153,0.7645104,0.91057605,1.4575804,1.4163829,0.017538736,0.061821796,0.06293419,0.93203616,0.9402373,0.45282456,0.8094009,0.7893654,1.1954527,0.98542005,0.6042165,-0.76328164,-0.021326862,0.15025268,0.13733098,-0.103783816,0.35307473,0.5910997,0.81451917,0.6183735,0.39041793,1.1120201,0.62242395,-0.009257142,0.11732414,-0.740688,-1.1151565,-0.90720296,-0.77520007,1.3194226,0.35610905,1.1396537,-1.786205,0.030968,0.058671217,0.04000035,-0.020290704,-0.020222152,-0.036291033,-0.06291281,-0.04645198,0.024745446,-0.058037523,-0.02471648,-0.0574022,-0.080668695,0.036489278,-0.062181573,-0.0138133075,-0.054166272,-0.0052879797,0.008804052,0.036044475,0.09620748,0.01774977,-0.24047521,-0.14130995,-0.114465155,-0.14037466,-0.09571363,-0.111279584,-0.024218373,-0.092528425,-0.00079936837,-0.013157698,0.03569122,-0.17869072,-0.26553574,-0.17619093,-0.15784249,-0.1132122,-0.10458024,-0.076601684,-0.13945094,-0.09417454,-0.010686071,-0.011366822,-0.23639981,-0.23234293,-0.22590919,-0.14820586,-0.17564465,-0.081636526,-0.09258089,-0.11262981,-0.073899195,-0.09360879,-0.09175089,-0.20585403,-0.17778121,-0.19582647,-0.139715,-0.1308156,0.004250907,-0.014320059,-0.1488026,-0.10391287,-0.12276265,-0.14491561,-0.22273254,-0.2548683,-0.22006346,-0.19433631,-0.19712971,-0.11797498,-0.13983342,-0.15689513,-0.13167228,-0.16703014,-0.18575871,-0.20289025,-0.1633698,-0.19595803,-0.17233841,-0.15776514,-0.12380095,-0.15990275,-0.18590161,-0.23557422,-0.17826602,-0.26182526,-0.1669086,-0.20448358,-0.17579088,-0.14167306,-0.13393398,-0.09912432,-0.11713249,-0.17970045,-0.23406631,-0.33268994,-0.15971744,-0.19363554,-0.11185218,-0.12024952,-0.13368702,-0.094283566,-0.07363566,-0.13365678,-0.20944022,-0.22291058,-0.31549686,-0.28265938,0.03389979,-0.14134651,-0.05787572,-0.085310735,-0.09969264,-0.08444061,-0.11915047,-0.111136556,-0.21970071,-0.18462788,0.032085437,-0.010059443,0.1920633,0.26652142,0.30164933,0.19616014,0.18314052,0.1529355,0.1280491,0.11128552,0.0298576,-0.034037914,0.15050393,0.2279592,0.2104976,0.23976403,0.1583446,0.10075639,0.1426318,0.11767946,0.09723953,0.1062935,0.15607308,0.30563977,0.2740584,0.2834323,0.1928205,0.20241235,0.13052863,0.101458155,0.10309486,0.10053941,0.053420514,0.07925424,0.29027605,0.22317639,0.26337364,0.1841757,0.16593963,0.13387012,0.1391849,0.13047816,0.13554233,0.095680304,0.114784986,0.27446944,0.22250527,0.20774591,0.21436866,0.13350712,0.10509907,0.15128042,0.21223156,0.13726464,0.202597,0.2647268,0.2683667,0.2338581,0.24716459,0.19427414,0.10259065,-0.040642988,0.05663373,0.25303435,0.110983804,0.1357365,0.24821247,0.28750765,0.29612094,0.2800858,0.21556155,0.20022163,0.12293674,0.16402899,0.19745642,0.18583617,0.20362641,0.27507648,0.27415237,0.27400672,0.22491702,0.25402436,0.14875461,0.25517464,0.1923139,0.24896553,0.2658655,0.18218532,0.22111851,0.31339726,0.24469198,0.24410985,0.25822812,0.21804391,0.20756954,0.22017284,0.25286278,0.20484677,0.22882032,0.1957611,0.17371096,0.21988724,0.26079074,0.25295508,0.23334679,0.19832684,0.22374786,0.24430163,0.2651718,0.14079782,0.22670731,-0.04265457,0.19217585,0.3176568,0.2686739,0.2392066,0.28103206,0.24722564,0.31809488,0.37819722,0.274751,0.007991349,-0.14294717,0.4445877,-1.5433999,-0.7875582,-0.98819846,-0.7262306,-1.0416952,-1.205299,-1.3782924,0.391528,-0.16641915,0.4894403,-0.3681345,-0.5319041,-0.8409238,-1.1139699,-0.8203291,-0.7970146,-0.35323226,-1.2590699,-1.2329278,0.29928675,-0.39151913,0.15007453,-0.46627745,-0.93907523,-0.8080267,-0.95967996,-1.0658554,-1.1330255,-1.080555,-1.2304566,-1.5807939,1.4242122,-0.14898029,-0.9687867,-0.77745444,-0.8390473,-0.91741073,-1.0423595,-1.2032359,-1.2341291,-1.067527,-1.1066695,1.2869915,0.5057543,-0.8243414,-0.82872784,-0.86449724,-0.9765956,-0.88823426,-0.97538424,-1.0181025,-0.6947815,-0.87476474,-0.65045166,-0.33576244,-0.6434355,-0.6999182,-0.86244,-0.8840768,-0.8721592,-0.69372046,-0.73222864,-0.582956,-0.34568313,-0.61626786,0.4625443,-0.43679786,-0.58455956,-0.7067738,-0.8024685,-0.7979363,-0.78031486,-0.5836147,-0.24574576,0.08652217,-0.7672416,0.48726305,-0.26146805,-0.47523195,-0.5927274,-0.7692192,-0.71944237,-0.62168545,-0.360191,0.11612162,0.8899162,-0.117531754,-0.52530193,-0.9119395,-0.5334668,-0.5098093,-0.5288251,-0.5743816,-0.48372215,0.0876769,0.52903444,1.3234797,0.38943675,-0.5190853,-0.72392297,-0.6880769,-0.5995008,-0.53195506,-0.22508593,-0.35481724,2.0776412,1.0931035,0.6707402,-0.1434033,0.24503337,-0.92184925,-0.76146644,-0.6416213,-0.5719107,-0.0462577,0.99686414,0.06645391,0.54580635,-0.14626473,2.0108688,0.034442898,0.054389253,-0.03266025,-0.051770292,-0.08930693,-0.14269938,-0.2028533,-0.2286229,-0.2512492,-0.54157096,-0.04887772,-0.12109228,-0.07038267,-0.032138053,-0.13424268,-0.12186788,-0.18302298,-0.21238977,-0.25167447,-0.3339385,-0.63360137,-0.30086163,-0.18825018,-0.12121592,-0.058055237,-0.12801978,-0.13213933,-0.18377218,-0.1797115,-0.22622725,-0.24720386,-0.32969418,-0.26200384,-0.22613199,-0.16560881,-0.11758717,-0.14271726,-0.1423901,-0.12762643,-0.12193091,-0.1674844,-0.16427357,-0.23060143,-0.28889754,-0.19646579,-0.15935197,-0.14143747,-0.14021671,-0.107769735,-0.07651217,-0.17537518,-0.13975807,-0.15265056,-0.18253243,-0.22456925,-0.19127625,-0.13307354,-0.1320361,-0.108851284,-0.07602058,-0.024381803,-0.06349987,-0.15159121,-0.12991144,-0.12578854,-0.16441515,-0.17468315,-0.17129408,-0.123192295,-0.1210889,-0.11866858,-0.11969954,-0.14756168,-0.09604368,-0.12233932,-0.08911335,-0.104958266,-0.1590881,-0.07157828,-0.114421986,-0.07936053,-0.11132892,-0.07654029,-0.09632334,-0.0969616,-0.07451325,0.008037096,-0.060416404,-0.07802882,-0.02957804,-0.013029522,-0.053397957,-0.009731572,-0.034085043,-0.027139083,-0.038157288,-0.003943077,0.018692939,0.04616511,-0.0713988,0.05709247,0.009679903,0.012537623,0.009708986,-0.018166922,0.01979603,0.016230637,0.070423126,0.17179522,0.008109446,0.01644389,-0.05488004,0.08063883,-0.01752923,-0.032412108,-0.011927412,-0.06242088,0.03766322,0.033206858,0.045399975,-0.032407,0.020667192,0.09120828,0.18326452,0.20027708,0.23984434,0.19119942,0.21629834,0.2650058,0.25946411,0.2304002,-0.018221833,0.17912495,0.1505359,0.21654877,0.15638453,0.1834143,0.16784756,0.15887065,0.21357635,0.22089453,0.24006878,0.33840662,0.18908766,0.16601063,0.15819894,0.1287135,0.16319466,0.15286979,0.15541899,0.1732447,0.20497952,0.27228558,0.2728642,0.15272161,0.14253183,0.15737262,0.118860364,0.13931623,0.12382082,0.14453253,0.16193907,0.20653737,0.16395728,0.21280546,0.14650711,0.1318987,0.17079015,0.1482847,0.09468182,0.06089524,0.10782794,0.116074495,0.16928767,0.16897419,0.15159467,0.1251001,0.09651007,0.079186544,0.07758492,0.102757804,0.029957991,0.12954684,0.10507608,0.093448855,0.1529216,0.2258958,0.11416329,0.14043036,0.14284281,0.07151598,0.104900494,0.07291274,0.069440626,0.086622216,0.13750428,0.123583905,0.14278014,0.11378931,0.081439674,0.13118319,0.0960675,0.055941932,0.09783246,0.025568906,0.07117311,0.054304045,0.12206598,0.11264786,0.07408318,0.08293719,0.102157615,0.06390499,0.10408792,0.11641085,0.07427994,0.08045817,0.055954065,0.029349685,0.08632648,0.095771626,0.060188074,0.11280137,0.08744145,0.088369705,0.1399813,0.016887048,0.014880362,-0.061552763,-0.037234463,0.12245617,0.006001483,0.036405113,0.026641127,0.062927864,0.09128776,0.112560965,0.09362202,0.029159203,-0.06123172,-0.0693814,-0.023895856,-0.13596617,1.639824,-2.0008583,-0.8097137,-0.2941753,0.05471898,1.0031005,1.186262,3.0012648,1.3933829,-0.12223014,1.6350803,-0.26812288,-0.4253255,-0.5443034,-0.39625067,-0.28537154,0.10117062,0.08657264,0.5014303,1.6764667,1.6335665,-0.5243405,-0.58404535,-0.61115354,-0.66485614,-0.6208872,-0.6961232,-0.38095805,-0.32958204,-0.16045737,1.170498,1.4857134,0.283939,-0.99054044,-0.69294274,-0.70418346,-0.7278771,-0.819701,-0.58352065,-0.5404817,-0.36664468,-0.06639803,1.2753844,0.36857253,-0.7405015,-0.7341454,-0.79993284,-0.8837091,-0.722604,-0.67602783,-0.64219695,-0.6820009,-0.3409107,0.59548855,0.08004762,-1.1353924,-1.0372372,-1.0311584,-0.8039084,-0.8375117,-0.85731465,-0.772301,-0.8031395,-0.5333025,0.10282071,0.009816788,-0.9158634,-0.86740446,-1.0135462,-0.9196556,-1.0342869,-0.8424498,-0.8451661,-0.8078173,-0.4854816,-0.3192667,-0.43657702,-1.0814137,-1.0229679,-0.9820397,-1.0882536,-1.0076389,-0.9931809,-0.9968323,-0.8007604,-0.76882833,-1.1173332,-0.29165825,-1.0394329,-0.84098846,-0.8480211,-0.87970483,-0.98473144,-0.94786257,-0.8117743,-0.9322963,-1.4349148,-0.99274296,1.4337103,-1.6614981,-1.193822,-1.1708636,-1.1977161,-0.9272631,-1.0369201,-0.9552941,-1.4721992,-1.8033568,1.5187393,-0.13074173,1.308391,-1.1839412,-1.1549186,-1.1889948,-0.95201445,-1.1739335,-1.0774674,-1.344772,1.6594195,-0.15811296,1.8285351,-0.012453497,0.5469108,0.15018217,-0.03716775,-0.05069156,-0.03935174,-0.13193607,0.0139886085,-0.03669307,0.20741364,-0.024952088,0.30012792,0.53979367,0.21131843,0.025072487,-0.012469699,-0.036679536,-0.04467341,-0.14115281,0.047038205,0.020764213,-0.24926277,0.4252162,0.2504612,0.18968411,0.058058545,0.029139016,-0.021997422,-0.045687888,-0.021586858,-0.066643074,0.025779294,0.043956865,0.283903,0.2568994,0.13099563,0.10262547,0.011460286,0.021135014,0.070432454,0.038093608,0.029725619,0.005529143,0.018055981,0.2058411,0.24255617,0.09163791,0.10592441,0.025475234,0.041203596,0.0554657,0.018202372,0.019257843,0.017150074,0.09107001,0.22110349,0.15841462,0.064345844,-0.04728591,0.069776855,-0.049363308,0.0626311,0.047949728,0.050401945,0.040707964,-0.031876348,0.15348236,0.23031458,0.02797675,0.016920809,0.0354568,0.01991459,-0.00031319255,0.013612685,0.0023845315,-0.013339131,-0.045556188,0.40031126,0.3709418,0.08235523,0.04469915,0.0077012926,0.0025176085,0.049848437,0.008750782,0.04145611,-0.09867501,-0.14183652,0.6566557,0.9203434,0.23389545,-0.016141137,-0.02390964,0.018762484,-0.04664052,-0.06637755,0.08191757,0.07008423,-0.056200992,0.61514735,0.47847217,0.19861479,0.026650196,-0.040854175,-0.03017286,-0.004086301,-0.108603716,0.085341685,0.19828151,-0.06484901,0.027839368,0.2837466,0.1533123,0.046092298,0.0629034,0.013509725,-0.042303134,0.036988128,-0.1376227,0.1643717,-0.015982442,-0.025844952,0.37609679,0.3460682,0.23505831,0.36617625,0.4739023,0.2876311,0.24225473,0.18014728,0.14550018,-0.006472846,0.22902848,0.30445167,0.3258633,0.2814512,0.25572363,0.29695383,0.38152364,0.21161483,0.34435132,0.16357552,0.23111373,0.21398105,0.2141132,0.29454613,0.29579538,0.26906228,0.2652707,0.2339468,0.3786368,0.070609055,0.28123686,0.026252238,0.29463556,0.32248864,0.2792793,0.25163695,0.2879045,0.24474825,0.32436246,0.35094553,0.46158728,0.16038942,0.34366682,0.35282513,0.3206461,0.2755378,0.35139954,0.27563068,0.23418936,0.26938796,0.29069,0.2951951,0.29167104,0.37179428,0.40671653,0.32680964,0.27955464,0.31081918,0.23297708,0.0012696099,0.16938016,0.29473135,0.25106454,0.27697906,0.31956676,0.27142355,0.3297364,0.3016225,0.23255858,0.26953784,0.22936186,0.25265774,0.25322536,0.23999567,0.3145739,0.32984203,0.2967199,0.25842184,0.25177914,0.2824049,0.2635977,0.2577105,0.2524373,0.31943706,0.30217946,0.2951369,0.36641517,0.40973866,0.3592534,0.28565368,0.2702485,0.24444579,0.28939384,0.27445397,0.2783826,0.24294016,0.40273035,0.4213632,0.38195285,0.141519,0.20643754,0.29864246,0.25186193,0.22835508,0.24810973,0.08121051,0.24087396,0.026538935,0.10815884,0.024167763,0.368511,0.25522706,0.2790169,0.24472328,0.36913863,0.27896962,0.34959337,0.2493964,0.15879878,0.016335607,-1.9792472,-1.7908516,-0.22237629,-1.7803341,-1.1438195,-1.08944,-0.32802933,-1.1433467,0.4835826,-1.6609268,-1.9815022,-1.7540056,-0.8436485,-0.7393429,-0.97036594,-0.6625579,-0.737348,-1.3440598,-0.87885505,-1.4344603,-1.7019079,-1.7453294,-0.7862368,-0.5419775,-1.4474369,-0.7746794,-0.2919264,-0.31269565,-0.5000878,-0.4009112,-0.7093063,-1.562642,-0.051515084,-0.84372276,-0.6640366,-0.77497286,-0.3913524,-0.48285043,-0.46831727,-0.6087195,-0.118095376,-0.24448973,-0.84713775,-0.17112169,-0.7394591,-0.43893176,-0.3648203,-0.3374171,-0.24490239,-0.34645241,-0.33222124,-0.4408269,-0.42229134,-0.70333266,-0.26005998,-0.29182783,-0.34067023,-0.33031553,-0.36633202,-0.22634827,-0.33652183,-0.40441242,-0.27530438,-0.35093737,-0.60171956,-0.6352206,-0.49213162,-0.098176,-0.3991349,-0.30321014,-0.37870187,-0.36850065,-0.3713933,-0.28744316,-0.15451494,-0.25922215,-1.5780567,0.26961124,-0.036611,-0.3665061,-0.39344037,-0.27246338,-0.45796645,-0.44373283,-0.36437663,-0.32316828,-0.6768279,-1.4653785,-1.2574223,-0.7773092,-0.6316746,-0.88449574,-0.3621486,-0.28831843,-0.33643693,-0.30282697,-0.5417132,-0.74466616,-1.2118695,-1.7651873,-0.868516,-0.9053498,-0.78494334,-0.63277745,-0.30359888,-0.15937848,-0.86249083,-1.7847607,-2.9123306,-1.8950471,-1.94316,-1.8490465,-0.70799065,-0.86351687,-0.9146037,-0.10384606,0.18391281,-1.2199923,-0.28994873,-1.869776,-1.9024316,-6.2722526,0.04898277,0.461722,0.3763514,0.28348094,0.22326057,0.09567818,0.07434022,0.009750726,0.10000863,0.20864685,-0.010031795,0.160397,0.34771413,0.4608047,0.278231,0.2214937,0.08538282,0.053851146,0.08707139,0.17312577,0.4884977,0.4600605,-0.09379652,0.096289545,0.2453119,0.1983402,0.14040457,0.12167881,0.14929727,0.10249242,0.29084045,0.40769222,0.4338343,-0.09052978,0.0034720171,0.11875614,0.14357336,0.07918951,0.08745241,0.16352098,0.1726073,0.2334926,0.40575412,0.3885346,-0.05116929,-0.005291129,0.08603341,0.12310514,0.14452034,0.10915069,0.15241207,0.0897774,0.21896671,0.35883853,0.3627667,-0.02699684,0.015607344,0.08847375,0.12197987,0.098502815,0.036786083,0.2409417,0.20926468,0.25758785,0.33108583,0.39689755,0.032667506,0.08019161,0.072705746,0.14924683,0.16976137,0.09973889,0.15872216,0.17039093,0.27918354,0.39807722,0.4069284,0.018625423,0.041830797,0.09010351,0.14174183,0.078894235,0.09470366,0.112176515,0.18022244,0.21090198,0.49603814,0.2596634,-0.08843495,-0.011747131,0.065110296,0.09812912,0.07539355,0.08011467,0.12985383,0.20398952,0.12052012,0.32900319,0.34638965,0.02262282,0.027297625,-0.015457365,0.029662695,-0.010278282,0.053967703,0.08358472,0.0215853,-0.001911538,0.13461989,0.056739654,0.045894403,-0.039797414,-0.12013399,-0.110764034,-0.029764712,-0.0055172276,-0.044895004,-0.07256256,-0.08898884,0.07387427,-0.032486346,0.023576664,-0.17400144,-0.19985831,-0.1657228,-0.06485728,-0.1777161,-0.19841263,-0.16299027,-0.23197868,-0.214088,-0.034565814,-0.048082698,-0.08816531,-0.06536017,-0.030901734,-0.18206373,-0.124664165,-0.16772911,-0.22558,-0.34254086,-0.32289633,-0.26306432,-0.09589563,-0.12477154,-0.046556525,-0.12342208,-0.13280022,-0.049153984,-0.11318704,-0.11574757,-0.2091697,-0.25237706,-0.16920553,-0.12062492,-0.15898523,-0.09354903,-0.09536555,-0.09794655,-0.10482303,-0.07967168,-0.12892953,-0.11756651,-0.1520879,-0.17629851,-0.17587815,-0.13430707,-0.03308501,-0.07883047,-0.07431329,-0.10027112,-0.12967412,-0.10461377,-0.10664401,-0.16948673,-0.17515104,-0.19518964,-0.13488674,-0.06728776,-0.11823415,-0.07958306,0.014469931,-0.124584645,-0.17182301,-0.11645048,-0.11352459,-0.10735092,-0.103870876,-0.11662108,-0.1261224,-0.06869169,-0.09697389,-0.11773761,-0.12934019,-0.15569983,-0.1252024,-0.15613829,-0.12820499,-0.054466046,-0.034777902,-0.042022355,-0.073884144,-0.10772496,-0.13833152,-0.10805737,-0.11713114,-0.11246108,-0.041268308,-0.13705626,-0.13440298,-0.23420605,-0.070531085,-0.10126864,-0.08768913,-0.09780459,-0.113610774,-0.122940466,-0.10498768,-0.08178741,-0.21579568,-0.22933371,-0.16327637,-0.09555782,-0.10321996,-0.11164557,-0.13524827,-0.22361235,-0.15260074,-0.13518423,-0.04198625,-0.3620785,-0.0051306062,-0.09014866,-0.10346918,-0.036456805,-0.044961352,-0.04459251,-0.07335815,-0.15558535,-0.11437449,0.071443155,0.00644919,-1.4457728,-1.5871482,-1.2501433,-1.0505486,-0.6748192,0.17957444,1.3485378,1.0212092,0.27279344,-1.5216793,-1.4033597,-1.6170225,-0.3521131,-0.770853,-0.8018949,-0.17392844,-0.06597859,0.15004043,0.31668806,-0.13882567,-0.7799405,-1.6434544,1.3901879,-0.09469295,-0.37646767,-0.3362356,-0.4511048,-0.41884008,-0.38492554,-0.6560228,-0.21167824,-1.1128106,-1.4713792,1.8333895,0.005477208,-0.050732836,-0.016208626,-0.075939685,-0.23719355,-0.17991635,-0.52239084,-0.68076706,-0.947266,-1.4704044,1.9319205,0.3893476,-0.19942687,-0.21355303,-0.25104618,-0.12988293,-0.18356538,-0.2550706,-0.5445938,-0.6370923,-1.456421,1.5161895,-0.3743953,-0.2899416,-0.20638347,-0.1637854,-0.27734613,-0.15622002,-0.2794662,-0.4824246,-0.5831358,-1.4919171,1.394848,-0.20603968,0.026789026,-0.097153924,-0.0737996,-0.1256442,-0.27279007,-0.29240802,-0.24356367,-0.66699487,-1.3979721,0.39653802,-0.028445486,-0.24099469,0.08896144,-0.101821,-0.15515435,-0.13490199,-0.12094591,-0.29664975,-1.1236097,-1.2386843,1.6512042,0.7279234,-0.7632423,0.08944405,-0.07407488,-0.24775591,-0.16421297,-0.46009836,-0.47549057,-0.84664357,-0.7167898,-1.5834507,3.3115404,-1.14318,-0.48295218,-0.22732943,-0.51603884,-0.16486363,-0.44658664,0.2084482,0.9813279,-1.6276076,-1.3909734,-1.5763918,2.0593555,0.9026508,0.19892892,-0.42485175,0.0776089,1.564893,0.7724086,-1.5943385,-1.4165637,-2.705921,-0.04037035,0.2850389,0.18026927,-0.040020447,0.20806508,-0.19850397,0.11318159,-0.2810162,-0.2126959,-0.0959358,-0.0337139,-0.05992555,0.21224764,0.18085766,0.16709623,-0.005643435,-0.038983468,0.03514036,-0.15173166,-0.0974357,0.014704218,0.27332824,-0.123889334,0.33310968,0.057363037,0.10517594,0.06026385,-0.20101681,0.20643872,-0.35812342,-0.25684026,-0.17477487,0.048482303,-0.103815295,0.08289996,0.038073547,-0.22630502,-0.28609782,-0.122716665,-0.20320643,-0.19246618,-0.33940506,0.007400891,0.15355034,0.03429762,-0.032228652,-0.10415131,-0.30751282,-0.47427365,0.0019767848,-0.29267767,-0.39115477,-0.36795732,-0.03476737,0.05554664,-0.10786137,-0.11390094,-0.1423998,0.14757922,-0.27632296,0.015060729,0.08161181,0.08015243,-0.008319374,0.005737941,0.27771345,-0.092499465,0.10684877,-0.055182867,-0.11678472,-0.019533966,-0.03489724,-0.19821578,-0.060674526,-0.14113666,0.33434442,0.15746728,-0.12519856,0.18768938,-0.2592871,-0.04770629,-0.089315094,0.18172938,-0.047204845,-0.101721615,-0.21472672,0.13108076,0.026348833,-0.18636784,-0.036816042,0.038748663,0.049250703,-0.19775584,-0.056040697,0.069183245,-0.08613418,-0.34951702,0.07700322,0.05356488,0.032742664,0.1549703,-0.059209995,0.33920738,-0.021260466,-0.03279637,0.09360229,0.015765138,-0.21608546,0.10948016,0.032736737,0.009893684,0.40899515,-0.31018522,-0.4158297,-0.4427145,-0.40069017,-0.23880132,-0.27019012,-0.37842286,-0.08189394,-0.04526521,-0.008554043,-0.11006265,0.09751634,-0.06565694,-0.15035065,-0.0802024,0.15088847,0.21072836,0.14669682,0.2977872,0.013157583,-0.082034126,-0.01883537,-0.1243081,-0.054958653,-0.18119894,0.09341444,-0.10967287,0.011239568,-0.034897503,0.21525116,-0.085668415,-0.11947631,-0.09810659,-0.13605541,-0.07243474,-0.20783165,-0.002157983,0.09256041,-0.09239491,-0.32413718,0.0013230415,-0.18643036,0.050259713,-0.011010851,-0.24666798,-0.051482163,-0.03855276,-0.020476427,-0.2923602,-0.2744758,-0.27674952,-0.007207135,0.005471516,0.03351625,-0.09296003,-0.1493969,-0.28756335,0.0075976364,-0.06240622,0.012659925,-0.22890356,0.09566585,-0.022197114,-0.06403463,0.034727376,-0.014781386,-0.040074117,-0.0047185426,0.13365526,0.016862923,0.16810332,-0.18608974,-0.017585557,0.0030016645,-0.037482362,-0.019006778,-0.09296758,-0.014315216,0.028917767,0.106003776,-0.04542226,-0.026682574,-0.08390226,0.0717507,-0.06883286,-0.12457097,-0.0030953442,0.06691282,-0.18142088,-0.09465976,0.013679617,0.14630082,-0.10567515,-0.10809096,-0.049134437,0.0770025,0.008734564,-0.17563707,0.011047811,-0.1575562,-0.09989152,0.16693875,0.021505281,-0.2474178,0.085257255,0.17049545,0.19142409,0.07676411,-0.06451338,0.06237986,-0.008046014,0.0051260544,-0.21639198,0.023299146,0.017845554,-0.036491908,0.031093473,0.031281114,-0.32323796,0.011512359,0.14462098,0.1238779,0.11654684,-0.28052405,-0.0048709973,0.16660629,0.14625688,-0.01843242,0.025320532,0.030617127,-0.13252644,1.2152088,-2.5681577,-2.7735116,-0.7914752,-0.6577248,-0.5433874,0.24501711,1.1700255,0.96676993,-0.16247353,1.2392776,-1.0713495,-4.198177,-1.326981,-0.5249194,-0.35962895,-0.3285711,-0.09872133,0.005467433,2.9795842,1.0904093,-2.4297314,-1.5690386,-0.6224938,-0.41292143,-0.43636072,-0.34370598,-0.3112107,-0.21981859,-0.035940766,0.785693,-0.7886205,-0.9887601,-0.8759763,-0.23081312,-0.38695538,-0.5033735,-0.2967959,-0.3865357,-0.39302048,-0.04388405,0.034756217,-0.40770164,-1.0470198,-0.73323286,-0.37342006,-0.30894858,-0.43843585,-0.3927662,-0.3276685,-0.087096944,-0.25193414,-0.2876127,-0.65509593,-2.8476639,-0.7405602,-0.58155805,-0.53579956,-0.27610454,-0.44210824,-0.21860465,-0.4479685,-0.11806455,-0.37748718,-0.67389673,-2.74936,-0.8066837,-0.5425269,-0.7583711,-0.5323287,-0.40668213,-0.5871271,-0.6087695,-0.27558178,-0.24746452,-1.5180104,-0.908719,-0.78867924,-0.72843057,-1.0521148,-0.43318716,-0.7179889,-0.48107982,-0.5574249,-0.6092701,-0.21174376,-0.8481617,-1.9784087,-1.5704097,-0.30839172,-0.576462,-0.6065206,-0.35688594,-0.5112514,-0.36880818,-0.30694866,-0.18025401,-2.107992,1.1290698,-1.0828977,-0.91642964,-0.62772816,-0.4665922,-0.44347268,-0.42872173,-0.28730896,0.032169186,2.5462623,1.1720881,-0.14728087,0.99751467,-2.5842206,0.069940954,1.2896935,-0.034467828,1.1393899,-1.7123076,1.690687,1.2797039,-0.16531341,1.5903891,-0.036785807,-0.3362532,-0.23604855,-0.1885286,-0.13186465,-0.11449203,-0.08114449,-0.057040352,-0.013274293,0.025487792,0.024028338,-0.26105338,-0.40210247,-0.29606134,-0.1357001,-0.14834477,-0.093193024,-0.074478626,-0.06262256,0.013010899,0.05917144,-0.04447071,-0.15188958,-0.25392523,-0.19469775,-0.14445995,-0.11151612,-0.07068594,-0.06816562,-0.02902588,-0.032716624,0.045183536,0.023471138,-0.15207489,-0.12893839,-0.16141249,-0.09932088,-0.10683218,-0.08688347,-0.08185809,-0.023504319,-0.006716878,0.010075327,-0.019157747,-0.123866454,-0.097744435,-0.123077065,-0.109438255,-0.09892395,-0.079407714,-0.09981374,-0.058351934,0.00050016056,0.017710358,0.001720052,-0.111142196,-0.108183,-0.09911608,-0.095646106,-0.06487977,0.045729388,-0.04852754,-0.035194337,-0.0065172897,0.05696711,0.033792462,-0.14022727,-0.13737045,-0.09458094,-0.11227742,-0.09699305,-0.038545355,-0.053097326,-0.032649867,-0.01376231,0.05425225,0.036036093,-0.20413528,-0.24090277,-0.13579728,-0.095239215,-0.08937461,-0.07193115,-0.08909474,-0.04028321,0.0076935994,0.07395454,0.028605344,-0.21942374,-0.24956869,-0.19285728,-0.13287216,-0.09823385,-0.079513125,-0.088097475,-0.015701149,0.02854466,0.11337037,0.05933286,-0.23408078,-0.3517524,-0.22749758,-0.18323278,-0.08789737,-0.10349342,-0.038544707,-0.022562873,0.06728958,0.17375228,0.06956217,-0.0058526555,-0.28321257,-0.18464679,-0.1748456,-0.14556563,-0.11350218,-0.056725647,-0.017731763,0.04614567,0.047355983,0.011623809,0.027226845,0.11342731,0.09737681,0.07650997,0.07502385,0.089486234,0.071829885,0.017791709,0.018305298,-0.019852174,-0.032547366,0.12211382,0.12354194,0.085240304,0.0832997,0.075602695,0.07627474,0.036718372,0.05287099,-0.032793492,-0.093698286,-0.0777412,0.10864119,0.11714117,0.13611977,0.13277306,0.10209361,0.088160336,0.044511255,0.04818969,0.06204967,-0.045458365,-0.03480587,0.13089453,0.16454747,0.085639484,0.09999364,0.091813356,0.07904488,0.02754123,0.036850877,-0.0340984,0.040750325,-0.014955517,0.12660533,0.11109255,0.1154764,0.05572157,0.0786663,0.055046696,0.058685284,0.008131463,-0.030216072,0.003881035,-0.014996426,0.081138596,0.05710136,0.11762875,0.05583286,0.07996816,-0.009069912,0.050787497,0.027749635,-0.031234592,-0.040090725,0.020956304,0.08252829,0.073456705,0.07623767,0.09621845,0.09158231,0.041901644,0.061624542,0.024489664,-0.0118226735,-0.018503906,-0.009718635,0.09108254,0.08676079,0.13509265,0.06727905,0.10189003,0.058327172,0.04280034,0.003969971,-0.024092585,-0.06730289,0.013925902,0.13283128,0.114757,0.118004195,0.095405735,0.09105444,0.057961248,0.036554784,0.0403175,-0.06887863,-0.05785291,-0.027110066,0.08607908,0.104114465,0.10168394,0.08105352,0.06974663,0.02452145,0.06891254,-0.060287073,-0.08634875,-0.10354272,-0.16552192,0.049739905,0.117247224,0.17853524,0.10835962,0.0987396,0.074377306,0.042683546,0.0037684068,-0.04248347,-0.11645871,-0.0051715947,-0.14617586,1.3847826,0.71108073,0.30964682,0.2394982,-0.8883527,-0.57695305,-1.1436535,-1.1573677,1.2967964,-0.15493593,1.3815434,0.80659044,0.8845419,0.7030463,-0.3611866,-0.6336253,-0.9799935,-1.0735531,-1.4414996,-0.87830955,1.2906429,1.0662153,1.0062026,0.7531461,-0.6740288,-0.86507195,-0.94390833,-1.3268957,-1.5148748,-1.7518294,-3.0800908,-1.6154059,0.26978335,-0.3996452,-0.5197293,-0.7355095,-0.927801,-0.9771652,-1.2375371,-1.3602847,-2.1185613,-2.9985328,-1.8038541,-0.41256618,-0.6619524,-0.77412826,-0.82477003,-1.011026,-1.0365185,-1.1730931,-1.2945265,-1.6605709,-2.13378,-1.7836607,-0.704069,-0.6333443,-0.8076266,-1.0052804,-1.0394077,-1.0300268,-1.211557,-1.292183,-1.5060374,-1.9755582,-1.6038694,-0.41746643,-0.78083247,-0.77069587,-1.1512828,-1.0967458,-1.1061243,-1.275087,-1.3291287,-1.4339515,-2.7030396,-1.805145,0.8266027,-0.6256046,-0.92622775,-1.0006984,-1.066418,-1.1478602,-1.2729723,-1.418957,-1.4795289,-2.7074456,-1.9023925,0.99305737,0.80458266,0.24560437,-0.8258567,-0.7345098,-1.0193794,-1.3834944,-1.3899988,-1.3412349,-1.7997203,-1.6954247,1.3407884,0.8357064,0.48100317,-0.06617432,-0.4433111,-0.70662236,-0.82269,-0.9221578,-1.2375841,-1.5952444,1.5086238,-0.16157424,1.3465672,0.7355848,0.517483,-0.2802601,-0.31550133,-0.63319623,-1.4590541,-1.5695417,1.5446528,-0.13837457,1.9573386,-0.04282555,0.4238392,0.26036388,0.03296823,-0.03893615,-0.076584496,-0.20359956,-0.20252725,-0.113281906,0.41003683,-0.018610712,0.1572507,0.56871974,0.36229816,0.055455983,-0.04701515,-0.10463695,-0.17221038,-0.16740507,-0.12945479,0.2381425,-0.22867325,-0.0688268,0.21653011,0.17979972,-0.0017189925,-0.045874037,-0.100880824,-0.17310973,-0.08487224,0.031916857,0.14992127,0.14444062,-0.11827562,-0.042828456,-0.020746931,0.04002486,-0.030042866,-0.052508105,-0.040511202,-0.041739155,0.07345989,0.12488234,-0.082186766,-0.016844232,0.02753033,0.02349622,0.04876524,0.038907964,-0.021334356,-0.055940956,-0.013284769,0.059845086,0.03767845,0.03602885,0.0686917,0.10037068,0.0275193,-0.0024145977,0.035722267,0.033650666,0.041173365,-0.0008829439,0.05304673,0.03528268,-0.024204975,0.045907736,0.17149968,0.044145513,0.105875745,-0.018591233,-0.043324225,-0.052605987,-0.0655117,-0.028444534,-0.06687997,-0.06906817,0.13148989,0.3104495,0.13429219,0.04019166,-0.03214426,-0.06700938,9.4090996e-05,-0.04755109,-0.0011834244,-0.114771955,-0.088446386,0.2168139,0.38105738,0.085089184,0.032221105,-0.055480175,-0.11191094,-0.118840285,-0.14403422,-0.11290045,-0.12645185,-0.17564957,0.14624648,0.3899074,0.047235996,0.08304502,-0.13430999,-0.14201093,-0.13857238,-0.14847276,-0.17225288,-0.19253062,-0.2621187,-0.004818043,-0.2382375,0.10563596,-0.040161904,-0.0560139,-0.1072741,-0.1698152,-0.16774862,-0.12556458,-0.13103674,-0.0018069919,-0.044667445,-0.008111023,0.05021644,0.09823326,0.11505951,0.08151052,0.044534557,-0.024714842,-0.15585965,-0.09675379,-0.036428638,0.010851947,0.100265175,0.038556684,0.14865369,0.022238739,0.0122311935,0.061359953,-0.038270514,-0.09764441,0.0017478825,0.31044006,0.019685555,0.020671256,0.14402105,0.05936882,0.083668865,0.097835995,0.021671027,0.096753724,0.21011762,0.116070315,0.343838,0.0029459188,0.024977775,0.07335308,0.09472587,0.10292287,0.09535173,0.087733164,0.10504769,0.077488214,0.21696067,0.22609341,0.037672196,0.011260401,0.09359101,0.0774037,0.09805965,0.07904615,0.068089984,0.042912934,0.11197485,0.095627196,0.24592169,0.08946264,0.035922237,0.06477178,0.041311536,0.097378634,0.023598395,0.11472348,0.05796752,0.06589295,0.12587143,0.21379201,0.091241404,0.08689925,0.06730901,0.023485763,0.057150763,0.13809764,0.13561624,0.13393031,0.1308844,0.119649805,0.12838534,0.11778832,0.039433017,0.06924971,0.0171222,0.055157512,0.097582296,0.14017926,0.21979544,0.18896843,0.16714068,0.1598507,0.08040633,0.030259933,0.018756377,0.050794028,0.07356712,0.13226442,0.17041266,0.15575962,0.2153045,0.3203298,0.31020436,-0.029104566,-0.07409653,-0.0016117451,0.008212013,0.12126842,0.06715637,-0.025857927,0.11780661,0.22730292,0.21637185,0.60766375,0.048980113,-0.016420469,-0.06396414,0.112441584,0.14809813,0.17980857,0.13907589,0.13230644,0.13742295,0.0578186,-0.0005917044,1.1954868,-1.4492447,-1.6708788,-0.86164707,1.2649676,0.9208048,1.3648801,1.4668267,0.2159294,-1.4185911,1.2156684,-1.3950764,-1.1599851,-1.264845,-0.99495375,-0.43399268,0.7844341,0.96683025,0.9875058,1.0736688,-1.6640754,-1.5103532,-1.1086369,-1.9433898,-0.77614033,-0.5839664,-0.05852131,0.22168386,0.3240863,0.3147123,-0.04270365,-1.4275401,0.5374399,1.2994299,-1.1722893,-0.94006616,-0.29564077,0.06186209,0.039911345,-0.13004749,-0.042412434,-0.15996121,-1.0294907,-1.0479014,0.45657656,-0.7591773,-0.4600339,0.12658608,0.07057784,0.18253213,0.13938549,0.07694364,0.14064974,-0.61710066,0.022960989,-0.5251893,-0.9155613,-0.20419405,-0.0785191,0.10684035,0.34233266,0.28728116,0.34570965,0.20757177,-0.05867645,-0.5211895,-1.4829475,-1.3681811,-0.4351014,0.041062612,0.16261877,0.04740679,0.1545004,0.20885006,0.3110068,0.24981804,0.38584474,-1.7667139,-1.5641477,-0.38091388,-0.07916714,0.08087775,0.22443724,0.23041092,0.3831628,0.5483887,0.787405,1.0146936,-1.8425394,-1.935893,-0.95218515,-0.50601053,-0.006325454,0.24520005,0.60035366,0.586673,0.45015758,1.0506667,0.6851566,-1.302896,-0.4346764,-1.4970386,-0.76424354,-0.26072747,0.19196284,0.89196885,1.0196732,1.2654508,-4.4212766,-1.4825896,1.2165523,-1.3446937,0.5096178,-1.0772434,1.0029275,1.0434154,1.3841552,1.2723477,1.4054357,-1.5154426,1.2031577,2.077771,0.024063691,-0.26607493,-0.27004337,-0.15163088,-0.07992694,-0.19052443,0.03112496,-0.0832046,-0.09767637,-0.5589542,0.020046208,-0.27657753,-0.4871841,-0.21892461,-0.14872992,-0.12891617,-0.10993356,-0.070534445,-0.04951827,-0.12345995,-0.1264397,-0.03314148,-0.38838744,-0.23279558,-0.1990656,-0.11640901,-0.041541677,-0.090608485,-0.045392063,-0.10527207,-0.15279081,-0.11155175,-0.03798524,-0.25706595,-0.15420727,-0.14353693,-0.11632722,-0.10389964,-0.083998874,-0.06807558,-0.051354457,-0.105526045,0.10712583,-0.085770294,-0.19116008,-0.13255773,-0.13488142,-0.10969401,-0.17552653,-0.03190872,-0.02220876,-0.035898186,-0.054779693,0.008067498,0.1130458,-0.15387253,-0.15843047,-0.12686618,-0.08586413,-0.11366748,0.047869716,-0.069466084,-0.032383133,-0.008288871,0.07106463,0.11074103,-0.011289483,-0.019992784,-0.12609956,-0.040185727,0.01410543,0.010748183,-0.016249482,-0.011835244,0.026929721,0.14439783,0.19079398,-0.037835177,-0.007352888,0.030812226,0.023800299,0.08818347,0.07791306,0.053990655,0.055462275,0.056061797,0.24298543,0.14482947,-0.05085929,0.11067372,0.22171487,0.24178414,0.15305468,0.16845074,0.2319562,0.16371955,0.12728041,0.16863856,0.17947139,0.13649793,0.36436787,0.31443077,0.3973073,0.2715125,0.2124625,0.27009195,0.3233498,0.31841767,0.3409391,0.19213952,0.023792285,0.30450684,0.3684243,0.206531,0.11508915,0.16129299,0.12910762,0.26021656,0.2509646,0.13210522,-0.010625542,-0.031670447,0.07902573,0.056910854,0.015946604,-0.09782225,0.051136196,0.04824904,0.048883695,0.078184865,0.12947698,-0.0003638427,0.19355859,0.13212413,0.060043223,-0.08892808,0.060166672,-0.004876407,-0.04858259,-0.030962948,-0.03782695,0.1294207,0.044459563,0.07748213,0.1153268,-0.022164302,-0.011795206,-0.075461894,-0.05740453,-0.0044720336,-0.021955693,-0.1816323,-0.026372965,-0.09679104,0.035637587,-0.0015708609,-0.04389523,-0.056292243,-0.093401164,-0.05293327,-0.14738983,-0.10693234,-0.16975181,0.022125399,-0.03606329,-0.05083508,0.038553167,-0.017397014,-0.06390647,-0.058413208,-0.14509551,-0.086284645,-0.15022439,-0.17269927,-0.009873049,-0.07749943,-0.08039687,-0.12223912,-0.1515814,-0.024955863,-0.08302805,0.03830333,-0.06436227,-0.18904847,-0.27958566,-0.12540275,-0.12276754,-0.14446016,-0.12609601,-0.10318663,-0.09232743,-0.13262053,-0.108406655,-0.13414338,-0.19712238,-0.22055417,-0.12646034,-0.08585406,-0.15673989,-0.0714401,-0.18441549,-0.1464477,-0.22525948,-0.20879298,-0.29360774,-0.33294606,-0.33277118,-0.20212385,-0.32256073,-0.20285822,-0.063091256,-0.15753932,-0.25790593,-0.20778482,-0.37540117,-0.25477216,-0.33128065,-0.23885456,-0.3756937,-0.49451032,-0.16785939,-0.081447124,-0.2252368,-0.13663587,-0.25094593,-0.101105735,-0.17313042,-0.037749607,-0.37381202,-0.3784666,-0.39107957,0.027949618,-0.08511984,-0.20662792,-0.14107992,-0.23259705,-0.17457737,-0.08812129,-0.15643132,-0.11794152,-0.20281753,-0.032775577,-0.54667133,-0.5706637,-1.3900245,-2.64431,-2.7058315,-2.2400646,-1.3242298,-2.0259392,-0.52292603,-0.5376335,-0.4970214,-0.6266576,-2.83274,-1.566395,-2.257146,-2.7637556,-1.8655483,-1.2336255,-0.83285725,-0.012562364,2.6154127,-0.5181272,-2.648377,-3.0338933,-2.81965,-2.754419,-2.7441607,-2.06726,-3.0334635,-2.544438,-2.6528697,-0.75928336,-1.479894,-2.8134031,-1.6756973,-2.6582444,-2.9007974,-2.8430762,-2.5866854,-3.0381222,-1.9608902,-3.3342395,-3.1137147,0.5496282,-2.839565,-2.6518962,-2.7091177,-2.6901057,-2.9672527,-3.1226046,-2.1002843,-3.4552357,-1.4509525,-3.610453,-0.7910429,-2.5725598,-3.1596665,-2.5226288,-3.0773566,-3.0773332,-3.2993312,-3.0887055,-3.5697143,-3.35688,-3.7031674,0.6687231,-2.9117546,-2.9593523,-3.0463722,-2.0370007,-2.6705914,-3.473061,-3.5387409,-2.9323537,-3.3604841,-3.6281905,0.6967505,-1.8726382,-2.7741845,-3.174536,-2.9115493,-3.2771735,-3.0693884,-2.394821,-3.5042295,-3.435148,-3.4498599,1.0428858,1.2373384,1.5887187,0.51021755,-0.30433866,-0.60489607,-0.84991497,-1.1157914,-0.8952496,-0.98959416,-0.5853222,1.5531951,-0.56449574,1.3776851,1.6212982,1.3668778,0.5841925,0.43375504,0.57585025,0.17252792,0.91483647,2.884322,-0.5177647,-0.5841107,-0.5327337,0.7269539,0.74786186,1.0242811,1.0022476,0.9899136,0.5153024,1.1382746,-0.53601795,-0.5244721,-5.372464,-0.017717535,0.23948494,0.24762885,0.1469092,0.13692032,0.07804287,0.070668206,0.059495524,0.10642544,-0.00482392,0.048599314,0.01064225,0.26537302,0.21407373,0.13854706,0.08639669,0.09192077,0.12378004,0.1124383,0.24182855,0.24782972,0.16019893,-0.012439812,0.085460246,0.08071707,0.030647425,0.069912806,0.007996771,0.09490675,0.06849759,0.079936795,0.03306192,0.0011940615,-0.13023072,-0.0664164,-0.0022322754,0.009292095,-0.0047098543,-0.016585194,-0.00070561544,0.011348419,0.013797443,-0.041647796,-0.03483572,-0.08066423,-0.100195594,-0.011021869,-0.05931298,-0.050359916,-0.045031194,-0.06346047,-0.045570277,-0.027393352,-0.046185937,-0.07289851,-0.09141633,-0.08701497,-0.07859023,-0.007292473,-0.036766086,-0.03140726,0.0048083602,-0.013047049,0.021315483,-0.02384321,-0.061067905,-0.11438811,-0.07729456,-0.06684287,-0.04577693,-0.011353099,0.0462531,-0.02988901,0.010908327,-0.0080860015,0.042502403,-0.012150409,-0.15086673,-0.07723936,-0.120772555,-0.03836632,-0.0340139,-0.000633725,-0.069370456,-0.023555698,0.007340038,0.1190118,-0.0100035975,-0.17473178,-0.1217861,-0.11854328,-0.07979173,-0.07096912,-0.08365059,-0.064794786,0.0018595475,-0.033716023,0.121540956,0.06710683,-0.09482704,-0.13485126,-0.17263927,-0.09158648,-0.1167727,-0.08105252,-0.07174373,-0.10796562,-0.02718155,0.1129246,-0.032032296,0.03693389,-0.25589925,-0.18278717,-0.19236647,-0.13833135,-0.107931904,-0.10011127,-0.06746966,-0.1048815,0.14206831,0.00085589354,-0.048663635,-0.056034397,-0.037784852,-0.03908095,0.00800196,-0.067309536,0.0027438444,0.009135385,-0.0044658165,-0.021212138,0.0050464296,-0.037104737,-0.015329009,0.01837496,-0.0002547451,-0.04494239,-0.008955113,-0.025820058,0.029408854,0.021602424,-0.011866744,-0.26111433,0.007686925,-0.005413588,-0.005847077,-0.015190278,-0.051255047,-0.051746145,-0.025363676,-0.0029065614,-0.059520945,-0.025737297,-0.19017814,0.0297456,0.012597701,0.012548459,0.01782285,-0.05646571,-0.043973546,-0.06783068,-0.027851125,-0.055170786,-0.12122604,-0.14056382,0.0035193793,0.016455933,0.027937897,-0.010760596,-0.066470295,-0.002517185,0.008791985,0.013438912,-0.042881925,-0.043031964,-0.08408301,-0.01496128,0.0012634008,0.05928678,0.02764745,0.0039153495,0.00027953487,0.008668558,0.023920508,0.02087226,0.02199932,-0.00073052506,0.05370944,-0.012752794,0.015079392,0.015821684,-0.00043261057,-0.0018103913,-0.02002788,0.0055078845,0.028088529,-0.007277675,-0.021699397,0.04608259,0.07057055,0.0712428,0.022296956,0.018822897,0.04432515,-0.0056365095,0.010133536,0.04109401,0.09192679,0.115346685,0.09109977,0.050218478,0.10924291,0.06715566,0.0353519,0.09361712,0.071627975,0.0420156,-0.0005762688,0.15796062,0.22663638,-0.00051535195,0.05584788,0.07448381,0.052849747,0.006922258,0.003620777,0.008121818,-0.12634386,-0.12247457,0.0057530925,0.14692071,0.016043875,0.004015478,-0.02539748,0.034118682,0.05780857,0.052516215,-0.0028518436,-0.120699465,-0.29947975,-0.28388676,0.01243294,1.3684255,-0.76347107,-0.9891983,-0.64043295,-0.5668363,-0.58943486,-0.47520033,-0.7511984,-0.6983724,-0.7701915,1.2890307,-0.80033165,-0.37814945,-0.7138309,-0.5261618,-0.5100657,-0.8803906,-1.0164096,-1.0634564,-0.7409722,-1.2720374,-0.76751626,0.2867862,-0.4361123,-0.049491715,-0.90449256,-2.4818306,-2.4612336,-1.7745152,-2.2856894,-0.7867817,0.27243096,0.17714432,0.4869068,-0.469894,-0.34784037,-2.6169276,-2.3457732,-2.8208303,-3.1319745,-2.3707452,-1.9208759,0.16580826,0.6205136,1.1655133,-0.29631317,-2.563997,-3.2084298,-2.310062,-2.7473612,-2.8100812,-2.4005716,-2.4188569,0.17677154,0.8608179,1.6512315,-3.3677607,-2.9050682,-2.7772357,-2.8034616,-2.4329777,-3.0538766,-3.244476,-2.2644987,0.040236697,0.9720016,1.7468187,-3.3383276,-2.657399,-3.1517467,-2.131655,-2.7779834,-2.3867517,-2.4488757,-2.1449203,-0.19849251,1.0663688,0.7602418,-3.4624987,-3.1927307,-2.04505,-2.1250443,-2.5190284,-2.401237,-2.4180183,-2.1793942,0.1753551,-0.48268813,0.9704133,-1.2275324,-2.1413975,-1.8973227,-2.9656374,-2.1807415,-1.9801186,-1.5093114,-1.0077673,-0.084563404,-0.11767936,-0.9013081,-3.066085,-1.9101752,-2.8197985,-3.3774557,-2.6066837,-2.3407915,-2.5337067,-2.487857,-0.18097115,-0.8674707,1.3654898,-0.8731836,1.4122308,0.628991,0.9969694,1.3378888,1.137504,1.0532914,-0.0037673218,-0.800038,1.251036,1.5917869,0.008236356,-0.20123725,-0.088060156,-0.2280953,-0.08617666,-0.04420488,0.022494566,0.16963246,0.24456546,1.3421289,0.013475683,0.23290342,0.06778479,0.008483516,0.00763418,0.013667522,0.015047866,0.010443466,0.036860503,0.39790896,0.56008697,0.15604304,0.08006563,0.030982906,0.0578312,0.06989036,0.0058103185,0.0554871,0.09510806,0.079195246,0.16484064,0.14561605,0.23190837,0.13280474,-0.004828758,0.030520743,0.09931004,0.07923122,0.0997736,0.16270205,0.12013965,0.13751033,0.10977407,0.01107727,0.0814619,0.014427218,0.05511102,0.108973324,0.083258264,0.06735699,0.16933225,0.12177804,0.080242984,0.08889817,0.0018340568,0.11217518,0.036525667,0.14547944,0.09261669,0.21689197,-0.025614941,0.22404562,0.1097262,0.11616306,0.08337675,-0.048061926,0.08326398,0.023505703,0.07802884,0.1188368,0.08631078,0.13677643,0.1299293,0.09418613,0.03562083,0.0051560937,-0.032358017,0.10439171,0.12814645,0.14215781,0.17349465,0.14450881,0.15489005,0.10648995,0.04011923,0.066839226,-0.022834504,-0.04517699,0.42376,0.15768224,0.16296497,0.15760033,0.2005386,0.15208448,0.10512077,0.03516134,-0.027134525,0.06434959,-0.088081926,0.21031669,0.39983976,0.225555,0.18097892,0.1508335,0.09618926,0.04110273,-0.017767739,-0.0045472197,0.014710836,0.29790053,0.027023945,0.29520062,0.28750175,0.23158829,0.17589223,0.1683804,0.08219696,0.0671864,0.15318862,0.087400675,-0.006848998,-0.0287577,0.23552063,0.0792472,0.12287831,0.11952695,0.3655763,0.17591071,0.28246292,0.3247332,0.27119634,-0.032172166,0.108203605,0.24701384,0.23461747,0.13890594,0.21623383,0.18541658,0.18617031,0.3040554,0.3213754,0.25964394,0.5466553,0.20981194,0.1897764,0.1756115,0.22821437,0.32319674,0.33034343,0.19823094,0.33446923,0.38924912,0.281645,0.349682,0.20025682,0.20610264,0.27010915,0.26815778,0.26931268,0.27916184,0.2504861,0.2339385,0.260274,0.21323656,0.23345563,0.20911999,0.19619922,0.23239018,0.23331943,0.32496223,0.14298762,0.27667168,0.31179568,0.3160496,0.13976842,0.38984367,0.17227083,0.14216451,0.23641801,0.25542742,0.19210254,0.040103443,0.2035941,0.22281268,0.27415332,0.21095082,0.32730463,0.22023198,0.21465817,0.26385698,0.23329999,0.26450247,0.26802978,0.24009907,0.2999606,0.27799487,0.31246015,0.3074091,0.21148482,0.1344963,0.24859981,0.2205729,0.23412667,0.216759,0.21315509,0.2663886,0.14386897,0.11723513,0.07011665,0.19788751,0.23979257,0.28400367,0.19777773,0.17829442,0.22215419,0.20931819,0.3051535,0.26658735,0.30854005,0.2199692,0.1107186,0.18331541,0.21841316,0.25662082,0.2521233,0.2379824,0.23128977,0.38274544,0.39035127,0.3324793,-0.13417923,0.04891217,0.20334083,0.21494398,0.3257416,0.30905038,0.3051624,0.26695982,0.42984965,0.5078339,0.47946402,-0.012227672,1.09104,0.37724102,-0.3738016,-0.31308687,-0.8197375,-0.7118488,-1.2395834,-0.93760735,0.34455717,0.26110575,1.1185033,0.41307464,-1.0183082,-0.059480358,0.17984238,-0.6739128,-0.4003073,-0.5065458,0.14903982,0.32593232,0.3853462,0.29797435,1.3574425,1.0543242,-0.10296286,0.38589355,0.21898744,0.53713167,0.5551102,0.49305344,0.4744912,0.16766235,-1.6264744,0.105355434,0.2600044,0.32305717,0.29951635,0.3487994,0.58910066,0.56408226,0.68966895,0.36237648,0.14424731,-1.154266,0.03407246,0.2987951,0.43207115,0.49906448,0.66540533,0.76971316,0.7697869,0.76751715,0.68129605,0.31356996,-0.94703996,0.06244958,0.42843744,0.56837785,0.49206528,0.63934636,0.45547676,0.5758797,0.57542056,0.3512492,0.455352,-0.8668409,-0.18947558,0.6451692,0.95771927,0.7193544,0.56484336,0.54853743,0.7725516,0.56441706,0.5133291,-0.24307647,-1.001239,0.9982651,1.4336904,0.7514152,0.80666286,0.60846674,0.48556355,0.59144926,0.5864879,0.4413037,-0.5536443,-1.0626856,1.086315,0.58220017,0.79926443,0.81774884,0.6773132,0.62507874,0.69834274,0.6046306,0.31547353,-0.8836687,-0.9589389,0.426606,0.8174192,1.5105264,1.176224,0.5323918,0.6183001,0.80940926,0.545449,0.9025459,-1.3245944,0.24788482,1.1243126,0.44158113,1.1911317,1.0005127,0.7992498,0.27030033,-0.26091382,0.0223968,-0.29573977,0.2554671,1.037531,-1.9173814,-0.0024504943,0.37671146,0.22504143,0.11282756,0.00221959,-0.020656694,-0.14219995,-0.13684885,-0.17126812,-0.2556374,-0.024288453,0.28768754,0.6327957,0.33442596,0.12173276,0.016570508,-0.03414395,-0.19394654,-0.15187867,-0.18496881,-0.2876682,-0.12426404,0.34318987,0.3529181,0.20110646,0.113825075,-0.0043185106,-0.011160302,-0.05806787,-0.0746064,-0.14153239,-0.17036481,-0.10448558,0.18134762,0.23504722,0.14625521,0.058656335,0.023358935,0.008946568,0.011230787,-0.011988907,-0.045913227,-0.088043235,-0.07331438,0.116721205,0.13838473,0.027313441,0.021440145,0.048670936,-0.0009958263,-0.03420047,0.025112595,-0.013516078,-0.053269897,-0.04947292,0.045253966,0.02613374,0.013336227,0.017632095,0.0052691204,-0.028739655,0.0029837124,0.009340569,-0.01224427,0.02645172,0.03036432,-0.016079532,-0.022093939,-0.0258349,-0.022728598,0.015198151,0.010154877,0.0028873475,0.027550219,0.048394457,0.052797623,0.11113893,-0.09203166,-0.06381171,-0.07179662,-0.009925422,-0.036300596,-0.016354349,-0.030762915,-0.010700387,0.093685396,0.0744186,0.11448172,-0.17395906,-0.14835721,-0.14632297,-0.09629192,-0.071840696,-0.04748155,-0.043450464,-0.013534108,0.11710624,0.20432913,0.13773522,-0.17471458,-0.25544378,-0.17091194,-0.14530236,-0.13000542,-0.106275745,-0.067776404,-0.021784516,0.072612,0.24936332,0.19775662,0.042662125,-0.18938102,-0.20248629,-0.099310614,-0.08413442,-0.072466545,-0.070398495,-0.02793049,0.03733443,0.02332379,0.035370965,-0.016161174,-0.08763035,-0.12000825,-0.034524478,0.030185217,0.045488115,0.009848761,0.05840917,0.09939373,0.020731656,-0.03361334,-0.17157735,-0.09218415,-0.024440516,-0.037378404,-0.0060641756,0.01715234,0.03857037,0.04924082,0.11849831,0.18758173,0.20367926,-0.16229029,-0.13045876,-0.08986215,-0.029806959,-0.04556184,0.062359575,0.0044366512,0.10219202,0.070624284,0.17053534,0.15531594,-0.06617971,-0.057759646,-0.052197643,-0.021691531,-0.025747908,0.045040485,0.055564206,0.048409887,0.11782393,0.03317167,0.040161733,0.02323629,-0.04823441,-0.07129962,0.00825106,0.046429373,0.03677683,0.034642,0.037947707,0.031213379,0.03233592,0.030611418,0.09469245,-0.005132387,-0.01594188,0.009016373,0.030836347,0.044967517,0.028926961,-0.017254857,-0.007486431,0.013102297,0.0073186317,0.069789976,0.052899253,0.023898808,0.020848028,-0.005207491,0.029618623,0.0024437292,0.040008284,0.0007511135,0.0050961208,0.0448777,0.07864634,0.030361865,0.046993524,0.037620123,0.05575596,0.02220295,-0.014633136,-0.0044475687,-0.029623814,-0.0004151976,-4.9954113e-05,0.11184165,0.070394084,0.07468889,0.078249715,0.05683326,0.02779071,0.048410058,0.0073334095,0.026112247,-0.011269031,-0.092355736,0.12886228,0.115421176,0.10785961,0.052601717,0.053669557,-0.02553396,0.012062581,0.0433448,-0.08896286,0.08567416,-0.10210801,-0.03705927,0.102342896,0.117046565,0.06660528,0.06403513,0.09664753,0.012474968,-0.010364664,-0.082228735,0.047052972,0.03675515,1.6975155,2.4178257,-1.8638543,-1.3606842,-0.63068074,1.0889032,0.69760513,1.2353982,2.6538098,2.1812027,1.6469783,2.4874341,3.7497163,-1.7762982,-1.4522475,0.091982946,0.4953614,0.88941747,1.2287631,1.7269373,1.3755583,2.3397863,-3.397191,-1.8011609,-3.1007307,-0.082667336,0.34488142,0.7497162,0.8050942,0.9700869,1.0543126,1.5260447,1.1883816,-3.5682633,-0.7654599,-0.078426376,0.32419986,0.5030425,0.7696816,0.7591553,0.9275604,0.87999,0.9955638,0.9042987,-1.6693468,-0.03046536,0.35206744,0.70794296,0.78708833,0.9096673,0.9285904,0.7380487,0.910167,0.87203175,0.3319318,-0.5880592,0.48185045,0.76305443,0.8133576,0.9123257,0.92899585,0.9688397,0.92295116,0.91215897,0.65535885,-0.61432475,0.3543145,0.753473,0.90964127,1.0089402,1.0121827,0.9516821,0.8957371,0.7971757,0.8464152,0.4992571,-2.1993802,0.52084506,0.92911816,1.0349582,0.95107806,0.975606,0.9197649,0.7917299,0.76001227,0.45705304,-1.3216898,-2.50403,3.1327515,1.2064773,1.07867,1.2092346,0.9462464,0.86415607,0.665489,0.5285761,0.055800166,-1.2846404,-3.124975,2.4138703,0.95719355,1.8000345,1.3886869,0.97183025,1.0624752,0.7397645,0.3085576,-1.7207928,-0.7413565,2.477544,1.6560794,2.3637636,2.001696,1.5890393,1.1729056,1.0098991,0.6669696,0.2480246,0.2766258,2.4735892,1.6242503,-3.6014764,-0.012507076,0.028830135,0.026331546,0.1106301,0.09683086,0.15368542,0.2241712,0.2896428,0.22821045,0.29531303,-0.018811775,-0.13033967,