0.04485245,0.09914145,0.12534428,0.077532604,0.05080792,0.04972916,0.019149724,0.01384123,0.015103153,0.031740185,-0.008778087,0.04083065,0.14827392,0.12950923,0.066879526,0.044230938,0.031360228,0.033203278,0.020937964,0.044727847,0.034975175,0.056154992,0.049467392,0.084663294,0.07807406,0.052708186,0.046466455,0.03733993,0.02466602,0.015002984,0.021751383,0.02594145,-0.01719449,0.029836683,0.04692279,0.036874745,0.042581126,0.04585516,0.023617078,0.019535616,-0.002855594,-0.008564355,-0.038553223,-0.01190675,0.031979065,0.041103613,0.015281751,0.00862882,0.007435242,0.038236357,0.009542982,-0.02605924,-0.01709228,-0.04623487,-0.046619512,0.006571169,0.0058542904,-0.004228051,0.014203532,-0.019999288,-0.03616402,-0.010239787,-0.0052553643,-0.012563732,-0.040367182,-0.07795372,-0.009691137,-0.02735875,-0.030436916,-0.010306404,-0.009060824,-1.6806138e-05,-0.029082468,-0.01400478,-0.04806857,-0.08455591,-0.10229319,-0.0076368023,-0.026529018,-0.026694793,0.002454982,-0.011041313,-0.022852782,-0.031234208,-0.03656837,-0.055081543,-0.10058779,-0.089378566,-0.018590244,-0.03292013,-0.0074430644,-0.022209946,0.0046394486,-0.00023497507,-0.0059205694,-0.02554379,-0.033179235,-0.036211457,-0.06247108,-0.13982591,-0.030113399,-0.041572537,-0.03949712,-0.034065362,-0.030745069,-0.008385918,-0.031172678,-0.050571106,-0.07398948,-0.052279193,0.016863298,-0.049416695,-0.030444251,-0.010002834,0.011083768,0.011047175,0.016263906,-0.0048989896,-0.006556833,-0.037253134,-0.03571902,-0.011943795,-0.08741273,-0.082706064,-0.03329893,-0.01797538,-0.0082706455,0.00038630882,-0.004839508,-0.024137452,-0.0044557285,0.050783213,-0.055460192,-0.06695014,-0.036466338,-0.031659856,-0.013391606,0.008152945,0.012278701,0.003105426,-0.03631378,0.0054087876,-0.0015290154,-0.037120927,-0.03578552,-0.019019099,-0.0071138483,0.002417601,0.014103526,-0.01040478,0.005873394,0.013463581,-0.0239596,0.023144335,-0.039496247,-0.016760023,-0.0040768413,0.0067414423,-0.011022983,-0.0015710216,0.0012272918,0.0052019693,-0.007595434,-0.013538019,-0.021219673,-0.022701845,-0.019086242,-0.018106727,-0.011633555,0.00015992403,0.0057714954,0.006208134,0.0021682177,0.005099207,0.0038651435,-0.015572633,-0.016591799,-0.009689549,-0.0058028176,0.0013842689,-0.007462711,-0.0044432282,-0.008467722,-0.003984271,0.016966583,-0.012295076,0.0044816434,-0.009473931,-0.013880298,0.008571422,0.0010164261,0.013396333,-0.0009849663,0.011569624,0.020178957,0.040178463,-0.014122956,0.0010932449,-0.0050655412,0.002174928,0.013777004,0.009074823,0.023123076,0.0133121675,0.033389706,0.05279421,0.032418896,0.037798032,0.017924473,-0.017871402,-0.025929557,0.016313683,0.018312154,0.030871708,0.00074812974,0.02243551,0.035563108,0.06776783,0.09079077,0.058373693,-0.03703548,0.002556346,0.0134756835,0.007895557,-0.008082007,-0.019998617,0.03180305,0.054079223,0.043519553,0.074379995,0.04122478,-0.035378225,0.012222652,0.03357044,-0.006738338,-0.021667795,0.019671097,0.042519223,0.024843395,0.067018315,0.077892944,-0.033647753,1.332596,-1.4970709,-0.69292754,-0.7353705,-0.7330625,-0.3348402,-0.5492931,-0.5134681,-0.5554615,-1.450817,1.3330698,-1.5965937,-0.7146458,-0.7624039,-0.7290467,-0.7067765,-0.59667766,-0.5611808,-0.4527312,-0.20576183,-0.5722358,-1.4982749,-0.64773095,-0.70555395,-0.69870573,-0.75658894,-1.0988759,-1.0310421,-1.0451187,-1.0892667,-1.5744642,-0.501326,-0.4382851,-0.58259934,-0.5631758,-1.444188,-1.1089312,-1.4443523,-1.5797797,-1.3739625,-1.6530621,-1.6039009,-1.5767725,0.4844858,-0.4115495,-0.47666463,-1.0263655,-1.5348579,-1.5168109,-1.6977527,-1.5601473,-1.5800176,-1.5249825,-1.6485038,0.51132244,-0.24951701,-1.6192775,-1.6758008,-1.4630076,-1.7133952,-1.7149253,-1.5251307,-1.6388286,-1.5468549,-1.6330972,-1.5705844,0.011714909,-1.639833,-1.5919122,-1.6328928,-1.5406433,-1.5358276,-1.5317011,-1.5334013,-1.5690885,-1.6421657,0.49002194,-1.6262524,-1.6657327,-1.6571133,-1.652114,-1.5871493,-1.7032845,-1.5186294,-1.3979654,-1.5891924,-1.6701671,0.58325076,0.978797,-1.733349,-1.4734802,-1.6293844,-1.5918065,-1.5614007,-1.5878713,-1.3661196,-1.5564749,-1.6482686,-1.4658141,-1.4223214,-1.7086135,-1.6494924,-1.7761649,-1.5094202,-1.5285311,-1.6216085,-1.6335933,-1.6425102,-1.6826608,-1.5017921,1.4520605,-1.4846449,1.1625545,0.2785665,0.26671976,0.37579796,0.1875033,0.5885657,0.58676136,-1.5761982,1.3446667,0.8226317,-0.008578817,-0.06816636,-0.1032982,-0.09672624,-0.064241536,-0.03589625,-0.008585527,-0.001015779,-0.014982403,-0.061325416,-0.0011580596,-0.08999077,-0.13490094,-0.11782119,-0.09894125,-0.054798797,-0.05687344,-0.017608179,-0.04782902,-0.03766994,-0.12118594,-0.15011546,-0.081789285,-0.084964745,-0.10242762,-0.089965574,-0.077645004,-0.075119875,-0.053236376,-0.066286035,-0.06941183,-0.10324306,-0.19219427,-0.0658036,-0.08567191,-0.09261846,-0.068869255,-0.07299203,-0.09054704,-0.07495173,-0.09402368,-0.10009899,-0.12340729,-0.1318936,-0.062333226,-0.087167874,-0.07920408,-0.08733088,-0.09616819,-0.09597412,-0.09061692,-0.09416529,-0.112753086,-0.14440854,-0.11255704,-0.064641416,-0.09207305,-0.07834609,-0.103533916,-0.084358305,0.014705141,-0.07982902,-0.07065898,-0.08462001,-0.112596944,-0.13259973,-0.046239156,-0.10259062,-0.07537756,-0.07640136,-0.086963505,-0.07352147,-0.09350691,-0.088138774,-0.11102921,-0.10971793,-0.11512881,-0.068500854,-0.08217808,-0.03982482,-0.08944509,-0.07353931,-0.0717119,-0.09755145,-0.08972229,-0.11495351,-0.1510023,-0.11936495,0.013633145,-0.03158103,0.01719237,-0.020040309,-0.030518128,-0.051236235,-0.081000485,-0.0931577,-0.090377815,-0.10816349,-0.17298299,-0.07530579,0.019574862,0.0315124,-0.053319152,-0.021781608,-0.0832367,-0.091973856,-0.09899582,-0.11277012,-0.16338058,-0.1061305,0.026426416,0.075364836,-0.007919437,-0.022898076,-0.034377355,-0.040420834,-0.026241608,-0.053396434,-0.073957995,-0.108922675,0.028367272,-0.039293744,0.008429895,-0.0099880155,0.004076983,0.012353291,0.013503786,0.019502977,0.031131882,0.008468811,-0.0469099,-0.033443954,0.06934585,0.0023737093,-0.027456682,-0.027756812,-0.011065943,0.01823359,0.006073812,0.0048641595,0.0029632894,-0.010898577,0.088749155,0.037106715,0.015831811,-0.0021835167,0.020218158,0.027394596,0.02214095,0.007009009,0.011213626,-0.018071381,-0.030053329,-0.008949418,0.01692477,-0.0074130525,0.0080359895,-0.011970448,0.007963886,-0.0024956206,0.028268512,-0.0066727693,-0.003960805,-0.0068662,-0.025391068,-0.040568776,-0.014019915,-0.033650592,-0.012807996,0.0016464641,-0.006561236,-0.0053491197,0.00993276,-0.006369792,-0.002095557,-0.028561845,-0.038142383,-0.045967,-0.016941857,-0.010906419,-0.0043620495,-0.01209744,0.00443921,-0.0027282962,0.017945996,-0.014628151,-0.017964981,-0.030106962,-0.031206489,-0.014425339,-0.015054184,-0.017846882,0.008394261,0.0017218183,0.008029494,0.010856856,-0.034365118,-0.010863523,-0.06121494,-0.044609807,0.0008907238,-0.017095089,-0.015634915,-0.006385906,0.011685037,0.021644933,0.02152473,-0.0018383998,0.024882758,-0.07081725,-0.0918056,-0.014481041,0.00021738007,0.030733554,0.009235326,-0.012403379,0.059768893,0.07066602,0.072136305,0.08223133,-0.11094163,-0.09720055,-0.049024135,-0.038152855,-0.0037774963,-0.022142265,-0.002968347,0.049335483,0.049451623,0.045068026,0.062538825,-0.027483648,-0.078741916,-0.06236567,-0.08503996,-0.02730757,-0.020009948,0.0166873,0.025792666,0.052996244,-0.024901189,-0.04809335,-0.25420317,1.312855,0.809055,0.16824163,-0.059661962,0.010828983,0.20116328,-0.4563516,-1.0637289,1.1319883,-0.2210766,1.1098043,0.9675744,0.7680856,0.5198752,0.25089514,0.41587368,0.595643,0.5886243,0.9572878,0.6923007,1.119386,0.5632079,0.82066715,0.55002844,0.5038512,0.15686819,0.12081364,0.0556238,0.3156012,0.03602724,1.036345,0.47808737,0.456648,0.53608465,0.00433283,0.23935145,0.08138942,0.082003035,0.09094098,0.24999878,0.24193025,0.46802,1.0210509,0.2105096,0.29835123,0.059833348,0.05267701,0.16207974,0.18808469,0.16417058,0.3211857,0.159165,0.21598591,1.1573704,0.20667586,0.018666506,0.032196112,0.11975956,0.12124627,0.108059466,0.057407994,0.12708028,0.1295633,0.14932708,0.49947235,0.336155,-0.18813898,-0.11116189,-0.04699428,0.14541474,0.07983914,0.14033465,0.102243364,0.2137941,0.24991463,1.1859872,-0.46678957,-0.2982749,-0.20743108,-0.080327764,0.03715775,0.0677449,0.15141784,0.17327075,0.10679443,0.23061252,1.1549329,0.41540176,-0.5764612,-0.38890907,-0.2210529,0.055109445,0.015953789,0.051340308,0.20091106,0.27947778,0.40415084,0.19416845,1.3753424,0.07508421,-0.82575506,-0.6466468,-0.36070564,-0.023488453,0.044940352,0.16135427,0.3972503,1.0153246,1.0706362,-0.22190535,1.3839258,1.2367024,0.42502424,-0.21403418,0.2619276,0.01184624,0.34650126,0.39813367,0.95828676,-0.26083082,1.8358258,0.022815881,-0.00034420253,0.021120002,0.05755097,0.037971973,0.048517033,0.08012787,0.06908592,0.070989385,0.10551245,-0.024250109,-0.018830685,-0.023722135,0.0913017,0.044667207,0.05355147,0.044464633,0.11917753,0.06545264,0.11106139,0.12138149,0.11568469,-0.053319797,-0.047180835,0.0027292618,-0.0110142045,-0.02047248,0.033514563,0.06358649,0.07058613,0.10084262,0.09489017,0.0101602925,-0.050408624,-0.072316945,-0.057240624,-0.00804865,0.009771774,-0.009255843,0.026013086,0.028075652,0.042191606,0.056070253,0.04302908,-0.06340185,-0.07128747,-0.062506415,-0.04281251,0.0028283892,0.019794796,-0.0057728314,-0.013620893,0.0127377575,0.005672612,0.046481885,-0.0849909,-0.09154155,-0.046332587,-0.019522658,-0.031110378,0.025727054,-0.009168352,-0.0079342155,-0.0020241546,-0.0037548353,-0.074044794,-0.08542408,-0.1174877,-0.08749673,-0.0559813,-0.050753236,-0.014060872,-0.018886333,-0.0356911,-0.027042476,-0.03635997,-0.07679566,-0.09795234,-0.14321245,-0.08902787,-0.06252319,-0.04228835,-0.028033093,-0.048976656,-0.041348852,-0.05595714,-0.100009866,-0.10122523,-0.12057213,-0.15796459,-0.06994677,-0.02070107,-0.015520664,-0.0039411876,0.024439521,-0.0014540467,-0.027224177,-0.040898383,-0.09066511,-0.1762955,-0.18352929,-0.07350835,-0.007069553,-0.0019556899,0.040513087,0.071470864,0.039149083,0.021331191,-0.030863417,-0.033815853,0.044575356,-0.1428781,-0.041605677,0.005367401,-0.001185149,0.02748105,0.03723717,-0.006791775,-0.004550736,-0.028349483,-0.02873014,0.013983516,-0.0045365505,0.027881507,0.008140472,-0.0069866166,-0.036132175,0.004468509,-0.038639266,-0.060796864,-0.069247395,-0.009148772,-0.016678296,-0.00014837143,0.03828424,-0.035161108,-0.0009576528,0.001698413,-0.009113772,-0.058385655,-0.10327519,-0.07484517,-0.11403276,0.017806778,0.03615991,-0.013950684,-0.010325197,-0.028367864,-0.013477981,-0.02503419,-0.030983407,-0.026289685,-0.11986148,-0.07065871,0.0009861456,0.01526023,0.0051621418,0.00859779,-0.009613292,-0.030745544,-0.036336455,0.00049475697,-0.036670327,-0.05490535,-0.047722086,0.032209415,0.024116227,0.017018301,-0.019441567,-0.005238115,-0.017517572,0.005134582,-0.024233164,-0.023702228,-0.013475487,-0.0294532,0.041122172,0.020151865,0.024499662,0.0054515335,-0.034726094,-0.007394821,-0.021024078,0.009892942,-0.032451846,-0.020199938,-0.011348939,0.027057718,0.009161511,0.033465363,0.026184933,0.0026723833,-0.01182977,0.008891888,0.00318059,0.008470743,-0.028787673,-0.05249771,0.036282856,0.045585457,0.055394962,0.019886218,-0.0044514057,0.005654787,0.0013984791,0.028609991,-0.0006785523,0.0022276652,-0.004096858,0.08042742,0.07974291,0.04091437,0.033902686,0.033521704,-0.003206146,-0.0006549859,0.009180698,-0.030998042,0.025898451,0.033495717,0.011238096,0.0639853,0.06450748,0.037708115,0.03166634,0.01897539,0.03438892,0.033794366,0.005413015,-0.002054059,0.0916137,-0.032887846,0.03670704,0.14123283,0.09984435,0.051519357,0.033544324,0.0335832,0.01936327,0.058450162,0.027154552,-0.021829942,1.0105752,2.329905,-0.4108508,0.034450546,-0.18328968,-0.37890226,-0.73765945,-1.1885883,-1.4133729,2.4399908,1.0044937,2.4053667,1.2382594,0.49565437,0.24696523,0.18003899,0.17828904,0.007667571,-1.046265,-0.89981073,1.7864395,2.4158835,0.9692772,0.7772866,0.683574,0.7152459,0.6686195,0.5117946,0.58239025,0.3737715,0.24113002,-0.39236462,-0.53514975,0.8693552,0.82472134,0.81165993,0.7216809,0.74745685,0.82819694,0.8117957,0.66289586,0.4756105,0.27677968,-0.17314523,0.90761185,0.94466263,0.90884554,0.83750725,0.7436074,0.80405426,0.79446733,0.634863,0.66917783,0.5432947,0.32919765,1.1190523,0.97297186,0.9956793,0.876637,0.7584334,0.7700521,0.8570535,0.78094697,0.76645297,0.8751383,0.30118605,1.1850218,1.109768,1.0801629,0.95400023,0.83949393,0.8955801,0.79816806,0.88997555,0.7611394,0.8639419,0.73346514,1.0104377,1.0555934,1.0124974,0.9519114,0.87408227,0.8578041,0.79924256,0.81824505,0.8786119,1.0253448,0.93568707,1.3482687,1.1432059,0.8834489,0.9576969,0.89461017,0.8012818,0.8647317,0.7507686,0.7666695,1.2646441,1.0597628,2.307899,0.8731197,0.9804601,0.7433574,0.7368306,0.58171433,0.5257538,0.80159867,1.0383478,1.7791381,2.4183857,1.0563617,2.2749176,0.6913016,0.39951572,0.2566421,0.18768156,0.11803076,-0.05258718,-0.40048647,2.3886008,1.0107628,-2.0753078,-0.048523698,-0.12205108,-0.13578092,-0.22825663,-0.07274955,0.005519973,0.15931845,0.11733355,0.092148274,0.396847,0.03612623,0.035728622,-0.15194699,-0.09817656,-0.08049196,-0.04033025,0.024295582,0.1170618,0.10447128,0.10286392,0.26571444,0.24420883,-0.08480811,-0.12945306,-0.17060784,-0.1541696,-0.07949452,0.026145602,0.00062678044,0.05493559,0.04691003,0.22156903,0.16105022,0.02511887,-0.128012,-0.09981314,0.009186225,0.05752923,-0.03574681,0.101761475,0.11936584,0.03210733,0.111121245,0.11896057,-0.08271871,-0.14470631,-0.027943172,-0.00461939,0.060871083,0.009313331,0.06121899,0.05353159,-0.025330182,0.037898157,0.10452117,-0.06546656,-0.1269768,-0.013960268,0.048982587,0.1452168,-0.021290187,-0.0033014065,0.09600217,0.05512625,0.07535037,-0.054756302,-0.09217724,-0.13642637,-0.06750902,0.011920324,0.01721334,0.07064044,0.037222512,0.10506257,-0.0549802,0.0055155945,-0.18391955,-0.07423935,-0.20823449,-0.059675694,0.0038775553,0.04665759,0.053495355,0.017305618,0.061501555,-0.0011684835,-0.07255355,-0.18217194,0.0507733,-0.1484437,-0.0031706546,-0.024757221,0.038916107,0.031974506,0.09895395,0.028491741,0.006226167,0.11489008,0.08288651,0.01578226,-0.1675516,-0.04149358,0.05276687,0.041367855,0.0714936,0.1613785,0.08230271,0.046465315,0.20855023,0.11119795,0.016296918,-0.12368444,0.047427412,0.022258434,0.046350818,0.0968991,0.092642285,0.13121758,0.12397284,0.12385429,-0.03007116,-0.0006125361,0.3431089,0.27214178,0.07606268,0.13001366,0.08029255,0.070631795,-0.023006214,0.06941319,-0.018080678,-0.041599277,0.092301704,0.15182543,0.13765141,-0.0034659915,0.07386863,0.031269725,0.09413451,0.10410687,-0.01938526,-0.04552478,-0.095562115,0.12889034,0.1818209,0.06173678,0.11903167,0.07497605,0.09676297,0.09215581,0.061075505,0.11023995,0.045369685,0.020836232,0.14640376,0.07131921,0.099076696,0.1660394,0.10093542,0.11433347,0.11605328,0.13898224,0.1431086,0.045166306,0.064610936,0.07028089,0.086452715,0.07215659,0.13715012,0.1338431,0.09834695,0.1257486,0.1283061,0.117140286,0.083849646,0.05570706,0.10565971,0.07383583,0.09316476,0.15827954,0.16867116,-0.051449068,0.15931039,0.15052885,0.106920116,0.06251247,0.052569114,0.09645412,0.08008737,0.12139062,0.15375942,0.14913152,0.14323397,0.14372319,0.12996426,0.08933644,0.10221412,0.0655169,0.06245498,0.051728126,0.096340664,0.14353171,0.16093925,0.11459489,0.1126091,0.12507324,0.09056744,0.038900673,0.046328224,0.10163548,0.022301147,0.10366365,0.137912,0.10099799,0.08307257,0.093324855,0.06571327,0.021644963,-0.0041457964,0.075637095,0.027375372,0.10097643,0.12603755,0.15034208,0.17864946,0.13771476,0.11104197,0.09296316,0.0423934,0.11425918,0.09467001,0.025806513,-0.062399153,0.17200854,0.1357182,0.14417112,0.12556073,0.047731586,0.06885985,0.083269455,0.06496255,-0.038532056,-0.5463887,0.5751379,-1.097612,-0.9478676,-1.1723244,-0.8847105,-0.794956,-0.08872551,0.22530325,0.60888356,-0.6142446,0.8048732,-1.191397,-0.88894904,-0.8143995,-0.51042414,-0.60167474,-0.6011149,-0.3494558,0.0023354029,0.7514951,0.6047636,-1.2085698,-0.959947,-0.54860514,-0.32869145,-0.13898283,-0.022940122,0.13557309,0.038731452,0.15289468,-0.15467395,-0.14107077,-0.97530466,-0.5102219,0.030870209,-0.05343932,0.17411178,0.2665381,0.28669336,0.21829683,0.118581414,-0.07884533,-0.10252157,-0.84051216,-0.32945064,0.07361852,0.32538554,0.21889754,0.28331447,0.2523167,0.09861546,0.12503985,0.045402978,-0.43133992,-0.74247956,-0.22889633,0.13161208,0.3017432,0.24128199,0.17876182,0.22137347,0.28159943,0.18668774,0.09524314,-1.0603635,-0.717211,-0.38830346,0.06754661,0.2786721,0.28808686,0.2952644,0.27134082,0.32736742,0.19985834,0.16056556,-1.0239812,-0.381391,-0.40774903,0.18930173,0.27908725,0.310755,0.27890223,0.22841662,0.2370906,0.28132907,0.15985614,-0.89290005,-0.95477074,-0.42145672,-0.5724882,0.24979271,0.14259404,0.16968872,0.103902936,0.14729656,0.15786575,0.1581393,-1.2701039,0.55615854,-1.1520231,-0.06907113,-0.16287401,-0.25821662,-0.044431735,-0.001180676,-0.0044381605,0.037545383,0.13167122,0.75423694,-0.5167803,0.5290423,-0.8518823,0.17037144,0.44767419,0.052239325,-0.13763219,0.13960132,0.3633365,0.5683151,-0.56915915,1.6307294,-0.046805557,0.13300996,0.15341772,0.15037856,0.16026314,0.18704814,0.22088672,0.21596962,0.209308,0.19972946,0.010692611,0.09455339,0.12413243,0.21925445,0.16460724,0.1781357,0.18330833,0.27668878,0.18521257,0.24841246,0.2676402,0.19063249,0.06007149,0.090079814,0.15094201,0.13103895,0.14344029,0.1866844,0.20755595,0.20040384,0.22774243,0.23630713,0.13793959,0.056047942,0.050165564,0.080561236,0.1245929,0.14350428,0.106559165,0.16166025,0.15365025,0.16244192,0.1956009,0.1817321,0.055891242,0.06629548,0.078931585,0.07992221,0.11642455,0.10238027,0.13548708,0.11824176,0.16059595,0.111917496,0.15914808,0.030800473,0.035995014,0.09060236,0.13266316,0.07114682,0.0136168115,0.12495729,0.1265293,0.15332513,0.12884304,0.037332933,0.039045226,0.02211301,0.04767088,0.09229801,0.088781886,0.0981743,0.12505664,0.10251314,0.10720808,0.08777632,0.03616274,0.014043107,-0.008725731,0.07095678,0.09072802,0.11004345,0.12618922,0.09274917,0.08861572,0.07308879,-0.009843132,0.032409314,0.052598003,0.0027908285,0.1281994,0.1619028,0.16316359,0.16502282,0.19537915,0.14474583,0.12342218,0.08653595,0.025841711,-0.11796926,0.09472571,0.13319376,0.15969132,0.15925355,0.19457403,0.2006531,0.16653389,0.15504871,0.08328759,0.06876585,-0.04300528,0.0450275,0.12623826,0.13663487,0.12986845,0.15946947,0.1675015,0.1273954,0.108989485,0.03925018,0.0022136415,-0.031577785,-0.08099095,-0.120227985,-0.112039745,-0.10422447,-0.12286119,-0.109891646,-0.13943759,-0.15757419,-0.21067809,-0.044323634,-0.09426588,-0.14874612,-0.11932154,-0.14954841,-0.12409423,-0.088237144,-0.10882766,-0.15459982,-0.24809447,-0.2532979,-0.18083824,-0.08309675,-0.06623706,-0.11873746,-0.10869344,-0.11049919,-0.08791671,-0.109964944,-0.12073966,-0.14703485,-0.26625362,-0.16511804,-0.08880148,-0.09140394,-0.08077524,-0.09434355,-0.10583124,-0.13384502,-0.10464685,-0.089094594,-0.1362589,-0.16329063,-0.14847252,-0.09517509,-0.0809703,-0.1214428,-0.13271928,-0.10580805,-0.10800326,-0.09967204,-0.10752431,-0.116495885,-0.10260095,-0.12546238,-0.06534952,-0.11952256,-0.087857,-0.110534936,-0.13906908,-0.03737333,-0.1267067,-0.09529772,-0.114170045,-0.1198606,-0.12435404,-0.08924874,-0.090128236,-0.07137711,-0.08519964,-0.10634866,-0.122138,-0.09016843,-0.07142276,-0.07709437,-0.14415644,-0.15365213,-0.07509103,-0.0792018,-0.028174113,-0.0812183,-0.09868543,-0.10209777,-0.08937823,-0.029140944,-0.07697167,-0.10914677,-0.10487937,-0.038957007,-0.06160969,-0.047304172,-0.055617336,-0.04053536,-0.09572608,-0.086406976,-0.04562955,-0.104921356,-0.026976151,0.00363583,-0.19072254,-0.10678469,-0.04926138,-0.066127956,-0.045827407,-0.09296471,-0.05501318,-0.016689373,-0.057712976,-0.10276696,0.039552156,-0.04070592,-0.07154296,0.012899013,-0.03565375,-0.013694845,-0.028427733,-0.026065309,-0.07695996,-0.0066351085,-0.10888624,0.021398539,-1.3971584,-2.3196867,-1.0273827,-1.3102553,-1.3992145,-1.4114245,-1.0611624,-1.1620132,-1.2970526,-2.2647808,-1.4797529,-2.4279563,-0.7339747,-0.87665534,-1.0228075,-1.1407405,-1.0335442,-0.92009336,-1.1304157,-1.3786703,-0.5827214,-2.2912686,-0.17192571,-0.6444213,-0.5767191,-0.46599856,-0.70935917,-0.91620946,-0.827449,-0.8969535,-1.235839,-1.1629335,-0.80021656,-0.41445464,-0.43861374,-0.6220183,-0.5438812,-0.6493953,-0.591228,-0.60910904,-0.65824,-0.85867447,-0.80803734,-0.6008441,-0.47657955,-0.43663144,-0.48943827,-0.5749361,-0.626326,-0.5733355,-0.57508427,-0.65109825,-0.69245064,-0.70789146,-0.47345784,-0.33433288,-0.43857408,-0.47527927,-0.5286153,-0.65373933,-0.61523134,-0.56664413,-0.61943966,-0.6349791,-0.42992425,-0.36467633,-0.26399785,-0.35320073,-0.42964238,-0.55227655,-0.5728813,-0.530001,-0.5793796,-0.5200626,-0.6124808,-0.42251438,-0.24413984,-0.3665487,-0.3730919,-0.50934696,-0.4941492,-0.5753557,-0.5628026,-0.5832479,-0.55005825,-0.5148007,-0.20197763,0.29832962,0.696241,-0.51981616,-0.64260983,-0.5042854,-0.49191165,-0.6232032,-0.5644136,-0.58926904,-0.5196695,-0.12004853,0.12453508,-2.497827,-2.739876,-0.63795036,-0.5095729,-0.55026966,-0.6529797,-0.5542437,-0.48016948,-0.24837312,0.11310765,-2.3050308,-1.2605915,-2.4590545,-0.57851857,-0.6038104,-0.8752936,-0.7656495,-0.69562453,-0.7759485,-0.8558405,-2.2862976,-1.2965255,-2.182718,0.013069132,-0.30537358,-0.16617545,-0.058314603,-0.03625412,-0.00015664946,0.0019704541,0.033949003,0.042431287,-0.10258723,0.002170441,-0.11606155,-0.22414364,-0.12869215,-0.040220737,0.02893475,0.013914221,0.058842596,0.030620476,0.044510398,0.057332706,0.04169234,-0.072854504,-0.14562228,-0.10667707,-0.052405078,-0.034093786,0.0152741335,0.04799266,0.0475561,0.049761973,0.055146243,0.020656813,-0.091341324,-0.07573544,-0.06759334,-0.059277587,-0.04292382,-0.038362354,-0.013578241,0.036777437,0.021721547,0.10514755,0.092851155,-0.082004055,-0.07649827,-0.05931097,-0.034804534,-0.03509611,-0.058131773,-0.024385663,0.012417131,0.054459482,0.062274408,0.12976319,-0.06898906,-0.09936995,-0.038368642,-0.04193151,-0.091448314,-0.04835097,0.00106691,-0.02850262,0.03278621,0.06951008,0.070144266,-0.048192985,-0.037176847,-0.026329994,-0.06015671,-0.013372714,-0.031646874,0.012416531,-0.014634807,0.032689955,0.09871956,0.12422555,-0.05889602,-0.112378344,-0.026122514,-0.03570247,-0.019768415,0.020780247,0.0070825177,0.016226087,0.03277607,0.07379362,0.054441158,-0.102431506,-0.06399341,-0.016855078,0.017740583,0.011569907,0.0273467,0.033726312,0.03149913,0.019362452,0.036113482,-0.0047083274,-0.12997967,-0.045620628,0.043398336,0.09275286,0.0725736,0.07595216,0.05228406,0.042747706,0.055929303,0.061841253,-0.022554677,-0.03610602,-0.14494668,0.021569392,0.027878506,0.0006332936,-0.0007667009,0.0014320302,-0.028953684,-0.007767065,-0.03512493,0.047987066,-0.010632753,0.03513996,0.017331347,-0.03790368,-0.052204903,-0.07088466,-0.039165206,-0.05700431,-0.04938131,-0.10994056,0.020604571,0.009302348,0.037810218,-0.022249235,-0.039694544,-0.06440015,-0.049107634,-0.09853844,-0.08176698,-0.093713164,-0.13403839,-0.14766474,0.0063601374,0.009191263,-0.056686383,-0.047869097,-0.04160886,-0.07811045,-0.012292016,-0.0845075,-0.12916978,-0.14020523,-0.11881,-0.009236972,-0.037471022,-0.044285767,-0.06638409,-0.08759435,-0.104280956,-0.073547,-0.08574812,-0.09168529,-0.09594833,-0.062415726,-0.041694473,-0.009997254,-0.057790678,-0.060174063,-0.08861268,-0.124435365,-0.07115902,-0.084908485,-0.120055206,-0.0801994,-0.10786757,-0.044411764,-0.057954166,-0.057321187,-0.03590095,-0.10681865,0.0046502957,-0.09881089,-0.075381964,-0.12750126,-0.09362936,-0.13212888,-0.046343684,-0.05388032,-0.0760109,-0.055627894,-0.102601,-0.06915641,-0.10603986,-0.10332754,-0.14957833,-0.107993424,-0.124822214,-0.038312614,-0.055068444,-0.07808941,-0.07191103,-0.08903597,-0.10570084,-0.12157534,-0.11661477,-0.16850401,-0.1286362,-0.13506913,-0.021163294,-0.005165932,-0.03137703,-0.05494489,-0.07017958,-0.059448354,-0.10212856,-0.09630283,-0.19877708,-0.18994386,-0.17192595,-0.03189428,-0.059189275,-0.05135161,-0.07058602,-0.048198424,-0.07195006,-0.11801621,-0.12730187,-0.1894447,-0.15152428,-0.13685474,0.031052874,-0.076896295,-0.04754745,-0.018794252,-0.019603966,-0.073349245,-0.095408276,-0.110797696,-0.10174864,-0.15064435,0.019610817,0.67511636,-1.3036057,-1.5457515,-1.4683032,-0.7117872,-0.7012302,-0.16991335,-0.31252226,-0.31784725,-1.4460084,0.65957665,-1.497125,-1.768721,-1.6647251,-1.6478384,-1.5750524,-0.7906443,-0.6414181,-0.4702766,-0.36410674,-0.60743755,-1.438822,-1.6435719,-1.7590871,-1.6394624,-1.5566126,-1.3147438,-1.7444395,-1.6684617,-0.9504024,-0.8820265,-0.5719714,-0.39136764,-1.247475,-1.3527071,-1.5310962,-1.6571004,-1.280542,-1.5724005,-1.5013198,-1.2550539,-1.2842668,-0.9171513,-0.4761953,-1.4865935,-1.55377,-1.5838598,-1.5547523,-1.4963952,-1.6560097,-1.3187568,-1.7087786,-1.4005156,-1.0128689,-0.6197876,-1.4418707,-1.5844401,-1.4493003,-1.6849025,-1.6511743,-1.4921077,-1.7798573,-1.816556,-1.8354157,-0.98260885,-0.89865345,-1.5787832,-1.6410697,-1.6248366,-1.4764287,-1.3074687,-1.5200349,-1.6684474,-1.5894637,-1.6325396,-1.0521392,-0.6072788,-1.7147489,-1.6561227,-1.7400322,-1.4993992,-1.6508211,-1.676688,-1.5830657,-1.7899576,-1.5414919,-0.95100677,-0.5387983,-1.4145262,-1.6086911,-1.5251433,-1.4408104,-1.193807,-1.6936895,-1.2592967,-1.3097456,-1.1523573,-0.74114996,-0.71100074,-1.4081339,-1.5837506,-1.6083449,-0.9297158,-0.82880247,-0.73816735,-0.71485597,-0.83107466,-0.5944217,-0.22860958,-1.4960529,0.7335908,-1.4551817,0.0922388,-0.12443677,-0.26175702,-0.2677784,-0.28249496,-0.34058076,-0.03483555,-1.5736082,0.7039713,1.1330473,0.036996435,-0.0005383458,-0.047718305,-0.24028048,-0.054914627,0.055516936,0.19555213,0.17472354,0.13891914,0.41042602,-0.050590917,0.09398305,-0.05425868,-0.031709746,-0.042223517,-0.027304256,0.070472956,0.15946501,0.11074347,0.1446797,0.26411596,0.18192416,-0.03014894,-0.05084218,-0.06915301,-0.07253381,-0.012315379,0.08423552,0.07147644,0.095470555,0.07741525,0.23648086,0.19570832,0.058118284,-0.07519344,-0.018320598,0.067253396,0.11627088,0.012903429,0.15354522,0.14127745,0.073104866,0.126729,0.15781906,-0.04539769,-0.086634874,0.029620722,0.035481706,0.09149863,0.007940908,0.10419989,0.084164955,0.02549626,0.05818457,0.12757659,-0.030613253,-0.08662056,0.032545585,0.10155783,0.20386843,-0.029720908,0.0686008,0.1363108,0.10052453,0.1118225,-0.043116335,-0.06701777,-0.12712348,-0.025104303,0.06128996,0.064825326,0.10155363,0.081982255,0.12936965,-0.007801774,0.042985342,-0.13862033,-0.08762649,-0.19271237,-0.025683923,0.033719037,0.08793764,0.08392708,0.055115417,0.08218733,0.012924994,-0.07314733,-0.11291269,0.11062698,-0.14623094,0.057674307,0.033553153,0.08770865,0.07173148,0.13932015,0.068214856,0.04758855,0.14276357,0.11053031,-0.07925923,-0.02820686,0.020704364,0.062571906,0.052769706,0.083008416,0.15100099,0.08604476,0.06673849,0.18218064,0.14861454,-0.01951273,-0.06274867,0.08524076,0.030236151,0.050527018,0.113457,0.12506676,0.16329198,0.13146524,0.11437628,-0.049512405,0.036808096,0.26997596,0.20701186,0.0689589,0.13652286,0.09826168,0.04015487,0.01415786,0.060572,-0.08111312,0.023845233,0.025346553,0.10400533,0.0965973,0.007867038,0.036240116,0.034602456,0.07163821,0.077919945,-0.056094762,-0.07312267,-0.0012328286,0.12239726,0.15358046,0.054938816,0.119919874,0.092259295,0.11083122,0.079952404,0.06514588,0.043992393,-0.012115144,0.019824063,0.122662604,0.06528673,0.088126205,0.13813487,0.08369436,0.10947915,0.12839548,0.12692085,0.13471426,0.03560911,0.03284084,0.056781642,0.063115455,0.05528531,0.13019453,0.13778146,0.08135163,0.11871172,0.11752091,0.10532805,0.089117065,0.06754629,0.085274264,0.033872675,0.07601652,0.12633578,0.12348844,-0.012939894,0.12763834,0.10479309,0.11186555,0.042113777,0.04996419,0.1030938,0.08423127,0.12766822,0.13039607,0.12911496,0.13433383,0.12576257,0.15643421,0.09711231,0.0909637,0.08071324,0.058034528,0.04483571,0.12691313,0.13741097,0.14970398,0.10220827,0.12432105,0.17500795,0.09864487,0.03261649,0.07584095,0.09483641,0.009558761,0.122621,0.15668741,0.13792485,0.08494928,0.110824846,0.14577883,0.08604441,0.06552061,0.17934677,-0.08656879,0.052362993,0.119696096,0.14672455,0.1782601,0.10235127,0.10514525,0.16889985,0.09912684,0.13921767,0.17127234,-0.025478624,-0.07847612,0.15641755,0.10921171,0.15838568,0.142193,0.089710064,0.103788055,0.16095668,-0.0013540648,0.047215167,1.1144413,0.80163836,-0.30955717,-0.22148374,-0.3090809,-0.3138013,0.16580948,0.44318792,0.5804608,0.70799625,1.0905176,0.9282832,-0.49632925,-0.0024274806,0.08212797,0.2815087,0.39711753,0.617834,0.7106674,0.94348234,0.5949373,0.71950495,-0.31852356,-0.10280492,0.27599382,0.627336,0.48290297,0.6248273,0.7367586,0.9114538,0.80014575,1.2178222,1.0772512,-0.20175388,0.26018474,0.5710532,0.78681475,0.7643746,0.7810626,0.78136045,0.8304944,0.910502,1.0855228,0.59307635,-0.19770218,0.29716572,0.7446653,0.9048122,0.8309962,0.8851598,0.8643504,0.9384658,0.8388173,0.90112984,0.30661196,-0.22707377,0.34459832,0.5805292,0.84626234,0.8203685,0.7099104,0.69850093,0.8143856,0.7808934,0.8185493,0.5945323,-0.22155124,0.17492501,0.51689744,0.76941276,0.86949855,0.7650246,0.8767935,0.7958206,0.8472423,0.8983097,-0.42876047,0.43641812,0.19524676,0.713964,0.83676344,0.8208609,0.73209697,0.82680744,0.81714076,0.8024802,0.9582607,-0.22247069,-0.4860584,0.2525526,0.106862284,0.90273786,0.8407131,0.7595193,0.6981159,0.86660004,0.9678773,1.0123048,-0.12456266,0.90487576,-0.99739736,0.7674735,0.88323176,0.7137258,1.0095377,1.2674776,0.90798897,1.0336852,1.1729844,0.78196585,1.1062516,0.8599007,-1.3140694,0.8669147,0.65555775,0.49834913,0.5331862,0.5351266,0.652152,0.69216955,1.0194166,-1.3087922,0.016403062,-0.07884717,-0.057561632,0.021699488,0.041236464,0.04285146,0.08038,0.0837392,0.06659431,-0.013699615,0.047280923,-0.023002084,-0.070431784,-0.049003277,-0.0029461435,0.03653702,0.039725617,0.07266292,0.05097423,0.044892237,0.026046602,-0.042643853,-0.007950361,-0.0025154469,-0.048988514,-0.01569619,0.02028903,0.023838926,0.029495401,0.02638865,0.011869943,0.011462925,-0.085448384,0.015818898,-0.001223886,-0.011253067,0.0043044677,0.0055441456,0.0012797621,0.014077271,0.022405379,-0.015547679,0.0012422658,-0.03204596,0.03369823,-0.0028720244,0.022261122,0.010718633,0.014454965,-0.009492073,0.01655405,0.007881941,-0.009955084,-0.041605957,-0.015681228,0.034661796,0.02221913,0.031747095,0.014555288,-0.007598916,-0.0042734193,-0.007316521,0.034512285,0.020487176,-0.024190212,-0.0046249256,0.079719275,0.05472462,0.047636863,0.043978192,0.029367948,0.03373715,0.010642627,0.018359508,-0.00398088,0.005084473,-0.017059505,0.101099305,0.095735304,0.11018377,0.0616212,0.055105522,0.062059402,0.035900064,0.03810117,0.015490378,-0.02367619,-0.04098384,0.13771753,0.18115242,0.15461105,0.12379294,0.09229823,0.08809977,0.040250838,0.01667738,0.028403249,0.0102456305,-0.060343493,0.11974716,0.18608794,0.18912818,0.122094095,0.1291513,0.061909378,0.043023415,0.026182689,0.024750028,-0.0066540567,-0.049238753,-0.04448208,0.21196352,0.11702126,0.10814272,0.09467077,0.07672778,0.07369687,0.044053026,0.032780483,-0.016229494,0.03227332,-0.04817652,-0.017178917,-0.08764369,-0.11078162,-0.08938379,-0.072569564,-0.07483739,-0.08204781,-0.056825925,-0.11089312,0.012510656,0.05589561,-0.07836108,-0.12989368,-0.09626863,-0.074014254,-0.053645,-0.057351064,-0.08059075,-0.066176176,-0.12139152,-0.045200344,-0.059023526,-0.06654724,-0.085627735,-0.069248505,-0.06634029,-0.06786018,-0.051340822,-0.07722983,-0.07123526,-0.090514466,-0.07967732,-0.0641456,-0.09367921,-0.07702368,-0.09004404,-0.07854336,-0.07079438,-0.05915976,-0.08082651,-0.09537598,-0.10443365,-0.08098748,-0.1420762,-0.112200126,-0.117404014,-0.10443073,-0.0968088,-0.09087513,-0.094297156,-0.08097355,-0.087248296,-0.095060915,-0.13882226,-0.1384858,-0.120210715,-0.094480336,-0.073878914,-0.053878516,-0.00866728,-0.049240313,-0.069896586,-0.06284233,-0.07717455,-0.09831451,-0.15232572,-0.12720157,-0.12611434,-0.107818805,-0.098716974,-0.069437176,-0.08274915,-0.106806755,-0.08087494,-0.13772227,-0.10264994,-0.15764086,-0.15063533,-0.12643144,-0.10764811,-0.10345132,-0.10416401,-0.08534749,-0.0900357,-0.058079407,-0.111296706,-0.10194723,-0.19867964,-0.21974638,-0.1428724,-0.13359322,-0.089433745,-0.08515325,-0.119571276,-0.10424368,-0.07772103,-0.08900581,-0.093587585,-0.16486557,-0.21547695,-0.19224086,-0.15456328,-0.119992375,-0.07860807,-0.08657286,-0.07583166,-0.09939522,-0.10206062,-0.093164355,-0.04619488,-0.18242493,-0.21926798,-0.19106916,-0.13314527,-0.100845225,-0.0992818,-0.112581305,-0.11175046,-0.1280109,-0.034239683,1.2197447,-2.2864292,0.69205844,-0.27680507,-0.5969534,-0.6241616,-0.6331214,-0.8019426,-0.58918595,-2.3173387,1.16547,-2.5005357,0.004591905,0.27691934,0.10547035,-0.16930136,-0.26212072,-0.22066747,-0.4066715,-0.5351496,-0.10312709,-2.355382,0.26581144,0.26303166,0.12522633,0.02744181,0.08786173,-0.041532096,-0.038561024,0.049990933,-0.15781415,-0.208393,-0.42201424,0.04411331,0.10539468,-0.02691353,0.032949895,0.009344101,0.06349223,0.10880036,0.2106275,0.054834295,0.003363435,-0.33511755,-0.31261447,-0.19548824,-0.08564863,-0.007973558,0.08092613,0.12351059,0.10275122,0.10078428,0.008606313,-0.014132712,-0.16907185,-0.3578689,-0.063464165,0.027765729,0.071906954,0.088437825,0.12351857,0.0767663,0.09673479,0.07076926,-0.024483487,-0.092684865,-0.48068908,-0.29439652,-0.14426874,-0.102356315,0.055868704,0.084949434,0.054310445,0.14637694,0.10622582,0.06262734,-0.0421899,-0.6169025,-0.39954498,-0.29644772,-0.14440587,-0.036996998,0.10219379,0.071984,0.11235962,0.13729739,0.02163131,0.17931964,-1.0872008,-0.8575725,-0.5678884,-0.38997734,-0.12650436,-0.08160075,-0.048033275,0.027402159,0.030620838,-0.10955842,-0.11294463,-2.461374,-1.2591456,-1.0949954,-0.9606315,-0.8017889,-0.5436902,-0.67771524,-0.23291454,-0.2039245,-0.32661188,-2.4443018,1.2088132,-2.4146543,-1.1502638,-1.1767986,-1.206722,-1.1223086,-1.1882684,-1.1261104,-1.4062697,-2.4125054,1.247481,1.5429783
