0.04485245,0.07966563,0.097788304,0.03481265,0.029926514,0.03898051,0.01207647,0.010436026,0.006185095,0.022145726,-0.008778087,0.034569457,0.12152174,0.09687757,0.04707173,0.03984732,0.028715752,0.026735486,0.01752752,0.04106689,0.025996368,0.05418649,0.049846373,0.06637611,0.058484703,0.04472027,0.032249194,0.02872402,0.024918402,0.012189088,0.017208183,0.026634404,-0.023623765,0.024816995,0.04711019,0.027662158,0.025565987,0.032080837,0.018305168,0.008421892,-0.010230087,-0.015630435,-0.03391786,-0.009652825,0.029470965,0.030685132,0.0068963417,-0.005067256,-0.010924401,0.018063618,-0.002607367,-0.03391348,-0.01901275,-0.046882134,-0.049287654,0.00067477406,0.0006869581,-0.011877126,-0.0037550514,-0.039261147,-0.03616402,-0.0112740565,-0.010845933,-0.013410557,-0.039613776,-0.07553045,-0.012374244,-0.037580643,-0.037662227,-0.023493698,-0.008110322,-0.006362724,-0.03180855,-0.025875237,-0.054779746,-0.0769271,-0.09660295,-0.014161332,-0.035208017,-0.03807541,-0.01711549,-0.02605802,-0.029940614,-0.031322934,-0.036736794,-0.054271374,-0.09683913,-0.08217032,-0.03325753,-0.044820286,-0.028374037,-0.039916113,-0.0032185866,-0.009883209,-0.0051695853,-0.026924174,-0.03460257,-0.04708081,-0.06264816,-0.13102403,-0.06956619,-0.06292783,-0.037759103,-0.03966063,-0.031874213,-0.0025542243,-0.026261274,-0.04353559,-0.06996549,-0.044607066,0.016863298,-0.08846814,-0.041854054,-0.015289748,0.0047949757,0.005353408,0.013756339,-0.013569881,-0.004819361,-0.036648177,-0.03571902,-0.011943795,-0.08966414,-0.09892359,-0.0335367,-0.018712655,-0.028964477,-0.019805461,-0.0060456246,-0.026297938,-0.0013963048,0.050783213,-0.04680932,-0.070919596,-0.047191143,-0.03492008,-0.01759737,0.00097423734,0.0014308766,-0.007219895,-0.033528104,0.0014416017,-0.011690412,-0.04147397,-0.040356375,-0.02694442,-0.014598782,-0.009364294,0.0043222057,-0.013260009,-0.004202363,0.00301227,-0.029111143,0.016351083,-0.045498185,-0.023528304,-0.011876918,-0.0067837047,-0.017968826,-0.012905068,-0.004253113,-0.004676193,-0.020246726,-0.02396752,-0.025602931,-0.024750052,-0.013622037,-0.023686575,-0.015519255,-0.00908131,-0.0071402155,-0.003181391,0.0011852463,0.0021663916,-0.018999834,-0.032863837,-0.024345469,-0.009768514,-0.011045674,-0.0028455418,-0.011781721,-0.0044432282,-0.009316206,-0.0018890069,0.010377849,-0.023398956,-0.013198458,-0.018694082,-0.017946988,-0.00045835797,-0.0033742813,0.0036917436,-0.011004235,-0.0028640449,0.016375348,0.026816031,-0.02571984,-0.019165453,-0.005037991,-0.0052158856,0.0052817455,-0.0015291298,0.016947886,0.0052923393,0.017724715,0.040719856,0.014717398,0.026171425,0.0077393483,-0.010253214,-0.0147085,0.008027756,0.004931851,0.020642221,-0.007183455,0.018479802,0.022027224,0.053965975,0.070435084,0.037415504,-0.00024190161,0.0042944755,0.016552834,0.016233798,-0.011025121,-0.027994098,0.02268022,0.0407517,0.03262065,0.0411295,0.029580923,-0.035378225,0.02864169,0.037970636,-0.0072399257,-0.0092011215,0.015691752,0.025533935,0.018580249,0.058631398,0.081317194,-0.033647753,1.1994605,-1.079414,-0.4468283,-0.51477003,-0.40806526,-0.2139019,-0.36532092,-0.30145,-0.3532993,-1.0220221,1.1850115,-1.1667064,-0.43425322,-0.49237567,-0.48061004,-0.4685952,-0.39773557,-0.39513084,-0.32554898,-0.19865064,-0.41937995,-1.1023461,-0.4520839,-0.45194295,-0.44863462,-0.46700853,-0.7768051,-0.68374914,-0.6983426,-0.7087108,-1.1551919,-0.3572999,-0.2795495,-0.3320767,-0.30436337,-1.1389751,-0.75190663,-1.1827301,-1.2564834,-1.0938618,-1.2889276,-1.2651191,-1.265832,0.5188945,-0.20328207,-0.1687636,-0.66755754,-0.9451868,-1.2162621,-1.2829753,-1.2446178,-1.2417624,-1.1445999,-1.2758685,0.52887315,-0.061990753,-1.2338477,-1.2845343,-1.1430143,-1.3162929,-1.311972,-1.2206768,-1.2621471,-1.1942484,-1.293433,-0.8288578,0.2218579,-1.184598,-1.2058334,-1.2566214,-1.1977636,-1.1253421,-1.1492679,-1.2415266,-1.2369202,-1.2932316,0.5485753,-1.2649322,-1.242599,-1.3016274,-1.2794179,-1.233791,-1.3128811,-1.2357844,-1.0713204,-1.2920207,-1.2607555,0.6995812,0.86220694,-1.2720311,-1.1949673,-1.2743996,-1.2090917,-1.215835,-1.1780866,-1.0620447,-1.1333668,-1.2721038,-1.1253506,-1.0358585,-1.37578,-1.3055607,-1.183279,-1.1769369,-1.1613971,-1.2045336,-1.251812,-1.2541497,-1.2845982,-1.1001053,1.3134913,-1.0514503,0.87069005,0.4284205,0.40430772,0.46294895,0.35072833,0.6613512,0.4671186,-1.0830826,1.2318256,0.76169556,-0.008578817,-0.0018586307,-0.06332761,-0.10076528,-0.075478606,-0.043537885,-0.024938386,-0.016128726,-0.03827083,-0.031447995,-0.0011580596,-0.037017938,-0.09505852,-0.08228324,-0.100298636,-0.049922395,-0.055030297,-0.030310247,-0.04735958,-0.04286936,-0.11173528,-0.13065264,-0.04454272,-0.041988563,-0.069140606,-0.084063604,-0.093697615,-0.08820248,-0.067091025,-0.06837229,-0.07328704,-0.08802424,-0.1977536,-0.02810567,-0.05903433,-0.06315311,-0.06753791,-0.059487235,-0.08797325,-0.08267109,-0.0900502,-0.09779047,-0.11545252,-0.13269691,-0.05804895,-0.09362845,-0.05173733,-0.08548589,-0.08490704,-0.103818946,-0.07981989,-0.092586145,-0.110803254,-0.1204596,-0.13300796,-0.05779569,-0.098792255,-0.060690045,-0.11735559,-0.06827602,0.014705141,-0.062783025,-0.059483815,-0.07330658,-0.08078833,-0.12699491,-0.056968953,-0.12798002,-0.07416079,-0.0941538,-0.06316686,-0.0680911,-0.08773774,-0.08533622,-0.10437426,-0.10213684,-0.1263762,-0.07591834,-0.13805112,-0.05562338,-0.10152583,-0.08265542,-0.09249233,-0.08865206,-0.07591589,-0.09360392,-0.122187,-0.12854965,-0.009561624,-0.08452695,-0.02238745,-0.051048562,-0.0395692,-0.07085611,-0.07669963,-0.09405231,-0.07702938,-0.08060826,-0.1610083,-0.050956316,-0.14034,-0.027408566,-0.10881408,-0.056831338,-0.11809207,-0.07856748,-0.11004182,-0.09563384,-0.12495572,-0.03743737,0.026426416,-0.00014654166,-0.04684117,-0.04981287,-0.04328734,-0.042106554,-0.03568169,-0.051094193,-0.05935165,-0.08994317,0.028367272,-0.039293744,-0.017776499,-0.01943769,-0.00045699236,0.045146033,0.016195314,0.018358072,0.0317331,-0.008630913,0.0019237881,-0.033443954,0.041653223,-0.01705529,-0.052981064,-0.019989314,-0.025738293,0.017972317,0.004884161,0.024033617,0.02075788,-0.019729225,0.08579196,0.024139525,-0.0055717574,-0.02565309,0.010398315,0.014704637,0.01842429,0.0025448208,0.008453166,0.007522766,-0.015814852,0.021355148,-0.0063829,-0.02362874,0.00029602917,-0.034611702,0.012491527,0.007123622,0.035746746,-0.0034200028,0.006182858,0.0065667666,-0.011263613,-0.042930342,-0.009579102,-0.031597953,-0.019689593,0.009604153,-0.005312511,0.003232836,0.022195607,0.0050350516,-0.010371755,-0.026918776,-0.035534088,-0.027229616,-0.013479894,0.010410881,-0.006261818,-0.01209744,0.013564584,0.023778267,0.024290787,0.003875494,-0.009614333,-0.029489499,-0.03673782,-0.012920989,-0.002680307,-0.007184299,0.0028428978,-0.0016858253,0.0007446563,0.01756383,-0.02662862,3.598658e-05,-0.048515327,-0.036712702,0.0055070156,-0.012384323,0.018874703,0.00074284617,0.007776238,0.01176559,0.00398395,0.0040852283,0.026639482,-0.061397005,-0.081429325,-0.023015587,-0.0084418515,0.027612684,0.010725217,-0.0053508957,0.04290745,0.058369245,0.035356343,0.07063366,-0.047587436,-0.081907086,-0.018041017,-8.221489e-05,0.0026436462,-0.00043938143,0.005744457,0.049407836,0.061862465,0.0075854915,0.016148109,-0.027483648,-0.026209904,0.0055531817,-0.1040509,-0.009588464,0.02181291,0.0018208171,0.013410412,0.04962439,-0.02408163,-0.04809335,-0.25420317,1.2075614,0.94772685,0.05439372,-0.017410772,0.009250214,0.05896038,-0.2438232,-0.8325385,1.0366002,-0.2210766,1.0733912,0.5104662,0.38062537,0.29100567,0.23854725,0.36363634,0.5021439,0.57377374,0.8517308,0.648159,1.0324368,-0.06290287,0.40676224,0.38369894,0.35198164,0.15658328,0.1899913,0.17961562,0.39870468,0.279434,0.84491885,0.32961214,0.15854654,0.27066335,-0.0151181035,0.25068846,0.15997353,0.1522991,0.1828534,0.2633516,0.3293227,0.45663586,0.955821,0.051585626,0.19255804,0.18000308,0.07314065,0.2269561,0.26372647,0.24804692,0.3019409,0.2635927,0.22363432,0.9211858,0.07065059,0.13195044,0.13998869,0.1963834,0.19141482,0.2410781,0.18210168,0.2161329,0.20770903,0.218618,0.3649884,0.30673543,0.0042426055,0.06816034,0.1078398,0.21695417,0.2070178,0.22914948,0.21278395,0.21817906,0.26188025,0.9138914,-0.087741785,0.012194942,-0.007149989,0.11694604,0.16186157,0.25582308,0.20117761,0.23846179,0.16518183,0.21701853,0.86634785,0.43245304,0.08622904,-0.020053742,0.029329041,0.20263661,0.16656198,0.12089746,0.2270881,0.27982295,0.4233171,0.06984472,1.2640697,0.51487577,-0.16834347,-0.012746659,-0.027691774,0.16019088,0.16619577,0.3001132,0.32799783,0.7742096,1.0326878,-0.22190535,1.2614912,0.7979815,0.36915046,0.04366025,0.42727143,0.1048142,0.2024623,0.3063206,0.96631294,-0.26083082,1.7130806,0.022815881,0.10890421,-0.053996984,0.051970806,0.029746247,0.039403394,0.0776279,0.072764665,0.06906805,0.07583432,-0.024250109,-0.04796468,-0.084553204,0.036946613,-0.0085562505,0.028695825,0.029517481,0.09437365,0.052673947,0.078452185,0.09934806,0.062550955,-0.062184814,-0.055441342,-0.008789779,-0.039859716,-0.030722508,0.023070753,0.055599734,0.053633068,0.08627785,0.07834927,-0.013269376,-0.05549225,-0.06356613,-0.062027145,-0.016975291,0.0013294527,-0.012095141,0.03293091,0.028066268,0.029089788,0.0414642,0.02031861,-0.05414958,-0.066931,-0.06001228,-0.040516783,-0.0024615796,0.031082757,-0.007980821,-0.017548412,-0.0039138566,-0.034309536,0.027927145,-0.07399833,-0.07474857,-0.048796408,-0.017880663,-0.044725705,0.025727054,-0.018073892,-0.007905854,-0.0082600955,-0.03338803,-0.095574535,-0.07104834,-0.09459485,-0.07409266,-0.044682544,-0.04431433,-0.018891448,-0.013289402,-0.03370768,-0.029491907,-0.045665197,-0.09149419,-0.07248878,-0.10662081,-0.074453756,-0.049860414,-0.0354048,-0.009743048,-0.033250913,-0.029206254,-0.050505526,-0.10815252,-0.119199835,-0.09230971,-0.10397268,-0.041682083,0.0004135336,-0.0028175227,0.011282426,0.04115877,0.012912264,-0.0074416506,-0.040351372,-0.081726335,-0.10070266,-0.12324432,-0.02154338,0.04441001,0.025272494,0.06464697,0.08116702,0.051537152,0.032861784,-0.009157529,-0.02911445,0.044575356,-0.046562724,-0.015996478,0.026475767,0.015314421,0.04085109,0.053503867,-0.00020554989,0.010687579,-0.031764086,-0.02873014,0.013983516,0.017399302,0.026649125,0.010400311,-0.019012235,-0.03941477,-0.008078869,-0.036903914,-0.047277763,-0.056097668,-0.009148772,0.03184966,0.005760452,0.028223334,-0.052767314,-0.018522205,-0.02173723,-0.024110764,-0.064955264,-0.10149965,-0.07637773,-0.098120496,0.011156731,0.030699527,-0.008000155,-0.03135866,-0.039375447,-0.020961173,-0.02048071,-0.042360786,-0.042031568,-0.11157303,-0.06538017,-0.009209307,0.00088342035,-0.0034094094,0.0046738274,-0.012817832,-0.040066607,-0.018181754,-0.009162217,-0.046102107,-0.069570065,-0.041731156,0.015313379,0.010282665,0.008677729,-0.020454468,-0.024744216,-0.03835446,-0.012683233,-0.021502417,-0.034163114,-0.045448277,-0.05280304,0.016205376,-0.00789927,0.0047115427,-0.008494183,-0.041458547,-0.007394821,-0.016590813,-0.0033730052,-0.048925977,-0.03908889,-0.026974965,0.00897233,-0.009631618,0.00572506,0.012433975,-0.015139668,-0.012069999,-0.0053446335,-0.004109858,-0.007020128,-0.036462396,-0.074313715,0.007221257,0.014742827,0.03386259,0.016997453,-0.030174673,-0.019426245,-0.008795009,0.01052051,-0.008802247,-0.016489424,-0.020461893,0.048776675,0.05432503,0.018924532,0.014032352,0.014914803,-0.012107574,-0.0111866435,-0.0046954844,-0.04201231,-0.0012061158,0.004608676,0.0033314817,0.023292188,0.028202254,0.009753809,-0.001980418,0.011690402,0.02270343,0.019915326,-0.010880848,-0.024409525,0.04687657,-0.032887846,0.012355037,0.08402909,0.06711456,0.039652325,0.0012671787,0.011321901,-0.01070672,0.021574095,0.013401189,-0.021829942,0.8663442,1.9483597,-0.39690438,0.4207236,-0.07575128,-0.21271017,-0.6783502,-0.8799381,-1.0473131,2.0439167,0.8500504,1.9514835,1.1884637,0.898628,0.618425,0.40455562,0.3905454,0.16207452,-0.72641623,-0.72873104,1.482849,2.007545,1.1650467,0.9095373,0.7820812,0.79722977,0.72780967,0.6135463,0.5896785,0.39563617,0.29819107,-0.22848351,-0.3167737,0.88869184,0.86076164,0.785605,0.74053055,0.671379,0.7100153,0.7352157,0.6497628,0.52913904,0.32908255,-0.13184012,0.8632694,0.8264554,0.7937527,0.75191593,0.69528306,0.74811983,0.7154501,0.61785114,0.59925395,0.643279,0.5420867,1.0229272,0.83667284,0.8473147,0.7856069,0.74555475,0.69826126,0.74415165,0.7008955,0.64198786,0.79057735,0.46384037,1.0452763,0.93487066,0.8792738,0.7834614,0.73519516,0.760836,0.73101515,0.75379074,0.7086515,0.8611282,0.80387133,0.8501279,0.8642229,0.83113796,0.78683305,0.72054577,0.70572644,0.7456033,0.7527793,0.7899985,0.94679874,0.8848465,1.0969026,0.98553777,0.7204598,0.7544884,0.7145299,0.71303254,0.7827674,0.69671106,0.70397526,1.0559602,0.8875247,1.917542,0.9369055,0.82715845,0.5389238,0.53054947,0.51344275,0.3377805,0.4246554,0.7379569,1.102897,2.0057929,0.90617156,1.9078935,0.20630646,0.13487792,0.019019546,-0.17973123,-0.25892124,-0.4190093,-0.45273748,2.0022676,0.88457596,-1.6774331,-0.048523698,-0.10555564,-0.11650603,-0.19578663,-0.0714084,-0.0047761626,0.15277563,0.10686605,0.08058261,0.41139382,0.03612623,0.050799064,-0.112400725,-0.097368576,-0.11178982,-0.072589554,0.013045519,0.08222592,0.07814144,0.058333658,0.23069641,0.272745,-0.06937781,-0.11970847,-0.19483158,-0.1878203,-0.09186833,0.016842982,-0.016881496,0.03854589,0.014344006,0.1985417,0.15640177,0.03598379,-0.11676558,-0.095698625,-0.0008936275,0.041320596,-0.03906842,0.09261767,0.08179031,-0.012767801,0.019512082,0.089875355,-0.06846556,-0.14205143,-0.045344602,-0.020475715,0.05517584,0.025664238,0.053546958,0.04688681,-0.05142782,-0.016437571,-0.030051678,-0.053690176,-0.09922793,-0.011933326,0.058352076,0.17627361,-0.021290187,-0.007197138,0.10102697,0.031019397,0.057363708,-0.053332604,-0.08641701,-0.118246295,-0.07003523,0.014302557,0.02155018,0.102677256,0.019351864,0.12208383,-0.051139466,0.025388263,-0.1581923,-0.066303365,-0.17928454,-0.07903271,0.008324538,0.03643705,0.043052778,0.016195323,0.061718438,0.009702442,-0.08317727,-0.11249128,0.05386688,-0.16061796,-0.015435475,-0.061385505,0.0024544175,0.014981085,0.08562558,0.020698369,0.015183077,0.15640712,0.14711013,-0.01578267,-0.14876886,-0.05107617,0.03872446,0.0029489866,0.014814086,0.09825236,0.06838766,0.017503474,0.21559027,0.1324326,0.016296918,-0.1615416,0.028882653,0.009427398,0.0334641,0.06907208,0.061510988,0.11590708,0.096048705,0.14830841,-0.03007116,-0.0006125361,0.28808755,0.20626634,0.071641445,0.11154617,0.05254315,0.05478596,-0.024016462,0.075683475,0.039057374,-0.041599277,0.06413918,0.12317791,0.13184607,-0.017088072,0.08592009,0.09265461,0.111963384,0.11243499,0.017191991,0.045396447,-0.015967399,0.088496014,0.14517243,0.03950667,0.110903725,0.078756094,0.12562367,0.09727823,0.07383073,0.12072709,0.058491398,0.047548074,0.12083142,0.062359896,0.09216208,0.18151389,0.12071818,0.13863072,0.14267989,0.14143777,0.14762941,0.04341174,0.02925966,0.033595275,0.061287392,0.07264904,0.13657676,0.14625064,0.12741815,0.1625783,0.14607462,0.11800729,0.07553169,0.04862399,0.07871064,0.05524445,0.08260641,0.15557949,0.17979763,-0.051449068,0.15526943,0.15483585,0.11563836,0.049908455,0.0326223,0.100563705,0.08285632,0.12711357,0.17501746,0.16235268,0.18402466,0.16851105,0.17190753,0.10748335,0.107452825,0.058386836,0.066804916,0.050884686,0.11178099,0.16208212,0.1662689,0.14083475,0.13229065,0.113534324,0.093672454,0.041907955,0.039302483,0.1031589,0.03950306,0.11339457,0.14363424,0.12408744,0.12472041,0.11287827,0.07991149,0.011971628,0.019983035,0.092910476,0.03361173,0.14560084,0.13850455,0.13633282,0.16040607,0.12712891,0.10962386,0.091574,0.034865886,0.15390077,0.09993049,0.025806513,-0.0769042,0.16211191,0.12880643,0.12370905,0.110849276,0.029916257,0.051926766,0.08725341,0.07401385,-0.038532056,-0.5022846,0.49994397,-0.79011893,-0.61408323,-0.76429415,-0.63739485,-0.577994,-0.45247495,0.035267234,0.51057094,-0.5696151,0.6358842,-0.87594825,-0.52309173,-0.46233872,-0.26475197,-0.3877465,-0.36229226,-0.17516996,0.05173522,0.5389776,0.48282665,-0.80607474,-0.571178,-0.323833,-0.033465732,0.029239807,0.067404926,0.11384548,0.10448603,0.10349031,-0.01750692,-0.2698873,-0.6357374,-0.16389218,0.19389339,0.050373767,0.17157483,0.2601165,0.25212955,0.2426915,0.12660955,0.0036224234,-0.82151055,-0.6472051,-0.10657001,0.07694217,0.27121273,0.24680905,0.25439638,0.25056246,0.16840564,0.102935985,0.030332,-0.48322314,-0.52289325,-0.13557996,0.13961129,0.27615687,0.26183715,0.14709178,0.19482571,0.26679367,0.15996277,0.03051308,-0.8125175,-0.5946933,-0.35857257,0.09842195,0.25015545,0.29410756,0.25090542,0.23986544,0.27009153,0.22378531,0.11771668,-0.91905755,-0.42778522,-0.44373176,0.14165856,0.23094928,0.2952905,0.2237988,0.26047426,0.22372364,0.2613711,0.1719095,-0.8248934,-0.89078003,-0.5627521,-0.53271216,0.15484622,0.10944179,0.12812515,0.1474078,0.15940091,0.14277364,0.13575633,-0.9191447,0.5014418,-1.0525271,-0.28069165,-0.5343127,-0.44959968,-0.1612375,-0.08861067,-0.12942989,0.06309567,0.28247342,0.5494947,-0.47567913,0.46554992,-0.80804574,0.100907825,0.16419852,-0.2952113,-0.51498514,-0.23465133,0.29877394,0.4799527,-0.52777934,1.3429945,-0.046805557,0.2606627,0.08402187,0.1312253,0.1376981,0.16384348,0.19639245,0.20682599,0.19082694,0.17885844,0.010692611,0.09209788,0.07297871,0.16702111,0.0941256,0.15300225,0.15732093,0.23378548,0.17217626,0.20753106,0.23684707,0.13032283,0.07164747,0.090065055,0.14102507,0.09417699,0.113589324,0.15768239,0.18787698,0.17673308,0.20424764,0.21811247,0.09296898,0.07125608,0.066099435,0.07896203,0.10107838,0.1292067,0.09787405,0.15029795,0.14474268,0.13773033,0.1603199,0.14187445,0.058880597,0.058537096,0.08576737,0.07149999,0.10645006,0.10046507,0.12675495,0.101946644,0.12621449,0.07080431,0.102600195,0.04246005,0.040084995,0.08498243,0.10625697,0.058201704,0.0136168115,0.10969879,0.12334485,0.13697663,0.09917537,0.003438843,0.042350844,0.020612331,0.05056628,0.07931291,0.10118974,0.0915774,0.12048082,0.091756545,0.08994425,0.063127056,0.004947778,0.031970497,-0.013607234,0.067238055,0.08765874,0.099542476,0.12163743,0.10267912,0.09788567,0.076046966,-0.024553899,-0.007044074,0.06623923,0.023128055,0.12261404,0.1525596,0.15933216,0.15848494,0.19962184,0.14304934,0.1358257,0.084836,0.024904838,-0.0043078745,0.03530729,0.14050764,0.16687542,0.15076225,0.18399312,0.19987032,0.15599571,0.16382296,0.10954802,0.105336815,-0.04300528,0.11438398,0.123497695,0.13329193,0.13249607,0.16256203,0.16282561,0.1220228,0.12421067,0.04706136,0.0022136415,-0.031577785,-0.065585695,-0.10616405,-0.08754625,-0.07448988,-0.111785755,-0.10956889,-0.12250784,-0.1381844,-0.16059244,-0.044323634,-0.040740382,-0.12534864,-0.12284225,-0.15601869,-0.1343942,-0.10405217,-0.11307974,-0.13973996,-0.23016469,-0.24657,-0.15707785,-0.075142555,-0.065797955,-0.117974766,-0.1242565,-0.11899669,-0.088690065,-0.09868278,-0.120381564,-0.14598878,-0.24470046,-0.14670224,-0.09734855,-0.097147875,-0.083637364,-0.09681115,-0.09960276,-0.12531354,-0.06903649,-0.08689284,-0.13149044,-0.1754342,-0.12930477,-0.1013215,-0.078047775,-0.124269925,-0.13205038,-0.109918,-0.119753145,-0.10282237,-0.08295394,-0.112209365,-0.13548386,-0.15027484,-0.08280914,-0.124265574,-0.09706748,-0.10643126,-0.13261992,-0.03737333,-0.10737844,-0.083432846,-0.113733195,-0.1264919,-0.12949723,-0.103453,-0.10631009,-0.08961823,-0.08343964,-0.10934874,-0.112793,-0.09333167,-0.06979117,-0.080233194,-0.138776,-0.15791532,-0.09349543,-0.09851237,-0.03767502,-0.0707797,-0.0907435,-0.11058055,-0.08694962,-0.038793012,-0.08717236,-0.11519655,-0.10704083,-0.059004348,-0.07605604,-0.075012006,-0.07229858,-0.053560734,-0.091183476,-0.08442091,-0.058701962,-0.10226068,-0.054880075,-0.019147847,-0.1317771,-0.14450972,-0.073551215,-0.07347126,-0.06437784,-0.08070136,-0.052940644,-0.020257208,-0.04871793,-0.12790722,-0.0072744363,-0.04070592,-0.047489982,-0.015484534,-0.07587924,-0.005141419,-0.023936328,-0.04747991,-0.086416475,-0.0248393,-0.09156058,0.021398539,-1.2619616,-1.9641017,-0.71222407,-0.8536897,-1.1579454,-1.1817033,-1.0020531,-1.0198386,-1.1719319,-1.9385028,-1.3557373,-2.0700517,-0.83567727,-0.52825326,-0.66230357,-0.8612303,-0.8215652,-0.81260705,-1.003592,-1.2137917,-0.6608371,-1.9674287,-0.07165652,-0.59938246,-0.4629424,-0.42122817,-0.6000654,-0.7123779,-0.70176923,-0.80982035,-0.99191695,-1.128327,-0.7402393,-0.41558763,-0.46669787,-0.5924005,-0.4855977,-0.63401455,-0.6344133,-0.5788375,-0.6341635,-0.696761,-0.76800126,-0.57918763,-0.46742368,-0.5374668,-0.4980138,-0.61328065,-0.5959566,-0.53696597,-0.56126684,-0.6594293,-0.6483514,-0.5585604,-0.33186826,-0.32981387,-0.46224314,-0.5134398,-0.53978044,-0.5875286,-0.57027,-0.55829996,-0.6048321,-0.6713106,-0.42707816,-0.34342033,-0.26394677,-0.39621755,-0.4897689,-0.59096116,-0.6028004,-0.5518788,-0.54900485,-0.5452003,-0.6306111,-0.37872368,-0.12678736,-0.4208181,-0.4270546,-0.54883754,-0.5044715,-0.6252198,-0.5527209,-0.57591414,-0.522771,-0.52610487,-0.28802803,0.16936763,0.3307316,-0.5951758,-0.6947985,-0.5546108,-0.560013,-0.58266276,-0.5642971,-0.60111463,-0.56208456,-0.32667518,0.012783567,-2.113534,-1.2933128,-0.83756244,-0.72713697,-0.7286099,-0.65403366,-0.74610996,-0.7562314,-0.644882,-0.83507323,-1.8502543,-1.1132209,-2.0670075,-0.69082093,-0.7534058,-0.80888134,-0.85933846,-0.8531032,-1.0094529,-0.99315417,-1.9195653,-1.1780759,-1.8915101,0.013069132,-0.13032523,-0.19053034,0.07192662,0.02459464,0.0071851728,-0.017152445,0.014758446,0.03839637,-0.16066355,0.002170441,-0.16186704,-0.23723637,-0.060143717,-0.06897823,0.021585647,-0.0034865516,0.049370356,0.0085179545,0.021042889,0.07174684,0.0055752513,-0.11674399,-0.14671426,-0.08808568,-0.09613443,-0.0644367,-0.0027911512,0.030912485,0.03412543,0.053042803,0.047992755,0.006590052,-0.14109725,-0.12517273,-0.10925956,-0.08660197,-0.056409057,-0.057752572,-0.025193572,0.03351473,0.009443284,0.096869156,0.080274016,-0.14152265,-0.12392066,-0.1037524,-0.06549597,-0.042066496,-0.02671363,-0.045183983,-0.010452709,0.043438047,0.036545914,0.08921773,-0.114380896,-0.13147792,-0.06558869,-0.058772646,-0.12190253,-0.04835097,-0.008755057,-0.0523022,0.018395092,0.06464688,0.040415395,-0.10038377,-0.07967578,-0.059033357,-0.10213297,-0.0423516,-0.045623,-0.01860112,-0.032830004,0.02431297,0.081507824,0.104453936,-0.11322699,-0.20031416,-0.06114675,-0.037831534,-0.03659989,0.0026840905,-0.0096251285,0.0016561575,0.02647092,0.05167058,0.04040155,-0.15485589,-0.117061265,-0.04896513,0.01795797,-0.003410097,0.021192588,0.017410388,0.020813562,0.026453676,0.056733303,-0.008904577,-0.21570536,-0.07585162,0.03434385,0.07614823,0.07329002,0.07753173,0.04540946,0.044755716,0.05172813,0.07758429,-0.035171255,-0.03610602,-0.25442776,0.00197742,0.02359946,-0.011970542,-0.025122982,-0.023002867,-0.030913439,-0.027961837,-0.07235194,0.047987066,-0.010632753,0.011056541,0.033215407,-0.036913,-0.05078736,-0.057928003,-0.0093483,-0.05892385,-0.06316283,-0.10588162,0.020604571,-0.0032240902,0.043943606,-0.008189333,-0.04555028,-0.062927,-0.03889988,-0.07896067,-0.067923784,-0.124854445,-0.15736471,-0.18222184,0.004082281,0.0060961884,-0.069764875,-0.07169602,-0.051113173,-0.08588207,-0.023874681,-0.08253688,-0.14456455,-0.1461358,-0.15083918,-0.022488052,-0.03991817,-0.043283235,-0.06749782,-0.09290467,-0.08776263,-0.075084694,-0.09739089,-0.0892617,-0.11037508,-0.08308207,-0.046059635,-0.021197978,-0.034992296,-0.0867718,-0.08110488,-0.11647116,-0.065448515,-0.10159255,-0.12995677,-0.07137928,-0.10816141,-0.048272382,-0.06140486,-0.054503903,-0.02614481,-0.108687066,0.0046502957,-0.120851874,-0.09034099,-0.13372786,-0.09216883,-0.12750778,-0.05208504,-0.053814635,-0.069191694,-0.06428853,-0.11571279,-0.07040504,-0.1022756,-0.13192715,-0.16657732,-0.111285925,-0.13355777,-0.05292451,-0.07143699,-0.08452122,-0.073555596,-0.09434416,-0.12695839,-0.13066606,-0.14816594,-0.18021943,-0.111136995,-0.12639602,-0.037255004,-0.012743393,-0.027934138,-0.052531514,-0.072603494,-0.060012013,-0.09849911,-0.09168597,-0.20951858,-0.20619647,-0.18618083,-0.046039216,-0.061001558,-0.044516306,-0.083023645,-0.06425487,-0.05933403,-0.10342979,-0.13696891,-0.22711629,-0.14225212,-0.16526908,0.031052874,-0.089389324,-0.025486432,-0.037264485,-0.024810687,-0.10228595,-0.09386838,-0.14032462,-0.14075665,-0.19487062,0.019610817,0.6513428,-0.9609614,-0.30522567,-1.1410977,-0.41580904,-0.4687174,0.16867833,0.037591867,0.098838925,-0.9847807,0.6433863,-1.092413,-1.4232095,-1.2852671,-1.3347688,-1.0057151,-0.50072,-0.28194454,-0.08265543,-0.0018965218,-0.3200572,-1.0312998,-1.2419585,-1.2928758,-1.1842402,-1.2601876,-1.0501002,-1.2995332,-1.0429019,-0.43386236,-0.40242526,-0.1578934,-0.04841186,-0.95353705,-1.1198789,-1.1621755,-1.2704269,-1.0189854,-1.2229923,-1.1697887,-0.68230975,-0.7187526,-0.45405784,-0.11837899,-1.171684,-1.221931,-1.215777,-0.89623016,-1.0556612,-1.3357766,-0.91492254,-1.4472626,-1.0186107,-0.53701353,-0.23457688,-1.2458428,-1.2319394,-0.8771282,-1.1565495,-1.1193608,-1.1727148,-1.1639144,-1.4185145,-1.431382,-0.4831112,-0.38627756,-1.2202523,-0.99153537,-1.0643116,-0.95233226,-0.97457844,-1.0948726,-1.226019,-1.1893727,-1.3107876,-0.5480724,-0.22447449,-1.3425312,-1.3418833,-1.2947781,-1.1801143,-1.2311131,-1.2552215,-1.0126185,-1.3397254,-1.1824217,-0.43670177,-0.17199416,-1.1395514,-1.2036965,-1.1874828,-1.0749543,-0.9925073,-1.1935054,-0.87253445,-0.8624549,-0.60108906,-0.20492049,-0.13968538,-1.0010971,-1.321129,-1.1561179,-0.32500926,-0.33387744,-0.2718762,-0.22903967,-0.33358136,-0.08736899,0.12264163,-1.0804083,0.7122809,-0.9969437,0.2619251,0.19480012,0.104443416,0.2276718,0.16621889,-0.028663034,0.28722686,-1.0637487,0.68170047,1.1550272,0.036996435,-0.012165781,-0.04612813,-0.23189917,-0.06087071,0.039432883,0.17523351,0.17654014,0.1233686,0.45296383,-0.050590917,0.12794818,-0.040455475,-0.04239145,-0.09287231,-0.044248354,0.052455742,0.12605605,0.10616212,0.123530574,0.24654135,0.20285031,-0.019638969,-0.07069639,-0.1102605,-0.118659385,-0.037709225,0.06139344,0.059398755,0.092176735,0.057179213,0.23534568,0.17431921,0.0854089,-0.07567031,-0.022310602,0.04347731,0.09891004,0.013151966,0.14215368,0.10951508,0.022988373,0.031450238,0.121417314,-0.043052334,-0.1049903,0.016855255,0.0111626815,0.09099583,0.023635821,0.10800009,0.07197034,-0.013717305,0.019409781,-0.03730527,-0.017020384,-0.07600405,0.034818377,0.08426506,0.25389218,-0.029720908,0.07469344,0.15380582,0.074840166,0.10304508,-0.04255836,-0.06200707,-0.12806007,-0.027018981,0.051856752,0.09372426,0.150056,0.07350567,0.14436771,-0.021423224,0.039574396,-0.12467524,-0.065714,-0.20145024,-0.040812206,0.043608893,0.08177869,0.07069412,0.06715509,0.09097399,0.028394839,-0.09645162,-0.07334625,0.12030814,-0.1548645,0.039968953,0.0016277606,0.06504557,0.05422992,0.13092797,0.05178488,0.048401773,0.1651227,0.14903726,-0.00092350953,-0.11567056,0.0055181575,0.02418684,0.0036120617,0.015149241,0.0988457,0.053822514,0.049903538,0.19694822,0.22109401,-0.01951273,-0.06515693,0.067373306,0.016819982,0.044113778,0.09815086,0.08570035,0.14381215,0.114194706,0.15641554,-0.049512405,0.036808096,0.25827998,0.18385123,0.11386576,0.20514582,0.11694765,0.0568112,0.03700996,0.09235464,-0.008769506,0.023845233,0.055385683,0.12110231,0.11049167,0.0145207895,0.072474875,0.10857463,0.113498226,0.11942775,-0.013753529,0.008996159,0.08191276,0.12797667,0.15162453,0.040358108,0.137237,0.108281,0.1521873,0.104840584,0.0992292,0.079230055,0.005143923,0.045845654,0.12147258,0.07782262,0.10164605,0.15958051,0.11577428,0.16188611,0.17926967,0.15408547,0.1612956,0.025811812,0.027116336,0.049345944,0.077463455,0.05753083,0.12361419,0.17719808,0.11596966,0.16916844,0.16840689,0.1318531,0.08096275,0.05123742,0.07703405,0.05230013,0.09033389,0.14951359,0.16089916,-0.012939894,0.14568914,0.1484201,0.15201713,0.04825045,0.05599905,0.10740942,0.095250465,0.14992104,0.16946661,0.1536484,0.18566123,0.16346267,0.20563067,0.13634703,0.10118957,0.11262432,0.07106805,0.05640986,0.16325375,0.16722345,0.20450436,0.1458533,0.1638354,0.18754709,0.11109657,0.05143009,0.0944613,0.10726261,0.03033027,0.1119964,0.16464645,0.17302285,0.15063655,0.13636245,0.16822517,0.111004576,0.106488705,0.21592206,0.0026531292,0.095245935,0.14936312,0.16242848,0.18825607,0.13411662,0.12769867,0.1880615,0.1423028,0.18289573,0.1948852,-0.025478624,-0.00456414,0.18842527,0.08966332,0.17172013,0.19234464,0.09382591,0.13145442,0.20854774,0.05797356,0.047215167,1.0328497,0.7303997,-0.1489745,-0.029235581,-0.09544368,-0.12602018,0.05781244,-0.09538357,0.10622827,0.64766705,0.99934053,0.8121389,-0.40749717,0.10356647,0.19897534,0.3740987,0.35413653,0.54967314,0.59374213,0.78928393,0.6360866,0.63238573,-0.28916538,-0.018774198,0.37646455,0.6601454,0.527501,0.6130105,0.6726181,0.765071,0.73652816,0.90648293,0.5712345,-0.1355708,0.34582096,0.6425726,0.7692263,0.71659654,0.68508065,0.7103823,0.7055299,0.8080727,0.85702765,-0.13212867,-0.1519545,0.36335525,0.7437951,0.781068,0.74341536,0.78046715,0.77418196,0.7698678,0.7691576,0.7185319,0.090318285,-0.14554854,0.3873536,0.56254405,0.7219174,0.70165527,0.6364311,0.6491383,0.7276349,0.6852114,0.6816152,0.3950242,-0.16687062,0.1436372,0.52796876,0.7266488,0.7652921,0.6773452,0.7668423,0.736779,0.73843277,0.70413655,-0.35371438,0.1621008,0.075040534,0.6337495,0.77434593,0.7233355,0.7203354,0.7224841,0.76733226,0.7180326,0.76028705,-0.33293772,-0.52316636,-0.14422801,-0.006916817,0.76460993,0.7306603,0.656952,0.6150477,0.7149194,0.7840201,0.81905895,0.04656801,0.89119923,-0.4933091,0.15794513,0.19411798,0.2693894,0.6778426,0.78865004,0.73441124,0.76106834,0.7799693,0.6762339,1.0252129,0.8285746,-0.5579878,0.54575145,0.42469966,0.03800481,-0.10441395,-0.25994596,0.47226852,0.5964135,0.9518464,-1.1775252,0.016403062,0.047763333,0.015021792,0.028818168,0.0234683,0.038233995,0.0807201,0.062018253,0.043493662,0.015254214,0.047280923,0.043612413,0.007321631,0.0021723928,0.0081958985,0.027008483,0.04908523,0.062091906,0.03849807,0.019012125,0.012281454,-0.02365334,0.061743993,0.094758525,0.013383437,0.007988316,0.012143811,0.020771137,0.006456437,0.013573926,-0.0073851505,0.012257811,-0.101897635,0.07059543,0.051997766,0.044828147,0.020960933,0.029006293,-0.0021798168,0.001692124,0.020025492,-0.014346903,0.002212622,-0.04210884,0.05784064,0.010017286,0.06974956,0.02355619,0.02737513,-0.031966135,0.02256429,0.014116075,-0.0074238465,-0.033305213,-0.031975843,0.051517393,0.026826201,0.06314993,0.01347426,0.00067120435,-0.0042734193,0.0015714322,0.044251326,0.036845177,0.0036870358,-0.012896293,0.07491464,0.034494296,0.051598527,0.032957327,0.04627571,0.027830657,0.008335273,0.025065731,0.014322119,0.032393415,-0.037058886,0.0860602,0.049483713,0.09455858,0.04123374,0.0409252,0.036674444,0.034569755,0.053191453,0.03803913,0.017153224,-0.043691725,0.12466888,0.11444455,0.123999976,0.08317295,0.07748589,0.065150976,0.041752618,0.02051722,0.053164184,0.06432412,-0.037736997,0.069118656,0.056947626,0.12617981,0.06727207,0.09152109,0.011453622,0.045110587,0.018362654,0.032630187,0.024822406,0.0076318556,-0.04448208,0.102812044,0.07365734,0.07287972,0.081818186,0.068067074,0.074799426,0.05229932,0.047934525,-0.008605729,0.03227332,-0.04817652,-0.09440553,-0.14628418,-0.16769066,-0.119138606,-0.106361605,-0.106133185,-0.09808079,-0.099693924,-0.055359993,0.012510656,-0.027918465,-0.15478583,-0.20319225,-0.11053759,-0.12806393,-0.065116,-0.078726076,-0.08072133,-0.041551612,-0.12745199,-0.030426325,-0.119515315,-0.13181159,-0.13332532,-0.10645668,-0.09500426,-0.08140418,-0.080429494,-0.10038825,-0.05987015,-0.077130996,-0.02965798,-0.12134234,-0.14278992,-0.10765696,-0.13411877,-0.081680305,-0.08456009,-0.06691493,-0.10248161,-0.10016355,-0.07943184,-0.09065838,-0.18718953,-0.15552075,-0.1273093,-0.1123764,-0.11252583,-0.096526675,-0.09420236,-0.091825135,-0.09996894,-0.112149194,-0.1337026,-0.16241501,-0.13705459,-0.118513055,-0.06666314,-0.086196184,-0.00866728,-0.059316393,-0.07121766,-0.07742987,-0.07306263,-0.11590424,-0.1652224,-0.15235636,-0.14551066,-0.1102366,-0.09700741,-0.09414814,-0.100982666,-0.12340186,-0.08824355,-0.1411048,-0.12206013,-0.16159375,-0.16387947,-0.1444192,-0.11081925,-0.09916668,-0.10997914,-0.10882332,-0.12527373,-0.089599416,-0.11942048,-0.124802,-0.20745641,-0.23797691,-0.14742783,-0.1483531,-0.103666626,-0.10637945,-0.11849247,-0.13468146,-0.12147508,-0.16127545,-0.113748595,-0.16983038,-0.22688188,-0.19116701,-0.14430891,-0.14027473,-0.10021558,-0.10236369,-0.08794889,-0.11903308,-0.16164266,-0.19023953,-0.04619488,-0.2119993,-0.19220087,-0.22497535,-0.15064077,-0.09599452,-0.14304289,-0.17114899,-0.14776985,-0.16626586,-0.034239683,1.1313442,-1.8716955,1.0374725,-0.35512188,-0.5476384,-0.48377788,-0.48716524,-0.45806918,-0.2722919,-1.9591866,1.0686846,-2.0756743,-0.64360404,-0.19122988,-0.123181306,-0.1662268,-0.16025952,-0.07255304,-0.06910396,-0.13311334,-0.3179321,-1.9819671,-0.35778168,-0.21242823,-0.11639653,-0.1330756,0.004219872,-0.050537456,-0.020235999,0.17071128,0.016796395,0.000726505,-0.16030693,-0.29780564,-0.21779096,-0.15295199,-0.03806352,-0.008974945,0.07439596,0.112182625,0.20066792,0.13784078,0.11195664,-0.14405988,-0.5249668,-0.45612994,-0.1399797,-0.11111552,0.116086565,0.14379226,0.14657126,0.1359484,0.052326914,-0.021978099,-0.124236226,-0.4971319,-0.04786619,0.018760383,0.098666444,0.14759341,0.18916245,0.10586375,0.127636,0.08001166,-0.04719054,-0.084966,-0.53441906,-0.17877667,-0.06610949,-0.062042303,0.08922649,0.14522731,0.09327512,0.14644448,0.06530988,0.033823524,-0.11850202,-0.24664947,-0.15631433,-0.20858763,-0.040482733,0.04109873,0.17873111,0.09435562,0.07374576,0.117279,-0.04404232,0.005497153,-0.6910129,-0.28294712,-0.26235908,-0.22538783,-0.022261329,0.009930246,-0.009114196,0.037150647,-0.012858319,-0.21110287,-0.37618357,-2.094278,-0.6224131,-0.62941027,-0.41914394,-0.4415589,-0.29437217,-0.3814692,-0.2113394,-0.33978572,-0.41551477,-2.0257494,1.1236248,-1.9901552,-0.5985583,-0.7771207,-0.7883148,-0.7844105,-0.97003824,-0.8358541,-0.87564576,-1.9980803,1.1732144,1.2240514
