-0.0039702724,-0.5274131,-0.29941157,0.019919554,0.078814216,0.08986521,0.075259805,0.16941595,0.26773107,0.24682721,-0.050569635,-0.19126363,-0.28152332,-0.48856243,-0.64186436,0.042560004,0.07099361,0.16922548,0.27309585,0.1995934,0.30976456,0.028524652,-0.14220783,-0.13420749,-0.9074889,-0.016332868,0.08215329,0.062949926,0.15508771,0.15416789,0.57597095,0.19450791,0.17642806,0.080590084,-0.48664945,0.013710794,0.019625692,0.07506123,0.13570356,0.120467484,0.17779537,0.23066382,0.2626267,0.1295153,0.0977878,0.065450214,0.05159916,0.022750495,0.20684482,0.1202555,0.22728363,0.20456785,0.2185538,0.26617903,0.13293052,0.1088835,0.03432148,0.05900851,0.148916,0.18596514,-0.027055955,0.1573821,0.18079856,0.19168918,0.21161999,0.12811168,0.14473602,0.075743645,0.1259322,0.13905908,0.19539392,0.18721567,0.21135314,0.13920219,0.21809134,0.24736981,0.14564666,0.19460376,0.13688031,0.13372791,0.21687745,0.17803068,0.24439754,0.1697516,0.22656283,0.20114607,0.33644187,0.12589897,0.28591496,0.16186993,0.301912,0.25041926,0.25414386,0.22112928,0.22615677,0.2342421,0.39514154,0.29343894,0.27189896,0.21917675,0.16125976,0.22544885,0.31654364,0.294207,0.21771318,0.21140254,0.32370222,0.27031353,0.31320885,0.20129071,0.04420589,0.11129044,0.17555027,0.16827893,0.123269916,0.14431556,0.1487845,0.08812829,0.15977636,0.103288926,0.025600322,0.007494987,-0.38410223,-0.18117937,0.1286314,0.3002914,0.055515066,0.04246213,-0.053368326,-0.026844041,0.15848614,-0.035012443,-0.5864564,0.039685197,-0.13704605,0.18812336,-0.038262714,-0.0034492016,0.0758072,-0.0001502443,0.06200822,-0.058286764,0.23897567,0.023307199,0.1880447,0.1688104,-0.009198895,0.06474432,0.055657927,0.0070506707,0.020149319,-0.017506719,0.08617427,0.13588513,0.04821135,0.10488992,-0.02739091,0.011351089,0.03711021,-0.02868746,-0.020751083,-0.05685517,-0.017621594,-0.04864116,0.11646355,0.18366133,0.021397144,0.027745748,-0.0034262252,-0.011780751,-0.07801453,-0.021573301,-0.049541865,-0.006933348,-0.009902348,0.030340536,0.0950588,-0.02566578,0.04766819,0.057644185,-0.05282872,-0.0019501022,-0.092147596,-0.03902076,-0.033563893,-0.11433934,0.15781479,-0.03739062,-0.011486986,0.04554118,-0.018098515,-0.041215826,-0.08136382,-0.042510018,-0.033837445,-0.05545291,-0.09273997,-0.0024605095,-0.035729565,0.041888587,0.0709657,-0.025818802,-0.031081265,-0.018935133,-0.04688627,-0.0684007,-0.04232322,-0.17044082,-0.12800893,0.12143331,-0.07800977,0.014075242,0.011312375,-0.005035179,-0.045083065,-0.05792421,0.017303843,-0.08989029,-0.1592343,0.026614694,0.14288062,-0.0087095,0.095057406,-0.038227294,-0.03289324,-0.104733534,-0.08855806,-0.12078155,-0.08633954,-0.1504183,-0.076493524,-0.027218072,0.3898223,0.09037819,-0.013445155,-0.1255434,0.14064512,0.053235505,-0.039169796,0.1380379,0.039465997,0.040633015,0.6307485,-0.4919158,-0.8496068,-0.42414466,0.043620612,0.2750447,0.16431187,0.39483017,0.7562551,-0.61110914,0.6195559,-0.50345284,-0.06869695,-1.2303847,0.32345432,0.55249,0.5593907,0.6023002,0.6096524,0.7488467,0.46230966,-0.71225625,-0.5619063,-0.98068285,0.051210836,0.21305428,0.51576173,0.49342316,0.5248023,0.49287093,0.6493877,0.6155412,0.060556278,-0.30720863,0.106297284,0.33709824,0.5331443,0.6091838,0.57044214,0.457076,0.5473557,0.4443865,0.68467695,0.6342988,0.093436986,0.3426143,0.3304285,0.5093935,0.43372786,0.57991236,0.55067295,0.35257584,0.41532266,0.57794863,0.31527743,0.3455624,0.51164025,0.36151895,0.49431446,0.60220516,0.6848424,0.63997304,0.6109878,0.5493056,0.6424775,0.2715246,0.13478412,0.44106537,0.35105625,0.39821324,0.4461935,0.6865625,0.39891908,0.4458547,0.437918,0.6386555,0.24764746,0.21278027,0.5908419,0.31850407,0.43782967,0.3615075,0.52790874,0.40715718,0.3305318,0.48661545,0.5083517,0.67426056,0.49071392,0.7696774,0.44522676,0.4810979,0.49474695,0.6873398,0.37272623,0.43731537,0.6651358,0.87791115,-0.06597419,-0.65403163,0.47843254,0.54804575,0.695228,0.6120678,0.6780532,0.6148189,0.5217935,0.78917736,0.54436255,-0.6495075,0.6569523,-0.56414306,-0.5317934,0.5368826,0.4121321,0.55993956,0.42941782,0.45214188,0.523138,-0.65760356,0.6729215,-1.5973533,-0.03416761,-0.18459342,-0.045921486,-0.07606937,-0.06991695,-0.04696429,-0.04213001,-0.02409889,0.049187664,-0.0074490784,0.030469343,-0.0052891565,-1.3045552,-0.13874006,-0.10280212,-0.09408448,-0.041387588,-0.027439661,0.0698834,-0.018577611,0.012379787,-0.005693188,-0.049455658,-0.15056615,-0.0002718659,-0.09021781,-0.07247864,-0.041650526,-0.021794101,0.0033639008,0.2100275,-0.010873124,0.0003011683,-0.068950936,-0.0915806,-0.062447313,-0.0846055,-0.06786715,-0.042493742,-0.028692214,-0.02832424,-0.018950641,0.029080173,-0.04425696,-0.065705754,-0.15821414,-0.13544057,-0.11307809,-0.101784825,-0.04490304,-0.034500223,-0.017076768,-0.018403629,-0.018353883,-0.037471768,-0.030797107,-0.13528028,-0.112045825,-0.09853322,-0.053365115,0.045557864,0.003368422,-0.04618879,-0.041491084,-0.0461902,-0.03918067,-0.0695604,-0.15302575,-0.10319923,-0.047756523,-0.12792778,-0.051319644,-0.069282755,-0.06494606,-0.06750033,-0.04253733,-0.041411772,-0.043442883,-0.16308045,-0.08230824,-0.09097227,-0.06539354,-0.07604056,-0.059385933,-0.06756317,-0.04545377,-0.008486109,-0.058125474,-0.13218828,-0.112834625,-0.6551616,-0.117186576,-0.13864489,-0.12994756,-0.09425426,-0.08440735,-0.07977113,-0.07769122,-0.0805188,-0.080732375,-0.064490244,-0.101882875,-0.12202092,-0.040782552,-0.08358615,-0.08174345,-0.1308213,-0.09782492,-0.055858772,-0.036857937,0.012405873,-0.06309343,-0.115921915,-0.063225985,-0.0507322,-0.04443273,-0.04252577,-0.066856176,-0.081559114,-0.08568748,-0.03536305,0.024532812,0.09896243,-0.084432825,-0.028378379,0.06805437,0.032384355,0.038397815,-0.086435646,0.0010012974,0.08058414,-0.02333555,-0.07571103,-0.3362436,0.045813322,-0.02858692,-0.014081853,-0.005246374,0.019401789,-0.016466875,-0.0015076315,-0.06820214,0.057220727,-0.0125095,0.008429418,0.03417225,0.007188317,-0.020176902,-0.0074834106,0.0066032554,0.033546116,0.018867329,-0.039952222,-0.051193938,0.05587934,0.0042421375,0.006085841,-0.009354396,0.0009011765,-0.0133015765,-0.002286499,-0.011872145,0.029264899,-0.06932335,0.010536521,0.008810673,0.016560165,0.01999735,0.03184313,0.010088573,0.013949566,0.0010236807,0.006334981,0.02197881,0.03657325,0.07424862,0.000107640924,0.024033073,-0.016883623,-0.009170506,0.0033781559,-0.0034326154,0.03865771,-0.0023053687,-0.01040815,-0.0030938098,0.030717613,-0.022513459,-0.029272158,0.04300519,0.041225713,0.006135021,0.0071619228,0.0044234307,0.0062913215,0.016388075,0.029132282,0.017855112,0.052730236,0.0018154053,0.01773812,0.016717818,0.015406071,0.012175056,0.01093826,0.0090664225,0.006347227,-0.00025046145,-0.0690051,0.06633669,0.061655466,0.041075513,0.025184989,0.009205935,0.004202261,-0.023694571,0.020037783,-0.023666246,0.073441565,0.03546773,-0.007341514,0.028643692,0.03949891,-0.008477041,0.023104884,-0.029245064,0.017959101,0.024340548,-0.0010438433,0.09660465,-0.016135447,-0.019371739,-0.22444208,0.07323933,0.025165364,0.07720504,0.07207033,0.030368444,0.057888847,0.0706757,0.11429421,0.041844785,-0.05555258,1.0312967,-0.1935827,-0.16773108,-0.10022266,-0.2109865,-0.6507253,-0.8291106,-1.0755115,0.773169,-0.0104479715,1.0305511,0.09841836,0.6951074,0.14250046,0.035688274,0.11618843,-0.25007996,-0.44380346,-1.0353074,-0.73298377,0.7161226,-0.4511746,0.5369148,0.044761226,0.004740711,-0.05085044,-0.13278612,-0.17088059,-0.40900007,-0.17606612,-0.7847339,-0.37387395,-0.0050433218,0.30324677,0.06781934,0.1469686,0.15004547,-0.026171025,-0.0571884,-0.10801176,-0.13460556,-0.25332323,-0.6472311,0.22199655,0.20444487,0.08615623,0.07724168,0.14482014,-0.053869694,0.029541954,-0.10603382,0.0074001187,-0.31907505,-0.19803578,0.05455556,0.18613109,0.083356656,0.021393176,0.06283627,0.030433418,0.031860124,-0.013556981,-0.03411283,-0.10292274,0.07960466,0.3183375,0.12852815,0.12876634,-0.011415169,0.2254079,0.037621517,-0.050981607,-0.049799677,-0.08576028,-0.1534259,-0.16885036,0.26281548,0.11706744,0.21393417,0.09029319,0.14152259,0.07492995,0.02239108,0.1202594,0.056837086,0.035605185,-0.5583366,0.33636054,0.4339391,0.20111078,0.21225679,0.17087714,0.09436615,0.021625308,0.073711075,0.029262722,-0.70670295,-0.103773504,0.7366386,0.27585778,0.46554154,-0.106084906,0.012512018,-0.04702437,-0.002539004,0.11197684,0.1311883,0.081050456,0.7547931,-0.036611293,0.7882231,0.4917082,0.105998926,0.07736094,-0.020959828,0.12660514,0.070998244,0.010157867,0.64492434,0.015116222,1.1297579,-0.021597533,-0.26056775,-0.25810006,0.02681477,0.06373699,0.054937415,0.055764362,0.08015962,0.24547234,0.14813755,-0.025373772,-0.00637915,-0.344501,-0.36639845,-0.5005483,-0.0055328235,0.042699326,0.08672751,0.26161122,0.13414212,0.22415002,0.031007404,-0.006039239,-0.05959157,-0.6993984,-0.024160892,0.07638411,0.12157751,0.118997075,0.10845176,0.39854726,0.16293167,0.14124852,0.11231836,-0.33423576,0.077820964,0.005987669,0.07419536,0.079252265,0.06550501,0.12401413,0.12784469,0.19225766,0.08849467,0.09064133,-0.024047432,0.019830411,-0.044296857,0.13792582,0.056990385,0.1433931,0.13013457,0.1491965,0.20680061,0.08814422,0.11870979,-0.036872067,0.039604865,0.12415174,0.06291061,-0.042449698,0.1055824,0.12308287,0.13246745,0.15686211,0.092865296,0.08121959,-0.054021828,0.0492398,0.09662795,0.102587745,0.1439149,0.14340813,0.10364067,0.14678395,0.18655555,0.089328185,0.13197033,0.005250607,0.061936222,0.08694623,0.12449488,0.16268367,0.08921827,0.13362136,0.13498187,0.26236078,0.09659595,0.19476911,0.0324943,0.20666775,0.15835142,0.16368027,0.13609423,0.17794861,0.16725382,0.29893395,0.18319473,0.27302623,0.20320606,0.14578733,0.20129344,0.24886547,0.24604887,0.17981015,0.17848682,0.24339454,0.1574423,0.2686797,0.1381243,-0.0056848647,-0.03721809,0.18594855,0.12899259,0.083043,0.10743716,0.08316701,0.0991746,0.15365702,0.10357636,-0.023235528,0.038135007,-0.07470013,-0.05142444,0.11768036,0.32089937,-0.0192949,-0.014525946,-0.12028461,0.008122583,0.06329081,-0.0015949633,-0.18593456,0.302057,0.14493056,0.36797208,0.07975177,0.11406042,0.054111157,-0.0257161,-0.03297177,-0.089147106,-0.012294414,0.037154943,0.4254445,0.15137286,-0.03690487,0.04521205,0.09853448,-0.018997218,0.08701086,0.026050327,0.08744305,0.07927171,0.06025941,0.22330019,-0.043103628,-0.01876135,0.010211559,-0.044264715,-0.0446403,-0.057134643,-0.023666598,-0.033508524,0.06949586,0.18826278,0.027126968,-0.00028072073,-0.04072896,-0.03382296,-0.08353702,-0.041900363,-0.058125056,-0.027894221,0.011154439,0.10481595,0.089943245,0.04304097,-0.049627036,-0.035586078,-0.04436003,0.03401127,-0.08992815,-0.1149675,-0.072477065,-0.07850576,0.033847176,-0.03272818,0.019882016,0.0027045156,-0.06513796,-0.05704303,-0.050464794,-0.06551387,-0.0574091,-0.08538513,-0.044158924,-0.034892555,-0.124533564,0.008143621,0.04791445,-0.057893552,-0.042316683,-0.043578018,-0.1068884,-0.08347703,-0.06926657,-0.10635413,-0.06894825,0.078894064,-0.09627104,-0.021709282,-0.026773382,-0.065517135,-0.07816934,-0.05968875,-0.012297472,-0.07169803,0.0008808823,0.06679031,0.02468971,0.007959854,0.030278966,-0.07023058,-0.08900794,-0.10998882,-0.051208053,-0.07292415,-0.044318,-0.083327554,0.038907927,-0.04224919,0.3715032,-0.022934165,-0.07728365,-0.042029053,0.19686024,-0.051559515,0.042752888,0.0564873,0.08205104,-0.04051333,-0.004996974,-1.4265453,-2.165446,-0.8140758,-0.22474754,-0.3354844,-0.09670219,-0.119725905,-0.56612265,-1.2829351,-0.017662637,-1.3468117,-0.6512049,-1.7553047,-0.5618417,-0.46312812,-0.43651533,-0.40625948,-0.4097565,-0.25744933,-0.30478776,-1.3301113,-1.557027,-1.5047271,-0.50291294,-0.42464158,-0.26928127,-0.37366647,-0.36464557,-0.5046233,-0.25315484,-0.24654768,-0.06561215,0.17877802,-0.4681159,-0.4224796,-0.29502305,-0.31945798,-0.48570335,-0.36799443,-0.4668756,-0.37397146,-0.39082837,-0.3456489,-0.18082315,-0.38059446,-0.3426332,-0.29089662,-0.32062486,-0.4691627,-0.31354004,-0.3845442,-0.3852657,-0.37664318,-0.30791667,-0.12356023,-0.420168,-0.47246698,-0.38909918,-0.34187856,-0.18633097,-0.3125213,-0.39756748,-0.3073591,-0.2914067,-0.2785117,-0.089244254,-0.21848741,-0.31815088,-0.36326984,-0.39917326,-0.3636486,-0.40186468,-0.4539738,-0.40592223,-0.3189147,-0.21065976,-0.08603883,-0.39201024,-0.28194612,-0.4150223,-0.37736374,-0.3101043,-0.3174041,-0.28473076,-0.36808816,-0.28921616,-0.44270328,-0.06299663,0.2864905,-0.23754928,-0.25816053,-0.2082295,-0.34115282,-0.31286862,-0.43829975,-0.27143398,-0.30293807,-0.13081875,-1.432583,-0.039772727,0.016282892,-0.29338646,-0.40044206,-0.28681627,-0.40899476,-0.30434266,-0.10222947,-0.3355559,-1.4235356,-0.06291137,-1.3904068,-0.39047387,-0.14196207,-0.20921797,-0.3284075,-0.44995308,-0.19880062,-0.15180972,-1.2798073,-0.09539464,-3.6034985,-0.03902532,-0.056016687,0.0018586603,0.0043390533,-0.02256058,-0.03622223,0.0139856655,0.010596744,-0.027688734,0.0061946516,0.025060745,-0.050552595,-0.017163107,-0.0029536905,-0.05154311,0.015152916,-0.025193341,-0.006017466,-0.031791404,-0.056944363,-0.023129832,-0.02276357,-0.026888303,-0.027658656,-0.04495081,-0.0035496592,-0.0064789024,-0.006549199,-0.042771045,-0.03764212,0.022570394,-0.051182777,-0.03547992,-0.06267833,0.021554843,-0.009037278,-0.03125975,-0.031648513,-0.045923337,0.020105537,-0.051427603,-0.032145068,-0.07558244,-0.025748337,-0.03371052,-0.020908726,-0.041020494,-0.059136637,-0.020668553,-0.017004127,-0.05430734,-0.065870576,-0.053133022,-0.008386813,0.009986056,-0.02730763,-0.05695677,-0.004588938,-0.013799551,-0.048235245,-0.012011777,-0.06446977,0.00048827167,-0.025913682,0.0028278593,0.010000992,0.0117670605,0.007557076,-0.063532464,-0.049929414,-0.01965184,0.010459635,-0.017232725,-0.037729245,-0.02875857,-0.06772862,-0.07221882,-0.04007559,0.005689702,0.0064808503,-0.033176214,-0.00437924,-0.05138552,-0.017684985,-0.006926043,-0.0036430564,0.02358232,-0.010097276,-0.008133369,-0.015478869,-0.04980396,-0.04847274,-0.005051375,-0.0016631726,0.0027220566,-0.0627112,-0.02784756,-0.02039551,-0.06522969,-0.030892137,-0.018377442,-0.008467778,-0.0149111785,-0.06717546,-0.015182438,-0.06296715,-0.047153927,-0.053381365,-0.026315639,-0.030186888,-0.03625508,0.020236993,-0.076504916,-0.048067596,-0.035761807,-0.043949306,-0.0041149384,-0.059805606,-0.004297469,0.009684151,-0.03081904,0.007254085,-0.05805363,-0.034200426,-0.0044198385,-0.047851942,-0.030881763,-0.033144597,-0.056705903,-0.029363606,-0.03577037,-0.052097935,0.03163736,-0.0154266255,-0.012612545,0.019696634,-0.064335324,0.01574805,0.021499267,-0.025291434,-0.060185786,-0.021006674,-0.04810682,-0.03849165,-0.03630311,-0.08019586,-0.02212758,0.0088987,0.0048998506,-0.0024047194,-0.02331485,-0.05977445,-0.026392296,-0.03757681,0.035604775,-0.0619517,-0.01585177,0.016792247,0.012801196,-0.014095177,-0.04622573,-0.029549873,-0.06196124,0.00816546,-0.056611463,-0.025501134,-0.014257288,-0.040207397,-0.011054487,-0.01872663,-0.0050920458,-0.004744608,-0.013336396,-0.0040788315,-0.03834982,-0.06132666,0.007956691,-0.06742723,-0.02410389,-0.046923466,-0.025366232,-0.015489616,0.020487964,-0.046037693,-0.038999036,0.004834285,-0.036998212,-0.061208617,-0.068974584,-0.018105835,-0.052857812,0.013354526,-0.041299995,0.0021892572,-0.046825215,-0.006752521,-0.022206763,-0.038928967,-0.051659677,-0.048472367,-0.043708716,0.0038871064,-0.04331514,0.016549798,0.01810963,-0.021514824,-0.053958867,-0.017504454,-0.0032886388,-0.06096639,0.020814702,0.014852168,-0.015223335,-0.068164065,0.023204593,-0.056547448,0.008981211,-0.054350536,-0.018833028,-0.028303932,-0.010195955,-0.040489156,-0.013690763,-0.065909885,-0.046901267,-0.06797793,-0.067587666,0.011471117,-0.032737084,-0.017725704,0.027147936,0.015170967,-0.04908361,-0.03801308,-0.028832188,0.027016118,0.0007537344,-0.016623603,-0.016544297,0.0029091996,-0.014988713,-0.018654156,0.025548132,0.036006745,-0.018022463,0.037127838,0.0341732,-0.018068282,0.01343889,-0.046960868,-0.006035164,0.026111048,0.02396986,0.010850719,-0.04694823,-0.0687224,0.047330145,-0.031644538,-0.05192433,-0.06425828,-0.0034427803,-0.020483771,0.03778118,0.03373984,-0.009410149,-0.0413161,-0.043362666,-0.0252407,-0.058361515,-0.013631305,-0.04920748,-0.016667137,-0.052419823,-0.057335693,-0.057394046,-0.05750505,-0.04218219,-0.02496172,0.054161325,-0.03058173,-0.015253771,-0.01993828,-0.034731638,0.032689042,-0.043650854,-0.0065759197,-0.033294484,-0.053766686,-0.00033145744,0.05965698,-0.022097789,0.018754724,0.013462066,-0.049684066,-0.014002292,0.04485772,-0.028842703,0.026781732,-0.016953776,-0.0075983596,-0.017721018,0.037393305,-0.021423576,-0.051629018,-0.041066997,0.024825007,-0.06405271,0.007960793,-0.03198791,-0.062029805,0.06543122,-0.00908352,-0.035172675,-0.005645976,-0.048954375,0.031155186,-0.037721474,-0.034325503,0.018053032,-0.013682742,-0.0074980743,-0.0018894601,-0.038358346,0.018667214,-0.044220984,-0.044327106,0.025908573,-0.022770355,-0.017524723,-0.012339256,-0.0083037615,-0.033109978,-0.03293334,-0.08057446,-0.021602146,-0.037719354,0.015416278,0.022592705,0.08315194,0.0034920545,0.0006611851,-0.043126673,-0.056360252,-0.0068526235,-0.04586166,-0.007348422,-0.0043583615,-0.035941597,0.009268695,-0.01455091,-0.03719187,-0.022489656,-0.052870207,-0.022419002,0.020143043,-0.0029591767,0.051784668,-0.055726603,-0.034343425,0.029791232,0.018466106,-0.0070956284,0.018904816,-0.007234219,-0.0022706632,-0.2482902,0.06869653,-0.06596572,0.007530872,0.037049275,0.0138834305,-0.0034246817,0.2459177,0.25558442,-0.04534566,-0.12775853,0.03989018,-0.120224975,0.010990057,-0.003241182,0.0018187895,0.07613555,0.2130758,0.14589666,0.26282173,0.024993494,0.030578092,-0.1745037,0.14958282,0.021612866,-0.061919414,0.020623539,0.029215217,0.027806336,0.4877828,0.07009008,0.16313568,0.012641247,-0.14425533,-0.07240852,-0.007991673,-0.010712238,-0.026591424,0.042203873,0.09218826,0.04901197,0.13362318,-0.051655065,-0.0036653935,-0.14507736,-0.08356028,-0.08356439,-0.12238219,-0.12999387,-0.00763139,0.047918506,0.033124432,0.11920546,0.0073775826,0.010044629,-0.013250489,-0.089629285,-0.06595641,-0.13327424,-0.016904362,-0.052777555,-0.035737563,-0.031474274,0.06390146,-0.026677424,-0.003776837,-0.15108728,-0.06834087,-0.15413475,-0.03162025,0.05882973,-0.031420447,-0.020501234,-0.030259559,0.061295908,-0.00012436291,0.0060573723,-0.25723958,-0.13039061,-0.15544088,-0.03768523,0.004197314,0.037878558,0.033870053,-0.044635776,0.06875164,-0.0026976417,-0.19328824,-0.17027918,-0.5067521,-0.1288322,-0.118344866,-0.072185546,-0.0063827992,-0.0688538,0.122655645,-0.04769445,0.07901085,-0.10461729,-0.15412638,-0.08107607,-0.15267895,0.011526885,-0.018608121,-0.019052632,0.0087795565,-0.09219244,0.11415806,-0.02051807,0.0043952167,-0.021885553,-0.1705656,0.013352212,-0.004278252,0.025288422,-0.014556101,-0.06707942,0.05640042,-0.068733975,-0.025535826,0.010597544,0.16987637,-0.0875733,-0.0723689,0.07545155,0.037541725,0.040714607,-0.07669873,0.19248323,0.13172753,0.03864563,-0.19529621,-0.30940855,0.009942852,-0.042572476,-0.11058181,0.0061425706,0.040000245,-0.1786956,-0.2256167,-0.0579429,0.1170985,0.056568265,-0.08191329,-0.07291819,-0.029402014,-0.025705416,-0.03162731,-0.011636106,0.06592794,-0.13052626,-0.48905185,0.14001389,0.011138639,-0.19516265,-0.08590983,0.06252663,-0.0026649416,0.028679464,0.053540524,0.020216348,0.055221282,-0.10261588,0.037814207,0.07684935,-0.053210717,-0.0020848128,0.097995184,0.00233757,0.026095273,0.051552802,0.049202405,-0.017671399,-0.064134404,0.12597713,0.050174754,0.032924686,-0.02559237,0.02929704,0.075782195,0.00797669,0.017124638,-0.031214856,-0.081750564,-0.021987032,-0.0189322,-0.022395292,0.047031015,-0.013110411,0.08327482,0.052644808,0.021089833,0.042835604,0.0089531895,-0.10266399,0.0041015837,0.042377453,0.09658981,0.02309322,0.05610886,0.106610805,0.047581863,0.032657456,0.022921635,0.023438677,-0.0010685159,-0.061242,-0.1071729,0.0638647,0.00890683,-0.008601277,0.06661238,0.0076327864,0.017038168,-0.005138636,0.0775505,-0.08176618,0.0668512,-0.0920008,-0.070673384,0.039465975,0.029648148,-0.033021204,0.11101856,0.025079405,0.061166156,-0.12579481,-0.06663309,-0.043619584,0.048786312,0.012848738,-0.39762855,-0.031452075,0.07609285,0.12547295,0.03756459,0.069562696,0.06914368,0.16440241,0.18736534,-0.022376278,-0.05051331,-0.078040324,-0.9148168,-0.1300555,-0.061527833,-0.04289859,0.20775256,0.30557486,0.19690587,-0.014593546,0.009023165,-0.0801939,-0.55443573,0.46676984,-0.36691228,-0.11676082,-0.085359,-0.10965939,0.115830295,0.33808535,0.1036552,-0.033818744,-0.8518145,0.19040793,-0.12439957,-0.09353689,-0.19869663,-0.19190082,-0.08487521,0.006556825,-0.055007327,0.3140727,-0.19322607,-0.4687654,-0.5237598,-0.20709877,-0.15512998,-0.17612186,-0.20212112,-0.33867294,-0.1908175,-0.10808212,-0.02479558,0.06754783,-0.4252427,-0.31693164,-0.24306296,-0.1542743,-0.065451406,-0.3250494,-0.25174814,-0.074782476,-0.0895363,-0.13435462,-0.040118527,0.006162763,-0.55634075,-0.36970362,-0.28622103,-0.17598134,-0.33184442,-0.2976025,-0.13024803,-0.017145038,-0.07830241,-0.0025714408,0.055011112,-0.40044436,-0.48338228,-0.079374775,-0.0826407,-0.20985791,-0.052930955,-0.12084007,0.06312854,-0.017025806,0.040426772,-0.50230825,-0.42577857,-0.41116458,-0.14843544,-0.007438932,-0.10296544,0.030176673,-0.25042564,-0.04559684,-0.093711846,-0.34949064,-0.9239695,-1.103365,-0.468572,-0.2738315,-0.19135186,-0.5269941,-0.10439358,-0.124539316,-0.24206527,0.15834539,-0.5212801,-0.035070147,-0.91315025,-0.9845602,-0.016813183,-0.27779716,-0.19944447,-0.29679173,-0.401878,0.13982171,-0.5678669,-0.08216726,-0.0013148141,-0.010852416,-0.22528191,-0.60463214,-0.44731212,-0.18854003,-0.16355473,-0.56963575,-0.70226705,-0.028101612,-0.040485464,-2.0489683,0.015762735,-0.28762138,-0.3118006,-0.04038312,-0.030630594,-0.0015968828,-0.026998723,0.0017923221,0.107759684,0.17930876,-0.0464428,-0.15860437,-0.17588098,-0.30514774,-0.45194227,-0.025692878,-0.050350428,-0.0056950375,0.04130618,0.031555623,0.124608316,0.009516405,-0.22468346,-0.14336522,-0.527877,-0.11547525,-0.09166237,-0.067586794,-0.058703978,-0.03862116,0.34742317,0.011301658,0.06532903,-0.014782717,-0.39406994,-0.08111954,-0.0756825,-0.021610275,-0.02052158,-0.015680872,0.0008893619,0.010902914,0.043448724,0.004767416,-0.019462612,-0.07095545,-0.07052678,-0.039384462,-0.007393566,0.026230576,0.006395169,0.011147193,0.001434955,0.018542519,0.0043845503,-0.018968487,-0.11254948,-0.086134784,-0.024859339,0.078412235,-0.010341803,0.045403432,-0.025968583,0.0048736585,-0.012425561,-0.0027601568,0.006790398,-0.07765386,-0.038775105,0.030689891,-0.021051671,0.002842444,0.016680004,-0.029503668,-0.025754267,-0.024151819,-0.0010041738,0.03542059,-0.008269012,-0.03735416,0.04720011,-0.0063339137,-0.0051567894,-0.024319038,-0.05151537,-0.032497104,-0.06456,-0.046322823,0.097596586,0.013142804,0.21803176,0.024151437,0.00034305456,-0.01702656,-0.014978998,-0.024908902,-0.10530384,-0.0012043591,-0.084791645,0.087779984,0.01978534,-0.038124047,-0.0026986233,-0.0634615,-0.028917916,-0.050240457,-0.039909963,-0.019256514,-0.07564577,-0.045164745,0.01792161,0.009156591,0.046748158,0.011432825,-0.0069972025,-0.003210281,0.01762416,-0.0057925326,-0.036312763,0.004491036,0.00093514024,-0.011368779,-0.107685,0.069916375,0.20290114,0.256688,0.08586723,0.04546638,0.023051118,0.04749277,0.20967856,0.047247864,-0.28565535,0.14547007,-0.0070067323,0.13210416,0.04974203,0.07781487,0.11822179,0.0637388,0.08482811,-0.020399729,0.18334228,0.060927935,0.11160313,0.16662323,0.0041777934,0.044979777,0.06978907,0.043799426,0.031683844,0.055010363,0.20248927,0.08165471,0.050410062,0.12599304,0.04030622,0.04909665,0.06521962,0.013316328,0.025671484,0.0047693006,0.047095362,0.026058456,0.04090506,0.09309921,0.06213317,0.036104165,0.031431578,0.025064042,0.014703962,0.011064573,0.011936984,0.024342097,0.072037615,0.07359672,0.13579567,0.088470615,0.101464815,0.04600591,0.01414569,-0.0035983943,-0.0051623285,0.006345048,0.018549275,0.06896435,0.11066784,0.017921586,0.06595917,0.09128102,0.044188377,0.027780226,0.012802334,0.0051308963,0.055278305,0.013515906,0.026173323,-0.0015885808,-0.048442326,0.062170435,0.08674647,0.0005412905,0.029890137,0.01780527,0.043616682,0.03715354,-0.0009946075,0.0217517,0.039544884,-0.017398011,-0.0015500573,0.042213336,0.043707605,0.048579834,0.014026787,0.01927671,0.021863526,0.03730244,0.036653813,0.05251165,0.14435211,0.0006145437,0.0740537,0.022805788,0.024152523,0.0037297634,0.037488673,0.04616279,0.021421507,0.12592757,0.04846883,0.015187626,0.30526608,0.15004554,0.016546797,-0.027537944,0.18092711,0.06404503,0.0874405,-0.016425112,-0.08068733,-0.03628654,-0.6774837,0.9514057,-0.10716889,-0.21024154,-0.21408655,-0.050006073,-0.22698893,-0.06607606,0.48094785,0.96059895,-0.64822686,0.8376859,-0.46323085,-0.2038138,-0.48964426,-0.37022075,-0.349568,-0.2760729,-0.21250401,0.4808373,0.21499151,0.9239529,-0.029943766,-0.26421836,-0.3035623,-0.2301619,-0.28733093,-0.3754215,-0.23864067,-0.2013418,-0.21574202,0.47152886,0.40014365,-0.23127505,-0.3732885,-0.22086744,-0.2326454,-0.23843487,-0.3459271,-0.31266505,-0.13848118,-0.095613524,-0.21169233,0.2767365,-0.25262195,-0.3705002,-0.33608946,-0.17457072,-0.14600925,-0.33585605,-0.1807891,-0.25293702,-0.24270457,-0.25898814,0.079124734,-0.049221467,-0.2694324,-0.31523398,-0.29466617,-0.31235,-0.40342957,-0.24145457,-0.29914916,-0.31880072,-0.28547865,0.06491193,0.06228641,-0.21220092,-0.24631456,-0.09548192,-0.25119552,-0.2715862,-0.28532737,-0.21875568,-0.09443568,-0.2183874,-0.05441292,0.14517169,-0.23235779,-0.15786327,-0.2350399,-0.19517872,-0.25351024,-0.17588827,-0.14085157,-0.15838468,-0.3275479,-0.081338614,0.44694188,0.4199901,-0.18945397,-0.40745538,-0.26336107,-0.34588218,-0.24429263,-0.2895138,-0.1399903,-0.35654366,0.28561676,1.0484859,0.2792336,0.3719738,-0.35897133,-0.25471777,-0.33322287,-0.2451826,-0.207726,-0.40267423,-0.30661762,0.98272896,-0.71469957,1.0305188,0.7247988,0.28735957,-0.12659808,-0.12444743,-0.13588649,-0.29007897,-0.19606559,0.92228705,-0.61529815,1.4290273,0.018708853,-0.16252512,-0.18503623,-0.01946185,0.0024628264,-0.011134172,-0.00048378156,-0.0044643083,-0.08078962,-0.025648152,-0.04648748,-0.12450945,-0.14736955,-0.2727955,-0.30058408,-0.0416035,-0.05816043,-0.050284225,-0.13426776,-0.07548331,-0.118232936,-0.012785648,-0.08803726,-0.17263256,-0.55022377,-0.056857266,-0.040588833,-0.04153535,-0.013173943,-0.040351864,-0.26860353,-0.07054249,-0.051767945,0.02179103,-0.3021016,-0.05075682,-0.012420989,-0.00017231113,0.0071956827,0.021772789,-0.019630147,0.011296167,-0.058232065,0.005899331,0.0075474787,-0.052971784,-0.012977605,-0.0143727185,0.07075606,0.049832013,0.07217078,0.011762207,0.006436373,0.004927252,-0.0023576112,0.007031834,-0.061568458,-0.022292657,0.04035795,0.047072716,0.006560147,0.017817415,0.055708,0.0151225915,-0.016400646,0.026518868,0.010211633,-0.072368406,-0.01604044,0.0092366915,0.071831174,0.06564984,0.045294132,0.016527183,0.025879022,0.031928137,0.026829869,0.026474992,-0.13216013,-0.032186527,0.0218225,0.05413724,0.07862612,0.06540679,0.07676251,0.05446588,0.07064851,0.05629769,-0.029073404,-0.05851251,-0.16860454,-0.007819243,0.041637316,0.04536066,0.035377838,0.034893584,0.09911069,0.045264006,0.09472645,-0.03780689,-0.15769269,-0.023071868,-0.021487772,0.019050231,0.014868003,0.03980913,0.07871222,0.04029383,0.071300544,0.050352197,0.019964742,-0.008355158,-0.10316899,0.011857517,0.028595004,0.01768189,0.039846294,0.0064824834,0.0578776,-0.0029404885,0.014439683,0.035757445,-0.14773782,-0.062011335,0.030756606,0.063016385,-0.0062983087,0.003671732,0.063338436,0.0019290042,-0.0886063,-0.0066309334,-0.21218137,0.08573588,0.008873864,0.20108408,0.046643153,0.036482267,0.065172926,0.073470354,0.06456408,0.12741382,-0.023574987,-0.007861556,0.14002664,0.12083282,0.05265625,0.09333151,0.04457032,0.0786496,0.06480625,-0.02095797,-0.064539544,0.10485218,0.121689156,0.14550857,0.0749396,0.10958276,0.086812854,0.08877032,0.096429154,0.0884906,0.019125665,0.08917054,0.11197528,0.2031504,0.121851504,0.08894567,0.077096224,0.05138195,0.02917663,0.051293574,0.065301605,0.056183416,0.0028624784,-0.00627683,0.043763507,0.031907815,0.09024436,0.115193754,0.040194478,0.04354202,0.015903581,0.064282715,0.044173572,0.0015252364,0.12863997,0.063411914,0.072826505,0.10889318,0.06702282,0.04847319,0.010161289,0.045104716,0.03433298,0.032279406,0.016755523,0.049925826,0.10677372,0.1288304,0.118594594,0.09154458,0.057846032,0.063515685,0.040616933,0.019971935,0.05016838,-0.006548233,-0.009159768,0.115365975,0.054547336,0.10798994,0.065710306,0.040604554,0.03221899,0.015446164,0.06646658,0.015112377,-0.047892477,-0.0013913622,-0.00037466234,0.044626176,0.06042639,0.04043056,0.05074292,0.0020167404,0.03060607,-0.018232927,0.016980587,-0.051793125,0.023736998,0.005387241,-0.25370085,0.08839436,0.15624262,-0.0015927816,0.048016835,0.01962615,-0.018469794,0.09738706,0.027807515,0.04792471,-0.60766464,1.3058096,-0.68522406,-0.2966092,0.092642605,0.06476487,0.08193346,-0.22277763,-0.30861735,1.3078647,-0.6258474,1.1374997,0.16006847,-0.8740122,0.15594599,0.302109,0.302389,0.37284258,0.16077682,-0.4707257,-0.110381715,1.2587517,-0.09615941,-0.6759388,0.07241737,0.19157493,0.38305902,0.42266223,0.4156822,0.29029933,0.26606745,-0.3855001,0.16559628,-0.35813272,-0.093782574,0.14107631,0.34435296,0.41597757,0.4423757,0.4550314,0.36958426,0.12656203,0.3970263,-0.045709718,-0.05519037,0.18092498,0.28151858,0.36185074,0.2381373,0.3774368,0.34254932,0.32682467,0.1951636,0.4079432,0.11175162,0.1305143,0.24908489,0.22637446,0.39934644,0.3568578,0.43647683,0.33314604,0.42444852,0.3170434,0.38142166,0.06290109,0.055673037,0.17913504,0.2363187,0.301808,0.32207742,0.38472116,0.4481498,0.3428876,0.25467402,0.41806263,0.23171914,-0.1952675,0.3240775,0.15401988,0.3361627,0.27358395,0.35381788,0.3618423,0.3094911,0.30189788,0.3775098,0.37555844,-0.50600564,-0.5183648,0.13256563,0.43659243,0.27927396,0.4921875,0.24310124,0.34620786,0.2542973,0.5097081,0.687243,1.5539361,-0.28676614,-0.5414821,0.41152033,0.4137751,0.46267614,0.4540286,0.19189534,0.32229722,0.33719304,1.3480988,-0.5479516,1.4442888,0.93169624,-0.19788101,-0.12134314,0.28176475,0.20145041,0.3456314,-0.046387717,1.2813596,-0.6271087,1.4863538,0.027400859,-0.06740731,-0.14218542,-0.021929348,-0.017912002,-0.024726702,-0.015638774,-0.044410583,-0.00074559933,-0.012752205,-0.031962086,-0.036010686,-0.19495714,-0.18470678,-0.19803476,-0.08420673,-0.063961565,-0.0545516,-0.035369076,-0.046076227,-0.05573121,-0.022244746,-0.038214758,-0.12826078,-0.22975162,-0.07408388,-0.067057915,-0.020899208,-0.052495606,-0.052056484,-0.047422998,-0.05068491,-0.01955645,0.02588822,-0.18991199,-0.036332436,-0.047317743,-0.011141809,-0.0305659,-0.018582573,-0.036994547,-0.038962275,-0.050438516,-0.03151529,-0.010418676,-0.12570928,-0.06663629,-0.05189299,-0.012494802,-0.004732179,-0.013979179,-0.015057626,-0.035077788,-0.03293235,-0.018577147,-0.006158492,-0.111890644,-0.065645345,-0.018886957,-0.01927908,0.0328375,-0.012126319,-0.022279104,-0.046613347,-0.036306925,-0.016366035,-0.023640662,-0.15117878,-0.08311281,-0.03472499,-0.045395926,0.015398444,-0.013655647,-0.021808168,-0.03884639,-0.030651648,-0.02728569,-0.024303671,-0.16953224,-0.07740728,-0.05964749,-0.027230106,-0.012416318,-0.0257653,-0.03010035,-0.04294894,-0.043302283,-0.016267763,-0.069430195,-0.13340671,-0.146,-0.06875218,-0.051964022,-0.049308356,-0.028411962,-0.040038764,-0.046458934,-0.05604596,0.0016373006,-0.034428343,-0.13128029,-0.083846666,-0.07476705,-0.045933433,-0.049540564,-0.041410707,-0.04684286,-0.08307931,-0.032884378,-0.040989492,0.015866863,-0.09506336,-0.071880154,-0.029033493,-0.024175853,-0.00887957,-0.011256765,-0.014204157,-0.00011761086,-0.039195865,-0.0011763858,-0.0037746767,0.10564737,0.04106213,0.04339877,0.14104387,0.008943502,0.019511098,0.02818201,0.037615456,0.01703005,-0.045351036,0.038044933,0.15468894,0.13203922,0.22597289,0.06961527,0.09900202,0.062491603,0.04727532,0.009454455,0.03910063,-0.011536881,0.010655718,0.20484312,0.10586582,0.03888393,0.06295466,0.05304708,0.046004876,0.081089325,0.030531643,0.022756983,0.05949425,0.10187849,0.15054351,0.040558454,0.07584847,0.049734373,0.050608356,0.049487215,0.054470174,0.036413725,0.056257,0.050160393,0.1246836,0.0634405,0.06558614,0.04841364,0.033841584,0.026424957,0.027636701,0.04035537,0.031609133,0.04514514,0.07432614,0.050642285,0.0889369,0.03572327,0.044168517,0.042670056,-0.018646121,0.023236502,0.013490291,0.016890757,0.047534645,0.05001179,0.053092554,0.08249421,0.06863052,0.047002412,0.040551733,0.028312044,0.026332395,0.040242467,0.019579634,0.030919645,0.030075476,0.033775315,0.049988504,0.08700515,0.049189392,0.043202072,0.027167218,0.016325168,0.027248891,0.027204404,0.05073534,0.03268571,0.0347621,0.018211575,0.06630808,0.056935567,0.019256007,0.011707692,0.022276368,0.04511341,0.03873629,0.05585223,0.015783057,-0.019190788,0.04147726,0.029478388,0.038974836,0.025621776,0.021598304,0.05448624,0.039567504,0.030081237,0.050219804,0.08639019,-0.019101227,-0.013336017,0.04695102,0.09264099,0.05277669,0.09369928,0.0045617446,0.048711132,0.031733982,0.058524407,0.004142643,2.6757476,2.6832292,0.80060047,1.1185048,1.2463461,1.1735752,1.2994514,1.0709262,0.88111967,2.6640685,2.6278255,2.6410224,1.0731165,0.96459126,0.9036405,0.9756435,0.99954236,1.0029578,0.95219374,0.8753265,1.1227989,2.652825,1.0456401,0.9201923,1.1031898,1.136215,1.1279122,1.113491,1.0864438,1.0199547,1.03116,0.994112,1.561483,1.367778,0.9792297,1.0523623,1.0771917,1.097856,1.0395643,1.1285144,1.0350308,1.0098917,1.040124,1.0286891,1.2278581,1.0295446,1.1657908,1.1439613,1.136589,0.9352907,1.1140587,1.1197672,1.0552578,1.0537628,1.1987587,1.2942369,0.97982824,1.0060858,1.0780876,1.0220298,1.0858713,1.0109632,1.0337156,1.0735588,1.0628463,1.2071462,1.4528335,1.0788795,1.1287949,1.1445377,1.1329594,1.0037383,1.1681911,1.0467609,1.1123757,1.0761771,1.2280028,1.214869,1.0044492,1.137451,1.0831336,1.1398402,1.0983826,1.2488065,1.2268369,1.086124,1.1391929,0.9642661,1.0945017,1.0761765,1.0395178,1.1450615,1.0977067,1.0434749,1.1559987,1.0790828,0.9841892,1.0118501,1.812147,2.7697012,1.0788465,1.0810837,1.0335494,1.0224389,1.0807906,1.0325284,1.0192752,1.0407066,1.0708512,2.6603417,2.6626368,2.6978388,2.3004887,1.0715828,0.9878662,1.0612961,1.0410078,1.1653626,0.9670337,2.628782,2.598985,-2.3343198
